<?xml version="1.0"?>
<MethodSetup Method="MLP::MLP">
  <GeneralInfo>
    <Info name="TMVA Release" value="4.1.4 [262404]"/>
    <Info name="ROOT Release" value="5.34/05 [336389]"/>
    <Info name="Creator" value="clester"/>
    <Info name="Date" value="Tue Mar 18 10:13:26 2014"/>
    <Info name="Host" value="Darwin pb-d-128-141-154-76.cern.ch 12.2.1 Darwin Kernel Version 12.2.1: Thu Oct 18 16:32:48 PDT 2012; root:xnu-2050.20.9~2/RELEASE_X86_64 x86_64"/>
    <Info name="Dir" value="/Users/clester/marchMadnessChallenge"/>
    <Info name="Training events" value="1092"/>
    <Info name="TrainingTime" value="8.49733982e+01"/>
    <Info name="AnalysisType" value="Regression"/>
  </GeneralInfo>
  <Options>
    <Option name="NCycles" modified="Yes">6000</Option>
    <Option name="HiddenLayers" modified="Yes">N+5</Option>
    <Option name="NeuronType" modified="Yes">tanh</Option>
    <Option name="RandomSeed" modified="No">1</Option>
    <Option name="EstimatorType" modified="No">MSE</Option>
    <Option name="NeuronInputType" modified="No">sum</Option>
    <Option name="V" modified="Yes">False</Option>
    <Option name="VerbosityLevel" modified="No">Default</Option>
    <Option name="VarTransform" modified="Yes">Norm</Option>
    <Option name="H" modified="Yes">False</Option>
    <Option name="CreateMVAPdfs" modified="No">False</Option>
    <Option name="IgnoreNegWeightsInTraining" modified="No">False</Option>
    <Option name="TrainingMethod" modified="No">BP</Option>
    <Option name="LearningRate" modified="No">2.000000e-02</Option>
    <Option name="DecayRate" modified="No">1.000000e-02</Option>
    <Option name="TestRate" modified="Yes">6</Option>
    <Option name="EpochMonitoring" modified="No">False</Option>
    <Option name="Sampling" modified="No">1.000000e+00</Option>
    <Option name="SamplingEpoch" modified="No">1.000000e+00</Option>
    <Option name="SamplingImportance" modified="No">1.000000e+00</Option>
    <Option name="SamplingTraining" modified="No">True</Option>
    <Option name="SamplingTesting" modified="No">False</Option>
    <Option name="ResetStep" modified="No">50</Option>
    <Option name="Tau" modified="No">3.000000e+00</Option>
    <Option name="BPMode" modified="No">sequential</Option>
    <Option name="BatchSize" modified="No">-1</Option>
    <Option name="ConvergenceImprove" modified="No">1.000000e-30</Option>
    <Option name="ConvergenceTests" modified="No">-1</Option>
    <Option name="UseRegulator" modified="Yes">True</Option>
    <Option name="UpdateLimit" modified="No">10000</Option>
    <Option name="CalculateErrors" modified="No">False</Option>
    <Option name="WeightRange" modified="No">1.000000e+00</Option>
  </Options>
  <Variables NVar="4">
    <Variable VarIndex="0" Expression="seed_prob" Label="seed_prob" Title="seed_prob" Unit="" Internal="seed_prob" Type="F" Min="0.00000000e+00" Max="1.00000000e+00"/>
    <Variable VarIndex="1" Expression="winfrac1-winfrac2" Label="winfrac1-winfrac2" Title="winfrac1-winfrac2" Unit="" Internal="winfrac1_M_winfrac2" Type="F" Min="-5.04464269e-01" Max="6.11607134e-01"/>
    <Variable VarIndex="2" Expression="avg_scorediff1-avg_scorediff2" Label="avg_scorediff1-avg_scorediff2" Title="avg_scorediff1-avg_scorediff2" Unit="" Internal="avg_scorediff1_M_avg_scorediff2" Type="F" Min="-2.33035717e+01" Max="2.90575752e+01"/>
    <Variable VarIndex="3" Expression="avg_score_against1-avg_score_against2" Label="avg_score_against1-avg_score_against2" Title="avg_score_against1-avg_score_against2" Unit="" Internal="avg_score_against1_M_avg_score_against2" Type="F" Min="-2.50357170e+01" Max="2.12218971e+01"/>
  </Variables>
  <Spectators NSpec="1">
    <Spectator SpecIndex="0" Expression="season" Label="season" Title="season" Unit="" Internal="season" Type="F" Min="6.50000000e+01" Max="8.20000000e+01"/>
  </Spectators>
  <Classes NClass="1">
    <Class Name="Regression" Index="0"/>
  </Classes>
  <Targets NTrgt="1">
    <Target TargetIndex="0" Expression="game_outcome" Label="game_outcome" Title="game_outcome" Unit="" Internal="game_outcome" Type="F" Min="0.00000000e+00" Max="1.00000000e+00"/>
  </Targets>
  <Transformations NTransformations="1">
    <Transform Name="Normalize">
      <Selection>
        <Input NInputs="5">
          <Input Type="Variable" Label="seed_prob" Expression="seed_prob"/>
          <Input Type="Variable" Label="winfrac1-winfrac2" Expression="winfrac1-winfrac2"/>
          <Input Type="Variable" Label="avg_scorediff1-avg_scorediff2" Expression="avg_scorediff1-avg_scorediff2"/>
          <Input Type="Variable" Label="avg_score_against1-avg_score_against2" Expression="avg_score_against1-avg_score_against2"/>
          <Input Type="Target" Label="game_outcome" Expression="game_outcome"/>
        </Input>
        <Output NOutputs="5">
          <Output Type="Variable" Label="seed_prob" Expression="seed_prob"/>
          <Output Type="Variable" Label="winfrac1-winfrac2" Expression="winfrac1-winfrac2"/>
          <Output Type="Variable" Label="avg_scorediff1-avg_scorediff2" Expression="avg_scorediff1-avg_scorediff2"/>
          <Output Type="Variable" Label="avg_score_against1-avg_score_against2" Expression="avg_score_against1-avg_score_against2"/>
          <Output Type="Target" Label="game_outcome" Expression="game_outcome"/>
        </Output>
      </Selection>
      <Class ClassIndex="0">
        <Ranges>
          <Range Index="0" Min="0.0000000000000000e+00" Max="1.0000000000000000e+00"/>
          <Range Index="1" Min="-5.0446426868438721e-01" Max="6.1160713434219360e-01"/>
          <Range Index="2" Min="-2.3303571701049805e+01" Max="2.9057575225830078e+01"/>
          <Range Index="3" Min="-2.5035717010498047e+01" Max="2.1221897125244141e+01"/>
          <Range Index="4" Min="0.0000000000000000e+00" Max="1.0000000000000000e+00"/>
        </Ranges>
      </Class>
    </Transform>
  </Transformations>
  <MVAPdfs/>
  <Weights>
    <Layout NLayers="3">
      <Layer Index="0" NNeurons="5">
        <Neuron NSynapses="9">
          -6.5403894683043307e-01 1.0937777061293690e+00 6.1634129415842753e-01 8.5989667812642656e-01 -1.0575294568869884e+00 1.8000556657156436e-01 6.1389153246204996e-02 2.1481214714468888e+00 -8.5273163899716620e-01 
        </Neuron>
        <Neuron NSynapses="9">
          -6.7531872510664359e-01 -1.8145451665147283e+00 -9.8061715200558874e-01 -1.0009792893406710e+00 -1.2257482190328076e-01 -6.1585942270599947e-01 4.7487012744343238e-01 -4.3821885711458353e-01 1.4535928297299026e+00 
        </Neuron>
        <Neuron NSynapses="9">
          -4.6807518829914135e-01 1.2546440076199770e+00 1.0072195638193341e-02 -4.3102404831888547e-01 1.0637223022686662e+00 7.1347584884812099e-01 -7.3045717849785796e-01 -2.4795835532398458e-01 1.2589656516367989e+00 
        </Neuron>
        <Neuron NSynapses="9">
          -1.5546326059192610e+00 -1.4501511471562356e+00 3.6837599920800113e-01 -7.6077246690940226e-01 9.4566286897012353e-01 -2.9655773649178485e-01 -8.5062973580334267e-02 -2.8034991259014275e-01 -6.9436062629998407e-01 
        </Neuron>
        <Neuron NSynapses="9">
          -3.9073162681478385e-01 5.2017853859961061e-01 -4.0085204715107320e-01 5.3585040647429605e-01 -1.9484756532847380e-02 6.9931680527321821e-02 2.3739850924464521e+00 3.6507605808579313e-01 -4.6848358391983126e-02 
        </Neuron>
      </Layer>
      <Layer Index="1" NNeurons="10">
        <Neuron NSynapses="1">
          -5.1734938116852625e-01 
        </Neuron>
        <Neuron NSynapses="1">
          1.5602197683546032e-01 
        </Neuron>
        <Neuron NSynapses="1">
          3.7620842565402374e-01 
        </Neuron>
        <Neuron NSynapses="1">
          5.0842523649431659e-01 
        </Neuron>
        <Neuron NSynapses="1">
          -9.7184772567199401e-02 
        </Neuron>
        <Neuron NSynapses="1">
          7.9519235555167669e-02 
        </Neuron>
        <Neuron NSynapses="1">
          1.5034946969702982e+00 
        </Neuron>
        <Neuron NSynapses="1">
          -2.7669288908325812e-01 
        </Neuron>
        <Neuron NSynapses="1">
          3.4295670326939104e-01 
        </Neuron>
        <Neuron NSynapses="1">
          -1.1996751739901310e+00 
        </Neuron>
      </Layer>
      <Layer Index="2" NNeurons="1">
        <Neuron NSynapses="0"/>
      </Layer>
    </Layout>
    <InverseHessian NElements="3025" NRows="55" NCols="55">
      <Row Index="0">
        3.8363652641851207e+00 -1.1705326039283350e+00 -2.8690397692245768e+00 -8.2575065216526111e-01 -3.3468962558978825e+00 -4.5769084893619578e+01 -3.9976738220972180e+01 1.7499073318998248e+00 -1.1673044763345994e+00 1.6240728608965332e-01 3.0412106982499001e+00 4.8698370143185645e+00 4.0234204958259792e+00 -1.1860420028327555e+01 7.4026184011995525e+01 -4.2755959899756322e+00 -9.5561081753909427e-01 2.1172451823506266e+00 -7.6140058901070407e-01 8.9644147125944151e-01 2.4287050316679561e+00 8.0881175609216704e-01 5.3760959521711094e+00 -7.7907347864746640e+01 5.6024524359179821e+01 -1.9032550812872131e+00 2.0245423060307157e+00 1.6709686787355049e+00 1.3529627731220177e+00 -4.0124838533304352e-01 1.7475223090596161e+00 5.1836300200430809e+00 2.8162009100174661e+00 5.1043332258253159e+01 -3.9455399644518945e+00 -2.9012270341605451e-01 1.3973782547124750e-01 2.8891704926183770e-01 -1.4641599239394942e-01 -3.1738185035693687e+00 -5.5699983305622993e+00 -8.0237861913606878e+01 -1.1986703194370426e+02 6.6251667052977092e-01 -1.1966325492744345e-01 -1.3680219079584977e+00 6.4441456529829599e-01 2.9099457237141131e+00 3.4587676802471581e+00 2.3563836127439615e+00 1.3484618777453919e+01 2.7023292637848066e+01 5.1885301199891098e-01 -1.1637841385430017e+00 -1.5646104483242720e+01 
      </Row>
      <Row Index="1">
        -1.1705326042122017e+00 3.3520294893724719e+02 3.4073851699158752e+01 2.6990497623560699e+01 5.8721066979462762e+01 1.7368287641827769e+03 7.9212031518421259e+02 3.3969902894371415e+00 2.1611667580986818e+01 3.7313877530786348e+00 -4.3409117955559833e+02 -5.0093410478445264e+01 -6.8980425701049768e+01 1.2549786516638758e+02 -3.0296438607152977e+03 1.0103254495232586e+02 -1.7578892080149409e+01 -4.4011805945118638e+01 -8.3849636291061440e+00 2.2537217878540815e+02 -2.8506124941683893e+01 2.7282258043778938e+01 -8.2716435005532219e+01 1.6545331884415598e+03 -1.1839275442380056e+03 1.7983247350210654e+01 -1.0296737077201088e+01 2.1509115309110536e+00 -3.8555038531714393e+02 7.3912082674670671e+01 -5.7340654695107915e+01 -2.9308045333579042e+01 -1.5996350436634057e+03 -7.8366324775075805e+02 -4.3302758539144657e+00 -7.5822112709076270e+00 3.7793128299013934e-01 1.1266411147609242e+02 1.7612921284563896e+00 1.9845293389425194e+01 3.8328987663104819e+01 2.0993217671396224e+03 2.4515385490448366e+03 1.5161689364042059e+00 -5.7254852313347993e-01 1.7172606055008557e+00 -1.1233390183064515e+02 -8.8886069641867707e+01 -5.6148165226010562e+01 -2.9089688861195867e+01 -2.2739160493904689e+02 -5.3698842974203933e+02 -8.7103288825855962e-01 1.3262227766696595e+01 2.8304829781715029e+02 
      </Row>
      <Row Index="2">
        -2.8690397695587162e+00 3.4073851704038553e+01 1.0993246466201337e+02 1.6442824314130267e+01 -3.1079615803613105e+01 7.7069466732993214e+02 2.0165888612164338e+02 -3.9487038494168636e+00 1.2296648178536238e+01 9.6599638582145371e+00 -3.3982338274376460e+01 -1.2586094068357211e+02 -7.7061016849190445e-01 7.4193038096790360e+01 -1.1062194975126524e+03 3.3547594125849048e+02 -1.7066379972490406e+01 -4.4851551422711331e+01 -1.4851217586097438e+00 2.6300305308267568e+01 -5.2787330060251556e+01 -1.9169012250123387e+01 -7.3536565291250238e+00 -3.0188138235654996e+01 -7.8578267432737130e+02 8.8387007865772667e+00 2.0136430409476791e+01 3.9228508738208543e+00 -6.8723378138951645e+01 5.0608594287566945e+01 -8.1535890754788216e+00 1.9733637225810220e+01 -3.8644652025288551e+01 -7.0405587117226219e+01 4.6013239996277910e+00 -3.3972263665361879e-02 3.5259380087041736e-01 2.3925901936660289e+01 -5.2391605673814993e+01 1.4100659443848070e+01 3.4323225093608684e+01 2.2236673737046385e+02 1.1242903751707217e+03 -3.2676730117962727e+00 3.1248170293218598e+00 -2.2890719404729345e+00 -1.6648305779783893e+01 -1.2825284070518882e+02 -9.8526321494074303e+00 -3.0644206881048319e-01 -3.3188427228780498e+01 -2.6534036150463925e+02 -2.5934263064544325e+00 6.6477581430242996e+00 1.6225677752391181e+02 
      </Row>
      <Row Index="3">
        -8.2575065182266405e-01 2.6990497616139457e+01 1.6442824311028478e+01 6.0901491573638801e+01 6.2006860257530349e+01 3.4532152624522837e+02 2.1978130290710135e+02 1.0379687512786906e+00 1.3409079814867736e+01 -2.1535304185844391e+00 -4.1564216392907269e+01 -1.6655279620116186e+01 -8.3332013085769034e+01 9.1872716078171763e+01 -7.8179554336958745e+02 -5.4144396982913804e+02 -4.2986770543451778e+00 -2.8637461631408740e+01 3.0812321381849195e+00 3.5448717527742104e+01 -1.9012339784276552e+01 -1.7166712760112603e+01 -6.1494012058455269e+01 2.2587657661582617e+02 3.9651417508298704e+02 -5.2645719042940193e+00 -1.8317405350873761e+00 -1.0991646564676361e+00 -5.4417935268396533e+01 1.8484885319496851e+01 -4.6249775278319689e+01 -5.7251253524221610e+01 -1.0580529688493138e+02 -2.3896305489583750e+02 1.8996890515506923e+00 -1.7695014906877304e-01 -4.1499853509587659e-01 8.2476876325101678e+00 -8.5596635460830957e+00 2.7909347693071904e+01 1.7921144544166758e+01 5.8724480633966664e+02 -2.3250510803766633e+02 -3.3379712300080211e-01 6.5352967428878639e-02 7.4273708376168524e-01 -1.5971422526067045e+01 -2.6701040338176654e+01 -7.0693619488593257e+01 -2.2807632086204535e+01 -1.0598736110445472e+01 6.6267344275466897e+01 -6.5151630503805791e-03 7.5614834101833175e+00 -7.4103964802519315e+01 
      </Row>
      <Row Index="4">
        -3.3468962543216687e+00 5.8721066945925493e+01 -3.1079615817234327e+01 6.2006860258314859e+01 1.2346538084186516e+03 -6.2740510451656473e+02 7.0076697100975889e+02 -2.1962917852265036e+01 2.3521540529159331e+01 -1.1284361384789898e+01 -7.6292861732234982e+01 -3.4092993060150540e+01 -2.0333943850180106e+02 4.5552741672023166e+02 -3.2650722508364156e+03 -2.7450815861051419e+03 1.3677816885811065e+01 -1.1115063876712490e+01 1.5264476102838554e+01 -2.9315387814718328e+01 -2.0351373304560703e+01 5.6676896776683861e+01 -1.4276435470576305e+03 5.0236869735283626e+03 2.8496677625320353e+03 9.9965707725173285e+00 -5.2907194591735831e+01 1.4575968714820742e+00 -8.9802125482621591e+01 6.7484432931332861e+01 -2.0290956831762088e+01 -9.3406890609637730e+02 5.3421761666307873e+02 -1.0704811446954941e+03 2.4576371251323700e+01 4.0842509671186917e+00 -1.5879669698962893e+00 -4.0221919086223927e+00 -2.1157102586346106e+00 2.0770677427200830e+01 -5.1041426343897768e+01 2.2522522869929930e+03 -2.4483440070427910e+03 1.2671241468207935e+01 7.3709388195943859e+00 1.4717188229368880e+00 -2.0978606883745101e+01 -1.0921297025437857e+01 -1.3481852903352564e+02 -2.5629438964985081e+02 -3.2526212058825820e+02 2.7662811355793838e+02 1.0746697089500215e+00 1.7223907077344773e+01 -2.4568551517783004e+02 
      </Row>
      <Row Index="5">
        -4.5769084904441556e+01 1.7368287643332737e+03 7.7069466732698777e+02 3.4532152634144364e+02 -6.2740510407512159e+02 2.0788824228865513e+04 7.7305469602990643e+03 -8.0221991318496293e+01 3.2815391859498038e+02 9.5892145425278983e+00 -2.1255693656766089e+03 -1.0392821804664727e+03 -5.0285188146077377e+02 -5.7909037258358262e+02 -2.2843990307184791e+04 1.2283163110543715e+04 -2.7283296527692322e+01 -8.1745209094136294e+02 -3.7001727665322434e+01 1.1558507793557858e+03 -4.7834399527385204e+02 -1.6064211248566971e+02 2.4275140358101439e+03 -4.1717042322628527e+02 -2.7729564393625125e+04 7.8802967145281031e+01 6.8758366774421198e+00 -1.7114854458491919e+01 -2.3229018091215235e+03 8.5934744360009529e+02 -4.4249979222878773e+02 3.9681601576115088e+02 -1.3392273378432716e+04 -7.5083863335187425e+03 6.7089380829972825e+01 1.5820081085234051e+01 -5.8246473717964955e+00 7.3603414730912664e+02 -3.2471582932740682e+02 1.8349181142578155e+02 3.8328958556585650e+02 1.4658697739855521e+04 4.3014139802457765e+04 7.8766706491680694e-01 1.8301397941056585e-01 2.6138115440004022e+01 -6.7903992713804291e+02 -1.3995585045844025e+03 -6.1028731851925124e+02 6.0328752315759289e+01 -1.8057959783598774e+03 -8.5862608235187618e+03 -2.3008537404914776e+01 2.0770005415408531e+02 5.2988613189981243e+03 
      </Row>
      <Row Index="6">
        -3.9976738221930880e+01 7.9212031516763557e+02 2.0165888608726618e+02 2.1978130295010180e+02 7.0076697121073153e+02 7.7305469591802876e+03 6.5605317974795116e+03 -9.7846919948280629e+01 1.6646673699875308e+02 1.1430703345633358e+01 -6.2937140767788878e+02 -2.1405215450564262e+02 -6.9508430405355455e+02 -5.4685784604299874e+02 -1.2574466819662583e+04 -1.0778413554004878e+03 2.5846506546252130e+01 -3.6459372207561262e+02 -2.9357048938168166e+01 1.1301490582690036e+01 -5.0372116037110209e+02 2.2315758515693142e+02 1.0583971579855761e+03 5.8289483137146326e+03 -7.8687685172199963e+03 4.2747461243719378e+01 -1.3479626894728489e+02 1.7206899903250417e-01 -7.5553793401359508e+02 4.7059946677588528e+02 -3.0466351864829960e+02 -6.5922797089204130e+02 -5.4890922835550209e+03 -5.6488350981357107e+03 8.2107852159202380e+01 -1.9042631833767700e+01 -3.7647600782541546e+00 1.5244633019180347e+02 5.9161477738476606e+01 1.3122830681185974e+02 3.0287573132768944e+02 1.0747897307597517e+04 1.4537010073486494e+04 1.4340568757606732e+01 5.1112476955973776e+00 1.5736493328312045e+01 -2.4214580261484662e+02 -5.3012951686088059e+02 -5.5471645302293268e+02 -1.6521549102370037e+02 -1.1912259134309015e+03 -3.3979632584589790e+03 -2.3760013090711389e+01 1.3711796795611721e+02 1.9713890838940006e+03 
      </Row>
      <Row Index="7">
        1.7499073317629683e+00 3.3969902925555808e+00 -3.9487038479522147e+00 1.0379687507807094e+00 -2.1962917853916323e+01 -8.0221991270028212e+01 -9.7846919930266310e+01 5.3419602647853658e+01 -2.3587390412381803e+00 -5.6289095629835595e+00 -1.5891141543766707e+01 6.5072619790751798e+00 1.6797502819929888e+00 -1.7869211999388881e+01 1.9782472729128688e+02 1.6891667093335485e+02 -9.9592590170154569e+00 7.6314515121448272e+00 -7.7904252731691792e-01 2.1791493180205519e+00 1.0290770573480696e+01 -1.2654687105492570e+00 6.7789237911137022e+01 -1.3748292260646073e+02 -1.0560337437134999e+02 -1.0384113095568637e+01 4.2829365787648985e+00 -1.0023752591356303e+01 -2.4838269380084743e+01 -1.0502036773416545e+01 -3.1396620091313867e+00 4.4902837622849290e+01 1.3464417693651079e+01 6.4434389833045415e+01 -2.1555193690596308e+00 -1.2149322364597808e+00 2.7507233484037508e-01 2.8653122161162545e+00 -3.0219373780568288e+00 2.0242106963835718e+00 1.8663030718137193e+01 -1.9303761264328253e+02 -1.0239576720984758e+00 4.2716557285150589e+00 4.6292542052382535e-02 4.4465421845589645e+00 -2.2665470167065642e+00 1.0188462629162487e+01 2.5830511997160617e+00 1.2439903069760533e+01 2.0074780274682112e+01 6.7489666967845725e+00 1.3938305798403841e+01 -3.8317611031873007e+00 1.0523363192405700e+01 
      </Row>
      <Row Index="8">
        -1.1673044762103575e+00 2.1611667577750332e+01 1.2296648176760819e+01 1.3409079815532806e+01 2.3521540532037669e+01 3.2815391853915708e+02 1.6646673698124781e+02 -2.3587390413092209e+00 2.0738854144777211e+01 -1.9180733052761284e-01 -1.8348494160290642e+01 -1.4034337348809432e+01 -2.0613609472809454e+01 2.5509564394398797e+01 -6.4655838154676508e+02 -2.3158369007505868e+02 6.7910028032684888e-01 -4.0548049065238374e+01 4.5916455549021928e-01 4.9550109522371661e+00 -1.4801202414072556e+01 -6.8453908219137709e+00 -1.7827706865306023e+01 1.9605085783870700e+02 5.7993713404457978e+01 -2.5239413837214753e-01 -1.2143397953905108e+01 9.0914828114552648e-02 -3.4605046490242280e+01 1.8353063932034310e+01 -1.3618259416750409e+01 -2.4643639044473712e+01 -7.8583356021856162e+01 -1.3649769188184848e+02 2.2542747593481174e+00 5.8551761872396941e+00 -4.2279533293155119e-02 9.1706432805480453e+00 -5.6428507099136809e+00 7.4576627777052602e+00 7.4718690733293851e+00 3.7088275809461891e+02 9.5682332908543344e+01 -1.1554951845185180e-01 -6.4181994789551522e-01 3.4040090394331352e-01 -9.1557675897136033e+00 -2.6672583069479980e+01 -2.5607718850745915e+01 -8.5051944701257778e+00 -2.7396386453219208e+01 -2.2333604149715590e+01 -6.5041031065120258e-01 1.1831658498010114e+01 -4.1920976448335612e+00 
      </Row>
      <Row Index="9">
        1.6240728613082911e-01 3.7313877522331147e+00 9.6599638577447884e+00 -2.1535304182820374e+00 -1.1284361383712064e+01 9.5892145262847777e+00 1.1430703340274897e+01 -5.6289095630313906e+00 -1.9180733048240961e-01 1.2892585331014180e+01 1.3956700650984310e+01 -1.0770997560154864e+01 6.8595572110607828e+00 -1.4752634379520577e+00 -7.7024292700219931e+01 3.5541426764652307e+01 -6.4969961459994030e+00 -1.5913305551419359e+00 -6.0697750982717249e+00 -1.6958248442558130e+01 -4.9027295240290689e+00 -7.1214847756647233e+00 1.2329362241840450e+01 3.8805787597093925e+01 1.2531889700573608e+01 1.0159347325004278e+01 3.7686576189413130e+00 7.5689748577064542e+00 1.1429960455231274e+01 -2.2003552142558207e+00 3.4909071530176083e+00 1.4705413622138366e+01 -3.1758572863076427e+01 3.9796491254067760e+01 1.3554953443310602e+00 6.4123910281522090e-01 8.6762138336392103e-01 -1.6812040645791821e+00 -7.9198180831309992e+00 6.9280048966725527e-01 1.0149267991758499e+01 1.7804087377585940e+01 1.7768004519891925e+00 -1.3633895095668302e-01 2.7821303867296482e-01 -3.9547381808230897e+00 3.0003675646702694e+00 -8.3767408254733571e+00 4.3619196192323653e+00 3.9133788481830347e+00 -6.9488865261196695e+00 -7.1517136937340968e+00 -1.8186143003598243e+00 -5.2893791562989700e-01 2.1627508498601600e+00 
      </Row>
      <Row Index="10">
        3.0412106996933392e+00 -4.3409117957784065e+02 -3.3982338277939512e+01 -4.1564216400733116e+01 -7.6292861767498991e+01 -2.1255693658152773e+03 -6.2937140783590644e+02 -1.5891141539224918e+01 -1.8348494165723579e+01 1.3956700649462087e+01 1.1586562780543545e+03 1.2319609069781361e+01 9.8298502862440003e+01 -6.3623466092297235e+02 2.9780535945009001e+03 -3.4055729400772645e+02 -1.9306177935444293e+01 4.7660301226782948e+01 -1.3058721891802382e+01 -1.0120009329627097e+03 -2.0337324336870188e-01 -9.8968537712053831e+01 7.4812290878934539e+02 -1.2424722656660670e+03 1.8497676278334875e+03 3.3016169479908719e+01 -1.2663831173327196e+01 2.0248518926423174e+00 7.3039720514385306e+02 -7.2054609496998381e+01 7.8941693126707406e+01 -4.0249674880096535e+01 2.0652959858366148e+03 8.9973667517855597e+02 -1.0497523810999553e+01 1.4417746214151180e+01 -8.6441679378980596e-01 -2.3730390488743814e+02 6.9664365153037036e+00 -2.2376043484712795e+01 1.7695006664374722e+02 -2.1781231337754930e+03 -3.5339483865439943e+03 4.3604994676656368e+00 4.8501716546439573e+00 -3.1280224460828947e+00 2.3026971623217332e+02 8.4627629167860846e+01 3.6467162966561048e+01 8.8731306344931767e+01 2.4415065143970079e+02 7.5843377805197997e+02 -4.0040024152681486e+00 -4.8390672500380241e+00 -4.5264761101975336e+02 
      </Row>
      <Row Index="11">
        4.8698370145641583e+00 -5.0093410481160163e+01 -1.2586094068218071e+02 -1.6655279624116904e+01 -3.4092993076812554e+01 -1.0392821804270202e+03 -2.1405215452777969e+02 6.5072619806784360e+00 -1.4034337350743646e+01 -1.0770997560586466e+01 1.2319609062297786e+01 2.3662494238621247e+02 3.2185546643860931e+01 -1.2223907310796982e+02 1.6760148066997801e+03 -3.5157842964634193e+02 2.1043899798157149e+01 3.4815773014267762e+01 7.9574182961316708e-01 1.3212127975208677e+01 -1.3628632940676709e+01 2.8974704089476404e+00 7.1603608146806380e+01 -5.2573894465454384e+02 6.8466535477299431e+02 -1.9260867976108550e+01 -1.4666616999292671e+01 -4.9129465022678334e+00 1.0146945938749143e+02 -6.5208148591797269e+01 -6.7006827483652112e+00 5.0673169708936740e+01 9.0544987288098582e+01 3.1852100852382171e+02 -4.2788768418683389e+00 -2.5110776368069310e-01 -1.3296618438324952e+00 -3.4469555556193782e+01 7.9942168710034451e+01 -1.5568471915507192e+01 -3.9688446486769408e+01 -5.0984767859027045e+02 -1.1527681388160945e+03 2.1270704929987687e+00 -5.6042040806479063e+00 1.9783841995453197e+00 2.0093369913330434e+01 1.5963593396719531e+02 1.6885896636567090e+01 1.7827101077741865e+01 1.0483422664168886e+02 2.8314960823912327e+02 3.3249605573920675e+00 -4.9942542346917023e+00 -1.6092682826720653e+02 
      </Row>
      <Row Index="12">
        4.0234204950017913e+00 -6.8980425683312433e+01 -7.7061016148072259e-01 -8.3332013085209766e+01 -2.0333943849786107e+02 -5.0285188124191035e+02 -6.9508430395003609e+02 1.6797502806956572e+00 -2.0613609470983803e+01 6.8595572117869779e+00 9.8298502845106668e+01 3.2185546634627713e+01 2.4215155363143941e+02 -1.6728728459813445e+02 1.4946704783707307e+03 1.6200391097482045e+03 -4.9850286419369576e+00 2.0555036051992019e+01 -7.4774549642493398e+00 -7.2415106318970444e+01 1.5303804043460170e+01 -9.7531507917100043e+01 1.4562648509607530e+02 -1.2644518340806394e+03 -1.0263732789238079e+03 1.3166192403805846e+01 3.1024443329141150e+01 3.0665622773077179e+00 1.1407327345868660e+02 -3.6309774528193067e+01 7.0911071948256776e+01 1.9626556616364323e+02 2.4693660035996265e+02 7.7976436035619804e+02 -2.6569190908146538e+00 1.5131219299008762e+00 -8.1014474228000211e-01 -1.2505819705860297e+01 -2.0985233974887674e+00 -4.1890054022989325e+01 3.8597585117393194e+01 -1.3390903737060808e+03 8.5117359129885313e+02 -1.5369232846264156e+00 2.4726565236925158e-01 -3.6630543404601523e+00 3.7492506159066068e+01 3.1291205224949959e+01 1.3210084264849488e+02 6.9655622379625314e+01 1.0237804371259736e+02 -1.8323355289050366e+02 1.1955407788851673e+00 -1.2860290149219539e+01 1.8467895688132603e+02 
      </Row>
      <Row Index="13">
        -1.1860420025742171e+01 1.2549786512043647e+02 7.4193038087079017e+01 9.1872716063804177e+01 4.5552741665114087e+02 -5.7909037287799538e+02 -5.4685784633962351e+02 -1.7869211990638178e+01 2.5509564383912220e+01 -1.4752634414762724e+00 -6.3623466092006856e+02 -1.2223907308869730e+02 -1.6728728456748323e+02 2.1849047766224467e+03 -3.1246923852381865e+03 -4.6506023871825137e+03 -7.6288885338821601e+01 -7.5205581473067014e+00 1.7082457642819655e+01 6.5567390897135715e+02 4.3083607504674205e+01 4.1222854816246127e+01 -2.5121609760352408e+03 4.2245823770529832e+03 6.7715135055976771e+03 1.8153519957613753e+01 -4.8121909734963424e+01 6.2058197138684115e+00 -3.1924680489407348e+02 1.8059101373151304e+01 -8.6243451390018834e+01 -3.2635296080111607e+02 1.2360333689490046e+03 3.3435625890413650e+02 -2.9511828305377321e+00 -1.2292898178283394e+01 2.2226121540825776e+00 1.5279172814389935e+02 1.4038251569372392e+01 1.2801403742361865e+02 -1.8808808498782349e+02 6.3525316461742204e+02 -8.2223675173838092e+03 -2.0103542471487771e+01 1.6760734330146239e+00 2.3021064314923221e+00 -1.1309108952641463e+02 -4.8859891656796734e+01 -1.1840731747245428e+02 -2.5946288215796596e+02 -3.5592489647056055e+01 1.4613437604915753e+03 -1.4129086622471881e+01 1.0733547939041166e+01 -1.0623116744440777e+03 
      </Row>
      <Row Index="14">
        7.4026183997830458e+01 -3.0296438603792267e+03 -1.1062194973402816e+03 -7.8179554342796018e+02 -3.2650722510726682e+03 -2.2843990301671722e+04 -1.2574466817743487e+04 1.9782472729420442e+02 -6.4655838154099195e+02 -7.7024292693867210e+01 2.9780535939997935e+03 1.6760148065111507e+03 1.4946704785331162e+03 -3.1246923862723561e+03 6.1846199370340408e+04 2.2675664106969511e+04 9.0509015459160040e+01 1.3243884176655192e+03 3.7972190407052203e+01 -1.0632218479252360e+03 6.3739324989979809e+02 -1.6038935071896321e+02 4.5082228813639595e+03 -4.1341102242705747e+04 -1.4444159629836777e+04 -2.9092202729052951e+02 2.3962851156402326e+02 -1.0329102676668420e+02 4.2081694766253959e+03 -1.7409844990310578e+03 8.1903123281041485e+02 2.6757375319693656e+03 1.0713839060370543e+04 1.2307703545256381e+04 -2.2048018125188810e+02 2.4602384690179861e+01 -8.0906356117597333e-01 -1.2115696086934174e+03 5.1985422978534280e+02 -3.7605371839615185e+02 -1.2910736025991782e+03 -3.3517260924058355e+04 3.8593622036725974e+03 7.4563515969326488e+00 -1.2709252885584597e+01 2.5665497528158419e+01 1.1672558528145455e+03 2.2791560922737317e+03 1.3399619258227440e+03 9.3486803969324410e+02 3.4329219772340748e+03 6.2104756129396060e+02 4.3312916145401061e+01 -3.7686070438980636e+02 1.2580060554501022e+03 
      </Row>
      <Row Index="15">
        -4.2755960486820612e+00 1.0103254600198125e+02 3.3547594155657157e+02 -5.4144396963438260e+02 -2.7450815851239481e+03 1.2283163120134232e+04 -1.0778413486030695e+03 1.6891667078329192e+02 -2.3158368989393330e+02 3.5541426829695411e+01 -3.4055729443876771e+02 -3.5157843011080695e+02 1.6200391093564081e+03 -4.6506023880755529e+03 2.2675664089819136e+04 7.2161040492685483e+04 2.1460698140451189e+01 2.9383421611792619e+02 -1.1414361465651313e+00 7.4495855043300580e+01 1.4502666464332603e+02 -9.3719424628825072e+02 7.4403157187002371e+03 -3.8933249679562774e+04 -9.4842268275986775e+04 -2.2791961579170311e+02 2.5794793557056801e+02 -1.8196208311094644e+01 3.6702022124851743e+02 -7.0913840451800206e+02 6.6119228798739960e+02 1.7134426483090176e+03 -1.9987281581287152e+04 -1.2570132682541494e+03 -1.2199344830465452e+02 1.6436110381124308e+02 -7.9969664570353203e+00 6.6342129416684273e+01 -2.5377385019713074e+02 -1.5838882615977576e+02 -2.1269380662042769e+02 -1.1463452535951190e+04 1.1914227477062843e+05 1.3950694878293952e+01 -9.9266832734255601e+00 1.1198674204726711e+01 1.0657494774873339e+02 1.3603909896414046e+02 9.9323212190030608e+02 8.1916552333997709e+02 -1.6076656141773594e+03 -2.6156601020274422e+04 2.0228267418235333e+01 -1.0716221590557305e+02 2.0258850134199420e+04 
      </Row>
      <Row Index="16">
        -9.5561081764801337e-01 -1.7578892078181667e+01 -1.7066379971943608e+01 -4.2986770538620744e+00 1.3677816887671302e+01 -2.7283296509663121e+01 2.5846506559279501e+01 -9.9592590172961479e+00 6.7910028070553885e-01 -6.4969961458948760e+00 -1.9306177936362815e+01 2.1043899797324627e+01 -4.9850286429018862e+00 -7.6288885340054549e+01 9.0509015426212372e+01 2.1460698138095722e+01 4.5259928831400828e+01 6.8693483589660609e-01 1.0243126046551705e+01 3.2417399606912745e+01 7.8485887248762654e-01 1.2051325387928784e+01 1.1361168230958345e+00 -3.1081115625468399e+01 -1.2668091686049883e+02 -3.4514286356864204e+01 7.6339853732169161e-01 3.1735526380784020e+00 -2.3366934475848687e+01 2.1901931738432978e+00 1.1763150752614825e+01 -4.8921680574843535e+01 -5.4537306049553237e+01 -1.1407198855431088e+02 6.0024688617762987e+00 2.8695400405803255e+00 7.9711174576408994e-01 3.5205840772006192e+00 -7.4939428072283798e+00 -1.1930724171286272e+01 -3.6326683585247316e+01 9.2635819649174735e+01 2.3189173762687022e+02 -1.1608189352597820e+00 -4.3240881307566320e-01 -2.0866437073016000e+00 -5.6647141031021775e+00 9.9652646475981292e+00 4.5182964888848520e+00 -7.2247107151946572e+00 -6.8013034119392017e+00 -3.8949174318555926e+01 -1.5510493487482897e+00 -4.7755229901791196e-01 2.6759409312210806e+01 
      </Row>
      <Row Index="17">
        2.1172451822534764e+00 -4.4011805941313128e+01 -4.4851551419743103e+01 -2.8637461633535047e+01 -1.1115063886187260e+01 -8.1745209084823159e+02 -3.6459372205777640e+02 7.6314515127549782e+00 -4.0548049065829204e+01 -1.5913305552317070e+00 4.7660301216375274e+01 3.4815773011504774e+01 2.0555036057342917e+01 -7.5205581680984324e+00 1.3243884177336181e+03 2.9383421652172967e+02 6.8693483671878752e-01 1.0496224656473792e+02 -1.0405552448291044e+00 -3.4236915045887493e+01 4.9024873399930406e+01 2.9722694087123884e+01 -9.5873984306036757e+00 -8.5750919584987088e+01 2.2248438853878758e+02 -2.4873561092454111e+00 2.6097696211738217e+00 -1.0180651839860859e+00 7.7801389150226655e+01 -4.5145586816098643e+01 3.0979218005120508e+01 1.2540934034556415e+01 1.6053738316771137e+02 2.0624014722630500e+02 -4.7659968853711767e+00 -1.0593658229124117e+01 7.8365708442521609e-02 -2.2372119957472972e+01 1.7937754080208329e+01 -1.1070222655826408e+01 -2.5087245732475875e+01 -7.0420457013877456e+02 -5.8433069254708460e+02 7.9495938540927646e-01 1.9883595994765231e+00 2.9776638163828173e-01 2.1362227396420721e+01 7.8613287996664795e+01 4.4194949449544723e+01 5.6315120126159961e+00 4.0124359746378133e+01 1.2562691708720547e+02 1.9737532491884018e+00 -2.5117643789709312e+01 -4.5801870566718144e+01 
      </Row>
      <Row Index="18">
        -7.6140058906482566e-01 -8.3849636279843267e+00 -1.4851217581508704e+00 3.0812321381900887e+00 1.5264476102613781e+01 -3.7001727649519715e+01 -2.9357048931224266e+01 -7.7904252735606505e-01 4.5916455558586383e-01 -6.0697750982522116e+00 -1.3058721893154797e+01 7.9574182909400903e-01 -7.4774549641649717e+00 1.7082457640427663e+01 3.7972190401272108e+01 -1.1414361086657721e+00 1.0243126046617736e+01 -1.0405552451498643e+00 1.2399049675601386e+01 2.0639201923714744e+01 6.8095833588849288e+00 7.0528076197245895e+00 -4.3675979907277068e+01 6.8979118072690468e+00 -4.3793982450285817e+01 -1.3054924229641486e+01 1.2292191346860291e+00 2.6258587888243721e+00 -1.1176048642756930e+01 -1.7571692934503709e+00 3.1667408041768974e+00 -2.4975846764341636e+01 2.4108881967809406e+01 -5.4791622538880787e+01 1.9470525003686339e+00 9.1792823476592833e-01 9.3834339344528650e-01 1.6421281861168577e+00 -4.5511874691772807e+00 -8.0290691545405168e-01 -1.5018020506348048e+01 -1.1514338475712616e+01 5.0129128529033068e+01 -8.5157889480821758e-01 -5.0512864178744121e-01 -1.4010504078701214e+00 -2.8981138066777916e+00 2.5254856507011683e+00 2.1306153922648549e-01 -7.0642337783839011e+00 -2.2190251519284194e+00 -3.8772650460445517e+00 -3.5944790547378069e-01 -3.9117028795123465e-01 4.4753863618575167e+00 
      </Row>
      <Row Index="19">
        8.9644146964428550e-01 2.2537217881600054e+02 2.6300305319639481e+01 3.5448717528874994e+01 -2.9315387810313453e+01 1.1558507797453119e+03 1.1301490778479234e+01 2.1791493159062156e+00 4.9550109555080031e+00 -1.6958248441639626e+01 -1.0120009329925224e+03 1.3212127961332044e+01 -7.2415106319800998e+01 6.5567390891622381e+02 -1.0632218481718364e+03 7.4495855836852570e+01 3.2417399608197229e+01 -3.4236915055278651e+01 2.0639201923343677e+01 1.2087846395622569e+03 7.2169988326613080e+01 1.5626327162856336e+02 -8.4132327902735290e+02 -4.8167801413332182e+02 -9.5611289477925402e+02 -2.7780235354877732e+01 5.3506352000066386e+01 2.5633992399812016e+00 -5.6313694912013170e+02 4.9951322290148255e+01 -8.6936099831340670e+01 1.2984289772823166e+02 -8.2480357913039370e+02 -2.0913463580480294e+02 7.8412999635734764e+00 -1.5859889105075808e+01 9.9454437226639436e-02 2.0056083496146269e+02 -3.3459303824408551e+01 -3.9600134918993293e+00 -2.2417329397717185e+02 3.9355835872498955e+02 1.4045529153182779e+03 -6.8110278551544230e+00 -1.0283225907672035e+01 -2.1955128927761676e+00 -2.0022194475394286e+02 -7.3408032999833210e+01 3.9173638409141503e+01 -6.4794408172893299e+01 -3.9133206474504590e+01 -3.1328520369919107e+02 1.6057400802873190e+00 -1.3026331913909024e+01 2.2197241026125940e+02 
      </Row>
      <Row Index="20">
        2.4287050315971861e+00 -2.8506124937902428e+01 -5.2787330056876797e+01 -1.9012339787022007e+01 -2.0351373317730001e+01 -4.7834399516368694e+02 -5.0372116035429337e+02 1.0290770574486260e+01 -1.4801202414971378e+01 -4.9027295243033677e+00 -2.0337325685954966e-01 -1.3628632943462208e+01 1.5303804050285514e+01 4.3083607480044520e+01 6.3739325000807912e+02 1.4502666517233320e+02 7.8485887351303063e-01 4.9024873400317276e+01 6.8095833593515636e+00 7.2169988340237552e+01 1.8166327078987621e+02 5.2126206330652280e+01 -9.3350089901688875e+01 4.3789249043573392e+01 5.1753110612659111e+02 3.7063524599439006e+00 1.3803105569356475e+01 1.9834189138990279e+00 -9.0296809557071249e+00 -4.2098634369571585e+01 2.5353218546004960e+01 1.6758723161630606e+01 8.1224833493146960e+01 1.1099209118954531e+02 -3.0876561064418837e+00 -4.0963255471276341e+00 -9.9544445697132722e-02 3.2263622958013816e+00 -1.0464604571876187e+01 -1.6697452501913233e+01 -5.9676428446097578e+00 -5.7291447296373417e+02 -1.0392091558019777e+03 -4.9286369015384757e-01 -8.1822598110117823e+00 -1.9210510017364151e+00 -3.0275231626679329e+00 6.1712164532804451e+01 5.8995843924107788e+01 6.4072428273428486e+00 -6.8159137399225020e+00 2.1848249980897194e+02 3.8705731988308543e+00 -2.0809003467850943e+01 -1.1118375738746714e+02 
      </Row>
      <Row Index="21">
        8.0881175624626245e-01 2.7282258041543628e+01 -1.9169012249657335e+01 -1.7166712762201069e+01 5.6676896766845488e+01 -1.6064211246951038e+02 2.2315758514102095e+02 -1.2654687095848658e+00 -6.8453908230242764e+00 -7.1214847760201110e+00 -9.8968537716398714e+01 2.8974704094533763e+00 -9.7531507912341922e+01 4.1222854807596377e+01 -1.6038935060103404e+02 -9.3719424603044399e+02 1.2051325388359032e+01 2.9722694088829819e+01 7.0528076200587861e+00 1.5626327163732958e+02 5.2126206332414881e+01 1.8374636756794342e+02 -7.4469599585950803e+01 7.6641160674079845e+02 5.9314071233643836e+02 -5.8092422845720648e+00 -3.7002321710720167e+00 9.0559040888683739e-01 -7.9139665614812856e+01 1.6355940934749469e+01 -3.9744347001839309e+00 -4.8073796931163670e+01 4.1548344927416679e+01 -2.7126373884759096e+02 2.3400793935329887e+00 -1.1037047626964238e+01 1.9924153180998561e-01 1.2519146296937672e+01 2.9195513592122904e+00 -1.2677961531934224e+01 -5.6500870281219626e+01 4.0040877817560499e+01 -1.0809826581451318e+03 8.1015479738473317e-01 -2.7266601705334663e+00 -5.1612057601834271e-01 -3.2749456876990848e+01 -5.8282491434027861e-01 2.2059317516244995e+01 -2.1157262602380197e+01 -5.4820604726250977e+01 1.8198048121873921e+02 1.9306418766749367e-01 -1.0013260643265607e+01 -1.2113690354604924e+02 
      </Row>
      <Row Index="22">
        5.3760959482514785e+00 -8.2716434937106897e+01 -7.3536565153579154e+00 -6.1494012037534809e+01 -1.4276435469549199e+03 2.4275140362426555e+03 1.0583971584335868e+03 6.7789237898168722e+01 -1.7827706849686848e+01 1.2329362247073277e+01 7.4812290878778003e+02 7.1603608119279670e+01 1.4562648505113066e+02 -2.5121609760380525e+03 4.5082228798221477e+03 7.4403157173697473e+03 1.1361168209677999e+00 -9.5873984615587915e+00 -4.3675979911128707e+01 -8.4132327911393759e+02 -9.3350089939217469e+01 -7.4469599599445246e+01 4.3282660935887361e+03 -8.2206045864963235e+03 -1.1192446843053145e+04 1.3210075780072657e+01 3.5474955033662354e+01 -1.9604849123508757e+01 3.7069507187634201e+02 -3.1258222180317716e+01 2.5933702050645181e+01 1.1329799477324871e+03 -2.6647725246919945e+03 -5.2723978895059997e+02 1.8866371082613227e+01 1.4036588222875253e+00 -2.7537977854402254e+00 -1.7503836065398463e+02 2.7213499434910943e+01 -4.1719822815699544e+01 3.7900633685244179e+02 -9.4586352092875404e+02 1.3588719564587911e+04 1.7880010436240607e+01 -2.0557869943363456e+00 6.6604163465163548e+00 1.2886955578053085e+02 7.5875344959194990e+00 6.0641303501281698e+01 4.6703481913951754e+02 1.3148171911746144e+02 -2.2819945879457691e+03 2.3766361715453982e+01 -9.5061861937033143e-01 1.5947677364051874e+03 
      </Row>
      <Row Index="23">
        -7.7907347836880334e+01 1.6545331878941506e+03 -3.0188138429448578e+01 2.2587657657817380e+02 5.0236869733254816e+03 -4.1717042954520821e+02 5.8289483103078373e+03 -1.3748292255859997e+02 1.9605085777149006e+02 3.8805787573075577e+01 -1.2424722652379569e+03 -5.2573894439736614e+02 -1.2644518340286581e+03 4.2245823779127095e+03 -4.1341102236772800e+04 -3.8933249688912227e+04 -3.1081115643159137e+01 -8.5750919405988270e+01 6.8979118178176577e+00 -4.8167801400009643e+02 4.3789249286872291e+01 7.6641160689244134e+02 -8.2206045877919678e+03 5.5666237637324943e+04 4.7066070386154141e+04 2.7477976403781213e+02 -4.9070903343179543e+02 7.9506342330852931e+01 -2.1621109573393769e+03 6.4490395778622405e+02 -8.3180146245381962e+01 -3.6863825087471341e+03 6.2104750316759862e+02 -7.5948912896094098e+03 2.0487698047128379e+02 -4.4885182699719735e+01 9.1232138917004306e+00 5.5312209575398242e+02 3.2685825978454773e+01 1.2807562882030612e+02 7.6174279511491000e+02 2.3058103360252775e+04 -5.1130220188510008e+04 7.0637639901557634e+00 1.9977337300731392e+01 -1.4967624633328471e+01 -5.4630593935707293e+02 -3.5963834731261340e+02 -6.6143278316224200e+02 -1.2471963720423291e+03 -2.7326804790510541e+03 8.4400468521870753e+03 -1.3801514196191874e+01 1.3764041135794585e+02 -6.9326632380560704e+03 
      </Row>
      <Row Index="24">
        5.6024524441778411e+01 -1.1839275456723990e+03 -7.8578267470098558e+02 3.9651417476540121e+02 2.8496677609477474e+03 -2.7729564405651272e+04 -7.8687685266488461e+03 -1.0560337414313108e+02 5.7993713133974211e+01 1.2531889604615571e+01 1.8497676282499451e+03 6.8466535538985045e+02 -1.0263732782653069e+03 6.7715135065042414e+03 -1.4444159603951033e+04 -9.4842268268436659e+04 -1.2668091684873798e+02 2.2248438911781068e+02 -4.3793982389674056e+01 -9.5611289345552962e+02 5.1753110687984008e+02 5.9314071267655527e+02 -1.1192446844399657e+04 4.7066070369393274e+04 1.4048834897291416e+05 3.6867868729645852e+02 -2.2909668247233276e+02 4.2375240311404923e+01 8.0710532009281451e+02 2.5250071733424556e+02 -3.7376726079821395e+02 -1.4195583573254410e+03 3.3919494092075911e+04 9.5199160111128149e+03 6.3242625112196038e+01 -1.7801012752500537e+02 1.3901147463729053e+01 -3.6386992338666073e+02 2.5742616071313296e+02 3.9303316545134834e+01 2.2653531365219879e+02 2.0780309596656443e+03 -1.8146943750498162e+05 -2.8537328686493577e+01 2.7866700765126907e+01 -4.4006282188225370e+01 3.0378365224190202e+02 6.5716835023427120e+02 -5.8065715280119434e+02 -8.3445910290226789e+02 3.6525710165640176e+03 4.0153088447116505e+04 5.4941196968728718e+00 -4.7817471104576470e+01 -3.0269950067180471e+04 
      </Row>
      <Row Index="25">
        -1.9032550810085382e+00 1.7983247344807637e+01 8.8387007846145540e+00 -5.2645719045484469e+00 9.9965707713438761e+00 7.8802967079161505e+01 4.2747461209448758e+01 -1.0384113095162434e+01 -2.5239413897458418e-01 1.0159347324803008e+01 3.3016169484633110e+01 -1.9260867973652864e+01 1.3166192404045926e+01 1.8153519967152079e+01 -2.9092202724108051e+02 -2.2791961591192364e+02 -3.4514286357067078e+01 -2.4873561075504487e+00 -1.3054924229553990e+01 -2.7780235354196329e+01 3.7063524623665245e+00 -5.8092422830176247e+00 1.3210075765341632e+01 2.7477976405206999e+02 3.6867868750174193e+02 5.8635956550592255e+01 1.8022162153818044e+00 1.9551575815173692e+00 2.7241878704025225e+01 5.1939253946657402e+00 -8.6916307428827473e+00 6.3928887305683126e+01 6.7780342985522097e+01 3.9963937513902579e+01 6.4222915999307659e+00 -1.7565453873223049e+00 -7.1342905971166870e-01 -2.2847911090675348e+00 4.1267703848655160e+00 3.7008732643900570e+00 5.2426234882997548e+01 9.1963213065174585e+01 -4.5542620676321258e+02 2.6073288874018576e+00 5.1896496382818147e-01 -1.5398330432217927e-01 4.3187231689114469e+00 -1.2956090376020882e+01 5.6061532736106123e+00 1.2227346669106062e+01 -1.2251847688164638e+01 6.8914842051048467e+01 -8.7023191300714764e-01 3.8494431821711572e-01 -5.7357344592624720e+01 
      </Row>
      <Row Index="26">
        2.0245423057710141e+00 -1.0296737071426264e+01 2.0136430411840124e+01 -1.8317405349356335e+00 -5.2907194591758632e+01 6.8758367538019840e+00 -1.3479626891363802e+02 4.2829365784916433e+00 -1.2143397953343074e+01 3.7686576190821626e+00 -1.2663831180001125e+01 -1.4666617002209790e+01 3.1024443329240995e+01 -4.8121909745380663e+01 2.3962851152224425e+02 2.5794793572917871e+02 7.6339853764682175e-01 2.6097696194539459e+00 1.2292191346895578e+00 5.3506352001731202e+01 1.3803105567147405e+01 -3.7002321725783105e+00 3.5474955050001945e+01 -4.9070903346754068e+02 -2.2909668273129580e+02 1.8022162150758732e+00 5.6638431290844863e+01 2.5331141663639585e+00 -1.2331256751727267e+01 5.3183011883197366e+00 1.8417026095245559e+00 6.0019590386567025e+01 1.2805879455371007e+02 1.5399716639741342e+02 -2.0352867537356722e+00 -9.7151463238044897e+00 1.4180250339539574e-02 4.6351652420242946e+00 -4.0215002312917605e+01 -9.4653541688772123e+00 1.2871491932204364e+01 -3.0185295355218932e+02 9.1460151706735815e+01 -1.4434376332185250e-01 -8.0775893920185848e-01 -2.9985080147961978e+00 -4.0095896200710541e+00 -3.2418911498336719e+01 2.7497621204544487e+01 1.7999035875460248e+01 4.7131050743514457e+01 -2.5359077584523373e+01 1.9517116509251160e+00 -1.5880390782415395e+01 3.2309819991371192e+01 
      </Row>
      <Row Index="27">
        1.6709686787879514e+00 2.1509115298951826e+00 3.9228508733411815e+00 -1.0991646562299753e+00 1.4575968720714534e+00 -1.7114854474832597e+01 1.7206899256970853e-01 -1.0023752591350330e+01 9.0914828111502644e-02 7.5689748576800380e+00 2.0248518939783793e+00 -4.9129465017633365e+00 3.0665622767394813e+00 6.2058197172417522e+00 -1.0329102676711079e+02 -1.8196208366646118e+01 3.1735526379894239e+00 -1.0180651838152452e+00 2.6258587888223381e+00 2.5633992395515826e+00 1.9834189142739422e+00 9.0559040927587020e-01 -1.9604849128389976e+01 7.9506342347985168e+01 4.2375240395248326e+01 1.9551575816409184e+00 2.5331141662903591e+00 1.3299818243008673e+01 1.6809009713571186e+00 -7.4483879385203977e-01 3.8467003467828480e+00 -6.3695990950742951e+00 -5.1615407197353619e+01 5.3003898968821517e-02 2.7197794389995376e+00 1.2638072080339473e+00 1.5802561102859813e+00 1.8201628053949792e-01 -4.8782358089073448e+00 -5.0249448948256559e-01 -1.0580756889385989e+00 3.6998334403832779e+01 -3.4481168745021890e+01 -3.8672514775825190e-01 -4.6380742110600909e-01 -6.5758971357546958e+00 -5.7385221846814716e-01 -3.7695101915039650e+00 5.1537342990803872e+00 -1.5210493374914087e+00 -9.7180784433076148e+00 4.5644382798806005e+00 -3.0585394396846390e+00 -3.7389082028789589e-01 -7.7336128238639343e+00 
      </Row>
      <Row Index="28">
        1.3529627736164969e+00 -3.8555038532129038e+02 -6.8723378135758537e+01 -5.4417935275758055e+01 -8.9802125514639528e+01 -2.3229018090342115e+03 -7.5553793405666715e+02 -2.4838269376937205e+01 -3.4605046493784926e+01 1.1429960454444142e+01 7.3039720512809208e+02 1.0146945938648787e+02 1.1407327347609731e+02 -3.1924680493149936e+02 4.2081694769690439e+03 3.6702022211149324e+02 -2.3366934474163600e+01 7.7801389155107415e+01 -1.1176048641686975e+01 -5.6313694909280889e+02 -9.0296809502704605e+00 -7.9139665616015350e+01 3.7069507193020314e+02 -2.1621109578282949e+03 8.0710531894968062e+02 2.7241878699257541e+01 -1.2331256745870292e+01 1.6809009704807067e+00 6.8587268566547573e+02 -1.1459208450748361e+02 5.5416031642663796e+01 4.2648590110194661e+01 1.7089755361768389e+03 1.0673859292837069e+03 -1.3301492202531747e+01 6.2156922746873420e+00 -9.0781102419550874e-01 -1.9651896873100100e+02 6.4377850121846805e+01 -1.2320475505506005e+01 5.7722975319360614e+00 -2.5321203190097231e+03 -2.1278920795075760e+03 1.8037649888421878e+00 3.4959675027917756e+00 -1.2516837942137342e+00 1.8842651789904414e+02 1.5506923728234597e+02 4.8041816599288097e+01 5.4894644422369140e+01 2.5708354969954308e+02 5.0406247874585154e+02 -8.8283636696909902e+00 -1.1837705001629779e+01 -2.4864056478511330e+02 
      </Row>
      <Row Index="29">
        -4.0124838493365189e-01 7.3912082665141725e+01 5.0608594282497165e+01 1.8484885321475915e+01 6.7484432939261893e+01 8.5934744343763850e+02 4.7059946672152279e+02 -1.0502036773572769e+01 1.8353063932028398e+01 -2.2003552144343672e+00 -7.2054609482148749e+01 -6.5208148586355861e+01 -3.6309774533570540e+01 1.8059101404818648e+01 -1.7409844990450599e+03 -7.0913840504773395e+02 2.1901931728204431e+00 -4.5145586814373132e+01 -1.7571692936571139e+00 4.9951322282328292e+01 -4.2098634366590439e+01 1.6355940938264482e+01 -3.1258222227412745e+01 6.4490395797662939e+02 2.5250071812780277e+02 5.1939253962658540e+00 5.3183011869029606e+00 -7.4483879386127683e-01 -1.1459208449777549e+02 1.0272257684910593e+02 -3.6306756259873453e+01 -7.7644759882620875e+01 -1.4963116565475002e+02 -3.6116909862052069e+02 6.4479295110094093e+00 -1.0630404556093268e+01 -1.2790802959398471e+00 3.2046848717100765e+01 -2.1102687247190609e+01 2.3450979998905073e+00 3.7171101874298600e+01 9.0666427516811871e+02 4.5412430132666259e+01 5.3974292774755384e-01 4.3132740817689648e+00 5.9100615585934979e-01 -3.3977741534163130e+01 -1.1276123827980143e+02 -4.0830359824654380e+01 -1.7647861404605784e+01 -4.6645187895463891e+01 -3.4371882642166575e+01 -2.0778890643855803e+00 9.6799206802487205e+00 -3.8988598660406005e+01 
      </Row>
      <Row Index="30">
        1.7475223086987342e+00 -5.7340654687252822e+01 -8.1535890723923679e+00 -4.6249775277924982e+01 -2.0290956829921377e+01 -4.4249979213211839e+02 -3.0466351860277786e+02 -3.1396620097368668e+00 -1.3618259415908852e+01 3.4909071533439544e+00 7.8941693119000547e+01 -6.7006827524602954e+00 7.0911071947986258e+01 -8.6243451403173822e+01 8.1903123273666915e+02 6.6119228815051338e+02 1.1763150753056607e+01 3.0979218002704158e+01 3.1667408041589056e+00 -8.6936099830890157e+01 2.5353218542986212e+01 -3.9744347022519548e+00 2.5933702070203537e+01 -8.3180146266868292e+01 -3.7376726107531090e+02 -8.6916307430101369e+00 1.8417026094817288e+00 3.8467003470580039e+00 5.5416031634885599e+01 -3.6306756257410484e+01 7.8799196836989836e+01 3.0025100498796192e+01 1.0864046285037155e+02 1.4340647113014586e+02 -2.3873015866196567e-01 9.7736970015378120e+00 3.2405696415603141e-01 -1.0181605183089877e+01 -2.0214350154736522e+01 -2.7976049809281101e+01 -2.8958927447925149e+01 -5.4440564970421735e+02 3.1077575519799302e+02 1.1059372745250933e+00 2.2101186713211951e-01 -3.5846936089145487e+00 2.5584566741658676e+01 3.3987410132674611e+01 6.6296952373049848e+01 1.4594780870576322e+01 -8.1529521395254907e+00 -7.7699265360107589e+01 -2.9950487166441775e-02 -7.6026515258104563e+00 8.6876493264492026e+01 
      </Row>
      <Row Index="31">
        5.1836300191174942e+00 -2.9308045311810247e+01 1.9733637235867757e+01 -5.7251253526775955e+01 -9.3406890610529558e+02 3.9681601608701624e+02 -6.5922797076777272e+02 4.4902837622672450e+01 -2.4643639043493728e+01 1.4705413622531530e+01 -4.0249674909930150e+01 5.0673169697495666e+01 1.9626556617094204e+02 -3.2635296085709729e+02 2.6757375319086595e+03 1.7134426492346213e+03 -4.8921680573040618e+01 1.2540934029509533e+01 -2.4975846764141977e+01 1.2984289774078232e+02 1.6758723154408720e+01 -4.8073796937802342e+01 1.1329799478153873e+03 -3.6863825090269074e+03 -1.4195583587477445e+03 6.3928887303350280e+01 6.0019590388137658e+01 -6.3695990950237729e+00 4.2648590087761477e+01 -7.7644759880179819e+01 3.0025100502117454e+01 1.0877647091630815e+03 -2.4752183974108496e+02 9.5277220352762401e+02 5.6560158560673344e+00 2.7385648845868928e+00 -1.1726137708752378e+00 3.2785118870865645e+01 -1.1897279546821185e+01 -2.3250857512473111e+01 8.1383960066560604e+01 -1.8575525090534616e+03 8.1280085529189080e+02 3.5526615659900216e+00 -5.4082998675569574e+00 -3.2503497483335231e-01 3.6854237421734695e+00 3.0056008542157436e+01 1.4016547592254943e+02 2.4142741600104935e+02 2.7739664994324147e+02 8.2500086441360239e+00 1.6481335350530088e+01 -1.9887646920866487e+01 3.5595163841390558e+01 
      </Row>
      <Row Index="32">
        2.8162009252600910e+00 -1.5996350439038288e+03 -3.8644652057806482e+01 -1.0580529698296050e+02 5.3421761620380653e+02 -1.3392273379548624e+04 -5.4890922852223057e+03 1.3464417749615677e+01 -7.8583356086583080e+01 -3.1758572883702072e+01 2.0652959857767564e+03 9.0544987373308686e+01 2.4693660057629222e+02 1.2360333688271348e+03 1.0713839066699089e+04 -1.9987281573719054e+04 -5.4537306036138034e+01 1.6053738328780923e+02 2.4108881984557229e+01 -8.2480357873193134e+02 8.1224833640995712e+01 4.1548344970338803e+01 -2.6647725245124202e+03 6.2104749712248940e+02 3.3919494083453872e+04 6.7780342919446412e+01 1.2805879463107158e+02 -5.1615407217126631e+01 1.7089755363461954e+03 -1.4963116584506497e+02 1.0864046294504078e+02 -2.4752183937891823e+02 1.7293230337419147e+04 6.6306445826127565e+03 -1.3484914360659786e+01 -3.2710700825853564e+01 -1.1362940799214982e+00 -5.4877659396968295e+02 -9.9152291754860130e+01 -7.8153380403230102e+01 -8.2673670390781837e+01 -1.0702640851101129e+04 -4.9511640340057435e+04 -2.0095525171148843e+01 2.5329626398554783e+01 1.3004738562342364e+01 5.2517211413600671e+02 1.7054405375306305e+02 2.4352916358688071e+02 -8.3729968874184692e+01 2.1269774658317997e+03 9.7254747477735909e+03 1.2294227621978109e+01 -8.7736391240754500e+01 -6.5265170892005208e+03 
      </Row>
      <Row Index="33">
        5.1043332261211617e+01 -7.8366324777086993e+02 -7.0405587093739996e+01 -2.3896305494553417e+02 -1.0704811449254616e+03 -7.5083863327609597e+03 -5.6488350983723531e+03 6.4434389855869085e+01 -1.3649769190539155e+02 3.9796491246743244e+01 8.9973667504089099e+02 3.1852100851779323e+02 7.7976436047284346e+02 3.3435625864207395e+02 1.2307703547719837e+04 -1.2570132616116389e+03 -1.1407198854174931e+02 2.0624014725790528e+02 -5.4791622530918175e+01 -2.0913463558876538e+02 1.1099209122436787e+02 -2.7126373885478733e+02 -5.2723978855725363e+02 -7.5948912932481253e+03 9.5199160021669595e+03 3.9963937476706633e+01 1.5399716643590705e+02 5.3003890829131706e-02 1.0673859292720481e+03 -3.6116909869181836e+02 1.4340647118124252e+02 9.5277220368154667e+02 6.6306445812480124e+03 7.2646819969570652e+03 -1.1398499132145707e+02 -2.2205322405079642e+00 1.7056107747869653e-01 -2.2380474640097358e+02 6.4471159643988400e+01 -1.0691674802458301e+02 -2.0662675425044512e+02 -1.1513466344933955e+04 -1.7577869955880589e+04 -1.6667882200767007e+01 -1.8501265630672634e+00 -1.4704338546360109e+01 2.9549607220395410e+02 3.4748385787246980e+02 5.0090202199148183e+02 2.5499530449770768e+02 1.5470725841671299e+03 4.1141203762632786e+03 5.3310006646753720e+00 -9.3917091677917654e+01 -2.5761711230405376e+03 
      </Row>
      <Row Index="34">
        -3.9455399643360614e+00 -4.3302758565256809e+00 4.6013239982958094e+00 1.8996890520444154e+00 2.4576371253393926e+01 6.7089380785821760e+01 8.2107852143754911e+01 -2.1555193691063259e+00 2.2542747593198298e+00 1.3554953443016515e+00 -1.0497523806943747e+01 -4.2788768404692590e+00 -2.6569190921393528e+00 -2.9511828222106544e+00 -2.2048018125531428e+02 -1.2199344844924974e+02 6.0024688615209172e+00 -4.7659968848692227e+00 1.9470525003217318e+00 7.8412999615082803e+00 -3.0876561055638172e+00 2.3400793944712426e+00 1.8866371069981060e+01 2.0487698052223607e+02 6.3242625329783209e+01 6.4222916003664920e+00 -2.0352867540283865e+00 2.7197794390228367e+00 -1.3301492199939226e+01 6.4479295110336246e+00 -2.3873015925470398e-01 5.6560158555216482e+00 -1.3484914308866138e+01 -1.1398499130156435e+02 2.1322543680050742e+01 -6.8508626875039624e-01 3.1886971366314487e-01 6.9995384892287982e-01 -4.2820655364605642e-01 4.1196038735774998e+00 2.4281284584549809e+01 1.8819544086183961e+02 1.2001684537255855e+01 -8.8302030671984166e-02 6.6201237962814963e-02 -1.4976927953501584e+00 -3.6713532439662426e+00 -6.0364779210211221e+00 -2.4999328009089545e+00 6.8127147284416623e-01 -2.2196700175283841e+01 -8.7664469334384130e+00 1.6970143946987308e+00 1.6012960956460189e+00 -4.8125370272294381e+00 
      </Row>
      <Row Index="35">
        -2.9012270353010905e-01 -7.5822112688636025e+00 -3.3972263089836474e-02 -1.7695014870224668e-01 4.0842509689390347e+00 1.5820081104380044e+01 -1.9042631820464813e+01 -1.2149322367376101e+00 5.8551761875818400e+00 6.4123910293582753e-01 1.4417746213250894e+01 -2.5110776456003236e-01 1.5131219291750266e+00 -1.2292898180195152e+01 2.4602384658081291e+01 1.6436110381517881e+02 2.8695400405906071e+00 -1.0593658229893663e+01 9.1792823469614859e-01 -1.5859889106553311e+01 -4.0963255481544181e+00 -1.1037047627481797e+01 1.4036588251687476e+00 -4.4885182683448392e+01 -1.7801012754521093e+02 -1.7565453871114869e+00 -9.7151463241097051e+00 1.2638072081367397e+00 6.2156922730187034e+00 -1.0630404555108072e+01 9.7736970012330460e+00 2.7385648828256990e+00 -3.2710700841648013e+01 -2.2205322536305800e+00 -6.8508626847643939e-01 1.2494035807629160e+01 1.4879205202948365e-01 -7.4448440799001148e-02 -3.4826840122552860e+00 -1.1551027333022141e+00 -8.6136890353527278e+00 -1.7369136058105809e+01 2.5528524423320587e+02 3.8351385318963871e-01 -5.8464840355629411e-01 -4.1348209858482254e-01 3.7075992588177940e+00 6.7052578862012737e+00 1.4475264400244336e+00 -1.2964392835408578e-01 -1.0343004887576306e+01 -4.8436786200894204e+01 -3.0796898604897294e-01 5.7371584018541135e+00 3.7986736767334612e+01 
      </Row>
      <Row Index="36">
        1.3973782547940639e-01 3.7793128284783961e-01 3.5259380082841574e-01 -4.1499853511341112e-01 -1.5879669700185826e+00 -5.8246473731526827e+00 -3.7647600791867801e+00 2.7507233486079841e-01 -4.2279533314635742e-02 8.6762138335457806e-01 -8.6441679373013613e-01 -1.3296618437692267e+00 -8.1014474224418276e-01 2.2226121542446293e+00 -8.0906355903913152e-01 -7.9969664577607489e+00 7.9711174576265265e-01 7.8365708492530883e-02 9.3834339345051454e-01 9.9454437334699719e-02 -9.9544445626477795e-02 1.9924153184794591e-01 -2.7537977856642382e+00 9.1232138906627647e+00 1.3901147465744636e+01 -7.1342905972688442e-01 1.4180250358704738e-02 1.5802561102783095e+00 -9.0781102408349312e-01 -1.2790802960049259e+00 3.2405696416885910e-01 -1.1726137707543582e+00 -1.1362940787460927e+00 1.7056107841533041e-01 3.1886971364422223e-01 1.4879205202880819e-01 6.7286918055248157e-01 1.4622865807347329e-01 -5.8377221059396789e-01 1.8814911499960971e-01 -1.4120915485051686e+00 9.2439402613601551e-01 -1.7680101107175695e+01 -2.4467382876769417e-01 1.2994308052703161e-02 -7.9988709517728807e-01 -1.4156057304014880e-01 -4.7357574429002014e-02 1.9257672354320854e-03 -3.1813853905513989e-01 -7.6829000923757107e-02 3.6087783865209424e+00 4.1884380851464620e-04 -6.6785070573843752e-03 -2.7849577089466608e+00 
      </Row>
      <Row Index="37">
        2.8891704892961911e-01 1.1266411148111217e+02 2.3925901937292394e+01 8.2476876345535004e+00 -4.0221918994832180e+00 7.3603414733561203e+02 1.5244633022771086e+02 2.8653122150070658e+00 9.1706432818852761e+00 -1.6812040642372210e+00 -2.3730390488705461e+02 -3.4469555557769922e+01 -1.2505819710460457e+01 1.5279172814659978e+02 -1.2115696088165491e+03 6.6342129287582338e+01 3.5205840769385759e+00 -2.2372119959936068e+01 1.6421281857951726e+00 2.0056083495419000e+02 3.2263622926789424e+00 1.2519146296125086e+01 -1.7503836065723920e+02 5.5312209586739220e+02 -3.6386992324938615e+02 -2.2847911078872585e+00 4.6351652403103998e+00 1.8201628085250832e-01 -1.9651896873454905e+02 3.2046848720699074e+01 -1.0181605185123544e+01 3.2785118863298464e+01 -5.4877659397572177e+02 -2.2380474643131811e+02 6.9995384988900611e-01 -7.4448441055892545e-02 1.4622865809093888e-01 7.5012232243427434e+01 -2.0049673098832830e+01 -5.8505274573208577e-01 -1.7325499841019141e+01 5.7658370315630691e+02 7.5542452223773466e+02 -3.8641977656611270e-01 -9.0645313247557069e-01 -9.2473077159802353e-02 -5.7264423278770920e+01 -4.8074533686011137e+01 -3.4236729606292471e+00 -1.3935177504496430e+01 -7.5537729822152158e+01 -1.7713298350200938e+02 1.0682409464132565e+00 3.3682803642266785e+00 1.0160319060493653e+02 
      </Row>
      <Row Index="38">
        -1.4641599207159572e-01 1.7612921221298166e+00 -5.2391605675651078e+01 -8.5596635474978484e+00 -2.1157102634613807e+00 -3.2471582938959574e+02 5.9161477699371758e+01 -3.0219373773379061e+00 -5.6428507110366581e+00 -7.9198180833666072e+00 6.9664365197088500e+00 7.9942168712755290e+01 -2.0985233946723270e+00 1.4038251573349953e+01 5.1985422987943775e+02 -2.5377385021583200e+02 -7.4939428072870555e+00 1.7937754082682254e+01 -4.5511874690391778e+00 -3.3459303822197967e+01 -1.0464604568894529e+01 2.9195513604608152e+00 2.7213499427412557e+01 3.2685825939534396e+01 2.5742616078542619e+02 4.1267703844948755e+00 -4.0215002312012018e+01 -4.8782358091024776e+00 6.4377850127754527e+01 -2.1102687250083989e+01 -2.0214350153464238e+01 -1.1897279541884927e+01 -9.9152291704844231e+01 6.4471159682971859e+01 -4.2820655430733012e-01 -3.4826840122985914e+00 -5.8377221059321549e-01 -2.0049673100034223e+01 8.9897995285741629e+01 8.5791728120158659e+00 -1.3358747064239211e+01 -7.8233384902678154e+00 -3.3688802412750613e+02 -1.1916133620306013e-01 -2.1368487644918259e+00 4.7497351546395077e+00 1.1008967098466911e+01 7.5680597153860973e+01 -1.7583075090808080e+01 -3.1873156456659331e+00 7.1366570350152507e+00 9.4656551901754071e+01 -2.0769075386518328e+00 8.6693818038902322e+00 -7.1290611828225792e+01 
      </Row>
      <Row Index="39">
        -3.1738185034291204e+00 1.9845293385958691e+01 1.4100659442170963e+01 2.7909347693320385e+01 2.0770677428320738e+01 1.8349181137391281e+02 1.3122830679286645e+02 2.0242106964562225e+00 7.4576627775164717e+00 6.9280048959581286e-01 -2.2376043479665142e+01 -1.5568471913514550e+01 -4.1890054023855853e+01 1.2801403743168339e+02 -3.7605371838418898e+02 -1.5838882629892174e+02 -1.1930724171610997e+01 -1.1070222654975979e+01 -8.0290691552848159e-01 -3.9600134944134311e+00 -1.6697452500862248e+01 -1.2677961530992222e+01 -4.1719822827694180e+01 1.2807562886345022e+02 3.9303316759798463e+01 3.7008732648141631e+00 -9.4653541692133647e+00 -5.0249448952327569e-01 -1.2320475501665030e+01 2.3450979994183001e+00 -2.7976049809725151e+01 -2.3250857512188087e+01 -7.8153380346986140e+01 -1.0691674800063321e+02 4.1196038735090124e+00 -1.1551027335743971e+00 1.8814911501454964e-01 -5.8505274701868260e-01 8.5791728130100235e+00 3.2651554384133966e+01 1.7428766518243613e+01 2.6737655858915150e+02 8.9189621908242003e+01 -1.4135721019405612e+00 8.9488233985362697e-01 1.5157418688137199e+00 -4.0687337315185523e+00 -1.0139166085852670e+01 -4.4692049216688517e+01 -1.6526550575594278e+01 -1.6118241833433210e+01 -1.3197513042281354e+01 -4.7322396061154670e-01 5.7603812848983962e+00 -5.0934949258329318e+00 
      </Row>
      <Row Index="40">
        -5.5699983299267579e+00 3.8328987649545866e+01 3.4323225087088026e+01 1.7921144546136361e+01 -5.1041426335141793e+01 3.8328958534551634e+02 3.0287573124513801e+02 1.8663030718117454e+01 7.4718690729336714e+00 1.0149267991561587e+01 1.7695006666326293e+02 -3.9688446479834596e+01 3.8597585111869087e+01 -1.8808808494728237e+02 -1.2910736025961189e+03 -2.1269380730362627e+02 -3.6326683586447245e+01 -2.5087245729544541e+01 -1.5018020506510553e+01 -2.2417329398574370e+02 -5.9676428396745393e+00 -5.6500870276412655e+01 3.7900633679045291e+02 7.6174279534629250e+02 2.2653531469176079e+02 5.2426234884925748e+01 1.2871491931136816e+01 -1.0580756888659266e+00 5.7722975449605087e+00 3.7171101873822664e+01 -2.8958927450354622e+01 8.1383960065116412e+01 -8.2673670136581720e+01 -2.0662675414752965e+02 2.4281284584373765e+01 -8.6136890366448498e+00 -1.4120915484147192e+00 -1.7325499845622122e+01 -1.3358747061361726e+01 1.7428766518292306e+01 2.7123139948936705e+02 6.2103922658488068e+02 -1.5561356869384645e+02 8.4817223526140184e-03 1.7003240916038016e+00 7.1571915090268190e-01 1.2478205052904400e+01 -5.3235430072355399e+01 -6.9283693343984751e+00 4.9297785014211520e+01 -5.3077077424268467e+01 -1.7581424889640829e-01 8.8505514235466016e+00 2.0353241043802242e+00 -3.7384591291650715e+01 
      </Row>
      <Row Index="41">
        -8.0237861904872375e+01 2.0993217669140522e+03 2.2236673723945148e+02 5.8724480640264937e+02 2.2522522872608051e+03 1.4658697735646598e+04 1.0747897306359646e+04 -1.9303761265566163e+02 3.7088275810139498e+02 1.7804087376966208e+01 -2.1781231333566657e+03 -5.0984767845629926e+02 -1.3390903738706215e+03 6.3525316545092937e+02 -3.3517260925223411e+04 -1.1463452551088965e+04 9.2635819620491020e+01 -7.0420457010616713e+02 -1.1514338483701749e+01 3.9355835844797684e+02 -5.7291447290364658e+02 4.0040877902302782e+01 -9.4586352217828016e+02 2.3058103366105199e+04 2.0780309820201455e+03 9.1963213117905070e+01 -3.0185295359788392e+02 3.6998334407710900e+01 -2.5321203187645797e+03 9.0666427519330637e+02 -5.4440564977863141e+02 -1.8575525091618567e+03 -1.0702640846025935e+04 -1.1513466343202885e+04 1.8819544086915835e+02 -1.7369136086936123e+01 9.2439402808289906e-01 5.7658370305577296e+02 -7.8233384079235293e+00 2.6737655860701142e+02 6.2103922663913295e+02 2.7149796448365392e+04 1.0332581793371995e+04 2.1202710885106086e+01 3.9690537865219184e+00 1.0746944373021298e+01 -7.0647996886360238e+02 -8.8315383778565763e+02 -1.2016563823757388e+03 -5.8638494372799664e+02 -2.4905499280558984e+03 -2.3851526264425861e+03 -3.7294508819754384e+01 2.6384490491625888e+02 3.4272566672419697e+02 
      </Row>
      <Row Index="42">
        -1.1986703166605730e+02 2.4515385445263237e+03 1.1242903732324485e+03 -2.3250510797958123e+02 -2.4483440093407407e+03 4.3014139747718800e+04 1.4537010043254311e+04 -1.0239571339916438e+00 9.5682332478638273e+01 1.7768001060467213e+00 -3.5339483837196603e+03 -1.1527681362004951e+03 8.5117359103227500e+02 -8.2223675084365532e+03 3.8593622507695109e+03 1.1914227466933196e+05 2.3189173748949543e+02 -5.8433069124840767e+02 5.0129128629923798e+01 1.4045529176569544e+03 -1.0392091536381049e+03 -1.0809826565951225e+03 1.3588719552232709e+04 -5.1130220186336031e+04 -1.8146943733327044e+05 -4.5542620696919039e+02 9.1460151890540146e+01 -3.4481169005157426e+01 -2.1278920760441106e+03 4.5412428704439662e+01 3.1077575481333770e+02 8.1280085828667507e+02 -4.9511640283916604e+04 -1.7577869922773156e+04 1.2001684036637016e+01 2.5528524405529606e+02 -1.7680101100866523e+01 7.5542452149213932e+02 -3.3688802358061935e+02 8.9189621647413773e+01 -1.5561357100869645e+02 1.0332581744311712e+04 2.9844779522237740e+05 4.6369096223349288e+01 -1.8631167411881464e+01 6.2911991026840283e+01 -6.8408148390846327e+02 -1.1977661379497440e+03 1.4516348480192119e+02 7.3824083763327644e+02 -5.9648370286025029e+03 1.0890369686610537e+05 -3.8596744717659931e+01 2.0340676981562865e+02 -1.2289206216038072e+05 
      </Row>
      <Row Index="43">
        6.6251667052686969e-01 1.5161689364211668e+00 -3.2676730118703716e+00 -3.3379712287673513e-01 1.2671241468776262e+01 7.8766706246556595e-01 1.4340568757795218e+01 4.2716557284642604e+00 -1.1554951839748373e-01 -1.3633895094247173e-01 4.3604994679919429e+00 2.1270704930285618e+00 -1.5369232849221213e+00 -2.0103542470698727e+01 7.4563515909672162e+00 1.3950694860178814e+01 -1.1608189352877858e+00 7.9495938534379695e-01 -8.5157889482445626e-01 -6.8110278556042232e+00 -4.9286369020032605e-01 8.1015479743773966e-01 1.7880010435026328e+01 7.0637639995563397e+00 -2.8537328661641425e+01 2.6073288874909935e+00 -1.4434376340599364e-01 -3.8672514773890043e-01 1.8037649888562726e+00 5.3974292792211642e-01 1.1059372743956217e+00 3.5526615656334002e+00 -2.0095525167074829e+01 -1.6667882200375779e+01 -8.8302030628101047e-02 3.8351385315370479e-01 -2.4467382876516841e-01 -3.8641977663207605e-01 -1.1916133611969282e-01 -1.4135721018917220e+00 8.4817225778390792e-03 2.1202710888928536e+01 4.6369096313461924e+01 2.2980863363097410e+00 3.1776915046453580e-01 8.5854695862787045e-02 7.5707345855997410e-01 2.0435416890511178e+00 -9.1547176937057007e-01 1.3062074785803848e+00 -2.3425932429690413e+00 -7.3250867898478385e+00 1.4520938897921760e+00 -6.6751778658719729e-02 4.6628325812348193e+00 
      </Row>
      <Row Index="44">
        -1.1966325490666563e-01 -5.7254852354056851e-01 3.1248170291521937e+00 6.5352967442546372e-02 7.3709388195942758e+00 1.8301397393877750e-01 5.1112476930365798e+00 4.6292542077097210e-02 -6.4181994792752217e-01 2.7821303865702074e-01 4.8501716550531384e+00 -5.6042040804447630e+00 2.4726565231118514e-01 1.6760734339177361e+00 -1.2709252882908217e+01 -9.9266832863245327e+00 -4.3240881309823109e-01 1.9883595995874577e+00 -5.0512864178429062e-01 -1.0283225907695456e+01 -8.1822598108417051e+00 -2.7266601704043474e+00 -2.0557869956744970e+00 1.9977337303487094e+01 2.7866700785826730e+01 5.1896496384202351e-01 -8.0775893920233743e-01 -4.6380742111541551e-01 3.4959675031574236e+00 4.3132740816803299e+00 2.2101186710322906e-01 -5.4082998674336160e+00 2.5329626404385497e+01 -1.8501265601382375e+00 6.6201237936300172e-02 -5.8464840357937220e-01 1.2994308054252168e-02 -9.0645313257832694e-01 -2.1368487644345731e+00 8.9488233983797527e-01 1.7003240914864053e+00 3.9690537832572601e+00 -1.8631167375354153e+01 3.1776915045769150e-01 2.2940954442473869e+00 2.2692379970640086e-01 1.4988078095261885e+00 -3.3614534501775748e+00 -2.1915927856414656e+00 -1.2910384417863803e+00 3.2886842610013853e+00 3.4719168398560196e+00 6.0932764557833252e-02 4.4280481473467415e-02 -3.9409949314252342e+00 
      </Row>
      <Row Index="45">
        -1.3680219079842040e+00 1.7172606058859401e+00 -2.2890719403557114e+00 7.4273708374514413e-01 1.4717188231532692e+00 2.6138115444264443e+01 1.5736493331122871e+01 4.4465421845120687e+00 3.4040090398035616e-01 -3.9547381807962374e+00 -3.1280224462278170e+00 1.9783841993927069e+00 -3.6630543404296070e+00 2.3021064306518610e+00 2.5665497524082525e+01 1.1198674213073218e+01 -2.0866437072949537e+00 2.9776638153294965e-01 -1.4010504078882917e+00 -2.1955128931269243e+00 -1.9210510019408744e+00 -5.1612057616138074e-01 6.6604163476553104e+00 -1.4967624632700735e+01 -4.4006282202657118e+01 -1.5398330428891427e-01 -2.9985080148465753e+00 -6.5758971357378115e+00 -1.2516837944435792e+00 5.9100615597331085e-01 -3.5846936088878181e+00 -3.2503497510199963e-01 1.3004738557716530e+01 -1.4704338549332682e+01 -1.4976927953004946e+00 -4.1348209857168783e-01 -7.9988709517847578e-01 -9.2473077126697945e-02 4.7497351546588336e+00 1.5157418688349966e+00 7.1571915115145224e-01 1.0746944377577076e+01 6.2911990977531772e+01 8.5854695871398656e-02 2.2692379970832732e-01 3.6959253117703805e+00 -6.5011973839414594e-02 2.0587960910851670e+00 -4.8058510005628579e+00 -5.9110518274066148e-01 3.8710401211079226e-01 -1.1812599773223347e+01 1.2516403798898708e+00 8.2942366078134100e-01 9.2224401312623510e+00 
      </Row>
      <Row Index="46">
        6.4441456549165821e-01 -1.1233390183279823e+02 -1.6648305779262103e+01 -1.5971422528144132e+01 -2.0978606892853833e+01 -6.7903992712617719e+02 -2.4214580263345098e+02 -2.2665470157477898e+00 -9.1557675908093756e+00 3.0003675644105385e+00 2.3026971622859560e+02 2.0093369913502443e+01 3.7492506163918108e+01 -1.1309108953491568e+02 1.1672558529190655e+03 1.0657494796495848e+02 -5.6647141026661529e+00 2.1362227398094063e+01 -2.8981138063580829e+00 -2.0022194474609955e+02 -3.0275231606746047e+00 -3.2749456877003723e+01 1.2886955579258114e+02 -5.4630593949014019e+02 3.0378365196434788e+02 4.3187231675749445e+00 -4.0095896183725159e+00 -5.7385221873437331e-01 1.8842651789986530e+02 -3.3977741537151303e+01 2.5584566743832227e+01 3.6854237488521449e+00 5.2517211410147354e+02 2.9549607221433052e+02 -3.6713532447728099e+00 3.7075992592403111e+00 -1.4156057306813041e-01 -5.7264423277980612e+01 1.1008967096867536e+01 -4.0687337326663560e+00 1.2478205048889777e+01 -7.0647996894172695e+02 -6.8408148480306431e+02 7.5707345853932462e-01 1.4988078094218285e+00 -6.5011973783438926e-02 5.7965266494233248e+01 4.2777854011894448e+01 1.3993110202678409e+01 1.7554478760480592e+01 7.5032999165910482e+01 1.5638838195745234e+02 -9.1753341035811786e-01 -2.9087056639427118e+00 -8.0118847196842552e+01 
      </Row>
      <Row Index="47">
        2.9099457238379642e+00 -8.8886069641475387e+01 -1.2825284070219396e+02 -2.6701040342718613e+01 -1.0921297044703081e+01 -1.3995585044920019e+03 -5.3012951686604038e+02 1.0188462630819231e+01 -2.6672583071396559e+01 -8.3767408258586329e+00 8.4627629155354953e+01 1.5963593396544093e+02 3.1291205235746531e+01 -4.8859891686071023e+01 2.2791560924665719e+03 1.3603909959424118e+02 9.9652646487941183e+00 7.8613287998855014e+01 2.5254856513138293e+00 -7.3408032983145858e+01 6.1712164534697280e+01 -5.8282491594707153e-01 7.5875345385462651e+00 -3.5963834763197752e+02 6.5716834936918985e+02 -1.2956090379049783e+01 -3.2418911494939692e+01 -3.7695101919977105e+00 1.5506923728005154e+02 -1.1276123828521781e+02 3.3987410137499865e+01 3.0056008554418668e+01 1.7054405360615058e+02 3.4748385785592586e+02 -6.0364779224198486e+00 6.7052578873946800e+00 -4.7357574511693201e-02 -4.8074533683225638e+01 7.5680597150155535e+01 -1.0139166087968800e+01 -5.3235430079561326e+01 -8.8315383791093529e+02 -1.1977661407776513e+03 2.0435416890786979e+00 -3.3614534504095950e+00 2.0587960912684498e+00 4.2777854010703379e+01 2.0138546821481935e+02 3.5186273101790249e+01 9.7752047867942338e+00 6.9666721316240057e+01 2.9594765324266587e+02 3.4089585355641745e+00 -1.0618828722740247e+01 -1.4425488356510786e+02 
      </Row>
      <Row Index="48">
        3.4587676795146791e+00 -5.6148165209577655e+01 -9.8526321420354179e+00 -7.0693619489394621e+01 -1.3481852903649940e+02 -6.1028731828595039e+02 -5.5471645292833909e+02 2.5830511990889136e+00 -2.5607718849643618e+01 4.3619196197015242e+00 3.6467162946039025e+01 1.6885896627689931e+01 1.3210084265162342e+02 -1.1840731750944087e+02 1.3399619257403938e+03 9.9323212247606489e+02 4.5182964901288187e+00 4.4194949445277459e+01 2.1306153935961447e-01 3.9173638415927712e+01 5.8995843918302626e+01 2.2059317511410143e+01 6.0641303556592902e+01 -6.6143278332093007e+02 -5.8065715370547878e+02 5.6061532722796983e+00 2.7497621205393045e+01 5.1537342993589164e+00 4.8041816582593128e+01 -4.0830359821659613e+01 6.6296952374632838e+01 1.4016547591981760e+02 2.4352916333747069e+02 5.0090202187794893e+02 -2.4999328002238030e+00 1.4475264411149169e+00 1.9257671711843116e-03 -3.4236729554427114e+00 -1.7583075094364887e+01 -4.4692049216380219e+01 -6.9283693321383595e+00 -1.2016563822673656e+03 1.4516348395638454e+02 -9.1547176910863293e-01 -2.1915927856735076e+00 -4.8058510004752346e+00 1.3993110197791651e+01 3.5186273092049461e+01 1.2978039196950121e+02 4.6156027108594365e+01 5.1458934610871410e+01 -5.6122778330142481e+01 1.6948234212151867e+00 -1.9790149820108240e+01 1.0302979022948617e+02 
      </Row>
      <Row Index="49">
        2.3563836123486368e+00 -2.9089688852779091e+01 -3.0644206566373100e-01 -2.2807632085848581e+01 -2.5629438964726643e+02 6.0328752414792689e+01 -1.6521549097380989e+02 1.2439903069120476e+01 -8.5051944691775248e+00 3.9133788485298169e+00 8.8731306337475417e+01 1.7827101073566610e+01 6.9655622379336450e+01 -2.5946288217149822e+02 9.3486803960718362e+02 8.1916552350113727e+02 -7.2247107148330088e+00 5.6315120099761629e+00 -7.0642337784914844e+00 -6.4794408173541683e+01 6.4072428239588817e+00 -2.1157262604569496e+01 4.6703481915923885e+02 -1.2471963720508741e+03 -8.3445910318135509e+02 1.2227346669194503e+01 1.7999035875184610e+01 -1.5210493372335350e+00 5.4894644414289701e+01 -1.7647861401812520e+01 1.4594780870513318e+01 2.4142741599725082e+02 -8.3729968969804858e+01 2.5499530444290454e+02 6.8127147354822171e-01 -1.2964392806341607e-01 -3.1813853907207346e-01 -1.3935177502452561e+01 -3.1873156466858745e+00 -1.6526550575139126e+01 4.9297785017344452e+01 -5.8638494364484404e+02 7.3824083759650171e+02 1.3062074787221865e+00 -1.2910384417519625e+00 -5.9110518274453572e-01 1.7554478758263087e+01 9.7752047817445487e+00 4.6156027106780279e+01 7.8483462170049805e+01 7.8509932787671104e+01 -9.7754413414915675e+01 4.4763956363239288e+00 -6.2919253488402234e+00 8.5684659713268928e+01 
      </Row>
      <Row Index="50">
        1.3484618778881099e+01 -2.2739160495718170e+02 -3.3188427226501290e+01 -1.0598736125522009e+01 -3.2526212065735183e+02 -1.8057959782912658e+03 -1.1912259135713880e+03 2.0074780282207030e+01 -2.7396386461366092e+01 -6.9488865286643886e+00 2.4415065141212472e+02 1.0483422664584577e+02 1.0237804374697566e+02 -3.5592489702503372e+01 3.4329219780585299e+03 -1.6076656125122645e+03 -6.8013034089890425e+00 4.0124359759291735e+01 -2.2190251495794655e+00 -3.9133206412803702e+01 -6.8159137250161166e+00 -5.4820604725086469e+01 1.3148171920023151e+02 -2.7326804800673758e+03 3.6525710144132845e+03 -1.2251847698680649e+01 4.7131050754934222e+01 -9.7180784460115319e+00 2.5708354970816890e+02 -4.6645187919816181e+01 -8.1529521245074648e+00 2.7739664999283286e+02 2.1269774655857691e+03 1.5470725842474130e+03 -2.2196700181941935e+01 -1.0343004884245829e+01 -7.6829001169564037e-02 -7.5537729816490469e+01 7.1366570252757811e+00 -1.6118241841170530e+01 -5.3077077457656287e+01 -2.4905499286732197e+03 -5.9648370386159668e+03 -2.3425932432779568e+00 3.2886842601201707e+00 3.8710401295881525e-01 7.5032999166298850e+01 6.9666721328163021e+01 5.1458934646459483e+01 7.8509932803426409e+01 5.3826191910693933e+02 1.3105704373402614e+03 4.9145113479073643e+00 -2.3298042107911215e+01 -8.5214623159973803e+02 
      </Row>
      <Row Index="51">
        2.7023293766600545e+01 -5.3698844835255295e+02 -2.6534036844852380e+02 6.6267343050451018e+01 2.7662810001737671e+02 -8.5862610248588026e+03 -3.3979633826949284e+03 6.7489692061208189e+00 -2.2333606510655954e+01 -7.1517150874715298e+00 7.5843378729838878e+02 2.8314961813576519e+02 -1.8323355072247796e+02 1.4613437888585031e+03 6.2104780530184507e+02 -2.6156601259874180e+04 -3.8949174626264721e+01 1.2562692316681205e+02 -3.8772644940763712e+00 -3.1328519108938053e+02 2.1848250906472094e+02 1.8198048697132617e+02 -2.2819946273488458e+03 8.4400467810940463e+03 4.0153088910587132e+04 6.8914840536192060e+01 -2.5359075924672652e+01 4.5644371774978936e+00 5.0406249307841063e+02 -3.4371890061534941e+01 -7.7699265230447054e+01 8.2500232991296798e+00 9.7254749379511195e+03 4.1141205061101355e+03 -8.7664492853509728e+00 -4.8436786590376869e+01 3.6087783935654443e+00 -1.7713298606971512e+02 9.4656553066917695e+01 -1.3197514701998443e+01 -1.7582528723869473e-01 -2.3851528599424682e+03 1.0890369608751815e+05 -7.3250871467571415e+00 3.4719166444228904e+00 -1.1812599564178527e+01 1.5638838556420524e+02 2.9594766478112433e+02 -5.6122772020840785e+01 -9.7754412041627802e+01 1.3105704742040252e+03 4.8336591142017295e+05 8.8579155260231346e+00 -3.9814223474240862e+01 -4.8049112637318880e+05 
      </Row>
      <Row Index="52">
        5.1885301197870226e-01 -8.7103288771561438e-01 -2.5934263061584515e+00 -6.5151632055417963e-03 1.0746697083807952e+00 -2.3008537395209345e+01 -2.3760013087806428e+01 1.3938305798433634e+01 -6.5041031067011179e-01 -1.8186143003626114e+00 -4.0040024163157568e+00 3.3249605570920266e+00 1.1955407792647623e+00 -1.4129086624327030e+01 4.3312916148026716e+01 2.0228267454226163e+01 -1.5510493486782408e+00 1.9737532491236043e+00 -3.5944790545408800e-01 1.6057400810189453e+00 3.8705731987072087e+00 1.9306418750420917e-01 2.3766361718181383e+01 -1.3801514209444630e+01 5.4941196436933026e+00 -8.7023191313311798e-01 1.9517116510286570e+00 -3.0585394396971299e+00 -8.8283636703072403e+00 -2.0778890644521066e+00 -2.9950486989584135e-02 1.6481335350739222e+01 1.2294227610112447e+01 5.3310006605432116e+00 1.6970143946780283e+00 -3.0796898598130706e-01 4.1884380350191985e-04 1.0682409466673968e+00 -2.0769075388427609e+00 -4.7322396065870409e-01 8.8505514233941351e+00 -3.7294508819900443e+01 -3.8596744870927118e+01 1.4520938898000333e+00 6.0932764549198909e-02 1.2516403799023545e+00 -9.1753341055543469e-01 3.4089585352847327e+00 1.6948234214863569e+00 4.4763956364989239e+00 4.9145113464364218e+00 8.8579148648233641e+00 4.4981826154328388e+00 -1.3238371144491277e+00 -2.4012883471227000e+00 
      </Row>
      <Row Index="53">
        -1.1637841384584728e+00 1.3262227764283494e+01 6.6477581415787981e+00 7.5614834108307214e+00 1.7223907080484381e+01 2.0770005410794820e+02 1.3711796794342155e+02 -3.8317611033435952e+00 1.1831658498085275e+01 -5.2893791561722026e-01 -4.8390672451868966e+00 -4.9942542332174042e+00 -1.2860290150948344e+01 1.0733547947827788e+01 -3.7686070440418570e+02 -1.0716221607154705e+02 -4.7755229934890053e-01 -2.5117643789357036e+01 -3.9117028805933529e-01 -1.3026331917443017e+01 -2.0809003467273442e+01 -1.0013260642420633e+01 -9.5061863273695479e-01 1.3764041142461426e+02 -4.7817470859972843e+01 3.8494431885192171e-01 -1.5880390782964266e+01 -3.7389082023352671e-01 -1.1837704998827945e+01 9.6799206805546660e+00 -7.6026515265838484e+00 -1.9887646922204617e+01 -8.7736391185519963e+01 -9.3917091659711204e+01 1.6012960957643108e+00 5.7371584015349342e+00 -6.6785070364152599e-03 3.3682803630545735e+00 8.6693818048661413e+00 5.7603812850889540e+00 2.0353241051967466e+00 2.6384490491818474e+02 2.0340677031980161e+02 -6.6751778694910918e-02 4.4280481511305148e-02 8.2942366072880291e-01 -2.9087056630392212e+00 -1.0618828721358113e+01 -1.9790149821311559e+01 -6.2919253497459380e+00 -2.3298042101371056e+01 -3.9814221017058571e+01 -1.3238371144504555e+00 1.0961271370014918e+01 1.2385123963530878e+01 
      </Row>
      <Row Index="54">
        -1.5646105607389472e+01 2.8304831635020673e+02 1.6225678445585072e+02 -7.4103963605477475e+01 -2.4568550176866120e+02 5.2988615199401975e+03 1.9713892076202319e+03 1.0523360698483884e+01 -4.1920953028602526e+00 2.1627522370545194e+00 -4.5264762027468532e+02 -1.6092683813581243e+02 1.8467895477451384e+02 -1.0623117028325796e+03 1.2580058132987469e+03 2.0258850375801325e+04 2.6759409622754902e+01 -4.5801876610712497e+01 4.4753858151379973e+00 2.2197239776467904e+02 -1.1118376659892965e+02 -1.2113690928416327e+02 1.5947677758419886e+03 -6.9326631686564069e+03 -3.0269950532864779e+04 -5.7357343094423413e+01 3.2309818354377057e+01 -7.7336117266677320e+00 -2.4864057906251401e+02 -3.8988591296831146e+01 8.6876493161544204e+01 3.5595149292144924e+01 -6.5265172792967642e+03 -2.5761712524595205e+03 -4.8125346910383087e+00 3.7986737161991186e+01 -2.7849577163178765e+00 1.0160319317277754e+02 -7.1290613006334752e+01 -5.0934932823583949e+00 -3.7384580327314325e+01 3.4272589872404933e+02 -1.2289206139832851e+05 4.6628329368932100e+00 -3.9409947376807395e+00 9.2224399236074532e+00 -8.0118850792059675e+01 -1.4425489505764563e+02 1.0302978399195126e+02 8.5684658366953954e+01 -8.5214626838080585e+02 -4.8049112642784504e+05 -2.4012890047160909e+00 1.2385126404464245e+01 4.7851089768890117e+05 
      </Row>
    </InverseHessian>
  </Weights>
</MethodSetup>
