<?xml version="1.0"?>
<MethodSetup Method="MLP::MLP">
  <GeneralInfo>
    <Info name="TMVA Release" value="4.1.4 [262404]"/>
    <Info name="ROOT Release" value="5.34/05 [336389]"/>
    <Info name="Creator" value="clester"/>
    <Info name="Date" value="Tue Mar 18 10:20:55 2014"/>
    <Info name="Host" value="Darwin pb-d-128-141-154-76.cern.ch 12.2.1 Darwin Kernel Version 12.2.1: Thu Oct 18 16:32:48 PDT 2012; root:xnu-2050.20.9~2/RELEASE_X86_64 x86_64"/>
    <Info name="Dir" value="/Users/clester/marchMadnessChallenge"/>
    <Info name="Training events" value="1092"/>
    <Info name="TrainingTime" value="8.93271339e+01"/>
    <Info name="AnalysisType" value="Regression"/>
  </GeneralInfo>
  <Options>
    <Option name="NCycles" modified="Yes">6000</Option>
    <Option name="HiddenLayers" modified="Yes">N+5</Option>
    <Option name="NeuronType" modified="Yes">tanh</Option>
    <Option name="RandomSeed" modified="No">1</Option>
    <Option name="EstimatorType" modified="No">MSE</Option>
    <Option name="NeuronInputType" modified="No">sum</Option>
    <Option name="V" modified="Yes">False</Option>
    <Option name="VerbosityLevel" modified="No">Default</Option>
    <Option name="VarTransform" modified="Yes">Norm</Option>
    <Option name="H" modified="Yes">False</Option>
    <Option name="CreateMVAPdfs" modified="No">False</Option>
    <Option name="IgnoreNegWeightsInTraining" modified="No">False</Option>
    <Option name="TrainingMethod" modified="No">BP</Option>
    <Option name="LearningRate" modified="No">2.000000e-02</Option>
    <Option name="DecayRate" modified="No">1.000000e-02</Option>
    <Option name="TestRate" modified="Yes">6</Option>
    <Option name="EpochMonitoring" modified="No">False</Option>
    <Option name="Sampling" modified="No">1.000000e+00</Option>
    <Option name="SamplingEpoch" modified="No">1.000000e+00</Option>
    <Option name="SamplingImportance" modified="No">1.000000e+00</Option>
    <Option name="SamplingTraining" modified="No">True</Option>
    <Option name="SamplingTesting" modified="No">False</Option>
    <Option name="ResetStep" modified="No">50</Option>
    <Option name="Tau" modified="No">3.000000e+00</Option>
    <Option name="BPMode" modified="No">sequential</Option>
    <Option name="BatchSize" modified="No">-1</Option>
    <Option name="ConvergenceImprove" modified="No">1.000000e-30</Option>
    <Option name="ConvergenceTests" modified="No">-1</Option>
    <Option name="UseRegulator" modified="Yes">True</Option>
    <Option name="UpdateLimit" modified="No">10000</Option>
    <Option name="CalculateErrors" modified="No">False</Option>
    <Option name="WeightRange" modified="No">1.000000e+00</Option>
  </Options>
  <Variables NVar="4">
    <Variable VarIndex="0" Expression="seed_prob" Label="seed_prob" Title="seed_prob" Unit="" Internal="seed_prob" Type="F" Min="0.00000000e+00" Max="1.00000000e+00"/>
    <Variable VarIndex="1" Expression="winfrac1-winfrac2" Label="winfrac1-winfrac2" Title="winfrac1-winfrac2" Unit="" Internal="winfrac1_M_winfrac2" Type="F" Min="-5.04464269e-01" Max="6.11607134e-01"/>
    <Variable VarIndex="2" Expression="avg_scorediff1-avg_scorediff2" Label="avg_scorediff1-avg_scorediff2" Title="avg_scorediff1-avg_scorediff2" Unit="" Internal="avg_scorediff1_M_avg_scorediff2" Type="F" Min="-2.33035717e+01" Max="2.90575752e+01"/>
    <Variable VarIndex="3" Expression="avg_score_against1-avg_score_against2" Label="avg_score_against1-avg_score_against2" Title="avg_score_against1-avg_score_against2" Unit="" Internal="avg_score_against1_M_avg_score_against2" Type="F" Min="-2.50357170e+01" Max="2.12218971e+01"/>
  </Variables>
  <Spectators NSpec="1">
    <Spectator SpecIndex="0" Expression="season" Label="season" Title="season" Unit="" Internal="season" Type="F" Min="6.50000000e+01" Max="8.20000000e+01"/>
  </Spectators>
  <Classes NClass="1">
    <Class Name="Regression" Index="0"/>
  </Classes>
  <Targets NTrgt="1">
    <Target TargetIndex="0" Expression="game_outcome" Label="game_outcome" Title="game_outcome" Unit="" Internal="game_outcome" Type="F" Min="0.00000000e+00" Max="1.00000000e+00"/>
  </Targets>
  <Transformations NTransformations="1">
    <Transform Name="Normalize">
      <Selection>
        <Input NInputs="5">
          <Input Type="Variable" Label="seed_prob" Expression="seed_prob"/>
          <Input Type="Variable" Label="winfrac1-winfrac2" Expression="winfrac1-winfrac2"/>
          <Input Type="Variable" Label="avg_scorediff1-avg_scorediff2" Expression="avg_scorediff1-avg_scorediff2"/>
          <Input Type="Variable" Label="avg_score_against1-avg_score_against2" Expression="avg_score_against1-avg_score_against2"/>
          <Input Type="Target" Label="game_outcome" Expression="game_outcome"/>
        </Input>
        <Output NOutputs="5">
          <Output Type="Variable" Label="seed_prob" Expression="seed_prob"/>
          <Output Type="Variable" Label="winfrac1-winfrac2" Expression="winfrac1-winfrac2"/>
          <Output Type="Variable" Label="avg_scorediff1-avg_scorediff2" Expression="avg_scorediff1-avg_scorediff2"/>
          <Output Type="Variable" Label="avg_score_against1-avg_score_against2" Expression="avg_score_against1-avg_score_against2"/>
          <Output Type="Target" Label="game_outcome" Expression="game_outcome"/>
        </Output>
      </Selection>
      <Class ClassIndex="0">
        <Ranges>
          <Range Index="0" Min="0.0000000000000000e+00" Max="1.0000000000000000e+00"/>
          <Range Index="1" Min="-5.0446426868438721e-01" Max="6.1160713434219360e-01"/>
          <Range Index="2" Min="-2.3303571701049805e+01" Max="2.9057575225830078e+01"/>
          <Range Index="3" Min="-2.5035717010498047e+01" Max="2.1221897125244141e+01"/>
          <Range Index="4" Min="0.0000000000000000e+00" Max="1.0000000000000000e+00"/>
        </Ranges>
      </Class>
    </Transform>
  </Transformations>
  <MVAPdfs/>
  <Weights>
    <Layout NLayers="3">
      <Layer Index="0" NNeurons="5">
        <Neuron NSynapses="9">
          -5.4250306208836396e-01 1.0145078828430742e+00 7.1028024114043153e-01 7.7293485310622234e-01 -9.8292280404273136e-01 1.6805165775594944e-01 7.4488915375416853e-02 1.3960737081485661e+00 -7.6590272888912692e-01 
        </Neuron>
        <Neuron NSynapses="9">
          -6.9158443874059250e-01 -2.0069841127456005e+00 -7.5947130115528561e-01 -1.0596424436066321e+00 -1.5772593555955242e-01 -5.9288502465566195e-01 5.0171303821685787e-01 -3.4204377338722508e-01 1.2673664307142456e+00 
        </Neuron>
        <Neuron NSynapses="9">
          -2.3208772469276742e-01 1.0372973377398966e+00 1.5147830932990214e-01 -8.1287155022755464e-01 1.0746677382969900e+00 7.3541885433807341e-01 -7.1152997096454884e-01 -3.9451130537770651e-01 1.1690509867099161e+00 
        </Neuron>
        <Neuron NSynapses="9">
          -1.3769135744023291e+00 -1.4535702274191407e+00 2.0035185937159067e-01 -6.7924946614693071e-01 1.3056287319660591e+00 -3.0370080261909160e-01 -5.4599249454476577e-02 -3.1806847616645255e-02 -8.5158636739180438e-01 
        </Neuron>
        <Neuron NSynapses="9">
          -2.7654379403582668e-01 5.5842526074314558e-01 -2.8057420831136592e-01 1.7711329509255727e-01 -2.6193187164449921e-01 6.5888054228567819e-02 2.3904390195091731e+00 2.6838602939238654e-01 -4.4639114770727940e-02 
        </Neuron>
      </Layer>
      <Layer Index="1" NNeurons="10">
        <Neuron NSynapses="1">
          -5.6271273832238788e-01 
        </Neuron>
        <Neuron NSynapses="1">
          1.6645705452949960e-01 
        </Neuron>
        <Neuron NSynapses="1">
          2.7196956373317088e-01 
        </Neuron>
        <Neuron NSynapses="1">
          5.5615302929505239e-01 
        </Neuron>
        <Neuron NSynapses="1">
          1.8901836688742757e-01 
        </Neuron>
        <Neuron NSynapses="1">
          6.2725122643874809e-02 
        </Neuron>
        <Neuron NSynapses="1">
          1.5482812803465291e+00 
        </Neuron>
        <Neuron NSynapses="1">
          -1.0674034606561149e-01 
        </Neuron>
        <Neuron NSynapses="1">
          4.4233825103247570e-01 
        </Neuron>
        <Neuron NSynapses="1">
          -1.1495667340545936e+00 
        </Neuron>
      </Layer>
      <Layer Index="2" NNeurons="1">
        <Neuron NSynapses="0"/>
      </Layer>
    </Layout>
    <InverseHessian NElements="3025" NRows="55" NCols="55">
      <Row Index="0">
        6.4971734478322913e+00 1.1417987045561922e+01 6.6307993746768110e+00 -1.6426048479368649e+00 1.7565470783898629e+00 5.8821981414820982e+01 1.2773932690980365e+01 3.3932847958796790e+00 5.1172949428518466e-03 -2.5026505794318549e-01 -2.8513333543749226e+00 -3.6755835839895585e+00 -3.0346088387173509e-01 -4.7855696025298444e-01 -5.3527166733366258e+01 5.4548630477936335e+01 -2.4841536975133032e+01 2.6198996398167795e-01 -4.3343371619613116e+00 -6.5268238412714181e+00 1.3795368134191253e+00 2.5537785106361053e+00 -2.3484732993560087e+00 -5.8119265983028235e+01 -8.0557092528682958e+01 1.9943216567425806e+00 3.1194915718850141e-01 1.9101468596800371e+00 -3.8484497003235445e+00 7.2932177418190864e+00 -1.0576851242048108e-01 1.8548819695532910e+00 -7.1664736517465442e+01 2.1910919678986627e+01 -3.8087056710335027e+01 4.1871795615123936e-01 3.9993622613759661e-02 2.3943238047633528e+00 5.6085735410360016e-01 -1.8492216524928751e+00 1.1056068529484133e+00 -8.7590536927872762e+00 8.6416638698583142e+01 3.5568013918025407e+00 1.7230111440694373e-01 -1.2820538580278926e+00 -1.2449273179532940e+00 -7.9981548121742430e+00 1.9601435826707654e+00 -8.5620882152981004e-01 4.3920136028811259e+00 -1.8045881897398246e+01 -1.9174036665575001e-01 -8.0002706601789431e-04 1.1821905427121507e+01 
      </Row>
      <Row Index="1">
        1.1417987045574458e+01 1.8584572587063820e+02 2.4240210262485309e+01 1.6177371015591335e+00 -2.6738761337913775e+01 8.1766459561593956e+02 1.8765533335413639e+02 -1.9898794612971912e+01 9.3475690882975400e+00 8.4620119287645927e+00 -3.2569163611806397e+02 6.6357925308016643e+00 -5.5454752149341076e+00 -2.9591685938982145e+01 -1.5169881164636195e+03 5.3243407933843969e+01 -5.7389910307207863e+01 -2.0703200591396936e+01 -1.1402661092032156e+01 1.0062719937328896e+02 -1.9918327845608417e+00 8.9995275316650680e+00 6.1634618801895613e+01 4.7855081423311793e+02 -9.0158321462895216e+01 6.5148233025436866e+01 -1.2588809543260171e+00 5.8750606620197914e+00 -2.1945763462742528e+02 1.0154610002205263e+01 -1.4750556341989407e+01 2.4006834048150790e+01 -7.7808650367910741e+02 -5.6778461002520615e+01 -5.1036498007243168e+01 9.7277886476611619e-02 1.8290892963608604e-01 6.8474267606555259e+01 5.7868589517751730e+00 3.0482437545361134e+00 1.2783416753640076e-01 1.0944974774387556e+03 5.6507678527003384e+02 2.1415986462028492e+01 -3.6265551128793154e+00 -5.9697913856750269e+00 -6.6336080525134022e+01 -3.4924193982816874e+01 -3.4476081414065618e-01 -1.4161618743075650e+01 -2.7704323996674496e+01 -1.2406111182158516e+02 -5.5513704034673141e+00 5.9936977160547968e+00 3.9541963088608590e+01 
      </Row>
      <Row Index="2">
        6.6307993751866361e+00 2.4240210266038872e+01 4.2091963933196229e+02 5.0668653449820109e+00 -1.0615152893239763e+01 1.5649543920019671e+03 4.9384541629734917e+02 -1.4362634090777431e+02 1.4394049861982802e+01 1.7021616452532289e+01 -3.4263620219740467e+01 -7.4673785154505097e+01 5.1060999998621092e+01 7.8370793215805264e+01 -1.4818639310231918e+03 4.7164329840979019e+02 -8.6409986407724318e+01 -7.9591064628496170e+01 -1.1465969083741038e+01 -4.4098820520633744e+01 -2.3915255311192945e+02 -3.9658239546551869e+01 3.0301238070420546e+01 -9.1125893979098419e+02 -1.2482255920718901e+03 1.0277279136958002e+02 4.0274423758940145e+01 1.4326152736702356e+01 -6.6487639739813034e+01 8.5926532818461496e+01 -9.1297776909590453e+00 4.7775206155688934e+01 7.9192391713055645e+02 4.7951940318726272e+01 -5.4181471004982782e+01 -4.5459757823840619e+00 -1.3697930992811493e+00 1.6216590367054756e+01 -7.1344856830838950e+01 -5.0130093819116510e+00 -9.7640654694407214e+00 1.5035296042633968e+02 1.8399161192563199e+03 -1.2547156375048522e+02 1.3720184079188726e+00 -9.3609330739961578e+00 -8.9462575235550332e+00 -2.6293472928548204e+02 7.4798688329170915e+00 -2.8286780543083792e+00 9.8650731645308625e+01 -3.8551423613141822e+02 -4.6053559807616864e+01 1.2843537142060008e+01 2.1633260740393408e+02 
      </Row>
      <Row Index="3">
        -1.6426048480116853e+00 1.6177371011810922e+00 5.0668653457605615e+00 2.3090093392629999e+01 -8.9591673290885439e+00 2.2518731141510844e+02 -2.4947365085225506e+01 1.4311406221709717e+00 2.1653992292847533e+00 -2.1281095801198453e+00 -1.8504265610864596e+01 -4.0796517515253763e+00 -2.6913356663946963e+01 -1.1323384709889227e+01 -3.2343518566435876e+02 -2.0744637413201383e+02 7.5542289502861344e+00 -9.8955133113218636e+00 3.0993091653433780e+00 2.3228515125624458e+01 -4.9609477691235195e+00 -1.6646532748075508e+01 2.0567912252505661e+01 -2.2319873047021412e+02 2.3466666339219316e+02 -2.8907233557122737e+01 3.0610308978283509e+00 -3.2889274824895418e+00 -2.3727727535644394e+01 1.8406841850332679e+01 -1.0400536333200373e+01 6.9050904791469092e+00 -5.0528586128078778e-01 1.5037570831592220e+01 -6.2563006258175236e+00 2.7305071499263249e+00 -1.6281376238350185e+00 1.2655126506364056e+01 -1.4646083492267991e+01 2.0220489054222166e+00 -1.0375849121552982e-02 -4.8350735775168459e+01 -3.6413647187781305e+02 4.2844053394358426e+00 5.4524350136034916e-01 2.5500491164303023e+00 -7.1325960774856716e+00 -1.4949776345569948e+01 -2.2771166431628359e+01 -4.1001143399176474e+00 2.9989249363359715e+01 7.5412356570082380e+01 1.0646295199559654e+00 3.7812181107191627e+00 -5.1067774836173271e+01 
      </Row>
      <Row Index="4">
        1.7565470787705699e+00 -2.6738761335465412e+01 -1.0615152889273304e+01 -8.9591673301940542e+00 1.4728859097090427e+02 1.2404259398584536e+02 1.1627518465442525e+02 6.8655074553337982e+01 -5.1374517845253975e-01 -7.5469501883877346e+00 1.1430385410527116e+02 5.4587264384333452e+00 -9.0409016548259000e+00 1.1335494679566227e+02 4.8801171115414121e+02 4.3066286329246441e+02 -1.4385969309939433e+01 1.6592298239306047e+01 3.0589676135529444e+00 -7.2411533608279399e+01 2.2015009123745322e+01 2.9628249064686898e+01 -2.7727194549000234e+02 -4.3200724723327670e+02 -6.4111731915262965e+02 -5.1355621135632312e+01 -9.2541736233714005e+00 -3.9617684327504392e+00 3.8217958079856174e+01 -2.9541983241848683e+01 -6.6187629574815654e+00 -1.3235101808360702e+02 -6.0993999167723962e+02 -2.5606437437799599e+02 -5.0333634303095479e+01 -1.0450233608590622e+01 1.6265887542190316e+00 -9.5303924580600139e+00 9.4962627839915541e+00 1.1668926064694511e+00 3.3579093395287583e+00 2.2772551991047430e+02 9.4489386516440197e+02 -1.3643783093632443e+01 -6.3769504903624474e-01 3.3193215469308992e+00 1.6391081306200149e+01 2.8268845506896007e+01 4.3825609139110409e+00 5.7522907929695641e+01 -4.8846372122376991e+01 -1.2045638226978971e+02 6.9037116804466470e+00 -7.6843919285347209e+00 6.8693451206045282e+01 
      </Row>
      <Row Index="5">
        5.8821981420776595e+01 8.1766459566127560e+02 1.5649543919454009e+03 2.2518731141077913e+02 1.2404259390485559e+02 2.1815573982321730e+04 5.5218663464637366e+03 -1.5839504293358968e+03 2.0718816034856349e+02 5.2853257718215090e+01 -1.1896586974264001e+03 -3.3268823070496694e+02 -3.1070430754133668e+02 9.2946859617150244e+02 -1.3630289114187613e+04 1.2436428951087448e+04 -7.8920342526857866e+01 -7.0581393117379457e+02 -8.3107778377869110e+01 1.4536143509348881e+02 -7.7734802599536238e+02 -1.9135072829611917e+02 -1.1934683996815361e+03 -1.5321900307920305e+04 -2.2008016949267989e+04 1.2248481665065055e+03 8.7082265827131778e+01 9.5012797244677898e+01 -1.6373219038579293e+03 8.2075752643004910e+02 -9.1561004803085623e+01 1.4015549978809767e+02 -6.8686207836153335e+03 -2.4660880098892512e+03 -4.7822655300975811e+02 1.9496636429060891e+02 -3.1158293145018703e+01 5.0688611340317522e+02 -2.8138055161053262e+02 -1.8456453649221370e+01 -8.9460474991480396e+01 8.0284699482644210e+03 3.3182657257349223e+04 -1.1980862066839475e+02 -1.3677844569887128e+01 -5.2357721927245890e+01 -3.6683644939540545e+02 -1.4822082976814227e+03 -2.5611432471376327e+02 6.9301899138144108e+01 -4.3829819848220708e+01 -5.9863202858712530e+03 -3.2705788108847844e+02 2.8105554653918136e+02 3.6315839812120876e+03 
      </Row>
      <Row Index="6">
        1.2773932693244772e+01 1.8765533336727006e+02 4.9384541624239864e+02 -2.4947365083558168e+01 1.1627518460251460e+02 5.5218663460506432e+03 3.8597073325998413e+03 -1.0394083207224230e+03 4.3060836641944356e+01 2.3080424032215721e+01 9.3218074583052832e+00 3.5377686351979236e+02 -2.3068447809802819e+01 5.8728685094737625e+02 -2.9120349476840847e+03 4.6960990760278419e+03 -1.1717802984448869e+02 -1.8409014586395620e+02 -4.9989539172627801e+01 -3.3951340146076836e+02 -7.4173459849406265e+02 -3.1930055481142194e+01 -8.0739312032151793e+02 -2.1728652344911916e+03 -9.9890447701598587e+03 6.2750941922744846e+02 1.3477943412651257e+01 4.7888307562718659e+01 -1.7060112034304373e+02 4.4549514604611858e+01 1.8590489308972695e+00 5.4793711826107213e+01 -3.4400699000228060e+03 -1.6373377818973747e+03 -1.3361971901480054e+01 5.3659534300619271e+01 -9.0395775847681570e+00 2.0583884403473014e+01 3.9627490782802874e+02 -2.1915891543965188e+01 -1.0868859807864055e+02 4.5252327665218018e+03 1.5322695593308736e+04 -1.4640626966767829e+02 -1.9953256709854198e+01 -2.2521628091925201e+01 -9.0179447288844692e+00 -2.0172407951771945e+02 -5.4725839945772904e+01 6.1532597427989515e+01 -4.7569871984338732e+02 -3.2433110325777166e+03 -2.7056012466997720e+02 8.1121245065409340e+01 2.1165746120313975e+03 
      </Row>
      <Row Index="7">
        3.3932847959502519e+00 -1.9898794611192578e+01 -1.4362634091741211e+02 1.4311406230671875e+00 6.8655074546267684e+01 -1.5839504294148769e+03 -1.0394083207500792e+03 1.2802733973085717e+03 -1.4488818633305470e+01 -2.6956988188943974e+01 2.6682817297043766e+01 -1.6515680697734297e+02 -1.4879432983843003e+01 6.6814088264568966e+01 1.5430227489264639e+03 2.2316464498913524e+03 3.2499715237386795e+01 8.6643669950296356e+01 1.9520872330155012e+01 4.6753056152740776e+01 3.5733557732673268e+02 6.6790409360435106e+01 -1.3718260123170148e+02 3.0374460604006906e+01 -1.8083341587711839e+03 -7.4394084482612072e+02 -2.9272192127759808e+00 -4.3919646414393824e+01 1.0211026291428718e+01 -5.5144893816433964e+01 9.6109528386608929e+00 -1.8414940792774237e+02 -8.9348132039588040e+02 9.5829671547514721e+01 -1.3436453346376783e+02 -1.5740702000791089e+01 3.4220444406120629e+00 2.8792318965791805e+00 -3.2873029098797531e+02 5.4974952230610530e+00 4.2859087260120340e+01 -1.4140910232013441e+03 1.6290728387839752e+03 1.2575018749812600e+02 5.1660043703317697e+00 2.4130008346602466e+01 5.7860452533483500e+00 2.0687405233082913e+01 4.6077650456839734e+01 5.2839636364615473e+01 -1.0991711468904485e+02 -3.3231335249340901e+02 2.6464565370227592e+02 -3.8820841932917091e+01 3.6629729855801418e+02 
      </Row>
      <Row Index="8">
        5.1172949540486679e-03 9.3475690884448994e+00 1.4394049862337155e+01 2.1653992292002444e+00 -5.1374517821363042e-01 2.0718816035516048e+02 4.3060836646026935e+01 -1.4488818632955436e+01 1.2486154570412348e+01 1.1125887526042275e+00 -2.0520940334361992e+01 7.9092102722406992e+00 -2.8182813455025553e+00 -1.4953998580535917e+00 -4.1508403461559220e+02 -1.0665350277442984e+02 1.9127914601979079e+01 -2.4291045773763120e+01 4.6842956555096760e-01 1.1293121016579313e+01 -5.9075634376782018e+00 -2.4792274871500477e+00 7.5047368600496043e+00 1.2037783086179324e+01 7.5318860744979190e+01 -6.5730778187633732e-02 -4.5687661535675907e+00 2.3419061776605865e+00 -2.6286255469805102e+01 1.0388749478322852e+00 -3.2327933459247538e+00 5.9971056085674377e+00 2.8291156502786265e+01 -2.5588655786096304e+01 3.2867699639234438e-01 6.7136288578513188e+00 -5.8355667434827292e-02 6.9249214814631168e+00 -1.1315775089523449e+01 3.0900104722448785e-01 -1.7473027738674121e+00 1.7634900972473713e+02 -3.8994215997988590e+01 -6.2100543079429880e+00 -9.1407931588204328e-01 -1.7558659360687776e+00 -6.9098309126972852e+00 -1.4264084584680676e+01 -3.3878917608922365e+00 -1.6487215183750248e+00 -4.6107817157952322e+00 5.2204979135970522e+00 -2.0411139364667674e+00 9.3265169840896132e+00 -1.1735545654429032e+01 
      </Row>
      <Row Index="9">
        -2.5026505790457126e-01 8.4620119289406190e+00 1.7021616454208640e+01 -2.1281095803508681e+00 -7.5469501875601690e+00 5.2853257740912497e+01 2.3080424042943143e+01 -2.6956988187832735e+01 1.1125887526181939e+00 1.9444884132218359e+01 1.5307252362019468e+00 -1.8153873655032843e+01 1.0215448872088970e+01 1.1262299551830061e+01 -1.0242609370466046e+02 -7.1442693281601066e+01 -2.2242440140939209e+01 -5.0035104011544789e+00 -7.7361543577503600e+00 -7.6776464933710526e+00 -1.0025964554062616e+01 -1.2044177272393639e+00 -6.7357181762645268e-01 -8.0176134973798163e-01 1.5477103817466912e+02 5.2844125020389775e+01 1.4943998701591141e+00 1.0551164197432547e+01 4.9978229313966409e+00 -4.0445375984065750e+00 1.4757561031927808e+00 -1.1081020450646049e+01 4.6482459264730636e+01 3.8643651317190333e+01 2.3110075690819841e+01 -1.0285703104353274e+00 1.5868112796277212e+00 -1.8104380619413996e+00 -1.0549668540710918e+01 1.9371575639638856e+00 4.6808485677475753e-02 9.3476978911248892e+01 -1.4219950984807716e+02 4.3742096852627430e+00 -1.5136873577094834e-01 -8.3069620684971497e+00 1.9486120730810030e-01 -1.7787033835794944e+01 6.1198929114416352e+00 4.2634910647879245e+00 9.5119452000826001e+00 2.6108039590282601e+01 -4.1804248263666253e+00 6.8696339702495735e-01 -2.7809379516127365e+01 
      </Row>
      <Row Index="10">
        -2.8513333534879322e+00 -3.2569163611257341e+02 -3.4263620206494579e+01 -1.8504265614115337e+01 1.1430385410883312e+02 -1.1896586971634536e+03 9.3218076031369321e+00 2.6682817319805622e+01 -2.0520940334855556e+01 1.5307252340796631e+00 1.4702475901668447e+03 -4.0343466588575090e+01 1.2796599177351936e+01 5.7757352093203497e+02 2.9946124984604371e+03 1.3207216691620179e+03 -2.5905960567527643e+02 4.5557681159767554e+01 -1.7661833069374055e+01 -1.0308964678917607e+03 -1.1125254733614714e+01 7.3353899088582963e-01 -7.3865780823706064e+02 -1.1653910724884533e+03 -1.6203707895954140e+03 1.1735057195777158e+02 3.4185401228984915e+00 -1.4167655530233853e+01 5.9737827923638451e+02 -5.9789826850054638e+01 2.3598595342606167e+01 -1.3611377227077136e+02 6.5479980925569032e+02 8.3589219240211520e+01 -7.2040231667848929e+01 -7.6226850726781095e+00 -1.1758340036359891e+00 -2.3464456754863940e+02 5.5255600864607686e+01 -6.0469337978618318e+00 -6.8470355228552876e+01 -1.7236761694558982e+03 1.0870919526104558e+03 -3.7677331797260791e+00 5.4107832802269114e+00 1.4101619253164779e+01 2.3402045099799352e+02 7.9040135425800486e+01 7.5180322705420508e+00 1.4864325355763185e+02 -2.0723268265967047e+01 -1.2640448598003105e+02 -7.7994579624768239e+00 -1.6336476444329463e+01 1.4914367527072591e+02 
      </Row>
      <Row Index="11">
        -3.6755835839304947e+00 6.6357925308464587e+00 -7.4673785157865495e+01 -4.0796517513988526e+00 5.4587264362164873e+00 -3.3268823074539557e+02 3.5377686350787593e+02 -1.6515680697720012e+02 7.9092102719859216e+00 -1.8153873655311941e+01 -4.0343466594542370e+01 3.1338774852885069e+02 -7.6059337792481756e+00 3.3785295915535201e+01 -6.0754797035336185e+02 -1.8760432239512147e+02 1.5739449761507191e+02 -7.4650716819799783e+00 4.3990063028349020e+00 1.4275961081439632e+01 -1.5013257441926456e+02 -4.3006948853428932e+00 -1.7492399167665553e+01 1.0029154071985191e+03 -2.5134694999733119e+02 -5.8641520775166683e+01 -1.0409332227645109e+01 -5.4283733628274398e+00 -2.2365753204785648e+00 -4.3674488649070838e+01 -1.1724834820184659e+01 2.9808945220901371e+01 -5.6634499122904310e+02 -1.5087916752469391e+02 4.6936258724214241e+01 1.1088174509021314e+01 -5.0562792041515756e+00 -8.3764365743887232e+00 9.0219205218235459e+01 -4.0013426074616065e+00 -5.1778594797796398e+00 5.2787707853425275e+02 5.5894272990122681e+02 -6.6992103979462783e+01 -5.3931027976430759e+00 5.6206116511305666e+00 -4.4089457152778548e+00 1.1904780292833628e+02 -1.1400406279622768e+01 -7.3144813109218383e+00 -1.1607608949385116e+02 -1.1499173450886474e+02 -3.4836323403178376e+01 7.4431489698451703e+00 7.9995762452716463e+01 
      </Row>
      <Row Index="12">
        -3.0346088369970392e-01 -5.5454752138109598e+00 5.1060999998348848e+01 -2.6913356664149603e+01 -9.0409016563152029e+00 -3.1070430752846937e+02 -2.3068447796253352e+01 -1.4879432981078423e+01 -2.8182813456274580e+00 1.0215448871587867e+01 1.2796599172184756e+01 -7.6059337785720098e+00 9.1795218559945454e+01 4.0202091337470982e+01 3.5974108543679034e+02 4.3084422846077467e+02 -2.4508994206156359e+01 -3.4493757097463771e+00 -6.6416462992962533e+00 -3.7832082697534062e+01 -2.0833759761368853e+01 -1.7695977351596447e+01 3.4656430872990768e+01 1.6707472626640453e+02 -3.8263182256590790e+02 4.9810479711616779e+01 8.7176117711876202e+00 4.5320427038729143e+00 4.0720449156464198e+01 -2.0400565765360682e+01 1.1475275382897060e+01 -7.3401849822556322e+00 3.4322029707037649e+02 7.4492773867314440e+01 7.8908212905365431e+00 -6.9803718010638249e+00 1.2992389565135798e+00 -2.6223968206192747e+01 -1.3101306385548455e+01 -1.2293944943140125e+00 2.9393423796604803e+00 -6.3877187994516362e+01 6.1880373907073022e+02 -3.5092096688785460e+01 4.1289441740881183e-01 -3.8526116179779675e+00 1.3445762207497154e+01 -1.1208096072540371e+01 4.5423485329201775e+01 8.4308112852436139e+00 -9.3570468632202672e+00 -1.3091992883173779e+02 -3.8898758583572213e+00 -5.8775154665272904e+00 8.9519268132746532e+01 
      </Row>
      <Row Index="13">
        -4.7855695859272984e-01 -2.9591685927445951e+01 7.8370793214921832e+01 -1.1323384712856193e+01 1.1335494678382042e+02 9.2946859634100690e+02 5.8728685111026425e+02 6.6814088292954693e+01 -1.4953998595998366e+00 1.1262299546625286e+01 5.7757352088539210e+02 3.3785295925506034e+01 4.0202091338803257e+01 7.6996435245249052e+02 1.1370039588895538e+03 3.3749557721880819e+03 3.5647726384334916e+01 -1.3176494554943133e+01 -9.1838954984633734e+00 -5.3204273607073685e+02 -4.6720513920706182e+01 2.0969610476241304e+01 -8.2145393017245442e+02 -2.1044096811529494e+03 -4.7705868293399690e+03 6.7124665868041813e+00 1.6543517674257600e+01 1.8400382335061671e-01 8.2576546661403086e+01 -1.9884331181203454e+01 -1.6830294922684089e+01 -1.6290100220277881e+02 -1.2085340851556200e+03 -3.7630948230058385e+02 3.2265054609593534e+01 -1.2931617203081714e+01 7.4489184026498512e-02 -9.3880891064379156e+01 -5.5785697365685792e+01 -5.8228422730383089e-02 -3.0640653723796351e+01 3.3548665070648258e+02 6.4508912789291744e+03 -3.2615917219473914e+01 -2.8572491639143927e+00 -3.6695050645315117e+00 8.4314249498775837e+01 -3.9989717379321064e+01 4.1187873333578999e+01 1.5846760113924719e+02 -1.2433718761325630e+02 -1.1174981579370137e+03 1.8454108392540906e+01 -9.0685593962897073e+00 7.5919324258046993e+02 
      </Row>
      <Row Index="14">
        -5.3527166729230657e+01 -1.5169881164309863e+03 -1.4818639311157458e+03 -3.2343518566028700e+02 4.8801171105842604e+02 -1.3630289114815465e+04 -2.9120349477299415e+03 1.5430227489637764e+03 -4.1508403462121976e+02 -1.0242609372388324e+02 2.9946124981527828e+03 -6.0754797034047806e+02 3.5974108541215173e+02 1.1370039585793406e+03 4.5089050123454057e+04 2.4942675114719321e+04 -1.0597040278065306e+03 9.7377273486193553e+02 4.8204589959131710e+01 -8.8824948310010484e+02 1.1804166095016624e+03 3.6736808761063543e+02 -2.4268748729504296e+03 -1.9981807826636457e+04 -2.9268492887798115e+04 -5.1079517499033705e+02 -3.2067933112521132e+00 -2.2392536992178196e+02 2.6539587788567524e+03 -6.7187432476527579e+02 4.2427115159891105e+02 -9.2546602603899476e+02 -1.7443877327848463e+03 8.7657422184417396e+02 -3.8752275039085873e+01 -1.8315626311530650e+02 2.2718153038747086e+01 -9.4537408852529779e+02 2.5457302013461049e+02 -3.4038494363681380e+01 2.9716398397281296e+02 -1.5718924131212956e+04 3.3649972395578385e+04 1.6029126471761941e+02 3.7425363335457064e+01 1.6195226689984699e+02 8.1025769387022342e+02 1.3837540197960170e+03 4.7091574686459387e+02 4.0475923032869900e+02 -4.1067289301225469e+02 -5.7581592361051071e+03 3.3855106986153260e+02 -3.4742433684949538e+02 4.9110446592854323e+03 
      </Row>
      <Row Index="15">
        5.4548630489435709e+01 5.3243408016202011e+01 4.7164329781741253e+02 -2.0744637408793392e+02 4.3066286281497759e+02 1.2436428945661852e+04 4.6960990747371579e+03 2.2316464499572612e+03 -1.0665350280390894e+02 -7.1442693360600970e+01 1.3207216678270488e+03 -1.8760432235358167e+02 4.3084422829793766e+02 3.3749557703914229e+03 2.4942675112815690e+04 7.1241954015128358e+04 -1.3185826066845038e+03 1.6256620322033632e+02 -4.1222726627178268e+01 -1.2495211694981786e+03 7.1871553502654069e+02 2.2411717630370549e+02 -4.2844112815411063e+03 -3.1640536337895577e+04 -9.5672486181193497e+04 -4.3711297790521877e+02 1.5224063482572092e+01 -1.0622122548306098e+02 3.5604358313344642e+02 -6.3392655237649467e+02 3.5841484682100491e+02 -2.8580129234430643e+02 -2.5691363839519934e+04 -3.7443341302152949e+03 -1.5941234008717838e+03 1.5584505401289789e+02 -1.0945096832490023e+01 -2.6421994005608133e+02 -6.3958667617729589e+02 -3.5297420453678505e+01 1.1043704634523510e+02 -3.8537316772511258e+03 1.2710132449863236e+05 -5.9853639612202403e+02 -3.3193362976129919e+01 1.1237909000679612e+02 3.0987624332980459e+02 2.1237461846306542e+02 5.7089162274343096e+02 4.9711774327448973e+02 -3.3788121219157374e+03 -2.6343528552332562e+04 3.9787590934382871e+02 -2.5001528805087673e+01 1.9870166079757277e+04 
      </Row>
      <Row Index="16">
        -2.4841536975413213e+01 -5.7389910307918626e+01 -8.6409986401342394e+01 7.5542289499957915e+00 -1.4385969304016820e+01 -7.8920342475121288e+01 -1.1717802983851151e+02 3.2499715234034397e+01 1.9127914602506319e+01 -2.2242440139689791e+01 -2.5905960565942587e+02 1.5739449761458900e+02 -2.4508994204491160e+01 3.5647726403910042e+01 -1.0597040278179279e+03 -1.3185826068020683e+03 1.1496018725695142e+03 -2.2770873711493721e+01 6.3298135609546819e+01 2.8471954199099872e+02 -8.8643429716010118e+00 1.1808562267048908e+01 1.0823747989096591e+02 2.5173429051673659e+02 1.5370852425614557e+03 -6.9226569393693717e+02 7.7174051788877023e+00 3.5200392458981582e+01 -2.0989252098043045e+02 9.0315988820255924e+01 -1.2254196180346424e+01 1.1774523757643541e+02 7.4324753649282957e+02 -2.5010711958404511e+02 2.0604112749306137e+02 1.1802181849688395e+01 1.4028380980647430e+00 4.5121777822214867e+01 -2.3886575759847995e+02 -1.5457153044584380e+00 5.3481571881913892e+00 1.8262997684705442e+02 -2.0110687612845909e+03 2.7558347031335288e+01 1.0493161986517237e+00 -2.8000673925949989e+01 -5.3651645835559194e+01 -8.0071585719060067e+01 -1.2053725322914168e+00 -3.7300238533165967e+01 9.0129906424641575e+01 3.8706674577584175e+02 5.3378995712228942e+01 7.8319052803942810e+00 -2.6288773900643855e+02 
      </Row>
      <Row Index="17">
        2.6198996389251628e-01 -2.0703200592213285e+01 -7.9591064629039906e+01 -9.8955133110557671e+00 1.6592298239448450e+01 -7.0581393119325787e+02 -1.8409014587938148e+02 8.6643669948390453e+01 -2.4291045773718722e+01 -5.0035104008832274e+00 4.5557681160865144e+01 -7.4650716830299189e+00 -3.4493757099896953e+00 -1.3176494557757891e+01 9.7377273483959107e+02 1.6256620308307021e+02 -2.2770873709654801e+01 6.9984164373791089e+01 5.2099672328699886e-01 -1.1785743239307047e+01 4.7341381862183638e+01 2.3777593833210489e+01 -3.2237608620542886e+01 2.5505151083654647e+02 6.4696541812396276e+01 -4.6413342013733910e+01 -5.5671434699287978e+00 -6.5819521033207362e+00 6.2885616670343964e+01 -2.1479379883677709e+01 4.2697609027648138e+00 -2.2729256047030521e+01 -1.9731334021800791e+02 3.5461978299092756e+01 -1.1176906012418932e+00 -1.7541565337205135e+01 9.7804912922599474e-01 -1.4403760024469285e+01 2.3949169286500130e+01 1.0110278823316075e+00 5.8054761440597220e+00 -3.7549590186785895e+02 -2.1818973877959036e+02 2.4417773631789835e+01 1.7495648843422140e+00 4.5639812697906006e+00 1.3867438712494625e+01 6.5027389886811932e+01 8.3188711510226270e+00 5.4906544666237966e+00 -1.3515858160794780e+01 4.6922191130585126e+01 1.6382678475432321e+01 -2.4124377632967224e+01 -7.7155424333105476e+00 
      </Row>
      <Row Index="18">
        -4.3343371619877953e+00 -1.1402661092163839e+01 -1.1465969083901250e+01 3.0993091654016180e+00 3.0589676136167778e+00 -8.3107778382629903e+01 -4.9989539176053100e+01 1.9520872329586417e+01 4.6842956556944326e-01 -7.7361543576734784e+00 -1.7661833069130466e+01 4.3990063026652422e+00 -6.6416462993593388e+00 -9.1838954990934045e+00 4.8204589952465710e+01 -4.1222726661294679e+01 6.3298135609960596e+01 5.2099672328115965e-01 1.6647571535563962e+01 2.7490855428600188e+01 1.6397349080156708e+01 4.9051427324966941e+00 7.7983059666287318e+00 2.5157626223032842e+01 2.0414471230089617e+01 -6.3976942733943943e+01 -8.6433483422252166e-01 2.1367131785732600e+00 -1.4806517493349805e+01 1.9252579723284811e+00 1.3327797211887482e+00 7.0165093984452600e+00 1.0409671829122360e+01 -6.2680324774444252e+01 2.8128443748302878e+01 -6.1395565714608580e-02 5.4318309136224230e-01 4.2022383494380620e+00 -8.9755158207531753e+00 6.3962725479941129e-01 3.2375701510225463e-01 -2.9398800630044398e+01 -5.3636183864582790e+01 -6.1532891075040137e+00 -1.9267812834803411e-01 -1.4835427096439653e+00 -3.7328746934408086e+00 7.7527923126144493e+00 -1.1271225221867289e+00 -2.6838409988815508e+00 -3.0185334195187328e+00 1.3766091957845431e+01 5.0060817330802898e+00 -1.1360869893963335e-01 -5.9022739200815204e+00 
      </Row>
      <Row Index="19">
        -6.5268238422674827e+00 1.0062719936722721e+02 -4.4098820530615285e+01 2.3228515128748072e+01 -7.2411533608947224e+01 1.4536143486512151e+02 -3.3951340160386803e+02 4.6753056129828678e+01 1.1293121017315570e+01 -7.6776464908243724e+00 -1.0308964678847615e+03 1.4275961074836232e+01 -3.7832082701815011e+01 -5.3204273610699454e+02 -8.8824948339440903e+02 -1.2495211708657259e+03 2.8471954200774223e+02 -1.1785743239188207e+01 2.7490855428706404e+01 9.6883607240453023e+02 6.7495514871510252e+01 1.9582353241806079e+01 6.1936331182228878e+02 1.6944118838281832e+02 1.7282596295544454e+03 -1.8168474825976833e+02 -1.3154268697815041e+01 7.4787474811985675e+00 -3.1671968247248446e+02 4.3623479235849686e+01 -2.8092304964394479e+01 8.8123892856163593e+01 1.6812201001276537e+02 6.1551150525904859e+01 1.0433090541629286e+02 4.5430876670923226e-01 1.4488493479677347e+00 1.6206489083414132e+02 -6.4303263991735264e+01 8.5818597821720175e+00 7.5408273773319735e+01 1.7078953988063427e+02 -1.8889929799115448e+03 1.6229843914935898e+01 -1.4789407325787760e+00 -8.2418213208903843e+00 -1.5570234916521764e+02 -2.1733031270902075e+01 -6.4479832359508862e+00 -1.2316465272149777e+02 6.4747201558840544e+01 3.0732393629036494e+02 2.5271628117865308e+01 4.7730279994666205e+00 -2.0505824925771932e+02 
      </Row>
      <Row Index="20">
        1.3795368132558226e+00 -1.9918327852709012e+00 -2.3915255311468903e+02 -4.9609477684808914e+00 2.2015009122896785e+01 -7.7734802603931655e+02 -7.4173459852220174e+02 3.5733557732244793e+02 -5.9075634376365755e+00 -1.0025964553760449e+01 -1.1125254736092302e+01 -1.5013257442056351e+02 -2.0833759762474571e+01 -4.6720513930325637e+01 1.1804166094515006e+03 7.1871553478302030e+02 -8.8643429680805070e+00 4.7341381862488120e+01 1.6397349080273067e+01 6.7495514875137729e+01 4.4586685695943282e+02 5.4021639861076054e+01 -1.1623848055616463e+01 -1.0586150161391879e+02 -1.7080025638603638e+02 -8.1166150465137278e+01 -9.5095281676941141e+00 -2.8447557106120289e+00 6.3276144850888016e-01 -3.4661449640922314e+01 1.7162224661107278e+01 -6.4250475459382784e+01 -7.5679261440861160e+02 -1.3503015012212632e+02 -3.2245204613009349e+01 -4.5842631103336373e-01 1.6930388308615787e+00 1.0808276822147501e+01 -1.0103853452526658e+02 6.5835625642815332e-01 1.3739423726615819e+01 -2.5394350962516324e+02 -4.6979095942134698e+01 8.0512577896831075e+01 -1.5480351277154991e+00 1.9994236610140614e-01 -5.2536266737407056e+00 1.0548474976897384e+02 3.0177699751504242e+01 1.3734323251363953e+01 -9.6132230471617390e+01 3.6092706891814160e+01 9.1998252767925692e+01 -1.5545476940764271e+01 2.4716533608301734e+01 
      </Row>
      <Row Index="21">
        2.5537785106496269e+00 8.9995275316651089e+00 -3.9658239548202801e+01 -1.6646532747850664e+01 2.9628249063366233e+01 -1.9135072831690411e+02 -3.1930055489288947e+01 6.6790409359791028e+01 -2.4792274872111300e+00 -1.2044177273351195e+00 7.3353898754567126e-01 -4.3006948856530585e+00 -1.7695977352152951e+01 2.0969610470245794e+01 3.6736808759588752e+02 2.2411717625880300e+02 1.1808562267921317e+01 2.3777593833558285e+01 4.9051427325774704e+00 1.9582353245515691e+01 5.4021639861567593e+01 6.4403418412522655e+01 -8.0012561980238843e+01 1.6678675925641727e+02 -2.5759219246478870e+02 -4.0676178818368498e+01 -1.4159972072140704e+01 1.8847561376306246e+00 -1.2985429949804903e+01 -7.3112113615660048e+00 4.1498073470686530e+00 -2.0863140909825482e+01 -2.9717893048086120e+02 -8.4779438520923577e+01 -3.6312027839586918e+00 -9.3551355539304666e+00 1.5353967287781076e+00 5.3744361477784945e+00 -1.7784917792829944e+00 -3.2253832382419190e-01 2.8126748953154692e+00 6.7794864362594410e+01 3.1780644327574106e+02 1.5281793743818673e+01 -1.1682415338915417e+00 -2.6090212253593057e+00 -4.6298484813091321e+00 2.1658141139727618e+01 2.1708185938417152e+01 9.8251180677869741e+00 -4.0811832221631576e+01 -6.0370651263872425e+01 1.4117168561312617e+01 -8.2848530240466296e+00 4.5989660264543161e+01 
      </Row>
      <Row Index="22">
        -2.3484733014637982e+00 6.1634618787479894e+01 3.0301238070343970e+01 2.0567912256388411e+01 -2.7727194547568428e+02 -1.1934683999016652e+03 -8.0739312052902096e+02 -1.3718260126677205e+02 7.5047368620096222e+00 -6.7357181120428322e-01 -7.3865780817948325e+02 -1.7492399180116990e+01 3.4656430870992153e+01 -8.2145393017436027e+02 -2.4268748733439738e+03 -4.2844112838003639e+03 1.0823747991559432e+02 -3.2237608623964775e+01 7.7983059658797380e+00 6.1936331177793181e+02 -1.1623848067058594e+01 -8.0012561987798918e+01 1.2412077176302773e+03 3.0531008367547829e+03 6.1177785044313350e+03 -1.4203575547977380e+01 1.2300403211651883e+01 1.0597319727253534e+01 -1.3917519068019527e+02 4.9938113913395085e+01 -9.8606210407141361e+00 3.3848486424884044e+02 2.4969803568701263e+03 7.4625252357684292e+02 -3.1210726305692219e+01 9.9882651021380298e+00 -1.6105521821088455e+00 1.0191276157962582e+02 -2.8967609459818277e+01 -9.3943949845283203e-02 3.3078212291599641e+01 -5.8152622700537904e+02 -8.3280714379515193e+03 -7.5276632519933528e+00 3.7371142513245861e+00 -4.9193108380939474e+00 -1.0677911211023502e+02 -4.7916478806611849e+01 -1.9117431375763907e+01 -2.1798619142781791e+02 2.1255775138647772e+02 1.3731256782179466e+03 -2.4780938314418641e+01 1.0831889400189667e+01 -9.2260830013023474e+02 
      </Row>
      <Row Index="23">
        -5.8119265992191913e+01 4.7855081415689347e+02 -9.1125893968809396e+02 -2.2319873046612520e+02 -4.3200724709416409e+02 -1.5321900307819220e+04 -2.1728652350309171e+03 3.0374460486644239e+01 1.2037783095751365e+01 -8.0176131256575900e-01 -1.1653910720190179e+03 1.0029154071415542e+03 1.6707472629135373e+02 -2.1044096808299578e+03 -1.9981807827487228e+04 -3.1640536345791181e+04 2.5173429057258585e+02 2.5505151080653832e+02 2.5157626214200860e+01 1.6944118797011470e+02 -1.0586150168968004e+02 1.6678675922390434e+02 3.0531008363386791e+03 4.3787064554950572e+04 4.4356744494465122e+04 -9.2945130515945493e+00 -2.2037035190594179e+02 2.3660877787064237e+01 -1.5693519988777570e+02 -8.8100181692335411e+02 -9.6142215477206264e+01 6.0721547196665961e+02 4.8413748981575000e+03 3.2264985867714063e+02 6.6732484416911120e+02 -1.0137252443808029e+02 3.0268245130993648e+01 1.7326204357809817e+02 8.9905663855975581e+02 3.5498371801592164e+01 -2.7148108804281037e+02 7.9391335098886193e+03 -5.6830668873297102e+04 -3.7828955986670167e+01 -4.1745765503436843e+01 -2.4177400458611515e+01 -2.1750455330792209e+02 1.1760935643802659e+03 5.8973880385448410e+01 -4.2029168913413366e+02 -8.1628455325696677e+02 9.7650491554194468e+03 -7.7481944849281774e+01 -8.2150074198178913e+01 -7.0065644694757220e+03 
      </Row>
      <Row Index="24">
        -8.0557092545473097e+01 -9.0158321581177006e+01 -1.2482255912459805e+03 2.3466666333240028e+02 -6.4111731848181864e+02 -2.2008016941759051e+04 -9.9890447684430073e+03 -1.8083341588787735e+03 7.5318860786916048e+01 1.5477103828709733e+02 -1.6203707877219422e+03 -2.5134695006150287e+02 -3.8263182234013220e+02 -4.7705868268391405e+03 -2.9268492885291165e+04 -9.5672486182079039e+04 1.5370852424084505e+03 6.4696541619276104e+01 2.0414471182331908e+01 1.7282596276387776e+03 -1.7080025672889514e+02 -2.5759219252994347e+02 6.1177785012838431e+03 4.4356744483577932e+04 1.3432255677663267e+05 2.4252549965123762e+02 -7.9891929156932747e+01 9.5334013913565286e+01 -2.9030709502358741e+02 6.3925298831925863e+02 -4.8535066550788724e+02 1.7819469595422561e+02 3.5869505936050278e+04 6.7709142835861412e+03 2.0860813009047015e+03 -3.0345919795977534e+02 3.3142554026178274e+01 2.8390568285665313e+02 5.1443072562148882e+02 1.0414330342217995e+02 -5.1699683054577910e+01 1.8452402391387150e+03 -1.7946742204713219e+05 1.0789157148426812e+03 6.2981700669671930e+01 -1.3262695828657198e+02 -3.8892263876650867e+02 8.6867761481844354e+00 -6.0165341347945798e+02 -6.2219377162061039e+02 4.7824357029351640e+03 3.7257184965047607e+04 -2.4165057946611643e+02 -8.4606704788445541e+01 -2.7843107055858618e+04 
      </Row>
      <Row Index="25">
        1.9943216569968865e+00 6.5148233025381643e+01 1.0277279137246541e+02 -2.8907233557797181e+01 -5.1355621135150471e+01 1.2248481665474660e+03 6.2750941925787470e+02 -7.4394084482154994e+02 -6.5730778430793890e-02 5.2844125019982656e+01 1.1735057196114298e+02 -5.8641520774060666e+01 4.9810479712618772e+01 6.7124665956235958e+00 -5.1079517492584716e+02 -4.3711297762483599e+02 -6.9226569394129183e+02 -4.6413342013666210e+01 -6.3976942734053779e+01 -1.8168474826323020e+02 -8.1166150465063396e+01 -4.0676178817800491e+01 -1.4203575558549346e+01 -9.2945131349473229e+00 2.4252549925627000e+02 1.2286175491800370e+03 5.5013565906793360e+00 2.3143252311271468e+01 1.0796472684382917e+02 -2.8720415203063595e+01 -3.2198020006671886e+00 -6.7990457336955814e+01 -4.4826167173642659e+01 -2.7219231755885517e+01 2.2596288694788669e+02 1.0245878534006408e+01 -1.6731089655319836e-01 -2.4689540627850320e+01 3.1021076821023564e+02 -1.3410503280871580e+00 -2.4179133931891744e+01 1.2667760796720008e+03 3.9621103600531700e+02 -3.9449130386122448e+01 -6.2572353910817391e+00 -1.4883221599077826e+01 2.0879262713266382e+01 2.2241772053695513e+01 -2.5252996044768530e+00 2.6867445905717574e+01 -3.4598091200340377e+01 -8.4231665943786922e+01 -1.5850911646504792e+02 2.0365225782272077e+01 -4.4360683809348728e+01 
      </Row>
      <Row Index="26">
        3.1194915726275907e-01 -1.2588809537670702e+00 4.0274423760137992e+01 3.0610308975693221e+00 -9.2541736231856895e+00 8.7082265849754720e+01 1.3477943426014226e+01 -2.9272192110158777e+00 -4.5687661535906692e+00 1.4943998699774799e+00 3.4185401227611578e+00 -1.0409332227066088e+01 8.7176117716017316e+00 1.6543517678072263e+01 -3.2067932876288037e+00 1.5224063600378784e+01 7.7174051774140757e+00 -5.5671434700750222e+00 -8.6433483425279434e-01 -1.3154268698405858e+01 -9.5095281676278578e+00 -1.4159972071887838e+01 1.2300403207062516e+01 -2.2037035194372825e+02 -7.9891929322743522e+01 5.5013565906191673e+00 2.3197281813704233e+01 1.2777692023006830e+00 3.4676300706682390e+00 9.3178601089134503e+00 -2.5399219019987691e+00 6.9476261492258864e+00 1.5327318905746958e+02 2.4690339097082340e+01 -7.1402341942236127e+00 -5.6317705458105323e+00 -3.9114220026710977e-01 -3.7919911666920179e+00 -2.5828939401067053e+01 -9.3243511379393140e-01 -4.3025512124577370e-01 -3.2424923393137547e+01 8.0081584422312076e+01 -1.1222697625112058e+01 4.1421042956835752e-01 -1.0214306530364057e+00 2.3609578954352788e+00 -3.2417568334841015e+01 -2.3053099869148701e+00 -5.4176359785355532e-01 2.6057835619792961e+01 -1.7553983056746958e+01 7.2110638622390466e-01 -4.8259468096674993e+00 9.0780503315744703e+00 
      </Row>
      <Row Index="27">
        1.9101468597088989e+00 5.8750606621066197e+00 1.4326152737746071e+01 -3.2889274826208705e+00 -3.9617684323161835e+00 9.5012797257847225e+01 4.7888307569242500e+01 -4.3919646413647371e+01 2.3419061776636294e+00 1.0551164197431703e+01 -1.4167655528955521e+01 -5.4283733626772630e+00 4.5320427041682265e+00 1.8400382636798440e-01 -2.2392536991050227e+02 -1.0622122543388153e+02 3.5200392458208213e+01 -6.5819521034756043e+00 2.1367131785253335e+00 7.4787474796893747e+00 -2.8447557108161163e+00 1.8847561376794044e+00 1.0597319723599355e+01 2.3660877765298881e+01 9.5334013843598427e+01 2.3143252311477482e+01 1.2777692024146603e+00 1.8529274891657437e+01 -8.6218476749390298e+00 8.4857265510160076e+00 2.5833568883911973e+00 7.6393433108648239e+00 -2.2565123125525744e+01 -2.1989945622198011e+01 2.1791449218606271e+01 2.7563421418515759e+00 1.5543482751476803e+00 3.3773217370388591e+00 -3.6546776360047772e+00 -5.3685690595982194e-01 -6.6369391593241323e-01 1.3512640963252790e+02 -6.6336598703540147e+01 2.7423642441535385e+00 -5.8608949288641665e-01 -1.2656108034819697e+01 -3.7547309016194252e+00 -1.7992071167955473e+01 4.7341193584900569e+00 -2.2418457332878088e+00 3.1486084372926473e+00 1.2115362129984790e+01 -8.0894990127614630e+00 2.7210159487948076e+00 -2.0605542177750500e+01 
      </Row>
      <Row Index="28">
        -3.8484497001342914e+00 -2.1945763462659355e+02 -6.6487639734625105e+01 -2.3727727536535610e+01 3.8217958082085318e+01 -1.6373219037767776e+03 -1.7060112030861779e+02 1.0211026297647024e+01 -2.6286255469850495e+01 4.9978229310807691e+00 5.9737827923977375e+02 -2.2365753197492495e+00 4.0720449158330275e+01 8.2576546677890974e+01 2.6539587789442630e+03 3.5604358344573626e+02 -2.0989252098371171e+02 6.2885616669644200e+01 -1.4806517493471745e+01 -3.1671968247721833e+02 6.3276144868428474e-01 -1.2985429949131259e+01 -1.3917519070056375e+02 -1.5693520003714610e+02 -2.9030709546197431e+02 1.0796472684241678e+02 3.4676300711078341e+00 -8.6218476751500468e+00 4.6982512401931632e+02 -8.7824512715421420e+01 1.5939784262209029e+01 -7.1770309457198266e+01 6.4034762583613997e+02 2.1226276485844011e+02 -5.5290248982839742e+01 -1.3590440868010063e+01 -3.5262908352445066e-01 -1.3861219022173003e+02 6.1015820734917781e+01 -4.7071802386126684e+00 9.4430328991574797e-01 -1.4609568354347766e+03 -1.9581859250938629e+02 -1.2259378058828048e+01 4.9971671449465855e+00 9.9350513374481757e+00 1.2681624882505547e+02 1.1793271618646014e+02 1.1690855748712849e+01 3.4805255235711300e+01 -3.6124954257859315e+01 5.6733127940190350e+01 -9.6886435807171800e+00 -2.4911412014637563e+01 2.7211148804338418e+01 
      </Row>
      <Row Index="29">
        7.2932177416365604e+00 1.0154610001415421e+01 8.5926532821754563e+01 1.8406841850359029e+01 -2.9541983238704383e+01 8.2075752645594446e+02 4.4549514606286763e+01 -5.5144893818417131e+01 1.0388749482056099e+00 -4.0445375977520825e+00 -5.9789826840323940e+01 -4.3674488649396380e+01 -2.0400565764710962e+01 -1.9884331170862424e+01 -6.7187432477695620e+02 -6.3392655245724814e+02 9.0315988820987414e+01 -2.1479379884887607e+01 1.9252579721128313e+00 4.3623479226010659e+01 -3.4661449642956313e+01 -7.3112113622778541e+00 4.9938113900482676e+01 -8.8100181695038646e+02 6.3925298842486882e+02 -2.8720415201181140e+01 9.3178601097458795e+00 8.4857265513861790e+00 -8.7824512713377771e+01 1.7559047570549177e+02 8.2291139916706868e+00 3.3825817191187554e+01 4.8840610592174716e+02 5.0512307058779243e+01 1.1602542212285954e+01 9.1068470222855922e+00 -6.5806431416978732e+00 2.6372028031078685e+01 -5.2531677068398650e+01 -1.0131822312735965e+01 -1.0377308479148830e+00 -2.0794670334852731e+02 -9.9347775368657960e+02 4.1914317976126199e+01 5.2866164631140400e+00 -6.3639666011938969e+00 -1.8768616886121656e+01 -1.4332426468636822e+02 -8.8213697027129641e+00 -1.3410658796080911e+01 1.6488304572964245e+02 1.9479309159966621e+02 -4.6815943015474470e+00 1.1273926949529336e+01 -1.5626367661977079e+02 
      </Row>
      <Row Index="30">
        -1.0576851236722362e-01 -1.4750556341490267e+01 -9.1297776933190562e+00 -1.0400536333018234e+01 -6.6187629595190014e+00 -9.1561004823507119e+01 1.8590489264170280e+00 9.6109528390325636e+00 -3.2327933460201592e+00 1.4757561028550867e+00 2.3598595336605740e+01 -1.1724834819963007e+01 1.1475275382219280e+01 -1.6830294930114405e+01 4.2427115159019746e+02 3.5841484682747625e+02 -1.2254196179697111e+01 4.2697609032650377e+00 1.3327797213351005e+00 -2.8092304958459295e+01 1.7162224662140190e+01 4.1498073472756829e+00 -9.8606210312968869e+00 -9.6142215445945098e+01 -4.8535066551354475e+02 -3.2198020019686737e+00 -2.5399219024867818e+00 2.5833568881888027e+00 1.5939784260621195e+01 8.2291139920214107e+00 3.8962474927312286e+01 -7.0720044751912781e+00 -4.9599172050923329e+01 -3.3320802806706524e+01 5.7880342909530214e+00 1.5310808846185353e+01 -5.9242660315938767e-01 -1.0773416290822514e+01 -5.0244257324816175e+00 -5.6981938628728326e+00 -1.8911480378969601e+00 -1.1290999147914283e+02 6.0641586813334766e+02 1.9372886825688251e+00 -5.1213349187817836e-01 -1.0811151856409538e+00 9.3177237865056330e+00 2.9394861532599634e+00 1.6807502134832632e+01 -3.2200161715844278e+00 -1.8074432860669368e+01 -1.1369587733534043e+02 3.4982439223066031e+00 6.8135284143433736e+00 8.6542121433035888e+01 
      </Row>
      <Row Index="31">
        1.8548819692225331e+00 2.4006834046101734e+01 4.7775206148236464e+01 6.9050904805545112e+00 -1.3235101808637813e+02 1.4015549966826870e+02 5.4793711763281280e+01 -1.8414940793541842e+02 5.9971056086645467e+00 -1.1081020450172602e+01 -1.3611377227481384e+02 2.9808945218891836e+01 -7.3401849847384852e+00 -1.6290100222615402e+02 -9.2546602615764095e+02 -2.8580129286401211e+02 1.1774523758330159e+02 -2.2729256046111232e+01 7.0165093986957885e+00 8.8123892863273966e+01 -6.4250475459237933e+01 -2.0863140910999622e+01 3.3848486427770854e+02 6.0721547216804424e+02 1.7819469668851059e+02 -6.7990457337629948e+01 6.9476261487519366e+00 7.6393433110994362e+00 -7.1770309456664222e+01 3.3825817195003125e+01 -7.0720044774817605e+00 3.0966724702844454e+02 5.9891732673613694e+02 1.5089546392553714e+02 -1.3326493421611497e+02 1.3522692270531707e+00 -2.6718573587997958e+00 1.7636279430237899e+01 2.1290861755634598e+01 -2.2584761640873405e+00 -2.0507688694838478e+01 -5.0934860610551112e+01 -2.3428445710429472e+02 -1.7813479847352568e+01 7.3350892791654410e-01 -5.8057954620313407e-02 -2.2891048883850544e+01 -3.8191383816126930e+01 -2.0884760530296266e+01 -1.0254637817961674e+02 1.2567673150464515e+01 -2.8805104300281798e+01 -4.7466920272332885e+01 7.6677612109080879e+00 2.7568183127552054e+01 
      </Row>
      <Row Index="32">
        -7.1664736524742693e+01 -7.7808650372842385e+02 7.9192391727367067e+02 -5.0528586401787834e-01 -6.0993999153112054e+02 -6.8686207826517348e+03 -3.4400699000987452e+03 -8.9348132046733735e+02 2.8291156514547765e+01 4.6482459295601984e+01 6.5479980970396718e+02 -5.6634499126179435e+02 3.4322029710631978e+02 -1.2085340847029729e+03 -1.7443877330075293e+03 -2.5691363843664774e+04 7.4324753651506217e+02 -1.9731334025991509e+02 1.0409671819517825e+01 1.6812200958401081e+02 -7.5679261448609577e+02 -2.9717893050715520e+02 2.4969803562973393e+03 4.8413748968917143e+03 3.5869505941619893e+04 -4.4826167094732227e+01 1.5327318909511087e+02 -2.2565123107639465e+01 6.4034762595305074e+02 4.8840610592435951e+02 -4.9599172066270967e+01 5.9891732655283886e+02 2.2835627638639853e+04 3.8729069529558910e+03 4.6861740865617776e+02 -1.1409702525336979e+02 4.6332410263571697e+00 -2.6997670318947348e+02 -4.3993212681608384e+02 -1.4380252117229020e+00 -8.6817382647690415e+00 -7.1026100346082530e+03 -5.0933818868019000e+04 -2.8713471188123904e+01 5.6895256468153164e+01 3.7774001372947055e+00 1.7026480062113882e+02 -8.8779338519906014e+02 4.8792327432218769e+00 -3.0712445675114810e+02 2.4044363505533729e+03 9.1831381397849455e+03 -1.2869901363493688e+02 -1.1523511168581393e+01 -6.3962096723730374e+03 
      </Row>
      <Row Index="33">
        2.1910919677436084e+01 -5.6778461011738273e+01 4.7951940356955674e+01 1.5037570830538357e+01 -2.5606437434212239e+02 -2.4660880096004621e+03 -1.6373377818942713e+03 9.5829671529447296e+01 -2.5588655783099398e+01 3.8643651324498023e+01 8.3589219342238721e+01 -1.5087916753261379e+02 7.4492773876654610e+01 -3.7630948218659978e+02 8.7657422180839990e+02 -3.7443341310851738e+03 -2.5010711957997091e+02 3.5461978287980855e+01 -6.2680324776860743e+01 6.1551150424977095e+01 -1.3503015014179527e+02 -8.4779438526816307e+01 7.4625252343223110e+02 3.2264985830185742e+02 6.7709142847405092e+03 -2.7219231735356516e+01 2.4690339106300598e+01 -2.1989945617835588e+01 2.1226276488228723e+02 5.0512307059998875e+01 -3.3320802809651013e+01 1.5089546388184090e+02 3.8729069529029707e+03 2.4032100871339062e+03 -1.2346679315329743e+02 -2.9055448867480663e+01 1.1863122455791255e+00 -5.4158144188702202e+01 -7.0659487420351070e+01 7.8564063323314706e+00 9.4606272669142143e+01 -3.6874190485061599e+03 -1.0541302229275252e+04 8.4368547702356011e+01 1.8709097600371827e+01 1.0127953792112100e+01 2.6401432533456855e+01 -8.7801689384325982e+01 4.5541086739105054e+00 -1.0439819365217735e+02 6.1483307232133802e+02 2.1868432694120024e+03 2.5034093030210116e+01 -2.7998517115160126e+01 -1.4873171176641395e+03 
      </Row>
      <Row Index="34">
        -3.8087056710600649e+01 -5.1036498009942875e+01 -5.4181470995407835e+01 -6.2563006264425098e+00 -5.0333634294512876e+01 -4.7822655293665866e+02 -1.3361971891224130e+01 -1.3436453346593680e+02 3.2867699685024832e-01 2.3110075692432190e+01 -7.2040231641317405e+01 4.6936258722661023e+01 7.8908212932410606e+00 3.2265054639374284e+01 -3.8752275017257489e+01 -1.5941234009736913e+03 2.0604112749181820e+02 -1.1176906033859950e+00 2.8128443747684059e+01 1.0433090539077284e+02 -3.2245204617308616e+01 -3.6312027849816388e+00 -3.1210726343229908e+01 6.6732484405787352e+02 2.0860813010335423e+03 2.2596288695293151e+02 -7.1402341920677372e+00 2.1791449219584024e+01 -5.5290248975538361e+01 1.1602542211519335e+01 5.7880342907170359e+00 -1.3326493422626686e+02 4.6861740861771193e+02 -1.2346679315993333e+02 7.4424123421162813e+02 4.1760289486803686e+00 4.8617150961040778e+00 4.4278121920081226e+00 9.1923411573312990e+01 6.7017174845585741e+00 -1.7539793593527779e+00 4.3412993316659822e+02 -2.5248864601197547e+03 -6.1250909311029318e+00 -3.1828300192061647e+00 -2.6545572670947319e+01 -1.4447788621955478e+01 5.3260111458029087e+01 -1.5146063527882312e+00 4.0685397993953302e+01 4.8205464343571990e+01 4.9316400455965726e+02 -9.2152946985972761e-01 4.3371691690183560e+00 -3.8400944308920367e+02 
      </Row>
      <Row Index="35">
        4.1871795616113516e-01 9.7277886698861948e-02 -4.5459757845725335e+00 2.7305071501242857e+00 -1.0450233610058817e+01 1.9496636426892087e+02 5.3659534293989907e+01 -1.5740702001053592e+01 6.7136288577833376e+00 -1.0285703106361765e+00 -7.6226850768490522e+00 1.1088174509170472e+01 -6.9803718016906089e+00 -1.2931617209408387e+01 -1.8315626312819927e+02 1.5584505398533139e+02 1.1802181850460556e+01 -1.7541565336767192e+01 -6.1395565596441770e-02 4.5430877099221334e-01 -4.5842631030600955e-01 -9.3551355538494434e+00 9.9882651100151634e+00 -1.0137252440346030e+02 -3.0345919791863753e+02 1.0245878533183372e+01 -5.6317705461800642e+00 2.7563421417303573e+00 -1.3590440868973531e+01 9.1068470226171598e+00 1.5310808846030641e+01 1.3522692285206261e+00 -1.1409702523322548e+02 -2.9055448863195238e+01 4.1760289495458522e+00 2.2492996911521033e+01 -9.1943883260727233e-01 4.1754927854709143e+00 -7.5895161745390993e-01 -2.9464598898484469e+00 -1.9473931619759335e+00 3.1753701772486011e+01 4.0152805281500213e+02 1.3095978596993800e+00 -1.0720827956459322e+00 -8.4195516458802111e-01 -1.8678743965451945e+00 -2.2179385609284452e+00 -1.4160790983024070e+00 -5.3117362701809174e+00 -1.7281982806590733e+01 -7.4477907525242856e+01 -9.9501560465923999e-01 1.4827011917826260e+01 5.3514991022928847e+01 
      </Row>
      <Row Index="36">
        3.9993622611723678e-02 1.8290892959206140e-01 -1.3697930991179916e+00 -1.6281376238456016e+00 1.6265887543418263e+00 -3.1158293143768788e+01 -9.0395775845810000e+00 3.4220444406152897e+00 -5.8355667430478819e-02 1.5868112796516369e+00 -1.1758340032396219e+00 -5.0562792041950004e+00 1.2992389565589875e+00 7.4489184486203897e-02 2.2718153039405280e+01 -1.0945096833068746e+01 1.4028380980277237e+00 9.7804912919597786e-01 5.4318309135169329e-01 1.4488493475976583e+00 1.6930388308050608e+00 1.5353967287654648e+00 -1.6105521826823264e+00 3.0268245128838085e+01 3.3142554026838042e+01 -1.6731089648622799e-01 -3.9114220023303936e-01 1.5543482751616224e+00 -3.5262908341149313e-01 -6.5806431417000848e+00 -5.9242660315770479e-01 -2.6718573589465731e+00 4.6332410256453045e+00 1.1863122454782342e+00 4.8617150960800846e+00 -9.1943883261838266e-01 1.1252794539272606e+00 7.4471445197519581e-02 8.2780300561422493e-03 7.1760647765497354e-01 2.8562906945506794e-01 7.8052682261331299e+00 -3.8857439722030023e+01 -8.9259587569410659e-02 -6.7416261367393648e-02 -1.4043288267930789e+00 -1.9405187746276553e-01 1.7753829974278990e+00 1.2660470729918416e+00 9.7781900244232300e-01 -1.0512107928779304e+00 7.0192090510546690e+00 9.8924564814235783e-01 -6.5329781024986167e-01 -5.2504156142604561e+00 
      </Row>
      <Row Index="37">
        2.3943238045810293e+00 6.8474267605400073e+01 1.6216590364531214e+01 1.2655126506995035e+01 -9.5303924585849273e+00 5.0688611335368699e+02 2.0583884375828575e+01 2.8792318922675122e+00 6.9249214815560105e+00 -1.8104380615294815e+00 -2.3464456754805815e+02 -8.3764365754897199e+00 -2.6223968207183859e+01 -9.3880891072768691e+01 -9.4537408858257197e+02 -2.6421994031237500e+02 4.5121777825244749e+01 -1.4403760024260833e+01 4.2022383494840625e+00 1.6206489083499085e+02 1.0808276821644213e+01 5.3744361471059214e+00 1.0191276158990024e+02 1.7326204366553884e+02 2.8390568321618616e+02 -2.4689540627242593e+01 -3.7919911666897406e+00 3.3773217372780309e+00 -1.3861219022085902e+02 2.6372028032859603e+01 -1.0773416291973870e+01 1.7636279429300480e+01 -2.6997670310514729e+02 -5.4158144169351544e+01 4.4278121970442896e+00 4.1754927846642715e+00 7.4471445272019932e-02 6.2210757606845419e+01 -1.6424321078369445e+01 1.6688085273993063e+00 3.9623370236766542e+00 3.3506316408441285e+02 -2.4226760860985036e+02 6.9042287002253442e+00 -9.6604785851970654e-01 -3.3085861479654710e+00 -4.6945416434342206e+01 -3.1961283866076243e+01 -1.1562596857499186e+01 -2.0807209527001408e+01 6.4582984874605032e+00 3.4997490079259322e+01 3.1013180434536798e+00 6.6169604866603180e+00 -3.7022366243066571e+01 
      </Row>
      <Row Index="38">
        5.6085735397436309e-01 5.7868589496460743e+00 -7.1344856831226707e+01 -1.4646083492003754e+01 9.4962627850410684e+00 -2.8138055164828984e+02 3.9627490780333278e+02 -3.2873029099127257e+02 -1.1315775089511170e+01 -1.0549668540087467e+01 5.5255600870561466e+01 9.0219205216638329e+01 -1.3101306385662326e+01 -5.5785697368221463e+01 2.5457302009878640e+02 -6.3958667641732177e+02 -2.3886575759628596e+02 2.3949169286634259e+01 -8.9755158208190551e+00 -6.4303263995439863e+01 -1.0103853452623090e+02 -1.7784917798787134e+00 -2.8967609456840364e+01 8.9905663861623464e+02 5.1443072595725380e+02 3.1021076821111012e+02 -2.5828939400675495e+01 -3.6546776355953483e+00 6.1015820738019670e+01 -5.2531677066819327e+01 -5.0244257333302897e+00 2.1290861752836975e+01 -4.3993212674452718e+02 -7.0659487402734385e+01 9.1923411577446771e+01 -7.5895161834762348e-01 8.2780301372915588e-03 -1.6424321079464548e+01 3.0332492339034872e+02 -4.2366949696070577e-02 -1.4802808761384757e+01 5.4312269529040395e+02 -4.1395423970495176e+02 -8.6568174244368734e+00 -4.1370642592937088e+00 5.9937952634482565e+00 1.2298979843314987e+01 1.5110229666946231e+02 -2.4102104604641763e+01 -6.3126008656783315e+00 -7.8184589713258731e+01 8.9995705862753596e+01 -9.1796899610403045e+01 2.3189125955964087e+00 -1.0331986851586798e+02 
      </Row>
      <Row Index="39">
        -1.8492216524998657e+00 3.0482437544692118e+00 -5.0130093813916972e+00 2.0220489053704629e+00 1.1668926069026355e+00 -1.8456453644311921e+01 -2.1915891542615896e+01 5.4974952229419500e+00 3.0900104723966137e-01 1.9371575640309295e+00 -6.0469337966893590e+00 -4.0013426074889367e+00 -1.2293944941616743e+00 -5.8228421124368879e-02 -3.4038494361256880e+01 -3.5297420452328709e+01 -1.5457153046760013e+00 1.0110278822321597e+00 6.3962725476658022e-01 8.5818597809709445e+00 6.5835625620185212e-01 -3.2253832385094228e-01 -9.3943951906965140e-02 3.5498371794234686e+01 1.0414330341948028e+02 -1.3410503277385715e+00 -9.3243511369723109e-01 -5.3685690591541313e-01 -4.7071802383141517e+00 -1.0131822312830067e+01 -5.6981938628611868e+00 -2.2584761645457121e+00 -1.4380252160727451e+00 7.8564063314708790e+00 6.7017174844759992e+00 -2.9464598898750012e+00 7.1760647765505170e-01 1.6688085271710462e+00 -4.2366949819157895e-02 3.3971613996980321e+00 -1.2229505496665571e-02 3.4222222823164557e+01 -1.1305925075446461e+02 1.1103295273751863e+00 -1.2466933111518352e-01 2.1723346232760665e-01 -2.1697893183695101e+00 5.3272109865118722e+00 -2.4836758903648022e+00 1.3850516566824125e+00 1.6430454693619678e-01 2.2877114171776757e+01 9.5598063427181401e-01 -1.5001612718923965e+00 -1.7253459509726472e+01 
      </Row>
      <Row Index="40">
        1.1056068528809728e+00 1.2783416722020036e-01 -9.7640654707479939e+00 -1.0375848815004751e-02 3.3579093389994199e+00 -8.9460475013102325e+01 -1.0868859809123356e+02 4.2859087258413005e+01 -1.7473027738181575e+00 4.6808485794455734e-02 -6.8470355229618789e+01 -5.1778594803314917e+00 2.9393423791537963e+00 -3.0640653728393445e+01 2.9716398394754503e+02 1.1043704623743855e+02 5.3481571898032740e+00 5.8054761441415508e+00 3.2375701514735411e-01 7.5408273774876719e+01 1.3739423726601396e+01 2.8126748950615164e+00 3.3078212297285347e+01 -2.7148108800484283e+02 -5.1699682902704183e+01 -2.4179133932029558e+01 -4.3025512130800792e-01 -6.6369391586886906e-01 9.4430328975252564e-01 -1.0377308469489464e+00 -1.8911480383535206e+00 -2.0507688694860658e+01 -8.6817382271526355e+00 9.4606272677981366e+01 -1.7539793573304436e+00 -1.9473931622614771e+00 2.8562906947989752e-01 3.9623370239165792e+00 -1.4802808760996289e+01 -1.2229505404788843e-02 2.1497296374249920e+01 -2.0538458414310207e+02 1.5110093335653509e+01 6.9416931160007103e+00 5.9153480662910907e-01 -1.3671108077032978e-01 -7.8618153661222507e+00 2.2498447332626270e+00 5.0892716106400053e+00 -2.8346083978982044e+00 1.9706547142491448e+01 -1.0500491094228326e+00 1.0612493542343712e+01 -2.9937732878217851e+00 1.1935980342086136e+01 
      </Row>
      <Row Index="41">
        -8.7590536899081428e+00 1.0944974774536115e+03 1.5035296045740552e+02 -4.8350735784421744e+01 2.2772551991366231e+02 8.0284699488104552e+03 4.5252327669287324e+03 -1.4140910231545772e+03 1.7634900972223028e+02 9.3476978906332391e+01 -1.7236761694582601e+03 5.2787707855363351e+02 -6.3877187982418036e+01 3.3548665080251567e+02 -1.5718924130528303e+04 -3.8537316737146657e+03 1.8262997679050272e+02 -3.7549590186692905e+02 -2.9398800631183462e+01 1.7078953986409761e+02 -2.5394350962302997e+02 6.7794864372310286e+01 -5.8152622712179073e+02 7.9391335089713875e+03 1.8452402341555699e+03 1.2667760796832899e+03 -3.2424923394054986e+01 1.3512640963035898e+02 -1.4609568354389939e+03 -2.0794670337732850e+02 -1.1290999146539468e+02 -5.0934860595551243e+01 -7.1026100356887328e+03 -3.6874190487869696e+03 4.3412993311021046e+02 3.1753701781668951e+01 7.8052682255182777e+00 3.3506316408439176e+02 5.4312269529025116e+02 3.4222222820037146e+01 -2.0538458414133027e+02 1.6793261799281368e+04 4.6420940551465419e+03 -3.8559245327351505e+01 -7.0966507059303922e+01 -9.9656184480152916e+01 -4.1361267377461525e+02 -3.9005571498799441e+01 -7.7345059126970114e+01 7.9665275592646481e+01 -9.3793945016101725e+02 -8.2869581541864216e+02 -3.2244292744622805e+02 1.3165410219843329e+02 -2.4225784375337270e+02 
      </Row>
      <Row Index="42">
        8.6416639110408141e+01 5.6507678854127880e+02 1.8399161316454411e+03 -3.6413647386534285e+02 9.4489387032843661e+02 3.3182657434620894e+04 1.5322695681222714e+04 1.6290728464416461e+03 -3.8994215889055340e+01 -1.4219951010096702e+02 1.0870919602760114e+03 5.5894273268571123e+02 6.1880374285852304e+02 6.4508913144005928e+03 3.3649972536994610e+04 1.2710132514890935e+05 -2.0110687706764438e+03 -2.1818974080431508e+02 -5.3636184346978553e+01 -1.8889929930394283e+03 -4.6979097980045481e+01 3.1780644457504968e+02 -8.3280714818132110e+03 -5.6830669148261193e+04 -1.7946742297305120e+05 3.9621103927167132e+02 8.0081585429783445e+01 -6.6336598712769046e+01 -1.9581859354546759e+02 -9.9347775863081915e+02 6.0641587094398710e+02 -2.3428445878761704e+02 -5.0933819115057355e+04 -1.0541302289114799e+04 -2.5248864727046603e+03 4.0152805458137300e+02 -3.8857439901041744e+01 -2.4226761031260685e+02 -4.1395424332497350e+02 -1.1305925132799621e+02 1.5110092849419743e+01 4.6420940981690947e+03 2.9705480008705228e+05 -1.5202300398594111e+03 -1.1177925340627553e+02 1.3483624004837466e+02 3.2784676486454117e+02 -3.7277123371895868e+01 8.1586237360742018e+02 8.3729567012885627e+02 -6.8670615826416615e+03 1.0757521329974677e+05 1.3869657330469707e+02 1.5719996052059537e+02 -1.2082874394461668e+05 
      </Row>
      <Row Index="43">
        3.5568013915278485e+00 2.1415986460351860e+01 -1.2547156374687484e+02 4.2844053395122472e+00 -1.3643783089294800e+01 -1.1980862065190468e+02 -1.4640626967740286e+02 1.2575018749415381e+02 -6.2100543075727046e+00 4.3742096863128950e+00 -3.7677331665577185e+00 -6.6992103980669071e+01 -3.5092096687995536e+01 -3.2615917208308019e+01 1.6029126469414450e+02 -5.9853639632470504e+02 2.7558347032953179e+01 2.4417773630594837e+01 -6.1532891077753789e+00 1.6229843902538391e+01 8.0512577894250853e+01 1.5281793742852486e+01 -7.5276632664135832e+00 -3.7828956000216294e+01 1.0789157151186882e+03 -3.9449130383316742e+01 -1.1222697623961608e+01 2.7423642447873391e+00 -1.2259378055226534e+01 4.1914317976723680e+01 1.9372886817674129e+00 -1.7813479853083493e+01 -2.8713471165565807e+01 8.4368547709151244e+01 -6.1250909284901809e+00 1.3095978588341950e+00 -8.9259587528737860e-02 6.9042286977439105e+00 -8.6568174260654871e+00 1.1103295275712242e+00 6.9416931147806693e+00 -3.8559245292145988e+01 -1.5202300316498524e+03 1.4699316021799314e+02 2.8797990680573662e+00 -3.0434488130912460e+00 -6.5289156665484089e+00 -1.8876973865812943e+00 -1.0413429882032197e+01 -1.0220406084827980e+00 6.1113518186549605e+01 2.9815867696815332e+02 3.2054622531500513e+01 -1.6878642226688889e+00 -2.0941106137892888e+02 
      </Row>
      <Row Index="44">
        1.7230111438904938e-01 -3.6265551129753604e+00 1.3720184082758919e+00 5.4524350135628552e-01 -6.3769504869082994e-01 -1.3677844567100635e+01 -1.9953256709947141e+01 5.1660043701621063e+00 -9.1407931584926505e-01 -1.5136873570206255e-01 5.4107832812193806e+00 -5.3931027977185693e+00 4.1289441749434985e-01 -2.8572491628134742e+00 3.7425363335011582e+01 -3.3193362985347946e+01 1.0493161987355606e+00 1.7495648842269649e+00 -1.9267812836972453e-01 -1.4789407335540687e+00 -1.5480351279048037e+00 -1.1682415339567207e+00 3.7371142499326879e+00 -4.1745765507117540e+01 6.2981700681987945e+01 -6.2572353909238387e+00 4.1421042965793475e-01 -5.8608949284797340e-01 4.9971671451712893e+00 5.2866164631332140e+00 -5.1213349190837310e-01 7.3350892749743934e-01 5.6895256467850487e+01 1.8709097600448246e+01 -3.1828300191462287e+00 -1.0720827956852830e+00 -6.7416261367168884e-02 -9.6604785870907151e-01 -4.1370642594836688e+00 -1.2466933110554224e-01 5.9153480654263202e-01 -7.0966507056602524e+01 -1.1177925280120115e+02 2.8797990680009686e+00 9.0929052075046535e-01 3.6190766928264906e-01 1.3830257142095741e+00 -4.2932059873837360e+00 -8.2549936473426833e-01 -4.2540009255537470e-01 1.0835743844702698e+01 2.1981398961266727e+01 1.2864676206538128e+00 -8.3016154777370854e-01 -1.3315946644954472e+01 
      </Row>
      <Row Index="45">
        -1.2820538580384904e+00 -5.9697913856639744e+00 -9.3609330750506956e+00 2.5500491165400838e+00 3.3193215463436019e+00 -5.2357721939242651e+01 -2.2521628096953947e+01 2.4130008346143057e+01 -1.7558659360893909e+00 -8.3069620685487209e+00 1.4101619251419265e+01 5.6206116510743414e+00 -3.8526116182707568e+00 -3.6695050676597134e+00 1.6195226689124274e+02 1.1237908997482697e+02 -2.8000673925367778e+01 4.5639812699788997e+00 -1.4835427095897700e+00 -8.2418213189965712e+00 1.9994236638137863e-01 -2.6090212253583740e+00 -4.9193108342553842e+00 -2.4177400439318035e+01 -1.3262695824057721e+02 -1.4883221599389486e+01 -1.0214306531877781e+00 -1.2656108034850121e+01 9.9350513370886233e+00 -6.3639666009062097e+00 -1.0811151857754879e+00 -5.8057954129097311e-02 3.7774001514374902e+00 1.0127953795482995e+01 -2.6545572670243502e+01 -8.4195516464859566e-01 -1.4043288267833727e+00 -3.3085861476380947e+00 5.9937952638830154e+00 2.1723346235504182e-01 -1.3671108065756421e-01 -9.9656184483693920e+01 1.3483623963167940e+02 -3.0434488125578838e+00 3.6190766931262175e-01 9.5434896722510842e+00 3.6919900957796630e+00 1.4107313889058361e+01 -4.4240669016955128e+00 -3.2082069918475753e-01 -6.4462136819218756e+00 -2.5157684147290830e+01 3.2651588555433975e+00 -1.3735083159681079e+00 2.6507106047699228e+01 
      </Row>
      <Row Index="46">
        -1.2449273177949394e+00 -6.6336080524130367e+01 -8.9462575219746441e+00 -7.1325960779632638e+00 1.6391081306235378e+01 -3.6683644935837060e+02 -9.0179447072085281e+00 5.7860452571081566e+00 -6.9098309127995599e+00 1.9486120688350894e-01 2.3402045099634392e+02 -4.4089457143362552e+00 1.3445762208178337e+01 8.4314249504291638e+01 8.1025769391751362e+02 3.0987624354367307e+02 -5.3651645837869822e+01 1.3867438712433511e+01 -3.7328746934420707e+00 -1.5570234916469281e+02 -5.2536266730843408e+00 -4.6298484807191294e+00 -1.0677911211695482e+02 -2.1750455337587141e+02 -3.8892263906559469e+02 2.0879262712323850e+01 2.3609578953370374e+00 -3.7547309018757247e+00 1.2681624882405896e+02 -1.8768616887516941e+01 9.3177237874761119e+00 -2.2891048882610676e+01 1.7026480055405318e+02 2.6401432518231275e+01 -1.4447788626162371e+01 -1.8678743958368216e+00 -1.9405187752736985e-01 -4.6945416434128511e+01 1.2298979842514200e+01 -2.1697893185624828e+00 -7.8618153658134720e+00 -4.1361267377821520e+02 3.2784676299116899e+02 -6.5289156684364258e+00 1.3830257140621711e+00 3.6919900960921650e+00 4.4711114303726788e+01 2.4189803944670899e+01 5.2314393916549307e+00 2.1358558097888753e+01 -9.2182165322482490e+00 -4.9496967062843744e+01 -1.6043875147365725e+00 -5.1434745528386543e+00 5.1919175380215883e+01 
      </Row>
      <Row Index="47">
        -7.9981548123406556e+00 -3.4924193984587475e+01 -2.6293472928958602e+02 -1.4949776344914191e+01 2.8268845505786189e+01 -1.4822082977572295e+03 -2.0172407956086141e+02 2.0687405228410768e+01 -1.4264084584792135e+01 -1.7787033835368653e+01 7.9040135424074407e+01 1.1904780292629120e+02 -1.1208096073676955e+01 -3.9989717393056253e+01 1.3837540197350240e+03 2.1237461811677198e+02 -8.0071585714776830e+01 6.5027389887708864e+01 7.7527923127616276e+00 -2.1733031266582501e+01 1.0548474976928787e+02 2.1658141139232129e+01 -4.7916478790054384e+01 1.1760935644955352e+03 8.6867766387930487e+00 2.2241772053212514e+01 -3.2417568334978270e+01 -1.7992071167668254e+01 1.1793271618772209e+02 -1.4332426468372262e+02 2.9394861519241111e+00 -3.8191383816904491e+01 -8.8779338508311662e+02 -8.7801689354235663e+01 5.3260111464319998e+01 -2.2179385620713958e+00 1.7753829975391739e+00 -3.1961283865774199e+01 1.5110229667086395e+02 5.3272109867695221e+00 2.2498447334144744e+00 -3.9005571511746851e+01 -3.7277120740308391e+01 -1.8876973830265360e+00 -4.2932059870863242e+00 1.4107313888642647e+01 2.4189803944144511e+01 2.7151714211039206e+02 -1.0378796159280235e+00 8.0267229933747899e+00 -1.8009916372631164e+02 2.6327586900721954e+01 2.7817049395155635e-01 -1.4418653159251932e+01 2.3090506045707418e+01 
      </Row>
      <Row Index="48">
        1.9601435827864258e+00 -3.4476081330666375e-01 7.4798688303735617e+00 -2.2771166431467652e+01 4.3825609112474808e+00 -2.5611432473190189e+02 -5.4725839946998917e+01 4.6077650457944799e+01 -3.3878917610362080e+00 6.1198929109516484e+00 7.5180322626388261e+00 -1.1400406279365598e+01 4.5423485328447271e+01 4.1187873325049850e+01 4.7091574686186345e+02 5.7089162279564948e+02 -1.2053725321845832e+00 8.3188711516256149e+00 -1.1271225220236829e+00 -6.4479832282912639e+00 3.0177699752944775e+01 2.1708185938788496e+01 -1.9117431364864842e+01 5.8973880411452001e+01 -6.0165341354813290e+02 -2.5252996060162332e+00 -2.3053099875509702e+00 4.7341193581986118e+00 1.1690855746475563e+01 -8.8213697023886084e+00 1.6807502135016652e+01 -2.0884760527117635e+01 4.8792327509626148e+00 4.5541086747816735e+00 -1.5146063532790066e+00 -1.4160790979632338e+00 1.2660470729763749e+00 -1.1562596855955682e+01 -2.4102104603715816e+01 -2.4836758904215781e+00 5.0892716112879981e+00 -7.7345059146134304e+01 8.1586236944205564e+02 -1.0413429881329733e+01 -8.2549936471846763e-01 -4.4240669014765786e+00 5.2314393904116390e+00 -1.0378796142981059e+00 4.5324343702282562e+01 1.0746605784697936e+01 -2.9377266576856130e+01 -1.6302494428629458e+02 1.1529824633967877e+01 -4.2975868658588752e+00 1.2076127079442942e+02 
      </Row>
      <Row Index="49">
        -8.5620882120662500e-01 -1.4161618740966659e+01 -2.8286780516410772e+00 -4.1001143408084495e+00 5.7522907929338231e+01 6.9301899203053154e+01 6.1532597471021177e+01 5.2839636370932510e+01 -1.6487215186031960e+00 4.2634910639833521e+00 1.4864325355371545e+02 -7.3144813089519403e+00 8.4308112863444080e+00 1.5846760114807967e+02 4.0475923041102817e+02 4.9711774368503643e+02 -3.7300238538153167e+01 5.4906544666343251e+00 -2.6838409989006493e+00 -1.2316465271992791e+02 1.3734323252465842e+01 9.8251180689455424e+00 -2.1798619143851397e+02 -4.2029168924839041e+02 -6.2219377219605485e+02 2.6867445904920032e+01 -5.4176359813612862e-01 -2.2418457337405968e+00 3.4805255233632352e+01 -1.3410658798791275e+01 -3.2200161698310055e+00 -1.0254637817684562e+02 -3.0712445687442295e+02 -1.0439819368219253e+02 4.0685397986569150e+01 -5.3117362688727781e+00 9.7781900233282304e-01 -2.0807209526378486e+01 -6.3126008663932964e+00 1.3850516563168678e+00 -2.8346083973569485e+00 7.9665275586469647e+01 8.3729566527023712e+02 -1.0220406119893326e+00 -4.2540009284442704e-01 -3.2082069862230611e-01 2.1358558097723744e+01 8.0267229947834267e+00 1.0746605786917570e+01 5.3493384614216858e+01 -1.9538977099862052e+01 -1.2350466468000259e+02 1.2785754449140413e+01 -4.6802754906137523e+00 7.9057761269601770e+01 
      </Row>
      <Row Index="50">
        4.3920136018901417e+00 -2.7704324003091187e+01 9.8650731666746651e+01 2.9989249362803434e+01 -4.8846372101377256e+01 -4.3829819692775345e+01 -4.7569871984248130e+02 -1.0991711469896563e+02 -4.6107817140959355e+00 9.5119452043675210e+00 -2.0723268202440522e+01 -1.1607608949791756e+02 -9.3570468578782311e+00 -1.2433718754606343e+02 -4.1067289303280813e+02 -3.3788121224267034e+03 9.0129906426845082e+01 -1.3515858167002875e+01 -3.0185334209222674e+00 6.4747201497121750e+01 -9.6132230483062358e+01 -4.0811832225269484e+01 2.1255775130155234e+02 -8.1628455346082228e+02 4.7824357036140100e+03 -3.4598091188563558e+01 2.6057835625182634e+01 3.1486084397900527e+00 -3.6124954241844534e+01 1.6488304572951165e+02 -1.8074432862536469e+01 1.2567673124722660e+01 2.4044363505276733e+03 6.1483307232097650e+02 4.8205464347819884e+01 -1.7281982809199690e+01 -1.0512107928028129e+00 6.4582984754886752e+00 -7.8184589723398176e+01 1.6430454747672485e-01 1.9706547137060454e+01 -9.3793945000134772e+02 -6.8670615483581387e+03 6.1113518182501480e+01 1.0835743844668741e+01 -6.4462136838533013e+00 -9.2182165226901134e+00 -1.8009916374286695e+02 -2.9377266577634600e+01 -1.9538977082090071e+01 4.5950693358231592e+02 1.2986826494443267e+03 -8.8140005563011528e+00 -3.7114155774946767e+00 -9.2571234355951617e+02 
      </Row>
      <Row Index="51">
        -1.8045880742050940e+01 -1.2406110256817192e+02 -3.8551419555675238e+02 7.5412350379367126e+01 -1.2045636393385939e+02 -5.9863197239711881e+03 -3.2433107627551071e+03 -3.3231333010690287e+02 5.2204984232084826e+00 2.6108039324870333e+01 -1.2640445496607572e+02 -1.1499172648135573e+02 -1.3091991654387675e+02 -1.1174980411753058e+03 -5.7581588031519204e+03 -2.6343526615700684e+04 3.8706671709893271e+02 4.6922184241237119e+01 1.3766090310644358e+01 3.0732388878287748e+02 3.6092699317610823e+01 -6.0370647671283223e+01 1.3731255335975438e+03 9.7650482871914282e+03 3.7257182202011347e+04 -8.4231654488481581e+01 -1.7553979326738045e+01 1.2115362406271743e+01 5.6733126740437001e+01 1.9479307639133185e+02 -1.1369586892207735e+02 -2.8805112521629781e+01 9.1831373782292940e+03 2.1868430858142674e+03 4.9316396643396001e+02 -7.4477902431506664e+01 7.0192085135531670e+00 3.4997483434795868e+01 8.9995693585386562e+01 2.2877112472117005e+01 -1.0500512209546287e+00 -8.2869566525769369e+02 1.0757521735173126e+05 2.9815865126822609e+02 2.1981397102004848e+01 -2.5157683103447198e+01 -4.9496960173404659e+01 2.6327576899668202e+01 -1.6302493155622506e+02 -1.2350464767323865e+02 1.2986825441753026e+03 4.8368521823097265e+05 -2.9046550471568480e+01 -2.9532010201917728e+01 -4.8115420446661051e+05 
      </Row>
      <Row Index="52">
        -1.9174036667764582e-01 -5.5513704032395594e+00 -4.6053559809122021e+01 1.0646295201459068e+00 6.9037116795462197e+00 -3.2705788110129492e+02 -2.7056012467625754e+02 2.6464565370183129e+02 -2.0411139364853170e+00 -4.1804248264696398e+00 -7.7994579656035512e+00 -3.4836323403311326e+01 -3.8898758588214264e+00 1.8454108388287636e+01 3.3855106985145187e+02 3.9787590930975705e+02 5.3378995713095009e+01 1.6382678475655759e+01 5.0060817331642369e+00 2.5271628121033643e+01 9.1998252768496499e+01 1.4117168561332420e+01 -2.4780938309241719e+01 -7.7481944828406881e+01 -2.4165057941621080e+02 -1.5850911646563890e+02 7.2110638600290144e-01 -8.0894990128409461e+00 -9.6886435816384164e+00 -4.6815943011255001e+00 3.4982439221383856e+00 -4.7466920271437829e+01 -1.2869901361947083e+02 2.5034093034292709e+01 -9.2152946916927192e-01 -9.9501560469803962e-01 9.8924564814543192e-01 3.1013180440466463e+00 -9.1796899609940112e+01 9.5598063432421077e-01 1.0612493542538196e+01 -3.2244292745077883e+02 1.3869657274115590e+02 3.2054622532273008e+01 1.2864676206893648e+00 3.2651588555781057e+00 -1.6043875152900031e+00 2.7817049449046749e-01 1.1529824633666692e+01 1.2785754448292543e+01 -8.8140005540354025e+00 -2.9046551937369230e+01 6.2743258385439134e+01 -7.2274075067265393e+00 5.1896210705100927e+01 
      </Row>
      <Row Index="53">
        -8.0002705874315794e-04 5.9936977162051921e+00 1.2843537141288607e+01 3.7812181107658347e+00 -7.6843919290284788e+00 2.8105554653275220e+02 8.1121245064582368e+01 -3.8820841932916125e+01 9.3265169840670374e+00 6.8696339693788921e-01 -1.6336476445739351e+01 7.4431489700668010e+00 -5.8775154667415990e+00 -9.0685593982196337e+00 -3.4742433685310186e+02 -2.5001528804212569e+01 7.8319052804815179e+00 -2.4124377632812305e+01 -1.1360869890002689e-01 4.7730280008041532e+00 -1.5545476940509594e+01 -8.2848530239952147e+00 1.0831889402581623e+01 -8.2150074186922637e+01 -8.4606704789076673e+01 2.0365225782076124e+01 -4.8259468098120024e+00 2.7210159487457624e+00 -2.4911412014986212e+01 1.1273926949476376e+01 6.8135284143142796e+00 7.6677612114548310e+00 -1.1523511165173858e+01 -2.7998517114819578e+01 4.3371691692158425e+00 1.4827011917856225e+01 -6.5329781024643707e-01 6.6169604869388063e+00 2.3189125959940498e+00 -1.5001612718883097e+00 -2.9937732877426901e+00 1.3165410219611005e+02 1.5719995970019608e+02 -1.6878642224785256e+00 -8.3016154777347850e-01 -1.3735083159363000e+00 -5.1434745530749959e+00 -1.4418653158699016e+01 -4.2975868659520531e+00 -4.6802754910443616e+00 -3.7114155771601105e+00 -2.9532012655133499e+01 -7.2274075067125843e+00 1.3833841744774404e+01 1.3167827110588574e+01 
      </Row>
      <Row Index="54">
        1.1821904269832885e+01 3.9541953821084462e+01 2.1633256686851382e+02 -5.1067768646200420e+01 6.8693432910135016e+01 3.6315834195539355e+03 2.1165743421795778e+03 3.6629727615928277e+02 -1.1735546161129605e+01 -2.7809379242011346e+01 1.4914364437572658e+02 7.9995754416100681e+01 8.9519255855120718e+01 7.5919312594085932e+02 4.9110442262673751e+03 1.9870164141920395e+04 -2.6288771032355726e+02 -7.7155355538707227e+00 -5.9022722756490111e+00 -2.0505820186296478e+02 2.4716541160480119e+01 4.5989656664838549e+01 -9.2260815565846860e+02 -7.0065636015692726e+03 -2.7843104291204363e+04 -4.4360695241950452e+01 9.0780466108117253e+00 -2.0605542449629866e+01 2.7211150036659092e+01 -1.5626366141065955e+02 8.6542113014817005e+01 2.7568191300611943e+01 -6.3962089107953943e+03 -1.4873169340454042e+03 -3.8400940494920360e+02 5.3514985922258347e+01 -5.2504150765016675e+00 -3.7022359621449141e+01 -1.0331985625694142e+02 -1.7253457808856183e+01 1.1935982443508692e+01 -2.4225799362313410e+02 -1.2082874792846733e+05 -2.0941103568469407e+02 -1.3315944785485044e+01 2.6507104999836884e+01 5.1919168508844450e+01 2.3090516015654430e+01 1.2076125806212076e+02 7.9057744296049350e+01 -9.2571223828010261e+02 -4.8115420425620314e+05 5.1896209234837443e+01 1.3167824656120501e+01 4.7939143251849664e+05 
      </Row>
    </InverseHessian>
  </Weights>
</MethodSetup>
