<?xml version="1.0"?>
<MethodSetup Method="MLP::MLP">
  <GeneralInfo>
    <Info name="TMVA Release" value="4.1.4 [262404]"/>
    <Info name="ROOT Release" value="5.34/05 [336389]"/>
    <Info name="Creator" value="clester"/>
    <Info name="Date" value="Tue Mar 18 10:23:56 2014"/>
    <Info name="Host" value="Darwin pb-d-128-141-154-76.cern.ch 12.2.1 Darwin Kernel Version 12.2.1: Thu Oct 18 16:32:48 PDT 2012; root:xnu-2050.20.9~2/RELEASE_X86_64 x86_64"/>
    <Info name="Dir" value="/Users/clester/marchMadnessChallenge"/>
    <Info name="Training events" value="1092"/>
    <Info name="TrainingTime" value="8.70488620e+01"/>
    <Info name="AnalysisType" value="Regression"/>
  </GeneralInfo>
  <Options>
    <Option name="NCycles" modified="Yes">6000</Option>
    <Option name="HiddenLayers" modified="Yes">N+5</Option>
    <Option name="NeuronType" modified="Yes">tanh</Option>
    <Option name="RandomSeed" modified="No">1</Option>
    <Option name="EstimatorType" modified="No">MSE</Option>
    <Option name="NeuronInputType" modified="No">sum</Option>
    <Option name="V" modified="Yes">False</Option>
    <Option name="VerbosityLevel" modified="No">Default</Option>
    <Option name="VarTransform" modified="Yes">Norm</Option>
    <Option name="H" modified="Yes">False</Option>
    <Option name="CreateMVAPdfs" modified="No">False</Option>
    <Option name="IgnoreNegWeightsInTraining" modified="No">False</Option>
    <Option name="TrainingMethod" modified="No">BP</Option>
    <Option name="LearningRate" modified="No">2.000000e-02</Option>
    <Option name="DecayRate" modified="No">1.000000e-02</Option>
    <Option name="TestRate" modified="Yes">6</Option>
    <Option name="EpochMonitoring" modified="No">False</Option>
    <Option name="Sampling" modified="No">1.000000e+00</Option>
    <Option name="SamplingEpoch" modified="No">1.000000e+00</Option>
    <Option name="SamplingImportance" modified="No">1.000000e+00</Option>
    <Option name="SamplingTraining" modified="No">True</Option>
    <Option name="SamplingTesting" modified="No">False</Option>
    <Option name="ResetStep" modified="No">50</Option>
    <Option name="Tau" modified="No">3.000000e+00</Option>
    <Option name="BPMode" modified="No">sequential</Option>
    <Option name="BatchSize" modified="No">-1</Option>
    <Option name="ConvergenceImprove" modified="No">1.000000e-30</Option>
    <Option name="ConvergenceTests" modified="No">-1</Option>
    <Option name="UseRegulator" modified="Yes">True</Option>
    <Option name="UpdateLimit" modified="No">10000</Option>
    <Option name="CalculateErrors" modified="No">False</Option>
    <Option name="WeightRange" modified="No">1.000000e+00</Option>
  </Options>
  <Variables NVar="4">
    <Variable VarIndex="0" Expression="seed_prob" Label="seed_prob" Title="seed_prob" Unit="" Internal="seed_prob" Type="F" Min="0.00000000e+00" Max="1.00000000e+00"/>
    <Variable VarIndex="1" Expression="winfrac1-winfrac2" Label="winfrac1-winfrac2" Title="winfrac1-winfrac2" Unit="" Internal="winfrac1_M_winfrac2" Type="F" Min="-5.04464269e-01" Max="6.11607134e-01"/>
    <Variable VarIndex="2" Expression="avg_scorediff1-avg_scorediff2" Label="avg_scorediff1-avg_scorediff2" Title="avg_scorediff1-avg_scorediff2" Unit="" Internal="avg_scorediff1_M_avg_scorediff2" Type="F" Min="-2.33035717e+01" Max="2.90575752e+01"/>
    <Variable VarIndex="3" Expression="avg_score_against1-avg_score_against2" Label="avg_score_against1-avg_score_against2" Title="avg_score_against1-avg_score_against2" Unit="" Internal="avg_score_against1_M_avg_score_against2" Type="F" Min="-2.50357170e+01" Max="2.12218971e+01"/>
  </Variables>
  <Spectators NSpec="1">
    <Spectator SpecIndex="0" Expression="season" Label="season" Title="season" Unit="" Internal="season" Type="F" Min="6.50000000e+01" Max="8.20000000e+01"/>
  </Spectators>
  <Classes NClass="1">
    <Class Name="Regression" Index="0"/>
  </Classes>
  <Targets NTrgt="1">
    <Target TargetIndex="0" Expression="game_outcome" Label="game_outcome" Title="game_outcome" Unit="" Internal="game_outcome" Type="F" Min="0.00000000e+00" Max="1.00000000e+00"/>
  </Targets>
  <Transformations NTransformations="1">
    <Transform Name="Normalize">
      <Selection>
        <Input NInputs="5">
          <Input Type="Variable" Label="seed_prob" Expression="seed_prob"/>
          <Input Type="Variable" Label="winfrac1-winfrac2" Expression="winfrac1-winfrac2"/>
          <Input Type="Variable" Label="avg_scorediff1-avg_scorediff2" Expression="avg_scorediff1-avg_scorediff2"/>
          <Input Type="Variable" Label="avg_score_against1-avg_score_against2" Expression="avg_score_against1-avg_score_against2"/>
          <Input Type="Target" Label="game_outcome" Expression="game_outcome"/>
        </Input>
        <Output NOutputs="5">
          <Output Type="Variable" Label="seed_prob" Expression="seed_prob"/>
          <Output Type="Variable" Label="winfrac1-winfrac2" Expression="winfrac1-winfrac2"/>
          <Output Type="Variable" Label="avg_scorediff1-avg_scorediff2" Expression="avg_scorediff1-avg_scorediff2"/>
          <Output Type="Variable" Label="avg_score_against1-avg_score_against2" Expression="avg_score_against1-avg_score_against2"/>
          <Output Type="Target" Label="game_outcome" Expression="game_outcome"/>
        </Output>
      </Selection>
      <Class ClassIndex="0">
        <Ranges>
          <Range Index="0" Min="0.0000000000000000e+00" Max="1.0000000000000000e+00"/>
          <Range Index="1" Min="-5.0446426868438721e-01" Max="6.1160713434219360e-01"/>
          <Range Index="2" Min="-2.3303571701049805e+01" Max="2.9057575225830078e+01"/>
          <Range Index="3" Min="-2.5035717010498047e+01" Max="2.1221897125244141e+01"/>
          <Range Index="4" Min="0.0000000000000000e+00" Max="1.0000000000000000e+00"/>
        </Ranges>
      </Class>
    </Transform>
  </Transformations>
  <MVAPdfs/>
  <Weights>
    <Layout NLayers="3">
      <Layer Index="0" NNeurons="5">
        <Neuron NSynapses="9">
          -6.3466230901393139e-01 1.0896317168590020e+00 6.3555833835512776e-01 7.8719231180884575e-01 -1.0070641054197655e+00 5.2806162369400382e-02 8.6530097320234936e-02 2.0593307905231195e+00 -7.2509621368027088e-01 
        </Neuron>
        <Neuron NSynapses="9">
          -5.9302345385192889e-01 -2.1098528307753233e+00 -7.1356625239935145e-01 -9.0516643086285242e-01 -7.8572985473672002e-02 -5.6499048862738954e-01 4.7197797802856711e-01 -3.9808357437649788e-01 1.2216251170344732e+00 
        </Neuron>
        <Neuron NSynapses="9">
          -4.1602414430536594e-01 7.1626478759744783e-01 1.6616637594562947e-01 -6.0522786268138462e-01 1.1018393956929384e+00 6.8947136895720351e-01 -6.9453188884445605e-01 -2.2215666522481689e-01 1.2327937182218545e+00 
        </Neuron>
        <Neuron NSynapses="9">
          -1.3496191632550143e+00 -1.4654011794624493e+00 2.7819103055498906e-01 -3.7084467760336487e-01 9.4547307718104823e-01 -2.5816831477502455e-01 -9.7569628203003828e-02 -2.8478085656841456e-01 -7.2534607767354808e-01 
        </Neuron>
        <Neuron NSynapses="9">
          -3.2331115051399723e-01 7.3201591254634379e-01 -2.1100961478046518e-01 4.3480040032414811e-02 -5.4198554477547754e-02 6.3540015653240856e-02 2.4026136709068613e+00 3.2011464598582112e-01 -7.0869757131538438e-02 
        </Neuron>
      </Layer>
      <Layer Index="1" NNeurons="10">
        <Neuron NSynapses="1">
          -5.5761951620358075e-01 
        </Neuron>
        <Neuron NSynapses="1">
          2.8514663489469477e-01 
        </Neuron>
        <Neuron NSynapses="1">
          2.8335296360842427e-01 
        </Neuron>
        <Neuron NSynapses="1">
          3.4343416525512993e-01 
        </Neuron>
        <Neuron NSynapses="1">
          -6.1108583058268967e-02 
        </Neuron>
        <Neuron NSynapses="1">
          1.0938331287151788e-02 
        </Neuron>
        <Neuron NSynapses="1">
          1.5238142962763042e+00 
        </Neuron>
        <Neuron NSynapses="1">
          -2.7062422814253140e-01 
        </Neuron>
        <Neuron NSynapses="1">
          3.5161992221732985e-01 
        </Neuron>
        <Neuron NSynapses="1">
          -1.1651343988978062e+00 
        </Neuron>
      </Layer>
      <Layer Index="2" NNeurons="1">
        <Neuron NSynapses="0"/>
      </Layer>
    </Layout>
    <InverseHessian NElements="3025" NRows="55" NCols="55">
      <Row Index="0">
        5.7781052333825800e+00 5.3403323152982676e+00 1.2823927199121766e+01 -9.6143872938074715e+00 -1.8321910992240710e+01 6.1670673993458564e+01 1.2015229747480989e+00 -1.4492422676966141e+00 5.2720109610233012e-01 7.1602929782140712e-01 -1.6009188470865743e-01 -1.0545310277622947e+01 5.6521900339162130e+00 1.2695407355763658e+01 1.0467783900583157e+01 1.4682013245590241e+01 -3.9503568641143656e+00 2.2419861061024429e-01 -2.7242501767449752e+00 -2.4171606315670795e+00 -9.3401528253400556e+00 1.4005895017835357e+00 -3.3727841373359659e+00 -1.4293371728743747e+02 1.6231533570808718e+01 -2.7007849629384584e-01 -3.9185877363725496e-01 2.2183528367636307e+00 -2.0008802112964070e+00 -1.0523392728798193e+00 -4.8598762661071762e+00 7.0269810689675971e-01 -1.2504660359536217e+00 4.8144618365663568e+01 -6.8227464240542686e+00 1.8846497223879488e-02 4.3033924344853713e-01 4.7869944430130418e-01 5.2639941738254414e+00 4.6007861843562226e-01 -6.6626629489094586e+00 -6.8839255213570667e+01 -2.8763416162495240e+01 4.0934856409909559e-01 -1.4055531689914802e-01 -2.0319602774161662e+00 -8.5010647729443045e-01 -5.3167432773323497e+00 2.7528882424240688e+00 2.5030204315440363e-01 7.8549485012820002e+00 3.9879620848341277e+00 -5.8503984762157302e-01 -1.8724547157687819e-02 -5.1205463445177406e+00 
      </Row>
      <Row Index="1">
        5.3403323152517563e+00 3.8069671178638615e+01 1.2827235400581568e+01 -1.7556964849207283e+01 -4.1606422440945693e+01 7.6655559702037067e+02 6.2119289641831230e+00 5.3834302099064777e+00 2.8253012155564559e+00 4.7621346909866291e-01 -5.8967388264233769e+01 -1.3668547398061589e+01 -2.4225575654755604e+00 5.6708557638237977e+01 -8.5708489912886171e+02 3.2004465747949588e+01 -6.6303455270426079e+00 -1.9445255653248594e-01 -2.2239314989994106e+00 1.0437145649395237e+01 -1.3139250782332878e+01 3.1742314353936671e+01 4.5999837928373202e+00 4.1326090932614522e+02 2.0267045823310962e+01 -3.9590329405030533e+00 -7.1023373540154573e+00 -1.5317215656263508e+00 -4.1834667819878149e+01 -3.9993689470459559e-01 -3.3728679160996156e+00 2.9353234228712033e+01 -7.7924130375687128e+02 -4.1292787872063940e+01 -1.1944427944875676e+01 -4.5431607386471828e-01 2.8939739227685823e-01 1.6078975120233011e+01 -3.5699151995122804e+00 8.1294080646264817e+00 -1.2962852444937127e+01 2.1743886491585340e+03 1.8329185103991512e+02 1.3936397526653170e+00 -1.9192899109695827e+00 -1.5168068449278835e-01 -1.7537451762294133e+01 -1.0414247615741051e+01 1.2989378487443675e+01 2.3800388365173308e-01 -1.1169656893899969e+01 -3.6450396105324828e+01 1.2642760966117996e+00 1.2608625166165774e+00 7.5291737509426442e+00 
      </Row>
      <Row Index="2">
        1.2823927199101668e+01 1.2827235397848474e+01 3.0839539765720559e+02 -9.3133445117715439e+01 -1.9553909138602805e+02 3.2858275021064696e+03 4.6413623105678306e+02 -4.6481569334116550e+01 8.5258300965859357e-01 1.6333287669887859e+01 3.0045005049663537e+01 -2.2628465108380158e+02 1.1119606770992640e+02 -1.1218599929027652e+01 -2.0375451345109841e+03 1.0041372484640162e+03 -2.9500513894410830e+01 -1.9504530629073997e+01 -1.6380669537569659e+01 -3.2589578595530725e+01 -9.7676079540477772e+01 1.5134041202499446e+00 2.1450914007745780e+01 6.4031714590164938e+02 -1.6535296349914142e+03 6.7854242190355372e+00 1.9442177334267488e+01 1.9517591382270339e+01 2.8938208618311535e+01 -6.5926708709853710e+00 -2.6827298446722580e+01 -4.5942435466466350e+01 2.1728701058917986e+03 -7.7904495928270435e+01 -1.0107061704403197e+01 -1.0692563547523832e+01 2.8916855968815947e+00 -8.9311245245616728e+00 2.1674479119231052e+01 -7.9045214257394747e-01 7.4784887171340131e-01 1.2255119488016928e+03 2.4806520218694845e+03 -1.3660447690298989e+01 -1.5009719684026939e+00 -1.1881658098908122e+01 9.3177780291779335e+00 -1.7747040261338609e+02 3.6832565909739301e+01 -2.7552887271741966e-01 -6.1731015889276478e+01 -5.3254634865443381e+02 -2.2471552312267583e+01 -2.7747313288334103e+00 3.4585315754702566e+02 
      </Row>
      <Row Index="3">
        -9.6143872938185702e+00 -1.7556964847100367e+01 -9.3133445119736393e+01 2.0337155731660749e+02 3.1582040620889728e+02 1.4010173841614937e+03 -1.8267134408075918e+02 2.1576265095376317e+00 -5.7234394038515450e+00 -4.9751038066682449e+00 -1.1260979345790474e+01 9.6225377012957381e+01 -1.1214675783080925e+02 -7.0348450227958395e+01 -4.3535200863933151e+03 -1.0335049110393852e+03 5.8349097644920782e+00 -3.2839274774580417e+01 7.9278964263981884e+00 2.9943451462100644e+01 -3.6392314584499843e+00 -2.1770472794096304e+02 -4.0313831346661425e+02 -3.9326765081796393e+03 1.2648618760273241e+03 -1.6370009211105043e+00 4.2341007287744176e+01 -6.4473685919539161e+00 6.1766417631827117e+00 -3.0113954081098566e+01 -9.2945495341079777e+01 -1.1178552615161561e+02 5.6025205078220267e+02 1.7579686881851291e+02 1.2686918529123030e+01 -3.4213830316284657e+00 -1.2103531524277926e+00 6.4683515004509502e+00 1.3992971112717640e+01 -1.9257770788719095e+00 -3.7731825917662540e+01 -1.4588828999062971e+03 -1.9081994484350087e+03 3.3310102528927121e-01 3.4623187799991215e+00 5.1700923570640240e+00 -3.9706376780194930e-01 8.8309457348634993e+01 -1.5559230264774695e+02 -1.6504889353825355e+01 9.4785474388190465e+01 3.9879706635284225e+02 1.5339723231073812e+00 -1.4411718677062171e+00 -2.7142280376142457e+02 
      </Row>
      <Row Index="4">
        -1.8321910992408775e+01 -4.1606422445304212e+01 -1.9553909138028970e+02 3.1582040620599355e+02 3.1526432806460925e+03 -1.9751801638937886e+03 2.9293420751635502e+01 -4.4187919292228592e+00 -1.6845990338872653e+01 -3.0166861848351509e+01 -1.3140910731418990e+02 1.5938701403754555e+02 -2.7732009088585858e+02 7.7229972044476835e+02 -9.3131833438050562e+03 1.1627052424220972e+03 2.7560812278300943e+01 -5.6014211664904906e+01 3.2052949033492439e+01 1.3735805447004486e+02 1.1639941507892985e+02 -3.8167892444212623e+02 -3.4566631404482196e+03 1.5329708467693836e+03 -2.2547644002553266e+03 3.1096392932282676e+01 4.0479071891365699e+01 -1.4378072534524506e+01 3.8712163376024051e+00 1.1586175322777680e+02 1.0257775548181104e+02 -2.3805641011596263e+03 4.4570733936504485e+03 -4.2846126014852882e+02 6.6337692366116798e+01 5.2679048421566677e+01 -9.4846156021673380e+00 -2.2623326561996663e+01 -2.3061077727325511e+01 -3.6068184832516692e+01 -1.8906691936265221e+02 -1.5134495990711598e+03 3.3216729816861734e+03 2.1357241255236801e+01 1.3388680321041319e+01 1.4364769313669223e+01 -9.6648447257776837e+00 5.1114917697029377e+01 -2.9256938296375256e+02 -3.9082914055877899e+02 -7.5147347471377273e+01 -7.5818908883980566e+02 1.6184715630360230e+01 3.5317529932937774e+01 6.2154607182382722e+02 
      </Row>
      <Row Index="5">
        6.1670673991173715e+01 7.6655559695139516e+02 3.2858275021100503e+03 1.4010173841799831e+03 -1.9751801639630798e+03 2.5636927274763695e+05 1.1167273944833825e+04 -5.6856188001291116e+02 1.4719771837221668e+02 1.1414947533495761e+02 -4.9448249461804517e+02 -2.6332638235898403e+03 -3.3416381076794505e+03 2.8962997710281688e+03 -1.7228979278986517e+05 2.3345492956932809e+04 -1.8739965744904021e+02 -1.1512745827395556e+03 -3.3814686469234761e+02 -2.9112730134270095e+02 -4.6919011421786990e+02 -1.2060487831991975e+03 1.8929569319139248e+03 -1.6595796514205297e+05 -4.2977805708891945e+04 3.4654091775310116e+02 7.5810115001106169e+01 1.7922978161722469e+01 -8.9712363481195325e+02 1.3654242140170456e+03 -3.3140994954212579e+02 7.0065337811074812e+01 -5.5597861065217920e+04 -7.1162181215358696e+03 -4.8226025706878303e+01 4.3304616353156598e+02 -2.9894383904300120e+01 7.0006497944668558e+02 -5.9317930800293880e+01 2.8620978413628336e+01 1.3789432101855427e+03 5.6201517252680016e+04 6.3273770727363662e+04 -3.4598692884021091e+01 3.4934903287827126e+01 4.8034513100556303e+01 -3.5785982726974828e+02 -3.2412837731654181e+03 -2.1286877091904389e+03 -3.0184282144465186e+02 -1.1545490016888989e+03 -1.2042644848346696e+04 -1.7166128860002868e+02 5.2413771742760105e+02 7.8593212984226111e+03 
      </Row>
      <Row Index="6">
        1.2015229740759032e+00 6.2119289396270121e+00 4.6413623108904210e+02 -1.8267134409286129e+02 2.9293420762609799e+01 1.1167273945350655e+04 3.3679234383472881e+03 -1.0072661413939932e+02 -3.2433742370762890e+00 -8.3806648515819777e+00 7.4055170365114463e+01 -5.7423351529973253e+01 -9.8241606788596741e+01 -6.3078534560191520e+02 -1.6920449482407876e+03 7.2070820094748924e+03 4.8942464415597229e+01 -2.1587779126604801e+01 -4.2139270389619725e+01 -7.1022440080178882e+01 -3.8138795485591595e+02 1.0623857322047701e+02 1.1540042875870922e+03 -3.7854590864423958e+03 -1.3098861962700823e+04 -1.8209917337759236e+01 -7.7416896534888870e+00 7.2355139845605212e+00 1.3006797195705335e+02 6.9244008829491278e+01 5.1066546057091159e+01 -5.0896488849295264e+02 -1.4013305012339770e+04 -2.5101855328480829e+03 6.0000010251510481e+01 2.2448106002902932e+01 -7.2236498926010881e+00 -3.9759600988067376e+01 1.5435180691556690e+02 -7.2039261069591575e+01 3.7493978937000634e+02 1.1413600857678977e+04 1.8745589969413617e+04 -1.6757138997181777e+01 -2.0232607615099454e+00 7.6661529372400814e+00 4.2402860436173974e+01 -2.5985679229373818e+02 -5.2843338016504276e+01 -7.2274562005769937e+01 -7.1904337729825465e+02 -4.2077442949534170e+03 -3.4682206038182770e+01 2.3818147671308207e+01 3.0785461417811593e+03 
      </Row>
      <Row Index="7">
        -1.4492422676750003e+00 5.3834302101830662e+00 -4.6481569334959083e+01 2.1576265099939254e+00 -4.4187919299760026e+00 -5.6856188003403975e+02 -1.0072661414270752e+02 7.0011636486283294e+01 2.9854955880773044e+00 -2.0575254831474274e+00 -3.7775707133284868e+00 3.7526726764958759e+01 -1.3064295041427064e+01 -7.5255499921681590e+01 7.7032595986326714e+02 -5.6755323929883623e+00 -1.3916925073356611e+01 1.8978482749969317e+00 4.6797736610290636e-01 -1.2105035773908559e+01 2.5744564736613622e+01 3.9696743558937769e+01 2.2968057746058460e+02 -2.8964992402992448e+02 1.2729548072347870e+02 -2.1408145993301675e+00 -6.4964805230386498e+00 -1.3778429900770266e+01 -2.0063801367371081e+01 2.5980061624972146e+00 2.8546177509965613e+01 1.3337712481539543e+02 -2.6855631640188079e+02 -1.2495734911565002e+00 -3.9505760785614861e+00 1.2677579376510835e+00 -1.4606312249553510e-01 1.8043569226495242e+00 -3.1567480212110624e+01 2.0086555033093543e+00 5.1334586679471329e+01 -1.3983889198878470e+02 -2.7290382032085904e+02 7.0296406817854384e+00 -3.5499298614911268e-01 6.6776861571587212e+00 -3.5768637306393547e+00 1.1266006033380393e+01 1.7172662561881737e+01 1.9384523126946199e+01 1.4336136080540554e+01 6.6342016585887919e+01 2.0982675060520084e+01 7.5516980260094901e-01 -3.8444981736207971e+01 
      </Row>
      <Row Index="8">
        5.2720109609332377e-01 2.8253012155012791e+00 8.5258301020230420e-01 -5.7234394042166432e+00 -1.6845990337873488e+01 1.4719771838652491e+02 -3.2433742321735828e+00 2.9854955880153611e+00 1.3513124150383254e+01 4.8375280983355229e-01 -2.1901502077288058e+00 1.7925192904958716e+00 1.9249493312362431e+00 1.7628236620569432e+01 -7.0237876290580903e+02 -4.5082776655516827e+00 -4.1060782610914426e-01 -2.1771112533046047e+01 4.1305292467109339e-01 2.8340474459522387e+00 8.3001498817666342e-01 3.8001638398091018e+00 1.8552328773345579e+00 -1.1319999525711039e+02 2.5155146685676186e+00 -1.0629752743487877e+00 -1.1638776696698010e+01 7.7632201931844369e-01 -4.8716551460305269e+00 -1.0089102726400490e+01 -2.0629957009993500e+00 1.9252968059987339e+00 5.1412638434798289e+01 -1.4866667799451140e+01 -2.1743570415083622e+00 6.0999701996905973e+00 2.5895931490145319e-01 1.1337767231987523e+00 -2.5290391903641130e+00 3.4477122369357018e+00 -2.3187792835803585e+00 6.4391132209518003e+02 4.8026452795514139e+01 -5.1659933349744780e-01 -1.0814649526629214e+00 -6.5661721924714556e-01 -2.4106899490450688e+00 3.7890172166857772e+00 6.7611246721491014e-01 5.7645349676653801e-02 -1.2751704904482867e+01 -9.8569120080624870e+00 5.2533143206785005e-01 7.6176199965826221e+00 3.0812021355699213e+00 
      </Row>
      <Row Index="9">
        7.1602929783200908e-01 4.7621346918243856e-01 1.6333287669183285e+01 -4.9751038060466959e+00 -3.0166861849427388e+01 1.1414947532267308e+02 -8.3806648564082948e+00 -2.0575254830915100e+00 4.8375280985664193e-01 1.9570571646184526e+01 1.1705667192581814e+01 -3.4270781689085702e+01 1.5676886243514328e+01 -4.5905620456034768e+01 -5.7290376009181919e+01 4.2917482187256475e+01 -7.2085738153707055e+00 -1.1843590113996925e+00 -5.7266228624829676e+00 -4.5043263952775447e+00 -7.3174965320310132e+00 8.1861063134216661e+00 6.5719213594554276e+01 1.1124431599656252e+02 6.3497647518315034e+01 7.9854761523742122e+00 6.2847462087415318e-01 9.2195414867271648e+00 4.6723138122855499e+00 -1.5645329608385616e+01 2.3746147606781576e-01 6.4682610729444917e+01 2.2606331626075234e+02 4.3752348880860907e+01 -4.2238220384008107e-01 -1.8653588598019013e+00 2.1183339992994705e+00 -9.1187876125137568e-01 -2.6544556487840378e+01 9.4259153809464635e+00 1.6265487599571408e+01 -3.7847169861690219e+01 -7.9020186120793383e+01 8.3659136962815528e-01 -1.6812759385866372e-01 -8.3428303730186997e+00 2.0484241964308532e+00 -1.9294715136456254e+01 1.3985893229211285e+01 1.0851392166845091e+01 1.2927259412860224e+00 1.2015599201849639e+01 -2.2733864269221993e-01 -9.9726890407089908e-01 -9.1512734390608088e+00 
      </Row>
      <Row Index="10">
        -1.6009188456060297e-01 -5.8967388264088889e+01 3.0045005039394702e+01 -1.1260979337448401e+01 -1.3140910732865672e+02 -4.9448249484480425e+02 7.4055170281533449e+01 -3.7775707124575320e+00 -2.1901502078195976e+00 1.1705667192665656e+01 2.6334860964730751e+02 -4.4685199858956615e+01 -4.7726731741805963e+01 -1.2032268761845719e+01 1.0004421071713315e+03 4.0309619419695061e+01 -1.9513425579244938e+01 5.2669173016353739e+00 -1.0532888743740855e+01 -1.6126102053355163e+02 -8.6413557853699601e+00 -1.4051324413350343e+01 3.3891814823721086e+02 -8.1535272059284148e+02 5.3016959879252681e+01 2.1550845633953113e+01 -3.4068342055974927e+00 4.2970920752585311e+00 1.0823511474116822e+02 -1.3501268109096998e+01 5.6868194323717987e+01 1.5637437439394887e+01 1.5389937185997037e+03 2.4895357048420652e+02 6.8688499323351282e+00 7.8799696516828135e+00 2.3371712861389884e-01 -4.8091086984618670e+01 1.9764681587618043e+00 -9.6551219794990608e+00 2.4027143461400959e+02 -4.0093859743061334e+03 -7.7148768346376073e+02 -1.4107251369041967e+00 4.7456535158219255e+00 -3.6610212670927664e+00 5.6285187001519461e+01 -1.2773597195919962e+01 -4.3157306510635976e+01 1.4428347066574183e+01 5.3602510350046373e+01 1.4224547893680230e+02 -8.1170657596427009e-01 5.8691607226846543e+00 -7.3765775274770576e+01 
      </Row>
      <Row Index="11">
        -1.0545310277664409e+01 -1.3668547396639664e+01 -2.2628465107987262e+02 9.6225377008488323e+01 1.5938701404795640e+02 -2.6332638235069480e+03 -5.7423351479703854e+01 3.7526726764072691e+01 1.7925192907954095e+00 -3.4270781689553267e+01 -4.4685199865122740e+01 4.5882686518969598e+02 -1.4140466783752447e+02 -2.6537213591504081e+02 -4.0216401117141731e+02 -9.5472059458966248e+02 5.9608418988434778e+01 -4.3924927378470784e+00 1.6030361264967993e+01 3.1068450235216574e+01 -6.7485062540450556e+01 1.7166951232370280e+01 1.7455548064034852e+02 -1.8810514362307058e+03 8.2057250769153416e+02 -4.1009901290859943e+01 7.5351866622187025e+00 -2.2801199949007540e+01 -2.1885119916269900e+01 6.5882470646005686e+01 -2.7958892975108931e+00 2.7233771878028811e+01 -2.6455769713049212e+03 -4.2656174747224270e+01 2.5442540250039034e+01 7.5057617159784513e+00 -9.6483653736052766e+00 3.7875214508948982e+00 2.6936751615627529e+01 -3.6048305968619189e+01 -6.2601189045561313e+01 1.6854540524703430e+02 -1.2617651001148911e+03 4.2613159678144790e+00 -2.4948693411706202e-01 1.8563232039117953e+01 -1.0789509772145559e+01 1.4568596702092952e+02 -4.7437167045402020e+01 3.0114380013333282e+00 6.2206983112814896e+01 2.8241248826668584e+02 1.6006542959517187e+01 1.4486144543559620e+00 -1.8419542757144265e+02 
      </Row>
      <Row Index="12">
        5.6521900339183340e+00 -2.4225575674019835e+00 1.1119606771837938e+02 -1.1214675783587597e+02 -2.7732009088142240e+02 -3.3416381075346990e+03 -9.8241606753736079e+01 -1.3064295041475361e+01 1.9249493309979493e+00 1.5676886244188836e+01 -4.7726731733619090e+01 -1.4140466784595338e+02 6.4505429854151100e+02 -1.4087494178413674e+03 5.4755638389414771e+03 1.2044278842431347e+03 2.5719357529410445e+00 -3.7105970280685824e+01 2.3377499147248413e+00 3.7863434269359232e+01 9.6753340766478345e+01 -6.7214530208486934e+01 5.4332473903206801e+02 2.0865529467260621e+03 -1.2626197633765460e+03 5.2605889787395359e+00 7.2134182523093159e+01 1.5658771307761770e+01 1.2214398646211997e+01 4.1645319903072959e+00 -1.6229609804789646e+02 6.5215900096442533e+02 3.4427043692353955e+03 -1.0708324761549540e+02 -1.1460509949390776e+01 -5.7633834033269750e+01 2.2302225661095960e+00 -2.0606100850092570e+01 -6.4834549719817502e+01 3.7886097363255273e+00 -1.8007800555772906e+02 1.5402529453768936e+03 2.1685027456988296e+03 -5.5604313446044333e+00 -6.5728479090453877e+00 -1.4339795537311549e+01 -3.0627749190081932e+00 -1.0960027496173848e+02 3.2632569130317211e+02 1.6163590987922822e+02 -4.4519462351226366e+01 -4.6870552204990145e+02 -5.3572369500690762e+00 -4.3956032028297209e+01 3.1959315771763289e+02 
      </Row>
      <Row Index="13">
        1.2695407355819015e+01 5.6708557647758127e+01 -1.1218599955001430e+01 -7.0348450210930139e+01 7.7229972043129521e+02 2.8962997706582382e+03 -6.3078534569095973e+02 -7.5255499922488525e+01 1.7628236622118088e+01 -4.5905620458507883e+01 -1.2032268796960125e+01 -2.6537213588637496e+02 -1.4087494178394163e+03 8.1416232875478399e+03 -1.3858755343549870e+04 -4.8021387692188982e+03 -1.6175749036478464e+02 1.0419894941825078e+02 -7.4217005449958746e+00 -2.2412669439478123e+01 2.9949509859858601e+01 1.2318053130339990e+01 -5.1790538572349215e+03 8.0464617211369987e+03 6.7046507921228513e+03 6.9878188340406936e+01 -3.1480749491584641e+02 2.4330017082962030e-01 -3.2585704839275117e+01 -7.6989696260228811e+01 8.8287792043120680e+02 -2.7014194260507129e+03 1.0387983584936687e+03 8.6263278394791985e+02 -5.2092401912166544e+01 2.5590119047747521e+02 2.7575838523281675e+00 6.2693377426611619e+01 2.4237219752172837e+02 6.9240239249656810e+00 2.6328621660354992e+02 -4.7628865726333061e+03 -9.8176265105045186e+03 -1.0978181411644741e+01 2.5429118730052426e+01 1.9207786992972505e+01 3.8597353851939964e+00 1.7865609669001515e+02 -8.4369060031551089e+02 -7.2057818456290693e+02 1.3990351708327654e+02 1.8382670856935538e+03 -3.9801674071090446e+01 1.9415761028351284e+02 -1.2923005261184294e+03 
      </Row>
      <Row Index="14">
        1.0467783902802921e+01 -8.5708489919204203e+02 -2.0375451344895844e+03 -4.3535200863823566e+03 -9.3131833440223418e+03 -1.7228979279157607e+05 -1.6920449492124651e+03 7.7032595988792309e+02 -7.0237876291946009e+02 -5.7290375983397098e+01 1.0004421074318234e+03 -4.0216401130119993e+02 5.4755638388063890e+03 -1.3858755342921329e+04 5.6180800273002835e+05 4.6305339574259342e+04 8.2748167924604786e+01 2.5056083973791901e+03 4.0393765056500669e+01 -1.1376241100878542e+02 5.1748875808432217e+02 4.9305214891129854e+03 2.4007195097120766e+04 -1.5619362186799140e+05 -5.1688304619672184e+04 -3.7139068561089863e+02 -6.2645583824039136e+01 -4.1345511783972256e+02 1.0195983322284653e+03 -9.2065979550453631e+02 1.2574860469767700e+03 1.0410189877513978e+04 -1.4926383830117928e+04 -4.7402536936162232e+02 -2.5108889984676728e+02 -8.0874597324705246e+02 4.7143356680031786e+01 -8.8555227191251743e+02 -5.1795701329409712e+02 -5.2486485422067517e+01 -1.6281079703384694e+03 -1.2795517785574170e+05 6.2472879333985453e+04 1.9380433328833075e+02 -3.0035426018264793e+01 1.4712201379367315e+02 4.9903498545910668e+02 1.3493808469580472e+03 5.2623290716406555e+03 2.1779189515108642e+03 1.1516528706920690e+03 -1.1139566818573032e+04 3.0968064796049742e+02 -9.6075876850969712e+02 9.2500758496846120e+03 
      </Row>
      <Row Index="15">
        1.4682013242630871e+01 3.2004465619078040e+01 1.0041372486333165e+03 -1.0335049111104365e+03 1.1627052424588514e+03 2.3345492959110808e+04 7.2070820094114006e+03 -5.6755323740653694e+00 -4.5082776920375203e+00 4.2917482215179916e+01 4.0309619864914566e+01 -9.5472059486281796e+02 1.2044278840686529e+03 -4.8021387687185779e+03 4.6305339579507548e+04 5.0273729333369381e+04 9.2687696834123926e+01 1.6444574161784840e+02 2.7863072244801483e+01 -1.7052800198871410e+00 -2.3314859588181349e+02 7.5948919521432629e+02 3.1725771497089213e+03 -3.3638300530940185e+04 -6.9799748917669873e+04 -1.7955915553428858e+02 -1.8181895566678818e+02 3.7487054244850171e+01 9.2938313276392023e+01 -3.7212613542785402e+02 6.5143864160896342e+01 -1.7088038011561844e+03 -8.3999316838269078e+04 -7.7413167979940617e+03 -5.1454958777787397e+01 1.0332345082922257e+02 1.3791903875217578e+01 -6.8105274289056240e+01 -2.7179904988266662e+02 2.0188780285540861e+02 -2.4285780429490347e+02 -2.0785918596765114e+03 9.6647836885429977e+04 -1.8848489234620622e+01 -4.3810428669400956e+01 -4.3106953541018456e+01 -6.8355996119532847e+00 -6.0594415969755937e+02 1.1276515003563691e+03 -7.4370291018737689e+01 -3.3152803559276317e+03 -2.1644338547214898e+04 -1.6178551979215428e+01 -1.0142504004985918e+01 1.6615413762080061e+04 
      </Row>
      <Row Index="16">
        -3.9503568641412095e+00 -6.6303455274337013e+00 -2.9500513892300251e+01 5.8349097628861122e+00 2.7560812280551705e+01 -1.8739965741126105e+02 4.8942464427630696e+01 -1.3916925073426967e+01 -4.1060782617535785e-01 -7.2085738152808290e+00 -1.9513425577993530e+01 5.9608418986611383e+01 2.5719357539476277e+00 -1.6175749036897321e+02 8.2748167983921917e+01 9.2687696900381070e+01 4.6203500267885175e+01 9.0114761680439415e-02 9.5192886391824825e+00 1.8197213742137563e+01 -9.9949460395113743e+00 -2.4197367319739271e-01 4.6947261219137602e+00 -3.6698772311054574e+02 -2.7090293402339853e+02 -2.6275072733517398e+01 3.8664158890793319e+00 5.2481498706765430e+00 -5.8289698225353330e+00 2.2196609518498349e+01 -1.3456014534770393e+01 -7.1298486703028459e+01 -5.0493519209287820e+02 -1.0276185367408580e+02 8.6366959128713674e+00 3.8211099327202191e-01 -5.4419347594582224e-02 2.1544174707837747e+00 2.8664564152671606e+00 -6.0721012860942309e+00 -4.2343140829130554e+01 3.4801878173869142e+02 4.4364340126759947e+02 -6.9051214788035664e-01 -5.7525249501514608e-02 -1.8401031100922429e+00 -4.3686674277914230e+00 7.9643140484493244e+00 7.7319324311760056e+00 -4.9462205742872403e+00 -8.3967387997809340e+00 -8.1769012655714434e+01 -3.3651718609826586e+00 -1.2487500534430684e+00 5.7776810090567189e+01 
      </Row>
      <Row Index="17">
        2.2419861063946023e-01 -1.9445255654258667e-01 -1.9504530630497008e+01 -3.2839274773525062e+01 -5.6014211667998168e+01 -1.1512745827810550e+03 -2.1587779141052643e+01 1.8978482751687267e+00 -2.1771112533071168e+01 -1.1843590113077749e+00 5.2669173020115352e+00 -4.3924927372437406e+00 -3.7105970281746011e+01 1.0419894942401662e+02 2.5056083973405503e+03 1.6444574153791183e+02 9.0114761384253228e-02 7.9517524625362626e+01 -2.7388836899507667e+00 -1.2855984865511584e+01 -9.6798773243624794e+00 8.7453398764048700e+01 1.4052977110332370e+02 1.7877264110785759e+03 -4.2392673664128708e+01 -2.1430724006844049e+00 -1.0689334434894487e+01 -3.6575079582107062e+00 5.8946399556167730e+00 1.3480071895542586e+01 2.3904608583559238e+01 -1.1919162407524183e+01 -1.1282122989464197e+03 3.0942932593014518e+00 1.5030008796660370e+00 -1.6960808961848855e+01 -3.0456215547145238e-01 7.6306315261998936e-01 2.7037679877014966e+00 -2.1009524583264927e+00 2.5952299055248627e+01 -1.3492424151881723e+03 -7.6879696994863309e+00 2.7291337554870330e+00 1.6603379111758718e+00 2.1526988736279105e+00 3.6485344991295126e+00 8.0794879682960534e+00 8.5492207653031898e+00 -3.7550084442882010e+00 -1.4152654501609021e+00 9.3943550070594082e+00 1.6831313894848614e+00 -1.9171110191604971e+01 4.9187189170885537e+00 
      </Row>
      <Row Index="18">
        -2.7242501767528298e+00 -2.2239314990783821e+00 -1.6380669536931109e+01 7.9278964258592621e+00 3.2052949034162722e+01 -3.3814686468225602e+02 -4.2139270385819287e+01 4.6797736608219509e-01 4.1305292465855814e-01 -5.7266228624534321e+00 -1.0532888743482204e+01 1.6030361264424698e+01 2.3377499151790069e+00 -7.4217005465734758e+00 4.0393765074819683e+01 2.7863072265738197e+01 9.5192886391981020e+00 -2.7388836898742568e+00 1.3422498392419286e+01 8.2565273772010244e+00 2.4314567687995886e+01 1.1177263510724771e+00 -5.9339048690604344e+01 -1.3819850328752875e+02 -8.3238266269524559e+01 -9.4256493458651676e+00 2.3768094203117651e+00 4.1150270894962899e+00 -3.6926278280478790e+00 9.7723829109178979e+00 3.7979759782326425e+00 -4.0235967329780024e+01 -2.2294973983309552e+02 -5.5069474910403315e+01 3.4962076670631212e+00 3.7224791102168808e-01 5.1001833707968580e-01 1.4413378222288387e+00 -5.3360731587804082e+00 -2.2665539882846599e+00 -2.1005110213985692e+01 -4.1190496700784784e-02 1.1496968150878811e+02 -1.1543165488015825e+00 -1.5677908077771563e-01 -2.0261108974044504e+00 -2.2456608263165325e+00 4.7717896414381187e+00 4.7265735656091579e+00 -5.0776742809138451e+00 -4.2683968644544130e+00 -1.7478729919216306e+01 -4.8571991890241395e-01 -1.3425717906036316e-01 1.3945186296546224e+01 
      </Row>
      <Row Index="19">
        -2.4171606316487777e+00 1.0437145649227091e+01 -3.2589578589408177e+01 2.9943451457001437e+01 1.3735805447838160e+02 -2.9112730121734427e+02 -7.1022440032507220e+01 -1.2105035774398686e+01 2.8340474459513061e+00 -4.5043263952723080e+00 -1.6126102053335217e+02 3.1068450231288594e+01 3.7863434274446860e+01 -2.2412669460001553e+01 -1.1376241084222738e+02 -1.7052797627766267e+00 1.8197213742830542e+01 -1.2855984865126345e+01 8.2565273773499293e+00 1.5064433601671954e+02 4.0391715025069184e+00 -3.7078219290932438e+01 -3.3332946391329421e+02 -2.1176796524902443e+01 -7.8084095767785357e+01 -8.3186950957947889e+00 6.7168756099110762e+00 2.0704700989960827e+00 -4.8586515580698432e+01 -1.7327799742584716e+01 -6.6544583157130873e+01 -2.6342555851306464e+01 -5.9348158820623030e+02 -1.2056346790350381e+02 3.9163466573670291e-01 -1.5995463730093320e+00 3.8458677255745766e-01 2.8540836309186336e+01 4.0732673897549052e+00 1.6727845545671038e+01 -1.9897015192264860e+02 6.8813838404988746e+02 4.8508217740265957e+02 8.1157808068447945e-01 -3.7133561884469906e+00 -6.7711657199228847e-01 -3.1346763824535266e+01 3.3262900745560472e+01 1.8252457114011179e+01 -1.1795530375856579e+01 -4.2139709449914889e+01 -8.6526649949331215e+01 -3.6618843143844120e+00 -2.5709924767859476e+00 6.0193246148879240e+01 
      </Row>
      <Row Index="20">
        -9.3401528252893904e+00 -1.3139250781616568e+01 -9.7676079542977632e+01 -3.6392314571180151e+00 1.1639941507492303e+02 -4.6919011428426029e+02 -3.8138795487077152e+02 2.5744564736888833e+01 8.3001498833937148e-01 -7.3174965319900593e+00 -8.6413557871501325e+00 -6.7485062538573430e+01 9.6753340766521490e+01 2.9949509863391313e+01 5.1748875801625172e+02 -2.3314859596201450e+02 -9.9949460396043150e+00 -9.6798773248435168e+00 2.4314567687975199e+01 4.0391715033331366e+00 4.1163879589705198e+02 5.6898484140690158e+01 -2.0782500164216464e+02 1.2673867899199195e+02 4.4037072497948861e+02 2.7615506595362675e+01 1.0416224134301821e+01 4.9639935896236551e+00 -1.3672799249596309e+01 1.6089703732215827e+02 1.1574247122193273e+02 4.8822087400029147e+01 6.1687093174315442e+02 -1.7269150716679192e+02 8.3925606797649266e+00 8.4882209786774183e+00 -5.0817468928265592e+00 2.4598076067369234e+00 -9.6088113907359158e+01 -3.3473177298433768e+01 1.9238762941804374e+01 -4.7037149208907402e+02 -8.1812333462546781e+02 1.5643986154625100e+00 -2.1821054305738130e-01 -1.5131202440489071e+00 -1.0325967990259044e-01 -8.2245977436192021e+01 1.2847937685980349e+02 8.5596744109196834e+00 -1.2128478808709872e+01 1.4858252444292162e+02 1.0825901102987814e+01 1.2921895980699687e+00 -9.0017074536831899e+01 
      </Row>
      <Row Index="21">
        1.4005895018076302e+00 3.1742314352485550e+01 1.5134041208728739e+00 -2.1770472794078148e+02 -3.8167892444570714e+02 -1.2060487832162376e+03 1.0623857320811975e+02 3.9696743559455626e+01 3.8001638395968200e+00 8.1861063139480450e+00 -1.4051324407131688e+01 1.7166951229595611e+01 -6.7214530212239481e+01 1.2318053144480473e+01 4.9305214891058513e+03 7.5948919514405497e+02 -2.4197367450574347e-01 8.7453398764740086e+01 1.1177263506319264e+00 -3.7078219294838959e+01 5.6898484141721163e+01 5.6195466064198718e+02 9.6824167258520470e+02 5.7178135354975866e+03 -8.4461314392914301e+02 -1.5679698709060858e+01 -7.5954513549592150e+01 -2.4189883486721726e+00 -6.4014038227552049e+01 1.5774386090477844e+02 1.5593825899170326e+02 2.1265375790841574e+02 -2.5940798088719339e+03 -3.0481637913845822e+02 1.0392138142382805e+00 -2.5585258661282637e+01 -2.8179263535711385e+00 2.2474491198087918e+01 -8.1819121804702462e+01 -5.7258017367500358e+00 1.0538616521440765e+02 2.1338917940024212e+03 1.2385696508890960e+03 8.0533724245287246e+00 -5.7547206280474033e+00 -5.8469527648977637e-01 -1.8034014121404720e+01 -1.3273781827797586e+02 2.1881396542352854e+02 3.1393845918519098e+01 -1.0622104574179917e+02 -2.5034911352600926e+02 1.4958741867978135e+01 -1.4782854594911271e+01 1.6778277016049236e+02 
      </Row>
      <Row Index="22">
        -3.3727841370594689e+00 4.5999837882143311e+00 2.1450914006247913e+01 -4.0313831346359558e+02 -3.4566631404635236e+03 1.8929569317745281e+03 1.1540042875250483e+03 2.2968057746223849e+02 1.8552328767177642e+00 6.5719213595745941e+01 3.3891814825592883e+02 1.7455548063626793e+02 5.4332473901910907e+02 -5.1790538571869411e+03 2.4007195097021111e+04 3.1725771493795073e+03 4.6947261180323494e+00 1.4052977110499387e+02 -5.9339048691854146e+01 -3.3332946392448139e+02 -2.0782500163926792e+02 9.6824167258309353e+02 8.8371473267737310e+03 -5.8365937377785613e+03 -4.0619843311833256e+03 -6.5953746135016900e+00 -1.4990583346471169e+01 -4.2979425901862328e+01 4.0998995304350274e+01 3.5500229212727390e+01 -1.8520364125924203e+02 4.1497949722350495e+03 -1.3190408464110524e+04 -9.8729127862843450e+02 5.6758670945042695e+01 -1.8222918671942944e+02 1.0201255740186497e+00 -4.7353683385954426e+01 -1.8974003127720488e+02 1.5755033667938918e+01 7.6980017391817978e+02 6.4308481576173599e+03 5.3709517571237548e+03 2.3524607672866644e+01 -2.2743083921685685e+01 4.8437598077198469e+00 4.7594115422315816e+01 -1.4245458574380382e+02 7.0131739793208635e+02 7.9182650805646153e+02 -1.3933496022571313e+02 -7.3730626500396966e+02 8.5126121197684682e+01 -1.2611743912622309e+02 4.3417602578245226e+02 
      </Row>
      <Row Index="23">
        -1.4293371728605766e+02 4.1326090938470952e+02 6.4031714592125786e+02 -3.9326765081968506e+03 1.5329708468744043e+03 -1.6595796514069685e+05 -3.7854590856329869e+03 -2.8964992405593512e+02 -1.1319999524221930e+02 1.1124431598236151e+02 -8.1535272077843547e+02 -1.8810514361613023e+03 2.0865529468225814e+03 8.0464617208059353e+03 -1.5619362186982576e+05 -3.3638300527429907e+04 -3.6698772307514082e+02 1.7877264110362630e+03 -1.3819850327985478e+02 -2.1176796421921608e+01 1.2673867891087741e+02 5.7178135354723699e+03 -5.8365937378972503e+03 6.2329095474909968e+05 5.3649483311217133e+04 7.6056553806092779e+02 -1.2616955550254988e+03 -1.5350737721771111e+01 -2.9109831950686566e+02 3.1624361601453711e+02 1.3384767743928655e+03 -1.2683213406860318e+03 4.6298989352009514e+04 -1.2958617088964411e+03 2.3174975584392814e+02 -4.8696553388539178e+02 1.4276696960770622e+01 2.3157655235721751e+02 -9.4782562205280101e+01 1.3370014207727263e+02 1.9924922050117407e+03 9.5068017943880026e+04 -6.2785350931520821e+04 1.0933326194739095e+01 -9.4771644140866073e+01 3.8420653610188822e+01 -1.3112355305715255e+02 -6.7072120368220567e+02 3.3731778040099234e+03 -4.8785347383291366e+02 -4.9629181180021551e+03 9.8029457872520834e+03 -3.0801898648938561e+01 -3.6568795418442699e+02 -7.4123667553393134e+03 
      </Row>
      <Row Index="24">
        1.6231533575461331e+01 2.0267046014138032e+01 -1.6535296352464761e+03 1.2648618761356927e+03 -2.2547644003227529e+03 -4.2977805712314213e+04 -1.3098861962656762e+04 1.2729548069596058e+02 2.5155147077093716e+00 6.3497647477528517e+01 5.3016959223314188e+01 8.2057250809670222e+02 -1.2626197631233663e+03 6.7046507914139656e+03 -5.1688304627618469e+04 -6.9799748917963356e+04 -2.7090293392702006e+02 -4.2392673782174825e+01 -8.3238266239124641e+01 -7.8084095390018774e+01 4.4037072486054103e+02 -8.4461314403655831e+02 -4.0619843316806073e+03 5.3649483316670077e+04 1.0328669039748609e+05 2.9393885764079459e+02 1.1584824387670596e+02 -4.8133648258653920e+01 -2.8158215792700503e+02 1.6814118829905055e+02 -1.7356621627596300e+02 3.3014967284989452e+03 1.2106020267690586e+05 1.3296294866524528e+04 -7.2174890447084181e+01 -1.9408175071905134e+02 4.9195923220004438e+00 1.2419457693819302e+02 9.1258903704560453e+01 -8.2710936406125484e+00 2.5987108278109736e+02 -9.4451344108073681e+03 -1.4334778454095533e+05 6.3251821487773498e+01 5.2093604057794778e+01 1.8498006532496277e+01 -3.1788216292549805e+01 1.0298870238053496e+03 -1.2217699216663605e+03 2.8946633939150439e+02 5.0000578299724666e+03 3.2120673662926438e+04 6.6235025506503973e+01 -3.4831228610035424e+01 -2.4517497458854847e+04 
      </Row>
      <Row Index="25">
        -2.7007849627120928e-01 -3.9590329401405029e+00 6.7854242174753807e+00 -1.6370009199441546e+00 3.1096392930712796e+01 3.4654091772577544e+02 -1.8209917345772610e+01 -2.1408145993053722e+00 -1.0629752742837155e+00 7.9854761522892872e+00 2.1550845632753408e+01 -4.1009901289390001e+01 5.2605889782399942e+00 6.9878188342740259e+01 -3.7139068565473099e+02 -1.7955915557863955e+02 -2.6275072733460149e+01 -2.1430724009607047e+00 -9.4256493458388348e+00 -8.3186950951124459e+00 2.7615506595200486e+01 -1.5679698710078227e+01 -6.5953746164403242e+00 7.6056553808575177e+02 2.9393885770508996e+02 4.5218671207429338e+01 4.7815954198816257e-01 5.2848539406319617e-02 1.3107088442478187e+01 -7.1773312598092502e+00 1.1204487083516465e+01 1.0933577954665883e+02 5.4937431985265857e+02 3.6232348225779567e+01 9.5655748107133789e+00 5.0365679587512773e+00 -3.0264928355185283e-01 -2.2225818325173972e+00 -5.9981419830206519e+00 1.4656885405880451e+00 4.5719546113741764e+01 -2.6413317022318620e+02 -4.6333373565363422e+02 2.9567748071779110e+00 5.7665788925042727e-01 -6.0744472364376956e-01 6.4205675203822086e+00 -6.5551302433116803e+00 -3.8849221945400814e-01 1.0280662316636569e+01 -2.5530870467846398e+00 7.9130176307206725e+01 2.9015554774197732e+00 2.5319120604877581e+00 -5.3139713870467482e+01 
      </Row>
      <Row Index="26">
        -3.9185877364451827e-01 -7.1023373536801699e+00 1.9442177334913463e+01 4.2341007287076692e+01 4.0479071892733621e+01 7.5810115019918669e+01 -7.7416896456060069e+00 -6.4964805231390130e+00 -1.1638776696620408e+01 6.2847462081180439e-01 -3.4068342067295134e+00 7.5351866622324124e+00 7.2134182524378588e+01 -3.1480749492072545e+02 -6.2645583812944551e+01 -1.8181895562545037e+02 3.8664158893588620e+00 -1.0689334435071260e+01 2.3768094203898258e+00 6.7168756105532168e+00 1.0416224133970246e+01 -7.5954513549081142e+01 -1.4990583345261172e+01 -1.2616955550352043e+03 1.1584824381519672e+02 4.7815954174788544e-01 6.0741582102312151e+01 3.0638923978504771e+00 1.3055096281939452e+01 2.8286107397371723e+00 -6.8037230904212606e+01 5.9210777450723739e+01 1.1678425065963188e+03 4.9192515940513715e+01 1.2462783072444843e+00 -2.3383761874140532e+01 -4.5486688980842249e-01 -4.3308012920800198e+00 -3.7589643376103439e+00 -9.6727240539975945e+00 -4.8149744241266127e+01 -1.4261766306133916e+02 -1.9126549041546355e+02 -2.2024232770552836e+00 -7.1378038797032972e-02 -1.8141292017469783e+00 2.5116868981372926e+00 -1.5974714568827082e+01 3.0976056472509015e+00 2.2503774010472462e+01 3.5370641123274439e+01 3.1997942751654268e+01 -2.5347362891526872e+00 -1.8977925603756571e+01 -2.6212554480199653e+01 
      </Row>
      <Row Index="27">
        2.2183528367600105e+00 -1.5317215656828509e+00 1.9517591382461617e+01 -6.4473685919710757e+00 -1.4378072534484062e+01 1.7922978167736858e+01 7.2355139850023473e+00 -1.3778429900764380e+01 7.7632201931283085e-01 9.2195414867558725e+00 4.2970920755584530e+00 -2.2801199949278029e+01 1.5658771307531932e+01 2.4330017138572657e-01 -4.1345511784094771e+02 3.7487054246025536e+01 5.2481498706155136e+00 -3.6575079581967671e+00 4.1150270894727310e+00 2.0704700987946794e+00 4.9639935896494904e+00 -2.4189883486576083e+00 -4.2979425901704090e+01 -1.5350737725881842e+01 -4.8133648260438093e+01 5.2848539445747633e-02 3.0638923978205668e+00 1.6159726810784843e+01 5.8850559633783508e+00 1.0615455600172794e+00 -7.8593204052538779e-02 -1.3527814351671125e+01 -1.6530341719657144e+01 -1.3719394842223096e+00 2.0679823637200840e+00 1.2671512706403121e+00 2.0397786041330845e+00 -6.5693451465410369e-01 -9.3587675378084363e+00 2.0582553624326723e+00 -1.1764082270052722e+01 5.0908391703960106e+01 8.5601930289355323e+01 -1.1292105085973003e+00 -2.4180660774093043e-01 -1.0651240598888279e+01 1.2568515953588610e+00 -1.8339607652653960e+01 9.0152951680055722e+00 -1.1341994149293209e+00 -3.7486858448901756e+00 -2.0390238186399326e+01 -4.7867769203183839e+00 3.0094095847869312e-01 1.0653371597427725e+01 
      </Row>
      <Row Index="28">
        -2.0008802112300694e+00 -4.1834667820267072e+01 2.8938208613977199e+01 6.1766417670101905e+00 3.8712163299619253e+00 -8.9712363491440999e+02 1.3006797191370299e+02 -2.0063801366861128e+01 -4.8716551461749376e+00 4.6723138124696924e+00 1.0823511474285033e+02 -2.1885119914424664e+01 1.2214398641655436e+01 -3.2585704820285741e+01 1.0195983321162948e+03 9.2938313045631958e+01 -5.8289698234374043e+00 5.8946399557072198e+00 -3.6926278282629639e+00 -4.8586515581824614e+01 -1.3672799248201500e+01 -6.4014038230188035e+01 4.0998995297056410e+01 -2.9109831942591950e+02 -2.8158215758589972e+02 1.3107088443264416e+01 1.3055096282387975e+01 5.8850559632436052e+00 8.8947234480359413e+01 -2.8084783448127979e+01 3.7496786428885396e+00 -3.6444768795446940e+01 6.9382284471509081e+02 4.2999997124959577e+01 9.1638363535594962e+00 -2.2058915837760651e-01 -3.3999075561171993e-01 -3.2928340500687497e+01 1.5711220874907312e+01 -1.7478332424055001e+01 4.8337804042198911e+01 -2.2605671661798979e+03 1.3108788046675025e+02 -2.9793317780014368e+00 4.0551651159418807e+00 -3.2130249645361735e+00 3.4433591521650676e+01 7.0572814122771206e+00 -3.8842309573952264e+01 -1.6423433509902878e+00 -1.3846737346589180e+00 -2.5018044180871925e+01 -6.8684754542522661e+00 -3.5163709542641404e+00 3.3429499190671294e+01 
      </Row>
      <Row Index="29">
        -1.0523392728567593e+00 -3.9993689446640701e-01 -6.5926708723327607e+00 -3.0113954080307273e+01 1.1586175322527143e+02 1.3654242139845774e+03 6.9244008819497921e+01 2.5980061627940358e+00 -1.0089102726319634e+01 -1.5645329608249714e+01 -1.3501268109324201e+01 6.5882470646614337e+01 4.1645319897152575e+00 -7.6989696256310935e+01 -9.2065979554688101e+02 -3.7212613547924093e+02 2.2196609518255912e+01 1.3480071895307333e+01 9.7723829108567486e+00 -1.7327799742600860e+01 1.6089703732258272e+02 1.5774386090443986e+02 3.5500229211224962e+01 3.1624361605824265e+02 1.6814118837635715e+02 -7.1773312595728385e+00 2.8286107398154385e+00 1.0615455600061026e+00 -2.8084783448697344e+01 2.7541580572261694e+02 1.0002587973187119e+02 -1.0519723046868236e+02 1.3867154421802770e+03 -2.3143772248120854e+02 1.7857163654548302e+01 -8.1900727915034111e+00 -9.3937447052501017e+00 5.5188564431580893e+00 -4.0778834728006061e+01 -5.4287721691555326e+01 4.6312244949054410e+01 9.4069877893370438e+02 -2.8370343523063707e+02 3.8809053267241937e+00 2.6766400675840565e+00 4.3013227057976033e+00 -4.9860092824687179e+00 -1.5468642180243927e+02 1.0698160091625013e+02 -8.2639744186837056e+00 4.5297818254704794e+01 2.9013364187231986e+01 4.0342431077487619e+00 -3.4123777790759462e+00 -3.5381902339589871e+01 
      </Row>
      <Row Index="30">
        -4.8598762660468608e+00 -3.3728679164634912e+00 -2.6827298452192458e+01 -9.2945495336298379e+01 1.0257775547249447e+02 -3.3140994966601966e+02 5.1066546006547455e+01 2.8546177510655554e+01 -2.0629957010927349e+00 2.3746147630846792e-01 5.6868194325711443e+01 -2.7958892952336640e+00 -1.6229609805382913e+02 8.8287792045535230e+02 1.2574860468253473e+03 6.5143863887939801e+01 -1.3456014535937996e+01 2.3904608583529033e+01 3.7979759779255780e+00 -6.6544583158516872e+01 1.1574247122328957e+02 1.5593825898819023e+02 -1.8520364126821454e+02 1.3384767745012282e+03 -1.7356621587264965e+02 1.1204487084572044e+01 -6.8037230903784646e+01 -7.8593204246365289e-02 3.7496786427959528e+00 1.0002587973197789e+02 3.2088874742096476e+02 -2.5602505065709568e+02 -6.3287844073653287e+02 -1.8089422651584772e+02 1.0643381340829666e+01 6.1179796716530902e+01 -2.3808833056278136e+00 -1.5284485866961120e+01 -4.9542277552556939e+01 -2.4260069971699956e+01 1.7722738705489490e+02 -2.5194415129845544e+02 5.8530374403131020e+00 3.0607447749677839e+00 3.8110202963128206e+00 9.7761869489845332e-01 1.5252908054991739e+01 -6.7986824638463744e+01 1.1541203280585790e+01 -8.3566695108389624e+01 -1.0865564517374651e+01 -1.0735861301792728e+01 1.0153201958783869e+01 4.1838178391063977e+01 1.8469615663430705e+01 
      </Row>
      <Row Index="31">
        7.0269810712919067e-01 2.9353234234939009e+01 -4.5942435468503426e+01 -1.1178552615323888e+02 -2.3805641011529310e+03 7.0065337800027010e+01 -5.0896488843364841e+02 1.3337712481393282e+02 1.9252968074769115e+00 6.4682610728052396e+01 1.5637437418827176e+01 2.7233771888516230e+01 6.5215900097729082e+02 -2.7014194260907752e+03 1.0410189877371835e+04 -1.7088038008651347e+03 -7.1298486699231489e+01 -1.1919162411511934e+01 -4.0235967328739889e+01 -2.6342555839441502e+01 4.8822087393062247e+01 2.1265375790721879e+02 4.1497949722253843e+03 -1.2683213405791466e+03 3.3014967280557030e+03 1.0933577954381508e+02 5.9210777451959927e+01 -1.3527814351334598e+01 -3.6444768805301692e+01 -1.0519723047284879e+02 -2.5602505066916365e+02 3.9056846720026697e+03 -9.9551026189241315e+02 4.5391738715131942e+02 -1.5192332773922317e+00 -7.3867685636192164e+01 3.2302633010168016e+00 4.1968238958086829e+01 -1.7607255425796112e+02 4.0358330485799932e+01 1.1155670667802511e+02 2.3627816742136295e+02 -4.8711703648217044e+03 1.5929332109780864e+01 -1.6976998551820575e+01 -9.2397471203543446e+00 -1.0312747404092523e+01 -1.9877007383045111e+01 5.2573399760636175e+02 6.1674163571270446e+02 1.3712253435173815e+02 1.0811660761428946e+03 5.2899059952597668e+01 -6.7201103936432418e+01 -8.0229958178854974e+02 
      </Row>
      <Row Index="32">
        -1.2504660312988563e+00 -7.7924130356295791e+02 2.1728701056141826e+03 5.6025205093083127e+02 4.4570733935644248e+03 -5.5597861068686310e+04 -1.4013305012526631e+04 -2.6855631642541266e+02 5.1412638473873812e+01 2.2606331622257858e+02 1.5389937179510016e+03 -2.6455769708956432e+03 3.4427043694266249e+03 1.0387983579956344e+03 -1.4926383839671267e+04 -8.3999316840004758e+04 -5.0493519200540322e+02 -1.1282122990677017e+03 -2.2294973980569921e+02 -5.9348158783825056e+02 6.1687093161573284e+02 -2.5940798090192061e+03 -1.3190408464720909e+04 4.6298989357589977e+04 1.2106020267900208e+05 5.4937431979428220e+02 1.1678425066613490e+03 -1.6530341719591888e+01 6.9382284437138878e+02 1.3867154420900479e+03 -6.3287844114057225e+02 -9.9551026143401396e+02 3.9002063089250727e+05 1.8246786264074151e+04 -1.2522794660677391e+02 -7.0058111900508811e+02 8.6106603952745786e+00 -6.0235827618602491e+02 -7.2873284556689487e+02 -4.1601318265084933e+02 1.6308547698432790e+02 -5.3068567048464451e+04 -1.7183523142317293e+05 -3.9347393477210744e+01 1.3642437521946971e+02 2.4512594608110987e+01 4.7900967891278742e+02 -2.8531058881279314e+03 3.5188835606173961e+02 8.0650062389167488e+01 8.6370521194156881e+03 3.2134737126689532e+04 -7.6390679215624147e+01 -1.9737583442870493e+02 -2.3629763395286118e+04 
      </Row>
      <Row Index="33">
        4.8144618366599389e+01 -4.1292787846363353e+01 -7.7904495982679009e+01 1.7579686884780679e+02 -4.2846126018735868e+02 -7.1162181225072163e+03 -2.5101855330147555e+03 -1.2495734928306774e+00 -1.4866667794700334e+01 4.3752348875976168e+01 2.4895357039684313e+02 -4.2656174682339952e+01 -1.0708324759597508e+02 8.6263278392372740e+02 -4.7402537085660151e+02 -7.7413167989332287e+03 -1.0276185366381287e+02 3.0942932439975266e+00 -5.5069474906808864e+01 -1.2056346785389542e+02 -1.7269150717753291e+02 -3.0481637916244682e+02 -9.8729127873006291e+02 -1.2958617077242525e+03 1.3296294867857810e+04 3.6232348219607957e+01 4.9192515950980805e+01 -1.3719394843724331e+00 4.2999997076378349e+01 -2.3143772249005997e+02 -1.8089422657198429e+02 4.5391738725289179e+02 1.8246786265137100e+04 4.0511578589865821e+03 -1.0365612576559988e+02 -8.0835442529023567e+00 7.5866710626835623e+00 -4.1105156719239702e+00 5.9407068888961390e+01 3.4637980448887618e+01 -2.7909480536883939e+02 -2.3177147049843970e+04 -2.0455915549657289e+04 1.1796634369089588e+01 1.5742509286866941e+01 -1.4962741720189179e+01 3.8929137790091829e+01 1.9683687917043244e+02 -2.1035102297260892e+02 5.8257469632643385e+01 9.5376940777475511e+02 4.5773540547661642e+03 -5.1760570019483296e+00 -1.3755014610382730e+01 -3.3246256879560824e+03 
      </Row>
      <Row Index="34">
        -6.8227464240562128e+00 -1.1944427945016280e+01 -1.0107061704256921e+01 1.2686918529063352e+01 6.6337692366031121e+01 -4.8226025705389873e+01 6.0000010251016931e+01 -3.9505760785388446e+00 -2.1743570415357798e+00 -4.2238220381158875e-01 6.8688499327674890e+00 2.5442540249799308e+01 -1.1460509949447776e+01 -5.2092401912067572e+01 -2.5108889984066616e+02 -5.1454958779313984e+01 8.6366959128120513e+00 1.5030008797305214e+00 3.4962076670453612e+00 3.9163466550765946e-01 8.3925606798955954e+00 1.0392138143108625e+00 5.6758670945557554e+01 2.3174975583977880e+02 -7.2174890444375478e+01 9.5655748107583776e+00 1.2462783072232790e+00 2.0679823637203443e+00 9.1638363537758067e+00 1.7857163654652012e+01 1.0643381341052642e+01 -1.5192332773705175e+00 -1.2522794660205992e+02 -1.0365612576422535e+02 2.6270119308332994e+01 -7.4811291640963873e-01 -4.9163063366383941e-01 -2.7005428219812577e+00 2.0054096299865751e+00 -6.7131869023874504e+00 2.5189082478539476e+01 2.0378461363772024e+02 1.0565645441692493e+02 -4.8077492526315524e-01 3.9181773083117610e-01 -3.4591363825860177e-01 3.8136079371917173e+00 1.0281136917809803e+00 -5.8350852893147049e+00 1.0491517890113777e+00 -1.1767190587358840e+01 -1.9792722560826281e+01 6.9617634557260799e-01 -4.4715293104819126e-01 1.3878332187484448e+01 
      </Row>
      <Row Index="35">
        1.8846497224117797e-02 -4.5431607422520415e-01 -1.0692563548295150e+01 -3.4213830308720317e+00 5.2679048420314913e+01 4.3304616351119921e+02 2.2448105993642173e+01 1.2677579377851771e+00 6.0999701995942637e+00 -1.8653588597351387e+00 7.8799696527928518e+00 7.5057617159770160e+00 -5.7633834034635520e+01 2.5590119048258907e+02 -8.0874597325572654e+02 1.0332345078294929e+02 3.8211099299033435e-01 -1.6960808961623769e+01 3.7224791095380283e-01 -1.5995463736078932e+00 8.4882209791225591e+00 -2.5585258661785417e+01 -1.8222918672088014e+02 -4.8696553387742824e+02 -1.9408175064969339e+02 5.0365679589825305e+00 -2.3383761874131295e+01 1.2671512705988128e+00 -2.2058915794357858e-01 -8.1900727913787534e+00 6.1179796716984896e+01 -7.3867685634901591e+01 -7.0058111893478758e+02 -8.0835442410235601e+00 -7.4811291644381939e-01 3.8298030246407365e+01 -1.1785959460357720e-01 -7.8686420389526524e-01 2.2154494881535101e+00 2.3014441897939326e+00 2.0815615293057633e+01 -4.0302656232919674e+02 1.9094887044494257e+02 3.0032855844850559e-01 5.3676887006611840e-01 -1.7497633314895844e-01 1.5943405711744543e+00 1.2226757430036201e+01 -2.3652021018437665e+01 -2.7586040961154616e+01 -1.4550303929104452e+01 -3.5838629930008842e+01 6.6179292851072757e-01 2.3601025967468964e+01 3.3518519589146401e+01 
      </Row>
      <Row Index="36">
        4.3033924344804531e-01 2.8939739229153361e-01 2.8916855968963366e+00 -1.2103531524234670e+00 -9.4846156021295673e+00 -2.9894383903186334e+01 -7.2236498922896537e+00 -1.4606312250611886e-01 2.5895931490476232e-01 2.1183339992932533e+00 2.3371712857200322e-01 -9.6483653735907726e+00 2.2302225661073343e+00 2.7575838522492599e+00 4.7143356679205766e+01 1.3791903876402330e+01 -5.4419347584875766e-02 -3.0456215548100207e-01 5.1001833708093613e-01 3.8458677257857588e-01 -5.0817468928634701e+00 -2.8179263535903836e+00 1.0201255740121296e+00 1.4276696960123701e+01 4.9195923201177862e+00 -3.0264928355986109e-01 -4.5486688980640744e-01 2.0397786041322572e+00 -3.3999075562581860e-01 -9.3937447052715672e+00 -2.3808833056619738e+00 3.2302633009386454e+00 8.6106603926981098e+00 7.5866710623159577e+00 -4.9163063366099308e-01 -1.1785959460462569e-01 1.1479605994131630e+00 2.2042096705588499e-01 -1.0120261201539398e+00 2.8406167576101700e+00 3.7339360451308035e-02 -1.8366088609562180e+01 -2.0918126832484010e+00 -1.9741152410942764e-01 -4.9520923685033469e-02 -1.7773764817877664e+00 -1.3075917460529674e-01 1.2860759088685385e+00 -1.0978632057618212e+00 6.4202449430415531e-01 -1.1648023022127907e-01 8.8480887590775614e-01 -1.8151806968675666e-01 8.1564854311391835e-02 -8.3310108301484720e-01 
      </Row>
      <Row Index="37">
        4.7869944427537092e-01 1.6078975120399292e+01 -8.9311245232551162e+00 6.4683514991525763e+00 -2.2623326559408525e+01 7.0006497947750188e+02 -3.9759600973548928e+01 1.8043569224808778e+00 1.1337767232428320e+00 -9.1187876132821089e-01 -4.8091086985387847e+01 3.7875214504456736e+00 -2.0606100848381004e+01 6.2693377419657963e+01 -8.8555227187080050e+02 -6.8105274210346465e+01 2.1544174711376911e+00 7.6306315260960389e-01 1.4413378223230389e+00 2.8540836309695656e+01 2.4598076063126371e+00 2.2474491199042149e+01 -4.7353683383423352e+01 2.3157655233136791e+02 1.2419457682201579e+02 -2.2225818328159903e+00 -4.3308012922071306e+00 -6.5693451461039665e-01 -3.2928340500774979e+01 5.5188564429851823e+00 -1.5284485867089650e+01 4.1968238954980620e+01 -6.0235827630438803e+02 -4.1105156887613248e+00 -2.7005428219075274e+00 -7.8686420378603827e-01 2.2042096704975833e-01 1.9651159347105981e+01 -2.8567075482115367e+00 6.6004081589753323e+00 -2.9019223271834083e+01 4.0854850952661963e+02 -1.0099893594789103e+02 1.0887120582915344e+00 -1.2541282621334346e+00 2.7180367418533224e-01 -1.4175044828873203e+01 -8.8224163433494596e-02 4.5719032482388684e+00 8.7862789677373332e-01 -7.3341534418390282e+00 2.0906200459049728e+01 8.3676167290089953e-01 -1.9944432234910514e-01 -1.6987902919852136e+01 
      </Row>
      <Row Index="38">
        5.2639941737939893e+00 -3.5699151993659086e+00 2.1674479120535569e+01 1.3992971111662419e+01 -2.3061077723900439e+01 -5.9317930761568277e+01 1.5435180692942072e+02 -3.1567480212435726e+01 -2.5290391903700282e+00 -2.6544556488016656e+01 1.9764681574310998e+00 2.6936751615503667e+01 -6.4834549717918023e+01 2.4237219751362284e+02 -5.1795701324547122e+02 -2.7179904980560286e+02 2.8664564158037393e+00 2.7037679876761302e+00 -5.3360731586047407e+00 4.0732673907422026e+00 -9.6088113907599109e+01 -8.1819121803904636e+01 -1.8974003127605008e+02 -9.4782562255745461e+01 9.1258903589496072e+01 -5.9981419834629151e+00 -3.7589643375661748e+00 -9.3587675377541935e+00 1.5711220874683562e+01 -4.0778834727769691e+01 -4.9542277553024810e+01 -1.7607255426177562e+02 -7.2873284568633017e+02 5.9407068872590230e+01 2.0054096300883657e+00 2.2154494881883409e+00 -1.0120261201792218e+00 -2.8567075481207240e+00 1.1981031283026340e+02 -9.3065323016700887e+00 -3.4677359918391090e+01 -1.0458126744103510e+01 -1.0552009052105424e+02 -4.6987862927746633e+00 1.0196660412955634e+00 1.1172774108251893e+01 3.6550484977574880e+00 7.5959685368874418e+01 -9.9130390829314337e+01 -3.0737733585090055e+01 -3.5856934143928356e+00 2.6697865835360204e+01 -1.2533971488306570e+01 3.7291083035599115e+00 -2.9688302262599407e+01 
      </Row>
      <Row Index="39">
        4.6007861841706443e-01 8.1294080645807227e+00 -7.9045214107440742e-01 -1.9257770799951928e+00 -3.6068184830140950e+01 2.8620978448216988e+01 -7.2039261056577388e+01 2.0086555031262492e+00 3.4477122369427011e+00 9.4259153808920644e+00 -9.6551219794708345e+00 -3.6048305969434608e+01 3.7886097372935481e+00 6.9240239202856060e+00 -5.2486485385934884e+01 2.0188780292359689e+02 -6.0721012858959327e+00 -2.1009524582563373e+00 -2.2665539882495196e+00 1.6727845545716733e+01 -3.3473177298921101e+01 -5.7258017360774431e+00 1.5755033670105725e+01 1.3370014204712891e+02 -8.2710937415439503e+00 1.4656885403949644e+00 -9.6727240541749886e+00 2.0582553624627575e+00 -1.7478332423746437e+01 -5.4287721691767331e+01 -2.4260069971521830e+01 4.0358330482174608e+01 -4.1601318275406908e+02 3.4637980435720920e+01 -6.7131869023165827e+00 2.3014441899815878e+00 2.8406167576043719e+00 6.6004081588587198e+00 -9.3065323016565813e+00 3.4099738636746629e+01 3.8064587830171703e+00 4.6911091370248624e+02 1.2319811647458717e+02 8.9850622431747418e-01 -2.7934241332475711e+00 -3.4557995197134175e+00 -8.0716880195666167e+00 2.4580972905068599e+01 -4.7886129778137132e-01 6.1211813205012024e+00 -1.4014819507161903e+01 -1.9609007950549522e+01 5.3284998216816071e-01 2.4159239575650298e+00 1.0945336820252248e+01 
      </Row>
      <Row Index="40">
        -6.6626629487910805e+00 -1.2962852444747000e+01 7.4784886152852437e-01 -3.7731825909171334e+01 -1.8906691937579421e+02 1.3789432099849150e+03 3.7493978929505215e+02 5.1334586680214215e+01 -2.3187792835593086e+00 1.6265487599436653e+01 2.4027143461369360e+02 -6.2601189038675955e+01 -1.8007800556626285e+02 2.6328621663610807e+02 -1.6281079706088994e+03 -2.4285780469922247e+02 -4.2343140830177049e+01 2.5952299054588366e+01 -2.1005110214218433e+01 -1.9897015192249972e+02 1.9238762942718608e+01 1.0538616520764504e+02 7.6980017390011096e+02 1.9924922051698541e+03 2.5987108337455538e+02 4.5719546114816296e+01 -4.8149744240295618e+01 -1.1764082270448348e+01 4.8337804040435884e+01 4.6312244948600664e+01 1.7722738705223037e+02 1.1155670669685151e+02 1.6308547754965753e+02 -2.7909480529041412e+02 2.5189082478218836e+01 2.0815615292170833e+01 3.7339360478043204e-02 -2.9019223270987339e+01 -3.4677359916337615e+01 3.8064587831351098e+00 5.9793402287274000e+02 1.2452985942149019e+03 -8.1505864720018667e+02 3.7271411749389642e+00 4.0036657784931551e+00 6.1542717203230177e+00 4.6896137338395832e+01 -4.6758212016395930e+01 -5.9622955447638674e+01 1.2772356280105164e+01 -2.4242781895552810e+00 1.5240451287866097e+02 2.1546570678122308e+01 2.1714112790238470e+01 -1.1365218418217421e+02 
      </Row>
      <Row Index="41">
        -6.8839255220669656e+01 2.1743886491325920e+03 1.2255119492773460e+03 -1.4588829002379316e+03 -1.5134495983895540e+03 5.6201517264550494e+04 1.1413600861479899e+04 -1.3983889203148283e+02 6.4391132210030037e+02 -3.7847169870005928e+01 -4.0093859742385976e+03 1.6854540496471964e+02 1.5402529456385291e+03 -4.7628865740323381e+03 -1.2795517784555510e+05 -2.0785918398048962e+03 3.4801878178496918e+02 -1.3492424151819141e+03 -4.1190489738255565e-02 6.8813838402646434e+02 -4.7037149219188723e+02 2.1338917942232802e+03 6.4308481583870544e+03 9.5068017933345836e+04 -9.4451344402183895e+03 -2.6413317027006815e+02 -1.4261766311876090e+02 5.0908391712463981e+01 -2.2605671660748726e+03 9.4069877890924181e+02 -2.5194415119976475e+02 2.3627816639654338e+02 -5.3068567077895590e+04 -2.3177147053602559e+04 2.0378461365955127e+02 -4.0302656226218824e+02 -1.8366088612274325e+01 4.0854850948625153e+02 -1.0458126775913115e+01 4.6911091369646056e+02 1.2452985942610212e+03 4.2842349859360041e+05 5.1715151499150947e+04 -8.8543850519274201e+01 -3.2409047408925653e+02 3.6515401965469209e+01 -1.2416208021857828e+03 -1.2762612379337006e+03 1.4185992974169385e+03 1.6565502495693602e+02 -4.3934626977309381e+03 -1.0728450916599377e+04 -5.3235121513287766e+01 2.0895033350776683e+02 4.0542237571383121e+03 
      </Row>
      <Row Index="42">
        -2.8763416068744846e+01 1.8329185189423151e+02 2.4806520177486268e+03 -1.9081994459022535e+03 3.3216729744605254e+03 6.3273770635534609e+04 1.8745589940860868e+04 -2.7290382001956459e+02 4.8026452979393071e+01 -7.9020186148642097e+01 -7.7148768585640937e+02 -1.2617650969203096e+03 2.1685027446819004e+03 -9.8176265036119148e+03 6.2472879217514768e+04 9.6647836733495817e+04 4.4364340113435173e+02 -7.6879703190643340e+00 1.1496968150290195e+02 4.8508217862783931e+02 -8.1812333404272795e+02 1.2385696495533921e+03 5.3709517526404234e+03 -6.2785350820384920e+04 -1.4334778431701660e+05 -4.6333373540954199e+02 -1.9126548995196208e+02 8.5601930235672626e+01 1.3108787842351012e+02 -2.8370343500410672e+02 5.8530354562681168e+00 -4.8711703536016867e+03 -1.7183523120684293e+05 -2.0455915525021031e+04 1.0565645422549278e+02 1.9094886979483999e+02 -2.0918126610486070e+00 -1.0099893520376645e+02 -1.0552009002205432e+02 1.2319811688750383e+02 -8.1505864895434934e+02 5.1715151594278825e+04 2.5881397160344280e+05 -9.6655023701023310e+01 -1.0483761272261063e+02 -3.2888108209200652e+01 -1.2537036447378284e+02 -1.5040060881707468e+03 1.8856995753406081e+03 -4.3255751592006288e+02 -7.4487638262213459e+03 1.1470108053888538e+05 -1.2586618826053018e+02 3.3665242634515188e+01 -1.2597888248547137e+05 
      </Row>
      <Row Index="43">
        4.0934856410352438e-01 1.3936397527759468e+00 -1.3660447690453323e+01 3.3310102533918950e-01 2.1357241255154577e+01 -3.4598692887477753e+01 -1.6757138997248234e+01 7.0296406817708430e+00 -5.1659933347488973e-01 8.3659136960839930e-01 -1.4107251372693099e+00 4.2613159680401580e+00 -5.5604313444327644e+00 -1.0978181411986867e+01 1.9380433328379786e+02 -1.8848489235361626e+01 -6.9051214783012682e-01 2.7291337554240229e+00 -1.1543165487864968e+00 8.1157808088914152e-01 1.5643986153817622e+00 8.0533724244544942e+00 2.3524607672569118e+01 1.0933326199746034e+01 6.3251821488680378e+01 2.9567748071459619e+00 -2.2024232770199115e+00 -1.1292105085935020e+00 -2.9793317781886266e+00 3.8809053266586631e+00 3.0607447747381009e+00 1.5929332110074938e+01 -3.9347393477138283e+01 1.1796634368400817e+01 -4.8077492526615728e-01 3.0032855840413220e-01 -1.9741152410700558e-01 1.0887120583509535e+00 -4.6987862927033355e+00 8.9850622437993921e-01 3.7271411746179339e+00 -8.8543850501412095e+01 -9.6655023836206084e+01 3.3303854397314154e+00 2.7216703200789283e-01 2.3724580740463608e-01 -8.7804810444130277e-01 2.0676753612273231e+00 2.6586975747165553e+00 1.6229632642291332e+00 4.9542495756169025e+00 2.1040535554685881e+01 3.0365100258621509e+00 1.3766501104843074e-02 -1.3632702085232230e+01 
      </Row>
      <Row Index="44">
        -1.4055531689081135e-01 -1.9192899108762163e+00 -1.5009719690995951e+00 3.4623187804909747e+00 1.3388680320151849e+01 3.4934903273051404e+01 -2.0232607663551079e+00 -3.5499298610373842e-01 -1.0814649526536719e+00 -1.6812759386629139e-01 4.7456535155240545e+00 -2.4948693360817842e-01 -6.5728479093407515e+00 2.5429118731571151e+01 -3.0035426034941906e+01 -4.3810428695120777e+01 -5.7525249528097788e-02 1.6603379111156258e+00 -1.5677908077650571e-01 -3.7133561882919892e+00 -2.1821054296209752e-01 -5.7547206283876449e+00 -2.2743083922780990e+01 -9.4771644127449690e+01 5.2093604095611113e+01 5.7665788928952821e-01 -7.1378038704136060e-02 -2.4180660775577500e-01 4.0551651156930770e+00 2.6766400675954216e+00 3.8110202960409616e+00 -1.6976998550362111e+01 1.3642437525556190e+02 1.5742509291266572e+01 3.9181773080630578e-01 5.3676886996316853e-01 -4.9520923682173645e-02 -1.2541282620397283e+00 1.0196660413838670e+00 -2.7934241332084921e+00 4.0036657782514631e+00 -3.2409047407988101e+02 -1.0483761265129330e+02 2.7216703202984149e-01 1.2313847083990197e+00 2.3330638973933399e-01 2.0507109286509344e+00 -3.5416439399327260e-03 -7.4265659472129641e+00 -3.3329690206172469e+00 7.1980831318253919e+00 2.1636377218270091e+01 -7.6528358407790265e-04 3.2472054598048417e-01 -1.3335064990775393e+01 
      </Row>
      <Row Index="45">
        -2.0319602774164345e+00 -1.5168068448393157e-01 -1.1881658098933215e+01 5.1700923570053909e+00 1.4364769313777678e+01 4.8034513098916079e+01 7.6661529374891728e+00 6.6776861571518182e+00 -6.5661721924982386e-01 -8.3428303730348947e+00 -3.6610212672259479e+00 1.8563232039209474e+01 -1.4339795537112023e+01 1.9207786992339621e+01 1.4712201379820817e+02 -4.3106953538497606e+01 -1.8401031100490819e+00 2.1526988736369397e+00 -2.0261108973873463e+00 -6.7711657188708330e-01 -1.5131202440391718e+00 -5.8469527642853336e-01 4.8437598078156654e+00 3.8420653609799444e+01 1.8498006528894820e+01 -6.0744472367450264e-01 -1.8141292017379198e+00 -1.0651240598886689e+01 -3.2130249645775439e+00 4.3013227058227095e+00 9.7761869482902419e-01 -9.2397471203165367e+00 2.4512594603758295e+01 -1.4962741720717361e+01 -3.4591363825443100e-01 -1.7497633316200023e-01 -1.7773764817897519e+00 2.7180367419837914e-01 1.1172774108252044e+01 -3.4557995197103715e+00 6.1542717200900983e+00 3.6515401966881257e+01 -3.2888108223047297e+01 2.3724580740507673e-01 2.3330638973227258e-01 8.0080440732460776e+00 -6.5890853453289422e-01 1.2171079813867884e+01 -9.6699076570247442e+00 -2.5265001843819546e+00 2.0982169447130872e-01 8.0479810117497532e+00 2.2491976781353022e+00 2.3322541491930726e-01 -4.0485025036229425e+00 
      </Row>
      <Row Index="46">
        -8.5010647725431099e-01 -1.7537451762319421e+01 9.3177780264476304e+00 -3.9706376555609069e-01 -9.6648447300045035e+00 -3.5785982733195976e+02 4.2402860412342349e+01 -3.5768637303755213e+00 -2.4106899490857598e+00 2.0484241964870229e+00 5.6285187001786710e+01 -1.0789509770653668e+01 -3.0627749213157571e+00 3.8597353951560933e+00 4.9903498538938197e+02 -6.8355997389658114e+00 -4.3686674281917028e+00 3.6485344990723334e+00 -2.2456608264042721e+00 -3.1346763824768530e+01 -1.0325967928653057e-01 -1.8034014123009484e+01 4.7594115417613303e+01 -1.3112355300541475e+02 -3.1788216105150212e+01 6.4205675207536181e+00 2.5116868984370928e+00 1.2568515952810566e+00 3.4433591521308095e+01 -4.9860092822982054e+00 1.5252908054629710e+01 -1.0312747398244994e+01 4.7900967909937128e+02 3.8929137815453572e+01 3.8136079370700555e+00 1.5943405708717506e+00 -1.3075917459438013e-01 -1.4175044828707545e+01 3.6550484980225519e+00 -8.0716880196228846e+00 4.6896137338772412e+01 -1.2416208022144624e+03 -1.2537036363695179e+02 -8.7804810433692992e-01 2.0507109287495631e+00 -6.5890853450350706e-01 1.6166740548729376e+01 -1.3638400298064326e+00 -1.5129599706451742e+01 8.0490290281423515e-02 9.9747798627383304e+00 2.3791699268555803e+01 -1.1554609051222018e+00 8.6013362874458196e-02 -7.8191097448823381e+00 
      </Row>
      <Row Index="47">
        -5.3167432773492465e+00 -1.0414247614017427e+01 -1.7747040261178836e+02 8.8309457346191721e+01 5.1114917704230720e+01 -3.2412837731214076e+03 -2.5985679225873218e+02 1.1266006032474024e+01 3.7890172169912546e+00 -1.9294715137083756e+01 -1.2773597203213285e+01 1.4568596702299465e+02 -1.0960027495475219e+02 1.7865609666613454e+02 1.3493808470247623e+03 -6.0594415951177143e+02 7.9643140502670349e+00 8.0794879674893991e+00 4.7717896419887893e+00 3.3262900750107974e+01 -8.2245977438180716e+01 -1.3273781827684979e+02 -1.4245458574321196e+02 -6.7072120372260360e+02 1.0298870235262802e+03 -6.5551302447129274e+00 -1.5974714568437918e+01 -1.8339607652482897e+01 7.0572814096630623e+00 -1.5468642180315578e+02 -6.7986824642180125e+01 -1.9877007389030041e+01 -2.8531058884305189e+03 1.9683687912020650e+02 1.0281136919940366e+00 1.2226757429637246e+01 1.2860759088518705e+00 -8.8224162635697212e-02 7.5959685369823347e+01 2.4580972905917793e+01 -4.6758212024431884e+01 -1.2762612376199590e+03 -1.5040060910229204e+03 2.0676753610475203e+00 -3.5416444391351831e-03 1.2171079813859237e+01 -1.3638400316333410e+00 2.4630343854532350e+02 -1.3827586114675205e+02 -1.2128326939492680e+01 1.4779999383202210e+01 3.4502641731680444e+02 4.7243973035229345e+00 4.7144483594335105e+00 -2.2291008918691361e+02 
      </Row>
      <Row Index="48">
        2.7528882424345511e+00 1.2989378485465068e+01 3.6832565915032319e+01 -1.5559230265079486e+02 -2.9256938296278940e+02 -2.1286877091203751e+03 -5.2843338002378914e+01 1.7172662562170899e+01 6.7611246693564908e-01 1.3985893229914268e+01 -4.3157306502364008e+01 -4.7437167051969141e+01 3.2632569130133595e+02 -8.4369060030916444e+02 5.2623290717291457e+03 1.1276515004263783e+03 7.7319324298764514e+00 8.5492207664099169e+00 4.7265735651116074e+00 1.8252457108892713e+01 1.2847937686040723e+02 2.1881396542588209e+02 7.0131739794085229e+02 3.3731778039689834e+03 -1.2217699217640329e+03 -3.8849221861551086e-01 3.0976056461872474e+00 9.0152951681373850e+00 -3.8842309569763870e+01 1.0698160091672207e+02 1.1541203286107702e+01 5.2573399759923086e+02 3.5188835602434210e+02 -2.1035102297151116e+02 -5.8350852893325964e+00 -2.3652021017352354e+01 -1.0978632057463074e+00 4.5719032466826661e+00 -9.9130390830974790e+01 -4.7886129870983751e-01 -5.9622955438980853e+01 1.4185992971324706e+03 1.8856995766178052e+03 2.6586975746625399e+00 -7.4265659468506859e+00 -9.6699076571857177e+00 -1.5129599704187061e+01 -1.3827586115149586e+02 3.2133664036195410e+02 1.1011379591776735e+02 -7.4933646706151421e+01 -4.0304895626177114e+02 7.5054682974887754e+00 -2.1014670731388776e+01 2.8427336973334457e+02 
      </Row>
      <Row Index="49">
        2.5030204318935034e-01 2.3800388427298458e-01 -2.7552887219894728e-01 -1.6504889354566160e+01 -3.9082914055742174e+02 -3.0184282143467726e+02 -7.2274561994517285e+01 1.9384523126757131e+01 5.7645349846538352e-02 1.0851392166721539e+01 1.4428347064674199e+01 3.0114380019706743e+00 1.6163590988100179e+02 -7.2057818456854147e+02 2.1779189515071193e+03 -7.4370290962131094e+01 -4.9462205738746547e+00 -3.7550084447070162e+00 -5.0776742808154580e+00 -1.1795530374781151e+01 8.5596744100051865e+00 3.1393845918753186e+01 7.9182650805639639e+02 -4.8785347382680629e+02 2.8946633930677444e+02 1.0280662316301289e+01 2.2503774010508216e+01 -1.1341994148617829e+00 -1.6423433518458239e+00 -8.2639744191596378e+00 -8.3566695109392299e+01 6.1674163571147483e+02 8.0650062309992904e+01 5.8257469617303514e+01 1.0491517890075528e+00 -2.7586040961183755e+01 6.4202449431331843e-01 8.7862789701239308e-01 -3.0737733584780941e+01 6.1211813208834718e+00 1.2772356278407358e+01 1.6565502506394500e+02 -4.3255751735310764e+02 1.6229632641748850e+00 -3.3329690207820275e+00 -2.5265001844077801e+00 8.0490289737349840e-02 -1.2128326939369401e+01 1.1011379591896224e+02 1.1831243048632324e+02 2.2578484388553534e+01 1.0005252940341862e+02 7.5385572869859736e+00 -2.0741370109548075e+01 -7.7277562354783996e+01 
      </Row>
      <Row Index="50">
        7.8549485014573293e+00 -1.1169656885377663e+01 -6.1731015901228602e+01 9.4785474393588629e+01 -7.5147347472777255e+01 -1.1545490018528144e+03 -7.1904337729962936e+02 1.4336136079393327e+01 -1.2751704902830852e+01 1.2927259394707562e+00 5.3602510320517467e+01 6.2206983131158722e+01 -4.4519462340385871e+01 1.3990351705399371e+02 1.1516528703420481e+03 -3.3152803559555468e+03 -8.3967387954617152e+00 -1.4152654552544846e+00 -4.2683968630533400e+00 -4.2139709432911332e+01 -1.2128478814032860e+01 -1.0622104574728473e+02 -1.3933496025098339e+02 -4.9629181177688733e+03 5.0000578299946210e+03 -2.5530870497186697e+00 3.5370641126192652e+01 -3.7486858448382918e+00 -1.3846737498699895e+00 4.5297818251017816e+01 -1.0865564535344220e+01 1.3712253437018080e+02 8.6370521193405693e+03 9.5376940771792579e+02 -1.1767190587496998e+01 -1.4550303932284805e+01 -1.1648023012890008e-01 -7.3341534366657015e+00 -3.5856934093468311e+00 -1.4014819502650681e+01 -2.4242782163089487e+00 -4.3934626964220279e+03 -7.4487638358900949e+03 4.9542495755965774e+00 7.1980831301680475e+00 2.0982169464207345e-01 9.9747798543639163e+00 1.4779999396112999e+01 -7.4933646702505939e+01 2.2578484392040863e+01 4.2537933854056882e+02 1.4810361177995376e+03 5.5539034430346419e+00 -7.4917949884530683e+00 -1.0656512483387155e+03 
      </Row>
      <Row Index="51">
        3.9879623837769032e+00 -3.6450392744271085e+01 -5.3254636208270676e+02 3.9879707441106439e+02 -7.5818911064881831e+02 -1.2042645137960091e+04 -4.2077443801946938e+03 6.6342017367947847e+01 -9.8569112960831262e+00 1.2015598942292854e+01 1.4224546899273992e+02 2.8241249955783132e+02 -4.6870552403572947e+02 1.8382671033879742e+03 -1.1139567200198770e+04 -2.1644339002981782e+04 -8.1769012641161680e+01 9.3943526593502611e+00 -1.7478729805443436e+01 -8.6526644674828276e+01 1.4858252567192540e+02 -2.5034911801666021e+02 -7.3730628067906946e+02 9.8029461420178413e+03 3.2120674332825467e+04 7.9130176760023460e+01 3.1997944405709859e+01 -2.0390238340594806e+01 -2.5018051731167361e+01 2.9013364521786571e+01 -1.0735868952469900e+01 1.0811661114804447e+03 3.2134737764899619e+04 4.5773541228100657e+03 -1.9792723144171759e+01 -3.5838632169179618e+01 8.8480895035900176e-01 2.0906203174730763e+01 2.6697867825161666e+01 -1.9609006289483659e+01 1.5240450509230141e+02 -1.0728450507642236e+04 1.1470107958903177e+05 2.1040535955224186e+01 2.1636376845797713e+01 8.0479810695396736e+00 2.3791695972191519e+01 3.4502642705873586e+02 -4.0304895970318466e+02 1.0005253403143979e+02 1.4810361466417089e+03 4.8250012175244739e+05 2.8960775554078282e+01 -7.0554641074030613e+00 -4.8019591174926708e+05 
      </Row>
      <Row Index="52">
        -5.8503984761315309e-01 1.2642760967348750e+00 -2.2471552312572868e+01 1.5339723232478661e+00 1.6184715630104165e+01 -1.7166128860788109e+02 -3.4682206039124111e+01 2.0982675060515732e+01 5.2533143209548072e-01 -2.2733864271661020e-01 -8.1170657636073429e-01 1.6006542959868426e+01 -5.3572369499629602e+00 -3.9801674071050030e+01 3.0968064795208250e+02 -1.6178551984683281e+01 -3.3651718609408334e+00 1.6831313894094819e+00 -4.8571991889024702e-01 -3.6618843141597495e+00 1.0825901102870844e+01 1.4958741867801166e+01 8.5126121197122416e+01 -3.0801898639260230e+01 6.6235025514401855e+01 2.9015554773991425e+00 -2.5347362891109517e+00 -4.7867769203184558e+00 -6.8684754544730318e+00 4.0342431076308856e+00 1.0153201958491103e+01 5.2899059953156780e+01 -7.6390679209095708e+01 -5.1760570017890473e+00 6.9617634556467323e-01 6.6179292845518489e-01 -1.8151806968265305e-01 8.3676167297130988e-01 -1.2533971488183639e+01 5.3284998224835856e-01 2.1546570677774927e+01 -5.3235121493714942e+01 -1.2586618840703863e+02 3.0365100258664555e+00 -7.6528360670996554e-04 2.2491976781368717e+00 -1.1554609052400244e+00 4.7243973038606555e+00 7.5054682974422064e+00 7.5385572870669479e+00 5.5539034433579388e+00 2.8960775150330115e+01 7.5604531914625230e+00 1.5202235404829237e-01 -1.6933178828983767e+01 
      </Row>
      <Row Index="53">
        -1.8724547162129568e-02 1.2608625164998131e+00 -2.7747313292402644e+00 -1.4411718673032610e+00 3.5317529932660719e+01 5.2413771742118320e+02 2.3818147668074921e+01 7.5516980263591194e-01 7.6176199965513138e+00 -9.9726890407590307e-01 5.8691607229413876e+00 1.4486144545192658e+00 -4.3956032028890633e+01 1.9415761028535030e+02 -9.6075876851447572e+02 -1.0142504020560153e+01 -1.2487500535120049e+00 -1.9171110191545434e+01 -1.3425717907265522e-01 -2.5709924768764871e+00 1.2921895981835902e+00 -1.4782854595219760e+01 -1.2611743912715463e+02 -3.6568795418529112e+02 -3.4831228586886525e+01 2.5319120605503755e+00 -1.8977925603744030e+01 3.0094095845072211e-01 -3.5163709541725465e+00 -3.4123777790932621e+00 4.1838178391087311e+01 -6.7201103936074702e+01 -1.9737583440753536e+02 -1.3755014606363957e+01 -4.4715293105403120e-01 2.3601025967472310e+01 8.1564854310474111e-02 -1.9944432234932208e-01 3.7291083036283723e+00 2.4159239575158931e+00 2.1714112790348889e+01 2.0895033348397828e+02 3.3665242803251495e+01 1.3766501120292318e-02 3.2472054601327838e-01 2.3322541493624804e-01 8.6013362946192218e-02 4.7144483597418585e+00 -2.1014670731884685e+01 -2.0741370109557952e+01 -7.4917949873410237e+00 -7.0554635015502161e+00 1.5202235406454800e-01 1.8147452073151861e+01 4.9456878320333582e+00 
      </Row>
      <Row Index="54">
        -5.1205466431565583e+00 7.5291704025585204e+00 3.4585317095532082e+02 -2.7142281181039289e+02 6.2154609362594783e+02 7.8593215877246112e+03 3.0785462270071730e+03 -3.8444982519838959e+01 3.0812014266266488e+00 -9.1512731825932860e+00 -7.3765765380114317e+01 -1.8419543883344159e+02 3.1959315972030163e+02 -1.2923005438530818e+03 9.2500762307308614e+03 1.6615414217736572e+04 5.7776810082606971e+01 4.9187212618999183e+00 1.3945186185184866e+01 6.0193240900291130e+01 -9.0017075772397220e+01 1.6778277464304119e+02 4.3417604141775519e+02 -7.4123671097196639e+03 -2.4517498128624633e+04 -5.3139714328106493e+01 -2.6212556130019948e+01 1.0653371751541272e+01 3.3429506717831828e+01 -3.5381902678869665e+01 1.8469623286277056e+01 -8.0229961709678173e+02 -2.3629764033504762e+04 -3.3246257560756058e+03 1.3878332770604175e+01 3.3518521823920310e+01 -8.3310115733183920e-01 -1.6987905627582222e+01 -2.9688304244540632e+01 1.0945335165917641e+01 -1.1365217643650249e+02 4.0542233501472510e+03 -1.2597888155014813e+05 -1.3632702485891059e+01 -1.3335064620783669e+01 -4.0485025611415040e+00 -7.8191064611892216e+00 -2.2291009890823625e+02 2.8427337317960337e+02 -7.7277566976950766e+01 -1.0656512771765701e+03 -4.8019591179217154e+05 -1.6933179233164992e+01 4.9456884361043487e+00 4.7855283102989144e+05 
      </Row>
    </InverseHessian>
  </Weights>
</MethodSetup>
