<?xml version="1.0"?>
<MethodSetup Method="BDT::BDT2">
  <GeneralInfo>
    <Info name="TMVA Release" value="4.1.4 [262404]"/>
    <Info name="ROOT Release" value="5.34/05 [336389]"/>
    <Info name="Creator" value="clester"/>
    <Info name="Date" value="Wed Mar 19 15:31:23 2014"/>
    <Info name="Host" value="Darwin pb-d-128-141-154-76.cern.ch 12.2.1 Darwin Kernel Version 12.2.1: Thu Oct 18 16:32:48 PDT 2012; root:xnu-2050.20.9~2/RELEASE_X86_64 x86_64"/>
    <Info name="Dir" value="/Users/clester/LAST"/>
    <Info name="Training events" value="1092"/>
    <Info name="TrainingTime" value="3.37045908e+00"/>
    <Info name="AnalysisType" value="Regression"/>
  </GeneralInfo>
  <Options>
    <Option name="V" modified="Yes">False</Option>
    <Option name="VerbosityLevel" modified="No">Default</Option>
    <Option name="VarTransform" modified="No">None</Option>
    <Option name="H" modified="Yes">False</Option>
    <Option name="CreateMVAPdfs" modified="No">False</Option>
    <Option name="IgnoreNegWeightsInTraining" modified="No">False</Option>
    <Option name="NTrees" modified="Yes">1000</Option>
    <Option name="RenormByClass" modified="No">False</Option>
    <Option name="BoostType" modified="Yes">AdaBoost</Option>
    <Option name="AdaBoostR2Loss" modified="No">quadratic</Option>
    <Option name="UseBaggedGrad" modified="No">False</Option>
    <Option name="GradBaggingFraction" modified="No">6.000000e-01</Option>
    <Option name="Shrinkage" modified="No">1.000000e+00</Option>
    <Option name="AdaBoostBeta" modified="Yes">3.000000e-01</Option>
    <Option name="UseRandomisedTrees" modified="No">False</Option>
    <Option name="UseNvars" modified="No">2</Option>
    <Option name="UsePoissonNvars" modified="No">True</Option>
    <Option name="UseNTrainEvents" modified="No">1092</Option>
    <Option name="UseWeightedTrees" modified="No">True</Option>
    <Option name="UseYesNoLeaf" modified="No">False</Option>
    <Option name="NodePurityLimit" modified="No">5.000000e-01</Option>
    <Option name="SeparationType" modified="No">regressionvariance</Option>
    <Option name="nEventsMin" modified="Yes">50</Option>
    <Option name="nCuts" modified="Yes">30</Option>
    <Option name="UseFisherCuts" modified="No">False</Option>
    <Option name="MinLinCorrForFisher" modified="No">8.000000e-01</Option>
    <Option name="UseExclusiveVars" modified="No">False</Option>
    <Option name="PruneStrength" modified="No">0.000000e+00</Option>
    <Option name="PruneMethod" modified="No">nopruning</Option>
    <Option name="PruneBeforeBoost" modified="No">False</Option>
    <Option name="PruningValFraction" modified="No">5.000000e-01</Option>
    <Option name="NNodesMax" modified="No">100000</Option>
    <Option name="MaxDepth" modified="Yes">2</Option>
    <Option name="DoBoostMonitor" modified="No">False</Option>
    <Option name="NegWeightTreatment" modified="No">inverseboostnegweights</Option>
  </Options>
  <Variables NVar="2">
    <Variable VarIndex="0" Expression="seed_prob" Label="seed_prob" Title="seed_prob" Unit="" Internal="seed_prob" Type="F" Min="0.00000000e+00" Max="1.00000000e+00"/>
    <Variable VarIndex="1" Expression="game_prob" Label="game_prob" Title="game_prob" Unit="" Internal="game_prob" Type="F" Min="2.16084331e-01" Max="8.69525313e-01"/>
  </Variables>
  <Spectators NSpec="1">
    <Spectator SpecIndex="0" Expression="season" Label="season" Title="season" Unit="" Internal="season" Type="F" Min="6.50000000e+01" Max="8.20000000e+01"/>
  </Spectators>
  <Classes NClass="1">
    <Class Name="Regression" Index="0"/>
  </Classes>
  <Targets NTrgt="1">
    <Target TargetIndex="0" Expression="game_outcome" Label="game_outcome" Title="game_outcome" Unit="" Internal="game_outcome" Type="F" Min="0.00000000e+00" Max="1.00000000e+00"/>
  </Targets>
  <Transformations NTransformations="0"/>
  <MVAPdfs/>
  <Weights NTrees="1000" AnalysisType="1">
    <BinaryTree type="DecisionTree" boostWeight="3.9106951625892195e-01" itree="0">
      <Node pos="s" depth="0" NCoef="0" IVar="0" Cut="6.4516127109527588e-01" cType="0" res="4.9816849827766418e-01" rms="4.9999663233757019e-01" purity="1.0000000000000000e+00" nType="0">
        <Node pos="l" depth="1" NCoef="0" IVar="0" Cut="8.5199242830276489e-01" cType="0" res="8.2461535930633545e-01" rms="3.8029575347900391e-01" purity="1.0000000000000000e+00" nType="0">
          <Node pos="l" depth="2" NCoef="0" IVar="-1" Cut="0.0000000000000000e+00" cType="1" res="9.3430656194686890e-01" rms="2.4774543941020966e-01" purity="1.0000000000000000e+00" nType="-99"/>
          <Node pos="r" depth="2" NCoef="0" IVar="-1" Cut="0.0000000000000000e+00" cType="1" res="7.4468082189559937e-01" rms="4.3604046106338501e-01" purity="1.0000000000000000e+00" nType="-99"/>
        </Node>
        <Node pos="r" depth="1" NCoef="0" IVar="0" Cut="2.6559138298034668e-01" cType="0" res="3.5984355211257935e-01" rms="4.7995433211326599e-01" purity="1.0000000000000000e+00" nType="0">
          <Node pos="l" depth="2" NCoef="0" IVar="-1" Cut="0.0000000000000000e+00" cType="1" res="4.5588234066963196e-01" rms="4.9804982542991638e-01" purity="1.0000000000000000e+00" nType="-99"/>
          <Node pos="r" depth="2" NCoef="0" IVar="-1" Cut="0.0000000000000000e+00" cType="1" res="1.2556053698062897e-01" rms="3.3135342597961426e-01" purity="1.0000000000000000e+00" nType="-99"/>
        </Node>
      </Node>
    </BinaryTree>
    <BinaryTree type="DecisionTree" boostWeight="3.2719501126472594e-01" itree="1">
      <Node pos="s" depth="0" NCoef="0" IVar="0" Cut="6.4516127109527588e-01" cType="0" res="4.9865400791168213e-01" rms="4.9999818205833435e-01" purity="1.0000000000000000e+00" nType="0">
        <Node pos="l" depth="1" NCoef="0" IVar="1" Cut="5.8148699998855591e-01" cType="0" res="7.8465837240219116e-01" rms="4.1105911135673523e-01" purity="1.0000000000000000e+00" nType="0">
          <Node pos="l" depth="2" NCoef="0" IVar="-1" Cut="0.0000000000000000e+00" cType="1" res="8.9505690336227417e-01" rms="3.0648005008697510e-01" purity="1.0000000000000000e+00" nType="-99"/>
          <Node pos="r" depth="2" NCoef="0" IVar="-1" Cut="0.0000000000000000e+00" cType="1" res="6.8645173311233521e-01" rms="4.6393507719039917e-01" purity="1.0000000000000000e+00" nType="-99"/>
        </Node>
        <Node pos="r" depth="1" NCoef="0" IVar="0" Cut="2.6559138298034668e-01" cType="0" res="3.8425296545028687e-01" rms="4.8641815781593323e-01" purity="1.0000000000000000e+00" nType="0">
          <Node pos="l" depth="2" NCoef="0" IVar="-1" Cut="0.0000000000000000e+00" cType="1" res="4.6505746245384216e-01" rms="4.9877753853797913e-01" purity="1.0000000000000000e+00" nType="-99"/>
          <Node pos="r" depth="2" NCoef="0" IVar="-1" Cut="0.0000000000000000e+00" cType="1" res="1.6419516503810883e-01" rms="3.7045258283615112e-01" purity="1.0000000000000000e+00" nType="-99"/>
        </Node>
      </Node>
    </BinaryTree>
    <BinaryTree type="DecisionTree" boostWeight="3.1869900944705698e-01" itree="2">
      <Node pos="s" depth="0" NCoef="0" IVar="0" Cut="6.4516127109527588e-01" cType="0" res="4.9899247288703918e-01" rms="4.9999898672103882e-01" purity="1.0000000000000000e+00" nType="0">
        <Node pos="l" depth="1" NCoef="0" IVar="0" Cut="8.5199242830276489e-01" cType="0" res="7.4997174739837646e-01" rms="4.3302902579307556e-01" purity="1.0000000000000000e+00" nType="0">
          <Node pos="l" depth="2" NCoef="0" IVar="-1" Cut="0.0000000000000000e+00" cType="1" res="8.8817203044891357e-01" rms="3.1515464186668396e-01" purity="1.0000000000000000e+00" nType="-99"/>
          <Node pos="r" depth="2" NCoef="0" IVar="-1" Cut="0.0000000000000000e+00" cType="1" res="6.6515392065048218e-01" rms="4.7193664312362671e-01" purity="1.0000000000000000e+00" nType="-99"/>
        </Node>
        <Node pos="r" depth="1" NCoef="0" IVar="0" Cut="1.4301075041294098e-01" cType="0" res="4.0274870395660400e-01" rms="4.9045100808143616e-01" purity="1.0000000000000000e+00" nType="0">
          <Node pos="l" depth="2" NCoef="0" IVar="-1" Cut="0.0000000000000000e+00" cType="1" res="4.5219776034355164e-01" rms="4.9770969152450562e-01" purity="1.0000000000000000e+00" nType="-99"/>
          <Node pos="r" depth="2" NCoef="0" IVar="-1" Cut="0.0000000000000000e+00" cType="1" res="9.2573158442974091e-02" rms="2.8983333706855774e-01" purity="1.0000000000000000e+00" nType="-99"/>
        </Node>
      </Node>
    </BinaryTree>
    <BinaryTree type="DecisionTree" boostWeight="2.5642450537120709e-01" itree="3">
      <Node pos="s" depth="0" NCoef="0" IVar="1" Cut="4.9010798335075378e-01" cType="0" res="4.9915713071823120e-01" rms="4.9999928474426270e-01" purity="1.0000000000000000e+00" nType="0">
        <Node pos="l" depth="1" NCoef="0" IVar="0" Cut="8.5294115543365479e-01" cType="0" res="6.2278324365615845e-01" rms="4.8468986153602600e-01" purity="1.0000000000000000e+00" nType="0">
          <Node pos="l" depth="2" NCoef="0" IVar="-1" Cut="0.0000000000000000e+00" cType="1" res="8.5605078935623169e-01" rms="3.5103824734687805e-01" purity="1.0000000000000000e+00" nType="-99"/>
          <Node pos="r" depth="2" NCoef="0" IVar="-1" Cut="0.0000000000000000e+00" cType="1" res="5.7373678684234619e-01" rms="4.9453300237655640e-01" purity="1.0000000000000000e+00" nType="-99"/>
        </Node>
        <Node pos="r" depth="1" NCoef="0" IVar="0" Cut="2.3908917605876923e-01" cType="0" res="3.4563252329826355e-01" rms="4.7557404637336731e-01" purity="1.0000000000000000e+00" nType="0">
          <Node pos="l" depth="2" NCoef="0" IVar="-1" Cut="0.0000000000000000e+00" cType="1" res="4.2392203211784363e-01" rms="4.9417823553085327e-01" purity="1.0000000000000000e+00" nType="-99"/>
          <Node pos="r" depth="2" NCoef="0" IVar="-1" Cut="0.0000000000000000e+00" cType="1" res="1.7439250648021698e-01" rms="3.7944665551185608e-01" purity="1.0000000000000000e+00" nType="-99"/>
        </Node>
      </Node>
    </BinaryTree>
    <BinaryTree type="DecisionTree" boostWeight="2.5175333492203561e-01" itree="4">
      <Node pos="s" depth="0" NCoef="0" IVar="0" Cut="5.8064514398574829e-01" cType="0" res="4.9925169348716736e-01" rms="4.9999943375587463e-01" purity="1.0000000000000000e+00" nType="0">
        <Node pos="l" depth="1" NCoef="0" IVar="1" Cut="5.8148699998855591e-01" cType="0" res="6.7331898212432861e-01" rms="4.6899950504302979e-01" purity="1.0000000000000000e+00" nType="0">
          <Node pos="l" depth="2" NCoef="0" IVar="-1" Cut="0.0000000000000000e+00" cType="1" res="8.1380128860473633e-01" rms="3.8926693797111511e-01" purity="1.0000000000000000e+00" nType="-99"/>
          <Node pos="r" depth="2" NCoef="0" IVar="-1" Cut="0.0000000000000000e+00" cType="1" res="5.9016525745391846e-01" rms="4.9180305004119873e-01" purity="1.0000000000000000e+00" nType="-99"/>
        </Node>
        <Node pos="r" depth="1" NCoef="0" IVar="0" Cut="1.4984390139579773e-01" cType="0" res="4.1315865516662598e-01" rms="4.9240082502365112e-01" purity="1.0000000000000000e+00" nType="0">
          <Node pos="l" depth="2" NCoef="0" IVar="-1" Cut="0.0000000000000000e+00" cType="1" res="4.5385447144508362e-01" rms="4.9786603450775146e-01" purity="1.0000000000000000e+00" nType="-99"/>
          <Node pos="r" depth="2" NCoef="0" IVar="-1" Cut="0.0000000000000000e+00" cType="1" res="1.3896284997463226e-01" rms="3.4590777754783630e-01" purity="1.0000000000000000e+00" nType="-99"/>
        </Node>
      </Node>
    </BinaryTree>
    <BinaryTree type="DecisionTree" boostWeight="2.2513770678680081e-01" itree="5">
      <Node pos="s" depth="0" NCoef="0" IVar="1" Cut="4.9010798335075378e-01" cType="0" res="4.9934467673301697e-01" rms="4.9999958276748657e-01" purity="1.0000000000000000e+00" nType="0">
        <Node pos="l" depth="1" NCoef="0" IVar="0" Cut="8.5294115543365479e-01" cType="0" res="5.9746855497360229e-01" rms="4.9040788412094116e-01" purity="1.0000000000000000e+00" nType="0">
          <Node pos="l" depth="2" NCoef="0" IVar="-1" Cut="0.0000000000000000e+00" cType="1" res="8.0921870470046997e-01" rms="3.9291703701019287e-01" purity="1.0000000000000000e+00" nType="-99"/>
          <Node pos="r" depth="2" NCoef="0" IVar="-1" Cut="0.0000000000000000e+00" cType="1" res="5.5781567096710205e-01" rms="4.9664610624313354e-01" purity="1.0000000000000000e+00" nType="-99"/>
        </Node>
        <Node pos="r" depth="1" NCoef="0" IVar="0" Cut="1.4943073689937592e-01" cType="0" res="3.7657937407493591e-01" rms="4.8452797532081604e-01" purity="1.0000000000000000e+00" nType="0">
          <Node pos="l" depth="2" NCoef="0" IVar="-1" Cut="0.0000000000000000e+00" cType="1" res="4.2220911383628845e-01" rms="4.9391150474548340e-01" purity="1.0000000000000000e+00" nType="-99"/>
          <Node pos="r" depth="2" NCoef="0" IVar="-1" Cut="0.0000000000000000e+00" cType="1" res="1.5536928176879883e-01" rms="3.6225634813308716e-01" purity="1.0000000000000000e+00" nType="-99"/>
        </Node>
      </Node>
    </BinaryTree>
    <BinaryTree type="DecisionTree" boostWeight="1.8002486684082405e-01" itree="6">
      <Node pos="s" depth="0" NCoef="0" IVar="0" Cut="6.4516127109527588e-01" cType="0" res="4.9940532445907593e-01" rms="4.9999964237213135e-01" purity="1.0000000000000000e+00" nType="0">
        <Node pos="l" depth="1" NCoef="0" IVar="1" Cut="5.8148699998855591e-01" cType="0" res="6.6512888669967651e-01" rms="4.7194540500640869e-01" purity="1.0000000000000000e+00" nType="0">
          <Node pos="l" depth="2" NCoef="0" IVar="-1" Cut="0.0000000000000000e+00" cType="1" res="7.8209072351455688e-01" rms="4.1282543540000916e-01" purity="1.0000000000000000e+00" nType="-99"/>
          <Node pos="r" depth="2" NCoef="0" IVar="-1" Cut="0.0000000000000000e+00" cType="1" res="5.8560317754745483e-01" rms="4.9261760711669922e-01" purity="1.0000000000000000e+00" nType="-99"/>
        </Node>
        <Node pos="r" depth="1" NCoef="0" IVar="0" Cut="1.4301075041294098e-01" cType="0" res="4.4051718711853027e-01" rms="4.9644917249679565e-01" purity="1.0000000000000000e+00" nType="0">
          <Node pos="l" depth="2" NCoef="0" IVar="-1" Cut="0.0000000000000000e+00" cType="1" res="4.7005182504653931e-01" rms="4.9910229444503784e-01" purity="1.0000000000000000e+00" nType="-99"/>
          <Node pos="r" depth="2" NCoef="0" IVar="-1" Cut="0.0000000000000000e+00" cType="1" res="1.9021771848201752e-01" rms="3.9247286319732666e-01" purity="1.0000000000000000e+00" nType="-99"/>
        </Node>
      </Node>
    </BinaryTree>
    <BinaryTree type="DecisionTree" boostWeight="1.4943705731784837e-01" itree="7">
      <Node pos="s" depth="0" NCoef="0" IVar="0" Cut="3.5483869910240173e-01" cType="0" res="4.9947100877761841e-01" rms="4.9999973177909851e-01" purity="1.0000000000000000e+00" nType="0">
        <Node pos="l" depth="1" NCoef="0" IVar="1" Cut="6.5038448572158813e-01" cType="0" res="5.5062937736511230e-01" rms="4.9743005633354187e-01" purity="1.0000000000000000e+00" nType="0">
          <Node pos="l" depth="2" NCoef="0" IVar="-1" Cut="0.0000000000000000e+00" cType="1" res="7.7350932359695435e-01" rms="4.1856017708778381e-01" purity="1.0000000000000000e+00" nType="-99"/>
          <Node pos="r" depth="2" NCoef="0" IVar="-1" Cut="0.0000000000000000e+00" cType="1" res="5.1809489727020264e-01" rms="4.9967247247695923e-01" purity="1.0000000000000000e+00" nType="-99"/>
        </Node>
        <Node pos="r" depth="1" NCoef="0" IVar="0" Cut="1.4800758659839630e-01" cType="0" res="3.3796933293342590e-01" rms="4.7301805019378662e-01" purity="1.0000000000000000e+00" nType="0">
          <Node pos="l" depth="2" NCoef="0" IVar="-1" Cut="0.0000000000000000e+00" cType="1" res="3.9519807696342468e-01" rms="4.8889318108558655e-01" purity="1.0000000000000000e+00" nType="-99"/>
          <Node pos="r" depth="2" NCoef="0" IVar="-1" Cut="0.0000000000000000e+00" cType="1" res="2.1234312653541565e-01" rms="4.0896642208099365e-01" purity="1.0000000000000000e+00" nType="-99"/>
        </Node>
      </Node>
    </BinaryTree>
    <BinaryTree type="DecisionTree" boostWeight="1.0951911790450011e-01" itree="8">
      <Node pos="s" depth="0" NCoef="0" IVar="1" Cut="4.9010798335075378e-01" cType="0" res="4.9951851367950439e-01" rms="4.9999976158142090e-01" purity="1.0000000000000000e+00" nType="0">
        <Node pos="l" depth="1" NCoef="0" IVar="0" Cut="8.5294115543365479e-01" cType="0" res="5.7585579156875610e-01" rms="4.9421238899230957e-01" purity="1.0000000000000000e+00" nType="0">
          <Node pos="l" depth="2" NCoef="0" IVar="-1" Cut="0.0000000000000000e+00" cType="1" res="7.6003891229629517e-01" rms="4.2705944180488586e-01" purity="1.0000000000000000e+00" nType="-99"/>
          <Node pos="r" depth="2" NCoef="0" IVar="-1" Cut="0.0000000000000000e+00" cType="1" res="5.4449462890625000e-01" rms="4.9801629781723022e-01" purity="1.0000000000000000e+00" nType="-99"/>
        </Node>
        <Node pos="r" depth="1" NCoef="0" IVar="0" Cut="2.3908917605876923e-01" cType="0" res="4.0351298451423645e-01" rms="4.9060192704200745e-01" purity="1.0000000000000000e+00" nType="0">
          <Node pos="l" depth="2" NCoef="0" IVar="-1" Cut="0.0000000000000000e+00" cType="1" res="4.5229157805442810e-01" rms="4.9771869182586670e-01" purity="1.0000000000000000e+00" nType="-99"/>
          <Node pos="r" depth="2" NCoef="0" IVar="-1" Cut="0.0000000000000000e+00" cType="1" res="2.7547025680541992e-01" rms="4.4675093889236450e-01" purity="1.0000000000000000e+00" nType="-99"/>
        </Node>
      </Node>
    </BinaryTree>
    <BinaryTree type="DecisionTree" boostWeight="1.0398335365465988e-01" itree="9">
      <Node pos="s" depth="0" NCoef="0" IVar="0" Cut="6.4516127109527588e-01" cType="0" res="4.9955204129219055e-01" rms="4.9999979138374329e-01" purity="1.0000000000000000e+00" nType="0">
        <Node pos="l" depth="1" NCoef="0" IVar="1" Cut="5.8148699998855591e-01" cType="0" res="6.3555669784545898e-01" rms="4.8127371072769165e-01" purity="1.0000000000000000e+00" nType="0">
          <Node pos="l" depth="2" NCoef="0" IVar="-1" Cut="0.0000000000000000e+00" cType="1" res="7.3845976591110229e-01" rms="4.3947347998619080e-01" purity="1.0000000000000000e+00" nType="-99"/>
          <Node pos="r" depth="2" NCoef="0" IVar="-1" Cut="0.0000000000000000e+00" cType="1" res="5.6987029314041138e-01" rms="4.9509406089782715e-01" purity="1.0000000000000000e+00" nType="-99"/>
        </Node>
        <Node pos="r" depth="1" NCoef="0" IVar="0" Cut="1.4301075041294098e-01" cType="0" res="4.5211067795753479e-01" rms="4.9770131707191467e-01" purity="1.0000000000000000e+00" nType="0">
          <Node pos="l" depth="2" NCoef="0" IVar="-1" Cut="0.0000000000000000e+00" cType="1" res="4.7493907809257507e-01" rms="4.9937155842781067e-01" purity="1.0000000000000000e+00" nType="-99"/>
          <Node pos="r" depth="2" NCoef="0" IVar="-1" Cut="0.0000000000000000e+00" cType="1" res="2.4160236120223999e-01" rms="4.2805451154708862e-01" purity="1.0000000000000000e+00" nType="-99"/>
        </Node>
      </Node>
    </BinaryTree>
    <BinaryTree type="DecisionTree" boostWeight="5.5045492585189947e-02" itree="10">
      <Node pos="s" depth="0" NCoef="0" IVar="1" Cut="4.9010798335075378e-01" cType="0" res="4.9958288669586182e-01" rms="4.9999982118606567e-01" purity="1.0000000000000000e+00" nType="0">
        <Node pos="l" depth="1" NCoef="0" IVar="1" Cut="6.4975613355636597e-01" cType="0" res="5.6797045469284058e-01" rms="4.9535846710205078e-01" purity="1.0000000000000000e+00" nType="0">
          <Node pos="l" depth="2" NCoef="0" IVar="-1" Cut="0.0000000000000000e+00" cType="1" res="7.2541862726211548e-01" rms="4.4630306959152222e-01" purity="1.0000000000000000e+00" nType="-99"/>
          <Node pos="r" depth="2" NCoef="0" IVar="-1" Cut="0.0000000000000000e+00" cType="1" res="5.3573232889175415e-01" rms="4.9872156977653503e-01" purity="1.0000000000000000e+00" nType="-99"/>
        </Node>
        <Node pos="r" depth="1" NCoef="0" IVar="0" Cut="2.3908917605876923e-01" cType="0" res="4.1347530484199524e-01" rms="4.9245658516883850e-01" purity="1.0000000000000000e+00" nType="0">
          <Node pos="l" depth="2" NCoef="0" IVar="-1" Cut="0.0000000000000000e+00" cType="1" res="4.5683771371841431e-01" rms="4.9813354015350342e-01" purity="1.0000000000000000e+00" nType="-99"/>
          <Node pos="r" depth="2" NCoef="0" IVar="-1" Cut="0.0000000000000000e+00" cType="1" res="2.9690676927566528e-01" rms="4.5689511299133301e-01" purity="1.0000000000000000e+00" nType="-99"/>
        </Node>
      </Node>
    </BinaryTree>
    <BinaryTree type="DecisionTree" boostWeight="8.8522653039271246e-02" itree="11">
      <Node pos="s" depth="0" NCoef="0" IVar="1" Cut="4.9010798335075378e-01" cType="0" res="4.9959829449653625e-01" rms="4.9999985098838806e-01" purity="1.0000000000000000e+00" nType="0">
        <Node pos="l" depth="1" NCoef="0" IVar="1" Cut="6.4975613355636597e-01" cType="0" res="5.6549179553985596e-01" rms="4.9569225311279297e-01" purity="1.0000000000000000e+00" nType="0">
          <Node pos="l" depth="2" NCoef="0" IVar="-1" Cut="0.0000000000000000e+00" cType="1" res="7.1855217218399048e-01" rms="4.4970539212226868e-01" purity="1.0000000000000000e+00" nType="-99"/>
          <Node pos="r" depth="2" NCoef="0" IVar="-1" Cut="0.0000000000000000e+00" cType="1" res="5.3438329696655273e-01" rms="4.9881640076637268e-01" purity="1.0000000000000000e+00" nType="-99"/>
        </Node>
        <Node pos="r" depth="1" NCoef="0" IVar="0" Cut="1.4943073689937592e-01" cType="0" res="4.1659572720527649e-01" rms="4.9299466609954834e-01" purity="1.0000000000000000e+00" nType="0">
          <Node pos="l" depth="2" NCoef="0" IVar="-1" Cut="0.0000000000000000e+00" cType="1" res="4.4549790024757385e-01" rms="4.9702063202857971e-01" purity="1.0000000000000000e+00" nType="-99"/>
          <Node pos="r" depth="2" NCoef="0" IVar="-1" Cut="0.0000000000000000e+00" cType="1" res="2.5047206878662109e-01" rms="4.3328490853309631e-01" purity="1.0000000000000000e+00" nType="-99"/>
        </Node>
      </Node>
    </BinaryTree>
    <BinaryTree type="DecisionTree" boostWeight="6.5646142605518834e-02" itree="12">
      <Node pos="s" depth="0" NCoef="0" IVar="0" Cut="6.4516127109527588e-01" cType="0" res="4.9962058663368225e-01" rms="4.9999985098838806e-01" purity="1.0000000000000000e+00" nType="0">
        <Node pos="l" depth="1" NCoef="0" IVar="0" Cut="8.5199242830276489e-01" cType="0" res="6.2052035331726074e-01" rms="4.8525750637054443e-01" purity="1.0000000000000000e+00" nType="0">
          <Node pos="l" depth="2" NCoef="0" IVar="-1" Cut="0.0000000000000000e+00" cType="1" res="7.3504573106765747e-01" rms="4.4130885601043701e-01" purity="1.0000000000000000e+00" nType="-99"/>
          <Node pos="r" depth="2" NCoef="0" IVar="-1" Cut="0.0000000000000000e+00" cType="1" res="5.6936705112457275e-01" rms="4.9516484141349792e-01" purity="1.0000000000000000e+00" nType="-99"/>
        </Node>
        <Node pos="r" depth="1" NCoef="0" IVar="0" Cut="2.0430107414722443e-01" cType="0" res="4.5777472853660583e-01" rms="4.9821382761001587e-01" purity="1.0000000000000000e+00" nType="0">
          <Node pos="l" depth="2" NCoef="0" IVar="-1" Cut="0.0000000000000000e+00" cType="1" res="4.8005586862564087e-01" rms="4.9960207939147949e-01" purity="1.0000000000000000e+00" nType="-99"/>
          <Node pos="r" depth="2" NCoef="0" IVar="-1" Cut="0.0000000000000000e+00" cType="1" res="2.9298362135887146e-01" rms="4.5513099431991577e-01" purity="1.0000000000000000e+00" nType="-99"/>
        </Node>
      </Node>
    </BinaryTree>
    <BinaryTree type="DecisionTree" boostWeight="4.5775257738767276e-02" itree="13">
      <Node pos="s" depth="0" NCoef="0" IVar="0" Cut="3.5483869910240173e-01" cType="0" res="4.9963811039924622e-01" rms="4.9999988079071045e-01" purity="1.0000000000000000e+00" nType="0">
        <Node pos="l" depth="1" NCoef="0" IVar="1" Cut="6.5038448572158813e-01" cType="0" res="5.3771746158599854e-01" rms="4.9857535958290100e-01" purity="1.0000000000000000e+00" nType="0">
          <Node pos="l" depth="2" NCoef="0" IVar="-1" Cut="0.0000000000000000e+00" cType="1" res="7.1945488452911377e-01" rms="4.4926556944847107e-01" purity="1.0000000000000000e+00" nType="-99"/>
          <Node pos="r" depth="2" NCoef="0" IVar="-1" Cut="0.0000000000000000e+00" cType="1" res="5.1314407587051392e-01" rms="4.9982720613479614e-01" purity="1.0000000000000000e+00" nType="-99"/>
        </Node>
        <Node pos="r" depth="1" NCoef="0" IVar="0" Cut="1.4800758659839630e-01" cType="0" res="3.7651282548904419e-01" rms="4.8451101779937744e-01" purity="1.0000000000000000e+00" nType="0">
          <Node pos="l" depth="2" NCoef="0" IVar="-1" Cut="0.0000000000000000e+00" cType="1" res="4.1795638203620911e-01" rms="4.9322292208671570e-01" purity="1.0000000000000000e+00" nType="-99"/>
          <Node pos="r" depth="2" NCoef="0" IVar="-1" Cut="0.0000000000000000e+00" cType="1" res="2.7779260277748108e-01" rms="4.4791057705879211e-01" purity="1.0000000000000000e+00" nType="-99"/>
        </Node>
      </Node>
    </BinaryTree>
    <BinaryTree type="DecisionTree" boostWeight="4.8127633379915429e-02" itree="14">
      <Node pos="s" depth="0" NCoef="0" IVar="0" Cut="5.8064514398574829e-01" cType="0" res="4.9964940547943115e-01" rms="4.9999988079071045e-01" purity="1.0000000000000000e+00" nType="0">
        <Node pos="l" depth="1" NCoef="0" IVar="0" Cut="8.5287177562713623e-01" cType="0" res="5.9693843126296997e-01" rms="4.9051293730735779e-01" purity="1.0000000000000000e+00" nType="0">
          <Node pos="l" depth="2" NCoef="0" IVar="-1" Cut="0.0000000000000000e+00" cType="1" res="7.2468727827072144e-01" rms="4.4667172431945801e-01" purity="1.0000000000000000e+00" nType="-99"/>
          <Node pos="r" depth="2" NCoef="0" IVar="-1" Cut="0.0000000000000000e+00" cType="1" res="5.5588310956954956e-01" rms="4.9686726927757263e-01" purity="1.0000000000000000e+00" nType="-99"/>
        </Node>
        <Node pos="r" depth="1" NCoef="0" IVar="0" Cut="1.4984390139579773e-01" cType="0" res="4.5333290100097656e-01" rms="4.9781742691993713e-01" purity="1.0000000000000000e+00" nType="0">
          <Node pos="l" depth="2" NCoef="0" IVar="-1" Cut="0.0000000000000000e+00" cType="1" res="4.7274741530418396e-01" rms="4.9925673007965088e-01" purity="1.0000000000000000e+00" nType="-99"/>
          <Node pos="r" depth="2" NCoef="0" IVar="-1" Cut="0.0000000000000000e+00" cType="1" res="2.8347900509834290e-01" rms="4.5068687200546265e-01" purity="1.0000000000000000e+00" nType="-99"/>
        </Node>
      </Node>
    </BinaryTree>
    <BinaryTree type="DecisionTree" boostWeight="2.9782090002184271e-02" itree="15">
      <Node pos="s" depth="0" NCoef="0" IVar="1" Cut="4.9010798335075378e-01" cType="0" res="4.9966111779212952e-01" rms="4.9999988079071045e-01" purity="1.0000000000000000e+00" nType="0">
        <Node pos="l" depth="1" NCoef="0" IVar="0" Cut="8.5294115543365479e-01" cType="0" res="5.5796670913696289e-01" rms="4.9662849307060242e-01" purity="1.0000000000000000e+00" nType="0">
          <Node pos="l" depth="2" NCoef="0" IVar="-1" Cut="0.0000000000000000e+00" cType="1" res="7.1342235803604126e-01" rms="4.5216244459152222e-01" purity="1.0000000000000000e+00" nType="-99"/>
          <Node pos="r" depth="2" NCoef="0" IVar="-1" Cut="0.0000000000000000e+00" cType="1" res="5.3322309255599976e-01" rms="4.9889498949050903e-01" purity="1.0000000000000000e+00" nType="-99"/>
        </Node>
        <Node pos="r" depth="1" NCoef="0" IVar="0" Cut="3.5863378643989563e-01" cType="0" res="4.2614930868148804e-01" rms="4.9451601505279541e-01" purity="1.0000000000000000e+00" nType="0">
          <Node pos="l" depth="2" NCoef="0" IVar="-1" Cut="0.0000000000000000e+00" cType="1" res="4.7921320796012878e-01" rms="4.9956771731376648e-01" purity="1.0000000000000000e+00" nType="-99"/>
          <Node pos="r" depth="2" NCoef="0" IVar="-1" Cut="0.0000000000000000e+00" cType="1" res="3.5353389382362366e-01" rms="4.7806659340858459e-01" purity="1.0000000000000000e+00" nType="-99"/>
        </Node>
      </Node>
    </BinaryTree>
    <BinaryTree type="DecisionTree" boostWeight="0.0000000000000000e+00" itree="16">
      <Node pos="s" depth="0" NCoef="0" IVar="1" Cut="4.9010798335075378e-01" cType="0" res="4.9966812133789062e-01" rms="4.9999988079071045e-01" purity="1.0000000000000000e+00" nType="0">
        <Node pos="l" depth="1" NCoef="0" IVar="1" Cut="6.4975613355636597e-01" cType="0" res="5.5679178237915039e-01" rms="4.9676421284675598e-01" purity="1.0000000000000000e+00" nType="0">
          <Node pos="l" depth="2" NCoef="0" IVar="-1" Cut="0.0000000000000000e+00" cType="1" res="6.9494450092315674e-01" rms="4.6043092012405396e-01" purity="1.0000000000000000e+00" nType="-99"/>
          <Node pos="r" depth="2" NCoef="0" IVar="-1" Cut="0.0000000000000000e+00" cType="1" res="5.2951961755752563e-01" rms="4.9912783503532410e-01" purity="1.0000000000000000e+00" nType="-99"/>
        </Node>
        <Node pos="r" depth="1" NCoef="0" IVar="0" Cut="3.5863378643989563e-01" cType="0" res="4.2763397097587585e-01" rms="4.9473544955253601e-01" purity="1.0000000000000000e+00" nType="0">
          <Node pos="l" depth="2" NCoef="0" IVar="-1" Cut="0.0000000000000000e+00" cType="1" res="4.7964635491371155e-01" rms="4.9958556890487671e-01" purity="1.0000000000000000e+00" nType="-99"/>
          <Node pos="r" depth="2" NCoef="0" IVar="-1" Cut="0.0000000000000000e+00" cType="1" res="3.5633367300033569e-01" rms="4.7891542315483093e-01" purity="1.0000000000000000e+00" nType="-99"/>
        </Node>
      </Node>
    </BinaryTree>
    <BinaryTree type="DecisionTree" boostWeight="0.0000000000000000e+00" itree="17">
      <Node pos="s" depth="0" NCoef="0" IVar="1" Cut="4.9010798335075378e-01" cType="0" res="4.9966812133789062e-01" rms="4.9999988079071045e-01" purity="1.0000000000000000e+00" nType="0">
        <Node pos="l" depth="1" NCoef="0" IVar="1" Cut="6.4975613355636597e-01" cType="0" res="5.5679178237915039e-01" rms="4.9676421284675598e-01" purity="1.0000000000000000e+00" nType="0">
          <Node pos="l" depth="2" NCoef="0" IVar="-1" Cut="0.0000000000000000e+00" cType="1" res="6.9494450092315674e-01" rms="4.6043092012405396e-01" purity="1.0000000000000000e+00" nType="-99"/>
          <Node pos="r" depth="2" NCoef="0" IVar="-1" Cut="0.0000000000000000e+00" cType="1" res="5.2951961755752563e-01" rms="4.9912783503532410e-01" purity="1.0000000000000000e+00" nType="-99"/>
        </Node>
        <Node pos="r" depth="1" NCoef="0" IVar="0" Cut="3.5863378643989563e-01" cType="0" res="4.2763397097587585e-01" rms="4.9473544955253601e-01" purity="1.0000000000000000e+00" nType="0">
          <Node pos="l" depth="2" NCoef="0" IVar="-1" Cut="0.0000000000000000e+00" cType="1" res="4.7964635491371155e-01" rms="4.9958556890487671e-01" purity="1.0000000000000000e+00" nType="-99"/>
          <Node pos="r" depth="2" NCoef="0" IVar="-1" Cut="0.0000000000000000e+00" cType="1" res="3.5633367300033569e-01" rms="4.7891542315483093e-01" purity="1.0000000000000000e+00" nType="-99"/>
        </Node>
      </Node>
    </BinaryTree>
    <BinaryTree type="DecisionTree" boostWeight="0.0000000000000000e+00" itree="18">
      <Node pos="s" depth="0" NCoef="0" IVar="1" Cut="4.9010798335075378e-01" cType="0" res="4.9966812133789062e-01" rms="4.9999988079071045e-01" purity="1.0000000000000000e+00" nType="0">
        <Node pos="l" depth="1" NCoef="0" IVar="1" Cut="6.4975613355636597e-01" cType="0" res="5.5679178237915039e-01" rms="4.9676421284675598e-01" purity="1.0000000000000000e+00" nType="0">
          <Node pos="l" depth="2" NCoef="0" IVar="-1" Cut="0.0000000000000000e+00" cType="1" res="6.9494450092315674e-01" rms="4.6043092012405396e-01" purity="1.0000000000000000e+00" nType="-99"/>
          <Node pos="r" depth="2" NCoef="0" IVar="-1" Cut="0.0000000000000000e+00" cType="1" res="5.2951961755752563e-01" rms="4.9912783503532410e-01" purity="1.0000000000000000e+00" nType="-99"/>
        </Node>
        <Node pos="r" depth="1" NCoef="0" IVar="0" Cut="3.5863378643989563e-01" cType="0" res="4.2763397097587585e-01" rms="4.9473544955253601e-01" purity="1.0000000000000000e+00" nType="0">
          <Node pos="l" depth="2" NCoef="0" IVar="-1" Cut="0.0000000000000000e+00" cType="1" res="4.7964635491371155e-01" rms="4.9958556890487671e-01" purity="1.0000000000000000e+00" nType="-99"/>
          <Node pos="r" depth="2" NCoef="0" IVar="-1" Cut="0.0000000000000000e+00" cType="1" res="3.5633367300033569e-01" rms="4.7891542315483093e-01" purity="1.0000000000000000e+00" nType="-99"/>
        </Node>
      </Node>
    </BinaryTree>
    <BinaryTree type="DecisionTree" boostWeight="0.0000000000000000e+00" itree="19">
      <Node pos="s" depth="0" NCoef="0" IVar="1" Cut="4.9010798335075378e-01" cType="0" res="4.9966812133789062e-01" rms="4.9999988079071045e-01" purity="1.0000000000000000e+00" nType="0">
        <Node pos="l" depth="1" NCoef="0" IVar="1" Cut="6.4975613355636597e-01" cType="0" res="5.5679178237915039e-01" rms="4.9676421284675598e-01" purity="1.0000000000000000e+00" nType="0">
          <Node pos="l" depth="2" NCoef="0" IVar="-1" Cut="0.0000000000000000e+00" cType="1" res="6.9494450092315674e-01" rms="4.6043092012405396e-01" purity="1.0000000000000000e+00" nType="-99"/>
          <Node pos="r" depth="2" NCoef="0" IVar="-1" Cut="0.0000000000000000e+00" cType="1" res="5.2951961755752563e-01" rms="4.9912783503532410e-01" purity="1.0000000000000000e+00" nType="-99"/>
        </Node>
        <Node pos="r" depth="1" NCoef="0" IVar="0" Cut="3.5863378643989563e-01" cType="0" res="4.2763397097587585e-01" rms="4.9473544955253601e-01" purity="1.0000000000000000e+00" nType="0">
          <Node pos="l" depth="2" NCoef="0" IVar="-1" Cut="0.0000000000000000e+00" cType="1" res="4.7964635491371155e-01" rms="4.9958556890487671e-01" purity="1.0000000000000000e+00" nType="-99"/>
          <Node pos="r" depth="2" NCoef="0" IVar="-1" Cut="0.0000000000000000e+00" cType="1" res="3.5633367300033569e-01" rms="4.7891542315483093e-01" purity="1.0000000000000000e+00" nType="-99"/>
        </Node>
      </Node>
    </BinaryTree>
    <BinaryTree type="DecisionTree" boostWeight="0.0000000000000000e+00" itree="20">
      <Node pos="s" depth="0" NCoef="0" IVar="1" Cut="4.9010798335075378e-01" cType="0" res="4.9966812133789062e-01" rms="4.9999988079071045e-01" purity="1.0000000000000000e+00" nType="0">
        <Node pos="l" depth="1" NCoef="0" IVar="1" Cut="6.4975613355636597e-01" cType="0" res="5.5679178237915039e-01" rms="4.9676421284675598e-01" purity="1.0000000000000000e+00" nType="0">
          <Node pos="l" depth="2" NCoef="0" IVar="-1" Cut="0.0000000000000000e+00" cType="1" res="6.9494450092315674e-01" rms="4.6043092012405396e-01" purity="1.0000000000000000e+00" nType="-99"/>
          <Node pos="r" depth="2" NCoef="0" IVar="-1" Cut="0.0000000000000000e+00" cType="1" res="5.2951961755752563e-01" rms="4.9912783503532410e-01" purity="1.0000000000000000e+00" nType="-99"/>
        </Node>
        <Node pos="r" depth="1" NCoef="0" IVar="0" Cut="3.5863378643989563e-01" cType="0" res="4.2763397097587585e-01" rms="4.9473544955253601e-01" purity="1.0000000000000000e+00" nType="0">
          <Node pos="l" depth="2" NCoef="0" IVar="-1" Cut="0.0000000000000000e+00" cType="1" res="4.7964635491371155e-01" rms="4.9958556890487671e-01" purity="1.0000000000000000e+00" nType="-99"/>
          <Node pos="r" depth="2" NCoef="0" IVar="-1" Cut="0.0000000000000000e+00" cType="1" res="3.5633367300033569e-01" rms="4.7891542315483093e-01" purity="1.0000000000000000e+00" nType="-99"/>
        </Node>
      </Node>
    </BinaryTree>
    <BinaryTree type="DecisionTree" boostWeight="0.0000000000000000e+00" itree="21">
      <Node pos="s" depth="0" NCoef="0" IVar="1" Cut="4.9010798335075378e-01" cType="0" res="4.9966812133789062e-01" rms="4.9999988079071045e-01" purity="1.0000000000000000e+00" nType="0">
        <Node pos="l" depth="1" NCoef="0" IVar="1" Cut="6.4975613355636597e-01" cType="0" res="5.5679178237915039e-01" rms="4.9676421284675598e-01" purity="1.0000000000000000e+00" nType="0">
          <Node pos="l" depth="2" NCoef="0" IVar="-1" Cut="0.0000000000000000e+00" cType="1" res="6.9494450092315674e-01" rms="4.6043092012405396e-01" purity="1.0000000000000000e+00" nType="-99"/>
          <Node pos="r" depth="2" NCoef="0" IVar="-1" Cut="0.0000000000000000e+00" cType="1" res="5.2951961755752563e-01" rms="4.9912783503532410e-01" purity="1.0000000000000000e+00" nType="-99"/>
        </Node>
        <Node pos="r" depth="1" NCoef="0" IVar="0" Cut="3.5863378643989563e-01" cType="0" res="4.2763397097587585e-01" rms="4.9473544955253601e-01" purity="1.0000000000000000e+00" nType="0">
          <Node pos="l" depth="2" NCoef="0" IVar="-1" Cut="0.0000000000000000e+00" cType="1" res="4.7964635491371155e-01" rms="4.9958556890487671e-01" purity="1.0000000000000000e+00" nType="-99"/>
          <Node pos="r" depth="2" NCoef="0" IVar="-1" Cut="0.0000000000000000e+00" cType="1" res="3.5633367300033569e-01" rms="4.7891542315483093e-01" purity="1.0000000000000000e+00" nType="-99"/>
        </Node>
      </Node>
    </BinaryTree>
    <BinaryTree type="DecisionTree" boostWeight="0.0000000000000000e+00" itree="22">
      <Node pos="s" depth="0" NCoef="0" IVar="1" Cut="4.9010798335075378e-01" cType="0" res="4.9966812133789062e-01" rms="4.9999988079071045e-01" purity="1.0000000000000000e+00" nType="0">
        <Node pos="l" depth="1" NCoef="0" IVar="1" Cut="6.4975613355636597e-01" cType="0" res="5.5679178237915039e-01" rms="4.9676421284675598e-01" purity="1.0000000000000000e+00" nType="0">
          <Node pos="l" depth="2" NCoef="0" IVar="-1" Cut="0.0000000000000000e+00" cType="1" res="6.9494450092315674e-01" rms="4.6043092012405396e-01" purity="1.0000000000000000e+00" nType="-99"/>
          <Node pos="r" depth="2" NCoef="0" IVar="-1" Cut="0.0000000000000000e+00" cType="1" res="5.2951961755752563e-01" rms="4.9912783503532410e-01" purity="1.0000000000000000e+00" nType="-99"/>
        </Node>
        <Node pos="r" depth="1" NCoef="0" IVar="0" Cut="3.5863378643989563e-01" cType="0" res="4.2763397097587585e-01" rms="4.9473544955253601e-01" purity="1.0000000000000000e+00" nType="0">
          <Node pos="l" depth="2" NCoef="0" IVar="-1" Cut="0.0000000000000000e+00" cType="1" res="4.7964635491371155e-01" rms="4.9958556890487671e-01" purity="1.0000000000000000e+00" nType="-99"/>
          <Node pos="r" depth="2" NCoef="0" IVar="-1" Cut="0.0000000000000000e+00" cType="1" res="3.5633367300033569e-01" rms="4.7891542315483093e-01" purity="1.0000000000000000e+00" nType="-99"/>
        </Node>
      </Node>
    </BinaryTree>
    <BinaryTree type="DecisionTree" boostWeight="0.0000000000000000e+00" itree="23">
      <Node pos="s" depth="0" NCoef="0" IVar="1" Cut="4.9010798335075378e-01" cType="0" res="4.9966812133789062e-01" rms="4.9999988079071045e-01" purity="1.0000000000000000e+00" nType="0">
        <Node pos="l" depth="1" NCoef="0" IVar="1" Cut="6.4975613355636597e-01" cType="0" res="5.5679178237915039e-01" rms="4.9676421284675598e-01" purity="1.0000000000000000e+00" nType="0">
          <Node pos="l" depth="2" NCoef="0" IVar="-1" Cut="0.0000000000000000e+00" cType="1" res="6.9494450092315674e-01" rms="4.6043092012405396e-01" purity="1.0000000000000000e+00" nType="-99"/>
          <Node pos="r" depth="2" NCoef="0" IVar="-1" Cut="0.0000000000000000e+00" cType="1" res="5.2951961755752563e-01" rms="4.9912783503532410e-01" purity="1.0000000000000000e+00" nType="-99"/>
        </Node>
        <Node pos="r" depth="1" NCoef="0" IVar="0" Cut="3.5863378643989563e-01" cType="0" res="4.2763397097587585e-01" rms="4.9473544955253601e-01" purity="1.0000000000000000e+00" nType="0">
          <Node pos="l" depth="2" NCoef="0" IVar="-1" Cut="0.0000000000000000e+00" cType="1" res="4.7964635491371155e-01" rms="4.9958556890487671e-01" purity="1.0000000000000000e+00" nType="-99"/>
          <Node pos="r" depth="2" NCoef="0" IVar="-1" Cut="0.0000000000000000e+00" cType="1" res="3.5633367300033569e-01" rms="4.7891542315483093e-01" purity="1.0000000000000000e+00" nType="-99"/>
        </Node>
      </Node>
    </BinaryTree>
    <BinaryTree type="DecisionTree" boostWeight="0.0000000000000000e+00" itree="24">
      <Node pos="s" depth="0" NCoef="0" IVar="1" Cut="4.9010798335075378e-01" cType="0" res="4.9966812133789062e-01" rms="4.9999988079071045e-01" purity="1.0000000000000000e+00" nType="0">
        <Node pos="l" depth="1" NCoef="0" IVar="1" Cut="6.4975613355636597e-01" cType="0" res="5.5679178237915039e-01" rms="4.9676421284675598e-01" purity="1.0000000000000000e+00" nType="0">
          <Node pos="l" depth="2" NCoef="0" IVar="-1" Cut="0.0000000000000000e+00" cType="1" res="6.9494450092315674e-01" rms="4.6043092012405396e-01" purity="1.0000000000000000e+00" nType="-99"/>
          <Node pos="r" depth="2" NCoef="0" IVar="-1" Cut="0.0000000000000000e+00" cType="1" res="5.2951961755752563e-01" rms="4.9912783503532410e-01" purity="1.0000000000000000e+00" nType="-99"/>
        </Node>
        <Node pos="r" depth="1" NCoef="0" IVar="0" Cut="3.5863378643989563e-01" cType="0" res="4.2763397097587585e-01" rms="4.9473544955253601e-01" purity="1.0000000000000000e+00" nType="0">
          <Node pos="l" depth="2" NCoef="0" IVar="-1" Cut="0.0000000000000000e+00" cType="1" res="4.7964635491371155e-01" rms="4.9958556890487671e-01" purity="1.0000000000000000e+00" nType="-99"/>
          <Node pos="r" depth="2" NCoef="0" IVar="-1" Cut="0.0000000000000000e+00" cType="1" res="3.5633367300033569e-01" rms="4.7891542315483093e-01" purity="1.0000000000000000e+00" nType="-99"/>
        </Node>
      </Node>
    </BinaryTree>
    <BinaryTree type="DecisionTree" boostWeight="0.0000000000000000e+00" itree="25">
      <Node pos="s" depth="0" NCoef="0" IVar="1" Cut="4.9010798335075378e-01" cType="0" res="4.9966812133789062e-01" rms="4.9999988079071045e-01" purity="1.0000000000000000e+00" nType="0">
        <Node pos="l" depth="1" NCoef="0" IVar="1" Cut="6.4975613355636597e-01" cType="0" res="5.5679178237915039e-01" rms="4.9676421284675598e-01" purity="1.0000000000000000e+00" nType="0">
          <Node pos="l" depth="2" NCoef="0" IVar="-1" Cut="0.0000000000000000e+00" cType="1" res="6.9494450092315674e-01" rms="4.6043092012405396e-01" purity="1.0000000000000000e+00" nType="-99"/>
          <Node pos="r" depth="2" NCoef="0" IVar="-1" Cut="0.0000000000000000e+00" cType="1" res="5.2951961755752563e-01" rms="4.9912783503532410e-01" purity="1.0000000000000000e+00" nType="-99"/>
        </Node>
        <Node pos="r" depth="1" NCoef="0" IVar="0" Cut="3.5863378643989563e-01" cType="0" res="4.2763397097587585e-01" rms="4.9473544955253601e-01" purity="1.0000000000000000e+00" nType="0">
          <Node pos="l" depth="2" NCoef="0" IVar="-1" Cut="0.0000000000000000e+00" cType="1" res="4.7964635491371155e-01" rms="4.9958556890487671e-01" purity="1.0000000000000000e+00" nType="-99"/>
          <Node pos="r" depth="2" NCoef="0" IVar="-1" Cut="0.0000000000000000e+00" cType="1" res="3.5633367300033569e-01" rms="4.7891542315483093e-01" purity="1.0000000000000000e+00" nType="-99"/>
        </Node>
      </Node>
    </BinaryTree>
    <BinaryTree type="DecisionTree" boostWeight="0.0000000000000000e+00" itree="26">
      <Node pos="s" depth="0" NCoef="0" IVar="1" Cut="4.9010798335075378e-01" cType="0" res="4.9966812133789062e-01" rms="4.9999988079071045e-01" purity="1.0000000000000000e+00" nType="0">
        <Node pos="l" depth="1" NCoef="0" IVar="1" Cut="6.4975613355636597e-01" cType="0" res="5.5679178237915039e-01" rms="4.9676421284675598e-01" purity="1.0000000000000000e+00" nType="0">
          <Node pos="l" depth="2" NCoef="0" IVar="-1" Cut="0.0000000000000000e+00" cType="1" res="6.9494450092315674e-01" rms="4.6043092012405396e-01" purity="1.0000000000000000e+00" nType="-99"/>
          <Node pos="r" depth="2" NCoef="0" IVar="-1" Cut="0.0000000000000000e+00" cType="1" res="5.2951961755752563e-01" rms="4.9912783503532410e-01" purity="1.0000000000000000e+00" nType="-99"/>
        </Node>
        <Node pos="r" depth="1" NCoef="0" IVar="0" Cut="3.5863378643989563e-01" cType="0" res="4.2763397097587585e-01" rms="4.9473544955253601e-01" purity="1.0000000000000000e+00" nType="0">
          <Node pos="l" depth="2" NCoef="0" IVar="-1" Cut="0.0000000000000000e+00" cType="1" res="4.7964635491371155e-01" rms="4.9958556890487671e-01" purity="1.0000000000000000e+00" nType="-99"/>
          <Node pos="r" depth="2" NCoef="0" IVar="-1" Cut="0.0000000000000000e+00" cType="1" res="3.5633367300033569e-01" rms="4.7891542315483093e-01" purity="1.0000000000000000e+00" nType="-99"/>
        </Node>
      </Node>
    </BinaryTree>
    <BinaryTree type="DecisionTree" boostWeight="0.0000000000000000e+00" itree="27">
      <Node pos="s" depth="0" NCoef="0" IVar="1" Cut="4.9010798335075378e-01" cType="0" res="4.9966812133789062e-01" rms="4.9999988079071045e-01" purity="1.0000000000000000e+00" nType="0">
        <Node pos="l" depth="1" NCoef="0" IVar="1" Cut="6.4975613355636597e-01" cType="0" res="5.5679178237915039e-01" rms="4.9676421284675598e-01" purity="1.0000000000000000e+00" nType="0">
          <Node pos="l" depth="2" NCoef="0" IVar="-1" Cut="0.0000000000000000e+00" cType="1" res="6.9494450092315674e-01" rms="4.6043092012405396e-01" purity="1.0000000000000000e+00" nType="-99"/>
          <Node pos="r" depth="2" NCoef="0" IVar="-1" Cut="0.0000000000000000e+00" cType="1" res="5.2951961755752563e-01" rms="4.9912783503532410e-01" purity="1.0000000000000000e+00" nType="-99"/>
        </Node>
        <Node pos="r" depth="1" NCoef="0" IVar="0" Cut="3.5863378643989563e-01" cType="0" res="4.2763397097587585e-01" rms="4.9473544955253601e-01" purity="1.0000000000000000e+00" nType="0">
          <Node pos="l" depth="2" NCoef="0" IVar="-1" Cut="0.0000000000000000e+00" cType="1" res="4.7964635491371155e-01" rms="4.9958556890487671e-01" purity="1.0000000000000000e+00" nType="-99"/>
          <Node pos="r" depth="2" NCoef="0" IVar="-1" Cut="0.0000000000000000e+00" cType="1" res="3.5633367300033569e-01" rms="4.7891542315483093e-01" purity="1.0000000000000000e+00" nType="-99"/>
        </Node>
      </Node>
    </BinaryTree>
    <BinaryTree type="DecisionTree" boostWeight="0.0000000000000000e+00" itree="28">
      <Node pos="s" depth="0" NCoef="0" IVar="1" Cut="4.9010798335075378e-01" cType="0" res="4.9966812133789062e-01" rms="4.9999988079071045e-01" purity="1.0000000000000000e+00" nType="0">
        <Node pos="l" depth="1" NCoef="0" IVar="1" Cut="6.4975613355636597e-01" cType="0" res="5.5679178237915039e-01" rms="4.9676421284675598e-01" purity="1.0000000000000000e+00" nType="0">
          <Node pos="l" depth="2" NCoef="0" IVar="-1" Cut="0.0000000000000000e+00" cType="1" res="6.9494450092315674e-01" rms="4.6043092012405396e-01" purity="1.0000000000000000e+00" nType="-99"/>
          <Node pos="r" depth="2" NCoef="0" IVar="-1" Cut="0.0000000000000000e+00" cType="1" res="5.2951961755752563e-01" rms="4.9912783503532410e-01" purity="1.0000000000000000e+00" nType="-99"/>
        </Node>
        <Node pos="r" depth="1" NCoef="0" IVar="0" Cut="3.5863378643989563e-01" cType="0" res="4.2763397097587585e-01" rms="4.9473544955253601e-01" purity="1.0000000000000000e+00" nType="0">
          <Node pos="l" depth="2" NCoef="0" IVar="-1" Cut="0.0000000000000000e+00" cType="1" res="4.7964635491371155e-01" rms="4.9958556890487671e-01" purity="1.0000000000000000e+00" nType="-99"/>
          <Node pos="r" depth="2" NCoef="0" IVar="-1" Cut="0.0000000000000000e+00" cType="1" res="3.5633367300033569e-01" rms="4.7891542315483093e-01" purity="1.0000000000000000e+00" nType="-99"/>
        </Node>
      </Node>
    </BinaryTree>
    <BinaryTree type="DecisionTree" boostWeight="0.0000000000000000e+00" itree="29">
      <Node pos="s" depth="0" NCoef="0" IVar="1" Cut="4.9010798335075378e-01" cType="0" res="4.9966812133789062e-01" rms="4.9999988079071045e-01" purity="1.0000000000000000e+00" nType="0">
        <Node pos="l" depth="1" NCoef="0" IVar="1" Cut="6.4975613355636597e-01" cType="0" res="5.5679178237915039e-01" rms="4.9676421284675598e-01" purity="1.0000000000000000e+00" nType="0">
          <Node pos="l" depth="2" NCoef="0" IVar="-1" Cut="0.0000000000000000e+00" cType="1" res="6.9494450092315674e-01" rms="4.6043092012405396e-01" purity="1.0000000000000000e+00" nType="-99"/>
          <Node pos="r" depth="2" NCoef="0" IVar="-1" Cut="0.0000000000000000e+00" cType="1" res="5.2951961755752563e-01" rms="4.9912783503532410e-01" purity="1.0000000000000000e+00" nType="-99"/>
        </Node>
        <Node pos="r" depth="1" NCoef="0" IVar="0" Cut="3.5863378643989563e-01" cType="0" res="4.2763397097587585e-01" rms="4.9473544955253601e-01" purity="1.0000000000000000e+00" nType="0">
          <Node pos="l" depth="2" NCoef="0" IVar="-1" Cut="0.0000000000000000e+00" cType="1" res="4.7964635491371155e-01" rms="4.9958556890487671e-01" purity="1.0000000000000000e+00" nType="-99"/>
          <Node pos="r" depth="2" NCoef="0" IVar="-1" Cut="0.0000000000000000e+00" cType="1" res="3.5633367300033569e-01" rms="4.7891542315483093e-01" purity="1.0000000000000000e+00" nType="-99"/>
        </Node>
      </Node>
    </BinaryTree>
    <BinaryTree type="DecisionTree" boostWeight="0.0000000000000000e+00" itree="30">
      <Node pos="s" depth="0" NCoef="0" IVar="1" Cut="4.9010798335075378e-01" cType="0" res="4.9966812133789062e-01" rms="4.9999988079071045e-01" purity="1.0000000000000000e+00" nType="0">
        <Node pos="l" depth="1" NCoef="0" IVar="1" Cut="6.4975613355636597e-01" cType="0" res="5.5679178237915039e-01" rms="4.9676421284675598e-01" purity="1.0000000000000000e+00" nType="0">
          <Node pos="l" depth="2" NCoef="0" IVar="-1" Cut="0.0000000000000000e+00" cType="1" res="6.9494450092315674e-01" rms="4.6043092012405396e-01" purity="1.0000000000000000e+00" nType="-99"/>
          <Node pos="r" depth="2" NCoef="0" IVar="-1" Cut="0.0000000000000000e+00" cType="1" res="5.2951961755752563e-01" rms="4.9912783503532410e-01" purity="1.0000000000000000e+00" nType="-99"/>
        </Node>
        <Node pos="r" depth="1" NCoef="0" IVar="0" Cut="3.5863378643989563e-01" cType="0" res="4.2763397097587585e-01" rms="4.9473544955253601e-01" purity="1.0000000000000000e+00" nType="0">
          <Node pos="l" depth="2" NCoef="0" IVar="-1" Cut="0.0000000000000000e+00" cType="1" res="4.7964635491371155e-01" rms="4.9958556890487671e-01" purity="1.0000000000000000e+00" nType="-99"/>
          <Node pos="r" depth="2" NCoef="0" IVar="-1" Cut="0.0000000000000000e+00" cType="1" res="3.5633367300033569e-01" rms="4.7891542315483093e-01" purity="1.0000000000000000e+00" nType="-99"/>
        </Node>
      </Node>
    </BinaryTree>
    <BinaryTree type="DecisionTree" boostWeight="0.0000000000000000e+00" itree="31">
      <Node pos="s" depth="0" NCoef="0" IVar="1" Cut="4.9010798335075378e-01" cType="0" res="4.9966812133789062e-01" rms="4.9999988079071045e-01" purity="1.0000000000000000e+00" nType="0">
        <Node pos="l" depth="1" NCoef="0" IVar="1" Cut="6.4975613355636597e-01" cType="0" res="5.5679178237915039e-01" rms="4.9676421284675598e-01" purity="1.0000000000000000e+00" nType="0">
          <Node pos="l" depth="2" NCoef="0" IVar="-1" Cut="0.0000000000000000e+00" cType="1" res="6.9494450092315674e-01" rms="4.6043092012405396e-01" purity="1.0000000000000000e+00" nType="-99"/>
          <Node pos="r" depth="2" NCoef="0" IVar="-1" Cut="0.0000000000000000e+00" cType="1" res="5.2951961755752563e-01" rms="4.9912783503532410e-01" purity="1.0000000000000000e+00" nType="-99"/>
        </Node>
        <Node pos="r" depth="1" NCoef="0" IVar="0" Cut="3.5863378643989563e-01" cType="0" res="4.2763397097587585e-01" rms="4.9473544955253601e-01" purity="1.0000000000000000e+00" nType="0">
          <Node pos="l" depth="2" NCoef="0" IVar="-1" Cut="0.0000000000000000e+00" cType="1" res="4.7964635491371155e-01" rms="4.9958556890487671e-01" purity="1.0000000000000000e+00" nType="-99"/>
          <Node pos="r" depth="2" NCoef="0" IVar="-1" Cut="0.0000000000000000e+00" cType="1" res="3.5633367300033569e-01" rms="4.7891542315483093e-01" purity="1.0000000000000000e+00" nType="-99"/>
        </Node>
      </Node>
    </BinaryTree>
    <BinaryTree type="DecisionTree" boostWeight="0.0000000000000000e+00" itree="32">
      <Node pos="s" depth="0" NCoef="0" IVar="1" Cut="4.9010798335075378e-01" cType="0" res="4.9966812133789062e-01" rms="4.9999988079071045e-01" purity="1.0000000000000000e+00" nType="0">
        <Node pos="l" depth="1" NCoef="0" IVar="1" Cut="6.4975613355636597e-01" cType="0" res="5.5679178237915039e-01" rms="4.9676421284675598e-01" purity="1.0000000000000000e+00" nType="0">
          <Node pos="l" depth="2" NCoef="0" IVar="-1" Cut="0.0000000000000000e+00" cType="1" res="6.9494450092315674e-01" rms="4.6043092012405396e-01" purity="1.0000000000000000e+00" nType="-99"/>
          <Node pos="r" depth="2" NCoef="0" IVar="-1" Cut="0.0000000000000000e+00" cType="1" res="5.2951961755752563e-01" rms="4.9912783503532410e-01" purity="1.0000000000000000e+00" nType="-99"/>
        </Node>
        <Node pos="r" depth="1" NCoef="0" IVar="0" Cut="3.5863378643989563e-01" cType="0" res="4.2763397097587585e-01" rms="4.9473544955253601e-01" purity="1.0000000000000000e+00" nType="0">
          <Node pos="l" depth="2" NCoef="0" IVar="-1" Cut="0.0000000000000000e+00" cType="1" res="4.7964635491371155e-01" rms="4.9958556890487671e-01" purity="1.0000000000000000e+00" nType="-99"/>
          <Node pos="r" depth="2" NCoef="0" IVar="-1" Cut="0.0000000000000000e+00" cType="1" res="3.5633367300033569e-01" rms="4.7891542315483093e-01" purity="1.0000000000000000e+00" nType="-99"/>
        </Node>
      </Node>
    </BinaryTree>
    <BinaryTree type="DecisionTree" boostWeight="0.0000000000000000e+00" itree="33">
      <Node pos="s" depth="0" NCoef="0" IVar="1" Cut="4.9010798335075378e-01" cType="0" res="4.9966812133789062e-01" rms="4.9999988079071045e-01" purity="1.0000000000000000e+00" nType="0">
        <Node pos="l" depth="1" NCoef="0" IVar="1" Cut="6.4975613355636597e-01" cType="0" res="5.5679178237915039e-01" rms="4.9676421284675598e-01" purity="1.0000000000000000e+00" nType="0">
          <Node pos="l" depth="2" NCoef="0" IVar="-1" Cut="0.0000000000000000e+00" cType="1" res="6.9494450092315674e-01" rms="4.6043092012405396e-01" purity="1.0000000000000000e+00" nType="-99"/>
          <Node pos="r" depth="2" NCoef="0" IVar="-1" Cut="0.0000000000000000e+00" cType="1" res="5.2951961755752563e-01" rms="4.9912783503532410e-01" purity="1.0000000000000000e+00" nType="-99"/>
        </Node>
        <Node pos="r" depth="1" NCoef="0" IVar="0" Cut="3.5863378643989563e-01" cType="0" res="4.2763397097587585e-01" rms="4.9473544955253601e-01" purity="1.0000000000000000e+00" nType="0">
          <Node pos="l" depth="2" NCoef="0" IVar="-1" Cut="0.0000000000000000e+00" cType="1" res="4.7964635491371155e-01" rms="4.9958556890487671e-01" purity="1.0000000000000000e+00" nType="-99"/>
          <Node pos="r" depth="2" NCoef="0" IVar="-1" Cut="0.0000000000000000e+00" cType="1" res="3.5633367300033569e-01" rms="4.7891542315483093e-01" purity="1.0000000000000000e+00" nType="-99"/>
        </Node>
      </Node>
    </BinaryTree>
    <BinaryTree type="DecisionTree" boostWeight="0.0000000000000000e+00" itree="34">
      <Node pos="s" depth="0" NCoef="0" IVar="1" Cut="4.9010798335075378e-01" cType="0" res="4.9966812133789062e-01" rms="4.9999988079071045e-01" purity="1.0000000000000000e+00" nType="0">
        <Node pos="l" depth="1" NCoef="0" IVar="1" Cut="6.4975613355636597e-01" cType="0" res="5.5679178237915039e-01" rms="4.9676421284675598e-01" purity="1.0000000000000000e+00" nType="0">
          <Node pos="l" depth="2" NCoef="0" IVar="-1" Cut="0.0000000000000000e+00" cType="1" res="6.9494450092315674e-01" rms="4.6043092012405396e-01" purity="1.0000000000000000e+00" nType="-99"/>
          <Node pos="r" depth="2" NCoef="0" IVar="-1" Cut="0.0000000000000000e+00" cType="1" res="5.2951961755752563e-01" rms="4.9912783503532410e-01" purity="1.0000000000000000e+00" nType="-99"/>
        </Node>
        <Node pos="r" depth="1" NCoef="0" IVar="0" Cut="3.5863378643989563e-01" cType="0" res="4.2763397097587585e-01" rms="4.9473544955253601e-01" purity="1.0000000000000000e+00" nType="0">
          <Node pos="l" depth="2" NCoef="0" IVar="-1" Cut="0.0000000000000000e+00" cType="1" res="4.7964635491371155e-01" rms="4.9958556890487671e-01" purity="1.0000000000000000e+00" nType="-99"/>
          <Node pos="r" depth="2" NCoef="0" IVar="-1" Cut="0.0000000000000000e+00" cType="1" res="3.5633367300033569e-01" rms="4.7891542315483093e-01" purity="1.0000000000000000e+00" nType="-99"/>
        </Node>
      </Node>
    </BinaryTree>
    <BinaryTree type="DecisionTree" boostWeight="0.0000000000000000e+00" itree="35">
      <Node pos="s" depth="0" NCoef="0" IVar="1" Cut="4.9010798335075378e-01" cType="0" res="4.9966812133789062e-01" rms="4.9999988079071045e-01" purity="1.0000000000000000e+00" nType="0">
        <Node pos="l" depth="1" NCoef="0" IVar="1" Cut="6.4975613355636597e-01" cType="0" res="5.5679178237915039e-01" rms="4.9676421284675598e-01" purity="1.0000000000000000e+00" nType="0">
          <Node pos="l" depth="2" NCoef="0" IVar="-1" Cut="0.0000000000000000e+00" cType="1" res="6.9494450092315674e-01" rms="4.6043092012405396e-01" purity="1.0000000000000000e+00" nType="-99"/>
          <Node pos="r" depth="2" NCoef="0" IVar="-1" Cut="0.0000000000000000e+00" cType="1" res="5.2951961755752563e-01" rms="4.9912783503532410e-01" purity="1.0000000000000000e+00" nType="-99"/>
        </Node>
        <Node pos="r" depth="1" NCoef="0" IVar="0" Cut="3.5863378643989563e-01" cType="0" res="4.2763397097587585e-01" rms="4.9473544955253601e-01" purity="1.0000000000000000e+00" nType="0">
          <Node pos="l" depth="2" NCoef="0" IVar="-1" Cut="0.0000000000000000e+00" cType="1" res="4.7964635491371155e-01" rms="4.9958556890487671e-01" purity="1.0000000000000000e+00" nType="-99"/>
          <Node pos="r" depth="2" NCoef="0" IVar="-1" Cut="0.0000000000000000e+00" cType="1" res="3.5633367300033569e-01" rms="4.7891542315483093e-01" purity="1.0000000000000000e+00" nType="-99"/>
        </Node>
      </Node>
    </BinaryTree>
    <BinaryTree type="DecisionTree" boostWeight="0.0000000000000000e+00" itree="36">
      <Node pos="s" depth="0" NCoef="0" IVar="1" Cut="4.9010798335075378e-01" cType="0" res="4.9966812133789062e-01" rms="4.9999988079071045e-01" purity="1.0000000000000000e+00" nType="0">
        <Node pos="l" depth="1" NCoef="0" IVar="1" Cut="6.4975613355636597e-01" cType="0" res="5.5679178237915039e-01" rms="4.9676421284675598e-01" purity="1.0000000000000000e+00" nType="0">
          <Node pos="l" depth="2" NCoef="0" IVar="-1" Cut="0.0000000000000000e+00" cType="1" res="6.9494450092315674e-01" rms="4.6043092012405396e-01" purity="1.0000000000000000e+00" nType="-99"/>
          <Node pos="r" depth="2" NCoef="0" IVar="-1" Cut="0.0000000000000000e+00" cType="1" res="5.2951961755752563e-01" rms="4.9912783503532410e-01" purity="1.0000000000000000e+00" nType="-99"/>
        </Node>
        <Node pos="r" depth="1" NCoef="0" IVar="0" Cut="3.5863378643989563e-01" cType="0" res="4.2763397097587585e-01" rms="4.9473544955253601e-01" purity="1.0000000000000000e+00" nType="0">
          <Node pos="l" depth="2" NCoef="0" IVar="-1" Cut="0.0000000000000000e+00" cType="1" res="4.7964635491371155e-01" rms="4.9958556890487671e-01" purity="1.0000000000000000e+00" nType="-99"/>
          <Node pos="r" depth="2" NCoef="0" IVar="-1" Cut="0.0000000000000000e+00" cType="1" res="3.5633367300033569e-01" rms="4.7891542315483093e-01" purity="1.0000000000000000e+00" nType="-99"/>
        </Node>
      </Node>
    </BinaryTree>
    <BinaryTree type="DecisionTree" boostWeight="0.0000000000000000e+00" itree="37">
      <Node pos="s" depth="0" NCoef="0" IVar="1" Cut="4.9010798335075378e-01" cType="0" res="4.9966812133789062e-01" rms="4.9999988079071045e-01" purity="1.0000000000000000e+00" nType="0">
        <Node pos="l" depth="1" NCoef="0" IVar="1" Cut="6.4975613355636597e-01" cType="0" res="5.5679178237915039e-01" rms="4.9676421284675598e-01" purity="1.0000000000000000e+00" nType="0">
          <Node pos="l" depth="2" NCoef="0" IVar="-1" Cut="0.0000000000000000e+00" cType="1" res="6.9494450092315674e-01" rms="4.6043092012405396e-01" purity="1.0000000000000000e+00" nType="-99"/>
          <Node pos="r" depth="2" NCoef="0" IVar="-1" Cut="0.0000000000000000e+00" cType="1" res="5.2951961755752563e-01" rms="4.9912783503532410e-01" purity="1.0000000000000000e+00" nType="-99"/>
        </Node>
        <Node pos="r" depth="1" NCoef="0" IVar="0" Cut="3.5863378643989563e-01" cType="0" res="4.2763397097587585e-01" rms="4.9473544955253601e-01" purity="1.0000000000000000e+00" nType="0">
          <Node pos="l" depth="2" NCoef="0" IVar="-1" Cut="0.0000000000000000e+00" cType="1" res="4.7964635491371155e-01" rms="4.9958556890487671e-01" purity="1.0000000000000000e+00" nType="-99"/>
          <Node pos="r" depth="2" NCoef="0" IVar="-1" Cut="0.0000000000000000e+00" cType="1" res="3.5633367300033569e-01" rms="4.7891542315483093e-01" purity="1.0000000000000000e+00" nType="-99"/>
        </Node>
      </Node>
    </BinaryTree>
    <BinaryTree type="DecisionTree" boostWeight="0.0000000000000000e+00" itree="38">
      <Node pos="s" depth="0" NCoef="0" IVar="1" Cut="4.9010798335075378e-01" cType="0" res="4.9966812133789062e-01" rms="4.9999988079071045e-01" purity="1.0000000000000000e+00" nType="0">
        <Node pos="l" depth="1" NCoef="0" IVar="1" Cut="6.4975613355636597e-01" cType="0" res="5.5679178237915039e-01" rms="4.9676421284675598e-01" purity="1.0000000000000000e+00" nType="0">
          <Node pos="l" depth="2" NCoef="0" IVar="-1" Cut="0.0000000000000000e+00" cType="1" res="6.9494450092315674e-01" rms="4.6043092012405396e-01" purity="1.0000000000000000e+00" nType="-99"/>
          <Node pos="r" depth="2" NCoef="0" IVar="-1" Cut="0.0000000000000000e+00" cType="1" res="5.2951961755752563e-01" rms="4.9912783503532410e-01" purity="1.0000000000000000e+00" nType="-99"/>
        </Node>
        <Node pos="r" depth="1" NCoef="0" IVar="0" Cut="3.5863378643989563e-01" cType="0" res="4.2763397097587585e-01" rms="4.9473544955253601e-01" purity="1.0000000000000000e+00" nType="0">
          <Node pos="l" depth="2" NCoef="0" IVar="-1" Cut="0.0000000000000000e+00" cType="1" res="4.7964635491371155e-01" rms="4.9958556890487671e-01" purity="1.0000000000000000e+00" nType="-99"/>
          <Node pos="r" depth="2" NCoef="0" IVar="-1" Cut="0.0000000000000000e+00" cType="1" res="3.5633367300033569e-01" rms="4.7891542315483093e-01" purity="1.0000000000000000e+00" nType="-99"/>
        </Node>
      </Node>
    </BinaryTree>
    <BinaryTree type="DecisionTree" boostWeight="0.0000000000000000e+00" itree="39">
      <Node pos="s" depth="0" NCoef="0" IVar="1" Cut="4.9010798335075378e-01" cType="0" res="4.9966812133789062e-01" rms="4.9999988079071045e-01" purity="1.0000000000000000e+00" nType="0">
        <Node pos="l" depth="1" NCoef="0" IVar="1" Cut="6.4975613355636597e-01" cType="0" res="5.5679178237915039e-01" rms="4.9676421284675598e-01" purity="1.0000000000000000e+00" nType="0">
          <Node pos="l" depth="2" NCoef="0" IVar="-1" Cut="0.0000000000000000e+00" cType="1" res="6.9494450092315674e-01" rms="4.6043092012405396e-01" purity="1.0000000000000000e+00" nType="-99"/>
          <Node pos="r" depth="2" NCoef="0" IVar="-1" Cut="0.0000000000000000e+00" cType="1" res="5.2951961755752563e-01" rms="4.9912783503532410e-01" purity="1.0000000000000000e+00" nType="-99"/>
        </Node>
        <Node pos="r" depth="1" NCoef="0" IVar="0" Cut="3.5863378643989563e-01" cType="0" res="4.2763397097587585e-01" rms="4.9473544955253601e-01" purity="1.0000000000000000e+00" nType="0">
          <Node pos="l" depth="2" NCoef="0" IVar="-1" Cut="0.0000000000000000e+00" cType="1" res="4.7964635491371155e-01" rms="4.9958556890487671e-01" purity="1.0000000000000000e+00" nType="-99"/>
          <Node pos="r" depth="2" NCoef="0" IVar="-1" Cut="0.0000000000000000e+00" cType="1" res="3.5633367300033569e-01" rms="4.7891542315483093e-01" purity="1.0000000000000000e+00" nType="-99"/>
        </Node>
      </Node>
    </BinaryTree>
    <BinaryTree type="DecisionTree" boostWeight="0.0000000000000000e+00" itree="40">
      <Node pos="s" depth="0" NCoef="0" IVar="1" Cut="4.9010798335075378e-01" cType="0" res="4.9966812133789062e-01" rms="4.9999988079071045e-01" purity="1.0000000000000000e+00" nType="0">
        <Node pos="l" depth="1" NCoef="0" IVar="1" Cut="6.4975613355636597e-01" cType="0" res="5.5679178237915039e-01" rms="4.9676421284675598e-01" purity="1.0000000000000000e+00" nType="0">
          <Node pos="l" depth="2" NCoef="0" IVar="-1" Cut="0.0000000000000000e+00" cType="1" res="6.9494450092315674e-01" rms="4.6043092012405396e-01" purity="1.0000000000000000e+00" nType="-99"/>
          <Node pos="r" depth="2" NCoef="0" IVar="-1" Cut="0.0000000000000000e+00" cType="1" res="5.2951961755752563e-01" rms="4.9912783503532410e-01" purity="1.0000000000000000e+00" nType="-99"/>
        </Node>
        <Node pos="r" depth="1" NCoef="0" IVar="0" Cut="3.5863378643989563e-01" cType="0" res="4.2763397097587585e-01" rms="4.9473544955253601e-01" purity="1.0000000000000000e+00" nType="0">
          <Node pos="l" depth="2" NCoef="0" IVar="-1" Cut="0.0000000000000000e+00" cType="1" res="4.7964635491371155e-01" rms="4.9958556890487671e-01" purity="1.0000000000000000e+00" nType="-99"/>
          <Node pos="r" depth="2" NCoef="0" IVar="-1" Cut="0.0000000000000000e+00" cType="1" res="3.5633367300033569e-01" rms="4.7891542315483093e-01" purity="1.0000000000000000e+00" nType="-99"/>
        </Node>
      </Node>
    </BinaryTree>
    <BinaryTree type="DecisionTree" boostWeight="0.0000000000000000e+00" itree="41">
      <Node pos="s" depth="0" NCoef="0" IVar="1" Cut="4.9010798335075378e-01" cType="0" res="4.9966812133789062e-01" rms="4.9999988079071045e-01" purity="1.0000000000000000e+00" nType="0">
        <Node pos="l" depth="1" NCoef="0" IVar="1" Cut="6.4975613355636597e-01" cType="0" res="5.5679178237915039e-01" rms="4.9676421284675598e-01" purity="1.0000000000000000e+00" nType="0">
          <Node pos="l" depth="2" NCoef="0" IVar="-1" Cut="0.0000000000000000e+00" cType="1" res="6.9494450092315674e-01" rms="4.6043092012405396e-01" purity="1.0000000000000000e+00" nType="-99"/>
          <Node pos="r" depth="2" NCoef="0" IVar="-1" Cut="0.0000000000000000e+00" cType="1" res="5.2951961755752563e-01" rms="4.9912783503532410e-01" purity="1.0000000000000000e+00" nType="-99"/>
        </Node>
        <Node pos="r" depth="1" NCoef="0" IVar="0" Cut="3.5863378643989563e-01" cType="0" res="4.2763397097587585e-01" rms="4.9473544955253601e-01" purity="1.0000000000000000e+00" nType="0">
          <Node pos="l" depth="2" NCoef="0" IVar="-1" Cut="0.0000000000000000e+00" cType="1" res="4.7964635491371155e-01" rms="4.9958556890487671e-01" purity="1.0000000000000000e+00" nType="-99"/>
          <Node pos="r" depth="2" NCoef="0" IVar="-1" Cut="0.0000000000000000e+00" cType="1" res="3.5633367300033569e-01" rms="4.7891542315483093e-01" purity="1.0000000000000000e+00" nType="-99"/>
        </Node>
      </Node>
    </BinaryTree>
    <BinaryTree type="DecisionTree" boostWeight="0.0000000000000000e+00" itree="42">
      <Node pos="s" depth="0" NCoef="0" IVar="1" Cut="4.9010798335075378e-01" cType="0" res="4.9966812133789062e-01" rms="4.9999988079071045e-01" purity="1.0000000000000000e+00" nType="0">
        <Node pos="l" depth="1" NCoef="0" IVar="1" Cut="6.4975613355636597e-01" cType="0" res="5.5679178237915039e-01" rms="4.9676421284675598e-01" purity="1.0000000000000000e+00" nType="0">
          <Node pos="l" depth="2" NCoef="0" IVar="-1" Cut="0.0000000000000000e+00" cType="1" res="6.9494450092315674e-01" rms="4.6043092012405396e-01" purity="1.0000000000000000e+00" nType="-99"/>
          <Node pos="r" depth="2" NCoef="0" IVar="-1" Cut="0.0000000000000000e+00" cType="1" res="5.2951961755752563e-01" rms="4.9912783503532410e-01" purity="1.0000000000000000e+00" nType="-99"/>
        </Node>
        <Node pos="r" depth="1" NCoef="0" IVar="0" Cut="3.5863378643989563e-01" cType="0" res="4.2763397097587585e-01" rms="4.9473544955253601e-01" purity="1.0000000000000000e+00" nType="0">
          <Node pos="l" depth="2" NCoef="0" IVar="-1" Cut="0.0000000000000000e+00" cType="1" res="4.7964635491371155e-01" rms="4.9958556890487671e-01" purity="1.0000000000000000e+00" nType="-99"/>
          <Node pos="r" depth="2" NCoef="0" IVar="-1" Cut="0.0000000000000000e+00" cType="1" res="3.5633367300033569e-01" rms="4.7891542315483093e-01" purity="1.0000000000000000e+00" nType="-99"/>
        </Node>
      </Node>
    </BinaryTree>
    <BinaryTree type="DecisionTree" boostWeight="0.0000000000000000e+00" itree="43">
      <Node pos="s" depth="0" NCoef="0" IVar="1" Cut="4.9010798335075378e-01" cType="0" res="4.9966812133789062e-01" rms="4.9999988079071045e-01" purity="1.0000000000000000e+00" nType="0">
        <Node pos="l" depth="1" NCoef="0" IVar="1" Cut="6.4975613355636597e-01" cType="0" res="5.5679178237915039e-01" rms="4.9676421284675598e-01" purity="1.0000000000000000e+00" nType="0">
          <Node pos="l" depth="2" NCoef="0" IVar="-1" Cut="0.0000000000000000e+00" cType="1" res="6.9494450092315674e-01" rms="4.6043092012405396e-01" purity="1.0000000000000000e+00" nType="-99"/>
          <Node pos="r" depth="2" NCoef="0" IVar="-1" Cut="0.0000000000000000e+00" cType="1" res="5.2951961755752563e-01" rms="4.9912783503532410e-01" purity="1.0000000000000000e+00" nType="-99"/>
        </Node>
        <Node pos="r" depth="1" NCoef="0" IVar="0" Cut="3.5863378643989563e-01" cType="0" res="4.2763397097587585e-01" rms="4.9473544955253601e-01" purity="1.0000000000000000e+00" nType="0">
          <Node pos="l" depth="2" NCoef="0" IVar="-1" Cut="0.0000000000000000e+00" cType="1" res="4.7964635491371155e-01" rms="4.9958556890487671e-01" purity="1.0000000000000000e+00" nType="-99"/>
          <Node pos="r" depth="2" NCoef="0" IVar="-1" Cut="0.0000000000000000e+00" cType="1" res="3.5633367300033569e-01" rms="4.7891542315483093e-01" purity="1.0000000000000000e+00" nType="-99"/>
        </Node>
      </Node>
    </BinaryTree>
    <BinaryTree type="DecisionTree" boostWeight="0.0000000000000000e+00" itree="44">
      <Node pos="s" depth="0" NCoef="0" IVar="1" Cut="4.9010798335075378e-01" cType="0" res="4.9966812133789062e-01" rms="4.9999988079071045e-01" purity="1.0000000000000000e+00" nType="0">
        <Node pos="l" depth="1" NCoef="0" IVar="1" Cut="6.4975613355636597e-01" cType="0" res="5.5679178237915039e-01" rms="4.9676421284675598e-01" purity="1.0000000000000000e+00" nType="0">
          <Node pos="l" depth="2" NCoef="0" IVar="-1" Cut="0.0000000000000000e+00" cType="1" res="6.9494450092315674e-01" rms="4.6043092012405396e-01" purity="1.0000000000000000e+00" nType="-99"/>
          <Node pos="r" depth="2" NCoef="0" IVar="-1" Cut="0.0000000000000000e+00" cType="1" res="5.2951961755752563e-01" rms="4.9912783503532410e-01" purity="1.0000000000000000e+00" nType="-99"/>
        </Node>
        <Node pos="r" depth="1" NCoef="0" IVar="0" Cut="3.5863378643989563e-01" cType="0" res="4.2763397097587585e-01" rms="4.9473544955253601e-01" purity="1.0000000000000000e+00" nType="0">
          <Node pos="l" depth="2" NCoef="0" IVar="-1" Cut="0.0000000000000000e+00" cType="1" res="4.7964635491371155e-01" rms="4.9958556890487671e-01" purity="1.0000000000000000e+00" nType="-99"/>
          <Node pos="r" depth="2" NCoef="0" IVar="-1" Cut="0.0000000000000000e+00" cType="1" res="3.5633367300033569e-01" rms="4.7891542315483093e-01" purity="1.0000000000000000e+00" nType="-99"/>
        </Node>
      </Node>
    </BinaryTree>
    <BinaryTree type="DecisionTree" boostWeight="0.0000000000000000e+00" itree="45">
      <Node pos="s" depth="0" NCoef="0" IVar="1" Cut="4.9010798335075378e-01" cType="0" res="4.9966812133789062e-01" rms="4.9999988079071045e-01" purity="1.0000000000000000e+00" nType="0">
        <Node pos="l" depth="1" NCoef="0" IVar="1" Cut="6.4975613355636597e-01" cType="0" res="5.5679178237915039e-01" rms="4.9676421284675598e-01" purity="1.0000000000000000e+00" nType="0">
          <Node pos="l" depth="2" NCoef="0" IVar="-1" Cut="0.0000000000000000e+00" cType="1" res="6.9494450092315674e-01" rms="4.6043092012405396e-01" purity="1.0000000000000000e+00" nType="-99"/>
          <Node pos="r" depth="2" NCoef="0" IVar="-1" Cut="0.0000000000000000e+00" cType="1" res="5.2951961755752563e-01" rms="4.9912783503532410e-01" purity="1.0000000000000000e+00" nType="-99"/>
        </Node>
        <Node pos="r" depth="1" NCoef="0" IVar="0" Cut="3.5863378643989563e-01" cType="0" res="4.2763397097587585e-01" rms="4.9473544955253601e-01" purity="1.0000000000000000e+00" nType="0">
          <Node pos="l" depth="2" NCoef="0" IVar="-1" Cut="0.0000000000000000e+00" cType="1" res="4.7964635491371155e-01" rms="4.9958556890487671e-01" purity="1.0000000000000000e+00" nType="-99"/>
          <Node pos="r" depth="2" NCoef="0" IVar="-1" Cut="0.0000000000000000e+00" cType="1" res="3.5633367300033569e-01" rms="4.7891542315483093e-01" purity="1.0000000000000000e+00" nType="-99"/>
        </Node>
      </Node>
    </BinaryTree>
    <BinaryTree type="DecisionTree" boostWeight="0.0000000000000000e+00" itree="46">
      <Node pos="s" depth="0" NCoef="0" IVar="1" Cut="4.9010798335075378e-01" cType="0" res="4.9966812133789062e-01" rms="4.9999988079071045e-01" purity="1.0000000000000000e+00" nType="0">
        <Node pos="l" depth="1" NCoef="0" IVar="1" Cut="6.4975613355636597e-01" cType="0" res="5.5679178237915039e-01" rms="4.9676421284675598e-01" purity="1.0000000000000000e+00" nType="0">
          <Node pos="l" depth="2" NCoef="0" IVar="-1" Cut="0.0000000000000000e+00" cType="1" res="6.9494450092315674e-01" rms="4.6043092012405396e-01" purity="1.0000000000000000e+00" nType="-99"/>
          <Node pos="r" depth="2" NCoef="0" IVar="-1" Cut="0.0000000000000000e+00" cType="1" res="5.2951961755752563e-01" rms="4.9912783503532410e-01" purity="1.0000000000000000e+00" nType="-99"/>
        </Node>
        <Node pos="r" depth="1" NCoef="0" IVar="0" Cut="3.5863378643989563e-01" cType="0" res="4.2763397097587585e-01" rms="4.9473544955253601e-01" purity="1.0000000000000000e+00" nType="0">
          <Node pos="l" depth="2" NCoef="0" IVar="-1" Cut="0.0000000000000000e+00" cType="1" res="4.7964635491371155e-01" rms="4.9958556890487671e-01" purity="1.0000000000000000e+00" nType="-99"/>
          <Node pos="r" depth="2" NCoef="0" IVar="-1" Cut="0.0000000000000000e+00" cType="1" res="3.5633367300033569e-01" rms="4.7891542315483093e-01" purity="1.0000000000000000e+00" nType="-99"/>
        </Node>
      </Node>
    </BinaryTree>
    <BinaryTree type="DecisionTree" boostWeight="0.0000000000000000e+00" itree="47">
      <Node pos="s" depth="0" NCoef="0" IVar="1" Cut="4.9010798335075378e-01" cType="0" res="4.9966812133789062e-01" rms="4.9999988079071045e-01" purity="1.0000000000000000e+00" nType="0">
        <Node pos="l" depth="1" NCoef="0" IVar="1" Cut="6.4975613355636597e-01" cType="0" res="5.5679178237915039e-01" rms="4.9676421284675598e-01" purity="1.0000000000000000e+00" nType="0">
          <Node pos="l" depth="2" NCoef="0" IVar="-1" Cut="0.0000000000000000e+00" cType="1" res="6.9494450092315674e-01" rms="4.6043092012405396e-01" purity="1.0000000000000000e+00" nType="-99"/>
          <Node pos="r" depth="2" NCoef="0" IVar="-1" Cut="0.0000000000000000e+00" cType="1" res="5.2951961755752563e-01" rms="4.9912783503532410e-01" purity="1.0000000000000000e+00" nType="-99"/>
        </Node>
        <Node pos="r" depth="1" NCoef="0" IVar="0" Cut="3.5863378643989563e-01" cType="0" res="4.2763397097587585e-01" rms="4.9473544955253601e-01" purity="1.0000000000000000e+00" nType="0">
          <Node pos="l" depth="2" NCoef="0" IVar="-1" Cut="0.0000000000000000e+00" cType="1" res="4.7964635491371155e-01" rms="4.9958556890487671e-01" purity="1.0000000000000000e+00" nType="-99"/>
          <Node pos="r" depth="2" NCoef="0" IVar="-1" Cut="0.0000000000000000e+00" cType="1" res="3.5633367300033569e-01" rms="4.7891542315483093e-01" purity="1.0000000000000000e+00" nType="-99"/>
        </Node>
      </Node>
    </BinaryTree>
    <BinaryTree type="DecisionTree" boostWeight="0.0000000000000000e+00" itree="48">
      <Node pos="s" depth="0" NCoef="0" IVar="1" Cut="4.9010798335075378e-01" cType="0" res="4.9966812133789062e-01" rms="4.9999988079071045e-01" purity="1.0000000000000000e+00" nType="0">
        <Node pos="l" depth="1" NCoef="0" IVar="1" Cut="6.4975613355636597e-01" cType="0" res="5.5679178237915039e-01" rms="4.9676421284675598e-01" purity="1.0000000000000000e+00" nType="0">
          <Node pos="l" depth="2" NCoef="0" IVar="-1" Cut="0.0000000000000000e+00" cType="1" res="6.9494450092315674e-01" rms="4.6043092012405396e-01" purity="1.0000000000000000e+00" nType="-99"/>
          <Node pos="r" depth="2" NCoef="0" IVar="-1" Cut="0.0000000000000000e+00" cType="1" res="5.2951961755752563e-01" rms="4.9912783503532410e-01" purity="1.0000000000000000e+00" nType="-99"/>
        </Node>
        <Node pos="r" depth="1" NCoef="0" IVar="0" Cut="3.5863378643989563e-01" cType="0" res="4.2763397097587585e-01" rms="4.9473544955253601e-01" purity="1.0000000000000000e+00" nType="0">
          <Node pos="l" depth="2" NCoef="0" IVar="-1" Cut="0.0000000000000000e+00" cType="1" res="4.7964635491371155e-01" rms="4.9958556890487671e-01" purity="1.0000000000000000e+00" nType="-99"/>
          <Node pos="r" depth="2" NCoef="0" IVar="-1" Cut="0.0000000000000000e+00" cType="1" res="3.5633367300033569e-01" rms="4.7891542315483093e-01" purity="1.0000000000000000e+00" nType="-99"/>
        </Node>
      </Node>
    </BinaryTree>
    <BinaryTree type="DecisionTree" boostWeight="0.0000000000000000e+00" itree="49">
      <Node pos="s" depth="0" NCoef="0" IVar="1" Cut="4.9010798335075378e-01" cType="0" res="4.9966812133789062e-01" rms="4.9999988079071045e-01" purity="1.0000000000000000e+00" nType="0">
        <Node pos="l" depth="1" NCoef="0" IVar="1" Cut="6.4975613355636597e-01" cType="0" res="5.5679178237915039e-01" rms="4.9676421284675598e-01" purity="1.0000000000000000e+00" nType="0">
          <Node pos="l" depth="2" NCoef="0" IVar="-1" Cut="0.0000000000000000e+00" cType="1" res="6.9494450092315674e-01" rms="4.6043092012405396e-01" purity="1.0000000000000000e+00" nType="-99"/>
          <Node pos="r" depth="2" NCoef="0" IVar="-1" Cut="0.0000000000000000e+00" cType="1" res="5.2951961755752563e-01" rms="4.9912783503532410e-01" purity="1.0000000000000000e+00" nType="-99"/>
        </Node>
        <Node pos="r" depth="1" NCoef="0" IVar="0" Cut="3.5863378643989563e-01" cType="0" res="4.2763397097587585e-01" rms="4.9473544955253601e-01" purity="1.0000000000000000e+00" nType="0">
          <Node pos="l" depth="2" NCoef="0" IVar="-1" Cut="0.0000000000000000e+00" cType="1" res="4.7964635491371155e-01" rms="4.9958556890487671e-01" purity="1.0000000000000000e+00" nType="-99"/>
          <Node pos="r" depth="2" NCoef="0" IVar="-1" Cut="0.0000000000000000e+00" cType="1" res="3.5633367300033569e-01" rms="4.7891542315483093e-01" purity="1.0000000000000000e+00" nType="-99"/>
        </Node>
      </Node>
    </BinaryTree>
    <BinaryTree type="DecisionTree" boostWeight="0.0000000000000000e+00" itree="50">
      <Node pos="s" depth="0" NCoef="0" IVar="1" Cut="4.9010798335075378e-01" cType="0" res="4.9966812133789062e-01" rms="4.9999988079071045e-01" purity="1.0000000000000000e+00" nType="0">
        <Node pos="l" depth="1" NCoef="0" IVar="1" Cut="6.4975613355636597e-01" cType="0" res="5.5679178237915039e-01" rms="4.9676421284675598e-01" purity="1.0000000000000000e+00" nType="0">
          <Node pos="l" depth="2" NCoef="0" IVar="-1" Cut="0.0000000000000000e+00" cType="1" res="6.9494450092315674e-01" rms="4.6043092012405396e-01" purity="1.0000000000000000e+00" nType="-99"/>
          <Node pos="r" depth="2" NCoef="0" IVar="-1" Cut="0.0000000000000000e+00" cType="1" res="5.2951961755752563e-01" rms="4.9912783503532410e-01" purity="1.0000000000000000e+00" nType="-99"/>
        </Node>
        <Node pos="r" depth="1" NCoef="0" IVar="0" Cut="3.5863378643989563e-01" cType="0" res="4.2763397097587585e-01" rms="4.9473544955253601e-01" purity="1.0000000000000000e+00" nType="0">
          <Node pos="l" depth="2" NCoef="0" IVar="-1" Cut="0.0000000000000000e+00" cType="1" res="4.7964635491371155e-01" rms="4.9958556890487671e-01" purity="1.0000000000000000e+00" nType="-99"/>
          <Node pos="r" depth="2" NCoef="0" IVar="-1" Cut="0.0000000000000000e+00" cType="1" res="3.5633367300033569e-01" rms="4.7891542315483093e-01" purity="1.0000000000000000e+00" nType="-99"/>
        </Node>
      </Node>
    </BinaryTree>
    <BinaryTree type="DecisionTree" boostWeight="0.0000000000000000e+00" itree="51">
      <Node pos="s" depth="0" NCoef="0" IVar="1" Cut="4.9010798335075378e-01" cType="0" res="4.9966812133789062e-01" rms="4.9999988079071045e-01" purity="1.0000000000000000e+00" nType="0">
        <Node pos="l" depth="1" NCoef="0" IVar="1" Cut="6.4975613355636597e-01" cType="0" res="5.5679178237915039e-01" rms="4.9676421284675598e-01" purity="1.0000000000000000e+00" nType="0">
          <Node pos="l" depth="2" NCoef="0" IVar="-1" Cut="0.0000000000000000e+00" cType="1" res="6.9494450092315674e-01" rms="4.6043092012405396e-01" purity="1.0000000000000000e+00" nType="-99"/>
          <Node pos="r" depth="2" NCoef="0" IVar="-1" Cut="0.0000000000000000e+00" cType="1" res="5.2951961755752563e-01" rms="4.9912783503532410e-01" purity="1.0000000000000000e+00" nType="-99"/>
        </Node>
        <Node pos="r" depth="1" NCoef="0" IVar="0" Cut="3.5863378643989563e-01" cType="0" res="4.2763397097587585e-01" rms="4.9473544955253601e-01" purity="1.0000000000000000e+00" nType="0">
          <Node pos="l" depth="2" NCoef="0" IVar="-1" Cut="0.0000000000000000e+00" cType="1" res="4.7964635491371155e-01" rms="4.9958556890487671e-01" purity="1.0000000000000000e+00" nType="-99"/>
          <Node pos="r" depth="2" NCoef="0" IVar="-1" Cut="0.0000000000000000e+00" cType="1" res="3.5633367300033569e-01" rms="4.7891542315483093e-01" purity="1.0000000000000000e+00" nType="-99"/>
        </Node>
      </Node>
    </BinaryTree>
    <BinaryTree type="DecisionTree" boostWeight="0.0000000000000000e+00" itree="52">
      <Node pos="s" depth="0" NCoef="0" IVar="1" Cut="4.9010798335075378e-01" cType="0" res="4.9966812133789062e-01" rms="4.9999988079071045e-01" purity="1.0000000000000000e+00" nType="0">
        <Node pos="l" depth="1" NCoef="0" IVar="1" Cut="6.4975613355636597e-01" cType="0" res="5.5679178237915039e-01" rms="4.9676421284675598e-01" purity="1.0000000000000000e+00" nType="0">
          <Node pos="l" depth="2" NCoef="0" IVar="-1" Cut="0.0000000000000000e+00" cType="1" res="6.9494450092315674e-01" rms="4.6043092012405396e-01" purity="1.0000000000000000e+00" nType="-99"/>
          <Node pos="r" depth="2" NCoef="0" IVar="-1" Cut="0.0000000000000000e+00" cType="1" res="5.2951961755752563e-01" rms="4.9912783503532410e-01" purity="1.0000000000000000e+00" nType="-99"/>
        </Node>
        <Node pos="r" depth="1" NCoef="0" IVar="0" Cut="3.5863378643989563e-01" cType="0" res="4.2763397097587585e-01" rms="4.9473544955253601e-01" purity="1.0000000000000000e+00" nType="0">
          <Node pos="l" depth="2" NCoef="0" IVar="-1" Cut="0.0000000000000000e+00" cType="1" res="4.7964635491371155e-01" rms="4.9958556890487671e-01" purity="1.0000000000000000e+00" nType="-99"/>
          <Node pos="r" depth="2" NCoef="0" IVar="-1" Cut="0.0000000000000000e+00" cType="1" res="3.5633367300033569e-01" rms="4.7891542315483093e-01" purity="1.0000000000000000e+00" nType="-99"/>
        </Node>
      </Node>
    </BinaryTree>
    <BinaryTree type="DecisionTree" boostWeight="0.0000000000000000e+00" itree="53">
      <Node pos="s" depth="0" NCoef="0" IVar="1" Cut="4.9010798335075378e-01" cType="0" res="4.9966812133789062e-01" rms="4.9999988079071045e-01" purity="1.0000000000000000e+00" nType="0">
        <Node pos="l" depth="1" NCoef="0" IVar="1" Cut="6.4975613355636597e-01" cType="0" res="5.5679178237915039e-01" rms="4.9676421284675598e-01" purity="1.0000000000000000e+00" nType="0">
          <Node pos="l" depth="2" NCoef="0" IVar="-1" Cut="0.0000000000000000e+00" cType="1" res="6.9494450092315674e-01" rms="4.6043092012405396e-01" purity="1.0000000000000000e+00" nType="-99"/>
          <Node pos="r" depth="2" NCoef="0" IVar="-1" Cut="0.0000000000000000e+00" cType="1" res="5.2951961755752563e-01" rms="4.9912783503532410e-01" purity="1.0000000000000000e+00" nType="-99"/>
        </Node>
        <Node pos="r" depth="1" NCoef="0" IVar="0" Cut="3.5863378643989563e-01" cType="0" res="4.2763397097587585e-01" rms="4.9473544955253601e-01" purity="1.0000000000000000e+00" nType="0">
          <Node pos="l" depth="2" NCoef="0" IVar="-1" Cut="0.0000000000000000e+00" cType="1" res="4.7964635491371155e-01" rms="4.9958556890487671e-01" purity="1.0000000000000000e+00" nType="-99"/>
          <Node pos="r" depth="2" NCoef="0" IVar="-1" Cut="0.0000000000000000e+00" cType="1" res="3.5633367300033569e-01" rms="4.7891542315483093e-01" purity="1.0000000000000000e+00" nType="-99"/>
        </Node>
      </Node>
    </BinaryTree>
    <BinaryTree type="DecisionTree" boostWeight="0.0000000000000000e+00" itree="54">
      <Node pos="s" depth="0" NCoef="0" IVar="1" Cut="4.9010798335075378e-01" cType="0" res="4.9966812133789062e-01" rms="4.9999988079071045e-01" purity="1.0000000000000000e+00" nType="0">
        <Node pos="l" depth="1" NCoef="0" IVar="1" Cut="6.4975613355636597e-01" cType="0" res="5.5679178237915039e-01" rms="4.9676421284675598e-01" purity="1.0000000000000000e+00" nType="0">
          <Node pos="l" depth="2" NCoef="0" IVar="-1" Cut="0.0000000000000000e+00" cType="1" res="6.9494450092315674e-01" rms="4.6043092012405396e-01" purity="1.0000000000000000e+00" nType="-99"/>
          <Node pos="r" depth="2" NCoef="0" IVar="-1" Cut="0.0000000000000000e+00" cType="1" res="5.2951961755752563e-01" rms="4.9912783503532410e-01" purity="1.0000000000000000e+00" nType="-99"/>
        </Node>
        <Node pos="r" depth="1" NCoef="0" IVar="0" Cut="3.5863378643989563e-01" cType="0" res="4.2763397097587585e-01" rms="4.9473544955253601e-01" purity="1.0000000000000000e+00" nType="0">
          <Node pos="l" depth="2" NCoef="0" IVar="-1" Cut="0.0000000000000000e+00" cType="1" res="4.7964635491371155e-01" rms="4.9958556890487671e-01" purity="1.0000000000000000e+00" nType="-99"/>
          <Node pos="r" depth="2" NCoef="0" IVar="-1" Cut="0.0000000000000000e+00" cType="1" res="3.5633367300033569e-01" rms="4.7891542315483093e-01" purity="1.0000000000000000e+00" nType="-99"/>
        </Node>
      </Node>
    </BinaryTree>
    <BinaryTree type="DecisionTree" boostWeight="0.0000000000000000e+00" itree="55">
      <Node pos="s" depth="0" NCoef="0" IVar="1" Cut="4.9010798335075378e-01" cType="0" res="4.9966812133789062e-01" rms="4.9999988079071045e-01" purity="1.0000000000000000e+00" nType="0">
        <Node pos="l" depth="1" NCoef="0" IVar="1" Cut="6.4975613355636597e-01" cType="0" res="5.5679178237915039e-01" rms="4.9676421284675598e-01" purity="1.0000000000000000e+00" nType="0">
          <Node pos="l" depth="2" NCoef="0" IVar="-1" Cut="0.0000000000000000e+00" cType="1" res="6.9494450092315674e-01" rms="4.6043092012405396e-01" purity="1.0000000000000000e+00" nType="-99"/>
          <Node pos="r" depth="2" NCoef="0" IVar="-1" Cut="0.0000000000000000e+00" cType="1" res="5.2951961755752563e-01" rms="4.9912783503532410e-01" purity="1.0000000000000000e+00" nType="-99"/>
        </Node>
        <Node pos="r" depth="1" NCoef="0" IVar="0" Cut="3.5863378643989563e-01" cType="0" res="4.2763397097587585e-01" rms="4.9473544955253601e-01" purity="1.0000000000000000e+00" nType="0">
          <Node pos="l" depth="2" NCoef="0" IVar="-1" Cut="0.0000000000000000e+00" cType="1" res="4.7964635491371155e-01" rms="4.9958556890487671e-01" purity="1.0000000000000000e+00" nType="-99"/>
          <Node pos="r" depth="2" NCoef="0" IVar="-1" Cut="0.0000000000000000e+00" cType="1" res="3.5633367300033569e-01" rms="4.7891542315483093e-01" purity="1.0000000000000000e+00" nType="-99"/>
        </Node>
      </Node>
    </BinaryTree>
    <BinaryTree type="DecisionTree" boostWeight="0.0000000000000000e+00" itree="56">
      <Node pos="s" depth="0" NCoef="0" IVar="1" Cut="4.9010798335075378e-01" cType="0" res="4.9966812133789062e-01" rms="4.9999988079071045e-01" purity="1.0000000000000000e+00" nType="0">
        <Node pos="l" depth="1" NCoef="0" IVar="1" Cut="6.4975613355636597e-01" cType="0" res="5.5679178237915039e-01" rms="4.9676421284675598e-01" purity="1.0000000000000000e+00" nType="0">
          <Node pos="l" depth="2" NCoef="0" IVar="-1" Cut="0.0000000000000000e+00" cType="1" res="6.9494450092315674e-01" rms="4.6043092012405396e-01" purity="1.0000000000000000e+00" nType="-99"/>
          <Node pos="r" depth="2" NCoef="0" IVar="-1" Cut="0.0000000000000000e+00" cType="1" res="5.2951961755752563e-01" rms="4.9912783503532410e-01" purity="1.0000000000000000e+00" nType="-99"/>
        </Node>
        <Node pos="r" depth="1" NCoef="0" IVar="0" Cut="3.5863378643989563e-01" cType="0" res="4.2763397097587585e-01" rms="4.9473544955253601e-01" purity="1.0000000000000000e+00" nType="0">
          <Node pos="l" depth="2" NCoef="0" IVar="-1" Cut="0.0000000000000000e+00" cType="1" res="4.7964635491371155e-01" rms="4.9958556890487671e-01" purity="1.0000000000000000e+00" nType="-99"/>
          <Node pos="r" depth="2" NCoef="0" IVar="-1" Cut="0.0000000000000000e+00" cType="1" res="3.5633367300033569e-01" rms="4.7891542315483093e-01" purity="1.0000000000000000e+00" nType="-99"/>
        </Node>
      </Node>
    </BinaryTree>
    <BinaryTree type="DecisionTree" boostWeight="0.0000000000000000e+00" itree="57">
      <Node pos="s" depth="0" NCoef="0" IVar="1" Cut="4.9010798335075378e-01" cType="0" res="4.9966812133789062e-01" rms="4.9999988079071045e-01" purity="1.0000000000000000e+00" nType="0">
        <Node pos="l" depth="1" NCoef="0" IVar="1" Cut="6.4975613355636597e-01" cType="0" res="5.5679178237915039e-01" rms="4.9676421284675598e-01" purity="1.0000000000000000e+00" nType="0">
          <Node pos="l" depth="2" NCoef="0" IVar="-1" Cut="0.0000000000000000e+00" cType="1" res="6.9494450092315674e-01" rms="4.6043092012405396e-01" purity="1.0000000000000000e+00" nType="-99"/>
          <Node pos="r" depth="2" NCoef="0" IVar="-1" Cut="0.0000000000000000e+00" cType="1" res="5.2951961755752563e-01" rms="4.9912783503532410e-01" purity="1.0000000000000000e+00" nType="-99"/>
        </Node>
        <Node pos="r" depth="1" NCoef="0" IVar="0" Cut="3.5863378643989563e-01" cType="0" res="4.2763397097587585e-01" rms="4.9473544955253601e-01" purity="1.0000000000000000e+00" nType="0">
          <Node pos="l" depth="2" NCoef="0" IVar="-1" Cut="0.0000000000000000e+00" cType="1" res="4.7964635491371155e-01" rms="4.9958556890487671e-01" purity="1.0000000000000000e+00" nType="-99"/>
          <Node pos="r" depth="2" NCoef="0" IVar="-1" Cut="0.0000000000000000e+00" cType="1" res="3.5633367300033569e-01" rms="4.7891542315483093e-01" purity="1.0000000000000000e+00" nType="-99"/>
        </Node>
      </Node>
    </BinaryTree>
    <BinaryTree type="DecisionTree" boostWeight="0.0000000000000000e+00" itree="58">
      <Node pos="s" depth="0" NCoef="0" IVar="1" Cut="4.9010798335075378e-01" cType="0" res="4.9966812133789062e-01" rms="4.9999988079071045e-01" purity="1.0000000000000000e+00" nType="0">
        <Node pos="l" depth="1" NCoef="0" IVar="1" Cut="6.4975613355636597e-01" cType="0" res="5.5679178237915039e-01" rms="4.9676421284675598e-01" purity="1.0000000000000000e+00" nType="0">
          <Node pos="l" depth="2" NCoef="0" IVar="-1" Cut="0.0000000000000000e+00" cType="1" res="6.9494450092315674e-01" rms="4.6043092012405396e-01" purity="1.0000000000000000e+00" nType="-99"/>
          <Node pos="r" depth="2" NCoef="0" IVar="-1" Cut="0.0000000000000000e+00" cType="1" res="5.2951961755752563e-01" rms="4.9912783503532410e-01" purity="1.0000000000000000e+00" nType="-99"/>
        </Node>
        <Node pos="r" depth="1" NCoef="0" IVar="0" Cut="3.5863378643989563e-01" cType="0" res="4.2763397097587585e-01" rms="4.9473544955253601e-01" purity="1.0000000000000000e+00" nType="0">
          <Node pos="l" depth="2" NCoef="0" IVar="-1" Cut="0.0000000000000000e+00" cType="1" res="4.7964635491371155e-01" rms="4.9958556890487671e-01" purity="1.0000000000000000e+00" nType="-99"/>
          <Node pos="r" depth="2" NCoef="0" IVar="-1" Cut="0.0000000000000000e+00" cType="1" res="3.5633367300033569e-01" rms="4.7891542315483093e-01" purity="1.0000000000000000e+00" nType="-99"/>
        </Node>
      </Node>
    </BinaryTree>
    <BinaryTree type="DecisionTree" boostWeight="0.0000000000000000e+00" itree="59">
      <Node pos="s" depth="0" NCoef="0" IVar="1" Cut="4.9010798335075378e-01" cType="0" res="4.9966812133789062e-01" rms="4.9999988079071045e-01" purity="1.0000000000000000e+00" nType="0">
        <Node pos="l" depth="1" NCoef="0" IVar="1" Cut="6.4975613355636597e-01" cType="0" res="5.5679178237915039e-01" rms="4.9676421284675598e-01" purity="1.0000000000000000e+00" nType="0">
          <Node pos="l" depth="2" NCoef="0" IVar="-1" Cut="0.0000000000000000e+00" cType="1" res="6.9494450092315674e-01" rms="4.6043092012405396e-01" purity="1.0000000000000000e+00" nType="-99"/>
          <Node pos="r" depth="2" NCoef="0" IVar="-1" Cut="0.0000000000000000e+00" cType="1" res="5.2951961755752563e-01" rms="4.9912783503532410e-01" purity="1.0000000000000000e+00" nType="-99"/>
        </Node>
        <Node pos="r" depth="1" NCoef="0" IVar="0" Cut="3.5863378643989563e-01" cType="0" res="4.2763397097587585e-01" rms="4.9473544955253601e-01" purity="1.0000000000000000e+00" nType="0">
          <Node pos="l" depth="2" NCoef="0" IVar="-1" Cut="0.0000000000000000e+00" cType="1" res="4.7964635491371155e-01" rms="4.9958556890487671e-01" purity="1.0000000000000000e+00" nType="-99"/>
          <Node pos="r" depth="2" NCoef="0" IVar="-1" Cut="0.0000000000000000e+00" cType="1" res="3.5633367300033569e-01" rms="4.7891542315483093e-01" purity="1.0000000000000000e+00" nType="-99"/>
        </Node>
      </Node>
    </BinaryTree>
    <BinaryTree type="DecisionTree" boostWeight="0.0000000000000000e+00" itree="60">
      <Node pos="s" depth="0" NCoef="0" IVar="1" Cut="4.9010798335075378e-01" cType="0" res="4.9966812133789062e-01" rms="4.9999988079071045e-01" purity="1.0000000000000000e+00" nType="0">
        <Node pos="l" depth="1" NCoef="0" IVar="1" Cut="6.4975613355636597e-01" cType="0" res="5.5679178237915039e-01" rms="4.9676421284675598e-01" purity="1.0000000000000000e+00" nType="0">
          <Node pos="l" depth="2" NCoef="0" IVar="-1" Cut="0.0000000000000000e+00" cType="1" res="6.9494450092315674e-01" rms="4.6043092012405396e-01" purity="1.0000000000000000e+00" nType="-99"/>
          <Node pos="r" depth="2" NCoef="0" IVar="-1" Cut="0.0000000000000000e+00" cType="1" res="5.2951961755752563e-01" rms="4.9912783503532410e-01" purity="1.0000000000000000e+00" nType="-99"/>
        </Node>
        <Node pos="r" depth="1" NCoef="0" IVar="0" Cut="3.5863378643989563e-01" cType="0" res="4.2763397097587585e-01" rms="4.9473544955253601e-01" purity="1.0000000000000000e+00" nType="0">
          <Node pos="l" depth="2" NCoef="0" IVar="-1" Cut="0.0000000000000000e+00" cType="1" res="4.7964635491371155e-01" rms="4.9958556890487671e-01" purity="1.0000000000000000e+00" nType="-99"/>
          <Node pos="r" depth="2" NCoef="0" IVar="-1" Cut="0.0000000000000000e+00" cType="1" res="3.5633367300033569e-01" rms="4.7891542315483093e-01" purity="1.0000000000000000e+00" nType="-99"/>
        </Node>
      </Node>
    </BinaryTree>
    <BinaryTree type="DecisionTree" boostWeight="0.0000000000000000e+00" itree="61">
      <Node pos="s" depth="0" NCoef="0" IVar="1" Cut="4.9010798335075378e-01" cType="0" res="4.9966812133789062e-01" rms="4.9999988079071045e-01" purity="1.0000000000000000e+00" nType="0">
        <Node pos="l" depth="1" NCoef="0" IVar="1" Cut="6.4975613355636597e-01" cType="0" res="5.5679178237915039e-01" rms="4.9676421284675598e-01" purity="1.0000000000000000e+00" nType="0">
          <Node pos="l" depth="2" NCoef="0" IVar="-1" Cut="0.0000000000000000e+00" cType="1" res="6.9494450092315674e-01" rms="4.6043092012405396e-01" purity="1.0000000000000000e+00" nType="-99"/>
          <Node pos="r" depth="2" NCoef="0" IVar="-1" Cut="0.0000000000000000e+00" cType="1" res="5.2951961755752563e-01" rms="4.9912783503532410e-01" purity="1.0000000000000000e+00" nType="-99"/>
        </Node>
        <Node pos="r" depth="1" NCoef="0" IVar="0" Cut="3.5863378643989563e-01" cType="0" res="4.2763397097587585e-01" rms="4.9473544955253601e-01" purity="1.0000000000000000e+00" nType="0">
          <Node pos="l" depth="2" NCoef="0" IVar="-1" Cut="0.0000000000000000e+00" cType="1" res="4.7964635491371155e-01" rms="4.9958556890487671e-01" purity="1.0000000000000000e+00" nType="-99"/>
          <Node pos="r" depth="2" NCoef="0" IVar="-1" Cut="0.0000000000000000e+00" cType="1" res="3.5633367300033569e-01" rms="4.7891542315483093e-01" purity="1.0000000000000000e+00" nType="-99"/>
        </Node>
      </Node>
    </BinaryTree>
    <BinaryTree type="DecisionTree" boostWeight="0.0000000000000000e+00" itree="62">
      <Node pos="s" depth="0" NCoef="0" IVar="1" Cut="4.9010798335075378e-01" cType="0" res="4.9966812133789062e-01" rms="4.9999988079071045e-01" purity="1.0000000000000000e+00" nType="0">
        <Node pos="l" depth="1" NCoef="0" IVar="1" Cut="6.4975613355636597e-01" cType="0" res="5.5679178237915039e-01" rms="4.9676421284675598e-01" purity="1.0000000000000000e+00" nType="0">
          <Node pos="l" depth="2" NCoef="0" IVar="-1" Cut="0.0000000000000000e+00" cType="1" res="6.9494450092315674e-01" rms="4.6043092012405396e-01" purity="1.0000000000000000e+00" nType="-99"/>
          <Node pos="r" depth="2" NCoef="0" IVar="-1" Cut="0.0000000000000000e+00" cType="1" res="5.2951961755752563e-01" rms="4.9912783503532410e-01" purity="1.0000000000000000e+00" nType="-99"/>
        </Node>
        <Node pos="r" depth="1" NCoef="0" IVar="0" Cut="3.5863378643989563e-01" cType="0" res="4.2763397097587585e-01" rms="4.9473544955253601e-01" purity="1.0000000000000000e+00" nType="0">
          <Node pos="l" depth="2" NCoef="0" IVar="-1" Cut="0.0000000000000000e+00" cType="1" res="4.7964635491371155e-01" rms="4.9958556890487671e-01" purity="1.0000000000000000e+00" nType="-99"/>
          <Node pos="r" depth="2" NCoef="0" IVar="-1" Cut="0.0000000000000000e+00" cType="1" res="3.5633367300033569e-01" rms="4.7891542315483093e-01" purity="1.0000000000000000e+00" nType="-99"/>
        </Node>
      </Node>
    </BinaryTree>
    <BinaryTree type="DecisionTree" boostWeight="0.0000000000000000e+00" itree="63">
      <Node pos="s" depth="0" NCoef="0" IVar="1" Cut="4.9010798335075378e-01" cType="0" res="4.9966812133789062e-01" rms="4.9999988079071045e-01" purity="1.0000000000000000e+00" nType="0">
        <Node pos="l" depth="1" NCoef="0" IVar="1" Cut="6.4975613355636597e-01" cType="0" res="5.5679178237915039e-01" rms="4.9676421284675598e-01" purity="1.0000000000000000e+00" nType="0">
          <Node pos="l" depth="2" NCoef="0" IVar="-1" Cut="0.0000000000000000e+00" cType="1" res="6.9494450092315674e-01" rms="4.6043092012405396e-01" purity="1.0000000000000000e+00" nType="-99"/>
          <Node pos="r" depth="2" NCoef="0" IVar="-1" Cut="0.0000000000000000e+00" cType="1" res="5.2951961755752563e-01" rms="4.9912783503532410e-01" purity="1.0000000000000000e+00" nType="-99"/>
        </Node>
        <Node pos="r" depth="1" NCoef="0" IVar="0" Cut="3.5863378643989563e-01" cType="0" res="4.2763397097587585e-01" rms="4.9473544955253601e-01" purity="1.0000000000000000e+00" nType="0">
