<?xml version="1.0"?>
<MethodSetup Method="MLP::MLP">
  <GeneralInfo>
    <Info name="TMVA Release" value="4.1.4 [262404]"/>
    <Info name="ROOT Release" value="5.34/05 [336389]"/>
    <Info name="Creator" value="clester"/>
    <Info name="Date" value="Tue Mar 18 10:09:01 2014"/>
    <Info name="Host" value="Darwin pb-d-128-141-154-76.cern.ch 12.2.1 Darwin Kernel Version 12.2.1: Thu Oct 18 16:32:48 PDT 2012; root:xnu-2050.20.9~2/RELEASE_X86_64 x86_64"/>
    <Info name="Dir" value="/Users/clester/marchMadnessChallenge"/>
    <Info name="Training events" value="1093"/>
    <Info name="TrainingTime" value="8.42394528e+01"/>
    <Info name="AnalysisType" value="Regression"/>
  </GeneralInfo>
  <Options>
    <Option name="NCycles" modified="Yes">6000</Option>
    <Option name="HiddenLayers" modified="Yes">N+5</Option>
    <Option name="NeuronType" modified="Yes">tanh</Option>
    <Option name="RandomSeed" modified="No">1</Option>
    <Option name="EstimatorType" modified="No">MSE</Option>
    <Option name="NeuronInputType" modified="No">sum</Option>
    <Option name="V" modified="Yes">False</Option>
    <Option name="VerbosityLevel" modified="No">Default</Option>
    <Option name="VarTransform" modified="Yes">Norm</Option>
    <Option name="H" modified="Yes">False</Option>
    <Option name="CreateMVAPdfs" modified="No">False</Option>
    <Option name="IgnoreNegWeightsInTraining" modified="No">False</Option>
    <Option name="TrainingMethod" modified="No">BP</Option>
    <Option name="LearningRate" modified="No">2.000000e-02</Option>
    <Option name="DecayRate" modified="No">1.000000e-02</Option>
    <Option name="TestRate" modified="Yes">6</Option>
    <Option name="EpochMonitoring" modified="No">False</Option>
    <Option name="Sampling" modified="No">1.000000e+00</Option>
    <Option name="SamplingEpoch" modified="No">1.000000e+00</Option>
    <Option name="SamplingImportance" modified="No">1.000000e+00</Option>
    <Option name="SamplingTraining" modified="No">True</Option>
    <Option name="SamplingTesting" modified="No">False</Option>
    <Option name="ResetStep" modified="No">50</Option>
    <Option name="Tau" modified="No">3.000000e+00</Option>
    <Option name="BPMode" modified="No">sequential</Option>
    <Option name="BatchSize" modified="No">-1</Option>
    <Option name="ConvergenceImprove" modified="No">1.000000e-30</Option>
    <Option name="ConvergenceTests" modified="No">-1</Option>
    <Option name="UseRegulator" modified="Yes">True</Option>
    <Option name="UpdateLimit" modified="No">10000</Option>
    <Option name="CalculateErrors" modified="No">False</Option>
    <Option name="WeightRange" modified="No">1.000000e+00</Option>
  </Options>
  <Variables NVar="4">
    <Variable VarIndex="0" Expression="seed_prob" Label="seed_prob" Title="seed_prob" Unit="" Internal="seed_prob" Type="F" Min="0.00000000e+00" Max="1.00000000e+00"/>
    <Variable VarIndex="1" Expression="winfrac1-winfrac2" Label="winfrac1-winfrac2" Title="winfrac1-winfrac2" Unit="" Internal="winfrac1_M_winfrac2" Type="F" Min="-5.04464269e-01" Max="6.11607134e-01"/>
    <Variable VarIndex="2" Expression="avg_scorediff1-avg_scorediff2" Label="avg_scorediff1-avg_scorediff2" Title="avg_scorediff1-avg_scorediff2" Unit="" Internal="avg_scorediff1_M_avg_scorediff2" Type="F" Min="-2.33035717e+01" Max="2.90575752e+01"/>
    <Variable VarIndex="3" Expression="avg_score_against1-avg_score_against2" Label="avg_score_against1-avg_score_against2" Title="avg_score_against1-avg_score_against2" Unit="" Internal="avg_score_against1_M_avg_score_against2" Type="F" Min="-2.50357170e+01" Max="2.12218971e+01"/>
  </Variables>
  <Spectators NSpec="1">
    <Spectator SpecIndex="0" Expression="season" Label="season" Title="season" Unit="" Internal="season" Type="F" Min="6.50000000e+01" Max="8.20000000e+01"/>
  </Spectators>
  <Classes NClass="1">
    <Class Name="Regression" Index="0"/>
  </Classes>
  <Targets NTrgt="1">
    <Target TargetIndex="0" Expression="game_outcome" Label="game_outcome" Title="game_outcome" Unit="" Internal="game_outcome" Type="F" Min="0.00000000e+00" Max="1.00000000e+00"/>
  </Targets>
  <Transformations NTransformations="1">
    <Transform Name="Normalize">
      <Selection>
        <Input NInputs="5">
          <Input Type="Variable" Label="seed_prob" Expression="seed_prob"/>
          <Input Type="Variable" Label="winfrac1-winfrac2" Expression="winfrac1-winfrac2"/>
          <Input Type="Variable" Label="avg_scorediff1-avg_scorediff2" Expression="avg_scorediff1-avg_scorediff2"/>
          <Input Type="Variable" Label="avg_score_against1-avg_score_against2" Expression="avg_score_against1-avg_score_against2"/>
          <Input Type="Target" Label="game_outcome" Expression="game_outcome"/>
        </Input>
        <Output NOutputs="5">
          <Output Type="Variable" Label="seed_prob" Expression="seed_prob"/>
          <Output Type="Variable" Label="winfrac1-winfrac2" Expression="winfrac1-winfrac2"/>
          <Output Type="Variable" Label="avg_scorediff1-avg_scorediff2" Expression="avg_scorediff1-avg_scorediff2"/>
          <Output Type="Variable" Label="avg_score_against1-avg_score_against2" Expression="avg_score_against1-avg_score_against2"/>
          <Output Type="Target" Label="game_outcome" Expression="game_outcome"/>
        </Output>
      </Selection>
      <Class ClassIndex="0">
        <Ranges>
          <Range Index="0" Min="0.0000000000000000e+00" Max="1.0000000000000000e+00"/>
          <Range Index="1" Min="-5.0446426868438721e-01" Max="6.1160713434219360e-01"/>
          <Range Index="2" Min="-2.3303571701049805e+01" Max="2.9057575225830078e+01"/>
          <Range Index="3" Min="-2.5035717010498047e+01" Max="2.1221897125244141e+01"/>
          <Range Index="4" Min="0.0000000000000000e+00" Max="1.0000000000000000e+00"/>
        </Ranges>
      </Class>
    </Transform>
  </Transformations>
  <MVAPdfs/>
  <Weights>
    <Layout NLayers="3">
      <Layer Index="0" NNeurons="5">
        <Neuron NSynapses="9">
          -6.7611724369426496e-01 1.3143612344808444e+00 7.1486797011648684e-01 1.0482074487754158e+00 -8.8534449303960794e-01 5.2926919023402678e-02 -5.5827292991920081e-02 1.9209154633081771e+00 -9.0083946316800101e-01 
        </Neuron>
        <Neuron NSynapses="9">
          -4.4218351957725693e-01 -1.7695069067087685e+00 -8.9179971771216715e-01 -1.2708783743790006e+00 1.2242557925727203e-01 -5.4320143812606903e-01 4.7722122434598685e-01 -4.4565423745146721e-01 1.2475156006818202e+00 
        </Neuron>
        <Neuron NSynapses="9">
          -3.9080675676860638e-01 1.2859416331470814e+00 5.5515446260722867e-01 -5.9445307591143448e-01 1.2167951575464795e+00 7.7348368101707821e-01 -7.8312406154232872e-01 -6.4749386516972540e-01 1.1735027520192862e+00 
        </Neuron>
        <Neuron NSynapses="9">
          -1.3846156891067110e+00 -1.3985792629431948e+00 4.3236441202778653e-01 -8.3424387083915452e-01 1.0988301319264988e+00 -2.2469565052931742e-01 -1.8123137668707403e-02 1.0760154224138221e-02 -8.2715182529924403e-01 
        </Neuron>
        <Neuron NSynapses="9">
          -3.8184273566259486e-01 4.1710572822330538e-01 -4.1537189840589739e-01 4.4209947517403175e-01 -1.1471663646704561e-02 7.9770448511587211e-02 2.4076778345458036e+00 1.2462270297310842e-01 8.4903256216867687e-02 
        </Neuron>
      </Layer>
      <Layer Index="1" NNeurons="10">
        <Neuron NSynapses="1">
          -5.7389890457852666e-01 
        </Neuron>
        <Neuron NSynapses="1">
          4.7879616074912895e-02 
        </Neuron>
        <Neuron NSynapses="1">
          4.6058296156033640e-01 
        </Neuron>
        <Neuron NSynapses="1">
          5.6938785623825028e-01 
        </Neuron>
        <Neuron NSynapses="1">
          -6.7022062173905397e-02 
        </Neuron>
        <Neuron NSynapses="1">
          -1.2804107003770179e-02 
        </Neuron>
        <Neuron NSynapses="1">
          1.5090145864300266e+00 
        </Neuron>
        <Neuron NSynapses="1">
          -3.3249418494893479e-01 
        </Neuron>
        <Neuron NSynapses="1">
          3.7461429223215487e-01 
        </Neuron>
        <Neuron NSynapses="1">
          -1.1895869056205111e+00 
        </Neuron>
      </Layer>
      <Layer Index="2" NNeurons="1">
        <Neuron NSynapses="0"/>
      </Layer>
    </Layout>
    <InverseHessian NElements="3025" NRows="55" NCols="55">
      <Row Index="0">
        5.5391355016584045e+00 5.1403356594339540e+00 -5.9597686568910060e+00 3.5020007548641083e+00 3.7363267008021381e+01 1.2567871674347535e+02 4.2035206066718045e+00 1.4805688479733465e+00 7.9407660797317980e-02 1.3152632675793217e+00 2.5242384313508168e+01 -2.8614226017119102e+00 -6.1118610290709219e+00 9.5287709080408884e+00 -3.9710696289916314e+01 -1.1336076712905690e+01 -3.1518827199720603e+00 9.1188285010949088e-01 -3.9959180324333721e+00 -4.1313856417035026e+01 5.0819597230610976e+00 2.6261421483384506e-02 -3.4240553259409268e+01 1.1729293345232612e+02 5.8820349176056332e+01 4.1335871772153188e-01 -8.4038919590975403e-01 2.7606317354037992e+00 7.7503829254663836e+00 -1.9232671636835235e+00 8.8002932121702659e-01 -2.5895229116819962e+01 1.1087353919820859e+02 2.7494994829816193e+01 -4.9439528687450363e+00 9.3706536793732820e-01 4.4617358502812082e-01 -1.6332692394318644e+00 5.0267961538951889e-01 4.7877466337120722e-01 -9.9923802171566845e+00 3.0463401668415833e+02 -1.1947641232415263e+02 1.3311161454074294e+00 -9.6589518432312449e-02 -2.5482458297305119e+00 1.3854896099182346e+00 3.1212119156565361e+00 -4.7239024730643457e+00 -5.9326486802591187e+00 6.2022442249814791e+00 2.6557206783113976e+01 8.8266054169947816e-01 1.8759360146750659e-01 -1.5826009595443605e+01 
      </Row>
      <Row Index="1">
        5.1403356590055287e+00 1.2401747933612428e+03 -3.7537040511008313e-01 1.0583621158032734e+01 -1.3496200509337478e+02 -4.9147264812996409e+03 -1.9110566534720238e+02 3.6479411342151110e+01 -1.0387553256738677e+01 1.8311298675037477e+00 -1.5707099872383301e+03 -6.4468181684288709e+01 -4.9570629022675647e+01 7.3174505333460081e+02 3.0492962406119295e+03 -8.7706318780135462e+02 -1.7641849047790938e+01 2.8498083022392152e+01 -1.1061377803867728e+01 1.0904054759731946e+03 3.7015686742097586e+01 3.4459678817631463e+01 -7.7869498981867730e+02 -2.5988620058609395e+03 1.9051006035674948e+03 -8.9166650698697900e+00 8.4220339538687767e+00 -8.2228047473732850e+00 -1.0518349465824374e+03 -2.0504006880615108e+01 -5.2667865279125188e+00 1.9787714986843287e+02 3.3390950208345876e+03 4.6280261573671578e+02 -7.2663665120738408e+00 -2.0959418015672757e+01 6.8113154973749426e+00 2.8248216670522453e+02 -7.7805447023343710e+00 1.9318600745325135e+01 -2.6081566579397554e+02 1.3192980597983067e+03 -2.4519990274134848e+03 5.7792866438172634e+00 4.4987980947147355e+00 4.4426954828759833e+00 -9.2666752944800450e+01 -1.0666892830392317e+01 -3.2137838412499377e+01 -3.3651640617297261e+01 1.2609783275729517e+02 4.4854643997546862e+02 1.1734330947595200e+01 -1.6136336192184103e+01 -3.0013862177916684e+02 
      </Row>
      <Row Index="2">
        -5.9597686566288681e+00 -3.7537040330623705e-01 1.0260950410672670e+02 -6.2319070865048207e+00 -8.5523508811258353e+01 -1.9776875786726730e+03 1.0936979077160238e+02 -9.0399047401196615e+00 6.6089703944110756e+00 1.3835282894917825e+01 -5.1477575687944203e+01 -7.6491304596117558e+01 1.5292972444677961e+01 3.5579692208694247e+01 1.2478915719800270e+03 1.1255962870565071e+02 1.4242479200121090e+00 -2.3455144275518602e+01 -5.1680386112940457e+00 6.5137903175319479e+01 9.5993050049603568e-01 -2.6092311534112742e+00 -1.4712489205676235e+01 5.6126339106505077e+02 -3.4042524301301734e+02 -3.6799770525110054e+00 3.2801537745514224e+00 3.8517727278297675e+00 -3.5044241390359808e+01 4.0879770682877854e+01 -6.9456486770149928e-01 8.3222488846194089e+00 -2.5450024292914263e+03 1.4815762233412420e+02 4.2301131630652575e+00 -3.0134880806064022e+00 9.5506703857608066e-02 1.2856831709481977e+01 -3.0186211071280937e+01 2.3162903497005241e+00 3.7472587088125657e+01 4.1007978816232026e+02 5.0755107717700133e+02 -8.4609696506576135e+00 -1.0424391209520065e+00 -2.1905552466283384e+00 -3.7257628616580201e+00 -1.0881542396958784e+02 1.0587264957705919e+01 3.8011073735552570e+00 3.2092655472243521e+01 -1.4473633180955684e+02 -5.5034325723194817e+00 4.8228136694528274e+00 8.4691028554354787e+01 
      </Row>
      <Row Index="3">
        3.5020007550499321e+00 1.0583621160958037e+01 -6.2319070875415115e+00 2.3064772301715625e+01 3.7146846434307562e+01 -1.4221244838423195e+02 -1.2964722453220247e+01 4.5901990940183754e+00 2.9124243163043535e+00 -1.1978965408983568e+00 -3.5698366952301441e+01 -2.4082952109268820e+00 -3.8486080244551779e+01 1.5076045138126412e+02 2.0212422678591912e+02 1.1735080040862467e+01 -4.8022135140616777e+00 -1.7999029263973865e+00 -1.1505323221116757e+00 4.0421141602806728e+01 -2.0459552885921983e-01 -1.3782575238044510e+00 -1.6524310369319889e+02 2.8398349623868091e+02 -4.1741142300730417e+01 -3.7835875738501934e+00 -5.0859745141122055e+00 -1.8577872989634092e+00 -4.5799946520924362e+00 -5.0448162053940901e+00 -7.0074156497087774e+00 -7.9479241916908364e+01 3.4319682127837319e+02 -1.4645182425072885e+01 -5.2017435965438414e+00 -3.2601069025734120e-02 1.0729934834339866e-01 3.0452218241308264e+00 2.6165733586593121e-01 1.0972197519990196e+01 -4.5145305344347811e+01 -3.3496874341356892e+02 1.0070888287069837e+02 1.1990017319779596e+00 -9.8444905437976793e-01 5.1230472246144143e-01 -1.1840722538631259e+00 6.8835275799406990e+00 -2.9341645117156148e+01 -2.2759028694354306e+01 -7.0321880720786289e+00 -8.0433751390478196e+00 1.7099576312277036e+00 1.8191953121050508e+00 6.7622112395203979e+00 
      </Row>
      <Row Index="4">
        3.7363267008939268e+01 -1.3496200508042693e+02 -8.5523508816410526e+01 3.7146846434988994e+01 1.8291223052982009e+03 5.6716850390422633e+03 -2.0361231998720709e+02 1.7212556404451728e+01 -1.3171039338939163e+00 2.9197838685983228e+01 1.4919836293760764e+02 2.0766621592420673e+01 -8.0556001137218530e+01 -4.6542137840998203e+02 6.7925117900497935e+02 3.8934521584858010e+02 1.3120561014736539e+01 -1.2309984647639558e+00 -4.1759678068393811e+01 -2.2923690914939496e+02 6.3743048300911255e+01 -6.1671268885958241e+00 -1.8620171412702384e+03 -6.6283956510124754e+03 -6.4235022054879664e+01 -1.0140530578364126e+00 5.0495951154508703e+00 1.0012978272282197e+01 6.6382564757787137e+01 3.9605363573093527e+01 2.6258884100964913e+01 -1.4959970544757639e+03 -6.1245808327710274e+03 2.4545182578252869e+02 3.0162240434925760e+00 2.2896293586736814e+01 -2.4295718195747087e+00 -7.2726566480597498e+01 -4.9898852913712361e+01 -2.4314783578333856e+01 -2.9448963626778880e+02 1.9776784774402236e+03 -4.0406012402995287e+01 2.1136918046937847e+01 -1.7443082903706864e+00 -2.8560163935823052e+01 2.0189077535665071e+01 1.5447738478357987e+01 -5.6561521739801890e+01 -2.2873775665707240e+02 -5.3282327281380359e+00 -8.3837032990233098e+01 2.6211764123749290e+01 7.6587471280347827e+00 1.3532419984597368e+02 
      </Row>
      <Row Index="5">
        1.2567871673491186e+02 -4.9147264814559230e+03 -1.9776875786392411e+03 -1.4221244838057274e+02 5.6716850390471282e+03 2.3812746893167801e+05 -5.4578193914140902e+03 -1.1851379332476326e+02 -6.1609721210984935e+02 -1.0765616068064111e+02 3.7689487957390902e+03 2.5402948852051613e+03 2.2527914542404778e+02 5.0951337859775094e+02 -1.7419416269690177e+05 1.0672610690406165e+04 -7.9460360711332157e+02 1.6532906474724564e+03 4.5341761972722975e+02 -1.0291822884832013e+03 -1.9821991712915039e+03 5.4724464138553321e+02 -6.0306233484612358e+03 -7.2396748820020730e+04 -8.1869850193776365e+03 6.7292215735139564e+02 -1.4360633525572393e+02 4.2371196263676342e+02 5.7226520707501140e+03 -2.2341467439948447e+03 5.2306496524457509e+02 -6.8256354072286322e+03 2.9291865218281720e+04 -1.0658828291572031e+03 5.2674593188115637e+01 -3.5727268503913513e+02 4.3813987364410295e+01 -1.9715436415181075e+03 1.2287386269421229e+03 8.6623994667920371e+01 7.6747581032203834e+02 4.5846071699096850e+04 3.4796902152268776e+03 -8.4102191975846836e+01 7.6413036817810735e+01 -2.8932881887531232e+02 4.9846175255790399e+02 4.1766839959912068e+03 4.9722535226110290e+02 -1.0083453768508344e+03 -1.4203231431511847e+03 2.5000693455992268e+02 -2.0803395845443640e+02 -5.5234869915734635e+02 1.0576453802336293e+03 
      </Row>
      <Row Index="6">
        4.2035206020291769e+00 -1.9110566538379328e+02 1.0936979077798424e+02 -1.2964722469689145e+01 -2.0361232004999442e+02 -5.4578193907466939e+03 2.0200632032900933e+03 -4.6512643190358375e+01 2.2291735828412630e+01 -2.9781877255085858e+00 5.3149519478872196e+02 -6.1753200566515261e+01 -9.2169470019232904e+01 -1.3725515433906693e+02 4.2193206744059544e+03 -5.9009100303980849e+03 -1.2959652439591764e+01 -5.6578234534940563e+01 -4.1829299518423070e+01 -3.8280144685128704e+02 7.0461321570534139e+01 1.3682612034059434e+02 6.0456893738767803e+02 -4.3816248659086232e+03 6.9703448783315835e+03 4.1027985659664850e+01 -3.4651606829785123e+01 -1.9812711762961452e+01 3.6657082823424616e+02 1.3784036660818680e+02 -4.7564723772085486e+01 -9.4179424530593678e+01 -1.0693596905009457e+04 5.8292827466558538e+02 -1.0507433708799233e+01 -1.8519753760027243e+01 -1.1919258872701414e+01 -9.3861511455976796e+01 8.7493911239031078e+01 8.0552091780786022e+00 -3.8165137463864937e+01 4.3646942384732656e+03 -9.2774817146865771e+03 -2.0563704503196192e+00 -1.7885743290252698e+01 2.3553335938845898e+01 1.9958481705796345e+01 -2.1283108476267677e+02 -3.1834760274388721e+01 7.4561820456631906e+00 4.1176496417884522e+02 2.2568838890119760e+03 -2.2524012919278121e+01 2.0529474468254648e+01 -1.8564719396068845e+03 
      </Row>
      <Row Index="7">
        1.4805688480830570e+00 3.6479411344685673e+01 -9.0399047410730091e+00 4.5901990937104094e+00 1.7212556402716757e+01 -1.1851379331364323e+02 -4.6512643174854304e+01 7.0870066526361995e+01 1.6589482018748447e-01 1.7706054224871126e-01 -7.4483436981577000e+01 -8.7334850533090638e+00 -1.8799710208834767e+01 -4.0927304202135396e+01 5.7763123711674064e+02 2.8673547014677659e+01 2.5797465703442128e+00 2.8829027974813455e+00 -7.6370183388976161e+00 2.9118264897261408e+01 2.1769231721217722e+01 1.0952553101361904e+00 5.4754722897786827e+01 -1.1710783916510631e+02 4.9256586647847598e+01 -4.4352469691012743e+01 5.9120361023746000e+00 -1.0928714789422987e+01 -9.8297776331654035e+01 2.4971720461734339e+00 -5.7289539633838586e+00 4.0717189069612886e+01 1.2764686525570829e+02 -4.0281207886507261e+01 1.9596867215762703e+00 3.8841091489151669e-01 1.0283555070935564e+00 2.0001087970587715e+01 -2.3325458371223871e+01 -3.3576024772296875e-02 -1.5311969295092689e+01 1.5009642436028167e+02 -1.4099334989495193e+02 9.3169154322487335e-01 1.0288393038342298e+00 4.6489483526581923e+00 -4.6885893060736716e+00 -7.5404367071333764e+00 -1.2902928048487954e+01 2.7285599547469084e+00 9.6922406583454723e+00 3.3744055269663939e+01 2.8154630171840253e+01 -2.3843321171478324e+00 -1.4844838886839904e+01 
      </Row>
      <Row Index="8">
        7.9407660870911834e-02 -1.0387553255469868e+01 6.6089703939830766e+00 2.9124243162766099e+00 -1.3171039341119948e+00 -6.1609721210867440e+02 2.2291735834982592e+01 1.6589482029811772e-01 1.8795142549257498e+01 2.5983808732582725e+00 -1.0326890890582519e-01 -1.1965573016486861e+00 -2.0686256271157522e+00 4.2982365458891920e+01 1.0241250879552870e+03 -6.4146921550392591e+01 -1.0031415045242387e-01 -3.0141990615965284e+01 -1.0537922475651520e+00 -2.3877287476739424e+00 2.9716051829232804e+00 -4.5159811005089772e+00 -4.2362047114087318e+01 4.6680514137470499e+02 3.4076501601391044e+01 -8.8396744531751281e-01 -1.3949302872910021e+01 9.4646269071215738e-01 5.3770417090392595e+00 2.2923998887727812e+00 -2.0168809008162896e+00 -2.2171649651254075e+01 -5.6045453678563115e+02 2.6134953945080561e+01 -1.4628198428364136e-01 1.1327528886192807e+01 -1.9057103124608901e-01 -2.1782191084420832e-01 -3.4324499693639834e+00 3.0486453469829504e+00 -1.7904080159013169e-01 -7.9579206572000217e+01 -2.9641613386756198e+01 -9.2735930567035396e-01 -2.9130430871297168e+00 -1.0974283802245344e+00 8.3324280954489605e-01 -8.8297628905252239e+00 -6.0326528688217662e+00 -4.3904101063733343e+00 -1.5272014194706420e+00 5.2541710450158230e-01 1.1631231026740907e-02 1.2774149714951658e+01 -2.3003051203199227e+00 
      </Row>
      <Row Index="9">
        1.3152632676087350e+00 1.8311298683973973e+00 1.3835282894619269e+01 -1.1978965410236038e+00 2.9197838685589083e+01 -1.0765616067275448e+02 -2.9781877210060479e+00 1.7706054221187117e-01 2.5983808732055476e+00 2.0470532852797664e+01 2.7057338999577638e+00 -2.0926326700787783e+01 -2.1101949900263577e+00 -6.8167568867721080e+00 1.1959876711786410e+02 1.4864348366572852e+01 1.0077519625430078e+00 -6.9911251357647055e+00 -9.1316898791394365e+00 -1.2476975352734531e+01 1.2028189612002890e+01 3.8265315510151487e+00 -1.5948429011192253e+01 2.9773602976218137e+02 5.7167359980795936e+01 5.5030528263008849e-01 2.3033081895974377e+00 1.1192946780403378e+01 1.1291910522881214e+01 5.5876302383735084e+00 7.4448460194732435e+00 2.2208896645395377e+00 -2.5437346378900247e+02 4.4012353836423003e+01 -4.6676541138683625e-01 1.4288135241306694e+00 1.4754337717552735e+00 -3.8299638497837740e-02 -2.4240998655210412e+01 -8.0274056620808443e-01 -1.6142563340686948e+01 1.2699108889517095e+02 -9.2318199634984524e+01 5.1089104527921791e-01 -2.0431869931742108e-01 -1.0482851175701796e+01 1.0556103129718624e+00 -1.9205037081318086e+01 1.5330172082625833e+00 -3.2198238222240638e+00 9.9069361015637085e+00 1.7461997822245085e+01 9.1980017518945001e-01 1.6779049345926076e+00 -1.4955052664110244e+01 
      </Row>
      <Row Index="10">
        2.5242384314778171e+01 -1.5707099872334002e+03 -5.1477575684294152e+01 -3.5698366945123652e+01 1.4919836296760167e+02 3.7689487953315984e+03 5.3149519472033387e+02 -7.4483436975215284e+01 -1.0326890569210168e-01 2.7057339023334634e+00 4.7187705800887597e+03 5.7929169210418344e+01 1.0683170858080030e+02 -1.8301614771462116e+03 2.9820358924968432e+03 2.4885431256250085e+03 -6.6632163405303004e+01 -2.6989299029865599e+01 -4.1954672096819195e+01 -4.8037762966849396e+03 7.2393491847035083e+00 -7.1071317480265591e+01 2.6884583535580177e+03 -1.1552912124379543e+02 -4.6860791187220020e+03 1.7242488506235196e+02 -1.3807813631617137e+01 2.9374845188888784e+01 2.5461178931030458e+03 3.1503307307976272e+01 -1.7540711154831634e+01 1.4878585607457734e+02 2.1290744630964814e+03 -8.2313752106441552e+02 -1.3045323709856680e+02 3.1451433167185023e+01 -8.3242384946995305e+00 -7.5115975088890866e+02 5.9128214696467118e+01 -4.8419762368447131e+01 6.6653392372040912e+02 -6.3538164959663454e+03 5.9226050259446456e+03 3.1329806129096770e+01 -1.0887742177266002e-01 -8.7475977984955353e+00 2.2791066684227869e+02 1.2075905353319740e+00 6.9123488361180279e+01 1.7961096080821807e+02 -4.1102425468341744e+02 -1.1102781090210940e+03 -4.9379897702803525e+01 2.3903670748936406e+01 7.2252942966132082e+02 
      </Row>
      <Row Index="11">
        -2.8614226019189672e+00 -6.4468181687879678e+01 -7.6491304594819880e+01 -2.4082952108964362e+00 2.0766621592289709e+01 2.5402948851841716e+03 -6.1753200581619978e+01 -8.7334850535148174e+00 -1.1965573016274069e+00 -2.0926326700834178e+01 5.7929169219833497e+01 1.3672236020762068e+02 1.7381438799953358e+01 -1.5618221488325918e+02 -7.6457837178539830e+02 4.7828183914923244e+01 1.0278841719861695e+00 1.1036406293498203e+01 1.7662703069003577e+01 -2.2543438869357093e+00 -5.4769723403794700e+01 -1.1416522749945987e+01 1.3710626396910055e+02 2.9863636397852623e+01 -2.4298775537728943e+02 1.7819597059188460e+01 -4.9516081300045869e+00 -3.0121515323190056e+00 1.1479099959716910e+02 -2.7716185738587527e+01 -9.9533103316290941e+00 4.4432570207836513e+00 2.5037158410443858e+03 -1.4714019224707434e+02 7.8642002796511559e+00 4.8956950925104064e+00 -4.4352120922919660e+00 -4.3231195194826782e+01 4.7186674044459174e+01 -4.8520649823678488e+00 3.6048211062735007e+01 -8.6653826696797933e+02 3.7727318161175276e+02 -1.5818121251310213e-01 -1.3304106429289155e+00 4.2774146732312328e+00 7.5584299018333168e+00 1.0447911087042209e+02 5.5854188914508347e+00 1.2941755426081118e+01 -5.4232942221975826e+01 -1.3224810341371892e+01 -4.3823750371527623e+00 -7.8563402565298901e-01 1.2706443317543075e+01 
      </Row>
      <Row Index="12">
        -6.1118610293242623e+00 -4.9570629028175063e+01 1.5292972447170001e+01 -3.8486080243862581e+01 -8.0556001133025077e+01 2.2527914539139374e+02 -9.2169470057957994e+01 -1.8799710208848275e+01 -2.0686256268637386e+00 -2.1101949900420154e+00 1.0683170859530341e+02 1.7381438799089544e+01 1.1179919878252485e+02 -3.6074885924269955e+02 1.8981009922950994e+02 3.4957075411915969e+02 6.8037795169931812e+00 -9.4235458467247781e+00 5.2902219458321156e+00 -1.0541103854427355e+02 -1.7715657055775480e+01 -4.3262053930033616e+01 3.3839478501753899e+02 3.5897090041525172e+02 -3.3930399724793642e+02 1.2830058288486653e+01 1.6362725429429389e+01 5.6827115276116871e+00 4.0980414711904444e+01 3.7650211995998131e+00 4.5369447494553423e+00 1.9074905659613211e+02 -3.2426308010271850e+02 1.7647468040306791e+01 6.2549040753526590e+00 5.5922146850671774e+00 -1.6690690028471635e+00 -8.9463292287499208e+00 1.9588964418319357e+00 -2.2392743866764022e+01 1.8094267905239246e+02 1.3468520857272892e+02 4.6591134302761549e+02 -3.1452079258943675e+00 3.3864592598345986e+00 -1.5673960882726774e+00 5.7624727576494514e+00 -3.9293405563630728e+00 6.7364379605408644e+01 5.8167722921219976e+01 -6.0336938417441877e+00 -8.6904367881635707e+01 -8.3486044444342760e+00 -2.3269147316324990e-01 5.3616048444910781e+01 
      </Row>
      <Row Index="13">
        9.5287709076418814e+00 7.3174505334491550e+02 3.5579692198261910e+01 1.5076045137332562e+02 -4.6542137844774481e+02 5.0951337902652995e+02 -1.3725515416946769e+02 -4.0927304207347561e+01 4.2982365455547004e+01 -6.8167568886946981e+00 -1.8301614771844565e+03 -1.5618221487242363e+02 -3.6074885923053807e+02 4.7094595367338234e+03 -5.1294620681228444e+03 -2.5549634698133527e+03 -1.0087707525167502e+02 1.0581244894405245e+01 8.7033265412292167e+00 1.9657849209402100e+03 7.2353426879491103e+00 9.9096738062900158e+01 -4.0043267459164363e+03 -2.7872429362109378e+03 4.6613256900521519e+03 5.3230026477373094e+01 -9.5482123529316141e+01 -9.7754345558992100e+00 -6.4065206904681099e+02 -1.7022567988619849e+02 1.5781166192543989e+01 -6.0203240024945740e+02 -1.5019963687993634e+03 9.1628075344744502e+02 1.9293434988656752e+00 -4.0411786248407175e+01 1.3018487207589393e+01 3.6753462718763274e+02 7.7015600784416250e+01 1.9251800162133102e+02 -7.7412852052040432e+02 5.2434870090839595e+03 -5.9854267029387529e+03 -1.1526160234729254e+01 -1.7755028293742885e+01 9.3348541991770482e+00 -9.2354612755481710e+01 9.6142675159253258e+01 -2.9601123901489643e+02 -3.4504974037740539e+02 1.7043047382651540e+02 1.1662446731096311e+03 -2.7729316848905761e+01 5.7490921134054815e+00 -7.8384432873023786e+02 
      </Row>
      <Row Index="14">
        -3.9710696277171905e+01 3.0492962408352141e+03 1.2478915719327538e+03 2.0212422679205648e+02 6.7925117900800160e+02 -1.7419416269786414e+05 4.2193206752654332e+03 5.7763123714288236e+02 1.0241250879599429e+03 1.1959876712913433e+02 2.9820358919707232e+03 -7.6457837181617458e+02 1.8981009916587740e+02 -5.1294620675428505e+03 3.8893435429724777e+05 -1.5311077739158376e+04 7.2185029622420996e+02 -2.0022514013595166e+03 -4.2991724074232582e+02 -6.7036822109507912e+03 1.3674296862877195e+03 -1.1312476217190519e+03 7.5646113487077673e+02 -2.4011074477213054e+05 1.5842558333155590e+04 -6.9401597278710392e+02 -3.2302603095639211e+02 -7.5830918139333292e+01 -1.6680262029840542e+03 1.9731818681440971e+03 -6.0997701330200493e+02 -5.2576320825100436e+02 1.5500238938184651e+04 -5.6864586664151311e+03 -2.8815932614701330e+02 9.1752358970393584e+02 -1.1136276239778957e+02 5.3027411120861495e+02 -1.1766736132689780e+03 -1.5502010280351482e+02 1.0349976058413470e+03 -1.6015066912840860e+05 -4.8935444471977098e+02 7.7180384400007370e+01 -1.3378422504295193e+02 9.3945261929090236e+01 -1.1502629312795978e+02 -2.9988480995460959e+03 -4.1465048943550187e+02 2.9000091967834078e+02 -4.0717982281428067e+03 -2.1891445891888352e+03 2.9379059842881600e+02 8.6402810829362124e+02 2.7976392842992347e+01 
      </Row>
      <Row Index="15">
        -1.1336076668599921e+01 -8.7706318747531623e+02 1.1255962866470509e+02 1.1735080206906336e+01 3.8934521650276645e+02 1.0672610683474471e+04 -5.9009100306716837e+03 2.8673547170476013e+01 -6.4146921482748496e+01 1.4864348413341869e+01 2.4885431250362999e+03 4.7828183750891185e+01 3.4957075373525731e+02 -2.5549634682144529e+03 -1.5311077730254439e+04 4.8252160288037681e+04 -3.1465931335755158e+01 8.1755274920855300e+01 3.1503312221640954e+01 -3.2084363630098201e+03 -8.0092614967194777e+02 -4.8437802731034725e+02 2.7211648186928355e+03 5.5456675285768120e+04 -7.5106126740992069e+04 -3.9038639535622082e+01 -2.9995023859257344e+01 3.7055020020194206e+01 1.9892358189445295e+03 2.7619852207457276e+00 6.4863651151948915e+01 6.2728584437526979e+02 6.9392701168943124e+04 -3.4394326361142666e+03 -7.3377548616222455e+01 5.3825595924945389e+01 2.6317315131012929e+01 -5.8801577105746924e+02 -1.6829034531315409e+02 -6.8832836935252828e+01 9.5442205923572578e+02 -3.8543459646689807e+04 9.7182085253957761e+04 1.5659912016445482e+01 5.7130428403727606e+01 -2.1242472136055980e+01 1.9892077653093631e+02 -2.9632849650006392e+01 1.3129513429377329e+02 2.4245700092973971e+02 -3.8414895241659328e+03 -2.3233435798585720e+04 -1.6820466793327796e+01 4.2663117132906336e-01 1.8030469973230636e+04 
      </Row>
      <Row Index="16">
        -3.1518827199587123e+00 -1.7641849047299615e+01 1.4242479198785389e+00 -4.8022135141736007e+00 1.3120561014512042e+01 -7.9460360710588407e+02 -1.2959652437204788e+01 2.5797465702701263e+00 -1.0031415050143599e-01 1.0077519625339533e+00 -6.6632163406664432e+01 1.0278841720105802e+00 6.8037795170877615e+00 -1.0087707525070739e+02 7.2185029621320359e+02 -3.1465931360508264e+01 3.8863608589977297e+01 -4.5346392881939579e-01 6.1753431365014890e+00 1.0574745442875263e+02 1.0523054917803730e+01 -8.7139413749779626e-01 2.3888084074019183e+01 2.8559029480199683e+02 6.2788712551426215e+01 -3.6961183410488147e+01 4.5914535553105082e+00 1.8774053083457662e+00 -1.1561592811994832e+02 1.7629553230669750e+01 1.3578244467664851e+00 -2.5071746026056381e+01 -5.1096885455902873e+02 -3.5487536221286973e+01 1.0606529858774129e+01 2.8201650787545822e+00 1.8363435648168280e-01 2.9405536787746286e+01 -2.2558654910251619e+01 -5.2118182406812954e+00 -9.0352612379422688e+00 1.8175009462856710e+02 -1.1316481294927620e+02 -4.0668071431851427e-01 8.1656237438513823e-01 -3.1699527886138426e+00 -7.4366362698626336e+00 -1.9393889539848125e+01 4.9582063033470067e+00 1.2160427757208772e+00 2.5182929027160569e+01 1.5208694934019555e+01 5.9811857617491597e+00 7.9267183945734843e-02 -8.7216105676099271e+00 
      </Row>
      <Row Index="17">
        9.1188284995836555e-01 2.8498083020185732e+01 -2.3455144275008081e+01 -1.7999029265458182e+00 -1.2309984654461523e+00 1.6532906474804311e+03 -5.6578234542892659e+01 2.8829027971376924e+00 -3.0141990616051547e+01 -6.9911251359184821e+00 -2.6989299024478900e+01 1.1036406293875483e+01 -9.4235458459030852e+00 1.0581244887751016e+01 -2.0022514013636905e+03 8.1755275006893640e+01 -4.5346392894027865e-01 6.5176935625000411e+01 3.1847658706021420e+00 1.4054814137915102e+01 -1.0694691068964417e+01 1.6048002954108245e+01 2.5220211564778829e+01 -1.3035969414333374e+03 1.9521700684032794e+01 -3.0181915583954866e+00 9.4873805198483367e+00 -2.0392743901040369e+00 -2.0735466017417128e+01 -1.3511948058831432e+01 3.9241040677465060e+00 8.6766054906872512e+00 1.3023193708443921e+03 -5.2111387146051726e+01 1.3097276323766647e+00 -1.9528829267365893e+01 5.9921578736013281e-01 2.4068016404594101e+00 1.1401551437115332e+01 -3.0065717833326355e-01 -1.8485749474954641e+01 4.8051343399352487e+02 -8.6501835420306378e+01 1.3319786399900968e+00 5.2698377742436602e+00 2.3184317688557039e+00 -2.4505328050444510e+00 3.4171404877220610e+01 2.1725002711925763e+00 -1.4337414677864815e+00 3.5468006900055116e-01 2.9484007024278213e+01 8.0357117098312780e-01 -2.2993619612754209e+01 -9.3030286635827864e+00 
      </Row>
      <Row Index="18">
        -3.9959180324529244e+00 -1.1061377804754329e+01 -5.1680386109203624e+00 -1.1505323218843393e+00 -4.1759678067384229e+01 4.5341761971716767e+02 -4.1829299524925197e+01 -7.6370183388091739e+00 -1.0537922474831640e+00 -9.1316898791262133e+00 -4.1954672094354734e+01 1.7662703068840223e+01 5.2902219456245518e+00 8.7033265397766968e+00 -4.2991724072515808e+02 3.1503312285844174e+01 6.1753431364928133e+00 3.1847658704059256e+00 1.8572537408261951e+01 7.9386951898225533e+01 -1.4567141389456291e+01 2.4863193589935033e+00 1.6512567356906061e+01 -1.7509422586658144e+02 -1.1292849747059881e+02 -4.5709097872857845e+00 -2.7226438128935087e+00 1.4004531476827324e+00 -2.6515308038998114e+01 -5.0399204755531049e+00 3.3461702336692523e-01 7.2805182783005549e+00 2.5485255037569891e+02 -7.7272300535901479e+01 5.7378456974018865e+00 -1.2719154446679379e+00 6.7757723463767905e-01 4.8906307243564218e+00 7.3465392234701286e+00 -3.9187127025505003e-02 6.3321157040196425e+00 -1.7941669839372213e+02 1.5398486032003933e+02 -1.3211956895477490e+00 3.0983593480715366e-01 1.2889932098206081e-01 -3.0203214082126202e+00 1.6384761612984526e+01 5.6660666791660770e+00 3.3533285560619288e+00 -7.9343402342367977e+00 -2.9369575144921072e+01 -3.6493236106472260e+00 -8.5757911459508618e-01 2.2874490109128242e+01 
      </Row>
      <Row Index="19">
        -4.1313856419070490e+01 1.0904054759588471e+03 6.5137903173685572e+01 4.0421141594192065e+01 -2.2923690918358835e+02 -1.0291822879903123e+03 -3.8280144681285640e+02 2.9118264888952240e+01 -2.3877287515880212e+00 -1.2476975355865903e+01 -4.8037762966641803e+03 -2.2543438754269118e+00 -1.0541103852488413e+02 1.9657849208708776e+03 -6.7036822115456844e+03 -3.2084363632737068e+03 1.0574745442686844e+02 1.4054814143891235e+01 7.9386951901763041e+01 6.1616647303271575e+03 -5.4893282465634854e+01 1.1624834747524143e+02 -3.0794268776719036e+03 3.0228513699512559e+03 5.4907392581540043e+03 -1.6362235942359669e+02 -9.3639728048865436e+00 -2.5957838654961051e+01 -2.4489491387254479e+03 -2.5847209856135720e+01 1.4304937571079721e+01 -1.3097179613320367e+02 -5.1480534949436669e+03 8.0273306017035247e+02 1.7081817320631151e+02 -1.9020030445531326e+01 3.4128300158405018e+00 8.3332124151192568e+02 -4.1774418362028996e+01 3.6566028067588320e+01 -6.7945072483474519e+02 9.3496294856412642e+03 -7.1679758220086060e+03 -3.8610851693399404e+01 -2.2475971633482459e+00 4.2168323303643707e+00 -2.4876753975748500e+02 2.9676816703275335e+01 -2.4398109161328925e+01 -1.8782252594486351e+02 4.8470665659918978e+02 1.3511652784043031e+03 3.8057511780964290e+01 -1.1917045234445936e+01 -8.7600575182767773e+02 
      </Row>
      <Row Index="20">
        5.0819597228581115e+00 3.7015686744316554e+01 9.5993049855212575e-01 -2.0459553112190054e-01 6.3743048291538301e+01 -1.9821991711751905e+03 7.0461321604663709e+01 2.1769231719526829e+01 2.9716051819818956e+00 1.2028189611468470e+01 7.2393491761058613e+00 -5.4769723401367173e+01 -1.7715657052032839e+01 7.2353426846419922e+00 1.3674296861238522e+03 -8.0092614999425041e+02 1.0523054917568118e+01 -1.0694691067210670e+01 -1.4567141388921186e+01 -5.4893282449098706e+01 9.1897508881236945e+01 9.5423155599789169e+00 -1.0692837474767799e+02 1.1456007632985052e+02 1.3940704702958101e+03 -1.6641272442358918e+01 1.6183876583083929e+01 1.4981438221624899e+00 -7.3129284836130466e+01 2.4681505441385550e+01 2.1434492504255034e+00 -4.5659513854656176e+01 -1.8986816529966031e+03 5.5930420725982572e+01 -6.5219298719991343e+00 1.5705963299813721e+00 -5.3905795616073740e-02 3.1269441556540091e+01 -3.5567932587263243e+01 -3.7312052186451021e+00 -5.6685428486539884e+01 8.6277523298471306e+02 -1.9709601520014351e+03 6.0061870425982704e+00 -7.0836754390521151e-01 -4.3289426755830487e+00 -4.0480659920863760e+00 -4.4235766262297659e+01 -1.1287551262197887e+01 -1.0406003491618428e+01 9.2516174914962917e+01 3.2444080955906753e+02 1.2799760437438588e+01 1.3048539010544857e-01 -2.2251493394934076e+02 
      </Row>
      <Row Index="21">
        2.6261421267590901e-02 3.4459678816160704e+01 -2.6092311535879276e+00 -1.3782575246698170e+00 -6.1671268920789544e+00 5.4724464143450371e+02 1.3682612034306305e+02 1.0952553092864008e+00 -4.5159811009025050e+00 3.8265315506813664e+00 -7.1071317477921411e+01 -1.1416522748749458e+01 -4.3262053928058322e+01 9.9096738055386993e+01 -1.1312476217777948e+03 -4.8437802732501194e+02 -8.7139413769108387e-01 1.6048002954702497e+01 2.4863193593715209e+00 1.1624834747491889e+02 9.5423155582326569e+00 6.2662131337650969e+01 -2.1029080835208518e+00 -1.2778819752752956e+03 5.1177275613234815e+02 -3.0351078453406677e+00 -1.1781346056616371e+01 9.7050686865742364e-02 -5.3084118003048616e+01 2.4165489468300621e+00 1.1044764598605035e+01 -1.7917944130655371e+01 -2.4041688697862605e+02 -3.0199810578473205e+01 3.0519211421076449e+00 -8.7497767909231197e+00 1.0898880161522135e+00 2.1447913646437762e+00 -1.0064264342077571e+00 3.6065685358741213e+00 -9.0959410153404647e+01 5.9871541711672012e+02 -8.1388809017869164e+02 6.0845529060479642e-01 -7.0192272780494358e-01 -1.5998726718411458e+00 -7.0318275543413762e+00 5.7174131668023165e-01 -6.2522851855262020e+00 -1.5083779903778208e+01 2.0612603596151217e+01 1.3323156132234584e+02 9.4076582229188510e-01 -4.4702336871451323e+00 -8.7304072046966780e+01 
      </Row>
      <Row Index="22">
        -3.4240553259403221e+01 -7.7869498983681115e+02 -1.4712489190088945e+01 -1.6524310368418674e+02 -1.8620171412270056e+03 -6.0306233490214345e+03 6.0456893715987849e+02 5.4754722903275933e+01 -4.2362047110081548e+01 -1.5948429008793369e+01 2.6884583536171049e+03 1.3710626395537156e+02 3.3839478500519272e+02 -4.0043267459359326e+03 7.5646113559056766e+02 2.7211648208792390e+03 2.3888084075439224e+01 2.5220211556078539e+01 1.6512567355509873e+01 -3.0794268777698499e+03 -1.0692837475491342e+02 -2.1029080941096088e+00 7.8370370895934893e+03 1.1538499855688944e+04 -6.1322910997368162e+03 8.9446201717851679e+00 3.8052378633250100e+01 -8.6437446769259623e+00 1.0433449897458247e+03 8.3101907806095682e+01 -2.4737881265250252e+01 3.0418484798317477e+03 1.5310143082702361e+04 -1.9041465919217994e+03 7.9977892928776555e+00 -1.3609214020975458e+00 -1.1812135178377787e+00 -5.1208817750458650e+02 3.7495763022336206e+00 -1.2433634278306107e+02 1.1672272649032450e+03 -1.2713860042553963e+04 8.0588962774737474e+03 -4.8797332757744272e-01 2.0810456431706271e+01 1.8557391051053116e+01 1.2428298546160680e+02 -2.1913234649570768e+01 3.0123311065199573e+02 6.8294896284001186e+02 -3.4577800562898199e+02 -1.3989172602037727e+03 1.1183089996314960e+01 -1.8278630113425038e+01 8.3217677465327961e+02 
      </Row>
      <Row Index="23">
        1.1729293348383521e+02 -2.5988620056456421e+03 5.6126339104949875e+02 2.8398349634889746e+02 -6.6283956505374972e+03 -7.2396748824644805e+04 -4.3816248660448409e+03 -1.1710783905920471e+02 4.6680514142350256e+02 2.9773602980198757e+02 -1.1552912166575697e+02 2.9863636266381945e+01 3.5897090015598224e+02 -2.7872429350716247e+03 -2.4011074476618975e+05 5.5456675285248719e+04 2.8559029482282494e+02 -1.3035969414969732e+03 -1.7509422591297334e+02 3.0228513701707270e+03 1.1456007656786971e+02 -1.2778819752599998e+03 1.1538499854080703e+04 6.3591387845271220e+05 -8.6822370373973623e+04 1.2659665529380391e+02 4.3746790668736503e+02 2.6293434378620077e+02 2.8347013117178358e+03 6.1186346372850653e+02 -5.3130536323867659e+02 8.4224467110649821e+03 7.8939131124763007e+03 9.7063516235332136e+03 7.3364370591694751e+01 3.1295645443197066e+02 -1.2898226171438267e+01 2.3619095454170122e+01 -4.8559763014009019e+02 -1.5693347874508667e+01 4.8478879008576905e+02 1.4906265260406284e+05 9.1466374365402720e+04 3.7830111904112457e+01 -3.2005585242698857e+01 -2.9582634311951318e+02 2.0289462145281823e+02 -1.2251105060600676e+03 -3.6018580931053975e+02 1.4418259148854108e+03 4.9770381477673318e+03 -1.5562661093068509e+04 1.4950259016983182e+01 3.5384168143636407e+02 1.2115448622700378e+04 
      </Row>
      <Row Index="24">
        5.8820349102605242e+01 1.9051006030277349e+03 -3.4042524294777832e+02 -4.1741142576604034e+01 -6.4235023143873747e+01 -8.1869850077831798e+03 6.9703448788078258e+03 4.9256586388335563e+01 3.4076501488726755e+01 5.7167359902645330e+01 -4.6860791177490901e+03 -2.4298775510249834e+02 -3.3930399661007687e+02 4.6613256874051303e+03 1.5842558318325891e+04 -7.5106126741220243e+04 6.2788712509664037e+01 1.9521700827899622e+01 -1.1292849736372591e+02 5.4907392577228020e+03 1.3940704697602123e+03 5.1177275610856623e+02 -6.1322910961117977e+03 -8.6822370375055645e+04 1.2407066351770330e+05 -2.5256619608477564e+00 1.5801929444461712e+02 1.3596118685345573e+01 -4.0416737260139489e+03 -2.7292015857727688e+02 -6.8242988402603260e+00 -9.2006856508315832e+02 -1.1021499480187593e+05 6.7037619057658885e+03 9.6296791997971013e+01 -6.3313919690174600e+01 -1.9331437124574187e+01 1.2912008967096870e+03 7.9360714454749996e+01 8.4452878721428945e+01 -1.4551780473349659e+03 7.7947075986009222e+04 -1.6176373005424388e+05 -9.3984645993285092e+00 -4.4213958980855345e+01 -4.2518160746670389e+01 -3.6201301481790614e+02 3.3774507847365021e+02 -1.1886808635145871e+02 -4.3094324194583680e+02 6.5557851133377799e+03 3.8771420557281752e+04 8.0329132379129049e+01 -6.2611967301956611e+01 -2.9804372080146622e+04 
      </Row>
      <Row Index="25">
        4.1335871761293763e-01 -8.9166650719043510e+00 -3.6799770517778585e+00 -3.7835875737251983e+00 -1.0140530572452064e+00 6.7292215734183424e+02 4.1027985649170589e+01 -4.4352469691075747e+01 -8.8396744526542192e-01 5.5030528259369094e-01 1.7242488506743891e+02 1.7819597059125314e+01 1.2830058288725134e+01 5.3230026472244198e+01 -6.9401597276975326e+02 -3.9038639426969553e+01 -3.6961183410532236e+01 -3.0181915586396686e+00 -4.5709097871985964e+00 -1.6362235942994798e+02 -1.6641272443726418e+01 -3.0351078459956220e+00 8.9446201778876500e+00 1.2659665537356275e+02 -2.5256621423734487e+00 8.1508952408855151e+01 -2.0012030055605452e+00 6.2831925324576048e+00 2.2174811221339971e+02 -1.6856903138422137e+01 -7.1242633666059640e-01 4.9853356182269955e+01 6.3844192201548071e+02 5.4493842865644531e+01 -4.0360836209930913e+00 -9.8530425059118754e-01 -7.3730401244519350e-01 -5.1510486826282168e+01 3.7344800328571928e+01 2.3688048199868854e+00 2.8865331119790632e+01 -4.9375808493165073e+02 1.0141910487133835e+02 1.8554382136523122e+00 -1.4788280324886314e+00 -1.2968130759047249e+00 1.2969567316063603e+01 2.7381780381605022e+01 6.7920516361301582e+00 7.3928726227375021e+00 -3.0936917251717873e+01 -1.5326944177500197e+01 -2.1398657916378276e+01 1.5464745147757846e+00 3.9882024727242643e-01 
      </Row>
      <Row Index="26">
        -8.4038919595029538e-01 8.4220339538615008e+00 3.2801537745446865e+00 -5.0859745143564439e+00 5.0495951146644842e+00 -1.4360633524419529e+02 -3.4651606828467749e+01 5.9120361021446222e+00 -1.3949302873011302e+01 2.3033081895368204e+00 -1.3807813631888052e+01 -4.9516081298488928e+00 1.6362725429888343e+01 -9.5482123530401736e+01 -3.2302603097400333e+02 -2.9995023870242534e+01 4.5914535552838487e+00 9.4873805200116408e+00 -2.7226438128176369e+00 -9.3639728039300962e+00 1.6183876582885411e+01 -1.1781346056507537e+01 3.8052378634526136e+01 4.3746790667805260e+02 1.5801929446310896e+02 -2.0012030054138137e+00 3.4604071175538238e+01 1.1179599405011302e+00 3.4809213468188958e+00 6.9030110135025780e+00 -2.2580674746938865e+00 3.7235353538533161e+01 -1.3274952495045079e+02 -7.3865682189354374e+00 3.2938826493413842e-02 -9.5885546328935476e+00 -3.7405156446078597e-01 2.2789148311261234e+00 -1.3474002544232974e+01 -4.9628657173994029e+00 2.0235090746119415e+01 -1.4955530029291302e+02 -1.9661794926993298e+02 4.4467485512612592e-01 2.5106254048148955e+00 -1.1670109753787234e+00 4.0639363909174886e-02 -1.1929366471214500e+01 7.4697107029223666e+00 9.8046887622674816e+00 2.3437637580755737e+01 3.2987768596737531e+01 3.3818436406140302e+00 -1.1385141789667536e+01 -2.6390321724440330e+01 
      </Row>
      <Row Index="27">
        2.7606317353848517e+00 -8.2228047473856805e+00 3.8517727278404976e+00 -1.8577872990527933e+00 1.0012978272036321e+01 4.2371196264156674e+02 -1.9812711762604440e+01 -1.0928714789518844e+01 9.4646269067099942e-01 1.1192946780381407e+01 2.9374845188808187e+01 -3.0121515322672749e+00 5.6827115277797873e+00 -9.7754345563027485e+00 -7.5830918144007597e+01 3.7055020017431382e+01 1.8774053083257520e+00 -2.0392743900398216e+00 1.4004531477128594e+00 -2.5957838654644874e+01 1.4981438220643266e+00 9.7050686911056783e-02 -8.6437446764648023e+00 2.6293434377884245e+02 1.3596118689870309e+01 6.2831925325233478e+00 1.1179599404980607e+00 1.6917044287090953e+01 2.9927126787143379e+01 -1.1988898294168955e+00 5.7398430222813941e+00 -1.2879457441459042e+01 1.9050146445729692e+02 2.4451059164081485e+01 -1.3427539422432329e+00 1.9415560613850253e+00 1.6521084539081172e+00 -6.3002107243769210e+00 -8.7676752550279371e+00 -7.7042972494480355e-01 -2.1641995143755981e+00 1.6064665393370146e+02 -4.3841511963608113e+01 9.8541150434428837e-01 6.0318484443542264e-03 -1.2003688878638076e+01 2.2955611403006260e+00 -7.6773798348488143e-01 5.1332966527973962e+00 -1.3477012673092901e+00 4.5178834555794936e+00 1.3949468537269240e+01 -4.7984775172828460e+00 6.0141419726466427e-01 -1.2169163737072733e+01 
      </Row>
      <Row Index="28">
        7.7503829267702251e+00 -1.0518349465766660e+03 -3.5044241388057344e+01 -4.5799946454204701e+00 6.6382564784894953e+01 5.7226520703835140e+03 3.6657082818525868e+02 -9.8297776325491895e+01 5.3770417119879079e+00 1.1291910525062008e+01 2.5461178930992228e+03 1.1479099958898541e+02 4.0980414698020468e+01 -6.4065206900661974e+02 -1.6680262025117572e+03 1.9892358193517216e+03 -1.1561592811870059e+02 -2.0735466022172659e+01 -2.6515308041432036e+01 -2.4489491387397243e+03 -7.3129284826982371e+01 -5.3084118004697189e+01 1.0433449896864913e+03 2.8347013120253418e+03 -4.0416737266871351e+03 2.2174811220868787e+02 3.4809213471912699e+00 2.9927126787213638e+01 2.3516391604057776e+03 -2.9972462713059533e+00 -2.4698991549227244e+01 6.9894956469663839e+01 3.3120450608816964e+03 -4.6416370752312150e+02 -8.2214022888230431e+01 -3.3333723886426014e+00 -9.1007030314960708e+00 -5.6860738439546049e+02 8.1842767042648546e+01 -4.1813680156248374e+00 2.8179536165370303e+02 -6.4454196394467926e+03 5.6641939480891233e+03 1.8948357337436939e+01 -2.1449561734726563e+00 -9.3916483056196718e+00 1.6223114657462898e+02 4.9516176618931922e+01 4.7051272899949481e-02 6.1106651950003332e+01 -3.7574017818245659e+02 -1.0263820515367720e+03 -6.3267651430282740e+01 7.8403911001981896e+00 6.5806985802586576e+02 
      </Row>
      <Row Index="29">
        -1.9232671634674798e+00 -2.0504006878479686e+01 4.0879770682784141e+01 -5.0448162047706333e+00 3.9605363576164265e+01 -2.2341467440234037e+03 1.3784036660833033e+02 2.4971720468682790e+00 2.2923998890591837e+00 5.5876302386430474e+00 3.1503307303409599e+01 -2.7716185739642214e+01 3.7650211978639732e+00 -1.7022567987751793e+02 1.9731818681745342e+03 2.7619852052820590e+00 1.7629553230835036e+01 -1.3511948059155372e+01 -5.0399204758721794e+00 -2.5847209852499304e+01 2.4681505443378732e+01 2.4165489471997432e+00 8.3101907793608945e+01 6.1186346371400975e+02 -2.7292015854960118e+02 -1.6856903138976094e+01 6.9030110136121152e+00 -1.1988898293788424e+00 -2.9972462749669546e+00 6.2658202569536613e+01 -5.6884789266924614e+00 -4.8065319149942070e+01 -1.2304388554972086e+03 -2.1444331143521254e+01 2.3981727199650464e+00 -1.0636716788117511e+00 -3.5189196342215618e+00 -6.0970574454697264e+00 -2.6410798315637880e+01 -8.1513501337522953e+00 -6.1842279190393690e-01 -4.7748696967949968e+02 4.1441439587080703e+02 9.5514033932927067e-01 5.9390585366589166e-01 -3.3173526961697558e-01 -4.1184731011960751e-01 -8.0771368321314768e+01 2.2876957948462220e+00 3.9943825257583319e+00 1.8352533423489227e+01 -1.0064959982648475e+02 3.3643724047841221e+00 2.8393916529866630e+00 5.0866318712158993e+01 
      </Row>
      <Row Index="30">
        8.8002932117081745e-01 -5.2667865287833138e+00 -6.9456486741806245e-01 -7.0074156496155933e+00 2.6258884101501479e+01 5.2306496524396368e+02 -4.7564723777948061e+01 -5.7289539634164708e+00 -2.0168809008039865e+00 7.4448460194312265e+00 -1.7540711152566054e+01 -9.9533103316225997e+00 4.5369447494975290e+00 1.5781166190528593e+01 -6.0997701329506094e+02 6.4863651209381601e+01 1.3578244467240070e+00 3.9241040676783854e+00 3.3461702342493638e-01 1.4304937568107235e+01 2.1434492497294046e+00 1.1044764598300015e+01 -2.4737881263003814e+01 -5.3130536320311660e+02 -6.8242989357447641e+00 -7.1242633665286625e-01 -2.2580674747801517e+00 5.7398430222399650e+00 -2.4698991546998272e+01 -5.6884789264957334e+00 2.1475341206944915e+01 2.2886772275714215e+01 1.9595327147878925e+02 -9.4666991831804275e+00 2.2589657996291868e+00 2.6336609045953017e+00 1.0624435969051325e+00 8.9574411779471550e+00 -9.5048017965178655e+00 -5.0636798381059362e+00 -3.7776186417825784e+01 -8.6992681964547700e+01 6.7123445389998011e+00 1.1012189947484980e+00 -9.2158244777994636e-01 -5.9476544804460261e+00 -6.6526159032202803e-01 5.3043823319719241e+00 1.0079986535715410e+01 -2.9178492995345993e+00 -1.0376865097107611e+01 -6.5723563889298084e+00 -1.3943348855438755e+00 8.2335546850458741e-02 6.3379340919308316e+00 
      </Row>
      <Row Index="31">
        -2.5895229118095784e+01 1.9787714984901640e+02 8.3222488936633567e+00 -7.9479241916804483e+01 -1.4959970544716459e+03 -6.8256354073014918e+03 -9.4179424642662866e+01 4.0717189067894346e+01 -2.2171649651141621e+01 2.2208896642994613e+00 1.4878585612277342e+02 4.4432570188633065e+00 1.9074905660060193e+02 -6.0203240030447319e+02 -5.2576320815050440e+02 6.2728584552394159e+02 -2.5071746026172129e+01 8.6766054887525002e+00 7.2805182795202654e+00 -1.3097179619240308e+02 -4.5659513868503687e+01 -1.7917944136822353e+01 3.0418484798935124e+03 8.4224467119043220e+03 -9.2006856699397031e+02 4.9853356182339994e+01 3.7235353537394502e+01 -1.2879457441823590e+01 6.9894956513731287e+01 -4.8065319144104855e+01 2.2886772276167495e+01 2.6735387742824223e+03 1.1617297650963828e+04 -5.4406903287539728e+02 4.2594013608362275e+01 -3.0622530614057126e+00 6.5729155164638708e+00 6.2986172239835767e+01 -1.1712797135657066e+01 -4.2437732705252657e+01 4.0275594711099120e+02 -4.0942575222419900e+03 1.2927910908076824e+03 -1.1320266146679305e+00 1.0076548018842239e+01 8.5512378131864786e+00 -1.1424413627066937e+01 4.1775365249589825e+01 1.5986877532302216e+02 3.8729721855895440e+02 -9.0870134888978015e+01 -4.0253903643415498e+01 1.2673227542370668e+01 -1.3469342726135395e+01 -5.8050868451200834e+01 
      </Row>
      <Row Index="32">
        1.1087353924434137e+02 3.3390950211090967e+03 -2.5450024292742310e+03 3.4319682148488937e+02 -6.1245808319807329e+03 2.9291865208092429e+04 -1.0693596905918243e+04 1.2764686544282085e+02 -5.6045453669933704e+02 -2.5437346372909542e+02 2.1290744627129170e+03 2.5037158408230025e+03 -3.2426308054727269e+02 -1.5019963672352605e+03 1.5500238950814277e+04 6.9392701175373790e+04 -5.1096885452516653e+02 1.3023193707174214e+03 2.5485255030011467e+02 -5.1480534950523288e+03 -1.8986816526780422e+03 -2.4041688700562372e+02 1.5310143080529044e+04 7.8939131186927552e+03 -1.1021499481241219e+05 6.3844192187827139e+02 -1.3274952493880119e+02 1.9050146445930295e+02 3.3120450606743325e+03 -1.2304388554249708e+03 1.9595327140601421e+02 1.1617297649613050e+04 3.3019979123242787e+05 -1.3896923791591762e+04 -1.0253971798667953e+02 -3.9187004885770875e+01 6.4155692241979239e+01 -7.5646968971652404e+02 1.0560017502863286e+03 -7.5508718458522054e+01 -1.3471885006618641e+02 -1.6623982852568140e+05 1.5213527704706017e+05 2.5801681869026385e+02 8.8623724926272246e+01 -7.1221265203604844e+01 1.3867253333911481e+02 3.3703051945657498e+03 -1.5340918735384093e+02 1.5962782002823878e+03 -9.8220269895507972e+03 -2.9924894486160294e+04 -7.2880425999499025e+01 -3.1758870605623542e+02 2.1878907055981890e+04 
      </Row>
      <Row Index="33">
        2.7494994826965012e+01 4.6280261571916344e+02 1.4815762233071564e+02 -1.4645182438533766e+01 2.4545182573012960e+02 -1.0658828284088991e+03 5.8292827474013734e+02 -4.0281207899031187e+01 2.6134953939336356e+01 4.4012353832168515e+01 -8.2313752104261494e+02 -1.4714019223066589e+02 1.7647468069306342e+01 9.1628075335257074e+02 -5.6864586673180129e+03 -3.4394326366962941e+03 -3.5487536224015230e+01 -5.2111387137156271e+01 -7.7272300530827124e+01 8.0273306018326730e+02 5.5930420704808967e+01 -3.0199810576328787e+01 -1.9041465917865619e+03 9.7063516230253917e+03 6.7037619067260530e+03 5.4493842875263908e+01 -7.3865682200885203e+00 2.4451059163957780e+01 -4.6416370751148679e+02 -2.1444331149982872e+01 -9.4666991783501970e+00 -5.4406903278590744e+02 -1.3896923791709822e+04 2.8936805547301628e+03 -2.2873310727745775e+00 8.6651553253523161e+00 -1.7164905135117192e+00 2.4472254550689908e+02 4.9702075765091621e+01 1.7459375842015447e+01 -2.2417040699084538e+02 2.6890696473841293e+04 -1.0837894009994037e+04 -9.9135564105818794e+00 -1.3320847340764566e+01 -2.1197522189854979e+01 -4.8534781685767122e+01 -1.4279356581115417e+02 -1.8236171678555124e+01 -1.2687363077638616e+02 8.5166923406277010e+02 2.0697230514129706e+03 -1.9393661805339782e+01 1.8298139215092760e+01 -1.3293740929744608e+03 
      </Row>
      <Row Index="34">
        -4.9439528688299887e+00 -7.2663665130824029e+00 4.2301131633212776e+00 -5.2017435967208883e+00 3.0162240429275187e+00 5.2674593197074188e+01 -1.0507433711941422e+01 1.9596867213482678e+00 -1.4628198436767548e-01 -4.6676541146653028e-01 -1.3045323709635176e+02 7.8642002798484896e+00 6.2549040759199386e+00 1.9293434954253410e+00 -2.8815932615687905e+02 -7.3377548581524948e+01 1.0606529858723146e+01 1.3097276324495652e+00 5.7378456975191625e+00 1.7081817320413182e+02 -6.5219298728439590e+00 3.0519211418941392e+00 7.9977892971950801e+00 7.3364370616380327e+01 9.6296791940206276e+01 -4.0360836208524802e+00 3.2938826431987422e-02 -1.3427539422645012e+00 -8.2214022886335869e+01 2.3981727200748608e+00 2.2589657997053010e+00 4.2594013609637791e+01 -1.0253971793620792e+02 -2.2873310761921886e+00 2.5737431202473012e+01 1.3351328467845036e-01 8.6225423368505605e-01 2.3147667799316025e+01 1.3409666376919543e-01 -8.9739721363973635e-01 -9.8631692579620989e-01 1.9704763077385419e+02 -1.2256991041966957e+02 -3.2629700182157784e+00 -3.0002591076471674e-01 -7.9241083586518801e-01 -7.0631406329467099e+00 2.0269114669147044e+00 5.5212006668978084e+00 4.9158632423315822e+00 1.1662784023276767e+01 2.6421580175326412e+01 3.4441886538100439e+00 -7.2795963127989882e-01 -1.8929801375107626e+01 
      </Row>
      <Row Index="35">
        9.3706536799124418e-01 -2.0959418015061146e+01 -3.0134880807103883e+00 -3.2601068894182461e-02 2.2896293587215098e+01 -3.5727268504647043e+02 -1.8519753758625527e+01 3.8841091505789294e-01 1.1327528886251951e+01 1.4288135241951578e+00 3.1451433165878839e+01 4.8956950923335611e+00 5.5922146846918821e+00 -4.0411786246318030e+01 9.1752358971218109e+02 5.3825595908412282e+01 2.8201650787997234e+00 -1.9528829267431561e+01 -1.2719154447455594e+00 -1.9020030444363755e+01 1.5705963304913197e+00 -8.7497767908246669e+00 -1.3609214048228591e+00 3.1295645442064148e+02 -6.3313919662519766e+01 -9.8530425071126260e-01 -9.5885546328494797e+00 1.9415560614040963e+00 -3.3333723897377041e+00 -1.0636716788372844e+00 2.6336609045465336e+00 -3.0622530623357278e+00 -3.9187004912237626e+01 8.6651553271242321e+00 1.3351328467190093e-01 1.6244399604308562e+01 -2.5356778263139856e-01 2.7560435584930714e+00 -2.0812781846836530e+00 -3.0602454440539955e+00 4.4217428351703401e+00 -1.1984539138915605e+02 9.4037610671359857e+01 3.8509496751153138e-01 -2.3260989505564567e+00 -1.6310538486693464e+00 1.2837779142942893e+00 1.7259885356725775e+00 2.3872855825908270e+00 1.5982955238311476e+00 -1.0914921804626843e+01 -1.9741155738959542e+01 9.0207386268623524e-01 1.0807407474107906e+01 1.5046054791153185e+01 
      </Row>
      <Row Index="36">
        4.4617358504381688e-01 6.8113154975858663e+00 9.5506703795496861e-02 1.0729934836757327e-01 -2.4295718195219731e+00 4.3813987363545884e+01 -1.1919258871889374e+01 1.0283555071266415e+00 -1.9057103123702968e-01 1.4754337717662382e+00 -8.3242384951860462e+00 -4.4352120923155365e+00 -1.6690690029400947e+00 1.3018487208278886e+01 -1.1136276239711084e+02 2.6317315122330569e+01 1.8363435648802051e-01 5.9921578736050662e-01 6.7757723461844677e-01 3.4128300163580612e+00 -5.3905795454951555e-02 1.0898880162027209e+00 -1.1812135186669122e+00 -1.2898226177609226e+01 -1.9331437110113029e+01 -7.3730401246290533e-01 -3.7405156444699017e-01 1.6521084539126587e+00 -9.1007030319123228e+00 -3.5189196342579709e+00 1.0624435968928592e+00 6.5729155162766899e+00 6.4155692230314600e+01 -1.7164905127185630e+00 8.6225423368912146e-01 -2.5356778263808266e-01 1.4438899693344323e+00 2.7071917059614670e+00 -1.6613734459569622e+00 7.9706274965023871e-01 -2.9046928206448479e+00 3.7792185600580250e+00 2.0885487293374901e+01 -7.7502870535662294e-02 1.1477273690548473e-01 -1.4293663051153525e+00 -5.3523149953558458e-01 6.5860987695012163e-01 -4.8376421418516918e-01 -3.2820080841132881e-01 -1.1025937556118945e+00 -3.2351316095345393e+00 5.0717808137198106e-01 -1.9755096116618054e-01 3.0135721320822357e+00 
      </Row>
      <Row Index="37">
        -1.6332692398842141e+00 2.8248216670300280e+02 1.2856831708710729e+01 3.0452218218492249e+00 -7.2726566489776033e+01 -1.9715436413908217e+03 -9.3861511439793276e+01 2.0001087968476639e+01 -2.1782191184755106e-01 -3.8299639240278793e-02 -7.5115975088709729e+02 -4.3231195191993152e+01 -8.9463292239606744e+00 3.6753462717346338e+02 5.3027411104793089e+02 -5.8801577119100159e+02 2.9405536787305550e+01 2.4068016420681033e+00 4.8906307251979797e+00 8.3332124151626635e+02 3.1269441553284821e+01 2.1447913651617796e+00 -5.1208817748381580e+02 2.3619095351267561e+01 1.2912008969303570e+03 -5.1510486824660518e+01 2.2789148309800566e+00 -6.3002107243957539e+00 -5.6860738439499914e+02 -6.0970574467047527e+00 8.9574411787261532e+00 6.2986172254936378e+01 -7.5646968977815595e+02 2.4472254551002152e+02 2.3147667799952558e+01 2.7560435581328306e+00 2.7071917058209025e+00 2.1983784692844981e+02 -2.1554703041409851e+01 1.5887229391099535e+00 -1.0449280940500327e+02 3.0467763493833900e+03 -1.8786301852032370e+03 -2.8219041291128537e+00 -6.8771855733279252e-01 5.8769408176545435e-01 -4.7119980968379359e+01 -1.7066521306779180e+01 -3.8164909841858456e+00 -1.9681260049754457e+01 1.1595969880441960e+02 3.5355867157210014e+02 1.4606169732272683e+01 -1.1308234169132021e+00 -2.2334616049412489e+02 
      </Row>
      <Row Index="38">
        5.0267961514631310e-01 -7.7805447059963626e+00 -3.0186211070335190e+01 2.6165733563840732e-01 -4.9898852914826051e+01 1.2287386269469198e+03 8.7493911227007004e+01 -2.3325458371670312e+01 -3.4324499694610004e+00 -2.4240998655386601e+01 5.9128214705140749e+01 4.7186674044935074e+01 1.9588964431245302e+00 7.7015600773441875e+01 -1.1766736132685658e+03 -1.6829034517970689e+02 -2.2558654910385275e+01 1.1401551437006276e+01 7.3465392237412743e+00 -4.1774418371650142e+01 -3.5567932589939190e+01 -1.0064264351791294e+00 3.7495763165758262e+00 -4.8559763003483795e+02 7.9360714230996564e+01 3.7344800328864203e+01 -1.3474002544456852e+01 -8.7676752551130335e+00 8.1842767050216423e+01 -2.6410798314973853e+01 -9.5048017964173237e+00 -1.1712797132349564e+01 1.0560017504814286e+03 4.9702075750709625e+01 1.3409666366784734e-01 -2.0812781845600696e+00 -1.6613734459564717e+00 -2.1554703043985128e+01 6.9721429466675616e+01 3.9196611467369866e+00 1.9876979502401184e+01 1.9478882957187793e+02 -9.2311880716332894e+01 -3.0479257558650819e-01 -2.1504523851504480e+00 1.2359181112186231e+01 4.6156615266520724e+00 5.6058764975170376e+01 -2.1949288017336386e+00 2.4562882181442873e+00 -2.4256415625752489e+01 3.5909445985941005e+01 -1.3646119755551725e+01 -4.4687312812547475e-01 -2.5979751109491939e+01 
      </Row>
      <Row Index="39">
        4.7877466344603281e-01 1.9318600746795823e+01 2.3162903490165405e+00 1.0972197519839652e+01 -2.4314783579329589e+01 8.6623994675741642e+01 8.0552091884652413e+00 -3.3576024740659349e-02 3.0486453469301509e+00 -8.0274056619618950e-01 -4.8419762372318445e+01 -4.8520649821504591e+00 -2.2392743866842068e+01 1.9251800162485995e+02 -1.5502010281789245e+02 -6.8832837038372446e+01 -5.2118182406577613e+00 -3.0065717813253912e-01 -3.9187127094223229e-02 3.6566028072710395e+01 -3.7312052175872790e+00 3.6065685364066038e+00 -1.2433634278670638e+02 -1.5693347945759896e+01 8.4452878892623630e+01 2.3688048200403138e+00 -4.9628657172764292e+00 -7.7042972490064798e-01 -4.1813680193079072e+00 -8.1513501342161128e+00 -5.0636798381069337e+00 -4.2437732704283462e+01 -7.5508718578531727e+01 1.7459375849753116e+01 -8.9739721349724455e-01 -3.0602454441504872e+00 7.9706274962587287e-01 1.5887229403802854e+00 3.9196611470654554e+00 1.3211109271095271e+01 -1.8859421937022081e+01 3.9163271566910922e+01 -9.6074487924614374e+01 -1.0036626393731396e+00 -5.1815562922367664e-01 9.2761558515387621e-01 -1.2520327065339489e+00 3.9565475399620560e+00 -1.9416647148735784e+01 -1.6340774396300787e+01 1.9252255097493718e+00 1.8846939658193762e+01 -8.9260309290736761e-01 2.0158918437026685e-01 -1.1974323470342036e+01 
      </Row>
      <Row Index="40">
        -9.9923802172789777e+00 -2.6081566580107756e+02 3.7472587092553908e+01 -4.5145305341944749e+01 -2.9448963625599492e+02 7.6747581018928850e+02 -3.8165137533145753e+01 -1.5311969293844783e+01 -1.7904080057752481e-01 -1.6142563340216633e+01 6.6653392374169562e+02 3.6048211059550226e+01 1.8094267904955473e+02 -7.7412852053071617e+02 1.0349976060404390e+03 9.5442205990705293e+02 -9.0352612377735397e+00 -1.8485749477250920e+01 6.3321157038180900e+00 -6.7945072486724598e+02 -5.6685428490189736e+01 -9.0959410156751289e+01 1.1672272649099011e+03 4.8478879054895060e+02 -1.4551780484495757e+03 2.8865331118410211e+01 2.0235090745542266e+01 -2.1641995145948272e+00 2.8179536167468319e+02 -6.1842278840344989e-01 -3.7776186418355401e+01 4.0275594709514746e+02 -1.3471884935127309e+02 -2.2417040703698081e+02 -9.8631692706160834e-01 4.4217428359717985e+00 -2.9046928204173330e+00 -1.0449280941231399e+02 1.9876979498740532e+01 -1.8859421936149097e+01 5.6723564104769855e+02 -1.1842533351619502e+03 1.9520410791162644e+03 -1.2737123910202158e+01 9.3761913594912123e+00 9.6695837085725032e+00 3.3874108152494664e+01 -1.6564110904419067e+00 1.0482930460042705e+02 1.3814642796463369e+02 -7.9492806759238988e+01 -3.4740090530137286e+02 -1.1688080180193644e+01 -4.8324666712005637e-01 2.2211381567604747e+02 
      </Row>
      <Row Index="41">
        3.0463401665010497e+02 1.3192980595760746e+03 4.1007978810858185e+02 -3.3496874357203524e+02 1.9776784768250509e+03 4.5846071708657721e+04 4.3646942392687342e+03 1.5009642420576529e+02 -7.9579206641881683e+01 1.2699108883962617e+02 -6.3538164956700202e+03 -8.6653826675390155e+02 1.3468520892231027e+02 5.2434870079341499e+03 -1.6015066913952038e+05 -3.8543459652970574e+04 1.8175009459182729e+02 4.8051343410385016e+02 -1.7941669832918706e+02 9.3496294857572793e+03 8.6277523270863094e+02 5.9871541713534862e+02 -1.2713860040918324e+04 1.4906265259827877e+05 7.7947075996410567e+04 -4.9375808481081185e+02 -1.4955530031151284e+02 1.6064665393158066e+02 -6.4454196392647973e+03 -4.7748696976602878e+02 -8.6992681906120879e+01 -4.0942575211710355e+03 -1.6623982852546236e+05 2.6890696473750759e+04 1.9704763081338388e+02 -1.1984539140878951e+02 3.7792185508011631e+00 3.0467763493327366e+03 1.9478882975419901e+02 3.9163271474236353e+01 -1.1842533345989928e+03 4.0965871378300578e+05 -1.4337788129508609e+05 -9.7518297299393225e+01 6.6468191758761577e+01 -2.6161015572601707e+02 -5.3906702095257924e+02 -1.6022003339482035e+02 2.9089482692285344e+02 -8.6575415760812939e+02 1.1590922842488995e+04 2.5374815073116832e+04 1.4509545863161003e+02 -1.6203533287695427e+02 -1.4203773372841519e+04 
      </Row>
      <Row Index="42">
        -1.1947641281114920e+02 -2.4519990331511945e+03 5.0755107923748437e+02 1.0070888195930456e+02 -4.0406015571003081e+01 3.4796902289734935e+03 -9.2774817320035072e+03 -1.4099335095009883e+02 -2.9641613704035990e+01 -9.2318199854882550e+01 5.9226050391900353e+03 3.7727318200829905e+02 4.6591134597058408e+02 -5.9854267227503587e+03 -4.8935445757483831e+02 9.7182085455466178e+04 -1.1316481307243521e+02 -8.6501835412695073e+01 1.5398486082704039e+02 -7.1679758358401014e+03 -1.9709601561560703e+03 -8.1388809140483500e+02 8.0588963026997371e+03 9.1466374505185406e+04 -1.6176373039249703e+05 1.0141910542215919e+02 -1.9661794948007446e+02 -4.3841512026177952e+01 5.6641939590105612e+03 4.1441439707524842e+02 6.7123449065693421e+00 1.2927910976955318e+03 1.5213527731986530e+05 -1.0837894030446594e+04 -1.2256991047448537e+02 9.4037610747516737e+01 2.0885487277596354e+01 -1.8786301889579045e+03 -9.2311880774740303e+01 -9.6074488676596957e+01 1.9520410859949407e+03 -1.4337788154358484e+05 2.7267113965443702e+05 9.8658348270437273e+00 4.8361160942964489e+01 9.5554061563145709e+01 4.9587502845430231e+02 -4.8981469718116568e+02 1.0816847694841374e+02 5.7309370227737236e+02 -9.4463544809863979e+03 1.1095543526485229e+05 -1.4567177723955788e+02 1.0530617243988308e+02 -1.2347335609320586e+05 
      </Row>
      <Row Index="43">
        1.3311161454250766e+00 5.7792866441707957e+00 -8.4609696507602923e+00 1.1990017319637691e+00 2.1136918046781243e+01 -8.4102191976590618e+01 -2.0563704483650982e+00 9.3169154324529402e-01 -9.2735930567165781e-01 5.1089104529290874e-01 3.1329806128254599e+01 -1.5818121252089057e-01 -3.1452079259418122e+00 -1.1526160233920253e+01 7.7180384399113407e+01 1.5659911997059332e+01 -4.0668071430469754e-01 1.3319786400089655e+00 -1.3211956895698922e+00 -3.8610851692373636e+01 6.0061870428440569e+00 6.0845529070415916e-01 -4.8797332845213837e-01 3.7830111891411377e+01 -9.3984645671611702e+00 1.8554382136453502e+00 4.4467485515654492e-01 9.8541150435636005e-01 1.8948357336647227e+01 9.5514033926488162e-01 1.1012189947426063e+00 -1.1320266145653011e+00 2.5801681866651029e+02 -9.9135564090487929e+00 -3.2629700181916919e+00 3.8509496749453981e-01 -7.7502870538624064e-02 -2.8219041288456124e+00 -3.0479257555630634e-01 -1.0036626393642942e+00 -1.2737123910434025e+01 -9.7518297281748644e+01 9.8658349484631955e+00 3.2538371575094063e+00 2.5912329078436031e-01 -9.2515431175268803e-01 1.3427911238302142e+00 2.5135544403462209e+00 -1.9980500910599244e+00 -9.4268372010503598e-01 -4.0090986008717584e+00 5.1985496014877630e-01 4.5431448025955729e-01 -8.9465567920034128e-02 -2.7328356135182930e-01 
      </Row>
      <Row Index="44">
        -9.6589518442576239e-02 4.4987980944615060e+00 -1.0424391208288704e+00 -9.8444905433513474e-01 -1.7443082901498048e+00 7.6413036815429777e+01 -1.7885743292135935e+01 1.0288393038399399e+00 -2.9130430871125119e+00 -2.0431869931522351e-01 -1.0887742105995102e-01 -1.3304106429822919e+00 3.3864592598127885e+00 -1.7755028294250327e+01 -1.3378422503878244e+02 5.7130428422408471e+01 8.1656237438131818e-01 5.2698377741954729e+00 3.0983593481324334e-01 -2.2475971643356658e+00 -7.0836754407097580e-01 -7.0192272790458121e-01 2.0810456432229415e+01 -3.2005585230124900e+01 -4.4213959011923407e+01 -1.4788280325037695e+00 2.5106254047936325e+00 6.0318484370434078e-03 -2.1449561727892021e+00 5.9390585375596405e-01 -9.2158244778737175e-01 1.0076548018573225e+01 8.8623724947826020e+01 -1.3320847342191621e+01 -3.0002591079649221e-01 -2.3260989505372658e+00 1.1477273691049283e-01 -6.8771855756884959e-01 -2.1504523852221293e+00 -5.1815562921288749e-01 9.3761913596009698e+00 6.6468191741149056e+01 4.8361160793200895e+01 2.5912329078817581e-01 1.7283452337457108e+00 -6.9255958608326340e-02 -2.8203390472987389e-01 1.1217533297831714e+00 2.5738948997223576e+00 2.5712398419390912e+00 5.2474002078430004e-01 -5.4624271496817549e+00 5.1701717183397800e-01 -2.4362111569191081e+00 4.7400135951997289e+00 
      </Row>
      <Row Index="45">
        -2.5482458297212220e+00 4.4426954826172960e+00 -2.1905552464947888e+00 5.1230472260821003e-01 -2.8560163935284312e+01 -2.8932881888342388e+02 2.3553335936434763e+01 4.6489483527729831e+00 -1.0974283801594513e+00 -1.0482851175672398e+01 -8.7475977976801715e+00 4.2774146731035287e+00 -1.5673960884899145e+00 9.3348541990800769e+00 9.3945261939019801e+01 -2.1242472112718175e+01 -3.1699527885955288e+00 2.3184317687293543e+00 1.2889932095191625e-01 4.2168323290105434e+00 -4.3289426756420859e+00 -1.5998726719898766e+00 1.8557391051053536e+01 -2.9582634309823050e+02 -4.2518160785476084e+01 -1.2968130759961198e+00 -1.1670109753974600e+00 -1.2003688878648052e+01 -9.3916483048280277e+00 -3.3173526946998777e-01 -5.9476544804983398e+00 8.5512378124516530e+00 -7.1221265178779504e+01 -2.1197522191498742e+01 -7.9241083592098782e-01 -1.6310538486278681e+00 -1.4293663051054268e+00 5.8769408149538815e-01 1.2359181112010319e+01 9.2761558521413301e-01 9.6695837084263871e+00 -2.6161015574707727e+02 9.5554061317806060e+01 -9.2515431173620954e-01 -6.9255958617779001e-02 1.0143535900347215e+01 -7.9596316641650011e-01 1.8519763504065168e+00 -2.7749233449929971e+00 2.8235116361878703e+00 -9.3456533618543567e+00 -2.2276642929614475e+01 1.3171618083169978e+00 -6.2564429464097504e-01 1.4980632098361491e+01 
      </Row>
      <Row Index="46">
        1.3854896100440435e+00 -9.2666752944111067e+01 -3.7257628615074054e+00 -1.1840722532718928e+00 2.0189077538048650e+01 4.9846175252545743e+02 1.9958481702201766e+01 -4.6885893055166648e+00 8.3324280980652787e-01 1.0556103131710515e+00 2.2791066684153037e+02 7.5584299010986342e+00 5.7624727563811575e+00 -9.2354612751452834e+01 -1.1502629308656437e+02 1.9892077655908827e+02 -7.4366362697466997e+00 -2.4505328054543725e+00 -3.0203214084381500e+00 -2.4876753975827069e+02 -4.0480659911528818e+00 -7.0318275544385571e+00 1.2428298545578957e+02 2.0289462147407392e+02 -3.6201301486429293e+02 1.2969567315640589e+01 4.0639363954568353e-02 2.2955611403125999e+00 1.6223114657425060e+02 -4.1184730983358975e-01 -6.6526159052232980e-01 -1.1424413631020911e+01 1.3867253334709130e+02 -4.8534781686069039e+01 -7.0631406331069684e+00 1.2837779143837551e+00 -5.3523149949941062e-01 -4.7119980968291244e+01 4.6156615259931044e+00 -1.2520327061978822e+00 3.3874108150499438e+01 -5.3906702095960236e+02 4.9587502751188697e+02 1.3427911239008008e+00 -2.8203390479252022e-01 -7.9596316649507237e-01 1.4490623293484028e+01 3.5324171209293524e+00 1.0479072961470983e+00 5.9958398791440430e+00 -2.9681429939821513e+01 -9.1091427637279963e+01 -3.3878264607141304e+00 1.2580622398635448e+00 5.9719323665467329e+01 
      </Row>
      <Row Index="47">
        3.1212119151884323e+00 -1.0666892835536601e+01 -1.0881542396869054e+02 6.8835275788645021e+00 1.5447738473072803e+01 4.1766839960264770e+03 -2.1283108477019232e+02 -7.5404367084102972e+00 -8.8297628910010104e+00 -1.9205037081771444e+01 1.2075905471720603e+00 1.0447911087205597e+02 -3.9293405529931533e+00 9.6142675139488205e+01 -2.9988480995825967e+03 -2.9632849544520013e+01 -1.9393889540109114e+01 3.4171404877580358e+01 1.6384761613592502e+01 2.9676816692041939e+01 -4.4235766266709078e+01 5.7174131553362173e-01 -2.1913234622203959e+01 -1.2251105059725460e+03 3.3774507829405047e+02 2.7381780382539262e+01 -1.1929366471450976e+01 -7.6773798356737188e-01 4.9516176628634213e+01 -8.0771368320758910e+01 5.3043823323139758e+00 4.1775365260288282e+01 3.3703051947871700e+03 -1.4279356582925720e+02 2.0269114670157933e+00 1.7259885357026405e+00 6.5860987690054573e-01 -1.7066521310091360e+01 5.6058764975999274e+01 3.9565475390672376e+00 -1.6564110830579466e+00 -1.6022003363309727e+02 -4.8981469544960510e+02 2.5135544402337864e+00 1.1217533299604554e+00 1.8519763507063836e+00 3.5324171217304570e+00 1.6613627444453286e+02 -6.5544185277974165e-01 -1.0104589532737691e+00 -5.4800885500175724e+01 1.6220837799086962e+02 -4.7282940921952417e+00 -7.2380318833281478e+00 -8.9859311001302203e+01 
      </Row>
      <Row Index="48">
        -4.7239024733545492e+00 -3.2137838417663033e+01 1.0587264959737681e+01 -2.9341645116867454e+01 -5.6561521737486188e+01 4.9722535225048523e+02 -3.1834760306371692e+01 -1.2902928048792603e+01 -6.0326528687469416e+00 1.5330172081267235e+00 6.9123488374287035e+01 5.5854188911590867e+00 6.7364379606095028e+01 -2.9601123902783542e+02 -4.1465048940207737e+02 1.3129513461398136e+02 4.9582063031988142e+00 2.1725002707071894e+00 5.6660666794774883e+00 -2.4398109177891939e+01 -1.1287551266000253e+01 -6.2522851872117826e+00 3.0123311066622313e+02 -3.6018580909550667e+02 -1.1886808688363999e+02 6.7920516361553958e+00 7.4697107024938489e+00 5.1332966526360835e+00 4.7051285252429409e-02 2.2876957961821027e+00 1.0079986535782773e+01 1.5986877532144149e+02 -1.5340918696609577e+02 -1.8236171703996476e+01 5.5212006664922697e+00 2.3872855828754105e+00 -4.8376421412377862e-01 -3.8164909884304308e+00 -2.1949288024822238e+00 -1.9416647148854850e+01 1.0482930460400459e+02 2.9089482661832994e+02 1.0816847490604573e+02 -1.9980500910532017e+00 2.5738948997764517e+00 -2.7749233447542170e+00 1.0479072972567973e+00 -6.5544185521323328e-01 5.4473795845619819e+01 4.3260216154218078e+01 -1.9837041378645068e+00 -2.6479954481745171e+01 -5.3635666674042071e+00 -2.1914982270169041e+00 1.6958511814624433e+01 
      </Row>
      <Row Index="49">
        -5.9326486804362766e+00 -3.3651640621132628e+01 3.8011073756499911e+00 -2.2759028693816866e+01 -2.2873775665392748e+02 -1.0083453768892514e+03 7.4561820168304109e+00 2.7285599548137007e+00 -4.3904101061346168e+00 -3.2198238221420485e+00 1.7961096081851116e+02 1.2941755425103281e+01 5.8167722921133191e+01 -3.4504974038618775e+02 2.9000091973242013e+02 2.4245700121643992e+02 1.2160427757539054e+00 -1.4337414685289218e+00 3.3533285561616140e+00 -1.8782252595891785e+02 -1.0406003494059583e+01 -1.5083779905249195e+01 6.8294896284862307e+02 1.4418259150915906e+03 -4.3094324242205039e+02 7.3928726224268217e+00 9.8046887620044458e+00 -1.3477012673973263e+00 6.1106651959758608e+01 3.9943825272399209e+00 -2.9178492995935272e+00 3.8729721855535854e+02 1.5962782006001091e+03 -1.2687363079694470e+02 4.9158632419022084e+00 1.5982955241193082e+00 -3.2820080833779408e-01 -1.9681260053119868e+01 2.4562882169223887e+00 -1.6340774396224578e+01 1.3814642796649551e+02 -8.6575415785546329e+02 5.7309369990374773e+02 -9.4268372006799561e-01 2.5712398419475093e+00 2.8235116363024293e+00 5.9958398800455788e+00 -1.0104589562274100e+00 4.3260216153623070e+01 8.0059210614797593e+01 -2.3033167591346071e+01 -8.2459789129163866e+01 -1.2150180861069160e-01 -1.6453223912331367e+00 4.0959973466141115e+01 
      </Row>
      <Row Index="50">
        6.2022442218386686e+00 1.2609783273749053e+02 3.2092655471916260e+01 -7.0321880857081851e+00 -5.3282327814063137e+00 -1.4203231425027288e+03 4.1176496423517347e+02 9.6922406457625812e+00 -1.5272014251288510e+00 9.9069360976366738e+00 -4.1102425465371289e+02 -5.4232942207418091e+01 -6.0336938117834507e+00 1.7043047371797940e+02 -4.0717982289636020e+03 -3.8414895245392427e+03 2.5182929024964551e+01 3.5468007706913340e-01 -7.9343402291897291e+00 4.8470665660110717e+02 9.2516174892724848e+01 2.0612603597185966e+01 -3.4577800547802531e+02 4.9770381474389596e+03 6.5557851139464183e+03 -3.0936917242589971e+01 2.3437637579955663e+01 4.5178834554963032e+00 -3.7574017816492005e+02 1.8352533419401652e+01 -1.0376865092362195e+01 -9.0870134797735773e+01 -9.8220269894699377e+03 8.5166923404822228e+02 1.1662784026520967e+01 -1.0914921806290067e+01 -1.1025937563758121e+00 1.1595969879907705e+02 -2.4256415613130038e+01 1.9252255017003108e+00 -7.9492806710179138e+01 1.1590922842395459e+04 -9.4463544624345377e+03 -4.0090986024387263e+00 5.2474002224221294e-01 -9.3456533601976730e+00 -2.9681429938956960e+01 -5.4800885486583866e+01 -1.9837041120627532e+00 -2.3033167569689340e+01 6.1642111898977396e+02 1.9760431074980111e+03 1.0366326294110650e+01 -8.1280532067964941e+00 -1.4076950834350989e+03 
      </Row>
      <Row Index="51">
        2.6557205066725146e+01 4.4854642109200358e+02 -1.4473632557713427e+02 -8.0433789259404875e+00 -8.3837046686094254e+01 2.5000702320924029e+02 2.2568838407639414e+03 3.3744051129673608e+01 5.2541571605252102e-01 1.7461996857324266e+01 -1.1102780665704049e+03 -1.3224808037979528e+01 -8.6904356700368226e+01 1.1662446047002159e+03 -2.1891446884629549e+03 -2.3233435215316247e+04 1.5208694400265813e+01 2.9484007647726685e+01 -2.9369573228992522e+01 1.3511652365117334e+03 3.2444079527829308e+02 1.3323155766766286e+02 -1.3989171720427694e+03 -1.5562660692547914e+04 3.8771419576659799e+04 -1.5326941822539084e+01 3.2987767906161025e+01 1.3949468337115832e+01 -1.0263820170622785e+03 -1.0064959645958152e+02 -6.5723549252288649e+00 -4.0253875748254359e+01 -2.9924893651032820e+04 2.0697229881102685e+03 2.6421580255671870e+01 -1.9741155632305890e+01 -3.2351317152465526e+00 3.5355865976616042e+02 3.5909446754634267e+01 1.8846936767615261e+01 -3.4740088072768413e+02 2.5374814309298992e+04 1.1095543667524960e+05 5.1985447488550562e-01 -5.4624265861930326e+00 -2.2276642056705896e+01 -9.1091424711235959e+01 1.6220837373740505e+02 -2.6479946349856618e+01 -8.2459780272096395e+01 1.9760430511668092e+03 4.8339528121630184e+05 2.9761911855021026e+01 -2.3172903091821468e+01 -4.8075724010618613e+05 
      </Row>
      <Row Index="52">
        8.8266054173295050e-01 1.1734330948706656e+01 -5.5034325727883839e+00 1.7099576309926920e+00 2.6211764122596705e+01 -2.0803395844429718e+02 -2.2524012911442227e+01 2.8154630171755457e+01 1.1631230935119419e-02 9.1980017517806889e-01 -4.9379897705731707e+01 -4.3823750369540235e+00 -8.3486044442386742e+00 -2.7729316847016271e+01 2.9379059841039435e+02 -1.6820466870967778e+01 5.9811857617673088e+00 8.0357117120733790e-01 -3.6493236106556139e+00 3.8057511785046245e+01 1.2799760438102776e+01 9.4076582271103426e-01 1.1183089994511938e+01 1.4950258963295397e+01 8.0329132508406474e+01 -2.1398657916286087e+01 3.3818436407156938e+00 -4.7984775172386911e+00 -6.3267651433166051e+01 3.3643724044130998e+00 -1.3943348854965609e+00 1.2673227543740005e+01 -7.2880426089281059e+01 -1.9393661799339668e+01 3.4441886539419126e+00 9.0207386259404387e-01 5.0717808135124076e-01 1.4606169733266782e+01 -1.3646119755243827e+01 -8.9260309297251483e-01 -1.1688080180495525e+01 1.4509545870619291e+02 -1.4567177660869856e+02 4.5431448023930332e-01 5.1701717184058893e-01 1.3171618082737924e+00 -3.3878264609798769e+00 -4.7282940914768332e+00 -5.3635666670932762e+00 -1.2150180851430648e-01 1.0366326300185126e+01 2.9761914222658564e+01 1.2938373442397880e+01 -8.3606312982150044e-01 -1.5996327392392972e+01 
      </Row>
      <Row Index="53">
        1.8759360153867988e-01 -1.6136336191346231e+01 4.8228136692771244e+00 1.8191953122489650e+00 7.6587471285742410e+00 -5.5234869916491766e+02 2.0529474470698631e+01 -2.3843321169397971e+00 1.2774149715020629e+01 1.6779049346724899e+00 2.3903670747023526e+01 -7.8563402586178199e-01 -2.3269147363390630e-01 5.7490921162733395e+00 8.6402810830153533e+02 4.2663114379627842e-01 7.9267184001436064e-02 -2.2993619612815792e+01 -8.5757911469622172e-01 -1.1917045232569251e+01 1.3048539082970123e-01 -4.4702336869661483e+00 -1.8278630117142349e+01 3.5384168141694101e+02 -6.2611967255947548e+01 1.5464745146313454e+00 -1.1385141789606067e+01 6.0141419728804379e-01 7.8403910985534182e+00 2.8393916529128091e+00 8.2335546793113279e-02 -1.3469342727280242e+01 -3.1758870609904000e+02 1.8298139218006504e+01 -7.2795963127631147e-01 1.0807407474099323e+01 -1.9755096116080667e-01 -1.1308234163637865e+00 -4.4687312825052405e-01 2.0158918448947638e-01 -4.8324666818500361e-01 -1.6203533284248911e+02 1.0530617236251962e+02 -8.9465567901922505e-02 -2.4362111569445499e+00 -6.2564429469505667e-01 1.2580622397266121e+00 -7.2380318832960668e+00 -2.1914982273531876e+00 -1.6453223916056778e+00 -8.1280532040992988e+00 -2.3172903124919319e+01 -8.3606312970256269e-01 1.1061994170616469e+01 1.3612793663517268e+01 
      </Row>
      <Row Index="54">
        -1.5826007883442799e+01 -3.0013860292732716e+02 8.4691022321814671e+01 6.7622150082024746e+00 1.3532421346800402e+02 1.0576452924227342e+03 -1.8564718912891112e+03 -1.4844834763614926e+01 -2.3003037394373678e+00 -1.4955051704819198e+01 7.2252938725799322e+02 1.2706441034097224e+01 5.3616037304047495e+01 -7.8384426047460875e+02 2.7976491038338281e+01 1.8030469389537815e+04 -8.7216100363875739e+00 -9.3030292764306068e+00 2.2874488200293854e+01 -8.7600570993963629e+02 -2.2251491969951894e+02 -8.7304068391502369e+01 8.3217668670881540e+02 1.2115448221838102e+04 -2.9804371098831296e+04 3.9881790406070650e-01 -2.6390321036800742e+01 -1.2169163536978886e+01 6.5806982357916422e+02 5.0866315340623260e+01 6.3379326347640017e+00 -5.8050896220374852e+01 2.1878906221099198e+04 -1.3293740297043696e+03 -1.8929801450867672e+01 1.5046054682694376e+01 3.0135722367736548e+00 -2.2334614869701909e+02 -2.5979751861366822e+01 -1.1974320590830757e+01 2.2211379117006436e+02 -1.4203772609316744e+04 -1.2347335747840255e+05 -2.7328307819698239e-01 4.7400130335590802e+00 1.4980631227823324e+01 5.9719320741043703e+01 -8.9859306730446406e+01 1.6958503717527492e+01 4.0959964639274403e+01 -1.4076950271121459e+03 -4.8075724003029044e+05 -1.5996325032901950e+01 1.3612793626962230e+01 4.7888166987406492e+05 
      </Row>
    </InverseHessian>
  </Weights>
</MethodSetup>
