<?xml version="1.0"?>
<MethodSetup Method="MLP::MLP">
  <GeneralInfo>
    <Info name="TMVA Release" value="4.1.4 [262404]"/>
    <Info name="ROOT Release" value="5.34/05 [336389]"/>
    <Info name="Creator" value="clester"/>
    <Info name="Date" value="Tue Mar 18 10:14:55 2014"/>
    <Info name="Host" value="Darwin pb-d-128-141-154-76.cern.ch 12.2.1 Darwin Kernel Version 12.2.1: Thu Oct 18 16:32:48 PDT 2012; root:xnu-2050.20.9~2/RELEASE_X86_64 x86_64"/>
    <Info name="Dir" value="/Users/clester/marchMadnessChallenge"/>
    <Info name="Training events" value="1092"/>
    <Info name="TrainingTime" value="8.71899230e+01"/>
    <Info name="AnalysisType" value="Regression"/>
  </GeneralInfo>
  <Options>
    <Option name="NCycles" modified="Yes">6000</Option>
    <Option name="HiddenLayers" modified="Yes">N+5</Option>
    <Option name="NeuronType" modified="Yes">tanh</Option>
    <Option name="RandomSeed" modified="No">1</Option>
    <Option name="EstimatorType" modified="No">MSE</Option>
    <Option name="NeuronInputType" modified="No">sum</Option>
    <Option name="V" modified="Yes">False</Option>
    <Option name="VerbosityLevel" modified="No">Default</Option>
    <Option name="VarTransform" modified="Yes">Norm</Option>
    <Option name="H" modified="Yes">False</Option>
    <Option name="CreateMVAPdfs" modified="No">False</Option>
    <Option name="IgnoreNegWeightsInTraining" modified="No">False</Option>
    <Option name="TrainingMethod" modified="No">BP</Option>
    <Option name="LearningRate" modified="No">2.000000e-02</Option>
    <Option name="DecayRate" modified="No">1.000000e-02</Option>
    <Option name="TestRate" modified="Yes">6</Option>
    <Option name="EpochMonitoring" modified="No">False</Option>
    <Option name="Sampling" modified="No">1.000000e+00</Option>
    <Option name="SamplingEpoch" modified="No">1.000000e+00</Option>
    <Option name="SamplingImportance" modified="No">1.000000e+00</Option>
    <Option name="SamplingTraining" modified="No">True</Option>
    <Option name="SamplingTesting" modified="No">False</Option>
    <Option name="ResetStep" modified="No">50</Option>
    <Option name="Tau" modified="No">3.000000e+00</Option>
    <Option name="BPMode" modified="No">sequential</Option>
    <Option name="BatchSize" modified="No">-1</Option>
    <Option name="ConvergenceImprove" modified="No">1.000000e-30</Option>
    <Option name="ConvergenceTests" modified="No">-1</Option>
    <Option name="UseRegulator" modified="Yes">True</Option>
    <Option name="UpdateLimit" modified="No">10000</Option>
    <Option name="CalculateErrors" modified="No">False</Option>
    <Option name="WeightRange" modified="No">1.000000e+00</Option>
  </Options>
  <Variables NVar="4">
    <Variable VarIndex="0" Expression="seed_prob" Label="seed_prob" Title="seed_prob" Unit="" Internal="seed_prob" Type="F" Min="0.00000000e+00" Max="1.00000000e+00"/>
    <Variable VarIndex="1" Expression="winfrac1-winfrac2" Label="winfrac1-winfrac2" Title="winfrac1-winfrac2" Unit="" Internal="winfrac1_M_winfrac2" Type="F" Min="-5.04464269e-01" Max="6.11607134e-01"/>
    <Variable VarIndex="2" Expression="avg_scorediff1-avg_scorediff2" Label="avg_scorediff1-avg_scorediff2" Title="avg_scorediff1-avg_scorediff2" Unit="" Internal="avg_scorediff1_M_avg_scorediff2" Type="F" Min="-2.33035717e+01" Max="2.90575752e+01"/>
    <Variable VarIndex="3" Expression="avg_score_against1-avg_score_against2" Label="avg_score_against1-avg_score_against2" Title="avg_score_against1-avg_score_against2" Unit="" Internal="avg_score_against1_M_avg_score_against2" Type="F" Min="-2.50357170e+01" Max="2.12218971e+01"/>
  </Variables>
  <Spectators NSpec="1">
    <Spectator SpecIndex="0" Expression="season" Label="season" Title="season" Unit="" Internal="season" Type="F" Min="6.50000000e+01" Max="8.20000000e+01"/>
  </Spectators>
  <Classes NClass="1">
    <Class Name="Regression" Index="0"/>
  </Classes>
  <Targets NTrgt="1">
    <Target TargetIndex="0" Expression="game_outcome" Label="game_outcome" Title="game_outcome" Unit="" Internal="game_outcome" Type="F" Min="0.00000000e+00" Max="1.00000000e+00"/>
  </Targets>
  <Transformations NTransformations="1">
    <Transform Name="Normalize">
      <Selection>
        <Input NInputs="5">
          <Input Type="Variable" Label="seed_prob" Expression="seed_prob"/>
          <Input Type="Variable" Label="winfrac1-winfrac2" Expression="winfrac1-winfrac2"/>
          <Input Type="Variable" Label="avg_scorediff1-avg_scorediff2" Expression="avg_scorediff1-avg_scorediff2"/>
          <Input Type="Variable" Label="avg_score_against1-avg_score_against2" Expression="avg_score_against1-avg_score_against2"/>
          <Input Type="Target" Label="game_outcome" Expression="game_outcome"/>
        </Input>
        <Output NOutputs="5">
          <Output Type="Variable" Label="seed_prob" Expression="seed_prob"/>
          <Output Type="Variable" Label="winfrac1-winfrac2" Expression="winfrac1-winfrac2"/>
          <Output Type="Variable" Label="avg_scorediff1-avg_scorediff2" Expression="avg_scorediff1-avg_scorediff2"/>
          <Output Type="Variable" Label="avg_score_against1-avg_score_against2" Expression="avg_score_against1-avg_score_against2"/>
          <Output Type="Target" Label="game_outcome" Expression="game_outcome"/>
        </Output>
      </Selection>
      <Class ClassIndex="0">
        <Ranges>
          <Range Index="0" Min="0.0000000000000000e+00" Max="1.0000000000000000e+00"/>
          <Range Index="1" Min="-5.0446426868438721e-01" Max="6.1160713434219360e-01"/>
          <Range Index="2" Min="-2.3303571701049805e+01" Max="2.9057575225830078e+01"/>
          <Range Index="3" Min="-2.5035717010498047e+01" Max="2.1221897125244141e+01"/>
          <Range Index="4" Min="0.0000000000000000e+00" Max="1.0000000000000000e+00"/>
        </Ranges>
      </Class>
    </Transform>
  </Transformations>
  <MVAPdfs/>
  <Weights>
    <Layout NLayers="3">
      <Layer Index="0" NNeurons="5">
        <Neuron NSynapses="9">
          -4.5279297794741918e-01 1.6235135283526405e+00 5.0607834432069743e-01 9.0481005483317278e-01 -9.6072816036352460e-01 2.4300441815016977e-01 3.4153323294811785e-02 1.1549191436102304e+00 -7.5100789204294482e-01 
        </Neuron>
        <Neuron NSynapses="9">
          -6.3750386205883103e-01 -1.6770007951658761e+00 -8.4992969233546278e-01 -1.3218210378308701e+00 -9.7824126064646133e-02 -5.9548793674248901e-01 4.9284574979488893e-01 -1.6083853733117226e-01 1.1122749506070306e+00 
        </Neuron>
        <Neuron NSynapses="9">
          -5.1876358700933123e-01 1.2481621811787271e+00 4.5626832063998486e-02 -5.7840461370293583e-01 1.0901837320890650e+00 8.3297037207979019e-01 -6.9573131058199278e-01 -4.3723981514034976e-01 1.3270410851635071e+00 
        </Neuron>
        <Neuron NSynapses="9">
          -1.4412912275013670e+00 -1.3859596646818992e+00 7.4330204644605186e-02 -9.9390177717249928e-01 1.1870207266462369e+00 -3.0924890556294055e-01 -7.1521427838001514e-02 1.2265179286129069e-02 -7.4403299685186308e-01 
        </Neuron>
        <Neuron NSynapses="9">
          -3.0948812122699365e-01 5.0136954896167252e-01 -1.2426033883309803e-01 3.2463657212852420e-01 -2.2419289820719812e-01 5.9730786614337276e-02 2.3974496920675290e+00 1.7276561021413220e-01 -1.6442330969362071e-02 
        </Neuron>
      </Layer>
      <Layer Index="1" NNeurons="10">
        <Neuron NSynapses="1">
          -5.0312457014292478e-01 
        </Neuron>
        <Neuron NSynapses="1">
          -5.5329802424721720e-02 
        </Neuron>
        <Neuron NSynapses="1">
          9.4879595487042792e-02 
        </Neuron>
        <Neuron NSynapses="1">
          5.9852337178613813e-01 
        </Neuron>
        <Neuron NSynapses="1">
          1.5961764707521875e-01 
        </Neuron>
        <Neuron NSynapses="1">
          1.5273420683821673e-01 
        </Neuron>
        <Neuron NSynapses="1">
          1.4919276640660555e+00 
        </Neuron>
        <Neuron NSynapses="1">
          8.6300663405786418e-02 
        </Neuron>
        <Neuron NSynapses="1">
          3.7065351159379262e-01 
        </Neuron>
        <Neuron NSynapses="1">
          -1.1953050030901200e+00 
        </Neuron>
      </Layer>
      <Layer Index="2" NNeurons="1">
        <Neuron NSynapses="0"/>
      </Layer>
    </Layout>
    <InverseHessian NElements="3025" NRows="55" NCols="55">
      <Row Index="0">
        7.0372965645249641e+00 1.8749965709559149e+01 -5.2674673822179891e+01 1.0944631824188957e+00 -3.3641498282296212e+00 -2.2929032823670426e+01 -3.3805002537445951e+01 -6.5211228202151483e+00 -1.1250339516109704e+00 -2.7905760003623024e+00 -3.3321216666801419e+01 3.0211741190641458e+01 1.3552910617174361e+00 -1.8641758645463202e-01 3.6507212558255084e+01 2.6076717440629089e+01 2.2814807719504039e+01 2.3688709915710642e+00 -5.1554370136617234e+00 3.1103764422775534e+01 6.4294317061795624e+01 2.6871360936680344e-01 1.2031764776570141e+01 -1.7704352031496985e+01 1.1083406167962071e+01 4.0592507220854117e+01 1.9734800498080400e+00 -1.1047989986464444e+00 -3.1139803792882098e+01 -1.4409399908611205e+01 3.7827377173207011e+00 2.1425018344124808e+01 -1.2327473119706895e+01 3.8706657787103310e+01 1.1789971803951147e+02 -9.2613218314644519e-01 -1.3106501343901860e+00 7.3014776461853526e+00 -1.7620775067360206e+01 -2.5191187303216447e+00 1.9703264145299624e+00 -2.0142348103226876e+01 -4.1754359542371589e+01 -5.6971597134031509e+00 -1.9221602107387936e-01 1.5275838875875707e+00 2.6649953080678088e+00 8.4573592945916563e+00 3.1717505465643283e+00 -6.9624208052714813e+00 3.5711917096097334e-02 1.0560438145308273e+01 -3.3325180831896652e+00 -2.0903077267895918e+00 -4.0640349329203200e+00 
      </Row>
      <Row Index="1">
        1.8749965710108835e+01 2.2965056674957596e+03 -5.8946770251150872e+02 -8.1225600585231490e+00 5.9708709130744779e+00 -1.9236296564262557e+03 -1.2131048593758192e+03 -2.5931419780427291e+01 -7.0236384192461287e+01 9.8533568758543133e+00 -2.3100413043976987e+03 9.3989957689381754e+02 5.9194026905472001e+01 2.0331856705703160e+02 2.1655322858235759e+03 -1.6242569188562632e+03 4.9731757894406314e+02 1.2633251570444254e+02 -3.2880431093447029e+01 1.4666926361667472e+03 1.2657316789237527e+03 1.3875351010923254e+01 -3.0572467730527461e+02 -5.6488204868916011e+02 3.5440540967039979e+03 -2.8358125846167866e+02 8.7238321248797590e+01 -2.7558464568860138e+01 -1.9697784287040445e+03 -5.3721566236511626e+02 4.2433519334003691e+01 -1.8960228511860723e+02 8.7361586926677785e+02 1.2388845982230746e+03 3.2899123891458623e+02 -6.6878197537622597e+01 -4.6602578599309705e+00 6.5911902026467044e+02 -4.6742274111363798e+02 -7.5932699877009338e+00 3.5252109660262889e+01 -1.1375626460944197e+03 -6.4031926032229148e+03 7.2134905010190565e+01 7.9755341128544899e+00 1.4157191997971218e+01 1.8787962021869160e+02 3.4507181794574097e+02 7.2226855510981025e+01 8.8122447098531495e+01 1.8922500245198569e+02 1.3317414838069235e+03 -1.3563982816305611e+01 -9.6629635260760296e+01 -8.2063335865825547e+02 
      </Row>
      <Row Index="2">
        -5.2674673822126429e+01 -5.8946770231578557e+02 5.2080044123678836e+03 -2.1771712315979098e+01 2.3454507688958964e+02 2.6184341599415329e+03 2.1533935535448359e+03 3.2365294350783512e+02 5.8313457684593459e+01 9.3548611638943555e+01 3.3315697375628440e+02 -3.2738020494058965e+03 -3.0999797876814597e+01 -4.3698669659399559e+02 -2.2282904852202350e+03 5.8677591660897779e+03 1.8127599993220547e+03 -2.2236667795761065e+02 -1.5504494380135188e+01 6.1207164551456344e+01 -7.6143671899467681e+03 -4.3772872320113521e+01 -3.1162542496668328e+02 -1.8201007431065841e+03 -1.1291210589402417e+04 -1.0450683481116560e+03 -1.6196883164285040e+02 5.5393141727038930e+00 4.8961270483999579e+02 8.6936838476423281e+02 -1.1151155737116069e+02 -4.5760536985390686e+01 -1.9082915635643798e+02 -1.2111776824172553e+03 -2.0387499227565638e+02 1.2183953569401910e+02 1.5789025659738103e+01 -2.0371536168160424e+02 1.4915279892335316e+03 7.6197509114784950e+01 -7.4549505951326665e+01 3.3088231385348143e+02 1.6527165259135760e+04 2.3352882214716863e+02 3.4518726022999800e+01 -2.9270917088841824e+00 -4.7348038780420467e+01 -9.6074556770196591e+02 -1.9668737182164693e+02 -1.0399264749521159e+01 2.3611251680265431e+02 -3.3506343362534717e+03 -2.1646342548342182e+02 2.1420616027024681e+02 2.2276290510551853e+03 
      </Row>
      <Row Index="3">
        1.0944631824115028e+00 -8.1225600612594917e+00 -2.1771712320897258e+01 1.5622159889783168e+01 -2.5100402086261148e+01 2.8318747842066173e+01 4.9132882728003700e+01 5.0898158785565158e+01 6.6648396532052150e+00 -2.0365180748166214e+00 -9.2561290143659658e+00 5.0329704600456644e+01 -2.5578309305149201e+01 -2.7931987574355386e+01 -7.9496349973672110e+01 -2.8619479344008647e+02 1.0176028788024677e+01 -1.1515027760877283e+01 4.4550583623892087e-01 -1.0720218836498972e+01 -1.3211974045398210e+02 -6.9868911076825508e+00 4.7296164097394104e+01 -3.5253318344295153e+01 2.8993265379296372e+02 1.1695487962440243e+00 -8.4288536827735108e+00 -1.0342014013430969e+00 2.4789422414661324e+00 4.4260084171385927e+01 -1.1597645365274149e+01 4.2770013430632204e+01 3.0080132110006467e+01 1.1043655050984210e+01 5.0120891242907213e+01 5.5014228508173346e+00 -1.7765938340151342e+00 -1.0820511194351941e+00 3.4779295378732485e+01 2.4293866434201949e+00 -3.1909377906111129e+00 1.9690249906454429e+01 -3.8084831063214693e+02 -8.1212232248397029e+00 2.2675509107739522e-02 7.7870624237184360e-01 -1.1088565414884222e+00 4.2619872174857756e+00 -2.1479501371907208e+01 -1.6843128792981368e+01 2.4841915373425564e+01 7.7124662455312190e+01 -1.2879373778000478e+01 8.6236790872149811e+00 -5.9399241625934231e+01 
      </Row>
      <Row Index="4">
        -3.3641498282022999e+00 5.9708709186684814e+00 2.3454507688575075e+02 -2.5100402086208515e+01 2.8818287958900720e+02 3.7668770923213202e+01 2.8904680121528056e+01 -1.7524540148260610e+02 -1.1389789181672157e+01 -2.5566139602377289e+00 1.7833533871434486e+02 -7.9511650571785765e+01 4.7139332111894802e+01 3.7671037263733055e+01 2.1264169478947747e+02 3.3014825557543077e+02 7.4295824967541549e+01 8.8484728659508249e+00 -3.8729599047958767e+00 -2.5877912815321429e+02 -4.0614676470118184e+01 7.5787179497471620e+00 -2.8156773812726334e+02 -1.6526571660747589e+02 -4.2796660214065969e+02 8.3913635707641276e+01 2.4156895875965525e+01 -1.1400365261374160e+01 -6.9073651104751121e+01 -3.1940970769549278e+02 7.0574706059829873e-01 -2.6750567992952972e+02 -1.4749421944549087e+02 -1.1456327371675584e+02 4.9748183025955171e+01 -1.2472836400746900e+01 3.7037601315673800e+00 -1.9534692068699414e+01 2.3208120241404579e+01 6.4819350750243041e+00 2.4026149344822123e+01 2.7297897686678873e+01 6.2319605860072090e+02 3.3464462138000357e+01 -1.2802628511801828e+00 8.7623512698807247e+00 -5.8979668338141504e+00 3.6849725134204658e-01 2.8935137196974654e+01 8.0774156197699170e+01 -2.2112804659619304e+01 -7.1079676244536358e+01 1.8517825992443484e+01 -1.5269951927652381e+01 3.6912189624911043e+01 
      </Row>
      <Row Index="5">
        -2.2929032824464670e+01 -1.9236296562871430e+03 2.6184341601944120e+03 2.8318747841703285e+01 3.7668770934278086e+01 4.6877540135034969e+03 2.9454893662014556e+03 7.8852458624844485e+02 1.9867537175250067e+02 4.0032021673155953e+01 1.1068325334841797e+03 -1.8686057842139953e+03 -7.0832509859298227e+01 2.2219490671033677e+02 -3.5791532632869485e+03 7.4720755631712409e+03 5.2187152054833086e+02 -4.9063787687903300e+02 -2.7109568451758463e+01 -7.6207966525877367e+01 -5.4772638926309864e+03 -7.3905366901093132e+01 -4.8248232739186290e+02 -2.3223712104712758e+03 -1.3757625226482633e+04 -1.0456186713598404e+03 -1.2542797406127424e+02 3.7612773252105782e+01 1.7136928693751795e+03 9.3344647033289993e+02 -9.5588239881524061e+01 2.4067174765832416e+02 -1.1126625497022537e+03 -2.3562763721407468e+03 3.9394520617052081e+02 1.8753742793270430e+02 -3.6886421309232951e+00 -5.9159965282266705e+02 9.4571331697186065e+02 2.7926520841817375e+01 -1.0470111160514512e+02 1.5221329390681069e+03 2.1533243346633244e+04 -9.0479300698491215e+01 7.9768449702822863e+00 -1.2065100996220281e+01 -1.4595015702519891e+02 -9.8751174414681873e+02 -1.5530097870190403e+02 -3.5443216626001771e+01 -5.6040288450241107e+01 -4.1366429950074771e+03 -2.2845789447056586e+02 2.7952758302190909e+02 2.7112656388376809e+03 
      </Row>
      <Row Index="6">
        -3.3805002538103693e+01 -1.2131048593384530e+03 2.1533935536925228e+03 4.9132882726184675e+01 2.8904680129544346e+01 2.9454893662604991e+03 4.0273131594448205e+03 8.0778612277093157e+02 1.9943708937090730e+02 4.4893921444227288e+01 6.1930256089675652e+02 -9.9959912907396586e+02 -2.0915290521145448e+02 9.5662618346177197e+01 -3.4342432110072964e+03 -6.1332073045719630e+02 -1.8571676765688358e+02 -4.0269134450792205e+02 3.5282944901225555e+01 2.3035913960622088e+02 -6.5829051514837947e+03 -1.5538946055930658e+01 -3.4773342091926929e+02 -8.2367405704817759e+02 -4.4086030682251439e+03 -2.5410096973141401e+02 -2.6472488500862954e+02 8.0076042570161704e+01 1.0482042437145953e+03 1.4744150832261662e+03 -1.8124593296751155e+02 3.4564858688886835e+02 -2.1193149413002365e+02 -2.2111291337077282e+03 -5.9829874626778206e+01 1.7567990439973937e+02 1.9895359102598089e+00 -3.2002341355027454e+02 1.9270633795514227e+03 3.5269953497633111e+01 -1.7670854287624604e+02 1.7119995580570589e+03 8.0706970767146813e+03 -2.1924445318740700e+02 -4.6971082463772795e+00 -5.1155238476958402e+01 -8.8859195106329736e+01 -7.3606223474824662e+02 -2.6660400900012075e+02 -7.4008327486978544e+01 1.8752687508065276e+02 -1.7748386344215492e+03 -2.3998409219817881e+02 2.9928955209980381e+02 9.6493957480767290e+02 
      </Row>
      <Row Index="7">
        -6.5211228203377800e+00 -2.5931419810451189e+01 3.2365294334452096e+02 5.0898158787137703e+01 -1.7524540148460889e+02 7.8852458617514696e+02 8.0778612277002571e+02 2.7949114263917181e+03 9.5142878302461796e+01 5.7154886781464398e+01 6.0029718884238173e+02 1.4437864991448330e+03 -3.3572075491444359e+01 -9.6016246611052537e+01 -6.0219819898301125e+02 -5.2354443514590457e+03 -1.6945836636290426e+02 -2.3479565207740123e+02 4.2884308591831257e+01 -7.4330579150315350e+02 -3.0627151541159355e+03 -8.5094986229522718e+01 4.4245529244933641e+02 -1.4684963779198147e+03 5.5680726652455487e+03 -1.3553388657793244e+03 -9.5001771686379016e+01 8.8918894069925244e+01 4.0375826528182199e+02 1.1338835637325003e+03 -7.0072435729657954e+01 2.9524097462056130e+02 1.1117639353492496e+03 4.9701520721717895e+02 -4.3434269956290439e+02 7.4575079426584125e+01 5.3490117882935788e+00 -1.0380041437361322e+02 9.1677742903513729e+02 -4.3762106827933973e+00 -2.2771910178469398e+01 1.4943432761130074e+02 -7.5638170526841895e+03 2.9913971800605634e+02 3.3791317530401948e+00 -6.6382170660827796e+01 -3.8166808056429829e+01 3.1082024903423189e+01 -9.4793984299555078e+01 -8.2920211232172790e+01 6.5168166902302767e+02 1.5324838489034396e+03 -4.6821336246743510e+02 1.4017715348600183e+02 -1.2141260444225704e+03 
      </Row>
      <Row Index="8">
        -1.1250339516647201e+00 -7.0236384197499319e+01 5.8313457692099433e+01 6.6648396529058784e+00 -1.1389789181268087e+01 1.9867537176481363e+02 1.9943708937634028e+02 9.5142878295952343e+01 3.0021324543288806e+01 2.0550713768792597e+00 3.0736668734439156e+01 1.9539462931621607e+01 -1.4587466927158490e+01 -2.0468548645374387e+01 -3.0830997972015439e+02 -3.5969262768555853e+02 -9.4836690379213646e+00 -5.1746549324087923e+01 3.0869756847879728e+00 -6.7222019294618462e+00 -3.7997392788809071e+02 -8.1896534628901136e+00 2.9467114268294154e+01 -6.1249716732102925e+01 2.1214510422969852e+02 -4.7379639760687915e+01 -2.8561305946719525e+01 6.1673738496911987e+00 6.9100147068092639e+01 1.0975169644107629e+02 -1.1797146203003868e+01 3.0132899813597831e+01 5.4150651759342082e+01 -6.0143104924949299e+01 -8.6759422055167956e+00 1.9874270789467943e+01 -2.5959218998165517e-01 -1.9989752004091631e+01 9.8959931073091411e+01 1.1478637606039350e+00 -6.3236287727445113e+00 9.7838546370822158e+01 -1.7642540528917260e+02 -1.2086313180706227e+01 -1.3887132270824676e-01 -4.2383439834205490e+00 -6.4167692140125263e+00 -3.5006896690466334e+01 -2.0082134053846378e+01 -1.0629318986908075e+01 2.6930387604587896e+01 3.0748246154882381e+01 -2.0873710227578329e+01 2.9512676501458028e+01 -4.1633150346073407e+01 
      </Row>
      <Row Index="9">
        -2.7905760003783713e+00 9.8533568759209800e+00 9.3548611638841166e+01 -2.0365180748197425e+00 -2.5566139601302806e+00 4.0032021673032361e+01 4.4893921444193737e+01 5.7154886781363054e+01 2.0550713768798889e+00 2.2326440769680968e+01 -1.0941156669959859e+01 -8.9725305686541475e+01 7.3270229453502056e+00 -5.7515561615228865e+00 -3.0718838715926807e+01 -7.3455577618962868e+00 8.6000899072595047e+01 -6.4274493863236390e+00 -6.1057515121570383e+00 2.8970384159691775e+01 -1.0967027872175115e+02 -6.7033507271345893e+00 -1.5990602254822690e+01 -4.4499604150147960e+01 2.7693023398556761e+01 -1.5123811373367741e+02 -4.8191831256277826e+00 1.2899216622169416e+01 -1.6053582094161786e+01 -2.0516462487291896e+01 2.3285749035971306e+00 -3.4495013631716859e+01 -1.0638741668063819e+01 3.8144702770213136e+01 -8.3948344948219258e+01 5.4228708819043465e+00 2.1070797606065614e+00 6.9272020175364091e+00 3.7658662874400171e+01 2.4938375188953508e+00 -5.4132083810806186e-01 2.0737824375761434e+01 2.4678691915410976e+01 4.4026972493799033e+00 -4.2441697930490069e-01 -8.8946735728019242e+00 1.9017144719903185e+00 -9.4748218191285680e+00 -9.8477698354982635e-01 9.2013948337730334e+00 5.4233013287532259e+00 -7.3099991973055101e+00 -9.8121982647695098e+00 5.7449382967854117e+00 -1.8752763084696538e+00 
      </Row>
      <Row Index="10">
        -3.3321216667041732e+01 -2.3100413043896224e+03 3.3315697383322782e+02 -9.2561290148726698e+00 1.7833533871580539e+02 1.1068325335261923e+03 6.1930256090706621e+02 6.0029718884207978e+02 3.0736668732756389e+01 -1.0941156669865222e+01 4.5622667988552275e+03 -8.6953510319180751e+01 -2.5002733886849597e+01 -5.1362381725078171e+02 -9.8034817669389702e+02 3.1349375433449268e+02 -1.1989520946901359e+03 -5.4809717137306279e+01 7.9809199863003869e+01 -4.2431181033120201e+03 -1.2498041923712224e+03 -5.0700597421842019e+01 7.2404576901473592e+02 3.8193941495005328e+02 -1.4847987329597017e+03 8.4871430267491553e+02 -6.1404038189912981e+01 3.4079353390076101e+01 2.4881246762166643e+03 3.5621966671539781e+02 -3.0380943500958018e+01 -9.1141410575831827e+00 -5.7632872593701734e+02 -5.3033329269970216e+02 -1.3585917550526108e+03 6.7166456046658141e+01 1.6620203613307897e+01 -8.8491299209086276e+02 5.0323085096009993e+02 4.4694257774185662e+00 8.1828981448465385e+01 6.1645808309029508e+02 2.6861836406101525e+03 2.0196168613233172e+02 -8.9791552742907133e+00 -2.7046102519928127e+01 -2.6023798897946409e+02 -8.8408486960331800e+01 -6.4487221618380659e+01 -1.0126199882731031e+02 -6.6953471276637146e+01 -6.3448678104931162e+02 2.7951470659378714e+01 6.4076561442608124e+01 3.9483357182949055e+02 
      </Row>
      <Row Index="11">
        3.0211741191095555e+01 9.3989957686756679e+02 -3.2738020496133222e+03 5.0329704602679470e+01 -7.9511650577407835e+01 -1.8686057843296126e+03 -9.9959912909707577e+02 1.4437864991515805e+03 1.9539462937946482e+01 -8.9725305686819070e+01 -8.6953510314619052e+01 7.4418365001702387e+03 5.7795027178812177e+01 1.0286134477727633e+03 1.9761732244366121e+03 -3.5638334218912732e+03 -1.4249441213673672e+03 -1.0048515009244602e+02 5.2309286159382282e+01 -6.1079260419473349e+02 6.8107592611050006e+02 3.3229653347836546e+01 -3.3895934785682039e+02 -5.5874455749494814e+02 5.2406226489920227e+03 6.3149491634467176e+02 2.0121456946020356e+02 -2.6026539729849908e+01 -5.2731136949620895e+02 -3.7091799171005141e+02 2.7524128849865761e+01 -1.2837152803381690e+02 6.9614557692943833e+02 1.0407082095806154e+03 -9.9163565593151816e+01 -6.0169342687848257e+01 -1.3292303711560184e+01 3.0093556092108616e+02 -8.3646954754397461e+02 -6.4487706996606121e+01 1.0967992761333771e+02 -6.6490163730648453e+02 -8.7401327570589838e+03 3.3429882712489632e+02 -1.7556181841746778e+01 6.8656125430129578e+00 4.8008985563805822e+01 8.9942727156202022e+02 1.8486918743223828e+02 1.2829282104759506e+02 2.6198154107888519e+02 1.8948206597865692e+03 -1.4845100439725206e+02 -9.9786171551227085e+01 -1.1852530821574555e+03 
      </Row>
      <Row Index="12">
        1.3552910617114264e+00 5.9194026909874765e+01 -3.0999797864054703e+01 -2.5578309305172173e+01 4.7139332111980274e+01 -7.0832509856753077e+01 -2.0915290521382519e+02 -3.3572075489438717e+01 -1.4587466927815813e+01 7.3270229453597961e+00 -2.5002733887116392e+01 5.7795027181596751e+01 1.0292455735364830e+02 1.3992044595119407e+02 1.7829004203610293e+02 7.7944375245671120e+02 8.9195871642840757e+01 8.5239368877063271e+00 -1.1429161683331586e+01 5.5045328942736809e+01 4.4691343789273930e+02 -2.0672576339951259e+01 -8.0028207905392946e+01 3.2534089732912797e+01 -5.6447542794115907e+02 -9.4415027487122615e+01 3.7220263744024642e+01 -2.4385110667888732e-02 -6.9678373167602842e+01 -1.9753643649439979e+02 3.0156560610334061e+01 -1.0302008143229951e+02 -7.5686072535350007e+01 9.5957038619521498e+01 2.5310645071646618e+01 -1.2865221201857764e+01 3.6773691037844070e-01 1.9444041452212009e+01 -1.3019329709459487e+02 -7.9868384499950578e+00 2.4530355375470316e+00 -5.4892461101629628e+01 7.5616427579524077e+02 2.5326575101385679e+01 -1.2076027719856191e+00 6.2765013513808299e-01 7.1085175603832758e+00 2.5372456584076531e+01 7.3605614810702889e+01 5.2855125569540348e+01 -6.0520037820438475e+01 -1.5484811950812514e+02 6.7254264676823396e+00 -2.2449398213757942e+01 1.3000918099535565e+02 
      </Row>
      <Row Index="13">
        -1.8641758646981543e-01 2.0331856709604290e+02 -4.3698669654663928e+02 -2.7931987574489469e+01 3.7671037265759836e+01 2.2219490668969425e+02 9.5662618315563151e+01 -9.6016246594488564e+01 -2.0468548649353824e+01 -5.7515561617856950e+00 -5.1362381725908563e+02 1.0286134478081799e+03 1.3992044595097818e+02 1.1791488445329701e+03 4.7494606051280618e+02 3.1149631083070981e+03 -4.6664448209936381e+02 -2.8696138188776786e+01 -1.2012301163882967e+01 7.9555357090335224e+02 4.2360837637179304e+02 1.2767161043025173e+01 -1.0617224879411388e+03 -6.1312677775069994e+02 -4.0757330257177600e+03 4.4743766415224059e+01 1.2106132083329759e+02 7.8564414712411068e-01 -6.9222951886695228e+00 -3.0663154820974557e+02 2.0502593261198736e+01 -2.6192136552897387e+02 -4.9415585430190202e+02 -4.2470051883892302e+02 -1.5674798887941890e+02 -2.8628198092238563e+01 1.4795551319626816e+00 1.0889036961879155e+02 -4.7028498197136230e+02 -2.5585335819371643e+01 -1.5278540450679277e+01 7.5714067880273717e+01 5.8066277804523115e+03 1.5037864832251955e+01 -3.6035215782648820e+00 -2.7773402904667819e+00 3.5448544023509612e+01 5.7648514644276929e+00 1.6471970884183298e+02 2.2122358058427582e+02 -1.3700451221480117e+02 -9.8822860570063699e+02 5.5948160742984783e+01 -4.9170672497607526e+01 7.2265525887693195e+02 
      </Row>
      <Row Index="14">
        3.6507212559210473e+01 2.1655322859030521e+03 -2.2282904854498815e+03 -7.9496349967550117e+01 2.1264169478094021e+02 -3.5791532635590775e+03 -3.4342432111140433e+03 -6.0219819886440496e+02 -3.0830997971705523e+02 -3.0718838715927980e+01 -9.8034817672432109e+02 1.9761732245514272e+03 1.7829004202356964e+02 4.7494606043089590e+02 6.7067591249667585e+03 4.4985507646415108e+03 2.8730780957644492e+02 5.1387557999563728e+02 -5.0637382034563871e+01 1.4133708593146753e+02 6.4493534201794573e+03 1.2535482842023582e+02 -7.5980599204529290e+02 -1.0121626493624702e+03 -2.2265683830560447e+03 1.2198919983318251e+02 3.6959844393317343e+02 -1.0329748395961796e+02 -1.9565629422088459e+03 -2.4276423706290589e+03 1.7015282915476291e+02 -6.2442239970101491e+02 -2.9872706136577295e+02 1.7260540294746272e+03 2.9297306682209739e+02 -2.4639257481569337e+02 2.7886170472119005e+00 6.5338015044461372e+02 -1.5434445789343920e+03 -2.8461129756760077e+01 2.1934542447369054e+02 -1.9561363148747701e+03 4.8387665962713817e+02 3.1239543132536198e+02 -1.7699765596535286e+01 6.2961663130768216e+01 1.8252445541403659e+02 1.0406976492580548e+03 2.7141736474757499e+02 2.0596974078767326e+02 -2.7295347071585996e+02 2.1825850003995987e+02 1.8167383935279759e+02 -3.8746528955694964e+02 1.9794836769990326e+02 
      </Row>
      <Row Index="15">
        2.6076717441821529e+01 -1.6242569173899828e+03 5.8677591669033100e+03 -2.8619479340643966e+02 3.3014825559339749e+02 7.4720755618084122e+03 -6.1332073140749139e+02 -5.2354443502268132e+03 -3.5969262776263150e+02 -7.3455577591328396e+00 3.1349375385127496e+02 -3.5638334204658836e+03 7.7944375235933967e+02 3.1149631079761557e+03 4.4985507667085094e+03 7.7166097894475344e+04 3.5286797555943485e+03 2.7228706601512386e+01 -3.7009067622404837e+02 2.0174884585343675e+03 1.6200948380093171e+03 9.9640305526160290e+01 -4.5679566780494060e+03 -6.9696434494071809e+03 -1.0202069992453512e+05 9.2862291963401674e+02 9.7711546210070082e+02 -3.1376381847018570e+02 1.3759114407238085e+03 -7.5953375748694771e+03 4.1490086397183768e+02 -3.9475413772750738e+02 -9.7908763858374405e+03 -6.1758505626509968e+03 3.6888099053001883e+03 -1.1063942677770683e+02 -2.3691140418983665e+01 -5.1030404538611560e+02 -3.9973817929470802e+03 5.8586301131564944e+01 1.1954818398554121e+01 -6.9497152716891344e+02 1.4121085114625320e+05 3.5014458192713028e+02 -1.2799209628227437e+01 2.8719368052812206e+02 -5.9388487159449923e+00 -1.2557390261054497e+03 6.9355978444210177e+02 4.8125730466587959e+02 -3.8048703330040830e+03 -2.9925587359655969e+04 6.9576950456476334e+02 -4.0063796742048180e+02 2.2889210432483651e+04 
      </Row>
      <Row Index="16">
        2.2814807719597184e+01 4.9731757903287871e+02 1.8127599992950604e+03 1.0176028791208267e+01 7.4295824967578710e+01 5.2187152041702745e+02 -1.8571676772448171e+02 -1.6945836627504553e+02 -9.4836690401007218e+00 8.6000899072882220e+01 -1.1989520947256678e+03 -1.4249441212684201e+03 8.9195871635064208e+01 -4.6664448212953187e+02 2.8730780966590697e+02 3.5286797549769035e+03 3.3060830368936113e+03 -7.6748878300821161e+01 -1.4154967112128361e+02 1.3134193641462082e+03 -8.3622771738891311e+02 -6.2542092484376241e+01 5.1443413347027672e+01 -1.1118427963474512e+03 -4.5095079847086017e+03 -2.1079350239255441e+03 6.0431483460797608e-01 -6.3966881665997448e+01 -1.3634975574581476e+03 -6.0085623430199030e+02 3.3292685564997328e+01 -1.5672952116895277e+02 -1.7488099075738450e+02 3.2398971194195849e+02 1.5534803620635348e+03 6.0234155909411129e+00 -1.7082488843686892e+01 3.4643988942483674e+02 4.3217492479892206e+02 3.0476210384265361e+01 6.7655854830103124e+00 -2.0599214607623051e+02 6.6024458783679420e+03 2.6696500788909844e+01 1.9092454100012723e-01 5.0758859412303991e+01 9.7032831612380249e+01 -9.6759493145231204e+01 -2.1049191702047857e+01 -4.5510927563080728e+00 -3.0530283649591262e+01 -1.3602862892627900e+03 -1.8471088191481124e+02 3.2311235683712042e+01 9.9331064883997931e+02 
      </Row>
      <Row Index="17">
        2.3688709916653465e+00 1.2633251569923686e+02 -2.2236667797173641e+02 -1.1515027760720344e+01 8.8484728650249433e+00 -4.9063787688283799e+02 -4.0269134450674579e+02 -2.3479565207795576e+02 -5.1746549323502002e+01 -6.4274493863319435e+00 -5.4809717135334267e+01 -1.0048515009621769e+02 8.5239368875016766e+00 -2.8696138192047840e+01 5.1387557998380930e+02 2.7228706514049009e+01 -7.6748878307105770e+01 1.2055147315137515e+02 -2.2024736641840263e+00 1.7706611589023321e+01 8.3433533528879798e+02 2.0397175711755281e+01 3.3674157836783252e+00 3.1776502748459734e+02 5.6897733530167534e+02 1.9511398364615349e+02 2.3160059168588191e+01 -8.5199871362051027e+00 -1.1673730389973935e+02 -1.1844016973162408e+02 1.9917319302290707e+01 -3.2484133949088289e+01 -5.3923956133263751e+01 1.3786548613923452e+02 -4.2425532725643677e+01 -3.4501752995300706e+01 7.9756839815080971e-01 3.5150664674227706e+01 -1.7610993784298117e+02 -1.7720305574522588e+00 8.4191434816862216e+00 -1.7457168598944122e+02 -9.8380498597646579e+02 2.1914325620227260e+00 9.0870061172838579e-01 5.6429432971445976e+00 1.1279290008110561e+01 8.2198270823849839e+01 2.4571461634014916e+01 5.3095374533570201e+00 -4.1196808629230418e+01 1.9269113541160817e+02 5.4545157162441669e+01 -5.3442876670259764e+01 -1.0536715169422284e+02 
      </Row>
      <Row Index="18">
        -5.1554370136656473e+00 -3.2880431098355757e+01 -1.5504494383477406e+01 4.4550583613786898e-01 -3.8729599048707808e+00 -2.7109568447784802e+01 3.5282944904361621e+01 4.2884308587856019e+01 3.0869756850790759e+00 -6.1057515121682657e+00 7.9809199864581387e+01 5.2309286154652796e+01 -1.1429161683039007e+01 -1.2012301163001599e+01 -5.0637382042092383e+01 -3.7009067623137662e+02 -1.4154967112371833e+02 -2.2024736644661971e+00 2.1334016970383630e+01 -1.0183753623028801e+02 -8.0638138003584444e+01 5.0180852805334295e+00 2.3376381161820291e+01 6.7569711342251594e+01 3.6065454265436711e+02 6.5702265205618133e+01 -5.2491045585699680e+00 7.9891507710366731e+00 7.0048005683454903e+01 5.8360581265049134e+01 -6.2229580378371452e+00 8.9489724540868174e+00 5.4199252572833544e+01 -4.9376631074746001e+01 -1.3828355302513395e+02 8.7916340639043256e-01 2.8514408613849014e+00 -1.8931238078277918e+01 2.6913203636415226e+01 8.2462399176871926e-01 -6.0532912423683882e-01 1.4620793584525490e+01 -5.3284306617818561e+02 7.9120337603454036e+00 2.7317587613534311e-01 -5.9271309316540339e+00 -6.5812230037214210e+00 8.9981152372553197e-01 -7.2095481089315196e+00 -3.5739947615729770e+00 1.5962642425724880e+01 1.0550286809227514e+02 1.2377228057004572e+00 2.9892391653018802e+00 -8.1559498886489564e+01 
      </Row>
      <Row Index="19">
        3.1103764422655331e+01 1.4666926361740179e+03 6.1207164613078874e+01 -1.0720218837668497e+01 -2.5877912815021512e+02 -7.6207966489628220e+01 2.3035913960868422e+02 -7.4330579151190341e+02 -6.7222019322971676e+00 2.8970384159629589e+01 -4.2431181033103076e+03 -6.1079260419107345e+02 5.5045328944903531e+01 7.9555357091941892e+02 1.4133708598153606e+02 2.0174884590560796e+03 1.3134193641762886e+03 1.7706611588835358e+01 -1.0183753623197708e+02 5.1306692449436341e+03 3.6426793381257005e+02 2.3042137940262862e+01 -1.0048711373847536e+03 -1.5316783613461121e+02 -2.2621612459741082e+03 -9.6911837244253775e+02 -5.1180505128745608e+00 -1.6482649966505043e+01 -1.8829643461555461e+03 -1.6963112846877848e+02 1.9307431226305880e+01 1.1168668494537414e+02 -5.5666722427801915e+01 -3.1598907506006435e+02 1.5250052902885327e+03 -2.8862404411888065e+01 -1.4597874459799497e+01 7.8744076657859114e+02 -1.7661725476053664e+02 -2.2094001743784286e+00 -1.5341123486602973e+02 6.2192697858590179e+01 3.6161490312467627e+03 -3.0350724965620236e+02 4.4358345491955209e+00 2.0475134214972854e+01 2.3419731835330532e+02 -9.1024271926491565e+01 5.2770758585457081e+01 1.1540734668263634e+02 -9.6652177469334518e+01 -6.0952250681126588e+02 -3.3735353028653037e+01 -1.4519075610417282e+01 4.1147555507149787e+02 
      </Row>
      <Row Index="20">
        6.4294317061738184e+01 1.2657316786750707e+03 -7.6143671897207287e+03 -1.3211974046176854e+02 -4.0614676476210150e+01 -5.4772638921554371e+03 -6.5829051512546748e+03 -3.0627151543321424e+03 -3.7997392788440436e+02 -1.0967027872148705e+02 -1.2498041922541452e+03 6.8107592581302845e+02 4.4691343791005420e+02 4.2360837645078868e+02 6.4493534199854857e+03 1.6200948407567339e+03 -8.3622771730944078e+02 8.3433533526528299e+02 -8.0638138013109710e+01 3.6426793388313149e+02 2.3063338351125625e+04 1.5745215825981032e+02 4.7815052705929702e+01 5.2837619730638835e+03 8.2037583839447470e+03 1.3136478971707875e+03 6.8811437428280533e+02 -1.5423592619227747e+02 -1.2108174842732551e+03 -5.3885028713944839e+03 3.9662767194277421e+02 -6.3880908150336643e+02 -1.7366873202733091e+03 2.1714596367703780e+03 3.4242351999307698e+02 -4.9535679345807603e+02 -1.4203104000014413e+01 3.4109688409167006e+02 -3.7221749874672196e+03 -8.5949281393137866e+01 1.1333871062095065e+02 -1.2115120511621717e+03 -1.3608838883647897e+04 -1.3355609620217183e+02 -1.0906598309719286e+02 1.0420180556874539e+02 1.2137070159138626e+02 1.8913271251945462e+03 6.5129956544794209e+02 2.4273155035230064e+02 -1.9036136040428787e+03 2.8185437456165914e+03 7.9051338438803441e+02 -7.6605837442247912e+02 -1.4682013633671659e+03 
      </Row>
      <Row Index="21">
        2.6871360940087641e-01 1.3875351013905686e+01 -4.3772872321577083e+01 -6.9868911075971587e+00 7.5787179496491053e+00 -7.3905366906090407e+01 -1.5538946058936368e+01 -8.5094986226804764e+01 -8.1896534630067741e+00 -6.7033507271544437e+00 -5.0700597422774081e+01 3.3229653351270642e+01 -2.0672576340140807e+01 1.2767161041693139e+01 1.2535482842386618e+02 9.9640305508177789e+01 -6.2542092484303566e+01 2.0397175712054107e+01 5.0180852806059306e+00 2.3042137938881886e+01 1.5745215825911123e+02 4.2226209114458889e+01 -7.5496682173527631e+01 5.0641075178250048e+01 -2.3229966931929312e+02 1.1439515051336393e+02 9.4869550943294172e+00 -5.0674836635429870e+00 9.6304578038309501e+00 1.0320067211487036e+01 1.0032460648731927e+01 -4.5868184606143458e+00 -2.2530117489036165e+01 -9.4562399881778447e+01 -1.3456096064129010e+01 -1.3683724175694280e+01 3.9345803072717844e-02 2.5629240623745453e+00 -8.5525529997699309e+01 -1.7482888008081232e+00 1.3084141473461575e+00 -2.7468413949023581e+01 2.3737187410539434e+02 3.7058769729626526e+00 7.0628986576193231e-01 3.1703332893154936e+00 9.7028430529573362e-01 -3.4702246452400587e+00 6.6817637440972950e+00 1.2333171892225891e-01 -2.1329113932817158e+01 -3.3689922458519739e+01 1.9198191123628625e+01 -1.3838329532524213e+01 2.9821855551192233e+01 
      </Row>
      <Row Index="22">
        1.2031764776490490e+01 -3.0572467737885381e+02 -3.1162542500632674e+02 4.7296164096837259e+01 -2.8156773812981606e+02 -4.8248232732008296e+02 -3.4773342085683981e+02 4.4245529240795520e+02 2.9467114273833591e+01 -1.5990602254356872e+01 7.2404576903543057e+02 -3.3895934792947759e+02 -8.0028207903328166e+01 -1.0617224879320420e+03 -7.5980599217038355e+02 -4.5679566782266993e+03 5.1443413315340877e+01 3.3674157771051796e+00 2.3376381162061989e+01 -1.0048711373557976e+03 4.7815052805917276e+01 -7.5496682175248310e+01 1.6593379609995718e+03 1.1188973372485852e+03 6.4580215736915852e+03 5.9806145329219873e+01 -1.1215599008064783e+02 1.8858415600409899e+01 5.0239216184680117e+01 5.4002172082944253e+02 -2.1960573634260982e+01 6.3571408954752371e+02 8.3230411675304890e+02 8.2554934828194382e+02 4.4617015457021301e+02 3.4075162538065342e+01 -8.6466992491541212e+00 -1.2604610346325421e+02 3.7459264415113978e+02 -6.2560291286736547e-01 4.0168587616650946e+00 -1.2685370605199032e+02 -9.2711950647367066e+03 -7.1254869721571652e+01 2.7274714853775635e+00 -6.0116178653629504e+00 -4.5770020457046769e+01 8.4467334140304956e+01 -1.1315977156202396e+02 -3.0590686461885298e+02 1.7570944207504303e+02 1.5371798467776928e+03 -1.1314238130812237e+02 5.1685659869347759e+01 -1.0748101271806813e+03 
      </Row>
      <Row Index="23">
        -1.7704352031860253e+01 -5.6488204891620262e+02 -1.8201007429254564e+03 -3.5253318352066231e+01 -1.6526571660851388e+02 -2.3223712100474359e+03 -8.2367405683621257e+02 -1.4684963781299061e+03 -6.1249716727572917e+01 -4.4499604149929837e+01 3.8193941504190298e+02 -5.5874455776349726e+02 3.2534089750464773e+01 -6.1312677766400975e+02 -1.0121626495600163e+03 -6.9696434471689718e+03 -1.1118427962917558e+03 3.1776502746286315e+02 6.7569711333824671e+01 -1.5316783605015189e+02 5.2837619730897550e+03 5.0641075179227315e+01 1.1188973371394241e+03 5.9684922033442999e+03 1.1501540793888475e+04 1.7465713722595203e+03 -8.1333344934516390e+01 -3.7481657206080854e+00 4.6691438914151513e+02 -8.3284883923822417e+02 3.4404491117231373e+01 2.4559469985199092e+02 5.5480666904990528e+01 1.9540251422357687e+02 -6.3422630782963392e+02 -9.8313537376688146e+01 6.0353830779236111e+00 -1.6173328481087964e+02 -8.1839256046415528e+01 -5.6970090749038871e-01 -1.4054967386509000e+02 4.4396778355147620e+02 -1.6008504004467495e+04 -2.0658723222860522e+02 -3.7964422895821372e+01 -9.2519245734729338e-01 -5.1704837311374405e+01 5.1008078830656791e+02 6.8119513371064770e+01 -1.1651488547061655e+02 -6.9409842829194258e+02 2.6928744345865016e+03 3.3012204133271962e+02 -1.4031777164807357e+02 -1.8613950215154287e+03 
      </Row>
      <Row Index="24">
        1.1083406166741042e+01 3.5440540946167894e+03 -1.1291210590528675e+04 2.8993265374606290e+02 -4.2796660217203197e+02 -1.3757625224528099e+04 -4.4086030668693120e+03 5.5680726635042647e+03 2.1214510433827684e+02 2.7693023394807824e+01 -1.4847987322622212e+03 5.2406226469529738e+03 -5.6447542780516960e+02 -4.0757330252638712e+03 -2.2265683859794754e+03 -1.0202069992424897e+05 -4.5095079855615040e+03 5.6897733517728921e+02 3.6065454264331493e+02 -2.2621612452421687e+03 8.2037583878229343e+03 -2.3229966934521570e+02 6.4580215734593221e+03 1.1501540797051042e+04 1.4412126717030862e+05 -1.1164692311534220e+03 -9.8133722318851505e+02 3.5688790335555677e+02 -3.2066986068338156e+03 7.9020334596149769e+03 -2.6547778665811347e+02 -9.3016786803157686e+01 1.2864262359505194e+04 1.1081888903960818e+04 -4.7217179052242573e+03 -8.2175029694277328e+01 2.2655804910677208e+01 1.1097675231099245e+03 2.5184406141988657e+03 -1.2475143520199329e+02 1.0443896018107417e+02 -6.8247642170888423e+02 -2.0080208937388117e+05 -3.7267686628624108e+02 1.6527323669996093e+01 -3.3859362299965869e+02 1.3363669255199281e+02 2.6732739299822897e+03 -4.6141145346440669e+02 -4.4345501869780037e+02 4.5823283716079131e+03 4.2574280302736312e+04 -5.5155408092283687e+02 1.1860694276485776e+02 -3.2084182267008997e+04 
      </Row>
      <Row Index="25">
        4.0592507220945208e+01 -2.8358125848522286e+02 -1.0450683480259497e+03 1.1695487944902254e+00 8.3913635707828035e+01 -1.0456186712708836e+03 -2.5410096969898837e+02 -1.3553388658083022e+03 -4.7379639762200199e+01 -1.5123811373366493e+02 8.4871430268982704e+02 6.3149491630554576e+02 -9.4415027483500467e+01 4.4743766431880481e+01 1.2198919984370974e+02 9.2862292040118518e+02 -2.1079350238847760e+03 1.9511398364250272e+02 6.5702265202958301e+01 -9.6911837243474793e+02 1.3136478970965127e+03 1.1439515051419068e+02 5.9806145302360846e+01 1.7465713721872266e+03 -1.1164692322382107e+03 3.8034299492007244e+03 3.6676415624146102e+01 -5.8861084916669142e+01 9.3533523629937372e+02 -2.8263224729961064e+02 1.9492077215706558e+01 4.1872025504414194e+02 -4.9132903397944040e+02 -3.1093966257292868e+02 3.9467720686528071e+02 -5.5479635654531933e+01 -9.7876359278906051e+00 -2.6626187637179163e+02 -6.9447448423600656e+02 -1.8054739878026680e+01 -2.2890051651091945e+01 -2.3683604455276281e+02 5.2028505208383729e+02 -5.1011335613303117e+01 2.4449729516367444e+00 4.5908905980416080e+01 -6.4262925142870500e+01 9.1585889491954276e+01 2.6673066960803460e+01 -1.1974944705067760e+02 -3.3852304554798997e+02 -7.1219545469776790e+01 2.9781056865561584e+02 -1.0165983636277448e+02 1.3415132705222837e+02 
      </Row>
      <Row Index="26">
        1.9734800498671916e+00 8.7238321263339003e+01 -1.6196883164554538e+02 -8.4288536822708977e+00 2.4156895875658631e+01 -1.2542797408308670e+02 -2.6472488502093353e+02 -9.5001771672656574e+01 -2.8561305947280886e+01 -4.8191831256365276e+00 -6.1404038194442364e+01 2.0121456947582698e+02 3.7220263742782322e+01 1.2106132082710269e+02 3.6959844395031240e+02 9.7711546203010221e+02 6.0431483623233362e-01 2.3160059169864780e+01 -5.2491045582344213e+00 -5.1180505194556645e+00 6.8811437427090777e+02 9.4869550943443919e+00 -1.1215599007377477e+02 -8.1333344943314842e+01 -9.8133722308940742e+02 3.6676415618348230e+01 9.1381647336617220e+01 -1.1599434823266392e+01 -5.8776325568567700e+01 -3.2218115021835814e+02 2.0147189830908019e+01 -6.8073592864713646e+01 -9.4459281339956348e+01 3.9583240557160025e+01 4.1499726741108915e+01 -3.5699309789851554e+01 -4.1553479831716228e-01 1.9685190860245978e+01 -2.7131868970110185e+02 -3.3380996850469087e+00 9.0017267269292383e+00 -1.0367082209102529e+02 1.1794598854450687e+03 3.3060542562422384e+01 -2.0301133998470737e+00 8.1551915059133648e+00 6.7002017704312644e+00 3.2825930893565811e+01 4.6244764414834606e+01 3.3566499414333883e+01 -6.7707048449028804e+01 -2.1434810645459947e+02 2.5540512028871177e+01 -4.7558839933610095e+01 1.8902826768027180e+02 
      </Row>
      <Row Index="27">
        -1.1047989986880395e+00 -2.7558464575463859e+01 5.5393141755558526e+00 -1.0342014015755936e+00 -1.1400365261151741e+01 3.7612773262871279e+01 8.0076042575991067e+01 8.8918894063838877e+01 6.1673738499003221e+00 1.2899216622177278e+01 3.4079353392533449e+01 -2.6026539736779796e+01 -2.4385110108084973e-02 7.8564415005839106e-01 -1.0329748396667209e+02 -3.1376381842727824e+02 -6.3966881666090785e+01 -8.5199871368146489e+00 7.9891507708647964e+00 -1.6482649963951985e+01 -1.5423592618930576e+02 -5.0674836635350795e+00 1.8858415596872646e+01 -3.7481657184025607e+00 3.5688790329491349e+02 -5.8861084914356930e+01 -1.1599434823149920e+01 2.3581039184695669e+01 2.8924820497129986e+01 5.6006172387152191e+01 -2.0369255603529837e+00 1.0398757648456808e+01 1.6205883907012080e+01 3.2928343344774476e+00 -7.9890661455694541e+01 8.7608346515982873e+00 3.0417921596835882e+00 -5.6734762261985647e+00 5.6327622051382107e+01 2.4482006632553166e-01 -9.8797868732756511e-01 4.5188718849511218e+01 -4.2745495206892588e+02 -1.0816183999229661e+01 -1.9586146369967239e-01 -1.4456292088632210e+01 -2.5221159461711569e+00 -1.1134183999884769e+01 -4.4436545264081841e+00 -2.3564972264463835e+00 2.1263284902602923e+01 8.3503862149884043e+01 -1.3196281213580342e+01 9.9251137354368861e+00 -7.3974164559750776e+01 
      </Row>
      <Row Index="28">
        -3.1139803793244937e+01 -1.9697784286965007e+03 4.8961270498391963e+02 2.4789422394740797e+00 -6.9073651100707423e+01 1.7136928694659812e+03 1.0482042437334248e+03 4.0375826526143425e+02 6.9100147063827379e+01 -1.6053582094252306e+01 2.4881246762198261e+03 -5.2731136950910241e+02 -6.9678373164485265e+01 -6.9222951618980559e+00 -1.9565629421400270e+03 1.3759114418019089e+03 -1.3634975573915872e+03 -1.1673730390250648e+02 7.0048005679869220e+01 -1.8829643461529104e+03 -1.2108174844587527e+03 9.6304578062124264e+00 5.0239216132787988e+01 4.6691438897134140e+02 -3.2066986083635129e+03 9.3533523628200714e+02 -5.8776325557392283e+01 2.8924820491937680e+01 2.6476053726512037e+03 6.3264331474856681e+02 -2.6649194827406973e+01 1.4205010409570696e+02 -6.3141427736798539e+02 -1.1631590758273232e+03 -1.2942712197951712e+03 6.1343434307221287e+01 1.2161362278572016e+01 -7.5740634518585398e+02 1.9843206477124488e+02 4.1041341689532365e+00 -5.6327011229380972e+01 8.7392950507391311e+02 5.3770037014141117e+03 1.3560286848719426e+02 -4.1729985342386229e+00 -2.5265001720514874e+01 -2.0290142768428419e+02 -3.2862062651699739e+02 -5.4040231812914364e+01 -4.0436976308251019e+01 -1.4293620443361775e+02 -1.0675555593758741e+03 6.4454887251150126e+01 7.9455697897171873e+01 6.6007310209291938e+02 
      </Row>
      <Row Index="29">
        -1.4409399908544401e+01 -5.3721566242743575e+02 8.6936838462874766e+02 4.4260084170554904e+01 -3.1940970769631531e+02 9.3344647032319153e+02 1.4744150832462838e+03 1.1338835636807694e+03 1.0975169644671161e+02 -2.0516462487651552e+01 3.5621966672492999e+02 -3.7091799175551023e+02 -1.9753643649031892e+02 -3.0663154820287792e+02 -2.4276423707584358e+03 -7.5953375755950838e+03 -6.0085623437650793e+02 -1.1844016973263479e+02 5.8360581266833833e+01 -1.6963112843972704e+02 -5.3885028711438172e+03 1.0320067209723376e+01 5.4002172084360427e+02 -8.3284883902850561e+02 7.9020334606699471e+03 -2.8263224725046291e+02 -3.2218115022756047e+02 5.6006172391740620e+01 6.3264331479209068e+02 3.9592745361370175e+03 -6.5451089769420378e+01 4.3335186509587220e+02 1.2575754306898039e+03 -2.6178432406263892e+02 -6.8286255529769971e+02 1.3897346970428771e+02 -9.4679331119765511e+00 -1.4857109771008919e+02 8.2486917948004748e+02 -3.1633636956322526e+01 -4.0295105543250422e+01 3.5758672687030372e+02 -1.0253697478325914e+04 -1.3269807937796116e+02 5.5844756571762737e+01 -4.5124330906916839e+01 -5.3722631337896011e+01 -5.9537980465586190e+02 -1.6655408385121061e+02 -1.6287376169699115e+02 9.7340536252874858e+02 1.9573214677326728e+03 -1.8280904416657472e+02 2.3829701399222705e+02 -1.6241836090264271e+03 
      </Row>
      <Row Index="30">
        3.7827377173443324e+00 4.2433519336193967e+01 -1.1151155736701240e+02 -1.1597645365233131e+01 7.0574706046261326e-01 -9.5588239881700716e+01 -1.8124593296888736e+02 -7.0072435727959927e+01 -1.1797146203249527e+01 2.3285749036007815e+00 -3.0380943501267438e+01 2.7524128851479190e+01 3.0156560610237648e+01 2.0502593260583485e+01 1.7015282915980339e+02 4.1490086400196424e+02 3.3292685567949547e+01 1.9917319302414953e+01 -6.2229580379220124e+00 1.9307431225239270e+01 3.9662767193636773e+02 1.0032460648771266e+01 -2.1960573633977674e+01 3.4404491111053403e+01 -2.6547778670024672e+02 1.9492077214195888e+01 2.0147189831302569e+01 -2.0369255605230023e+00 -2.6649194829215048e+01 -6.5451089770578562e+01 3.3629998598662823e+01 -5.1685601413154643e+01 -5.0971458454630486e+01 5.8067926047847322e+01 2.8629450612337223e+01 -6.9551864201325770e+00 -1.4388033594911487e+00 8.1179750777085680e+00 -1.7610020152624861e+02 -6.8927929653994218e+00 9.7938157224123046e+00 -7.0029465512913930e+01 2.8633301226375016e+02 3.6335464607380459e+00 -7.9974653252857575e-02 1.7573140520565858e+00 3.9448963008083822e+00 1.3370778913449627e+01 3.6766374501903897e+01 1.2842862335947849e+01 -3.5936438908282405e+01 -5.2298436719759934e+01 1.8837073248162397e+01 -1.6966176849108695e+01 5.6533588467729878e+01 
      </Row>
      <Row Index="31">
        2.1425018343926922e+01 -1.8960228512564402e+02 -4.5760536949566486e+01 4.2770013430402173e+01 -2.6750567992842923e+02 2.4067174769623728e+02 3.4564858691005202e+02 2.9524097462117311e+02 3.0132899813945055e+01 -3.4495013631328504e+01 -9.1141410549653301e+00 -1.2837152804368316e+02 -1.0302008143208931e+02 -2.6192136552086362e+02 -6.2442239970589924e+02 -3.9475413754417332e+02 -1.5672952115625094e+02 -3.2484133952064354e+01 8.9489724534670358e+00 1.1168668495051440e+02 -6.3880908156376086e+02 -4.5868184605916742e+00 6.3571408953309310e+02 2.4559469981086158e+02 -9.3016787084115094e+01 4.1872025503547229e+02 -6.8073592863833426e+01 1.0398757648183505e+01 1.4205010410208160e+02 4.3335186509346397e+02 -5.1685601413574204e+01 8.0101988304364943e+02 1.8921754832127911e+02 -9.4282300947153090e+01 9.1156860659287167e+02 1.2542247583283711e+01 -1.1723256103289184e+01 -3.5671090005228848e+01 3.3182563136362108e+02 1.6322980895484385e-01 -6.8310952560137295e+01 1.0724477618392893e+02 2.6998688403064654e+02 -9.8177896660556655e+01 3.2577416539569901e+00 5.0302875612995024e+00 -1.0405667715372227e+01 -5.9009022687773822e+01 -9.5223384540512399e+01 -2.3511614472586112e+02 2.7460165533052162e+01 -1.4277921923341012e+02 -1.2360271350188346e+02 4.3235652221749262e+01 8.7304007368614535e+01 
      </Row>
      <Row Index="32">
        -1.2327473119313254e+01 8.7361586916823217e+02 -1.9082915661966280e+02 3.0080132110894567e+01 -1.4749421945247013e+02 -1.1126625497571456e+03 -2.1193149410004480e+02 1.1117639352982358e+03 5.4150651770565744e+01 -1.0638741668197326e+01 -5.7632872591898922e+02 6.9614557685946784e+02 -7.5686072534200321e+01 -4.9415585431982873e+02 -2.9872706160121101e+02 -9.7908763874689175e+03 -1.7488099089528259e+02 -5.3923956134319269e+01 5.4199252577660445e+01 -5.5666722393219970e+01 -1.7366873198362655e+03 -2.2530117493421031e+01 8.3230411681695477e+02 5.5480667299198103e+01 1.2864262361835979e+04 -4.9132903390429379e+02 -9.4459281361354442e+01 1.6205883917173196e+01 -6.3141427730384748e+02 1.2575754307171155e+03 -5.0971458455328502e+01 1.8921754833956948e+02 2.2593196067264839e+03 1.1592500388183398e+03 -3.5920547958259704e+02 1.1749874862753131e+01 1.5156007209853422e+00 2.3167373796761240e+02 2.7698830017246928e+02 -6.2115371242029287e+00 -4.0716925502286863e+00 -4.7982660983466360e+02 -1.8654873894673106e+04 9.1147274881712278e+01 2.6749628660461958e+01 -2.0634581510402313e+01 4.7456131684780615e+01 3.6160807171597298e+01 -8.2708255962592361e+01 -1.0550162946799223e+02 7.8265237485325179e+02 3.4804264795996482e+03 -1.8834941038289662e+02 6.7782437161341335e+01 -2.5073939368541160e+03 
      </Row>
      <Row Index="33">
        3.8706657787449330e+01 1.2388845980964943e+03 -1.2111776826393045e+03 1.1043655050693928e+01 -1.1456327372377928e+02 -2.3562763721311999e+03 -2.2111291336518007e+03 4.9701520714252791e+02 -6.0143104913869522e+01 3.8144702770108779e+01 -5.3033329266370856e+02 1.0407082094775797e+03 9.5957038623595508e+01 -4.2470051884537759e+02 1.7260540292273406e+03 -6.1758505638339993e+03 3.2398971182061359e+02 1.3786548613503783e+02 -4.9376631071381780e+01 -3.1598907502260772e+02 2.1714596371899843e+03 -9.4562399886142884e+01 8.2554934833056905e+02 1.9540251459377760e+02 1.1081888905660919e+04 -3.1093966249297443e+02 3.9583240538833707e+01 3.2928343437270087e+00 -1.1631590757411032e+03 -2.6178432407076616e+02 5.8067926048192021e+01 -9.4282300922783179e+01 1.1592500387619918e+03 2.9922555849998025e+03 -1.5727376549431938e+01 -3.5375832251142128e+01 -5.4357522716846818e+00 3.3199062470317949e+02 -2.7452809213058731e+02 -2.9466807477059266e+01 1.6982419632171246e+02 -1.3014451027742975e+03 -1.7000829782763125e+04 1.2755955182762756e+02 2.5471933093177768e+00 -1.2864117159309899e+01 8.2288009165641341e+01 5.4145183350555544e+02 5.7379034458348244e+01 -4.0584057675530588e+01 4.2079156250084043e+02 3.6569748496694647e+03 -5.1578300519403683e+01 -7.9427246816510163e+01 -2.5765924837668590e+03 
      </Row>
      <Row Index="34">
        1.1789971803922685e+02 3.2899123895422599e+02 -2.0387499218122824e+02 5.0120891243525534e+01 4.9748183028606945e+01 3.9394520619126052e+02 -5.9829874626948367e+01 -4.3434269952133252e+02 -8.6759422082382116e+00 -8.3948344947508758e+01 -1.3585917550628474e+03 -9.9163565560128518e+01 2.5310645069263956e+01 -1.5674798887552816e+02 2.9297306689732733e+02 3.6888099057160507e+03 1.5534803621115097e+03 -4.2425532727372683e+01 -1.3828355302624459e+02 1.5250052902772750e+03 3.4242351980127114e+02 -1.3456096063395307e+01 4.4617015454937609e+02 -6.3422630798503815e+02 -4.7217179058497568e+03 3.9467720682349591e+02 4.1499726746570559e+01 -7.9890661458154682e+01 -1.2942712198219961e+03 -6.8286255528892434e+02 2.8629450610875892e+01 9.1156860658660298e+02 -3.5920547956504657e+02 -1.5727376556285890e+01 4.3733490721067719e+03 -2.4562976913743569e+01 -5.0952563870196528e+01 2.9829948026951479e+02 -1.2291498393846737e+02 -1.5942302975695359e+01 -4.7455996734948357e+01 -6.2723480380682616e+01 6.7696614348308003e+03 -3.1264456218418763e+02 -8.8840740809049024e-01 9.7520095312514513e+01 8.9289409030085309e+01 -3.4810689093944802e+00 1.9949908121926590e+01 -2.6574031683617579e+02 -1.6046945630744233e+02 -1.3304788548443316e+03 -2.3804817063910559e+02 -7.9036112230896194e+00 1.0052168175766350e+03 
      </Row>
      <Row Index="35">
        -9.2613218318264146e-01 -6.6878197537432072e+01 1.2183953569946907e+02 5.5014228506901883e+00 -1.2472836400369545e+01 1.8753742793664003e+02 1.7567990440075505e+02 7.4575079425043356e+01 1.9874270789315801e+01 5.4228708819058227e+00 6.7166456046358292e+01 -6.0169342688404612e+01 -1.2865221201606772e+01 -2.8628198090266366e+01 -2.4639257481345570e+02 -1.1063942673775921e+02 6.0234155930748443e+00 -3.4501752995442359e+01 8.7916340624116174e-01 -2.8862404411027683e+01 -4.9535679346513177e+02 -1.3683724175586050e+01 3.4075162534849198e+01 -9.8313537383480480e+01 -8.2175029750852445e+01 -5.5479635655126202e+01 -3.5699309789386156e+01 8.7608346513915478e+00 6.1343434307458324e+01 1.3897346970288677e+02 -6.9551864200286921e+00 1.2542247582326524e+01 1.1749874859798979e+01 -3.5375832254795455e+01 -2.4562976913562579e+01 3.0172129788589508e+01 1.5036403231527107e-01 -2.1844884891509182e+01 1.0960733333686511e+02 1.1310240820591158e+00 2.1713224342171122e-01 6.0822870336747037e+01 2.1124253771846466e+02 -1.4362835265821397e+01 8.6924561420270763e-01 -5.4109669079338616e+00 -6.1021724786451621e+00 -4.0020061148206857e+01 -1.9813233995865449e+01 -1.0357298278305315e+01 3.3029333302319884e+01 -4.4477903315249243e+01 -1.5426071173860237e+01 3.1343775836594226e+01 1.4718092312442863e+01 
      </Row>
      <Row Index="36">
        -1.3106501343892489e+00 -4.6602578600354576e+00 1.5789025658966212e+01 -1.7765938340133123e+00 3.7037601315562227e+00 -3.6886421314094129e+00 1.9895359101021199e+00 5.3490117881815813e+00 -2.5959218996509748e-01 2.1070797606013549e+00 1.6620203613327703e+01 -1.3292303711574341e+01 3.6773691037747547e-01 1.4795551318579911e+00 2.7886170468155926e+00 -2.3691140423932836e+01 -1.7082488844072827e+01 7.9756839817957115e-01 2.8514408614009348e+00 -1.4597874459818286e+01 -1.4203103998800321e+01 3.9345803067980967e-02 -8.6466992489286554e+00 6.0353830789922256e+00 2.2655804917879209e+01 -9.7876359276658249e+00 -4.1553479836710849e-01 3.0417921597020197e+00 1.2161362278640865e+01 -9.4679331118057490e+00 -1.4388033594874532e+00 -1.1723256103298244e+01 1.5156007212085711e+00 -5.4357522713274875e+00 -5.0952563870378810e+01 1.5036403231298223e-01 1.6494010914742647e+00 -2.4686615595187114e+00 7.8915453708802801e+00 8.0155010842580987e-01 4.1408866826327873e-01 1.5978687979182977e+00 -3.2863210048599207e+01 5.7743550053006212e+00 -2.5190939965392012e-02 -2.4134677737501988e+00 -8.4410899133638784e-01 7.2518520528223718e-02 -6.6535575967787097e-01 3.7998440305842065e+00 6.5156506460037056e-01 6.2978039352754447e+00 2.0632097690118396e+00 -4.5528087520002369e-02 -5.5895924580523175e+00 
      </Row>
      <Row Index="37">
        7.3014776463082853e+00 6.5911902026061625e+02 -2.0371536172791093e+02 -1.0820511189328812e+00 -1.9534692069871880e+01 -5.9159965284978034e+02 -3.2002341355612316e+02 -1.0380041437011776e+02 -1.9989752002791192e+01 6.9272020175178568e+00 -8.8491299209108456e+02 3.0093556092379958e+02 1.9444041451560793e+01 1.0889036961138802e+02 6.5338015042235941e+02 -5.1030404571133840e+02 3.4643988940330200e+02 3.5150664675158964e+01 -1.8931238077210764e+01 7.8744076657828600e+02 3.4109688415591705e+02 2.5629240616692641e+00 -1.2604610344787352e+02 -1.6173328475473500e+02 1.1097675235738425e+03 -2.6626187636454824e+02 1.9685190856906388e+01 -5.6734762246130686e+00 -7.5740634518451589e+02 -1.4857109769905082e+02 8.1179750773114847e+00 -3.5671090003322206e+01 2.3167373798433482e+02 3.3199062472808873e+02 2.9829948026184866e+02 -2.1844884891479296e+01 -2.4686615595063972e+00 2.8649885465607917e+02 -9.3234483288117119e+01 -1.8358707314191838e+00 8.6047185073010706e+00 -2.4240202758742012e+02 -1.7776066099179873e+03 -2.1177928398475572e+01 1.3453333716620970e+00 4.6953148713467954e+00 7.0467887306835337e+01 1.1211708387018547e+02 2.0258532763489498e+01 2.6945902495386328e+01 5.6897369858091380e+01 3.6886384813482647e+02 -1.4249798106934747e+01 -2.6252017971165586e+01 -2.3809444852750346e+02 
      </Row>
      <Row Index="38">
        -1.7620775067759268e+01 -4.6742274115212967e+02 1.4915279892410445e+03 3.4779295377331486e+01 2.3208120243932626e+01 9.4571331703181113e+02 1.9270633795870349e+03 9.1677742900280180e+02 9.8959931075095710e+01 3.7658662874569700e+01 5.0323085097218609e+02 -8.3646954758134643e+02 -1.3019329709117301e+02 -4.7028498195112132e+02 -1.5434445789851379e+03 -3.9973817928249591e+03 4.3217492479094653e+02 -1.7610993784727816e+02 2.6913203635731861e+01 -1.7661725474368086e+02 -3.7221749874488933e+03 -8.5525529997774811e+01 3.7459264412679840e+02 -8.1839256030471006e+01 2.5184406140194260e+03 -6.9447448422497655e+02 -2.7131868970155983e+02 5.6327622051825983e+01 1.9843206480338267e+02 8.2486917946617177e+02 -1.7610020152538937e+02 3.3182563136022873e+02 2.7698830012098279e+02 -2.7452809217589675e+02 -1.2291498393546135e+02 1.0960733333848066e+02 7.8915453708273855e+00 -9.3234483297070256e+01 2.2673571730396907e+03 3.0183609842384662e+01 -4.4774168753404545e+01 7.4826779174562853e+02 -2.5725859787295649e+03 -7.3203437665198692e+01 -1.7950648357163033e+01 -4.2103781667464318e+01 -3.7275940892443877e+01 -1.3945604214883690e+02 -2.5697434185183511e+02 -1.2644110149157655e+02 2.7306956256430777e+02 4.2940057556440837e+02 -2.5578193338934966e+02 1.9619634477348075e+02 -5.4978289699488005e+02 
      </Row>
      <Row Index="39">
        -2.5191187303252249e+00 -7.5932699856346630e+00 7.6197509115170931e+01 2.4293866434779137e+00 6.4819350750734372e+00 2.7926520839426690e+01 3.5269953496379742e+01 -4.3762106809819858e+00 1.1478637605394084e+00 2.4938375188985020e+00 4.4694257765979728e+00 -6.4487706994535017e+01 -7.9868384501809615e+00 -2.5585335819872462e+01 -2.8461129754467891e+01 5.8586301122421787e+01 3.0476210384557930e+01 -1.7720305573345669e+00 8.2462399181000023e-01 -2.2094001750129166e+00 -8.5949281396642760e+01 -1.7482888007836976e+00 -6.2560291257869949e-01 -5.6970090993422673e-01 -1.2475143518998971e+02 -1.8054739878988528e+01 -3.3380996850498548e+00 2.4482006629932584e-01 4.1041341674822434e+00 -3.1633636954556493e+01 -6.8927929654677413e+00 1.6322980856557479e-01 -6.2115371213827189e+00 -2.9466807474758753e+01 -1.5942302976837482e+01 1.1310240820238846e+00 8.0155010843580499e-01 -1.8358707309316742e+00 3.0183609842528739e+01 4.7838356993112408e+00 -4.6537399425626065e+00 1.4296362608626636e+01 1.9781996827907452e+02 4.7774429176182824e+00 8.2830939123085534e-02 6.9149331284066307e-03 -6.4127298493204743e-01 -4.4922228112392482e+00 -1.1057831609723156e+01 -2.1520481204243680e+00 -3.7542403884237210e+00 -3.9800770589144740e+01 -2.0925428228125718e+00 2.4263464582400847e+00 2.5899277136993678e+01 
      </Row>
      <Row Index="40">
        1.9703264145916819e+00 3.5252109663814906e+01 -7.4549505969187408e+01 -3.1909377902667417e+00 2.4026149344285585e+01 -1.0470111162269014e+02 -1.7670854288267122e+02 -2.2771910172803416e+01 -6.3236287724251667e+00 -5.4132083812535825e-01 8.1828981446461739e+01 1.0967992761931524e+02 2.4530355369334842e+00 -1.5278540455462107e+01 2.1934542447037768e+02 1.1954818252206451e+01 6.7655854755845439e+00 8.4191434824358282e+00 -6.0532912373793124e-01 -1.5341123486810125e+02 1.1333871063984174e+02 1.3084141470797874e+00 4.0168587697346538e+00 -1.4054967384706538e+02 1.0443896038941784e+02 -2.2890051650376904e+01 9.0017267256556863e+00 -9.8797868679349676e-01 -5.6327011232743644e+01 -4.0295105535170592e+01 9.7938157221640552e+00 -6.8310952559919713e+01 -4.0716925361263065e+00 1.6982419633730910e+02 -4.7455996739870216e+01 2.1713224330206060e-01 4.1408866828056645e-01 8.6047185084746047e+00 -4.4774168750296404e+01 -4.6537399427601729e+00 3.8719663418743735e+01 -1.0702504983867854e+02 -2.8947214178352567e+02 5.2602572574428947e+00 -3.4819165723804357e-01 -2.8349166602575337e-01 1.3579399120080105e-01 2.7976350818870813e+01 6.8410999486065842e+00 8.8796039137443969e+00 2.3843272552791881e+01 6.6211857643387702e+01 1.2007341613749801e+01 -6.3877149618117812e+00 -3.4078930658522509e+01 
      </Row>
      <Row Index="41">
        -2.0142348103888025e+01 -1.1375626461409572e+03 3.3088231403445843e+02 1.9690249902271571e+01 2.7297897692744527e+01 1.5221329392585722e+03 1.7119995581250955e+03 1.4943432753830723e+02 9.7838546367603101e+01 2.0737824375721175e+01 6.1645808311543442e+02 -6.6490163737783269e+02 -5.4892461093448162e+01 7.5714067934400063e+01 -1.9561363148503760e+03 -6.9497152559236201e+02 -2.0599214600252435e+02 -1.7457168599735070e+02 1.4620793579057249e+01 6.2192697882015409e+01 -1.2115120513321403e+03 -2.7468413946240730e+01 -1.2685370613904752e+02 4.4396778338003332e+02 -6.8247642393967544e+02 -2.3683604455234990e+02 -1.0367082207723820e+02 4.5188718843734250e+01 8.7392950511696290e+02 3.5758672677722961e+02 -7.0029465509444037e+01 1.0724477618046035e+02 -4.7982660999486689e+02 -1.3014451029474767e+03 -6.2723480327706056e+01 6.0822870337974905e+01 1.5978687976850097e+00 -2.4240202760222553e+02 7.4826779170690872e+02 1.4296362610509469e+01 -1.0702504983936711e+02 1.3048561169185537e+03 2.6852678726556755e+03 -1.8090809004575794e+02 -1.8150927822894459e+01 -2.6991594918119631e+01 -7.7803309096955545e+01 -2.5083846054668783e+02 -8.6092524989201422e+01 -8.9177820000634114e+00 -1.3217469528326598e+02 -5.2125009425991084e+02 -5.4793130623892296e+01 1.1122655676705500e+02 1.7528797065535252e+02 
      </Row>
      <Row Index="42">
        -4.1754359631420812e+01 -6.4031926171684172e+03 1.6527165276525775e+04 -3.8084831144960117e+02 6.2319605946680531e+02 2.1533243377606370e+04 8.0706970891312230e+03 -7.5638170695371628e+03 -1.7642540536486194e+02 2.4678691853943747e+01 2.6861836471455172e+03 -8.7401327731380006e+03 7.5616427773010219e+02 5.8066277897928494e+03 4.8387665276578628e+02 1.4121085135334544e+05 6.6024458838063292e+03 -9.8380498736322625e+02 -5.3284306692727841e+02 3.6161490362554323e+03 -1.3608838886140555e+04 2.3737187432998326e+02 -9.2711950771003030e+03 -1.6008504013319965e+04 -2.0080208966255002e+05 5.2028505697008222e+02 1.1794598870596965e+03 -4.2745495262055192e+02 5.3770037130247802e+03 -1.0253697495587636e+04 2.8633301301315078e+02 2.6998688406008296e+02 -1.8654873924706830e+04 -1.7000829811126925e+04 6.7696614434253424e+03 2.1124253801180748e+02 -3.2863210103198071e+01 -1.7776066136956215e+03 -2.5725859841451852e+03 1.9781996842362605e+02 -2.8947214258488748e+02 2.6852678808157193e+03 3.4015398344713397e+05 2.2159522646250844e+02 -3.2935481079987653e+01 4.3497840650018770e+02 -2.6470141242202118e+02 -4.1547859905054647e+03 5.2990366347104043e+02 6.1305347660043662e+02 -6.4796668696882152e+03 1.0351637374740317e+05 6.5678194266877836e+02 -2.4171709946506326e-01 -1.1868340740805106e+05 
      </Row>
      <Row Index="43">
        -5.6971597132686043e+00 7.2134905031245694e+01 2.3352882210069174e+02 -8.1212232235424437e+00 3.3464462136733800e+01 -9.0479300759582458e+01 -2.1924445321247185e+02 2.9913971803123388e+02 -1.2086313180235820e+01 4.4026972493496146e+00 2.0196168612259271e+02 3.3429882715266501e+02 2.5326575098636496e+01 1.5037864816262262e+01 3.1239543132968964e+02 3.5014458148660742e+02 2.6696500770636703e+01 2.1914325647750417e+00 7.9120337619152110e+00 -3.0350724966565224e+02 -1.3355609616858135e+02 3.7058769723674914e+00 -7.1254869697838672e+01 -2.0658723219257718e+02 -3.7267686566314751e+02 -5.1011335616600320e+01 3.3060542559041920e+01 -1.0816183997976282e+01 1.3560286846998906e+02 -1.3269807934763764e+02 3.6335464596930365e+00 -9.8177896662057947e+01 9.1147274935214739e+01 1.2755955188216512e+02 -3.1264456220372176e+02 -1.4362835266380813e+01 5.7743550054028887e+00 -2.1177928392663631e+01 -7.3203437656812312e+01 4.7774429171250352e+00 5.2602572585078207e+00 -1.8090809005463808e+02 2.2159522763739966e+02 1.9033547493752829e+02 1.8280685281383668e+00 2.4580365871182295e+00 -7.8253829586924475e+00 5.4805474964382476e+01 1.8784069997726913e+01 3.2952094281254872e+01 3.1575602206223721e+01 -2.4667627767461845e+01 -2.8010600641719250e+01 -1.7888045315460602e+01 4.4921726323418639e+01 
      </Row>
      <Row Index="44">
        -1.9221602105900892e-01 7.9755341145845904e+00 3.4518726018277718e+01 2.2675509207503275e-02 -1.2802628512677572e+00 7.9768449647037070e+00 -4.6971082486285809e+00 3.3791317548970161e+00 -1.3887132266289726e-01 -4.2441697931210065e-01 -8.9791552752862316e+00 -1.7556181839346777e+01 -1.2076027721776317e+00 -3.6035215795074289e+00 -1.7699765596398798e+01 -1.2799209669450022e+01 1.9092453911825658e-01 9.0870061199330632e-01 2.7317587627385365e-01 4.4358345486608144e+00 -1.0906598309292514e+02 7.0628986571137631e-01 2.7274714873762136e+00 -3.7964422891805896e+01 1.6527323728659439e+01 2.4449729516016916e+00 -2.0301134001522012e+00 -1.9586146357804068e-01 -4.1729985357181931e+00 5.5844756574292454e+01 -7.9974653326401857e-02 3.2577416537743531e+00 2.6749628664973621e+01 2.5471933141716647e+00 -8.8840740977641985e-01 8.6924561414216051e-01 -2.5190939957778991e-02 1.3453333721842036e+00 -1.7950648356478784e+01 8.2830939067981890e-02 -3.4819165717338185e-01 -1.8150927823363588e+01 -3.2935480897293409e+01 1.8280685280130933e+00 2.4834767630406969e+00 2.0663942915620659e-01 4.8887212256256285e-01 -1.4289326673030022e+01 -6.1822089673490832e-01 -1.2176034447884652e+00 1.8534631382201926e+01 5.6435968387586257e+00 -9.1984056620342258e-01 1.9782002476283447e+00 -3.4175894968411327e+00 
      </Row>
      <Row Index="45">
        1.5275838876082162e+00 1.4157192003079217e+01 -2.9270917082063761e+00 7.7870624252226150e-01 8.7623512698042987e+00 -1.2065101002437885e+01 -5.1155238480731782e+01 -6.6382170656250253e+01 -4.2383439836381740e+00 -8.8946735727970463e+00 -2.7046102521703233e+01 6.8656125480837886e+00 6.2765013474725606e-01 -2.7773402921830863e+00 6.2961663137222786e+01 2.8719368051416450e+02 5.0758859413635491e+01 5.6429432975091061e+00 -5.9271309315833491e+00 2.0475134213089518e+01 1.0420180556232134e+02 3.1703332893409311e+00 -6.0116178637028952e+00 -9.2519246255005783e-01 -3.3859362298057658e+02 4.5908905978081407e+01 8.1551915060068723e+00 -1.4456292088711052e+01 -2.5265001724423200e+01 -4.5124330904036697e+01 1.7573140519331218e+00 5.0302875609730791e+00 -2.0634581503799495e+01 -1.2864117153876578e+01 9.7520095311071600e+01 -5.4109669080787057e+00 -2.4134677737354195e+00 4.6953148725204414e+00 -4.2103781667451941e+01 6.9149331403437486e-03 -2.8349166556380290e-01 -2.6991594923161500e+01 4.3497840590290593e+02 2.4580365883991391e+00 2.0663942927549606e-01 1.0006218715208291e+01 1.9318852144249719e+00 4.8651829359698553e+00 3.3937612824750700e+00 -1.8324588867785687e+00 -1.8731946739037397e+01 -8.5320720845057508e+01 6.6813914722781718e+00 -6.5791676665438432e+00 7.0843413223068907e+01 
      </Row>
      <Row Index="46">
        2.6649953081026965e+00 1.8787962021958458e+02 -4.7348038791699082e+01 -1.1088565413122105e+00 -5.8979668341093259e+00 -1.4595015703431056e+02 -8.8859195109220138e+01 -3.8166808053889355e+01 -6.4167692137765187e+00 1.9017144719883134e+00 -2.6023798898016094e+02 4.8008985566418431e+01 7.1085175600850619e+00 3.5448544021088232e+01 1.8252445541094167e+02 -5.9388488022748334e+00 9.7032831607452863e+01 1.1279290008489383e+01 -6.5812230034266577e+00 2.3419731835250877e+02 1.2137070160497974e+02 9.7028430513339003e-01 -4.5770020452688755e+01 -5.1704837299346764e+01 1.3363669267488149e+02 -6.4262925141928235e+01 6.7002017696447069e+00 -2.5221159458059503e+00 -2.0290142768538090e+02 -5.3722631334038795e+01 3.9448963006660875e+00 -1.0405667715097508e+01 4.7456131691401083e+01 8.2288009173865703e+01 8.9289409027491502e+01 -6.1021724786965024e+00 -8.4410899132614503e-01 7.0467887307271212e+01 -3.7275940890256031e+01 -6.4127298505014041e-01 1.3579399108535295e-01 -7.7803309095153509e+01 -2.6470141170063101e+02 -7.8253829596514919e+00 4.8887212247832679e-01 1.9318852141312135e+00 2.0104912369493931e+01 2.5683124425938853e+01 7.2707452954491938e+00 8.6205449611699443e+00 7.8796181483352505e+00 5.8759966550733523e+01 -1.6256713522035326e+00 -8.2531242865501007e+00 -3.2492494069089233e+01 
      </Row>
      <Row Index="47">
        8.4573592946592271e+00 3.4507181790913819e+02 -9.6074556773539098e+02 4.2619872172477926e+00 3.6849724933517791e-01 -9.8751174412344244e+02 -7.3606223472560487e+02 3.1082024881749092e+01 -3.5006896687928929e+01 -9.4748218190939042e+00 -8.8408486946742414e+01 8.9942727152745965e+02 2.5372456585106875e+01 5.7648514645203122e+00 1.0406976491986443e+03 -1.2557390262338486e+03 -9.6759493165804088e+01 8.2198270821789720e+01 8.9981152407108311e-01 -9.1024271917621263e+01 1.8913271252737279e+03 -3.4702246461529285e+00 8.4467334147725524e+01 5.1008078837860012e+02 2.6732739301656111e+03 9.1585889510218294e+01 3.2825930890000109e+01 -1.1134183998050958e+01 -3.2862062649128347e+02 -5.9537980466659701e+02 1.3370778913551703e+01 -5.9009022679077134e+01 3.6160807142939120e+01 5.4145183348817955e+02 -3.4810688995239616e+00 -4.0020061147010892e+01 7.2518520409971643e-02 1.1211708386215150e+02 -1.3945604213805007e+02 -4.4922228114830460e+00 2.7976350814921886e+01 -2.5083846050437182e+02 -4.1547859846958836e+03 5.4805474952081113e+01 -1.4289326674185503e+01 4.8651829350881144e+00 2.5683124423615908e+01 3.8189080189107426e+02 3.5839659091446940e+01 1.5814950688505006e+01 -8.9679638750681079e+01 8.4009745137401785e+02 1.7488847505203751e+01 -6.7442507002381731e+01 -5.3929016188714434e+02 
      </Row>
      <Row Index="48">
        3.1717505465912552e+00 7.2226855514135650e+01 -1.9668737181297615e+02 -2.1479501371922588e+01 2.8935137196855067e+01 -1.5530097870072143e+02 -2.6660400900260686e+02 -9.4793984298420298e+01 -2.0082134054386984e+01 -9.8477698356873589e-01 -6.4487221618268904e+01 1.8486918743415004e+02 7.3605614810726308e+01 1.6471970884144821e+02 2.7141736475746887e+02 6.9355978451870396e+02 -2.1049191696177331e+01 2.4571461634291239e+01 -7.2095481091579359e+00 5.2770758583505881e+01 6.5129956543800597e+02 6.6817637442319437e+00 -1.1315977156258964e+02 6.8119513359653865e+01 -4.6141145356999823e+02 2.6673066958766526e+01 4.6244764415800546e+01 -4.4436545268316650e+00 -5.4040231815377410e+01 -1.6655408385550390e+02 3.6766374502017783e+01 -9.5223384540044890e+01 -8.2708255963862939e+01 5.7379034455345391e+01 1.9949908124847752e+01 -1.9813233996105964e+01 -6.6535575968613614e-01 2.0258532763926723e+01 -2.5697434185458280e+02 -1.1057831609582363e+01 6.8410999490394975e+00 -8.6092524995474491e+01 5.2990366192096872e+02 1.8784069999702453e+01 -6.1822089661532864e-01 3.3937612827876649e+00 7.2707452956621523e+00 3.5839659091011413e+01 7.5553639466818836e+01 4.8180281803464908e+01 -6.5925679613293852e+01 -9.6227830443203217e+01 2.7114086271022515e+01 -3.3285657940022375e+01 9.7917064529689881e+01 
      </Row>
      <Row Index="49">
        -6.9624208052300958e+00 8.8122447104112780e+01 -1.0399264751541750e+01 -1.6843128792989155e+01 8.0774156197702553e+01 -3.5443216636005332e+01 -7.4008327495265917e+01 -8.2920211231462702e+01 -1.0629318987496248e+01 9.2013948336396254e+00 -1.0126199882851461e+02 1.2829282105326627e+02 5.2855125569570788e+01 2.2122358058278601e+02 2.0596974079856108e+02 4.8125730467521475e+02 -4.5510927553611964e+00 5.3095374544300853e+00 -3.5739947615780920e+00 1.1540734667968405e+02 2.4273155035786115e+02 1.2333171910245255e-01 -3.0590686461710925e+02 -1.1651488547138638e+02 -4.4345501870344106e+02 -1.1974944705021346e+02 3.3566499414986907e+01 -2.3564972267806183e+00 -4.0436976312337265e+01 -1.6287376169852541e+02 1.2842862336178655e+01 -2.3511614472680503e+02 -1.0550162946328646e+02 -4.0584057670624588e+01 -2.6574031683760131e+02 -1.0357298278775687e+01 3.7998440305907621e+00 2.6945902496508893e+01 -1.2644110149531491e+02 -2.1520481204451629e+00 8.8796039143250223e+00 -8.9177820070393921e+00 6.1305347543472203e+02 3.2952094282772322e+01 -1.2176034446959392e+00 -1.8324588866052807e+00 8.6205449614852458e+00 1.5814950690315186e+01 4.8180281803720526e+01 9.3896760441437110e+01 -2.8714215741075609e+01 -7.8913795247850373e+01 3.6056645893844212e+01 -1.8881735987997644e+01 5.9753625791814315e+01 
      </Row>
      <Row Index="50">
        3.5711917273374638e-02 1.8922500242854039e+02 2.3611251667236866e+02 2.4841915374303426e+01 -2.2112804662020608e+01 -5.6040288510513165e+01 1.8752687507419796e+02 6.5168166901597419e+02 2.6930387608947058e+01 5.4233013285952438e+00 -6.6953471276705386e+01 2.6198154107199207e+02 -6.0520037821001097e+01 -1.3700451222815161e+02 -2.7295347079986368e+02 -3.8048703338939085e+03 -3.0530283714881080e+01 -4.1196808627676091e+01 1.5962642428477011e+01 -9.6652177461241081e+01 -1.9036136038517895e+03 -2.1329113934691122e+01 1.7570944210979724e+02 -6.9409842812058923e+02 4.5823283728794340e+03 -3.3852304552011992e+02 -6.7707048458732061e+01 2.1263284907033267e+01 -1.4293620441976964e+02 9.7340536255734696e+02 -3.5936438908886657e+01 2.7460165535886517e+01 7.8265237488519779e+02 4.2079156255602720e+02 -1.6046945632964344e+02 3.3029333302919895e+01 6.5156506459493357e-01 5.6897369855567376e+01 2.7306956258568857e+02 -3.7542403899161059e+00 2.3843272548295943e+01 -1.3217469522867577e+02 -6.4796668573321249e+03 3.1575602186142532e+01 1.8534631380594575e+01 -1.8731946742251694e+01 7.8796181464926747e+00 -8.9679638732228227e+01 -6.5925679613194461e+01 -2.8714215742539466e+01 4.8318400957720985e+02 1.2708239507952890e+03 -1.1615442990258350e+02 6.3392606802345199e+01 -9.6259390833630289e+02 
      </Row>
      <Row Index="51">
        1.0560437886277214e+01 1.3317414348060265e+03 -3.3506342917121947e+03 7.7124659913883079e+01 -7.1079673908650875e+01 -4.1366428980785422e+03 -1.7748385930620134e+03 1.5324837931209004e+03 3.0748246417962946e+01 -7.3099993905052543e+00 -6.3448675930500031e+02 1.8948206049404107e+03 -1.5484811337850988e+02 -9.8822857704711350e+02 2.1825846756342798e+02 -2.9925586767863482e+04 -1.3602862775549293e+03 1.9269113091006875e+02 1.0550286590773612e+02 -6.0952248932234943e+02 2.8185437558267731e+03 -3.3689921934157610e+01 1.5371798105016351e+03 2.6928744233939797e+03 4.2574279479674995e+04 -7.1219526713714004e+01 -2.1434810228389688e+02 8.3503860844764858e+01 -1.0675555194988847e+03 1.9573214138066396e+03 -5.2298434392781928e+01 -1.4277921792026609e+02 3.4804263836378232e+03 3.6569747612848878e+03 -1.3304788275808096e+03 -4.4477902230806649e+01 6.2978037478751503e+00 3.6886383530544117e+02 4.2940056088846177e+02 -3.9800770231762726e+01 6.6211854438442970e+01 -5.2125006112735718e+02 1.0351637502321615e+05 -2.4667633874807507e+01 5.6435960574381170e+00 -8.5320719226263463e+01 5.8759963948905352e+01 8.4009743401006563e+02 -9.6227825546346139e+01 -7.8913791893690359e+01 1.2708239099214552e+03 4.8399831729610608e+05 -1.2995147471731593e+02 -8.0416526696644723e+00 -4.8100345012394845e+05 
      </Row>
      <Row Index="52">
        -3.3325180831349144e+00 -1.3563982816079488e+01 -2.1646342546131950e+02 -1.2879373778369747e+01 1.8517825992444614e+01 -2.2845789445643572e+02 -2.3998409219654332e+02 -4.6821336247231420e+02 -2.0873710228470316e+01 -9.8121982648465860e+00 2.7951470661076200e+01 -1.4845100440101464e+02 6.7254264683382416e+00 5.5948160745797885e+01 1.8167383936591330e+02 6.9576950476524325e+02 -1.8471088190283353e+02 5.4545157162351757e+01 1.2377228050346503e+00 -3.3735353028899908e+01 7.9051338436670108e+02 1.9198191124030473e+01 -1.1314238131380966e+02 3.3012204130931195e+02 -5.5155408120268476e+02 2.9781056865465519e+02 2.5540512030885793e+01 -1.3196281214450323e+01 6.4454887250996762e+01 -1.8280904417834472e+02 1.8837073248621465e+01 -1.2360271350054893e+02 -1.8834941039619889e+02 -5.1578300534717528e+01 -2.3804817063009250e+02 -1.5426071174072831e+01 2.0632097689663311e+00 -1.4249798107415131e+01 -2.5578193339480546e+02 -2.0925428225617928e+00 1.2007341614185698e+01 -5.4793130631138297e+01 6.5678194039163668e+02 -2.8010600639201357e+01 -9.1984056605347675e-01 6.6813914730024635e+00 -1.6256713520716310e+00 1.7488847501778878e+01 2.7114086271506849e+01 3.6056645893698317e+01 -1.1615442990706120e+02 -1.2995148245642588e+02 1.1470531885045973e+02 -3.3981206928871671e+01 1.2160629161529239e+02 
      </Row>
      <Row Index="53">
        -2.0903077268441024e+00 -9.6629635262352281e+01 2.1420616027395977e+02 8.6236790870348443e+00 -1.5269951927149862e+01 2.7952758302727136e+02 2.9928955210208431e+02 1.4017715348280512e+02 2.9512676501443796e+01 5.7449382967878933e+00 6.4076561442573961e+01 -9.9786171553228158e+01 -2.2449398213354783e+01 -4.9170672494762336e+01 -3.8746528955786414e+02 -4.0063796738910253e+02 3.2311235684439566e+01 -5.3442876670539050e+01 2.9892391651635535e+00 -1.4519075608516800e+01 -7.6605837442582560e+02 -1.3838329532432724e+01 5.1685659865315756e+01 -1.4031777165174424e+02 1.1860694272047294e+02 -1.0165983636241768e+02 -4.7558839933283181e+01 9.9251137353029151e+00 7.9455697898861672e+01 2.3829701399067045e+02 -1.6966176848968779e+01 4.3235652220487992e+01 6.7782437156708170e+01 -7.9427246821189556e+01 -7.9036112233477525e+00 3.1343775836660470e+01 -4.5528087518579952e-02 -2.6252017971546820e+01 1.9619634477198070e+02 2.4263464582435672e+00 -6.3877149618801363e+00 1.1122655676819272e+02 -2.4171695588131681e-01 -1.7888045315541248e+01 1.9782002476396272e+00 -6.5791676664435741e+00 -8.2531242866006771e+00 -6.7442507003746911e+01 -3.3285657939631761e+01 -1.8881735987311092e+01 6.3392606800871533e+01 -8.0416524520167094e+00 -3.3981206928304893e+01 4.3724136434642517e+01 -2.5527777060425393e+01 
      </Row>
      <Row Index="54">
        -4.0640346738509834e+00 -8.2063330977410078e+02 2.2276290063792840e+03 -5.9399239086080343e+01 3.6912187284789979e+01 2.7112655419739895e+03 9.6493953351769596e+02 -1.2141259887292690e+03 -4.1633150600711815e+01 -1.8752761154901236e+00 3.9483355011790991e+02 -1.1852530274223536e+03 1.3000917487149127e+02 7.2265523023188507e+02 1.9794839997403324e+02 2.2889209840174764e+04 9.9331063705310225e+02 -1.0536714719864540e+02 -8.1559496700298041e+01 4.1147553762234747e+02 -1.4682013732676860e+03 2.9821855024434626e+01 -1.0748100908854976e+03 -1.8613950100578368e+03 -3.2084181443192065e+04 1.3415130836609751e+02 1.8902826349856332e+02 -7.3974163248669356e+01 6.6007306229323149e+02 -1.6241835551382974e+03 5.6533586141886190e+01 8.7304006075486541e+01 -2.5073938409900293e+03 -2.5765923954360187e+03 1.0052167903408408e+03 1.4718091231537983e+01 -5.5895922710187733e+00 -2.3809443572396412e+02 -5.4978288229228929e+02 2.5899276778261992e+01 -3.4078927467242465e+01 1.7528793767036404e+02 -1.1868340866212129e+05 4.4921732386457734e+01 -3.4175887195524410e+00 7.0843411601381376e+01 -3.2492491474753479e+01 -5.3929014452127740e+02 9.7917059637140483e+01 5.9753622434975114e+01 -9.6259386752755381e+02 -4.8100345005861478e+05 1.2160628389171325e+02 -2.5527776839327998e+01 4.7886273092022073e+05 
      </Row>
    </InverseHessian>
  </Weights>
</MethodSetup>
