<?xml version="1.0"?>
<MethodSetup Method="MLP::MLP">
  <GeneralInfo>
    <Info name="TMVA Release" value="4.1.4 [262404]"/>
    <Info name="ROOT Release" value="5.34/05 [336389]"/>
    <Info name="Creator" value="clester"/>
    <Info name="Date" value="Tue Mar 18 10:11:59 2014"/>
    <Info name="Host" value="Darwin pb-d-128-141-154-76.cern.ch 12.2.1 Darwin Kernel Version 12.2.1: Thu Oct 18 16:32:48 PDT 2012; root:xnu-2050.20.9~2/RELEASE_X86_64 x86_64"/>
    <Info name="Dir" value="/Users/clester/marchMadnessChallenge"/>
    <Info name="Training events" value="1093"/>
    <Info name="TrainingTime" value="8.54274120e+01"/>
    <Info name="AnalysisType" value="Regression"/>
  </GeneralInfo>
  <Options>
    <Option name="NCycles" modified="Yes">6000</Option>
    <Option name="HiddenLayers" modified="Yes">N+5</Option>
    <Option name="NeuronType" modified="Yes">tanh</Option>
    <Option name="RandomSeed" modified="No">1</Option>
    <Option name="EstimatorType" modified="No">MSE</Option>
    <Option name="NeuronInputType" modified="No">sum</Option>
    <Option name="V" modified="Yes">False</Option>
    <Option name="VerbosityLevel" modified="No">Default</Option>
    <Option name="VarTransform" modified="Yes">Norm</Option>
    <Option name="H" modified="Yes">False</Option>
    <Option name="CreateMVAPdfs" modified="No">False</Option>
    <Option name="IgnoreNegWeightsInTraining" modified="No">False</Option>
    <Option name="TrainingMethod" modified="No">BP</Option>
    <Option name="LearningRate" modified="No">2.000000e-02</Option>
    <Option name="DecayRate" modified="No">1.000000e-02</Option>
    <Option name="TestRate" modified="Yes">6</Option>
    <Option name="EpochMonitoring" modified="No">False</Option>
    <Option name="Sampling" modified="No">1.000000e+00</Option>
    <Option name="SamplingEpoch" modified="No">1.000000e+00</Option>
    <Option name="SamplingImportance" modified="No">1.000000e+00</Option>
    <Option name="SamplingTraining" modified="No">True</Option>
    <Option name="SamplingTesting" modified="No">False</Option>
    <Option name="ResetStep" modified="No">50</Option>
    <Option name="Tau" modified="No">3.000000e+00</Option>
    <Option name="BPMode" modified="No">sequential</Option>
    <Option name="BatchSize" modified="No">-1</Option>
    <Option name="ConvergenceImprove" modified="No">1.000000e-30</Option>
    <Option name="ConvergenceTests" modified="No">-1</Option>
    <Option name="UseRegulator" modified="Yes">True</Option>
    <Option name="UpdateLimit" modified="No">10000</Option>
    <Option name="CalculateErrors" modified="No">False</Option>
    <Option name="WeightRange" modified="No">1.000000e+00</Option>
  </Options>
  <Variables NVar="4">
    <Variable VarIndex="0" Expression="seed_prob" Label="seed_prob" Title="seed_prob" Unit="" Internal="seed_prob" Type="F" Min="0.00000000e+00" Max="1.00000000e+00"/>
    <Variable VarIndex="1" Expression="winfrac1-winfrac2" Label="winfrac1-winfrac2" Title="winfrac1-winfrac2" Unit="" Internal="winfrac1_M_winfrac2" Type="F" Min="-5.04464269e-01" Max="6.11607134e-01"/>
    <Variable VarIndex="2" Expression="avg_scorediff1-avg_scorediff2" Label="avg_scorediff1-avg_scorediff2" Title="avg_scorediff1-avg_scorediff2" Unit="" Internal="avg_scorediff1_M_avg_scorediff2" Type="F" Min="-2.33035717e+01" Max="2.90575752e+01"/>
    <Variable VarIndex="3" Expression="avg_score_against1-avg_score_against2" Label="avg_score_against1-avg_score_against2" Title="avg_score_against1-avg_score_against2" Unit="" Internal="avg_score_against1_M_avg_score_against2" Type="F" Min="-2.50357170e+01" Max="1.96033478e+01"/>
  </Variables>
  <Spectators NSpec="1">
    <Spectator SpecIndex="0" Expression="season" Label="season" Title="season" Unit="" Internal="season" Type="F" Min="6.50000000e+01" Max="8.20000000e+01"/>
  </Spectators>
  <Classes NClass="1">
    <Class Name="Regression" Index="0"/>
  </Classes>
  <Targets NTrgt="1">
    <Target TargetIndex="0" Expression="game_outcome" Label="game_outcome" Title="game_outcome" Unit="" Internal="game_outcome" Type="F" Min="0.00000000e+00" Max="1.00000000e+00"/>
  </Targets>
  <Transformations NTransformations="1">
    <Transform Name="Normalize">
      <Selection>
        <Input NInputs="5">
          <Input Type="Variable" Label="seed_prob" Expression="seed_prob"/>
          <Input Type="Variable" Label="winfrac1-winfrac2" Expression="winfrac1-winfrac2"/>
          <Input Type="Variable" Label="avg_scorediff1-avg_scorediff2" Expression="avg_scorediff1-avg_scorediff2"/>
          <Input Type="Variable" Label="avg_score_against1-avg_score_against2" Expression="avg_score_against1-avg_score_against2"/>
          <Input Type="Target" Label="game_outcome" Expression="game_outcome"/>
        </Input>
        <Output NOutputs="5">
          <Output Type="Variable" Label="seed_prob" Expression="seed_prob"/>
          <Output Type="Variable" Label="winfrac1-winfrac2" Expression="winfrac1-winfrac2"/>
          <Output Type="Variable" Label="avg_scorediff1-avg_scorediff2" Expression="avg_scorediff1-avg_scorediff2"/>
          <Output Type="Variable" Label="avg_score_against1-avg_score_against2" Expression="avg_score_against1-avg_score_against2"/>
          <Output Type="Target" Label="game_outcome" Expression="game_outcome"/>
        </Output>
      </Selection>
      <Class ClassIndex="0">
        <Ranges>
          <Range Index="0" Min="0.0000000000000000e+00" Max="1.0000000000000000e+00"/>
          <Range Index="1" Min="-5.0446426868438721e-01" Max="6.1160713434219360e-01"/>
          <Range Index="2" Min="-2.3303571701049805e+01" Max="2.9057575225830078e+01"/>
          <Range Index="3" Min="-2.5035717010498047e+01" Max="1.9603347778320312e+01"/>
          <Range Index="4" Min="0.0000000000000000e+00" Max="1.0000000000000000e+00"/>
        </Ranges>
      </Class>
    </Transform>
  </Transformations>
  <MVAPdfs/>
  <Weights>
    <Layout NLayers="3">
      <Layer Index="0" NNeurons="5">
        <Neuron NSynapses="9">
          -5.0071482797560074e-01 8.0295457288785332e-01 6.0319906715839322e-01 7.3888531177210415e-01 -1.1856728729343429e+00 5.3948982313558116e-03 2.4243426821805074e-02 1.4251829364601469e+00 -8.1339909654976750e-01 
        </Neuron>
        <Neuron NSynapses="9">
          -4.6003948803153732e-01 -2.0243340318425020e+00 -6.5955231703793005e-01 -1.0581851533299211e+00 -2.0359757619414609e-01 -4.5911911732134403e-01 4.9244554189753209e-01 -3.9120413434173629e-01 1.1441279006828964e+00 
        </Neuron>
        <Neuron NSynapses="9">
          -5.4432190855789009e-01 1.0809438012890220e+00 4.2571475752294412e-02 -4.6418670066197892e-01 1.1161041594743373e+00 6.3344612543046475e-01 -7.0204181890578965e-01 -6.3569853388580133e-01 1.1994960692130658e+00 
        </Neuron>
        <Neuron NSynapses="9">
          -1.1512558101576553e+00 -1.4546515763490544e+00 2.5664190239989654e-01 -4.7522565964945884e-01 9.6626231339006552e-01 -2.3365516288012497e-01 -2.2640936273609767e-02 -3.4961173213190415e-02 -6.1442280356379164e-01 
        </Neuron>
        <Neuron NSynapses="9">
          -2.2384268766833484e-01 7.1518008177186809e-01 -1.8442197112579162e-01 2.1609213532674701e-01 2.2346450017450736e-01 7.5126737014115194e-02 2.4085552529059404e+00 1.4174217870473346e-01 1.0768432285462865e-02 
        </Neuron>
      </Layer>
      <Layer Index="1" NNeurons="10">
        <Neuron NSynapses="1">
          -5.3619008444991756e-01 
        </Neuron>
        <Neuron NSynapses="1">
          1.6477040457231995e-01 
        </Neuron>
        <Neuron NSynapses="1">
          2.4605264343468386e-01 
        </Neuron>
        <Neuron NSynapses="1">
          3.6837260734826938e-01 
        </Neuron>
        <Neuron NSynapses="1">
          -9.6924626560670316e-02 
        </Neuron>
        <Neuron NSynapses="1">
          -5.0749950133947730e-02 
        </Neuron>
        <Neuron NSynapses="1">
          1.5286492011384758e+00 
        </Neuron>
        <Neuron NSynapses="1">
          -1.7828328741312452e-01 
        </Neuron>
        <Neuron NSynapses="1">
          2.9547573668681132e-01 
        </Neuron>
        <Neuron NSynapses="1">
          -1.1630733271300853e+00 
        </Neuron>
      </Layer>
      <Layer Index="2" NNeurons="1">
        <Neuron NSynapses="0"/>
      </Layer>
    </Layout>
    <InverseHessian NElements="3025" NRows="55" NCols="55">
      <Row Index="0">
        9.2963071590597188e+00 1.0922664876069051e+01 4.8451145676533951e+00 1.9037696013921055e+00 -3.3833992133390650e-01 -1.1850877368327362e+02 -1.4464164735211021e+01 2.8673131033080876e+00 3.0012424176077213e-01 -1.3899027535787225e+00 -1.6970510954826793e+01 3.8149638476918071e+00 3.3088579082424743e+00 -1.1004580808376074e+00 6.1127814041544809e+01 3.2481379784107688e+01 -1.2239629228505647e+01 -4.4845122753044837e+00 -4.3260672167391343e+00 7.3869458077385488e+00 8.2458933700819568e+00 2.9991411941512758e-01 -6.6903385897901337e+00 2.8751492338457837e+02 -6.7890171034698623e+00 -1.1018476220973938e+01 4.0655894021820131e+00 2.3717770518246946e+00 -1.8092481277189474e+01 1.6156134216507262e+01 -6.4642478878213296e+00 4.7388245958778263e-01 4.2304737776234582e+01 7.1915758527274107e+01 -2.4026426201469736e+01 -1.4351961767949921e+00 -7.5499787060137802e-01 7.1017602659126133e+00 2.5159091834039247e+00 -4.8559963313324115e+00 -6.2016121457043365e+00 1.1183195458417779e+02 -5.4171774342078621e+01 2.3904155601531771e+00 4.1508129851008713e-01 -2.2686126124358434e+00 -4.6689758984310217e+00 -1.1765999885990201e+01 5.3362159514919485e+00 4.3491866913417199e-01 2.5908037588680930e+01 1.1120522574172897e+01 3.7504712911519444e-01 -5.1628945395637693e-01 -5.9467658304383910e+00 
      </Row>
      <Row Index="1">
        1.0922664876300338e+01 1.3688026284198807e+02 3.7047956758316630e+01 -3.4398802857396745e+01 -4.1123730503645021e+01 -3.4417647313981752e+02 -7.6519760025835510e+01 2.3302357374616179e+01 4.4166468855286949e+00 2.6087404450083866e+00 -2.5319642602928073e+02 -3.5751697505361278e+01 2.9634414201203672e+01 2.1679626609643684e+01 1.6501185279668487e+03 2.2531839346255018e+02 -4.6286257862115029e+01 1.4690645028479352e+00 -1.2538546698387229e+01 8.9022707409827262e+01 4.6099945923255525e+00 7.7812226179652001e+01 1.2486877009574741e+01 -1.7703711006734834e+03 -4.3323311946413185e+01 -1.4269171036376552e+01 -3.8481645481244584e+00 -2.4658701132527505e+00 -1.9130648596345543e+02 1.4530787629845790e+01 -2.4078400459788899e+01 3.9527983183821668e+01 9.5900555251359378e+02 -1.6565712256389796e+02 -4.2340817675029882e+01 -1.7081021346532424e+01 -1.3158831813728213e+00 6.6263240564286917e+01 -2.2556085102460685e+01 1.3838002271809925e+01 6.6912876263133088e+00 -2.4210214098498459e+03 8.3208884042875661e+02 8.8279627923945325e-01 -2.7587078101904901e+00 1.0023703830845943e+00 -5.3952476799171258e+01 -4.0957091062598778e+01 4.9872193030715316e+01 5.4146012174909686e+00 -1.6647205275518652e+02 -2.0418959772852608e+02 5.5426934112105197e+00 -7.9670652538069930e+00 5.8727519418989985e+01 
      </Row>
      <Row Index="2">
        4.8451145679821472e+00 3.7047956756143108e+01 1.1245579345992917e+03 -1.5904090322932538e+01 -1.7677561787234603e+02 -2.0749999860749222e+03 3.2829762925331289e+02 -2.8335712448838444e+02 2.3955297122446012e+01 5.4359411144007716e+01 -8.5950240689382724e+00 -4.9377972916971225e+02 1.6270401106477010e+02 1.7233198174634450e+02 3.2629386429389115e+03 1.5959562702751177e+02 -3.0074570481044299e+02 -1.8541286429905142e+02 -7.1236889731251463e+00 4.6625838973283749e+00 -5.5250931285643935e+02 -2.4105064798903317e+01 -1.1694554357942867e+02 6.8727385281482452e+02 -6.8969263463667232e+02 3.5754159516495395e+02 6.4407757040747811e+01 4.7597498275640405e+01 2.6523282306476183e+01 1.2831289806102717e+01 -7.4145131810809417e+01 -1.7211454643911810e+02 -2.3447872099322103e+03 6.0385959134806274e+02 1.0898951252527775e+02 -6.9732377497889502e+01 6.5447079126933581e+00 -3.8551241503472617e+00 1.1012802670674654e+02 4.6456212177472622e+01 8.8713230535069840e+01 4.3154463962398813e+02 9.4020156265619835e+02 -2.1351810259859127e+02 2.2850033353712993e+00 -3.8696037175233641e+01 -3.9671135242919657e+00 -3.9032186653655930e+02 1.3380613652655640e+01 -1.6919177049758673e+01 7.9069363351990418e+01 -3.1752674024906457e+02 -1.7577799890066916e+02 1.3533927377459634e+01 1.6196858221273808e+02 
      </Row>
      <Row Index="3">
        1.9037696013526908e+00 -3.4398802857479978e+01 -1.5904090324083571e+01 1.7138004074289398e+02 2.6293581734017756e+01 -1.0357887100279015e+03 6.1112602976050397e+01 8.6421971692989850e+00 1.3902270585214143e+01 -6.6041393951479881e+00 9.0831987657995867e+01 5.0908069896159574e+01 -1.7624903008940694e+02 4.8506194389633080e+01 7.2988087965764350e+02 -5.2184767491786779e+01 -4.1820011273806571e+01 -6.1490686948682679e+01 -2.1583933476907520e+00 -5.7360912125715274e+01 -2.0679225653213759e+01 -1.6565724063767439e+02 -4.7686721129635316e+01 2.2045107488423901e+03 -1.8415638145137549e+02 -2.7051058890598398e+01 6.1506188930738794e+00 -7.2245492828742535e+00 4.3396434965323863e+01 7.0987745779348863e+00 -3.8463220659316313e+01 -9.8648927838705820e+00 1.9038137988531832e+02 7.2098007442006974e+01 -3.8451120256579031e+01 2.7089441133879227e+01 -3.1455689385100900e+00 -4.8182723009596202e+00 5.7421372152134609e+00 9.2257063035214308e+00 -6.9938134844507243e+00 8.5232413044865154e+02 -1.0548333973229933e+02 -1.9796544037730879e+00 -1.1287611445437271e+00 8.6837199606129669e+00 1.7339678661477464e+01 2.4338290801274866e+01 -1.5081859970339579e+02 -8.0432065267030275e+00 1.2567177938856589e+02 7.2174903627473924e+01 -5.2027070524297336e+00 2.6068642112130760e+01 -8.5387157922134378e+00 
      </Row>
      <Row Index="4">
        -3.3833992134622398e-01 -4.1123730502759372e+01 -1.7677561787230263e+02 2.6293581732876856e+01 6.5485537670367967e+02 4.7526804185742873e+02 -6.1652326937734387e+01 2.9571606090657770e+02 1.2178498963360251e-01 -1.6380161765511346e+01 9.1869114212044181e+01 -1.0320561508981457e+02 -1.2988710334697439e+01 1.0725389681896814e+02 3.8118097506088070e+03 -7.4614876465164673e+02 9.0412214149695600e+01 8.3527068889665834e-01 5.7952469133231670e+00 -7.6965714844346223e+01 1.8316554801519177e+02 -8.4973070513619177e+01 -6.2826016640997193e+02 -5.4415794390073615e+03 1.1364722367183672e+03 -2.7487266444247945e+02 -2.4955379278039729e+01 -3.6247415722691105e+00 7.8710150563966650e+01 1.5214904868589608e+02 1.2186068446187330e+02 -3.8976167143561867e+02 -8.0466243331116345e+01 -1.0444008526832790e+03 -1.4216650548392349e+02 6.3337881190053736e+01 -1.5054937960066499e+00 -3.5863532171573880e+01 -2.4405026733326048e+02 -4.0400061870030903e+01 -1.2470356923738895e+02 -3.2730684677680883e+03 -7.8062624184672245e+01 7.9407061219086870e+01 -2.5106390349935620e-01 1.3238400436393505e+01 2.6103954318211422e+01 -1.7202875668163833e+02 1.3479633811014399e+01 -9.8198303924246119e+01 -4.0782828625310577e+02 -6.5726975358342202e+01 1.1892256205959930e+02 3.0064412440989386e+01 -3.1021141528393770e+01 
      </Row>
      <Row Index="5">
        -1.1850877369031832e+02 -3.4417647311312612e+02 -2.0749999860769021e+03 -1.0357887100429307e+03 4.7526804189708491e+02 3.2056678289409392e+04 -2.9023018212566617e+03 6.0072285130145440e+02 -4.4810510928638053e+02 8.4347295944113991e+00 5.8892310341759946e+02 9.7587297857750764e+02 1.0312401214093047e+03 2.5142641268197286e+02 -3.2269579453759754e+04 -5.9998370616068614e+03 -3.2616431616623743e+02 1.5063802088318691e+03 8.5830193868127139e+01 -8.7505705670118459e+01 4.8001553852206462e+02 9.4425295781760838e+02 -8.2897684961674372e+02 -2.2076746880626280e+04 1.3006928550219120e+04 1.7640615437605706e+02 -6.2786685638762719e+01 -9.0335911448148295e+01 7.2261508051237251e+02 -1.7574207662134340e+03 4.4400709878753423e+02 2.2693583704890324e+02 -2.9520695273146002e+03 1.2847436130808323e+03 1.7471932278832267e+02 -1.0043028657881223e+02 3.1648881054359709e+01 -3.4398320835482991e+02 1.2280682147113893e+02 -6.4694362503621505e+01 1.2590016526249883e+00 1.2627200839168509e+04 -2.0866533338374775e+04 9.5297651843110984e+01 4.3774311599467623e+01 3.3213746254942883e+01 1.9835755682292915e+02 2.2532396885189501e+03 9.6037685161425713e+02 1.5196873979902875e+01 1.6633638460808476e+02 4.2985219774675888e+03 2.4139467676598667e+02 -4.3521286759132431e+02 -2.4789913827970968e+03 
      </Row>
      <Row Index="6">
        -1.4464164732331769e+01 -7.6519760031380429e+01 3.2829762926167086e+02 6.1112602981312229e+01 -6.1652326963703672e+01 -2.9023018214341719e+03 2.2282538225409949e+03 -3.2713392959811955e+02 6.6630370722197966e+01 -1.3434395163623510e+01 3.5464217999949511e+02 2.0795595882425141e+02 -1.6162913756585175e+02 -9.3130098995370460e+01 3.6776472087960829e+03 2.2680186783200479e+03 2.9326487826788303e+02 -1.9145439014644072e+02 -7.2545526051120746e-01 -3.2932903159028729e+02 -5.2602706408547351e+02 -1.3237424479418661e+02 4.5158813222683943e+02 3.2708650397241502e+02 -6.5425849781704446e+03 -5.5825395904377338e+01 -8.7920783001456130e+01 2.3088643838281371e+01 4.3908576708404394e+02 3.8164617396266675e+02 8.5360867238316473e+01 -1.9862174501595140e+02 1.9034063367122753e+03 -1.3543092267766774e+03 1.5994616330444404e+02 4.5948290205869853e+01 -5.5304898883035376e+00 -1.3954307656505051e+02 2.7270737920878207e+02 -5.1303468564429835e+01 5.1444801111048513e+01 -4.0181754100732678e+03 9.5995153514463636e+03 -4.2218460229749027e+01 -3.1768456314598360e+01 4.2205546858357721e+00 9.7517346282271376e+01 -2.2534824433747599e+02 -1.8381192977909348e+02 -3.0248067425913177e+01 -6.2518930951642778e+02 -2.0828734364790453e+03 -1.2279277796991644e+02 1.0337420033049307e+02 1.3593594616624466e+03 
      </Row>
      <Row Index="7">
        2.8673131031758530e+00 2.3302357375582687e+01 -2.8335712449009753e+02 8.6421971677477849e+00 2.9571606090853447e+02 6.0072285129797376e+02 -3.2713392958777467e+02 6.3567228805971126e+02 6.9548376692539948e-01 -3.3560595103271950e+01 -5.1377536038492785e+01 -4.5536459627229334e+01 -1.0041560549973137e+02 -2.3299025321946115e+01 2.8699929313065873e+03 -5.1898438212611836e+02 5.9845558573840293e+01 4.4677004367099087e+01 2.2529355366540167e+00 -2.1447517407198958e+01 3.1587023812446540e+02 2.0083062624637812e+01 -2.1343090546496848e+02 -4.1138935565845413e+03 1.1451912404574068e+03 -4.5466887056534711e+02 2.3353085493196772e+00 -2.8343305937539025e+01 -9.8400340081694296e+01 1.3473369022507870e+02 4.9043248658657149e+01 -1.0393613873914148e+02 5.1143371233328668e+02 -7.5494383498238210e+02 -1.1896654445157078e+02 2.8390478998679555e+01 -7.5190985383592657e-01 1.7724622966242450e+01 -2.8088958215741906e+02 -2.6473031683281299e+01 -5.5415087295610888e+01 -2.5675000222335157e+03 -6.6235302812498423e+02 1.0360820098058656e+02 4.3242691118836989e+00 2.4956173710252525e+01 -1.5241694608826222e+01 -1.4652129381738169e+02 -9.3161211058700726e+00 -3.4386600807455551e+01 -2.5680439699885505e+02 6.6814775067591057e+01 2.2636089683609086e+02 -3.7324968977691277e+00 -9.2491848933116046e+01 
      </Row>
      <Row Index="8">
        3.0012424184805397e-01 4.4166468852431535e+00 2.3955297123031915e+01 1.3902270585410552e+01 1.2178498909236168e-01 -4.4810510929424203e+02 6.6630370724254533e+01 6.9548376653981059e-01 4.3319901176402837e+01 -2.1139188092606300e+00 5.1916429039125758e+00 2.8461006202697632e+01 -1.9441407411046217e+01 1.5033447895039975e+01 1.0339197467178510e+03 -1.0478305174863317e+02 4.4519239433919733e+00 -7.7836156172207652e+01 2.6875708245862633e+00 -9.0003291317887246e+00 -2.7819957767175936e+00 -2.0608451950894128e+01 1.3035367226942363e+00 7.1223842474585908e+01 -4.2050370118543299e+01 -6.1831448044989372e+00 -3.0372467542905085e+01 1.7502486356273059e+00 -3.9764269440688107e+00 1.2819420198307785e+01 2.5629447282719600e+00 -1.6067730736361629e+01 2.5739852051092242e+01 -1.0359466232298486e+02 6.0031017647744358e+00 2.2626449873816000e+01 -1.4250431713926720e-01 -1.3244443444641087e+00 -8.1549204924676388e-01 1.4632163674424161e+00 3.0225981219505385e+00 -6.2270864319150724e+02 2.1484827701025463e+02 -9.9699201077666739e+00 -6.6055054056140801e+00 -3.2350457590614667e-01 -4.8064038106778995e-01 -1.9184007116697586e+01 -2.0052051065717368e+01 -3.6189468801177025e+00 -4.6712924626387220e+01 -4.9171803842782161e+01 -1.9577698839370492e+00 2.8187424461266382e+01 1.1915671428794639e+01 
      </Row>
      <Row Index="9">
        -1.3899027536549249e+00 2.6087404445974016e+00 5.4359411143563051e+01 -6.6041393950537577e+00 -1.6380161764860077e+01 8.4347296061008663e+00 -1.3434395166346420e+01 -3.3560595102949392e+01 -2.1139188093336214e+00 3.1816545650924741e+01 1.4511265468750025e+01 -7.9878186495741403e+01 1.8701053781961743e+01 -6.1677776280297820e+00 -1.3452220615273779e+02 -1.9826543530218260e+01 -2.7699965657296204e+01 8.4633086423089221e-01 -2.0332150065709813e+00 7.1652551793239780e+00 -4.9440062426029314e+01 1.4119279709960045e+01 8.0497830501861660e+00 9.4424964847188505e+01 1.9938550731855446e+02 4.5014159920222710e+01 1.5954443964115512e+00 1.7827996375759739e+01 1.7926488664211959e+00 -4.4949374995608807e+01 5.1682103441336658e-01 2.3445882946853899e+01 -2.0374478929183837e+02 1.3968477291409710e+02 7.6975824935101320e+00 -3.2309414665814415e+00 3.1941604428577746e+00 8.9783964877296008e-01 -2.3243231509667563e+01 1.3714239674163665e+01 1.2910961959458280e+01 2.8630553964172100e+02 -3.2656272307228824e+02 -5.6402445153193526e-01 2.3275182154767458e+00 -1.8681799397574668e+01 -1.1865370394716059e+00 -2.5737972923615217e+01 1.8327817510498058e+01 4.5760101862714286e+00 2.9401999003463565e+01 5.8541589580362327e+01 -1.2644353504828189e+01 -2.0000424853772216e+00 -3.8073614481990241e+01 
      </Row>
      <Row Index="10">
        -1.6970510955898682e+01 -2.5319642602755448e+02 -8.5950240734803316e+00 9.0831987656523950e+01 9.1869114218552568e+01 5.8892310349646300e+02 3.5464217999607035e+02 -5.1377536035853133e+01 5.1916429042049153e+00 1.4511265467004705e+01 1.0628530770362022e+03 -1.0904167152903130e+02 -7.2315140675113014e+01 9.4110623857046804e+01 -1.4335351641007087e+03 -1.7597762932862970e+03 -5.1348057535707326e+01 -3.4249445878158646e+01 9.5372819084253244e+00 -8.2042826920990990e+02 7.7897844087220534e+01 -3.7246756704855056e+02 -6.6336469428958196e+01 1.8393353649341989e+03 1.7962928949741017e+03 1.6187743209206019e+02 -4.6014813059314292e+01 1.9991287637113675e+01 6.6296265742000298e+02 1.9349891199942331e+00 2.4360958879197693e+02 -4.5062551515569808e+01 -2.1088804248651122e+03 4.2231472418258875e+02 1.0292456593536947e+02 1.2873437942047394e+02 2.5066660523217070e+00 -2.5864380755221356e+02 8.5855249234032698e+01 -8.6881048423435317e+01 1.0826324905396359e+02 4.7121825971874796e+03 -4.3606368276840149e+03 3.2622931603198841e+00 -1.1771893481216448e+01 -1.2660626476505536e+01 2.0413541049499867e+02 2.5253320296238826e+01 -1.6255488749229920e+02 -1.9082959554672051e+01 3.2445176451185966e+02 8.7222838175658239e+02 -9.6810329602702971e+00 7.9955910087659618e+01 -4.6516478491107029e+02 
      </Row>
      <Row Index="11">
        3.8149638479602874e+00 -3.5751697503575087e+01 -4.9377972916786388e+02 5.0908069896196139e+01 -1.0320561509397066e+02 9.7587297852792517e+02 2.0795595883476261e+02 -4.5536459629015212e+01 2.8461006202747161e+01 -7.9878186495772525e+01 -1.0904167153676190e+02 1.0434374839969889e+03 -1.3712289918477268e+02 -1.1926873221350669e+02 -2.2448956753541365e+03 4.2449661067988745e+02 2.7180302366572965e+02 -2.9099584580551543e+01 8.7769040824425204e+00 8.9474631518498683e+01 -6.7341396738043372e+01 -1.7066019252619526e+01 1.9211288330313880e+02 3.1693464877323736e+03 -1.6138548617290730e+03 -1.5812842497062638e+02 3.1542892824999058e+01 -4.2413557233274034e+01 2.9181962742466467e+00 1.3952410695114551e+01 -4.2074888388209622e+01 8.3791149467169092e+01 1.6846231401254536e+03 -1.4718534482711163e+02 4.4694459330203653e+00 2.2667780199109984e+01 -1.5339384241743213e+01 5.0727704703806609e-02 1.2500534871704070e+02 -4.7424994027382105e+01 -9.1402698099177172e+01 2.8909785631287684e+02 1.7608465929593044e+03 -5.3744559858647349e+00 -1.6695626041635247e+01 4.3513525623477079e+01 -2.0781177220152394e+00 3.7596188619088304e+02 -9.4967601705220758e+01 1.9527307225277951e+01 1.0351263000771053e+02 -2.0748584737888950e+02 -3.7906317564756620e-01 -2.1982208472536833e+00 1.9603243433557611e+02 
      </Row>
      <Row Index="12">
        3.3088579085900491e+00 2.9634414200082574e+01 1.6270401106617945e+02 -1.7624903008830816e+02 -1.2988710339279351e+01 1.0312401213843480e+03 -1.6162913756490946e+02 -1.0041560550292367e+02 -1.9441407411180926e+01 1.8701053782318922e+01 -7.2315140673051701e+01 -1.3712289918536061e+02 3.9004572149715017e+02 -1.5532863944587444e+01 -1.7977045936859256e+03 8.1034390471435654e+02 -2.8008528732622654e+01 1.9481505763297221e+01 7.4779225292918305e-01 -4.6750645218542246e+00 -6.5701033149073879e+01 1.8809043946014299e+00 -2.9144192891114429e+01 -7.6500575971336104e+02 -5.8123018123150359e+02 7.5510435425930154e+01 1.2792976346714397e+01 1.6144036999713347e+01 1.5162144000931361e+01 -1.1233161438082369e+01 1.3756864334296193e+02 -4.3664287368574151e-01 -9.5369584257055965e+02 1.1577478774138140e+02 1.1057084546436977e+01 -4.7961494280643819e+00 8.4737159325423161e-01 -4.0768264556472559e+01 -2.3853279682117432e+01 -3.6639605291290231e+01 4.7098096197316011e+00 -3.3849247407416419e+02 1.2200734793442643e+03 -2.2086804907096969e+01 5.3761101992352565e+00 -1.7037329764414601e+01 6.0359059595382476e+00 -6.8731365141285437e+01 2.0825154902899931e+02 4.1941718467421580e+00 -2.0989413746882846e+01 -2.9004301124260672e+02 -3.8799585919966063e+01 -8.5515845659294598e+00 1.6907119268998142e+02 
      </Row>
      <Row Index="13">
        -1.1004580811327789e+00 2.1679626611699859e+01 1.7233198174826583e+02 4.8506194388341285e+01 1.0725389682142577e+02 2.5142641265023784e+02 -9.3130098969070559e+01 -2.3299025322359054e+01 1.5033447895712470e+01 -6.1677776290645170e+00 9.4110623846776662e+01 -1.1926873220857448e+02 -1.5532863940908001e+01 6.2875930862553469e+02 1.9503634677116727e+03 -7.9832798634684696e+02 -2.2614918045981372e+02 -2.3150070097031382e+01 -6.3924424895828427e+00 -1.6471717710893864e+02 7.6895090939676692e+01 -1.0944639606440569e+02 -6.2648925265120397e+02 -2.0974498308606389e+03 8.8136000581155167e+02 1.7237604585145255e+02 -4.8472178266693390e+01 1.1582576453842375e+00 8.7505862269798143e+01 3.9260083903758805e+01 7.9488326330329357e+01 -2.1762563251857046e+02 1.1418879343256941e+02 -1.9069969089639733e+02 -6.4346886503825132e+01 3.0394469900634704e+01 -1.1818011200302461e+00 -4.8176576342393780e+00 3.3562543229093066e+01 -1.5113062663183277e+01 -5.8793930391190656e+00 -6.0037629903462221e+02 -7.7146268597473090e+02 -7.6910937855054627e+01 -1.1227413918745389e+01 1.2281238943273650e+01 3.4956799475255991e+01 -1.7065057490831919e+01 -4.3119433392591894e+01 -6.2335520281877322e+01 -1.6581269735368315e+02 1.4156340741224557e+02 -4.2364440941789454e+01 3.2133627012936934e+01 -1.2630931461028585e+02 
      </Row>
      <Row Index="14">
        6.1127814035392475e+01 1.6501185280047648e+03 3.2629386429626961e+03 7.2988087962184397e+02 3.8118097507214115e+03 -3.2269579454251914e+04 3.6776472093157786e+03 2.8699929313252219e+03 1.0339197467436427e+03 -1.3452220616462728e+02 -1.4335351642775931e+03 -2.2448956752951635e+03 -1.7977045936066561e+03 1.9503634677503724e+03 1.5845351215431368e+05 -3.7240431854342401e+04 2.4670280567441631e+02 -2.0869747951684608e+03 -8.8994225922687377e+01 -8.9570999693644580e+02 8.3553818578549362e+02 1.3229136144064978e+02 -3.8040583401344488e+03 -1.2813251104399128e+05 4.5176018574583810e+04 -2.1247184168493550e+03 -7.8322769987133142e+02 1.6276825396967914e+02 -1.6547840010073874e+03 4.1871501203655407e+03 3.3205946843826530e+02 -3.4829676848547533e+03 1.6459393315157206e+04 -1.9475972342344408e+04 -7.6875021307241570e+02 4.5660480332872248e+02 -5.2968317219871892e+01 7.4466978987815480e+02 -2.5770482921938474e+03 2.7440086652785965e+01 7.7724164515233099e+01 -1.0354163667948604e+05 -2.6758032131039217e+04 -1.7766832917292072e+02 -2.4065679420217742e+02 8.7327861332011281e+01 -5.0026589190509776e+02 -5.3289091367045330e+03 -6.9351194290945443e+02 -9.5096496331007938e+02 -9.5605165553078114e+03 2.2118277165495638e+03 9.0634545442901776e+02 8.4494630255198990e+02 -5.2623048327794895e+03 
      </Row>
      <Row Index="15">
        3.2481379830619595e+01 2.2531839335337281e+02 1.5959562710459872e+02 -5.2184767396407061e+01 -7.4614876505127177e+02 -5.9998370640350413e+03 2.2680186780017962e+03 -5.1898438223794506e+02 -1.0478305179757308e+02 -1.9826543481787667e+01 -1.7597762930594618e+03 4.2449661044633689e+02 8.1034390468444133e+02 -7.9832798677607207e+02 -3.7240431861441386e+04 8.6732014456936391e+04 7.6171384569466011e+02 7.3889379429854259e+01 2.3911591073490686e+02 1.5685459485702102e+03 -7.6279260733887418e+02 -3.8572915600641863e+02 7.9562746604987387e+02 5.6971885214563226e+04 -1.1988474813514319e+05 -6.2183163394103758e+02 1.9835231616478995e+02 1.0279733889469614e+02 -6.4511626891427863e+02 -3.9740636196589435e+02 -1.7201498090994190e+02 -7.1590079523390159e+01 3.0558507861223479e+04 1.4072264944357966e+02 -1.9524646251360664e+02 1.2225720130937407e+02 1.0417154897946602e+01 2.4738611548763970e+02 -1.9226164551045895e+02 7.2933185111721386e+01 -4.1633144327239506e+02 5.4235253157105617e+03 1.6094399084276677e+05 -8.5631835954188091e+01 2.2699030747909774e+01 -1.4498282056225406e+02 -2.7455381800914421e+02 1.3566056175317499e+02 4.2008526636799752e+02 1.1575470979104921e+02 -4.0440858377492473e+03 -3.3681318682310848e+04 -2.4408460569699349e+02 -5.9964054915852103e+01 2.5904445971985064e+04 
      </Row>
      <Row Index="16">
        -1.2239629227889647e+01 -4.6286257862643652e+01 -3.0074570480889923e+02 -4.1820011273126291e+01 9.0412214143556412e+01 -3.2616431621482741e+02 2.9326487827357096e+02 5.9845558570563874e+01 4.4519239430746929e+00 -2.7699965656752511e+01 -5.1348057537031309e+01 2.7180302366412940e+02 -2.8008528731426367e+01 -2.2614918046630783e+02 2.4670280553940211e+02 7.6171384584662519e+02 4.7327444059991035e+02 1.7694126838949728e+01 3.5178138520183694e+01 7.5960531464740995e+01 8.2674678954011434e+00 1.7367825962316829e+01 1.5078821445085390e+02 -4.2917864545162047e+01 -1.4642609381737175e+03 -3.0742748313510947e+02 -3.0547471337353045e+00 8.8337283981256309e+00 1.8471193088035193e+01 1.1030479259906363e+02 2.0359768212670001e+01 -1.4184874475148172e+02 8.3827710737320058e+02 -6.4604098127361669e+02 7.1582488831636013e+00 1.4511964300081672e+01 3.0106840058158468e+00 -1.4676297099778923e+01 -1.0499275324520153e+02 -1.5318322855091482e+01 -9.4570355663717777e+01 -1.6952073115505004e+03 2.5214224893749183e+03 4.8107558325745522e+01 -4.4587672615960727e-01 -5.8701545471169894e+00 -3.6228107961901985e+00 -1.7087875057640190e+01 -1.6899748262780733e+01 -1.8224333782295442e+01 -1.4620566640594728e+02 -4.6100677326826207e+02 5.4893531072376597e+01 2.9162999447375171e+00 2.8725163061471346e+02 
      </Row>
      <Row Index="17">
        -4.4845122755946960e+00 1.4690645041041535e+00 -1.8541286429969804e+02 -6.1490686949499491e+01 8.3527069081310401e-01 1.5063802088392595e+03 -1.9145439014374085e+02 4.4677004367775488e+01 -7.7836156171965072e+01 8.4633086387771073e-01 -3.4249445880301892e+01 -2.9099584579694231e+01 1.9481505764204805e+01 -2.3150070095495494e+01 -2.0869747951220556e+03 7.3889379443321559e+01 1.7694126839957107e+01 2.1219525842622269e+02 -3.2161900426682246e+00 3.3555649367476562e+01 8.9896376715998144e+01 1.2506210450826796e+02 4.2999871113105101e+01 -1.5588834398663521e+03 4.1736044857025422e+02 -3.1981149314998675e+01 9.7616745971507441e+00 -9.4785840126347161e+00 -2.0943486100757404e+01 -4.2698870527991289e+01 -3.5036080529243705e+00 4.5660117298769137e+01 4.1515157484258378e+02 6.1215004323080571e+01 -5.2160974920808769e+00 -4.5487329900832606e+01 1.0609229794107620e+00 1.4492764412302527e+01 -1.5839091962948141e+01 3.9045634018088560e+00 1.6423959149062846e+00 8.4031343501022843e+02 -7.7307208529206082e+02 3.8599097324891893e+01 1.2637767317319863e+01 4.6974632258972013e+00 -7.9787593856095320e+00 9.5416897795127682e+01 6.5104687271628322e+01 9.5448943724016715e+00 -2.0544462406907797e+00 1.6621597190896188e+02 2.8133819475336495e+01 -6.4290988096346794e+01 -7.4563486324204391e+01 
      </Row>
      <Row Index="18">
        -4.3260672166246010e+00 -1.2538546698443042e+01 -7.1236889726386297e+00 -2.1583933475566055e+00 5.7952469120659771e+00 8.5830193855729206e+01 -7.2545525794961208e-01 2.2529355359498715e+00 2.6875708244834540e+00 -2.0332150065332257e+00 9.5372819076144424e+00 8.7769040824517042e+00 7.4779225343131495e-01 -6.3924424910976541e+00 -8.8994225956991656e+01 2.3911591079832942e+02 3.5178138520559635e+01 -3.2161900428755530e+00 2.1416066980019234e+01 1.3013381786283631e+00 5.1033596874151996e+00 -4.4563253589342935e+00 -3.7565260206008517e+00 1.3542279719765975e+02 -4.0623133203145949e+02 -7.1092381358057537e+00 1.3025800655209423e+00 1.0889246654649169e+01 1.2719538416652522e+01 -7.0967025392520746e+00 9.8025682255353264e+00 -1.6601501265437264e+01 1.0987038544690337e+02 -7.6640464467369512e+01 2.3949847067409372e+01 5.3161003079974876e+00 2.9098400126110562e+00 -4.7318391232886663e+00 -1.4544586000959136e+01 1.4104251882865357e+00 -2.1992580393584524e+00 8.5662853223027469e-01 5.5070086766153872e+02 -3.8077995515346927e+00 -6.9165279397622004e-01 -9.8146667716460936e+00 3.3744243805091130e+00 2.4472955732923936e+00 -3.4250151125418924e+00 -1.7480716118628585e+00 -2.0881407205116716e+01 -9.3705929406974477e+01 1.3682599317756665e+00 1.7558009358300275e+00 6.8317583510779670e+01 
      </Row>
      <Row Index="19">
        7.3869458083897825e+00 8.9022707407030794e+01 4.6625838974694744e+00 -5.7360912124238808e+01 -7.6965714847954587e+01 -8.7505705681149777e+01 -3.2932903160545789e+02 -2.1447517406764291e+01 -9.0003291328308705e+00 7.1652551808178941e+00 -8.2042826920337757e+02 8.9474631511610539e+01 -4.6750645223210157e+00 -1.6471717711468318e+02 -8.9570999703334678e+02 1.5685459485074098e+03 7.5960531460762965e+01 3.3555649368386639e+01 1.3013381774992361e+00 9.3996481205457349e+02 -1.2604925967065620e+02 4.0131699557689581e+02 4.6255009706753242e+01 8.8944831142210387e+02 -1.4902657476770655e+03 -7.1594097108319147e+01 6.6377747360727653e+01 -1.9410720555235130e+00 -5.0711849679973261e+02 -1.1291138993532405e+02 -3.6212179206544255e+02 1.4319066723435753e+01 6.6285763374217095e+02 1.2381945962503124e+02 -6.0249070450585720e+01 -1.5193029271652995e+02 9.6524166251299448e-01 2.3513907089685227e+02 -4.1133824238871362e+01 1.2993820937312753e+02 -1.0575485739945988e+02 -8.4574807938081676e+02 2.7744626330703472e+03 -1.3976584294931200e+00 2.0136279020162327e+01 -6.3731804765422897e+00 -1.7572397882980786e+02 4.0149292430612832e+01 1.2293159882634717e+02 2.2303828335078045e+01 -6.1170614013175886e+01 -5.0157115344020178e+02 -1.3569176906823131e+01 -9.6342260226158373e+01 3.3086055445562801e+02 
      </Row>
      <Row Index="20">
        8.2458933696303802e+00 4.6099945948490131e+00 -5.5250931285576269e+02 -2.0679225655059604e+01 1.8316554801813436e+02 4.8001553852333006e+02 -5.2602706407231074e+02 3.1587023812355233e+02 -2.7819957758793805e+00 -4.9440062426715485e+01 7.7897844081884159e+01 -6.7341396735411365e+01 -6.5701033146432962e+01 7.6895090943350169e+01 8.3553818584641454e+02 -7.6279260724400592e+02 8.2674678985274568e+00 8.9896376714942107e+01 5.1033596882950221e+00 -1.2604925967109585e+02 9.2673209027263886e+02 3.6272548841863909e+01 -1.8892430572328277e+02 -2.2339437176339170e+03 1.4999870645804813e+03 -8.7240813180440455e+01 -3.7212592309625734e+00 -2.0680091943465072e+01 -1.3562994208132523e+01 1.6590141627183027e+02 1.2326097109568985e+02 3.2779137578541850e+01 1.3905657410807644e+03 -6.0837126585777332e+02 -9.1479978133598394e+01 5.0623307068358145e+01 -1.0406620623785329e+01 1.1407572103676781e+01 -1.7309197170851075e+02 -7.6260065417628653e+01 -2.9151152672117675e+01 -1.1190178163956944e+03 -1.7368831712407700e+03 1.2274899409727701e+02 -9.2377506366469540e+00 2.4544749216482188e+01 1.2352037232306731e+01 6.2599307459330475e+00 3.6008361763601833e+01 -1.0424373169810679e+01 -2.4599586158458231e+02 3.4437442191849510e+02 1.5213702783617973e+02 -9.1966342735564410e+00 -2.3746925364105206e+02 
      </Row>
      <Row Index="21">
        2.9991411913886168e-01 7.7812226179471963e+01 -2.4105064799478431e+01 -1.6565724063840943e+02 -8.4973070510305661e+01 9.4425295784025707e+02 -1.3237424479629772e+02 2.0083062626066749e+01 -2.0608451950815969e+01 1.4119279710187357e+01 -3.7246756704774725e+02 -1.7066019254058602e+01 1.8809043958163372e+00 -1.0944639606236979e+02 1.3229136146741962e+02 -3.8572915600813394e+02 1.7367825962399642e+01 1.2506210450875074e+02 -4.4563253586645946e+00 4.0131699557558920e+02 3.6272548843108552e+01 5.4631849540219821e+02 1.4866551383491066e+02 -3.5484247309163816e+03 8.9440329781165838e+02 -2.4020041664789915e+01 7.4152719756485794e+00 -9.1234096913177609e-01 -3.1544354941151732e+02 8.2319293910903042e+00 -1.6536537607564046e+02 3.6735465609825951e+01 3.5704543309950770e+02 -1.7828786131321976e+01 -6.2373705016115650e+00 -1.3462433906198430e+02 -7.5488453272356537e-01 1.4501777229019035e+02 -6.1983942505329182e+01 6.1718530042372848e+01 3.0692084866127516e+00 -1.0112292365199513e+03 -9.9397341792451220e+02 1.0578606696235942e+01 1.4008416197286799e+01 -3.3216870180999081e+00 -1.0836565028883211e+02 -3.7230472104180819e+01 1.9498612193939658e+02 2.0817962724850851e+01 -1.7947832201267178e+02 1.4903889951849192e+02 1.2824681850190693e+01 -9.2694770729087580e+01 -1.4814815023169299e+02 
      </Row>
      <Row Index="22">
        -6.6903385894980403e+00 1.2486877007806470e+01 -1.1694554357949261e+02 -4.7686721127844727e+01 -6.2826016641242586e+02 -8.2897684957600416e+02 4.5158813219102922e+02 -2.1343090546411963e+02 1.3035367221342318e+00 8.0497830515389523e+00 -6.6336469418104571e+01 1.9211288329588385e+02 -2.9144192897194998e+01 -6.2648925264944819e+02 -3.8040583400246351e+03 7.9562746546184644e+02 1.5078821444155963e+02 4.2999871114840346e+01 -3.7565260225767716e+00 4.6255009701466278e+01 -1.8892430571975535e+02 1.4866551383930039e+02 1.3042582240896675e+03 4.4540714877530327e+03 -1.4301204425886635e+03 -1.7048087897826008e+01 1.8281824508867430e+00 -1.5908963792052086e+01 -8.5542471526665281e+01 -8.0800577964780643e+01 -9.1915455969150415e+01 5.5807763875044839e+02 4.4919802558643255e+02 4.7438467499679109e+02 2.0634130616310455e+02 -5.8962394080067497e+01 1.4732313459505519e+00 -1.2466456326650182e+00 1.8760454867299023e+02 3.9228592286609427e+01 1.5722119617181355e+02 1.5913954185610914e+03 7.0749609358652128e+02 3.0203393588948220e+01 2.4807788123190626e+00 -2.2587544374576964e+00 -2.9440454979377648e+01 1.5754339250043421e+02 -5.9675523461597919e+00 1.3489867397516525e+02 3.2325106966870277e+02 -8.8386023973138961e+01 -4.6481070823028908e+01 -3.3194123374225974e+01 9.4465571960067862e+01 
      </Row>
      <Row Index="23">
        2.8751492340355253e+02 -1.7703711007668462e+03 6.8727385277635767e+02 2.2045107489102570e+03 -5.4415794392054668e+03 -2.2076746879860937e+04 3.2708650299318833e+02 -4.1138935566003056e+03 7.1223842425474842e+01 9.4424964880323387e+01 1.8393353652903170e+03 3.1693464875830496e+03 -7.6500575985929640e+02 -2.0974498309550108e+03 -1.2813251104470316e+05 5.6971885201323079e+04 -4.2917864794762863e+01 -1.5588834397844075e+03 1.3542279713451987e+02 8.8944831128068279e+02 -2.2339437175424837e+03 -3.5484247308355843e+03 4.4540714879437946e+03 2.3237497295420751e+05 -8.2136027005990647e+04 2.4100050717932754e+03 1.4947536451021006e+03 2.2960891850405932e+02 1.5602621676222273e+03 -2.3109023767567337e+03 -1.8924761066315837e+03 2.7834463812444010e+03 -1.6830836645107807e+04 2.5169375017603568e+04 5.4341470596374347e+02 -7.6007630452077137e+01 -2.7405729870661162e+00 -5.2472050656725457e+02 3.0176710405392823e+03 1.5247595925823089e+02 -2.6576234849493727e+02 1.1958160366720063e+05 6.8694490733072307e+04 -5.4654909509038544e+02 1.6505410293047066e+02 -3.8638751432044722e+02 4.7736069016029296e+02 2.7863192050498910e+03 -2.3630698318049745e+03 9.6812918244738012e+02 1.3598040922429736e+04 -9.3934092825217685e+03 -1.6210154082340432e+03 2.9785551186491375e+01 1.0674328765989159e+04 
      </Row>
      <Row Index="24">
        -6.7890171709805145e+00 -4.3323311794782057e+01 -6.8969263475845219e+02 -1.8415638158762758e+02 1.1364722373015247e+03 1.3006928553878502e+04 -6.5425849777767435e+03 1.1451912406262709e+03 -4.2050370049693456e+01 1.9938550725008827e+02 1.7962928946806351e+03 -1.6138548614015519e+03 -5.8123018119339258e+02 8.8136000643909210e+02 4.5176018585056925e+04 -1.1988474813626381e+05 -1.4642609379677451e+03 4.1736044859529648e+02 -4.0623133194300465e+02 -1.4902657477975472e+03 1.4999870647348334e+03 8.9440329780703178e+02 -1.4301204434466927e+03 -8.2136027025654796e+04 1.7400253887585411e+05 8.1251112222869415e+02 -2.1778580339984910e+02 -1.2690260768878404e+02 3.3280780135340024e+01 -1.4096645266745784e+02 3.8536667873436912e+01 4.8374525256501511e+02 -4.4635889735550387e+04 2.4612332437281730e+03 -7.3019914066862839e+01 -3.0547875892731827e+02 1.0471683447540272e+00 -8.8188056337354510e+01 -3.3336747315539014e+02 9.5974283342323673e+01 6.2211793301817113e+02 -2.9285829526009329e+03 -2.3400364223923738e+05 3.1123320368183624e+02 5.6834154746303057e+01 1.2489755485621004e+02 1.5093280741478790e+02 -2.7147188860079041e+01 -2.7546804026294865e+01 -8.3075864679816277e+01 6.3931553669923305e+03 4.8953078091774667e+04 5.3502269756417775e+02 -1.2775045191815843e+02 -3.7372737509579551e+04 
      </Row>
      <Row Index="25">
        -1.1018476221517631e+01 -1.4269171035419276e+01 3.5754159516570962e+02 -2.7051058890635456e+01 -2.7487266443822409e+02 1.7640615440768818e+02 -5.5825395908621431e+01 -4.5466887056315340e+02 -6.1831448041447743e+00 4.5014159919741132e+01 1.6187743209087603e+02 -1.5812842496933601e+02 7.5510435423821164e+01 1.7237604585693862e+02 -2.1247184167200517e+03 -6.2183163403545041e+02 -3.0742748313556672e+02 -3.1981149314347249e+01 -7.1092381355255903e+00 -7.1594097109234298e+01 -8.7240813179592692e+01 -2.4020041663942948e+01 -1.7048087905328657e+01 2.4100050715846464e+03 8.1251112235572100e+02 6.7768574015026206e+02 1.3927449307835218e+01 3.2325939568307604e+01 1.4426948155657050e+02 -2.0772523055292876e+02 -4.7450693913419741e+01 1.9680642319614890e+02 -8.2825645688109023e+02 8.7526126668691722e+02 1.9924432932770912e+02 -1.7629495089321608e+01 3.2023327558746360e+00 -2.2963630853238858e+01 2.9629297413561176e+02 2.7900842315858540e+01 1.1556815872896671e+02 2.9085600410523875e+03 -1.9612145407560611e+03 -9.5553028417528694e+01 -8.2649268100616080e+00 -2.8712173458858196e+01 3.2696140928568454e+01 1.4995822007814843e+02 -9.8446935314600257e+00 4.3263941992609759e+01 2.1955495807508279e+02 4.0054351362089790e+02 -1.7209679175275818e+02 -1.8704336821842276e+00 -2.3063067650349450e+02 
      </Row>
      <Row Index="26">
        4.0655894021432175e+00 -3.8481645479167810e+00 6.4407757039866169e+01 6.1506188929123553e+00 -2.4955379277232737e+01 -6.2786685625711527e+01 -8.7920783007934233e+01 2.3353085503832176e+00 -3.0372467543002081e+01 1.5954443964988911e+00 -4.6014813057703861e+01 3.1542892823998752e+01 1.2792976345991391e+01 -4.8472178265849379e+01 -7.8322769981994486e+02 1.9835231603537954e+02 -3.0547471350026996e+00 9.7616745977012158e+00 1.3025800651416626e+00 6.6377747358772623e+01 -3.7212592292763897e+00 7.4152719764759638e+00 1.8281824500711394e+00 1.4947536450119956e+03 -2.1778580321411698e+02 1.3927449308607834e+01 1.1449768104117854e+02 3.4635775574571710e+00 -9.2259698727198778e+00 -3.1939728596857822e+01 -6.3308191937229410e+01 2.2432827609602555e+00 -4.2736720098972762e+02 2.2278518580475577e+02 -9.2705389889673242e+00 -4.9354335370282143e+01 -8.0835177483155007e-01 7.8441100749903558e+00 -2.3918333371728728e+01 9.4086685813915025e+00 -1.3201090638797142e+01 8.0712439114067843e+02 3.5717262829791480e+01 -1.6523488610332997e+01 8.0946985832736047e+00 -5.0154215339897439e+00 -8.3202441080825640e+00 -2.7348887450742168e+01 -1.4473761124512389e+01 4.9448143922778556e+00 1.3290188483034504e+02 3.4756856256606667e+00 -3.6631870758055296e+00 -4.2070429805807215e+01 2.2428040583089754e+01 
      </Row>
      <Row Index="27">
        2.3717770518623702e+00 -2.4658701136548302e+00 4.7597498275668137e+01 -7.2245492827270468e+00 -3.6247415728699934e+00 -9.0335911446461168e+01 2.3088643837383643e+01 -2.8343305937954426e+01 1.7502486354796072e+00 1.7827996375833791e+01 1.9991287637866293e+01 -4.2413557233274091e+01 1.6144036999715823e+01 1.1582576450780380e+00 1.6276825395157678e+02 1.0279733889480485e+02 8.8337283978028864e+00 -9.4785840124433633e+00 1.0889246654602204e+01 -1.9410720555772967e+00 -2.0680091943729522e+01 -9.1234096921581909e-01 -1.5908963791600165e+01 2.2960891852489760e+02 -1.2690260768731514e+02 3.2325939568713238e+01 3.4635775576544603e+00 2.6095368967168582e+01 1.7358891669002325e+01 -5.1775874353534297e+00 5.6442153070044787e+00 -9.5756639505588055e+00 1.8584962612184700e+01 4.3797745496120058e+01 1.3394459755038666e+01 2.8481504820452983e+00 3.2322676831915871e+00 -3.0406895004245955e+00 -1.2298881908716780e+01 3.6662718314637615e+00 1.4165960559342063e+00 9.0135287192850399e+01 1.6327811023224186e+02 -2.5396184110443158e+00 -5.1390000602954622e-02 -2.2863423894304102e+01 2.5750153671136311e+00 -3.2986232551894560e+01 7.9439633077925649e+00 -4.8823687006321492e-01 1.3843621048573977e+00 -2.8564936018666671e+01 -1.0687390645101683e+01 2.3886203929702390e+00 1.5056126333957559e+01 
      </Row>
      <Row Index="28">
        -1.8092481277455434e+01 -1.9130648596176866e+02 2.6523282306443434e+01 4.3396434964895242e+01 7.8710150563454590e+01 7.2261508050655368e+02 4.3908576709395538e+02 -9.8400340082768423e+01 -3.9764269438475139e+00 1.7926488653872070e+00 6.6296265741466800e+02 2.9181962792191527e+00 1.5162144000922375e+01 8.7505862270887860e+01 -1.6547840009958320e+03 -6.4511626880811946e+02 1.8471193090461412e+01 -2.0943486100916289e+01 1.2719538417193585e+01 -5.0711849679788247e+02 -1.3562994209115963e+01 -3.1544354941233297e+02 -8.5542471526168185e+01 1.5602621676162917e+03 3.3280779969774585e+01 1.4426948155619834e+02 -9.2259698727661430e+00 1.7358891668728319e+01 5.8473228523189891e+02 -2.3449284553760013e+01 1.5884704807289438e+02 -1.0116095581440641e+02 -1.1289002205309155e+03 1.7590180436776336e+01 8.9326104692524012e+01 7.7441422688761406e+01 1.5036412394211425e+00 -2.1937132542975155e+02 1.2105020681130807e+02 -6.7531139534359838e+01 2.0981792671544447e+01 2.4808445191041592e+03 -8.3636339447700198e+02 -1.2901761168798576e+01 -6.4725300137489779e+00 -7.8564216453947520e+00 1.5912187461093455e+02 6.1609145388496898e+01 -1.3665829293636955e+02 -2.3817198766694567e+01 1.0587944624694796e+02 1.9374090930810462e+02 -3.7013118124641530e+01 4.6797568335927537e+01 -6.2041392169969974e+01 
      </Row>
      <Row Index="29">
        1.6156134216966926e+01 1.4530787628530561e+01 1.2831289806611323e+01 7.0987745780642797e+00 1.5214904868166332e+02 -1.7574207662234710e+03 3.8164617396165158e+02 1.3473369022168401e+02 1.2819420198129421e+01 -4.4949374994991047e+01 1.9349891217566437e+00 1.3952410694235596e+01 -1.1233161437460595e+01 3.9260083900898053e+01 4.1871501202625595e+03 -3.9740636198147331e+02 1.1030479259784005e+02 -4.2698870528425061e+01 -7.0967025395434291e+00 -1.1291138993328465e+02 1.6590141626924111e+02 8.2319293919199481e+00 -8.0800577960088503e+01 -2.3109023766068431e+03 -1.4096645263888354e+02 -2.0772523055050829e+02 -3.1939728596777172e+01 -5.1775874348564344e+00 -2.3449284554019595e+01 5.2437910235897880e+02 1.2506038525354373e+02 -1.9604432632591624e+02 7.8507125266272533e+02 -9.4589428751284504e+02 -3.8175164737112084e+01 1.4514564289615691e+01 -1.4291804877929465e+01 3.2961766323251194e+00 -1.0392860264206286e+02 -8.4862754450153204e+01 5.2785251368154462e-01 -3.4079094441148045e+03 1.2231079987732774e+03 2.7947218507465713e+01 -3.1907832591498746e+00 2.2135901959794833e+01 2.9707013025786471e+00 -3.0234349020141718e+02 2.9954593821387888e+01 -3.7186882432623165e+01 -2.7434123176856070e+02 -2.9752269487213118e+02 5.5321935393622113e+01 3.5350212021589385e+01 7.5931012647507075e+01 
      </Row>
      <Row Index="30">
        -6.4642478876808340e+00 -2.4078400459356317e+01 -7.4145131808738881e+01 -3.8463220659187790e+01 1.2186068445840738e+02 4.4400709874635368e+02 8.5360867255799349e+01 4.9043248654621152e+01 2.5629447286414972e+00 5.1682103398252366e-01 2.4360958878814210e+02 -4.2074888385048105e+01 1.3756864334490740e+02 7.9488326327732466e+01 3.3205946834515419e+02 -1.7201498066933300e+02 2.0359768215428460e+01 -3.5036080548067048e+00 9.8025682260209628e+00 -3.6212179206259759e+02 1.2326097109162885e+02 -1.6536537607818934e+02 -9.1915455964087954e+01 -1.8924761064440422e+03 3.8536667519570187e+01 -4.7450693913624946e+01 -6.3308191937266344e+01 5.6442153072880501e+00 1.5884704807317246e+02 1.2506038525549148e+02 3.2440609367176489e+02 -2.1371722442233249e+01 5.0715326820047210e+01 -5.0972494973858363e+02 1.2839978853096596e+00 1.1289877386861650e+02 -1.3728387574469068e+00 -1.0080946890030977e+02 -9.7055883392259716e+01 -9.8248595264385372e+01 9.3636999915420844e+00 -1.2560483310424072e+03 3.5564197081429739e+02 2.2802004771068123e+01 -1.7247524501543630e+01 -8.5142174460491415e-01 7.1641631758538153e+01 -7.9452743578745185e+01 7.4392046328691919e+01 -2.0172808892530458e+01 -1.5614025684079854e+02 -1.1139768334341161e+02 2.7564013712389531e+01 6.3599571880757566e+01 4.3076872487427551e+01 
      </Row>
      <Row Index="31">
        4.7388245920760141e-01 3.9527983183701508e+01 -1.7211454644077980e+02 -9.8648927834565789e+00 -3.8976167143255225e+02 2.2693583711004072e+02 -1.9862174503997176e+02 -1.0393613873665458e+02 -1.6067730736324506e+01 2.3445882947116843e+01 -4.5062551509019613e+01 8.3791149464863253e+01 -4.3664287807719404e-01 -2.1762563251214942e+02 -3.4829676846804873e+03 -7.1590079978706854e+01 -1.4184874475661127e+02 4.5660117300455568e+01 -1.6601501266231743e+01 1.4319066716999259e+01 3.2779137583480974e+01 3.6735465612178132e+01 5.5807763874361729e+02 2.7834463809311410e+03 4.8374525321445344e+02 1.9680642320054312e+02 2.2432827603245187e+00 -9.5756639511005233e+00 -1.0116095581273800e+02 -1.9604432632960101e+02 -2.1371722442617667e+01 6.7438513173134106e+02 4.1955459317334589e+02 6.8558060170704630e+02 1.2327706238901581e+02 7.8597330955253710e+00 -6.2121327662566728e-01 4.5240632264972206e+01 1.5606526994163562e+02 1.0460282722522043e+01 1.0662432473460251e+02 2.3679714072055663e+03 -1.6750116623432432e+03 7.3524004838130224e+01 -3.6161215088827761e+00 -4.6973194677561505e+00 -1.7407757731610573e+01 2.2857779065421641e+02 2.4102361712441560e+01 1.1712885590908982e+02 2.7936856580234070e+02 3.8750294379399872e+02 -1.2336830363419416e+01 -1.5182548375426080e+01 -2.0127813821410174e+02 
      </Row>
      <Row Index="32">
        4.2304737794567700e+01 9.5900555249853642e+02 -2.3447872098632033e+03 1.9038137990869080e+02 -8.0466243487782776e+01 -2.9520695288611096e+03 1.9034063368773495e+03 5.1143371226549789e+02 2.5739852041158883e+01 -2.0374478927639575e+02 -2.1088804249165114e+03 1.6846231400577444e+03 -9.5369584253632729e+02 1.1418879323847068e+02 1.6459393311536645e+04 3.0558507866292843e+04 8.3827710737626330e+02 4.1515157481146161e+02 1.0987038543607696e+02 6.6285763387285988e+02 1.3905657409812957e+03 3.5704543309891596e+02 4.4919802583400087e+02 -1.6830836637974979e+04 -4.4635889742406638e+04 -8.2825645689721568e+02 -4.2736720094842894e+02 1.8584962619941507e+01 -1.1289002206195296e+03 7.8507125270433801e+02 5.0715326734056134e+01 4.1955459330277517e+02 3.9801965680094785e+04 -7.2548253435930819e+03 -1.4856616480404591e+02 2.8129187006257416e+02 -3.2397875169430336e+01 5.6707161414929863e+02 -3.6775459965665277e+01 -6.5205294445581671e+01 -2.4172765915520631e+02 -3.3884097136211189e+04 7.1265744706389392e+04 4.1581908921257372e+02 -1.3108316202173552e+02 1.9411262610622600e+01 -3.8794916243659856e+02 7.3258531181409126e+02 -1.2337033510766969e+02 3.4529522011175004e+01 -5.8573364199390780e+03 -1.4008547816711018e+04 3.0183559453545922e+02 6.1170876979518653e+01 9.4403766299737981e+03 
      </Row>
      <Row Index="33">
        7.1915758523736940e+01 -1.6565712256862025e+02 6.0385959131958498e+02 7.2098007441628283e+01 -1.0444008526526814e+03 1.2847436136362730e+03 -1.3543092269422159e+03 -7.5494383495530383e+02 -1.0359466232658815e+02 1.3968477291303861e+02 4.2231472423469313e+02 -1.4718534482751079e+02 1.1577478771622532e+02 -1.9069969085174671e+02 -1.9475972341275832e+04 1.4072264652067679e+02 -6.4604098130068905e+02 6.1215004344233876e+01 -7.6640464471437724e+01 1.2381945957019343e+02 -6.0837126581246230e+02 -1.7828786120726363e+01 4.7438467494191082e+02 2.5169375015340349e+04 2.4612332478929893e+03 8.7526126670735175e+02 2.2278518580393938e+02 4.3797745490593115e+01 1.7590180460153178e+01 -9.4589428754068877e+02 -5.0972494973193068e+02 6.8558060170181852e+02 -7.2548253443820504e+03 7.5387485238400805e+03 1.4224237576548148e+01 -1.6807680485300807e+02 7.6947333992397944e+00 5.9276693786695127e+01 6.4828101157888500e+02 1.1694938043127488e+02 5.9866306158604417e+01 2.8517480898805050e+04 -1.3552778355394181e+04 -1.3059754814305111e+02 6.3190465497476424e+01 -9.7000977320038146e+01 1.3039433864394013e+01 5.5774482568676922e+02 -3.9004166699241978e+01 2.0025582953393121e+02 2.9445037049661660e+03 3.1490077166985857e+03 -3.3499319455518986e+02 -1.3807773988301301e+02 -1.3684236004256179e+03 
      </Row>
      <Row Index="34">
        -2.4026426201510727e+01 -4.2340817674522668e+01 1.0898951252629705e+02 -3.8451120256480131e+01 -1.4216650548403595e+02 1.7471932278548968e+02 1.5994616330411299e+02 -1.1896654445180565e+02 6.0031017649584584e+00 7.6975824935188655e+00 1.0292456593351005e+02 4.4694459329989087e+00 1.1057084545901105e+01 -6.4346886503300198e+01 -7.6875021305458222e+02 -1.9524646251464378e+02 7.1582488830015478e+00 -5.2160974923107517e+00 2.3949847067465207e+01 -6.0249070448897442e+01 -9.1479978134485989e+01 -6.2373705008333502e+00 2.0634130616259546e+02 5.4341470594941370e+02 -7.3019914065169132e+01 1.9924432932790353e+02 -9.2705389890811460e+00 1.3394459755046256e+01 8.9326104691331679e+01 -3.8175164737717473e+01 1.2839978843224635e+00 1.2327706238857627e+02 -1.4856616479544749e+02 1.4224237575285201e+01 2.5461989545336311e+02 -2.6799215979498570e+00 6.6326795668025724e+00 -3.2916672190763698e+01 1.3672487730865947e+02 1.3383257127980473e+01 1.0238885402570452e+02 4.3714874924925789e+02 -8.8046189878247972e+01 -3.2932436661082932e+01 -5.7415849095076865e+00 -1.4179219717389186e+01 2.2995547159053217e+01 6.7635363767584934e+01 -3.4340657541314677e+01 3.4550968349921533e+01 2.8597256641253821e+01 2.7010464561547714e+01 -3.4971555110426159e+01 3.7527801147825652e+00 -2.8011713428440363e+01 
      </Row>
      <Row Index="35">
        -1.4351961766273362e+00 -1.7081021346674106e+01 -6.9732377497062032e+01 2.7089441134222511e+01 6.3337881187884250e+01 -1.0043028660039928e+02 4.5948290212073061e+01 2.8390478997168088e+01 2.2626449873787635e+01 -3.2309414666758016e+00 1.2873437941924385e+02 2.2667780200045474e+01 -4.7961494275463821e+00 3.0394469898613011e+01 4.5660480327093893e+02 1.2225720141815145e+02 1.4511964301046703e+01 -4.5487329901445122e+01 5.3161003081230103e+00 -1.5193029271489536e+02 5.0623307066716308e+01 -1.3462433906286321e+02 -5.8962394076967769e+01 -7.6007630340096966e+01 -3.0547875908365290e+02 -1.7629495089603324e+01 -4.9354335369860962e+01 2.8481504821706949e+00 7.7441422688510528e+01 1.4514564290346961e+01 1.1289877386790479e+02 7.8597330964246339e+00 2.8129187009103600e+02 -1.6807680484874504e+02 -2.6799215977286224e+00 8.4955689431780343e+01 3.2388832359477249e-01 -4.1061067772218856e+01 -1.4026523738615239e+01 -3.4649015483620346e+01 -6.1908111778027521e+00 -3.3052029098689468e+02 5.0451951677668853e+02 1.6782257776678087e+01 -1.3055284513872742e+01 -5.6486988807414296e-01 3.3041012800683930e+01 9.4082939157503063e+00 -1.8911115480660733e+01 -8.0636658080158057e+00 -6.4627705698469981e+01 -1.0017072748434822e+02 1.5751611959894801e+01 5.1125382719306785e+01 7.2513683490434090e+01 
      </Row>
      <Row Index="36">
        -7.5499787060679524e-01 -1.3158831813700083e+00 6.5447079127118961e+00 -3.1455689385086982e+00 -1.5054937959648171e+00 3.1648881053941857e+01 -5.5304898879931450e+00 -7.5190985382143349e-01 -1.4250431713854272e-01 3.1941604428456225e+00 2.5066660522391802e+00 -1.5339384241678019e+01 8.4737159331407597e-01 -1.1818011200364342e+00 -5.2968317221093407e+01 1.0417154904791140e+01 3.0106840059073794e+00 1.0609229793981887e+00 2.9098400126348642e+00 9.6524166254202015e-01 -1.0406620623813449e+01 -7.5488453280218959e-01 1.4732313459102890e+00 -2.7405729848222986e+00 1.0471683348973322e+00 3.2023327557756591e+00 -8.0835177482309128e-01 3.2322676831935171e+00 1.5036412394408158e+00 -1.4291804877908826e+01 -1.3728387573802705e+00 -6.2121327671456683e-01 -3.2397875166837110e+01 7.6947333987510635e+00 6.6326795667765088e+00 3.2388832363399622e-01 1.9005461973177458e+00 -9.5271464843905962e-01 -9.8806272808056272e-01 3.4188040038781811e+00 1.8691716636126263e+00 3.8819863345235888e+01 -9.1218466870438188e+00 -1.6694081120024449e+00 2.0630631161363788e-01 -3.7226329804762264e+00 3.3549196295248773e-01 5.1088894143797670e-01 -1.1202159758057872e+00 1.9439576914079115e-01 2.7046100114018148e+00 1.8294206517232037e+00 3.4673166008516887e-02 4.4157024222175378e-02 -4.5065838734169789e-01 
      </Row>
      <Row Index="37">
        7.1017602659917820e+00 6.6263240563594650e+01 -3.8551241508958896e+00 -4.8182723008552912e+00 -3.5863532170933240e+01 -3.4398320834699217e+02 -1.3954307657073298e+02 1.7724622967336444e+01 -1.3244443446855882e+00 8.9783964915028491e-01 -2.5864380754988269e+02 5.0727702675715136e-02 -4.0768264556612834e+01 -4.8176576345243234e+00 7.4466978988017479e+02 2.4738611542935678e+02 -1.4676297100823916e+01 1.4492764412780673e+01 -4.7318391235290145e+00 2.3513907089584063e+02 1.1407572104738819e+01 1.4501777229073789e+02 -1.2466456333412452e+00 -5.2472050658396563e+02 -8.8188056247236091e+01 -2.2963630853351333e+01 7.8441100751360722e+00 -3.0406895003995089e+00 -2.1937132542976798e+02 3.2961766320103436e+00 -1.0080946890016656e+02 4.5240632265567456e+01 5.6707161410964159e+02 5.9276693795812662e+01 -3.2916672191370331e+01 -4.1061067772413224e+01 -9.5271464842891618e-01 1.0477842969384233e+02 -2.5725587544710585e+01 3.3120104737957860e+01 -1.3669421419409119e+01 -4.4773665099805908e+02 2.7981464255518898e+02 6.0905032024490300e+00 4.4552347628575788e+00 5.8331916009751916e-01 -6.4000499421731050e+01 -1.5329109690444994e+01 3.7174751204569631e+01 9.0545787981279648e+00 -4.8444415810625799e+01 -5.7263874415505654e+01 6.0688573998374471e+00 -2.5596029055741973e+01 3.1597348373124323e+01 
      </Row>
      <Row Index="38">
        2.5159091832741893e+00 -2.2556085102022735e+01 1.1012802670725586e+02 5.7421372155881443e+00 -2.4405026733295836e+02 1.2280682149191617e+02 2.7270737919781459e+02 -2.8088958215626917e+02 -8.1549204930240649e-01 -2.3243231509561042e+01 8.5855249233270797e+01 1.2500534871634022e+02 -2.3853279684977018e+01 3.3562543230982669e+01 -2.5770482921244684e+03 -1.9226164565257841e+02 -1.0499275324746156e+02 -1.5839091961972514e+01 -1.4544586001243301e+01 -4.1133824237342878e+01 -1.7309197170802278e+02 -6.1983942502462298e+01 1.8760454867071348e+02 3.0176710404254413e+03 -3.3336747294734892e+02 2.9629297413713107e+02 -2.3918333371457948e+01 -1.2298881909038698e+01 1.2105020680930335e+02 -1.0392860264544879e+02 -9.7055883395226431e+01 1.5606526994182286e+02 -3.6775460003781632e+01 6.4828101158625714e+02 1.3672487730858779e+02 -1.4026523739816525e+01 -9.8806272800270278e-01 -2.5725587543492232e+01 3.9880567859810435e+02 8.6268094605107315e+00 3.9864894725909160e+01 2.4149852384877549e+03 -5.0349579430789061e+02 -3.5622327528523030e+01 -9.8117513235555744e+00 1.3678210362080506e+01 2.4915184681843755e+01 2.3952018493784388e+02 -8.6533559280325846e+01 4.1092907389655807e+01 2.2414539418155078e+02 1.5653057143273929e+02 -1.1057341171296720e+02 6.7138678332169519e+00 -6.3540735184302619e+01 
      </Row>
      <Row Index="39">
        -4.8559963313795720e+00 1.3838002271603500e+01 4.6456212177246414e+01 9.2257063035165245e+00 -4.0400061868737907e+01 -6.4694362495393023e+01 -5.1303468567549146e+01 -2.6473031682107433e+01 1.4632163673992551e+00 1.3714239674294475e+01 -8.6881048422553818e+01 -4.7424994028353581e+01 -3.6639605291514457e+01 -1.5113062662460038e+01 2.7440086672054179e+01 7.2933185080574503e+01 -1.5318322855510971e+01 3.9045634021302504e+00 1.4104251882613568e+00 1.2993820937253327e+02 -7.6260065416834962e+01 6.1718530042744703e+01 3.9228592284808933e+01 1.5247595922037857e+02 9.5974283389474010e+01 2.7900842315418117e+01 9.4086685813147071e+00 3.6662718314471192e+00 -6.7531139534352860e+01 -8.4862754450498045e+01 -9.8248595264030001e+01 1.0460282721850717e+01 -6.5205294459123593e+01 1.1694938043157845e+02 1.3383257127491341e+01 -3.4649015483571461e+01 3.4188040039016343e+00 3.3120104737972483e+01 8.6268094592378937e+00 5.3258471300313794e+01 1.0920677918936953e+01 3.2765992459535070e+01 -1.0014668990912004e+02 -1.1052935731891926e+01 4.7483620284396020e+00 -6.3439079934144980e+00 -2.7619833263364320e+01 2.3432894355225883e+01 -1.5696160897746573e+01 5.8880568764763090e+00 2.1408134631596354e+01 2.5916019230948329e+01 -1.3216479238392386e+01 -1.8502485629956830e+01 -2.1364552109420810e+01 
      </Row>
      <Row Index="40">
        -6.2016121459423914e+00 6.6912876265851082e+00 8.8713230534770730e+01 -6.9938134847109268e+00 -1.2470356923512009e+02 1.2590016732824552e+00 5.1444801107478725e+01 -5.5415087294684668e+01 3.0225981222088194e+00 1.2910961959339602e+01 1.0826324905464662e+02 -9.1402698098928340e+01 4.7098096189724856e+00 -5.8793930360218383e+00 7.7724164577808779e+01 -4.1633144337172416e+02 -9.4570355664227691e+01 1.6423959151243253e+00 -2.1992580392658709e+00 -1.0575485740098202e+02 -2.9151152671129125e+01 3.0692084870387362e+00 1.5722119616788314e+02 -2.6576234860602699e+02 6.2211793315514115e+02 1.1556815872947118e+02 -1.3201090639578013e+01 1.4165960558701727e+00 2.0981792672377704e+01 5.2785251311945558e-01 9.3636999923809299e+00 1.0662432473267427e+02 -2.4172765916430717e+02 5.9866306149370303e+01 1.0238885402582054e+02 -6.1908111775130692e+00 1.8691716636604667e+00 -1.3669421419755949e+01 3.9864894725482877e+01 1.0920677918947440e+01 1.2860348631003865e+02 1.5055522699677249e+02 -1.0295199820118401e+03 -2.7315019660430778e+01 -2.8031366445828709e-01 -3.4486269035124266e+00 1.1376286041919885e+01 3.0556149114049731e+00 -3.7827015689955172e+00 2.3759924178521302e+01 3.8771677100920328e+01 1.8479995225064954e+02 -1.5675066657032001e+01 2.6790185933714525e+00 -1.4050208703120910e+02 
      </Row>
      <Row Index="41">
        1.1183195457180364e+02 -2.4210214098732395e+03 4.3154463948862031e+02 8.5232413045275098e+02 -3.2730684676764358e+03 1.2627200841343321e+04 -4.0181754107787419e+03 -2.5675000221243099e+03 -6.2270864321390945e+02 2.8630553963428247e+02 4.7121825974223393e+03 2.8909785631778504e+02 -3.3849247418213758e+02 -6.0037629888291121e+02 -1.0354163667555540e+05 5.4235253034422931e+03 -1.6952073116662141e+03 8.4031343510561419e+02 8.5662851050039990e-01 -8.4574807962703926e+02 -1.1190178161913464e+03 -1.0112292364890018e+03 1.5913954183931273e+03 1.1958160365861395e+05 -2.9285829350912172e+03 2.9085600411442792e+03 8.0712439115389861e+02 9.0135287165492628e+01 2.4808445192068884e+03 -3.4079094442250389e+03 -1.2560483310265295e+03 2.3679714072267525e+03 -3.3884097139711659e+04 2.8517480898942129e+04 4.3714874926306902e+02 -3.3052029101336302e+02 3.8819863346165675e+01 -4.4773665103920575e+02 2.4149852384773712e+03 3.2765992455210494e+01 1.5055522704494729e+02 1.4796940703872801e+05 -4.8021860641964362e+04 -3.3706207557573561e+02 3.1680896104727753e+02 -2.7151784409385846e+02 8.4655865913782100e+02 3.0184790318782925e+03 -8.9247481766611213e+02 6.6905774335296428e+02 1.2681457010827833e+04 1.1606527043954957e+04 -1.0642349965306244e+03 -5.1670061260949478e+02 -3.0556830537210412e+03 
      </Row>
      <Row Index="42">
        -5.4171774450805970e+01 8.3208884140476584e+02 9.4020156299090013e+02 -1.0548334044590592e+02 -7.8062623871490359e+01 -2.0866533339363988e+04 9.5995153578305617e+03 -6.6235302912839688e+02 2.1484827709110687e+02 -3.2656272330973297e+02 -4.3606368328728713e+03 1.7608465952842962e+03 1.2200734807243643e+03 -7.7146268576337025e+02 -2.6758032155575900e+04 1.6094399097983725e+05 2.5214224912807113e+03 -7.7307208526541945e+02 5.5070086818119307e+02 2.7744626369145699e+03 -1.7368831728546647e+03 -9.9397341728967149e+02 7.0749609281000448e+02 6.8694490760723129e+04 -2.3400364243648062e+05 -1.9612145419947337e+03 3.5717262706253678e+01 1.6327811034093611e+02 -8.3636339591681644e+02 1.2231079983228701e+03 3.5564197091045207e+02 -1.6750116643770598e+03 7.1265744770577876e+04 -1.3552778367824387e+04 -8.8046190359324100e+01 5.0451951701566577e+02 -9.1218466738355346e+00 2.7981464313353354e+02 -5.0349579485637332e+02 -1.0014668976264147e+02 -1.0295199833371007e+03 -4.8021860688297340e+04 3.8924240447659674e+05 -2.9688489059351105e+02 -1.6026506611576178e+02 -9.3121921865567742e+01 -5.0387801381391830e+02 -1.0484993302705698e+03 4.5539400095578981e+02 -1.6935799561305430e+02 -1.3294182089236681e+04 8.9166787692340149e+04 -3.6886376654817286e+02 3.1872328668638511e+02 -1.0800219057711460e+05 
      </Row>
      <Row Index="43">
        2.3904155601276287e+00 8.8279627886117851e-01 -2.1351810259941041e+02 -1.9796544038108976e+00 7.9407061218865465e+01 9.5297651858671998e+01 -4.2218460235188104e+01 1.0360820098024720e+02 -9.9699201078203714e+00 -5.6402445136586721e-01 3.2622931625980982e+00 -5.3744559862940378e+00 -2.2086804907598921e+01 -7.6910937854031658e+01 -1.7766832916439472e+02 -8.5631836057950295e+01 4.8107558324455965e+01 3.8599097325286394e+01 -3.8077995517093992e+00 -1.3976584312119940e+00 1.2274899409836308e+02 1.0578606696552754e+01 3.0203393588400331e+01 -5.4654909512649533e+02 3.1123320383027317e+02 -9.5553028415813174e+01 -1.6523488610515756e+01 -2.5396184110444722e+00 -1.2901761167871420e+01 2.7947218506554066e+01 2.2802004771223636e+01 7.3524004838963492e+01 4.1581908917667238e+02 -1.3059754813757354e+02 -3.2932436660718260e+01 1.6782257776522044e+01 -1.6694081119828041e+00 6.0905032020382563e+00 -3.5622327527815727e+01 -1.1052935731876079e+01 -2.7315019659877724e+01 -3.3706207556142897e+02 -2.9688489000000874e+02 8.7008135032772429e+01 1.2559879571480366e+00 1.3138148129321365e+00 -2.3572018847835778e+00 1.0063043294903594e+01 1.4106327085891396e+01 7.9783112343227494e+00 -3.9114501316776227e+01 6.5294836665179062e+01 5.4868909542879770e+01 2.7430952058999836e-01 -4.9710490367696600e+01 
      </Row>
      <Row Index="44">
        4.1508129846461905e-01 -2.7587078103012459e+00 2.2850033347830276e+00 -1.1287611445764796e+00 -2.5106390301050396e-01 4.3774311608429230e+01 -3.1768456317425660e+01 4.3242691123284516e+00 -6.6055054056755651e+00 2.3275182154811063e+00 -1.1771893480175663e+01 -1.6695626041757208e+01 5.3761101989245059e+00 -1.1227413918112205e+01 -2.4065679418652871e+02 2.2699030696680666e+01 -4.4587672662922273e-01 1.2637767317646485e+01 -6.9165279406569979e-01 2.0136279019099732e+01 -9.2377506358235948e+00 1.4008416197402653e+01 2.4807788115440346e+00 1.6505410289523729e+02 5.6834154819546882e+01 -8.2649268097198956e+00 8.0946985832375731e+00 -5.1390000685501036e-02 -6.4725300133111920e+00 -3.1907832594788488e+00 -1.7247524501316068e+01 -3.6161215088358745e+00 -1.3108316203731624e+02 6.3190465497835362e+01 -5.7415849094821780e+00 -1.3055284513920910e+01 2.0630631161867896e-01 4.4552347626528803e+00 -9.8117513236748444e+00 4.7483620283905470e+00 -2.8031366425809345e-01 3.1680896104618427e+02 -1.6026506594372722e+02 1.2559879571397143e+00 5.4346361910726060e+00 -8.9743359795995037e-01 -3.1023460723284813e+00 -3.1608537602128095e+00 2.7952004462200275e+00 8.2964228960163267e-01 3.3624590802704375e+01 3.6720668785647000e+01 1.4317075400902359e+00 -9.0727085052695688e+00 -1.5671731874563848e+01 
      </Row>
      <Row Index="45">
        -2.2686126124564527e+00 1.0023703835208835e+00 -3.8696037175075020e+01 8.6837199604459343e+00 1.3238400436795985e+01 3.3213746250137262e+01 4.2205546880255156e+00 2.4956173710445086e+01 -3.2350457573929958e-01 -1.8681799397655851e+01 -1.2660626477740180e+01 4.3513525623617511e+01 -1.7037329764232844e+01 1.2281238943323444e+01 8.7327861341522294e+01 -1.4498282053864762e+02 -5.8701545465552059e+00 4.6974632255937152e+00 -9.8146667715477331e+00 -6.3731804759800639e+00 2.4544749216360046e+01 -3.3216870180534386e+00 -2.2587544376107189e+00 -3.8638751432529079e+02 1.2489755482079224e+02 -2.8712173459415311e+01 -5.0154215341900681e+00 -2.2863423894263953e+01 -7.8564216458295659e+00 2.2135901960404951e+01 -8.5142174439735463e-01 -4.6973194683437782e+00 1.9411262625957306e+01 -9.7000977325817161e+01 -1.4179219717387538e+01 -5.6486988791691317e-01 -3.7226329804754172e+00 5.8331916020142671e-01 1.3678210361842730e+01 -6.3439079934172113e+00 -3.4486269036894575e+00 -2.7151784412073096e+02 -9.3121921804753555e+01 1.3138148129364442e+00 -8.9743359804489975e-01 2.2274965150206178e+01 -2.4168702617490112e-01 2.2707832244859347e+01 -1.0094596948847981e+01 -2.8725160888306327e+00 -2.3418721410258044e+01 1.2236449761518177e+01 8.7930300205312140e+00 2.6566656531111921e-01 -1.1421673802148135e+01 
      </Row>
      <Row Index="46">
        -4.6689758985651437e+00 -5.3952476798652015e+01 -3.9671135245976075e+00 1.7339678661287564e+01 2.6103954318522028e+01 1.9835755682610920e+02 9.7517346284728319e+01 -1.5241694608968032e+01 -4.8064038097214734e-01 -1.1865370398454047e+00 2.0413541049380581e+02 -2.0781177202513845e+00 6.0359059594253779e+00 3.4956799476212268e+01 -5.0026589189016386e+02 -2.7455381799865700e+02 -3.6228107954736970e+00 -7.9787593855743921e+00 3.3744243806953254e+00 -1.7572397882994778e+02 1.2352037232436174e+01 -1.0836565028920080e+02 -2.9440454979940512e+01 4.7736069013602241e+02 1.5093280739386762e+02 3.2696140928572618e+01 -8.3202441082262624e+00 2.5750153670049656e+00 1.5912187461139823e+02 2.9707013026392133e+00 7.1641631758830670e+01 -1.7407757732464688e+01 -3.8794916241151805e+02 1.3039433854893787e+01 2.2995547159489313e+01 3.3041012800872636e+01 3.3549196295012962e-01 -6.4000499421942209e+01 2.4915184682420580e+01 -2.7619833263466575e+01 1.1376286041677886e+01 8.4655865909567842e+02 -5.0387801311381702e+02 -2.3572018851536072e+00 -3.1023460725168519e+00 -2.4168702598817049e-01 4.9409407245729980e+01 1.5080058289279208e+01 -3.7295775651920451e+01 -6.6476015566451565e+00 5.1823228324260953e+01 1.0671176810896051e+02 -5.0036940799320604e+00 1.9702219190169671e+01 -4.7318473963147802e+01 
      </Row>
      <Row Index="47">
        -1.1765999886445641e+01 -4.0957091060194671e+01 -3.9032186653581618e+02 2.4338290800826883e+01 -1.7202875667954049e+02 2.2532396885197941e+03 -2.2534824433295898e+02 -1.4652129381611599e+02 -1.9184007116282942e+01 -2.5737972924275141e+01 2.5253320290188867e+01 3.7596188619262944e+02 -6.8731365141835781e+01 -1.7065057488411185e+01 -5.3289091366207476e+03 1.3566056183188448e+02 -1.7087875056222288e+01 9.5416897795157013e+01 2.4472955737192663e+00 4.0149292432338370e+01 6.2599307466321648e+00 -3.7230472103708166e+01 1.5754339249772210e+02 2.7863192049383542e+03 -2.7147188979505700e+01 1.4995822007685319e+02 -2.7348887450919790e+01 -3.2986232552315073e+01 6.1609145386677525e+01 -3.0234349020242416e+02 -7.9452743578530786e+01 2.2857779065103387e+02 7.3258531188711299e+02 5.5774482565725202e+02 6.7635363767545996e+01 9.4082939160393835e+00 5.1088894148168151e-01 -1.5329109689859493e+01 2.3952018493613303e+02 2.3432894355639032e+01 3.0556149106467991e+00 3.0184790317467050e+03 -1.0484993306428678e+03 1.0063043293578502e+01 -3.1608537606431000e+00 2.2707832245384530e+01 1.5080058288474962e+01 5.1281734807595330e+02 -7.1828930350243880e+01 4.5136513686833268e+01 2.4978086778316992e+02 3.4934882667940042e+02 -3.8902744848932535e+01 -2.2071156560658807e+01 -1.1880435110062292e+02 
      </Row>
      <Row Index="48">
        5.3362159516496988e+00 4.9872193029650816e+01 1.3380613653219399e+01 -1.5081859970291794e+02 1.3479633808794915e+01 9.6037685160408660e+02 -1.8381192977778574e+02 -9.3161211078323163e+00 -2.0052051065852368e+01 1.8327817510793125e+01 -1.6255488749024653e+02 -9.4967601705846960e+01 2.0825154902981188e+02 -4.3119433394671773e+01 -6.9351194297417260e+02 4.2008526641327444e+02 -1.6899748263256413e+01 6.5104687271192603e+01 -3.4250151127123338e+00 1.2293159882594432e+02 3.6008361762251553e+01 1.9498612193807486e+02 -5.9675523431617989e+00 -2.3630698317071556e+03 -2.7546804087628288e+01 -9.8446935304091312e+00 -1.4473761124245328e+01 7.9439633078693532e+00 -1.3665829293554560e+02 2.9954593820886430e+01 7.4392046328639807e+01 2.4102361714650897e+01 -1.2337033512478331e+02 -3.9004166685419705e+01 -3.4340657541184541e+01 -1.8911115480550166e+01 -1.1202159758272074e+00 3.7174751204237154e+01 -8.6533559279243207e+01 -1.5696160897931083e+01 -3.7827015687358490e+00 -8.9247481759551920e+02 4.5539399975613685e+02 1.4106327086181409e+01 2.7952004463891029e+00 -1.0094596949036447e+01 -3.7295775651562671e+01 -7.1828930349959165e+01 2.2219929474505852e+02 6.0570656740398192e+00 -1.3439006075274028e+02 -1.4223420906325785e+02 2.3862735789411005e+00 -2.3607760329008627e+01 6.4591031950761803e+01 
      </Row>
      <Row Index="49">
        4.3491866910281907e-01 5.4146012172309383e+00 -1.6919177050141450e+01 -8.0432065264817432e+00 -9.8198303924050833e+01 1.5196873994274767e+01 -3.0248067433181291e+01 -3.4386600806980013e+01 -3.6189468802228149e+00 4.5760101864321570e+00 -1.9082959552544537e+01 1.9527307224342280e+01 4.1941718455664638e+00 -6.2335520280829030e+01 -9.5096496327721638e+02 1.1575470966893522e+02 -1.8224333783941717e+01 9.5448943729326245e+00 -1.7480716121708744e+00 2.2303828333553838e+01 -1.0424373168667962e+01 2.0817962725581197e+01 1.3489867397417945e+02 9.6812918238428369e+02 -8.3075864503339460e+01 4.3263941993963272e+01 4.9448143923395165e+00 -4.8823687020891526e-01 -2.3817198766414997e+01 -3.7186882433765845e+01 -2.0172808893050352e+01 1.1712885590981466e+02 3.4529521967525909e+01 2.0025582954057114e+02 3.4550968350006613e+01 -8.0636658084597457e+00 1.9439576915697643e-01 9.0545787980757666e+00 4.1092907389804843e+01 5.8880568767199346e+00 2.3759924179162365e+01 6.6905774337016840e+02 -1.6935799530971184e+02 7.9783112342474034e+00 8.2964228968320430e-01 -2.8725160887172727e+00 -6.6476015564321003e+00 4.5136513687688065e+01 6.0570656734395456e+00 2.5476109714329525e+01 8.3146191762603323e+01 5.0087631337340824e+01 -8.3591511135484104e+00 -7.5504014906964478e+00 -1.6879300636603812e+01 
      </Row>
      <Row Index="50">
        2.5908037585202237e+01 -1.6647205275407032e+02 7.9069363335370326e+01 1.2567177938534633e+02 -4.0782828622458328e+02 1.6633638498970686e+02 -6.2518930959473073e+02 -2.5680439698310329e+02 -4.6712924625986489e+01 2.9401999001423974e+01 3.2445176453473323e+02 1.0351263001532425e+02 -2.0989413760422849e+01 -1.6581269731291468e+02 -9.5605165544672054e+03 -4.0440858394412644e+03 -1.4620566641698588e+02 -2.0544462301504609e+00 -2.0881407205283551e+01 -6.1170614046939590e+01 -2.4599586155776797e+02 -1.7947832200734592e+02 3.2325106961939218e+02 1.3598040920742220e+04 6.3931553693556853e+03 2.1955495808662454e+02 1.3290188482444955e+02 1.3843621021933359e+00 1.0587944626483797e+02 -2.7434123178392838e+02 -1.5614025682913189e+02 2.7936856578481093e+02 -5.8573364202196790e+03 2.9445037048694503e+03 2.8597256643444098e+01 -6.4627705696928388e+01 2.7046100119227958e+00 -4.8444415818177049e+01 2.2414539417599673e+02 2.1408134630564007e+01 3.8771677103507670e+01 1.2681457010323364e+04 -1.3294182076324585e+04 -3.9114501323580953e+01 3.3624590800535771e+01 -2.3418721406512645e+01 5.1823228330168035e+01 2.4978086780302510e+02 -1.3439006075972748e+02 8.3146191755012296e+01 1.8818843542959567e+03 2.8763888623999424e+03 -1.0303835555752585e+02 -4.4858560653277209e+01 -1.7177578820155722e+03 
      </Row>
      <Row Index="51">
        1.1120521948905662e+01 -2.0418959421664476e+02 -3.1752673993329518e+02 7.2174900935613550e+01 -6.5726971819996834e+01 4.2985219928268343e+03 -2.0828734167553484e+03 6.6814772951882333e+01 -4.9171803333098069e+01 5.8541588577441871e+01 8.7222836542967707e+02 -2.0748583910148591e+02 -2.9004300712753320e+02 1.4156341091729701e+02 2.2118276937045157e+03 -3.3681318296611309e+04 -4.6100676689273678e+02 1.6621597220492549e+02 -9.3705927516944939e+01 -5.0157114287652075e+02 3.4437441804422997e+02 1.4903890142310411e+02 -8.8386030156165361e+01 -9.3934092954546213e+03 4.8953077529669739e+04 4.0054350952617824e+02 3.4756844758521765e+00 -2.8564935734728351e+01 1.9374090587667888e+02 -2.9752269645687193e+02 -1.1139768152585020e+02 3.8750293501652777e+02 -1.4008547601717524e+04 3.1490076622515917e+03 2.7010463147249538e+01 -1.0017072614235803e+02 1.8294207344297320e+00 -5.7263873138057534e+01 1.5653056890750304e+02 2.5916019459473318e+01 1.8479994780213747e+02 1.1606526831782230e+04 8.9166788597770035e+04 6.5294834255473688e+01 3.6720667963963933e+01 1.2236449764051940e+01 1.0671176617650781e+02 3.4934882844472304e+02 -1.4223420533357421e+02 5.0087629662128165e+01 2.8763888146849349e+03 4.8751628304626670e+05 5.2313044406444533e+01 -6.9645872463293017e+01 -4.8366990765097743e+05 
      </Row>
      <Row Index="52">
        3.7504712904218707e-01 5.5426934116103439e+00 -1.7577799890132428e+02 -5.2027070530180453e+00 1.1892256206037246e+02 2.4139467676709546e+02 -1.2279277796670908e+02 2.2636089683596936e+02 -1.9577698837389335e+00 -1.2644353504934315e+01 -9.6810329610063945e+00 -3.7906317503768605e-01 -3.8799585918918012e+01 -4.2364440941233397e+01 9.0634545442924536e+02 -2.4408460567542807e+02 5.4893531073376067e+01 2.8133819475061216e+01 1.3682599320199564e+00 -1.3569176907313476e+01 1.5213702783666051e+02 1.2824681849700198e+01 -4.6481070823602806e+01 -1.6210154082408746e+03 5.3502269752920472e+02 -1.7209679175320230e+02 -3.6631870763298195e+00 -1.0687390644944770e+01 -3.7013118124083263e+01 5.5321935394758697e+01 2.7564013713970404e+01 -1.2336830364361276e+01 3.0183559455649561e+02 -3.3499319456573517e+02 -3.4971555110227271e+01 1.5751611960475486e+01 3.4673166009255851e-02 6.0688573993490209e+00 -1.1057341171323202e+02 -1.3216479238807489e+01 -1.5675066657274741e+01 -1.0642349965763251e+03 -3.6886376600115818e+02 5.4868909542939377e+01 1.4317075398936296e+00 8.7930300204709688e+00 -5.0036940798292360e+00 -3.8902744849179612e+01 2.3862735795805960e+00 -8.3591511137570365e+00 -1.0303835556293558e+02 5.2313045821459653e+01 9.1963220025281629e+01 -1.2715978368580068e+00 -5.5214152584351794e+01 
      </Row>
      <Row Index="53">
        -5.1628945382643110e-01 -7.9670652541716436e+00 1.3533927378082751e+01 2.6068642112457667e+01 3.0064412439595799e+01 -4.3521286760245459e+02 1.0337420033327714e+02 -3.7324968987597060e+00 2.8187424461240454e+01 -2.0000424853546974e+00 7.9955910087387565e+01 -2.1982208468186855e+00 -8.5515845658630347e+00 3.2133627011826889e+01 8.4494630251200738e+02 -5.9964054860727174e+01 2.9162999450559681e+00 -6.4290988096689432e+01 1.7558009359029318e+00 -9.6342260224969550e+01 -9.1966342747769403e+00 -9.2694770729404297e+01 -3.3194123372632006e+01 2.9785551260206148e+01 -1.2775045199663953e+02 -1.8704336821563174e+00 -4.2070429805578357e+01 2.3886203931025420e+00 4.6797568335826760e+01 3.5350212021724815e+01 6.3599571880019838e+01 -1.5182548374859039e+01 6.1170876990035083e+01 -1.3807773987687517e+02 3.7527801148467326e+00 5.1125382719239497e+01 4.4157024208885787e-02 -2.5596029055540299e+01 6.7138678340791671e+00 -1.8502485629894224e+01 2.6790185931753419e+00 -5.1670061257715702e+02 3.1872328670595346e+02 2.7430952067495440e-01 -9.0727085051960223e+00 2.6566656514786757e-01 1.9702219190082470e+01 -2.2071156560656647e+01 -2.3607760329130315e+01 -7.5504014904095555e+00 -4.4858560652498653e+01 -6.9645872703893360e+01 -1.2715978372693719e+00 4.3319723004083912e+01 3.1092774993873640e+01 
      </Row>
      <Row Index="54">
        -5.9467652103630826e+00 5.8727515913546085e+01 1.6196858188160695e+02 -8.5387131082825363e+00 -3.1021145019680262e+01 -2.4789913977924734e+03 1.3593594419192523e+03 -9.2491846799384803e+01 1.1915670921793208e+01 -3.8073613484390080e+01 -4.6516476858593524e+02 1.9603242607880384e+02 1.6907118857069872e+02 -1.2630931806378067e+02 -5.2623048089705408e+03 2.5904445585384965e+04 2.8725162424566224e+02 -7.4563486613100395e+01 6.8317581624956802e+01 3.3086054386571050e+02 -2.3746924974373542e+02 -1.4814815213810652e+02 9.4465578073868528e+01 1.0674328777087852e+04 -3.7372736946286634e+04 -2.3063067241199315e+02 2.2428041722858325e+01 1.5056126048555598e+01 -6.2041388719995666e+01 7.5931014225352556e+01 4.3076870695163961e+01 -2.0127812947891653e+02 9.4403764151716605e+03 -1.3684235462434590e+03 -2.8011712013278157e+01 7.2513682159129530e+01 -4.5065846957731992e-01 3.1597347086411901e+01 -6.3540732673252933e+01 -2.1364552341692615e+01 -1.4050208258807834e+02 -3.0556828426886350e+03 -1.0800219146686979e+05 -4.9710487968579400e+01 -1.5671731057635043e+01 -1.1421673800679855e+01 -4.7318472026003292e+01 -1.1880435285111889e+02 6.4591028219729196e+01 -1.6879298974294215e+01 -1.7177578344172798e+03 -4.8366990760090359e+05 -5.5214151164109353e+01 3.1092774756834842e+01 4.8114290912601358e+05 
      </Row>
    </InverseHessian>
  </Weights>
</MethodSetup>
