<?xml version="1.0"?>
<MethodSetup Method="BDT::BDT">
  <GeneralInfo>
    <Info name="TMVA Release" value="4.1.4 [262404]"/>
    <Info name="ROOT Release" value="5.34/05 [336389]"/>
    <Info name="Creator" value="clester"/>
    <Info name="Date" value="Tue Mar 18 21:44:53 2014"/>
    <Info name="Host" value="Darwin pb-d-128-141-154-76.cern.ch 12.2.1 Darwin Kernel Version 12.2.1: Thu Oct 18 16:32:48 PDT 2012; root:xnu-2050.20.9~2/RELEASE_X86_64 x86_64"/>
    <Info name="Dir" value="/Users/clester/LAST"/>
    <Info name="Training events" value="1092"/>
    <Info name="TrainingTime" value="3.68667316e+00"/>
    <Info name="AnalysisType" value="Regression"/>
  </GeneralInfo>
  <Options>
    <Option name="V" modified="Yes">False</Option>
    <Option name="VerbosityLevel" modified="No">Default</Option>
    <Option name="VarTransform" modified="No">None</Option>
    <Option name="H" modified="Yes">False</Option>
    <Option name="CreateMVAPdfs" modified="No">False</Option>
    <Option name="IgnoreNegWeightsInTraining" modified="No">False</Option>
    <Option name="NTrees" modified="Yes">1000</Option>
    <Option name="RenormByClass" modified="No">False</Option>
    <Option name="BoostType" modified="Yes">AdaBoost</Option>
    <Option name="AdaBoostR2Loss" modified="No">quadratic</Option>
    <Option name="UseBaggedGrad" modified="No">False</Option>
    <Option name="GradBaggingFraction" modified="No">6.000000e-01</Option>
    <Option name="Shrinkage" modified="No">1.000000e+00</Option>
    <Option name="AdaBoostBeta" modified="Yes">3.000000e-01</Option>
    <Option name="UseRandomisedTrees" modified="No">False</Option>
    <Option name="UseNvars" modified="No">2</Option>
    <Option name="UsePoissonNvars" modified="No">True</Option>
    <Option name="UseNTrainEvents" modified="No">1092</Option>
    <Option name="UseWeightedTrees" modified="No">True</Option>
    <Option name="UseYesNoLeaf" modified="No">False</Option>
    <Option name="NodePurityLimit" modified="No">5.000000e-01</Option>
    <Option name="SeparationType" modified="No">regressionvariance</Option>
    <Option name="nEventsMin" modified="Yes">50</Option>
    <Option name="nCuts" modified="Yes">30</Option>
    <Option name="UseFisherCuts" modified="No">False</Option>
    <Option name="MinLinCorrForFisher" modified="No">8.000000e-01</Option>
    <Option name="UseExclusiveVars" modified="No">False</Option>
    <Option name="PruneStrength" modified="No">0.000000e+00</Option>
    <Option name="PruneMethod" modified="No">nopruning</Option>
    <Option name="PruneBeforeBoost" modified="No">False</Option>
    <Option name="PruningValFraction" modified="No">5.000000e-01</Option>
    <Option name="NNodesMax" modified="No">100000</Option>
    <Option name="MaxDepth" modified="Yes">2</Option>
    <Option name="DoBoostMonitor" modified="No">False</Option>
    <Option name="NegWeightTreatment" modified="No">inverseboostnegweights</Option>
  </Options>
  <Variables NVar="5">
    <Variable VarIndex="0" Expression="winfrac1-winfrac2" Label="winfrac1-winfrac2" Title="winfrac1-winfrac2" Unit="" Internal="winfrac1_M_winfrac2" Type="F" Min="-5.04464269e-01" Max="6.11607134e-01"/>
    <Variable VarIndex="1" Expression="avg_scorediff1-avg_scorediff2" Label="avg_scorediff1-avg_scorediff2" Title="avg_scorediff1-avg_scorediff2" Unit="" Internal="avg_scorediff1_M_avg_scorediff2" Type="F" Min="-2.33035717e+01" Max="2.90575752e+01"/>
    <Variable VarIndex="2" Expression="avg_opp_score_for1-avg_opp_score_for2" Label="avg_opp_score_for1-avg_opp_score_for2" Title="avg_opp_score_for1-avg_opp_score_for2" Unit="" Internal="avg_opp_score_for1_M_avg_opp_score_for2" Type="F" Min="-9.37847900e+00" Max="9.60630798e+00"/>
    <Variable VarIndex="3" Expression="avg_opp_score_against1-avg_opp_score_against2" Label="avg_opp_score_against1-avg_opp_score_against2" Title="avg_opp_score_against1-avg_opp_score_against2" Unit="" Internal="avg_opp_score_against1_M_avg_opp_score_against2" Type="F" Min="-9.80245972e+00" Max="8.12377930e+00"/>
    <Variable VarIndex="4" Expression="avg_score_against1-avg_score_against2" Label="avg_score_against1-avg_score_against2" Title="avg_score_against1-avg_score_against2" Unit="" Internal="avg_score_against1_M_avg_score_against2" Type="F" Min="-2.50357170e+01" Max="2.12218971e+01"/>
  </Variables>
  <Spectators NSpec="1">
    <Spectator SpecIndex="0" Expression="season" Label="season" Title="season" Unit="" Internal="season" Type="F" Min="6.50000000e+01" Max="8.20000000e+01"/>
  </Spectators>
  <Classes NClass="1">
    <Class Name="Regression" Index="0"/>
  </Classes>
  <Targets NTrgt="1">
    <Target TargetIndex="0" Expression="game_outcome" Label="game_outcome" Title="game_outcome" Unit="" Internal="game_outcome" Type="F" Min="0.00000000e+00" Max="1.00000000e+00"/>
  </Targets>
  <Transformations NTransformations="0"/>
  <MVAPdfs/>
  <Weights NTrees="1000" AnalysisType="1">
    <BinaryTree type="DecisionTree" boostWeight="2.7828352932849543e-01" itree="0">
      <Node pos="s" depth="0" NCoef="0" IVar="1" Cut="-1.3456714153289795e+00" cType="0" res="5.0915753841400146e-01" rms="4.9991613626480103e-01" purity="1.0000000000000000e+00" nType="0">
        <Node pos="l" depth="1" NCoef="0" IVar="1" Cut="6.5024557113647461e+00" cType="0" res="6.4856714010238647e-01" rms="4.7741785645484924e-01" purity="1.0000000000000000e+00" nType="0">
          <Node pos="l" depth="2" NCoef="0" IVar="-1" Cut="0.0000000000000000e+00" cType="1" res="8.4037560224533081e-01" rms="3.6625736951828003e-01" purity="1.0000000000000000e+00" nType="-99"/>
          <Node pos="r" depth="2" NCoef="0" IVar="-1" Cut="0.0000000000000000e+00" cType="1" res="5.5777776241302490e-01" rms="4.9665051698684692e-01" purity="1.0000000000000000e+00" nType="-99"/>
        </Node>
        <Node pos="r" depth="1" NCoef="0" IVar="2" Cut="-1.5568375587463379e+00" cType="0" res="2.9370629787445068e-01" rms="4.5545899868011475e-01" purity="1.0000000000000000e+00" nType="0">
          <Node pos="l" depth="2" NCoef="0" IVar="-1" Cut="0.0000000000000000e+00" cType="1" res="3.6458334326744080e-01" rms="4.8131313920021057e-01" purity="1.0000000000000000e+00" nType="-99"/>
          <Node pos="r" depth="2" NCoef="0" IVar="-1" Cut="0.0000000000000000e+00" cType="1" res="1.4893616735935211e-01" rms="3.5602554678916931e-01" purity="1.0000000000000000e+00" nType="-99"/>
        </Node>
      </Node>
    </BinaryTree>
    <BinaryTree type="DecisionTree" boostWeight="2.1331392148183612e-01" itree="1">
      <Node pos="s" depth="0" NCoef="0" IVar="1" Cut="-1.3456714153289795e+00" cType="0" res="5.0795173645019531e-01" rms="4.9993675947189331e-01" purity="1.0000000000000000e+00" nType="0">
        <Node pos="l" depth="1" NCoef="0" IVar="1" Cut="6.5024557113647461e+00" cType="0" res="6.2796580791473389e-01" rms="4.8334744572639465e-01" purity="1.0000000000000000e+00" nType="0">
          <Node pos="l" depth="2" NCoef="0" IVar="-1" Cut="0.0000000000000000e+00" cType="1" res="8.0821156501770020e-01" rms="3.9370754361152649e-01" purity="1.0000000000000000e+00" nType="-99"/>
          <Node pos="r" depth="2" NCoef="0" IVar="-1" Cut="0.0000000000000000e+00" cType="1" res="5.4843842983245850e-01" rms="4.9764817953109741e-01" purity="1.0000000000000000e+00" nType="-99"/>
        </Node>
        <Node pos="r" depth="1" NCoef="0" IVar="2" Cut="1.8290513753890991e-01" cType="0" res="3.2093989849090576e-01" rms="4.6683773398399353e-01" purity="1.0000000000000000e+00" nType="0">
          <Node pos="l" depth="2" NCoef="0" IVar="-1" Cut="0.0000000000000000e+00" cType="1" res="4.2794537544250488e-01" rms="4.9478089809417725e-01" purity="1.0000000000000000e+00" nType="-99"/>
          <Node pos="r" depth="2" NCoef="0" IVar="-1" Cut="0.0000000000000000e+00" cType="1" res="2.3447613418102264e-01" rms="4.2367094755172729e-01" purity="1.0000000000000000e+00" nType="-99"/>
        </Node>
      </Node>
    </BinaryTree>
    <BinaryTree type="DecisionTree" boostWeight="2.8163222216365458e-01" itree="2">
      <Node pos="s" depth="0" NCoef="0" IVar="1" Cut="3.7215363979339600e+00" cType="0" res="5.0707048177719116e-01" rms="4.9994999170303345e-01" purity="1.0000000000000000e+00" nType="0">
        <Node pos="l" depth="1" NCoef="0" IVar="1" Cut="9.4458827972412109e+00" cType="0" res="7.1179187297821045e-01" rms="4.5292848348617554e-01" purity="1.0000000000000000e+00" nType="0">
          <Node pos="l" depth="2" NCoef="0" IVar="-1" Cut="0.0000000000000000e+00" cType="1" res="8.8714230060577393e-01" rms="3.1641879677772522e-01" purity="1.0000000000000000e+00" nType="-99"/>
          <Node pos="r" depth="2" NCoef="0" IVar="-1" Cut="0.0000000000000000e+00" cType="1" res="6.3410884141921997e-01" rms="4.8167917132377625e-01" purity="1.0000000000000000e+00" nType="-99"/>
        </Node>
        <Node pos="r" depth="1" NCoef="0" IVar="1" Cut="-2.3900885581970215e+00" cType="0" res="4.1867572069168091e-01" rms="4.9334204196929932e-01" purity="1.0000000000000000e+00" nType="0">
          <Node pos="l" depth="2" NCoef="0" IVar="-1" Cut="0.0000000000000000e+00" cType="1" res="5.0553345680236816e-01" rms="4.9996939301490784e-01" purity="1.0000000000000000e+00" nType="-99"/>
          <Node pos="r" depth="2" NCoef="0" IVar="-1" Cut="0.0000000000000000e+00" cType="1" res="3.1191956996917725e-01" rms="4.6327719092369080e-01" purity="1.0000000000000000e+00" nType="-99"/>
        </Node>
      </Node>
    </BinaryTree>
    <BinaryTree type="DecisionTree" boostWeight="2.4038594833385596e-01" itree="3">
      <Node pos="s" depth="0" NCoef="0" IVar="1" Cut="7.0996747016906738e+00" cType="0" res="5.0623428821563721e-01" rms="4.9996113777160645e-01" purity="1.0000000000000000e+00" nType="0">
        <Node pos="l" depth="1" NCoef="0" IVar="3" Cut="1.2049688100814819e+00" cType="0" res="7.8772711753845215e-01" rms="4.0891698002815247e-01" purity="1.0000000000000000e+00" nType="0">
          <Node pos="l" depth="2" NCoef="0" IVar="-1" Cut="0.0000000000000000e+00" cType="1" res="6.2582433223724365e-01" rms="4.8390933871269226e-01" purity="1.0000000000000000e+00" nType="-99"/>
          <Node pos="r" depth="2" NCoef="0" IVar="-1" Cut="0.0000000000000000e+00" cType="1" res="8.5626876354217529e-01" rms="3.5081702470779419e-01" purity="1.0000000000000000e+00" nType="-99"/>
        </Node>
        <Node pos="r" depth="1" NCoef="0" IVar="1" Cut="-1.7312788963317871e+00" cType="0" res="4.5675796270370483e-01" rms="4.9812662601470947e-01" purity="1.0000000000000000e+00" nType="0">
          <Node pos="l" depth="2" NCoef="0" IVar="-1" Cut="0.0000000000000000e+00" cType="1" res="5.3569388389587402e-01" rms="4.9872431159019470e-01" purity="1.0000000000000000e+00" nType="-99"/>
          <Node pos="r" depth="2" NCoef="0" IVar="-1" Cut="0.0000000000000000e+00" cType="1" res="3.4851187467575073e-01" rms="4.7649905085563660e-01" purity="1.0000000000000000e+00" nType="-99"/>
        </Node>
      </Node>
    </BinaryTree>
    <BinaryTree type="DecisionTree" boostWeight="2.7222771262581402e-01" itree="4">
      <Node pos="s" depth="0" NCoef="0" IVar="1" Cut="7.0996747016906738e+00" cType="0" res="5.0556159019470215e-01" rms="4.9996906518936157e-01" purity="1.0000000000000000e+00" nType="0">
        <Node pos="l" depth="1" NCoef="0" IVar="0" Cut="2.0424869656562805e-01" cType="0" res="7.6138883829116821e-01" rms="4.2623451352119446e-01" purity="1.0000000000000000e+00" nType="0">
          <Node pos="l" depth="2" NCoef="0" IVar="-1" Cut="0.0000000000000000e+00" cType="1" res="8.9693659543991089e-01" rms="3.0404168367385864e-01" purity="1.0000000000000000e+00" nType="-99"/>
          <Node pos="r" depth="2" NCoef="0" IVar="-1" Cut="0.0000000000000000e+00" cType="1" res="6.7689770460128784e-01" rms="4.6766141057014465e-01" purity="1.0000000000000000e+00" nType="-99"/>
        </Node>
        <Node pos="r" depth="1" NCoef="0" IVar="1" Cut="-5.6535139083862305e+00" cType="0" res="4.6257010102272034e-01" rms="4.9859702587127686e-01" purity="1.0000000000000000e+00" nType="0">
          <Node pos="l" depth="2" NCoef="0" IVar="-1" Cut="0.0000000000000000e+00" cType="1" res="5.0115114450454712e-01" rms="4.9999868869781494e-01" purity="1.0000000000000000e+00" nType="-99"/>
          <Node pos="r" depth="2" NCoef="0" IVar="-1" Cut="0.0000000000000000e+00" cType="1" res="2.8064817190170288e-01" rms="4.4931590557098389e-01" purity="1.0000000000000000e+00" nType="-99"/>
        </Node>
      </Node>
    </BinaryTree>
    <BinaryTree type="DecisionTree" boostWeight="1.6437117280739960e-01" itree="5">
      <Node pos="s" depth="0" NCoef="0" IVar="1" Cut="3.7215363979339600e+00" cType="0" res="5.0487232208251953e-01" rms="4.9997624754905701e-01" purity="1.0000000000000000e+00" nType="0">
        <Node pos="l" depth="1" NCoef="0" IVar="3" Cut="-8.1545823812484741e-01" cType="0" res="6.5181577205657959e-01" rms="4.7639477252960205e-01" purity="1.0000000000000000e+00" nType="0">
          <Node pos="l" depth="2" NCoef="0" IVar="-1" Cut="0.0000000000000000e+00" cType="1" res="5.7491230964660645e-01" rms="4.9435630440711975e-01" purity="1.0000000000000000e+00" nType="-99"/>
          <Node pos="r" depth="2" NCoef="0" IVar="-1" Cut="0.0000000000000000e+00" cType="1" res="7.9747056961059570e-01" rms="4.0188464522361755e-01" purity="1.0000000000000000e+00" nType="-99"/>
        </Node>
        <Node pos="r" depth="1" NCoef="0" IVar="2" Cut="-1.5007954835891724e+00" cType="0" res="4.4522634148597717e-01" rms="4.9699079990386963e-01" purity="1.0000000000000000e+00" nType="0">
          <Node pos="l" depth="2" NCoef="0" IVar="-1" Cut="0.0000000000000000e+00" cType="1" res="5.0101137161254883e-01" rms="4.9999898672103882e-01" purity="1.0000000000000000e+00" nType="-99"/>
          <Node pos="r" depth="2" NCoef="0" IVar="-1" Cut="0.0000000000000000e+00" cType="1" res="3.1938096880912781e-01" rms="4.6623679995536804e-01" purity="1.0000000000000000e+00" nType="-99"/>
        </Node>
      </Node>
    </BinaryTree>
    <BinaryTree type="DecisionTree" boostWeight="1.0158574373435543e-01" itree="6">
      <Node pos="s" depth="0" NCoef="0" IVar="1" Cut="-3.0347406864166260e+00" cType="0" res="5.0442880392074585e-01" rms="4.9998039007186890e-01" purity="1.0000000000000000e+00" nType="0">
        <Node pos="l" depth="1" NCoef="0" IVar="3" Cut="-6.4584451913833618e-01" cType="0" res="5.5851417779922485e-01" rms="4.9656429886817932e-01" purity="1.0000000000000000e+00" nType="0">
          <Node pos="l" depth="2" NCoef="0" IVar="-1" Cut="0.0000000000000000e+00" cType="1" res="4.9255231022834778e-01" rms="4.9994453787803650e-01" purity="1.0000000000000000e+00" nType="-99"/>
          <Node pos="r" depth="2" NCoef="0" IVar="-1" Cut="0.0000000000000000e+00" cType="1" res="6.7799198627471924e-01" rms="4.6724602580070496e-01" purity="1.0000000000000000e+00" nType="-99"/>
        </Node>
        <Node pos="r" depth="1" NCoef="0" IVar="2" Cut="3.2219916582107544e-01" cType="0" res="3.6517640948295593e-01" rms="4.8147958517074585e-01" purity="1.0000000000000000e+00" nType="0">
          <Node pos="l" depth="2" NCoef="0" IVar="-1" Cut="0.0000000000000000e+00" cType="1" res="5.0261658430099487e-01" rms="4.9999314546585083e-01" purity="1.0000000000000000e+00" nType="-99"/>
          <Node pos="r" depth="2" NCoef="0" IVar="-1" Cut="0.0000000000000000e+00" cType="1" res="2.5262603163719177e-01" rms="4.3451824784278870e-01" purity="1.0000000000000000e+00" nType="-99"/>
        </Node>
      </Node>
    </BinaryTree>
    <BinaryTree type="DecisionTree" boostWeight="1.9395681555207192e-01" itree="7">
      <Node pos="s" depth="0" NCoef="0" IVar="1" Cut="7.0996747016906738e+00" cType="0" res="5.0413888692855835e-01" rms="4.9998286366462708e-01" purity="1.0000000000000000e+00" nType="0">
        <Node pos="l" depth="1" NCoef="0" IVar="1" Cut="9.9462499618530273e+00" cType="0" res="7.1741497516632080e-01" rms="4.5025628805160522e-01" purity="1.0000000000000000e+00" nType="0">
          <Node pos="l" depth="2" NCoef="0" IVar="-1" Cut="0.0000000000000000e+00" cType="1" res="8.2886433601379395e-01" rms="3.7662747502326965e-01" purity="1.0000000000000000e+00" nType="-99"/>
          <Node pos="r" depth="2" NCoef="0" IVar="-1" Cut="0.0000000000000000e+00" cType="1" res="6.0605531930923462e-01" rms="4.8862281441688538e-01" purity="1.0000000000000000e+00" nType="-99"/>
        </Node>
        <Node pos="r" depth="1" NCoef="0" IVar="2" Cut="-1.5007954835891724e+00" cType="0" res="4.7031125426292419e-01" rms="4.9911779165267944e-01" purity="1.0000000000000000e+00" nType="0">
          <Node pos="l" depth="2" NCoef="0" IVar="-1" Cut="0.0000000000000000e+00" cType="1" res="5.1797896623611450e-01" rms="4.9967664480209351e-01" purity="1.0000000000000000e+00" nType="-99"/>
          <Node pos="r" depth="2" NCoef="0" IVar="-1" Cut="0.0000000000000000e+00" cType="1" res="3.5142457485198975e-01" rms="4.7741526365280151e-01" purity="1.0000000000000000e+00" nType="-99"/>
        </Node>
      </Node>
    </BinaryTree>
    <BinaryTree type="DecisionTree" boostWeight="2.2895541041088746e-01" itree="8">
      <Node pos="s" depth="0" NCoef="0" IVar="1" Cut="-1.3456714153289795e+00" cType="0" res="5.0372231006622314e-01" rms="4.9998614192008972e-01" purity="1.0000000000000000e+00" nType="0">
        <Node pos="l" depth="1" NCoef="0" IVar="3" Cut="-6.9254475831985474e-01" cType="0" res="5.6758403778076172e-01" rms="4.9541133642196655e-01" purity="1.0000000000000000e+00" nType="0">
          <Node pos="l" depth="2" NCoef="0" IVar="-1" Cut="0.0000000000000000e+00" cType="1" res="4.9246042966842651e-01" rms="4.9994313716888428e-01" purity="1.0000000000000000e+00" nType="-99"/>
          <Node pos="r" depth="2" NCoef="0" IVar="-1" Cut="0.0000000000000000e+00" cType="1" res="7.1427649259567261e-01" rms="4.5175832509994507e-01" purity="1.0000000000000000e+00" nType="-99"/>
        </Node>
        <Node pos="r" depth="1" NCoef="0" IVar="1" Cut="-9.1390237808227539e+00" cType="0" res="4.0406164526939392e-01" rms="4.9070951342582703e-01" purity="1.0000000000000000e+00" nType="0">
          <Node pos="l" depth="2" NCoef="0" IVar="-1" Cut="0.0000000000000000e+00" cType="1" res="4.3822756409645081e-01" rms="4.9616950750350952e-01" purity="1.0000000000000000e+00" nType="-99"/>
          <Node pos="r" depth="2" NCoef="0" IVar="-1" Cut="0.0000000000000000e+00" cType="1" res="1.4317902922630310e-01" rms="3.5025534033775330e-01" purity="1.0000000000000000e+00" nType="-99"/>
        </Node>
      </Node>
    </BinaryTree>
    <BinaryTree type="DecisionTree" boostWeight="2.4882296587891767e-01" itree="9">
      <Node pos="s" depth="0" NCoef="0" IVar="0" Cut="1.7957949638366699e-01" cType="0" res="5.0324821472167969e-01" rms="4.9998944997787476e-01" purity="1.0000000000000000e+00" nType="0">
        <Node pos="l" depth="1" NCoef="0" IVar="3" Cut="1.4180657267570496e-01" cType="0" res="7.6315081119537354e-01" rms="4.2514896392822266e-01" purity="1.0000000000000000e+00" nType="0">
          <Node pos="l" depth="2" NCoef="0" IVar="-1" Cut="0.0000000000000000e+00" cType="1" res="6.5159732103347778e-01" rms="4.7646433115005493e-01" purity="1.0000000000000000e+00" nType="-99"/>
          <Node pos="r" depth="2" NCoef="0" IVar="-1" Cut="0.0000000000000000e+00" cType="1" res="8.8513398170471191e-01" rms="3.1886020302772522e-01" purity="1.0000000000000000e+00" nType="-99"/>
        </Node>
        <Node pos="r" depth="1" NCoef="0" IVar="2" Cut="2.8697707653045654e+00" cType="0" res="4.8043316602706909e-01" rms="4.9961698055267334e-01" purity="1.0000000000000000e+00" nType="0">
          <Node pos="l" depth="2" NCoef="0" IVar="-1" Cut="0.0000000000000000e+00" cType="1" res="6.4983242750167847e-01" rms="4.7702226042747498e-01" purity="1.0000000000000000e+00" nType="-99"/>
          <Node pos="r" depth="2" NCoef="0" IVar="-1" Cut="0.0000000000000000e+00" cType="1" res="4.4852235913276672e-01" rms="4.9734300374984741e-01" purity="1.0000000000000000e+00" nType="-99"/>
        </Node>
      </Node>
    </BinaryTree>
    <BinaryTree type="DecisionTree" boostWeight="1.9743714916556557e-01" itree="10">
      <Node pos="s" depth="0" NCoef="0" IVar="3" Cut="-2.8632705211639404e+00" cType="0" res="5.0291299819946289e-01" rms="4.9999150633811951e-01" purity="1.0000000000000000e+00" nType="0">
        <Node pos="l" depth="1" NCoef="0" IVar="2" Cut="2.5295773148536682e-01" cType="0" res="4.7357720136642456e-01" rms="4.9930134415626526e-01" purity="1.0000000000000000e+00" nType="0">
          <Node pos="l" depth="2" NCoef="0" IVar="-1" Cut="0.0000000000000000e+00" cType="1" res="5.5261540412902832e-01" rms="4.9722391366958618e-01" purity="1.0000000000000000e+00" nType="-99"/>
          <Node pos="r" depth="2" NCoef="0" IVar="-1" Cut="0.0000000000000000e+00" cType="1" res="3.9012753963470459e-01" rms="4.8777869343757629e-01" purity="1.0000000000000000e+00" nType="-99"/>
        </Node>
        <Node pos="r" depth="1" NCoef="0" IVar="2" Cut="-1.1428129673004150e+00" cType="0" res="7.0391261577606201e-01" rms="4.5653000473976135e-01" purity="1.0000000000000000e+00" nType="0">
          <Node pos="l" depth="2" NCoef="0" IVar="-1" Cut="0.0000000000000000e+00" cType="1" res="8.3245134353637695e-01" rms="3.7346500158309937e-01" purity="1.0000000000000000e+00" nType="-99"/>
          <Node pos="r" depth="2" NCoef="0" IVar="-1" Cut="0.0000000000000000e+00" cType="1" res="5.8644199371337891e-01" rms="4.9247109889984131e-01" purity="1.0000000000000000e+00" nType="-99"/>
        </Node>
      </Node>
    </BinaryTree>
    <BinaryTree type="DecisionTree" boostWeight="1.4810473177464661e-01" itree="11">
      <Node pos="s" depth="0" NCoef="0" IVar="1" Cut="-8.1019487380981445e+00" cType="0" res="5.0263166427612305e-01" rms="4.9999308586120605e-01" purity="1.0000000000000000e+00" nType="0">
        <Node pos="l" depth="1" NCoef="0" IVar="0" Cut="2.0043270289897919e-01" cType="0" res="5.2106881141662598e-01" rms="4.9955591559410095e-01" purity="1.0000000000000000e+00" nType="0">
          <Node pos="l" depth="2" NCoef="0" IVar="-1" Cut="0.0000000000000000e+00" cType="1" res="7.9613322019577026e-01" rms="4.0287110209465027e-01" purity="1.0000000000000000e+00" nType="-99"/>
          <Node pos="r" depth="2" NCoef="0" IVar="-1" Cut="0.0000000000000000e+00" cType="1" res="5.0315839052200317e-01" rms="4.9999001622200012e-01" purity="1.0000000000000000e+00" nType="-99"/>
        </Node>
        <Node pos="r" depth="1" NCoef="0" IVar="-1" Cut="0.0000000000000000e+00" cType="1" res="2.2412823140621185e-01" rms="4.1700690984725952e-01" purity="1.0000000000000000e+00" nType="-99"/>
      </Node>
    </BinaryTree>
    <BinaryTree type="DecisionTree" boostWeight="1.6831956066908615e-01" itree="12">
      <Node pos="s" depth="0" NCoef="0" IVar="3" Cut="-2.8632705211639404e+00" cType="0" res="5.0239825248718262e-01" rms="4.9999424815177917e-01" purity="1.0000000000000000e+00" nType="0">
        <Node pos="l" depth="1" NCoef="0" IVar="2" Cut="-1.5007954835891724e+00" cType="0" res="4.7634562849998474e-01" rms="4.9944016337394714e-01" purity="1.0000000000000000e+00" nType="0">
          <Node pos="l" depth="2" NCoef="0" IVar="-1" Cut="0.0000000000000000e+00" cType="1" res="5.1846963167190552e-01" rms="4.9965876340866089e-01" purity="1.0000000000000000e+00" nType="-99"/>
          <Node pos="r" depth="2" NCoef="0" IVar="-1" Cut="0.0000000000000000e+00" cType="1" res="3.4128352999687195e-01" rms="4.7414037585258484e-01" purity="1.0000000000000000e+00" nType="-99"/>
        </Node>
        <Node pos="r" depth="1" NCoef="0" IVar="2" Cut="-1.1428129673004150e+00" cType="0" res="6.8509286642074585e-01" rms="4.6447888016700745e-01" purity="1.0000000000000000e+00" nType="0">
          <Node pos="l" depth="2" NCoef="0" IVar="-1" Cut="0.0000000000000000e+00" cType="1" res="8.1032258272171021e-01" rms="3.9204576611518860e-01" purity="1.0000000000000000e+00" nType="-99"/>
          <Node pos="r" depth="2" NCoef="0" IVar="-1" Cut="0.0000000000000000e+00" cType="1" res="5.7609415054321289e-01" rms="4.9417576193809509e-01" purity="1.0000000000000000e+00" nType="-99"/>
        </Node>
      </Node>
    </BinaryTree>
    <BinaryTree type="DecisionTree" boostWeight="1.5144509242108015e-02" itree="13">
      <Node pos="s" depth="0" NCoef="0" IVar="3" Cut="1.1845899820327759e+00" cType="0" res="5.0217854976654053e-01" rms="4.9999526143074036e-01" purity="1.0000000000000000e+00" nType="0">
        <Node pos="l" depth="1" NCoef="0" IVar="2" Cut="3.8153169155120850e+00" cType="0" res="4.0127572417259216e-01" rms="4.9015662074089050e-01" purity="1.0000000000000000e+00" nType="0">
          <Node pos="l" depth="2" NCoef="0" IVar="-1" Cut="0.0000000000000000e+00" cType="1" res="6.3409322500228882e-01" rms="4.8168352246284485e-01" purity="1.0000000000000000e+00" nType="-99"/>
          <Node pos="r" depth="2" NCoef="0" IVar="-1" Cut="0.0000000000000000e+00" cType="1" res="3.4890165925025940e-01" rms="4.7662279009819031e-01" purity="1.0000000000000000e+00" nType="-99"/>
        </Node>
        <Node pos="r" depth="1" NCoef="0" IVar="2" Cut="-3.9842483997344971e+00" cType="0" res="5.4831820726394653e-01" rms="4.9765986204147339e-01" purity="1.0000000000000000e+00" nType="0">
          <Node pos="l" depth="2" NCoef="0" IVar="-1" Cut="0.0000000000000000e+00" cType="1" res="5.7898545265197754e-01" rms="4.9372187256813049e-01" purity="1.0000000000000000e+00" nType="-99"/>
          <Node pos="r" depth="2" NCoef="0" IVar="-1" Cut="0.0000000000000000e+00" cType="1" res="3.0360525846481323e-01" rms="4.5981422066688538e-01" purity="1.0000000000000000e+00" nType="-99"/>
        </Node>
      </Node>
    </BinaryTree>
    <BinaryTree type="DecisionTree" boostWeight="1.1409010375325247e-02" itree="14">
      <Node pos="s" depth="0" NCoef="0" IVar="3" Cut="1.1845899820327759e+00" cType="0" res="5.0215590000152588e-01" rms="4.9999535083770752e-01" purity="1.0000000000000000e+00" nType="0">
        <Node pos="l" depth="1" NCoef="0" IVar="2" Cut="3.8153169155120850e+00" cType="0" res="4.0225586295127869e-01" rms="4.9035301804542542e-01" purity="1.0000000000000000e+00" nType="0">
          <Node pos="l" depth="2" NCoef="0" IVar="-1" Cut="0.0000000000000000e+00" cType="1" res="6.3273900747299194e-01" rms="4.8205846548080444e-01" purity="1.0000000000000000e+00" nType="-99"/>
          <Node pos="r" depth="2" NCoef="0" IVar="-1" Cut="0.0000000000000000e+00" cType="1" res="3.5039606690406799e-01" rms="4.7709396481513977e-01" purity="1.0000000000000000e+00" nType="-99"/>
        </Node>
        <Node pos="r" depth="1" NCoef="0" IVar="2" Cut="-3.9842483997344971e+00" cType="0" res="5.4781311750411987e-01" rms="4.9770864844322205e-01" purity="1.0000000000000000e+00" nType="0">
          <Node pos="l" depth="2" NCoef="0" IVar="-1" Cut="0.0000000000000000e+00" cType="1" res="5.7814782857894897e-01" rms="4.9385514855384827e-01" purity="1.0000000000000000e+00" nType="-99"/>
          <Node pos="r" depth="2" NCoef="0" IVar="-1" Cut="0.0000000000000000e+00" cType="1" res="3.0541431903839111e-01" rms="4.6058270335197449e-01" purity="1.0000000000000000e+00" nType="-99"/>
        </Node>
      </Node>
    </BinaryTree>
    <BinaryTree type="DecisionTree" boostWeight="8.5915131109544057e-03" itree="15">
      <Node pos="s" depth="0" NCoef="0" IVar="3" Cut="1.1845899820327759e+00" cType="0" res="5.0213897228240967e-01" rms="4.9999541044235229e-01" purity="1.0000000000000000e+00" nType="0">
        <Node pos="l" depth="1" NCoef="0" IVar="2" Cut="3.8153169155120850e+00" cType="0" res="4.0299007296562195e-01" rms="4.9049881100654602e-01" purity="1.0000000000000000e+00" nType="0">
          <Node pos="l" depth="2" NCoef="0" IVar="-1" Cut="0.0000000000000000e+00" cType="1" res="6.3172507286071777e-01" rms="4.8233649134635925e-01" purity="1.0000000000000000e+00" nType="-99"/>
          <Node pos="r" depth="2" NCoef="0" IVar="-1" Cut="0.0000000000000000e+00" cType="1" res="3.5151556134223938e-01" rms="4.7744357585906982e-01" purity="1.0000000000000000e+00" nType="-99"/>
        </Node>
        <Node pos="r" depth="1" NCoef="0" IVar="2" Cut="-3.9842483997344971e+00" cType="0" res="5.4743534326553345e-01" rms="4.9774479866027832e-01" purity="1.0000000000000000e+00" nType="0">
          <Node pos="l" depth="2" NCoef="0" IVar="-1" Cut="0.0000000000000000e+00" cType="1" res="5.7752156257629395e-01" rms="4.9395385384559631e-01" purity="1.0000000000000000e+00" nType="-99"/>
          <Node pos="r" depth="2" NCoef="0" IVar="-1" Cut="0.0000000000000000e+00" cType="1" res="3.0677205324172974e-01" rms="4.6115395426750183e-01" purity="1.0000000000000000e+00" nType="-99"/>
        </Node>
      </Node>
    </BinaryTree>
    <BinaryTree type="DecisionTree" boostWeight="1.5392431898345844e-02" itree="16">
      <Node pos="s" depth="0" NCoef="0" IVar="1" Cut="-3.0347406864166260e+00" cType="0" res="5.0212633609771729e-01" rms="4.9999547004699707e-01" purity="1.0000000000000000e+00" nType="0">
        <Node pos="l" depth="1" NCoef="0" IVar="3" Cut="-6.4584451913833618e-01" cType="0" res="5.4353648424148560e-01" rms="4.9810096621513367e-01" purity="1.0000000000000000e+00" nType="0">
          <Node pos="l" depth="2" NCoef="0" IVar="-1" Cut="0.0000000000000000e+00" cType="1" res="4.9156409502029419e-01" rms="4.9992883205413818e-01" purity="1.0000000000000000e+00" nType="-99"/>
          <Node pos="r" depth="2" NCoef="0" IVar="-1" Cut="0.0000000000000000e+00" cType="1" res="6.4245635271072388e-01" rms="4.7927674651145935e-01" purity="1.0000000000000000e+00" nType="-99"/>
        </Node>
        <Node pos="r" depth="1" NCoef="0" IVar="2" Cut="3.2219916582107544e-01" cType="0" res="3.9373961091041565e-01" rms="4.8857825994491577e-01" purity="1.0000000000000000e+00" nType="0">
          <Node pos="l" depth="2" NCoef="0" IVar="-1" Cut="0.0000000000000000e+00" cType="1" res="5.0041711330413818e-01" rms="4.9999982118606567e-01" purity="1.0000000000000000e+00" nType="-99"/>
          <Node pos="r" depth="2" NCoef="0" IVar="-1" Cut="0.0000000000000000e+00" cType="1" res="2.9956901073455811e-01" rms="4.5806923508644104e-01" purity="1.0000000000000000e+00" nType="-99"/>
        </Node>
      </Node>
    </BinaryTree>
    <BinaryTree type="DecisionTree" boostWeight="6.6551627455793240e-03" itree="17">
      <Node pos="s" depth="0" NCoef="0" IVar="3" Cut="1.1845899820327759e+00" cType="0" res="5.0210386514663696e-01" rms="4.9999555945396423e-01" purity="1.0000000000000000e+00" nType="0">
        <Node pos="l" depth="1" NCoef="0" IVar="2" Cut="3.8153169155120850e+00" cType="0" res="4.0382346510887146e-01" rms="4.9066290259361267e-01" purity="1.0000000000000000e+00" nType="0">
          <Node pos="l" depth="2" NCoef="0" IVar="-1" Cut="0.0000000000000000e+00" cType="1" res="6.3102453947067261e-01" rms="4.8252728581428528e-01" purity="1.0000000000000000e+00" nType="-99"/>
          <Node pos="r" depth="2" NCoef="0" IVar="-1" Cut="0.0000000000000000e+00" cType="1" res="3.5265883803367615e-01" rms="4.7779762744903564e-01" purity="1.0000000000000000e+00" nType="-99"/>
        </Node>
        <Node pos="r" depth="1" NCoef="0" IVar="2" Cut="-3.9842483997344971e+00" cType="0" res="5.4699331521987915e-01" rms="4.9778673052787781e-01" purity="1.0000000000000000e+00" nType="0">
          <Node pos="l" depth="2" NCoef="0" IVar="-1" Cut="0.0000000000000000e+00" cType="1" res="5.7688784599304199e-01" rms="4.9405288696289062e-01" purity="1.0000000000000000e+00" nType="-99"/>
          <Node pos="r" depth="2" NCoef="0" IVar="-1" Cut="0.0000000000000000e+00" cType="1" res="3.0763375759124756e-01" rms="4.6151405572891235e-01" purity="1.0000000000000000e+00" nType="-99"/>
        </Node>
      </Node>
    </BinaryTree>
    <BinaryTree type="DecisionTree" boostWeight="1.1648168529613031e-02" itree="18">
      <Node pos="s" depth="0" NCoef="0" IVar="1" Cut="-3.0347406864166260e+00" cType="0" res="5.0209426879882812e-01" rms="4.9999561905860901e-01" purity="1.0000000000000000e+00" nType="0">
        <Node pos="l" depth="1" NCoef="0" IVar="3" Cut="-6.4584451913833618e-01" cType="0" res="5.4307371377944946e-01" rms="4.9814119935035706e-01" purity="1.0000000000000000e+00" nType="0">
          <Node pos="l" depth="2" NCoef="0" IVar="-1" Cut="0.0000000000000000e+00" cType="1" res="4.9173611402511597e-01" rms="4.9993169307708740e-01" purity="1.0000000000000000e+00" nType="-99"/>
          <Node pos="r" depth="2" NCoef="0" IVar="-1" Cut="0.0000000000000000e+00" cType="1" res="6.4088058471679688e-01" rms="4.7974228858947754e-01" purity="1.0000000000000000e+00" nType="-99"/>
        </Node>
        <Node pos="r" depth="1" NCoef="0" IVar="2" Cut="3.2219916582107544e-01" cType="0" res="3.9475136995315552e-01" rms="4.8879721760749817e-01" purity="1.0000000000000000e+00" nType="0">
          <Node pos="l" depth="2" NCoef="0" IVar="-1" Cut="0.0000000000000000e+00" cType="1" res="5.0023573637008667e-01" rms="4.9999994039535522e-01" purity="1.0000000000000000e+00" nType="-99"/>
          <Node pos="r" depth="2" NCoef="0" IVar="-1" Cut="0.0000000000000000e+00" cType="1" res="3.0145880579948425e-01" rms="4.5889148116111755e-01" purity="1.0000000000000000e+00" nType="-99"/>
        </Node>
      </Node>
    </BinaryTree>
    <BinaryTree type="DecisionTree" boostWeight="5.1513559953691428e-03" itree="19">
      <Node pos="s" depth="0" NCoef="0" IVar="3" Cut="1.1845899820327759e+00" cType="0" res="5.0207746028900146e-01" rms="4.9999567866325378e-01" purity="1.0000000000000000e+00" nType="0">
        <Node pos="l" depth="1" NCoef="0" IVar="2" Cut="3.8153169155120850e+00" cType="0" res="4.0445926785469055e-01" rms="4.9078708887100220e-01" purity="1.0000000000000000e+00" nType="0">
          <Node pos="l" depth="2" NCoef="0" IVar="-1" Cut="0.0000000000000000e+00" cType="1" res="6.3048249483108521e-01" rms="4.8267415165901184e-01" purity="1.0000000000000000e+00" nType="-99"/>
          <Node pos="r" depth="2" NCoef="0" IVar="-1" Cut="0.0000000000000000e+00" cType="1" res="3.5353365540504456e-01" rms="4.7806653380393982e-01" purity="1.0000000000000000e+00" nType="-99"/>
        </Node>
        <Node pos="r" depth="1" NCoef="0" IVar="2" Cut="-3.9842483997344971e+00" cType="0" res="5.4665660858154297e-01" rms="4.9781841039657593e-01" purity="1.0000000000000000e+00" nType="0">
          <Node pos="l" depth="2" NCoef="0" IVar="-1" Cut="0.0000000000000000e+00" cType="1" res="5.7640349864959717e-01" rms="4.9412801861763000e-01" purity="1.0000000000000000e+00" nType="-99"/>
          <Node pos="r" depth="2" NCoef="0" IVar="-1" Cut="0.0000000000000000e+00" cType="1" res="3.0830383300781250e-01" rms="4.6179279685020447e-01" purity="1.0000000000000000e+00" nType="-99"/>
        </Node>
      </Node>
    </BinaryTree>
    <BinaryTree type="DecisionTree" boostWeight="8.8076182794047837e-03" itree="20">
      <Node pos="s" depth="0" NCoef="0" IVar="1" Cut="-3.0347406864166260e+00" cType="0" res="5.0207012891769409e-01" rms="4.9999570846557617e-01" purity="1.0000000000000000e+00" nType="0">
        <Node pos="l" depth="1" NCoef="0" IVar="3" Cut="-6.4584451913833618e-01" cType="0" res="5.4272621870040894e-01" rms="4.9817112088203430e-01" purity="1.0000000000000000e+00" nType="0">
          <Node pos="l" depth="2" NCoef="0" IVar="-1" Cut="0.0000000000000000e+00" cType="1" res="4.9186611175537109e-01" rms="4.9993383884429932e-01" purity="1.0000000000000000e+00" nType="-99"/>
          <Node pos="r" depth="2" NCoef="0" IVar="-1" Cut="0.0000000000000000e+00" cType="1" res="6.3969373703002930e-01" rms="4.8008921742439270e-01" purity="1.0000000000000000e+00" nType="-99"/>
        </Node>
        <Node pos="r" depth="1" NCoef="0" IVar="2" Cut="3.2219916582107544e-01" cType="0" res="3.9551210403442383e-01" rms="4.8896041512489319e-01" purity="1.0000000000000000e+00" nType="0">
          <Node pos="l" depth="2" NCoef="0" IVar="-1" Cut="0.0000000000000000e+00" cType="1" res="5.0009745359420776e-01" rms="5.0000000000000000e-01" purity="1.0000000000000000e+00" nType="-99"/>
          <Node pos="r" depth="2" NCoef="0" IVar="-1" Cut="0.0000000000000000e+00" cType="1" res="3.0288460850715637e-01" rms="4.5950573682785034e-01" purity="1.0000000000000000e+00" nType="-99"/>
        </Node>
      </Node>
    </BinaryTree>
    <BinaryTree type="DecisionTree" boostWeight="3.9845631254838941e-03" itree="21">
      <Node pos="s" depth="0" NCoef="0" IVar="3" Cut="1.1845899820327759e+00" cType="0" res="5.0205755233764648e-01" rms="4.9999576807022095e-01" purity="1.0000000000000000e+00" nType="0">
        <Node pos="l" depth="1" NCoef="0" IVar="2" Cut="3.8153169155120850e+00" cType="0" res="4.0494489669799805e-01" rms="4.9088138341903687e-01" purity="1.0000000000000000e+00" nType="0">
          <Node pos="l" depth="2" NCoef="0" IVar="-1" Cut="0.0000000000000000e+00" cType="1" res="6.3006305694580078e-01" rms="4.8278731107711792e-01" purity="1.0000000000000000e+00" nType="-99"/>
          <Node pos="r" depth="2" NCoef="0" IVar="-1" Cut="0.0000000000000000e+00" cType="1" res="3.5420355200767517e-01" rms="4.7827124595642090e-01" purity="1.0000000000000000e+00" nType="-99"/>
        </Node>
        <Node pos="r" depth="1" NCoef="0" IVar="2" Cut="-3.9842483997344971e+00" cType="0" res="5.4639977216720581e-01" rms="4.9784240126609802e-01" purity="1.0000000000000000e+00" nType="0">
          <Node pos="l" depth="2" NCoef="0" IVar="-1" Cut="0.0000000000000000e+00" cType="1" res="5.7603287696838379e-01" rms="4.9418517947196960e-01" purity="1.0000000000000000e+00" nType="-99"/>
          <Node pos="r" depth="2" NCoef="0" IVar="-1" Cut="0.0000000000000000e+00" cType="1" res="3.0882439017295837e-01" rms="4.6200853586196899e-01" purity="1.0000000000000000e+00" nType="-99"/>
        </Node>
      </Node>
    </BinaryTree>
    <BinaryTree type="DecisionTree" boostWeight="2.9996732523093201e-03" itree="22">
      <Node pos="s" depth="0" NCoef="0" IVar="3" Cut="1.1845899820327759e+00" cType="0" res="5.0205188989639282e-01" rms="4.9999579787254333e-01" purity="1.0000000000000000e+00" nType="0">
        <Node pos="l" depth="1" NCoef="0" IVar="2" Cut="3.8153169155120850e+00" cType="0" res="4.0519654750823975e-01" rms="4.9093005061149597e-01" purity="1.0000000000000000e+00" nType="0">
          <Node pos="l" depth="2" NCoef="0" IVar="-1" Cut="0.0000000000000000e+00" cType="1" res="6.2971347570419312e-01" rms="4.8288136720657349e-01" purity="1.0000000000000000e+00" nType="-99"/>
          <Node pos="r" depth="2" NCoef="0" IVar="-1" Cut="0.0000000000000000e+00" cType="1" res="3.5458818078041077e-01" rms="4.7838833928108215e-01" purity="1.0000000000000000e+00" nType="-99"/>
        </Node>
        <Node pos="r" depth="1" NCoef="0" IVar="2" Cut="-3.9842483997344971e+00" cType="0" res="5.4627090692520142e-01" rms="4.9785441160202026e-01" purity="1.0000000000000000e+00" nType="0">
          <Node pos="l" depth="2" NCoef="0" IVar="-1" Cut="0.0000000000000000e+00" cType="1" res="5.7581877708435059e-01" rms="4.9421808123588562e-01" purity="1.0000000000000000e+00" nType="-99"/>
          <Node pos="r" depth="2" NCoef="0" IVar="-1" Cut="0.0000000000000000e+00" cType="1" res="3.0929508805274963e-01" rms="4.6220302581787109e-01" purity="1.0000000000000000e+00" nType="-99"/>
        </Node>
      </Node>
    </BinaryTree>
    <BinaryTree type="DecisionTree" boostWeight="6.6111985990017904e-03" itree="23">
      <Node pos="s" depth="0" NCoef="0" IVar="1" Cut="-3.0347406864166260e+00" cType="0" res="5.0204765796661377e-01" rms="4.9999579787254333e-01" purity="1.0000000000000000e+00" nType="0">
        <Node pos="l" depth="1" NCoef="0" IVar="3" Cut="-6.4584451913833618e-01" cType="0" res="5.4246598482131958e-01" rms="4.9819338321685791e-01" purity="1.0000000000000000e+00" nType="0">
          <Node pos="l" depth="2" NCoef="0" IVar="-1" Cut="0.0000000000000000e+00" cType="1" res="4.9199998378753662e-01" rms="4.9993598461151123e-01" purity="1.0000000000000000e+00" nType="-99"/>
          <Node pos="r" depth="2" NCoef="0" IVar="-1" Cut="0.0000000000000000e+00" cType="1" res="6.3873839378356934e-01" rms="4.8036617040634155e-01" purity="1.0000000000000000e+00" nType="-99"/>
        </Node>
        <Node pos="r" depth="1" NCoef="0" IVar="2" Cut="3.2219916582107544e-01" cType="0" res="3.9605900645256042e-01" rms="4.8907694220542908e-01" purity="1.0000000000000000e+00" nType="0">
          <Node pos="l" depth="2" NCoef="0" IVar="-1" Cut="0.0000000000000000e+00" cType="1" res="4.9991273880004883e-01" rms="5.0000000000000000e-01" purity="1.0000000000000000e+00" nType="-99"/>
          <Node pos="r" depth="2" NCoef="0" IVar="-1" Cut="0.0000000000000000e+00" cType="1" res="3.0397766828536987e-01" rms="4.5997309684753418e-01" purity="1.0000000000000000e+00" nType="-99"/>
        </Node>
      </Node>
    </BinaryTree>
    <BinaryTree type="DecisionTree" boostWeight="1.1041653102206185e-01" itree="24">
      <Node pos="s" depth="0" NCoef="0" IVar="1" Cut="-8.1019487380981445e+00" cType="0" res="5.0203830003738403e-01" rms="4.9999585747718811e-01" purity="1.0000000000000000e+00" nType="0">
        <Node pos="l" depth="1" NCoef="0" IVar="1" Cut="9.8816127777099609e+00" cType="0" res="5.1851749420166016e-01" rms="4.9965697526931763e-01" purity="1.0000000000000000e+00" nType="0">
          <Node pos="l" depth="2" NCoef="0" IVar="-1" Cut="0.0000000000000000e+00" cType="1" res="7.6859140396118164e-01" rms="4.2173293232917786e-01" purity="1.0000000000000000e+00" nType="-99"/>
          <Node pos="r" depth="2" NCoef="0" IVar="-1" Cut="0.0000000000000000e+00" cType="1" res="5.0100117921829224e-01" rms="4.9999898672103882e-01" purity="1.0000000000000000e+00" nType="-99"/>
        </Node>
        <Node pos="r" depth="1" NCoef="0" IVar="-1" Cut="0.0000000000000000e+00" cType="1" res="2.4343031644821167e-01" rms="4.2915263772010803e-01" purity="1.0000000000000000e+00" nType="-99"/>
      </Node>
    </BinaryTree>
    <BinaryTree type="DecisionTree" boostWeight="6.3363596833984647e-04" itree="25">
      <Node pos="s" depth="0" NCoef="0" IVar="3" Cut="1.1845899820327759e+00" cType="0" res="5.0189810991287231e-01" rms="4.9999639391899109e-01" purity="1.0000000000000000e+00" nType="0">
        <Node pos="l" depth="1" NCoef="0" IVar="2" Cut="3.8153169155120850e+00" cType="0" res="4.0529218316078186e-01" rms="4.9094849824905396e-01" purity="1.0000000000000000e+00" nType="0">
          <Node pos="l" depth="2" NCoef="0" IVar="-1" Cut="0.0000000000000000e+00" cType="1" res="6.2920427322387695e-01" rms="4.8301786184310913e-01" purity="1.0000000000000000e+00" nType="-99"/>
          <Node pos="r" depth="2" NCoef="0" IVar="-1" Cut="0.0000000000000000e+00" cType="1" res="3.5467007756233215e-01" rms="4.7841322422027588e-01" purity="1.0000000000000000e+00" nType="-99"/>
        </Node>
        <Node pos="r" depth="1" NCoef="0" IVar="2" Cut="-3.9842483997344971e+00" cType="0" res="5.4604649543762207e-01" rms="4.9787521362304688e-01" purity="1.0000000000000000e+00" nType="0">
          <Node pos="l" depth="2" NCoef="0" IVar="-1" Cut="0.0000000000000000e+00" cType="1" res="5.7533580064773560e-01" rms="4.9429193139076233e-01" purity="1.0000000000000000e+00" nType="-99"/>
          <Node pos="r" depth="2" NCoef="0" IVar="-1" Cut="0.0000000000000000e+00" cType="1" res="3.1051838397979736e-01" rms="4.6270588040351868e-01" purity="1.0000000000000000e+00" nType="-99"/>
        </Node>
      </Node>
    </BinaryTree>
    <BinaryTree type="DecisionTree" boostWeight="4.7667050117186269e-04" itree="26">
      <Node pos="s" depth="0" NCoef="0" IVar="3" Cut="1.1845899820327759e+00" cType="0" res="5.0189727544784546e-01" rms="4.9999639391899109e-01" purity="1.0000000000000000e+00" nType="0">
        <Node pos="l" depth="1" NCoef="0" IVar="2" Cut="3.8153169155120850e+00" cType="0" res="4.0533217787742615e-01" rms="4.9095621705055237e-01" purity="1.0000000000000000e+00" nType="0">
          <Node pos="l" depth="2" NCoef="0" IVar="-1" Cut="0.0000000000000000e+00" cType="1" res="6.2914884090423584e-01" rms="4.8303267359733582e-01" purity="1.0000000000000000e+00" nType="-99"/>
          <Node pos="r" depth="2" NCoef="0" IVar="-1" Cut="0.0000000000000000e+00" cType="1" res="3.5473123192787170e-01" rms="4.7843179106712341e-01" purity="1.0000000000000000e+00" nType="-99"/>
        </Node>
        <Node pos="r" depth="1" NCoef="0" IVar="2" Cut="-3.9842483997344971e+00" cType="0" res="5.4602611064910889e-01" rms="4.9787709116935730e-01" purity="1.0000000000000000e+00" nType="0">
          <Node pos="l" depth="2" NCoef="0" IVar="-1" Cut="0.0000000000000000e+00" cType="1" res="5.7530194520950317e-01" rms="4.9429708719253540e-01" purity="1.0000000000000000e+00" nType="-99"/>
          <Node pos="r" depth="2" NCoef="0" IVar="-1" Cut="0.0000000000000000e+00" cType="1" res="3.1059297919273376e-01" rms="4.6273639798164368e-01" purity="1.0000000000000000e+00" nType="-99"/>
        </Node>
      </Node>
    </BinaryTree>
    <BinaryTree type="DecisionTree" boostWeight="3.5866781517697823e-04" itree="27">
      <Node pos="s" depth="0" NCoef="0" IVar="3" Cut="1.1845899820327759e+00" cType="0" res="5.0189667940139771e-01" rms="4.9999639391899109e-01" purity="1.0000000000000000e+00" nType="0">
        <Node pos="l" depth="1" NCoef="0" IVar="2" Cut="3.8153169155120850e+00" cType="0" res="4.0536224842071533e-01" rms="4.9096199870109558e-01" purity="1.0000000000000000e+00" nType="0">
          <Node pos="l" depth="2" NCoef="0" IVar="-1" Cut="0.0000000000000000e+00" cType="1" res="6.2910717725753784e-01" rms="4.8304381966590881e-01" purity="1.0000000000000000e+00" nType="-99"/>
          <Node pos="r" depth="2" NCoef="0" IVar="-1" Cut="0.0000000000000000e+00" cType="1" res="3.5477721691131592e-01" rms="4.7844576835632324e-01" purity="1.0000000000000000e+00" nType="-99"/>
        </Node>
        <Node pos="r" depth="1" NCoef="0" IVar="2" Cut="-3.9842483997344971e+00" cType="0" res="5.4601079225540161e-01" rms="4.9787852168083191e-01" purity="1.0000000000000000e+00" nType="0">
          <Node pos="l" depth="2" NCoef="0" IVar="-1" Cut="0.0000000000000000e+00" cType="1" res="5.7527655363082886e-01" rms="4.9430096149444580e-01" purity="1.0000000000000000e+00" nType="-99"/>
          <Node pos="r" depth="2" NCoef="0" IVar="-1" Cut="0.0000000000000000e+00" cType="1" res="3.1064903736114502e-01" rms="4.6275934576988220e-01" purity="1.0000000000000000e+00" nType="-99"/>
        </Node>
      </Node>
    </BinaryTree>
    <BinaryTree type="DecisionTree" boostWeight="2.6983099434586838e-04" itree="28">
      <Node pos="s" depth="0" NCoef="0" IVar="3" Cut="1.1845899820327759e+00" cType="0" res="5.0189620256423950e-01" rms="4.9999639391899109e-01" purity="1.0000000000000000e+00" nType="0">
        <Node pos="l" depth="1" NCoef="0" IVar="2" Cut="3.8153169155120850e+00" cType="0" res="4.0538486838340759e-01" rms="4.9096637964248657e-01" purity="1.0000000000000000e+00" nType="0">
          <Node pos="l" depth="2" NCoef="0" IVar="-1" Cut="0.0000000000000000e+00" cType="1" res="6.2907582521438599e-01" rms="4.8305219411849976e-01" purity="1.0000000000000000e+00" nType="-99"/>
          <Node pos="r" depth="2" NCoef="0" IVar="-1" Cut="0.0000000000000000e+00" cType="1" res="3.5481178760528564e-01" rms="4.7845625877380371e-01" purity="1.0000000000000000e+00" nType="-99"/>
        </Node>
        <Node pos="r" depth="1" NCoef="0" IVar="2" Cut="-3.9842483997344971e+00" cType="0" res="5.4599922895431519e-01" rms="4.9787956476211548e-01" purity="1.0000000000000000e+00" nType="0">
          <Node pos="l" depth="2" NCoef="0" IVar="-1" Cut="0.0000000000000000e+00" cType="1" res="5.7525736093521118e-01" rms="4.9430388212203979e-01" purity="1.0000000000000000e+00" nType="-99"/>
          <Node pos="r" depth="2" NCoef="0" IVar="-1" Cut="0.0000000000000000e+00" cType="1" res="3.1069123744964600e-01" rms="4.6277660131454468e-01" purity="1.0000000000000000e+00" nType="-99"/>
        </Node>
      </Node>
    </BinaryTree>
    <BinaryTree type="DecisionTree" boostWeight="2.0300503300490344e-04" itree="29">
      <Node pos="s" depth="0" NCoef="0" IVar="3" Cut="1.1845899820327759e+00" cType="0" res="5.0189584493637085e-01" rms="4.9999639391899109e-01" purity="1.0000000000000000e+00" nType="0">
        <Node pos="l" depth="1" NCoef="0" IVar="2" Cut="3.8153169155120850e+00" cType="0" res="4.0540188550949097e-01" rms="4.9096965789794922e-01" purity="1.0000000000000000e+00" nType="0">
          <Node pos="l" depth="2" NCoef="0" IVar="-1" Cut="0.0000000000000000e+00" cType="1" res="6.2905228137969971e-01" rms="4.8305848240852356e-01" purity="1.0000000000000000e+00" nType="-99"/>
          <Node pos="r" depth="2" NCoef="0" IVar="-1" Cut="0.0000000000000000e+00" cType="1" res="3.5483780503273010e-01" rms="4.7846415638923645e-01" purity="1.0000000000000000e+00" nType="-99"/>
        </Node>
        <Node pos="r" depth="1" NCoef="0" IVar="2" Cut="-3.9842483997344971e+00" cType="0" res="5.4599058628082275e-01" rms="4.9788036942481995e-01" purity="1.0000000000000000e+00" nType="0">
          <Node pos="l" depth="2" NCoef="0" IVar="-1" Cut="0.0000000000000000e+00" cType="1" res="5.7524299621582031e-01" rms="4.9430605769157410e-01" purity="1.0000000000000000e+00" nType="-99"/>
          <Node pos="r" depth="2" NCoef="0" IVar="-1" Cut="0.0000000000000000e+00" cType="1" res="3.1072297692298889e-01" rms="4.6278959512710571e-01" purity="1.0000000000000000e+00" nType="-99"/>
        </Node>
      </Node>
    </BinaryTree>
    <BinaryTree type="DecisionTree" boostWeight="1.5268582824796094e-04" itree="30">
      <Node pos="s" depth="0" NCoef="0" IVar="3" Cut="1.1845899820327759e+00" cType="0" res="5.0189560651779175e-01" rms="4.9999639391899109e-01" purity="1.0000000000000000e+00" nType="0">
        <Node pos="l" depth="1" NCoef="0" IVar="2" Cut="3.8153169155120850e+00" cType="0" res="4.0541470050811768e-01" rms="4.9097213149070740e-01" purity="1.0000000000000000e+00" nType="0">
          <Node pos="l" depth="2" NCoef="0" IVar="-1" Cut="0.0000000000000000e+00" cType="1" res="6.2903451919555664e-01" rms="4.8306322097778320e-01" purity="1.0000000000000000e+00" nType="-99"/>
          <Node pos="r" depth="2" NCoef="0" IVar="-1" Cut="0.0000000000000000e+00" cType="1" res="3.5485738515853882e-01" rms="4.7847008705139160e-01" purity="1.0000000000000000e+00" nType="-99"/>
        </Node>
        <Node pos="r" depth="1" NCoef="0" IVar="2" Cut="-3.9842483997344971e+00" cType="0" res="5.4598402976989746e-01" rms="4.9788096547126770e-01" purity="1.0000000000000000e+00" nType="0">
          <Node pos="l" depth="2" NCoef="0" IVar="-1" Cut="0.0000000000000000e+00" cType="1" res="5.7523214817047119e-01" rms="4.9430772662162781e-01" purity="1.0000000000000000e+00" nType="-99"/>
          <Node pos="r" depth="2" NCoef="0" IVar="-1" Cut="0.0000000000000000e+00" cType="1" res="3.1074687838554382e-01" rms="4.6279937028884888e-01" purity="1.0000000000000000e+00" nType="-99"/>
        </Node>
      </Node>
    </BinaryTree>
    <BinaryTree type="DecisionTree" boostWeight="1.1489965569697392e-04" itree="31">
      <Node pos="s" depth="0" NCoef="0" IVar="3" Cut="1.1845899820327759e+00" cType="0" res="5.0189536809921265e-01" rms="4.9999639391899109e-01" purity="1.0000000000000000e+00" nType="0">
        <Node pos="l" depth="1" NCoef="0" IVar="2" Cut="3.8153169155120850e+00" cType="0" res="4.0542432665824890e-01" rms="4.9097397923469543e-01" purity="1.0000000000000000e+00" nType="0">
          <Node pos="l" depth="2" NCoef="0" IVar="-1" Cut="0.0000000000000000e+00" cType="1" res="6.2902116775512695e-01" rms="4.8306679725646973e-01" purity="1.0000000000000000e+00" nType="-99"/>
          <Node pos="r" depth="2" NCoef="0" IVar="-1" Cut="0.0000000000000000e+00" cType="1" res="3.5487210750579834e-01" rms="4.7847455739974976e-01" purity="1.0000000000000000e+00" nType="-99"/>
        </Node>
        <Node pos="r" depth="1" NCoef="0" IVar="2" Cut="-3.9842483997344971e+00" cType="0" res="5.4597914218902588e-01" rms="4.9788144230842590e-01" purity="1.0000000000000000e+00" nType="0">
          <Node pos="l" depth="2" NCoef="0" IVar="-1" Cut="0.0000000000000000e+00" cType="1" res="5.7522404193878174e-01" rms="4.9430894851684570e-01" purity="1.0000000000000000e+00" nType="-99"/>
          <Node pos="r" depth="2" NCoef="0" IVar="-1" Cut="0.0000000000000000e+00" cType="1" res="3.1076481938362122e-01" rms="4.6280670166015625e-01" purity="1.0000000000000000e+00" nType="-99"/>
        </Node>
      </Node>
    </BinaryTree>
    <BinaryTree type="DecisionTree" boostWeight="8.6412497719295722e-05" itree="32">
      <Node pos="s" depth="0" NCoef="0" IVar="3" Cut="1.1845899820327759e+00" cType="0" res="5.0189524888992310e-01" rms="4.9999639391899109e-01" purity="1.0000000000000000e+00" nType="0">
        <Node pos="l" depth="1" NCoef="0" IVar="2" Cut="3.8153169155120850e+00" cType="0" res="4.0543156862258911e-01" rms="4.9097537994384766e-01" purity="1.0000000000000000e+00" nType="0">
          <Node pos="l" depth="2" NCoef="0" IVar="-1" Cut="0.0000000000000000e+00" cType="1" res="6.2901115417480469e-01" rms="4.8306947946548462e-01" purity="1.0000000000000000e+00" nType="-99"/>
          <Node pos="r" depth="2" NCoef="0" IVar="-1" Cut="0.0000000000000000e+00" cType="1" res="3.5488319396972656e-01" rms="4.7847792506217957e-01" purity="1.0000000000000000e+00" nType="-99"/>
        </Node>
        <Node pos="r" depth="1" NCoef="0" IVar="2" Cut="-3.9842483997344971e+00" cType="0" res="5.4597544670104980e-01" rms="4.9788177013397217e-01" purity="1.0000000000000000e+00" nType="0">
          <Node pos="l" depth="2" NCoef="0" IVar="-1" Cut="0.0000000000000000e+00" cType="1" res="5.7521790266036987e-01" rms="4.9430990219116211e-01" purity="1.0000000000000000e+00" nType="-99"/>
          <Node pos="r" depth="2" NCoef="0" IVar="-1" Cut="0.0000000000000000e+00" cType="1" res="3.1077834963798523e-01" rms="4.6281224489212036e-01" purity="1.0000000000000000e+00" nType="-99"/>
        </Node>
      </Node>
    </BinaryTree>
    <BinaryTree type="DecisionTree" boostWeight="6.5010249088017779e-05" itree="33">
      <Node pos="s" depth="0" NCoef="0" IVar="3" Cut="1.1845899820327759e+00" cType="0" res="5.0189512968063354e-01" rms="4.9999639391899109e-01" purity="1.0000000000000000e+00" nType="0">
        <Node pos="l" depth="1" NCoef="0" IVar="2" Cut="3.8153169155120850e+00" cType="0" res="4.0543702244758606e-01" rms="4.9097642302513123e-01" purity="1.0000000000000000e+00" nType="0">
          <Node pos="l" depth="2" NCoef="0" IVar="-1" Cut="0.0000000000000000e+00" cType="1" res="6.2900358438491821e-01" rms="4.8307150602340698e-01" purity="1.0000000000000000e+00" nType="-99"/>
          <Node pos="r" depth="2" NCoef="0" IVar="-1" Cut="0.0000000000000000e+00" cType="1" res="3.5489150881767273e-01" rms="4.7848042845726013e-01" purity="1.0000000000000000e+00" nType="-99"/>
        </Node>
        <Node pos="r" depth="1" NCoef="0" IVar="2" Cut="-3.9842483997344971e+00" cType="0" res="5.4597264528274536e-01" rms="4.9788203835487366e-01" purity="1.0000000000000000e+00" nType="0">
          <Node pos="l" depth="2" NCoef="0" IVar="-1" Cut="0.0000000000000000e+00" cType="1" res="5.7521325349807739e-01" rms="4.9431058764457703e-01" purity="1.0000000000000000e+00" nType="-99"/>
          <Node pos="r" depth="2" NCoef="0" IVar="-1" Cut="0.0000000000000000e+00" cType="1" res="3.1078851222991943e-01" rms="4.6281638741493225e-01" purity="1.0000000000000000e+00" nType="-99"/>
        </Node>
      </Node>
    </BinaryTree>
    <BinaryTree type="DecisionTree" boostWeight="4.8936555624721824e-05" itree="34">
      <Node pos="s" depth="0" NCoef="0" IVar="3" Cut="1.1845899820327759e+00" cType="0" res="5.0189507007598877e-01" rms="4.9999639391899109e-01" purity="1.0000000000000000e+00" nType="0">
        <Node pos="l" depth="1" NCoef="0" IVar="2" Cut="3.8153169155120850e+00" cType="0" res="4.0544110536575317e-01" rms="4.9097719788551331e-01" purity="1.0000000000000000e+00" nType="0">
          <Node pos="l" depth="2" NCoef="0" IVar="-1" Cut="0.0000000000000000e+00" cType="1" res="6.2899792194366455e-01" rms="4.8307302594184875e-01" purity="1.0000000000000000e+00" nType="-99"/>
          <Node pos="r" depth="2" NCoef="0" IVar="-1" Cut="0.0000000000000000e+00" cType="1" res="3.5489779710769653e-01" rms="4.7848233580589294e-01" purity="1.0000000000000000e+00" nType="-99"/>
        </Node>
        <Node pos="r" depth="1" NCoef="0" IVar="2" Cut="-3.9842483997344971e+00" cType="0" res="5.4597055912017822e-01" rms="4.9788221716880798e-01" purity="1.0000000000000000e+00" nType="0">
          <Node pos="l" depth="2" NCoef="0" IVar="-1" Cut="0.0000000000000000e+00" cType="1" res="5.7520979642868042e-01" rms="4.9431112408638000e-01" purity="1.0000000000000000e+00" nType="-99"/>
          <Node pos="r" depth="2" NCoef="0" IVar="-1" Cut="0.0000000000000000e+00" cType="1" res="3.1079614162445068e-01" rms="4.6281951665878296e-01" purity="1.0000000000000000e+00" nType="-99"/>
        </Node>
      </Node>
    </BinaryTree>
    <BinaryTree type="DecisionTree" boostWeight="3.6821487586084421e-05" itree="35">
      <Node pos="s" depth="0" NCoef="0" IVar="3" Cut="1.1845899820327759e+00" cType="0" res="5.0189495086669922e-01" rms="4.9999642372131348e-01" purity="1.0000000000000000e+00" nType="0">
        <Node pos="l" depth="1" NCoef="0" IVar="2" Cut="3.8153169155120850e+00" cType="0" res="4.0544420480728149e-01" rms="4.9097779393196106e-01" purity="1.0000000000000000e+00" nType="0">
          <Node pos="l" depth="2" NCoef="0" IVar="-1" Cut="0.0000000000000000e+00" cType="1" res="6.2899363040924072e-01" rms="4.8307415843009949e-01" purity="1.0000000000000000e+00" nType="-99"/>
          <Node pos="r" depth="2" NCoef="0" IVar="-1" Cut="0.0000000000000000e+00" cType="1" res="3.5490250587463379e-01" rms="4.7848376631736755e-01" purity="1.0000000000000000e+00" nType="-99"/>
        </Node>
        <Node pos="r" depth="1" NCoef="0" IVar="2" Cut="-3.9842483997344971e+00" cType="0" res="5.4596900939941406e-01" rms="4.9788236618041992e-01" purity="1.0000000000000000e+00" nType="0">
          <Node pos="l" depth="2" NCoef="0" IVar="-1" Cut="0.0000000000000000e+00" cType="1" res="5.7520723342895508e-01" rms="4.9431151151657104e-01" purity="1.0000000000000000e+00" nType="-99"/>
          <Node pos="r" depth="2" NCoef="0" IVar="-1" Cut="0.0000000000000000e+00" cType="1" res="3.1080189347267151e-01" rms="4.6282187104225159e-01" purity="1.0000000000000000e+00" nType="-99"/>
        </Node>
      </Node>
    </BinaryTree>
    <BinaryTree type="DecisionTree" boostWeight="2.7665082225262129e-05" itree="36">
      <Node pos="s" depth="0" NCoef="0" IVar="3" Cut="1.1845899820327759e+00" cType="0" res="5.0189495086669922e-01" rms="4.9999642372131348e-01" purity="1.0000000000000000e+00" nType="0">
        <Node pos="l" depth="1" NCoef="0" IVar="2" Cut="3.8153169155120850e+00" cType="0" res="4.0544652938842773e-01" rms="4.9097824096679688e-01" purity="1.0000000000000000e+00" nType="0">
          <Node pos="l" depth="2" NCoef="0" IVar="-1" Cut="0.0000000000000000e+00" cType="1" res="6.2899041175842285e-01" rms="4.8307502269744873e-01" purity="1.0000000000000000e+00" nType="-99"/>
          <Node pos="r" depth="2" NCoef="0" IVar="-1" Cut="0.0000000000000000e+00" cType="1" res="3.5490605235099792e-01" rms="4.7848483920097351e-01" purity="1.0000000000000000e+00" nType="-99"/>
        </Node>
        <Node pos="r" depth="1" NCoef="0" IVar="2" Cut="-3.9842483997344971e+00" cType="0" res="5.4596781730651855e-01" rms="4.9788248538970947e-01" purity="1.0000000000000000e+00" nType="0">
          <Node pos="l" depth="2" NCoef="0" IVar="-1" Cut="0.0000000000000000e+00" cType="1" res="5.7520526647567749e-01" rms="4.9431180953979492e-01" purity="1.0000000000000000e+00" nType="-99"/>
          <Node pos="r" depth="2" NCoef="0" IVar="-1" Cut="0.0000000000000000e+00" cType="1" res="3.1080624461174011e-01" rms="4.6282362937927246e-01" purity="1.0000000000000000e+00" nType="-99"/>
        </Node>
      </Node>
    </BinaryTree>
    <BinaryTree type="DecisionTree" boostWeight="2.0821544940050224e-05" itree="37">
      <Node pos="s" depth="0" NCoef="0" IVar="3" Cut="1.1845899820327759e+00" cType="0" res="5.0189489126205444e-01" rms="4.9999642372131348e-01" purity="1.0000000000000000e+00" nType="0">
        <Node pos="l" depth="1" NCoef="0" IVar="2" Cut="3.8153169155120850e+00" cType="0" res="4.0544825792312622e-01" rms="4.9097856879234314e-01" purity="1.0000000000000000e+00" nType="0">
          <Node pos="l" depth="2" NCoef="0" IVar="-1" Cut="0.0000000000000000e+00" cType="1" res="6.2898802757263184e-01" rms="4.8307564854621887e-01" purity="1.0000000000000000e+00" nType="-99"/>
          <Node pos="r" depth="2" NCoef="0" IVar="-1" Cut="0.0000000000000000e+00" cType="1" res="3.5490873456001282e-01" rms="4.7848564386367798e-01" purity="1.0000000000000000e+00" nType="-99"/>
        </Node>
        <Node pos="r" depth="1" NCoef="0" IVar="2" Cut="-3.9842483997344971e+00" cType="0" res="5.4596692323684692e-01" rms="4.9788254499435425e-01" purity="1.0000000000000000e+00" nType="0">
          <Node pos="l" depth="2" NCoef="0" IVar="-1" Cut="0.0000000000000000e+00" cType="1" res="5.7520377635955811e-01" rms="4.9431204795837402e-01" purity="1.0000000000000000e+00" nType="-99"/>
          <Node pos="r" depth="2" NCoef="0" IVar="-1" Cut="0.0000000000000000e+00" cType="1" res="3.1080949306488037e-01" rms="4.6282497048377991e-01" purity="1.0000000000000000e+00" nType="-99"/>
        </Node>
      </Node>
    </BinaryTree>
    <BinaryTree type="DecisionTree" boostWeight="1.5672755230663575e-05" itree="38">
      <Node pos="s" depth="0" NCoef="0" IVar="3" Cut="1.1845899820327759e+00" cType="0" res="5.0189489126205444e-01" rms="4.9999642372131348e-01" purity="1.0000000000000000e+00" nType="0">
        <Node pos="l" depth="1" NCoef="0" IVar="2" Cut="3.8153169155120850e+00" cType="0" res="4.0544956922531128e-01" rms="4.9097883701324463e-01" purity="1.0000000000000000e+00" nType="0">
          <Node pos="l" depth="2" NCoef="0" IVar="-1" Cut="0.0000000000000000e+00" cType="1" res="6.2898617982864380e-01" rms="4.8307615518569946e-01" purity="1.0000000000000000e+00" nType="-99"/>
          <Node pos="r" depth="2" NCoef="0" IVar="-1" Cut="0.0000000000000000e+00" cType="1" res="3.5491073131561279e-01" rms="4.7848626971244812e-01" purity="1.0000000000000000e+00" nType="-99"/>
        </Node>
        <Node pos="r" depth="1" NCoef="0" IVar="2" Cut="-3.9842483997344971e+00" cType="0" res="5.4596626758575439e-01" rms="4.9788263440132141e-01" purity="1.0000000000000000e+00" nType="0">
          <Node pos="l" depth="2" NCoef="0" IVar="-1" Cut="0.0000000000000000e+00" cType="1" res="5.7520264387130737e-01" rms="4.9431219696998596e-01" purity="1.0000000000000000e+00" nType="-99"/>
          <Node pos="r" depth="2" NCoef="0" IVar="-1" Cut="0.0000000000000000e+00" cType="1" res="3.1081193685531616e-01" rms="4.6282598376274109e-01" purity="1.0000000000000000e+00" nType="-99"/>
        </Node>
      </Node>
    </BinaryTree>
    <BinaryTree type="DecisionTree" boostWeight="1.1782764491748914e-05" itree="39">
      <Node pos="s" depth="0" NCoef="0" IVar="3" Cut="1.1845899820327759e+00" cType="0" res="5.0189483165740967e-01" rms="4.9999642372131348e-01" purity="1.0000000000000000e+00" nType="0">
        <Node pos="l" depth="1" NCoef="0" IVar="2" Cut="3.8153169155120850e+00" cType="0" res="4.0545055270195007e-01" rms="4.9097901582717896e-01" purity="1.0000000000000000e+00" nType="0">
          <Node pos="l" depth="2" NCoef="0" IVar="-1" Cut="0.0000000000000000e+00" cType="1" res="6.2898480892181396e-01" rms="4.8307651281356812e-01" purity="1.0000000000000000e+00" nType="-99"/>
          <Node pos="r" depth="2" NCoef="0" IVar="-1" Cut="0.0000000000000000e+00" cType="1" res="3.5491225123405457e-01" rms="4.7848671674728394e-01" purity="1.0000000000000000e+00" nType="-99"/>
        </Node>
        <Node pos="r" depth="1" NCoef="0" IVar="2" Cut="-3.9842483997344971e+00" cType="0" res="5.4596573114395142e-01" rms="4.9788266420364380e-01" purity="1.0000000000000000e+00" nType="0">
          <Node pos="l" depth="2" NCoef="0" IVar="-1" Cut="0.0000000000000000e+00" cType="1" res="5.7520180940628052e-01" rms="4.9431234598159790e-01" purity="1.0000000000000000e+00" nType="-99"/>
          <Node pos="r" depth="2" NCoef="0" IVar="-1" Cut="0.0000000000000000e+00" cType="1" res="3.1081378459930420e-01" rms="4.6282672882080078e-01" purity="1.0000000000000000e+00" nType="-99"/>
        </Node>
      </Node>
    </BinaryTree>
    <BinaryTree type="DecisionTree" boostWeight="8.8899926614201859e-06" itree="40">
      <Node pos="s" depth="0" NCoef="0" IVar="3" Cut="1.1845899820327759e+00" cType="0" res="5.0189483165740967e-01" rms="4.9999642372131348e-01" purity="1.0000000000000000e+00" nType="0">
        <Node pos="l" depth="1" NCoef="0" IVar="2" Cut="3.8153169155120850e+00" cType="0" res="4.0545129776000977e-01" rms="4.9097916483879089e-01" purity="1.0000000000000000e+00" nType="0">
          <Node pos="l" depth="2" NCoef="0" IVar="-1" Cut="0.0000000000000000e+00" cType="1" res="6.2898379564285278e-01" rms="4.8307678103446960e-01" purity="1.0000000000000000e+00" nType="-99"/>
          <Node pos="r" depth="2" NCoef="0" IVar="-1" Cut="0.0000000000000000e+00" cType="1" res="3.5491338372230530e-01" rms="4.7848707437515259e-01" purity="1.0000000000000000e+00" nType="-99"/>
        </Node>
        <Node pos="r" depth="1" NCoef="0" IVar="2" Cut="-3.9842483997344971e+00" cType="0" res="5.4596537351608276e-01" rms="4.9788269400596619e-01" purity="1.0000000000000000e+00" nType="0">
          <Node pos="l" depth="2" NCoef="0" IVar="-1" Cut="0.0000000000000000e+00" cType="1" res="5.7520121335983276e-01" rms="4.9431243538856506e-01" purity="1.0000000000000000e+00" nType="-99"/>
          <Node pos="r" depth="2" NCoef="0" IVar="-1" Cut="0.0000000000000000e+00" cType="1" res="3.1081515550613403e-01" rms="4.6282729506492615e-01" purity="1.0000000000000000e+00" nType="-99"/>
        </Node>
      </Node>
    </BinaryTree>
    <BinaryTree type="DecisionTree" boostWeight="6.6402982265920285e-06" itree="41">
      <Node pos="s" depth="0" NCoef="0" IVar="3" Cut="1.1845899820327759e+00" cType="0" res="5.0189483165740967e-01" rms="4.9999642372131348e-01" purity="1.0000000000000000e+00" nType="0">
        <Node pos="l" depth="1" NCoef="0" IVar="2" Cut="3.8153169155120850e+00" cType="0" res="4.0545186400413513e-01" rms="4.9097928404808044e-01" purity="1.0000000000000000e+00" nType="0">
          <Node pos="l" depth="2" NCoef="0" IVar="-1" Cut="0.0000000000000000e+00" cType="1" res="6.2898302078247070e-01" rms="4.8307698965072632e-01" purity="1.0000000000000000e+00" nType="-99"/>
          <Node pos="r" depth="2" NCoef="0" IVar="-1" Cut="0.0000000000000000e+00" cType="1" res="3.5491424798965454e-01" rms="4.7848731279373169e-01" purity="1.0000000000000000e+00" nType="-99"/>
        </Node>
        <Node pos="r" depth="1" NCoef="0" IVar="2" Cut="-3.9842483997344971e+00" cType="0" res="5.4596507549285889e-01" rms="4.9788272380828857e-01" purity="1.0000000000000000e+00" nType="0">
          <Node pos="l" depth="2" NCoef="0" IVar="-1" Cut="0.0000000000000000e+00" cType="1" res="5.7520073652267456e-01" rms="4.9431249499320984e-01" purity="1.0000000000000000e+00" nType="-99"/>
          <Node pos="r" depth="2" NCoef="0" IVar="-1" Cut="0.0000000000000000e+00" cType="1" res="3.1081622838973999e-01" rms="4.6282771229743958e-01" purity="1.0000000000000000e+00" nType="-99"/>
        </Node>
      </Node>
    </BinaryTree>
    <BinaryTree type="DecisionTree" boostWeight="5.0060813212322655e-06" itree="42">
      <Node pos="s" depth="0" NCoef="0" IVar="3" Cut="1.1845899820327759e+00" cType="0" res="5.0189483165740967e-01" rms="4.9999642372131348e-01" purity="1.0000000000000000e+00" nType="0">
        <Node pos="l" depth="1" NCoef="0" IVar="2" Cut="3.8153169155120850e+00" cType="0" res="4.0545228123664856e-01" rms="4.9097934365272522e-01" purity="1.0000000000000000e+00" nType="0">
          <Node pos="l" depth="2" NCoef="0" IVar="-1" Cut="0.0000000000000000e+00" cType="1" res="6.2898242473602295e-01" rms="4.8307713866233826e-01" purity="1.0000000000000000e+00" nType="-99"/>
          <Node pos="r" depth="2" NCoef="0" IVar="-1" Cut="0.0000000000000000e+00" cType="1" res="3.5491487383842468e-01" rms="4.7848752140998840e-01" purity="1.0000000000000000e+00" nType="-99"/>
        </Node>
        <Node pos="r" depth="1" NCoef="0" IVar="2" Cut="-3.9842483997344971e+00" cType="0" res="5.4596483707427979e-01" rms="4.9788275361061096e-01" purity="1.0000000000000000e+00" nType="0">
          <Node pos="l" depth="2" NCoef="0" IVar="-1" Cut="0.0000000000000000e+00" cType="1" res="5.7520037889480591e-01" rms="4.9431255459785461e-01" purity="1.0000000000000000e+00" nType="-99"/>
          <Node pos="r" depth="2" NCoef="0" IVar="-1" Cut="0.0000000000000000e+00" cType="1" res="3.1081700325012207e-01" rms="4.6282804012298584e-01" purity="1.0000000000000000e+00" nType="-99"/>
        </Node>
      </Node>
    </BinaryTree>
    <BinaryTree type="DecisionTree" boostWeight="3.8052519078019563e-06" itree="43">
      <Node pos="s" depth="0" NCoef="0" IVar="3" Cut="1.1845899820327759e+00" cType="0" res="5.0189483165740967e-01" rms="4.9999642372131348e-01" purity="1.0000000000000000e+00" nType="0">
        <Node pos="l" depth="1" NCoef="0" IVar="2" Cut="3.8153169155120850e+00" cType="0" res="4.0545260906219482e-01" rms="4.9097943305969238e-01" purity="1.0000000000000000e+00" nType="0">
          <Node pos="l" depth="2" NCoef="0" IVar="-1" Cut="0.0000000000000000e+00" cType="1" res="6.2898200750350952e-01" rms="4.8307725787162781e-01" purity="1.0000000000000000e+00" nType="-99"/>
          <Node pos="r" depth="2" NCoef="0" IVar="-1" Cut="0.0000000000000000e+00" cType="1" res="3.5491535067558289e-01" rms="4.7848767042160034e-01" purity="1.0000000000000000e+00" nType="-99"/>
        </Node>
        <Node pos="r" depth="1" NCoef="0" IVar="2" Cut="-3.9842483997344971e+00" cType="0" res="5.4596471786499023e-01" rms="4.9788275361061096e-01" purity="1.0000000000000000e+00" nType="0">
          <Node pos="l" depth="2" NCoef="0" IVar="-1" Cut="0.0000000000000000e+00" cType="1" res="5.7520008087158203e-01" rms="4.9431258440017700e-01" purity="1.0000000000000000e+00" nType="-99"/>
          <Node pos="r" depth="2" NCoef="0" IVar="-1" Cut="0.0000000000000000e+00" cType="1" res="3.1081756949424744e-01" rms="4.6282827854156494e-01" purity="1.0000000000000000e+00" nType="-99"/>
        </Node>
      </Node>
    </BinaryTree>
    <BinaryTree type="DecisionTree" boostWeight="2.8635340850985261e-06" itree="44">
      <Node pos="s" depth="0" NCoef="0" IVar="3" Cut="1.1845899820327759e+00" cType="0" res="5.0189477205276489e-01" rms="4.9999642372131348e-01" purity="1.0000000000000000e+00" nType="0">
        <Node pos="l" depth="1" NCoef="0" IVar="2" Cut="3.8153169155120850e+00" cType="0" res="4.0545284748077393e-01" rms="4.9097946286201477e-01" purity="1.0000000000000000e+00" nType="0">
          <Node pos="l" depth="2" NCoef="0" IVar="-1" Cut="0.0000000000000000e+00" cType="1" res="6.2898164987564087e-01" rms="4.8307734727859497e-01" purity="1.0000000000000000e+00" nType="-99"/>
          <Node pos="r" depth="2" NCoef="0" IVar="-1" Cut="0.0000000000000000e+00" cType="1" res="3.5491573810577393e-01" rms="4.7848778963088989e-01" purity="1.0000000000000000e+00" nType="-99"/>
        </Node>
        <Node pos="r" depth="1" NCoef="0" IVar="2" Cut="-3.9842483997344971e+00" cType="0" res="5.4596459865570068e-01" rms="4.9788278341293335e-01" purity="1.0000000000000000e+00" nType="0">
          <Node pos="l" depth="2" NCoef="0" IVar="-1" Cut="0.0000000000000000e+00" cType="1" res="5.7519990205764771e-01" rms="4.9431264400482178e-01" purity="1.0000000000000000e+00" nType="-99"/>
          <Node pos="r" depth="2" NCoef="0" IVar="-1" Cut="0.0000000000000000e+00" cType="1" res="3.1081801652908325e-01" rms="4.6282845735549927e-01" purity="1.0000000000000000e+00" nType="-99"/>
        </Node>
      </Node>
    </BinaryTree>
    <BinaryTree type="DecisionTree" boostWeight="2.1179144134922728e-06" itree="45">
      <Node pos="s" depth="0" NCoef="0" IVar="3" Cut="1.1845899820327759e+00" cType="0" res="5.0189477205276489e-01" rms="4.9999642372131348e-01" purity="1.0000000000000000e+00" nType="0">
        <Node pos="l" depth="1" NCoef="0" IVar="2" Cut="3.8153169155120850e+00" cType="0" res="4.0545302629470825e-01" rms="4.9097949266433716e-01" purity="1.0000000000000000e+00" nType="0">
          <Node pos="l" depth="2" NCoef="0" IVar="-1" Cut="0.0000000000000000e+00" cType="1" res="6.2898141145706177e-01" rms="4.8307740688323975e-01" purity="1.0000000000000000e+00" nType="-99"/>
          <Node pos="r" depth="2" NCoef="0" IVar="-1" Cut="0.0000000000000000e+00" cType="1" res="3.5491600632667542e-01" rms="4.7848784923553467e-01" purity="1.0000000000000000e+00" nType="-99"/>
        </Node>
        <Node pos="r" depth="1" NCoef="0" IVar="2" Cut="-3.9842483997344971e+00" cType="0" res="5.4596447944641113e-01" rms="4.9788278341293335e-01" purity="1.0000000000000000e+00" nType="0">
          <Node pos="l" depth="2" NCoef="0" IVar="-1" Cut="0.0000000000000000e+00" cType="1" res="5.7519972324371338e-01" rms="4.9431264400482178e-01" purity="1.0000000000000000e+00" nType="-99"/>
          <Node pos="r" depth="2" NCoef="0" IVar="-1" Cut="0.0000000000000000e+00" cType="1" res="3.1081837415695190e-01" rms="4.6282860636711121e-01" purity="1.0000000000000000e+00" nType="-99"/>
        </Node>
      </Node>
    </BinaryTree>
    <BinaryTree type="DecisionTree" boostWeight="1.6118671616461415e-06" itree="46">
      <Node pos="s" depth="0" NCoef="0" IVar="3" Cut="1.1845899820327759e+00" cType="0" res="5.0189477205276489e-01" rms="4.9999642372131348e-01" purity="1.0000000000000000e+00" nType="0">
        <Node pos="l" depth="1" NCoef="0" IVar="2" Cut="3.8153169155120850e+00" cType="0" res="4.0545314550399780e-01" rms="4.9097952246665955e-01" purity="1.0000000000000000e+00" nType="0">
          <Node pos="l" depth="2" NCoef="0" IVar="-1" Cut="0.0000000000000000e+00" cType="1" res="6.2898123264312744e-01" rms="4.8307746648788452e-01" purity="1.0000000000000000e+00" nType="-99"/>
          <Node pos="r" depth="2" NCoef="0" IVar="-1" Cut="0.0000000000000000e+00" cType="1" res="3.5491621494293213e-01" rms="4.7848790884017944e-01" purity="1.0000000000000000e+00" nType="-99"/>
        </Node>
        <Node pos="r" depth="1" NCoef="0" IVar="2" Cut="-3.9842483997344971e+00" cType="0" res="5.4596441984176636e-01" rms="4.9788278341293335e-01" purity="1.0000000000000000e+00" nType="0">
          <Node pos="l" depth="2" NCoef="0" IVar="-1" Cut="0.0000000000000000e+00" cType="1" res="5.7519960403442383e-01" rms="4.9431267380714417e-01" purity="1.0000000000000000e+00" nType="-99"/>
          <Node pos="r" depth="2" NCoef="0" IVar="-1" Cut="0.0000000000000000e+00" cType="1" res="3.1081861257553101e-01" rms="4.6282869577407837e-01" purity="1.0000000000000000e+00" nType="-99"/>
        </Node>
      </Node>
    </BinaryTree>
    <BinaryTree type="DecisionTree" boostWeight="1.1794340767588992e-06" itree="47">
      <Node pos="s" depth="0" NCoef="0" IVar="3" Cut="1.1845899820327759e+00" cType="0" res="5.0189477205276489e-01" rms="4.9999642372131348e-01" purity="1.0000000000000000e+00" nType="0">
        <Node pos="l" depth="1" NCoef="0" IVar="2" Cut="3.8153169155120850e+00" cType="0" res="4.0545326471328735e-01" rms="4.9097955226898193e-01" purity="1.0000000000000000e+00" nType="0">
          <Node pos="l" depth="2" NCoef="0" IVar="-1" Cut="0.0000000000000000e+00" cType="1" res="6.2898111343383789e-01" rms="4.8307749629020691e-01" purity="1.0000000000000000e+00" nType="-99"/>
          <Node pos="r" depth="2" NCoef="0" IVar="-1" Cut="0.0000000000000000e+00" cType="1" res="3.5491636395454407e-01" rms="4.7848796844482422e-01" purity="1.0000000000000000e+00" nType="-99"/>
        </Node>
        <Node pos="r" depth="1" NCoef="0" IVar="2" Cut="-3.9842483997344971e+00" cType="0" res="5.4596436023712158e-01" rms="4.9788278341293335e-01" purity="1.0000000000000000e+00" nType="0">
          <Node pos="l" depth="2" NCoef="0" IVar="-1" Cut="0.0000000000000000e+00" cType="1" res="5.7519954442977905e-01" rms="4.9431267380714417e-01" purity="1.0000000000000000e+00" nType="-99"/>
          <Node pos="r" depth="2" NCoef="0" IVar="-1" Cut="0.0000000000000000e+00" cType="1" res="3.1081882119178772e-01" rms="4.6282878518104553e-01" purity="1.0000000000000000e+00" nType="-99"/>
        </Node>
      </Node>
    </BinaryTree>
    <BinaryTree type="DecisionTree" boostWeight="9.2123850746552147e-07" itree="48">
      <Node pos="s" depth="0" NCoef="0" IVar="3" Cut="1.1845899820327759e+00" cType="0" res="5.0189477205276489e-01" rms="4.9999642372131348e-01" purity="1.0000000000000000e+00" nType="0">
        <Node pos="l" depth="1" NCoef="0" IVar="2" Cut="3.8153169155120850e+00" cType="0" res="4.0545332431793213e-01" rms="4.9097955226898193e-01" purity="1.0000000000000000e+00" nType="0">
          <Node pos="l" depth="2" NCoef="0" IVar="-1" Cut="0.0000000000000000e+00" cType="1" res="6.2898099422454834e-01" rms="4.8307752609252930e-01" purity="1.0000000000000000e+00" nType="-99"/>
          <Node pos="r" depth="2" NCoef="0" IVar="-1" Cut="0.0000000000000000e+00" cType="1" res="3.5491648316383362e-01" rms="4.7848799824714661e-01" purity="1.0000000000000000e+00" nType="-99"/>
        </Node>
        <Node pos="r" depth="1" NCoef="0" IVar="2" Cut="-3.9842483997344971e+00" cType="0" res="5.4596430063247681e-01" rms="4.9788281321525574e-01" purity="1.0000000000000000e+00" nType="0">
          <Node pos="l" depth="2" NCoef="0" IVar="-1" Cut="0.0000000000000000e+00" cType="1" res="5.7519948482513428e-01" rms="4.9431270360946655e-01" purity="1.0000000000000000e+00" nType="-99"/>
          <Node pos="r" depth="2" NCoef="0" IVar="-1" Cut="0.0000000000000000e+00" cType="1" res="3.1081894040107727e-01" rms="4.6282884478569031e-01" purity="1.0000000000000000e+00" nType="-99"/>
        </Node>
      </Node>
    </BinaryTree>
    <BinaryTree type="DecisionTree" boostWeight="6.7412630626100892e-07" itree="49">
      <Node pos="s" depth="0" NCoef="0" IVar="3" Cut="1.1845899820327759e+00" cType="0" res="5.0189477205276489e-01" rms="4.9999642372131348e-01" purity="1.0000000000000000e+00" nType="0">
        <Node pos="l" depth="1" NCoef="0" IVar="2" Cut="3.8153169155120850e+00" cType="0" res="4.0545338392257690e-01" rms="4.9097958207130432e-01" purity="1.0000000000000000e+00" nType="0">
          <Node pos="l" depth="2" NCoef="0" IVar="-1" Cut="0.0000000000000000e+00" cType="1" res="6.2898093461990356e-01" rms="4.8307755589485168e-01" purity="1.0000000000000000e+00" nType="-99"/>
          <Node pos="r" depth="2" NCoef="0" IVar="-1" Cut="0.0000000000000000e+00" cType="1" res="3.5491657257080078e-01" rms="4.7848802804946899e-01" purity="1.0000000000000000e+00" nType="-99"/>
        </Node>
        <Node pos="r" depth="1" NCoef="0" IVar="2" Cut="-3.9842483997344971e+00" cType="0" res="5.4596430063247681e-01" rms="4.9788281321525574e-01" purity="1.0000000000000000e+00" nType="0">
          <Node pos="l" depth="2" NCoef="0" IVar="-1" Cut="0.0000000000000000e+00" cType="1" res="5.7519942522048950e-01" rms="4.9431270360946655e-01" purity="1.0000000000000000e+00" nType="-99"/>
          <Node pos="r" depth="2" NCoef="0" IVar="-1" Cut="0.0000000000000000e+00" cType="1" res="3.1081905961036682e-01" rms="4.6282887458801270e-01" purity="1.0000000000000000e+00" nType="-99"/>
        </Node>
      </Node>
    </BinaryTree>
    <BinaryTree type="DecisionTree" boostWeight="5.4140505677615422e-07" itree="50">
      <Node pos="s" depth="0" NCoef="0" IVar="3" Cut="1.1845899820327759e+00" cType="0" res="5.0189477205276489e-01" rms="4.9999642372131348e-01" purity="1.0000000000000000e+00" nType="0">
        <Node pos="l" depth="1" NCoef="0" IVar="2" Cut="3.8153169155120850e+00" cType="0" res="4.0545344352722168e-01" rms="4.9097958207130432e-01" purity="1.0000000000000000e+00" nType="0">
          <Node pos="l" depth="2" NCoef="0" IVar="-1" Cut="0.0000000000000000e+00" cType="1" res="6.2898087501525879e-01" rms="4.8307755589485168e-01" purity="1.0000000000000000e+00" nType="-99"/>
          <Node pos="r" depth="2" NCoef="0" IVar="-1" Cut="0.0000000000000000e+00" cType="1" res="3.5491663217544556e-01" rms="4.7848805785179138e-01" purity="1.0000000000000000e+00" nType="-99"/>
        </Node>
        <Node pos="r" depth="1" NCoef="0" IVar="2" Cut="-3.9842483997344971e+00" cType="0" res="5.4596430063247681e-01" rms="4.9788281321525574e-01" purity="1.0000000000000000e+00" nType="0">
          <Node pos="l" depth="2" NCoef="0" IVar="-1" Cut="0.0000000000000000e+00" cType="1" res="5.7519936561584473e-01" rms="4.9431270360946655e-01" purity="1.0000000000000000e+00" nType="-99"/>
          <Node pos="r" depth="2" NCoef="0" IVar="-1" Cut="0.0000000000000000e+00" cType="1" res="3.1081911921501160e-01" rms="4.6282890439033508e-01" purity="1.0000000000000000e+00" nType="-99"/>
        </Node>
      </Node>
    </BinaryTree>
    <BinaryTree type="DecisionTree" boostWeight="3.6248935411470891e-07" itree="51">
      <Node pos="s" depth="0" NCoef="0" IVar="3" Cut="1.1845899820327759e+00" cType="0" res="5.0189477205276489e-01" rms="4.9999642372131348e-01" purity="1.0000000000000000e+00" nType="0">
        <Node pos="l" depth="1" NCoef="0" IVar="2" Cut="3.8153169155120850e+00" cType="0" res="4.0545347332954407e-01" rms="4.9097958207130432e-01" purity="1.0000000000000000e+00" nType="0">
          <Node pos="l" depth="2" NCoef="0" IVar="-1" Cut="0.0000000000000000e+00" cType="1" res="6.2898081541061401e-01" rms="4.8307758569717407e-01" purity="1.0000000000000000e+00" nType="-99"/>
          <Node pos="r" depth="2" NCoef="0" IVar="-1" Cut="0.0000000000000000e+00" cType="1" res="3.5491669178009033e-01" rms="4.7848805785179138e-01" purity="1.0000000000000000e+00" nType="-99"/>
        </Node>
        <Node pos="r" depth="1" NCoef="0" IVar="2" Cut="-3.9842483997344971e+00" cType="0" res="5.4596424102783203e-01" rms="4.9788281321525574e-01" purity="1.0000000000000000e+00" nType="0">
          <Node pos="l" depth="2" NCoef="0" IVar="-1" Cut="0.0000000000000000e+00" cType="1" res="5.7519936561584473e-01" rms="4.9431270360946655e-01" purity="1.0000000000000000e+00" nType="-99"/>
          <Node pos="r" depth="2" NCoef="0" IVar="-1" Cut="0.0000000000000000e+00" cType="1" res="3.1081920862197876e-01" rms="4.6282893419265747e-01" purity="1.0000000000000000e+00" nType="-99"/>
        </Node>
      </Node>
    </BinaryTree>
    <BinaryTree type="DecisionTree" boostWeight="2.9503724907345120e-07" itree="52">
      <Node pos="s" depth="0" NCoef="0" IVar="3" Cut="1.1845899820327759e+00" cType="0" res="5.0189477205276489e-01" rms="4.9999642372131348e-01" purity="1.0000000000000000e+00" nType="0">
        <Node pos="l" depth="1" NCoef="0" IVar="2" Cut="3.8153169155120850e+00" cType="0" res="4.0545350313186646e-01" rms="4.9097958207130432e-01" purity="1.0000000000000000e+00" nType="0">
          <Node pos="l" depth="2" NCoef="0" IVar="-1" Cut="0.0000000000000000e+00" cType="1" res="6.2898075580596924e-01" rms="4.8307758569717407e-01" purity="1.0000000000000000e+00" nType="-99"/>
          <Node pos="r" depth="2" NCoef="0" IVar="-1" Cut="0.0000000000000000e+00" cType="1" res="3.5491672158241272e-01" rms="4.7848808765411377e-01" purity="1.0000000000000000e+00" nType="-99"/>
        </Node>
        <Node pos="r" depth="1" NCoef="0" IVar="2" Cut="-3.9842483997344971e+00" cType="0" res="5.4596424102783203e-01" rms="4.9788281321525574e-01" purity="1.0000000000000000e+00" nType="0">
          <Node pos="l" depth="2" NCoef="0" IVar="-1" Cut="0.0000000000000000e+00" cType="1" res="5.7519936561584473e-01" rms="4.9431270360946655e-01" purity="1.0000000000000000e+00" nType="-99"/>
          <Node pos="r" depth="2" NCoef="0" IVar="-1" Cut="0.0000000000000000e+00" cType="1" res="3.1081923842430115e-01" rms="4.6282896399497986e-01" purity="1.0000000000000000e+00" nType="-99"/>
        </Node>
      </Node>
    </BinaryTree>
    <BinaryTree type="DecisionTree" boostWeight="2.3048062133966142e-07" itree="53">
      <Node pos="s" depth="0" NCoef="0" IVar="3" Cut="1.1845899820327759e+00" cType="0" res="5.0189477205276489e-01" rms="4.9999642372131348e-01" purity="1.0000000000000000e+00" nType="0">
        <Node pos="l" depth="1" NCoef="0" IVar="2" Cut="3.8153169155120850e+00" cType="0" res="4.0545350313186646e-01" rms="4.9097958207130432e-01" purity="1.0000000000000000e+00" nType="0">
          <Node pos="l" depth="2" NCoef="0" IVar="-1" Cut="0.0000000000000000e+00" cType="1" res="6.2898075580596924e-01" rms="4.8307758569717407e-01" purity="1.0000000000000000e+00" nType="-99"/>
          <Node pos="r" depth="2" NCoef="0" IVar="-1" Cut="0.0000000000000000e+00" cType="1" res="3.5491675138473511e-01" rms="4.7848808765411377e-01" purity="1.0000000000000000e+00" nType="-99"/>
        </Node>
        <Node pos="r" depth="1" NCoef="0" IVar="2" Cut="-3.9842483997344971e+00" cType="0" res="5.4596424102783203e-01" rms="4.9788281321525574e-01" purity="1.0000000000000000e+00" nType="0">
          <Node pos="l" depth="2" NCoef="0" IVar="-1" Cut="0.0000000000000000e+00" cType="1" res="5.7519930601119995e-01" rms="4.9431270360946655e-01" purity="1.0000000000000000e+00" nType="-99"/>
          <Node pos="r" depth="2" NCoef="0" IVar="-1" Cut="0.0000000000000000e+00" cType="1" res="3.1081926822662354e-01" rms="4.6282896399497986e-01" purity="1.0000000000000000e+00" nType="-99"/>
        </Node>
      </Node>
    </BinaryTree>
    <BinaryTree type="DecisionTree" boostWeight="1.6869518158338538e-07" itree="54">
      <Node pos="s" depth="0" NCoef="0" IVar="3" Cut="1.1845899820327759e+00" cType="0" res="5.0189477205276489e-01" rms="4.9999642372131348e-01" purity="1.0000000000000000e+00" nType="0">
        <Node pos="l" depth="1" NCoef="0" IVar="2" Cut="3.8153169155120850e+00" cType="0" res="4.0545353293418884e-01" rms="4.9097958207130432e-01" purity="1.0000000000000000e+00" nType="0">
          <Node pos="l" depth="2" NCoef="0" IVar="-1" Cut="0.0000000000000000e+00" cType="1" res="6.2898075580596924e-01" rms="4.8307761549949646e-01" purity="1.0000000000000000e+00" nType="-99"/>
          <Node pos="r" depth="2" NCoef="0" IVar="-1" Cut="0.0000000000000000e+00" cType="1" res="3.5491675138473511e-01" rms="4.7848808765411377e-01" purity="1.0000000000000000e+00" nType="-99"/>
        </Node>
        <Node pos="r" depth="1" NCoef="0" IVar="2" Cut="-3.9842483997344971e+00" cType="0" res="5.4596424102783203e-01" rms="4.9788281321525574e-01" purity="1.0000000000000000e+00" nType="0">
          <Node pos="l" depth="2" NCoef="0" IVar="-1" Cut="0.0000000000000000e+00" cType="1" res="5.7519930601119995e-01" rms="4.9431270360946655e-01" purity="1.0000000000000000e+00" nType="-99"/>
          <Node pos="r" depth="2" NCoef="0" IVar="-1" Cut="0.0000000000000000e+00" cType="1" res="3.1081929802894592e-01" rms="4.6282896399497986e-01" purity="1.0000000000000000e+00" nType="-99"/>
        </Node>
      </Node>
    </BinaryTree>
    <BinaryTree type="DecisionTree" boostWeight="1.0956196260676147e-07" itree="55">
      <Node pos="s" depth="0" NCoef="0" IVar="3" Cut="1.1845899820327759e+00" cType="0" res="5.0189477205276489e-01" rms="4.9999642372131348e-01" purity="1.0000000000000000e+00" nType="0">
        <Node pos="l" depth="1" NCoef="0" IVar="2" Cut="3.8153169155120850e+00" cType="0" res="4.0545353293418884e-01" rms="4.9097961187362671e-01" purity="1.0000000000000000e+00" nType="0">
          <Node pos="l" depth="2" NCoef="0" IVar="-1" Cut="0.0000000000000000e+00" cType="1" res="6.2898069620132446e-01" rms="4.8307761549949646e-01" purity="1.0000000000000000e+00" nType="-99"/>
          <Node pos="r" depth="2" NCoef="0" IVar="-1" Cut="0.0000000000000000e+00" cType="1" res="3.5491678118705750e-01" rms="4.7848808765411377e-01" purity="1.0000000000000000e+00" nType="-99"/>
        </Node>
        <Node pos="r" depth="1" NCoef="0" IVar="2" Cut="-3.9842483997344971e+00" cType="0" res="5.4596424102783203e-01" rms="4.9788281321525574e-01" purity="1.0000000000000000e+00" nType="0">
          <Node pos="l" depth="2" NCoef="0" IVar="-1" Cut="0.0000000000000000e+00" cType="1" res="5.7519930601119995e-01" rms="4.9431273341178894e-01" purity="1.0000000000000000e+00" nType="-99"/>
          <Node pos="r" depth="2" NCoef="0" IVar="-1" Cut="0.0000000000000000e+00" cType="1" res="3.1081932783126831e-01" rms="4.6282899379730225e-01" purity="1.0000000000000000e+00" nType="-99"/>
        </Node>
      </Node>
    </BinaryTree>
    <BinaryTree type="DecisionTree" boostWeight="1.0485885387559041e-07" itree="56">
      <Node pos="s" depth="0" NCoef="0" IVar="3" Cut="1.1845899820327759e+00" cType="0" res="5.0189477205276489e-01" rms="4.9999642372131348e-01" purity="1.0000000000000000e+00" nType="0">
        <Node pos="l" depth="1" NCoef="0" IVar="2" Cut="3.8153169155120850e+00" cType="0" res="4.0545353293418884e-01" rms="4.9097961187362671e-01" purity="1.0000000000000000e+00" nType="0">
          <Node pos="l" depth="2" NCoef="0" IVar="-1" Cut="0.0000000000000000e+00" cType="1" res="6.2898069620132446e-01" rms="4.8307761549949646e-01" purity="1.0000000000000000e+00" nType="-99"/>
          <Node pos="r" depth="2" NCoef="0" IVar="-1" Cut="0.0000000000000000e+00" cType="1" res="3.5491678118705750e-01" rms="4.7848808765411377e-01" purity="1.0000000000000000e+00" nType="-99"/>
        </Node>
        <Node pos="r" depth="1" NCoef="0" IVar="2" Cut="-3.9842483997344971e+00" cType="0" res="5.4596424102783203e-01" rms="4.9788281321525574e-01" purity="1.0000000000000000e+00" nType="0">
          <Node pos="l" depth="2" NCoef="0" IVar="-1" Cut="0.0000000000000000e+00" cType="1" res="5.7519930601119995e-01" rms="4.9431273341178894e-01" purity="1.0000000000000000e+00" nType="-99"/>
          <Node pos="r" depth="2" NCoef="0" IVar="-1" Cut="0.0000000000000000e+00" cType="1" res="3.1081932783126831e-01" rms="4.6282899379730225e-01" purity="1.0000000000000000e+00" nType="-99"/>
        </Node>
      </Node>
    </BinaryTree>
    <BinaryTree type="DecisionTree" boostWeight="4.8465896787119917e-08" itree="57">
      <Node pos="s" depth="0" NCoef="0" IVar="3" Cut="1.1845899820327759e+00" cType="0" res="5.0189477205276489e-01" rms="4.9999642372131348e-01" purity="1.0000000000000000e+00" nType="0">
        <Node pos="l" depth="1" NCoef="0" IVar="2" Cut="3.8153169155120850e+00" cType="0" res="4.0545353293418884e-01" rms="4.9097961187362671e-01" purity="1.0000000000000000e+00" nType="0">
          <Node pos="l" depth="2" NCoef="0" IVar="-1" Cut="0.0000000000000000e+00" cType="1" res="6.2898069620132446e-01" rms="4.8307761549949646e-01" purity="1.0000000000000000e+00" nType="-99"/>
          <Node pos="r" depth="2" NCoef="0" IVar="-1" Cut="0.0000000000000000e+00" cType="1" res="3.5491681098937988e-01" rms="4.7848811745643616e-01" purity="1.0000000000000000e+00" nType="-99"/>
        </Node>
        <Node pos="r" depth="1" NCoef="0" IVar="2" Cut="-3.9842483997344971e+00" cType="0" res="5.4596424102783203e-01" rms="4.9788281321525574e-01" purity="1.0000000000000000e+00" nType="0">
          <Node pos="l" depth="2" NCoef="0" IVar="-1" Cut="0.0000000000000000e+00" cType="1" res="5.7519930601119995e-01" rms="4.9431273341178894e-01" purity="1.0000000000000000e+00" nType="-99"/>
          <Node pos="r" depth="2" NCoef="0" IVar="-1" Cut="0.0000000000000000e+00" cType="1" res="3.1081935763359070e-01" rms="4.6282899379730225e-01" purity="1.0000000000000000e+00" nType="-99"/>
        </Node>
      </Node>
    </BinaryTree>
    <BinaryTree type="DecisionTree" boostWeight="4.6385428865704940e-08" itree="58">
      <Node pos="s" depth="0" NCoef="0" IVar="3" Cut="1.1845899820327759e+00" cType="0" res="5.0189477205276489e-01" rms="4.9999642372131348e-01" purity="1.0000000000000000e+00" nType="0">
        <Node pos="l" depth="1" NCoef="0" IVar="2" Cut="3.8153169155120850e+00" cType="0" res="4.0545356273651123e-01" rms="4.9097961187362671e-01" purity="1.0000000000000000e+00" nType="0">
          <Node pos="l" depth="2" NCoef="0" IVar="-1" Cut="0.0000000000000000e+00" cType="1" res="6.2898069620132446e-01" rms="4.8307761549949646e-01" purity="1.0000000000000000e+00" nType="-99"/>
          <Node pos="r" depth="2" NCoef="0" IVar="-1" Cut="0.0000000000000000e+00" cType="1" res="3.5491681098937988e-01" rms="4.7848811745643616e-01" purity="1.0000000000000000e+00" nType="-99"/>
        </Node>
        <Node pos="r" depth="1" NCoef="0" IVar="2" Cut="-3.9842483997344971e+00" cType="0" res="5.4596424102783203e-01" rms="4.9788281321525574e-01" purity="1.0000000000000000e+00" nType="0">
          <Node pos="l" depth="2" NCoef="0" IVar="-1" Cut="0.0000000000000000e+00" cType="1" res="5.7519930601119995e-01" rms="4.9431273341178894e-01" purity="1.0000000000000000e+00" nType="-99"/>
          <Node pos="r" depth="2" NCoef="0" IVar="-1" Cut="0.0000000000000000e+00" cType="1" res="3.1081935763359070e-01" rms="4.6282899379730225e-01" purity="1.0000000000000000e+00" nType="-99"/>
        </Node>
      </Node>
    </BinaryTree>
    <BinaryTree type="DecisionTree" boostWeight="4.4394264611566621e-08" itree="59">
      <Node pos="s" depth="0" NCoef="0" IVar="3" Cut="1.1845899820327759e+00" cType="0" res="5.0189477205276489e-01" rms="4.9999642372131348e-01" purity="1.0000000000000000e+00" nType="0">
        <Node pos="l" depth="1" NCoef="0" IVar="2" Cut="3.8153169155120850e+00" cType="0" res="4.0545356273651123e-01" rms="4.9097961187362671e-01" purity="1.0000000000000000e+00" nType="0">
          <Node pos="l" depth="2" NCoef="0" IVar="-1" Cut="0.0000000000000000e+00" cType="1" res="6.2898069620132446e-01" rms="4.8307761549949646e-01" purity="1.0000000000000000e+00" nType="-99"/>
          <Node pos="r" depth="2" NCoef="0" IVar="-1" Cut="0.0000000000000000e+00" cType="1" res="3.5491681098937988e-01" rms="4.7848811745643616e-01" purity="1.0000000000000000e+00" nType="-99"/>
        </Node>
        <Node pos="r" depth="1" NCoef="0" IVar="2" Cut="-3.9842483997344971e+00" cType="0" res="5.4596424102783203e-01" rms="4.9788281321525574e-01" purity="1.0000000000000000e+00" nType="0">
          <Node pos="l" depth="2" NCoef="0" IVar="-1" Cut="0.0000000000000000e+00" cType="1" res="5.7519930601119995e-01" rms="4.9431273341178894e-01" purity="1.0000000000000000e+00" nType="-99"/>
          <Node pos="r" depth="2" NCoef="0" IVar="-1" Cut="0.0000000000000000e+00" cType="1" res="3.1081935763359070e-01" rms="4.6282899379730225e-01" purity="1.0000000000000000e+00" nType="-99"/>
        </Node>
      </Node>
    </BinaryTree>
    <BinaryTree type="DecisionTree" boostWeight="4.2488577308679735e-08" itree="60">
      <Node pos="s" depth="0" NCoef="0" IVar="3" Cut="1.1845899820327759e+00" cType="0" res="5.0189477205276489e-01" rms="4.9999642372131348e-01" purity="1.0000000000000000e+00" nType="0">
        <Node pos="l" depth="1" NCoef="0" IVar="2" Cut="3.8153169155120850e+00" cType="0" res="4.0545356273651123e-01" rms="4.9097961187362671e-01" purity="1.0000000000000000e+00" nType="0">
          <Node pos="l" depth="2" NCoef="0" IVar="-1" Cut="0.0000000000000000e+00" cType="1" res="6.2898069620132446e-01" rms="4.8307761549949646e-01" purity="1.0000000000000000e+00" nType="-99"/>
          <Node pos="r" depth="2" NCoef="0" IVar="-1" Cut="0.0000000000000000e+00" cType="1" res="3.5491681098937988e-01" rms="4.7848811745643616e-01" purity="1.0000000000000000e+00" nType="-99"/>
        </Node>
        <Node pos="r" depth="1" NCoef="0" IVar="2" Cut="-3.9842483997344971e+00" cType="0" res="5.4596418142318726e-01" rms="4.9788281321525574e-01" purity="1.0000000000000000e+00" nType="0">
          <Node pos="l" depth="2" NCoef="0" IVar="-1" Cut="0.0000000000000000e+00" cType="1" res="5.7519930601119995e-01" rms="4.9431273341178894e-01" purity="1.0000000000000000e+00" nType="-99"/>
          <Node pos="r" depth="2" NCoef="0" IVar="-1" Cut="0.0000000000000000e+00" cType="1" res="3.1081935763359070e-01" rms="4.6282899379730225e-01" purity="1.0000000000000000e+00" nType="-99"/>
        </Node>
      </Node>
    </BinaryTree>
    <BinaryTree type="DecisionTree" boostWeight="4.0664693229693880e-08" itree="61">
      <Node pos="s" depth="0" NCoef="0" IVar="3" Cut="1.1845899820327759e+00" cType="0" res="5.0189477205276489e-01" rms="4.9999642372131348e-01" purity="1.0000000000000000e+00" nType="0">
        <Node pos="l" depth="1" NCoef="0" IVar="2" Cut="3.8153169155120850e+00" cType="0" res="4.0545356273651123e-01" rms="4.9097961187362671e-01" purity="1.0000000000000000e+00" nType="0">
          <Node pos="l" depth="2" NCoef="0" IVar="-1" Cut="0.0000000000000000e+00" cType="1" res="6.2898069620132446e-01" rms="4.8307761549949646e-01" purity="1.0000000000000000e+00" nType="-99"/>
          <Node pos="r" depth="2" NCoef="0" IVar="-1" Cut="0.0000000000000000e+00" cType="1" res="3.5491681098937988e-01" rms="4.7848811745643616e-01" purity="1.0000000000000000e+00" nType="-99"/>
        </Node>
        <Node pos="r" depth="1" NCoef="0" IVar="2" Cut="-3.9842483997344971e+00" cType="0" res="5.4596418142318726e-01" rms="4.9788281321525574e-01" purity="1.0000000000000000e+00" nType="0">
          <Node pos="l" depth="2" NCoef="0" IVar="-1" Cut="0.0000000000000000e+00" cType="1" res="5.7519930601119995e-01" rms="4.9431273341178894e-01" purity="1.0000000000000000e+00" nType="-99"/>
          <Node pos="r" depth="2" NCoef="0" IVar="-1" Cut="0.0000000000000000e+00" cType="1" res="3.1081935763359070e-01" rms="4.6282899379730225e-01" purity="1.0000000000000000e+00" nType="-99"/>
        </Node>
      </Node>
    </BinaryTree>
    <BinaryTree type="DecisionTree" boostWeight="3.8919100517721828e-08" itree="62">
      <Node pos="s" depth="0" NCoef="0" IVar="3" Cut="1.1845899820327759e+00" cType="0" res="5.0189477205276489e-01" rms="4.9999642372131348e-01" purity="1.0000000000000000e+00" nType="0">
        <Node pos="l" depth="1" NCoef="0" IVar="2" Cut="3.8153169155120850e+00" cType="0" res="4.0545356273651123e-01" rms="4.9097961187362671e-01" purity="1.0000000000000000e+00" nType="0">
          <Node pos="l" depth="2" NCoef="0" IVar="-1" Cut="0.0000000000000000e+00" cType="1" res="6.2898069620132446e-01" rms="4.8307761549949646e-01" purity="1.0000000000000000e+00" nType="-99"/>
          <Node pos="r" depth="2" NCoef="0" IVar="-1" Cut="0.0000000000000000e+00" cType="1" res="3.5491681098937988e-01" rms="4.7848811745643616e-01" purity="1.0000000000000000e+00" nType="-99"/>
        </Node>
        <Node pos="r" depth="1" NCoef="0" IVar="2" Cut="-3.9842483997344971e+00" cType="0" res="5.4596418142318726e-01" rms="4.9788281321525574e-01" purity="1.0000000000000000e+00" nType="0">
          <Node pos="l" depth="2" NCoef="0" IVar="-1" Cut="0.0000000000000000e+00" cType="1" res="5.7519930601119995e-01" rms="4.9431273341178894e-01" purity="1.0000000000000000e+00" nType="-99"/>
          <Node pos="r" depth="2" NCoef="0" IVar="-1" Cut="0.0000000000000000e+00" cType="1" res="3.1081935763359070e-01" rms="4.6282899379730225e-01" purity="1.0000000000000000e+00" nType="-99"/>
        </Node>
      </Node>
    </BinaryTree>
    <BinaryTree type="DecisionTree" boostWeight="0.0000000000000000e+00" itree="63">
      <Node pos="s" depth="0" NCoef="0" IVar="3" Cut="1.1845899820327759e+00" cType="0" res="5.0189477205276489e-01" rms="4.9999642372131348e-01" purity="1.0000000000000000e+00" nType="0">
        <Node pos="l" depth="1" NCoef="0" IVar="2" Cut="3.8153169155120850e+00" cType="0" res="4.0545356273651123e-01" rms="4.9097961187362671e-01" purity="1.0000000000000000e+00" nType="0">
          <Node pos="l" depth="2" NCoef="0" IVar="-1" Cut="0.0000000000000000e+00" cType="1" res="6.2898069620132446e-01" rms="4.8307761549949646e-01" purity="1.0000000000000000e+00" nType="-99"/>
