<?xml version="1.0"?>
<MethodSetup Method="MLP::MLP">
  <GeneralInfo>
    <Info name="TMVA Release" value="4.1.4 [262404]"/>
    <Info name="ROOT Release" value="5.34/05 [336389]"/>
    <Info name="Creator" value="clester"/>
    <Info name="Date" value="Tue Mar 18 10:07:35 2014"/>
    <Info name="Host" value="Darwin pb-d-128-141-154-76.cern.ch 12.2.1 Darwin Kernel Version 12.2.1: Thu Oct 18 16:32:48 PDT 2012; root:xnu-2050.20.9~2/RELEASE_X86_64 x86_64"/>
    <Info name="Dir" value="/Users/clester/marchMadnessChallenge"/>
    <Info name="Training events" value="1093"/>
    <Info name="TrainingTime" value="8.91041601e+01"/>
    <Info name="AnalysisType" value="Regression"/>
  </GeneralInfo>
  <Options>
    <Option name="NCycles" modified="Yes">6000</Option>
    <Option name="HiddenLayers" modified="Yes">N+5</Option>
    <Option name="NeuronType" modified="Yes">tanh</Option>
    <Option name="RandomSeed" modified="No">1</Option>
    <Option name="EstimatorType" modified="No">MSE</Option>
    <Option name="NeuronInputType" modified="No">sum</Option>
    <Option name="V" modified="Yes">False</Option>
    <Option name="VerbosityLevel" modified="No">Default</Option>
    <Option name="VarTransform" modified="Yes">Norm</Option>
    <Option name="H" modified="Yes">False</Option>
    <Option name="CreateMVAPdfs" modified="No">False</Option>
    <Option name="IgnoreNegWeightsInTraining" modified="No">False</Option>
    <Option name="TrainingMethod" modified="No">BP</Option>
    <Option name="LearningRate" modified="No">2.000000e-02</Option>
    <Option name="DecayRate" modified="No">1.000000e-02</Option>
    <Option name="TestRate" modified="Yes">6</Option>
    <Option name="EpochMonitoring" modified="No">False</Option>
    <Option name="Sampling" modified="No">1.000000e+00</Option>
    <Option name="SamplingEpoch" modified="No">1.000000e+00</Option>
    <Option name="SamplingImportance" modified="No">1.000000e+00</Option>
    <Option name="SamplingTraining" modified="No">True</Option>
    <Option name="SamplingTesting" modified="No">False</Option>
    <Option name="ResetStep" modified="No">50</Option>
    <Option name="Tau" modified="No">3.000000e+00</Option>
    <Option name="BPMode" modified="No">sequential</Option>
    <Option name="BatchSize" modified="No">-1</Option>
    <Option name="ConvergenceImprove" modified="No">1.000000e-30</Option>
    <Option name="ConvergenceTests" modified="No">-1</Option>
    <Option name="UseRegulator" modified="Yes">True</Option>
    <Option name="UpdateLimit" modified="No">10000</Option>
    <Option name="CalculateErrors" modified="No">False</Option>
    <Option name="WeightRange" modified="No">1.000000e+00</Option>
  </Options>
  <Variables NVar="4">
    <Variable VarIndex="0" Expression="seed_prob" Label="seed_prob" Title="seed_prob" Unit="" Internal="seed_prob" Type="F" Min="0.00000000e+00" Max="1.00000000e+00"/>
    <Variable VarIndex="1" Expression="winfrac1-winfrac2" Label="winfrac1-winfrac2" Title="winfrac1-winfrac2" Unit="" Internal="winfrac1_M_winfrac2" Type="F" Min="-4.20258641e-01" Max="6.11607134e-01"/>
    <Variable VarIndex="2" Expression="avg_scorediff1-avg_scorediff2" Label="avg_scorediff1-avg_scorediff2" Title="avg_scorediff1-avg_scorediff2" Unit="" Internal="avg_scorediff1_M_avg_scorediff2" Type="F" Min="-1.99134197e+01" Max="2.90575752e+01"/>
    <Variable VarIndex="3" Expression="avg_score_against1-avg_score_against2" Label="avg_score_against1-avg_score_against2" Title="avg_score_against1-avg_score_against2" Unit="" Internal="avg_score_against1_M_avg_score_against2" Type="F" Min="-2.50357170e+01" Max="2.12218971e+01"/>
  </Variables>
  <Spectators NSpec="1">
    <Spectator SpecIndex="0" Expression="season" Label="season" Title="season" Unit="" Internal="season" Type="F" Min="6.50000000e+01" Max="8.20000000e+01"/>
  </Spectators>
  <Classes NClass="1">
    <Class Name="Regression" Index="0"/>
  </Classes>
  <Targets NTrgt="1">
    <Target TargetIndex="0" Expression="game_outcome" Label="game_outcome" Title="game_outcome" Unit="" Internal="game_outcome" Type="F" Min="0.00000000e+00" Max="1.00000000e+00"/>
  </Targets>
  <Transformations NTransformations="1">
    <Transform Name="Normalize">
      <Selection>
        <Input NInputs="5">
          <Input Type="Variable" Label="seed_prob" Expression="seed_prob"/>
          <Input Type="Variable" Label="winfrac1-winfrac2" Expression="winfrac1-winfrac2"/>
          <Input Type="Variable" Label="avg_scorediff1-avg_scorediff2" Expression="avg_scorediff1-avg_scorediff2"/>
          <Input Type="Variable" Label="avg_score_against1-avg_score_against2" Expression="avg_score_against1-avg_score_against2"/>
          <Input Type="Target" Label="game_outcome" Expression="game_outcome"/>
        </Input>
        <Output NOutputs="5">
          <Output Type="Variable" Label="seed_prob" Expression="seed_prob"/>
          <Output Type="Variable" Label="winfrac1-winfrac2" Expression="winfrac1-winfrac2"/>
          <Output Type="Variable" Label="avg_scorediff1-avg_scorediff2" Expression="avg_scorediff1-avg_scorediff2"/>
          <Output Type="Variable" Label="avg_score_against1-avg_score_against2" Expression="avg_score_against1-avg_score_against2"/>
          <Output Type="Target" Label="game_outcome" Expression="game_outcome"/>
        </Output>
      </Selection>
      <Class ClassIndex="0">
        <Ranges>
          <Range Index="0" Min="0.0000000000000000e+00" Max="1.0000000000000000e+00"/>
          <Range Index="1" Min="-4.2025864124298096e-01" Max="6.1160713434219360e-01"/>
          <Range Index="2" Min="-1.9913419723510742e+01" Max="2.9057575225830078e+01"/>
          <Range Index="3" Min="-2.5035717010498047e+01" Max="2.1221897125244141e+01"/>
          <Range Index="4" Min="0.0000000000000000e+00" Max="1.0000000000000000e+00"/>
        </Ranges>
      </Class>
    </Transform>
  </Transformations>
  <MVAPdfs/>
  <Weights>
    <Layout NLayers="3">
      <Layer Index="0" NNeurons="5">
        <Neuron NSynapses="9">
          -5.9325559533337069e-01 1.0792014682484872e+00 7.5242762968953492e-01 1.0993133154916237e+00 -7.6465092358225017e-01 6.9040100322686291e-03 4.9397045928701915e-02 2.0896311294443493e+00 -7.3073952590177149e-01 
        </Neuron>
        <Neuron NSynapses="9">
          -5.0852010548067117e-01 -1.7626190347018771e+00 -8.9114714543477025e-01 -9.8998223091717585e-01 4.1340888833140133e-01 -4.5570117254580561e-01 4.8939760435357199e-01 -4.8488816905903037e-01 1.1133964808428363e+00 
        </Neuron>
        <Neuron NSynapses="9">
          -5.0544176152173559e-01 1.3326354649967458e+00 2.4731784466175158e-01 -3.7035992059715211e-01 1.4376295400712082e+00 6.9075265674015751e-01 -7.1444028380537750e-01 -3.6662924221780147e-01 1.2396759525107219e+00 
        </Neuron>
        <Neuron NSynapses="9">
          -1.4430216265995659e+00 -1.5220824941122351e+00 1.9583055011810835e-01 -6.9788842671699269e-01 9.0819145328882289e-01 -2.7056026490797558e-01 -1.3441534587862689e-01 -1.2133178940683707e-01 -6.3049044903515261e-01 
        </Neuron>
        <Neuron NSynapses="9">
          -4.2827314192917537e-01 3.4931470340844123e-01 -4.0406232470785441e-01 4.8490160181982983e-01 7.4842663152743710e-02 9.3377965092352716e-02 2.4448018524223909e+00 1.8302180013889688e-01 1.4600529810772789e-01 
        </Neuron>
      </Layer>
      <Layer Index="1" NNeurons="10">
        <Neuron NSynapses="1">
          -5.5595812257535082e-01 
        </Neuron>
        <Neuron NSynapses="1">
          1.2344910453656230e-01 
        </Neuron>
        <Neuron NSynapses="1">
          3.6090010150203383e-01 
        </Neuron>
        <Neuron NSynapses="1">
          4.5708786524502276e-01 
        </Neuron>
        <Neuron NSynapses="1">
          -1.7809096581233713e-01 
        </Neuron>
        <Neuron NSynapses="1">
          -2.1105100056886266e-03 
        </Neuron>
        <Neuron NSynapses="1">
          1.4983522163478398e+00 
        </Neuron>
        <Neuron NSynapses="1">
          -3.4411896942269982e-01 
        </Neuron>
        <Neuron NSynapses="1">
          3.4427291124689779e-01 
        </Neuron>
        <Neuron NSynapses="1">
          -1.2009131966179858e+00 
        </Neuron>
      </Layer>
      <Layer Index="2" NNeurons="1">
        <Neuron NSynapses="0"/>
      </Layer>
    </Layout>
    <InverseHessian NElements="3025" NRows="55" NCols="55">
      <Row Index="0">
        5.0079836810110745e+00 3.1860952660873991e+00 -7.0348998083126335e-02 3.4957685656605850e+00 1.0996728746997755e+01 -1.3376863671493901e+01 1.4884957462855539e+01 1.5856829109415865e-01 -1.9054938195802393e-01 6.4884794322820782e-01 1.8224464646658158e+00 1.0527196890534030e+00 1.4080626583839608e+00 -5.1450740514139737e+00 8.4786397487656544e+01 6.5741591811216349e+00 -2.5314021552005941e+00 -2.4279118188801463e-02 -3.4171345896706931e+00 -6.5721832179749722e+00 -2.9366664255528292e+00 -8.2270675403216380e+00 -1.0564090037812404e+01 4.6103844416977182e+01 -1.5069399981965173e+01 7.3180238551554422e-01 4.7026787781477852e-01 1.8637784598929292e+00 3.2636057894996178e+00 1.4495004986389770e+00 -3.2490007457153154e+00 -5.0974545277991803e+00 3.0958357629652539e+01 1.8462115968210732e+01 -3.5347700714929275e+00 -1.8866623988107650e-01 1.1302991540346322e-01 -1.6276344094392009e-01 3.8792046381080278e+00 -2.3264364047131569e-01 4.6634730741072516e+00 2.4176688297528642e+02 1.1134294684701192e+01 1.7229427109826026e-01 1.4311767289715518e-01 -1.8454466007687615e+00 8.3159981029181340e-01 -1.4265405854655557e+00 -2.3388613821367197e+00 -3.1557603421927869e+00 4.9245091908522864e+00 -2.9606331891914479e+00 5.5586233667455076e-02 -6.7763271030290451e-02 1.9765264705242844e+00 
      </Row>
      <Row Index="1">
        3.1860952660745774e+00 9.5318776321105943e+01 -6.1076207373028080e+00 -3.4877774755725142e+00 -7.0572859150663554e+00 -1.4425759764345958e+03 -2.2024957909451132e+01 1.0129264928848400e+01 -4.9438221420421300e+00 8.3036597570488935e-01 -1.2172913067960879e+02 -2.0057965341379869e+00 -3.6659995528093994e+00 1.4325804915829066e+00 -7.2406462770838118e+01 -1.1844729375886754e+02 -6.2244332291434468e+00 1.3349076016034168e+01 -2.9195106345667066e+00 6.8499027259078304e+01 -2.2608109701712440e+00 8.2564733279852387e+00 1.0079757541244383e+01 -6.0476470803001212e+02 1.9645783954112690e+02 -5.7464221644821478e-01 6.6235160329655489e+00 -1.7523381349804426e+00 -9.5588338621652341e+01 -4.8887338853339521e+00 -1.3463050502221527e+01 1.7507106256385473e+01 1.4145217763729106e+03 8.0693806797489302e+01 -8.5974650874072402e+00 -8.8669176247241204e+00 6.3388471815549352e-01 4.1654849560812508e+00 7.0812213690766335e-01 5.6040580981100785e+00 6.1771458020220038e+00 -4.7166264887944214e+02 -3.1653808055630600e+02 3.4715777695257000e-01 3.9203708306391309e+00 6.3173127330081491e-01 -1.5679738208006391e+01 2.6656852238868138e+00 2.6878949279357105e+00 4.8334982883347255e+00 3.3617197964917828e+01 5.8218989218854396e+01 2.8740552241483566e+00 -7.8978527919773835e+00 -4.4150452518633060e+01 
      </Row>
      <Row Index="2">
        -7.0348997960593351e-02 -6.1076207372138160e+00 1.5431597808987237e+02 1.3254205210938716e+01 1.8140445809039637e+01 -1.8503626671845586e+03 1.6314328637647770e+02 -1.6005437967566795e+01 -7.8601160308235052e-01 1.9748840726229265e+01 3.4999438596669904e+01 -1.2671107132936081e+02 -2.9957596608673075e+01 -4.2674867443427786e+01 -1.0868056013504508e+02 9.3794661721029149e+02 -8.4064557236973112e+00 -7.9464203519267373e+00 -3.8019751693825299e+00 -5.3800520146960380e+01 -2.7781991308259066e+01 4.3768528781399667e+01 -1.0361783611618222e+01 -2.8455988064859275e+02 -1.3869166100944763e+03 9.5682905990230687e+00 1.0095576023477257e+01 1.2655565108840687e+01 -5.4144630110117653e-01 -3.7354544290059856e+01 3.8291015150916031e+01 -9.9636236203639363e+00 -2.7458073217861715e+02 -1.8361924753971698e+02 4.8538131282151502e+00 -2.8048063700882153e-01 4.0281582546638202e+00 -7.9327774856067599e+00 -8.2776588020626008e+01 2.2924687248902828e+01 -1.8888920603617585e+01 -4.5564802553777099e+01 1.9141089177976532e+03 -4.4534077370599796e+00 -1.1367463420262904e+00 -1.0938191863766583e+01 4.2327391061822954e+00 -8.5226204309153488e+01 1.3331786903538308e+01 -1.8024260213727015e+01 -4.9239957366248859e+01 -3.7770394415282931e+02 -7.7247945840876309e+00 -1.1769012967041022e+00 2.6528365034103911e+02 
      </Row>
      <Row Index="3">
        3.4957685656184658e+00 -3.4877774748032992e+00 1.3254205206060192e+01 7.8953513187425912e+01 -1.7857301589355284e+01 3.4768762643041759e+02 5.5489101167640044e+01 -3.3714018741133591e+00 -4.2927509779125800e-01 -4.2371587938010524e+00 6.0508725530680863e+01 9.8398684153604687e+00 -6.6278204661602999e+01 3.5911137139919710e+01 -2.1058907267208508e+02 -9.3285743381571073e-01 -7.7865775405472804e-01 -7.0179536431915110e+00 -7.1933138430880827e-01 -1.2620015487208306e+02 -4.1632118989280784e+01 -1.6841851344435661e+01 -1.1435040407183442e+02 1.0712751765491350e+02 -1.8824180915709338e+01 5.1148575182324976e+00 -9.7638816266428137e+00 -2.6765865827752187e+00 6.1524199569836497e+01 -1.6725884622610149e+01 -2.9570849020202544e+01 -5.6435833232917979e+01 -2.5749055820921171e+02 1.2548102617315841e+01 5.3115669997353632e-01 5.9974831224456615e+00 -1.8244678804782368e+00 -2.7689399580978325e+01 1.8408571978698141e+01 6.5726013064728562e+01 -1.7304976971674662e+01 -9.3407552950019203e+02 1.4259061061453548e+02 3.5122531681988840e+00 -8.2047505231471440e-01 2.1792225561991541e+00 1.6313744945263871e+01 1.6493053515909171e+01 -7.6134204468879304e+01 -3.8574643586763123e+01 1.2371740642389000e+00 -2.8134795176401422e+01 -2.4517882642583988e-01 7.1988904836557701e+00 2.8160583842415949e+01 
      </Row>
      <Row Index="4">
        1.0996728747153327e+01 -7.0572859152712635e+00 1.8140445810695123e+01 -1.7857301582471965e+01 2.4892704278350539e+02 -1.9167507863561063e+03 1.1625723500779691e+02 -4.2896624676078368e+00 1.2162960560594398e+01 1.3887742334433087e+01 -5.7703449355947896e+01 -4.8716918934329252e+00 3.7866321796711993e+01 -1.7724696203039744e+02 -1.9086094859250250e+03 1.4401699850921843e+03 -9.8501238542770135e+00 -1.0142695625100446e+01 -1.9249634682542673e+01 1.1587833330365638e+02 2.0526429395084620e+01 1.8587406914878482e+01 -2.3689967873448668e+02 -1.7500920130538452e+03 -1.7659129724901134e+03 4.8160830435622817e+00 -5.0946335636069735e+00 7.9021815012135370e+00 -5.7524871090968624e+01 2.0589350286906139e+01 9.2218870071166847e+00 -1.6575905051167462e+02 -7.8983390822088154e+02 -8.8817079024967086e+01 -8.3298255983573615e+00 5.3460932203948346e+00 2.8363895119485827e+00 2.3521252031541966e+01 -8.7681109733165812e+00 -6.6274463489664839e+01 -7.2146159740740060e+01 -1.9225940056792297e+01 2.6679099929098834e+03 -1.9331617306695592e-01 -4.5104722326893345e+00 -7.7652016858952564e+00 -1.4404990544797172e+01 -5.3557051988093988e+01 3.1347776729426762e+01 -7.1333080420828310e+01 -4.7409872382561844e+01 -5.2176285043662426e+02 -4.3871850844029012e+00 3.2223756027000832e+00 3.8701067094171259e+02 
      </Row>
      <Row Index="5">
        -1.3376863675532150e+01 -1.4425759764420054e+03 -1.8503626671437341e+03 3.4768762627260821e+02 -1.9167507862514103e+03 8.1898203299434215e+05 -8.7390820662094393e+03 -7.7140929146938873e+01 5.0587728586715076e+02 1.1097134946801646e+02 3.1496681407862734e+03 3.6905023439902784e+03 6.8568039625148981e+02 2.3413347693827363e+03 -1.3160231544190206e+05 -2.4768706716037996e+04 3.8524897084014583e+01 -4.5297548007885217e+02 3.9493060257265824e+02 -2.3262460997745848e+03 -1.3330235609541719e+03 -1.1145018740721525e+03 1.2689581127106494e+03 -7.8760805429626431e+04 4.1796151592120688e+04 2.4429682886091382e+02 -5.1092941668967342e+02 5.5919109285472950e+02 3.8087864525006407e+03 -1.1229222274720375e+03 4.8432223047956097e+02 1.7445922639462440e+03 -1.7466380855728814e+04 7.9894262436913468e+03 9.1354218093555858e+01 3.7553724167920791e+02 5.0399312695738075e+01 -6.2377976818720970e+02 3.2508909819279143e+02 7.1827810484727456e+02 3.6474027954243604e+02 -3.3415865430072627e+03 -5.6284943589974733e+04 -5.9489080814348938e+00 -1.4231187518631953e+02 -3.7217039232809361e+02 7.2486049603566687e+02 3.2435998944170819e+03 -2.1346118144488059e+01 6.7305480468992027e+02 3.1785510034617619e+02 1.1804310940345391e+04 -8.7272777690609871e+01 2.6426339689955387e+02 -8.5404358616073259e+03 
      </Row>
      <Row Index="6">
        1.4884957463125033e+01 -2.2024957907426039e+01 1.6314328636478720e+02 5.5489101184048479e+01 1.1625723498590058e+02 -8.7390820659294841e+03 3.0941928882278935e+03 -5.3395339903941647e+01 -3.0825176098071001e+00 1.9419221562211465e+01 5.8773181271995036e+01 5.2174134873697945e+01 -3.2407128500221773e+02 -3.2552935739326432e+02 -3.9558552602855580e+03 5.2439871653795853e+02 -6.4778766781243164e+01 -4.9795158445918531e+01 -6.6228545793932469e+01 -4.5283993751410833e+01 -1.7827676152109711e+02 2.8911684395414460e+02 -1.2175443782126831e+02 -1.4966057801470015e+03 -4.8029776683708142e+03 9.9533795432414024e+01 -2.8122830378747828e+01 1.9030461122168489e+00 2.0023760178909032e+02 6.7609834622250219e+01 -1.7645389429690118e+02 -2.6000341038539136e+02 2.2697990952292294e+03 -1.1008891179170578e+03 2.0056336813943815e+01 1.1472407003489934e+01 -1.0013675266913562e+01 -8.4936663489005753e+01 2.5814034784927577e+02 8.8136994367303899e+01 2.8793157851153552e+01 -4.4092903633047990e+03 5.6124710991867050e+03 -8.1840136867439988e+00 -8.1835316951616619e+00 3.2709677786722295e+00 1.8744804630687330e+01 -1.7715404219935544e+02 -1.6918922670859206e+02 -1.4085287229981031e+02 -1.8323055219009984e+02 -1.2951824193901932e+03 -2.2824587142970611e+01 2.9256907948646827e+01 9.4653954239343318e+02 
      </Row>
      <Row Index="7">
        1.5856829109095338e-01 1.0129264928852290e+01 -1.6005437967609407e+01 -3.3714018741616600e+00 -4.2896624677101745e+00 -7.7140929145631389e+01 -5.3395339904267040e+01 5.1410701730005520e+01 1.5011360316827367e+00 -7.0513671027422271e+00 -3.4727762406332872e+01 6.8543812104071318e+00 -3.2462697509619840e+00 -8.6004017816380518e+00 1.4692654429175187e+02 2.1489871811822070e+00 -3.1896577409531170e+00 2.1755620487465830e+00 4.9086514665841496e-01 2.2218575400447246e+01 9.6552244494859423e+00 -1.5313339195698141e+01 2.6904404301002064e+01 -2.6036857041781332e+00 6.8725371514005467e+00 -2.1071059596908519e+01 1.3410447630612923e+00 -1.0843530297384948e+01 -3.0707382968179573e+01 6.4819645211842873e+00 -9.9306526596038545e+00 9.1744274750201829e+00 -7.8671235632626150e+01 -3.6431098586849579e+01 -4.4209748326216696e+00 -3.0563295531748227e+00 -4.0766132387907439e-01 7.3335355996382638e+00 -6.6837687226170832e+00 -7.6663048065713575e+00 1.3242386643365631e+01 1.5756910864613485e+02 -5.6858937539486263e+01 -1.6049486662328827e+00 6.9940771627836007e-01 6.8846021617627073e+00 -4.3359073066583331e+00 2.6906801852828748e+00 -3.7593444245022836e+00 8.7688816647500545e+00 8.7497832752360196e+00 9.8912102539253279e+00 1.7346591552094964e+01 -1.9582895003399168e+00 1.2238041925006142e+00 
      </Row>
      <Row Index="8">
        -1.9054938194210536e-01 -4.9438221420741826e+00 -7.8601160278186022e-01 -4.2927509698113514e-01 1.2162960560659574e+01 5.0587728585161210e+02 -3.0825176070299989e+00 1.5011360316913454e+00 1.3082848680621733e+01 3.4158441847589482e-02 5.8444662425477567e+00 5.8189430073160420e-01 2.9322690196259455e+00 -1.1009590783514712e+01 6.8815081076564002e+02 1.5483599769921921e+02 1.6907253569023539e-01 -2.0581938468491007e+01 -1.5880439916480404e-01 -5.0628660334816793e+00 3.4909640816421907e+00 1.1381372169900246e+00 -9.2571260125729165e+00 4.6626157384830657e+02 -2.2257099323269117e+02 -7.6767708987884919e-01 -1.1906020977065952e+01 -6.2470568362208645e-01 2.4887183972401905e+00 -5.7966966258941746e+00 3.5449958505631765e+00 -9.3893980095673566e+00 -1.5082180706803504e+02 -3.5331049640189150e+01 -6.8314253215362952e-01 6.6757230025252738e+00 1.7330053618929847e-01 8.9577492118144209e-01 -5.0677371569018952e+00 -1.1004039770617315e+00 -3.2561718676260503e+00 -3.9514094634591225e+02 3.0368876790698573e+02 -3.6888254706465873e-01 -3.3184918569247115e+00 2.7484469607271089e-01 1.0402921543299308e+00 2.9024902560970389e+00 1.7972135390534270e+00 -4.1500875273746090e+00 -1.9434329295241980e+01 -6.0215563212621063e+01 5.3082277980982129e-01 8.2235150825493495e+00 4.8185295714784530e+01 
      </Row>
      <Row Index="9">
        6.4884794324546569e-01 8.3036597564084191e-01 1.9748840726676359e+01 -4.2371587934099502e+00 1.3887742334972753e+01 1.1097134944863853e+02 1.9419221564726630e+01 -7.0513671027390927e+00 3.4158441896142477e-02 1.3178781344720662e+01 -1.1310327415355790e+00 -2.3765339972216086e+01 -4.0410012899523640e-01 -1.7647929881070638e+01 6.3156963602998076e+01 1.1486373883803515e+02 -2.1334213279564511e+00 1.1561451889394241e+00 -6.1787795356283448e+00 9.8078181383869421e+00 -1.3771532588037942e+00 1.0120942955048564e+01 2.2884665659407890e+00 -3.0896685314717161e+00 -9.2139728284797883e+01 5.5638576065420118e+00 1.2912201176897709e+00 7.1944275770923678e+00 1.1292747293512395e-01 -6.3128560859119638e+00 1.0074324353997813e+01 3.8372922585010438e+00 6.5035991685504541e+01 1.9181795434972635e+01 -4.9763868469568506e-01 -2.1027137548210462e+00 2.0290357799859202e+00 2.2908077667129456e+00 -2.1332422240818779e+01 -4.9993162922581842e+00 -6.8088441565434970e+00 -6.1874967852638122e+01 1.6463942080482860e+02 3.6193095108324075e-01 4.3655811472213202e-01 -5.6065771357529250e+00 -5.5335188476332609e-01 -1.5962191869899065e+01 1.0831018074937003e+01 -6.7386449038504281e-01 -5.5196590751782821e+00 -3.1041091774165718e+01 -2.7084379276435526e+00 -1.5050941100622417e+00 1.9163622876455761e+01 
      </Row>
      <Row Index="10">
        1.8224464646462764e+00 -1.2172913067893401e+02 3.4999438592657583e+01 6.0508725531713594e+01 -5.7703449362140518e+01 3.1496681409103685e+03 5.8773181260663215e+01 -3.4727762406295568e+01 5.8444662417967805e+00 -1.1310327419457264e+00 4.4848852708486532e+02 -1.9816379776389798e+01 -4.2013129358837574e+01 5.3406742314906538e+01 1.0086077044414394e+03 2.1063924717138934e+02 3.1151638342638250e+00 -3.9229338547658045e+01 7.3594698014909776e-01 -4.9988542424433984e+02 -2.3563482342542844e+01 -5.1577120031773589e+01 -1.0742629858634928e+01 5.7891764792646063e+02 -4.0255745869142345e+02 2.4496131312486224e+01 -7.5362522407250578e+00 1.0854762231219626e+01 3.0732000591518943e+02 -2.5981508254419204e+01 8.4720421797418819e+00 -6.1600847986433116e+01 -1.0015132245756333e+03 -8.9417186970965645e+01 -9.3540450016539367e+00 3.2371228415549830e+01 -2.6273760329696048e+00 -5.1264035346038717e+01 5.3119270650938475e+00 6.8277078012487209e+01 1.3444787751463991e+01 2.4751642688270215e+02 5.4256718483526765e+02 3.8132616181386867e+00 -7.7690934527204112e+00 -3.4526489223664916e+00 6.3469079830855009e+01 8.2952493960526112e+00 -6.9598822663983427e+01 -2.4295365539454906e+01 -6.1097747794700581e+01 -9.9107459511990484e+01 -1.1472987859375042e+01 2.4182902172061191e+01 7.5380762693200623e+01 
      </Row>
      <Row Index="11">
        1.0527196889630517e+00 -2.0057965341181916e+00 -1.2671107132989965e+02 9.8398684125765108e+00 -4.8716918932601772e+00 3.6905023440394984e+03 5.2174134864942801e+01 6.8543812103772552e+00 5.8189430084777882e-01 -2.3765339972006835e+01 -1.9816379778753198e+01 2.0734798420797145e+02 2.8242652457373772e+01 3.0910604246184480e+01 1.1949034563109994e+03 -7.7010000309930638e+02 3.4113134908233178e+00 -1.6751052244722260e+00 3.1241393616642714e+00 1.5995896094139871e+01 -6.2051294989340278e+01 -7.0113678303675414e+01 -3.5555845175599984e+01 1.5618806495570248e+03 8.2863675473163244e+02 -6.4957425449367854e+00 -1.0016107987347464e+01 -1.4223004786856544e+01 5.2024335603477788e+01 3.7257791463435922e+01 -6.2557612925537256e+01 -2.7212376569754991e+01 5.0586004057630043e+02 1.4116494352186362e+02 2.3283385478146101e-01 1.7345917840589777e+00 -6.4787868421395221e+00 -1.0573941981236775e+01 1.2439323150720310e+02 -2.2814533629039175e+00 1.8869740791055918e+01 -6.3049002603619670e+02 -1.0601699010953180e+03 -6.8090802367913272e-01 -6.8281057405187262e-01 1.2468512254557163e+01 4.4499316218592035e+00 8.5541199168153923e+01 -4.3639390290409779e+01 -4.4561527919211130e-01 4.9014281397324794e+01 2.1676034354105138e+02 2.5626722253201750e+00 5.7385833649139641e+00 -1.5331149081196230e+02 
      </Row>
      <Row Index="12">
        1.4080626584184408e+00 -3.6659995536243626e+00 -2.9957596603556617e+01 -6.6278204661605258e+01 3.7866321803873220e+01 6.8568039608803520e+02 -3.2407128498534632e+02 -3.2462697510193408e+00 2.9322690204843695e+00 -4.0410012858129973e-01 -4.2013129357712501e+01 2.8242652454422075e+01 1.2743029823736697e+02 -3.0056671743378125e+00 8.1220194604579046e+02 1.2218101210513237e+02 5.7507844893019140e+00 1.0601190449166964e+00 3.1937049283809160e+00 8.2217864209722393e+01 1.1691527746813934e+01 -6.7234897016897833e+01 5.9842135246636744e+01 7.4817316938189401e+02 2.5192016194566045e+02 -1.5337483258538851e+01 9.6357263463602862e+00 3.0751215544120925e+00 -3.2580149799815999e+01 1.2311980511685666e+01 3.5974931171339442e+01 4.9119506044225318e+01 2.3223929318160936e+02 1.4849702029036098e+02 -3.8563945542824172e+00 -6.2717061906564027e+00 1.2526950085234427e+00 3.0297294388164257e+01 -1.1069328590651303e+01 -6.7025555532083445e+01 1.6259274700233433e+01 1.1239002976241918e+03 -2.7186442145176579e+02 -1.9166708845601685e+00 1.3560042182885024e-01 -3.6377919911406793e+00 -9.1462290676655389e+00 8.5225056052613155e+00 7.5044508176064539e+01 3.6917383784709784e+01 2.2559720676197003e+01 3.4619635630796587e+01 -2.9944823829230280e+00 -5.2420660023102528e+00 -2.4884598250801115e+01 
      </Row>
      <Row Index="13">
        -5.1450740515888924e+00 1.4325804922145942e+00 -4.2674867447809987e+01 3.5911137133491209e+01 -1.7724696203443568e+02 2.3413347695700154e+03 -3.2552935742343220e+02 -8.6004017816762826e+00 -1.1009590783922732e+01 -1.7647929880798959e+01 5.3406742308576320e+01 3.0910604247926763e+01 -3.0056671676206426e+00 2.7292610845174289e+02 1.6963981427516537e+03 -1.2974260522253462e+03 1.7376935268768648e+01 1.2488073247469949e+01 2.1172064755262713e+01 -8.9163533048617239e+01 -6.6112565079279477e+00 -4.4436253047600985e+01 -3.5056164470435647e-01 1.1931718551415977e+03 1.9636614392198001e+03 -1.9713027589904222e+00 2.9279624567189773e+00 -3.3083495815997139e+00 4.7328704985501616e+01 -1.6831677798172901e+01 -9.1083733834304894e+00 9.9895379634641614e+01 8.1449568873662429e+01 2.6737359054612165e+02 9.4464168739514207e+00 1.8183001539005090e+00 -1.7926025912935555e+00 -1.8057364673828033e+01 2.3899258145949190e+01 6.6581305889262424e+01 3.2986565931515074e+01 4.7310707093813107e+02 -2.7978011345437876e+03 5.3783529152918508e+00 2.6505491484629697e+00 3.8351155758392936e+00 1.1599795769768310e+01 6.8183694482577152e+01 -4.0951904814074382e+01 3.4484762338322867e+01 5.6639260884867326e+01 4.6930122990295638e+02 8.3324338424427324e-02 -1.5364918242238517e+00 -3.2638926109068029e+02 
      </Row>
      <Row Index="14">
        8.4786397484736881e+01 -7.2406462775595301e+01 -1.0868056012731131e+02 -2.1058907283785447e+02 -1.9086094858447016e+03 -1.3160231544123855e+05 -3.9558552605978698e+03 1.4692654428981405e+02 6.8815081077653031e+02 6.3156963618137638e+01 1.0086077043046087e+03 1.1949034562941640e+03 8.1220194621936264e+02 1.6963981425831471e+03 8.6031529642962059e+05 -3.2504205951220938e+04 4.4740728518852848e+01 -1.2333219200099823e+03 2.2345548615302971e+02 -6.9312577904763657e+01 1.3998737943635911e+02 -5.4797596617893305e+02 3.3300228113839148e+03 -7.9598861734941253e+04 4.4385922548917850e+04 -6.5343655853283963e+01 -3.9713648137201972e+02 4.2081617219034524e+02 3.6404064990423262e+02 3.3018768295738664e+02 1.5255882365036632e+02 2.3976150417454455e+03 -6.8684478426037531e+03 6.9665574596546685e+03 -5.7688463861450145e+01 3.2139889603855227e+02 2.8028215944634738e+01 2.2364843698907123e+02 -9.8890196711137150e+01 -3.6328744274240933e+02 5.2021006244980424e+02 -2.2776290915304926e+04 -6.0588916270983660e+04 -3.3784493865281213e+01 -1.4864150375471888e+02 -2.6014476166535883e+02 -2.7135282051731018e+00 1.0507445911070681e+02 3.1623025943411028e+02 1.2195218219136223e+03 7.1451994403783465e+02 1.2348260180220419e+04 -1.1356261610322605e+01 4.8759805210815421e+02 -9.6751479746286168e+03 
      </Row>
      <Row Index="15">
        6.5741591836776934e+00 -1.1844729375091325e+02 9.3794661717662700e+02 -9.3285729493048919e-01 1.4401699849892859e+03 -2.4768706715975291e+04 5.2439871673082826e+02 2.1489871834928636e+00 1.5483599768497334e+02 1.1486373882274562e+02 2.1063924728094764e+02 -7.7010000306753000e+02 1.2218101196014504e+02 -1.2974260520505486e+03 -3.2504205950399883e+04 2.3253944894491578e+04 1.5779592842372949e+00 -2.0012892415344615e+02 -7.9499627870700351e+01 -3.1893269791333648e+02 -6.8602305085652858e+01 1.8712206332283404e+02 -1.5687316688196315e+03 -6.6246073539906938e+03 -2.9192622119577674e+04 -2.4813044350281253e+01 -1.4692242908012247e+02 3.5744389549472544e+01 -1.9691154944474874e+02 -2.9426990657435198e+02 3.5164836818922959e+02 -1.2584248848263310e+03 3.8918860853221100e+04 -3.2364864982593231e+03 -3.2704925297901354e+01 1.3980124379210247e+02 2.6837696084662291e+01 2.7025732980422504e+01 -7.2943545754732804e+02 -7.1195279871343985e+01 -5.8734657251439978e+02 6.3351880502434651e+03 4.0638552325285433e+04 -1.8007027704370294e+01 -5.1144401539690300e+01 -4.1303755690174100e+01 6.0503715625362862e+00 -6.8400485340240266e+02 1.9022720561419339e+02 -6.3317455774250266e+02 -1.0791205666500609e+03 -1.0593611533039571e+04 -1.1991460259796007e+01 9.8261094726349143e+01 8.5801964786177286e+03 
      </Row>
      <Row Index="16">
        -2.5314021552068668e+00 -6.2244332291334761e+00 -8.4064557237250241e+00 -7.7865775432521622e-01 -9.8501238542621579e+00 3.8524897085792759e+01 -6.4778766782082741e+01 -3.1896577409569318e+00 1.6907253569019609e-01 -2.1334213279269640e+00 3.1151638340200094e+00 3.4113134907805494e+00 5.7507844895658398e+00 1.7376935268584059e+01 4.4740728523317969e+01 1.5779592800126920e+00 2.0098170449438790e+01 3.0129294793598160e+00 5.9710631488153432e+00 -8.8744064337137480e+00 -2.1966591111747746e-01 -3.9148235693463675e+00 -4.6608315086301495e+00 -1.8002482734728460e+00 8.2061008818849260e+01 -1.0574032934955619e+01 -9.9377788591360572e-01 2.1400476901518033e+00 -1.0727604643726412e+01 -4.1117137557500882e-01 8.2870320429638262e+00 1.7676107355278816e+00 -1.2550320525653819e+02 -8.9905685396511945e+00 7.4973892834574869e+00 2.3546319399829159e+00 7.0699167304064903e-01 1.4042229273449329e+00 -1.3148236170353581e+01 6.6129299809070892e+00 -6.6282728079618103e-01 1.1489278623783582e+02 -1.0335878088519746e+02 2.0210854927097590e+00 6.0818558514189280e-01 -1.6157705193751286e+00 -2.2635967202509555e-01 4.9927104889357672e+00 6.6605022139335635e-01 2.1092434410713423e-01 5.0773104890594141e+00 1.8310988122487263e+01 1.2059021653035704e+00 1.1722516243731462e-01 -1.0761099676332611e+01 
      </Row>
      <Row Index="17">
        -2.4279118212049866e-02 1.3349076016018017e+01 -7.9464203519643002e+00 -7.0179536445744839e+00 -1.0142695624573353e+01 -4.5297548006877275e+02 -4.9795158449152289e+01 2.1755620487308249e+00 -2.0581938468419246e+01 1.1561451890621299e+00 -3.9229338548842527e+01 -1.6751052245607867e+00 1.0601190463767693e+00 1.2488073246165513e+01 -1.2333219200062390e+03 -2.0012892416509294e+02 3.0129294793351846e+00 5.0823541714316995e+01 -1.0357348449996993e+00 5.0938313997991500e+01 7.7241770412604271e-01 1.8165465166961852e+00 1.2934398517452069e+01 -1.2382401753098054e+03 4.2406504211872277e+02 -2.9690732813576939e+00 9.9926660009845669e+00 5.3921404642721882e-02 -2.1683007800450895e+01 1.2580661447497107e+01 -1.1736043999351153e+00 3.0827924387138548e+01 5.2724419612546308e+02 5.7917817470428602e+01 1.1048483087622003e+00 -1.5532637933337483e+01 -1.6716973684475035e-02 4.6915583814145760e+00 -3.6908120685501533e+00 -8.3919123784025285e+00 1.0284256611521285e+00 1.1569676255974553e+03 -5.3712103021989901e+02 1.0591794054631820e+00 6.7612591516108509e+00 -4.8816344029435993e-01 -6.6185226776694011e+00 -3.3576470457973642e+00 7.8001554879054531e+00 1.1093607415573615e+01 3.6016655594631857e+01 1.0480782876505658e+02 1.1479146159289504e+00 -1.7977095030130002e+01 -7.9439049167568001e+01 
      </Row>
      <Row Index="18">
        -3.4171345896812717e+00 -2.9195106345809414e+00 -3.8019751692993045e+00 -7.1933138476895908e-01 -1.9249634682296499e+01 3.9493060257336742e+02 -6.6228545794810529e+01 4.9086514665027892e-01 -1.5880439913024702e-01 -6.1787795355735717e+00 7.3594697977657475e-01 3.1241393615448843e+00 3.1937049288528101e+00 2.1172064754764030e+01 2.2345548615285122e+02 -7.9499627872268320e+01 5.9710631488084474e+00 -1.0357348450148731e+00 1.3201210044266297e+01 -1.3105487660234854e+00 4.9781079686847658e+00 -3.8705294078077657e-01 4.1952027879078919e+00 2.2881216848538293e+02 1.1165976027186294e+02 -6.2780489462395277e+00 1.2381665144553491e+00 1.9562937858412539e+00 -6.1918690975030390e+00 1.3129787449773005e+00 2.7794651865840336e+00 4.2605060657184053e+00 5.2183976669361073e+01 -2.5807337590667053e+01 3.6410467742565089e+00 8.5294618614940632e-01 8.8443689721478058e-01 5.5964148407856906e-02 -2.2856823937482100e+00 2.7734011273522921e+00 -3.0195046585062890e-02 2.4003922648775955e+01 -1.7382163718936934e+02 -3.0101164404891545e-01 -2.9030725696710391e-06 -2.4484796074394083e-01 -6.8252788305985601e-01 6.4425456186606098e+00 6.9360931698421191e-01 4.3664417748026523e+00 4.4213576860518629e+00 3.4666595162040096e+01 2.3296597297738963e-01 2.0563761698481864e-01 -2.4952648112705791e+01 
      </Row>
      <Row Index="19">
        -6.5721832179183366e+00 6.8499027257547269e+01 -5.3800520137611841e+01 -1.2620015487343363e+02 1.1587833331754193e+02 -2.3262461000691410e+03 -4.5283993722810408e+01 2.2218575400375073e+01 -5.0628660318148633e+00 9.8078181392499175e+00 -4.9988542424346485e+02 1.5995896088690898e+01 8.2217864211199014e+01 -8.9163533062255084e+01 -6.9312578225196376e+01 -3.1893269765117930e+02 -8.8744064342531033e+00 5.0938313995286308e+01 -1.3105487668957738e+00 7.9045552844614645e+02 8.0534477434587174e+01 1.1158405968502733e+02 5.2529592848706457e+01 5.2629873003244256e+02 5.5969653770988145e+02 -1.4743186291018340e+01 4.8429773132936607e+00 -6.3022838889216928e+00 -3.6616274493940983e+02 4.2016344227703144e+01 1.4224115878711103e+01 1.2765629064779401e+02 3.7300398175148246e+02 1.0166605741715244e+02 1.0284426775744805e+01 -3.9555513185391177e+01 5.3230333540557151e+00 9.5712128364682144e+01 -1.5089237922181951e+01 -1.6168247983149649e+02 -3.1323048560081219e+01 9.1257916414039187e+02 -7.9362709887280880e+02 -5.2664655907324942e+00 4.9423736124256354e+00 -9.2451134249323186e-01 -8.9899409584102955e+01 -2.4094570286925915e+01 1.5666055891287110e+02 5.5291087380773604e+01 4.0873205625293622e+01 1.4841362824256277e+02 4.2157876467687778e+00 -3.1563862990715975e+01 -1.1574830719852137e+02 
      </Row>
      <Row Index="20">
        -2.9366664255632884e+00 -2.2608109702879542e+00 -2.7781991307589692e+01 -4.1632118990333595e+01 2.0526429396351553e+01 -1.3330235609740866e+03 -1.7827676152106375e+02 9.6552244495039758e+00 3.4909640817983956e+00 -1.3771532586630784e+00 -2.3563482343275556e+01 -6.2051294989834176e+01 1.1691527747911209e+01 -6.6112565097445568e+00 1.3998737941739586e+02 -6.8602305073887692e+01 -2.1966591118305701e-01 7.7241770395335152e-01 4.9781079686244638e+00 8.0534477436396372e+01 1.3992126740069187e+02 6.3323002059370879e+01 4.6809914744119396e+00 -3.3795168221624681e+02 2.2982428166570091e+02 2.1800133477253709e+00 1.5500892487575770e+01 1.0947530564477006e+00 -7.4013742012642751e+01 1.9607276090031405e+01 2.5298155658934419e+01 -8.3367485358355076e+00 -4.1488296070442425e+02 -3.1351638057019855e+01 -4.5797409650024861e+00 9.3038143841704368e-01 5.0534621161993099e-01 2.2183684905431509e+01 -3.0516639563422878e+01 -4.1601576263964134e+01 -1.5432811239194884e+01 4.6215471797057467e+02 -4.9174268055848825e+02 1.2414407173092492e+00 -1.2615509590589780e+00 4.7858714216453535e-01 -1.4941384484766424e+01 -1.1932605220794500e+01 4.2705349526637178e+01 5.2280136351907345e+00 -1.8523428021465293e+01 8.0272788763604098e+01 3.9111768387014854e+00 -5.4100301428375612e+00 -5.3110023576793090e+01 
      </Row>
      <Row Index="21">
        -8.2270675402838336e+00 8.2564733281002916e+00 4.3768528780895949e+01 -1.6841851343188114e+01 1.8587406913807364e+01 -1.1145018740716646e+03 2.8911684395592101e+02 -1.5313339195650173e+01 1.1381372168184427e+00 1.0120942954885066e+01 -5.1577120030908404e+01 -7.0113678303243702e+01 -6.7234897018211825e+01 -4.4436253045816692e+01 -5.4797596616422186e+02 1.8712206331924563e+02 -3.9148235693386653e+00 1.8165465168661967e+00 -3.8705294077053232e-01 1.1158405968284303e+02 6.3323002059358473e+01 1.6413879656027791e+02 -2.5275222950002611e+01 -9.2827682773963579e+02 -6.0541903275101629e+02 1.7493881428929242e+01 8.3801790683882373e+00 3.0835612420676171e+00 -8.5179779186219548e+01 -4.4793801978674423e+00 1.6899581597130634e+01 -3.0177277550532846e+01 -1.0438210150898021e+02 -1.6124220092150790e+02 4.5318130134949683e+00 8.6764697761324783e-02 1.4954353052011902e+00 -8.3688740600210121e-01 -3.2285644928707036e+01 -5.9782152808128250e+00 -5.6978151434343900e+01 -1.3521129000177478e+02 6.8109274360239851e+02 3.2311050523681972e-01 -7.1251713057945043e-01 -1.0124960543819674e+00 -1.8779471543280682e+01 -4.8875152642368988e+01 1.8590433777123671e+01 -2.3470989551814114e+01 -5.0435752572657634e+01 -1.1577238616239205e+02 -5.9371672565575686e+00 -4.1346132255685042e+00 7.3635260121335847e+01 
      </Row>
      <Row Index="22">
        -1.0564090037869903e+01 1.0079757539246224e+01 -1.0361783599455730e+01 -1.1435040407979318e+02 -2.3689967871455363e+02 1.2689581123811963e+03 -1.2175443779928385e+02 2.6904404300708393e+01 -9.2571260101440203e+00 2.2884665677004250e+00 -1.0742629862841014e+01 -3.5555845183397878e+01 5.9842135254885989e+01 -3.5056166798011645e-01 3.3300228110023768e+03 -1.5687316685402839e+03 -4.6608315093981219e+00 1.2934398514038094e+01 4.1952027868694479e+00 5.2529592860978148e+01 4.6809914728238500e+00 -2.5275222947551640e+01 7.4652263244941219e+02 2.9908451931267332e+03 1.7849314534786920e+03 -1.6449090523385237e+01 3.0088168247684088e+01 -6.2094813144972250e+00 -3.0148105332140403e+01 -2.0885899436969339e+01 5.0652815007013714e+01 3.8670690805111747e+02 2.2795398286440068e+03 2.3228981656980068e+01 -4.1778642865242546e+00 -1.8572437308923099e+01 1.7753771630361732e+00 3.0955913608305188e+01 -6.3014643312736581e+01 -7.1016878537037940e+01 1.6241546577247502e+02 1.2278989921394618e+03 -2.9778782600271711e+03 -1.0712489237068334e+01 7.1100371615634970e+00 2.0186663927701436e+00 -7.9360718133885300e+00 1.9892072644336849e+01 1.2563135482376325e+02 1.9684783682688931e+02 5.3757246155343637e+01 6.9230061833764159e+02 9.2918755453464161e+00 -1.6092050480940312e+01 -5.4626801935956257e+02 
      </Row>
      <Row Index="23">
        4.6103844417010805e+01 -6.0476470804344046e+02 -2.8455988056174647e+02 1.0712751763123288e+02 -1.7500920129282765e+03 -7.8760805431980887e+04 -1.4966057799290738e+03 -2.6036857069411781e+00 4.6626157386374712e+02 -3.0896685214802346e+00 5.7891764792539448e+02 1.5618806495033659e+03 7.4817316940633964e+02 1.1931718550100902e+03 -7.9598861737679748e+04 -6.6246073518016783e+03 -1.8002482778920239e+00 -1.2382401753340346e+03 2.2881216847814352e+02 5.2629873005404863e+02 -3.3795168223205485e+02 -9.2827682771898662e+02 2.9908451930504166e+03 9.2766399693023588e+05 6.0128604649628796e+03 -2.6482428293582416e+01 1.3062295861945842e+02 2.8875190976953854e+02 1.1543524238465288e+03 1.3326491408201036e+02 -1.0518400093991386e+02 1.7210346836025510e+03 -5.8660480203378393e+03 1.3031877555846731e+03 -1.3178078701651430e+01 2.3518426883594839e+02 5.8936550057894834e+00 -2.6298815208298443e+01 2.6254639681591226e+02 -8.8506121072014864e+01 4.6587154058928161e+02 9.2352856836881638e+03 -8.9792031230229095e+03 -5.0058876520285594e+01 -1.0905950425595918e+02 -1.6597126639942769e+02 1.4988087829438780e+02 4.7486433949757611e+02 3.9077053840659062e+00 9.1889142396023180e+02 1.5264134003383078e+03 2.4195424477884571e+03 -5.2527913623146681e+01 3.7142608814020571e+02 -2.1021209446509915e+03 
      </Row>
      <Row Index="24">
        -1.5069399985581185e+01 1.9645783952843379e+02 -1.3869166100375078e+03 -1.8824181115953252e+01 -1.7659129723305143e+03 4.1796151591707283e+04 -4.8029776686225687e+03 6.8725371480395552e+00 -2.2257099321093028e+02 -9.2139728262007338e+01 -4.0255745884767595e+02 8.2863675468041401e+02 2.5192016215430704e+02 1.9636614389568367e+03 4.4385922547506598e+04 -2.9192622119368170e+04 8.2061008812299406e+01 4.2406504209981358e+02 1.1165976026878494e+02 5.5969653808537385e+02 2.2982428168140396e+02 -6.0541903275352161e+02 1.7849314538684846e+03 6.0128604680634089e+03 4.4030988296061689e+04 -7.2615655485875322e+01 1.8480752093714105e+02 -2.7707455623552960e+01 2.3333358656731434e+01 2.7553868295421125e+02 -1.8107455442743776e+02 1.8214755023832699e+03 -5.3907106609509545e+04 6.2642720057520783e+03 5.0986552794638555e+00 -2.2257107325451398e+02 -1.6427909704651768e+01 8.8565361770411954e+01 5.3668333844111521e+02 -4.0815144006503090e+01 5.1947245310038761e+02 -2.7837361067558886e+03 -5.8524473745474999e+04 5.4970332925269673e+01 8.6949812706013120e+01 2.7162636899125758e+01 -3.1742936783403685e+01 1.0559651072699089e+03 -4.1957715392383989e+01 8.9226595892813202e+02 1.6661015452244465e+03 1.5268142169371629e+04 2.2734188302879595e+01 -1.8811217589677750e+02 -1.2286643860238664e+04 
      </Row>
      <Row Index="25">
        7.3180238551549159e-01 -5.7464221632666224e-01 9.5682905982730162e+00 5.1148575184561693e+00 4.8160830424560803e+00 2.4429682888416556e+02 9.9533795430487757e+01 -2.1071059596894226e+01 -7.6767709001233086e-01 5.5638576064603420e+00 2.4496131312515661e+01 -6.4957425444796009e+00 -1.5337483258765943e+01 -1.9713027578110989e+00 -6.5343655829968128e+01 -2.4813044368940382e+01 -1.0574032934912736e+01 -2.9690732811477005e+00 -6.2780489461743691e+00 -1.4743186291241376e+01 2.1800133478592656e+00 1.7493881428753173e+01 -1.6449090522763612e+01 -2.6482428294554893e+01 -7.2615655459319868e+01 2.7810065867238524e+01 -1.2393223165478595e-01 5.3184790122296164e+00 3.5066493543700972e+01 -4.3271931538122033e+00 -6.1655014394143066e+00 -8.4109027127795013e+00 1.3417538924378960e+02 1.9430444834799232e+00 9.3584107256130977e-01 2.3135502755128350e+00 -2.6536297412977583e-02 -8.4973536078606440e+00 1.4680942676501957e+01 1.0207286640211208e+01 -4.4897553912675674e+00 -4.2462828575464607e+02 1.0011862158817772e+02 1.3314955995526061e+00 -6.9145908551013457e-01 -2.8985232850905720e+00 4.6229314967626269e+00 -3.2327256119553383e+00 -7.9242235326016699e+00 -8.6316053750647299e+00 -1.4409057194012945e+01 -2.4351194353667655e+01 -7.3850049395214086e+00 1.8031156448640473e+00 1.3800697697691342e+01 
      </Row>
      <Row Index="26">
        4.7026787780725243e-01 6.6235160329024136e+00 1.0095576023786435e+01 -9.7638816274179874e+00 -5.0946335628281325e+00 -5.1092941669496111e+02 -2.8122830379362100e+01 1.3410447630520821e+00 -1.1906020976968776e+01 1.2912201177828564e+00 -7.5362522413187474e+00 -1.0016107987571331e+01 9.6357263471822421e+00 2.9279624555332546e+00 -3.9713648138119379e+02 -1.4692242907710533e+02 -9.9377788595208472e-01 9.9926660008837871e+00 1.2381665144288949e+00 4.8429773147209474e+00 1.5500892487589512e+01 8.3801790683628852e+00 3.0088168249052362e+01 1.3062295863148756e+02 1.8480752093385058e+02 -1.2393223175567414e-01 3.5709984422670217e+01 2.6344432939385456e+00 -1.6786934592357397e+01 3.2627149530967472e+00 4.9098261440348168e+00 1.1235688167899145e+01 -7.1848120072470749e+01 5.3147915910783809e+01 -1.3695197256627409e+00 -9.5794841799204136e+00 4.6056063965977012e-01 1.8692497732137079e+00 -1.0035852444654287e+01 -8.0822144350667262e+00 1.3291213142350689e+00 1.6735592555243647e+02 -3.1220029633603281e+02 -5.5203002934165646e-01 3.0952636178389401e+00 -1.7938434487160784e+00 -3.3561024206652252e+00 -1.4029752356610047e+01 1.1050757813476578e+01 8.1947232667674825e+00 1.8694936476736473e+01 6.0925344302443740e+01 4.5071957866631873e-02 -1.1679416705377133e+01 -5.1261119078841034e+01 
      </Row>
      <Row Index="27">
        1.8637784598999469e+00 -1.7523381350261968e+00 1.2655565109127934e+01 -2.6765865827057103e+00 7.9021815016443897e+00 5.5919109284386889e+02 1.9030461134251837e+00 -1.0843530297383719e+01 -6.2470568357700595e-01 7.1944275771102824e+00 1.0854762231335631e+01 -1.4223004787013560e+01 3.0751215543363015e+00 -3.3083495819489506e+00 4.2081617218108426e+02 3.5744389558374749e+01 2.1400476901303684e+00 5.3921404558076702e-02 1.9562937858076548e+00 -6.3022838891251762e+00 1.0947530563909824e+00 3.0835612421613479e+00 -6.2094813152120878e+00 2.8875190976559549e+02 -2.7707455636513139e+01 5.3184790122555095e+00 2.6344432938883040e+00 1.2747806492014448e+01 6.8302475425044591e+00 -1.3533918542589358e+00 6.4845765599715053e+00 -4.4740517699467439e+00 1.6481238150952692e+02 2.3877329693806146e+00 1.5467876698512577e+00 1.2062668996269101e+00 2.4547862507342333e+00 -4.4033973205869531e-01 -1.0636853308141605e+01 -5.4833734246438937e-01 -1.0483445301917707e+00 -3.2758806285618874e+01 4.5212356597712798e+01 9.2197221565549903e-01 1.9581106456853614e-01 -7.9881847181751926e+00 1.1918929572059320e+00 -9.8520358421196228e+00 6.5587123418522078e+00 -1.9917669116144703e+00 8.6109852876635529e-02 -8.0227052577952236e+00 -3.8044406923740239e+00 -3.1611995767381273e-01 9.6720724247194489e-01 
      </Row>
      <Row Index="28">
        3.2636057894529831e+00 -9.5588338620976984e+01 -5.4144630537712146e-01 6.1524199569828127e+01 -5.7524871097074929e+01 3.8087864526459825e+03 2.0023760177447053e+02 -3.0707382968163287e+01 2.4887183965344564e+00 1.1292747259692248e-01 3.0732000591431574e+02 5.2024335605926133e+01 -3.2580149799814514e+01 4.7328704991156329e+01 3.6404065004731569e+02 -1.9691154956750580e+02 -1.0727604643470812e+01 -2.1683007799244805e+01 -6.1918690970872667e+00 -3.6616274493825199e+02 -7.4013742011760343e+01 -8.5179779187299445e+01 -3.0148105325004884e+01 1.1543524238676341e+03 2.3333358833887559e+01 3.5066493543503697e+01 -1.6786934591691111e+01 6.8302475424509765e+00 3.4757899305862509e+02 -2.2741127899397924e+00 -3.1852091596059410e+01 -2.8580930671996249e+01 -1.0941302467417609e+02 -4.6222057480900787e+01 -1.6776763632343688e+00 1.0049924163899588e+01 -4.0680431524550213e+00 -5.7160847868626817e+01 6.1478134723320643e+01 6.9855888126730122e+01 2.8966930678034956e+01 -1.0768712806349929e+03 9.1518208974218865e+01 3.5419406022412159e+00 -2.7377939096132402e+00 -1.5215129329957695e+00 5.9891633328819893e+01 2.7822024967153176e+01 -8.8247544643568887e+01 -1.7700602132138933e+01 -3.3002147645721379e+01 -1.7143499203850325e+01 -1.0401585429819679e+01 1.6409513238421926e+01 1.0810675437582253e+01 
      </Row>
      <Row Index="29">
        1.4495004986197273e+00 -4.8887338853731155e+00 -3.7354544290056168e+01 -1.6725884623582687e+01 2.0589350287364297e+01 -1.1229222274635324e+03 6.7609834620308220e+01 6.4819645211794352e+00 -5.7966966258114994e+00 -6.3128560858379785e+00 -2.5981508255192310e+01 3.7257791463403578e+01 1.2311980512738941e+01 -1.6831677799151159e+01 3.3018768295408699e+02 -2.9426990657844408e+02 -4.1117137559535877e-01 1.2580661447442822e+01 1.3129787449867063e+00 4.2016344229542540e+01 1.9607276090116393e+01 -4.4793801980224046e+00 -2.0885899434679761e+01 1.3326491410050585e+02 2.7553868296146641e+02 -4.3271931539548802e+00 3.2627149531287643e+00 -1.3533918542119068e+00 -2.2741127907432883e+00 5.1874854039840784e+01 -1.2556497176974148e+01 -2.7763696349322888e+01 -2.8943818013242230e+02 -4.2240712185435882e+01 5.9007474289546735e-01 -4.0217446984349579e+00 -2.6985154255188575e+00 5.2132852963867213e+00 3.5137742539762002e+01 -2.4982193700803840e+01 9.1104716465488451e+00 -2.7112623172501435e+02 -3.9527871848441151e+02 -2.6390487859688783e-02 1.8099834091322347e+00 2.1708244767063376e+00 -3.7852615299371966e+00 3.2989752405920569e-01 7.7482103943980185e-01 -2.3296520758804320e+00 2.4478437362341310e+01 7.6294807716863929e+01 1.9879555047240758e+00 -3.9804692630408454e+00 -6.0706583654212537e+01 
      </Row>
      <Row Index="30">
        -3.2490007456671464e+00 -1.3463050502612921e+01 3.8291015153629360e+01 -2.9570849019322580e+01 9.2218870105643873e+00 4.8432223038004156e+02 -1.7645389428586273e+02 -9.9306526596195539e+00 3.5449958509335957e+00 1.0074324354147656e+01 8.4720421810095381e+00 -6.2557612927059822e+01 3.5974931170372301e+01 -9.1083733861634997e+00 1.5255882356377970e+02 3.5164836826933379e+02 8.2870320428154258e+00 -1.1736044006565010e+00 2.7794651863085265e+00 1.4224115876299564e+01 2.5298155658289183e+01 1.6899581597969750e+01 5.0652815000486363e+01 -1.0518400097021367e+02 -1.8107455454445005e+02 -6.1655014391553209e+00 4.9098261435839419e+00 6.4845765599659444e+00 -3.1852091595330648e+01 -1.2556497177481532e+01 6.4069708544545534e+01 4.2693828815679041e+01 1.1619569646714308e+02 -4.6999886295520810e+01 9.4455432895722424e-01 2.3959709867532553e-01 2.9557804839796082e+00 1.9802844201627135e+01 -7.7782430802009173e+01 -2.6813637661233713e+01 -1.5060189693623910e+01 -1.2860443583570714e+02 3.0812649336883214e+02 1.2844650737606345e-01 -1.0646409445113498e+00 -6.4949608101633274e+00 -2.9656118410004924e+00 -2.6385176647880442e+01 5.2441860187087499e+01 1.6215221529687227e+01 -1.9576972194949860e+01 -5.8501255313586718e+01 -3.6307033099820742e+00 -2.3514907892543704e+00 4.0482843885965082e+01 
      </Row>
      <Row Index="31">
        -5.0974545278767209e+00 1.7507106255285311e+01 -9.9636236137712331e+00 -5.6435833239499857e+01 -1.6575905050011625e+02 1.7445922637813442e+03 -2.6000341037906389e+02 9.1744274748388079e+00 -9.3893980081473956e+00 3.8372922596831813e+00 -6.1600847990628083e+01 -2.7212376574281052e+01 4.9119506051060739e+01 9.9895379619982350e+01 2.3976150415478332e+03 -1.2584248846938863e+03 1.7676107350941948e+00 3.0827924385327606e+01 4.2605060651826392e+00 1.2765629065882260e+02 -8.3367485363714096e+00 -3.0177277549436724e+01 3.8670690805681443e+02 1.7210346836821991e+03 1.8214755022033614e+03 -8.4109027134676353e+00 1.1235688167343255e+01 -4.4740517694071968e+00 -2.8580930677865581e+01 -2.7763696350508781e+01 4.2693828820465001e+01 3.4173974554660219e+02 1.4562884954046781e+03 1.6027061594577208e+02 1.4187104548332172e+00 -3.0659383615102911e+01 3.0714481263197051e+00 2.9859885896150928e+01 -5.9306099453710658e+01 -3.4352908763178924e+01 8.8108023146485110e+01 5.9445421543071177e+02 -2.7258431981678882e+03 -2.5503172669313852e+00 7.0805518455730736e+00 -1.9534592722331467e+00 -1.1949007435654629e+01 2.8628622553153377e+01 8.3487341951169753e+01 1.3616045293408115e+02 5.2337673214410643e+01 5.4817223920978563e+02 3.8719012370045940e+00 -2.1015634762647252e+01 -4.1246476872193131e+02 
      </Row>
      <Row Index="32">
        3.0958357633542619e+01 1.4145217763663807e+03 -2.7458073211252486e+02 -2.5749055802115981e+02 -7.8983390820808927e+02 -1.7466380859077486e+04 2.2697990958523283e+03 -7.8671235630681622e+01 -1.5082180706922645e+02 6.5035991674347315e+01 -1.0015132244042888e+03 5.0586004055190278e+02 2.3223929298344956e+02 8.1449568969564098e+01 -6.8684478451353498e+03 3.8918860856356914e+04 -1.2550320525598363e+02 5.2724419611092162e+02 5.2183976661791377e+01 3.7300398136696549e+02 -4.1488296074109712e+02 -1.0438210147145037e+02 2.2795398280861909e+03 -5.8660480239242315e+03 -5.3907106614299133e+04 1.3417538927380338e+02 -7.1848120093538455e+01 1.6481238149965066e+02 -1.0941302451124648e+02 -2.8943818014975113e+02 1.1619569638160829e+02 1.4562884950794585e+03 9.3808558720656985e+05 -7.8076680692090013e+03 -7.6806663822178962e+01 1.4393562191750425e+02 3.2401562041522766e+01 1.1170127962282231e+02 4.7985363218163229e+01 -3.2926011710708622e+01 2.0604482378567309e+02 -1.0697830610560515e+04 7.0998470351599259e+04 -1.2160125727877482e+01 3.8532263118133741e+01 -1.2073799638308537e+02 -1.6077347261605402e+02 5.7909895274966038e+02 3.3555505751081773e+02 5.2462905492879509e+02 -3.2330738943697652e+03 -1.4003435244661314e+04 -6.7296409910256898e+01 -1.2885834955982273e+02 1.1005947204355405e+04 
      </Row>
      <Row Index="33">
        1.8462115967683303e+01 8.0693806795180649e+01 -1.8361924752906270e+02 1.2548102587463291e+01 -8.8817078997632052e+01 7.9894262435601513e+03 -1.1008891179464049e+03 -3.6431098587383531e+01 -3.5331049636517946e+01 1.9181795438490553e+01 -8.9417186993764517e+01 1.4116494351318443e+02 1.4849702032152300e+02 2.6737359050377268e+02 6.9665574593602214e+03 -3.2364864981594437e+03 -8.9905685407748024e+00 5.7917817466879569e+01 -2.5807337591327439e+01 1.0166605747258336e+02 -3.1351638055124027e+01 -1.6124220092125393e+02 2.3228981710737870e+01 1.3031877560333814e+03 6.2642720056525686e+03 1.9430444796439588e+00 5.3147915910857591e+01 2.3877329713159270e+00 -4.6222057507289719e+01 -4.2240712186929159e+01 -4.6999886277753376e+01 1.6027061596906759e+02 -7.8076680683956365e+03 2.0762094611202447e+03 -2.6745918978387635e+01 -3.0807338526378999e+01 1.7092238251028880e-01 1.1056397518118422e+01 1.0519122533940441e+02 -1.9395976301415828e+01 -1.9030136034454678e+01 1.1844904478034096e+04 -8.0328977437721442e+03 1.1218504787773472e+01 1.4737133848706691e+01 -6.6729719796463769e+00 -1.5250811299160997e+01 1.6190073034711349e+02 1.2666029255014724e+01 7.6707315049836325e+01 3.0627224492351525e+02 2.2733716618520316e+03 -1.5732792621217879e+01 -3.3117131239739123e+01 -1.8561979179944833e+03 
      </Row>
      <Row Index="34">
        -3.5347700714945214e+00 -8.5974650873582199e+00 4.8538131279269274e+00 5.3115669997596937e-01 -8.3298255987594949e+00 9.1354218102775633e+01 2.0056336812994871e+01 -4.4209748326211642e+00 -6.8314253220340682e-01 -4.9763868471563732e-01 -9.3540450017192320e+00 2.3283385493759345e-01 -3.8563945542893263e+00 9.4464168743354016e+00 -5.7688463851239931e+01 -3.2704925306074095e+01 7.4973892834731624e+00 1.1048483088471146e+00 3.6410467742824189e+00 1.0284426775829589e+01 -4.5797409649312453e+00 4.5318130134318722e+00 -4.1778642860744633e+00 -1.3178078700858350e+01 5.0986552912549463e+00 9.3584107255096338e-01 -1.3695197256141229e+00 1.5467876698501231e+00 -1.6776763632403053e+00 5.9007474295621876e-01 9.4455432890535174e-01 1.4187104552124992e+00 -7.6806663833831266e+01 -2.6745918976629898e+01 1.2649198330747847e+01 1.1754744778971820e+00 6.8124309135010386e-01 -7.9777303321530413e-01 2.4633454304699400e+00 8.3603615745538260e+00 -1.3290800284835953e+00 -2.6685827708204340e+02 2.0429390593293597e+00 -2.3571163153077113e-02 -3.9637237499399181e-02 -1.0858267693398373e+00 -3.0627414238825423e-01 7.1249186064193282e-02 -4.0990781254524151e+00 -1.4349810803684386e+00 -1.7574775616299725e+00 -3.8757467093571067e+00 -4.0961664675825515e-01 4.5444633975407944e-01 1.3544713593191775e+00 
      </Row>
      <Row Index="35">
        -1.8866623987400644e-01 -8.8669176246554997e+00 -2.8048063736471818e-01 5.9974831230979646e+00 5.3460932196195756e+00 3.7553724168642611e+02 1.1472407003750167e+01 -3.0563295531635077e+00 6.6757230024280183e+00 -2.1027137549091037e+00 3.2371228416025247e+01 1.7345917843098988e+00 -6.2717061913461052e+00 1.8183001550128388e+00 3.2139889604954169e+02 1.3980124378708342e+02 2.3546319400157643e+00 -1.5532637933228074e+01 8.5294618617841067e-01 -3.9555513186558088e+01 9.3038143842556909e-01 8.6764697754340148e-02 -1.8572437309939772e+01 2.3518426882611311e+02 -2.2257107324818645e+02 2.3135502755945438e+00 -9.5794841799048100e+00 1.2062668995812089e+00 1.0049924164461231e+01 -4.0217446983843672e+00 2.3959709826923614e-01 -3.0659383615459006e+01 1.4393562189618933e+02 -3.0807338525795672e+01 1.1754744779367456e+00 1.7128235663134973e+01 -2.9356578428278357e-01 -4.5437973455051743e+00 4.2102084433767129e+00 8.1953337097567918e+00 -1.8667454127596019e+00 1.5943872833807848e+02 2.8977391235416053e+02 2.7655864474462588e-01 -2.9039575594944051e+00 1.1208231434538263e-01 4.3537474761210637e+00 4.8526548447041904e+00 -7.8387202905481974e+00 -1.1233781094937143e+01 -1.5767766627711239e+01 -5.3077960869373861e+01 -6.1391205885132827e-01 1.0120268383409945e+01 4.1376450669184976e+01 
      </Row>
      <Row Index="36">
        1.1302991540728646e-01 6.3388471812387670e-01 4.0281582548729666e+00 -1.8244678804164582e+00 2.8363895122297009e+00 5.0399312688009672e+01 -1.0013675266059302e+01 -4.0766132387977905e-01 1.7330053621930475e-01 2.0290357799980239e+00 -2.6273760328766507e+00 -6.4787868422563477e+00 1.2526950084554729e+00 -1.7926025915182120e+00 2.8028215937878940e+01 2.6837696090938323e+01 7.0699167302828414e-01 -1.6716973741765173e-02 8.8443689719277163e-01 5.3230333538832086e+00 5.0534621157321569e-01 1.4954353052682379e+00 1.7753771625279142e+00 5.8936550033142794e+00 -1.6427909713801014e+01 -2.6536297393593422e-02 4.6056063962431626e-01 2.4547862507338660e+00 -4.0680431524052949e+00 -2.6985154255568347e+00 2.9557804839820303e+00 3.0714481259436961e+00 3.2401562048351138e+01 1.7092238113140468e-01 6.8124309135320260e-01 -2.9356578425082214e-01 1.2433642959161408e+00 1.5729122648550307e+00 -6.0990527689919185e+00 -1.5499137467909985e+00 -1.4078169073201714e+00 8.8375049761478195e+00 2.6529037154421932e+01 -5.1159830378865179e-02 6.9365494246149698e-02 -1.8447167096731520e+00 -7.7162547443907648e-01 -2.9631478396598077e+00 3.5121113495354033e+00 8.2751540342506491e-01 -4.5969776827643472e-01 -4.6253360923413851e+00 -8.4967364714678750e-02 -3.3171456588996584e-01 2.7799984847854482e+00 
      </Row>
      <Row Index="37">
        -1.6276344092655748e-01 4.1654849557274902e+00 -7.9327774834102129e+00 -2.7689399581084189e+01 2.3521252034683922e+01 -6.2377976825852556e+02 -8.4936663481897668e+01 7.3335355996192995e+00 8.9577492155220817e-01 2.2908077668980056e+00 -5.1264035345652083e+01 -1.0573941982504461e+01 3.0297294388279095e+01 -1.8057364676822932e+01 2.2364843691500118e+02 2.7025733042128650e+01 1.4042229272218165e+00 4.6915583807916335e+00 5.5964148201119279e-02 9.5712128364263407e+01 2.2183684904974918e+01 -8.3688740545974305e-01 3.0955913604977894e+01 -2.6298815216684488e+01 8.8565361681672385e+01 -8.4973536077781926e+00 1.8692497728728519e+00 -4.4033973202240873e-01 -5.7160847868713205e+01 5.2132852959539662e+00 1.9802844202079537e+01 2.9859885893320492e+01 1.1170127970837075e+02 1.1056397504964224e+01 -7.9777303322192950e-01 -4.5437973452196054e+00 1.5729122648868856e+00 2.8888929539569077e+01 -1.9788648365749562e+01 -3.7710719161921773e+01 -2.8594278492646197e-01 6.6732017899363404e+02 -1.2226309188520777e+02 -7.7464366044748934e-01 -6.0251188262850830e-01 -1.1629286828530514e+00 -1.1595528872039349e+01 -6.2341784667410458e+00 3.6026600501866056e+01 1.6245314135045888e+01 5.8137305871063774e+00 2.1828241767903283e+01 2.0586213133902378e+00 -4.1458259968277602e+00 -1.4000707432025889e+01 
      </Row>
      <Row Index="38">
        3.8792046380251577e+00 7.0812213725285389e-01 -8.2776588023297791e+01 1.8408571976599262e+01 -8.7681109762013421e+00 3.2508909830495440e+02 2.5814034783567570e+02 -6.6837687226175433e+00 -5.0677371571610621e+00 -2.1332422240862698e+01 5.3119270628595174e+00 1.2439323150860017e+02 -1.1069328588382660e+01 2.3899258147498188e+01 -9.8890196630243736e+01 -7.2943545763086513e+02 -1.3148236170210623e+01 -3.6908120678936029e+00 -2.2856823934532429e+00 -1.5089237917452216e+01 -3.0516639562623027e+01 -3.2285644929667782e+01 -6.3014643303393427e+01 2.6254639686760493e+02 5.3668333856526692e+02 1.4680942676065655e+01 -1.0035852444167233e+01 -1.0636853308070840e+01 6.1478134721529159e+01 3.5137742540227464e+01 -7.7782430801313211e+01 -5.9306099447420436e+01 4.7985363157338725e+01 1.0519122535864994e+02 2.4633454303472604e+00 4.2102084429109112e+00 -6.0990527689375282e+00 -1.9788648364749250e+01 1.5320350735567754e+02 1.6999370481515037e+01 1.7305798662846890e+01 -2.4586218055338549e+02 -7.8577883103104557e+02 -4.4302123761422418e-01 -1.3034498797541145e+00 1.1348672110599445e+01 6.2426650815353684e+00 5.5483969663121258e+01 -6.1206436977520610e+01 -1.7479693751196578e+01 2.7889849724022270e+01 1.5285454450008351e+02 -3.5555955714411764e+00 7.3254164130882486e+00 -1.1716554460355276e+02 
      </Row>
      <Row Index="39">
        -2.3264364051660635e-01 5.6040580989469646e+00 2.2924687243704909e+01 6.5726013064617675e+01 -6.6274463497008554e+01 7.1827810501602664e+02 8.8136994349497172e+01 -7.6663048065302988e+00 -1.1004039779360255e+00 -4.9993162926556849e+00 6.8277078011267264e+01 -2.2814533599695750e+00 -6.7025555531980103e+01 6.6581305896043403e+01 -3.6328744256339678e+02 -7.1195280021546296e+01 6.6129299811950233e+00 -8.3919123769012458e+00 2.7734011278440214e+00 -1.6168247982981754e+02 -4.1601576262826200e+01 -5.9782152821385495e+00 -7.1016878528212999e+01 -8.8506121045828877e+01 -4.0815143789795513e+01 1.0207286639957594e+01 -8.0822144342140518e+00 -5.4833734252252953e-01 6.9855888126620869e+01 -2.4982193699755726e+01 -2.6813637662109826e+01 -3.4352908755962979e+01 -3.2926011912329159e+01 -1.9395976269021219e+01 8.3603615745462463e+00 8.1953337090403728e+00 -1.5499137468501247e+00 -3.7710719161757297e+01 1.6999370483689106e+01 8.8722664263389646e+01 1.6041484977027665e-01 -5.5233608294487431e+02 6.0147796351893113e+01 3.6219410772559537e+00 1.8048633179899820e-01 1.5120659853877942e+00 1.9568592724558957e+01 1.5589054801099724e+01 -7.6697973726844538e+01 -3.0035930101081519e+01 -5.6183836045620978e+00 -2.2756459637337699e+01 2.1378005302470093e-01 7.9870653083474572e+00 2.1644863508288161e+01 
      </Row>
      <Row Index="40">
        4.6634730740748438e+00 6.1771458017049703e+00 -1.8888920601809787e+01 -1.7304976973810199e+01 -7.2146159737462824e+01 3.6474027950505297e+02 2.8793157851996511e+01 1.3242386643298346e+01 -3.2561718672037188e+00 -6.8088441561905313e+00 1.3444787750069302e+01 1.8869740789819701e+01 1.6259274702481804e+01 3.2986565927189886e+01 5.2021006239358394e+02 -5.8734657247986524e+02 -6.6282728090595810e-01 1.0284256606323652e+00 -3.0195046717366836e-02 -3.1323048556449535e+01 -1.5432811239366345e+01 -5.6978151434120235e+01 1.6241546577492181e+02 4.6587154061842011e+02 5.1947245305437536e+02 -4.4897553915115793e+00 1.3291213140785203e+00 -1.0483445300201311e+00 2.8966930676156608e+01 9.1104716461828730e+00 -1.5060189692112004e+01 8.8108023146969884e+01 2.0604482388296310e+02 -1.9030136040163143e+01 -1.3290800286027320e+00 -1.8667454126715342e+00 -1.4078169071995581e+00 -2.8594278400412065e-01 1.7305798660927060e+01 1.6041484744420487e-01 8.9251531158434901e+01 6.1162411311782284e+02 -9.7793349565636754e+02 -2.5921527319930746e+00 2.6123498763535173e+00 -1.2838768397180900e-01 5.2426375865421981e+00 1.7200073819461863e+01 9.8925555211579681e+00 4.9262283172623142e+01 2.9307844373325452e+01 1.8769374324723967e+02 6.0914516338645832e+00 -3.1105776023478171e-01 -1.3935983538415442e+02 
      </Row>
      <Row Index="41">
        2.4176688297486334e+02 -4.7166264888007129e+02 -4.5564802556564246e+01 -9.3407552952575634e+02 -1.9225940050922873e+01 -3.3415865425041266e+03 -4.4092903633838350e+03 1.5756910864416477e+02 -3.9514094634659415e+02 -6.1874967851166161e+01 2.4751642686226384e+02 -6.3049002603016697e+02 1.1239002976556042e+03 4.7310707091704694e+02 -2.2776290915472258e+04 6.3351880499220460e+03 1.1489278623803671e+02 1.1569676256006669e+03 2.4003922650192521e+01 9.1257916418743673e+02 4.6215471796704742e+02 -1.3521129001136148e+02 1.2278989922089422e+03 9.2352856843865884e+03 -2.7837361062414257e+03 -4.2462828575920776e+02 1.6735592555647213e+02 -3.2758806283693048e+01 -1.0768712806519834e+03 -2.7112623172325129e+02 -1.2860443582340019e+02 5.9445421546926775e+02 -1.0697830610296689e+04 1.1844904478133389e+04 -2.6685827708345732e+02 1.5943872833442060e+02 8.8375049771190106e+00 6.6732017900392520e+02 -2.4586218056240739e+02 -5.5233608297256774e+02 6.1162411312952554e+02 8.7462455467040918e+05 -1.3358942857268750e+04 3.6851130310010376e+00 3.2574277376659165e+02 -8.3630869734963085e+01 -1.9403108064157334e+02 -2.1393849944093836e+02 1.0579803737826246e+03 5.0557096314257342e+02 1.5831944868004202e+03 2.7408755323928799e+03 8.3834040092931957e+01 -3.4957973159113999e+02 -7.4154019229413211e+02 
      </Row>
      <Row Index="42">
        1.1134294672854594e+01 -3.1653808105821736e+02 1.9141089206585893e+03 1.4259060877247248e+02 2.6679099978292652e+03 -5.6284943669511937e+04 5.6124711053515784e+03 -5.6858937609824352e+01 3.0368876852098037e+02 1.6463942118710838e+02 5.4256718386489956e+02 -1.0601699028447038e+03 -2.7186441956754425e+02 -2.7978011401134281e+03 -6.0588916361350566e+04 4.0638552395090461e+04 -1.0335878110019257e+02 -5.3712103111541364e+02 -1.7382163743885758e+02 -7.9362709595600609e+02 -4.9174268087365635e+02 6.8109274428602657e+02 -2.9778782605677843e+03 -8.9792031080201268e+03 -5.8524473844105843e+04 1.0011862147983629e+02 -3.1220029671004158e+02 4.5212356748525053e+01 9.1518207297194749e+01 -3.9527871898969170e+02 3.0812649481790140e+02 -2.7258431998981396e+03 7.0998470489103347e+04 -8.0328977575642057e+03 2.0429389601922594e+00 2.8977391264296602e+02 2.6529037264802021e+01 -1.2226309112717718e+02 -7.8577883304824945e+02 6.0147794295723656e+01 -9.7793349633243884e+02 -1.3358942878006626e+04 1.3666689767506710e+05 -6.2050346989334614e+01 -1.2363748512154416e+02 -4.2157622807149892e+01 6.8754316719445441e+01 -1.4226056568878703e+03 -1.4217340846733833e+01 -1.3602574183573015e+03 -2.2843072690882254e+03 1.4153367965051456e+05 -5.2720574416456671e+01 2.5839580686857857e+02 -1.4571755398315887e+05 
      </Row>
      <Row Index="43">
        1.7229427109229523e-01 3.4715777700332806e-01 -4.4534077373940981e+00 3.5122531680289963e+00 -1.9331617347821606e-01 -5.9489080698351700e+00 -8.1840136882629722e+00 -1.6049486662297348e+00 -3.6888254711214241e-01 3.6193095107241469e-01 3.8132616179268712e+00 -6.8090802350868351e-01 -1.9166708843840592e+00 5.3783529155743599e+00 -3.3784493853235517e+01 -1.8007027715258459e+01 2.0210854927254331e+00 1.0591794055598527e+00 -3.0101164401609859e-01 -5.2664655903148949e+00 1.2414407174072339e+00 3.2311050513476580e-01 -1.0712489236099906e+01 -5.0058876515829070e+01 5.4970332941231206e+01 1.3314955995112125e+00 -5.5203002927427036e-01 9.2197221566081566e-01 3.5419406020935753e+00 -2.6390487786905226e-02 1.2844650740631103e-01 -2.5503172662556723e+00 -1.2160125739020486e+01 1.1218504790239038e+01 -2.3571163164280762e-02 2.7655864468566094e-01 -5.1159830376103929e-02 -7.7464366036390242e-01 -4.4302123755815104e-01 3.6219410770806517e+00 -2.5921527317827664e+00 3.6851130329183448e+00 -6.2050346756446608e+01 1.9935168857626588e+00 3.5475536648987327e-01 -6.0322198202774624e-01 7.9777005979537896e-01 1.7608935925721418e+00 -3.1269125321205626e+00 -2.5754822532490280e+00 1.1963639948575207e+00 1.0184680068891648e+01 -2.7545850819514772e-01 6.9035764143930312e-02 -6.6529527089647500e+00 
      </Row>
      <Row Index="44">
        1.4311767289170696e-01 3.9203708306320864e+00 -1.1367463420141490e+00 -8.2047505264471710e-01 -4.5104722325378681e+00 -1.4231187518441487e+02 -8.1835316958670603e+00 6.9940771627279474e-01 -3.3184918569047284e+00 4.3655811475369433e-01 -7.7690934529977991e+00 -6.8281057408468371e-01 1.3560042217609336e-01 2.6505491481269470e+00 -1.4864150375432791e+02 -5.1144401541975299e+01 6.0818558513505394e-01 6.7612591516057847e+00 -2.9030705750443531e-06 4.9423736130660547e+00 -1.2615509590240084e+00 -7.1251713061254662e-01 7.1100371623490730e+00 -1.0905950425031915e+02 8.6949812709806679e+01 -6.9145908555876545e-01 3.0952636178598816e+00 1.9581106458990405e-01 -2.7377939099009154e+00 1.8099834091400879e+00 -1.0646409443352525e+00 7.0805518459809225e+00 3.8532263122418044e+01 1.4737133849454267e+01 -3.9637237519315249e-02 -2.9039575595177016e+00 6.9365494260324401e-02 -6.0251188248076559e-01 -1.3034498799192913e+00 1.8048633144093262e-01 2.6123498764680240e+00 3.2574277376583763e+02 -1.2363748491226258e+02 3.5475536646612227e-01 1.8310817096430698e+00 -3.0916729221278239e-01 -8.9088872066684410e-01 -5.0132904804992506e-01 9.6848757664232887e-01 2.8854795893232961e+00 7.4916766940946502e+00 2.5390742992419415e+01 3.9399674622291059e-01 -2.8205727579663735e+00 -1.9447842654669660e+01 
      </Row>
      <Row Index="45">
        -1.8454466007761527e+00 6.3173127335305568e-01 -1.0938191864101412e+01 2.1792225561031584e+00 -7.7652016863686599e+00 -3.7217039231568936e+02 3.2709677772799672e+00 6.8846021617629454e+00 2.7484469602260786e-01 -5.6065771357722136e+00 -3.4526489225143404e+00 1.2468512254738673e+01 -3.6377919910380223e+00 3.8351155762180285e+00 -2.6014476165444938e+02 -4.1303755700382510e+01 -1.6157705193532488e+00 -4.8816344019878244e-01 -2.4484796070710391e-01 -9.2451134222323272e-01 4.7858714224044441e-01 -1.0124960544862689e+00 2.0186663936029916e+00 -1.6597126639521957e+02 2.7162636914004970e+01 -2.8985232851215152e+00 -1.7938434486573307e+00 -7.9881847181748373e+00 -1.5215129330744688e+00 2.1708244767651106e+00 -6.4949608101651553e+00 -1.9534592716130856e+00 -1.2073799639429421e+02 -6.6729719774177312e+00 -1.0858267693435408e+00 1.1208231429258664e-01 -1.8447167096732218e+00 -1.1629286828034200e+00 1.1348672110680550e+01 1.5120659853000511e+00 -1.2838768377524667e-01 -8.3630869733006406e+01 -4.2157622631047708e+01 -6.0322198202267163e-01 -3.0916729218899408e-01 5.8022711670696125e+00 -1.9397891237040493e-01 8.1640206605986769e+00 -6.8580839322953828e+00 2.7752383053378260e-01 -7.9608524311869644e-01 8.1456878761079210e+00 2.3385542289240799e+00 6.9308587856477288e-01 -3.0195513569173866e+00 
      </Row>
      <Row Index="46">
        8.3159981028286367e-01 -1.5679738207825009e+01 4.2327391050616043e+00 1.6313744945366427e+01 -1.4404990546441901e+01 7.2486049607201676e+02 1.8744804627092762e+01 -4.3359073066519329e+00 1.0402921541353356e+00 -5.5335188486065512e-01 6.3469079830706292e+01 4.4499316225047494e+00 -9.1462290677788651e+00 1.1599795771351708e+01 -2.7135281668824973e+00 6.0503715307750099e+00 -2.2635967195870421e-01 -6.6185226773474284e+00 -6.8252788295341427e-01 -8.9899409583994554e+01 -1.4941384484542086e+01 -1.8779471543548478e+01 -7.9360718117705389e+00 1.4988087829797632e+02 -3.1742936737757589e+01 4.6229314967268351e+00 -3.3561024204926397e+00 1.1918929571859849e+00 5.9891633328907233e+01 -3.7852615297212893e+00 -2.9656118412519987e+00 -1.1949007434251280e+01 -1.6077347266102038e+02 -1.5250811292395582e+01 -3.0627414238109907e-01 4.3537474759786416e+00 -7.7162547445675289e-01 -1.1595528872063028e+01 6.2426650820635796e+00 1.9568592724698515e+01 5.2426375869970308e+00 -1.9403108063626894e+02 6.8754317103848337e+01 7.9777005984166804e-01 -8.9088872059037039e-01 -1.9397891234278575e-01 1.2883301338491638e+01 5.3949826182276759e+00 -2.0793370384047357e+01 -6.0971351970945804e+00 -6.6041700432463131e+00 -1.3087157587012703e+01 -1.0963865041934708e+00 4.5537134226917306e+00 1.0318207352282393e+01 
      </Row>
      <Row Index="47">
        -1.4265405855674373e+00 2.6656852239576807e+00 -8.5226204309931290e+01 1.6493053512211475e+01 -5.3557051988000865e+01 3.2435998944739176e+03 -1.7715404221107065e+02 2.6906801852453555e+00 2.9024902561826593e+00 -1.5962191869607864e+01 8.2952493928212050e+00 8.5541199168140423e+01 8.5225056091196052e+00 6.8183694480340336e+01 1.0507445914628624e+02 -6.8400485345171910e+02 4.9927104889677025e+00 -3.3576470455791423e+00 6.4425456188013897e+00 -2.4094570279588783e+01 -1.1932605220092782e+01 -4.8875152642908489e+01 1.9892072654886988e+01 4.7486433956580004e+02 1.0559651073476443e+03 -3.2327256125591362e+00 -1.4029752356237111e+01 -9.8520358419000331e+00 2.7822024963872991e+01 3.2989752421394769e-01 -2.6385176645939310e+01 2.8628622559272955e+01 5.7909895276719180e+02 1.6190073036037120e+02 7.1249185849865171e-02 4.8526548443202273e+00 -2.9631478395068633e+00 -6.2341784650546899e+00 5.5483969661389494e+01 1.5589054797182275e+01 1.7200073821157961e+01 -2.1393849943992336e+02 -1.4226056543845862e+03 1.7608935923503566e+00 -5.0132904798277877e-01 8.1640206603507153e+00 5.3949826173551170e+00 7.5944861601481648e+01 -2.7188858657965305e+01 1.5803832897352095e+01 3.0699631263463289e+01 2.8186077102775573e+02 2.3491695024804358e+00 5.8501911836571239e+00 -1.9698679152866222e+02 
      </Row>
      <Row Index="48">
        -2.3388613820725457e+00 2.6878949269632892e+00 1.3331786909790203e+01 -7.6134204468514156e+01 3.1347776738096488e+01 -2.1346118351498490e+01 -1.6918922668684806e+02 -3.7593444245584422e+00 1.7972135400589702e+00 1.0831018075412842e+01 -6.9598822662375184e+01 -4.3639390293972504e+01 7.5044508175664106e+01 -4.0951904821964462e+01 3.1623025922472652e+02 1.9022720579312346e+02 6.6605022105024148e-01 7.8001554861543525e+00 6.9360931638732914e-01 1.5666055891045735e+02 4.2705349525265660e+01 1.8590433778783783e+01 1.2563135481268209e+02 3.9077053464338860e+00 -4.1957715650863321e+01 -7.9242235322620651e+00 1.1050757812474419e+01 6.5587123419257196e+00 -8.8247544643278644e+01 7.7482103820628367e-01 5.2441860188018225e+01 8.3487341942267960e+01 3.3555505774392077e+02 1.2666029216369878e+01 -4.0990781254281430e+00 -7.8387202896951393e+00 3.5121113496005272e+00 3.6026600501568950e+01 -6.1206436980024797e+01 -7.6697973726600154e+01 9.8925555182768790e+00 1.0579803737501652e+03 -1.4217343365833976e+01 -3.1269125323108811e+00 9.6848757622264392e-01 -6.8580839323974878e+00 -2.0793370383835924e+01 -2.7188858662657900e+01 1.0036544008406375e+02 4.6041684808858832e+01 -3.9947087477043794e+00 6.2132128291496489e+00 -3.2262871075479773e+00 -9.4308343809466031e+00 -1.0911148591449212e+01 
      </Row>
      <Row Index="49">
        -3.1557603422289446e+00 4.8334982877153010e+00 -1.8024260210039074e+01 -3.8574643589982145e+01 -7.1333080414516076e+01 6.7305480459552291e+02 -1.4085287229513665e+02 8.7688816646571013e+00 -4.1500875265941204e+00 -6.7386448977470081e-01 -2.4295365541389124e+01 -4.4561528165462505e-01 3.6917383788062637e+01 3.4484762330536967e+01 1.2195218217995061e+03 -6.3317455766369312e+02 2.1092434387082903e-01 1.1093607414541793e+01 4.3664417744991511e+00 5.5291087386019285e+01 5.2280136348149568e+00 -2.3470989551174085e+01 1.9684783682892225e+02 9.1889142399765842e+02 8.9226595881993853e+02 -8.6316053753805591e+00 8.1947232664105627e+00 -1.9917669113488046e+00 -1.7700602134996188e+01 -2.3296520765677542e+00 1.6215221532115066e+01 1.3616045293345468e+02 5.2462905510769633e+02 7.6707315035391730e+01 -1.4349810805537118e+00 -1.1233781094694962e+01 8.2751540361415721e-01 1.6245314136418152e+01 -1.7479693754476749e+01 -3.0035930104618274e+01 4.9262283172187807e+01 5.0557096312090562e+02 -1.3602574177095330e+03 -2.5754822535970021e+00 2.8854795890895559e+00 2.7752383022452420e-01 -6.0971351977677424e+00 1.5803832894019024e+01 4.6041684813250754e+01 6.7315217150669014e+01 3.0385322464507453e+01 2.7328455378465503e+02 2.8036551482800292e+00 -8.3836464350906681e+00 -2.0556648482871367e+02 
      </Row>
      <Row Index="50">
        4.9245091907324081e+00 3.3617197964826396e+01 -4.9239957366381759e+01 1.2371740583441806e+00 -4.7409872380429249e+01 3.1785510039455767e+02 -1.8323055220402239e+02 8.7497832751565738e+00 -1.9434329294905837e+01 -5.5196590746479046e+00 -6.1097747799649824e+01 4.9014281396867887e+01 2.2559720682401689e+01 5.6639260879466917e+01 7.1451994405333244e+02 -1.0791205666959031e+03 5.0773104889817660e+00 3.6016655594600934e+01 4.4213576861325237e+00 4.0873205636757234e+01 -1.8523428020695007e+01 -5.0435752573317302e+01 5.3757246169926020e+01 1.5264134004411317e+03 1.6661015453000782e+03 -1.4409057194898423e+01 1.8694936477125452e+01 8.6109853235257106e-02 -3.3002147650871848e+01 2.4478437362462955e+01 -1.9576972191803179e+01 5.2337673222235253e+01 -3.2330738942987664e+03 3.0627224493778522e+02 -1.7574775619848424e+00 -1.5767766628149673e+01 -4.5969776802738949e-01 5.8137305897596292e+00 2.7889849721085710e+01 -5.6183836109096319e+00 2.9307844375512161e+01 1.5831944867932634e+03 -2.2843072654457033e+03 1.1963639944503228e+00 7.4916766941104385e+00 -7.9608524352596532e-01 -6.6041700446133085e+00 3.0699631262566868e+01 -3.9947087402055956e+00 3.0385322468929417e+01 1.1340122533537215e+02 4.5349946654311299e+02 3.5849045897442124e+00 -1.5803233665140738e+01 -3.4184514107200198e+02 
      </Row>
      <Row Index="51">
        -2.9606332391267642e+00 5.8218987705666223e+01 -3.7770393559359945e+02 -2.8134801385691389e+01 -5.2176283545943443e+02 1.1804310707468539e+04 -1.2951824025525711e+03 9.8912100351881236e+00 -6.0215561335207894e+01 -3.1041090565384366e+01 -9.9107462999192649e+01 2.1676033823681064e+02 3.4619641998666339e+01 4.6930121259315638e+02 1.2348259911552072e+04 -1.0593611329261214e+04 1.8310987469740212e+01 1.0480782608175650e+02 3.4666594423964852e+01 1.4841363832339994e+02 8.0272787913680077e+01 -1.1577238418703200e+02 6.9230061843572184e+02 2.4195425046831369e+03 1.5268141882720403e+04 -2.4351194782298990e+01 6.0925343229435384e+01 -8.0227047642692924e+00 -1.7143504834733903e+01 7.6294806216377765e+01 -5.8501250601839274e+01 5.4817223495288999e+02 -1.4003434824526310e+04 2.2733716221954674e+03 -3.8757470478303730e+00 -5.3077960058406461e+01 -4.6253357323803357e+00 2.1828244350210298e+01 1.5285453810554543e+02 -2.2756466539110988e+01 1.8769374147977214e+02 2.7408754699863493e+03 1.4153368007163433e+05 1.0184679323843739e+01 2.5390742368093925e+01 8.1456873005954549e+00 -1.3087158899078986e+01 2.8186076342035085e+02 6.2132212555734441e+00 2.7328455236577429e+02 4.5349945563357323e+02 4.7680612478406582e+05 8.9984277891635429e+00 -4.9244279790087603e+01 -4.7592594252624747e+05 
      </Row>
      <Row Index="52">
        5.5586233663359019e-02 2.8740552241732527e+00 -7.7247945842480288e+00 -2.4517882652681422e-01 -4.3871850846229243e+00 -8.7272777684951834e+01 -2.2824587143792133e+01 1.7346591552095372e+01 5.3082277978523362e-01 -2.7084379276474939e+00 -1.1472987859491008e+01 2.5626722254010850e+00 -2.9944823828174547e+00 8.3324338557248412e-02 -1.1356261604081510e+01 -1.1991460265633862e+01 1.2059021653123914e+00 1.1479146159790936e+00 2.3296597299524169e-01 4.2157876469974358e+00 3.9111768387391210e+00 -5.9371672566179310e+00 9.2918755459085087e+00 -5.2527913620030631e+01 2.2734188311443461e+01 -7.3850049395462944e+00 4.5071957901439141e-02 -3.8044406923705125e+00 -1.0401585429901026e+01 1.9879555047573234e+00 -3.6307033099565951e+00 3.8719012373853374e+00 -6.7296409915942036e+01 -1.5732792619881081e+01 -4.0961664676352605e-01 -6.1391205888275002e-01 -8.4967364712482174e-02 2.0586213134379321e+00 -3.5555955714244867e+00 2.1378005292399438e-01 6.0914516339845735e+00 8.3834040094567854e+01 -5.2720574277902536e+01 -2.7545850819672590e-01 3.9399674623590097e-01 2.3385542289203234e+00 -1.0963865042185950e+00 2.3491695025891470e+00 -3.2262871074317125e+00 2.8036551484755279e+00 3.5849045899565013e+00 8.9984282284623234e+00 6.6435960509734624e+00 -5.3709527331934570e-01 -2.7315716086829860e+00 
      </Row>
      <Row Index="53">
        -6.7763271023725480e-02 -7.8978527919176882e+00 -1.1769012970176504e+00 7.1988904842755517e+00 3.2223756019970580e+00 2.6426339690598479e+02 2.9256907948974060e+01 -1.9582895003307499e+00 8.2235150824628427e+00 -1.5050941101437587e+00 2.4182902172522120e+01 5.7385833651403004e+00 -5.2420660029651742e+00 -1.5364918231997962e+00 4.8759805211748790e+02 9.8261094722294956e+01 1.1722516246825876e-01 -1.7977095030036025e+01 2.0563761701040306e-01 -3.1563862991835915e+01 -5.4100301428398030e+00 -4.1346132255711296e+00 -1.6092050481937690e+01 3.7142608813088191e+02 -1.8811217589184486e+02 1.8031156449431265e+00 -1.1679416705369896e+01 -3.1611995771643819e-01 1.6409513238958652e+01 -3.9804692630016234e+00 -2.3514907896337860e+00 -2.1015634763014109e+01 -1.2885834957882889e+02 -3.3117131239338050e+01 4.5444633979232663e-01 1.0120268383415368e+01 -3.3171456591971138e-01 -4.1458259970997098e+00 7.3254164135188979e+00 7.9870653090288570e+00 -3.1105776032767807e-01 -3.4957973158792356e+02 2.5839580658650465e+02 6.9035764199091076e-02 -2.8205727579463780e+00 6.9308587861415560e-01 4.5537134228285367e+00 5.8501911840063059e+00 -9.4308343817547069e+00 -8.3836464353363027e+00 -1.5803233664758920e+01 -4.9244280588626161e+01 -5.3709527329026230e-01 9.6691962646223288e+00 3.8306059093515977e+01 
      </Row>
      <Row Index="54">
        1.9765265203313902e+00 -4.4150451006047660e+01 2.6528364178282209e+02 2.8160590040264651e+01 3.8701065596868284e+02 -8.5404356286618859e+03 9.4653952553216368e+02 1.2238044107798487e+00 4.8185293838439975e+01 1.9163621669053100e+01 7.5380766171583673e+01 -1.5331148550962098e+02 -2.4884604606777430e+01 -3.2638924379204400e+02 -9.6751477058827877e+03 8.5801962747722864e+03 -1.0761099023977295e+01 -7.9439046485349536e+01 -2.4952647374477237e+01 -1.1574831725732656e+02 -5.3110022725159070e+01 7.3635258145630360e+01 -5.4626801942987368e+02 -2.1021210013180971e+03 -1.2286643573466688e+04 1.3800698124920018e+01 -5.1261118005262688e+01 9.6720674913376570e-01 1.0810681059025228e+01 -6.0706582154147327e+01 4.0482839180273004e+01 -4.1246476445017834e+02 1.1005946784391999e+04 -1.8561978783123195e+03 1.3544716970063746e+00 4.1376449855335522e+01 2.7799981253047008e+00 -1.4000710009167960e+01 -1.1716553821513662e+02 2.1644870397751220e+01 -1.3935983361292165e+02 -7.4154012990370393e+02 -1.4571755439749514e+05 -6.6529519647301640e+00 -1.9447842030436732e+01 -3.0195507821918000e+00 1.0318208661743029e+01 -1.9698678392358124e+02 -1.0911157003138214e+01 -2.0556648340122774e+02 -3.4184513016417623e+02 -4.7592594250601623e+05 -2.7315711699775420e+00 3.8306058294372633e+01 4.7526703484135040e+05 
      </Row>
    </InverseHessian>
  </Weights>
</MethodSetup>
