<?xml version="1.0"?>
<MethodSetup Method="BDT::BDT2">
  <GeneralInfo>
    <Info name="TMVA Release" value="4.1.4 [262404]"/>
    <Info name="ROOT Release" value="5.34/05 [336389]"/>
    <Info name="Creator" value="clester"/>
    <Info name="Date" value="Wed Mar 19 15:31:49 2014"/>
    <Info name="Host" value="Darwin pb-d-128-141-154-76.cern.ch 12.2.1 Darwin Kernel Version 12.2.1: Thu Oct 18 16:32:48 PDT 2012; root:xnu-2050.20.9~2/RELEASE_X86_64 x86_64"/>
    <Info name="Dir" value="/Users/clester/LAST"/>
    <Info name="Training events" value="1089"/>
    <Info name="TrainingTime" value="1.97600102e+00"/>
    <Info name="AnalysisType" value="Regression"/>
  </GeneralInfo>
  <Options>
    <Option name="V" modified="Yes">False</Option>
    <Option name="VerbosityLevel" modified="No">Default</Option>
    <Option name="VarTransform" modified="No">None</Option>
    <Option name="H" modified="Yes">False</Option>
    <Option name="CreateMVAPdfs" modified="No">False</Option>
    <Option name="IgnoreNegWeightsInTraining" modified="No">False</Option>
    <Option name="NTrees" modified="Yes">1000</Option>
    <Option name="RenormByClass" modified="No">False</Option>
    <Option name="BoostType" modified="Yes">AdaBoost</Option>
    <Option name="AdaBoostR2Loss" modified="No">quadratic</Option>
    <Option name="UseBaggedGrad" modified="No">False</Option>
    <Option name="GradBaggingFraction" modified="No">6.000000e-01</Option>
    <Option name="Shrinkage" modified="No">1.000000e+00</Option>
    <Option name="AdaBoostBeta" modified="Yes">3.000000e-01</Option>
    <Option name="UseRandomisedTrees" modified="No">False</Option>
    <Option name="UseNvars" modified="No">2</Option>
    <Option name="UsePoissonNvars" modified="No">True</Option>
    <Option name="UseNTrainEvents" modified="No">1089</Option>
    <Option name="UseWeightedTrees" modified="No">True</Option>
    <Option name="UseYesNoLeaf" modified="No">False</Option>
    <Option name="NodePurityLimit" modified="No">5.000000e-01</Option>
    <Option name="SeparationType" modified="No">regressionvariance</Option>
    <Option name="nEventsMin" modified="Yes">50</Option>
    <Option name="nCuts" modified="Yes">30</Option>
    <Option name="UseFisherCuts" modified="No">False</Option>
    <Option name="MinLinCorrForFisher" modified="No">8.000000e-01</Option>
    <Option name="UseExclusiveVars" modified="No">False</Option>
    <Option name="PruneStrength" modified="No">0.000000e+00</Option>
    <Option name="PruneMethod" modified="No">nopruning</Option>
    <Option name="PruneBeforeBoost" modified="No">False</Option>
    <Option name="PruningValFraction" modified="No">5.000000e-01</Option>
    <Option name="NNodesMax" modified="No">100000</Option>
    <Option name="MaxDepth" modified="Yes">2</Option>
    <Option name="DoBoostMonitor" modified="No">False</Option>
    <Option name="NegWeightTreatment" modified="No">inverseboostnegweights</Option>
  </Options>
  <Variables NVar="2">
    <Variable VarIndex="0" Expression="seed_prob" Label="seed_prob" Title="seed_prob" Unit="" Internal="seed_prob" Type="F" Min="0.00000000e+00" Max="1.00000000e+00"/>
    <Variable VarIndex="1" Expression="game_prob" Label="game_prob" Title="game_prob" Unit="" Internal="game_prob" Type="F" Min="2.16084331e-01" Max="8.66627932e-01"/>
  </Variables>
  <Spectators NSpec="1">
    <Spectator SpecIndex="0" Expression="season" Label="season" Title="season" Unit="" Internal="season" Type="F" Min="6.50000000e+01" Max="8.20000000e+01"/>
  </Spectators>
  <Classes NClass="1">
    <Class Name="Regression" Index="0"/>
  </Classes>
  <Targets NTrgt="1">
    <Target TargetIndex="0" Expression="game_outcome" Label="game_outcome" Title="game_outcome" Unit="" Internal="game_outcome" Type="F" Min="0.00000000e+00" Max="1.00000000e+00"/>
  </Targets>
  <Transformations NTransformations="0"/>
  <MVAPdfs/>
  <Weights NTrees="1000" AnalysisType="1">
    <BinaryTree type="DecisionTree" boostWeight="3.8710409463375312e-01" itree="0">
      <Node pos="s" depth="0" NCoef="0" IVar="0" Cut="6.4516127109527588e-01" cType="0" res="4.9770432710647583e-01" rms="4.9999472498893738e-01" purity="1.0000000000000000e+00" nType="0">
        <Node pos="l" depth="1" NCoef="0" IVar="1" Cut="5.8027195930480957e-01" cType="0" res="8.3282673358917236e-01" rms="3.7313047051429749e-01" purity="1.0000000000000000e+00" nType="0">
          <Node pos="l" depth="2" NCoef="0" IVar="-1" Cut="0.0000000000000000e+00" cType="1" res="9.2307692766189575e-01" rms="2.6646935939788818e-01" purity="1.0000000000000000e+00" nType="-99"/>
          <Node pos="r" depth="2" NCoef="0" IVar="-1" Cut="0.0000000000000000e+00" cType="1" res="7.5144511461257935e-01" rms="4.3217515945434570e-01" purity="1.0000000000000000e+00" nType="-99"/>
        </Node>
        <Node pos="r" depth="1" NCoef="0" IVar="0" Cut="2.6559138298034668e-01" cType="0" res="3.5263156890869141e-01" rms="4.7778922319412231e-01" purity="1.0000000000000000e+00" nType="0">
          <Node pos="l" depth="2" NCoef="0" IVar="-1" Cut="0.0000000000000000e+00" cType="1" res="4.4649446010589600e-01" rms="4.9712890386581421e-01" purity="1.0000000000000000e+00" nType="-99"/>
          <Node pos="r" depth="2" NCoef="0" IVar="-1" Cut="0.0000000000000000e+00" cType="1" res="1.1926605552434921e-01" rms="3.2410132884979248e-01" purity="1.0000000000000000e+00" nType="-99"/>
        </Node>
      </Node>
    </BinaryTree>
    <BinaryTree type="DecisionTree" boostWeight="3.4113185328845669e-01" itree="1">
      <Node pos="s" depth="0" NCoef="0" IVar="0" Cut="6.4516127109527588e-01" cType="0" res="4.9828469753265381e-01" rms="4.9999704957008362e-01" purity="1.0000000000000000e+00" nType="0">
        <Node pos="l" depth="1" NCoef="0" IVar="0" Cut="8.5199242830276489e-01" cType="0" res="7.9274791479110718e-01" rms="4.0533769130706787e-01" purity="1.0000000000000000e+00" nType="0">
          <Node pos="l" depth="2" NCoef="0" IVar="-1" Cut="0.0000000000000000e+00" cType="1" res="9.0660160779953003e-01" rms="2.9098993539810181e-01" purity="1.0000000000000000e+00" nType="-99"/>
          <Node pos="r" depth="2" NCoef="0" IVar="-1" Cut="0.0000000000000000e+00" cType="1" res="7.1496731042861938e-01" rms="4.5143002271652222e-01" purity="1.0000000000000000e+00" nType="-99"/>
        </Node>
        <Node pos="r" depth="1" NCoef="0" IVar="0" Cut="2.6559138298034668e-01" cType="0" res="3.7821990251541138e-01" rms="4.8494288325309753e-01" purity="1.0000000000000000e+00" nType="0">
          <Node pos="l" depth="2" NCoef="0" IVar="-1" Cut="0.0000000000000000e+00" cType="1" res="4.5760992169380188e-01" rms="4.9819985032081604e-01" purity="1.0000000000000000e+00" nType="-99"/>
          <Node pos="r" depth="2" NCoef="0" IVar="-1" Cut="0.0000000000000000e+00" cType="1" res="1.5708652138710022e-01" rms="3.6388233304023743e-01" purity="1.0000000000000000e+00" nType="-99"/>
        </Node>
      </Node>
    </BinaryTree>
    <BinaryTree type="DecisionTree" boostWeight="3.1717120511487823e-01" itree="2">
      <Node pos="s" depth="0" NCoef="0" IVar="0" Cut="6.4516127109527588e-01" cType="0" res="4.9869593977928162e-01" rms="4.9999830126762390e-01" purity="1.0000000000000000e+00" nType="0">
        <Node pos="l" depth="1" NCoef="0" IVar="1" Cut="6.2799799442291260e-01" cType="0" res="7.5646346807479858e-01" rms="4.2921614646911621e-01" purity="1.0000000000000000e+00" nType="0">
          <Node pos="l" depth="2" NCoef="0" IVar="-1" Cut="0.0000000000000000e+00" cType="1" res="8.9262801408767700e-01" rms="3.0958563089370728e-01" purity="1.0000000000000000e+00" nType="-99"/>
          <Node pos="r" depth="2" NCoef="0" IVar="-1" Cut="0.0000000000000000e+00" cType="1" res="6.8295663595199585e-01" rms="4.6532446146011353e-01" purity="1.0000000000000000e+00" nType="-99"/>
        </Node>
        <Node pos="r" depth="1" NCoef="0" IVar="0" Cut="1.4301075041294098e-01" cType="0" res="3.9816504716873169e-01" rms="4.8951980471611023e-01" purity="1.0000000000000000e+00" nType="0">
          <Node pos="l" depth="2" NCoef="0" IVar="-1" Cut="0.0000000000000000e+00" cType="1" res="4.4579833745956421e-01" rms="4.9705350399017334e-01" purity="1.0000000000000000e+00" nType="-99"/>
          <Node pos="r" depth="2" NCoef="0" IVar="-1" Cut="0.0000000000000000e+00" cType="1" res="9.5575407147407532e-02" rms="2.9400807619094849e-01" purity="1.0000000000000000e+00" nType="-99"/>
        </Node>
      </Node>
    </BinaryTree>
    <BinaryTree type="DecisionTree" boostWeight="1.9712238137741517e-01" itree="3">
      <Node pos="s" depth="0" NCoef="0" IVar="0" Cut="5.8064514398574829e-01" cType="0" res="4.9892643094062805e-01" rms="4.9999883770942688e-01" purity="1.0000000000000000e+00" nType="0">
        <Node pos="l" depth="1" NCoef="0" IVar="1" Cut="5.4845464229583740e-01" cType="0" res="6.9193655252456665e-01" rms="4.6169292926788330e-01" purity="1.0000000000000000e+00" nType="0">
          <Node pos="l" depth="2" NCoef="0" IVar="-1" Cut="0.0000000000000000e+00" cType="1" res="8.0034404993057251e-01" rms="3.9974173903465271e-01" purity="1.0000000000000000e+00" nType="-99"/>
          <Node pos="r" depth="2" NCoef="0" IVar="-1" Cut="0.0000000000000000e+00" cType="1" res="5.8368378877639771e-01" rms="4.9294728040695190e-01" purity="1.0000000000000000e+00" nType="-99"/>
        </Node>
        <Node pos="r" depth="1" NCoef="0" IVar="0" Cut="2.8095734119415283e-01" cType="0" res="3.9955863356590271e-01" rms="4.8980766534805298e-01" purity="1.0000000000000000e+00" nType="0">
          <Node pos="l" depth="2" NCoef="0" IVar="-1" Cut="0.0000000000000000e+00" cType="1" res="4.6632164716720581e-01" rms="4.9886447191238403e-01" purity="1.0000000000000000e+00" nType="-99"/>
          <Node pos="r" depth="2" NCoef="0" IVar="-1" Cut="0.0000000000000000e+00" cType="1" res="2.1465229988098145e-01" rms="4.1058093309402466e-01" purity="1.0000000000000000e+00" nType="-99"/>
        </Node>
      </Node>
    </BinaryTree>
    <BinaryTree type="DecisionTree" boostWeight="2.3147105904894461e-01" itree="4">
      <Node pos="s" depth="0" NCoef="0" IVar="1" Cut="4.8889294266700745e-01" cType="0" res="4.9906292557716370e-01" rms="4.9999913573265076e-01" purity="1.0000000000000000e+00" nType="0">
        <Node pos="l" depth="1" NCoef="0" IVar="0" Cut="8.5294115543365479e-01" cType="0" res="6.1173361539840698e-01" rms="4.8735573887825012e-01" purity="1.0000000000000000e+00" nType="0">
          <Node pos="l" depth="2" NCoef="0" IVar="-1" Cut="0.0000000000000000e+00" cType="1" res="8.3804804086685181e-01" rms="3.6840674281120300e-01" purity="1.0000000000000000e+00" nType="-99"/>
          <Node pos="r" depth="2" NCoef="0" IVar="-1" Cut="0.0000000000000000e+00" cType="1" res="5.6442952156066895e-01" rms="4.9583145976066589e-01" purity="1.0000000000000000e+00" nType="-99"/>
        </Node>
        <Node pos="r" depth="1" NCoef="0" IVar="0" Cut="2.3908917605876923e-01" cType="0" res="3.5381230711936951e-01" rms="4.7815182805061340e-01" purity="1.0000000000000000e+00" nType="0">
          <Node pos="l" depth="2" NCoef="0" IVar="-1" Cut="0.0000000000000000e+00" cType="1" res="4.2806476354598999e-01" rms="4.9479827284812927e-01" purity="1.0000000000000000e+00" nType="-99"/>
          <Node pos="r" depth="2" NCoef="0" IVar="-1" Cut="0.0000000000000000e+00" cType="1" res="1.8202649056911469e-01" rms="3.8586637377738953e-01" purity="1.0000000000000000e+00" nType="-99"/>
        </Node>
      </Node>
    </BinaryTree>
    <BinaryTree type="DecisionTree" boostWeight="2.2412357244442116e-01" itree="5">
      <Node pos="s" depth="0" NCoef="0" IVar="0" Cut="6.4516127109527588e-01" cType="0" res="4.9916329979896545e-01" rms="4.9999931454658508e-01" purity="1.0000000000000000e+00" nType="0">
        <Node pos="l" depth="1" NCoef="0" IVar="1" Cut="6.2799799442291260e-01" cType="0" res="6.8877905607223511e-01" rms="4.6299293637275696e-01" purity="1.0000000000000000e+00" nType="0">
          <Node pos="l" depth="2" NCoef="0" IVar="-1" Cut="0.0000000000000000e+00" cType="1" res="8.3073258399963379e-01" rms="3.7498795986175537e-01" purity="1.0000000000000000e+00" nType="-99"/>
          <Node pos="r" depth="2" NCoef="0" IVar="-1" Cut="0.0000000000000000e+00" cType="1" res="6.2323629856109619e-01" rms="4.8457488417625427e-01" purity="1.0000000000000000e+00" nType="-99"/>
        </Node>
        <Node pos="r" depth="1" NCoef="0" IVar="0" Cut="1.4301075041294098e-01" cType="0" res="4.2979854345321655e-01" rms="4.9504724144935608e-01" purity="1.0000000000000000e+00" nType="0">
          <Node pos="l" depth="2" NCoef="0" IVar="-1" Cut="0.0000000000000000e+00" cType="1" res="4.6434518694877625e-01" rms="4.9872711300849915e-01" purity="1.0000000000000000e+00" nType="-99"/>
          <Node pos="r" depth="2" NCoef="0" IVar="-1" Cut="0.0000000000000000e+00" cType="1" res="1.5874579548835754e-01" rms="3.6543887853622437e-01" purity="1.0000000000000000e+00" nType="-99"/>
        </Node>
      </Node>
    </BinaryTree>
    <BinaryTree type="DecisionTree" boostWeight="1.8873831666275506e-01" itree="6">
      <Node pos="s" depth="0" NCoef="0" IVar="0" Cut="3.5483869910240173e-01" cType="0" res="4.9926945567131042e-01" rms="4.9999946355819702e-01" purity="1.0000000000000000e+00" nType="0">
        <Node pos="l" depth="1" NCoef="0" IVar="0" Cut="8.5698926448822021e-01" cType="0" res="5.5736988782882690e-01" rms="4.9669778347015381e-01" purity="1.0000000000000000e+00" nType="0">
          <Node pos="l" depth="2" NCoef="0" IVar="-1" Cut="0.0000000000000000e+00" cType="1" res="7.9699569940567017e-01" rms="4.0223568677902222e-01" purity="1.0000000000000000e+00" nType="-99"/>
          <Node pos="r" depth="2" NCoef="0" IVar="-1" Cut="0.0000000000000000e+00" cType="1" res="5.2471733093261719e-01" rms="4.9938866496086121e-01" purity="1.0000000000000000e+00" nType="-99"/>
        </Node>
        <Node pos="r" depth="1" NCoef="0" IVar="0" Cut="1.4800758659839630e-01" cType="0" res="3.1147003173828125e-01" rms="4.6309441328048706e-01" purity="1.0000000000000000e+00" nType="0">
          <Node pos="l" depth="2" NCoef="0" IVar="-1" Cut="0.0000000000000000e+00" cType="1" res="3.7503618001937866e-01" rms="4.8413226008415222e-01" purity="1.0000000000000000e+00" nType="-99"/>
          <Node pos="r" depth="2" NCoef="0" IVar="-1" Cut="0.0000000000000000e+00" cType="1" res="1.8455921113491058e-01" rms="3.8793957233428955e-01" purity="1.0000000000000000e+00" nType="-99"/>
        </Node>
      </Node>
    </BinaryTree>
    <BinaryTree type="DecisionTree" boostWeight="1.2715831883525661e-01" itree="7">
      <Node pos="s" depth="0" NCoef="0" IVar="1" Cut="4.8889294266700745e-01" cType="0" res="4.9933898448944092e-01" rms="4.9999955296516418e-01" purity="1.0000000000000000e+00" nType="0">
        <Node pos="l" depth="1" NCoef="0" IVar="1" Cut="6.4761912822723389e-01" cType="0" res="5.8521842956542969e-01" rms="4.9268430471420288e-01" purity="1.0000000000000000e+00" nType="0">
          <Node pos="l" depth="2" NCoef="0" IVar="-1" Cut="0.0000000000000000e+00" cType="1" res="7.6777070760726929e-01" rms="4.2225450277328491e-01" purity="1.0000000000000000e+00" nType="-99"/>
          <Node pos="r" depth="2" NCoef="0" IVar="-1" Cut="0.0000000000000000e+00" cType="1" res="5.4725700616836548e-01" rms="4.9776175618171692e-01" purity="1.0000000000000000e+00" nType="-99"/>
        </Node>
        <Node pos="r" depth="1" NCoef="0" IVar="0" Cut="2.3908917605876923e-01" cType="0" res="3.8751789927482605e-01" rms="4.8718351125717163e-01" purity="1.0000000000000000e+00" nType="0">
          <Node pos="l" depth="2" NCoef="0" IVar="-1" Cut="0.0000000000000000e+00" cType="1" res="4.4140973687171936e-01" rms="4.9655532836914062e-01" purity="1.0000000000000000e+00" nType="-99"/>
          <Node pos="r" depth="2" NCoef="0" IVar="-1" Cut="0.0000000000000000e+00" cType="1" res="2.4716302752494812e-01" rms="4.3136233091354370e-01" purity="1.0000000000000000e+00" nType="-99"/>
        </Node>
      </Node>
    </BinaryTree>
    <BinaryTree type="DecisionTree" boostWeight="1.5294310980594239e-01" itree="8">
      <Node pos="s" depth="0" NCoef="0" IVar="1" Cut="4.8889294266700745e-01" cType="0" res="4.9938923120498657e-01" rms="4.9999961256980896e-01" purity="1.0000000000000000e+00" nType="0">
        <Node pos="l" depth="1" NCoef="0" IVar="1" Cut="6.4761912822723389e-01" cType="0" res="5.7856088876724243e-01" rms="4.9378961324691772e-01" purity="1.0000000000000000e+00" nType="0">
          <Node pos="l" depth="2" NCoef="0" IVar="-1" Cut="0.0000000000000000e+00" cType="1" res="7.5158232450485229e-01" rms="4.3209528923034668e-01" purity="1.0000000000000000e+00" nType="-99"/>
          <Node pos="r" depth="2" NCoef="0" IVar="-1" Cut="0.0000000000000000e+00" cType="1" res="5.4337584972381592e-01" rms="4.9811497330665588e-01" purity="1.0000000000000000e+00" nType="-99"/>
        </Node>
        <Node pos="r" depth="1" NCoef="0" IVar="0" Cut="1.4943073689937592e-01" cType="0" res="3.9610370993614197e-01" rms="4.8908644914627075e-01" purity="1.0000000000000000e+00" nType="0">
          <Node pos="l" depth="2" NCoef="0" IVar="-1" Cut="0.0000000000000000e+00" cType="1" res="4.3183788657188416e-01" rms="4.9533212184906006e-01" purity="1.0000000000000000e+00" nType="-99"/>
          <Node pos="r" depth="2" NCoef="0" IVar="-1" Cut="0.0000000000000000e+00" cType="1" res="2.0785866677761078e-01" rms="4.0577509999275208e-01" purity="1.0000000000000000e+00" nType="-99"/>
        </Node>
      </Node>
    </BinaryTree>
    <BinaryTree type="DecisionTree" boostWeight="1.1062328706999842e-01" itree="9">
      <Node pos="s" depth="0" NCoef="0" IVar="0" Cut="6.4516127109527588e-01" cType="0" res="4.9944013357162476e-01" rms="4.9999967217445374e-01" purity="1.0000000000000000e+00" nType="0">
        <Node pos="l" depth="1" NCoef="0" IVar="0" Cut="8.5199242830276489e-01" cType="0" res="6.4218473434448242e-01" rms="4.7935739159584045e-01" purity="1.0000000000000000e+00" nType="0">
          <Node pos="l" depth="2" NCoef="0" IVar="-1" Cut="0.0000000000000000e+00" cType="1" res="7.5752788782119751e-01" rms="4.2857831716537476e-01" purity="1.0000000000000000e+00" nType="-99"/>
          <Node pos="r" depth="2" NCoef="0" IVar="-1" Cut="0.0000000000000000e+00" cType="1" res="5.8508026599884033e-01" rms="4.9270817637443542e-01" purity="1.0000000000000000e+00" nType="-99"/>
        </Node>
        <Node pos="r" depth="1" NCoef="0" IVar="0" Cut="1.4301075041294098e-01" cType="0" res="4.4882342219352722e-01" rms="4.9737405776977539e-01" purity="1.0000000000000000e+00" nType="0">
          <Node pos="l" depth="2" NCoef="0" IVar="-1" Cut="0.0000000000000000e+00" cType="1" res="4.7194820642471313e-01" rms="4.9921247363090515e-01" purity="1.0000000000000000e+00" nType="-99"/>
          <Node pos="r" depth="2" NCoef="0" IVar="-1" Cut="0.0000000000000000e+00" cType="1" res="2.3790925741195679e-01" rms="4.2580330371856689e-01" purity="1.0000000000000000e+00" nType="-99"/>
        </Node>
      </Node>
    </BinaryTree>
    <BinaryTree type="DecisionTree" boostWeight="8.8129641786419147e-02" itree="10">
      <Node pos="s" depth="0" NCoef="0" IVar="0" Cut="6.4516127109527588e-01" cType="0" res="4.9948161840438843e-01" rms="4.9999973177909851e-01" purity="1.0000000000000000e+00" nType="0">
        <Node pos="l" depth="1" NCoef="0" IVar="1" Cut="5.8027195930480957e-01" cType="0" res="6.3292455673217773e-01" rms="4.8200732469558716e-01" purity="1.0000000000000000e+00" nType="0">
          <Node pos="l" depth="2" NCoef="0" IVar="-1" Cut="0.0000000000000000e+00" cType="1" res="7.3280823230743408e-01" rms="4.4249328970909119e-01" purity="1.0000000000000000e+00" nType="-99"/>
          <Node pos="r" depth="2" NCoef="0" IVar="-1" Cut="0.0000000000000000e+00" cType="1" res="5.7313257455825806e-01" rms="4.9462270736694336e-01" purity="1.0000000000000000e+00" nType="-99"/>
        </Node>
        <Node pos="r" depth="1" NCoef="0" IVar="0" Cut="1.4301075041294098e-01" cType="0" res="4.5241945981979370e-01" rms="4.9773094058036804e-01" purity="1.0000000000000000e+00" nType="0">
          <Node pos="l" depth="2" NCoef="0" IVar="-1" Cut="0.0000000000000000e+00" cType="1" res="4.7397822141647339e-01" rms="4.9932241439819336e-01" purity="1.0000000000000000e+00" nType="-99"/>
          <Node pos="r" depth="2" NCoef="0" IVar="-1" Cut="0.0000000000000000e+00" cType="1" res="2.5197860598564148e-01" rms="4.3414905667304993e-01" purity="1.0000000000000000e+00" nType="-99"/>
        </Node>
      </Node>
    </BinaryTree>
    <BinaryTree type="DecisionTree" boostWeight="6.4586684117405910e-02" itree="11">
      <Node pos="s" depth="0" NCoef="0" IVar="1" Cut="4.8889294266700745e-01" cType="0" res="4.9951222538948059e-01" rms="4.9999976158142090e-01" purity="1.0000000000000000e+00" nType="0">
        <Node pos="l" depth="1" NCoef="0" IVar="0" Cut="8.5294115543365479e-01" cType="0" res="5.6635129451751709e-01" rms="4.9557796120643616e-01" purity="1.0000000000000000e+00" nType="0">
          <Node pos="l" depth="2" NCoef="0" IVar="-1" Cut="0.0000000000000000e+00" cType="1" res="7.3211038112640381e-01" rms="4.4285976886749268e-01" purity="1.0000000000000000e+00" nType="-99"/>
          <Node pos="r" depth="2" NCoef="0" IVar="-1" Cut="0.0000000000000000e+00" cType="1" res="5.3781872987747192e-01" rms="4.9856770038604736e-01" purity="1.0000000000000000e+00" nType="-99"/>
        </Node>
        <Node pos="r" depth="1" NCoef="0" IVar="0" Cut="3.5863378643989563e-01" cType="0" res="4.1213667392730713e-01" rms="4.9221950769424438e-01" purity="1.0000000000000000e+00" nType="0">
          <Node pos="l" depth="2" NCoef="0" IVar="-1" Cut="0.0000000000000000e+00" cType="1" res="4.7400611639022827e-01" rms="4.9932387471199036e-01" purity="1.0000000000000000e+00" nType="-99"/>
          <Node pos="r" depth="2" NCoef="0" IVar="-1" Cut="0.0000000000000000e+00" cType="1" res="3.2919085025787354e-01" rms="4.6991938352584839e-01" purity="1.0000000000000000e+00" nType="-99"/>
        </Node>
      </Node>
    </BinaryTree>
    <BinaryTree type="DecisionTree" boostWeight="1.5660473849561571e-01" itree="12">
      <Node pos="s" depth="0" NCoef="0" IVar="0" Cut="3.5483869910240173e-01" cType="0" res="4.9953341484069824e-01" rms="4.9999979138374329e-01" purity="1.0000000000000000e+00" nType="0">
        <Node pos="l" depth="1" NCoef="0" IVar="1" Cut="6.6834366321563721e-01" cType="0" res="5.3961205482482910e-01" rms="4.9842840433120728e-01" purity="1.0000000000000000e+00" nType="0">
          <Node pos="l" depth="2" NCoef="0" IVar="-1" Cut="0.0000000000000000e+00" cType="1" res="7.4674624204635620e-01" rms="4.3487504124641418e-01" purity="1.0000000000000000e+00" nType="-99"/>
          <Node pos="r" depth="2" NCoef="0" IVar="-1" Cut="0.0000000000000000e+00" cType="1" res="5.1739442348480225e-01" rms="4.9969732761383057e-01" purity="1.0000000000000000e+00" nType="-99"/>
        </Node>
        <Node pos="r" depth="1" NCoef="0" IVar="1" Cut="3.3717244863510132e-01" cType="0" res="3.6483949422836304e-01" rms="4.8138511180877686e-01" purity="1.0000000000000000e+00" nType="0">
          <Node pos="l" depth="2" NCoef="0" IVar="-1" Cut="0.0000000000000000e+00" cType="1" res="3.9079475402832031e-01" rms="4.8792847990989685e-01" purity="1.0000000000000000e+00" nType="-99"/>
          <Node pos="r" depth="2" NCoef="0" IVar="-1" Cut="0.0000000000000000e+00" cType="1" res="1.9709746539592743e-01" rms="3.9780655503273010e-01" purity="1.0000000000000000e+00" nType="-99"/>
        </Node>
      </Node>
    </BinaryTree>
    <BinaryTree type="DecisionTree" boostWeight="3.7758068758723916e-02" itree="13">
      <Node pos="s" depth="0" NCoef="0" IVar="1" Cut="4.8889294266700745e-01" cType="0" res="4.9957758188247681e-01" rms="4.9999982118606567e-01" purity="1.0000000000000000e+00" nType="0">
        <Node pos="l" depth="1" NCoef="0" IVar="0" Cut="8.5294115543365479e-01" cType="0" res="5.6009405851364136e-01" rms="4.9637556076049805e-01" purity="1.0000000000000000e+00" nType="0">
          <Node pos="l" depth="2" NCoef="0" IVar="-1" Cut="0.0000000000000000e+00" cType="1" res="7.1725755929946899e-01" rms="4.5033228397369385e-01" purity="1.0000000000000000e+00" nType="-99"/>
          <Node pos="r" depth="2" NCoef="0" IVar="-1" Cut="0.0000000000000000e+00" cType="1" res="5.3365081548690796e-01" rms="4.9886634945869446e-01" purity="1.0000000000000000e+00" nType="-99"/>
        </Node>
        <Node pos="r" depth="1" NCoef="0" IVar="0" Cut="2.3908917605876923e-01" cType="0" res="4.2033118009567261e-01" rms="4.9361208081245422e-01" purity="1.0000000000000000e+00" nType="0">
          <Node pos="l" depth="2" NCoef="0" IVar="-1" Cut="0.0000000000000000e+00" cType="1" res="4.5859956741333008e-01" rms="4.9828305840492249e-01" purity="1.0000000000000000e+00" nType="-99"/>
          <Node pos="r" depth="2" NCoef="0" IVar="-1" Cut="0.0000000000000000e+00" cType="1" res="3.1262987852096558e-01" rms="4.6356493234634399e-01" purity="1.0000000000000000e+00" nType="-99"/>
        </Node>
      </Node>
    </BinaryTree>
    <BinaryTree type="DecisionTree" boostWeight="3.6843048944289386e-02" itree="14">
      <Node pos="s" depth="0" NCoef="0" IVar="0" Cut="5.8064514398574829e-01" cType="0" res="4.9958842992782593e-01" rms="4.9999982118606567e-01" purity="1.0000000000000000e+00" nType="0">
        <Node pos="l" depth="1" NCoef="0" IVar="0" Cut="8.5287177562713623e-01" cType="0" res="5.9637266397476196e-01" rms="4.9062439799308777e-01" purity="1.0000000000000000e+00" nType="0">
          <Node pos="l" depth="2" NCoef="0" IVar="-1" Cut="0.0000000000000000e+00" cType="1" res="7.1749705076217651e-01" rms="4.5021665096282959e-01" purity="1.0000000000000000e+00" nType="-99"/>
          <Node pos="r" depth="2" NCoef="0" IVar="-1" Cut="0.0000000000000000e+00" cType="1" res="5.5566018819808960e-01" rms="4.9689227342605591e-01" purity="1.0000000000000000e+00" nType="-99"/>
        </Node>
        <Node pos="r" depth="1" NCoef="0" IVar="0" Cut="1.4984390139579773e-01" cType="0" res="4.5214915275573730e-01" rms="4.9770504236221313e-01" purity="1.0000000000000000e+00" nType="0">
          <Node pos="l" depth="2" NCoef="0" IVar="-1" Cut="0.0000000000000000e+00" cType="1" res="4.7145605087280273e-01" rms="4.9918457865715027e-01" purity="1.0000000000000000e+00" nType="-99"/>
          <Node pos="r" depth="2" NCoef="0" IVar="-1" Cut="0.0000000000000000e+00" cType="1" res="2.8456252813339233e-01" rms="4.5120581984519958e-01" purity="1.0000000000000000e+00" nType="-99"/>
        </Node>
      </Node>
    </BinaryTree>
    <BinaryTree type="DecisionTree" boostWeight="2.1155290181937490e-02" itree="15">
      <Node pos="s" depth="0" NCoef="0" IVar="1" Cut="4.8889294266700745e-01" cType="0" res="4.9959892034530640e-01" rms="4.9999985098838806e-01" purity="1.0000000000000000e+00" nType="0">
        <Node pos="l" depth="1" NCoef="0" IVar="0" Cut="8.5294115543365479e-01" cType="0" res="5.5770123004913330e-01" rms="4.9665939807891846e-01" purity="1.0000000000000000e+00" nType="0">
          <Node pos="l" depth="2" NCoef="0" IVar="-1" Cut="0.0000000000000000e+00" cType="1" res="7.0799952745437622e-01" rms="4.5468252897262573e-01" purity="1.0000000000000000e+00" nType="-99"/>
          <Node pos="r" depth="2" NCoef="0" IVar="-1" Cut="0.0000000000000000e+00" cType="1" res="5.3264737129211426e-01" rms="4.9893301725387573e-01" purity="1.0000000000000000e+00" nType="-99"/>
        </Node>
        <Node pos="r" depth="1" NCoef="0" IVar="0" Cut="2.3908917605876923e-01" cType="0" res="4.2348974943161011e-01" rms="4.9411150813102722e-01" purity="1.0000000000000000e+00" nType="0">
          <Node pos="l" depth="2" NCoef="0" IVar="-1" Cut="0.0000000000000000e+00" cType="1" res="4.6010726690292358e-01" rms="4.9840602278709412e-01" purity="1.0000000000000000e+00" nType="-99"/>
          <Node pos="r" depth="2" NCoef="0" IVar="-1" Cut="0.0000000000000000e+00" cType="1" res="3.1978356838226318e-01" rms="4.6639257669448853e-01" purity="1.0000000000000000e+00" nType="-99"/>
        </Node>
      </Node>
    </BinaryTree>
    <BinaryTree type="DecisionTree" boostWeight="1.6375826170498917e-02" itree="16">
      <Node pos="s" depth="0" NCoef="0" IVar="1" Cut="4.8889294266700745e-01" cType="0" res="4.9960473179817200e-01" rms="4.9999985098838806e-01" purity="1.0000000000000000e+00" nType="0">
        <Node pos="l" depth="1" NCoef="0" IVar="0" Cut="8.5294115543365479e-01" cType="0" res="5.5686372518539429e-01" rms="4.9675598740577698e-01" purity="1.0000000000000000e+00" nType="0">
          <Node pos="l" depth="2" NCoef="0" IVar="-1" Cut="0.0000000000000000e+00" cType="1" res="7.0542311668395996e-01" rms="4.5585232973098755e-01" purity="1.0000000000000000e+00" nType="-99"/>
          <Node pos="r" depth="2" NCoef="0" IVar="-1" Cut="0.0000000000000000e+00" cType="1" res="5.3216165304183960e-01" rms="4.9896454811096191e-01" purity="1.0000000000000000e+00" nType="-99"/>
        </Node>
        <Node pos="r" depth="1" NCoef="0" IVar="0" Cut="2.3908917605876923e-01" cType="0" res="4.2458894848823547e-01" rms="4.9428045749664307e-01" purity="1.0000000000000000e+00" nType="0">
          <Node pos="l" depth="2" NCoef="0" IVar="-1" Cut="0.0000000000000000e+00" cType="1" res="4.6069952845573425e-01" rms="4.9845308065414429e-01" purity="1.0000000000000000e+00" nType="-99"/>
          <Node pos="r" depth="2" NCoef="0" IVar="-1" Cut="0.0000000000000000e+00" cType="1" res="3.2213079929351807e-01" rms="4.6729278564453125e-01" purity="1.0000000000000000e+00" nType="-99"/>
        </Node>
      </Node>
    </BinaryTree>
    <BinaryTree type="DecisionTree" boostWeight="2.0417395653044332e-02" itree="17">
      <Node pos="s" depth="0" NCoef="0" IVar="0" Cut="6.4516127109527588e-01" cType="0" res="4.9960920214653015e-01" rms="4.9999985098838806e-01" purity="1.0000000000000000e+00" nType="0">
        <Node pos="l" depth="1" NCoef="0" IVar="0" Cut="8.5199242830276489e-01" cType="0" res="6.0964089632034302e-01" rms="4.8783078789710999e-01" purity="1.0000000000000000e+00" nType="0">
          <Node pos="l" depth="2" NCoef="0" IVar="-1" Cut="0.0000000000000000e+00" cType="1" res="7.0849555730819702e-01" rms="4.5445528626441956e-01" purity="1.0000000000000000e+00" nType="-99"/>
          <Node pos="r" depth="2" NCoef="0" IVar="-1" Cut="0.0000000000000000e+00" cType="1" res="5.6358122825622559e-01" rms="4.9594095349311829e-01" purity="1.0000000000000000e+00" nType="-99"/>
        </Node>
        <Node pos="r" depth="1" NCoef="0" IVar="0" Cut="1.4301075041294098e-01" cType="0" res="4.6127149462699890e-01" rms="4.9849784374237061e-01" purity="1.0000000000000000e+00" nType="0">
          <Node pos="l" depth="2" NCoef="0" IVar="-1" Cut="0.0000000000000000e+00" cType="1" res="4.7853422164916992e-01" rms="4.9953901767730713e-01" purity="1.0000000000000000e+00" nType="-99"/>
          <Node pos="r" depth="2" NCoef="0" IVar="-1" Cut="0.0000000000000000e+00" cType="1" res="2.9259723424911499e-01" rms="4.5495504140853882e-01" purity="1.0000000000000000e+00" nType="-99"/>
        </Node>
      </Node>
    </BinaryTree>
    <BinaryTree type="DecisionTree" boostWeight="1.1856188350365346e-02" itree="18">
      <Node pos="s" depth="0" NCoef="0" IVar="1" Cut="4.8889294266700745e-01" cType="0" res="4.9961474537849426e-01" rms="4.9999985098838806e-01" purity="1.0000000000000000e+00" nType="0">
        <Node pos="l" depth="1" NCoef="0" IVar="1" Cut="6.5978628396987915e-01" cType="0" res="5.5578613281250000e-01" rms="4.9687814712524414e-01" purity="1.0000000000000000e+00" nType="0">
          <Node pos="l" depth="2" NCoef="0" IVar="-1" Cut="0.0000000000000000e+00" cType="1" res="7.0314365625381470e-01" rms="4.5687267184257507e-01" purity="1.0000000000000000e+00" nType="-99"/>
          <Node pos="r" depth="2" NCoef="0" IVar="-1" Cut="0.0000000000000000e+00" cType="1" res="5.3177136182785034e-01" rms="4.9898955225944519e-01" purity="1.0000000000000000e+00" nType="-99"/>
        </Node>
        <Node pos="r" depth="1" NCoef="0" IVar="0" Cut="2.3908917605876923e-01" cType="0" res="4.2601498961448669e-01" rms="4.9449592828750610e-01" purity="1.0000000000000000e+00" nType="0">
          <Node pos="l" depth="2" NCoef="0" IVar="-1" Cut="0.0000000000000000e+00" cType="1" res="4.6134486794471741e-01" rms="4.9850353598594666e-01" purity="1.0000000000000000e+00" nType="-99"/>
          <Node pos="r" depth="2" NCoef="0" IVar="-1" Cut="0.0000000000000000e+00" cType="1" res="3.2548472285270691e-01" rms="4.6855568885803223e-01" purity="1.0000000000000000e+00" nType="-99"/>
        </Node>
      </Node>
    </BinaryTree>
    <BinaryTree type="DecisionTree" boostWeight="1.2512342295868414e-02" itree="19">
      <Node pos="s" depth="0" NCoef="0" IVar="0" Cut="5.8064514398574829e-01" cType="0" res="4.9961790442466736e-01" rms="4.9999985098838806e-01" purity="1.0000000000000000e+00" nType="0">
        <Node pos="l" depth="1" NCoef="0" IVar="1" Cut="5.4845464229583740e-01" cType="0" res="5.9083795547485352e-01" rms="4.9167922139167786e-01" purity="1.0000000000000000e+00" nType="0">
          <Node pos="l" depth="2" NCoef="0" IVar="-1" Cut="0.0000000000000000e+00" cType="1" res="6.6433548927307129e-01" rms="4.7222223877906799e-01" purity="1.0000000000000000e+00" nType="-99"/>
          <Node pos="r" depth="2" NCoef="0" IVar="-1" Cut="0.0000000000000000e+00" cType="1" res="5.2956157922744751e-01" rms="4.9912536144256592e-01" purity="1.0000000000000000e+00" nType="-99"/>
        </Node>
        <Node pos="r" depth="1" NCoef="0" IVar="0" Cut="1.4984390139579773e-01" cType="0" res="4.5499897003173828e-01" rms="4.9797078967094421e-01" purity="1.0000000000000000e+00" nType="0">
          <Node pos="l" depth="2" NCoef="0" IVar="-1" Cut="0.0000000000000000e+00" cType="1" res="4.7308456897735596e-01" rms="4.9927502870559692e-01" purity="1.0000000000000000e+00" nType="-99"/>
          <Node pos="r" depth="2" NCoef="0" IVar="-1" Cut="0.0000000000000000e+00" cType="1" res="2.9617342352867126e-01" rms="4.5656841993331909e-01" purity="1.0000000000000000e+00" nType="-99"/>
        </Node>
      </Node>
    </BinaryTree>
    <BinaryTree type="DecisionTree" boostWeight="7.2692158916870583e-03" itree="20">
      <Node pos="s" depth="0" NCoef="0" IVar="1" Cut="4.8889294266700745e-01" cType="0" res="4.9962121248245239e-01" rms="4.9999985098838806e-01" purity="1.0000000000000000e+00" nType="0">
        <Node pos="l" depth="1" NCoef="0" IVar="1" Cut="6.5978628396987915e-01" cType="0" res="5.5502873659133911e-01" rms="4.9696260690689087e-01" purity="1.0000000000000000e+00" nType="0">
          <Node pos="l" depth="2" NCoef="0" IVar="-1" Cut="0.0000000000000000e+00" cType="1" res="7.0071005821228027e-01" rms="4.5794701576232910e-01" purity="1.0000000000000000e+00" nType="-99"/>
          <Node pos="r" depth="2" NCoef="0" IVar="-1" Cut="0.0000000000000000e+00" cType="1" res="5.3133761882781982e-01" rms="4.9901700019836426e-01" purity="1.0000000000000000e+00" nType="-99"/>
        </Node>
        <Node pos="r" depth="1" NCoef="0" IVar="0" Cut="2.3908917605876923e-01" cType="0" res="4.2701682448387146e-01" rms="4.9464479088783264e-01" purity="1.0000000000000000e+00" nType="0">
          <Node pos="l" depth="2" NCoef="0" IVar="-1" Cut="0.0000000000000000e+00" cType="1" res="4.6184092760086060e-01" rms="4.9854177236557007e-01" purity="1.0000000000000000e+00" nType="-99"/>
          <Node pos="r" depth="2" NCoef="0" IVar="-1" Cut="0.0000000000000000e+00" cType="1" res="3.2774126529693604e-01" rms="4.6938994526863098e-01" purity="1.0000000000000000e+00" nType="-99"/>
        </Node>
      </Node>
    </BinaryTree>
    <BinaryTree type="DecisionTree" boostWeight="4.2067138827756034e-03" itree="21">
      <Node pos="s" depth="0" NCoef="0" IVar="1" Cut="4.8889294266700745e-01" cType="0" res="4.9962311983108521e-01" rms="4.9999985098838806e-01" purity="1.0000000000000000e+00" nType="0">
        <Node pos="l" depth="1" NCoef="0" IVar="0" Cut="8.5294115543365479e-01" cType="0" res="5.5475074052810669e-01" rms="4.9699333310127258e-01" purity="1.0000000000000000e+00" nType="0">
          <Node pos="l" depth="2" NCoef="0" IVar="-1" Cut="0.0000000000000000e+00" cType="1" res="6.9899719953536987e-01" rms="4.5869392156600952e-01" purity="1.0000000000000000e+00" nType="-99"/>
          <Node pos="r" depth="2" NCoef="0" IVar="-1" Cut="0.0000000000000000e+00" cType="1" res="5.3092974424362183e-01" rms="4.9904242157936096e-01" purity="1.0000000000000000e+00" nType="-99"/>
        </Node>
        <Node pos="r" depth="1" NCoef="0" IVar="0" Cut="2.3908917605876923e-01" cType="0" res="4.2738211154937744e-01" rms="4.9469852447509766e-01" purity="1.0000000000000000e+00" nType="0">
          <Node pos="l" depth="2" NCoef="0" IVar="-1" Cut="0.0000000000000000e+00" cType="1" res="4.6203771233558655e-01" rms="4.9855679273605347e-01" purity="1.0000000000000000e+00" nType="-99"/>
          <Node pos="r" depth="2" NCoef="0" IVar="-1" Cut="0.0000000000000000e+00" cType="1" res="3.2852920889854431e-01" rms="4.6967837214469910e-01" purity="1.0000000000000000e+00" nType="-99"/>
        </Node>
      </Node>
    </BinaryTree>
    <BinaryTree type="DecisionTree" boostWeight="1.1323988004671876e-02" itree="22">
      <Node pos="s" depth="0" NCoef="0" IVar="0" Cut="6.4516127109527588e-01" cType="0" res="4.9962422251701355e-01" rms="4.9999985098838806e-01" purity="1.0000000000000000e+00" nType="0">
        <Node pos="l" depth="1" NCoef="0" IVar="0" Cut="8.5199242830276489e-01" cType="0" res="6.0632324218750000e-01" rms="4.8856461048126221e-01" purity="1.0000000000000000e+00" nType="0">
          <Node pos="l" depth="2" NCoef="0" IVar="-1" Cut="0.0000000000000000e+00" cType="1" res="7.0363825559616089e-01" rms="4.5665246248245239e-01" purity="1.0000000000000000e+00" nType="-99"/>
          <Node pos="r" depth="2" NCoef="0" IVar="-1" Cut="0.0000000000000000e+00" cType="1" res="5.6120997667312622e-01" rms="4.9623918533325195e-01" purity="1.0000000000000000e+00" nType="-99"/>
        </Node>
        <Node pos="r" depth="1" NCoef="0" IVar="0" Cut="1.4301075041294098e-01" cType="0" res="4.6250373125076294e-01" rms="4.9859204888343811e-01" purity="1.0000000000000000e+00" nType="0">
          <Node pos="l" depth="2" NCoef="0" IVar="-1" Cut="0.0000000000000000e+00" cType="1" res="4.7916468977928162e-01" rms="4.9956569075584412e-01" purity="1.0000000000000000e+00" nType="-99"/>
          <Node pos="r" depth="2" NCoef="0" IVar="-1" Cut="0.0000000000000000e+00" cType="1" res="2.9874154925346375e-01" rms="4.5770627260208130e-01" purity="1.0000000000000000e+00" nType="-99"/>
        </Node>
      </Node>
    </BinaryTree>
    <BinaryTree type="DecisionTree" boostWeight="4.0101353187224371e-03" itree="23">
      <Node pos="s" depth="0" NCoef="0" IVar="1" Cut="4.8889294266700745e-01" cType="0" res="4.9962717294692993e-01" rms="4.9999985098838806e-01" purity="1.0000000000000000e+00" nType="0">
        <Node pos="l" depth="1" NCoef="0" IVar="1" Cut="6.5978628396987915e-01" cType="0" res="5.5435395240783691e-01" rms="4.9703687429428101e-01" purity="1.0000000000000000e+00" nType="0">
          <Node pos="l" depth="2" NCoef="0" IVar="-1" Cut="0.0000000000000000e+00" cType="1" res="6.9903248548507690e-01" rms="4.5867863297462463e-01" purity="1.0000000000000000e+00" nType="-99"/>
          <Node pos="r" depth="2" NCoef="0" IVar="-1" Cut="0.0000000000000000e+00" cType="1" res="5.3087490797042847e-01" rms="4.9904581904411316e-01" purity="1.0000000000000000e+00" nType="-99"/>
        </Node>
        <Node pos="r" depth="1" NCoef="0" IVar="0" Cut="2.3908917605876923e-01" cType="0" res="4.2790937423706055e-01" rms="4.9477565288543701e-01" purity="1.0000000000000000e+00" nType="0">
          <Node pos="l" depth="2" NCoef="0" IVar="-1" Cut="0.0000000000000000e+00" cType="1" res="4.6225571632385254e-01" rms="4.9857333302497864e-01" purity="1.0000000000000000e+00" nType="-99"/>
          <Node pos="r" depth="2" NCoef="0" IVar="-1" Cut="0.0000000000000000e+00" cType="1" res="3.2982981204986572e-01" rms="4.7015115618705750e-01" purity="1.0000000000000000e+00" nType="-99"/>
        </Node>
      </Node>
    </BinaryTree>
    <BinaryTree type="DecisionTree" boostWeight="3.0943501015725672e-03" itree="24">
      <Node pos="s" depth="0" NCoef="0" IVar="1" Cut="4.8889294266700745e-01" cType="0" res="4.9962821602821350e-01" rms="4.9999985098838806e-01" purity="1.0000000000000000e+00" nType="0">
        <Node pos="l" depth="1" NCoef="0" IVar="1" Cut="6.5978628396987915e-01" cType="0" res="5.5420202016830444e-01" rms="4.9705344438552856e-01" purity="1.0000000000000000e+00" nType="0">
          <Node pos="l" depth="2" NCoef="0" IVar="-1" Cut="0.0000000000000000e+00" cType="1" res="6.9855183362960815e-01" rms="4.5888689160346985e-01" purity="1.0000000000000000e+00" nType="-99"/>
          <Node pos="r" depth="2" NCoef="0" IVar="-1" Cut="0.0000000000000000e+00" cType="1" res="5.3078669309616089e-01" rms="4.9905127286911011e-01" purity="1.0000000000000000e+00" nType="-99"/>
        </Node>
        <Node pos="r" depth="1" NCoef="0" IVar="0" Cut="2.3908917605876923e-01" cType="0" res="4.2810907959938049e-01" rms="4.9480471014976501e-01" purity="1.0000000000000000e+00" nType="0">
          <Node pos="l" depth="2" NCoef="0" IVar="-1" Cut="0.0000000000000000e+00" cType="1" res="4.6236336231231689e-01" rms="4.9858146905899048e-01" purity="1.0000000000000000e+00" nType="-99"/>
          <Node pos="r" depth="2" NCoef="0" IVar="-1" Cut="0.0000000000000000e+00" cType="1" res="3.3026152849197388e-01" rms="4.7030720114707947e-01" purity="1.0000000000000000e+00" nType="-99"/>
        </Node>
      </Node>
    </BinaryTree>
    <BinaryTree type="DecisionTree" boostWeight="2.3872188601381451e-03" itree="25">
      <Node pos="s" depth="0" NCoef="0" IVar="1" Cut="4.8889294266700745e-01" cType="0" res="4.9962902069091797e-01" rms="4.9999985098838806e-01" purity="1.0000000000000000e+00" nType="0">
        <Node pos="l" depth="1" NCoef="0" IVar="1" Cut="6.5978628396987915e-01" cType="0" res="5.5408501625061035e-01" rms="4.9706619977951050e-01" purity="1.0000000000000000e+00" nType="0">
          <Node pos="l" depth="2" NCoef="0" IVar="-1" Cut="0.0000000000000000e+00" cType="1" res="6.9818127155303955e-01" rms="4.5904704928398132e-01" purity="1.0000000000000000e+00" nType="-99"/>
          <Node pos="r" depth="2" NCoef="0" IVar="-1" Cut="0.0000000000000000e+00" cType="1" res="5.3071874380111694e-01" rms="4.9905547499656677e-01" purity="1.0000000000000000e+00" nType="-99"/>
        </Node>
        <Node pos="r" depth="1" NCoef="0" IVar="0" Cut="2.3908917605876923e-01" cType="0" res="4.2826288938522339e-01" rms="4.9482703208923340e-01" purity="1.0000000000000000e+00" nType="0">
          <Node pos="l" depth="2" NCoef="0" IVar="-1" Cut="0.0000000000000000e+00" cType="1" res="4.6244624257087708e-01" rms="4.9858772754669189e-01" purity="1.0000000000000000e+00" nType="-99"/>
          <Node pos="r" depth="2" NCoef="0" IVar="-1" Cut="0.0000000000000000e+00" cType="1" res="3.3059424161911011e-01" rms="4.7042712569236755e-01" purity="1.0000000000000000e+00" nType="-99"/>
        </Node>
      </Node>
    </BinaryTree>
    <BinaryTree type="DecisionTree" boostWeight="3.5702582216318823e-03" itree="26">
      <Node pos="s" depth="0" NCoef="0" IVar="0" Cut="5.8064514398574829e-01" cType="0" res="4.9962961673736572e-01" rms="4.9999985098838806e-01" purity="1.0000000000000000e+00" nType="0">
        <Node pos="l" depth="1" NCoef="0" IVar="1" Cut="5.4845464229583740e-01" cType="0" res="5.8865761756896973e-01" rms="4.9207705259323120e-01" purity="1.0000000000000000e+00" nType="0">
          <Node pos="l" depth="2" NCoef="0" IVar="-1" Cut="0.0000000000000000e+00" cType="1" res="6.6088461875915527e-01" rms="4.7340905666351318e-01" purity="1.0000000000000000e+00" nType="-99"/>
          <Node pos="r" depth="2" NCoef="0" IVar="-1" Cut="0.0000000000000000e+00" cType="1" res="5.2860206365585327e-01" rms="4.9918124079704285e-01" purity="1.0000000000000000e+00" nType="-99"/>
        </Node>
        <Node pos="r" depth="1" NCoef="0" IVar="0" Cut="1.4984390139579773e-01" cType="0" res="4.5611548423767090e-01" rms="4.9807041883468628e-01" purity="1.0000000000000000e+00" nType="0">
          <Node pos="l" depth="2" NCoef="0" IVar="-1" Cut="0.0000000000000000e+00" cType="1" res="4.7370252013206482e-01" rms="4.9930796027183533e-01" purity="1.0000000000000000e+00" nType="-99"/>
          <Node pos="r" depth="2" NCoef="0" IVar="-1" Cut="0.0000000000000000e+00" cType="1" res="3.0096802115440369e-01" rms="4.5867884159088135e-01" purity="1.0000000000000000e+00" nType="-99"/>
        </Node>
      </Node>
    </BinaryTree>
    <BinaryTree type="DecisionTree" boostWeight="1.2987278175967142e-03" itree="27">
      <Node pos="s" depth="0" NCoef="0" IVar="1" Cut="4.8889294266700745e-01" cType="0" res="4.9963054060935974e-01" rms="4.9999985098838806e-01" purity="1.0000000000000000e+00" nType="0">
        <Node pos="l" depth="1" NCoef="0" IVar="1" Cut="6.5978628396987915e-01" cType="0" res="5.5391079187393188e-01" rms="4.9708512425422668e-01" purity="1.0000000000000000e+00" nType="0">
          <Node pos="l" depth="2" NCoef="0" IVar="-1" Cut="0.0000000000000000e+00" cType="1" res="6.9761204719543457e-01" rms="4.5929235219955444e-01" purity="1.0000000000000000e+00" nType="-99"/>
          <Node pos="r" depth="2" NCoef="0" IVar="-1" Cut="0.0000000000000000e+00" cType="1" res="5.3061962127685547e-01" rms="4.9906155467033386e-01" purity="1.0000000000000000e+00" nType="-99"/>
        </Node>
        <Node pos="r" depth="1" NCoef="0" IVar="0" Cut="2.3908917605876923e-01" cType="0" res="4.2849382758140564e-01" rms="4.9486044049263000e-01" purity="1.0000000000000000e+00" nType="0">
          <Node pos="l" depth="2" NCoef="0" IVar="-1" Cut="0.0000000000000000e+00" cType="1" res="4.6255847811698914e-01" rms="4.9859616160392761e-01" purity="1.0000000000000000e+00" nType="-99"/>
          <Node pos="r" depth="2" NCoef="0" IVar="-1" Cut="0.0000000000000000e+00" cType="1" res="3.3112242817878723e-01" rms="4.7061699628829956e-01" purity="1.0000000000000000e+00" nType="-99"/>
        </Node>
      </Node>
    </BinaryTree>
    <BinaryTree type="DecisionTree" boostWeight="1.0016278959370276e-03" itree="28">
      <Node pos="s" depth="0" NCoef="0" IVar="1" Cut="4.8889294266700745e-01" cType="0" res="4.9963086843490601e-01" rms="4.9999985098838806e-01" purity="1.0000000000000000e+00" nType="0">
        <Node pos="l" depth="1" NCoef="0" IVar="1" Cut="6.5978628396987915e-01" cType="0" res="5.5386185646057129e-01" rms="4.9709042906761169e-01" purity="1.0000000000000000e+00" nType="0">
          <Node pos="l" depth="2" NCoef="0" IVar="-1" Cut="0.0000000000000000e+00" cType="1" res="6.9745683670043945e-01" rms="4.5935910940170288e-01" purity="1.0000000000000000e+00" nType="-99"/>
          <Node pos="r" depth="2" NCoef="0" IVar="-1" Cut="0.0000000000000000e+00" cType="1" res="5.3059124946594238e-01" rms="4.9906328320503235e-01" purity="1.0000000000000000e+00" nType="-99"/>
        </Node>
        <Node pos="r" depth="1" NCoef="0" IVar="0" Cut="2.3908917605876923e-01" cType="0" res="4.2855814099311829e-01" rms="4.9486973881721497e-01" purity="1.0000000000000000e+00" nType="0">
          <Node pos="l" depth="2" NCoef="0" IVar="-1" Cut="0.0000000000000000e+00" cType="1" res="4.6259313821792603e-01" rms="4.9859875440597534e-01" purity="1.0000000000000000e+00" nType="-99"/>
          <Node pos="r" depth="2" NCoef="0" IVar="-1" Cut="0.0000000000000000e+00" cType="1" res="3.3126172423362732e-01" rms="4.7066697478294373e-01" purity="1.0000000000000000e+00" nType="-99"/>
        </Node>
      </Node>
    </BinaryTree>
    <BinaryTree type="DecisionTree" boostWeight="0.0000000000000000e+00" itree="29">
      <Node pos="s" depth="0" NCoef="0" IVar="1" Cut="4.8889294266700745e-01" cType="0" res="4.9963113665580750e-01" rms="4.9999985098838806e-01" purity="1.0000000000000000e+00" nType="0">
        <Node pos="l" depth="1" NCoef="0" IVar="0" Cut="8.5294115543365479e-01" cType="0" res="5.5382412672042847e-01" rms="4.9709451198577881e-01" purity="1.0000000000000000e+00" nType="0">
          <Node pos="l" depth="2" NCoef="0" IVar="-1" Cut="0.0000000000000000e+00" cType="1" res="6.9624608755111694e-01" rms="4.5987766981124878e-01" purity="1.0000000000000000e+00" nType="-99"/>
          <Node pos="r" depth="2" NCoef="0" IVar="-1" Cut="0.0000000000000000e+00" cType="1" res="5.3037440776824951e-01" rms="4.9907654523849487e-01" purity="1.0000000000000000e+00" nType="-99"/>
        </Node>
        <Node pos="r" depth="1" NCoef="0" IVar="0" Cut="2.3908917605876923e-01" cType="0" res="4.2860773205757141e-01" rms="4.9487689137458801e-01" purity="1.0000000000000000e+00" nType="0">
          <Node pos="l" depth="2" NCoef="0" IVar="-1" Cut="0.0000000000000000e+00" cType="1" res="4.6261987090110779e-01" rms="4.9860078096389771e-01" purity="1.0000000000000000e+00" nType="-99"/>
          <Node pos="r" depth="2" NCoef="0" IVar="-1" Cut="0.0000000000000000e+00" cType="1" res="3.3136910200119019e-01" rms="4.7070544958114624e-01" purity="1.0000000000000000e+00" nType="-99"/>
        </Node>
      </Node>
    </BinaryTree>
    <BinaryTree type="DecisionTree" boostWeight="0.0000000000000000e+00" itree="30">
      <Node pos="s" depth="0" NCoef="0" IVar="1" Cut="4.8889294266700745e-01" cType="0" res="4.9963113665580750e-01" rms="4.9999985098838806e-01" purity="1.0000000000000000e+00" nType="0">
        <Node pos="l" depth="1" NCoef="0" IVar="0" Cut="8.5294115543365479e-01" cType="0" res="5.5382412672042847e-01" rms="4.9709451198577881e-01" purity="1.0000000000000000e+00" nType="0">
          <Node pos="l" depth="2" NCoef="0" IVar="-1" Cut="0.0000000000000000e+00" cType="1" res="6.9624608755111694e-01" rms="4.5987766981124878e-01" purity="1.0000000000000000e+00" nType="-99"/>
          <Node pos="r" depth="2" NCoef="0" IVar="-1" Cut="0.0000000000000000e+00" cType="1" res="5.3037440776824951e-01" rms="4.9907654523849487e-01" purity="1.0000000000000000e+00" nType="-99"/>
        </Node>
        <Node pos="r" depth="1" NCoef="0" IVar="0" Cut="2.3908917605876923e-01" cType="0" res="4.2860773205757141e-01" rms="4.9487689137458801e-01" purity="1.0000000000000000e+00" nType="0">
          <Node pos="l" depth="2" NCoef="0" IVar="-1" Cut="0.0000000000000000e+00" cType="1" res="4.6261987090110779e-01" rms="4.9860078096389771e-01" purity="1.0000000000000000e+00" nType="-99"/>
          <Node pos="r" depth="2" NCoef="0" IVar="-1" Cut="0.0000000000000000e+00" cType="1" res="3.3136910200119019e-01" rms="4.7070544958114624e-01" purity="1.0000000000000000e+00" nType="-99"/>
        </Node>
      </Node>
    </BinaryTree>
    <BinaryTree type="DecisionTree" boostWeight="0.0000000000000000e+00" itree="31">
      <Node pos="s" depth="0" NCoef="0" IVar="1" Cut="4.8889294266700745e-01" cType="0" res="4.9963113665580750e-01" rms="4.9999985098838806e-01" purity="1.0000000000000000e+00" nType="0">
        <Node pos="l" depth="1" NCoef="0" IVar="0" Cut="8.5294115543365479e-01" cType="0" res="5.5382412672042847e-01" rms="4.9709451198577881e-01" purity="1.0000000000000000e+00" nType="0">
          <Node pos="l" depth="2" NCoef="0" IVar="-1" Cut="0.0000000000000000e+00" cType="1" res="6.9624608755111694e-01" rms="4.5987766981124878e-01" purity="1.0000000000000000e+00" nType="-99"/>
          <Node pos="r" depth="2" NCoef="0" IVar="-1" Cut="0.0000000000000000e+00" cType="1" res="5.3037440776824951e-01" rms="4.9907654523849487e-01" purity="1.0000000000000000e+00" nType="-99"/>
        </Node>
        <Node pos="r" depth="1" NCoef="0" IVar="0" Cut="2.3908917605876923e-01" cType="0" res="4.2860773205757141e-01" rms="4.9487689137458801e-01" purity="1.0000000000000000e+00" nType="0">
          <Node pos="l" depth="2" NCoef="0" IVar="-1" Cut="0.0000000000000000e+00" cType="1" res="4.6261987090110779e-01" rms="4.9860078096389771e-01" purity="1.0000000000000000e+00" nType="-99"/>
          <Node pos="r" depth="2" NCoef="0" IVar="-1" Cut="0.0000000000000000e+00" cType="1" res="3.3136910200119019e-01" rms="4.7070544958114624e-01" purity="1.0000000000000000e+00" nType="-99"/>
        </Node>
      </Node>
    </BinaryTree>
    <BinaryTree type="DecisionTree" boostWeight="0.0000000000000000e+00" itree="32">
      <Node pos="s" depth="0" NCoef="0" IVar="1" Cut="4.8889294266700745e-01" cType="0" res="4.9963113665580750e-01" rms="4.9999985098838806e-01" purity="1.0000000000000000e+00" nType="0">
        <Node pos="l" depth="1" NCoef="0" IVar="0" Cut="8.5294115543365479e-01" cType="0" res="5.5382412672042847e-01" rms="4.9709451198577881e-01" purity="1.0000000000000000e+00" nType="0">
          <Node pos="l" depth="2" NCoef="0" IVar="-1" Cut="0.0000000000000000e+00" cType="1" res="6.9624608755111694e-01" rms="4.5987766981124878e-01" purity="1.0000000000000000e+00" nType="-99"/>
          <Node pos="r" depth="2" NCoef="0" IVar="-1" Cut="0.0000000000000000e+00" cType="1" res="5.3037440776824951e-01" rms="4.9907654523849487e-01" purity="1.0000000000000000e+00" nType="-99"/>
        </Node>
        <Node pos="r" depth="1" NCoef="0" IVar="0" Cut="2.3908917605876923e-01" cType="0" res="4.2860773205757141e-01" rms="4.9487689137458801e-01" purity="1.0000000000000000e+00" nType="0">
          <Node pos="l" depth="2" NCoef="0" IVar="-1" Cut="0.0000000000000000e+00" cType="1" res="4.6261987090110779e-01" rms="4.9860078096389771e-01" purity="1.0000000000000000e+00" nType="-99"/>
          <Node pos="r" depth="2" NCoef="0" IVar="-1" Cut="0.0000000000000000e+00" cType="1" res="3.3136910200119019e-01" rms="4.7070544958114624e-01" purity="1.0000000000000000e+00" nType="-99"/>
        </Node>
      </Node>
    </BinaryTree>
    <BinaryTree type="DecisionTree" boostWeight="0.0000000000000000e+00" itree="33">
      <Node pos="s" depth="0" NCoef="0" IVar="1" Cut="4.8889294266700745e-01" cType="0" res="4.9963113665580750e-01" rms="4.9999985098838806e-01" purity="1.0000000000000000e+00" nType="0">
        <Node pos="l" depth="1" NCoef="0" IVar="0" Cut="8.5294115543365479e-01" cType="0" res="5.5382412672042847e-01" rms="4.9709451198577881e-01" purity="1.0000000000000000e+00" nType="0">
          <Node pos="l" depth="2" NCoef="0" IVar="-1" Cut="0.0000000000000000e+00" cType="1" res="6.9624608755111694e-01" rms="4.5987766981124878e-01" purity="1.0000000000000000e+00" nType="-99"/>
          <Node pos="r" depth="2" NCoef="0" IVar="-1" Cut="0.0000000000000000e+00" cType="1" res="5.3037440776824951e-01" rms="4.9907654523849487e-01" purity="1.0000000000000000e+00" nType="-99"/>
        </Node>
        <Node pos="r" depth="1" NCoef="0" IVar="0" Cut="2.3908917605876923e-01" cType="0" res="4.2860773205757141e-01" rms="4.9487689137458801e-01" purity="1.0000000000000000e+00" nType="0">
          <Node pos="l" depth="2" NCoef="0" IVar="-1" Cut="0.0000000000000000e+00" cType="1" res="4.6261987090110779e-01" rms="4.9860078096389771e-01" purity="1.0000000000000000e+00" nType="-99"/>
          <Node pos="r" depth="2" NCoef="0" IVar="-1" Cut="0.0000000000000000e+00" cType="1" res="3.3136910200119019e-01" rms="4.7070544958114624e-01" purity="1.0000000000000000e+00" nType="-99"/>
        </Node>
      </Node>
    </BinaryTree>
    <BinaryTree type="DecisionTree" boostWeight="0.0000000000000000e+00" itree="34">
      <Node pos="s" depth="0" NCoef="0" IVar="1" Cut="4.8889294266700745e-01" cType="0" res="4.9963113665580750e-01" rms="4.9999985098838806e-01" purity="1.0000000000000000e+00" nType="0">
        <Node pos="l" depth="1" NCoef="0" IVar="0" Cut="8.5294115543365479e-01" cType="0" res="5.5382412672042847e-01" rms="4.9709451198577881e-01" purity="1.0000000000000000e+00" nType="0">
          <Node pos="l" depth="2" NCoef="0" IVar="-1" Cut="0.0000000000000000e+00" cType="1" res="6.9624608755111694e-01" rms="4.5987766981124878e-01" purity="1.0000000000000000e+00" nType="-99"/>
          <Node pos="r" depth="2" NCoef="0" IVar="-1" Cut="0.0000000000000000e+00" cType="1" res="5.3037440776824951e-01" rms="4.9907654523849487e-01" purity="1.0000000000000000e+00" nType="-99"/>
        </Node>
        <Node pos="r" depth="1" NCoef="0" IVar="0" Cut="2.3908917605876923e-01" cType="0" res="4.2860773205757141e-01" rms="4.9487689137458801e-01" purity="1.0000000000000000e+00" nType="0">
          <Node pos="l" depth="2" NCoef="0" IVar="-1" Cut="0.0000000000000000e+00" cType="1" res="4.6261987090110779e-01" rms="4.9860078096389771e-01" purity="1.0000000000000000e+00" nType="-99"/>
          <Node pos="r" depth="2" NCoef="0" IVar="-1" Cut="0.0000000000000000e+00" cType="1" res="3.3136910200119019e-01" rms="4.7070544958114624e-01" purity="1.0000000000000000e+00" nType="-99"/>
        </Node>
      </Node>
    </BinaryTree>
    <BinaryTree type="DecisionTree" boostWeight="0.0000000000000000e+00" itree="35">
      <Node pos="s" depth="0" NCoef="0" IVar="1" Cut="4.8889294266700745e-01" cType="0" res="4.9963113665580750e-01" rms="4.9999985098838806e-01" purity="1.0000000000000000e+00" nType="0">
        <Node pos="l" depth="1" NCoef="0" IVar="0" Cut="8.5294115543365479e-01" cType="0" res="5.5382412672042847e-01" rms="4.9709451198577881e-01" purity="1.0000000000000000e+00" nType="0">
          <Node pos="l" depth="2" NCoef="0" IVar="-1" Cut="0.0000000000000000e+00" cType="1" res="6.9624608755111694e-01" rms="4.5987766981124878e-01" purity="1.0000000000000000e+00" nType="-99"/>
          <Node pos="r" depth="2" NCoef="0" IVar="-1" Cut="0.0000000000000000e+00" cType="1" res="5.3037440776824951e-01" rms="4.9907654523849487e-01" purity="1.0000000000000000e+00" nType="-99"/>
        </Node>
        <Node pos="r" depth="1" NCoef="0" IVar="0" Cut="2.3908917605876923e-01" cType="0" res="4.2860773205757141e-01" rms="4.9487689137458801e-01" purity="1.0000000000000000e+00" nType="0">
          <Node pos="l" depth="2" NCoef="0" IVar="-1" Cut="0.0000000000000000e+00" cType="1" res="4.6261987090110779e-01" rms="4.9860078096389771e-01" purity="1.0000000000000000e+00" nType="-99"/>
          <Node pos="r" depth="2" NCoef="0" IVar="-1" Cut="0.0000000000000000e+00" cType="1" res="3.3136910200119019e-01" rms="4.7070544958114624e-01" purity="1.0000000000000000e+00" nType="-99"/>
        </Node>
      </Node>
    </BinaryTree>
    <BinaryTree type="DecisionTree" boostWeight="0.0000000000000000e+00" itree="36">
      <Node pos="s" depth="0" NCoef="0" IVar="1" Cut="4.8889294266700745e-01" cType="0" res="4.9963113665580750e-01" rms="4.9999985098838806e-01" purity="1.0000000000000000e+00" nType="0">
        <Node pos="l" depth="1" NCoef="0" IVar="0" Cut="8.5294115543365479e-01" cType="0" res="5.5382412672042847e-01" rms="4.9709451198577881e-01" purity="1.0000000000000000e+00" nType="0">
          <Node pos="l" depth="2" NCoef="0" IVar="-1" Cut="0.0000000000000000e+00" cType="1" res="6.9624608755111694e-01" rms="4.5987766981124878e-01" purity="1.0000000000000000e+00" nType="-99"/>
          <Node pos="r" depth="2" NCoef="0" IVar="-1" Cut="0.0000000000000000e+00" cType="1" res="5.3037440776824951e-01" rms="4.9907654523849487e-01" purity="1.0000000000000000e+00" nType="-99"/>
        </Node>
        <Node pos="r" depth="1" NCoef="0" IVar="0" Cut="2.3908917605876923e-01" cType="0" res="4.2860773205757141e-01" rms="4.9487689137458801e-01" purity="1.0000000000000000e+00" nType="0">
          <Node pos="l" depth="2" NCoef="0" IVar="-1" Cut="0.0000000000000000e+00" cType="1" res="4.6261987090110779e-01" rms="4.9860078096389771e-01" purity="1.0000000000000000e+00" nType="-99"/>
          <Node pos="r" depth="2" NCoef="0" IVar="-1" Cut="0.0000000000000000e+00" cType="1" res="3.3136910200119019e-01" rms="4.7070544958114624e-01" purity="1.0000000000000000e+00" nType="-99"/>
        </Node>
      </Node>
    </BinaryTree>
    <BinaryTree type="DecisionTree" boostWeight="0.0000000000000000e+00" itree="37">
      <Node pos="s" depth="0" NCoef="0" IVar="1" Cut="4.8889294266700745e-01" cType="0" res="4.9963113665580750e-01" rms="4.9999985098838806e-01" purity="1.0000000000000000e+00" nType="0">
        <Node pos="l" depth="1" NCoef="0" IVar="0" Cut="8.5294115543365479e-01" cType="0" res="5.5382412672042847e-01" rms="4.9709451198577881e-01" purity="1.0000000000000000e+00" nType="0">
          <Node pos="l" depth="2" NCoef="0" IVar="-1" Cut="0.0000000000000000e+00" cType="1" res="6.9624608755111694e-01" rms="4.5987766981124878e-01" purity="1.0000000000000000e+00" nType="-99"/>
          <Node pos="r" depth="2" NCoef="0" IVar="-1" Cut="0.0000000000000000e+00" cType="1" res="5.3037440776824951e-01" rms="4.9907654523849487e-01" purity="1.0000000000000000e+00" nType="-99"/>
        </Node>
        <Node pos="r" depth="1" NCoef="0" IVar="0" Cut="2.3908917605876923e-01" cType="0" res="4.2860773205757141e-01" rms="4.9487689137458801e-01" purity="1.0000000000000000e+00" nType="0">
          <Node pos="l" depth="2" NCoef="0" IVar="-1" Cut="0.0000000000000000e+00" cType="1" res="4.6261987090110779e-01" rms="4.9860078096389771e-01" purity="1.0000000000000000e+00" nType="-99"/>
          <Node pos="r" depth="2" NCoef="0" IVar="-1" Cut="0.0000000000000000e+00" cType="1" res="3.3136910200119019e-01" rms="4.7070544958114624e-01" purity="1.0000000000000000e+00" nType="-99"/>
        </Node>
      </Node>
    </BinaryTree>
    <BinaryTree type="DecisionTree" boostWeight="0.0000000000000000e+00" itree="38">
      <Node pos="s" depth="0" NCoef="0" IVar="1" Cut="4.8889294266700745e-01" cType="0" res="4.9963113665580750e-01" rms="4.9999985098838806e-01" purity="1.0000000000000000e+00" nType="0">
        <Node pos="l" depth="1" NCoef="0" IVar="0" Cut="8.5294115543365479e-01" cType="0" res="5.5382412672042847e-01" rms="4.9709451198577881e-01" purity="1.0000000000000000e+00" nType="0">
          <Node pos="l" depth="2" NCoef="0" IVar="-1" Cut="0.0000000000000000e+00" cType="1" res="6.9624608755111694e-01" rms="4.5987766981124878e-01" purity="1.0000000000000000e+00" nType="-99"/>
          <Node pos="r" depth="2" NCoef="0" IVar="-1" Cut="0.0000000000000000e+00" cType="1" res="5.3037440776824951e-01" rms="4.9907654523849487e-01" purity="1.0000000000000000e+00" nType="-99"/>
        </Node>
        <Node pos="r" depth="1" NCoef="0" IVar="0" Cut="2.3908917605876923e-01" cType="0" res="4.2860773205757141e-01" rms="4.9487689137458801e-01" purity="1.0000000000000000e+00" nType="0">
          <Node pos="l" depth="2" NCoef="0" IVar="-1" Cut="0.0000000000000000e+00" cType="1" res="4.6261987090110779e-01" rms="4.9860078096389771e-01" purity="1.0000000000000000e+00" nType="-99"/>
          <Node pos="r" depth="2" NCoef="0" IVar="-1" Cut="0.0000000000000000e+00" cType="1" res="3.3136910200119019e-01" rms="4.7070544958114624e-01" purity="1.0000000000000000e+00" nType="-99"/>
        </Node>
      </Node>
    </BinaryTree>
    <BinaryTree type="DecisionTree" boostWeight="0.0000000000000000e+00" itree="39">
      <Node pos="s" depth="0" NCoef="0" IVar="1" Cut="4.8889294266700745e-01" cType="0" res="4.9963113665580750e-01" rms="4.9999985098838806e-01" purity="1.0000000000000000e+00" nType="0">
        <Node pos="l" depth="1" NCoef="0" IVar="0" Cut="8.5294115543365479e-01" cType="0" res="5.5382412672042847e-01" rms="4.9709451198577881e-01" purity="1.0000000000000000e+00" nType="0">
          <Node pos="l" depth="2" NCoef="0" IVar="-1" Cut="0.0000000000000000e+00" cType="1" res="6.9624608755111694e-01" rms="4.5987766981124878e-01" purity="1.0000000000000000e+00" nType="-99"/>
          <Node pos="r" depth="2" NCoef="0" IVar="-1" Cut="0.0000000000000000e+00" cType="1" res="5.3037440776824951e-01" rms="4.9907654523849487e-01" purity="1.0000000000000000e+00" nType="-99"/>
        </Node>
        <Node pos="r" depth="1" NCoef="0" IVar="0" Cut="2.3908917605876923e-01" cType="0" res="4.2860773205757141e-01" rms="4.9487689137458801e-01" purity="1.0000000000000000e+00" nType="0">
          <Node pos="l" depth="2" NCoef="0" IVar="-1" Cut="0.0000000000000000e+00" cType="1" res="4.6261987090110779e-01" rms="4.9860078096389771e-01" purity="1.0000000000000000e+00" nType="-99"/>
          <Node pos="r" depth="2" NCoef="0" IVar="-1" Cut="0.0000000000000000e+00" cType="1" res="3.3136910200119019e-01" rms="4.7070544958114624e-01" purity="1.0000000000000000e+00" nType="-99"/>
        </Node>
      </Node>
    </BinaryTree>
    <BinaryTree type="DecisionTree" boostWeight="0.0000000000000000e+00" itree="40">
      <Node pos="s" depth="0" NCoef="0" IVar="1" Cut="4.8889294266700745e-01" cType="0" res="4.9963113665580750e-01" rms="4.9999985098838806e-01" purity="1.0000000000000000e+00" nType="0">
        <Node pos="l" depth="1" NCoef="0" IVar="0" Cut="8.5294115543365479e-01" cType="0" res="5.5382412672042847e-01" rms="4.9709451198577881e-01" purity="1.0000000000000000e+00" nType="0">
          <Node pos="l" depth="2" NCoef="0" IVar="-1" Cut="0.0000000000000000e+00" cType="1" res="6.9624608755111694e-01" rms="4.5987766981124878e-01" purity="1.0000000000000000e+00" nType="-99"/>
          <Node pos="r" depth="2" NCoef="0" IVar="-1" Cut="0.0000000000000000e+00" cType="1" res="5.3037440776824951e-01" rms="4.9907654523849487e-01" purity="1.0000000000000000e+00" nType="-99"/>
        </Node>
        <Node pos="r" depth="1" NCoef="0" IVar="0" Cut="2.3908917605876923e-01" cType="0" res="4.2860773205757141e-01" rms="4.9487689137458801e-01" purity="1.0000000000000000e+00" nType="0">
          <Node pos="l" depth="2" NCoef="0" IVar="-1" Cut="0.0000000000000000e+00" cType="1" res="4.6261987090110779e-01" rms="4.9860078096389771e-01" purity="1.0000000000000000e+00" nType="-99"/>
          <Node pos="r" depth="2" NCoef="0" IVar="-1" Cut="0.0000000000000000e+00" cType="1" res="3.3136910200119019e-01" rms="4.7070544958114624e-01" purity="1.0000000000000000e+00" nType="-99"/>
        </Node>
      </Node>
    </BinaryTree>
    <BinaryTree type="DecisionTree" boostWeight="0.0000000000000000e+00" itree="41">
      <Node pos="s" depth="0" NCoef="0" IVar="1" Cut="4.8889294266700745e-01" cType="0" res="4.9963113665580750e-01" rms="4.9999985098838806e-01" purity="1.0000000000000000e+00" nType="0">
        <Node pos="l" depth="1" NCoef="0" IVar="0" Cut="8.5294115543365479e-01" cType="0" res="5.5382412672042847e-01" rms="4.9709451198577881e-01" purity="1.0000000000000000e+00" nType="0">
          <Node pos="l" depth="2" NCoef="0" IVar="-1" Cut="0.0000000000000000e+00" cType="1" res="6.9624608755111694e-01" rms="4.5987766981124878e-01" purity="1.0000000000000000e+00" nType="-99"/>
          <Node pos="r" depth="2" NCoef="0" IVar="-1" Cut="0.0000000000000000e+00" cType="1" res="5.3037440776824951e-01" rms="4.9907654523849487e-01" purity="1.0000000000000000e+00" nType="-99"/>
        </Node>
        <Node pos="r" depth="1" NCoef="0" IVar="0" Cut="2.3908917605876923e-01" cType="0" res="4.2860773205757141e-01" rms="4.9487689137458801e-01" purity="1.0000000000000000e+00" nType="0">
          <Node pos="l" depth="2" NCoef="0" IVar="-1" Cut="0.0000000000000000e+00" cType="1" res="4.6261987090110779e-01" rms="4.9860078096389771e-01" purity="1.0000000000000000e+00" nType="-99"/>
          <Node pos="r" depth="2" NCoef="0" IVar="-1" Cut="0.0000000000000000e+00" cType="1" res="3.3136910200119019e-01" rms="4.7070544958114624e-01" purity="1.0000000000000000e+00" nType="-99"/>
        </Node>
      </Node>
    </BinaryTree>
    <BinaryTree type="DecisionTree" boostWeight="0.0000000000000000e+00" itree="42">
      <Node pos="s" depth="0" NCoef="0" IVar="1" Cut="4.8889294266700745e-01" cType="0" res="4.9963113665580750e-01" rms="4.9999985098838806e-01" purity="1.0000000000000000e+00" nType="0">
        <Node pos="l" depth="1" NCoef="0" IVar="0" Cut="8.5294115543365479e-01" cType="0" res="5.5382412672042847e-01" rms="4.9709451198577881e-01" purity="1.0000000000000000e+00" nType="0">
          <Node pos="l" depth="2" NCoef="0" IVar="-1" Cut="0.0000000000000000e+00" cType="1" res="6.9624608755111694e-01" rms="4.5987766981124878e-01" purity="1.0000000000000000e+00" nType="-99"/>
          <Node pos="r" depth="2" NCoef="0" IVar="-1" Cut="0.0000000000000000e+00" cType="1" res="5.3037440776824951e-01" rms="4.9907654523849487e-01" purity="1.0000000000000000e+00" nType="-99"/>
        </Node>
        <Node pos="r" depth="1" NCoef="0" IVar="0" Cut="2.3908917605876923e-01" cType="0" res="4.2860773205757141e-01" rms="4.9487689137458801e-01" purity="1.0000000000000000e+00" nType="0">
          <Node pos="l" depth="2" NCoef="0" IVar="-1" Cut="0.0000000000000000e+00" cType="1" res="4.6261987090110779e-01" rms="4.9860078096389771e-01" purity="1.0000000000000000e+00" nType="-99"/>
          <Node pos="r" depth="2" NCoef="0" IVar="-1" Cut="0.0000000000000000e+00" cType="1" res="3.3136910200119019e-01" rms="4.7070544958114624e-01" purity="1.0000000000000000e+00" nType="-99"/>
        </Node>
      </Node>
    </BinaryTree>
    <BinaryTree type="DecisionTree" boostWeight="0.0000000000000000e+00" itree="43">
      <Node pos="s" depth="0" NCoef="0" IVar="1" Cut="4.8889294266700745e-01" cType="0" res="4.9963113665580750e-01" rms="4.9999985098838806e-01" purity="1.0000000000000000e+00" nType="0">
        <Node pos="l" depth="1" NCoef="0" IVar="0" Cut="8.5294115543365479e-01" cType="0" res="5.5382412672042847e-01" rms="4.9709451198577881e-01" purity="1.0000000000000000e+00" nType="0">
          <Node pos="l" depth="2" NCoef="0" IVar="-1" Cut="0.0000000000000000e+00" cType="1" res="6.9624608755111694e-01" rms="4.5987766981124878e-01" purity="1.0000000000000000e+00" nType="-99"/>
          <Node pos="r" depth="2" NCoef="0" IVar="-1" Cut="0.0000000000000000e+00" cType="1" res="5.3037440776824951e-01" rms="4.9907654523849487e-01" purity="1.0000000000000000e+00" nType="-99"/>
        </Node>
        <Node pos="r" depth="1" NCoef="0" IVar="0" Cut="2.3908917605876923e-01" cType="0" res="4.2860773205757141e-01" rms="4.9487689137458801e-01" purity="1.0000000000000000e+00" nType="0">
          <Node pos="l" depth="2" NCoef="0" IVar="-1" Cut="0.0000000000000000e+00" cType="1" res="4.6261987090110779e-01" rms="4.9860078096389771e-01" purity="1.0000000000000000e+00" nType="-99"/>
          <Node pos="r" depth="2" NCoef="0" IVar="-1" Cut="0.0000000000000000e+00" cType="1" res="3.3136910200119019e-01" rms="4.7070544958114624e-01" purity="1.0000000000000000e+00" nType="-99"/>
        </Node>
      </Node>
    </BinaryTree>
    <BinaryTree type="DecisionTree" boostWeight="0.0000000000000000e+00" itree="44">
      <Node pos="s" depth="0" NCoef="0" IVar="1" Cut="4.8889294266700745e-01" cType="0" res="4.9963113665580750e-01" rms="4.9999985098838806e-01" purity="1.0000000000000000e+00" nType="0">
        <Node pos="l" depth="1" NCoef="0" IVar="0" Cut="8.5294115543365479e-01" cType="0" res="5.5382412672042847e-01" rms="4.9709451198577881e-01" purity="1.0000000000000000e+00" nType="0">
          <Node pos="l" depth="2" NCoef="0" IVar="-1" Cut="0.0000000000000000e+00" cType="1" res="6.9624608755111694e-01" rms="4.5987766981124878e-01" purity="1.0000000000000000e+00" nType="-99"/>
          <Node pos="r" depth="2" NCoef="0" IVar="-1" Cut="0.0000000000000000e+00" cType="1" res="5.3037440776824951e-01" rms="4.9907654523849487e-01" purity="1.0000000000000000e+00" nType="-99"/>
        </Node>
        <Node pos="r" depth="1" NCoef="0" IVar="0" Cut="2.3908917605876923e-01" cType="0" res="4.2860773205757141e-01" rms="4.9487689137458801e-01" purity="1.0000000000000000e+00" nType="0">
          <Node pos="l" depth="2" NCoef="0" IVar="-1" Cut="0.0000000000000000e+00" cType="1" res="4.6261987090110779e-01" rms="4.9860078096389771e-01" purity="1.0000000000000000e+00" nType="-99"/>
          <Node pos="r" depth="2" NCoef="0" IVar="-1" Cut="0.0000000000000000e+00" cType="1" res="3.3136910200119019e-01" rms="4.7070544958114624e-01" purity="1.0000000000000000e+00" nType="-99"/>
        </Node>
      </Node>
    </BinaryTree>
    <BinaryTree type="DecisionTree" boostWeight="0.0000000000000000e+00" itree="45">
      <Node pos="s" depth="0" NCoef="0" IVar="1" Cut="4.8889294266700745e-01" cType="0" res="4.9963113665580750e-01" rms="4.9999985098838806e-01" purity="1.0000000000000000e+00" nType="0">
        <Node pos="l" depth="1" NCoef="0" IVar="0" Cut="8.5294115543365479e-01" cType="0" res="5.5382412672042847e-01" rms="4.9709451198577881e-01" purity="1.0000000000000000e+00" nType="0">
          <Node pos="l" depth="2" NCoef="0" IVar="-1" Cut="0.0000000000000000e+00" cType="1" res="6.9624608755111694e-01" rms="4.5987766981124878e-01" purity="1.0000000000000000e+00" nType="-99"/>
          <Node pos="r" depth="2" NCoef="0" IVar="-1" Cut="0.0000000000000000e+00" cType="1" res="5.3037440776824951e-01" rms="4.9907654523849487e-01" purity="1.0000000000000000e+00" nType="-99"/>
        </Node>
        <Node pos="r" depth="1" NCoef="0" IVar="0" Cut="2.3908917605876923e-01" cType="0" res="4.2860773205757141e-01" rms="4.9487689137458801e-01" purity="1.0000000000000000e+00" nType="0">
          <Node pos="l" depth="2" NCoef="0" IVar="-1" Cut="0.0000000000000000e+00" cType="1" res="4.6261987090110779e-01" rms="4.9860078096389771e-01" purity="1.0000000000000000e+00" nType="-99"/>
          <Node pos="r" depth="2" NCoef="0" IVar="-1" Cut="0.0000000000000000e+00" cType="1" res="3.3136910200119019e-01" rms="4.7070544958114624e-01" purity="1.0000000000000000e+00" nType="-99"/>
        </Node>
      </Node>
    </BinaryTree>
    <BinaryTree type="DecisionTree" boostWeight="0.0000000000000000e+00" itree="46">
      <Node pos="s" depth="0" NCoef="0" IVar="1" Cut="4.8889294266700745e-01" cType="0" res="4.9963113665580750e-01" rms="4.9999985098838806e-01" purity="1.0000000000000000e+00" nType="0">
        <Node pos="l" depth="1" NCoef="0" IVar="0" Cut="8.5294115543365479e-01" cType="0" res="5.5382412672042847e-01" rms="4.9709451198577881e-01" purity="1.0000000000000000e+00" nType="0">
          <Node pos="l" depth="2" NCoef="0" IVar="-1" Cut="0.0000000000000000e+00" cType="1" res="6.9624608755111694e-01" rms="4.5987766981124878e-01" purity="1.0000000000000000e+00" nType="-99"/>
          <Node pos="r" depth="2" NCoef="0" IVar="-1" Cut="0.0000000000000000e+00" cType="1" res="5.3037440776824951e-01" rms="4.9907654523849487e-01" purity="1.0000000000000000e+00" nType="-99"/>
        </Node>
        <Node pos="r" depth="1" NCoef="0" IVar="0" Cut="2.3908917605876923e-01" cType="0" res="4.2860773205757141e-01" rms="4.9487689137458801e-01" purity="1.0000000000000000e+00" nType="0">
          <Node pos="l" depth="2" NCoef="0" IVar="-1" Cut="0.0000000000000000e+00" cType="1" res="4.6261987090110779e-01" rms="4.9860078096389771e-01" purity="1.0000000000000000e+00" nType="-99"/>
          <Node pos="r" depth="2" NCoef="0" IVar="-1" Cut="0.0000000000000000e+00" cType="1" res="3.3136910200119019e-01" rms="4.7070544958114624e-01" purity="1.0000000000000000e+00" nType="-99"/>
        </Node>
      </Node>
    </BinaryTree>
    <BinaryTree type="DecisionTree" boostWeight="0.0000000000000000e+00" itree="47">
      <Node pos="s" depth="0" NCoef="0" IVar="1" Cut="4.8889294266700745e-01" cType="0" res="4.9963113665580750e-01" rms="4.9999985098838806e-01" purity="1.0000000000000000e+00" nType="0">
        <Node pos="l" depth="1" NCoef="0" IVar="0" Cut="8.5294115543365479e-01" cType="0" res="5.5382412672042847e-01" rms="4.9709451198577881e-01" purity="1.0000000000000000e+00" nType="0">
          <Node pos="l" depth="2" NCoef="0" IVar="-1" Cut="0.0000000000000000e+00" cType="1" res="6.9624608755111694e-01" rms="4.5987766981124878e-01" purity="1.0000000000000000e+00" nType="-99"/>
          <Node pos="r" depth="2" NCoef="0" IVar="-1" Cut="0.0000000000000000e+00" cType="1" res="5.3037440776824951e-01" rms="4.9907654523849487e-01" purity="1.0000000000000000e+00" nType="-99"/>
        </Node>
        <Node pos="r" depth="1" NCoef="0" IVar="0" Cut="2.3908917605876923e-01" cType="0" res="4.2860773205757141e-01" rms="4.9487689137458801e-01" purity="1.0000000000000000e+00" nType="0">
          <Node pos="l" depth="2" NCoef="0" IVar="-1" Cut="0.0000000000000000e+00" cType="1" res="4.6261987090110779e-01" rms="4.9860078096389771e-01" purity="1.0000000000000000e+00" nType="-99"/>
          <Node pos="r" depth="2" NCoef="0" IVar="-1" Cut="0.0000000000000000e+00" cType="1" res="3.3136910200119019e-01" rms="4.7070544958114624e-01" purity="1.0000000000000000e+00" nType="-99"/>
        </Node>
      </Node>
    </BinaryTree>
    <BinaryTree type="DecisionTree" boostWeight="0.0000000000000000e+00" itree="48">
      <Node pos="s" depth="0" NCoef="0" IVar="1" Cut="4.8889294266700745e-01" cType="0" res="4.9963113665580750e-01" rms="4.9999985098838806e-01" purity="1.0000000000000000e+00" nType="0">
        <Node pos="l" depth="1" NCoef="0" IVar="0" Cut="8.5294115543365479e-01" cType="0" res="5.5382412672042847e-01" rms="4.9709451198577881e-01" purity="1.0000000000000000e+00" nType="0">
          <Node pos="l" depth="2" NCoef="0" IVar="-1" Cut="0.0000000000000000e+00" cType="1" res="6.9624608755111694e-01" rms="4.5987766981124878e-01" purity="1.0000000000000000e+00" nType="-99"/>
          <Node pos="r" depth="2" NCoef="0" IVar="-1" Cut="0.0000000000000000e+00" cType="1" res="5.3037440776824951e-01" rms="4.9907654523849487e-01" purity="1.0000000000000000e+00" nType="-99"/>
        </Node>
        <Node pos="r" depth="1" NCoef="0" IVar="0" Cut="2.3908917605876923e-01" cType="0" res="4.2860773205757141e-01" rms="4.9487689137458801e-01" purity="1.0000000000000000e+00" nType="0">
          <Node pos="l" depth="2" NCoef="0" IVar="-1" Cut="0.0000000000000000e+00" cType="1" res="4.6261987090110779e-01" rms="4.9860078096389771e-01" purity="1.0000000000000000e+00" nType="-99"/>
          <Node pos="r" depth="2" NCoef="0" IVar="-1" Cut="0.0000000000000000e+00" cType="1" res="3.3136910200119019e-01" rms="4.7070544958114624e-01" purity="1.0000000000000000e+00" nType="-99"/>
        </Node>
      </Node>
    </BinaryTree>
    <BinaryTree type="DecisionTree" boostWeight="0.0000000000000000e+00" itree="49">
      <Node pos="s" depth="0" NCoef="0" IVar="1" Cut="4.8889294266700745e-01" cType="0" res="4.9963113665580750e-01" rms="4.9999985098838806e-01" purity="1.0000000000000000e+00" nType="0">
        <Node pos="l" depth="1" NCoef="0" IVar="0" Cut="8.5294115543365479e-01" cType="0" res="5.5382412672042847e-01" rms="4.9709451198577881e-01" purity="1.0000000000000000e+00" nType="0">
          <Node pos="l" depth="2" NCoef="0" IVar="-1" Cut="0.0000000000000000e+00" cType="1" res="6.9624608755111694e-01" rms="4.5987766981124878e-01" purity="1.0000000000000000e+00" nType="-99"/>
          <Node pos="r" depth="2" NCoef="0" IVar="-1" Cut="0.0000000000000000e+00" cType="1" res="5.3037440776824951e-01" rms="4.9907654523849487e-01" purity="1.0000000000000000e+00" nType="-99"/>
        </Node>
        <Node pos="r" depth="1" NCoef="0" IVar="0" Cut="2.3908917605876923e-01" cType="0" res="4.2860773205757141e-01" rms="4.9487689137458801e-01" purity="1.0000000000000000e+00" nType="0">
          <Node pos="l" depth="2" NCoef="0" IVar="-1" Cut="0.0000000000000000e+00" cType="1" res="4.6261987090110779e-01" rms="4.9860078096389771e-01" purity="1.0000000000000000e+00" nType="-99"/>
          <Node pos="r" depth="2" NCoef="0" IVar="-1" Cut="0.0000000000000000e+00" cType="1" res="3.3136910200119019e-01" rms="4.7070544958114624e-01" purity="1.0000000000000000e+00" nType="-99"/>
        </Node>
      </Node>
    </BinaryTree>
    <BinaryTree type="DecisionTree" boostWeight="0.0000000000000000e+00" itree="50">
      <Node pos="s" depth="0" NCoef="0" IVar="1" Cut="4.8889294266700745e-01" cType="0" res="4.9963113665580750e-01" rms="4.9999985098838806e-01" purity="1.0000000000000000e+00" nType="0">
        <Node pos="l" depth="1" NCoef="0" IVar="0" Cut="8.5294115543365479e-01" cType="0" res="5.5382412672042847e-01" rms="4.9709451198577881e-01" purity="1.0000000000000000e+00" nType="0">
          <Node pos="l" depth="2" NCoef="0" IVar="-1" Cut="0.0000000000000000e+00" cType="1" res="6.9624608755111694e-01" rms="4.5987766981124878e-01" purity="1.0000000000000000e+00" nType="-99"/>
          <Node pos="r" depth="2" NCoef="0" IVar="-1" Cut="0.0000000000000000e+00" cType="1" res="5.3037440776824951e-01" rms="4.9907654523849487e-01" purity="1.0000000000000000e+00" nType="-99"/>
        </Node>
        <Node pos="r" depth="1" NCoef="0" IVar="0" Cut="2.3908917605876923e-01" cType="0" res="4.2860773205757141e-01" rms="4.9487689137458801e-01" purity="1.0000000000000000e+00" nType="0">
          <Node pos="l" depth="2" NCoef="0" IVar="-1" Cut="0.0000000000000000e+00" cType="1" res="4.6261987090110779e-01" rms="4.9860078096389771e-01" purity="1.0000000000000000e+00" nType="-99"/>
          <Node pos="r" depth="2" NCoef="0" IVar="-1" Cut="0.0000000000000000e+00" cType="1" res="3.3136910200119019e-01" rms="4.7070544958114624e-01" purity="1.0000000000000000e+00" nType="-99"/>
        </Node>
      </Node>
    </BinaryTree>
    <BinaryTree type="DecisionTree" boostWeight="0.0000000000000000e+00" itree="51">
      <Node pos="s" depth="0" NCoef="0" IVar="1" Cut="4.8889294266700745e-01" cType="0" res="4.9963113665580750e-01" rms="4.9999985098838806e-01" purity="1.0000000000000000e+00" nType="0">
        <Node pos="l" depth="1" NCoef="0" IVar="0" Cut="8.5294115543365479e-01" cType="0" res="5.5382412672042847e-01" rms="4.9709451198577881e-01" purity="1.0000000000000000e+00" nType="0">
          <Node pos="l" depth="2" NCoef="0" IVar="-1" Cut="0.0000000000000000e+00" cType="1" res="6.9624608755111694e-01" rms="4.5987766981124878e-01" purity="1.0000000000000000e+00" nType="-99"/>
          <Node pos="r" depth="2" NCoef="0" IVar="-1" Cut="0.0000000000000000e+00" cType="1" res="5.3037440776824951e-01" rms="4.9907654523849487e-01" purity="1.0000000000000000e+00" nType="-99"/>
        </Node>
        <Node pos="r" depth="1" NCoef="0" IVar="0" Cut="2.3908917605876923e-01" cType="0" res="4.2860773205757141e-01" rms="4.9487689137458801e-01" purity="1.0000000000000000e+00" nType="0">
          <Node pos="l" depth="2" NCoef="0" IVar="-1" Cut="0.0000000000000000e+00" cType="1" res="4.6261987090110779e-01" rms="4.9860078096389771e-01" purity="1.0000000000000000e+00" nType="-99"/>
          <Node pos="r" depth="2" NCoef="0" IVar="-1" Cut="0.0000000000000000e+00" cType="1" res="3.3136910200119019e-01" rms="4.7070544958114624e-01" purity="1.0000000000000000e+00" nType="-99"/>
        </Node>
      </Node>
    </BinaryTree>
    <BinaryTree type="DecisionTree" boostWeight="0.0000000000000000e+00" itree="52">
      <Node pos="s" depth="0" NCoef="0" IVar="1" Cut="4.8889294266700745e-01" cType="0" res="4.9963113665580750e-01" rms="4.9999985098838806e-01" purity="1.0000000000000000e+00" nType="0">
        <Node pos="l" depth="1" NCoef="0" IVar="0" Cut="8.5294115543365479e-01" cType="0" res="5.5382412672042847e-01" rms="4.9709451198577881e-01" purity="1.0000000000000000e+00" nType="0">
          <Node pos="l" depth="2" NCoef="0" IVar="-1" Cut="0.0000000000000000e+00" cType="1" res="6.9624608755111694e-01" rms="4.5987766981124878e-01" purity="1.0000000000000000e+00" nType="-99"/>
          <Node pos="r" depth="2" NCoef="0" IVar="-1" Cut="0.0000000000000000e+00" cType="1" res="5.3037440776824951e-01" rms="4.9907654523849487e-01" purity="1.0000000000000000e+00" nType="-99"/>
        </Node>
        <Node pos="r" depth="1" NCoef="0" IVar="0" Cut="2.3908917605876923e-01" cType="0" res="4.2860773205757141e-01" rms="4.9487689137458801e-01" purity="1.0000000000000000e+00" nType="0">
          <Node pos="l" depth="2" NCoef="0" IVar="-1" Cut="0.0000000000000000e+00" cType="1" res="4.6261987090110779e-01" rms="4.9860078096389771e-01" purity="1.0000000000000000e+00" nType="-99"/>
          <Node pos="r" depth="2" NCoef="0" IVar="-1" Cut="0.0000000000000000e+00" cType="1" res="3.3136910200119019e-01" rms="4.7070544958114624e-01" purity="1.0000000000000000e+00" nType="-99"/>
        </Node>
      </Node>
    </BinaryTree>
    <BinaryTree type="DecisionTree" boostWeight="0.0000000000000000e+00" itree="53">
      <Node pos="s" depth="0" NCoef="0" IVar="1" Cut="4.8889294266700745e-01" cType="0" res="4.9963113665580750e-01" rms="4.9999985098838806e-01" purity="1.0000000000000000e+00" nType="0">
        <Node pos="l" depth="1" NCoef="0" IVar="0" Cut="8.5294115543365479e-01" cType="0" res="5.5382412672042847e-01" rms="4.9709451198577881e-01" purity="1.0000000000000000e+00" nType="0">
          <Node pos="l" depth="2" NCoef="0" IVar="-1" Cut="0.0000000000000000e+00" cType="1" res="6.9624608755111694e-01" rms="4.5987766981124878e-01" purity="1.0000000000000000e+00" nType="-99"/>
          <Node pos="r" depth="2" NCoef="0" IVar="-1" Cut="0.0000000000000000e+00" cType="1" res="5.3037440776824951e-01" rms="4.9907654523849487e-01" purity="1.0000000000000000e+00" nType="-99"/>
        </Node>
        <Node pos="r" depth="1" NCoef="0" IVar="0" Cut="2.3908917605876923e-01" cType="0" res="4.2860773205757141e-01" rms="4.9487689137458801e-01" purity="1.0000000000000000e+00" nType="0">
          <Node pos="l" depth="2" NCoef="0" IVar="-1" Cut="0.0000000000000000e+00" cType="1" res="4.6261987090110779e-01" rms="4.9860078096389771e-01" purity="1.0000000000000000e+00" nType="-99"/>
          <Node pos="r" depth="2" NCoef="0" IVar="-1" Cut="0.0000000000000000e+00" cType="1" res="3.3136910200119019e-01" rms="4.7070544958114624e-01" purity="1.0000000000000000e+00" nType="-99"/>
        </Node>
      </Node>
    </BinaryTree>
    <BinaryTree type="DecisionTree" boostWeight="0.0000000000000000e+00" itree="54">
      <Node pos="s" depth="0" NCoef="0" IVar="1" Cut="4.8889294266700745e-01" cType="0" res="4.9963113665580750e-01" rms="4.9999985098838806e-01" purity="1.0000000000000000e+00" nType="0">
        <Node pos="l" depth="1" NCoef="0" IVar="0" Cut="8.5294115543365479e-01" cType="0" res="5.5382412672042847e-01" rms="4.9709451198577881e-01" purity="1.0000000000000000e+00" nType="0">
          <Node pos="l" depth="2" NCoef="0" IVar="-1" Cut="0.0000000000000000e+00" cType="1" res="6.9624608755111694e-01" rms="4.5987766981124878e-01" purity="1.0000000000000000e+00" nType="-99"/>
          <Node pos="r" depth="2" NCoef="0" IVar="-1" Cut="0.0000000000000000e+00" cType="1" res="5.3037440776824951e-01" rms="4.9907654523849487e-01" purity="1.0000000000000000e+00" nType="-99"/>
        </Node>
        <Node pos="r" depth="1" NCoef="0" IVar="0" Cut="2.3908917605876923e-01" cType="0" res="4.2860773205757141e-01" rms="4.9487689137458801e-01" purity="1.0000000000000000e+00" nType="0">
          <Node pos="l" depth="2" NCoef="0" IVar="-1" Cut="0.0000000000000000e+00" cType="1" res="4.6261987090110779e-01" rms="4.9860078096389771e-01" purity="1.0000000000000000e+00" nType="-99"/>
          <Node pos="r" depth="2" NCoef="0" IVar="-1" Cut="0.0000000000000000e+00" cType="1" res="3.3136910200119019e-01" rms="4.7070544958114624e-01" purity="1.0000000000000000e+00" nType="-99"/>
        </Node>
      </Node>
    </BinaryTree>
    <BinaryTree type="DecisionTree" boostWeight="0.0000000000000000e+00" itree="55">
      <Node pos="s" depth="0" NCoef="0" IVar="1" Cut="4.8889294266700745e-01" cType="0" res="4.9963113665580750e-01" rms="4.9999985098838806e-01" purity="1.0000000000000000e+00" nType="0">
        <Node pos="l" depth="1" NCoef="0" IVar="0" Cut="8.5294115543365479e-01" cType="0" res="5.5382412672042847e-01" rms="4.9709451198577881e-01" purity="1.0000000000000000e+00" nType="0">
          <Node pos="l" depth="2" NCoef="0" IVar="-1" Cut="0.0000000000000000e+00" cType="1" res="6.9624608755111694e-01" rms="4.5987766981124878e-01" purity="1.0000000000000000e+00" nType="-99"/>
          <Node pos="r" depth="2" NCoef="0" IVar="-1" Cut="0.0000000000000000e+00" cType="1" res="5.3037440776824951e-01" rms="4.9907654523849487e-01" purity="1.0000000000000000e+00" nType="-99"/>
        </Node>
        <Node pos="r" depth="1" NCoef="0" IVar="0" Cut="2.3908917605876923e-01" cType="0" res="4.2860773205757141e-01" rms="4.9487689137458801e-01" purity="1.0000000000000000e+00" nType="0">
          <Node pos="l" depth="2" NCoef="0" IVar="-1" Cut="0.0000000000000000e+00" cType="1" res="4.6261987090110779e-01" rms="4.9860078096389771e-01" purity="1.0000000000000000e+00" nType="-99"/>
          <Node pos="r" depth="2" NCoef="0" IVar="-1" Cut="0.0000000000000000e+00" cType="1" res="3.3136910200119019e-01" rms="4.7070544958114624e-01" purity="1.0000000000000000e+00" nType="-99"/>
        </Node>
      </Node>
    </BinaryTree>
    <BinaryTree type="DecisionTree" boostWeight="0.0000000000000000e+00" itree="56">
      <Node pos="s" depth="0" NCoef="0" IVar="1" Cut="4.8889294266700745e-01" cType="0" res="4.9963113665580750e-01" rms="4.9999985098838806e-01" purity="1.0000000000000000e+00" nType="0">
        <Node pos="l" depth="1" NCoef="0" IVar="0" Cut="8.5294115543365479e-01" cType="0" res="5.5382412672042847e-01" rms="4.9709451198577881e-01" purity="1.0000000000000000e+00" nType="0">
          <Node pos="l" depth="2" NCoef="0" IVar="-1" Cut="0.0000000000000000e+00" cType="1" res="6.9624608755111694e-01" rms="4.5987766981124878e-01" purity="1.0000000000000000e+00" nType="-99"/>
          <Node pos="r" depth="2" NCoef="0" IVar="-1" Cut="0.0000000000000000e+00" cType="1" res="5.3037440776824951e-01" rms="4.9907654523849487e-01" purity="1.0000000000000000e+00" nType="-99"/>
        </Node>
        <Node pos="r" depth="1" NCoef="0" IVar="0" Cut="2.3908917605876923e-01" cType="0" res="4.2860773205757141e-01" rms="4.9487689137458801e-01" purity="1.0000000000000000e+00" nType="0">
          <Node pos="l" depth="2" NCoef="0" IVar="-1" Cut="0.0000000000000000e+00" cType="1" res="4.6261987090110779e-01" rms="4.9860078096389771e-01" purity="1.0000000000000000e+00" nType="-99"/>
          <Node pos="r" depth="2" NCoef="0" IVar="-1" Cut="0.0000000000000000e+00" cType="1" res="3.3136910200119019e-01" rms="4.7070544958114624e-01" purity="1.0000000000000000e+00" nType="-99"/>
        </Node>
      </Node>
    </BinaryTree>
    <BinaryTree type="DecisionTree" boostWeight="0.0000000000000000e+00" itree="57">
      <Node pos="s" depth="0" NCoef="0" IVar="1" Cut="4.8889294266700745e-01" cType="0" res="4.9963113665580750e-01" rms="4.9999985098838806e-01" purity="1.0000000000000000e+00" nType="0">
        <Node pos="l" depth="1" NCoef="0" IVar="0" Cut="8.5294115543365479e-01" cType="0" res="5.5382412672042847e-01" rms="4.9709451198577881e-01" purity="1.0000000000000000e+00" nType="0">
          <Node pos="l" depth="2" NCoef="0" IVar="-1" Cut="0.0000000000000000e+00" cType="1" res="6.9624608755111694e-01" rms="4.5987766981124878e-01" purity="1.0000000000000000e+00" nType="-99"/>
          <Node pos="r" depth="2" NCoef="0" IVar="-1" Cut="0.0000000000000000e+00" cType="1" res="5.3037440776824951e-01" rms="4.9907654523849487e-01" purity="1.0000000000000000e+00" nType="-99"/>
        </Node>
        <Node pos="r" depth="1" NCoef="0" IVar="0" Cut="2.3908917605876923e-01" cType="0" res="4.2860773205757141e-01" rms="4.9487689137458801e-01" purity="1.0000000000000000e+00" nType="0">
          <Node pos="l" depth="2" NCoef="0" IVar="-1" Cut="0.0000000000000000e+00" cType="1" res="4.6261987090110779e-01" rms="4.9860078096389771e-01" purity="1.0000000000000000e+00" nType="-99"/>
          <Node pos="r" depth="2" NCoef="0" IVar="-1" Cut="0.0000000000000000e+00" cType="1" res="3.3136910200119019e-01" rms="4.7070544958114624e-01" purity="1.0000000000000000e+00" nType="-99"/>
        </Node>
      </Node>
    </BinaryTree>
    <BinaryTree type="DecisionTree" boostWeight="0.0000000000000000e+00" itree="58">
      <Node pos="s" depth="0" NCoef="0" IVar="1" Cut="4.8889294266700745e-01" cType="0" res="4.9963113665580750e-01" rms="4.9999985098838806e-01" purity="1.0000000000000000e+00" nType="0">
        <Node pos="l" depth="1" NCoef="0" IVar="0" Cut="8.5294115543365479e-01" cType="0" res="5.5382412672042847e-01" rms="4.9709451198577881e-01" purity="1.0000000000000000e+00" nType="0">
          <Node pos="l" depth="2" NCoef="0" IVar="-1" Cut="0.0000000000000000e+00" cType="1" res="6.9624608755111694e-01" rms="4.5987766981124878e-01" purity="1.0000000000000000e+00" nType="-99"/>
          <Node pos="r" depth="2" NCoef="0" IVar="-1" Cut="0.0000000000000000e+00" cType="1" res="5.3037440776824951e-01" rms="4.9907654523849487e-01" purity="1.0000000000000000e+00" nType="-99"/>
        </Node>
        <Node pos="r" depth="1" NCoef="0" IVar="0" Cut="2.3908917605876923e-01" cType="0" res="4.2860773205757141e-01" rms="4.9487689137458801e-01" purity="1.0000000000000000e+00" nType="0">
          <Node pos="l" depth="2" NCoef="0" IVar="-1" Cut="0.0000000000000000e+00" cType="1" res="4.6261987090110779e-01" rms="4.9860078096389771e-01" purity="1.0000000000000000e+00" nType="-99"/>
          <Node pos="r" depth="2" NCoef="0" IVar="-1" Cut="0.0000000000000000e+00" cType="1" res="3.3136910200119019e-01" rms="4.7070544958114624e-01" purity="1.0000000000000000e+00" nType="-99"/>
        </Node>
      </Node>
    </BinaryTree>
    <BinaryTree type="DecisionTree" boostWeight="0.0000000000000000e+00" itree="59">
      <Node pos="s" depth="0" NCoef="0" IVar="1" Cut="4.8889294266700745e-01" cType="0" res="4.9963113665580750e-01" rms="4.9999985098838806e-01" purity="1.0000000000000000e+00" nType="0">
        <Node pos="l" depth="1" NCoef="0" IVar="0" Cut="8.5294115543365479e-01" cType="0" res="5.5382412672042847e-01" rms="4.9709451198577881e-01" purity="1.0000000000000000e+00" nType="0">
          <Node pos="l" depth="2" NCoef="0" IVar="-1" Cut="0.0000000000000000e+00" cType="1" res="6.9624608755111694e-01" rms="4.5987766981124878e-01" purity="1.0000000000000000e+00" nType="-99"/>
          <Node pos="r" depth="2" NCoef="0" IVar="-1" Cut="0.0000000000000000e+00" cType="1" res="5.3037440776824951e-01" rms="4.9907654523849487e-01" purity="1.0000000000000000e+00" nType="-99"/>
        </Node>
        <Node pos="r" depth="1" NCoef="0" IVar="0" Cut="2.3908917605876923e-01" cType="0" res="4.2860773205757141e-01" rms="4.9487689137458801e-01" purity="1.0000000000000000e+00" nType="0">
          <Node pos="l" depth="2" NCoef="0" IVar="-1" Cut="0.0000000000000000e+00" cType="1" res="4.6261987090110779e-01" rms="4.9860078096389771e-01" purity="1.0000000000000000e+00" nType="-99"/>
          <Node pos="r" depth="2" NCoef="0" IVar="-1" Cut="0.0000000000000000e+00" cType="1" res="3.3136910200119019e-01" rms="4.7070544958114624e-01" purity="1.0000000000000000e+00" nType="-99"/>
        </Node>
      </Node>
    </BinaryTree>
    <BinaryTree type="DecisionTree" boostWeight="0.0000000000000000e+00" itree="60">
      <Node pos="s" depth="0" NCoef="0" IVar="1" Cut="4.8889294266700745e-01" cType="0" res="4.9963113665580750e-01" rms="4.9999985098838806e-01" purity="1.0000000000000000e+00" nType="0">
        <Node pos="l" depth="1" NCoef="0" IVar="0" Cut="8.5294115543365479e-01" cType="0" res="5.5382412672042847e-01" rms="4.9709451198577881e-01" purity="1.0000000000000000e+00" nType="0">
          <Node pos="l" depth="2" NCoef="0" IVar="-1" Cut="0.0000000000000000e+00" cType="1" res="6.9624608755111694e-01" rms="4.5987766981124878e-01" purity="1.0000000000000000e+00" nType="-99"/>
          <Node pos="r" depth="2" NCoef="0" IVar="-1" Cut="0.0000000000000000e+00" cType="1" res="5.3037440776824951e-01" rms="4.9907654523849487e-01" purity="1.0000000000000000e+00" nType="-99"/>
        </Node>
        <Node pos="r" depth="1" NCoef="0" IVar="0" Cut="2.3908917605876923e-01" cType="0" res="4.2860773205757141e-01" rms="4.9487689137458801e-01" purity="1.0000000000000000e+00" nType="0">
          <Node pos="l" depth="2" NCoef="0" IVar="-1" Cut="0.0000000000000000e+00" cType="1" res="4.6261987090110779e-01" rms="4.9860078096389771e-01" purity="1.0000000000000000e+00" nType="-99"/>
          <Node pos="r" depth="2" NCoef="0" IVar="-1" Cut="0.0000000000000000e+00" cType="1" res="3.3136910200119019e-01" rms="4.7070544958114624e-01" purity="1.0000000000000000e+00" nType="-99"/>
        </Node>
      </Node>
    </BinaryTree>
    <BinaryTree type="DecisionTree" boostWeight="0.0000000000000000e+00" itree="61">
      <Node pos="s" depth="0" NCoef="0" IVar="1" Cut="4.8889294266700745e-01" cType="0" res="4.9963113665580750e-01" rms="4.9999985098838806e-01" purity="1.0000000000000000e+00" nType="0">
        <Node pos="l" depth="1" NCoef="0" IVar="0" Cut="8.5294115543365479e-01" cType="0" res="5.5382412672042847e-01" rms="4.9709451198577881e-01" purity="1.0000000000000000e+00" nType="0">
          <Node pos="l" depth="2" NCoef="0" IVar="-1" Cut="0.0000000000000000e+00" cType="1" res="6.9624608755111694e-01" rms="4.5987766981124878e-01" purity="1.0000000000000000e+00" nType="-99"/>
          <Node pos="r" depth="2" NCoef="0" IVar="-1" Cut="0.0000000000000000e+00" cType="1" res="5.3037440776824951e-01" rms="4.9907654523849487e-01" purity="1.0000000000000000e+00" nType="-99"/>
        </Node>
        <Node pos="r" depth="1" NCoef="0" IVar="0" Cut="2.3908917605876923e-01" cType="0" res="4.2860773205757141e-01" rms="4.9487689137458801e-01" purity="1.0000000000000000e+00" nType="0">
          <Node pos="l" depth="2" NCoef="0" IVar="-1" Cut="0.0000000000000000e+00" cType="1" res="4.6261987090110779e-01" rms="4.9860078096389771e-01" purity="1.0000000000000000e+00" nType="-99"/>
          <Node pos="r" depth="2" NCoef="0" IVar="-1" Cut="0.0000000000000000e+00" cType="1" res="3.3136910200119019e-01" rms="4.7070544958114624e-01" purity="1.0000000000000000e+00" nType="-99"/>
        </Node>
      </Node>
    </BinaryTree>
    <BinaryTree type="DecisionTree" boostWeight="0.0000000000000000e+00" itree="62">
      <Node pos="s" depth="0" NCoef="0" IVar="1" Cut="4.8889294266700745e-01" cType="0" res="4.9963113665580750e-01" rms="4.9999985098838806e-01" purity="1.0000000000000000e+00" nType="0">
        <Node pos="l" depth="1" NCoef="0" IVar="0" Cut="8.5294115543365479e-01" cType="0" res="5.5382412672042847e-01" rms="4.9709451198577881e-01" purity="1.0000000000000000e+00" nType="0">
          <Node pos="l" depth="2" NCoef="0" IVar="-1" Cut="0.0000000000000000e+00" cType="1" res="6.9624608755111694e-01" rms="4.5987766981124878e-01" purity="1.0000000000000000e+00" nType="-99"/>
          <Node pos="r" depth="2" NCoef="0" IVar="-1" Cut="0.0000000000000000e+00" cType="1" res="5.3037440776824951e-01" rms="4.9907654523849487e-01" purity="1.0000000000000000e+00" nType="-99"/>
        </Node>
        <Node pos="r" depth="1" NCoef="0" IVar="0" Cut="2.3908917605876923e-01" cType="0" res="4.2860773205757141e-01" rms="4.9487689137458801e-01" purity="1.0000000000000000e+00" nType="0">
          <Node pos="l" depth="2" NCoef="0" IVar="-1" Cut="0.0000000000000000e+00" cType="1" res="4.6261987090110779e-01" rms="4.9860078096389771e-01" purity="1.0000000000000000e+00" nType="-99"/>
          <Node pos="r" depth="2" NCoef="0" IVar="-1" Cut="0.0000000000000000e+00" cType="1" res="3.3136910200119019e-01" rms="4.7070544958114624e-01" purity="1.0000000000000000e+00" nType="-99"/>
        </Node>
      </Node>
    </BinaryTree>
    <BinaryTree type="DecisionTree" boostWeight="0.0000000000000000e+00" itree="63">
      <Node pos="s" depth="0" NCoef="0" IVar="1" Cut="4.8889294266700745e-01" cType="0" res="4.9963113665580750e-01" rms="4.9999985098838806e-01" purity="1.0000000000000000e+00" nType="0">
        <Node pos="l" depth="1" NCoef="0" IVar="0" Cut="8.5294115543365479e-01" cType="0" res="5.5382412672042847e-01" rms="4.9709451198577881e-01" purity="1.0000000000000000e+00" nType="0">
          <Node pos="l" depth="2" NCoef="0" IVar="-1" Cut="0.0000000000000000e+00" cType="1" res="6.9624608755111694e-01" rms="4.5987766981124878e-01" purity="1.0000000000000000e+00" nType="-99"/>
          <Node pos="r" depth="2" NCoef="0" IVar="-1" Cut="0.0000000000000000e+00" cType="1" res="5.3037440776824951e-01" rms="4.9907654523849487e-01" purity="1.0000000000000000e+00" nType="-99"/>
        </Node>
        <Node pos="r" depth="1" NCoef="0" IVar="0" Cut="2.3908917605876923e-01" cType="0" res="4.2860773205757141e-01" rms="4.9487689137458801e-01" purity="1.0000000000000000e+00" nType="0">
