<?xml version="1.0"?>
<MethodSetup Method="MLP::MLP">
  <GeneralInfo>
    <Info name="TMVA Release" value="4.1.4 [262404]"/>
    <Info name="ROOT Release" value="5.34/05 [336389]"/>
    <Info name="Creator" value="clester"/>
    <Info name="Date" value="Tue Mar 18 10:26:58 2014"/>
    <Info name="Host" value="Darwin pb-d-128-141-154-76.cern.ch 12.2.1 Darwin Kernel Version 12.2.1: Thu Oct 18 16:32:48 PDT 2012; root:xnu-2050.20.9~2/RELEASE_X86_64 x86_64"/>
    <Info name="Dir" value="/Users/clester/marchMadnessChallenge"/>
    <Info name="Training events" value="1092"/>
    <Info name="TrainingTime" value="8.82199149e+01"/>
    <Info name="AnalysisType" value="Regression"/>
  </GeneralInfo>
  <Options>
    <Option name="NCycles" modified="Yes">6000</Option>
    <Option name="HiddenLayers" modified="Yes">N+5</Option>
    <Option name="NeuronType" modified="Yes">tanh</Option>
    <Option name="RandomSeed" modified="No">1</Option>
    <Option name="EstimatorType" modified="No">MSE</Option>
    <Option name="NeuronInputType" modified="No">sum</Option>
    <Option name="V" modified="Yes">False</Option>
    <Option name="VerbosityLevel" modified="No">Default</Option>
    <Option name="VarTransform" modified="Yes">Norm</Option>
    <Option name="H" modified="Yes">False</Option>
    <Option name="CreateMVAPdfs" modified="No">False</Option>
    <Option name="IgnoreNegWeightsInTraining" modified="No">False</Option>
    <Option name="TrainingMethod" modified="No">BP</Option>
    <Option name="LearningRate" modified="No">2.000000e-02</Option>
    <Option name="DecayRate" modified="No">1.000000e-02</Option>
    <Option name="TestRate" modified="Yes">6</Option>
    <Option name="EpochMonitoring" modified="No">False</Option>
    <Option name="Sampling" modified="No">1.000000e+00</Option>
    <Option name="SamplingEpoch" modified="No">1.000000e+00</Option>
    <Option name="SamplingImportance" modified="No">1.000000e+00</Option>
    <Option name="SamplingTraining" modified="No">True</Option>
    <Option name="SamplingTesting" modified="No">False</Option>
    <Option name="ResetStep" modified="No">50</Option>
    <Option name="Tau" modified="No">3.000000e+00</Option>
    <Option name="BPMode" modified="No">sequential</Option>
    <Option name="BatchSize" modified="No">-1</Option>
    <Option name="ConvergenceImprove" modified="No">1.000000e-30</Option>
    <Option name="ConvergenceTests" modified="No">-1</Option>
    <Option name="UseRegulator" modified="Yes">True</Option>
    <Option name="UpdateLimit" modified="No">10000</Option>
    <Option name="CalculateErrors" modified="No">False</Option>
    <Option name="WeightRange" modified="No">1.000000e+00</Option>
  </Options>
  <Variables NVar="4">
    <Variable VarIndex="0" Expression="seed_prob" Label="seed_prob" Title="seed_prob" Unit="" Internal="seed_prob" Type="F" Min="0.00000000e+00" Max="1.00000000e+00"/>
    <Variable VarIndex="1" Expression="winfrac1-winfrac2" Label="winfrac1-winfrac2" Title="winfrac1-winfrac2" Unit="" Internal="winfrac1_M_winfrac2" Type="F" Min="-5.04464269e-01" Max="6.11607134e-01"/>
    <Variable VarIndex="2" Expression="avg_scorediff1-avg_scorediff2" Label="avg_scorediff1-avg_scorediff2" Title="avg_scorediff1-avg_scorediff2" Unit="" Internal="avg_scorediff1_M_avg_scorediff2" Type="F" Min="-2.33035717e+01" Max="2.90575752e+01"/>
    <Variable VarIndex="3" Expression="avg_score_against1-avg_score_against2" Label="avg_score_against1-avg_score_against2" Title="avg_score_against1-avg_score_against2" Unit="" Internal="avg_score_against1_M_avg_score_against2" Type="F" Min="-2.50357170e+01" Max="2.12218971e+01"/>
  </Variables>
  <Spectators NSpec="1">
    <Spectator SpecIndex="0" Expression="season" Label="season" Title="season" Unit="" Internal="season" Type="F" Min="6.50000000e+01" Max="8.20000000e+01"/>
  </Spectators>
  <Classes NClass="1">
    <Class Name="Regression" Index="0"/>
  </Classes>
  <Targets NTrgt="1">
    <Target TargetIndex="0" Expression="game_outcome" Label="game_outcome" Title="game_outcome" Unit="" Internal="game_outcome" Type="F" Min="0.00000000e+00" Max="1.00000000e+00"/>
  </Targets>
  <Transformations NTransformations="1">
    <Transform Name="Normalize">
      <Selection>
        <Input NInputs="5">
          <Input Type="Variable" Label="seed_prob" Expression="seed_prob"/>
          <Input Type="Variable" Label="winfrac1-winfrac2" Expression="winfrac1-winfrac2"/>
          <Input Type="Variable" Label="avg_scorediff1-avg_scorediff2" Expression="avg_scorediff1-avg_scorediff2"/>
          <Input Type="Variable" Label="avg_score_against1-avg_score_against2" Expression="avg_score_against1-avg_score_against2"/>
          <Input Type="Target" Label="game_outcome" Expression="game_outcome"/>
        </Input>
        <Output NOutputs="5">
          <Output Type="Variable" Label="seed_prob" Expression="seed_prob"/>
          <Output Type="Variable" Label="winfrac1-winfrac2" Expression="winfrac1-winfrac2"/>
          <Output Type="Variable" Label="avg_scorediff1-avg_scorediff2" Expression="avg_scorediff1-avg_scorediff2"/>
          <Output Type="Variable" Label="avg_score_against1-avg_score_against2" Expression="avg_score_against1-avg_score_against2"/>
          <Output Type="Target" Label="game_outcome" Expression="game_outcome"/>
        </Output>
      </Selection>
      <Class ClassIndex="0">
        <Ranges>
          <Range Index="0" Min="0.0000000000000000e+00" Max="1.0000000000000000e+00"/>
          <Range Index="1" Min="-5.0446426868438721e-01" Max="6.1160713434219360e-01"/>
          <Range Index="2" Min="-2.3303571701049805e+01" Max="2.9057575225830078e+01"/>
          <Range Index="3" Min="-2.5035717010498047e+01" Max="2.1221897125244141e+01"/>
          <Range Index="4" Min="0.0000000000000000e+00" Max="1.0000000000000000e+00"/>
        </Ranges>
      </Class>
    </Transform>
  </Transformations>
  <MVAPdfs/>
  <Weights>
    <Layout NLayers="3">
      <Layer Index="0" NNeurons="5">
        <Neuron NSynapses="9">
          -4.9970792946530845e-01 1.0767741411200324e+00 6.9334387853979540e-01 7.7122925836452250e-01 -1.1071596713411231e+00 1.8000751709032412e-01 8.1495891957867939e-02 2.0092448646142285e+00 -8.3772294157836313e-01 
        </Neuron>
        <Neuron NSynapses="9">
          -6.0945951784099195e-01 -2.0326787933819244e+00 -5.8290545473930500e-01 -9.9652200303867355e-01 -1.2673215997254789e-01 -5.3187637433948887e-01 5.0212259259670800e-01 -2.2172426772706227e-01 1.1850910486874413e+00 
        </Neuron>
        <Neuron NSynapses="9">
          -4.4591479003161710e-01 8.4994243445278117e-01 9.2421299757881534e-02 -5.7711516781336436e-01 1.0449036244223848e+00 7.5255758192456446e-01 -6.9538770091986135e-01 -3.9239410980506589e-01 1.2956163155645901e+00 
        </Neuron>
        <Neuron NSynapses="9">
          -1.4424996264896950e+00 -1.3589414617192668e+00 1.2531379201876200e-01 -4.8229408704830384e-01 8.9129760193828012e-01 -2.3462124254547262e-01 -2.4187840350193796e-02 -3.8515613793468806e-01 -7.7426748470610052e-01 
        </Neuron>
        <Neuron NSynapses="9">
          -3.3640015593033601e-01 7.2977806360536213e-01 -1.2032437344527465e-01 1.4479035216590547e-01 -4.3122821741459908e-03 6.5885075452203026e-02 2.4000792811554161e+00 3.4816455492449611e-01 2.2918080117905266e-02 
        </Neuron>
      </Layer>
      <Layer Index="1" NNeurons="10">
        <Neuron NSynapses="1">
          -5.4738290653964383e-01 
        </Neuron>
        <Neuron NSynapses="1">
          2.3112900959979726e-01 
        </Neuron>
        <Neuron NSynapses="1">
          3.2010219619787761e-01 
        </Neuron>
        <Neuron NSynapses="1">
          4.1015780622023484e-01 
        </Neuron>
        <Neuron NSynapses="1">
          -6.0352197967100958e-02 
        </Neuron>
        <Neuron NSynapses="1">
          7.9078642401775243e-02 
        </Neuron>
        <Neuron NSynapses="1">
          1.4929309987569219e+00 
        </Neuron>
        <Neuron NSynapses="1">
          -2.4543765285092878e-01 
        </Neuron>
        <Neuron NSynapses="1">
          3.3162053910885381e-01 
        </Neuron>
        <Neuron NSynapses="1">
          -1.2028456274691699e+00 
        </Neuron>
      </Layer>
      <Layer Index="2" NNeurons="1">
        <Neuron NSynapses="0"/>
      </Layer>
    </Layout>
    <InverseHessian NElements="3025" NRows="55" NCols="55">
      <Row Index="0">
        4.9215613967217875e+00 1.0328962635236664e+01 1.3282287373478871e+01 -6.6924725847951372e+00 -6.5270910246528500e+00 4.4127253768699887e+01 9.8663084450423995e+00 -5.4221098594656061e+00 1.0120824253719369e+00 -5.3899649345469161e-02 -8.1947070002258471e+00 2.2257639793563366e-01 2.4113782214658359e+00 7.7185234663900175e+00 -2.8730428878083831e+01 3.0491158651190037e+01 -3.3231037196418498e+00 -6.2367735928707213e-01 -2.7759807093559821e+00 -2.3240503169761473e-01 -4.6938992981551149e+00 6.6767981241987568e+00 -5.3509131054104060e+00 -5.8414807558102794e+01 -2.1671173413626846e+01 7.0138900159339879e-01 -5.2110514394645646e-02 1.9118559872323586e+00 -7.2663622613165675e+00 7.3861766866773149e+00 -3.5342652281752485e-01 -3.0181703370587076e+00 -1.6714755127391168e+01 3.6024887955085319e+01 -4.1844226976395502e+00 9.5570395920478357e-01 4.7374346575802112e-02 3.0976861203945392e+00 5.5521982491319104e+00 -2.1466288095943806e+00 -9.9760423242433696e+00 1.0081393587791435e+01 2.5414505620454708e+01 -2.1460880022585274e-01 -7.6503475006196142e-02 -1.5200066384540054e+00 -3.0410664609447102e+00 -1.2083351198824529e+01 5.9558790537890527e+00 -1.3938742456066271e+00 9.9495647284205262e+00 -6.4677233259366851e+00 -2.2988132565682995e+00 3.5211023622877136e-01 1.5990819650020376e+00 
      </Row>
      <Row Index="1">
        1.0328962635291859e+01 9.2047435840044159e+01 5.6564045868097494e+01 -3.0490135126986019e+01 -9.7789344657755123e+01 1.8737369687675215e+02 5.7704843234525583e+01 -3.4895995437602721e+01 9.9137136267854800e+00 2.3054668009705734e+00 -1.2933726590629658e+02 2.1528860024765578e+01 2.5265812197176786e+01 -2.6208796403776006e+01 -5.0160806843326878e+02 -1.8714135915210690e+01 -1.2836784515242114e+01 -7.5753010746982588e+00 -6.2406028529566635e+00 2.9109011780009421e+01 -1.6759865144775816e+01 6.7232376518965935e+01 -1.5589424740071003e+01 2.3412014905709674e+02 2.4975403547404005e+02 4.4114869790893447e+00 5.3518476906830070e-01 -9.3972912289629829e-01 -9.3293663414922264e+01 -7.6743107548641616e+00 -2.4878790099233594e+01 1.5342451206862073e+01 -1.1153188039262361e+02 1.1471216698733102e+02 -1.3349414642372444e+01 -1.2642416118564489e+01 -3.5214466117155174e-01 4.0954542424892253e+01 1.5188625562957100e+01 7.2736388251552242e+00 -3.7730602724604744e+01 4.7298214823106878e+02 -5.3444610611130202e+01 -6.5095136345225058e+00 -2.1066927557152173e+00 -2.2251760472543105e+00 -3.8701804627708682e+01 -3.4462463515905604e+01 4.5396356690481682e+01 1.8444365611968578e+00 -1.1598743078323182e+00 -5.8565167459633471e-01 -1.4853586436395677e+01 -4.5849549679679455e+00 -3.2761357091333956e+01 
      </Row>
      <Row Index="2">
        1.3282287373464314e+01 5.6564045864886275e+01 5.8521773572474660e+02 -2.6129661672740994e+01 -2.9339666128519980e+01 2.1674717997605057e+03 6.2235016596924038e+02 -1.4509626937966866e+02 2.8099151892937968e+01 2.3954521142390863e+01 -4.9070968829165729e+01 -3.3530171313583367e+01 1.1152894909893422e+02 -3.4875424391982546e+02 -1.4448096346307884e+03 6.6164375969083812e+02 -4.1575170157247427e+01 -1.3203910844141717e+02 -1.9268249949156466e+01 -1.0450590073281365e+01 -4.0999462251710867e+02 -8.9845914598054719e+00 -1.6100120298755189e+02 -1.7293373469019909e+03 -1.0242250878984805e+03 4.7860340542337951e+01 6.5111872459428653e+01 2.3473159621139313e+01 -5.0586989051300073e+01 1.4679048262248418e+02 -1.0129228884499149e+01 -7.4430938464391986e+01 1.1787724622692908e+03 2.1421108634834621e+02 2.1821701950469883e+01 -3.8924384563374588e+00 -1.5911483314000552e+00 1.9680276710541666e+01 -5.1544000080163613e+01 -1.3677749170657069e+01 -3.1848107148436384e+01 3.2202082942710729e+02 1.8167566456948293e+03 -4.1173230441375829e+01 7.4696900225931362e+00 -1.5615374668668442e+01 -2.2616503664325684e+01 -5.5025938099067037e+02 7.3692232377909065e+01 -5.7683350465592582e+00 2.9764357143141621e+02 -3.9841929507201439e+02 -5.6735188411270329e+01 2.1442591213795140e+01 2.1503510646717794e+02 
      </Row>
      <Row Index="3">
        -6.6924725847618891e+00 -3.0490135125990829e+01 -2.6129661672028963e+01 8.8507485022427161e+01 1.7113511557017324e+02 3.8799403109193793e+02 -2.3900950110309815e+01 2.7451745787460396e+01 1.9610897982008284e+00 -2.0664312307894055e+00 1.7394822212111876e+01 2.9784545540613362e+01 -9.2112083041009512e+01 2.5844174872788116e+01 -4.1717990960528863e+02 -2.3418075630857410e+02 1.0033861906856929e+01 -2.5150400322651926e+01 -2.2747607518952506e-01 1.1939437377237180e+01 -6.3509858760868227e+01 -8.4232176975952470e+01 -9.0348870148078859e+01 -5.0162262900076962e+02 1.2700880134387739e+02 -1.0092422912679513e+01 6.1287289229906543e+00 -5.5758485928341326e+00 4.1358257297862222e+00 3.3307657238917741e+01 -1.6764832490246427e+01 -4.9089841873864728e+00 -1.1319505709720978e+01 -4.1351552520046830e+01 5.5568539488306463e+00 1.8742644850951535e+01 -2.0478876370379089e+00 8.1982264339662549e+00 -2.5888211206875415e+01 3.0920694124362198e+00 1.4146787180903132e+01 -2.4366679638209382e+02 -3.1888365577188870e+02 9.1343994054534896e+00 1.3399969034702865e+00 5.3616040499150657e+00 4.6570138730541260e+00 -1.5011578097818155e+01 -8.1481190064439815e+01 -5.9703237420350810e+00 6.2132823669603695e+01 7.7931328356602336e+01 1.2945197007803362e+01 1.3154767254274446e+01 -3.4904724319734107e+01 
      </Row>
      <Row Index="4">
        -6.5270910247791356e+00 -9.7789344659903250e+01 -2.9339666138764883e+01 1.7113511557379084e+02 3.1664950241003071e+03 -1.2611705975451844e+02 3.9741284436293063e+02 -2.2687327920670661e+01 1.4867026031319433e+01 -1.8890777940500058e+01 -5.5837309598857246e+01 3.0609482380187700e+01 -1.1327014463434389e+02 1.2107420154132869e+03 -2.8860592154802857e+03 -8.9222614489496209e+02 3.2008658329971311e+01 -7.5694872004036981e+01 3.1446285258560135e+01 4.6719903985004976e+01 -5.0434853574341325e+01 -2.9545209260907330e+02 -3.7143383523239395e+03 2.7222904327864399e+03 4.1027762855145835e+02 2.1664531947543981e+01 -8.3571643665296360e+00 1.4392186210165661e+01 7.0585819060689062e+01 2.3475145414261584e+02 9.7244509133809473e+01 -2.0691128883296342e+03 1.0065254992467580e+03 -5.8746223319988758e+02 5.9811838627614485e+01 9.1955959628783603e+01 -9.8340062706494056e+00 -3.6889148404946006e+01 -5.4837505516297355e+01 -4.2188294801162854e+01 -1.1259432352611969e+02 4.7142668787317126e+02 3.1258749789896791e+02 4.4033944252205792e+01 -3.4795958902396507e-01 -1.5332067063405930e+00 3.0605287262335061e+01 -1.8028399205432783e+02 -1.7709989674147340e+02 -3.5114883199690752e+02 -1.6176676641018850e+02 -2.7710136614627714e+02 1.8352804913109772e+01 5.8809487268073710e+01 2.4421636362317338e+02 
      </Row>
      <Row Index="5">
        4.4127253766049030e+01 1.8737369683319781e+02 2.1674717996319855e+03 3.8799403110761381e+02 -1.2611705967850304e+02 1.8713566607492303e+04 5.2733452820571811e+03 -6.2185537914377346e+02 3.0611912800849348e+02 6.4023502356694095e+01 -1.4779894591457560e+02 3.3628920428871584e+02 -3.6402164190007409e+02 -2.6484774326480365e+03 -7.5855851528508456e+03 1.4041002503492931e+04 -3.0374292580215489e+01 -1.0053992791271588e+03 -1.2992850070896699e+02 -7.0088765308100150e+01 -1.9944421617438561e+03 -3.0359118520717584e+02 2.4190341036702721e+03 -1.8529208730778329e+04 -2.1887862987882665e+04 2.7423576366295862e+02 1.5564670314369999e+02 3.3969762921705239e+01 -4.6180469679015414e+02 1.1039381245732620e+03 -1.5581326734709990e+01 -9.8408565314505580e+01 1.5052508408145879e+03 9.1107824253149204e+01 8.8840194040945008e+01 2.8163829367245489e+02 -3.1612605855402528e+01 2.0440657017079462e+02 -3.4565496106118189e+02 -4.9857313046059566e+01 2.1045620461224840e+02 1.1085910466310252e+03 3.0648721352408342e+04 -8.9250723569879938e+01 3.6452692405215998e+00 -1.2639778561926505e+01 -1.4029488144541691e+02 -2.6967490022849192e+03 -1.5890828123358904e+02 3.9738226392280680e+01 1.2625860642208759e+03 -5.6938406115148837e+03 -1.8675559438144401e+02 3.2342315501295934e+02 3.8631677146815819e+03 
      </Row>
      <Row Index="6">
        9.8663084411152244e+00 5.7704843182262628e+01 6.2235016578815203e+02 -2.3900950079640563e+01 3.9741284443882722e+02 5.2733452813630220e+03 5.6352770636128407e+03 -6.2575739225668804e+02 1.0523518864423724e+02 -1.8705664243135320e+01 4.3778745217947289e+01 4.8226707653095121e+02 -2.3242119814551961e+02 -1.6489728668669884e+03 -3.7443218529381979e+03 1.0641826338844799e+04 -1.4328145084348192e+01 -2.1099823605657645e+02 -3.2255176310783291e+01 -2.7375260284778579e+02 -3.2339561211049312e+02 9.2472433411871862e+01 1.7963924378747442e+03 5.3423573620879586e+02 -1.7730043091276417e+04 2.2967699020178992e+02 -8.9741381154354283e-01 2.3080641766261436e+01 6.4572726424939646e+01 3.5612297571358667e+01 7.1618409926217836e+01 -9.4078974326046625e+02 -3.0165602402564077e+03 -2.1706182491661921e+03 2.2851238826189854e+02 1.0837757505323680e+02 -1.7502647441563095e+01 -5.4003499628845660e+01 2.9954862062205115e+02 -7.1222588739785095e+01 4.9108389112366984e+02 4.8467902910511493e+03 2.6574947880257168e+04 -1.0943024954573004e+02 -4.0045477004877313e+01 -4.3363439896529599e+00 1.9303767509890182e+01 -2.9027295176139341e+02 -9.9393796385398247e+01 -9.9364723182602873e+01 -1.2187180616602736e+03 -5.7289607792151901e+03 -1.9674078371642136e+02 8.7675723439047943e+01 4.0315961860400853e+03 
      </Row>
      <Row Index="7">
        -5.4221098592535837e+00 -3.4895995433594415e+01 -1.4509626937166556e+02 2.7451745786224208e+01 -2.2687327929133197e+01 -6.2185537916795681e+02 -6.2575739233333525e+02 2.0195836218866043e+02 -1.3219195510647792e+01 7.5642804012782525e+00 5.0745227212993996e+01 -2.9632847195574289e+01 -9.3785218979291614e+00 1.7987391393663689e+01 9.5632873148968122e+02 -5.0545575752362549e+02 2.7426263802226698e+00 2.5371520160844312e+01 1.4909919701852326e+00 -2.0124969571079738e+00 3.0681721467471522e+01 -2.4656089284808900e+01 2.8345741527338754e+02 -5.8975462285623996e+02 9.4336522093868462e+02 -4.3999600421753172e+01 -4.8564047729680357e+00 -1.2922443010162807e+01 1.2113727547865064e+01 -3.0677337387195678e+01 1.5892261512995153e+01 3.3234575015867324e+02 2.1088808243256980e+02 2.0160676106229815e+02 -3.1646013367378970e+01 -4.9281419682506566e+00 2.7852887460044293e+00 -1.0879067674900938e+01 -7.6782778613180781e+01 1.0789169119700295e+01 5.6064540368628883e+01 -8.8505683449285266e+02 -1.9416706340207870e+03 3.5428433259981503e+01 4.4646862386326234e+00 4.8709184123210889e+00 1.3537068407779341e+01 7.4235792056195464e+01 -1.7946128253865552e+01 4.8791651542160338e+01 1.3339976035074770e+02 4.1925842619084079e+02 6.6117159032856748e+01 -6.4366833212421284e+00 -2.4276341381760722e+02 
      </Row>
      <Row Index="8">
        1.0120824253999401e+00 9.9137136266135926e+00 2.8099151894520961e+01 1.9610897978830311e+00 1.4867026032633103e+01 3.0611912803460979e+02 1.0523518867226137e+02 -1.3219195512418535e+01 2.9044623966009585e+01 1.9049988137171792e+00 -9.6537724265868476e+00 3.7066682184325899e+01 -1.5555498932023610e+00 8.2508681593961306e+00 -5.3077777206653059e+02 -7.6314276245061095e+01 3.9093428379721834e-01 -4.8777006460739237e+01 -1.9985496849626565e+00 -4.7837941338109387e+00 -3.1492791704426065e+01 -3.4701787168332681e+00 -3.5761069202072591e+01 -3.1508876674663767e+01 4.3670337710061844e+01 4.3169560916028429e+00 -1.5735251245013526e+01 1.3967208936248534e+00 -1.8476382494235288e+01 9.6317206042799697e+00 6.5121752406566555e+00 -3.2038790659961496e+00 7.5606657698653464e+01 -1.0489062755137471e+01 2.7761166408030302e+00 1.8997552392776079e+01 -7.5724036616993340e-01 6.4192210970709063e+00 -6.0756108890130331e+00 -1.0734189639167062e+00 9.6635328464663459e+00 1.8844170416625315e+02 4.6605604919725664e+01 -2.5365762215281720e+00 -2.6653634354182092e+00 -9.7237964075886607e-01 -5.7396228066835882e+00 -3.8994972905182209e+01 2.0345261879933547e+00 -2.9550027111983841e+00 -1.3149898737430483e+00 -1.7018210343567642e+01 -3.9045721674613922e+00 1.8354574074044830e+01 8.4151090379372662e-01 
      </Row>
      <Row Index="9">
        -5.3899649307464492e-02 2.3054668011551605e+00 2.3954521144136724e+01 -2.0664312311772246e+00 -1.8890777939925233e+01 6.4023502374039495e+01 -1.8705664226920778e+01 7.5642803998102011e+00 1.9049988138352520e+00 1.8526787158096994e+01 5.2572190844742863e+00 -1.3528412886178348e+01 1.7959844229675660e+01 -5.6467332671724137e+01 1.4636958051033279e+01 2.1343459393660588e+01 -6.3994568578290920e+00 -8.5708867625231537e+00 -5.9349325413460896e+00 -1.1429589786231276e-01 -3.0137288146634162e+01 -1.0772658273888105e+00 5.9503579677167764e+01 -1.4879189417291494e+02 7.4657982388085770e+01 5.0575963862470221e+00 2.6366223207833528e+00 8.6914187544754640e+00 3.5184000054566567e+00 -1.7074594576572899e+01 2.3926929392776146e+00 6.9777508635663082e+01 7.8411635738782564e+01 7.4415646533925795e+01 -4.4638928440653611e+00 -1.8958788330716345e+00 1.8526319127881703e+00 -1.3562436151570039e+00 -2.5324607643820947e+01 4.9003131418282706e+00 4.7522965365891485e+00 -2.5475600205525989e+01 -9.1874215045103284e+01 2.1051812383712210e+00 2.6198097911942231e-01 -6.9434183270330792e+00 4.4422978430794002e-01 -2.9975590976389718e+01 1.0990410044075603e+01 1.1154367204977566e+01 2.5914471335091985e+01 2.0029321224671872e+01 3.1620901317904062e+00 6.8444704644722520e-01 -1.5961505457618300e+01 
      </Row>
      <Row Index="10">
        -8.1947070003279592e+00 -1.2933726590653367e+02 -4.9070968833440737e+01 1.7394822213652212e+01 -5.5837309601593020e+01 -1.4779894597052237e+02 4.3778745143828843e+01 5.0745227218842643e+01 -9.6537724268198968e+00 5.2572190848024682e+00 4.5461840750374654e+02 -8.3145902761323882e+01 -8.3610377415314190e+01 7.3110411281570038e+01 8.7834609380127665e+02 2.3587528540039784e+02 -4.0681252434692908e+01 1.4814337350860406e+01 -6.7877116010208276e+00 -2.8971865606263248e+02 1.4815637970631620e+01 -8.7854033478084418e+01 4.6486236582876279e+02 -5.7767837373091550e+02 -6.2683790279192885e+02 3.7610034386859482e+01 -1.2911162738887896e+01 -1.0544219039724485e+00 2.0990697464525371e+02 -3.6652687125030430e+00 7.7870704274972724e+01 1.6288728580420491e+02 1.7489240748352555e+02 -2.1465584623144323e+01 8.4892023453257011e+00 3.4258914049122239e+01 4.5930618436160991e-01 -9.9002564732238383e+01 -1.0463184208420905e+01 -1.8058153855155954e+01 2.8448141137138367e+02 -8.3484300752483875e+02 -1.2785869152821465e+02 1.2734188593248321e+01 9.3344569766786734e-01 3.7646610375812344e+00 9.8329334985853436e+01 2.7869164380209781e+01 -9.3829493504206226e+01 2.4893131339334484e+01 4.3379827243066217e+01 3.6301039392875197e+01 2.2703781061486961e+01 1.5992403268447163e+01 2.6245125095481015e+01 
      </Row>
      <Row Index="11">
        2.2257639776273264e-01 2.1528860022178169e+01 -3.3530171320563852e+01 2.9784545541625789e+01 3.0609482385581600e+01 3.3628920427333082e+02 4.8226707655197231e+02 -2.9632847193654015e+01 3.7066682183136031e+01 -1.3528412886967772e+01 -8.3145902757472868e+01 3.6707850854636200e+02 -8.0009738948270297e+01 -1.9895530147242846e+02 -1.6863401814184247e+03 4.5467472936065377e+01 6.5131598773637052e+01 -5.0055632460125906e+01 -6.3747371456444206e+00 2.0838995683773163e+01 -1.1978237642583235e+02 3.5079082906286374e+01 1.4740764994609955e+02 9.2591678672412013e+02 -4.8425117513685336e+02 -2.8134715249227128e+01 -1.6437236159930819e+01 -8.5936190661972702e+00 -6.2953477323418447e+01 2.3269938336222463e+01 8.7243427658656731e+00 1.0058957535209325e+02 -5.4538165593944768e+02 -2.4762515275384237e+02 3.5658734166585660e+01 3.8593233314955796e+01 -8.4243137329969606e+00 2.7660312167570041e+01 2.4140143885688857e+01 -1.4801199513468337e+01 -6.7753739154426071e+00 7.8509965963435195e+02 1.0874027265080563e+03 -9.8920904719246820e+00 -8.8087719071262871e+00 7.7364336578015127e+00 -2.6375193653532925e+01 4.8953073247847726e+01 -1.6885475245787256e+00 3.5283817406573093e+00 -1.5718211915314279e+02 -2.5935159164399045e+02 -6.6684915345363418e+00 2.5404203811275181e+01 1.6871661881173435e+02 
      </Row>
      <Row Index="12">
        2.4113782215471087e+00 2.5265812196566245e+01 1.1152894910316734e+02 -9.2112083041955742e+01 -1.1327014462885464e+02 -3.6402164183587388e+02 -2.3242119807085447e+02 -9.3785219029191254e+00 -1.5555498932542449e+00 1.7959844229293136e+01 -8.3610377414394534e+01 -8.0009738945308811e+01 3.0286397889419129e+02 -2.8562011941560263e+02 3.6390464444118584e+02 2.7934438127912193e+02 -6.5495815748593422e+00 -2.0694213835236368e+01 1.3236702272496146e+00 5.3828721044089193e+01 9.4033459084798068e+00 -2.1279879449844891e+01 -1.4288907488081222e+02 1.8514220347800304e+02 3.4653132754267182e+02 1.6799177451822317e+01 2.8083513546612842e+01 1.4819346091288290e+01 -1.6566966684470685e+01 -3.0826776672285273e+01 1.4541460831205093e+01 1.0010988981198939e+02 5.8425208858424776e+02 1.8364274203424119e+02 -5.4088019454351608e+00 -2.9962764309035531e+01 3.2390973264809229e+00 -1.7245656767415525e+01 -4.2637376668405345e+01 2.2165885318587648e+00 -3.7238169593544725e+01 2.2618999927435570e+02 2.9773327940451793e+01 -1.2171238727845907e+01 4.7036910493054940e+00 -1.3322849046322998e+01 -1.2689169698937292e+01 -8.5027770284437139e+01 1.5842190003997246e+02 3.2347477494527951e+01 4.0870345948391709e+01 -3.7070115388785325e+01 -5.7223318897907802e+00 -1.4422544315008011e+01 -2.1304303251329326e+00 
      </Row>
      <Row Index="13">
        7.7185234684974517e+00 -2.6208796376404280e+01 -3.4875424382454810e+02 2.5844174859730892e+01 1.2107420153626058e+03 -2.6484774323255601e+03 -1.6489728669751007e+03 1.7987391359914909e+01 8.2508681746727746e+00 -5.6467332662577974e+01 7.3110411244459101e+01 -1.9895530146734743e+02 -2.8562011937802515e+02 4.6766543081180871e+03 -1.5481083684784387e+03 -9.1695556755606667e+03 -1.2393277325384770e+02 1.0954872374432375e+02 3.2701375903082955e+01 -1.0154239093714077e+02 4.7242891014484798e+02 -1.1204932724227183e+02 -4.8101852411134696e+03 3.4531023855780477e+03 1.1899330322167400e+04 -2.5480116402176463e+01 -1.3048352752276060e+02 -2.9172239632753474e+00 5.3497572264826445e+01 3.4838090746601603e+02 2.2034144481695631e+02 -1.5194219118960896e+03 1.2862589851701177e+03 -1.0220631179154879e+01 -8.6654060484417926e+01 1.0134360600356013e+02 -9.4023445537537498e+00 4.7317106631983769e+01 6.1280517545921910e+01 -6.1657710493798191e+01 -1.8101630839253045e+02 -1.0200146156627964e+03 -1.7029086539655080e+04 2.0883911358144264e+01 -8.1386696991074814e-02 1.8852830527329388e+01 5.3701090949508199e+01 5.3013962883452223e+01 -2.1627820786756257e+02 -3.8046297247420028e+02 2.9210983246472642e+02 3.1854942139024724e+03 -6.7682938567656183e+00 5.0000090792167157e+01 -2.2519548723607650e+03 
      </Row>
      <Row Index="14">
        -2.8730428881388434e+01 -5.0160806845393927e+02 -1.4448096348032091e+03 -4.1717990957567918e+02 -2.8860592154936739e+03 -7.5855851543570025e+03 -3.7443218541168835e+03 9.5632873161198222e+02 -5.3077777208373800e+02 1.4636958047056396e+01 8.7834609382637427e+02 -1.6863401814797739e+03 3.6390464439842981e+02 -1.5481083677927159e+03 2.9654576035882088e+04 1.5776119790759778e+04 -7.5667437435775355e+01 9.6926209467659896e+02 4.0742757211635173e+01 4.0495631468703515e+01 1.2725411956335979e+03 2.1519544630626660e+02 6.8028093319904274e+03 -1.3579160059123515e+04 -1.9054504834939493e+04 -2.2534229742793650e+02 5.9453224356701867e+01 -9.6946497013558059e+01 7.7170619249721562e+02 -8.6276596576150439e+02 1.2846034844345780e+02 2.3922392429126407e+03 -2.1360244958325670e+03 1.8309157716753334e+03 -3.6847612685797401e+02 -3.4036470292235754e+02 5.6550534431509874e+01 -4.6025504765773485e+02 -4.2809460418317030e+01 8.6463696793284655e+01 -4.3184745275799025e+02 -1.0211111308305430e+04 1.8964156182566272e+04 2.0381483006566864e+02 4.1346060752388496e+01 3.6239253492784883e+01 3.0546843798801865e+02 1.5642170657083743e+03 1.2602857511152041e+02 5.0599477802353744e+02 2.5406903875988576e+02 -2.8338211781181481e+03 3.0191477412828846e+02 -3.4350095533961530e+02 2.6322799517642065e+03 
      </Row>
      <Row Index="15">
        3.0491158629898564e+01 -1.8714136151436833e+01 6.6164375862312272e+02 -2.3418075612513050e+02 -8.9222614467995561e+02 1.4041002497227997e+04 1.0641826335858113e+04 -5.0545575694696163e+02 -7.6314276387619117e+01 2.1343459325828007e+01 2.3587528573581949e+02 4.5467472707498146e+01 2.7934438090274801e+02 -9.1695556734122802e+03 1.5776119794849608e+04 7.0280739711875649e+04 -7.8586754325253423e+01 -2.6706377207603509e+01 -7.8998240935600165e+01 -1.0961199457812924e+01 -1.4086054288813503e+02 1.7166650969209149e+02 1.1510419553357116e+04 -1.8917322472028423e+04 -9.5495713408194832e+04 3.1365891495429969e+02 1.8735143876401708e+00 1.2760495960882494e+00 1.8102159601589366e+02 -8.8442756717542977e+02 -7.1274043841571782e+01 -7.1990974785137871e+02 -1.4134476300749200e+04 -1.4575914219162416e+03 4.8226497729495968e+01 7.1314893334696535e+01 4.2957805961988065e+00 -2.8632235464725153e+02 4.3658343602769526e+02 1.0000496629698016e+02 3.5588489196942589e+01 1.4167641014286723e+03 1.2986125626063325e+05 -1.4314224160016531e+02 -6.4443841647838980e+01 -4.1977646385057596e+00 9.5965070814090581e+00 4.7783409783184470e+02 2.6711838130731587e+02 3.1339075737747544e+02 -3.6550049381703516e+03 -2.7513627014513913e+04 -1.9478943706567506e+02 -3.7574654007439676e+00 2.0850868630226752e+04 
      </Row>
      <Row Index="16">
        -3.3231037196390805e+00 -1.2836784515197330e+01 -4.1575170157408920e+01 1.0033861906844873e+01 3.2008658329758390e+01 -3.0374292583392304e+01 -1.4328145086565929e+01 2.7426263803717603e+00 3.9093428376230827e-01 -6.3994568578258537e+00 -4.0681252434773114e+01 6.5131598773536808e+01 -6.5495815748589088e+00 -1.2393277325259291e+02 -7.5667437436623942e+01 -7.8586754334562357e+01 6.8565666253966498e+01 -1.4014677438373848e+00 8.4535675331562530e+00 4.3999441473759866e+01 -1.1412127071742464e+01 1.0173339468780011e+01 -2.8414961887228039e+01 -1.9796221118228246e+01 2.9062642063720034e+01 -5.0098344949935537e+01 1.2797926371686970e+00 2.8304046751876939e+00 -1.6956136938428521e+01 3.0479540205081662e+01 -6.0020219584683794e+00 -8.7117341486444360e+01 -2.9489344471961687e+01 -5.6601390939899062e+01 4.5299117416211327e+00 3.9229959707751050e-01 -3.7968039291033984e-01 7.2408753377477550e+00 -1.2324210563720552e+01 -3.0220170746747153e+00 -5.9468120103671694e+01 8.4417216805334974e+00 2.3352232673450096e+01 1.4319517424555404e+00 4.6713004381811585e-01 -8.9877949391641820e-01 -9.4769872592592463e+00 1.7797164631899420e+00 8.8175528425442007e+00 -8.3111468536458837e+00 4.7664917895192858e+00 -4.9326372937877494e+00 2.5564904577234522e+00 -7.9525432728583034e-02 6.8907244821556315e+00 
      </Row>
      <Row Index="17">
        -6.2367735934122948e-01 -7.5753010741022422e+00 -1.3203910844395620e+02 -2.5150400322067561e+01 -7.5694872006895878e+01 -1.0053992791854466e+03 -2.1099823612278200e+02 2.5371520164428318e+01 -4.8777006460474993e+01 -8.5708867621384854e+00 1.4814337350180267e+01 -5.0055632462792445e+01 -2.0694213834757630e+01 1.0954872378114101e+02 9.6926209462494000e+02 -2.6706377571571409e+01 -1.4014677439421348e+00 1.2786838032971514e+02 4.8340783830172285e+00 -1.1719437286304810e+00 1.4712326133886236e+02 5.4588842956516530e+01 9.3361403692343657e+01 7.9284415966335814e+02 1.7959692186472353e+02 -1.3707594083808814e+01 -1.2299013364176403e-01 -4.5052643992500192e+00 3.7120773490020440e+01 -5.7413512779159682e+01 -1.5107510840060700e+01 -2.9202612280307360e+01 -4.2265615904279207e+02 -4.6519799282983307e+01 -5.2775728583590649e+00 -3.9237460883032895e+01 1.4352456446277504e+00 -1.0084887348648389e+01 4.1453898024099431e+01 4.4630759774446407e+00 -1.1902653130360877e+01 -1.7582379609282194e+02 -3.8252620601310616e+02 4.0923547595679928e+00 2.2216012599649790e+00 3.1569822504541349e+00 9.6280837731328077e+00 1.7575905055600788e+02 -5.6838725042692033e+00 -1.4669660240481548e+00 -1.0143109281142772e+02 8.4727878881976608e+01 6.0828072796074535e+00 -4.0838257856722741e+01 -4.1781301785553879e+01 
      </Row>
      <Row Index="18">
        -2.7759807093487936e+00 -6.2406028528723247e+00 -1.9268249948894397e+01 -2.2747607519920710e-01 3.1446285258484956e+01 -1.2992850070944274e+02 -3.2255176312733226e+01 1.4909919701586887e+00 -1.9985496849049553e+00 -5.9349325413171101e+00 -6.7877116011514431e+00 -6.3747371457167370e+00 1.3236702273725554e+00 3.2701375904311078e+01 4.0742757207986791e+01 -7.8998240950604327e+01 8.4535675331538584e+00 4.8340783828802172e+00 1.3631251473335356e+01 8.5341121267536693e+00 3.2544024716400727e+01 6.5118064344525664e+00 -7.5692351774496018e+01 1.6911443974647648e+02 5.4371946433972013e+01 -7.7637359436353144e+00 -4.9363419256780361e-01 3.8546989713691389e+00 5.7365521857638191e-01 1.8705191868707787e+00 2.4225712593986843e+00 -6.0717025194174859e+01 -6.6009720112690573e+00 -7.6035779202872391e+01 3.5702649821607650e+00 -2.6080514017483551e+00 8.9529257374500903e-01 -8.7410654978684554e-02 -3.9468180846420609e-01 1.6628379152552791e-01 -5.8741353432361576e+00 2.4030417635224225e+01 -5.4253604236010695e+01 -1.1399063335728479e+00 -1.2978252601566231e-01 -1.9227214975922582e+00 -2.3820249107389727e-01 1.4474416388587997e+01 2.9454257050102095e+00 -7.9245113086510326e+00 -2.0258374313466582e+01 9.8985843163142029e+00 2.4850469300870226e-01 -1.9727047431603433e+00 -6.9968455465939003e+00 
      </Row>
      <Row Index="19">
        -2.3240503166539028e-01 2.9109011780846490e+01 -1.0450590074283861e+01 1.1939437377077603e+01 4.6719903982340185e+01 -7.0088765337140018e+01 -2.7375260287247107e+02 -2.0124969562043411e+00 -4.7837941336946015e+00 -1.1429589776675364e-01 -2.8971865606365481e+02 2.0838995683271559e+01 5.3828721044468196e+01 -1.0154239092242355e+02 4.0495631441000945e+01 -1.0961199602890231e+01 4.3999441473674096e+01 -1.1719437283742746e+00 8.5341121267730795e+00 3.0500705627500076e+02 -8.1624311495297803e+00 4.1990527871136592e+01 -3.5652502484838737e+02 -4.9212140912500871e+01 2.8496112324760810e+02 -4.0077445630262218e+01 1.3033180999315572e+01 3.6534673336262333e+00 -1.0533060551300939e+02 -4.0941619273970424e+00 -8.8808790016861366e+01 -8.5557980451942854e+01 1.9296097224128289e+01 8.3203937806197530e+01 -1.2763862516172450e+01 -3.3738533988446562e+01 9.9801111334811465e-01 6.6280608161026933e+01 -1.4557030975734371e+01 2.6490673160831278e+01 -2.6709548267796373e+02 -7.3225085281725711e+01 4.9209492503508969e+01 -1.3943362986476520e+00 2.5375172095490051e+00 -3.6638794881950894e+00 -6.0273237641766549e+01 9.2805395434080680e+00 6.1918027192056975e+01 -8.9021127623444904e+00 -3.7010758715581460e-01 -5.1083242323430644e-01 -4.3282888354799551e+00 -1.8472451115717401e+01 2.3282235520002383e+00 
      </Row>
      <Row Index="20">
        -4.6938992981916670e+00 -1.6759865144264609e+01 -4.0999462251878651e+02 -6.3509858760316760e+01 -5.0434853575524755e+01 -1.9944421618045233e+03 -3.2339561218140915e+02 3.0681721471073047e+01 -3.1492791703963729e+01 -3.0137288146171272e+01 1.4815637969956697e+01 -1.1978237642890198e+02 9.4033459097088468e+00 4.7242891018699174e+02 1.2725411955717141e+03 -1.4086054328555701e+02 -1.1412127071743157e+01 1.4712326133823615e+02 3.2544024716579770e+01 -8.1624311498569284e+00 6.7881340179269546e+02 1.0936371371771165e+02 -1.5382614644680285e+02 2.2386096915865573e+03 3.1974068957739587e+02 2.3362598861390012e+01 -4.0020709640327851e+01 4.7388080200769878e-01 3.4842444101813520e+01 -5.6601591292319981e+01 5.3079126229323109e+01 -3.2530994006349334e+02 -1.2562842435249136e+03 -4.2572271579035646e+02 1.3801725902723092e+00 -2.0611958706837299e+01 -1.1050136687725656e+00 -1.7616138334221866e+01 7.9729241286781630e+01 -6.5395042802400152e+00 8.9407428294285012e+01 4.0609093401063615e+02 -4.1088747545355653e+02 1.0741161958518717e+00 -9.8043152225616161e+00 2.4595200517291005e+00 1.3472484949813747e+01 3.9721410938617259e+02 4.6770002028353957e+01 -3.7307886131416673e+01 -4.2360471581512797e+02 1.0550787099469844e+02 1.0327450953636248e+01 -3.7713313031701894e+01 -6.9372449487977320e+01 
      </Row>
      <Row Index="21">
        6.6767981241797827e+00 6.7232376518420210e+01 -8.9845914604898454e+00 -8.4232176976505798e+01 -2.9545209260592293e+02 -3.0359118519601441e+02 9.2472433447075218e+01 -2.4656089287008626e+01 -3.4701787170320286e+00 -1.0772658278040552e+00 -8.7854033477129633e+01 3.5079082908056400e+01 -2.1279879450268453e+01 -1.1204932725668891e+02 2.1519544632775475e+02 1.7166650987305755e+02 1.0173339468707411e+01 5.4588842957192092e+01 6.5118064344783306e+00 4.1990527870653530e+01 1.0936371371897660e+02 2.7383146145838901e+02 3.5480120646436956e+02 7.9136502835698150e+02 -1.9665438776783731e+02 -1.2828276242147524e+01 -1.9083867651972056e+01 3.0303465552407296e+00 -7.5393264691300288e+01 3.2224921919524832e+00 -2.7217788121091012e+01 -2.1782597855616004e+01 -3.8642886030515706e+02 -3.8247541105677556e+01 -1.6055540750186310e+00 -5.2860347775500912e+01 -5.2982335983379869e-01 4.0526596807800551e+01 2.5855151121541976e+01 1.2057059347877527e+01 -1.3298352701115306e+01 4.2990139161871201e+02 3.4001414261394370e+02 -1.0686711925234743e+01 -3.6393859332442142e+00 -4.4259196584697946e+00 -3.8947414028390185e+01 2.3799492667121960e+01 1.0500378268009270e+02 1.0551493217761855e+01 -1.2140685235934654e+02 -6.8905116654979537e+01 -1.3466566695841859e+01 -3.0913707925114807e+01 2.0247371810983108e+01 
      </Row>
      <Row Index="22">
        -5.3509131079745202e+00 -1.5589424768897516e+01 -1.6100120309858673e+02 -9.0348870133566010e+01 -3.7143383522739236e+03 2.4190341032167198e+03 1.7963924378856502e+03 2.8345741531772364e+02 -3.5761069218539859e+01 5.9503579668160455e+01 4.6486236586648738e+02 1.4740764993696286e+02 -1.4288907491919440e+02 -4.8101852410675638e+03 6.8028093326795188e+03 1.1510419555153327e+04 -2.8414961885726370e+01 9.3361403733337966e+01 -7.5692351772720940e+01 -3.5652502483121498e+02 -1.5382614639617668e+02 3.5480120644927501e+02 1.0026841951958051e+04 -7.3139051800016241e+03 -1.5785179045101599e+04 5.9757532210441241e+01 2.7455586486430548e+01 -5.9728863052706984e+01 1.0673235112848513e+02 -6.5527400533359673e+02 -8.9096165816147789e+01 3.8412382027075946e+03 -3.7791264324595791e+03 -4.7496245890913997e+01 4.9734514922354720e+01 -9.6018558601401310e+01 1.6898725974027094e+01 -1.2805602178046192e+02 4.1985066806164575e+01 8.7652174108774915e+01 8.0387502322133844e+02 -4.3708862406560718e+02 1.9737662189130566e+04 3.8087898985508048e+01 -1.5848715412507529e+01 1.4431853232978028e+01 5.4752743803735264e+01 5.3872438667625283e+02 -3.6330558950019167e+00 7.1230953012395037e+02 -3.3080310671843256e+02 -3.3193592443749203e+03 1.0610379946233013e+02 -7.0866308498847502e+01 2.4109070248960725e+03 
      </Row>
      <Row Index="23">
        -5.8414807556066080e+01 2.3412014907986304e+02 -1.7293373467813121e+03 -5.0162262901373691e+02 2.7222904327784945e+03 -1.8529208730389088e+04 5.3423573613467840e+02 -5.8975462290534051e+02 -3.1508876653392434e+01 -1.4879189416288136e+02 -5.7767837375262752e+02 9.2591678672865771e+02 1.8514220352376469e+02 3.4531023856393876e+03 -1.3579160060057293e+04 -1.8917322474636556e+04 -1.9796221121068811e+01 7.9284415961072500e+02 1.6911443974536451e+02 -4.9212140948649903e+01 2.2386096915307289e+03 7.9136502835093415e+02 -7.3139051801597307e+03 4.4677700467430441e+04 2.5786277883528921e+04 2.0440048116321304e+02 -3.8892115901793022e+02 2.1505065527501841e+01 1.1036300049800323e+02 -1.2480888260844790e+03 -9.3927135359865559e+01 -2.9898068801028844e+03 -5.2012910092429738e+03 -4.1753564655620503e+03 3.6917857506817381e+02 -1.6795215204116903e+02 -4.8444167383705619e+00 5.7754804213394607e+01 1.0270292435096587e+03 -1.9858115186217123e+01 4.3041918345659298e+02 1.1900109370127284e+04 -2.7422514655307194e+04 -1.6481719002945567e+02 -8.6177676915207627e+01 2.0319543854693620e+00 -5.2402991123836884e+01 3.0225341147315767e+03 2.9340212978740516e+02 -5.8117232829218767e+02 -4.2792080661481923e+03 4.0929951450762151e+03 -2.0268415614094079e+02 -2.2276375497109620e+02 -3.2372354141370001e+03 
      </Row>
      <Row Index="24">
        -2.1671173383598216e+01 2.4975403580919374e+02 -1.0242250863985159e+03 1.2700880108459003e+02 4.1027762824389879e+02 -2.1887862979189875e+04 -1.7730043087184142e+04 9.4336522013117792e+02 4.3670337911354409e+01 7.4657982484379318e+01 -6.2683790326700546e+02 -4.8425117481832496e+02 3.4653132807529408e+02 1.1899330319210654e+04 -1.9054504840819427e+04 -9.5495713408869342e+04 2.9062642050208524e+01 1.7959692135308069e+02 5.4371946413128171e+01 2.8496112304227427e+02 3.1974068902018917e+02 -1.9665438751123293e+02 -1.5785179042655509e+04 2.5786277880016616e+04 1.3538486226936453e+05 -4.8040182880323846e+02 2.8925110444426537e+01 -1.4102682268822484e+00 -4.9602681018966143e+02 8.3690160123517819e+02 -1.0620897201401554e+02 1.8809431916736535e+03 2.0272720192299224e+04 4.2874188961843611e+03 -2.5285573609138373e+02 -2.7847185056126909e+02 1.3648953619511152e+01 4.5543916647607699e+02 -7.6412551380186051e+02 1.5887908801238190e+01 -3.6931934840080260e+02 -2.9859009497644138e+03 -1.8370241338257678e+05 2.2937637694979691e+02 1.0640599806549014e+02 -1.8548815938789630e+01 -1.4356259836636022e+02 -4.6105879391939379e+02 6.3686199598645203e+01 -2.2744523565907798e+02 5.4048556115489000e+03 3.8901683799821200e+04 3.3414430301836768e+02 -1.1287969044655983e+02 -2.9428230395065675e+04 
      </Row>
      <Row Index="25">
        7.0138900150575978e-01 4.4114869774577983e+00 4.7860340538992240e+01 -1.0092422912143450e+01 2.1664531951411604e+01 2.7423576366947105e+02 2.2967699022856854e+02 -4.3999600421402647e+01 4.3169560908798346e+00 5.0575963856999806e+00 3.7610034389132124e+01 -2.8134715248695684e+01 1.6799177449908381e+01 -2.5480116413495125e+01 -2.2534229738047566e+02 3.1365891516967702e+02 -5.0098344949842840e+01 -1.3707594082350482e+01 -7.7637359436229758e+00 -4.0077445629735394e+01 2.3362598862928081e+01 -1.2828276243008531e+01 5.9757532225034197e+01 2.0440048114532058e+02 -4.8040182910420435e+02 8.6601455862492656e+01 3.1809437338233693e+00 2.3593738325326310e+00 1.7317244104339352e+01 -1.3773638105030821e+01 1.1068548352778055e+01 8.1371697785346441e+01 -6.9642466442256705e+01 -9.7447596447214664e+01 2.1893643162559783e+01 8.0169530153171991e+00 -7.4315608106952857e-01 -6.0301660422938319e+00 1.6275854225555552e+01 -3.9860863193989120e+00 9.5443723317409550e+01 2.8291276829964909e+02 8.0207520818971977e+02 -4.0549698943017560e+00 -2.2870695662479501e+00 -1.2904913842705241e+00 8.7825941953680164e+00 -1.8059762799501044e+01 5.5079891150764091e+00 1.1483816370978083e+01 -6.6935372947660554e+01 -1.6434069816092807e+02 -9.0181312475241562e+00 5.2045457687354428e+00 1.0169921211612963e+02 
      </Row>
      <Row Index="26">
        -5.2110514367452510e-02 5.3518476908050872e-01 6.5111872460955183e+01 6.1287289225430523e+00 -8.3571643656836514e+00 1.5564670316742161e+02 -8.9741378563813790e-01 -4.8564047748157861e+00 -1.5735251244993345e+01 2.6366223206965032e+00 -1.2911162738964833e+01 -1.6437236158752231e+01 2.8083513546780416e+01 -1.3048352753764169e+02 5.9453224371258159e+01 1.8735145130483914e+00 1.2797926371633110e+00 -1.2299013382754787e-01 -4.9363419260849284e-01 1.3033180999234474e+01 -4.0020709640521758e+01 -1.9083867651482432e+01 2.7455586502670016e+01 -3.8892115903423627e+02 2.8925110267543516e+01 3.1809437345705724e+00 5.3332277189489844e+01 1.8933544593053924e+00 1.6629898724606100e+00 2.1564107151549461e+00 -2.2783545875262547e+01 1.8533001858921644e+01 1.9868709080999605e+02 4.0552368146868886e+01 1.8374185581260463e+00 -2.4362508420119326e+01 3.9969946867773087e-01 -1.4147551507575626e+00 -1.6453199221414820e+01 2.7392291044059531e+00 -9.3493290997398368e+00 -1.4289426904890306e+01 -2.3430353220081699e+00 -3.0788818481232485e+00 4.1202237586378345e+00 -1.7738635870577326e+00 -2.4372980501117194e+00 -6.3032436150908552e+01 1.2642170996371682e+00 8.4664985153543100e+00 6.7368149341406919e+01 6.3599379027357550e-01 -1.8818678187287690e+00 -1.5461883913716221e+01 -7.5892707183731760e+00 
      </Row>
      <Row Index="27">
        1.9118559872477210e+00 -9.3972912304766965e-01 2.3473159621847756e+01 -5.5758485929803188e+00 1.4392186211106525e+01 3.3969762935658821e+01 2.3080641782276174e+01 -1.2922443011173726e+01 1.3967208935848361e+00 8.6914187543634789e+00 -1.0544219038082190e+00 -8.5936190655667346e+00 1.4819346091154419e+01 -2.9172239716134243e+00 -9.6946497002580998e+01 1.2760496803842472e+00 2.8304046751995173e+00 -4.5052643992896755e+00 3.8546989713434385e+00 3.6534673336562520e+00 4.7388080182866155e-01 3.0303465553336846e+00 -5.9728863043757926e+01 2.1505065516285843e+01 -1.4102683459677507e+00 2.3593738329098208e+00 1.8933544592444029e+00 1.6372434485352187e+01 4.8787633638766810e+00 5.6316811732250542e+00 6.0172680593828662e+00 -3.2161194356339379e+01 -8.9263616435047410e-01 -5.9828690713424635e+00 2.9344790186154768e+00 1.9231271693941565e+00 1.6930539601945611e+00 2.5005115168880854e-01 -9.1987605719335956e+00 -1.6556384904860892e+00 -1.1214670942332567e+01 4.1184383373136853e+01 5.5401115654724819e+01 -2.2801095009750481e+00 -7.5604841852812354e-02 -9.9402570153812473e+00 2.3515134917223302e-01 -2.8377775381355157e+01 1.3254507335091573e+01 -4.2297590017912459e+00 -2.0779878774799494e+00 -1.4707241870238779e+01 -4.2964336927456053e+00 1.0887746448391908e+00 4.5455207018605055e+00 
      </Row>
      <Row Index="28">
        -7.2663622614539634e+00 -9.3293663415884964e+01 -5.0586989057364690e+01 4.1358257314619964e+00 7.0585819060214774e+01 -4.6180469684592254e+02 6.4572726367555632e+01 1.2113727553335821e+01 -1.8476382494775546e+01 3.5184000054233593e+00 2.0990697464638788e+02 -6.2953477326695065e+01 -1.6566966686304774e+01 5.3497572296957514e+01 7.7170619249134461e+02 1.8102159579615363e+02 -1.6956136938365944e+01 3.7120773491451374e+01 5.7365521871020064e-01 -1.0533060551193284e+02 3.4842444103371491e+01 -7.5393264692822413e+01 1.0673235109612472e+02 1.1036300052117849e+02 -4.9602680987705503e+02 1.7317244102222560e+01 1.6629898720760536e+00 4.8787633634995018e+00 1.6992363262256805e+02 -4.7710059518218571e+01 2.7618212773873612e+01 -2.3484390129236474e+00 1.5732965147233859e+01 -1.0599259939442823e+02 9.7442339314585524e+00 6.8539612667702841e+00 9.4355057185220748e-01 -7.1224721705688097e+01 5.0053431865720341e+00 -1.3284106610344175e+01 6.5865354456470314e+01 -4.3343642951674923e+02 3.5421539350466594e+02 5.0696322755728147e+00 3.5990203599327124e+00 -1.0966623677130656e+00 6.3586350726648135e+01 8.1071321853722921e+01 -6.3857655808836320e+01 -2.2924786476932795e+00 -5.7908963633173549e+01 -6.5755655303227940e+01 6.2639648689647540e+00 -4.5949817626524450e+00 8.0545507292902855e+01 
      </Row>
      <Row Index="29">
        7.3861766870057863e+00 -7.6743107520076137e+00 1.4679048263613399e+02 3.3307657236472380e+01 2.3475145413858922e+02 1.1039381246774190e+03 3.5612297637950618e+01 -3.0677337395510449e+01 9.6317206055982165e+00 -1.7074594576028403e+01 -3.6652687168425473e+00 2.3269938340212775e+01 -3.0826776668660386e+01 3.4838090742010081e+02 -8.6276596577633791e+02 -8.8442756698690960e+02 3.0479540205069497e+01 -5.7413512782907588e+01 1.8705191865755069e+00 -4.0941619282380088e+00 -5.6601591297542427e+01 3.2224921953425110e+00 -6.5527400528666840e+02 -1.2480888261493456e+03 8.3690160096446107e+02 -1.3773638102075097e+01 2.1564107166625490e+00 5.6316811740775847e+00 -4.7710059520616710e+01 3.5021593793248485e+02 5.7992852157272566e+01 -4.0510758545073224e+02 5.4648048024844979e+02 -3.5796737019005832e+01 1.1945228975257123e+01 2.9165132473629228e+01 -1.0757587525659222e+01 2.4232590754422588e+01 -5.6214674553831202e+01 -3.6401317721224245e+01 2.8021783827384780e+01 -2.7597324788177610e+02 -1.3425410815188891e+03 -3.2633471962133385e+00 5.8564966393906559e+00 2.1951390454545390e+00 -7.8176500886581142e+00 -3.4511134375174043e+02 2.4943060432140591e+01 -6.2312732437738781e+01 2.7705554426644875e+02 2.6060631438845490e+02 -8.4050973625265364e+00 2.9800961413053926e+01 -2.0290813479337660e+02 
      </Row>
      <Row Index="30">
        -3.5342652277879694e-01 -2.4878790099520003e+01 -1.0129228882491649e+01 -1.6764832490394927e+01 9.7244509135745886e+01 -1.5581326705186562e+01 7.1618409952274106e+01 1.5892261511460653e+01 6.5121752406044751e+00 2.3926929391759018e+00 7.7870704275085387e+01 8.7243427666234794e+00 1.4541460831133296e+01 2.2034144480244331e+02 1.2846034846352433e+02 -7.1274043699585491e+01 -6.0020219583798564e+00 -1.5107510840399586e+01 2.4225712593489561e+00 -8.8808790016531447e+01 5.3079126228418389e+01 -2.7217788120954765e+01 -8.9096165801166876e+01 -9.3927135390033669e+01 -1.0620897221440532e+02 1.1068548353329669e+01 -2.2783545875237550e+01 6.0172680594489663e+00 2.7618212774348056e+01 5.7992852156595148e+01 1.2708062956655422e+02 -1.7797011609654216e+01 5.5291292843606584e+01 -1.0904645438115371e+02 1.8140632392927643e+00 4.7853617302268979e+01 -2.0937738042739840e+00 -3.1677792246634379e+01 -2.5688070853449840e+01 -2.8150303442956286e+01 6.6345438565796258e+01 7.4750432786381200e+00 3.0876743502903949e+01 3.2034806864770444e+00 -5.8862724343668260e+00 -2.5624491461166894e+00 2.5869095538356930e+01 -4.9539001186027178e+01 1.9370351486192398e+01 -1.7160822942830762e+01 1.0645635434240525e+01 -6.5992933564935203e+00 7.6542175596057840e+00 2.7344038763231357e+01 4.1828830282041887e+00 
      </Row>
      <Row Index="31">
        -3.0181703365076373e+00 1.5342451214961784e+01 -7.4430938435432495e+01 -4.9089841934209701e+00 -2.0691128883382498e+03 -9.8408565206389682e+01 -9.4078974324801675e+02 3.3234575014609709e+02 -3.2038790615986414e+00 6.9777508638552263e+01 1.6288728579282906e+02 1.0058957535638183e+02 1.0010988982591880e+02 -1.5194219119242916e+03 2.3922392427328282e+03 -7.1990974827199443e+02 -8.7117341486849909e+01 -2.9202612290503680e+01 -6.0717025194368489e+01 -8.5557980456610494e+01 -3.2530994007293498e+02 -2.1782597849084368e+01 3.8412382027180975e+03 -2.9898068800967412e+03 1.8809431922504300e+03 8.1371697790345479e+01 1.8533001863015443e+01 -3.2161194353475366e+01 -2.3484390210742276e+00 -4.0510758544224382e+02 -1.7797011604509919e+01 3.3876278892951032e+03 1.2759638269795281e+02 8.1009008314449784e+02 -4.2598958366545958e+01 -6.4141604756696324e-01 1.1496346515937901e+01 3.8562488640152885e+00 -1.3745682550224728e+02 4.5686865688764598e+01 2.9745946230120893e+02 -1.3990828822977762e+03 -3.9220289853041381e+03 5.4735089726551308e+01 7.7921606520461140e-01 3.1754319003100591e+00 1.6030363027237712e+01 2.2991065960893366e+02 5.8207712537953363e+01 4.6914899532161388e+02 4.0480878829074646e+02 9.7234445739203761e+02 1.2284129954020169e+02 -5.9002446838431979e+00 -6.5284518900500211e+02 
      </Row>
      <Row Index="32">
        -1.6714755122962742e+01 -1.1153188034566847e+02 1.1787724624753309e+03 -1.1319505743225889e+01 1.0065254991881746e+03 1.5052508419800874e+03 -3.0165602397772018e+03 2.1088808232839801e+02 7.5606657725068175e+01 7.8411635752388975e+01 1.7489240741854883e+02 -5.4538165590087010e+02 5.8425208865259992e+02 1.2862589847950730e+03 -2.1360244966422979e+03 -1.4134476301180766e+04 -2.9489344474124664e+01 -4.2265615911076429e+02 -6.6009720145848405e+00 1.9296097197409836e+01 -1.2562842436063238e+03 -3.8642886026763153e+02 -3.7791264321381896e+03 -5.2012910097749555e+03 2.0272720192781984e+04 -6.9642466404467996e+01 1.9868709083589783e+02 -8.9263614841183880e-01 1.5732965102200978e+01 5.4648048029143149e+02 5.5291292867787433e+01 1.2759638263704255e+02 1.0669863421297658e+04 1.8467342981522961e+03 -1.0400774197315332e+02 -5.1958608334622113e+01 9.5815802851312419e+00 -4.1176539282432898e+01 -6.0867121671798759e+02 -1.1782336978644338e+01 -1.2972717859661782e+02 -3.4906045527151805e+03 -2.8755199552651968e+04 3.8600834156402435e+01 6.5792718849096076e+01 -9.7969556266816653e+00 4.0217476663826631e+01 -1.7845815464252728e+03 1.6440585157423644e+02 -4.8618446865827778e+01 2.5198220184508032e+03 5.4032637266290503e+03 7.3399797841054323e+01 6.6365453957842419e+01 -3.9220101966796533e+03 
      </Row>
      <Row Index="33">
        3.6024887956272778e+01 1.1471216700347850e+02 2.1421108640024383e+02 -4.1351552529683545e+01 -5.8746223322630931e+02 9.1107824454084451e+01 -2.1706182491584732e+03 2.0160676103933474e+02 -1.0489062747253485e+01 7.4415646538555848e+01 -2.1465584646051866e+01 -2.4762515274655198e+02 1.8364274205557467e+02 -1.0220631220181531e+01 1.8309157713405757e+03 -1.4575914227457997e+03 -5.6601390940633792e+01 -4.6519799301043804e+01 -7.6035779203485617e+01 8.3203937799498817e+01 -4.2572271580964025e+02 -3.8247541093056498e+01 -4.7496245872845975e+01 -4.1753564655725058e+03 4.2874188973235541e+03 -9.7447596439251811e+01 4.0552368154415944e+01 -5.9828690668200579e+00 -1.0599259941173887e+02 -3.5796737002257942e+01 -1.0904645437470481e+02 8.1009008314947278e+02 1.8467342982706753e+03 2.4071334525281254e+03 -1.8734787313670859e+02 -3.8483600375648166e+01 9.0336557850252319e+00 5.0992611221514629e+01 -1.7060063225134400e+02 4.9797361618338378e+01 -4.5336628164653064e+02 -2.7777224368756624e+03 -7.3454424455141689e+03 4.4434595415857913e+01 2.2691242743036511e+01 -1.0067900247848684e+01 -4.9131592216038200e+01 -2.8726763260255075e+02 1.0975539361567563e+02 1.1350329505797541e+02 9.5504455202968370e+02 1.6395996888462305e+03 4.9005666723804055e+01 -1.2560960650299648e+01 -1.1347405356019224e+03 
      </Row>
      <Row Index="34">
        -4.1844226977071912e+00 -1.3349414643597356e+01 2.1821701948193699e+01 5.5568539492151050e+00 5.9811838630665029e+01 8.8840194047608549e+01 2.2851238828325381e+02 -3.1646013367303226e+01 2.7761166403024236e+00 -4.4638928444688872e+00 8.4892023470520144e+00 3.5658734167040848e+01 -5.4088019468038055e+00 -8.6654060493468023e+01 -3.6847612682311120e+02 4.8226497892711677e+01 4.5299117416765284e+00 -5.2775728573822178e+00 3.5702649821670320e+00 -1.2763862515884625e+01 1.3801725913111795e+00 -1.6055540757533890e+00 4.9734514933782293e+01 3.6917857505398797e+02 -2.5285573632000569e+02 2.1893643162642604e+01 1.8374185575861191e+00 2.9344790183471332e+00 9.7442339330804089e+00 1.1945228973034091e+01 1.8140632389485063e+00 -4.2598958370520336e+01 -1.0400774200190565e+02 -1.8734787314317168e+02 4.0456551051801966e+01 1.3868787845430006e+00 -1.2258753176707298e+00 -4.0860412551597864e+00 2.0032786667957986e+01 -4.8803794445463149e+00 5.7860010560808696e+01 2.9459675286870277e+02 5.2989035733880212e+02 -7.2173952657693654e+00 -1.2333317221206030e+00 -3.9082593201223403e-01 3.5411940038228420e+00 1.8381360057716734e+00 -5.7806332014172757e+00 -6.6389646840195837e-01 -6.8085234294023238e+01 -1.1659355353633623e+02 -7.4113718909645305e+00 1.5026146516442509e+00 6.9539746841332231e+01 
      </Row>
      <Row Index="35">
        9.5570395917100370e-01 -1.2642416119122856e+01 -3.8924384580956892e+00 1.8742644851455267e+01 9.1955959629188996e+01 2.8163829366649992e+02 1.0837757504961053e+02 -4.9281419670068090e+00 1.8997552392454747e+01 -1.8958788332057566e+00 3.4258914049800296e+01 3.8593233314437839e+01 -2.9962764309895476e+01 1.0134360600567334e+02 -3.4036470290887149e+02 7.1314893356446134e+01 3.9229959715771656e-01 -3.9237460882422056e+01 -2.6080514017450582e+00 -3.3738533987915957e+01 -2.0611958706467306e+01 -5.2860347775908892e+01 -9.6018558602386690e+01 -1.6795215204764827e+02 -2.7847185059005471e+02 8.0169530148496051e+00 -2.4362508420318846e+01 1.9231271692117389e+00 6.8539612671597183e+00 2.9165132473520316e+01 4.7853617301947146e+01 -6.4141604694032139e-01 -5.1958608335917944e+01 -3.8483600373822924e+01 1.3868787841439598e+00 5.1796701843495384e+01 -1.6713948754344574e+00 -6.4782074518442103e+00 -1.3791108834545316e+00 -1.4013129960043370e+01 1.2941026023002292e+01 -4.3969674964393164e+00 3.2860534735571764e+02 2.1815709233442391e+00 -4.5042704959119284e+00 6.5306129770149823e-01 9.9157804116777690e+00 -1.8255683375492893e+01 -1.9513018141114106e+01 -1.2415009554087749e+01 -3.0780282882684658e+00 -6.4125019531153953e+01 5.1553791469147292e-01 3.0612441055437959e+01 5.0298481915167521e+01 
      </Row>
      <Row Index="36">
        4.7374346577820248e-02 -3.5214466112873311e-01 -1.5911483312825623e+00 -2.0478876370541803e+00 -9.8340062707069968e+00 -3.1612605855603391e+01 -1.7502647442375917e+01 2.7852887459862288e+00 -7.5724036614306811e-01 1.8526319128063129e+00 4.5930618430739401e-01 -8.4243137330155022e+00 3.2390973265461867e+00 -9.4023445533529184e+00 5.6550534429867312e+01 4.2957805893015646e+00 -3.7968039291603617e-01 1.4352456445723507e+00 8.9529257374522153e-01 9.9801111331889558e-01 -1.1050136688251637e+00 -5.2982335982259432e-01 1.6898725973458461e+01 -4.8444167376608505e+00 1.3648953629111602e+01 -7.4315608106336484e-01 3.9969946869760520e-01 1.6930539602089709e+00 9.4355057179875779e-01 -1.0757587525560133e+01 -2.0937738042441283e+00 1.1496346516054416e+01 9.5815802863907891e+00 9.0336557852497776e+00 -1.2258753176645953e+00 -1.6713948754402708e+00 1.2182922912044625e+00 -6.1653197487651890e-01 -3.6381317395641533e-01 1.6289296949669523e+00 -1.8013387305980197e+00 -1.6285684672787450e+01 -2.5647950678724431e+01 4.8668229700227994e-01 1.1096209859650084e-01 -1.4467194571506772e+00 2.4445688719679448e-01 4.9304743284191375e+00 1.9635109357038216e-01 2.2655367573754881e+00 1.2361959588681961e+00 5.9749097094192383e+00 8.7363566162279216e-01 -1.0696701937266866e+00 -3.6723652374444362e+00 
      </Row>
      <Row Index="37">
        3.0976861204884472e+00 4.0954542426020225e+01 1.9680276714331800e+01 8.1982264331020644e+00 -3.6889148406748291e+01 2.0440657018858693e+02 -5.4003499619643208e+01 -1.0879067677154353e+01 6.4192210976270587e+00 -1.3562436149049972e+00 -9.9002564733653344e+01 2.7660312168614382e+01 -1.7245656765878152e+01 4.7317106625315773e+01 -4.6025504767845507e+02 -2.8632235466642635e+02 7.2408753376744244e+00 -1.0084887349884106e+01 -8.7410655041367136e-02 6.6280608160264478e+01 -1.7616138335510499e+01 4.0526596808716789e+01 -1.2805602177497565e+02 5.7754804213510852e+01 4.5543916650059373e+02 -6.0301660414795322e+00 -1.4147551502639715e+00 2.5005115199348893e-01 -7.1224721706664809e+01 2.4232590754899775e+01 -3.1677792246187337e+01 3.8562488634556757e+00 -4.1176539281667829e+01 5.0992611218584670e+01 -4.0860412544926703e+00 -6.4782074518968784e+00 -6.1653197489569256e-01 4.4862609321889927e+01 -7.1507103631957314e-01 7.3430598943631384e+00 -4.5321695336397795e+01 1.0752325221473424e+02 -5.1868949825617733e+02 -2.5243178738932741e+00 -2.4387661028362029e-01 -6.1849590881274707e-01 -3.0006791341562110e+01 -3.0859350429747110e+01 1.6906393913209495e+01 -2.7673111306898006e+00 2.2941821847070759e+01 9.8594490519042324e+01 -4.8458935854508498e+00 -9.3803298854527384e-01 -8.0469120405926375e+01 
      </Row>
      <Row Index="38">
        5.5521982488650679e+00 1.5188625560231003e+01 -5.1544000091049341e+01 -2.5888211204803383e+01 -5.4837505513344468e+01 -3.4565496112358210e+02 2.9954862059166999e+02 -7.6782778607379896e+01 -6.0756108902729569e+00 -2.5324607644502635e+01 -1.0463184204212666e+01 2.4140143883357041e+01 -4.2637376672134451e+01 6.1280517569000040e+01 -4.2809460380935775e+01 4.3658343601369324e+02 -1.2324210563673205e+01 4.1453898027310117e+01 -3.9468180831670452e-01 -1.4557030975071029e+01 7.9729241290670245e+01 2.5855151118690685e+01 4.1985066786916150e+01 1.0270292435354468e+03 -7.6412551377774707e+02 1.6275854223579415e+01 -1.6453199222727221e+01 -9.1987605727988466e+00 5.0053431892049502e+00 -5.6214674555492820e+01 -2.5688070854356667e+01 -1.3745682549749381e+02 -6.0867121671018322e+02 -1.7060063224392752e+02 2.0032786666427000e+01 -1.3791108833090675e+00 -3.6381317389245971e-01 -7.1507103643676828e-01 1.2605039725049664e+02 -4.3039300014814499e+00 -1.8314082618757318e+01 4.5332569411430859e+02 1.2573401528347554e+03 -1.2563683858821172e+01 -5.1498670983049744e+00 8.4183407779970594e+00 -1.1917079364034979e+00 1.6545994852531447e+02 -2.6574006220021424e+01 -2.0739272159347067e+01 -2.0876125928044198e+02 -2.6487440545458730e+02 -2.8755712422787045e+01 -8.3775074273115706e+00 1.7459069428294524e+02 
      </Row>
      <Row Index="39">
        -2.1466288095965123e+00 7.2736388253086375e+00 -1.3677749170839403e+01 3.0920694123365466e+00 -4.2188294801406130e+01 -4.9857313051233973e+01 -7.1222588743284859e+01 1.0789169119770932e+01 -1.0734189638652178e+00 4.9003131418658832e+00 -1.8058153855356466e+01 -1.4801199513463530e+01 2.2165885320652059e+00 -6.1657710491672148e+01 8.6463696787821803e+01 1.0000496627288470e+02 -3.0220170746919379e+00 4.4630759774548654e+00 1.6628379154316697e-01 2.6490673160768658e+01 -6.5395042799990488e+00 1.2057059347999630e+01 8.7652174106011557e+01 -1.9858115177985070e+01 1.5887908835284321e+01 -3.9860863194213128e+00 2.7392291043983779e+00 -1.6556384904628629e+00 -1.3284106610504637e+01 -3.6401317721185947e+01 -2.8150303442910069e+01 4.5686865689396647e+01 -1.1782336974878604e+01 4.9797361618935632e+01 -4.8803794445434789e+00 -1.4013129960106177e+01 1.6289296949720091e+00 7.3430598944470669e+00 -4.3039300015828550e+00 1.7253701907810136e+01 -3.9687731465830147e+00 -1.1707269122251647e+01 9.6776556877166797e-01 2.0197517051734986e+00 1.3858893504988967e-01 -8.3903892757815512e-02 -8.1727439494481686e+00 2.5761493166718704e+01 -4.2891427235063873e-01 1.1264088519371246e+01 -2.9892118788041344e+00 6.1515774719554708e+00 3.2629753706166866e+00 -7.3136520240191496e+00 -3.3003526578015379e+00 
      </Row>
      <Row Index="40">
        -9.9760423242657552e+00 -3.7730602725807984e+01 -3.1848107146647944e+01 1.4146787180541455e+01 -1.1259432352034761e+02 2.1045620466152275e+02 4.9108389118035274e+02 5.6064540365969975e+01 9.6635328462296695e+00 4.7522965363285721e+00 2.8448141137278117e+02 -6.7753739135641808e+00 -3.7238169593713664e+01 -1.8101630842298982e+02 -4.3184745270865795e+02 3.5588489515454626e+01 -5.9468120103523319e+01 -1.1902653130490203e+01 -5.8741353432550625e+00 -2.6709548267789705e+02 8.9407428294234279e+01 -1.3298352701267142e+01 8.0387502325364233e+02 4.3041918340922666e+02 -3.6931934884988357e+02 9.5443723318666983e+01 -9.3493291000424676e+00 -1.1214670942249967e+01 6.5865354458460672e+01 2.8021783824472209e+01 6.6345438566187951e+01 2.9745946229052862e+02 -1.2972717865449670e+02 -4.5336628166304513e+02 5.7860010561624051e+01 1.2941026023857802e+01 -1.8013387306445985e+00 -4.5321695337853676e+01 -1.8314082616476277e+01 -3.9687731467196379e+00 5.9549266524610118e+02 4.0765885288170188e+02 2.0660884308934314e+02 5.2169825942798171e+00 -4.4980873849796055e+00 6.9985520242229455e+00 5.3193751291148324e+01 -8.6524182535878467e+00 -3.5596769700016466e+01 6.3692170034753985e+01 -8.6093526345227531e+01 -4.1112836955447548e+01 3.2260050503725395e+01 1.2523643452176934e+01 1.7428442955833695e+01 
      </Row>
      <Row Index="41">
        1.0081393586833656e+01 4.7298214820306475e+02 3.2202082940864193e+02 -2.4366679638238179e+02 4.7142668796575344e+02 1.1085910472016888e+03 4.8467902920171800e+03 -8.8505683452843550e+02 1.8844170415682663e+02 -2.5475600216102066e+01 -8.3484300748411624e+02 7.8509965966737946e+02 2.2618999925024218e+02 -1.0200146161169469e+03 -1.0211111307330542e+04 1.4167641073148752e+03 8.4417216816545988e+00 -1.7582379607780126e+02 2.4030417634634432e+01 -7.3225085281843349e+01 4.0609093402728695e+02 4.2990139160627359e+02 -4.3708862355286328e+02 1.1900109369569363e+04 -2.9859009580503553e+03 2.8291276831646928e+02 -1.4289426917129276e+01 4.1184383368881754e+01 -4.3343642947160151e+02 -2.7597324795504574e+02 7.4750432743912825e+00 -1.3990828824666678e+03 -3.4906045537841492e+03 -2.7777224371685552e+03 2.9459675287972095e+02 -4.3969674816653423e+00 -1.6285684673344349e+01 1.0752325218948863e+02 4.5332569417241075e+02 -1.1707269124077357e+01 4.0765885287270430e+02 1.1385939218037369e+04 1.1310780513116551e+04 -1.7370185150597877e+02 -7.7186470887163523e+01 -2.7395227715451256e+01 -2.1213802800218249e+02 1.8568923279841965e+02 2.9545721523621336e+02 -1.7421327369904066e+02 -1.9152935021784369e+03 -2.5854502891664824e+03 -2.8259367832455990e+02 2.2670561859721602e+01 1.2748887167904470e+03 
      </Row>
      <Row Index="42">
        2.5414505795866717e+01 -5.3444609253900126e+01 1.8167566565347634e+03 -3.1888365825981600e+02 3.1258750179293565e+02 3.0648721469489246e+04 2.6574947990096640e+04 -1.9416706437012181e+03 4.6605605900605951e+01 -9.1874215036979876e+01 -1.2785869433730841e+02 1.0874027322072070e+03 2.9773330908268690e+01 -1.7029086602945812e+04 1.8964156208217610e+04 1.2986125672025117e+05 2.3352232753066346e+01 -3.8252620894827123e+02 -5.4253604406316299e+01 4.9209492093883455e+01 -4.1088747805415187e+02 3.4001414506300353e+02 1.9737662251605652e+04 -2.7422514721271582e+04 -1.8370241403367603e+05 8.0207521201355848e+02 -2.3430348772672005e+00 5.5401116295368411e+01 3.5421539330389351e+02 -1.3425410856849048e+03 3.0876744306835462e+01 -3.9220290034099016e+03 -2.8755199646292254e+04 -7.3454424781361595e+03 5.2989036010601558e+02 3.2860534841613844e+02 -2.5647950799640967e+01 -5.1868949992733542e+02 1.2573401573031235e+03 9.6776542405132204e-01 2.0660884546069428e+02 1.1310780589124310e+04 3.1266685974266438e+05 -4.4088366181679157e+02 -1.7669742286516706e+02 -9.7862851422978565e+00 8.0545669181395851e-01 5.7964199556841049e+02 2.1139947143097146e+02 1.3319517453520632e+02 -8.5054560845163160e+03 1.0881605142274045e+05 -6.7137926097103627e+02 1.4465063987924441e+02 -1.2258842682790635e+05 
      </Row>
      <Row Index="43">
        -2.1460880017258432e-01 -6.5095136336115047e+00 -4.1173230439124055e+01 9.1343994051079989e+00 4.4033944250374020e+01 -8.9250723569404840e+01 -1.0943024955784449e+02 3.5428433259611325e+01 -2.5365762211012379e+00 2.1051812386996858e+00 1.2734188591914972e+01 -9.8920904721313718e+00 -1.2171238726657577e+01 2.0883911362630897e+01 2.0381483004068485e+02 -1.4314224170598453e+02 1.4319517424258947e+00 4.0923547586357572e+00 -1.1399063335816209e+00 -1.3943362988902663e+00 1.0741161948743070e+00 -1.0686711924685270e+01 3.8087898978969235e+01 -1.6481719002341333e+02 2.2937637709765522e+02 -4.0549698942208749e+00 -3.0788818476864037e+00 -2.2801095007293384e+00 5.0696322743822861e+00 -3.2633471945290466e+00 3.2034806868565653e+00 5.4735089728720823e+01 3.8600834175260843e+01 4.4434595419626362e+01 -7.2173952656808069e+00 2.1815709231261735e+00 4.8668229700091103e-01 -2.5243178734825733e+00 -1.2563683859947901e+01 2.0197517051533822e+00 5.2169825949953861e+00 -1.7370185149550173e+02 -4.4088365967877178e+02 1.2480915575263626e+01 5.6996716875450559e-01 7.1433682718432578e-01 3.6178374587305973e+00 1.6283718639565450e+01 -1.2132128054068318e+01 6.2786787251550313e+00 3.3589467894871014e+01 9.6979886806220634e+01 1.3653341724929078e+01 6.6102926815051433e-01 -5.9003356345287720e+01 
      </Row>
      <Row Index="44">
        -7.6503474982445141e-02 -2.1066927553629569e+00 7.4696900235703509e+00 1.3399969033129651e+00 -3.4795958975206531e-01 3.6452692429109961e+00 -4.0045477007182171e+01 4.4646862383184782e+00 -2.6653634352565927e+00 2.6198097922740260e-01 9.3344569716805381e-01 -8.8087719070907156e+00 4.7036910497207032e+00 -8.1386696617187226e-02 4.1346060744189529e+01 -6.4443841677228619e+01 4.6713004380086431e-01 2.2216012596049559e+00 -1.2978252602678708e-01 2.5375172094319964e+00 -9.8043152229682136e+00 -3.6393859329978540e+00 -1.5848715413347747e+01 -8.6177676914547419e+01 1.0640599810633501e+02 -2.2870695661523968e+00 4.1202237588075121e+00 -7.5604841763606601e-02 3.5990203595149950e+00 5.8564966398795661e+00 -5.8862724342516461e+00 7.7921606572579094e-01 6.5792718853819906e+01 2.2691242743818293e+01 -1.2333317220368656e+00 -4.5042704959820981e+00 1.1096209859388040e-01 -2.4387661016813666e-01 -5.1498670985840000e+00 1.3858893504715653e-01 -4.4980873846724592e+00 -7.7186470882110271e+01 -1.7669742207539383e+02 5.6996716871603148e-01 2.0026359830672833e+00 8.3096590641744683e-03 8.1116679451977958e-01 -1.1024844992546043e+01 -1.5316881009796219e+00 9.5027762624694700e-01 2.3036139129359494e+01 3.6154006449952128e+01 1.2750536680641282e+00 -2.4310861706408708e+00 -2.3564070407702431e+01 
      </Row>
      <Row Index="45">
        -1.5200066384694448e+00 -2.2251760472056592e+00 -1.5615374669409395e+01 5.3616040500819171e+00 -1.5332067070078139e+00 -1.2639778572992675e+01 -4.3363440018609616e+00 4.8709184131909318e+00 -9.7237964076400996e-01 -6.9434183269713499e+00 3.7646610375420835e+00 7.7364336572837900e+00 -1.3322849046338760e+01 1.8852830533763878e+01 3.6239253486102541e+01 -4.1977646986031250e+00 -8.9877949391965828e-01 3.1569822505561693e+00 -1.9227214975727662e+00 -3.6638794881680745e+00 2.4595200519135028e+00 -4.4259196585943350e+00 1.4431853226264234e+01 2.0319543932761803e+00 -1.8548815853764452e+01 -1.2904913845977557e+00 -1.7738635870395756e+00 -9.9402570154051411e+00 -1.0966623679413807e+00 2.1951390460521356e+00 -2.5624491461114203e+00 3.1754319024887714e+00 -9.7969556151493151e+00 -1.0067900244344806e+01 -3.9082593224988926e-01 6.5306129756957176e-01 -1.4467194571392905e+00 -6.1849590858382664e-01 8.4183407773697390e+00 -8.3903892733732333e-02 6.9985520241912980e+00 -2.7395227720143890e+01 -9.7862847813533875e+00 7.1433682738848026e-01 8.3096591367703976e-03 6.7765099220508720e+00 8.6939958624648850e-01 1.8213776567266265e+01 -1.1204295777685232e+01 -3.4979441111338661e-01 -2.5011379612670166e+00 3.6365478255246000e+00 1.5697100791431888e+00 7.9443452284118976e-02 1.5143242426385446e+00 
      </Row>
      <Row Index="46">
        -3.0410664609786124e+00 -3.8701804627845959e+01 -2.2616503665769919e+01 4.6570138735903122e+00 3.0605287261694400e+01 -1.4029488146320756e+02 1.9303767486954371e+01 1.3537068409644959e+01 -5.7396228067719255e+00 4.4422978438784355e-01 9.8329334985939454e+01 -2.6375193654775089e+01 -1.2689169699301260e+01 5.3701090961434204e+01 3.0546843798087366e+02 9.5965069806382104e+00 -9.4769872592342779e+00 9.6280837733632225e+00 -2.3820249103447111e-01 -6.0273237641417637e+01 1.3472484950002301e+01 -3.8947414028804758e+01 5.4752743791414517e+01 -5.2402991117291208e+01 -1.4356259822361420e+02 8.7825941946373263e+00 -2.4372980501142152e+00 2.3515134910422830e-01 6.3586350726350368e+01 -7.8176500873048411e+00 2.5869095538294872e+01 1.6030363030641240e+01 4.0217476684114104e+01 -4.9131592208892926e+01 3.5411940032594487e+00 9.9157804114947794e+00 2.4445688721381131e-01 -3.0006791341122966e+01 -1.1917079376841500e+00 -8.1727439493931548e+00 5.3193751290611601e+01 -2.1213802801609904e+02 8.0545735804770402e-01 3.6178374591554743e+00 8.1116679468050812e-01 8.6939958627364433e-01 2.8577268271882872e+01 2.2591745201632591e+01 -2.9969639389356853e+01 -5.1611801346188813e-02 -4.4295074502345351e+00 3.3812278600478614e+00 6.0137856912117531e+00 3.1379110257212730e+00 1.2746365729293448e+01 
      </Row>
      <Row Index="47">
        -1.2083351199262609e+01 -3.4462463517569404e+01 -5.5025938101000622e+02 -1.5011578093681862e+01 -1.8028399205764185e+02 -2.6967490025202492e+03 -2.9027295198499087e+02 7.4235792073787707e+01 -3.8994972905985435e+01 -2.9975590975978548e+01 2.7869164383216230e+01 4.8953073237222952e+01 -8.5027770286979262e+01 5.3013963014906949e+01 1.5642170656104461e+03 4.7783409680742989e+02 1.7797164631110718e+00 1.7575905055958020e+02 1.4474416389138241e+01 9.2805395440075245e+00 3.9721410939193981e+02 2.3799492661901184e+01 5.3872438653459585e+02 3.0225341149002302e+03 -4.6105879247168787e+02 -1.8059762806178242e+01 -6.3032436151860850e+01 -2.8377775382168693e+01 8.1071321852599681e+01 -3.4511134374203209e+02 -4.9539001185899764e+01 2.2991065964283007e+02 -1.7845815462191104e+03 -2.8726763254095385e+02 1.8381360009288983e+00 -1.8255683377012474e+01 4.9304743286421626e+00 -3.0859350426263831e+01 1.6545994851530679e+02 2.5761493166736614e+01 -8.6524182565211731e+00 1.8568923267937635e+02 5.7964199758469908e+02 1.6283718643595634e+01 -1.1024844991138792e+01 1.8213776567651450e+01 2.2591745202445257e+01 7.6315963199804150e+02 -8.1238840095580244e+01 3.1891140203963257e+01 -5.7419195248348024e+02 -9.9477455785248225e+01 2.5525776969328348e+01 -4.4244349540983322e+01 1.3171823517698610e+02 
      </Row>
      <Row Index="48">
        5.9558790538435957e+00 4.5396356689920069e+01 7.3692232380176861e+01 -8.1481190065268123e+01 -1.7709989673708878e+02 -1.5890828118999804e+02 -9.9393796324839172e+01 -1.7946128257787990e+01 2.0345261878211618e+00 1.0990410043645042e+01 -9.3829493503324329e+01 -1.6885475220253454e+00 1.5842190003972200e+02 -2.1627820789680004e+02 1.2602857514817239e+02 2.6711838161835203e+02 8.8175528425309437e+00 -5.6838725041575451e+00 2.9454257049370511e+00 6.1918027191760444e+01 4.6770002028077243e+01 1.0500378268050510e+02 -3.6330558648618876e+00 2.9340212976135410e+02 6.3686199158812258e+01 5.5079891165411041e+00 1.2642170993397741e+00 1.3254507335111725e+01 -6.3857655807134506e+01 2.4943060428469721e+01 1.9370351486044434e+01 5.8207712526764055e+01 1.6440585151626215e+02 1.0975539359759711e+02 -5.7806332003140142e+00 -1.9513018140491141e+01 1.9635109352636704e-01 1.6906393911944981e+01 -2.6574006216492407e+01 -4.2891427250772551e-01 -3.5596769700042984e+01 2.9545721525497510e+02 2.1139946840111901e+02 -1.2132128055026703e+01 -1.5316881013269903e+00 -1.1204295777609914e+01 -2.9969639388994867e+01 -8.1238840091717861e+01 1.5927284514885901e+02 2.1173630395856406e+01 -7.4810898266599111e+00 -6.2457679022714956e+01 -8.9457635334488295e+00 -9.2132241878805416e+00 1.6092743346869728e+01 
      </Row>
      <Row Index="49">
        -1.3938742456143949e+00 1.8444365612724880e+00 -5.7683350464495717e+00 -5.9703237423621331e+00 -3.5114883199625893e+02 3.9738226392247370e+01 -9.9364723178614867e+01 4.8791651541867694e+01 -2.9550027111935240e+00 1.1154367205025693e+01 2.4893131339164398e+01 3.5283817409846812e+00 3.2347477494994408e+01 -3.8046297247705314e+02 5.0599477802441982e+02 3.1339075739372657e+02 -8.3111468536526480e+00 -1.4669660239673907e+00 -7.9245113086226304e+00 -8.9021127623798435e+00 -3.7307886130989431e+01 1.0551493218137537e+01 7.1230953012606631e+02 -5.8117232828660519e+02 -2.2744523568124848e+02 1.1483816371170025e+01 8.4664985153264123e+00 -4.2297590017246236e+00 -2.2924786476118371e+00 -6.2312732438327572e+01 -1.7160822942708108e+01 4.6914899532084479e+02 -4.8618446870446192e+01 1.1350329505620265e+02 -6.6389646824153559e-01 -1.2415009554127341e+01 2.2655367573784142e+00 -2.7673111308265526e+00 -2.0739272159161402e+01 1.1264088519377079e+01 6.3692170035001851e+01 -1.7421327369398642e+02 1.3319517460966534e+02 6.2786787250582865e+00 9.5027762619884104e-01 -3.4979441116375831e-01 -5.1611801364804477e-02 3.1891140204467888e+01 2.1173630396274223e+01 7.9363976244108144e+01 4.4464604319338868e+01 1.0163282646153046e+01 1.7885279016462100e+01 -7.3175913459098361e+00 -2.1010659303099977e+00 
      </Row>
      <Row Index="50">
        9.9495647297894720e+00 -1.1598742919086362e+00 2.9764357149356147e+02 6.2132823658813777e+01 -1.6176676643420251e+02 1.2625860645464636e+03 -1.2187180615505131e+03 1.3339976032058439e+02 -1.3149898654928762e+00 2.5914471339690863e+01 4.3379827220531297e+01 -1.5718211914202402e+02 4.0870345970753988e+01 2.9210983236216998e+02 2.5406903848269030e+02 -3.6550049385140428e+03 4.7664917888832861e+00 -1.0143109283197975e+02 -2.0258374314410503e+01 -3.7010759465010779e-01 -4.2360471583900289e+02 -1.2140685234598368e+02 -3.3080310663238924e+02 -4.2792080662766311e+03 5.4048556119997156e+03 -6.6935372936761723e+01 6.7368149349685154e+01 -2.0779878725061280e+00 -5.7908963649175348e+01 2.7705554428055257e+02 1.0645635441332161e+01 4.0480878828100322e+02 2.5198220184813181e+03 9.5504455200385200e+02 -6.8085234285605111e+01 -3.0780282889245427e+00 1.2361959585325621e+00 2.2941821847948631e+01 -2.0876125928462446e+02 -2.9892118795964961e+00 -8.6093526327078507e+01 -1.9152935018455723e+03 -8.5054560526700734e+03 3.3589467889481057e+01 2.3036139128037973e+01 -2.5011379649781702e+00 -4.4295074572867748e+00 -5.7419195254828219e+02 -7.4810898073968701e+00 4.4464604321532022e+01 1.0319928628753501e+03 1.7237811460528374e+03 4.4808247132442830e+01 2.1738101176238615e+01 -1.2240351144292499e+03 
      </Row>
      <Row Index="51">
        -6.4677226915955544e+00 -5.8564629172906280e-01 -3.9841925743990578e+02 7.7931320084142499e+01 -2.7710135637968779e+02 -5.6938402381315827e+03 -5.7289604468587786e+03 4.1925839492306113e+02 -1.7018206646713224e+01 2.0029321675188839e+01 3.6301029209047556e+01 -2.5935157391894609e+02 -3.7070104530081153e+01 3.1854940196648240e+03 -2.8338211307185702e+03 -2.7513625702290330e+04 -4.9326371243223548e+00 8.4727868228859734e+01 9.8985837383661419e+00 -5.1083446945995092e-01 1.0550786111643538e+02 -6.8905108486535028e+01 -3.3193590547526255e+03 4.0929949410147965e+03 3.8901681936794892e+04 -1.6434068589052185e+02 6.3599584065377712e-01 -1.4707239510957152e+01 -6.5755657287547365e+01 2.6060630364390090e+02 -6.5992901823483407e+00 9.7234440303873271e+02 5.4032634563967586e+03 1.6395995904617012e+03 -1.1659354460891336e+02 -6.4125016379170120e+01 5.9749093211721629e+00 9.8594485640758649e+01 -2.6487439277389785e+02 6.1515769147081301e+00 -4.1112828200682998e+01 -2.5854500348977745e+03 1.0881605431576562e+05 9.6979880033701193e+01 3.6154004008159973e+01 3.6365464159753174e+00 3.3812253093637992e+00 -9.9477467926451936e+01 -6.2457668387913145e+01 1.0163282535067992e+01 1.7237810528804548e+03 4.8297983704551356e+05 1.4573038731340785e+02 -2.9939354217205846e+01 -4.8024168190191267e+05 
      </Row>
      <Row Index="52">
        -2.2988132564913428e+00 -1.4853586435025591e+01 -5.6735188408232545e+01 1.2945197007332013e+01 1.8352804910377927e+01 -1.8675559438627852e+02 -1.9674078373965108e+02 6.6117159032643144e+01 -3.9045721668410849e+00 3.1620901322958730e+00 2.2703781059473840e+01 -6.6684915350768961e+00 -5.7223318880195393e+00 -6.7682938469661167e+00 3.0191477408791758e+02 -1.9478943724873443e+02 2.5564904576781373e+00 6.0828072783048981e+00 2.4850469301190969e-01 -4.3282888357988440e+00 1.0327450952298534e+01 -1.3466566695050318e+01 1.0610379944892065e+02 -2.0268415612704666e+02 3.3414430327452760e+02 -9.0181312475558855e+00 -1.8818678180819859e+00 -4.2964336923811288e+00 6.2639648671227519e+00 -8.4050973597552456e+00 7.6542175601650797e+00 1.2284129954399987e+02 7.3399797874212254e+01 4.9005666730858593e+01 -7.4113718909322870e+00 5.1553791430183082e-01 8.7363566162569839e-01 -4.8458935847375528e+00 -2.8755712424689204e+01 3.2629753705844706e+00 3.2260050504678020e+01 -2.8259367831107079e+02 -6.7137925769928324e+02 1.3653341725005873e+01 1.2750536681545022e+00 1.5697100788359251e+00 6.0137856905720675e+00 2.5525776963208187e+01 -8.9457635320385549e+00 1.7885279016561668e+01 4.4808247141972060e+01 1.4573039780760715e+02 2.3964194579930478e+01 -7.3587996552393520e-01 -8.5161389018913468e+01 
      </Row>
      <Row Index="53">
        3.5211023623464399e-01 -4.5849549681968966e+00 2.1442591213987825e+01 1.3154767254314486e+01 5.8809487268562862e+01 3.2342315502365398e+02 8.7675723450280600e+01 -6.4366833215770214e+00 1.8354574073923498e+01 6.8444704635551545e-01 1.5992403268689372e+01 2.5404203811615872e+01 -1.4422544315302190e+01 5.0000090785635848e+01 -3.4350095532654314e+02 -3.7574653281034216e+00 -7.9525432676916807e-02 -4.0838257856628715e+01 -1.9727047431922102e+00 -1.8472451115494522e+01 -3.7713313031864381e+01 -3.0913707925077070e+01 -7.0866308491167956e+01 -2.2276375498485697e+02 -1.1287969054814732e+02 5.2045457688774377e+00 -1.5461883913769860e+01 1.0887746447906750e+00 -4.5949817623546920e+00 2.9800961412462755e+01 2.7344038763087049e+01 -5.9002446854656228e+00 6.6365453945309582e+01 -1.2560960652944459e+01 1.5026146517090808e+00 3.0612441055547691e+01 -1.0696701937371742e+00 -9.3803298873590535e-01 -8.3775074268405305e+00 -7.3136520239969407e+00 1.2523643451919185e+01 2.2670561858478777e+01 1.4465063913225771e+02 6.6102926803699624e-01 -2.4310861706847389e+00 7.9443452331695141e-02 3.1379110257870586e+00 -4.4244349540218600e+01 -9.2132241879870413e+00 -7.3175913458577142e+00 2.1738101172860802e+01 -2.9939356798387436e+01 -7.3587996566139680e-01 2.2649850975582588e+01 1.9874414808813782e+01 
      </Row>
      <Row Index="54">
        1.5990813323296607e+00 -3.2761362450663000e+01 2.1503506892290898e+02 -3.4904716061428189e+01 2.4421635382156819e+02 3.8631673416625708e+03 4.0315958537086844e+03 -2.4276338258665055e+02 8.4150722026970470e-01 -1.5961505900137126e+01 2.6245135247707367e+01 1.6871660109749064e+02 -2.1304411492310464e+00 -2.2519546781890094e+03 2.6322799038300291e+03 2.0850867316718679e+04 6.8907243125140667e+00 -4.1781291163759306e+01 -6.9968449701555073e+00 2.3282255837693810e+00 -6.9372439646162093e+01 2.0247363656526431e+01 2.4109068352989852e+03 -3.2372352101579309e+03 -2.9428228530285880e+04 1.0169919985858724e+02 -7.5892727575264871e+00 4.5455183503217995e+00 8.0545509251300246e+01 -2.0290812401799485e+02 4.1828798672650009e+00 -6.5284513464756310e+02 -3.9220099262371659e+03 -1.1347404372133315e+03 6.9539737925864756e+01 5.0298478761687875e+01 -3.6723648495972157e+00 -8.0469115524669178e+01 1.7459068158843729e+02 -3.3003521023783833e+00 1.7428434228990227e+01 1.2748884629774839e+03 -1.2258842966928892e+05 -5.9003349578677444e+01 -2.3564067967148731e+01 1.5143256464507431e+00 1.2746368269872619e+01 1.3171824721130542e+02 1.6092732739576604e+01 -2.1010658172308467e+00 -1.2240350212093908e+03 -4.8024168174637953e+05 -8.5161378536024131e+01 1.9874412233475596e+01 4.7829485897237208e+05 
      </Row>
    </InverseHessian>
  </Weights>
</MethodSetup>
