<?xml version="1.0"?>
<MethodSetup Method="BDT::BDT">
  <GeneralInfo>
    <Info name="TMVA Release" value="4.1.4 [262404]"/>
    <Info name="ROOT Release" value="5.34/05 [336389]"/>
    <Info name="Creator" value="clester"/>
    <Info name="Date" value="Tue Mar 18 21:44:07 2014"/>
    <Info name="Host" value="Darwin pb-d-128-141-154-76.cern.ch 12.2.1 Darwin Kernel Version 12.2.1: Thu Oct 18 16:32:48 PDT 2012; root:xnu-2050.20.9~2/RELEASE_X86_64 x86_64"/>
    <Info name="Dir" value="/Users/clester/LAST"/>
    <Info name="Training events" value="1093"/>
    <Info name="TrainingTime" value="5.18626809e+00"/>
    <Info name="AnalysisType" value="Regression"/>
  </GeneralInfo>
  <Options>
    <Option name="V" modified="Yes">False</Option>
    <Option name="VerbosityLevel" modified="No">Default</Option>
    <Option name="VarTransform" modified="No">None</Option>
    <Option name="H" modified="Yes">False</Option>
    <Option name="CreateMVAPdfs" modified="No">False</Option>
    <Option name="IgnoreNegWeightsInTraining" modified="No">False</Option>
    <Option name="NTrees" modified="Yes">1000</Option>
    <Option name="RenormByClass" modified="No">False</Option>
    <Option name="BoostType" modified="Yes">AdaBoost</Option>
    <Option name="AdaBoostR2Loss" modified="No">quadratic</Option>
    <Option name="UseBaggedGrad" modified="No">False</Option>
    <Option name="GradBaggingFraction" modified="No">6.000000e-01</Option>
    <Option name="Shrinkage" modified="No">1.000000e+00</Option>
    <Option name="AdaBoostBeta" modified="Yes">3.000000e-01</Option>
    <Option name="UseRandomisedTrees" modified="No">False</Option>
    <Option name="UseNvars" modified="No">2</Option>
    <Option name="UsePoissonNvars" modified="No">True</Option>
    <Option name="UseNTrainEvents" modified="No">1093</Option>
    <Option name="UseWeightedTrees" modified="No">True</Option>
    <Option name="UseYesNoLeaf" modified="No">False</Option>
    <Option name="NodePurityLimit" modified="No">5.000000e-01</Option>
    <Option name="SeparationType" modified="No">regressionvariance</Option>
    <Option name="nEventsMin" modified="Yes">50</Option>
    <Option name="nCuts" modified="Yes">30</Option>
    <Option name="UseFisherCuts" modified="No">False</Option>
    <Option name="MinLinCorrForFisher" modified="No">8.000000e-01</Option>
    <Option name="UseExclusiveVars" modified="No">False</Option>
    <Option name="PruneStrength" modified="No">0.000000e+00</Option>
    <Option name="PruneMethod" modified="No">nopruning</Option>
    <Option name="PruneBeforeBoost" modified="No">False</Option>
    <Option name="PruningValFraction" modified="No">5.000000e-01</Option>
    <Option name="NNodesMax" modified="No">100000</Option>
    <Option name="MaxDepth" modified="Yes">2</Option>
    <Option name="DoBoostMonitor" modified="No">False</Option>
    <Option name="NegWeightTreatment" modified="No">inverseboostnegweights</Option>
  </Options>
  <Variables NVar="5">
    <Variable VarIndex="0" Expression="winfrac1-winfrac2" Label="winfrac1-winfrac2" Title="winfrac1-winfrac2" Unit="" Internal="winfrac1_M_winfrac2" Type="F" Min="-5.04464269e-01" Max="6.11607134e-01"/>
    <Variable VarIndex="1" Expression="avg_scorediff1-avg_scorediff2" Label="avg_scorediff1-avg_scorediff2" Title="avg_scorediff1-avg_scorediff2" Unit="" Internal="avg_scorediff1_M_avg_scorediff2" Type="F" Min="-2.33035717e+01" Max="2.90575752e+01"/>
    <Variable VarIndex="2" Expression="avg_opp_score_for1-avg_opp_score_for2" Label="avg_opp_score_for1-avg_opp_score_for2" Title="avg_opp_score_for1-avg_opp_score_for2" Unit="" Internal="avg_opp_score_for1_M_avg_opp_score_for2" Type="F" Min="-9.37847900e+00" Max="9.60630798e+00"/>
    <Variable VarIndex="3" Expression="avg_opp_score_against1-avg_opp_score_against2" Label="avg_opp_score_against1-avg_opp_score_against2" Title="avg_opp_score_against1-avg_opp_score_against2" Unit="" Internal="avg_opp_score_against1_M_avg_opp_score_against2" Type="F" Min="-9.80245972e+00" Max="8.12377930e+00"/>
    <Variable VarIndex="4" Expression="avg_score_against1-avg_score_against2" Label="avg_score_against1-avg_score_against2" Title="avg_score_against1-avg_score_against2" Unit="" Internal="avg_score_against1_M_avg_score_against2" Type="F" Min="-2.50357170e+01" Max="1.96033478e+01"/>
  </Variables>
  <Spectators NSpec="1">
    <Spectator SpecIndex="0" Expression="season" Label="season" Title="season" Unit="" Internal="season" Type="F" Min="6.50000000e+01" Max="8.20000000e+01"/>
  </Spectators>
  <Classes NClass="1">
    <Class Name="Regression" Index="0"/>
  </Classes>
  <Targets NTrgt="1">
    <Target TargetIndex="0" Expression="game_outcome" Label="game_outcome" Title="game_outcome" Unit="" Internal="game_outcome" Type="F" Min="0.00000000e+00" Max="1.00000000e+00"/>
  </Targets>
  <Transformations NTransformations="0"/>
  <MVAPdfs/>
  <Weights NTrees="1000" AnalysisType="1">
    <BinaryTree type="DecisionTree" boostWeight="2.7423715938356602e-01" itree="0">
      <Node pos="s" depth="0" NCoef="0" IVar="1" Cut="-1.3456714153289795e+00" cType="0" res="5.0320219993591309e-01" rms="4.9998974800109863e-01" purity="1.0000000000000000e+00" nType="0">
        <Node pos="l" depth="1" NCoef="0" IVar="1" Cut="6.5024557113647461e+00" cType="0" res="6.4393937587738037e-01" rms="4.7883343696594238e-01" purity="1.0000000000000000e+00" nType="0">
          <Node pos="l" depth="2" NCoef="0" IVar="-1" Cut="0.0000000000000000e+00" cType="1" res="8.3091789484024048e-01" rms="3.7482443451881409e-01" purity="1.0000000000000000e+00" nType="-99"/>
          <Node pos="r" depth="2" NCoef="0" IVar="-1" Cut="0.0000000000000000e+00" cType="1" res="5.5849891901016235e-01" rms="4.9656608700752258e-01" purity="1.0000000000000000e+00" nType="-99"/>
        </Node>
        <Node pos="r" depth="1" NCoef="0" IVar="2" Cut="-1.5568375587463379e+00" cType="0" res="2.8868359327316284e-01" rms="4.5315051078796387e-01" purity="1.0000000000000000e+00" nType="0">
          <Node pos="l" depth="2" NCoef="0" IVar="-1" Cut="0.0000000000000000e+00" cType="1" res="3.6298933625221252e-01" rms="4.8086181282997131e-01" purity="1.0000000000000000e+00" nType="-99"/>
          <Node pos="r" depth="2" NCoef="0" IVar="-1" Cut="0.0000000000000000e+00" cType="1" res="1.5131579339504242e-01" rms="3.5835641622543335e-01" purity="1.0000000000000000e+00" nType="-99"/>
        </Node>
      </Node>
    </BinaryTree>
    <BinaryTree type="DecisionTree" boostWeight="3.1615524623073110e-01" itree="1">
      <Node pos="s" depth="0" NCoef="0" IVar="1" Cut="-1.3456714153289795e+00" cType="0" res="5.0277656316757202e-01" rms="4.9999228119850159e-01" purity="1.0000000000000000e+00" nType="0">
        <Node pos="l" depth="1" NCoef="0" IVar="1" Cut="9.4444284439086914e+00" cType="0" res="6.2395954132080078e-01" rms="4.8439037799835205e-01" purity="1.0000000000000000e+00" nType="0">
          <Node pos="l" depth="2" NCoef="0" IVar="-1" Cut="0.0000000000000000e+00" cType="1" res="9.0985518693923950e-01" rms="2.8638908267021179e-01" purity="1.0000000000000000e+00" nType="-99"/>
          <Node pos="r" depth="2" NCoef="0" IVar="-1" Cut="0.0000000000000000e+00" cType="1" res="5.7232409715652466e-01" rms="4.9474155902862549e-01" purity="1.0000000000000000e+00" nType="-99"/>
        </Node>
        <Node pos="r" depth="1" NCoef="0" IVar="1" Cut="-7.0143413543701172e+00" cType="0" res="3.1599926948547363e-01" rms="4.6491259336471558e-01" purity="1.0000000000000000e+00" nType="0">
          <Node pos="l" depth="2" NCoef="0" IVar="-1" Cut="0.0000000000000000e+00" cType="1" res="3.7699145078659058e-01" rms="4.8463273048400879e-01" purity="1.0000000000000000e+00" nType="-99"/>
          <Node pos="r" depth="2" NCoef="0" IVar="-1" Cut="0.0000000000000000e+00" cType="1" res="1.3182350993156433e-01" rms="3.3829879760742188e-01" purity="1.0000000000000000e+00" nType="-99"/>
        </Node>
      </Node>
    </BinaryTree>
    <BinaryTree type="DecisionTree" boostWeight="2.9131422060385687e-01" itree="2">
      <Node pos="s" depth="0" NCoef="0" IVar="1" Cut="3.7215363979339600e+00" cType="0" res="5.0241494178771973e-01" rms="4.9999415874481201e-01" purity="1.0000000000000000e+00" nType="0">
        <Node pos="l" depth="1" NCoef="0" IVar="0" Cut="1.8007405102252960e-01" cType="0" res="7.0844578742980957e-01" rms="4.5447811484336853e-01" purity="1.0000000000000000e+00" nType="0">
          <Node pos="l" depth="2" NCoef="0" IVar="-1" Cut="0.0000000000000000e+00" cType="1" res="8.9836782217025757e-01" rms="3.0216401815414429e-01" purity="1.0000000000000000e+00" nType="-99"/>
          <Node pos="r" depth="2" NCoef="0" IVar="-1" Cut="0.0000000000000000e+00" cType="1" res="6.3739985227584839e-01" rms="4.8075073957443237e-01" purity="1.0000000000000000e+00" nType="-99"/>
        </Node>
        <Node pos="r" depth="1" NCoef="0" IVar="1" Cut="-5.0042738914489746e+00" cType="0" res="4.1662061214447021e-01" rms="4.9299886822700500e-01" purity="1.0000000000000000e+00" nType="0">
          <Node pos="l" depth="2" NCoef="0" IVar="-1" Cut="0.0000000000000000e+00" cType="1" res="4.7465765476226807e-01" rms="4.9935734272003174e-01" purity="1.0000000000000000e+00" nType="-99"/>
          <Node pos="r" depth="2" NCoef="0" IVar="-1" Cut="0.0000000000000000e+00" cType="1" res="2.5376155972480774e-01" rms="4.3516275286674500e-01" purity="1.0000000000000000e+00" nType="-99"/>
        </Node>
      </Node>
    </BinaryTree>
    <BinaryTree type="DecisionTree" boostWeight="2.9747900512529890e-01" itree="3">
      <Node pos="s" depth="0" NCoef="0" IVar="1" Cut="3.7215363979339600e+00" cType="0" res="5.0220203399658203e-01" rms="4.9999514222145081e-01" purity="1.0000000000000000e+00" nType="0">
        <Node pos="l" depth="1" NCoef="0" IVar="1" Cut="9.4458827972412109e+00" cType="0" res="6.8178361654281616e-01" rms="4.6578398346900940e-01" purity="1.0000000000000000e+00" nType="0">
          <Node pos="l" depth="2" NCoef="0" IVar="-1" Cut="0.0000000000000000e+00" cType="1" res="8.6291068792343140e-01" rms="3.4394162893295288e-01" purity="1.0000000000000000e+00" nType="-99"/>
          <Node pos="r" depth="2" NCoef="0" IVar="-1" Cut="0.0000000000000000e+00" cType="1" res="6.1246716976165771e-01" rms="4.8718696832656860e-01" purity="1.0000000000000000e+00" nType="-99"/>
        </Node>
        <Node pos="r" depth="1" NCoef="0" IVar="1" Cut="-9.3612499237060547e+00" cType="0" res="4.2925116419792175e-01" rms="4.9496930837631226e-01" purity="1.0000000000000000e+00" nType="0">
          <Node pos="l" depth="2" NCoef="0" IVar="-1" Cut="0.0000000000000000e+00" cType="1" res="4.5284944772720337e-01" rms="4.9777185916900635e-01" purity="1.0000000000000000e+00" nType="-99"/>
          <Node pos="r" depth="2" NCoef="0" IVar="-1" Cut="0.0000000000000000e+00" cType="1" res="8.3165265619754791e-02" rms="2.7613186836242676e-01" purity="1.0000000000000000e+00" nType="-99"/>
        </Node>
      </Node>
    </BinaryTree>
    <BinaryTree type="DecisionTree" boostWeight="2.4912535315376239e-01" itree="4">
      <Node pos="s" depth="0" NCoef="0" IVar="1" Cut="-3.0347406864166260e+00" cType="0" res="5.0190836191177368e-01" rms="4.9999636411666870e-01" purity="1.0000000000000000e+00" nType="0">
        <Node pos="l" depth="1" NCoef="0" IVar="0" Cut="1.9598053395748138e-01" cType="0" res="5.6770735979080200e-01" rms="4.9539449810981750e-01" purity="1.0000000000000000e+00" nType="0">
          <Node pos="l" depth="2" NCoef="0" IVar="-1" Cut="0.0000000000000000e+00" cType="1" res="8.6715912818908691e-01" rms="3.3940270543098450e-01" purity="1.0000000000000000e+00" nType="-99"/>
          <Node pos="r" depth="2" NCoef="0" IVar="-1" Cut="0.0000000000000000e+00" cType="1" res="5.3859925270080566e-01" rms="4.9850788712501526e-01" purity="1.0000000000000000e+00" nType="-99"/>
        </Node>
        <Node pos="r" depth="1" NCoef="0" IVar="2" Cut="3.2219916582107544e-01" cType="0" res="3.3401849865913391e-01" rms="4.7164621949195862e-01" purity="1.0000000000000000e+00" nType="0">
          <Node pos="l" depth="2" NCoef="0" IVar="-1" Cut="0.0000000000000000e+00" cType="1" res="4.7983881831169128e-01" rms="4.9959334731101990e-01" purity="1.0000000000000000e+00" nType="-99"/>
          <Node pos="r" depth="2" NCoef="0" IVar="-1" Cut="0.0000000000000000e+00" cType="1" res="2.2628985345363617e-01" rms="4.1842889785766602e-01" purity="1.0000000000000000e+00" nType="-99"/>
        </Node>
      </Node>
    </BinaryTree>
    <BinaryTree type="DecisionTree" boostWeight="2.0896155719174450e-01" itree="5">
      <Node pos="s" depth="0" NCoef="0" IVar="1" Cut="7.0996747016906738e+00" cType="0" res="5.0164818763732910e-01" rms="4.9999728798866272e-01" purity="1.0000000000000000e+00" nType="0">
        <Node pos="l" depth="1" NCoef="0" IVar="3" Cut="2.0429353415966034e-01" cType="0" res="7.4132913351058960e-01" rms="4.3790438771247864e-01" purity="1.0000000000000000e+00" nType="0">
          <Node pos="l" depth="2" NCoef="0" IVar="-1" Cut="0.0000000000000000e+00" cType="1" res="6.1538898944854736e-01" rms="4.8650321364402771e-01" purity="1.0000000000000000e+00" nType="-99"/>
          <Node pos="r" depth="2" NCoef="0" IVar="-1" Cut="0.0000000000000000e+00" cType="1" res="8.3710390329360962e-01" rms="3.6927083134651184e-01" purity="1.0000000000000000e+00" nType="-99"/>
        </Node>
        <Node pos="r" depth="1" NCoef="0" IVar="2" Cut="-1.5007954835891724e+00" cType="0" res="4.6447843313217163e-01" rms="4.9873661994934082e-01" purity="1.0000000000000000e+00" nType="0">
          <Node pos="l" depth="2" NCoef="0" IVar="-1" Cut="0.0000000000000000e+00" cType="1" res="5.2098470926284790e-01" rms="4.9955943226814270e-01" purity="1.0000000000000000e+00" nType="-99"/>
          <Node pos="r" depth="2" NCoef="0" IVar="-1" Cut="0.0000000000000000e+00" cType="1" res="3.3332893252372742e-01" rms="4.7140297293663025e-01" purity="1.0000000000000000e+00" nType="-99"/>
        </Node>
      </Node>
    </BinaryTree>
    <BinaryTree type="DecisionTree" boostWeight="8.4998775470722002e-02" itree="6">
      <Node pos="s" depth="0" NCoef="0" IVar="1" Cut="-3.0347406864166260e+00" cType="0" res="5.0150853395462036e-01" rms="4.9999773502349854e-01" purity="1.0000000000000000e+00" nType="0">
        <Node pos="l" depth="1" NCoef="0" IVar="3" Cut="-1.0722006857395172e-01" cType="0" res="5.5692511796951294e-01" rms="4.9674895405769348e-01" purity="1.0000000000000000e+00" nType="0">
          <Node pos="l" depth="2" NCoef="0" IVar="-1" Cut="0.0000000000000000e+00" cType="1" res="4.7813701629638672e-01" rms="4.9952179193496704e-01" purity="1.0000000000000000e+00" nType="-99"/>
          <Node pos="r" depth="2" NCoef="0" IVar="-1" Cut="0.0000000000000000e+00" cType="1" res="6.5069937705993652e-01" rms="4.7674909234046936e-01" purity="1.0000000000000000e+00" nType="-99"/>
        </Node>
        <Node pos="r" depth="1" NCoef="0" IVar="2" Cut="3.2219916582107544e-01" cType="0" res="3.5799109935760498e-01" rms="4.7940951585769653e-01" purity="1.0000000000000000e+00" nType="0">
          <Node pos="l" depth="2" NCoef="0" IVar="-1" Cut="0.0000000000000000e+00" cType="1" res="4.8011526465415955e-01" rms="4.9960443377494812e-01" purity="1.0000000000000000e+00" nType="-99"/>
          <Node pos="r" depth="2" NCoef="0" IVar="-1" Cut="0.0000000000000000e+00" cType="1" res="2.6282495260238647e-01" rms="4.4016814231872559e-01" purity="1.0000000000000000e+00" nType="-99"/>
        </Node>
      </Node>
    </BinaryTree>
    <BinaryTree type="DecisionTree" boostWeight="2.5553367062901861e-01" itree="7">
      <Node pos="s" depth="0" NCoef="0" IVar="1" Cut="-1.3456714153289795e+00" cType="0" res="5.0142049789428711e-01" rms="4.9999797344207764e-01" purity="1.0000000000000000e+00" nType="0">
        <Node pos="l" depth="1" NCoef="0" IVar="3" Cut="-6.9254475831985474e-01" cType="0" res="5.6897783279418945e-01" rms="4.9521920084953308e-01" purity="1.0000000000000000e+00" nType="0">
          <Node pos="l" depth="2" NCoef="0" IVar="-1" Cut="0.0000000000000000e+00" cType="1" res="4.9603402614593506e-01" rms="4.9998426437377930e-01" purity="1.0000000000000000e+00" nType="-99"/>
          <Node pos="r" depth="2" NCoef="0" IVar="-1" Cut="0.0000000000000000e+00" cType="1" res="7.0309847593307495e-01" rms="4.5689278841018677e-01" purity="1.0000000000000000e+00" nType="-99"/>
        </Node>
        <Node pos="r" depth="1" NCoef="0" IVar="1" Cut="-9.1390237808227539e+00" cType="0" res="3.9513427019119263e-01" rms="4.8887950181961060e-01" purity="1.0000000000000000e+00" nType="0">
          <Node pos="l" depth="2" NCoef="0" IVar="-1" Cut="0.0000000000000000e+00" cType="1" res="4.2699894309043884e-01" rms="4.9464213848114014e-01" purity="1.0000000000000000e+00" nType="-99"/>
          <Node pos="r" depth="2" NCoef="0" IVar="-1" Cut="0.0000000000000000e+00" cType="1" res="1.1659604310989380e-01" rms="3.2093831896781921e-01" purity="1.0000000000000000e+00" nType="-99"/>
        </Node>
      </Node>
    </BinaryTree>
    <BinaryTree type="DecisionTree" boostWeight="1.2659496615475979e-01" itree="8">
      <Node pos="s" depth="0" NCoef="0" IVar="2" Cut="-1.4171167612075806e+00" cType="0" res="5.0120264291763306e-01" rms="4.9999853968620300e-01" purity="1.0000000000000000e+00" nType="0">
        <Node pos="l" depth="1" NCoef="0" IVar="3" Cut="-9.8111528158187866e-01" cType="0" res="5.5213743448257446e-01" rms="4.9727424979209900e-01" purity="1.0000000000000000e+00" nType="0">
          <Node pos="l" depth="2" NCoef="0" IVar="-1" Cut="0.0000000000000000e+00" cType="1" res="5.0252813100814819e-01" rms="4.9999362230300903e-01" purity="1.0000000000000000e+00" nType="-99"/>
          <Node pos="r" depth="2" NCoef="0" IVar="-1" Cut="0.0000000000000000e+00" cType="1" res="7.1356910467147827e-01" rms="4.5209318399429321e-01" purity="1.0000000000000000e+00" nType="-99"/>
        </Node>
        <Node pos="r" depth="1" NCoef="0" IVar="3" Cut="-5.3289693593978882e-01" cType="0" res="3.7552946805953979e-01" rms="4.8425930738449097e-01" purity="1.0000000000000000e+00" nType="0">
          <Node pos="l" depth="2" NCoef="0" IVar="-1" Cut="0.0000000000000000e+00" cType="1" res="2.3101492226123810e-01" rms="4.2148193717002869e-01" purity="1.0000000000000000e+00" nType="-99"/>
          <Node pos="r" depth="2" NCoef="0" IVar="-1" Cut="0.0000000000000000e+00" cType="1" res="4.6439319849014282e-01" rms="4.9873054027557373e-01" purity="1.0000000000000000e+00" nType="-99"/>
        </Node>
      </Node>
    </BinaryTree>
    <BinaryTree type="DecisionTree" boostWeight="2.2336087572260502e-01" itree="9">
      <Node pos="s" depth="0" NCoef="0" IVar="1" Cut="7.0996747016906738e+00" cType="0" res="5.0110232830047607e-01" rms="4.9999877810478210e-01" purity="1.0000000000000000e+00" nType="0">
        <Node pos="l" depth="1" NCoef="0" IVar="0" Cut="2.0424869656562805e-01" cType="0" res="7.0635581016540527e-01" rms="4.5543086528778076e-01" purity="1.0000000000000000e+00" nType="0">
          <Node pos="l" depth="2" NCoef="0" IVar="-1" Cut="0.0000000000000000e+00" cType="1" res="8.5911369323730469e-01" rms="3.4790426492691040e-01" purity="1.0000000000000000e+00" nType="-99"/>
          <Node pos="r" depth="2" NCoef="0" IVar="-1" Cut="0.0000000000000000e+00" cType="1" res="6.3079088926315308e-01" rms="4.8259067535400391e-01" purity="1.0000000000000000e+00" nType="-99"/>
        </Node>
        <Node pos="r" depth="1" NCoef="0" IVar="2" Cut="-1.5007954835891724e+00" cType="0" res="4.7052222490310669e-01" rms="4.9913030862808228e-01" purity="1.0000000000000000e+00" nType="0">
          <Node pos="l" depth="2" NCoef="0" IVar="-1" Cut="0.0000000000000000e+00" cType="1" res="5.1732629537582397e-01" rms="4.9969971179962158e-01" purity="1.0000000000000000e+00" nType="-99"/>
          <Node pos="r" depth="2" NCoef="0" IVar="-1" Cut="0.0000000000000000e+00" cType="1" res="3.5869809985160828e-01" rms="4.7961837053298950e-01" purity="1.0000000000000000e+00" nType="-99"/>
        </Node>
      </Node>
    </BinaryTree>
    <BinaryTree type="DecisionTree" boostWeight="1.5978415918746294e-01" itree="10">
      <Node pos="s" depth="0" NCoef="0" IVar="1" Cut="-3.0347406864166260e+00" cType="0" res="5.0101238489151001e-01" rms="4.9999898672103882e-01" purity="1.0000000000000000e+00" nType="0">
        <Node pos="l" depth="1" NCoef="0" IVar="0" Cut="1.9598053395748138e-01" cType="0" res="5.4600954055786133e-01" rms="4.9787861108779907e-01" purity="1.0000000000000000e+00" nType="0">
          <Node pos="l" depth="2" NCoef="0" IVar="-1" Cut="0.0000000000000000e+00" cType="1" res="8.0237019062042236e-01" rms="3.9821135997772217e-01" purity="1.0000000000000000e+00" nType="-99"/>
          <Node pos="r" depth="2" NCoef="0" IVar="-1" Cut="0.0000000000000000e+00" cType="1" res="5.2529078722000122e-01" rms="4.9935996532440186e-01" purity="1.0000000000000000e+00" nType="-99"/>
        </Node>
        <Node pos="r" depth="1" NCoef="0" IVar="2" Cut="1.7176740169525146e+00" cType="0" res="3.8314414024353027e-01" rms="4.8615297675132751e-01" purity="1.0000000000000000e+00" nType="0">
          <Node pos="l" depth="2" NCoef="0" IVar="-1" Cut="0.0000000000000000e+00" cType="1" res="5.5608469247817993e-01" rms="4.9684455990791321e-01" purity="1.0000000000000000e+00" nType="-99"/>
          <Node pos="r" depth="2" NCoef="0" IVar="-1" Cut="0.0000000000000000e+00" cType="1" res="3.2651913166046143e-01" rms="4.6893963217735291e-01" purity="1.0000000000000000e+00" nType="-99"/>
        </Node>
      </Node>
    </BinaryTree>
    <BinaryTree type="DecisionTree" boostWeight="2.2808365516944293e-01" itree="11">
      <Node pos="s" depth="0" NCoef="0" IVar="3" Cut="-2.8632705211639404e+00" cType="0" res="5.0092399120330811e-01" rms="4.9999913573265076e-01" purity="1.0000000000000000e+00" nType="0">
        <Node pos="l" depth="1" NCoef="0" IVar="2" Cut="-3.3162665367126465e-01" cType="0" res="4.7295230627059937e-01" rms="4.9926787614822388e-01" purity="1.0000000000000000e+00" nType="0">
          <Node pos="l" depth="2" NCoef="0" IVar="-1" Cut="0.0000000000000000e+00" cType="1" res="5.4142135381698608e-01" rms="4.9828132987022400e-01" purity="1.0000000000000000e+00" nType="-99"/>
          <Node pos="r" depth="2" NCoef="0" IVar="-1" Cut="0.0000000000000000e+00" cType="1" res="3.7646344304084778e-01" rms="4.8449841141700745e-01" purity="1.0000000000000000e+00" nType="-99"/>
        </Node>
        <Node pos="r" depth="1" NCoef="0" IVar="0" Cut="6.7570470273494720e-02" cType="0" res="6.8624156713485718e-01" rms="4.6401947736740112e-01" purity="1.0000000000000000e+00" nType="0">
          <Node pos="l" depth="2" NCoef="0" IVar="-1" Cut="0.0000000000000000e+00" cType="1" res="8.6296391487121582e-01" rms="3.4388542175292969e-01" purity="1.0000000000000000e+00" nType="-99"/>
          <Node pos="r" depth="2" NCoef="0" IVar="-1" Cut="0.0000000000000000e+00" cType="1" res="6.0760587453842163e-01" rms="4.8828369379043579e-01" purity="1.0000000000000000e+00" nType="-99"/>
        </Node>
      </Node>
    </BinaryTree>
    <BinaryTree type="DecisionTree" boostWeight="0.0000000000000000e+00" itree="12">
      <Node pos="s" depth="0" NCoef="0" IVar="3" Cut="1.1845899820327759e+00" cType="0" res="5.0085407495498657e-01" rms="4.9999928474426270e-01" purity="1.0000000000000000e+00" nType="0">
        <Node pos="l" depth="1" NCoef="0" IVar="2" Cut="3.8153169155120850e+00" cType="0" res="3.9998444914817810e-01" rms="4.8989477753639221e-01" purity="1.0000000000000000e+00" nType="0">
          <Node pos="l" depth="2" NCoef="0" IVar="-1" Cut="0.0000000000000000e+00" cType="1" res="6.0168987512588501e-01" rms="4.8954996466636658e-01" purity="1.0000000000000000e+00" nType="-99"/>
          <Node pos="r" depth="2" NCoef="0" IVar="-1" Cut="0.0000000000000000e+00" cType="1" res="3.4857070446014404e-01" rms="4.7651776671409607e-01" purity="1.0000000000000000e+00" nType="-99"/>
        </Node>
        <Node pos="r" depth="1" NCoef="0" IVar="2" Cut="-3.4448254108428955e+00" cType="0" res="5.4602921009063721e-01" rms="4.9787679314613342e-01" purity="1.0000000000000000e+00" nType="0">
          <Node pos="l" depth="2" NCoef="0" IVar="-1" Cut="0.0000000000000000e+00" cType="1" res="5.8554303646087646e-01" rms="4.9262803792953491e-01" purity="1.0000000000000000e+00" nType="-99"/>
          <Node pos="r" depth="2" NCoef="0" IVar="-1" Cut="0.0000000000000000e+00" cType="1" res="3.4484124183654785e-01" rms="4.7531649470329285e-01" purity="1.0000000000000000e+00" nType="-99"/>
        </Node>
      </Node>
    </BinaryTree>
    <BinaryTree type="DecisionTree" boostWeight="0.0000000000000000e+00" itree="13">
      <Node pos="s" depth="0" NCoef="0" IVar="3" Cut="1.1845899820327759e+00" cType="0" res="5.0085407495498657e-01" rms="4.9999928474426270e-01" purity="1.0000000000000000e+00" nType="0">
        <Node pos="l" depth="1" NCoef="0" IVar="2" Cut="3.8153169155120850e+00" cType="0" res="3.9998444914817810e-01" rms="4.8989477753639221e-01" purity="1.0000000000000000e+00" nType="0">
          <Node pos="l" depth="2" NCoef="0" IVar="-1" Cut="0.0000000000000000e+00" cType="1" res="6.0168987512588501e-01" rms="4.8954996466636658e-01" purity="1.0000000000000000e+00" nType="-99"/>
          <Node pos="r" depth="2" NCoef="0" IVar="-1" Cut="0.0000000000000000e+00" cType="1" res="3.4857070446014404e-01" rms="4.7651776671409607e-01" purity="1.0000000000000000e+00" nType="-99"/>
        </Node>
        <Node pos="r" depth="1" NCoef="0" IVar="2" Cut="-3.4448254108428955e+00" cType="0" res="5.4602921009063721e-01" rms="4.9787679314613342e-01" purity="1.0000000000000000e+00" nType="0">
          <Node pos="l" depth="2" NCoef="0" IVar="-1" Cut="0.0000000000000000e+00" cType="1" res="5.8554303646087646e-01" rms="4.9262803792953491e-01" purity="1.0000000000000000e+00" nType="-99"/>
          <Node pos="r" depth="2" NCoef="0" IVar="-1" Cut="0.0000000000000000e+00" cType="1" res="3.4484124183654785e-01" rms="4.7531649470329285e-01" purity="1.0000000000000000e+00" nType="-99"/>
        </Node>
      </Node>
    </BinaryTree>
    <BinaryTree type="DecisionTree" boostWeight="0.0000000000000000e+00" itree="14">
      <Node pos="s" depth="0" NCoef="0" IVar="3" Cut="1.1845899820327759e+00" cType="0" res="5.0085407495498657e-01" rms="4.9999928474426270e-01" purity="1.0000000000000000e+00" nType="0">
        <Node pos="l" depth="1" NCoef="0" IVar="2" Cut="3.8153169155120850e+00" cType="0" res="3.9998444914817810e-01" rms="4.8989477753639221e-01" purity="1.0000000000000000e+00" nType="0">
          <Node pos="l" depth="2" NCoef="0" IVar="-1" Cut="0.0000000000000000e+00" cType="1" res="6.0168987512588501e-01" rms="4.8954996466636658e-01" purity="1.0000000000000000e+00" nType="-99"/>
          <Node pos="r" depth="2" NCoef="0" IVar="-1" Cut="0.0000000000000000e+00" cType="1" res="3.4857070446014404e-01" rms="4.7651776671409607e-01" purity="1.0000000000000000e+00" nType="-99"/>
        </Node>
        <Node pos="r" depth="1" NCoef="0" IVar="2" Cut="-3.4448254108428955e+00" cType="0" res="5.4602921009063721e-01" rms="4.9787679314613342e-01" purity="1.0000000000000000e+00" nType="0">
          <Node pos="l" depth="2" NCoef="0" IVar="-1" Cut="0.0000000000000000e+00" cType="1" res="5.8554303646087646e-01" rms="4.9262803792953491e-01" purity="1.0000000000000000e+00" nType="-99"/>
          <Node pos="r" depth="2" NCoef="0" IVar="-1" Cut="0.0000000000000000e+00" cType="1" res="3.4484124183654785e-01" rms="4.7531649470329285e-01" purity="1.0000000000000000e+00" nType="-99"/>
        </Node>
      </Node>
    </BinaryTree>
    <BinaryTree type="DecisionTree" boostWeight="0.0000000000000000e+00" itree="15">
      <Node pos="s" depth="0" NCoef="0" IVar="3" Cut="1.1845899820327759e+00" cType="0" res="5.0085407495498657e-01" rms="4.9999928474426270e-01" purity="1.0000000000000000e+00" nType="0">
        <Node pos="l" depth="1" NCoef="0" IVar="2" Cut="3.8153169155120850e+00" cType="0" res="3.9998444914817810e-01" rms="4.8989477753639221e-01" purity="1.0000000000000000e+00" nType="0">
          <Node pos="l" depth="2" NCoef="0" IVar="-1" Cut="0.0000000000000000e+00" cType="1" res="6.0168987512588501e-01" rms="4.8954996466636658e-01" purity="1.0000000000000000e+00" nType="-99"/>
          <Node pos="r" depth="2" NCoef="0" IVar="-1" Cut="0.0000000000000000e+00" cType="1" res="3.4857070446014404e-01" rms="4.7651776671409607e-01" purity="1.0000000000000000e+00" nType="-99"/>
        </Node>
        <Node pos="r" depth="1" NCoef="0" IVar="2" Cut="-3.4448254108428955e+00" cType="0" res="5.4602921009063721e-01" rms="4.9787679314613342e-01" purity="1.0000000000000000e+00" nType="0">
          <Node pos="l" depth="2" NCoef="0" IVar="-1" Cut="0.0000000000000000e+00" cType="1" res="5.8554303646087646e-01" rms="4.9262803792953491e-01" purity="1.0000000000000000e+00" nType="-99"/>
          <Node pos="r" depth="2" NCoef="0" IVar="-1" Cut="0.0000000000000000e+00" cType="1" res="3.4484124183654785e-01" rms="4.7531649470329285e-01" purity="1.0000000000000000e+00" nType="-99"/>
        </Node>
      </Node>
    </BinaryTree>
    <BinaryTree type="DecisionTree" boostWeight="0.0000000000000000e+00" itree="16">
      <Node pos="s" depth="0" NCoef="0" IVar="3" Cut="1.1845899820327759e+00" cType="0" res="5.0085407495498657e-01" rms="4.9999928474426270e-01" purity="1.0000000000000000e+00" nType="0">
        <Node pos="l" depth="1" NCoef="0" IVar="2" Cut="3.8153169155120850e+00" cType="0" res="3.9998444914817810e-01" rms="4.8989477753639221e-01" purity="1.0000000000000000e+00" nType="0">
          <Node pos="l" depth="2" NCoef="0" IVar="-1" Cut="0.0000000000000000e+00" cType="1" res="6.0168987512588501e-01" rms="4.8954996466636658e-01" purity="1.0000000000000000e+00" nType="-99"/>
          <Node pos="r" depth="2" NCoef="0" IVar="-1" Cut="0.0000000000000000e+00" cType="1" res="3.4857070446014404e-01" rms="4.7651776671409607e-01" purity="1.0000000000000000e+00" nType="-99"/>
        </Node>
        <Node pos="r" depth="1" NCoef="0" IVar="2" Cut="-3.4448254108428955e+00" cType="0" res="5.4602921009063721e-01" rms="4.9787679314613342e-01" purity="1.0000000000000000e+00" nType="0">
          <Node pos="l" depth="2" NCoef="0" IVar="-1" Cut="0.0000000000000000e+00" cType="1" res="5.8554303646087646e-01" rms="4.9262803792953491e-01" purity="1.0000000000000000e+00" nType="-99"/>
          <Node pos="r" depth="2" NCoef="0" IVar="-1" Cut="0.0000000000000000e+00" cType="1" res="3.4484124183654785e-01" rms="4.7531649470329285e-01" purity="1.0000000000000000e+00" nType="-99"/>
        </Node>
      </Node>
    </BinaryTree>
    <BinaryTree type="DecisionTree" boostWeight="0.0000000000000000e+00" itree="17">
      <Node pos="s" depth="0" NCoef="0" IVar="3" Cut="1.1845899820327759e+00" cType="0" res="5.0085407495498657e-01" rms="4.9999928474426270e-01" purity="1.0000000000000000e+00" nType="0">
        <Node pos="l" depth="1" NCoef="0" IVar="2" Cut="3.8153169155120850e+00" cType="0" res="3.9998444914817810e-01" rms="4.8989477753639221e-01" purity="1.0000000000000000e+00" nType="0">
          <Node pos="l" depth="2" NCoef="0" IVar="-1" Cut="0.0000000000000000e+00" cType="1" res="6.0168987512588501e-01" rms="4.8954996466636658e-01" purity="1.0000000000000000e+00" nType="-99"/>
          <Node pos="r" depth="2" NCoef="0" IVar="-1" Cut="0.0000000000000000e+00" cType="1" res="3.4857070446014404e-01" rms="4.7651776671409607e-01" purity="1.0000000000000000e+00" nType="-99"/>
        </Node>
        <Node pos="r" depth="1" NCoef="0" IVar="2" Cut="-3.4448254108428955e+00" cType="0" res="5.4602921009063721e-01" rms="4.9787679314613342e-01" purity="1.0000000000000000e+00" nType="0">
          <Node pos="l" depth="2" NCoef="0" IVar="-1" Cut="0.0000000000000000e+00" cType="1" res="5.8554303646087646e-01" rms="4.9262803792953491e-01" purity="1.0000000000000000e+00" nType="-99"/>
          <Node pos="r" depth="2" NCoef="0" IVar="-1" Cut="0.0000000000000000e+00" cType="1" res="3.4484124183654785e-01" rms="4.7531649470329285e-01" purity="1.0000000000000000e+00" nType="-99"/>
        </Node>
      </Node>
    </BinaryTree>
    <BinaryTree type="DecisionTree" boostWeight="0.0000000000000000e+00" itree="18">
      <Node pos="s" depth="0" NCoef="0" IVar="3" Cut="1.1845899820327759e+00" cType="0" res="5.0085407495498657e-01" rms="4.9999928474426270e-01" purity="1.0000000000000000e+00" nType="0">
        <Node pos="l" depth="1" NCoef="0" IVar="2" Cut="3.8153169155120850e+00" cType="0" res="3.9998444914817810e-01" rms="4.8989477753639221e-01" purity="1.0000000000000000e+00" nType="0">
          <Node pos="l" depth="2" NCoef="0" IVar="-1" Cut="0.0000000000000000e+00" cType="1" res="6.0168987512588501e-01" rms="4.8954996466636658e-01" purity="1.0000000000000000e+00" nType="-99"/>
          <Node pos="r" depth="2" NCoef="0" IVar="-1" Cut="0.0000000000000000e+00" cType="1" res="3.4857070446014404e-01" rms="4.7651776671409607e-01" purity="1.0000000000000000e+00" nType="-99"/>
        </Node>
        <Node pos="r" depth="1" NCoef="0" IVar="2" Cut="-3.4448254108428955e+00" cType="0" res="5.4602921009063721e-01" rms="4.9787679314613342e-01" purity="1.0000000000000000e+00" nType="0">
          <Node pos="l" depth="2" NCoef="0" IVar="-1" Cut="0.0000000000000000e+00" cType="1" res="5.8554303646087646e-01" rms="4.9262803792953491e-01" purity="1.0000000000000000e+00" nType="-99"/>
          <Node pos="r" depth="2" NCoef="0" IVar="-1" Cut="0.0000000000000000e+00" cType="1" res="3.4484124183654785e-01" rms="4.7531649470329285e-01" purity="1.0000000000000000e+00" nType="-99"/>
        </Node>
      </Node>
    </BinaryTree>
    <BinaryTree type="DecisionTree" boostWeight="0.0000000000000000e+00" itree="19">
      <Node pos="s" depth="0" NCoef="0" IVar="3" Cut="1.1845899820327759e+00" cType="0" res="5.0085407495498657e-01" rms="4.9999928474426270e-01" purity="1.0000000000000000e+00" nType="0">
        <Node pos="l" depth="1" NCoef="0" IVar="2" Cut="3.8153169155120850e+00" cType="0" res="3.9998444914817810e-01" rms="4.8989477753639221e-01" purity="1.0000000000000000e+00" nType="0">
          <Node pos="l" depth="2" NCoef="0" IVar="-1" Cut="0.0000000000000000e+00" cType="1" res="6.0168987512588501e-01" rms="4.8954996466636658e-01" purity="1.0000000000000000e+00" nType="-99"/>
          <Node pos="r" depth="2" NCoef="0" IVar="-1" Cut="0.0000000000000000e+00" cType="1" res="3.4857070446014404e-01" rms="4.7651776671409607e-01" purity="1.0000000000000000e+00" nType="-99"/>
        </Node>
        <Node pos="r" depth="1" NCoef="0" IVar="2" Cut="-3.4448254108428955e+00" cType="0" res="5.4602921009063721e-01" rms="4.9787679314613342e-01" purity="1.0000000000000000e+00" nType="0">
          <Node pos="l" depth="2" NCoef="0" IVar="-1" Cut="0.0000000000000000e+00" cType="1" res="5.8554303646087646e-01" rms="4.9262803792953491e-01" purity="1.0000000000000000e+00" nType="-99"/>
          <Node pos="r" depth="2" NCoef="0" IVar="-1" Cut="0.0000000000000000e+00" cType="1" res="3.4484124183654785e-01" rms="4.7531649470329285e-01" purity="1.0000000000000000e+00" nType="-99"/>
        </Node>
      </Node>
    </BinaryTree>
    <BinaryTree type="DecisionTree" boostWeight="0.0000000000000000e+00" itree="20">
      <Node pos="s" depth="0" NCoef="0" IVar="3" Cut="1.1845899820327759e+00" cType="0" res="5.0085407495498657e-01" rms="4.9999928474426270e-01" purity="1.0000000000000000e+00" nType="0">
        <Node pos="l" depth="1" NCoef="0" IVar="2" Cut="3.8153169155120850e+00" cType="0" res="3.9998444914817810e-01" rms="4.8989477753639221e-01" purity="1.0000000000000000e+00" nType="0">
          <Node pos="l" depth="2" NCoef="0" IVar="-1" Cut="0.0000000000000000e+00" cType="1" res="6.0168987512588501e-01" rms="4.8954996466636658e-01" purity="1.0000000000000000e+00" nType="-99"/>
          <Node pos="r" depth="2" NCoef="0" IVar="-1" Cut="0.0000000000000000e+00" cType="1" res="3.4857070446014404e-01" rms="4.7651776671409607e-01" purity="1.0000000000000000e+00" nType="-99"/>
        </Node>
        <Node pos="r" depth="1" NCoef="0" IVar="2" Cut="-3.4448254108428955e+00" cType="0" res="5.4602921009063721e-01" rms="4.9787679314613342e-01" purity="1.0000000000000000e+00" nType="0">
          <Node pos="l" depth="2" NCoef="0" IVar="-1" Cut="0.0000000000000000e+00" cType="1" res="5.8554303646087646e-01" rms="4.9262803792953491e-01" purity="1.0000000000000000e+00" nType="-99"/>
          <Node pos="r" depth="2" NCoef="0" IVar="-1" Cut="0.0000000000000000e+00" cType="1" res="3.4484124183654785e-01" rms="4.7531649470329285e-01" purity="1.0000000000000000e+00" nType="-99"/>
        </Node>
      </Node>
    </BinaryTree>
    <BinaryTree type="DecisionTree" boostWeight="0.0000000000000000e+00" itree="21">
      <Node pos="s" depth="0" NCoef="0" IVar="3" Cut="1.1845899820327759e+00" cType="0" res="5.0085407495498657e-01" rms="4.9999928474426270e-01" purity="1.0000000000000000e+00" nType="0">
        <Node pos="l" depth="1" NCoef="0" IVar="2" Cut="3.8153169155120850e+00" cType="0" res="3.9998444914817810e-01" rms="4.8989477753639221e-01" purity="1.0000000000000000e+00" nType="0">
          <Node pos="l" depth="2" NCoef="0" IVar="-1" Cut="0.0000000000000000e+00" cType="1" res="6.0168987512588501e-01" rms="4.8954996466636658e-01" purity="1.0000000000000000e+00" nType="-99"/>
          <Node pos="r" depth="2" NCoef="0" IVar="-1" Cut="0.0000000000000000e+00" cType="1" res="3.4857070446014404e-01" rms="4.7651776671409607e-01" purity="1.0000000000000000e+00" nType="-99"/>
        </Node>
        <Node pos="r" depth="1" NCoef="0" IVar="2" Cut="-3.4448254108428955e+00" cType="0" res="5.4602921009063721e-01" rms="4.9787679314613342e-01" purity="1.0000000000000000e+00" nType="0">
          <Node pos="l" depth="2" NCoef="0" IVar="-1" Cut="0.0000000000000000e+00" cType="1" res="5.8554303646087646e-01" rms="4.9262803792953491e-01" purity="1.0000000000000000e+00" nType="-99"/>
          <Node pos="r" depth="2" NCoef="0" IVar="-1" Cut="0.0000000000000000e+00" cType="1" res="3.4484124183654785e-01" rms="4.7531649470329285e-01" purity="1.0000000000000000e+00" nType="-99"/>
        </Node>
      </Node>
    </BinaryTree>
    <BinaryTree type="DecisionTree" boostWeight="0.0000000000000000e+00" itree="22">
      <Node pos="s" depth="0" NCoef="0" IVar="3" Cut="1.1845899820327759e+00" cType="0" res="5.0085407495498657e-01" rms="4.9999928474426270e-01" purity="1.0000000000000000e+00" nType="0">
        <Node pos="l" depth="1" NCoef="0" IVar="2" Cut="3.8153169155120850e+00" cType="0" res="3.9998444914817810e-01" rms="4.8989477753639221e-01" purity="1.0000000000000000e+00" nType="0">
          <Node pos="l" depth="2" NCoef="0" IVar="-1" Cut="0.0000000000000000e+00" cType="1" res="6.0168987512588501e-01" rms="4.8954996466636658e-01" purity="1.0000000000000000e+00" nType="-99"/>
          <Node pos="r" depth="2" NCoef="0" IVar="-1" Cut="0.0000000000000000e+00" cType="1" res="3.4857070446014404e-01" rms="4.7651776671409607e-01" purity="1.0000000000000000e+00" nType="-99"/>
        </Node>
        <Node pos="r" depth="1" NCoef="0" IVar="2" Cut="-3.4448254108428955e+00" cType="0" res="5.4602921009063721e-01" rms="4.9787679314613342e-01" purity="1.0000000000000000e+00" nType="0">
          <Node pos="l" depth="2" NCoef="0" IVar="-1" Cut="0.0000000000000000e+00" cType="1" res="5.8554303646087646e-01" rms="4.9262803792953491e-01" purity="1.0000000000000000e+00" nType="-99"/>
          <Node pos="r" depth="2" NCoef="0" IVar="-1" Cut="0.0000000000000000e+00" cType="1" res="3.4484124183654785e-01" rms="4.7531649470329285e-01" purity="1.0000000000000000e+00" nType="-99"/>
        </Node>
      </Node>
    </BinaryTree>
    <BinaryTree type="DecisionTree" boostWeight="0.0000000000000000e+00" itree="23">
      <Node pos="s" depth="0" NCoef="0" IVar="3" Cut="1.1845899820327759e+00" cType="0" res="5.0085407495498657e-01" rms="4.9999928474426270e-01" purity="1.0000000000000000e+00" nType="0">
        <Node pos="l" depth="1" NCoef="0" IVar="2" Cut="3.8153169155120850e+00" cType="0" res="3.9998444914817810e-01" rms="4.8989477753639221e-01" purity="1.0000000000000000e+00" nType="0">
          <Node pos="l" depth="2" NCoef="0" IVar="-1" Cut="0.0000000000000000e+00" cType="1" res="6.0168987512588501e-01" rms="4.8954996466636658e-01" purity="1.0000000000000000e+00" nType="-99"/>
          <Node pos="r" depth="2" NCoef="0" IVar="-1" Cut="0.0000000000000000e+00" cType="1" res="3.4857070446014404e-01" rms="4.7651776671409607e-01" purity="1.0000000000000000e+00" nType="-99"/>
        </Node>
        <Node pos="r" depth="1" NCoef="0" IVar="2" Cut="-3.4448254108428955e+00" cType="0" res="5.4602921009063721e-01" rms="4.9787679314613342e-01" purity="1.0000000000000000e+00" nType="0">
          <Node pos="l" depth="2" NCoef="0" IVar="-1" Cut="0.0000000000000000e+00" cType="1" res="5.8554303646087646e-01" rms="4.9262803792953491e-01" purity="1.0000000000000000e+00" nType="-99"/>
          <Node pos="r" depth="2" NCoef="0" IVar="-1" Cut="0.0000000000000000e+00" cType="1" res="3.4484124183654785e-01" rms="4.7531649470329285e-01" purity="1.0000000000000000e+00" nType="-99"/>
        </Node>
      </Node>
    </BinaryTree>
    <BinaryTree type="DecisionTree" boostWeight="0.0000000000000000e+00" itree="24">
      <Node pos="s" depth="0" NCoef="0" IVar="3" Cut="1.1845899820327759e+00" cType="0" res="5.0085407495498657e-01" rms="4.9999928474426270e-01" purity="1.0000000000000000e+00" nType="0">
        <Node pos="l" depth="1" NCoef="0" IVar="2" Cut="3.8153169155120850e+00" cType="0" res="3.9998444914817810e-01" rms="4.8989477753639221e-01" purity="1.0000000000000000e+00" nType="0">
          <Node pos="l" depth="2" NCoef="0" IVar="-1" Cut="0.0000000000000000e+00" cType="1" res="6.0168987512588501e-01" rms="4.8954996466636658e-01" purity="1.0000000000000000e+00" nType="-99"/>
          <Node pos="r" depth="2" NCoef="0" IVar="-1" Cut="0.0000000000000000e+00" cType="1" res="3.4857070446014404e-01" rms="4.7651776671409607e-01" purity="1.0000000000000000e+00" nType="-99"/>
        </Node>
        <Node pos="r" depth="1" NCoef="0" IVar="2" Cut="-3.4448254108428955e+00" cType="0" res="5.4602921009063721e-01" rms="4.9787679314613342e-01" purity="1.0000000000000000e+00" nType="0">
          <Node pos="l" depth="2" NCoef="0" IVar="-1" Cut="0.0000000000000000e+00" cType="1" res="5.8554303646087646e-01" rms="4.9262803792953491e-01" purity="1.0000000000000000e+00" nType="-99"/>
          <Node pos="r" depth="2" NCoef="0" IVar="-1" Cut="0.0000000000000000e+00" cType="1" res="3.4484124183654785e-01" rms="4.7531649470329285e-01" purity="1.0000000000000000e+00" nType="-99"/>
        </Node>
      </Node>
    </BinaryTree>
    <BinaryTree type="DecisionTree" boostWeight="0.0000000000000000e+00" itree="25">
      <Node pos="s" depth="0" NCoef="0" IVar="3" Cut="1.1845899820327759e+00" cType="0" res="5.0085407495498657e-01" rms="4.9999928474426270e-01" purity="1.0000000000000000e+00" nType="0">
        <Node pos="l" depth="1" NCoef="0" IVar="2" Cut="3.8153169155120850e+00" cType="0" res="3.9998444914817810e-01" rms="4.8989477753639221e-01" purity="1.0000000000000000e+00" nType="0">
          <Node pos="l" depth="2" NCoef="0" IVar="-1" Cut="0.0000000000000000e+00" cType="1" res="6.0168987512588501e-01" rms="4.8954996466636658e-01" purity="1.0000000000000000e+00" nType="-99"/>
          <Node pos="r" depth="2" NCoef="0" IVar="-1" Cut="0.0000000000000000e+00" cType="1" res="3.4857070446014404e-01" rms="4.7651776671409607e-01" purity="1.0000000000000000e+00" nType="-99"/>
        </Node>
        <Node pos="r" depth="1" NCoef="0" IVar="2" Cut="-3.4448254108428955e+00" cType="0" res="5.4602921009063721e-01" rms="4.9787679314613342e-01" purity="1.0000000000000000e+00" nType="0">
          <Node pos="l" depth="2" NCoef="0" IVar="-1" Cut="0.0000000000000000e+00" cType="1" res="5.8554303646087646e-01" rms="4.9262803792953491e-01" purity="1.0000000000000000e+00" nType="-99"/>
          <Node pos="r" depth="2" NCoef="0" IVar="-1" Cut="0.0000000000000000e+00" cType="1" res="3.4484124183654785e-01" rms="4.7531649470329285e-01" purity="1.0000000000000000e+00" nType="-99"/>
        </Node>
      </Node>
    </BinaryTree>
    <BinaryTree type="DecisionTree" boostWeight="0.0000000000000000e+00" itree="26">
      <Node pos="s" depth="0" NCoef="0" IVar="3" Cut="1.1845899820327759e+00" cType="0" res="5.0085407495498657e-01" rms="4.9999928474426270e-01" purity="1.0000000000000000e+00" nType="0">
        <Node pos="l" depth="1" NCoef="0" IVar="2" Cut="3.8153169155120850e+00" cType="0" res="3.9998444914817810e-01" rms="4.8989477753639221e-01" purity="1.0000000000000000e+00" nType="0">
          <Node pos="l" depth="2" NCoef="0" IVar="-1" Cut="0.0000000000000000e+00" cType="1" res="6.0168987512588501e-01" rms="4.8954996466636658e-01" purity="1.0000000000000000e+00" nType="-99"/>
          <Node pos="r" depth="2" NCoef="0" IVar="-1" Cut="0.0000000000000000e+00" cType="1" res="3.4857070446014404e-01" rms="4.7651776671409607e-01" purity="1.0000000000000000e+00" nType="-99"/>
        </Node>
        <Node pos="r" depth="1" NCoef="0" IVar="2" Cut="-3.4448254108428955e+00" cType="0" res="5.4602921009063721e-01" rms="4.9787679314613342e-01" purity="1.0000000000000000e+00" nType="0">
          <Node pos="l" depth="2" NCoef="0" IVar="-1" Cut="0.0000000000000000e+00" cType="1" res="5.8554303646087646e-01" rms="4.9262803792953491e-01" purity="1.0000000000000000e+00" nType="-99"/>
          <Node pos="r" depth="2" NCoef="0" IVar="-1" Cut="0.0000000000000000e+00" cType="1" res="3.4484124183654785e-01" rms="4.7531649470329285e-01" purity="1.0000000000000000e+00" nType="-99"/>
        </Node>
      </Node>
    </BinaryTree>
    <BinaryTree type="DecisionTree" boostWeight="0.0000000000000000e+00" itree="27">
      <Node pos="s" depth="0" NCoef="0" IVar="3" Cut="1.1845899820327759e+00" cType="0" res="5.0085407495498657e-01" rms="4.9999928474426270e-01" purity="1.0000000000000000e+00" nType="0">
        <Node pos="l" depth="1" NCoef="0" IVar="2" Cut="3.8153169155120850e+00" cType="0" res="3.9998444914817810e-01" rms="4.8989477753639221e-01" purity="1.0000000000000000e+00" nType="0">
          <Node pos="l" depth="2" NCoef="0" IVar="-1" Cut="0.0000000000000000e+00" cType="1" res="6.0168987512588501e-01" rms="4.8954996466636658e-01" purity="1.0000000000000000e+00" nType="-99"/>
          <Node pos="r" depth="2" NCoef="0" IVar="-1" Cut="0.0000000000000000e+00" cType="1" res="3.4857070446014404e-01" rms="4.7651776671409607e-01" purity="1.0000000000000000e+00" nType="-99"/>
        </Node>
        <Node pos="r" depth="1" NCoef="0" IVar="2" Cut="-3.4448254108428955e+00" cType="0" res="5.4602921009063721e-01" rms="4.9787679314613342e-01" purity="1.0000000000000000e+00" nType="0">
          <Node pos="l" depth="2" NCoef="0" IVar="-1" Cut="0.0000000000000000e+00" cType="1" res="5.8554303646087646e-01" rms="4.9262803792953491e-01" purity="1.0000000000000000e+00" nType="-99"/>
          <Node pos="r" depth="2" NCoef="0" IVar="-1" Cut="0.0000000000000000e+00" cType="1" res="3.4484124183654785e-01" rms="4.7531649470329285e-01" purity="1.0000000000000000e+00" nType="-99"/>
        </Node>
      </Node>
    </BinaryTree>
    <BinaryTree type="DecisionTree" boostWeight="0.0000000000000000e+00" itree="28">
      <Node pos="s" depth="0" NCoef="0" IVar="3" Cut="1.1845899820327759e+00" cType="0" res="5.0085407495498657e-01" rms="4.9999928474426270e-01" purity="1.0000000000000000e+00" nType="0">
        <Node pos="l" depth="1" NCoef="0" IVar="2" Cut="3.8153169155120850e+00" cType="0" res="3.9998444914817810e-01" rms="4.8989477753639221e-01" purity="1.0000000000000000e+00" nType="0">
          <Node pos="l" depth="2" NCoef="0" IVar="-1" Cut="0.0000000000000000e+00" cType="1" res="6.0168987512588501e-01" rms="4.8954996466636658e-01" purity="1.0000000000000000e+00" nType="-99"/>
          <Node pos="r" depth="2" NCoef="0" IVar="-1" Cut="0.0000000000000000e+00" cType="1" res="3.4857070446014404e-01" rms="4.7651776671409607e-01" purity="1.0000000000000000e+00" nType="-99"/>
        </Node>
        <Node pos="r" depth="1" NCoef="0" IVar="2" Cut="-3.4448254108428955e+00" cType="0" res="5.4602921009063721e-01" rms="4.9787679314613342e-01" purity="1.0000000000000000e+00" nType="0">
          <Node pos="l" depth="2" NCoef="0" IVar="-1" Cut="0.0000000000000000e+00" cType="1" res="5.8554303646087646e-01" rms="4.9262803792953491e-01" purity="1.0000000000000000e+00" nType="-99"/>
          <Node pos="r" depth="2" NCoef="0" IVar="-1" Cut="0.0000000000000000e+00" cType="1" res="3.4484124183654785e-01" rms="4.7531649470329285e-01" purity="1.0000000000000000e+00" nType="-99"/>
        </Node>
      </Node>
    </BinaryTree>
    <BinaryTree type="DecisionTree" boostWeight="0.0000000000000000e+00" itree="29">
      <Node pos="s" depth="0" NCoef="0" IVar="3" Cut="1.1845899820327759e+00" cType="0" res="5.0085407495498657e-01" rms="4.9999928474426270e-01" purity="1.0000000000000000e+00" nType="0">
        <Node pos="l" depth="1" NCoef="0" IVar="2" Cut="3.8153169155120850e+00" cType="0" res="3.9998444914817810e-01" rms="4.8989477753639221e-01" purity="1.0000000000000000e+00" nType="0">
          <Node pos="l" depth="2" NCoef="0" IVar="-1" Cut="0.0000000000000000e+00" cType="1" res="6.0168987512588501e-01" rms="4.8954996466636658e-01" purity="1.0000000000000000e+00" nType="-99"/>
          <Node pos="r" depth="2" NCoef="0" IVar="-1" Cut="0.0000000000000000e+00" cType="1" res="3.4857070446014404e-01" rms="4.7651776671409607e-01" purity="1.0000000000000000e+00" nType="-99"/>
        </Node>
        <Node pos="r" depth="1" NCoef="0" IVar="2" Cut="-3.4448254108428955e+00" cType="0" res="5.4602921009063721e-01" rms="4.9787679314613342e-01" purity="1.0000000000000000e+00" nType="0">
          <Node pos="l" depth="2" NCoef="0" IVar="-1" Cut="0.0000000000000000e+00" cType="1" res="5.8554303646087646e-01" rms="4.9262803792953491e-01" purity="1.0000000000000000e+00" nType="-99"/>
          <Node pos="r" depth="2" NCoef="0" IVar="-1" Cut="0.0000000000000000e+00" cType="1" res="3.4484124183654785e-01" rms="4.7531649470329285e-01" purity="1.0000000000000000e+00" nType="-99"/>
        </Node>
      </Node>
    </BinaryTree>
    <BinaryTree type="DecisionTree" boostWeight="0.0000000000000000e+00" itree="30">
      <Node pos="s" depth="0" NCoef="0" IVar="3" Cut="1.1845899820327759e+00" cType="0" res="5.0085407495498657e-01" rms="4.9999928474426270e-01" purity="1.0000000000000000e+00" nType="0">
        <Node pos="l" depth="1" NCoef="0" IVar="2" Cut="3.8153169155120850e+00" cType="0" res="3.9998444914817810e-01" rms="4.8989477753639221e-01" purity="1.0000000000000000e+00" nType="0">
          <Node pos="l" depth="2" NCoef="0" IVar="-1" Cut="0.0000000000000000e+00" cType="1" res="6.0168987512588501e-01" rms="4.8954996466636658e-01" purity="1.0000000000000000e+00" nType="-99"/>
          <Node pos="r" depth="2" NCoef="0" IVar="-1" Cut="0.0000000000000000e+00" cType="1" res="3.4857070446014404e-01" rms="4.7651776671409607e-01" purity="1.0000000000000000e+00" nType="-99"/>
        </Node>
        <Node pos="r" depth="1" NCoef="0" IVar="2" Cut="-3.4448254108428955e+00" cType="0" res="5.4602921009063721e-01" rms="4.9787679314613342e-01" purity="1.0000000000000000e+00" nType="0">
          <Node pos="l" depth="2" NCoef="0" IVar="-1" Cut="0.0000000000000000e+00" cType="1" res="5.8554303646087646e-01" rms="4.9262803792953491e-01" purity="1.0000000000000000e+00" nType="-99"/>
          <Node pos="r" depth="2" NCoef="0" IVar="-1" Cut="0.0000000000000000e+00" cType="1" res="3.4484124183654785e-01" rms="4.7531649470329285e-01" purity="1.0000000000000000e+00" nType="-99"/>
        </Node>
      </Node>
    </BinaryTree>
    <BinaryTree type="DecisionTree" boostWeight="0.0000000000000000e+00" itree="31">
      <Node pos="s" depth="0" NCoef="0" IVar="3" Cut="1.1845899820327759e+00" cType="0" res="5.0085407495498657e-01" rms="4.9999928474426270e-01" purity="1.0000000000000000e+00" nType="0">
        <Node pos="l" depth="1" NCoef="0" IVar="2" Cut="3.8153169155120850e+00" cType="0" res="3.9998444914817810e-01" rms="4.8989477753639221e-01" purity="1.0000000000000000e+00" nType="0">
          <Node pos="l" depth="2" NCoef="0" IVar="-1" Cut="0.0000000000000000e+00" cType="1" res="6.0168987512588501e-01" rms="4.8954996466636658e-01" purity="1.0000000000000000e+00" nType="-99"/>
          <Node pos="r" depth="2" NCoef="0" IVar="-1" Cut="0.0000000000000000e+00" cType="1" res="3.4857070446014404e-01" rms="4.7651776671409607e-01" purity="1.0000000000000000e+00" nType="-99"/>
        </Node>
        <Node pos="r" depth="1" NCoef="0" IVar="2" Cut="-3.4448254108428955e+00" cType="0" res="5.4602921009063721e-01" rms="4.9787679314613342e-01" purity="1.0000000000000000e+00" nType="0">
          <Node pos="l" depth="2" NCoef="0" IVar="-1" Cut="0.0000000000000000e+00" cType="1" res="5.8554303646087646e-01" rms="4.9262803792953491e-01" purity="1.0000000000000000e+00" nType="-99"/>
          <Node pos="r" depth="2" NCoef="0" IVar="-1" Cut="0.0000000000000000e+00" cType="1" res="3.4484124183654785e-01" rms="4.7531649470329285e-01" purity="1.0000000000000000e+00" nType="-99"/>
        </Node>
      </Node>
    </BinaryTree>
    <BinaryTree type="DecisionTree" boostWeight="0.0000000000000000e+00" itree="32">
      <Node pos="s" depth="0" NCoef="0" IVar="3" Cut="1.1845899820327759e+00" cType="0" res="5.0085407495498657e-01" rms="4.9999928474426270e-01" purity="1.0000000000000000e+00" nType="0">
        <Node pos="l" depth="1" NCoef="0" IVar="2" Cut="3.8153169155120850e+00" cType="0" res="3.9998444914817810e-01" rms="4.8989477753639221e-01" purity="1.0000000000000000e+00" nType="0">
          <Node pos="l" depth="2" NCoef="0" IVar="-1" Cut="0.0000000000000000e+00" cType="1" res="6.0168987512588501e-01" rms="4.8954996466636658e-01" purity="1.0000000000000000e+00" nType="-99"/>
          <Node pos="r" depth="2" NCoef="0" IVar="-1" Cut="0.0000000000000000e+00" cType="1" res="3.4857070446014404e-01" rms="4.7651776671409607e-01" purity="1.0000000000000000e+00" nType="-99"/>
        </Node>
        <Node pos="r" depth="1" NCoef="0" IVar="2" Cut="-3.4448254108428955e+00" cType="0" res="5.4602921009063721e-01" rms="4.9787679314613342e-01" purity="1.0000000000000000e+00" nType="0">
          <Node pos="l" depth="2" NCoef="0" IVar="-1" Cut="0.0000000000000000e+00" cType="1" res="5.8554303646087646e-01" rms="4.9262803792953491e-01" purity="1.0000000000000000e+00" nType="-99"/>
          <Node pos="r" depth="2" NCoef="0" IVar="-1" Cut="0.0000000000000000e+00" cType="1" res="3.4484124183654785e-01" rms="4.7531649470329285e-01" purity="1.0000000000000000e+00" nType="-99"/>
        </Node>
      </Node>
    </BinaryTree>
    <BinaryTree type="DecisionTree" boostWeight="0.0000000000000000e+00" itree="33">
      <Node pos="s" depth="0" NCoef="0" IVar="3" Cut="1.1845899820327759e+00" cType="0" res="5.0085407495498657e-01" rms="4.9999928474426270e-01" purity="1.0000000000000000e+00" nType="0">
        <Node pos="l" depth="1" NCoef="0" IVar="2" Cut="3.8153169155120850e+00" cType="0" res="3.9998444914817810e-01" rms="4.8989477753639221e-01" purity="1.0000000000000000e+00" nType="0">
          <Node pos="l" depth="2" NCoef="0" IVar="-1" Cut="0.0000000000000000e+00" cType="1" res="6.0168987512588501e-01" rms="4.8954996466636658e-01" purity="1.0000000000000000e+00" nType="-99"/>
          <Node pos="r" depth="2" NCoef="0" IVar="-1" Cut="0.0000000000000000e+00" cType="1" res="3.4857070446014404e-01" rms="4.7651776671409607e-01" purity="1.0000000000000000e+00" nType="-99"/>
        </Node>
        <Node pos="r" depth="1" NCoef="0" IVar="2" Cut="-3.4448254108428955e+00" cType="0" res="5.4602921009063721e-01" rms="4.9787679314613342e-01" purity="1.0000000000000000e+00" nType="0">
          <Node pos="l" depth="2" NCoef="0" IVar="-1" Cut="0.0000000000000000e+00" cType="1" res="5.8554303646087646e-01" rms="4.9262803792953491e-01" purity="1.0000000000000000e+00" nType="-99"/>
          <Node pos="r" depth="2" NCoef="0" IVar="-1" Cut="0.0000000000000000e+00" cType="1" res="3.4484124183654785e-01" rms="4.7531649470329285e-01" purity="1.0000000000000000e+00" nType="-99"/>
        </Node>
      </Node>
    </BinaryTree>
    <BinaryTree type="DecisionTree" boostWeight="0.0000000000000000e+00" itree="34">
      <Node pos="s" depth="0" NCoef="0" IVar="3" Cut="1.1845899820327759e+00" cType="0" res="5.0085407495498657e-01" rms="4.9999928474426270e-01" purity="1.0000000000000000e+00" nType="0">
        <Node pos="l" depth="1" NCoef="0" IVar="2" Cut="3.8153169155120850e+00" cType="0" res="3.9998444914817810e-01" rms="4.8989477753639221e-01" purity="1.0000000000000000e+00" nType="0">
          <Node pos="l" depth="2" NCoef="0" IVar="-1" Cut="0.0000000000000000e+00" cType="1" res="6.0168987512588501e-01" rms="4.8954996466636658e-01" purity="1.0000000000000000e+00" nType="-99"/>
          <Node pos="r" depth="2" NCoef="0" IVar="-1" Cut="0.0000000000000000e+00" cType="1" res="3.4857070446014404e-01" rms="4.7651776671409607e-01" purity="1.0000000000000000e+00" nType="-99"/>
        </Node>
        <Node pos="r" depth="1" NCoef="0" IVar="2" Cut="-3.4448254108428955e+00" cType="0" res="5.4602921009063721e-01" rms="4.9787679314613342e-01" purity="1.0000000000000000e+00" nType="0">
          <Node pos="l" depth="2" NCoef="0" IVar="-1" Cut="0.0000000000000000e+00" cType="1" res="5.8554303646087646e-01" rms="4.9262803792953491e-01" purity="1.0000000000000000e+00" nType="-99"/>
          <Node pos="r" depth="2" NCoef="0" IVar="-1" Cut="0.0000000000000000e+00" cType="1" res="3.4484124183654785e-01" rms="4.7531649470329285e-01" purity="1.0000000000000000e+00" nType="-99"/>
        </Node>
      </Node>
    </BinaryTree>
    <BinaryTree type="DecisionTree" boostWeight="0.0000000000000000e+00" itree="35">
      <Node pos="s" depth="0" NCoef="0" IVar="3" Cut="1.1845899820327759e+00" cType="0" res="5.0085407495498657e-01" rms="4.9999928474426270e-01" purity="1.0000000000000000e+00" nType="0">
        <Node pos="l" depth="1" NCoef="0" IVar="2" Cut="3.8153169155120850e+00" cType="0" res="3.9998444914817810e-01" rms="4.8989477753639221e-01" purity="1.0000000000000000e+00" nType="0">
          <Node pos="l" depth="2" NCoef="0" IVar="-1" Cut="0.0000000000000000e+00" cType="1" res="6.0168987512588501e-01" rms="4.8954996466636658e-01" purity="1.0000000000000000e+00" nType="-99"/>
          <Node pos="r" depth="2" NCoef="0" IVar="-1" Cut="0.0000000000000000e+00" cType="1" res="3.4857070446014404e-01" rms="4.7651776671409607e-01" purity="1.0000000000000000e+00" nType="-99"/>
        </Node>
        <Node pos="r" depth="1" NCoef="0" IVar="2" Cut="-3.4448254108428955e+00" cType="0" res="5.4602921009063721e-01" rms="4.9787679314613342e-01" purity="1.0000000000000000e+00" nType="0">
          <Node pos="l" depth="2" NCoef="0" IVar="-1" Cut="0.0000000000000000e+00" cType="1" res="5.8554303646087646e-01" rms="4.9262803792953491e-01" purity="1.0000000000000000e+00" nType="-99"/>
          <Node pos="r" depth="2" NCoef="0" IVar="-1" Cut="0.0000000000000000e+00" cType="1" res="3.4484124183654785e-01" rms="4.7531649470329285e-01" purity="1.0000000000000000e+00" nType="-99"/>
        </Node>
      </Node>
    </BinaryTree>
    <BinaryTree type="DecisionTree" boostWeight="0.0000000000000000e+00" itree="36">
      <Node pos="s" depth="0" NCoef="0" IVar="3" Cut="1.1845899820327759e+00" cType="0" res="5.0085407495498657e-01" rms="4.9999928474426270e-01" purity="1.0000000000000000e+00" nType="0">
        <Node pos="l" depth="1" NCoef="0" IVar="2" Cut="3.8153169155120850e+00" cType="0" res="3.9998444914817810e-01" rms="4.8989477753639221e-01" purity="1.0000000000000000e+00" nType="0">
          <Node pos="l" depth="2" NCoef="0" IVar="-1" Cut="0.0000000000000000e+00" cType="1" res="6.0168987512588501e-01" rms="4.8954996466636658e-01" purity="1.0000000000000000e+00" nType="-99"/>
          <Node pos="r" depth="2" NCoef="0" IVar="-1" Cut="0.0000000000000000e+00" cType="1" res="3.4857070446014404e-01" rms="4.7651776671409607e-01" purity="1.0000000000000000e+00" nType="-99"/>
        </Node>
        <Node pos="r" depth="1" NCoef="0" IVar="2" Cut="-3.4448254108428955e+00" cType="0" res="5.4602921009063721e-01" rms="4.9787679314613342e-01" purity="1.0000000000000000e+00" nType="0">
          <Node pos="l" depth="2" NCoef="0" IVar="-1" Cut="0.0000000000000000e+00" cType="1" res="5.8554303646087646e-01" rms="4.9262803792953491e-01" purity="1.0000000000000000e+00" nType="-99"/>
          <Node pos="r" depth="2" NCoef="0" IVar="-1" Cut="0.0000000000000000e+00" cType="1" res="3.4484124183654785e-01" rms="4.7531649470329285e-01" purity="1.0000000000000000e+00" nType="-99"/>
        </Node>
      </Node>
    </BinaryTree>
    <BinaryTree type="DecisionTree" boostWeight="0.0000000000000000e+00" itree="37">
      <Node pos="s" depth="0" NCoef="0" IVar="3" Cut="1.1845899820327759e+00" cType="0" res="5.0085407495498657e-01" rms="4.9999928474426270e-01" purity="1.0000000000000000e+00" nType="0">
        <Node pos="l" depth="1" NCoef="0" IVar="2" Cut="3.8153169155120850e+00" cType="0" res="3.9998444914817810e-01" rms="4.8989477753639221e-01" purity="1.0000000000000000e+00" nType="0">
          <Node pos="l" depth="2" NCoef="0" IVar="-1" Cut="0.0000000000000000e+00" cType="1" res="6.0168987512588501e-01" rms="4.8954996466636658e-01" purity="1.0000000000000000e+00" nType="-99"/>
          <Node pos="r" depth="2" NCoef="0" IVar="-1" Cut="0.0000000000000000e+00" cType="1" res="3.4857070446014404e-01" rms="4.7651776671409607e-01" purity="1.0000000000000000e+00" nType="-99"/>
        </Node>
        <Node pos="r" depth="1" NCoef="0" IVar="2" Cut="-3.4448254108428955e+00" cType="0" res="5.4602921009063721e-01" rms="4.9787679314613342e-01" purity="1.0000000000000000e+00" nType="0">
          <Node pos="l" depth="2" NCoef="0" IVar="-1" Cut="0.0000000000000000e+00" cType="1" res="5.8554303646087646e-01" rms="4.9262803792953491e-01" purity="1.0000000000000000e+00" nType="-99"/>
          <Node pos="r" depth="2" NCoef="0" IVar="-1" Cut="0.0000000000000000e+00" cType="1" res="3.4484124183654785e-01" rms="4.7531649470329285e-01" purity="1.0000000000000000e+00" nType="-99"/>
        </Node>
      </Node>
    </BinaryTree>
    <BinaryTree type="DecisionTree" boostWeight="0.0000000000000000e+00" itree="38">
      <Node pos="s" depth="0" NCoef="0" IVar="3" Cut="1.1845899820327759e+00" cType="0" res="5.0085407495498657e-01" rms="4.9999928474426270e-01" purity="1.0000000000000000e+00" nType="0">
        <Node pos="l" depth="1" NCoef="0" IVar="2" Cut="3.8153169155120850e+00" cType="0" res="3.9998444914817810e-01" rms="4.8989477753639221e-01" purity="1.0000000000000000e+00" nType="0">
          <Node pos="l" depth="2" NCoef="0" IVar="-1" Cut="0.0000000000000000e+00" cType="1" res="6.0168987512588501e-01" rms="4.8954996466636658e-01" purity="1.0000000000000000e+00" nType="-99"/>
          <Node pos="r" depth="2" NCoef="0" IVar="-1" Cut="0.0000000000000000e+00" cType="1" res="3.4857070446014404e-01" rms="4.7651776671409607e-01" purity="1.0000000000000000e+00" nType="-99"/>
        </Node>
        <Node pos="r" depth="1" NCoef="0" IVar="2" Cut="-3.4448254108428955e+00" cType="0" res="5.4602921009063721e-01" rms="4.9787679314613342e-01" purity="1.0000000000000000e+00" nType="0">
          <Node pos="l" depth="2" NCoef="0" IVar="-1" Cut="0.0000000000000000e+00" cType="1" res="5.8554303646087646e-01" rms="4.9262803792953491e-01" purity="1.0000000000000000e+00" nType="-99"/>
          <Node pos="r" depth="2" NCoef="0" IVar="-1" Cut="0.0000000000000000e+00" cType="1" res="3.4484124183654785e-01" rms="4.7531649470329285e-01" purity="1.0000000000000000e+00" nType="-99"/>
        </Node>
      </Node>
    </BinaryTree>
    <BinaryTree type="DecisionTree" boostWeight="0.0000000000000000e+00" itree="39">
      <Node pos="s" depth="0" NCoef="0" IVar="3" Cut="1.1845899820327759e+00" cType="0" res="5.0085407495498657e-01" rms="4.9999928474426270e-01" purity="1.0000000000000000e+00" nType="0">
        <Node pos="l" depth="1" NCoef="0" IVar="2" Cut="3.8153169155120850e+00" cType="0" res="3.9998444914817810e-01" rms="4.8989477753639221e-01" purity="1.0000000000000000e+00" nType="0">
          <Node pos="l" depth="2" NCoef="0" IVar="-1" Cut="0.0000000000000000e+00" cType="1" res="6.0168987512588501e-01" rms="4.8954996466636658e-01" purity="1.0000000000000000e+00" nType="-99"/>
          <Node pos="r" depth="2" NCoef="0" IVar="-1" Cut="0.0000000000000000e+00" cType="1" res="3.4857070446014404e-01" rms="4.7651776671409607e-01" purity="1.0000000000000000e+00" nType="-99"/>
        </Node>
        <Node pos="r" depth="1" NCoef="0" IVar="2" Cut="-3.4448254108428955e+00" cType="0" res="5.4602921009063721e-01" rms="4.9787679314613342e-01" purity="1.0000000000000000e+00" nType="0">
          <Node pos="l" depth="2" NCoef="0" IVar="-1" Cut="0.0000000000000000e+00" cType="1" res="5.8554303646087646e-01" rms="4.9262803792953491e-01" purity="1.0000000000000000e+00" nType="-99"/>
          <Node pos="r" depth="2" NCoef="0" IVar="-1" Cut="0.0000000000000000e+00" cType="1" res="3.4484124183654785e-01" rms="4.7531649470329285e-01" purity="1.0000000000000000e+00" nType="-99"/>
        </Node>
      </Node>
    </BinaryTree>
    <BinaryTree type="DecisionTree" boostWeight="0.0000000000000000e+00" itree="40">
      <Node pos="s" depth="0" NCoef="0" IVar="3" Cut="1.1845899820327759e+00" cType="0" res="5.0085407495498657e-01" rms="4.9999928474426270e-01" purity="1.0000000000000000e+00" nType="0">
        <Node pos="l" depth="1" NCoef="0" IVar="2" Cut="3.8153169155120850e+00" cType="0" res="3.9998444914817810e-01" rms="4.8989477753639221e-01" purity="1.0000000000000000e+00" nType="0">
          <Node pos="l" depth="2" NCoef="0" IVar="-1" Cut="0.0000000000000000e+00" cType="1" res="6.0168987512588501e-01" rms="4.8954996466636658e-01" purity="1.0000000000000000e+00" nType="-99"/>
          <Node pos="r" depth="2" NCoef="0" IVar="-1" Cut="0.0000000000000000e+00" cType="1" res="3.4857070446014404e-01" rms="4.7651776671409607e-01" purity="1.0000000000000000e+00" nType="-99"/>
        </Node>
        <Node pos="r" depth="1" NCoef="0" IVar="2" Cut="-3.4448254108428955e+00" cType="0" res="5.4602921009063721e-01" rms="4.9787679314613342e-01" purity="1.0000000000000000e+00" nType="0">
          <Node pos="l" depth="2" NCoef="0" IVar="-1" Cut="0.0000000000000000e+00" cType="1" res="5.8554303646087646e-01" rms="4.9262803792953491e-01" purity="1.0000000000000000e+00" nType="-99"/>
          <Node pos="r" depth="2" NCoef="0" IVar="-1" Cut="0.0000000000000000e+00" cType="1" res="3.4484124183654785e-01" rms="4.7531649470329285e-01" purity="1.0000000000000000e+00" nType="-99"/>
        </Node>
      </Node>
    </BinaryTree>
    <BinaryTree type="DecisionTree" boostWeight="0.0000000000000000e+00" itree="41">
      <Node pos="s" depth="0" NCoef="0" IVar="3" Cut="1.1845899820327759e+00" cType="0" res="5.0085407495498657e-01" rms="4.9999928474426270e-01" purity="1.0000000000000000e+00" nType="0">
        <Node pos="l" depth="1" NCoef="0" IVar="2" Cut="3.8153169155120850e+00" cType="0" res="3.9998444914817810e-01" rms="4.8989477753639221e-01" purity="1.0000000000000000e+00" nType="0">
          <Node pos="l" depth="2" NCoef="0" IVar="-1" Cut="0.0000000000000000e+00" cType="1" res="6.0168987512588501e-01" rms="4.8954996466636658e-01" purity="1.0000000000000000e+00" nType="-99"/>
          <Node pos="r" depth="2" NCoef="0" IVar="-1" Cut="0.0000000000000000e+00" cType="1" res="3.4857070446014404e-01" rms="4.7651776671409607e-01" purity="1.0000000000000000e+00" nType="-99"/>
        </Node>
        <Node pos="r" depth="1" NCoef="0" IVar="2" Cut="-3.4448254108428955e+00" cType="0" res="5.4602921009063721e-01" rms="4.9787679314613342e-01" purity="1.0000000000000000e+00" nType="0">
          <Node pos="l" depth="2" NCoef="0" IVar="-1" Cut="0.0000000000000000e+00" cType="1" res="5.8554303646087646e-01" rms="4.9262803792953491e-01" purity="1.0000000000000000e+00" nType="-99"/>
          <Node pos="r" depth="2" NCoef="0" IVar="-1" Cut="0.0000000000000000e+00" cType="1" res="3.4484124183654785e-01" rms="4.7531649470329285e-01" purity="1.0000000000000000e+00" nType="-99"/>
        </Node>
      </Node>
    </BinaryTree>
    <BinaryTree type="DecisionTree" boostWeight="0.0000000000000000e+00" itree="42">
      <Node pos="s" depth="0" NCoef="0" IVar="3" Cut="1.1845899820327759e+00" cType="0" res="5.0085407495498657e-01" rms="4.9999928474426270e-01" purity="1.0000000000000000e+00" nType="0">
        <Node pos="l" depth="1" NCoef="0" IVar="2" Cut="3.8153169155120850e+00" cType="0" res="3.9998444914817810e-01" rms="4.8989477753639221e-01" purity="1.0000000000000000e+00" nType="0">
          <Node pos="l" depth="2" NCoef="0" IVar="-1" Cut="0.0000000000000000e+00" cType="1" res="6.0168987512588501e-01" rms="4.8954996466636658e-01" purity="1.0000000000000000e+00" nType="-99"/>
          <Node pos="r" depth="2" NCoef="0" IVar="-1" Cut="0.0000000000000000e+00" cType="1" res="3.4857070446014404e-01" rms="4.7651776671409607e-01" purity="1.0000000000000000e+00" nType="-99"/>
        </Node>
        <Node pos="r" depth="1" NCoef="0" IVar="2" Cut="-3.4448254108428955e+00" cType="0" res="5.4602921009063721e-01" rms="4.9787679314613342e-01" purity="1.0000000000000000e+00" nType="0">
          <Node pos="l" depth="2" NCoef="0" IVar="-1" Cut="0.0000000000000000e+00" cType="1" res="5.8554303646087646e-01" rms="4.9262803792953491e-01" purity="1.0000000000000000e+00" nType="-99"/>
          <Node pos="r" depth="2" NCoef="0" IVar="-1" Cut="0.0000000000000000e+00" cType="1" res="3.4484124183654785e-01" rms="4.7531649470329285e-01" purity="1.0000000000000000e+00" nType="-99"/>
        </Node>
      </Node>
    </BinaryTree>
    <BinaryTree type="DecisionTree" boostWeight="0.0000000000000000e+00" itree="43">
      <Node pos="s" depth="0" NCoef="0" IVar="3" Cut="1.1845899820327759e+00" cType="0" res="5.0085407495498657e-01" rms="4.9999928474426270e-01" purity="1.0000000000000000e+00" nType="0">
        <Node pos="l" depth="1" NCoef="0" IVar="2" Cut="3.8153169155120850e+00" cType="0" res="3.9998444914817810e-01" rms="4.8989477753639221e-01" purity="1.0000000000000000e+00" nType="0">
          <Node pos="l" depth="2" NCoef="0" IVar="-1" Cut="0.0000000000000000e+00" cType="1" res="6.0168987512588501e-01" rms="4.8954996466636658e-01" purity="1.0000000000000000e+00" nType="-99"/>
          <Node pos="r" depth="2" NCoef="0" IVar="-1" Cut="0.0000000000000000e+00" cType="1" res="3.4857070446014404e-01" rms="4.7651776671409607e-01" purity="1.0000000000000000e+00" nType="-99"/>
        </Node>
        <Node pos="r" depth="1" NCoef="0" IVar="2" Cut="-3.4448254108428955e+00" cType="0" res="5.4602921009063721e-01" rms="4.9787679314613342e-01" purity="1.0000000000000000e+00" nType="0">
          <Node pos="l" depth="2" NCoef="0" IVar="-1" Cut="0.0000000000000000e+00" cType="1" res="5.8554303646087646e-01" rms="4.9262803792953491e-01" purity="1.0000000000000000e+00" nType="-99"/>
          <Node pos="r" depth="2" NCoef="0" IVar="-1" Cut="0.0000000000000000e+00" cType="1" res="3.4484124183654785e-01" rms="4.7531649470329285e-01" purity="1.0000000000000000e+00" nType="-99"/>
        </Node>
      </Node>
    </BinaryTree>
    <BinaryTree type="DecisionTree" boostWeight="0.0000000000000000e+00" itree="44">
      <Node pos="s" depth="0" NCoef="0" IVar="3" Cut="1.1845899820327759e+00" cType="0" res="5.0085407495498657e-01" rms="4.9999928474426270e-01" purity="1.0000000000000000e+00" nType="0">
        <Node pos="l" depth="1" NCoef="0" IVar="2" Cut="3.8153169155120850e+00" cType="0" res="3.9998444914817810e-01" rms="4.8989477753639221e-01" purity="1.0000000000000000e+00" nType="0">
          <Node pos="l" depth="2" NCoef="0" IVar="-1" Cut="0.0000000000000000e+00" cType="1" res="6.0168987512588501e-01" rms="4.8954996466636658e-01" purity="1.0000000000000000e+00" nType="-99"/>
          <Node pos="r" depth="2" NCoef="0" IVar="-1" Cut="0.0000000000000000e+00" cType="1" res="3.4857070446014404e-01" rms="4.7651776671409607e-01" purity="1.0000000000000000e+00" nType="-99"/>
        </Node>
        <Node pos="r" depth="1" NCoef="0" IVar="2" Cut="-3.4448254108428955e+00" cType="0" res="5.4602921009063721e-01" rms="4.9787679314613342e-01" purity="1.0000000000000000e+00" nType="0">
          <Node pos="l" depth="2" NCoef="0" IVar="-1" Cut="0.0000000000000000e+00" cType="1" res="5.8554303646087646e-01" rms="4.9262803792953491e-01" purity="1.0000000000000000e+00" nType="-99"/>
          <Node pos="r" depth="2" NCoef="0" IVar="-1" Cut="0.0000000000000000e+00" cType="1" res="3.4484124183654785e-01" rms="4.7531649470329285e-01" purity="1.0000000000000000e+00" nType="-99"/>
        </Node>
      </Node>
    </BinaryTree>
    <BinaryTree type="DecisionTree" boostWeight="0.0000000000000000e+00" itree="45">
      <Node pos="s" depth="0" NCoef="0" IVar="3" Cut="1.1845899820327759e+00" cType="0" res="5.0085407495498657e-01" rms="4.9999928474426270e-01" purity="1.0000000000000000e+00" nType="0">
        <Node pos="l" depth="1" NCoef="0" IVar="2" Cut="3.8153169155120850e+00" cType="0" res="3.9998444914817810e-01" rms="4.8989477753639221e-01" purity="1.0000000000000000e+00" nType="0">
          <Node pos="l" depth="2" NCoef="0" IVar="-1" Cut="0.0000000000000000e+00" cType="1" res="6.0168987512588501e-01" rms="4.8954996466636658e-01" purity="1.0000000000000000e+00" nType="-99"/>
          <Node pos="r" depth="2" NCoef="0" IVar="-1" Cut="0.0000000000000000e+00" cType="1" res="3.4857070446014404e-01" rms="4.7651776671409607e-01" purity="1.0000000000000000e+00" nType="-99"/>
        </Node>
        <Node pos="r" depth="1" NCoef="0" IVar="2" Cut="-3.4448254108428955e+00" cType="0" res="5.4602921009063721e-01" rms="4.9787679314613342e-01" purity="1.0000000000000000e+00" nType="0">
          <Node pos="l" depth="2" NCoef="0" IVar="-1" Cut="0.0000000000000000e+00" cType="1" res="5.8554303646087646e-01" rms="4.9262803792953491e-01" purity="1.0000000000000000e+00" nType="-99"/>
          <Node pos="r" depth="2" NCoef="0" IVar="-1" Cut="0.0000000000000000e+00" cType="1" res="3.4484124183654785e-01" rms="4.7531649470329285e-01" purity="1.0000000000000000e+00" nType="-99"/>
        </Node>
      </Node>
    </BinaryTree>
    <BinaryTree type="DecisionTree" boostWeight="0.0000000000000000e+00" itree="46">
      <Node pos="s" depth="0" NCoef="0" IVar="3" Cut="1.1845899820327759e+00" cType="0" res="5.0085407495498657e-01" rms="4.9999928474426270e-01" purity="1.0000000000000000e+00" nType="0">
        <Node pos="l" depth="1" NCoef="0" IVar="2" Cut="3.8153169155120850e+00" cType="0" res="3.9998444914817810e-01" rms="4.8989477753639221e-01" purity="1.0000000000000000e+00" nType="0">
          <Node pos="l" depth="2" NCoef="0" IVar="-1" Cut="0.0000000000000000e+00" cType="1" res="6.0168987512588501e-01" rms="4.8954996466636658e-01" purity="1.0000000000000000e+00" nType="-99"/>
          <Node pos="r" depth="2" NCoef="0" IVar="-1" Cut="0.0000000000000000e+00" cType="1" res="3.4857070446014404e-01" rms="4.7651776671409607e-01" purity="1.0000000000000000e+00" nType="-99"/>
        </Node>
        <Node pos="r" depth="1" NCoef="0" IVar="2" Cut="-3.4448254108428955e+00" cType="0" res="5.4602921009063721e-01" rms="4.9787679314613342e-01" purity="1.0000000000000000e+00" nType="0">
          <Node pos="l" depth="2" NCoef="0" IVar="-1" Cut="0.0000000000000000e+00" cType="1" res="5.8554303646087646e-01" rms="4.9262803792953491e-01" purity="1.0000000000000000e+00" nType="-99"/>
          <Node pos="r" depth="2" NCoef="0" IVar="-1" Cut="0.0000000000000000e+00" cType="1" res="3.4484124183654785e-01" rms="4.7531649470329285e-01" purity="1.0000000000000000e+00" nType="-99"/>
        </Node>
      </Node>
    </BinaryTree>
    <BinaryTree type="DecisionTree" boostWeight="0.0000000000000000e+00" itree="47">
      <Node pos="s" depth="0" NCoef="0" IVar="3" Cut="1.1845899820327759e+00" cType="0" res="5.0085407495498657e-01" rms="4.9999928474426270e-01" purity="1.0000000000000000e+00" nType="0">
        <Node pos="l" depth="1" NCoef="0" IVar="2" Cut="3.8153169155120850e+00" cType="0" res="3.9998444914817810e-01" rms="4.8989477753639221e-01" purity="1.0000000000000000e+00" nType="0">
          <Node pos="l" depth="2" NCoef="0" IVar="-1" Cut="0.0000000000000000e+00" cType="1" res="6.0168987512588501e-01" rms="4.8954996466636658e-01" purity="1.0000000000000000e+00" nType="-99"/>
          <Node pos="r" depth="2" NCoef="0" IVar="-1" Cut="0.0000000000000000e+00" cType="1" res="3.4857070446014404e-01" rms="4.7651776671409607e-01" purity="1.0000000000000000e+00" nType="-99"/>
        </Node>
        <Node pos="r" depth="1" NCoef="0" IVar="2" Cut="-3.4448254108428955e+00" cType="0" res="5.4602921009063721e-01" rms="4.9787679314613342e-01" purity="1.0000000000000000e+00" nType="0">
          <Node pos="l" depth="2" NCoef="0" IVar="-1" Cut="0.0000000000000000e+00" cType="1" res="5.8554303646087646e-01" rms="4.9262803792953491e-01" purity="1.0000000000000000e+00" nType="-99"/>
          <Node pos="r" depth="2" NCoef="0" IVar="-1" Cut="0.0000000000000000e+00" cType="1" res="3.4484124183654785e-01" rms="4.7531649470329285e-01" purity="1.0000000000000000e+00" nType="-99"/>
        </Node>
      </Node>
    </BinaryTree>
    <BinaryTree type="DecisionTree" boostWeight="0.0000000000000000e+00" itree="48">
      <Node pos="s" depth="0" NCoef="0" IVar="3" Cut="1.1845899820327759e+00" cType="0" res="5.0085407495498657e-01" rms="4.9999928474426270e-01" purity="1.0000000000000000e+00" nType="0">
        <Node pos="l" depth="1" NCoef="0" IVar="2" Cut="3.8153169155120850e+00" cType="0" res="3.9998444914817810e-01" rms="4.8989477753639221e-01" purity="1.0000000000000000e+00" nType="0">
          <Node pos="l" depth="2" NCoef="0" IVar="-1" Cut="0.0000000000000000e+00" cType="1" res="6.0168987512588501e-01" rms="4.8954996466636658e-01" purity="1.0000000000000000e+00" nType="-99"/>
          <Node pos="r" depth="2" NCoef="0" IVar="-1" Cut="0.0000000000000000e+00" cType="1" res="3.4857070446014404e-01" rms="4.7651776671409607e-01" purity="1.0000000000000000e+00" nType="-99"/>
        </Node>
        <Node pos="r" depth="1" NCoef="0" IVar="2" Cut="-3.4448254108428955e+00" cType="0" res="5.4602921009063721e-01" rms="4.9787679314613342e-01" purity="1.0000000000000000e+00" nType="0">
          <Node pos="l" depth="2" NCoef="0" IVar="-1" Cut="0.0000000000000000e+00" cType="1" res="5.8554303646087646e-01" rms="4.9262803792953491e-01" purity="1.0000000000000000e+00" nType="-99"/>
          <Node pos="r" depth="2" NCoef="0" IVar="-1" Cut="0.0000000000000000e+00" cType="1" res="3.4484124183654785e-01" rms="4.7531649470329285e-01" purity="1.0000000000000000e+00" nType="-99"/>
        </Node>
      </Node>
    </BinaryTree>
    <BinaryTree type="DecisionTree" boostWeight="0.0000000000000000e+00" itree="49">
      <Node pos="s" depth="0" NCoef="0" IVar="3" Cut="1.1845899820327759e+00" cType="0" res="5.0085407495498657e-01" rms="4.9999928474426270e-01" purity="1.0000000000000000e+00" nType="0">
        <Node pos="l" depth="1" NCoef="0" IVar="2" Cut="3.8153169155120850e+00" cType="0" res="3.9998444914817810e-01" rms="4.8989477753639221e-01" purity="1.0000000000000000e+00" nType="0">
          <Node pos="l" depth="2" NCoef="0" IVar="-1" Cut="0.0000000000000000e+00" cType="1" res="6.0168987512588501e-01" rms="4.8954996466636658e-01" purity="1.0000000000000000e+00" nType="-99"/>
          <Node pos="r" depth="2" NCoef="0" IVar="-1" Cut="0.0000000000000000e+00" cType="1" res="3.4857070446014404e-01" rms="4.7651776671409607e-01" purity="1.0000000000000000e+00" nType="-99"/>
        </Node>
        <Node pos="r" depth="1" NCoef="0" IVar="2" Cut="-3.4448254108428955e+00" cType="0" res="5.4602921009063721e-01" rms="4.9787679314613342e-01" purity="1.0000000000000000e+00" nType="0">
          <Node pos="l" depth="2" NCoef="0" IVar="-1" Cut="0.0000000000000000e+00" cType="1" res="5.8554303646087646e-01" rms="4.9262803792953491e-01" purity="1.0000000000000000e+00" nType="-99"/>
          <Node pos="r" depth="2" NCoef="0" IVar="-1" Cut="0.0000000000000000e+00" cType="1" res="3.4484124183654785e-01" rms="4.7531649470329285e-01" purity="1.0000000000000000e+00" nType="-99"/>
        </Node>
      </Node>
    </BinaryTree>
    <BinaryTree type="DecisionTree" boostWeight="0.0000000000000000e+00" itree="50">
      <Node pos="s" depth="0" NCoef="0" IVar="3" Cut="1.1845899820327759e+00" cType="0" res="5.0085407495498657e-01" rms="4.9999928474426270e-01" purity="1.0000000000000000e+00" nType="0">
        <Node pos="l" depth="1" NCoef="0" IVar="2" Cut="3.8153169155120850e+00" cType="0" res="3.9998444914817810e-01" rms="4.8989477753639221e-01" purity="1.0000000000000000e+00" nType="0">
          <Node pos="l" depth="2" NCoef="0" IVar="-1" Cut="0.0000000000000000e+00" cType="1" res="6.0168987512588501e-01" rms="4.8954996466636658e-01" purity="1.0000000000000000e+00" nType="-99"/>
          <Node pos="r" depth="2" NCoef="0" IVar="-1" Cut="0.0000000000000000e+00" cType="1" res="3.4857070446014404e-01" rms="4.7651776671409607e-01" purity="1.0000000000000000e+00" nType="-99"/>
        </Node>
        <Node pos="r" depth="1" NCoef="0" IVar="2" Cut="-3.4448254108428955e+00" cType="0" res="5.4602921009063721e-01" rms="4.9787679314613342e-01" purity="1.0000000000000000e+00" nType="0">
          <Node pos="l" depth="2" NCoef="0" IVar="-1" Cut="0.0000000000000000e+00" cType="1" res="5.8554303646087646e-01" rms="4.9262803792953491e-01" purity="1.0000000000000000e+00" nType="-99"/>
          <Node pos="r" depth="2" NCoef="0" IVar="-1" Cut="0.0000000000000000e+00" cType="1" res="3.4484124183654785e-01" rms="4.7531649470329285e-01" purity="1.0000000000000000e+00" nType="-99"/>
        </Node>
      </Node>
    </BinaryTree>
    <BinaryTree type="DecisionTree" boostWeight="0.0000000000000000e+00" itree="51">
      <Node pos="s" depth="0" NCoef="0" IVar="3" Cut="1.1845899820327759e+00" cType="0" res="5.0085407495498657e-01" rms="4.9999928474426270e-01" purity="1.0000000000000000e+00" nType="0">
        <Node pos="l" depth="1" NCoef="0" IVar="2" Cut="3.8153169155120850e+00" cType="0" res="3.9998444914817810e-01" rms="4.8989477753639221e-01" purity="1.0000000000000000e+00" nType="0">
          <Node pos="l" depth="2" NCoef="0" IVar="-1" Cut="0.0000000000000000e+00" cType="1" res="6.0168987512588501e-01" rms="4.8954996466636658e-01" purity="1.0000000000000000e+00" nType="-99"/>
          <Node pos="r" depth="2" NCoef="0" IVar="-1" Cut="0.0000000000000000e+00" cType="1" res="3.4857070446014404e-01" rms="4.7651776671409607e-01" purity="1.0000000000000000e+00" nType="-99"/>
        </Node>
        <Node pos="r" depth="1" NCoef="0" IVar="2" Cut="-3.4448254108428955e+00" cType="0" res="5.4602921009063721e-01" rms="4.9787679314613342e-01" purity="1.0000000000000000e+00" nType="0">
          <Node pos="l" depth="2" NCoef="0" IVar="-1" Cut="0.0000000000000000e+00" cType="1" res="5.8554303646087646e-01" rms="4.9262803792953491e-01" purity="1.0000000000000000e+00" nType="-99"/>
          <Node pos="r" depth="2" NCoef="0" IVar="-1" Cut="0.0000000000000000e+00" cType="1" res="3.4484124183654785e-01" rms="4.7531649470329285e-01" purity="1.0000000000000000e+00" nType="-99"/>
        </Node>
      </Node>
    </BinaryTree>
    <BinaryTree type="DecisionTree" boostWeight="0.0000000000000000e+00" itree="52">
      <Node pos="s" depth="0" NCoef="0" IVar="3" Cut="1.1845899820327759e+00" cType="0" res="5.0085407495498657e-01" rms="4.9999928474426270e-01" purity="1.0000000000000000e+00" nType="0">
        <Node pos="l" depth="1" NCoef="0" IVar="2" Cut="3.8153169155120850e+00" cType="0" res="3.9998444914817810e-01" rms="4.8989477753639221e-01" purity="1.0000000000000000e+00" nType="0">
          <Node pos="l" depth="2" NCoef="0" IVar="-1" Cut="0.0000000000000000e+00" cType="1" res="6.0168987512588501e-01" rms="4.8954996466636658e-01" purity="1.0000000000000000e+00" nType="-99"/>
          <Node pos="r" depth="2" NCoef="0" IVar="-1" Cut="0.0000000000000000e+00" cType="1" res="3.4857070446014404e-01" rms="4.7651776671409607e-01" purity="1.0000000000000000e+00" nType="-99"/>
        </Node>
        <Node pos="r" depth="1" NCoef="0" IVar="2" Cut="-3.4448254108428955e+00" cType="0" res="5.4602921009063721e-01" rms="4.9787679314613342e-01" purity="1.0000000000000000e+00" nType="0">
          <Node pos="l" depth="2" NCoef="0" IVar="-1" Cut="0.0000000000000000e+00" cType="1" res="5.8554303646087646e-01" rms="4.9262803792953491e-01" purity="1.0000000000000000e+00" nType="-99"/>
          <Node pos="r" depth="2" NCoef="0" IVar="-1" Cut="0.0000000000000000e+00" cType="1" res="3.4484124183654785e-01" rms="4.7531649470329285e-01" purity="1.0000000000000000e+00" nType="-99"/>
        </Node>
      </Node>
    </BinaryTree>
    <BinaryTree type="DecisionTree" boostWeight="0.0000000000000000e+00" itree="53">
      <Node pos="s" depth="0" NCoef="0" IVar="3" Cut="1.1845899820327759e+00" cType="0" res="5.0085407495498657e-01" rms="4.9999928474426270e-01" purity="1.0000000000000000e+00" nType="0">
        <Node pos="l" depth="1" NCoef="0" IVar="2" Cut="3.8153169155120850e+00" cType="0" res="3.9998444914817810e-01" rms="4.8989477753639221e-01" purity="1.0000000000000000e+00" nType="0">
          <Node pos="l" depth="2" NCoef="0" IVar="-1" Cut="0.0000000000000000e+00" cType="1" res="6.0168987512588501e-01" rms="4.8954996466636658e-01" purity="1.0000000000000000e+00" nType="-99"/>
          <Node pos="r" depth="2" NCoef="0" IVar="-1" Cut="0.0000000000000000e+00" cType="1" res="3.4857070446014404e-01" rms="4.7651776671409607e-01" purity="1.0000000000000000e+00" nType="-99"/>
        </Node>
        <Node pos="r" depth="1" NCoef="0" IVar="2" Cut="-3.4448254108428955e+00" cType="0" res="5.4602921009063721e-01" rms="4.9787679314613342e-01" purity="1.0000000000000000e+00" nType="0">
          <Node pos="l" depth="2" NCoef="0" IVar="-1" Cut="0.0000000000000000e+00" cType="1" res="5.8554303646087646e-01" rms="4.9262803792953491e-01" purity="1.0000000000000000e+00" nType="-99"/>
          <Node pos="r" depth="2" NCoef="0" IVar="-1" Cut="0.0000000000000000e+00" cType="1" res="3.4484124183654785e-01" rms="4.7531649470329285e-01" purity="1.0000000000000000e+00" nType="-99"/>
        </Node>
      </Node>
    </BinaryTree>
    <BinaryTree type="DecisionTree" boostWeight="0.0000000000000000e+00" itree="54">
      <Node pos="s" depth="0" NCoef="0" IVar="3" Cut="1.1845899820327759e+00" cType="0" res="5.0085407495498657e-01" rms="4.9999928474426270e-01" purity="1.0000000000000000e+00" nType="0">
        <Node pos="l" depth="1" NCoef="0" IVar="2" Cut="3.8153169155120850e+00" cType="0" res="3.9998444914817810e-01" rms="4.8989477753639221e-01" purity="1.0000000000000000e+00" nType="0">
          <Node pos="l" depth="2" NCoef="0" IVar="-1" Cut="0.0000000000000000e+00" cType="1" res="6.0168987512588501e-01" rms="4.8954996466636658e-01" purity="1.0000000000000000e+00" nType="-99"/>
          <Node pos="r" depth="2" NCoef="0" IVar="-1" Cut="0.0000000000000000e+00" cType="1" res="3.4857070446014404e-01" rms="4.7651776671409607e-01" purity="1.0000000000000000e+00" nType="-99"/>
        </Node>
        <Node pos="r" depth="1" NCoef="0" IVar="2" Cut="-3.4448254108428955e+00" cType="0" res="5.4602921009063721e-01" rms="4.9787679314613342e-01" purity="1.0000000000000000e+00" nType="0">
          <Node pos="l" depth="2" NCoef="0" IVar="-1" Cut="0.0000000000000000e+00" cType="1" res="5.8554303646087646e-01" rms="4.9262803792953491e-01" purity="1.0000000000000000e+00" nType="-99"/>
          <Node pos="r" depth="2" NCoef="0" IVar="-1" Cut="0.0000000000000000e+00" cType="1" res="3.4484124183654785e-01" rms="4.7531649470329285e-01" purity="1.0000000000000000e+00" nType="-99"/>
        </Node>
      </Node>
    </BinaryTree>
    <BinaryTree type="DecisionTree" boostWeight="0.0000000000000000e+00" itree="55">
      <Node pos="s" depth="0" NCoef="0" IVar="3" Cut="1.1845899820327759e+00" cType="0" res="5.0085407495498657e-01" rms="4.9999928474426270e-01" purity="1.0000000000000000e+00" nType="0">
        <Node pos="l" depth="1" NCoef="0" IVar="2" Cut="3.8153169155120850e+00" cType="0" res="3.9998444914817810e-01" rms="4.8989477753639221e-01" purity="1.0000000000000000e+00" nType="0">
          <Node pos="l" depth="2" NCoef="0" IVar="-1" Cut="0.0000000000000000e+00" cType="1" res="6.0168987512588501e-01" rms="4.8954996466636658e-01" purity="1.0000000000000000e+00" nType="-99"/>
          <Node pos="r" depth="2" NCoef="0" IVar="-1" Cut="0.0000000000000000e+00" cType="1" res="3.4857070446014404e-01" rms="4.7651776671409607e-01" purity="1.0000000000000000e+00" nType="-99"/>
        </Node>
        <Node pos="r" depth="1" NCoef="0" IVar="2" Cut="-3.4448254108428955e+00" cType="0" res="5.4602921009063721e-01" rms="4.9787679314613342e-01" purity="1.0000000000000000e+00" nType="0">
          <Node pos="l" depth="2" NCoef="0" IVar="-1" Cut="0.0000000000000000e+00" cType="1" res="5.8554303646087646e-01" rms="4.9262803792953491e-01" purity="1.0000000000000000e+00" nType="-99"/>
          <Node pos="r" depth="2" NCoef="0" IVar="-1" Cut="0.0000000000000000e+00" cType="1" res="3.4484124183654785e-01" rms="4.7531649470329285e-01" purity="1.0000000000000000e+00" nType="-99"/>
        </Node>
      </Node>
    </BinaryTree>
    <BinaryTree type="DecisionTree" boostWeight="0.0000000000000000e+00" itree="56">
      <Node pos="s" depth="0" NCoef="0" IVar="3" Cut="1.1845899820327759e+00" cType="0" res="5.0085407495498657e-01" rms="4.9999928474426270e-01" purity="1.0000000000000000e+00" nType="0">
        <Node pos="l" depth="1" NCoef="0" IVar="2" Cut="3.8153169155120850e+00" cType="0" res="3.9998444914817810e-01" rms="4.8989477753639221e-01" purity="1.0000000000000000e+00" nType="0">
          <Node pos="l" depth="2" NCoef="0" IVar="-1" Cut="0.0000000000000000e+00" cType="1" res="6.0168987512588501e-01" rms="4.8954996466636658e-01" purity="1.0000000000000000e+00" nType="-99"/>
          <Node pos="r" depth="2" NCoef="0" IVar="-1" Cut="0.0000000000000000e+00" cType="1" res="3.4857070446014404e-01" rms="4.7651776671409607e-01" purity="1.0000000000000000e+00" nType="-99"/>
        </Node>
        <Node pos="r" depth="1" NCoef="0" IVar="2" Cut="-3.4448254108428955e+00" cType="0" res="5.4602921009063721e-01" rms="4.9787679314613342e-01" purity="1.0000000000000000e+00" nType="0">
          <Node pos="l" depth="2" NCoef="0" IVar="-1" Cut="0.0000000000000000e+00" cType="1" res="5.8554303646087646e-01" rms="4.9262803792953491e-01" purity="1.0000000000000000e+00" nType="-99"/>
          <Node pos="r" depth="2" NCoef="0" IVar="-1" Cut="0.0000000000000000e+00" cType="1" res="3.4484124183654785e-01" rms="4.7531649470329285e-01" purity="1.0000000000000000e+00" nType="-99"/>
        </Node>
      </Node>
    </BinaryTree>
    <BinaryTree type="DecisionTree" boostWeight="0.0000000000000000e+00" itree="57">
      <Node pos="s" depth="0" NCoef="0" IVar="3" Cut="1.1845899820327759e+00" cType="0" res="5.0085407495498657e-01" rms="4.9999928474426270e-01" purity="1.0000000000000000e+00" nType="0">
        <Node pos="l" depth="1" NCoef="0" IVar="2" Cut="3.8153169155120850e+00" cType="0" res="3.9998444914817810e-01" rms="4.8989477753639221e-01" purity="1.0000000000000000e+00" nType="0">
          <Node pos="l" depth="2" NCoef="0" IVar="-1" Cut="0.0000000000000000e+00" cType="1" res="6.0168987512588501e-01" rms="4.8954996466636658e-01" purity="1.0000000000000000e+00" nType="-99"/>
          <Node pos="r" depth="2" NCoef="0" IVar="-1" Cut="0.0000000000000000e+00" cType="1" res="3.4857070446014404e-01" rms="4.7651776671409607e-01" purity="1.0000000000000000e+00" nType="-99"/>
        </Node>
        <Node pos="r" depth="1" NCoef="0" IVar="2" Cut="-3.4448254108428955e+00" cType="0" res="5.4602921009063721e-01" rms="4.9787679314613342e-01" purity="1.0000000000000000e+00" nType="0">
          <Node pos="l" depth="2" NCoef="0" IVar="-1" Cut="0.0000000000000000e+00" cType="1" res="5.8554303646087646e-01" rms="4.9262803792953491e-01" purity="1.0000000000000000e+00" nType="-99"/>
          <Node pos="r" depth="2" NCoef="0" IVar="-1" Cut="0.0000000000000000e+00" cType="1" res="3.4484124183654785e-01" rms="4.7531649470329285e-01" purity="1.0000000000000000e+00" nType="-99"/>
        </Node>
      </Node>
    </BinaryTree>
    <BinaryTree type="DecisionTree" boostWeight="0.0000000000000000e+00" itree="58">
      <Node pos="s" depth="0" NCoef="0" IVar="3" Cut="1.1845899820327759e+00" cType="0" res="5.0085407495498657e-01" rms="4.9999928474426270e-01" purity="1.0000000000000000e+00" nType="0">
        <Node pos="l" depth="1" NCoef="0" IVar="2" Cut="3.8153169155120850e+00" cType="0" res="3.9998444914817810e-01" rms="4.8989477753639221e-01" purity="1.0000000000000000e+00" nType="0">
          <Node pos="l" depth="2" NCoef="0" IVar="-1" Cut="0.0000000000000000e+00" cType="1" res="6.0168987512588501e-01" rms="4.8954996466636658e-01" purity="1.0000000000000000e+00" nType="-99"/>
          <Node pos="r" depth="2" NCoef="0" IVar="-1" Cut="0.0000000000000000e+00" cType="1" res="3.4857070446014404e-01" rms="4.7651776671409607e-01" purity="1.0000000000000000e+00" nType="-99"/>
        </Node>
        <Node pos="r" depth="1" NCoef="0" IVar="2" Cut="-3.4448254108428955e+00" cType="0" res="5.4602921009063721e-01" rms="4.9787679314613342e-01" purity="1.0000000000000000e+00" nType="0">
          <Node pos="l" depth="2" NCoef="0" IVar="-1" Cut="0.0000000000000000e+00" cType="1" res="5.8554303646087646e-01" rms="4.9262803792953491e-01" purity="1.0000000000000000e+00" nType="-99"/>
          <Node pos="r" depth="2" NCoef="0" IVar="-1" Cut="0.0000000000000000e+00" cType="1" res="3.4484124183654785e-01" rms="4.7531649470329285e-01" purity="1.0000000000000000e+00" nType="-99"/>
        </Node>
      </Node>
    </BinaryTree>
    <BinaryTree type="DecisionTree" boostWeight="0.0000000000000000e+00" itree="59">
      <Node pos="s" depth="0" NCoef="0" IVar="3" Cut="1.1845899820327759e+00" cType="0" res="5.0085407495498657e-01" rms="4.9999928474426270e-01" purity="1.0000000000000000e+00" nType="0">
        <Node pos="l" depth="1" NCoef="0" IVar="2" Cut="3.8153169155120850e+00" cType="0" res="3.9998444914817810e-01" rms="4.8989477753639221e-01" purity="1.0000000000000000e+00" nType="0">
          <Node pos="l" depth="2" NCoef="0" IVar="-1" Cut="0.0000000000000000e+00" cType="1" res="6.0168987512588501e-01" rms="4.8954996466636658e-01" purity="1.0000000000000000e+00" nType="-99"/>
          <Node pos="r" depth="2" NCoef="0" IVar="-1" Cut="0.0000000000000000e+00" cType="1" res="3.4857070446014404e-01" rms="4.7651776671409607e-01" purity="1.0000000000000000e+00" nType="-99"/>
        </Node>
        <Node pos="r" depth="1" NCoef="0" IVar="2" Cut="-3.4448254108428955e+00" cType="0" res="5.4602921009063721e-01" rms="4.9787679314613342e-01" purity="1.0000000000000000e+00" nType="0">
          <Node pos="l" depth="2" NCoef="0" IVar="-1" Cut="0.0000000000000000e+00" cType="1" res="5.8554303646087646e-01" rms="4.9262803792953491e-01" purity="1.0000000000000000e+00" nType="-99"/>
          <Node pos="r" depth="2" NCoef="0" IVar="-1" Cut="0.0000000000000000e+00" cType="1" res="3.4484124183654785e-01" rms="4.7531649470329285e-01" purity="1.0000000000000000e+00" nType="-99"/>
        </Node>
      </Node>
    </BinaryTree>
    <BinaryTree type="DecisionTree" boostWeight="0.0000000000000000e+00" itree="60">
      <Node pos="s" depth="0" NCoef="0" IVar="3" Cut="1.1845899820327759e+00" cType="0" res="5.0085407495498657e-01" rms="4.9999928474426270e-01" purity="1.0000000000000000e+00" nType="0">
        <Node pos="l" depth="1" NCoef="0" IVar="2" Cut="3.8153169155120850e+00" cType="0" res="3.9998444914817810e-01" rms="4.8989477753639221e-01" purity="1.0000000000000000e+00" nType="0">
          <Node pos="l" depth="2" NCoef="0" IVar="-1" Cut="0.0000000000000000e+00" cType="1" res="6.0168987512588501e-01" rms="4.8954996466636658e-01" purity="1.0000000000000000e+00" nType="-99"/>
          <Node pos="r" depth="2" NCoef="0" IVar="-1" Cut="0.0000000000000000e+00" cType="1" res="3.4857070446014404e-01" rms="4.7651776671409607e-01" purity="1.0000000000000000e+00" nType="-99"/>
        </Node>
        <Node pos="r" depth="1" NCoef="0" IVar="2" Cut="-3.4448254108428955e+00" cType="0" res="5.4602921009063721e-01" rms="4.9787679314613342e-01" purity="1.0000000000000000e+00" nType="0">
          <Node pos="l" depth="2" NCoef="0" IVar="-1" Cut="0.0000000000000000e+00" cType="1" res="5.8554303646087646e-01" rms="4.9262803792953491e-01" purity="1.0000000000000000e+00" nType="-99"/>
          <Node pos="r" depth="2" NCoef="0" IVar="-1" Cut="0.0000000000000000e+00" cType="1" res="3.4484124183654785e-01" rms="4.7531649470329285e-01" purity="1.0000000000000000e+00" nType="-99"/>
        </Node>
      </Node>
    </BinaryTree>
    <BinaryTree type="DecisionTree" boostWeight="0.0000000000000000e+00" itree="61">
      <Node pos="s" depth="0" NCoef="0" IVar="3" Cut="1.1845899820327759e+00" cType="0" res="5.0085407495498657e-01" rms="4.9999928474426270e-01" purity="1.0000000000000000e+00" nType="0">
        <Node pos="l" depth="1" NCoef="0" IVar="2" Cut="3.8153169155120850e+00" cType="0" res="3.9998444914817810e-01" rms="4.8989477753639221e-01" purity="1.0000000000000000e+00" nType="0">
          <Node pos="l" depth="2" NCoef="0" IVar="-1" Cut="0.0000000000000000e+00" cType="1" res="6.0168987512588501e-01" rms="4.8954996466636658e-01" purity="1.0000000000000000e+00" nType="-99"/>
          <Node pos="r" depth="2" NCoef="0" IVar="-1" Cut="0.0000000000000000e+00" cType="1" res="3.4857070446014404e-01" rms="4.7651776671409607e-01" purity="1.0000000000000000e+00" nType="-99"/>
        </Node>
        <Node pos="r" depth="1" NCoef="0" IVar="2" Cut="-3.4448254108428955e+00" cType="0" res="5.4602921009063721e-01" rms="4.9787679314613342e-01" purity="1.0000000000000000e+00" nType="0">
          <Node pos="l" depth="2" NCoef="0" IVar="-1" Cut="0.0000000000000000e+00" cType="1" res="5.8554303646087646e-01" rms="4.9262803792953491e-01" purity="1.0000000000000000e+00" nType="-99"/>
          <Node pos="r" depth="2" NCoef="0" IVar="-1" Cut="0.0000000000000000e+00" cType="1" res="3.4484124183654785e-01" rms="4.7531649470329285e-01" purity="1.0000000000000000e+00" nType="-99"/>
        </Node>
      </Node>
    </BinaryTree>
    <BinaryTree type="DecisionTree" boostWeight="0.0000000000000000e+00" itree="62">
      <Node pos="s" depth="0" NCoef="0" IVar="3" Cut="1.1845899820327759e+00" cType="0" res="5.0085407495498657e-01" rms="4.9999928474426270e-01" purity="1.0000000000000000e+00" nType="0">
        <Node pos="l" depth="1" NCoef="0" IVar="2" Cut="3.8153169155120850e+00" cType="0" res="3.9998444914817810e-01" rms="4.8989477753639221e-01" purity="1.0000000000000000e+00" nType="0">
          <Node pos="l" depth="2" NCoef="0" IVar="-1" Cut="0.0000000000000000e+00" cType="1" res="6.0168987512588501e-01" rms="4.8954996466636658e-01" purity="1.0000000000000000e+00" nType="-99"/>
          <Node pos="r" depth="2" NCoef="0" IVar="-1" Cut="0.0000000000000000e+00" cType="1" res="3.4857070446014404e-01" rms="4.7651776671409607e-01" purity="1.0000000000000000e+00" nType="-99"/>
        </Node>
        <Node pos="r" depth="1" NCoef="0" IVar="2" Cut="-3.4448254108428955e+00" cType="0" res="5.4602921009063721e-01" rms="4.9787679314613342e-01" purity="1.0000000000000000e+00" nType="0">
          <Node pos="l" depth="2" NCoef="0" IVar="-1" Cut="0.0000000000000000e+00" cType="1" res="5.8554303646087646e-01" rms="4.9262803792953491e-01" purity="1.0000000000000000e+00" nType="-99"/>
          <Node pos="r" depth="2" NCoef="0" IVar="-1" Cut="0.0000000000000000e+00" cType="1" res="3.4484124183654785e-01" rms="4.7531649470329285e-01" purity="1.0000000000000000e+00" nType="-99"/>
        </Node>
      </Node>
    </BinaryTree>
