<?xml version="1.0"?>
<MethodSetup Method="MLP::MLP">
  <GeneralInfo>
    <Info name="TMVA Release" value="4.1.4 [262404]"/>
    <Info name="ROOT Release" value="5.34/05 [336389]"/>
    <Info name="Creator" value="clester"/>
    <Info name="Date" value="Tue Mar 18 10:25:27 2014"/>
    <Info name="Host" value="Darwin pb-d-128-141-154-76.cern.ch 12.2.1 Darwin Kernel Version 12.2.1: Thu Oct 18 16:32:48 PDT 2012; root:xnu-2050.20.9~2/RELEASE_X86_64 x86_64"/>
    <Info name="Dir" value="/Users/clester/marchMadnessChallenge"/>
    <Info name="Training events" value="1092"/>
    <Info name="TrainingTime" value="8.89680719e+01"/>
    <Info name="AnalysisType" value="Regression"/>
  </GeneralInfo>
  <Options>
    <Option name="NCycles" modified="Yes">6000</Option>
    <Option name="HiddenLayers" modified="Yes">N+5</Option>
    <Option name="NeuronType" modified="Yes">tanh</Option>
    <Option name="RandomSeed" modified="No">1</Option>
    <Option name="EstimatorType" modified="No">MSE</Option>
    <Option name="NeuronInputType" modified="No">sum</Option>
    <Option name="V" modified="Yes">False</Option>
    <Option name="VerbosityLevel" modified="No">Default</Option>
    <Option name="VarTransform" modified="Yes">Norm</Option>
    <Option name="H" modified="Yes">False</Option>
    <Option name="CreateMVAPdfs" modified="No">False</Option>
    <Option name="IgnoreNegWeightsInTraining" modified="No">False</Option>
    <Option name="TrainingMethod" modified="No">BP</Option>
    <Option name="LearningRate" modified="No">2.000000e-02</Option>
    <Option name="DecayRate" modified="No">1.000000e-02</Option>
    <Option name="TestRate" modified="Yes">6</Option>
    <Option name="EpochMonitoring" modified="No">False</Option>
    <Option name="Sampling" modified="No">1.000000e+00</Option>
    <Option name="SamplingEpoch" modified="No">1.000000e+00</Option>
    <Option name="SamplingImportance" modified="No">1.000000e+00</Option>
    <Option name="SamplingTraining" modified="No">True</Option>
    <Option name="SamplingTesting" modified="No">False</Option>
    <Option name="ResetStep" modified="No">50</Option>
    <Option name="Tau" modified="No">3.000000e+00</Option>
    <Option name="BPMode" modified="No">sequential</Option>
    <Option name="BatchSize" modified="No">-1</Option>
    <Option name="ConvergenceImprove" modified="No">1.000000e-30</Option>
    <Option name="ConvergenceTests" modified="No">-1</Option>
    <Option name="UseRegulator" modified="Yes">True</Option>
    <Option name="UpdateLimit" modified="No">10000</Option>
    <Option name="CalculateErrors" modified="No">False</Option>
    <Option name="WeightRange" modified="No">1.000000e+00</Option>
  </Options>
  <Variables NVar="4">
    <Variable VarIndex="0" Expression="seed_prob" Label="seed_prob" Title="seed_prob" Unit="" Internal="seed_prob" Type="F" Min="0.00000000e+00" Max="1.00000000e+00"/>
    <Variable VarIndex="1" Expression="winfrac1-winfrac2" Label="winfrac1-winfrac2" Title="winfrac1-winfrac2" Unit="" Internal="winfrac1_M_winfrac2" Type="F" Min="-5.04464269e-01" Max="6.11607134e-01"/>
    <Variable VarIndex="2" Expression="avg_scorediff1-avg_scorediff2" Label="avg_scorediff1-avg_scorediff2" Title="avg_scorediff1-avg_scorediff2" Unit="" Internal="avg_scorediff1_M_avg_scorediff2" Type="F" Min="-2.33035717e+01" Max="2.90575752e+01"/>
    <Variable VarIndex="3" Expression="avg_score_against1-avg_score_against2" Label="avg_score_against1-avg_score_against2" Title="avg_score_against1-avg_score_against2" Unit="" Internal="avg_score_against1_M_avg_score_against2" Type="F" Min="-2.50357170e+01" Max="2.12218971e+01"/>
  </Variables>
  <Spectators NSpec="1">
    <Spectator SpecIndex="0" Expression="season" Label="season" Title="season" Unit="" Internal="season" Type="F" Min="6.50000000e+01" Max="8.20000000e+01"/>
  </Spectators>
  <Classes NClass="1">
    <Class Name="Regression" Index="0"/>
  </Classes>
  <Targets NTrgt="1">
    <Target TargetIndex="0" Expression="game_outcome" Label="game_outcome" Title="game_outcome" Unit="" Internal="game_outcome" Type="F" Min="0.00000000e+00" Max="1.00000000e+00"/>
  </Targets>
  <Transformations NTransformations="1">
    <Transform Name="Normalize">
      <Selection>
        <Input NInputs="5">
          <Input Type="Variable" Label="seed_prob" Expression="seed_prob"/>
          <Input Type="Variable" Label="winfrac1-winfrac2" Expression="winfrac1-winfrac2"/>
          <Input Type="Variable" Label="avg_scorediff1-avg_scorediff2" Expression="avg_scorediff1-avg_scorediff2"/>
          <Input Type="Variable" Label="avg_score_against1-avg_score_against2" Expression="avg_score_against1-avg_score_against2"/>
          <Input Type="Target" Label="game_outcome" Expression="game_outcome"/>
        </Input>
        <Output NOutputs="5">
          <Output Type="Variable" Label="seed_prob" Expression="seed_prob"/>
          <Output Type="Variable" Label="winfrac1-winfrac2" Expression="winfrac1-winfrac2"/>
          <Output Type="Variable" Label="avg_scorediff1-avg_scorediff2" Expression="avg_scorediff1-avg_scorediff2"/>
          <Output Type="Variable" Label="avg_score_against1-avg_score_against2" Expression="avg_score_against1-avg_score_against2"/>
          <Output Type="Target" Label="game_outcome" Expression="game_outcome"/>
        </Output>
      </Selection>
      <Class ClassIndex="0">
        <Ranges>
          <Range Index="0" Min="0.0000000000000000e+00" Max="1.0000000000000000e+00"/>
          <Range Index="1" Min="-5.0446426868438721e-01" Max="6.1160713434219360e-01"/>
          <Range Index="2" Min="-2.3303571701049805e+01" Max="2.9057575225830078e+01"/>
          <Range Index="3" Min="-2.5035717010498047e+01" Max="2.1221897125244141e+01"/>
          <Range Index="4" Min="0.0000000000000000e+00" Max="1.0000000000000000e+00"/>
        </Ranges>
      </Class>
    </Transform>
  </Transformations>
  <MVAPdfs/>
  <Weights>
    <Layout NLayers="3">
      <Layer Index="0" NNeurons="5">
        <Neuron NSynapses="9">
          -4.2185416295860279e-01 1.1988627623202668e+00 5.5928430348270874e-01 7.3068499616261129e-01 -1.0002389849374711e+00 1.0575908273096206e-01 2.5800658927382619e-02 1.0682362546340718e+00 -8.2497116062865194e-01 
        </Neuron>
        <Neuron NSynapses="9">
          -4.8852566968555083e-01 -1.8750545399562371e+00 -8.6643356845065622e-01 -1.1974164610244253e+00 -9.0576618609545925e-02 -5.9009100923619995e-01 4.9767960583100695e-01 -2.7199196522239988e-01 1.1114196195350994e+00 
        </Neuron>
        <Neuron NSynapses="9">
          -4.1933303659635973e-01 1.1708864880578171e+00 -3.1215379748121184e-02 -5.7858593880560549e-01 1.1017974056690734e+00 6.7884014614717458e-01 -7.3573903927195450e-01 -6.0947546087127924e-01 1.4773085399438695e+00 
        </Neuron>
        <Neuron NSynapses="9">
          -1.4092006299501825e+00 -1.4225183411318236e+00 1.9893225046861282e-01 -9.0765526950441544e-01 1.2030215950379863e+00 -2.5705267101010293e-01 -8.6239566019511674e-02 -4.5525861909162149e-02 -8.2832480502243022e-01 
        </Neuron>
        <Neuron NSynapses="9">
          -2.4060745130159319e-01 4.8817113946553331e-01 -2.5040225261047488e-01 3.0572938823369022e-01 -2.2579521441490283e-01 6.7687406192296531e-02 2.3648544910324110e+00 7.6519444476104745e-02 3.4835106018855880e-02 
        </Neuron>
      </Layer>
      <Layer Index="1" NNeurons="10">
        <Neuron NSynapses="1">
          -5.4206178074509892e-01 
        </Neuron>
        <Neuron NSynapses="1">
          5.3754388621890796e-02 
        </Neuron>
        <Neuron NSynapses="1">
          1.9860320748295840e-01 
        </Neuron>
        <Neuron NSynapses="1">
          5.6706985862175330e-01 
        </Neuron>
        <Neuron NSynapses="1">
          1.4500249379264640e-01 
        </Neuron>
        <Neuron NSynapses="1">
          -5.3985045117618136e-03 
        </Neuron>
        <Neuron NSynapses="1">
          1.5134210099773715e+00 
        </Neuron>
        <Neuron NSynapses="1">
          1.1133234063284797e-01 
        </Neuron>
        <Neuron NSynapses="1">
          4.4023860986411478e-01 
        </Neuron>
        <Neuron NSynapses="1">
          -1.1877623728628137e+00 
        </Neuron>
      </Layer>
      <Layer Index="2" NNeurons="1">
        <Neuron NSynapses="0"/>
      </Layer>
    </Layout>
    <InverseHessian NElements="3025" NRows="55" NCols="55">
      <Row Index="0">
        7.0861918233082140e+00 1.0076206501792294e+01 -1.6818359955024309e+01 -1.9676863947717577e-01 -7.4470927270058844e+00 2.7940819810454244e+01 -1.6313805471210454e+01 1.5006670753722828e+01 6.6125424693989049e-02 -1.9777686614495038e+00 -5.1939151686165603e+00 4.3575909302609368e+00 1.9646210818869834e+00 -1.0251699358725586e+01 4.1808630997193973e+01 -6.8701311368636922e+01 -8.5728544823053312e+00 3.3956495972170919e-01 -3.9086472257845215e+00 -1.7032568644247057e+00 1.8241917436772333e+01 1.0754949422767004e+00 1.8368640287797163e+01 1.0119912970295573e+02 1.3050479201521114e+02 2.7433162651339444e+01 9.5614875767752006e-01 2.0935121503526006e+00 -1.2808676128924972e+01 2.4941622709388582e+00 4.8853226059912700e+00 2.3565526708341359e+01 1.7048325830864070e+02 3.7226500541343214e+01 7.4570068171275295e+01 3.6101577033641719e-01 -9.9092044849112393e-01 5.2361256148051822e+00 -5.5256658435941706e+00 -3.8271189214514312e+00 -1.7444561546385455e+00 3.9993790340121217e+02 -1.9161957132493077e+02 -6.9135464469326342e+00 -1.5016259606693255e-01 -1.8681850167320404e+00 -8.8547119299678156e-01 3.0848825394948598e-01 4.2600300265907993e+00 -8.1526354800118561e+00 9.1921322172943860e+00 3.9950862144936352e+01 -5.9658768352364930e+00 -4.5755503235157119e-01 -2.6894713261814793e+01 
      </Row>
      <Row Index="1">
        1.0076206501703208e+01 9.7826490478605319e+02 -1.0836281212642355e+02 6.2473206467972666e+00 -1.5583069507518312e+02 -4.5222197600272711e+03 -3.3949937618144668e+02 3.1042524208680732e+02 -1.2134401408522413e+01 1.7046863469736138e+00 -2.1587181338519667e+03 2.1216970696760367e+02 6.1357859793508283e+00 -3.0009674120034646e+02 1.7807267048667397e+03 -5.1420337369349454e+02 -1.1154532814282757e+02 1.1045844124762954e+01 8.2935007845221875e-01 1.7133009994778470e+03 3.9100797382452953e+01 1.7045847214932810e+01 6.1242327552384268e+02 -2.4978340590873408e+03 1.1106814402635416e+03 -1.6554245162499024e+02 3.0110044909746957e+01 3.1556958516390439e+00 -1.0390312281161134e+03 2.0032293078392161e+01 -1.3486970676740235e+01 1.0249295564894707e+02 3.1656568144605167e+03 4.1545763350972129e+02 -9.3931685856509304e+01 -1.9553849103211650e+01 2.8762242501340665e+00 3.2659084404736342e+02 -2.5470894155042902e+01 -1.7208672657011423e+00 6.6619446734896883e+01 -2.2600086626387729e+03 -1.3889074288877900e+03 5.0506920717363514e+01 3.4419879646767644e+00 -8.4340450664941589e+00 -1.2403144909419785e+02 6.7096096215068300e+01 1.9873803798622479e+01 -8.0569426792937293e+01 1.3256622254211953e+02 2.0664669156175208e+02 -5.5251231607924126e+01 -2.0142571045952717e+01 -1.2158997890257029e+02 
      </Row>
      <Row Index="2">
        -1.6818359954095651e+01 -1.0836281212204631e+02 6.4005359288584873e+02 -2.8557159570643353e+01 1.2319266779473021e+02 -3.1631949391582752e+03 3.1528959669468833e+02 -1.7831550833580476e+02 -8.5235358374936734e+00 3.8660717352839193e+01 2.1795646282018788e+02 -4.1453410145547400e+02 5.0037856379822401e+01 -1.3984270579322524e+02 5.4406657152258431e+03 7.2522942702850537e+02 6.8514142632418793e+02 2.8091815962638873e+00 -2.9897194366785413e+00 -1.5278207948080524e+02 -6.1748640991881200e+02 -9.2074525700618159e-01 -1.4792837218335552e+02 2.7230068171793046e+03 -1.6311694743004120e+03 -2.4994461402379429e+02 -2.8124326839522634e+01 1.8100308871471622e+00 1.9364273823266691e+02 1.6323604931744015e+01 3.5298907710337497e+00 -2.2708046003921419e+02 -3.7731817020640242e+03 2.0618187690622811e+01 -3.5118576861188319e+02 -9.4837198093046027e-02 8.8244275920265736e+00 -6.4837176285648212e+01 1.9758272130757365e+02 2.1257250128850416e+01 1.9162588433031136e-01 2.7028925539604852e+03 2.0804196647829208e+03 1.2385574329536371e+02 1.4385702970695942e+00 -3.4481232360266727e+00 1.6231416843780472e+01 -1.5095404380274582e+02 3.9030541668806755e+00 5.8167733844695483e+01 -1.3042174053988020e+01 -4.9606626180997409e+02 -4.1868271846292942e+00 2.0743650294568532e+01 3.0445278599558031e+02 
      </Row>
      <Row Index="3">
        -1.9676863963364832e-01 6.2473206460520601e+00 -2.8557159570681613e+01 1.8714290674679077e+01 -2.0099854883654558e+01 2.8083667413509880e+02 -2.2476802033725562e+01 6.1780045537052573e+00 -7.1746175657900779e-01 -3.7641397775793703e+00 -2.1049991106366711e+01 3.2732110649449297e+01 -2.4740497618782157e+01 3.7975138532578425e+00 4.6325480567210496e+02 -1.9292799752312024e+02 -1.9597607030477018e+01 -5.0835256885286828e-01 2.1901400706113625e+00 5.8480637492191526e+01 2.4100845603602231e+01 -5.7472686037617464e+00 1.9082432621283246e+01 5.6508595459719845e+02 2.7629874487715404e+02 3.2938733326325213e+01 4.9622469002963125e+00 -3.8282003155086177e+00 -3.2047326095684944e+01 -3.7802147457638569e-01 -9.3869568831891534e+00 2.2136279134507909e+01 1.5361160702681599e+02 1.0126018520475490e+00 2.9006273669867191e+01 -1.1863926294564067e+00 -2.3265929324175030e+00 9.2451304352460859e+00 -1.9372331349921279e+01 1.8702204147275212e+00 -3.0826151360025875e+00 -3.1139165590195233e+02 -3.6395415467396134e+02 -3.2054044416993221e+00 -1.2070964895447234e-01 3.0017042519644503e+00 -3.2883090468652116e+00 1.0659072651491448e+01 -1.5000106239350616e+01 -6.7270060207288305e+00 2.0819559370468845e+01 8.8035070116200728e+01 -4.2428324683166352e-01 -2.2804303111760884e+00 -6.0600621107664381e+01 
      </Row>
      <Row Index="4">
        -7.4470927271529073e+00 -1.5583069507606814e+02 1.2319266779765182e+02 -2.0099854884205641e+01 3.0245753468703788e+02 1.8899826392656632e+02 5.5533386223927778e+01 -2.7594250794498350e+02 1.6105006533880362e-02 -6.3545584097257173e+00 1.2748776435775206e+02 -6.7731364442768481e+01 3.3598375411513075e+01 1.3433909568445575e+01 -6.5417122164036277e+02 1.3734947066363108e+02 5.1891284766363263e+01 -5.1435604827282306e+00 5.0518377448053489e+00 3.5321134210682935e+01 -5.0391644272622877e+01 1.6564783542885237e+01 -2.9105916149865169e+02 7.7048324144489675e+02 -2.8942592967129440e+02 2.0674721569557991e+02 8.2793332219108482e+00 -1.0074038223458787e+01 1.7620856893382387e+02 -7.0863263234962730e+01 -4.5651813456303305e+00 -2.3622670353398806e+02 9.3709820093263170e+02 -1.9158789176927920e+02 6.8380536820227178e+01 -9.6902737105952070e+00 4.7541173315249061e+00 -1.7087947867779246e+01 -2.3656613638176061e+01 6.7873323517471107e+00 8.1235919353512056e+00 -8.6398032395667008e+02 4.2261754520585237e+02 3.9163417982319388e+01 3.0935064722455952e-01 9.8147305438486043e+00 8.2227238629030506e+00 -4.1473799080755661e+01 2.4903903894565065e+01 6.6488051018114078e+01 -4.2900292246923541e+01 -4.6936364894980876e+01 4.2997752297588292e+01 -6.3055347907470614e+00 1.3477566914709362e+01 
      </Row>
      <Row Index="5">
        2.7940819794231075e+01 -4.5222197601016596e+03 -3.1631949391449189e+03 2.8083667413184162e+02 1.8899826398206022e+02 5.5384566139834910e+05 -5.1723625384618645e+03 -1.4327978450189898e+04 1.1864493559858573e+01 -7.3290266101312028e+01 1.0982983970017945e+04 2.8945559693697032e+03 -3.5644492700532180e+02 3.4473341699758867e+03 -2.2084024571800843e+05 -1.1668266460063354e+04 3.5146335075754632e+03 1.8993775232325424e+02 3.2772298085464433e+02 -6.4024471477661682e+03 6.2557341688945826e+03 1.5899548151973795e+02 -3.1398338176849911e+03 -1.7396303151011423e+05 2.5473316453196621e+04 5.8053865934093319e+03 4.1027120368927979e+02 2.6802888529570464e+02 9.4224712208162437e+03 -8.0628001936907776e+02 -3.5304505893033070e+02 -2.4772936022424165e+03 -4.4889771546862350e+04 2.1926561815953141e+03 -1.4406429724183081e+03 -2.6249359491849827e+02 4.3512562511886316e+01 -3.7582664604150023e+03 -1.5801280692357059e+03 1.5585781756496630e+01 4.0719900246677724e+02 6.3355676410702639e+04 -3.5902037585592669e+04 -8.1046285944817055e+02 -5.5822065045564898e+01 -2.5411480127207247e+02 8.4704519302855726e+02 1.3066363471669108e+03 6.3750164419228668e+00 1.0151961713099390e+03 6.1027080207140898e+02 8.2335234753236691e+03 3.9302363643103181e+03 -4.5364738603520664e+02 -5.5597848153037694e+03 
      </Row>
      <Row Index="6">
        -1.6313805470447036e+01 -3.3949937617786600e+02 3.1528959670047232e+02 -2.2476802034657734e+01 5.5533386221000676e+01 -5.1723625385889809e+03 1.3362793625565791e+03 6.6471987154919574e+01 1.4815972940475914e+01 2.2761789144252685e+01 8.2443846109254810e+02 2.2062495664379501e+01 -6.7278756285586240e+01 1.1482722539942237e+02 1.2178989941550842e+03 -3.2595197074308186e+02 9.7153585822848697e+01 -1.8545451853642135e+01 -2.1489417785658276e+00 -8.4348327489628355e+02 -1.0234064109413387e+03 1.1818739041128083e+01 -4.3007802243113724e+02 2.6618559514104577e+03 -1.8954121256377216e+03 2.3105752155372727e+01 -1.0326922601395729e+02 1.1467819723768560e+01 6.1813667446749832e+02 1.4688358347333076e+02 -2.5842643133868492e+01 -3.1157047091885012e+01 1.2913617624530252e+03 -5.9325016720981671e+02 -1.7052678066817978e+02 3.7688146534111638e+01 3.2329364797261126e+00 -1.4053150687781442e+02 3.9448545433573952e+02 7.0197523807785913e+00 -4.7866401016564652e+01 -1.0758683603736314e+04 2.5247948656529984e+03 -6.3509700807081572e+01 -1.5384742931848692e+00 -4.8653418264457535e+00 6.7391503729219494e+01 -6.0641525319475214e+01 -9.1439010609311566e+01 2.0180406254819424e+01 -7.6829082723996933e+01 -6.6823894028332199e+02 -6.7228544996689493e+01 6.9258842288573177e+01 4.0354837841573021e+02 
      </Row>
      <Row Index="7">
        1.5006670754258900e+01 3.1042524209112298e+02 -1.7831550836018414e+02 6.1780045578785732e+00 -2.7594250794229572e+02 -1.4327978449813359e+04 6.6471987129709305e+01 1.7609936517866558e+03 -8.0952659287867554e+00 4.3964317693425684e+01 -9.9975116661121865e+02 5.6639092413097956e+02 5.6725171435682483e+01 -2.7591230277097412e+02 -6.7435937364801093e+03 -2.0976580304134154e+03 -1.1116909560626448e+02 5.2377034490646110e+00 -3.0498420217816744e+01 5.9300463651220105e+02 -2.8506838773259892e+02 -5.0282765315542292e+01 6.2459123505578964e+02 -7.7561061035037335e+02 2.9992841703975528e+03 -1.1415510196595610e+03 -3.6797133185453617e+01 3.5995231559445060e+01 -4.9131821601438151e+02 -9.3113189494519361e+01 3.3444573008732732e+01 3.0942100346585391e+02 -2.3102321178278935e+03 7.2997982001288153e+02 -6.0886866503463992e+01 2.3077490029226738e+01 -5.4821877381469317e+00 2.0907023970804701e+02 3.2752007740354145e+02 -7.7945839396403276e+00 -3.4751906204516487e+01 4.6903819195139602e+02 -3.9654885966798279e+03 1.1734579653679542e+02 -6.3068017245112671e+00 -2.7138846166368001e+01 -5.3134298850966353e+01 3.3460586160356792e+02 1.4837449817351516e+01 -1.1129568576565981e+02 1.8916087568978770e+02 8.3282639118527311e+02 -4.4932608821168407e+02 2.3967303231556269e+01 -5.9049619993842612e+02 
      </Row>
      <Row Index="8">
        6.6125424664984708e-02 -1.2134401408718505e+01 -8.5235358372654204e+00 -7.1746175662505651e-01 1.6105006628447334e-02 1.1864493556023319e+01 1.4815972940815385e+01 -8.0952659294682032e+00 9.1813408672240246e+00 -4.4427558686657848e-02 1.2052448723962272e+01 1.5000096498509610e+01 -2.7721222078395789e+00 -8.1904483810911550e+00 4.8808645947149097e+02 -3.8277357647957089e+01 1.1274869126306214e+01 -1.2398173216301029e+01 8.4283944996299165e-01 -1.0753081908552137e+01 7.0379168936663650e-01 -9.1007165253945033e-02 -5.9373055856254853e+00 3.4888975372503666e+02 4.4247111232878424e+00 1.0564212783403345e+01 -1.1053321411210922e+01 -4.4326983667028580e-01 1.0051416034370098e+01 -6.8686478245218741e+00 -8.8127241761664643e-02 -5.9249007635013475e+00 -1.5114223076766908e+02 5.5877568781781406e-05 -1.3527046887046009e+01 5.8016800196882130e+00 1.5217800087935840e-01 -3.1252236307615719e+00 8.0445554926444700e+00 -3.7435692834539624e-02 1.8734166778561618e+00 -2.0757921165888638e+02 -1.1749380781652462e+01 1.2324192883380607e+00 -1.2382423122715127e+00 -9.7768285509771014e-02 1.3917853008012071e+00 7.5333795955264629e+00 -4.2428174552589475e+00 2.6700198033730282e-01 -7.3989576069698906e+00 6.3567677391152628e+00 2.5932207469419772e+00 6.9143586990192549e+00 -5.3404824923639573e+00 
      </Row>
      <Row Index="9">
        -1.9777686614155146e+00 1.7046863472697424e+00 3.8660717351732274e+01 -3.7641397773943623e+00 -6.3545584096011076e+00 -7.3290266084098221e+01 2.2761789143056490e+01 4.3964317693904718e+01 -4.4427558661021771e-02 2.0307009536268424e+01 8.8361934996297578e+00 -2.7409639985551433e+01 1.0939932036863492e+01 -2.1311118589670997e+01 1.1163439955470287e+02 -9.8077260885676736e+01 9.6877016352360101e+01 -1.0617744112673080e+00 -7.7631984166956176e+00 -2.6392281791531246e+01 -4.4446911454584267e+01 -7.6563805804385368e+00 2.0679769200524227e+01 2.0254819763210182e+02 1.6542264429279061e+02 -1.4911547932282986e+02 -4.8834404810516503e+00 1.1040068890304443e+01 5.1734877425359713e+01 -1.2114925265073976e+01 3.6172246535075558e+00 -4.0255694522970330e+01 -3.8324004980493675e+02 9.1501601669508887e+01 -7.5190964783234747e+01 3.5974527882536194e+00 1.8524989053664926e+00 -1.2023270600289390e+01 2.4458877498954539e+01 2.9053680480023045e+00 5.5165443707596058e+00 1.6436942872697838e+02 -2.0249931550713598e+02 5.8879890338965417e+00 -4.6991982723105019e-01 -8.3556003195571034e+00 2.6672834124163951e+00 -1.5707246690547877e-01 1.8630750790804256e+00 7.3921103007703728e+00 1.1254463644990537e+01 2.9261033279330267e+01 -1.0578731163784063e+01 3.9769558287127058e+00 -2.5302986257672934e+01 
      </Row>
      <Row Index="10">
        -5.1939151689019685e+00 -2.1587181338552459e+03 2.1795646284390295e+02 -2.1049991110507385e+01 1.2748776435498337e+02 1.0982983969626781e+04 8.2443846111471794e+02 -9.9975116660723711e+02 1.2052448723036882e+01 8.8361935001432670e+00 9.9483112271730351e+03 -7.9993527473079587e+02 -3.3449753637415789e+01 2.2057843320193028e+03 8.0980871766376549e+02 2.5842983174201540e+03 8.9222159792593629e+02 1.5047521601543394e+01 -2.9737100474932188e+01 -9.8117127437214131e+03 2.8405815849284534e+02 2.3944494553954428e+01 -3.1097694773815774e+03 3.6072936601395822e+03 -4.2581318799585351e+03 -2.5870847743522791e+02 -5.6146826874414728e+01 -4.7870001432030271e+00 3.1834096173617199e+03 7.1824709452049206e+01 1.3813529739421423e+01 -2.8101056154253979e+02 6.2322086748840093e+02 -1.3515760615446220e+03 2.2266406105788911e+02 1.0848874335109940e+01 -3.9386612595800954e+00 -1.3601124153380078e+03 2.1577764542745395e+00 -5.1616245252412538e+00 -3.4171376163959127e+02 -1.1304686009822335e+03 5.2854530110378646e+03 -2.2151560710274629e+02 -3.3630073233304607e+00 9.0002206872991373e+00 4.9828389643740070e+02 -2.3216570581321389e+02 -1.8615221149182062e+01 4.4456097066050313e+02 -3.5233054789959556e+02 -8.0859245567683399e+02 2.1741656049669507e+02 1.8261068723552391e+01 4.6945580457879259e+02 
      </Row>
      <Row Index="11">
        4.3575909294183095e+00 2.1216970696312455e+02 -4.1453410145633916e+02 3.2732110649490060e+01 -6.7731364439759929e+01 2.8945559693858113e+03 2.2062495667867552e+01 5.6639092410730518e+02 1.5000096498775500e+01 -2.7409639986714240e+01 -7.9993527470718618e+02 1.0978632759515056e+03 -8.3813831195163857e+00 1.9746030408256999e+02 -5.8494073625226356e+03 -1.3627979751251573e+03 -5.6499241603973132e+02 -4.5032200746505964e+01 1.9585062178875290e+01 5.8500688124412773e+02 -1.8253785118159340e+02 -1.6889450560961222e+01 5.0618983029347561e+01 3.9094459674158543e+01 1.5981699313904148e+03 5.5932660411415611e+01 2.2885768947281576e+01 -6.5407902791508352e+00 -3.8097451438132885e+02 -4.1215365645233902e+01 -3.6066051661299959e+01 9.3096597697529219e+01 2.6125875695405584e+03 1.1021413555141132e+02 -1.0486869673011194e+02 -2.4558417642385848e+00 -5.0179359079964412e+00 1.0115826360225287e+02 1.2756422602174847e+01 -1.1787716851070323e+01 1.7014152506046500e+00 -4.3090993453752835e+03 -2.0836473568571710e+03 1.0042860760993585e+02 -5.1948726845397566e+00 -3.0561810664898115e-01 -3.8363052128876021e+01 2.7168295973844670e+02 -9.4340449281069354e+00 -1.2568771201615625e+01 1.2803808387665117e+02 5.1098767541252732e+02 -1.1527487927208534e+02 -5.4950097590183162e+00 -3.4298549064442557e+02 
      </Row>
      <Row Index="12">
        1.9646210822218915e+00 6.1357859809264710e+00 5.0037856379347659e+01 -2.4740497618677161e+01 3.3598375410300946e+01 -3.5644492699788952e+02 -6.7278756288043951e+01 5.6725171443894276e+01 -2.7721222079282795e+00 1.0939932037228417e+01 -3.3449753646097633e+01 -8.3813831190680190e+00 9.7301868980415804e+01 4.3215121317353599e+01 -1.8467980761265704e+02 5.2347502865064473e+02 6.4302793524805111e+01 -8.7561203529688214e+00 -1.0606593811939693e+01 -6.1074458012958630e+01 4.9869838595191496e-01 -2.4257355671500704e+01 2.0369799689952568e+01 8.2452984899661260e+01 -4.5527483162056507e+02 -1.4173066887299626e+02 1.1773835628752977e+01 8.1498040754038108e+00 3.0923039560253805e+01 -2.6550911733825004e+01 2.6839836151133369e+01 -4.7232752003675614e+01 -6.2325916938264743e+02 1.0247409239306671e+02 1.0857857075347964e+01 2.5688112148827713e-01 5.2002333172414339e-01 -1.4743408621070987e+01 -1.3533394945526508e+01 -7.0205291294922478e+00 4.0531026196811704e-02 1.3068731610636833e+03 6.2733940639754110e+02 2.2542835296414300e+01 -2.6775017477395391e-01 -6.0704465326363675e+00 3.3450921064826882e+00 -1.2352989527145496e+01 5.8186919435016783e+01 2.1660820467026170e+01 -2.3091641076325871e+01 -1.5926657205455052e+02 -1.8689103826048466e+01 -2.2595638809285203e+00 1.1978234388975439e+02 
      </Row>
      <Row Index="13">
        -1.0251699359837373e+01 -3.0009674120763395e+02 -1.3984270577284678e+02 3.7975138496124288e+00 1.3433909568407056e+01 3.4473341696646175e+03 1.1482722542231841e+02 -2.7591230279239664e+02 -8.1904483816028808e+00 -2.1311118590356358e+01 2.2057843320416550e+03 1.9746030406107366e+02 4.3215121324550310e+01 1.4248667030125230e+03 -1.7055466778789332e+02 9.2972648441675722e+02 -4.8656137294518976e+02 -1.2453603307227809e+01 2.4359084404697597e+01 -2.4852357095654152e+03 1.3411585175780795e+02 3.8326264753684427e+00 -1.3245071970201950e+03 4.1026246720883146e+03 -1.4160996202124127e+03 1.9272299861366079e+02 5.4561462556446713e+01 2.0943732855215025e+00 3.3777439577927294e+02 1.6420397056721598e+02 -2.0049906808071675e+01 -2.3216744941830848e+02 3.1965863696841607e+03 -5.7686549775613003e+02 -4.2947993850939486e+02 -1.9059543540857703e+01 3.1436119288047939e+00 -3.1586061767314891e+02 -2.4085685929558392e+02 -2.3190636620820428e+01 -6.5482039866183584e+01 -4.1102101576611440e+03 1.8961489249155072e+03 2.8068587981445319e+00 4.7428970003272655e+00 -9.0784773878995590e+00 1.1500957169053682e+02 -8.4096838146301479e+01 6.0845021263477562e+01 2.3683425333303339e+02 -3.7682317975202523e+01 -2.9449624912180707e+02 1.5910168926471897e+02 -2.7476660042394236e+01 1.9740353130753695e+02 
      </Row>
      <Row Index="14">
        4.1808630983983264e+01 1.7807267047980968e+03 5.4406657153447704e+03 4.6325480564882537e+02 -6.5417122161279417e+02 -2.2084024571951397e+05 1.2178989943260822e+03 -6.7435937367872357e+03 4.8808645946975611e+02 1.1163439954339492e+02 8.0980871797259169e+02 -5.8494073626437785e+03 -1.8467980757016664e+02 -1.7055466762573076e+02 7.8530820533117035e+05 -8.8313703267807159e+03 1.2205221081286800e+03 -1.2374507782161304e+03 1.6609067333211931e+02 6.0874988375769135e+02 -1.4056190578885949e+03 -6.7068756599040626e+02 1.0612120962315662e+03 -1.1798493699203915e+05 8.4696418771951885e+03 3.9553290007875039e+03 2.8560383759861907e+02 2.8920752923066874e+02 -3.3294569651556890e+03 3.2929933526807740e+03 -5.1662235730384566e+02 -6.6687966555115781e+02 -4.5152029298967740e+04 1.3337423332181561e+02 -2.8330553612640992e+03 7.2554300447242895e+01 1.3461934232878292e+01 1.2171831372620977e+03 -3.2124913983999254e+03 4.0021639117240937e+01 -7.9245401571483285e+00 -6.8793410850319284e+04 -9.4234955380240717e+03 -4.0691570481934491e+01 1.5607820160853180e+01 -2.6994726004288520e+02 -2.9488112203772948e+02 -5.5331855930982756e+03 -5.6926126102351554e+02 2.5967248345754092e+02 2.3873631561191360e+00 7.8900453046243013e+02 2.0371552714412680e+03 2.5733632773724628e+02 -1.3445799929756647e+03 
      </Row>
      <Row Index="15">
        -6.8701311352628736e+01 -5.1420337363161525e+02 7.2522942716315447e+02 -1.9292799754001561e+02 1.3734947058320600e+02 -1.1668266461741439e+04 -3.2595197069598362e+02 -2.0976580299130997e+03 -3.8277357654298271e+01 -9.8077260856945941e+01 2.5842983169435174e+03 -1.3627979752349202e+03 5.2347502868566971e+02 9.2972648385557113e+02 -8.8313703304863284e+03 2.8775805818922618e+04 -3.3709430394810624e+00 5.1538247307755228e+01 4.3525630643897344e+01 -2.7082669915651095e+03 4.0661966397641686e+02 1.9850924635771662e+01 -9.5039587083642368e+02 2.4612223273173429e+04 -3.8652614629112642e+04 1.9190512858762013e+03 1.2336645333605702e+02 -1.2106330244969830e+02 4.1315102627718670e+02 -6.9544345065410448e+02 2.5174879294126544e+02 6.4391747986571863e+02 7.5038645237723613e+04 -3.7109538408531416e+03 1.3070639387790470e+03 -1.0831110229693877e+01 -5.1103649217428355e+00 -4.0727973973567060e+02 -8.3990504370458757e+02 1.1822499808358600e+01 -2.7309298083067483e+02 1.9445874801346188e+04 4.9205001631446226e+04 -5.8604265340055690e+00 1.4890593670559781e+01 1.3000260475730900e+02 1.3464099570817649e+02 -5.3929478711938282e+02 4.4160993320058338e+02 3.1255373114426618e+01 -2.2817730557050008e+03 -1.3953611051155814e+04 3.7608588223962579e+02 -8.1379843363120528e+01 1.1267051607347667e+04 
      </Row>
      <Row Index="16">
        -8.5728544813291627e+00 -1.1154532813735915e+02 6.8514142631638526e+02 -1.9597607029035668e+01 5.1891284765317863e+01 3.5146335076734122e+03 9.7153585810517825e+01 -1.1116909558171847e+02 1.1274869126361338e+01 9.6877016353269426e+01 8.9222159790421847e+02 -5.6499241602972518e+02 6.4302793522305478e+01 -4.8656137295593845e+02 1.2205221081306272e+03 -3.3709433825914346e+00 2.3885249456739884e+03 -7.0677635182527609e+00 -6.2833592870189868e+01 -9.1590223547140840e+02 -2.9251603862331399e+02 -4.0964432914332434e+01 -2.0248704250707664e+01 8.8670539665735305e+01 -8.5427172372045447e+01 -1.6493143121567482e+03 -9.1330134832414558e+01 -1.4849546735090247e+01 8.9090509885531230e+02 -1.2672351254474813e+02 2.9709492987682466e+01 -6.3827295561728965e+02 -1.5726947296984072e+03 5.0837911305832790e+02 -5.9612897333671435e+02 2.3316724238362866e+01 4.4684478532799776e+00 -2.5299558818030013e+02 5.0610985037240999e+02 2.9728047962311990e+01 4.2140503716142696e+01 3.4830766092302038e+03 1.4159337458263533e+02 1.6680170839806016e+02 -1.3140895714955919e+01 -1.1609921256781064e-02 6.1160263094452326e+01 4.6046494218048394e+01 -1.5961404451766924e+01 1.2429579413057800e+02 -1.5728263800871957e+01 -1.2427594310463901e+02 -3.7649861712833932e+01 4.9132465651877624e+01 3.5672880576516661e+01 
      </Row>
      <Row Index="17">
        3.3956495975801637e-01 1.1045844125026129e+01 2.8091815957419755e+00 -5.0835256875668877e-01 -5.1435604827760431e+00 1.8993775232984382e+02 -1.8545451854266247e+01 5.2377034498237380e+00 -1.2398173216289788e+01 -1.0617744112458789e+00 1.5047521600541870e+01 -4.5032200745964843e+01 -8.7561203531569411e+00 -1.2453603307517273e+01 -1.2374507782130379e+03 5.1538247293184057e+01 -7.0677635184831331e+00 3.0948416397149472e+01 -1.9047430711541466e+00 -1.7250926969797195e+01 8.3844370776818344e-01 4.9935972921186966e+00 -7.4778545058291535e-01 -1.2150294813163600e+03 1.2071043869204082e+01 -5.7460764013820516e+00 6.2880747287935179e-01 -2.4499746606239992e-02 -5.9839099847350248e+00 2.4546829345467565e+01 1.0117245612925858e+00 9.2517369707996124e+00 9.9712347592932576e+02 -1.5367629776681133e+01 -8.5299042159756233e-01 -5.5115988117421821e+00 -1.5938776285384451e-01 3.9643333828064637e+00 9.2568883899058605e+00 6.8185481775661616e-01 -1.0520017237928343e+00 5.2283374880532438e+02 5.6646683458864828e+00 -9.3117475697888654e+00 2.4898989161267382e+00 7.2883830339487166e-01 -4.2513527490063097e-01 -1.4643146780980878e+00 -2.4788769957469285e+00 -3.6355648911697429e+00 5.9500023429684461e+00 4.3052021490294594e+00 -1.0094863378433292e+00 -7.5621927553720774e+00 -4.0406746621940579e+00 
      </Row>
      <Row Index="18">
        -3.9086472258715057e+00 8.2935007786853987e-01 -2.9897194352364380e+00 2.1901400703476979e+00 5.0518377448424845e+00 3.2772298083096882e+02 -2.1489417769711849e+00 -3.0498420219533056e+01 8.4283944993323545e-01 -7.7631984167552108e+00 -2.9737100472981410e+01 1.9585062177332077e+01 -1.0606593811401510e+01 2.4359084404957656e+01 1.6609067332172356e+02 4.3525630683976814e+01 -6.2833592869549761e+01 -1.9047430711485873e+00 1.8950333452435277e+01 5.9150889966760772e+01 4.4802425821404208e+00 8.6727696272401857e+00 -3.0328721090626132e+01 1.9098323718228102e+02 -1.5612892425149818e+02 6.6041505280237658e+01 2.7828903793457727e+00 3.6687359395081627e+00 -4.2213168658994938e+01 1.1015830474581868e+01 -5.4871075736755426e+00 -7.1383102894778858e+00 4.4331017109630352e+02 -8.9072397336888713e+01 -7.3252135105593055e+01 -2.7865048833887798e+00 2.1985831613986102e+00 1.0573147257041272e+01 -1.0564758790950686e+01 1.4102563873509015e+00 2.8122453908184744e+00 -2.8438379268187646e+02 1.8650859790256692e+02 8.5461862546589380e+00 1.5382605215522749e-01 -2.7006965321606424e+00 -3.4157574964727173e+00 -2.6995982943656074e+00 -3.9368004564034464e+00 5.2875431835870925e+00 -5.3347158052203998e+00 -2.0461574221155924e+01 1.2945968360001668e+01 -1.7844206881318927e+00 1.1297260929222775e+01 
      </Row>
      <Row Index="19">
        -1.7032568643417676e+00 1.7133009994800927e+03 -1.5278207950377509e+02 5.8480637496252484e+01 3.5321134214064614e+01 -6.4024471473733438e+03 -8.4348327491600503e+02 5.9300463650341203e+02 -1.0753081907579194e+01 -2.6392281792169626e+01 -9.8117127437162635e+03 5.8500688126689784e+02 -6.1074458021764428e+01 -2.4852357095400580e+03 6.0874988408822310e+02 -2.7082669920185081e+03 -9.1590223549309303e+02 -1.7250926970873024e+01 5.9150889968933036e+01 1.0816773827789712e+04 -3.5602658916947291e+01 4.7548457041236816e+01 3.1466497172213844e+03 3.9243657003609542e+01 4.2928936887921100e+03 7.1463604480606432e+02 6.9899980598333968e+01 -5.8462833742792171e+00 -2.9341983640880089e+03 -8.7858848360822535e+01 -2.6864593726185376e+01 2.0193482067016794e+02 -3.0681548987084570e+03 1.0791170840257066e+03 -1.0900759189808441e+02 -2.9139545204482147e+01 6.2824108861185035e-01 1.4274618534311558e+03 -1.1749690353089194e+02 1.4689630882487688e+01 3.5061716969890347e+02 5.2278911277943780e+03 -5.5243148599514170e+03 2.0332895593506603e+02 -1.3440546845840236e+00 7.6506433490430648e-01 -5.1181109671477742e+02 1.3566035709061657e+02 3.7603801090358075e+00 -4.5960975636731405e+02 2.9707420156011835e+02 8.9270518711944123e+02 -1.2537676127363875e+02 -3.3274339563440151e+01 -5.1981996255455113e+02 
      </Row>
      <Row Index="20">
        1.8241917435733512e+01 3.9100797377586446e+01 -6.1748640991520597e+02 2.4100845603054978e+01 -5.0391644270182312e+01 6.2557341688752567e+03 -1.0234064109311548e+03 -2.8506838775800293e+02 7.0379168945681414e-01 -4.4446911455609438e+01 2.8405815851664192e+02 -1.8253785118587075e+02 4.9869838635942187e-01 1.3411585177461674e+02 -1.4056190578096721e+03 4.0661966420566409e+02 -2.9251603862661977e+02 8.3844370737779172e-01 4.4802425832476018e+00 -3.5602658940215292e+01 1.6955837699968447e+03 3.7438643317827427e+01 1.1063962301331412e+02 -2.8175735656552688e+03 1.3160294859507717e+03 1.4449018083542620e+02 1.1650169340537104e+02 -1.6271678380510266e+01 -1.1590903547121303e+02 -1.3415916919283012e+02 3.4570833464298666e+01 6.9265484573256799e+01 3.3925001438195122e+03 -1.0589662648311855e+02 4.2387200011158927e+02 -4.2836691071649170e+01 -9.5396016946450661e+00 4.1573982635798941e+01 -4.8362895175158400e+02 -2.4880713908736141e+01 7.8861415952491942e-01 9.4700171709344704e+02 -1.7550009021278202e+03 -9.2475970223973448e+01 -8.9800955699539866e+00 1.3265706550773039e+01 -8.7745616756203546e+00 3.2708179929126118e+01 7.7301652567548132e+01 -2.3195957371861020e+00 -1.3847969101019038e+02 4.0333721353163509e+02 1.3763335456365900e+02 -7.7513235386040776e+01 -1.9554630607761715e+02 
      </Row>
      <Row Index="21">
        1.0754949422608515e+00 1.7045847214793113e+01 -9.2074525615686298e-01 -5.7472686039089851e+00 1.6564783542756857e+01 1.5899548150858448e+02 1.1818739041935942e+01 -5.0282765315759242e+01 -9.1007165281168589e-02 -7.6563805804257239e+00 2.3944494553947720e+01 -1.6889450561881631e+01 -2.4257355671208597e+01 3.8326264745649574e+00 -6.7068756600146514e+02 1.9850924657430539e+01 -4.0964432913545693e+01 4.9935972921477827e+00 8.6727696271731105e+00 4.7548457041147117e+01 3.7438643317009671e+01 5.1690566461256680e+01 -6.8438843979914367e+01 -8.9797926018840553e+02 -1.7810779708449246e+02 1.2487541619028593e+02 3.2399473785500845e+00 -3.5593420956243751e+00 -5.5139180952307754e+01 1.7471445987126160e+01 6.9881087309634982e+00 1.2144597841211692e+01 1.8038073923454704e+02 -1.1059274930593494e+02 2.5265078300705749e+01 -9.8766070547616351e+00 9.8039211173416296e-03 1.8437060444791353e+01 -2.8748490952600818e+01 -2.4984574293147719e+00 -1.9103000430592743e+00 2.1734879005295682e+02 1.5777768181775801e+02 2.4055290995996530e+00 8.6252237073776872e-01 2.3040587121793852e+00 -4.9719005506812799e+00 -1.7952364059956878e+01 8.6105211975974107e+00 -2.7574258993727403e+00 -2.1809784026912673e+01 -3.1259974256332761e+01 1.1076527343775595e+01 -6.6622509645092700e+00 2.5140014562655054e+01 
      </Row>
      <Row Index="22">
        1.8368640289009946e+01 6.1242327553193832e+02 -1.4792837220770843e+02 1.9082432625709799e+01 -2.9105916149868682e+02 -3.1398338172861950e+03 -4.3007802245732182e+02 6.2459123507799461e+02 -5.9373055849806171e+00 2.0679769201263724e+01 -3.1097694774063166e+03 5.0618983054630462e+01 2.0369799680938954e+01 -1.3245071970191259e+03 1.0612120964305561e+03 -9.5039587146958206e+02 -2.0248704263208310e+01 -7.4778545095205118e-01 -3.0328721090243739e+01 3.1466497172504196e+03 1.1063962303381025e+02 -6.8438843980847878e+01 1.9259167704066051e+03 -4.7800228572754777e+03 2.1464274174735419e+03 -3.4367665981081183e+02 1.5938778518548133e+00 2.1197451345432690e+01 -6.9720886070130700e+02 -1.4496857207215825e+02 1.4491202466908774e+01 5.7562210107600231e+02 -6.0738483512404673e+03 9.5507179478654848e+02 6.0361190681601511e+02 1.4525822210852880e+01 -9.2392094066429031e+00 4.1103847754967865e+02 8.5441035244822572e+01 4.8577000867654458e+00 7.7660921490811944e+01 5.9122865099860801e+03 -2.8503487159212591e+03 -8.0748653465807593e+01 -3.4834750256356788e+00 -7.1952999772366999e+00 -1.5905761859407528e+02 1.1734377975787356e+02 -1.5020898373207721e+01 -3.2201221863029639e+02 1.1758057049893995e+02 4.0002422606905577e+02 -2.1195120536860674e+02 8.0049854038652519e+00 -2.1228557727999689e+02 
      </Row>
      <Row Index="23">
        1.0119912970594987e+02 -2.4978340590978150e+03 2.7230068173256441e+03 5.6508595457119873e+02 7.7048324140130944e+02 -1.7396303151238538e+05 2.6618559515040542e+03 -7.7561061023232946e+02 3.4888975371902109e+02 2.0254819764088643e+02 3.6072936600618996e+03 3.9094459512169124e+01 8.2452984959448713e+01 4.1026246718455841e+03 -1.1798493699465840e+05 2.4612223276110526e+04 8.8670539852639195e+01 -1.2150294813094170e+03 1.9098323716093768e+02 3.9243657057173550e+01 -2.8175735657950190e+03 -8.9797926019232182e+02 -4.7800228569849205e+03 8.4906647760714171e+05 -4.0852950967058830e+04 4.4503192074460617e+02 5.3652101154420961e+02 4.1538139065682117e+02 1.9476514222099358e+03 1.9419156692954220e+03 -5.0146902593052698e+02 -1.9467843384342268e+03 -7.8710048515070230e+02 -1.5366267965936640e+03 -2.1945060769189504e+03 -4.3149653625514475e+00 -1.7612933453766814e+01 -1.1987937454551293e+03 -1.7603987454181429e+03 -1.1012539099856866e+00 4.5959043675874022e+02 4.4874865196402301e+04 5.2008093889542521e+04 1.0971748118223843e+02 -9.3522795421583851e+00 -3.8722968525353662e+02 2.8422054385368216e+02 -2.8008597022990652e+03 -4.4922960640197198e+02 9.5554181728538049e+02 3.1129907179185097e+03 -8.6698760217063809e+03 3.6851499788954970e+02 1.6954716687779842e+02 5.5227804334443645e+03 
      </Row>
      <Row Index="24">
        1.3050479199198344e+02 1.1106814401737502e+03 -1.6311694745035202e+03 2.7629874490325165e+02 -2.8942592955483815e+02 2.5473316455840439e+04 -1.8954121257101651e+03 2.9992841696645096e+03 4.4247111327581479e+00 1.6542264425094254e+02 -4.2581318792651873e+03 1.5981699315545848e+03 -4.5527483167534609e+02 -1.4160996193937299e+03 8.4696418826766312e+03 -3.8652614629161122e+04 -8.5427172873227391e+01 1.2071043847827241e+01 -1.5612892419311325e+02 4.2928936881362461e+03 1.3160294862929591e+03 -1.7810779705317691e+02 2.1464274165504685e+03 -4.0852950962899195e+04 5.7542264159144630e+04 -3.2923472783640459e+03 -9.9655590002948884e+00 1.8049029474181589e+02 -1.0395534578297520e+03 6.9594838709367752e+02 -2.5432164749922245e+02 -8.8745078442967497e+02 -1.0602775924557957e+05 6.6301487998020020e+03 -1.2397255664789020e+03 -2.1564738890694571e+01 -7.0883435774979286e+00 6.6883376541359985e+02 4.3470305303069733e+02 -3.3380915681799699e+01 4.2265841441595211e+02 -6.5934520259239434e+03 -7.3181872096968596e+04 -1.0835613218974004e+01 -8.5458129570668007e+00 -1.8783094794468909e+02 -2.4308429498115549e+02 8.5611840474657220e+02 -3.9127620183637157e+02 -5.3441918156953264e+01 3.3009129340174504e+03 2.0626971675105910e+04 -4.5820480338980087e+02 -2.5696352585920010e+00 -1.6412567776703258e+04 
      </Row>
      <Row Index="25">
        2.7433162651149814e+01 -1.6554245162764164e+02 -2.4994461400616365e+02 3.2938733323308952e+01 2.0674721569217007e+02 5.8053865931547680e+03 2.3105752172737994e+01 -1.1415510196580942e+03 1.0564212782868857e+01 -1.4911547932226398e+02 -2.5870847743716149e+02 5.5932660392429170e+01 -1.4173066886693852e+02 1.9272299859320486e+02 3.9553290005424351e+03 1.9190512862898763e+03 -1.6493143121372741e+03 -5.7460764007955731e+00 6.6041505278547135e+01 7.1463604480557115e+02 1.4449018081810240e+02 1.2487541619000649e+02 -3.4367665978748323e+02 4.4503192080464214e+02 -3.2923472789635243e+03 2.9799091426169525e+03 7.6523715370976788e+01 -5.8376236731337258e+01 -7.0341111840077247e+02 6.5132365283869987e+01 -7.5854574438568534e-01 6.2332010771441765e+02 4.7143043074005109e+03 -1.0207686509235855e+03 1.3468652707093638e+03 -3.3846425041966995e+01 -1.6123113598689436e+01 1.6012859518309733e+02 -5.8134785193662117e+02 -2.2385603386213486e+01 -8.1714999024475560e+01 2.1233758290289077e+02 4.0067101886044261e+03 -1.5829491148723554e+02 1.3287362391122796e+01 5.6888809917744183e+01 -3.4600758693067618e+01 -2.5930173497325177e+02 -2.9565632411609357e+00 -1.4194202035502806e+02 -1.8893992175608921e+02 -7.2600492898635514e+02 2.3509470667469270e+02 -4.5332323744664457e+01 5.6370706312266498e+02 
      </Row>
      <Row Index="26">
        9.5614875757497053e-01 3.0110044909202529e+01 -2.8124326838078559e+01 4.9622469000643701e+00 8.2793332218444142e+00 4.1027120367540039e+02 -1.0326922601197066e+02 -3.6797133187538087e+01 -1.1053321411238707e+01 -4.8834404811056320e+00 -5.6146826872907241e+01 2.2885768945831956e+01 1.1773835629131538e+01 5.4561462556387127e+01 2.8560383758531066e+02 1.2336645338535416e+02 -9.1330134831377904e+01 6.2880747289644034e-01 2.7828903793261048e+00 6.9899980596764976e+01 1.1650169340407007e+02 3.2399473785989983e+00 1.5938778518284256e+00 5.3652101155824676e+02 -9.9655590725394632e+00 7.6523715372432221e+01 5.1936608342779863e+01 -1.1927771856474862e+00 -6.1261129823263843e+01 -2.4591822961311522e+01 9.0843052472095431e-01 1.2568603058876988e+01 -6.3576002098036349e+02 -2.3837211558003645e+01 6.6103150406103808e+01 -1.8584599779886403e+01 -7.5581226852619610e-01 1.4153643089705231e+01 -1.0705350271314033e+02 -1.9865843892115929e+00 -5.6610271591734902e+00 -3.1531349780221888e+01 -4.4384462210387028e+00 1.0401851881997661e+01 7.0096574920672694e-01 1.3353101902200006e+00 -5.9559408370032010e+00 -2.9400490487290597e+01 1.8601801311107373e+01 3.3932424205504961e+00 6.1170491695841598e+00 -1.3986339290540247e+01 1.4321249311076514e+01 -2.3250358750927042e+01 2.3586082713953680e+01 
      </Row>
      <Row Index="27">
        2.0935121503236971e+00 3.1556958516472946e+00 1.8100308860950918e+00 -3.8282003153560318e+00 -1.0074038223170767e+01 2.6802888531107783e+02 1.1467819722868171e+01 3.5995231558211515e+01 -4.4326983664159991e-01 1.1040068890219874e+01 -4.7870001421310917e+00 -6.5407902782028486e+00 8.1498040751164673e+00 2.0943732875397671e+00 2.8920752924620274e+02 -1.2106330246441837e+02 -1.4849546736615821e+01 -2.4499746661263089e-02 3.6687359396541552e+00 -5.8462833751996186e+00 -1.6271678379123401e+01 -3.5593420955681268e+00 2.1197451343246197e+01 4.1538139066106669e+02 1.8049029476341664e+02 -5.8376236730434861e+01 -1.1927771854471985e+00 2.1388741001902247e+01 2.5455368902088026e+01 3.9315975763413307e+00 2.8634844237178876e+00 3.3440013666258892e+00 1.7323321666632472e+02 4.3586718893726754e+01 -2.7224423101721008e+01 2.3873552003522320e+00 2.5995299269517749e+00 -6.1071673635599302e+00 6.8436627517514550e+00 -2.5974827412882928e-01 4.1633387553577741e+00 -1.1052163145805326e+02 -2.2552572007093323e+02 -1.0783906664533056e+01 -6.2949313927153527e-02 -1.4531935268810171e+01 1.0866627852191382e+00 -4.3624591181853134e+00 3.4573618143099285e+00 -9.0427703347305843e-01 1.5122213429489079e+01 5.1876893031091640e+01 -8.0613018212889020e+00 1.6579174860323109e+00 -4.5382648515582083e+01 
      </Row>
      <Row Index="28">
        -1.2808676128558815e+01 -1.0390312281141034e+03 1.9364273823474446e+02 -3.2047326096009627e+01 1.7620856893272673e+02 9.4224712207552348e+03 6.1813667446770251e+02 -4.9131821600049898e+02 1.0051416034176231e+01 5.1734877425954110e+01 3.1834096173509452e+03 -3.8097451438197277e+02 3.0923039561141991e+01 3.3777439576831364e+02 -3.3294569652418013e+03 4.1315102622004440e+02 8.9090509886128848e+02 -5.9839099843661074e+00 -4.2213168659770986e+01 -2.9341983640788917e+03 -1.1590903547579802e+02 -5.5139180952752554e+01 -6.9720886068926700e+02 1.9476514221407488e+03 -1.0395534577475191e+03 -7.0341111841100189e+02 -6.1261129824270029e+01 2.5455368902594955e+01 2.2608356520431016e+03 -5.5610888433664535e+01 -2.0248995020570042e+01 -3.1940497168617253e+02 -1.2977611398329395e+03 -2.2777747647236049e+02 1.3950787500586873e+02 2.4793491149509805e+01 1.7216493087382259e+00 -6.3667183207595542e+02 2.2454165893611554e+02 1.2064616945559857e+01 -4.1366509968988979e+01 -3.5280884036925039e+02 1.5034042826321734e+03 -2.0120001708489019e+02 -3.5137933597955762e+00 -1.1391836407657303e+01 1.9994916592359465e+02 -6.3723854371480570e+01 -4.0153743200131863e+01 1.3509467768502310e+02 -1.4743339058062372e+02 -2.6276548079708220e+02 5.9141429854463780e+01 3.6128129005379158e+01 1.2267266187720450e+02 
      </Row>
      <Row Index="29">
        2.4941622702084487e+00 2.0032293074867425e+01 1.6323604934544164e+01 -3.7802147528465468e-01 -7.0863263232930620e+01 -8.0628001942204310e+02 1.4688358347901612e+02 -9.3113189513318957e+01 -6.8686478244997460e+00 -1.2114925265970726e+01 7.1824709470066409e+01 -4.1215365649035903e+01 -2.6550911732537145e+01 1.6420397058077401e+02 3.2929933527300818e+03 -6.9544345050012180e+02 -1.2672351254984551e+02 2.4546829345172569e+01 1.1015830475527650e+01 -8.7858848379280062e+01 -1.3415916919230315e+02 1.7471445987880543e+01 -1.4496857208799605e+02 1.9419156694429403e+03 6.9594838686691082e+02 6.5132365299941739e+01 -2.4591822960141599e+01 3.9315975754592500e+00 -5.5610888431653621e+01 3.6824871624754275e+02 2.6545729569054846e+00 -1.0161615747780570e+02 -2.1242322627154044e+02 -9.2366031388537749e+01 -3.6059941346295312e+02 -1.0587094332713605e+00 -3.4087956496612990e+00 5.8785923739053203e-01 9.9293041112872711e+00 -2.0471575508629371e+01 3.3647728807842860e+01 -1.0646161851399584e+03 -8.4730143134293121e+02 -4.9638342497931937e+01 9.4172133751848648e+00 -9.7794235352382266e+00 2.4775742307969928e+00 -9.2635174920259033e+01 -1.1404642164953929e+01 3.5572168620394464e+01 1.1284783852171270e+02 2.3390402070662347e+02 7.5563964416911176e+01 8.6792775748452051e+00 -2.1573913585019920e+02 
      </Row>
      <Row Index="30">
        4.8853226061210222e+00 -1.3486970676124145e+01 3.5298907711301126e+00 -9.3869568832077555e+00 -4.5651813461997008e+00 -3.5304505893069518e+02 -2.5842643134577884e+01 3.3444573011780392e+01 -8.8127241813145574e-02 3.6172246536593420e+00 1.3813529735912198e+01 -3.6066051661567599e+01 2.6839836151271868e+01 -2.0049906811240788e+01 -5.1662235732335921e+02 2.5174879293909851e+02 2.9709492988964030e+01 1.0117245613716932e+00 -5.4871075739297765e+00 -2.6864593722637892e+01 3.4570833464063298e+01 6.9881087308553447e+00 1.4491202470984376e+01 -5.0146902595505162e+02 -2.5432164749413050e+02 -7.5854574664530228e-01 9.0843052460286344e-01 2.8634844238023618e+00 -2.0248995020773236e+01 2.6545729560102362e+00 3.4782655410748113e+01 -9.2314562262816935e+00 3.4417657193187716e+02 -1.0283092863340357e+00 6.4984519181205187e+01 4.3887334626774930e+00 -2.7638024447495595e+00 4.7148763879089133e+00 -3.1283752004949299e+01 -8.0076847551812254e+00 -9.0008133827412173e-01 6.0146260258523421e+02 3.2656523231612482e+02 -1.1263907325493143e+00 -2.8292419736181929e-01 -1.7299133960859434e+00 8.8063002276402269e-01 -1.1995432196448803e+01 2.9323366978045392e+01 -2.7688897314869405e+00 -2.6365211856275749e+01 -7.6709296139561559e+01 -9.0012882889037797e+00 3.5907173285154759e-01 5.9490126074387760e+01 
      </Row>
      <Row Index="31">
        2.3565526709835979e+01 1.0249295565713260e+02 -2.2708046005116103e+02 2.2136279136798933e+01 -2.3622670353739639e+02 -2.4772936020499778e+03 -3.1157047109338237e+01 3.0942100350019450e+02 -5.9249007634130102e+00 -4.0255694521482923e+01 -2.8101056157863059e+02 9.3096597710323294e+01 -4.7232752007841157e+01 -2.3216744943863296e+02 -6.6687966557733307e+02 6.4391747947197337e+02 -6.3827295561486244e+02 9.2517369711185893e+00 -7.1383102908455953e+00 2.0193482070822120e+02 6.9265484580380871e+01 1.2144597839915150e+01 5.7562210110143860e+02 -1.9467843387384055e+03 -8.8745078384796943e+02 6.2332010768537441e+02 1.2568603057589826e+01 3.3440013685421945e+00 -3.1940497169382206e+02 -1.0161615747412272e+02 -9.2314562285212798e+00 1.0614580889773119e+03 -2.2020734793138049e+03 -4.5254114940443515e+01 1.2833912684758575e+03 -1.3053036750548472e+01 -1.5716077603921521e+01 5.5187954619861088e+01 -4.5123122963685411e+01 -2.3950957624392806e+00 -1.2716707185512544e+02 8.8517428494028707e+01 1.1483733583499090e+03 -1.8304559880897560e+02 3.1144449010357236e+00 1.7429949364788005e+01 -1.9399981961466821e+01 3.4734820871137231e+01 -2.3670951533321738e+01 -2.6703215312756890e+02 -5.6921431688014167e+01 -2.9300714122391571e+02 -1.9494714580092398e+02 -9.5128271533577582e+00 2.5157391670545965e+02 
      </Row>
      <Row Index="32">
        1.7048325832418050e+02 3.1656568144808552e+03 -3.7731817016013374e+03 1.5361160695231229e+02 9.3709820079752171e+02 -4.4889771554658124e+04 1.2913617627480999e+03 -2.3102321171975054e+03 -1.5114223078513646e+02 -3.8324004976633296e+02 6.2322086698340718e+02 2.6125875690970570e+03 -6.2325916921332828e+02 3.1965863687776055e+03 -4.5152029306975659e+04 7.5038645244582236e+04 -1.5726947290392127e+03 9.9712347595352912e+02 4.4331017102531041e+02 -3.0681548982911045e+03 3.3925001432869321e+03 1.8038073921117757e+02 -6.0738483501993032e+03 -7.8710048640053719e+02 -1.0602775925535604e+05 4.7143043069869582e+03 -6.3576002105139196e+02 1.7323321666748961e+02 -1.2977611396546708e+03 -2.1242322670868020e+02 3.4417657199103974e+02 -2.2020734783697990e+03 7.7258770873702876e+05 -1.4757082098682993e+04 -7.1501633995765587e+02 3.0023745326459175e+02 6.9822793550985693e+00 7.5792383257368590e+02 1.2048060755757831e+03 -1.1772913922293162e+02 3.3895313356228263e+02 -1.0383651552467520e+05 1.4144184448255447e+05 -4.0726555434520878e+02 -5.1313336514754610e+01 -1.4116371301225013e+02 -1.0679689868005744e+02 2.7986050509205379e+03 -3.9796655330519002e+01 6.8125229265750977e+02 -8.2864152234142748e+03 -2.8067452106620120e+04 8.5156723738990695e+02 -4.7970039260407148e+01 2.0780373591600208e+04 
      </Row>
      <Row Index="33">
        3.7226500540369670e+01 4.1545763350808375e+02 2.0618187649371976e+01 1.0126018585541487e+00 -1.9158789175857362e+02 2.1926561822258986e+03 -5.9325016724089801e+02 7.2997981996414637e+02 5.5879025978811114e-05 9.1501601666330089e+01 -1.3515760615013714e+03 1.1021413558839413e+02 1.0247409237944248e+02 -5.7686549768007217e+02 1.3337423402235436e+02 -3.7109538414595536e+03 5.0837911300029373e+02 -1.5367629778867922e+01 -8.9072397331174216e+01 1.0791170839902989e+03 -1.0589662643246447e+02 -1.1059274930393804e+02 9.5507179470145320e+02 -1.5366267964823637e+03 6.6301488006794170e+03 -1.0207686508887217e+03 -2.3837211551464861e+01 4.3586718893855505e+01 -2.2777747648979494e+02 -9.2366031351969468e+01 -1.0283092905480835e+00 -4.5254115017523873e+01 -1.4757082098776456e+04 2.4110113532861669e+03 -1.4363751180951294e+02 2.5210912956942593e+01 -2.4643210286569053e+00 1.3860389466613512e+02 2.6283315784916743e+02 -1.3273084996648148e+00 1.3295493513397085e+02 2.1061835827307739e+04 -9.1385157076238866e+03 1.8141337217330914e+01 -7.0167487510165358e+00 -4.9057066322575920e+01 -6.7833800109305386e+01 1.4188904119923063e+02 1.3442100598157310e+01 -7.4179955288605527e+01 5.2649803265216610e+02 2.3302207809088841e+03 -1.7536546390703370e+02 2.3625845612977599e+01 -1.7582225852848660e+03 
      </Row>
      <Row Index="34">
        7.4570068173356702e+01 -9.3931685844644562e+01 -3.5118576862868986e+02 2.9006273673090163e+01 6.8380536815003353e+01 -1.4406429721417858e+03 -1.7052678069181820e+02 -6.0886866455747622e+01 -1.3527046886980369e+01 -7.5190964781141673e+01 2.2266406100585664e+02 -1.0486869671242857e+02 1.0857857069474562e+01 -4.2947993853884941e+02 -2.8330553613113843e+03 1.3070639382612767e+03 -5.9612897333279398e+02 -8.5299042111569179e-01 -7.3252135107646609e+01 -1.0900759184323215e+02 4.2387200012178596e+02 2.5265078298850540e+01 6.0361190685352938e+02 -2.1945060773621954e+03 -1.2397255657127116e+03 1.3468652706683613e+03 6.6103150404467669e+01 -2.7224423099175510e+01 1.3950787499539729e+02 -3.6059941345882379e+02 6.4984519177948755e+01 1.2833912684770421e+03 -7.1501634127941361e+02 -1.4363751170500336e+02 3.1942293814746727e+03 -1.8586973115154933e+01 -4.0296807479032651e+01 -1.7420623391418975e+01 -3.4414943313417763e+02 -2.3913909037851955e+01 -1.9971967829152379e+02 8.3025822537249314e+02 1.6275427343494825e+03 -3.7724698669305798e+02 3.9346976284196984e+00 5.9231984994898802e+01 6.6497092895577055e+00 -4.6101639973829151e+01 6.8105924626188767e+01 -3.5749120845088373e+02 -1.6727500551066231e+02 -4.0091727180086895e+02 -2.3817828985786048e+02 -3.2479044532586492e+01 3.6745259255785663e+02 
      </Row>
      <Row Index="35">
        3.6101577036966948e-01 -1.9553849103078758e+01 -9.4837198332232475e-02 -1.1863926294202343e+00 -9.6902737106217955e+00 -2.6249359491693849e+02 3.7688146533693974e+01 2.3077490029984464e+01 5.8016800196902061e+00 3.5974527882856497e+00 1.0848874334656635e+01 -2.4558417640363679e+00 2.5688112144272202e-01 -1.9059543541126057e+01 7.2554300448834596e+01 -1.0831110241144822e+01 2.3316724238347284e+01 -5.5115988117397201e+00 -2.7865048834099104e+00 -2.9139545204041092e+01 -4.2836691071431467e+01 -9.8766070547856408e+00 1.4525822211182685e+01 -4.3149653673827970e+00 -2.1564738873826066e+01 -3.3846425042570935e+01 -1.8584599779910548e+01 2.3873552004119665e+00 2.4793491149366503e+01 -1.0587094330851674e+00 4.3887334626647903e+00 -1.3053036750607031e+01 3.0023745324429291e+02 2.5210912958752193e+01 -1.8586973115181813e+01 1.4145194454934282e+01 9.6851485612040406e-02 -5.9840048720380876e+00 3.0476851829846126e+01 -7.3963631543145170e-02 3.5515243978559345e+00 1.5734920835943768e+01 3.4208525267233469e+01 -5.4563864755041207e+00 -9.5745174659124710e-01 -1.5940381653756011e+00 2.9176891669007143e+00 1.2166196745195446e+01 -5.1437858264943541e+00 -1.5655560746412913e+00 -5.4603280317133400e+00 -5.4345418427395149e+00 -4.3362906470196503e+00 1.1631395565335851e+01 1.5306598085897163e+00 
      </Row>
      <Row Index="36">
        -9.9092044850207528e-01 2.8762242500626454e+00 8.8244275921988837e+00 -2.3265929324494126e+00 4.7541173315504599e+00 4.3512562508787788e+01 3.2329364799004452e+00 -5.4821877383009792e+00 1.5217800087643948e-01 1.8524989053596683e+00 -3.9386612593111394e+00 -5.0179359081486750e+00 5.2002333178926818e-01 3.1436119288632245e+00 1.3461934231379834e+01 -5.1103649186543265e+00 4.4684478533554683e+00 -1.5938776285180711e-01 2.1985831614032678e+00 6.2824108829583825e-01 -9.5396016948091820e+00 9.8039211230420698e-03 -9.2392094067538295e+00 -1.7612933450740172e+01 -7.0883435820703991e+00 -1.6123113598529695e+01 -7.5581226853338102e-01 2.5995299269403906e+00 1.7216493088348690e+00 -3.4087956497329741e+00 -2.7638024447197482e+00 -1.5716077603804298e+01 6.9822793631424815e+00 -2.4643210291619586e+00 -4.0296807478859350e+01 9.6851485616017530e-02 1.9003470862623999e+00 -6.3125635651494205e-01 6.6744833524629295e+00 1.3493932849684032e+00 2.1556047762204864e+00 -4.9452449817390658e+01 9.3037496500667363e+00 5.9752811208374705e+00 -5.1903538062367971e-02 -2.2763314926151055e+00 -2.1587750351444335e-02 -5.1339709016061286e-01 -1.2081341733608604e+00 4.7460382538251782e+00 4.0363119444062523e-01 -2.4896376047228204e+00 3.6528501646682887e+00 4.1820125953029530e-01 2.3069524714415809e-01 
      </Row>
      <Row Index="37">
        5.2361256147613560e+00 3.2659084404728088e+02 -6.4837176289202489e+01 9.2451304358839366e+00 -1.7087947867091259e+01 -3.7582664603474605e+03 -1.4053150688057531e+02 2.0907023970424473e+02 -3.1252236305976453e+00 -1.2023270600467512e+01 -1.3601124153352275e+03 1.0115826360538790e+02 -1.4743408622510827e+01 -3.1586061766766579e+02 1.2171831373289651e+03 -4.0727973979183389e+02 -2.5299558818440210e+02 3.9643333826035132e+00 1.0573147257477274e+01 1.4274618534294400e+03 4.1573982639879887e+01 1.8437060444887607e+01 4.1103847754343462e+02 -1.1987937454524981e+03 6.6883376549469585e+02 1.6012859518495912e+02 1.4153643090112155e+01 -6.1071673634928629e+00 -6.3667183207713788e+02 5.8785924052014593e-01 4.7148763873683492e+00 5.5187954613044440e+01 7.5792383253716980e+02 1.3860389466827996e+02 -1.7420623401061448e+01 -5.9840048721341645e+00 -6.3125635645323486e-01 2.8729972843589496e+02 -4.1452304213335005e+01 -2.8102938447337849e+00 2.9180267750073590e+01 2.1048360581170200e+03 -9.8475657340344287e+02 4.8063672323146179e+01 4.5036014469956065e-01 1.7480931109444364e+00 -8.0037865479266614e+01 2.9412147621995587e+01 7.3030676940704211e+00 -6.4267661636419163e+01 4.6689099961537039e+01 1.8202881667515004e+02 -3.7421680719020401e+01 -9.1668806282213584e+00 -1.0084950274188762e+02 
      </Row>
      <Row Index="38">
        -5.5256658429777872e+00 -2.5470894151229345e+01 1.9758272129770694e+02 -1.9372331348220072e+01 -2.3656613637801343e+01 -1.5801280691197935e+03 3.9448545432306946e+02 3.2752007741654938e+02 8.0445554928573255e+00 2.4458877499255038e+01 2.1577764428102455e+00 1.2756422613141240e+01 -1.3533394948574966e+01 -2.4085685929507503e+02 -3.2124913983221322e+03 -8.3990504401522981e+02 5.0610985036561033e+02 9.2568883898040326e+00 -1.0564758790748897e+01 -1.1749690351862318e+02 -4.8362895174372238e+02 -2.8748490952922339e+01 8.5441035244701197e+01 -1.7603987455170281e+03 4.3470305348480269e+02 -5.8134785194617518e+02 -1.0705350271318684e+02 6.8436627529067664e+00 2.2454165892912079e+02 9.9293041188378197e+00 -3.1283752006127543e+01 -4.5123122973322097e+01 1.2048060751181401e+03 2.6283315789094081e+02 -3.4414943314766697e+02 3.0476851829692919e+01 6.6744833524510714e+00 -4.1452304210350164e+01 5.0659165041629734e+02 1.4127050766407338e+01 2.0390289579614894e+01 -6.8868681505397035e+02 -5.6856069954595569e+02 2.7185445885714298e+01 -7.7752297896030633e+00 -8.2890107570710008e+00 1.1732287831596242e+01 1.3450266957527754e+02 -6.8496969388256886e+01 -8.1486635078409968e+00 3.4884844677291923e+01 1.3247722466440240e+02 -1.1910171615258615e+02 5.3041556889254920e+01 -1.5420818900556003e+02 
      </Row>
      <Row Index="39">
        -3.8271189214085739e+00 -1.7208672654991091e+00 2.1257250128661383e+01 1.8702204147737271e+00 6.7873323516693471e+00 1.5585781758884650e+01 7.0197523804321804e+00 -7.7945839384360340e+00 -3.7435692829907330e-02 2.9053680480559647e+00 -5.1616245262218854e+00 -1.1787716850756055e+01 -7.0205291295820915e+00 -2.3190636621532917e+01 4.0021639115332505e+01 1.1822499794911437e+01 2.9728047962572248e+01 6.8185481777048196e-01 1.4102563873072658e+00 1.4689630883447450e+01 -2.4880713908825534e+01 -2.4984574293622472e+00 4.8577000875173617e+00 -1.1012539178104817e+00 -3.3380915662326174e+01 -2.2385603387216022e+01 -1.9865843893028625e+00 -2.5974827406096423e-01 1.2064616945429179e+01 -2.0471575508500706e+01 -8.0076847552326100e+00 -2.3950957623583520e+00 -1.1772913924982231e+02 -1.3273084971409972e+00 -2.3913909037813966e+01 -7.3963631526005713e-02 1.3493932849649941e+00 -2.8102938445690535e+00 1.4127050766903384e+01 6.1376799424179644e+00 -2.1412535897237372e+00 -3.5345217656568593e+01 4.9571986107965976e+01 7.2775701356521623e+00 1.8241667969468356e-02 9.5050909362701785e-01 -5.4948851033479240e-02 5.2468616360407694e+00 -9.8139029743442840e+00 -4.6585098653751311e-01 -1.6365691841758085e+00 -1.2268750592281048e+01 -1.9120148578997949e+00 7.3600835377046736e-01 8.3333687334283812e+00 
      </Row>
      <Row Index="40">
        -1.7444561548741291e+00 6.6619446733798441e+01 1.9162588457982110e-01 -3.0826151360722420e+00 8.1235919361667399e+00 4.0719900246335237e+02 -4.7866401015082829e+01 -3.4751906210423158e+01 1.8734166779125978e+00 5.5165443704841266e+00 -3.4171376163355671e+02 1.7014152502424622e+00 4.0531026194187803e-02 -6.5482039861224550e+01 -7.9245401292464521e+00 -2.7309298080528686e+02 4.2140503714309489e+01 -1.0520017239139747e+00 2.8122453911976208e+00 3.5061716969285681e+02 7.8861415998704842e-01 -1.9103000428601717e+00 7.7660921484666829e+01 4.5959043680164541e+02 4.2265841437680024e+02 -8.1714999020091966e+01 -5.6610271588891692e+00 4.1633387551386818e+00 -4.1366509968367609e+01 3.3647728808679283e+01 -9.0008133819117120e-01 -1.2716707185791279e+02 3.3895313368030838e+02 1.3295493512456255e+02 -1.9971967829542905e+02 3.5515243978168769e+00 2.1556047762639503e+00 2.9180267749079793e+01 2.0390289577413387e+01 -2.1412535897795637e+00 5.1184869081633920e+01 7.6978831217521679e+02 -5.6696869443524236e+02 9.2452210033171589e-01 -8.3741047190123385e-01 -6.6717838988627012e+00 -1.6612884157510095e+01 -2.5831675092204591e+00 -1.7224174428735441e+00 1.3500642357804660e+01 3.5720428094594602e+01 1.1192530453357656e+02 3.0819816446985371e+01 3.4051202772138893e+00 -8.1613689239289059e+01 
      </Row>
      <Row Index="41">
        3.9993790342721240e+02 -2.2600086625255335e+03 2.7028925536898314e+03 -3.1139165584442412e+02 -8.6398032400286024e+02 6.3355676416815142e+04 -1.0758683604043617e+04 4.6903819243695762e+02 -2.0757921165117480e+02 1.6436942875578734e+02 -1.1304686015065236e+03 -4.3090993451347676e+03 1.3068731609275665e+03 -4.1102101579780610e+03 -6.8793410848614527e+04 1.9445874791915914e+04 3.4830766092752747e+03 5.2283374881076543e+02 -2.8438379269878078e+02 5.2278911283980851e+03 9.4700171725228756e+02 2.1734879002440903e+02 5.9122865103242730e+03 4.4874865190212149e+04 -6.5934520122479880e+03 2.1233758235269215e+02 -3.1531349817822047e+01 -1.1052163141548772e+02 -3.5280884042415710e+02 -1.0646161849604623e+03 6.0146260251795093e+02 8.8517428309271054e+01 -1.0383651554432174e+05 2.1061835828885458e+04 8.3025822506959958e+02 1.5734920841599887e+01 -4.9452449816477433e+01 2.1048360582143664e+03 -6.8868681485805735e+02 -3.5345217657982460e+01 7.6978831226301554e+02 7.0052675506831042e+05 -1.5155459869619437e+04 4.6654605129126958e+02 1.1625995877725654e+02 -1.3451109725447742e+02 -2.1650621832495392e+02 -7.5416697612110329e+02 1.2644475950769070e+03 -4.5855009937322279e+02 2.2899259355864024e+03 8.9734175402053643e+02 -4.7025881176823532e+01 -1.6880636414182845e+02 2.7608703262676840e+03 
      </Row>
      <Row Index="42">
        -1.9161957153747790e+02 -1.3889074299343629e+03 2.0804196637836285e+03 -3.6395415469534055e+02 4.2261754601869325e+02 -3.5902037591349334e+04 2.5247948650904000e+03 -3.9654886035462841e+03 -1.1749380776416729e+01 -2.0249931595408998e+02 5.2854530180534348e+03 -2.0836473567192443e+03 6.2733940673628240e+02 1.8961489320242108e+03 -9.4234955105260015e+03 4.9205001674617641e+04 1.4159336988488212e+02 5.6646681656711735e+00 1.8650859832012793e+02 -5.5243148669097573e+03 -1.7550008988204645e+03 1.5777768219518475e+02 -2.8503487230939791e+03 5.2008093942552805e+04 -7.3181872156878933e+04 4.0067101958822459e+03 -4.4384453136008233e+00 -2.2552572041470557e+02 1.5034042817447335e+03 -8.4730143086997850e+02 3.2656523272980121e+02 1.1483733559246175e+03 1.4144184462420642e+05 -9.1385157202141127e+03 1.6275427323617041e+03 3.4208525065798312e+01 9.3037496374261082e+00 -9.8475657420631615e+02 -5.6856070462674916e+02 4.9571985928738286e+01 -5.6696869467716169e+02 -1.5155459943722199e+04 1.5015842657086760e+05 -4.1078282077655217e+01 1.5725396862051127e+01 2.5136991504053361e+02 3.2663555573238511e+02 -1.1076619137726957e+03 4.8890083973018017e+02 7.3893944837845112e+01 -4.4044141135949412e+03 1.3499123148040706e+05 6.0057265687082690e+02 8.3399709621298825e+00 -1.4063412000817215e+05 
      </Row>
      <Row Index="43">
        -6.9135464470305923e+00 5.0506920716480749e+01 1.2385574329676643e+02 -3.2054044419577821e+00 3.9163417982508150e+01 -8.1046285946662954e+02 -6.3509700805793159e+01 1.1734579653384922e+02 1.2324192883191973e+00 5.8879890337782941e+00 -2.2151560709971434e+02 1.0042860760832482e+02 2.2542835296943000e+01 2.8068587994470873e+00 -4.0691570483746034e+01 -5.8604264905013963e+00 1.6680170839795187e+02 -9.3117475697966761e+00 8.5461862547268748e+00 2.0332895593199893e+02 -9.2475970224908238e+01 2.4055290997319645e+00 -8.0748653467352071e+01 1.0971748121095220e+02 -1.0835613281731497e+01 -1.5829491148425566e+02 1.0401851882085488e+01 -1.0783906664715378e+01 -2.0120001708425650e+02 -4.9638342498527216e+01 -1.1263907322632090e+00 -1.8304559880831971e+02 -4.0726555426533196e+02 1.8141337210915438e+01 -3.7724698669183346e+02 -5.4563864754871929e+00 5.9752811208366854e+00 4.8063672322666889e+01 2.7185445884788066e+01 7.2775701356660800e+00 9.2452210001749979e-01 4.6654605132400093e+02 -4.1078282502844019e+01 1.7301714978916351e+02 -2.2189927332497850e+00 1.8127083808813249e+00 -1.4940215892791123e+01 4.3928821234730350e+01 1.2704482123477852e+01 5.1170780183104561e+01 8.4286052450087823e+00 1.0777962702599631e+01 -1.3681347470487330e+01 -4.4854928413458470e+00 -5.7342025128714011e+00 
      </Row>
      <Row Index="44">
        -1.5016259607383731e-01 3.4419879646275229e+00 1.4385702971760033e+00 -1.2070964897658498e-01 3.0935064721083416e-01 -5.5822065046755881e+01 -1.5384742930532980e+00 -6.3068017247144770e+00 -1.2382423122742898e+00 -4.6991982723664938e-01 -3.3630073231975359e+00 -5.1948726846986517e+00 -2.6775017473368479e-01 4.7428970003084281e+00 1.5607820159788531e+01 1.4890593674700774e+01 -1.3140895714899841e+01 2.4898989161282321e+00 1.5382605215192990e-01 -1.3440546847193460e+00 -8.9800955700116525e+00 8.6252237074218563e-01 -3.4834750256024871e+00 -9.3522795407593549e+00 -8.5458129630392605e+00 1.3287362391294279e+01 7.0096574921184640e-01 -6.2949313941962792e-02 -3.5137933597069839e+00 9.4172133750822216e+00 -2.8292419734257601e-01 3.1144449011885733e+00 -5.1313336508640418e+01 -7.0167487515670892e+00 3.9346976286533391e+00 -9.5745174658942922e-01 -5.1903538062966680e-02 4.5036014466119523e-01 -7.7752297896337641e+00 1.8241667974867370e-02 -8.3741047193084950e-01 1.1625995877991147e+02 1.5725396799697119e+01 -2.2189927332760582e+00 1.2181051227141542e+00 1.8673199034526225e-01 -1.8679707655250810e-01 -4.8308351557168931e+00 3.8209619086435120e-01 -2.4210475277087140e-01 3.3650626193503177e+00 -2.2360012521516204e+00 2.0405960667145773e+00 -7.9273465893686013e-01 1.6692899863244381e+00 
      </Row>
      <Row Index="45">
        -1.8681850166691731e+00 -8.4340450662741375e+00 -3.4481232353879250e+00 3.0017042518791364e+00 9.8147305435032806e+00 -2.5411480128206767e+02 -4.8653418261208117e+00 -2.7138846164374513e+01 -9.7768285537531696e-02 -8.3556003194483814e+00 9.0002206854048836e+00 -3.0561810717233584e-01 -6.0704465324513350e+00 -9.0784773901882510e+00 -2.6994726005849861e+02 1.3000260476154557e+02 -1.1609919879447261e-02 7.2883830345207912e-01 -2.7006965323275836e+00 7.6506433668464524e-01 1.3265706549755492e+01 2.3040587121005558e+00 -7.1952999746229551e+00 -3.8722968526438672e+02 -1.8783094795062061e+02 5.6888809916257081e+01 1.3353101900268030e+00 -1.4531935268767313e+01 -1.1391836407449205e+01 -9.7794235359779265e+00 -1.7299133960501791e+00 1.7429949366575102e+01 -1.4116371303361848e+02 -4.9057066320649028e+01 5.9231984997286929e+01 -1.5940381653267082e+00 -2.2763314926304909e+00 1.7480931111801787e+00 -8.2890107558534698e+00 9.5050909368324632e-01 -6.6717838990074290e+00 -1.3451109721171019e+02 2.5136991479060211e+02 1.8127083807085649e+00 1.8673199032869459e-01 1.1337619227362953e+01 -2.0201037409332034e-01 2.6263446270225472e+00 -2.7199980649448801e+00 -4.6007092523955873e+00 -1.7261723278844634e+01 -5.5986165647405528e+01 1.7498014049454973e+00 -1.5036656560123376e+00 4.5861804637512556e+01 
      </Row>
      <Row Index="46">
        -8.8547119298206667e-01 -1.2403144909421462e+02 1.6231416844956982e+01 -3.2883090470709178e+00 8.2227238626831056e+00 8.4704519300773154e+02 6.7391503730150589e+01 -5.3134298849910294e+01 1.3917853007481309e+00 2.6672834124774809e+00 4.9828389643664582e+02 -3.8363052129994912e+01 3.3450921069346364e+00 1.1500957168879290e+02 -2.9488112205724747e+02 1.3464099572691981e+02 6.1160263095787627e+01 -4.2513527483416169e-01 -3.4157574966140984e+00 -5.1181109671432409e+02 -8.7745616769227013e+00 -4.9719005507089662e+00 -1.5905761859210304e+02 2.8422054385292358e+02 -2.4308429500825400e+02 -3.4600758693594884e+01 -5.9559408371291056e+00 1.0866627852011845e+00 1.9994916592404911e+02 2.4775742298230554e+00 8.8063002293797155e-01 -1.9399981959311731e+01 -1.0679689866915396e+02 -6.7833800110106495e+01 6.6497092926385335e+00 2.9176891669312397e+00 -2.1587750370394454e-02 -8.0037865479290275e+01 1.1732287832513487e+01 -5.4948850980728547e-02 -1.6612884157820208e+01 -2.1650621829259291e+02 3.2663555543910809e+02 -1.4940215892973301e+01 -1.8679707656356115e-01 -2.0201037402087607e-01 2.8654046470889302e+01 -9.9096682215216134e+00 -2.3352734151236625e+00 2.3398266931117092e+01 -1.9883600436331463e+01 -5.5604377434333017e+01 1.0189546936626051e+01 3.4333203628436344e+00 3.2312748999364494e+01 
      </Row>
      <Row Index="47">
        3.0848825391963430e-01 6.7096096215149601e+01 -1.5095404380769060e+02 1.0659072652360521e+01 -4.1473799079567058e+01 1.3066363472375706e+03 -6.0641525323667338e+01 3.3460586160050184e+02 7.5333795957297269e+00 -1.5707246716135614e-01 -2.3216570580985262e+02 2.7168295974340481e+02 -1.2352989528944732e+01 -8.4096838138461635e+01 -5.5331855930113916e+03 -5.3929478721640999e+02 4.6046494211833306e+01 -1.4643146783467955e+00 -2.6995982937517624e+00 1.3566035708820709e+02 3.2708179934509758e+01 -1.7952364059798242e+01 1.1734377974881272e+02 -2.8008597022974500e+03 8.5611840488658891e+02 -2.5930173497126475e+02 -2.9400490486781564e+01 -4.3624591180393963e+00 -6.3723854374064558e+01 -9.2635174915482793e+01 -1.1995432197046512e+01 3.4734820861675871e+01 2.7986050508602493e+03 1.4188904120435018e+02 -4.6101639987099816e+01 1.2166196745046705e+01 -5.1339709010148826e-01 2.9412147622218257e+01 1.3450266957145186e+02 5.2468616357368294e+00 -2.5831675079505025e+00 -7.5416697628537213e+02 -1.1076619120298542e+03 4.3928821235681134e+01 -4.8308351556579936e+00 2.6263446266623021e+00 -9.9096682215323391e+00 1.8771487649659127e+02 -2.1581347965625184e+01 -1.8645241167105848e+01 8.4083870587234060e+00 2.6560540059047258e+02 -8.8226891202868501e+01 1.0502527488037558e+01 -1.7924647472143624e+02 
      </Row>
      <Row Index="48">
        4.2600300267587130e+00 1.9873803799317670e+01 3.9030541675497261e+00 -1.5000106239448378e+01 2.4903903893676045e+01 6.3750164363809745e+00 -9.1439010609748948e+01 1.4837449821511541e+01 -4.2428174553435749e+00 1.8630750792977153e+00 -1.8615221154006576e+01 -9.4340449289786648e+00 5.8186919435321443e+01 6.0845021258487790e+01 -5.6926126105973981e+02 4.4160993321055605e+02 -1.5961404449400561e+01 -2.4788769956061856e+00 -3.9368004567963055e+00 3.7603801139148345e+00 7.7301652566541065e+01 8.6105211974336271e+00 -1.5020898366953844e+01 -4.4922960643328770e+02 -3.9127620184825764e+02 -2.9565632442319867e+00 1.8601801310869860e+01 3.4573618143809881e+00 -4.0153743200048211e+01 -1.1404642166641523e+01 2.9323366978067014e+01 -2.3670951529470130e+01 -3.9796655399783049e+01 1.3442100603053746e+01 6.8105924631636981e+01 -5.1437858264508236e+00 -1.2081341734043369e+00 7.3030676947735458e+00 -6.8496969386255032e+01 -9.8139029742297001e+00 -1.7224174430856554e+00 1.2644475951965610e+03 4.8890083888941933e+02 1.2704482123003617e+01 3.8209619083507995e-01 -2.7199980649432156e+00 -2.3352734153443322e+00 -2.1581347964818860e+01 5.6169556485269368e+01 1.4110523983147399e+01 -2.8882951827370050e+01 -1.2133629610395802e+02 -2.7423081802136267e+00 -9.3275250637515974e+00 9.9960090298890947e+01 
      </Row>
      <Row Index="49">
        -8.1526354804364694e+00 -8.0569426795440222e+01 5.8167733849755734e+01 -6.7270060216656500e+00 6.6488051018753566e+01 1.0151961712293682e+03 2.0180406261136909e+01 -1.1129568577480549e+02 2.6700198024439459e-01 7.3921103003995619e+00 4.4456097067018732e+02 -1.2568771206952761e+01 2.1660820468828703e+01 2.3683425333674361e+02 2.5967248343903066e+02 3.1255373263309110e+01 1.2429579413157001e+02 -3.6355648911819713e+00 5.2875431838005298e+00 -4.5960975637781951e+02 -2.3195957408891132e+00 -2.7574258990187417e+00 -3.2201221863509090e+02 9.5554181737556428e+02 -5.3441918375401428e+01 -1.4194202034681237e+02 3.3932424207962697e+00 -9.0427703410034610e-01 1.3509467768788244e+02 3.5572168617851815e+01 -2.7688897306126421e+00 -2.6703215312465932e+02 6.8125229295532426e+02 -7.4179955313086310e+01 -3.5749120844639515e+02 -1.5655560746176462e+00 4.7460382538352501e+00 -6.4267661638420307e+01 -8.1486635096836739e+00 -4.6585098642925216e-01 1.3500642356582413e+01 -4.5855009936358130e+02 7.3893943478321333e+01 5.1170780183048635e+01 -2.4210475273761567e-01 -4.6007092517496506e+00 2.3398266931751756e+01 -1.8645241169938970e+01 1.4110523984578590e+01 9.6684731826493845e+01 2.8281118350834191e+00 1.1764840432716898e+01 6.1104077346934133e+01 -1.7459132130930337e+00 -2.2131148824592731e+01 
      </Row>
      <Row Index="50">
        9.1921322163518084e+00 1.3256622253875094e+02 -1.3042174064568826e+01 2.0819559372083177e+01 -4.2900292241713032e+01 6.1027080224581005e+02 -7.6829082727941568e+01 1.8916087565934777e+02 -7.3989576064156708e+00 1.1254463643347208e+01 -3.5233054787183573e+02 1.2803808388611651e+02 -2.3091641080234126e+01 -3.7682317940327835e+01 2.3873634254923672e+00 -2.2817730557936929e+03 -1.5728263822111330e+01 5.9500023420473553e+00 -5.3347158025705994e+00 2.9707420153456405e+02 -1.3847969099551665e+02 -2.1809784025774661e+01 1.1758057045826581e+02 3.1129907180641021e+03 3.3009129341381376e+03 -1.8893992173399477e+02 6.1170491721877625e+00 1.5122213428880059e+01 -1.4743339058388847e+02 1.1284783853426524e+02 -2.6365211857311124e+01 -5.6921431717542873e+01 -8.2864152231113694e+03 5.2649803262492333e+02 -1.6727500555153983e+02 -5.4603280323299259e+00 4.0363119472010123e-01 4.6689099958278916e+01 3.4884844659651634e+01 -1.6365691850101456e+00 3.5720428097352823e+01 2.2899259349220210e+03 -4.4044141098973396e+03 8.4286052477619080e+00 3.3650626195929192e+00 -1.7261723278973832e+01 -1.9883600435289537e+01 8.4083870537306211e+00 -2.8882951828232038e+01 2.8281118453351723e+00 2.9977496791061822e+02 9.5881776811098098e+02 -2.5466244059945438e+01 -5.5736212962835907e-01 -7.1492983440067246e+02 
      </Row>
      <Row Index="51">
        3.9950861431541853e+01 2.0664668815210462e+02 -4.9606626558024436e+02 8.8035070165846264e+01 -4.6936362048756564e+01 8.2335234699398279e+03 -6.6823894223943353e+02 8.3282636818056926e+02 6.3567677939790883e+00 2.9261031806177925e+01 -8.0859243240579963e+02 5.1098767650686204e+02 -1.5926657130382955e+02 -2.9449622504907893e+02 7.8900463335588574e+02 -1.3953610926227644e+04 -1.2427595886029303e+02 4.3052015355788171e+00 -2.0461572764557786e+01 8.9270516417175531e+02 4.0333722459292039e+02 -3.1259973031003028e+01 4.0002420137904119e+02 -8.6698758504986763e+03 2.0626971501505002e+04 -7.2600490534212440e+02 -1.3986336349509656e+01 5.1876891943393275e+01 -2.6276548372488469e+02 2.3390402303525480e+02 -7.6709294959902763e+01 -2.9300715070497245e+02 -2.8067451654851437e+04 2.3302207407103851e+03 -4.0091728078015149e+02 -5.4345424992498010e+00 -2.4896376225665335e+00 1.8202881400659680e+02 1.3247720799841034e+02 -1.2268751194998913e+01 1.1192530399682437e+02 8.9734148162230849e+02 1.3499123173286114e+05 1.0777964197448455e+01 -2.2360010459378827e+00 -5.5986164897840354e+01 -5.5604376469796989e+01 2.6560539494454861e+02 -1.2133629361406201e+02 1.1764845295925625e+01 9.5881775688589551e+02 4.7868908261277701e+05 -1.2088357216619886e+02 1.0144697265350260e+00 -4.7737700625995937e+05 
      </Row>
      <Row Index="52">
        -5.9658768357628063e+00 -5.5251231611151070e+01 -4.1868271757551838e+00 -4.2428324839360698e-01 4.2997752297775214e+01 3.9302363641776701e+03 -6.7228544985877761e+01 -4.4932608822095972e+02 2.5932207467699593e+00 -1.0578731164042210e+01 2.1741656050713163e+02 -1.1527487928111464e+02 -1.8689103823137685e+01 1.5910168926476848e+02 2.0371552713762808e+03 3.7608588246550278e+02 -3.7649861707287528e+01 -1.0094863377533443e+00 1.2945968359939826e+01 -1.2537676128556950e+02 1.3763335455583984e+02 1.1076527344044450e+01 -2.1195120536984376e+02 3.6851499799263183e+02 -4.5820480372230622e+02 2.3509470668237284e+02 1.4321249310895269e+01 -8.0613018220979029e+00 5.9141429860069820e+01 7.5563964411371757e+01 -9.0012882876790172e+00 -1.9494714579290542e+02 8.5156723778664673e+02 -1.7536546393925460e+02 -2.3817828984657910e+02 -4.3362906468453843e+00 3.6528501646717801e+00 -3.7421680721735655e+01 -1.1910171615186209e+02 -1.9120148575649676e+00 3.0819816444913126e+01 -4.7025881103568281e+01 6.0057265434328292e+02 -1.3681347471052234e+01 2.0405960666967395e+00 1.7498014058887676e+00 1.0189546937448746e+01 -8.8226891206013590e+01 -2.7423081783389414e+00 6.1104077345527067e+01 -2.5466244074870730e+01 -1.2088358090028208e+02 1.5690232850899548e+02 -8.4153029882998567e+00 8.8707798259444175e+01 
      </Row>
      <Row Index="53">
        -4.5755503229794492e-01 -2.0142571045671033e+01 2.0743650293919046e+01 -2.2804303110755813e+00 -6.3055347907339696e+00 -4.5364738602927923e+02 6.9258842287619956e+01 2.3967303232712212e+01 6.9143586990290524e+00 3.9769558287466396e+00 1.8261068722721859e+01 -5.4950097583509887e+00 -2.2595638810823075e+00 -2.7476660042497869e+01 2.5733632774207194e+02 -8.1379843386824405e+01 4.9132465651464230e+01 -7.5621927553764330e+00 -1.7844206881337055e+00 -3.3274339562605917e+01 -7.7513235385476321e+01 -6.6622509645369377e+00 8.0049854040408732e+00 1.6954716687044765e+02 -2.5696352238038571e+00 -4.5332323745481062e+01 -2.3250358750935192e+01 1.6579174861342594e+00 3.6128129004910562e+01 8.6792775753561990e+00 3.5907173280309834e-01 -9.5128271538473541e+00 -4.7970039296392770e+01 2.3625845616280650e+01 -3.2479044533192891e+01 1.1631395565325100e+01 4.1820125952592307e-01 -9.1668806280192818e+00 5.3041556889306904e+01 7.3600835372848550e-01 3.4051202773352731e+00 -1.6880636415811719e+02 8.3399714004614793e+00 -4.4854928413120874e+00 -7.9273465893533301e-01 -1.5036656561064980e+00 3.4333203627796247e+00 1.0502527488303805e+01 -9.3275250638532956e+00 -1.7459132130161472e+00 -5.5736212837390653e-01 1.0144711461062110e+00 -8.4153029884583184e+00 1.3891085989479647e+01 -8.4513962008308372e+00 
      </Row>
      <Row Index="54">
        -2.6894712549808901e+01 -1.2158997549163178e+02 3.0445278975181282e+02 -6.0600621155201225e+01 1.3477564073866233e+01 -5.5597848096936941e+03 4.0354838036745787e+02 -5.9049617697484791e+02 -5.3404825465477188e+00 -2.5302984786918387e+01 4.6945578134432435e+02 -3.4298549172654748e+02 1.1978234313428402e+02 1.9740350728423800e+02 -1.3445800955332816e+03 1.1267051482335199e+04 3.5672896303236485e+01 -4.0406740510370582e+00 1.1297259476268664e+01 -5.1981993964686990e+02 -1.9554631711915135e+02 2.5140013338532299e+01 -2.1228555264510214e+02 5.5227802624702454e+03 -1.6412567602990195e+04 5.6370703950896859e+02 2.3586079778149724e+01 -4.5382647429127246e+01 1.2267266479600221e+02 -2.1573913816228742e+02 5.9490124893491156e+01 2.5157392615173012e+02 2.0780373140275478e+04 -1.7582225451278500e+03 3.6745260148216039e+02 1.5306604632642120e+00 2.3069526535437035e-01 -1.0084950007783482e+02 -1.5420817236405446e+02 8.3333693350505200e+00 -8.1613688699115301e+01 2.7608705977983773e+03 -1.4063412025646120e+05 -5.7342040039511630e+00 1.6692897804750828e+00 4.5861803887863061e+01 3.2312748036260018e+01 -1.7924646908277646e+02 9.9960087808183744e+01 -2.2131153674126836e+01 -7.1492982317670248e+02 -4.7737700624742592e+05 8.8707789545413107e+01 -8.4513947831583209e+00 4.7642078623706626e+05 
      </Row>
    </InverseHessian>
  </Weights>
</MethodSetup>
