<?xml version="1.0"?>
<MethodSetup Method="MLP::MLP">
  <GeneralInfo>
    <Info name="TMVA Release" value="4.1.4 [262404]"/>
    <Info name="ROOT Release" value="5.34/05 [336389]"/>
    <Info name="Creator" value="clester"/>
    <Info name="Date" value="Tue Mar 18 10:31:26 2014"/>
    <Info name="Host" value="Darwin pb-d-128-141-154-76.cern.ch 12.2.1 Darwin Kernel Version 12.2.1: Thu Oct 18 16:32:48 PDT 2012; root:xnu-2050.20.9~2/RELEASE_X86_64 x86_64"/>
    <Info name="Dir" value="/Users/clester/marchMadnessChallenge"/>
    <Info name="Training events" value="1089"/>
    <Info name="TrainingTime" value="8.51811390e+01"/>
    <Info name="AnalysisType" value="Regression"/>
  </GeneralInfo>
  <Options>
    <Option name="NCycles" modified="Yes">6000</Option>
    <Option name="HiddenLayers" modified="Yes">N+5</Option>
    <Option name="NeuronType" modified="Yes">tanh</Option>
    <Option name="RandomSeed" modified="No">1</Option>
    <Option name="EstimatorType" modified="No">MSE</Option>
    <Option name="NeuronInputType" modified="No">sum</Option>
    <Option name="V" modified="Yes">False</Option>
    <Option name="VerbosityLevel" modified="No">Default</Option>
    <Option name="VarTransform" modified="Yes">Norm</Option>
    <Option name="H" modified="Yes">False</Option>
    <Option name="CreateMVAPdfs" modified="No">False</Option>
    <Option name="IgnoreNegWeightsInTraining" modified="No">False</Option>
    <Option name="TrainingMethod" modified="No">BP</Option>
    <Option name="LearningRate" modified="No">2.000000e-02</Option>
    <Option name="DecayRate" modified="No">1.000000e-02</Option>
    <Option name="TestRate" modified="Yes">6</Option>
    <Option name="EpochMonitoring" modified="No">False</Option>
    <Option name="Sampling" modified="No">1.000000e+00</Option>
    <Option name="SamplingEpoch" modified="No">1.000000e+00</Option>
    <Option name="SamplingImportance" modified="No">1.000000e+00</Option>
    <Option name="SamplingTraining" modified="No">True</Option>
    <Option name="SamplingTesting" modified="No">False</Option>
    <Option name="ResetStep" modified="No">50</Option>
    <Option name="Tau" modified="No">3.000000e+00</Option>
    <Option name="BPMode" modified="No">sequential</Option>
    <Option name="BatchSize" modified="No">-1</Option>
    <Option name="ConvergenceImprove" modified="No">1.000000e-30</Option>
    <Option name="ConvergenceTests" modified="No">-1</Option>
    <Option name="UseRegulator" modified="Yes">True</Option>
    <Option name="UpdateLimit" modified="No">10000</Option>
    <Option name="CalculateErrors" modified="No">False</Option>
    <Option name="WeightRange" modified="No">1.000000e+00</Option>
  </Options>
  <Variables NVar="4">
    <Variable VarIndex="0" Expression="seed_prob" Label="seed_prob" Title="seed_prob" Unit="" Internal="seed_prob" Type="F" Min="0.00000000e+00" Max="1.00000000e+00"/>
    <Variable VarIndex="1" Expression="winfrac1-winfrac2" Label="winfrac1-winfrac2" Title="winfrac1-winfrac2" Unit="" Internal="winfrac1_M_winfrac2" Type="F" Min="-5.04464269e-01" Max="6.11607134e-01"/>
    <Variable VarIndex="2" Expression="avg_scorediff1-avg_scorediff2" Label="avg_scorediff1-avg_scorediff2" Title="avg_scorediff1-avg_scorediff2" Unit="" Internal="avg_scorediff1_M_avg_scorediff2" Type="F" Min="-2.33035717e+01" Max="2.90575752e+01"/>
    <Variable VarIndex="3" Expression="avg_score_against1-avg_score_against2" Label="avg_score_against1-avg_score_against2" Title="avg_score_against1-avg_score_against2" Unit="" Internal="avg_score_against1_M_avg_score_against2" Type="F" Min="-2.50357170e+01" Max="2.12218971e+01"/>
  </Variables>
  <Spectators NSpec="1">
    <Spectator SpecIndex="0" Expression="season" Label="season" Title="season" Unit="" Internal="season" Type="F" Min="6.50000000e+01" Max="8.10000000e+01"/>
  </Spectators>
  <Classes NClass="1">
    <Class Name="Regression" Index="0"/>
  </Classes>
  <Targets NTrgt="1">
    <Target TargetIndex="0" Expression="game_outcome" Label="game_outcome" Title="game_outcome" Unit="" Internal="game_outcome" Type="F" Min="0.00000000e+00" Max="1.00000000e+00"/>
  </Targets>
  <Transformations NTransformations="1">
    <Transform Name="Normalize">
      <Selection>
        <Input NInputs="5">
          <Input Type="Variable" Label="seed_prob" Expression="seed_prob"/>
          <Input Type="Variable" Label="winfrac1-winfrac2" Expression="winfrac1-winfrac2"/>
          <Input Type="Variable" Label="avg_scorediff1-avg_scorediff2" Expression="avg_scorediff1-avg_scorediff2"/>
          <Input Type="Variable" Label="avg_score_against1-avg_score_against2" Expression="avg_score_against1-avg_score_against2"/>
          <Input Type="Target" Label="game_outcome" Expression="game_outcome"/>
        </Input>
        <Output NOutputs="5">
          <Output Type="Variable" Label="seed_prob" Expression="seed_prob"/>
          <Output Type="Variable" Label="winfrac1-winfrac2" Expression="winfrac1-winfrac2"/>
          <Output Type="Variable" Label="avg_scorediff1-avg_scorediff2" Expression="avg_scorediff1-avg_scorediff2"/>
          <Output Type="Variable" Label="avg_score_against1-avg_score_against2" Expression="avg_score_against1-avg_score_against2"/>
          <Output Type="Target" Label="game_outcome" Expression="game_outcome"/>
        </Output>
      </Selection>
      <Class ClassIndex="0">
        <Ranges>
          <Range Index="0" Min="0.0000000000000000e+00" Max="1.0000000000000000e+00"/>
          <Range Index="1" Min="-5.0446426868438721e-01" Max="6.1160713434219360e-01"/>
          <Range Index="2" Min="-2.3303571701049805e+01" Max="2.9057575225830078e+01"/>
          <Range Index="3" Min="-2.5035717010498047e+01" Max="2.1221897125244141e+01"/>
          <Range Index="4" Min="0.0000000000000000e+00" Max="1.0000000000000000e+00"/>
        </Ranges>
      </Class>
    </Transform>
  </Transformations>
  <MVAPdfs/>
  <Weights>
    <Layout NLayers="3">
      <Layer Index="0" NNeurons="5">
        <Neuron NSynapses="9">
          -4.8336688775285530e-01 1.3744539567195317e+00 7.5851542521864812e-01 9.4701572356732122e-01 -1.0614922830614884e+00 2.9584637024550758e-01 1.1009919698362434e-02 1.4923310731899446e+00 -6.9776576752384079e-01 
        </Neuron>
        <Neuron NSynapses="9">
          -7.4817479484160354e-01 -1.7943474628577996e+00 -8.1110808957666880e-01 -1.1578349233515712e+00 -9.9461127885234715e-02 -5.4339442786725256e-01 5.3616671868521237e-01 -3.2663817583623811e-01 1.2875651118445310e+00 
        </Neuron>
        <Neuron NSynapses="9">
          -5.6774911964878372e-01 1.2201610946883297e+00 5.0395824255235096e-02 -6.3278111725292707e-01 1.0994296983450687e+00 6.8698410862555381e-01 -7.2431131571542240e-01 -3.6969113041790130e-01 1.2368690887613993e+00 
        </Neuron>
        <Neuron NSynapses="9">
          -1.5763002668039772e+00 -1.4334539823176180e+00 3.3024928956599070e-01 -1.0763528016507284e+00 1.2819671824450458e+00 -3.8581772211229376e-01 2.6193372447352994e-02 -4.5003161982546717e-02 -8.1781259805252571e-01 
        </Neuron>
        <Neuron NSynapses="9">
          -3.9861472816283472e-01 4.4905865006971751e-01 -3.9422851743831921e-01 4.3425150732148660e-01 -2.2922913988166693e-01 1.1124190574259195e-01 2.3811017445821054e+00 2.2408235545828875e-01 -3.3340387180611095e-02 
        </Neuron>
      </Layer>
      <Layer Index="1" NNeurons="10">
        <Neuron NSynapses="1">
          -4.6463371815657029e-01 
        </Neuron>
        <Neuron NSynapses="1">
          1.8173064138932611e-02 
        </Neuron>
        <Neuron NSynapses="1">
          3.4609933173967550e-01 
        </Neuron>
        <Neuron NSynapses="1">
          5.9655838674207007e-01 
        </Neuron>
        <Neuron NSynapses="1">
          1.6448766516020846e-01 
        </Neuron>
        <Neuron NSynapses="1">
          1.1565503490031735e-01 
        </Neuron>
        <Neuron NSynapses="1">
          1.5300723326928602e+00 
        </Neuron>
        <Neuron NSynapses="1">
          -1.3053983260135160e-01 
        </Neuron>
        <Neuron NSynapses="1">
          3.5242917397807916e-01 
        </Neuron>
        <Neuron NSynapses="1">
          -1.1769253766934475e+00 
        </Neuron>
      </Layer>
      <Layer Index="2" NNeurons="1">
        <Neuron NSynapses="0"/>
      </Layer>
    </Layout>
    <InverseHessian NElements="3025" NRows="55" NCols="55">
      <Row Index="0">
        4.6001621292607426e+00 3.6244982633079530e+01 9.4808572630779653e-01 1.7071955530439660e+00 -7.5713732388392097e-01 1.1148221724472968e+01 -3.6076119085574243e+00 4.1464215257137349e+00 -2.1920310429288414e-01 -8.1726841495132296e-01 3.6844154059307719e+01 -3.8027799484064539e+00 -2.3853617627592492e+00 9.9317580361370417e-01 -1.6598747141881532e+01 1.8896177123402862e+00 -1.3209334926389140e+01 8.8627704739165081e-01 -1.9653563161633525e+00 -4.3926634725523940e+01 1.3014118865146302e+00 1.6201395008520316e+00 -2.5455104615671558e+00 -9.5335931753530225e+00 -3.7230217754805093e+00 -6.6314628265010445e+00 -5.2960852689931393e-02 7.0427143903809708e-01 9.2366653693465395e-01 1.7222056878055174e+00 5.9814600093170700e-01 4.0508830163672478e+00 -2.2474003431208647e+01 6.0230837105398782e+00 -2.4324053130576516e+01 -5.2515176676128761e-01 -4.2003656811843704e-01 9.6485042437605735e+00 -3.0775323440787172e-01 -1.3665446020296610e+00 1.7595523331787635e+00 -7.1332539606611576e+00 -5.5368435335048218e+00 1.9938398224576739e+00 3.5613222737471903e-02 -3.8789233762107150e-01 -2.1248454554939109e-01 -2.1054793245286900e+00 -6.2544758566574377e-01 -1.1740534837833048e+00 2.1991778966977127e+00 6.2141584799169136e-01 -5.1835142335791673e-01 -2.7506643577869239e-01 -1.0000694195233314e-01 
      </Row>
      <Row Index="1">
        3.6244982633553605e+01 3.0150231234566290e+04 3.5935084530581315e+02 7.9033549139350086e+01 -1.2792338279828377e+02 1.0647026645315500e+04 2.3587485330927161e+03 -3.3821721174538834e+02 1.6294187877001943e+02 6.3942266959370578e+01 -3.6909778628103406e+04 -2.0899753444817753e+02 -7.0402098830029914e+01 -3.3148308106182435e+02 -1.3996458534836127e+04 1.1829919019090867e+03 3.6486773672312455e+02 -3.6517245663856136e+02 -2.0069956998626225e+01 1.8009262862710373e+04 1.7164449234359296e+00 -9.0371334752970455e+01 8.0835035930903007e+02 6.1656538789019123e+03 -2.5518535355047939e+03 4.3312049274395235e+02 -9.3537826613990489e+01 1.4830088660290650e+02 -2.9825950827852837e+04 4.8883459349947424e+02 -1.5946382584194495e+02 2.2180602106069796e+02 -7.4022841254310460e+03 -1.0082628009911806e+03 1.7968805372941500e+02 1.0156341246563181e+02 1.1989431138887326e+01 8.0167883470251509e+03 -1.1325888816604288e+02 1.0574073998215827e+01 -7.7180443049674636e+01 6.2199562424731585e+03 6.3454523598621417e+03 2.0829581348455562e+02 -3.3611440668046548e+01 -7.6533639617907937e+01 -1.0475810547164467e+03 -6.3575710835068958e+02 -1.0042715591135413e+02 -1.1331038710013848e+02 -3.0615939837712568e+02 -1.4776919159336792e+03 -6.1258090065703328e+01 1.4513903665893804e+02 6.2248441549761014e+02 
      </Row>
      <Row Index="2">
        9.4808572639888666e-01 3.5935084525680577e+02 1.4970050213805513e+02 6.2329061859233219e+00 2.0862188495833983e+01 6.6134325618186961e+02 1.6991449291622607e+02 -5.6475481143029505e+01 1.5457013652902337e+01 8.3662356308954315e+00 -5.7283179393265993e+02 -8.4424260253562039e+01 8.2244500512801260e+00 4.8416311173697054e+01 -4.3607688400308479e+02 6.5360219656174058e+02 -1.4182539145833411e+01 -5.3617088250014675e+01 -5.6444564155795574e-01 4.9193779828662713e+02 -6.2264919687208398e+01 -7.7729277685428908e+00 -3.9368997527002655e+01 -3.3402601446023698e+02 -1.1398990372662270e+03 2.5283259866958453e+01 1.3109103176105704e+01 5.5243834495332758e+00 -8.7589292528495344e+02 4.7561425659097772e+01 -4.1600285070512202e+00 -5.3637815123535582e+00 3.8660750152794591e+01 1.3511448574049439e+02 -9.8538489750346461e+00 -7.6618134565542562e-03 1.0937466450962272e+00 2.2772318321838523e+02 -4.5315647831367741e+01 1.0083972834228727e-01 -9.5376816628250793e+00 6.4769076819971815e+01 1.4865747127593622e+03 -3.3735417878101757e+01 1.0654130219295790e+00 -2.9353792053218641e+00 -2.3473180910076035e+01 -1.1943045544257548e+02 5.6100363597325611e+00 1.0840865768909985e+01 5.9023087672623582e+00 -3.1918831224592986e+02 -1.5390074249896704e+01 1.1549379882871900e+01 2.0446187878299293e+02 
      </Row>
      <Row Index="3">
        1.7071955530355751e+00 7.9033549145110783e+01 6.2329061862229196e+00 1.4645100148860060e+01 -1.7584876928043336e+01 6.9883123024094829e+01 3.8605675187699497e+01 -1.4327196400025507e+01 4.5366806255874197e+00 -1.4111832399019040e+00 -7.0462695119830514e+01 -3.7926055817382944e+00 -1.8311655543890637e+01 -3.7965048085496234e+00 -1.3301600872049386e+02 -1.5157698567511790e+02 -1.5752834896060302e+00 -9.9355215249834909e+00 1.0663184993183554e+00 1.6391009463275893e+02 -5.8269575476075719e+00 -5.3418323274016073e+00 1.2368399983723403e+01 -3.1446989283124580e+01 1.4042022594410290e+02 -6.3889650103704971e+00 -2.6413267920778172e-01 -9.7238037057963167e-01 -1.5068694933283203e+02 6.2159239459327233e+00 -1.0187965518932820e+01 1.6540615566822645e+01 -3.0303861434705643e+00 -2.4063608122414820e+01 -5.6347326135081381e+00 1.7213139462713642e+00 -1.2180212095550003e+00 2.8370034175466639e+01 -3.6315547794775367e+00 2.8693375911034762e+00 -1.4909427296999489e+00 4.3778484168617886e+01 -1.6884362923439693e+02 2.2460803220262164e+00 5.7467200490664450e-02 -2.1389204665842465e-01 -5.4625033531446281e+00 -8.3120014287560409e+00 -1.3488103583242083e+01 -5.9924830571691228e+00 1.4641091087328908e+01 3.8751623338207708e+01 -2.7420839234961925e+00 3.2166386394425728e+00 -3.2748845648181501e+01 
      </Row>
      <Row Index="4">
        -7.5713732379699650e-01 -1.2792338283478966e+02 2.0862188498424302e+01 -1.7584876928609631e+01 2.7628528685596905e+02 3.4122785426351948e+02 1.2842215917687206e+01 4.9049469206152033e+01 -4.4605776651637470e+00 -1.8467421644526762e+00 -2.9154345787330391e+02 3.7335599068023679e+00 3.1469012320181371e+01 1.2772999506209726e+02 5.7424652776497578e+02 1.2778648516712860e+03 1.4317376703402882e+00 2.3168032868772603e-01 -2.4217666914828788e+00 4.7100822477422639e+02 1.1594344673450363e+01 1.0073365002219703e+01 -3.9884635804566778e+02 -9.0455980724663380e+02 -1.7587818121217383e+03 -1.0634334954984222e+01 1.1047465214662560e+01 4.1061010410182419e-01 2.3516000966191200e+02 -2.3520819408341794e+01 4.4238090465618782e+00 -2.5674166849578404e+02 -4.7785089114219056e+02 2.1468012780805552e+01 -4.7019778641828495e+01 -1.7784972864113389e+00 2.0190244210574178e+00 8.4748130220052857e+00 -4.4302104874128965e+00 -1.7339421787366653e+00 1.8844326913725336e+01 3.6046146842249755e+01 2.2594213698855810e+03 -2.5452800867942045e+01 -2.8432358923302123e+00 1.9291289321245229e+00 -1.1967643029521824e-01 2.6829597886361278e+00 2.9586516324185503e+01 9.0180495594937952e+01 -2.1046357132154046e+01 -3.5344100685818614e+02 4.3569012709863895e+00 -3.9820345620067084e+00 2.3627050520323229e+02 
      </Row>
      <Row Index="5">
        1.1148221725537951e+01 1.0647026644842175e+04 6.6134325620876189e+02 6.9883123017540115e+01 3.4122785426300084e+02 9.5401029428692254e+03 2.2847269467632868e+03 -9.2952811969776280e+02 1.9255588073420742e+02 5.9828380007150571e+01 -1.2045598828834880e+04 -4.0629754448719740e+02 -4.6014482383352011e+01 7.9957516329297005e+02 -5.8535884401531348e+03 8.9373601614998242e+03 1.8563868026805417e+02 -5.4976588232509346e+02 -2.0147042930551915e+01 4.7561969747892708e+03 -1.6281783195611484e+02 -9.4624290527711310e+01 -1.3602602160468673e+03 -3.2317778363732132e+03 -1.4292209984190418e+04 7.3960883221865322e+02 -1.2427364237004229e+01 9.0423688236687610e+01 -1.3956134834215294e+04 4.0930491015680178e+02 -1.1168315918185019e+02 -2.9485221089140481e+02 -4.1740302124671198e+03 1.0650608055426710e+02 2.6639847747392956e+01 9.8759950488671763e+01 4.6763835817745072e+00 3.5304613307817863e+03 -2.0177122980550257e+02 1.2539605250745041e+01 -5.2902343442952613e+01 3.3359955895132930e+03 2.0001067971222183e+04 -6.1503883464768165e+00 -2.0534167469329866e+01 -4.5659004322939055e+01 -4.1437827034133818e+02 -7.5842637372809827e+02 -8.7712545060343118e+01 2.2187617640525795e+02 -2.2959242486767431e+02 -3.7808595427171022e+03 -1.8383824769251220e+02 1.7011540489036776e+02 2.3549293048504574e+03 
      </Row>
      <Row Index="6">
        -3.6076119085462892e+00 2.3587485331805256e+03 1.6991449293459300e+02 3.8605675186028861e+01 1.2842215937582438e+01 2.2847269469975154e+03 2.4378200850204967e+03 -5.7803453475782123e+02 9.2211248729596761e+01 1.7987848209588421e+01 -2.0517526648894263e+03 8.7699139102027075e+01 -1.1556798003569676e+02 2.6882023710197620e+02 -3.0563251694180581e+03 -3.3091517252889062e+03 2.3140782587393721e+02 -2.4583577242331825e+02 1.8438039934857522e+00 2.8270827834921420e+01 -3.3483140185390823e+02 3.2963856553788901e+01 -3.9099886903034451e+02 7.4624910500583940e+02 1.7329821416458406e+03 9.4813810753717377e+01 -3.5650956196570789e+01 2.9530927246846783e+01 -3.2849452369757100e+03 2.0818975585663901e+02 -8.1594704913102930e+01 4.6751170207860895e+01 -2.1658483896060187e+02 -9.5068980155459758e+02 1.3805296883195825e+02 1.4383476834479360e+01 -1.9845766808290233e-01 4.9195077297507248e+02 4.1290145245053417e+01 2.2038287496470009e+01 -7.3938840195270927e+01 1.9105534388047909e+03 -1.6271792525112860e+03 4.7045869672126628e+01 -1.3045966224298200e+01 -1.6732020895466878e+01 -9.4040902740954692e+01 -2.6250498969332949e+02 -8.7687214589485691e+01 2.0052444360353789e+01 5.8953862816471172e+01 3.1108762542030524e+02 -1.2858399540163617e+02 8.2111513383794403e+01 -4.4932541829623591e+02 
      </Row>
      <Row Index="7">
        4.1464215257380772e+00 -3.3821721178929329e+02 -5.6475481148801236e+01 -1.4327196399543482e+01 4.9049469198793069e+01 -9.2952811978132127e+02 -5.7803453476417178e+02 6.7690734392115610e+02 -2.8260603626789074e+01 -1.7788165030437376e+01 8.2276307060796353e+02 -7.5929732348040426e+00 1.9259446504288675e+00 1.1993805663785810e+01 7.4746397208647591e+02 1.1847659982305397e+03 -6.0198951719104102e+01 9.9546015315861609e+01 -4.6710435111341209e+00 -5.8970128392811478e+02 9.2714409965650390e+01 2.5212680848500440e+01 -5.7483356399334127e+01 3.3003120823312776e+02 -9.9171605542728935e+02 -3.0004289925321461e+02 7.3506740380464155e+00 -2.7969712340825392e+01 9.7045649804546179e+02 -7.1130605972119866e+01 1.6943612926773426e+01 -1.0037125355117577e+02 -3.3323020882343081e+02 1.0522703375016135e+02 -5.8662580271050203e+01 -3.0196859701953129e+00 3.4246419621080226e-01 -1.6836431413736901e+02 -4.8925117755677014e+01 -5.7555094487453129e+00 2.0781549523657528e+01 -4.5604822354524572e+02 1.0264832747721009e+03 3.7561459293634229e+01 1.7798546592360616e+00 1.3046238090788421e+01 2.9344142058289748e+01 7.2954629689545854e+01 2.4618290950335926e+01 2.2650646266430780e+01 -1.2814579036424755e+02 -2.4586457800512747e+02 1.3458715378968000e+02 -3.2405419657765933e+01 2.6018789003641513e+02 
      </Row>
      <Row Index="8">
        -2.1920310429070256e-01 1.6294187877458194e+02 1.5457013653954093e+01 4.5366806254964054e+00 -4.4605776641383779e+00 1.9255588074699901e+02 9.2211248729412986e+01 -2.8260603626426473e+01 1.8854613079594117e+01 1.0354866885365981e+00 -1.6467170543320151e+02 -1.7962318553492076e+00 -5.6369562274815435e+00 7.7499514009622850e+00 -2.8222332306092824e+02 -1.3916897763081710e+02 1.7028188447095069e+01 -3.6373243822224850e+01 1.8387773032812711e+00 1.3032579494583956e+02 -9.1163342391203130e+00 -3.8835669084356539e+00 -1.1970195537548132e+00 3.7458991460188322e+00 6.0357101869563877e+01 2.3416583559353294e+00 -9.8689159418734214e+00 2.3941507480307580e+00 -3.0423175765358479e+02 1.0422851724743264e+01 -6.4184565391207968e+00 9.2789064853721044e+00 -6.2780136288535413e+00 -2.7788516917122820e+01 7.4088488418135920e+00 8.3520019561720638e+00 -7.7706151522557776e-02 5.9411003397849178e+01 -8.0802691540806322e+00 9.3081826737139917e-01 -2.2177014007740876e+00 1.0489393778422925e+02 -4.6238126430144455e+01 -1.1458240626365077e+00 -1.0739554587124513e+00 -1.6176291600490642e+00 -8.9875069091208282e+00 -1.9338043681310722e+01 -7.0591721913897985e+00 -1.2951560307671444e+00 -1.8006604887332678e-01 8.1756595789363047e+00 -5.0134020629281872e+00 1.1694406999863507e+01 -1.6027202623510401e+01 
      </Row>
      <Row Index="9">
        -8.1726841494800406e-01 6.3942266958851519e+01 8.3662356311266102e+00 -1.4111832399149371e+00 -1.8467421643713742e+00 5.9828380008887557e+01 1.7987848209279349e+01 -1.7788165030280958e+01 1.0354866885170799e+00 1.6305667111809687e+01 2.2134838680740845e+01 -8.9958014905083363e+00 5.4627126777946557e+00 1.2321762531599425e+01 -4.4829059596645735e+01 4.1757625127755531e+01 -2.1398253786027983e+01 -4.4193251062410379e+00 -6.5503575580685123e+00 -1.1421459157812231e+02 -2.7154803539953170e+00 -3.7730499858392621e+00 -1.8543736302988613e+01 -2.8951097628632461e+01 -6.2454078900865646e+00 4.4690941971395311e+01 1.2881417888360591e+00 9.5264522452727025e+00 1.8898878527000079e+01 2.3737602578483181e+00 4.7530365110663713e+00 -1.9912513009303147e+01 -4.3311617744579479e+01 3.3939934756227579e+01 1.0534450062679332e+01 1.3914888228758029e+00 1.3712554053072012e+00 -3.4488953035563981e+00 -6.2163128345495666e+00 -2.0738357585199418e-01 -3.0705688654890650e-02 3.2181310398115798e+01 4.6076380657500295e+01 1.9997944847541098e+00 1.6419517597128869e-01 -4.5656365874728708e+00 7.0469164554170072e-01 -8.2520094765964380e+00 3.0175125216967063e+00 6.2886757122129593e+00 1.3399739947459044e-01 -9.7066878914069736e+00 -3.2814929028828335e+00 1.1940062703516636e+00 2.0117695091234662e+00 
      </Row>
      <Row Index="10">
        3.6844154058711865e+01 -3.6909778628040091e+04 -5.7283179398185894e+02 -7.0462695112774327e+01 -2.9154345790592868e+02 -1.2045598829280732e+04 -2.0517526647580494e+03 8.2276307054926292e+02 -1.6467170542607650e+02 2.2134838680400257e+01 8.4170760261761388e+04 2.3059168541754980e+02 4.7264317885284257e+01 3.5406177590315101e+03 1.3122772938753864e+04 -3.6058792682875164e+03 -1.8609488994658266e+03 4.8620005218569270e+02 -1.6243893099980849e+02 -6.9319049845491158e+04 2.5134026907658736e+02 1.9703328900128054e+02 -4.8401307683662335e+03 -4.4675286773232147e+03 6.7314126523330760e+03 1.0910175403458395e+03 5.5683502781984316e+01 -1.1527889063095211e+02 4.4916306332177250e+04 -5.1751319384740611e+02 1.1214022464906648e+02 -4.0093664793486801e+02 7.2092633602428341e+03 1.0380709510027009e+02 -1.2758625054450770e+03 -1.4818894350114036e+02 -3.0274528052465172e+01 -1.4118875261673580e+04 1.2665801014186732e+02 -3.3054324307802759e+01 -3.0306436834164242e+02 -5.7309321554648286e+03 -1.1802649753642985e+04 1.1488952538753919e+02 4.1145856107127301e+01 6.3005177094522971e+01 1.8289001857617004e+03 7.4722871243200950e+02 1.5466038715564196e+02 7.5488995735261346e+02 2.2307802637352262e+02 2.5631383632061152e+03 1.6911259078014140e+01 -1.8275861018484113e+02 -1.4332163282495183e+03 
      </Row>
      <Row Index="11">
        -3.8027799484444387e+00 -2.0899753442491419e+02 -8.4424260253127841e+01 -3.7926055816687381e+00 3.7335599085206397e+00 -4.0629754447005098e+02 8.7699139109881713e+01 -7.5929732371414502e+00 -1.7962318548874432e+00 -8.9958014903862704e+00 2.3059168539405329e+02 1.5039383780365699e+02 2.8322359435793292e+00 2.9280043331105929e+01 9.1354129525070221e+01 -5.5526255550019846e+02 8.2784026766574229e+01 1.2245716962974381e+01 4.7950213878545096e+00 -6.2372188231244991e+01 -4.0459210433586094e+01 2.0872447074105480e+00 2.8033586544410358e+00 2.5655690900484552e+02 5.9869459700775838e+02 -7.4084293222866847e+01 -1.0827467163168535e+01 -1.8689278268847769e+00 5.6254190282640138e+02 -2.0884903639852777e+01 -8.0760129736219533e+00 1.0893948332810986e+01 -4.6678079873244798e+01 -4.5422869924692350e+01 3.0293951592008582e+01 3.2767642119613365e+00 -2.2212590532898915e+00 -1.8646291844631924e+02 3.6538222975123617e+01 -1.3869128820972711e+00 2.6501753704553064e+00 2.1816995077776198e+01 -7.7002994522124413e+02 -2.5164767357749613e+00 -3.7133896571539791e+00 1.1389719320231382e+00 1.0613926471154338e+01 7.4858964830099481e+01 1.8690305713790814e+00 -6.7424430778873301e-01 -7.5963666313172844e+00 1.5148902597461949e+02 -2.7652145699225639e-01 -5.0488004241027440e-01 -9.5266803567286814e+01 
      </Row>
      <Row Index="12">
        -2.3853617627370056e+00 -7.0402098841784209e+01 8.2244500509461886e+00 -1.8311655543898780e+01 3.1469012319018322e+01 -4.6014482395166283e+01 -1.1556798003921321e+02 1.9259446514749925e+00 -5.6369562276724441e+00 5.4627126777760964e+00 4.7264317899400339e+01 2.8322359435523374e+00 6.5624201942588300e+01 5.1383130514448183e+01 8.1200932686292617e+01 3.8524768546076803e+02 -7.2065281631166798e+00 4.2437891451815348e+00 -4.5210134368199464e+00 -2.1423989544839176e+02 4.1854088473850997e+00 -2.4628469899635661e+01 -5.2677620998769488e+00 5.9110541107153196e+00 -2.5896187091244428e+02 2.4632114324019206e+01 7.8587160712167474e+00 4.3463262602466219e+00 1.6944471202685708e+02 -6.4181684179040364e+00 1.6701619110890842e+01 -4.3505349330756346e+01 -1.8162692091820475e+01 1.2823361644200736e+02 2.4176676797471512e+00 -1.0788008842693069e+00 3.5487156882773557e-01 -9.9839727309196178e+00 -2.4436919078370316e+00 -8.5993727878653488e+00 -7.7594891588769652e+00 -6.6916656330742583e+01 3.6330489848128093e+02 -1.3154053119816954e+01 6.4937808341965431e-01 -1.2716773575821994e+00 6.3335987423107749e+00 4.4948652481761755e+00 3.6440791403755689e+01 2.4432588009018794e+01 -1.5237281427905467e+01 -8.9545401607943830e+01 -2.0762548277531412e-01 -3.7629298588910580e+00 7.2328916508772252e+01 
      </Row>
      <Row Index="13">
        9.9317580383240056e-01 -3.3148308117025954e+02 4.8416311176483305e+01 -3.7965048094497433e+00 1.2772999505825123e+02 7.9957516325142672e+02 2.6882023705684071e+02 1.1993805679039724e+01 7.7499513985610147e+00 1.2321762531227705e+01 3.5406177591388114e+03 2.9280043328515230e+01 5.1383130516062849e+01 1.0262459344035237e+03 2.3080103543117730e+02 2.1280508241213479e+03 1.5929183320770949e+02 -4.1880316299044352e+01 -3.5214421073278488e+00 -4.3633268883437904e+03 -5.2723765098114423e+00 7.0705254765659902e+00 -1.1719516444484134e+03 -1.2516724065206622e+03 -3.2302071785435319e+03 4.3246306220310515e+01 3.5195475325965162e+01 1.7502655822647352e+01 -1.6718004914386580e+02 4.5717583868134319e+01 -1.0956156478431026e+01 -2.4785825314863209e+02 -6.8596205001669000e+02 -1.0803251268142049e+01 4.7988504250440116e+01 2.8904969521752628e+00 -6.4874333699722064e-03 -4.2473077713916950e+02 -7.5550213404035787e+01 -2.4184624578633908e+01 -3.9937051997226106e+01 2.6954261160820613e+02 4.2226266239028728e+03 -1.2775935703860943e+00 -4.7562950603101539e+00 -1.3938788625848385e+01 5.4487376556366712e+01 -6.7596125164295501e+01 6.8192266602638028e+01 2.2077681324102008e+02 -3.7544713985832772e+01 -7.8812516474538290e+02 1.8148303219475483e+01 4.4006919408166212e-01 5.4380445499836515e+02 
      </Row>
      <Row Index="14">
        -1.6598747141296826e+01 -1.3996458535411890e+04 -4.3607688404354121e+02 -1.3301600872016206e+02 5.7424652770844693e+02 -5.8535884408696465e+03 -3.0563251695794838e+03 7.4746397212642478e+02 -2.8222332307001574e+02 -4.4829059599062020e+01 1.3122772939423390e+04 9.1354129538997199e+01 8.1200932684567121e+01 2.3080103532416979e+02 1.4924439278870690e+04 1.2889388563213783e+04 -4.4276613296309449e+02 5.3328841256029773e+02 -4.7418502757012035e+00 -4.4188055102014323e+03 2.9038343143731794e+02 1.9118888328560024e+02 -1.3712873641975518e+03 -8.9692727775702097e+03 -1.5442989297858025e+04 -1.7554410928361335e+02 1.7592543678697075e+02 -1.1142412054359421e+02 1.6195143434218957e+04 -5.1651436983271128e+02 1.9396031897438746e+02 -7.6140169209005819e+02 1.2211862194439939e+03 2.0025519798538735e+03 -2.8254089986686370e+02 -1.1509776863871257e+02 4.2819258550448165e+00 -4.0686111324242661e+03 1.0356784923767114e+02 -1.5757346434563278e+01 2.3606042664632218e+02 -4.6987376718305068e+03 1.7624631013101924e+04 -1.3295804366768272e+02 1.0936235784662639e+01 6.4543846754931351e+01 5.4698006376114949e+02 6.5644452424881979e+02 1.6004148764603121e+02 2.2916418937115193e+02 -1.0872312335898802e+02 -3.0084425985953521e+03 1.5291840820517174e+02 -2.0632039072844884e+02 2.5680509519904731e+03 
      </Row>
      <Row Index="15">
        1.8896177177648497e+00 1.1829918982429663e+03 6.5360219641895674e+02 -1.5157698568292108e+02 1.2778648513891690e+03 8.9373601581059811e+03 -3.3091517264318163e+03 1.1847659985400969e+03 -1.3916897769609758e+02 4.1757625112339156e+01 -3.6058792641418986e+03 -5.5526255546359289e+02 3.8524768546598153e+02 2.1280508236682508e+03 1.2889388564483728e+04 5.6010853410833697e+04 -2.6336063749079881e+02 4.5961839729832718e+01 -6.9292707034748403e+01 5.6967811554637183e+02 3.2364625600933772e+02 -5.5810074157925555e+01 -4.2128231188123591e+03 -1.9437096382975004e+04 -7.2320957735999415e+04 1.1523199368385600e+02 2.2975696034858993e+02 1.5044631467491854e+01 -2.4652462482083206e+03 -3.1472538395179515e+02 2.1152722073911511e+02 -1.2348887705781833e+03 -9.9199347419736823e+03 6.0235726961018518e+03 -9.3645985144325607e+02 9.1070713056942367e+01 1.1373801985946946e+01 1.2440702110801039e+03 -5.1534555487181376e+02 -5.3000095231981682e+01 1.7506397425943408e+02 -2.5518698391231264e+03 9.1155450448528238e+04 -3.1659233979000982e+02 -2.4872414722537833e+01 2.1277116545106431e+01 3.9055187328613130e+01 -2.6307793195434130e+02 3.1203559158371627e+02 7.3835841682248576e+02 -1.8117696216631682e+03 -2.0627765867316368e+04 2.2826987936235076e+02 -6.8880395635554294e+01 1.6068714773718864e+04 
      </Row>
      <Row Index="16">
        -1.3209334926403891e+01 3.6486773674333585e+02 -1.4182539143011212e+01 -1.5752834897413734e+00 1.4317376726903888e+00 1.8563868030283282e+02 2.3140782587672550e+02 -6.0198951719166018e+01 1.7028188447291772e+01 -2.1398253785914136e+01 -1.8609488994940134e+03 8.2784026765346425e+01 -7.2065281627692332e+00 1.5929183321321048e+02 -4.4276613295107774e+02 -2.6336063735246410e+02 6.1939083489598227e+02 -1.7235559806056898e+01 4.7917834761999245e+01 2.0930519172235022e+03 -3.7285509907380373e+01 8.8710438874607931e+00 -1.3353431814317139e+01 1.2716324155586130e+02 -7.3338247116969868e+01 -4.2977981930339911e+02 7.4656119830935523e+00 1.3080826694664324e+01 -2.1850772572526016e+03 4.6867983801378593e+01 -1.8760314376242441e+01 1.0907206952139559e+02 -4.2128177576470023e+00 -2.2451174139179869e+02 1.8354666164814381e+02 8.3901828822036570e+00 3.4242501077602778e+00 4.1870027594072013e+02 -7.0157949885029211e+01 -7.2624743125439135e+00 -5.6703439626524688e+00 1.8995257029421029e+02 8.6223891929191993e+01 -1.2240326174709175e+01 -1.8461263600265891e+00 -1.0946723400207929e+01 -5.7484752763546680e+01 -3.8070601083690818e+01 6.8224764357369807e+00 -8.6310056406576834e+00 1.1185158363077093e+01 6.1549940916878683e+00 2.5156945887528735e+01 3.1562999160997336e+00 -1.7971159090994863e+01 
      </Row>
      <Row Index="17">
        8.8627704735688440e-01 -3.6517245663156359e+02 -5.3617088252295218e+01 -9.9355215246563517e+00 2.3168032717350684e-01 -5.4976588234378596e+02 -2.4583577241624030e+02 9.9546015312901432e+01 -3.6373243821852192e+01 -4.4193251062119145e+00 4.8620005218363167e+02 1.2245716964132392e+01 4.2437891445627605e+00 -4.1880316303706707e+01 5.3328841252596067e+02 4.5961839537358770e+01 -1.7235559804751460e+01 9.4235375389917920e+01 -3.2345279092822694e+00 -3.9445286639165590e+02 3.3162256065513247e+01 1.3044821080864097e+01 2.8406607937446587e+01 1.9391113109744083e+02 3.0291486710558735e+02 -4.5830065016698626e+01 7.2815514823636249e+00 -6.4678565269360888e+00 6.9542856001493851e+02 -2.9224591079639257e+01 1.2962923346536648e+01 -2.2120577374503725e+00 2.7179414179065496e+01 -3.3928140094507171e+00 -1.6134723517278893e+01 -1.6784428193875215e+01 -2.5852733742508655e-02 -1.4348182915011958e+02 1.2776901121158424e+01 -1.1374409551385094e+00 4.4153975985866722e+00 -2.2821415622109112e+02 -4.3785987010299266e+02 7.6385612965196659e+00 2.7928943979627765e+00 3.9310125396954358e+00 2.0647610093685607e+01 5.6655117897149701e+01 1.0488832437391952e+01 -5.5293244741296448e+00 -3.5788218237543337e+00 8.8226386270846774e+01 2.0071314700600158e+01 -2.7057445100065639e+01 -3.6367215663111821e+01 
      </Row>
      <Row Index="18">
        -1.9653563161698155e+00 -2.0069956994692006e+01 -5.6444564130620734e-01 1.0663184993098014e+00 -2.4217666911343620e+00 -2.0147042926003039e+01 1.8438039943875211e+00 -4.6710435113236599e+00 1.8387773033353643e+00 -6.5503575580522266e+00 -1.6243893100465493e+02 4.7950213877730068e+00 -4.5210134367926393e+00 -3.5214421066770853e+00 -4.7418502756684120e+00 -6.9292707024846706e+01 4.7917834762078030e+01 -3.2345279094894721e+00 1.6274899608034563e+01 2.8098132460200230e+02 1.3863664217307985e+00 4.7539833552808872e+00 1.4789998454151688e+01 5.0337465388469926e+00 4.1730287616337449e+00 -3.9291245594525904e+01 7.4703084299818556e-01 4.3241042134338272e+00 -1.6054994339987252e+02 2.1811523781090387e+00 -2.0625555815260199e+00 1.3430161151496986e+01 3.5462184066776466e+01 -5.6393719212707424e+01 2.5959945865581275e+01 5.5840947900576365e-01 1.3762503939674617e+00 2.5023774263168452e+01 -2.7453688603111397e+00 4.7556699794303242e-01 1.6416726717077745e-01 1.6971663994139341e+00 -3.3789703951408285e+01 -3.4623031125036192e+00 -2.9969263208001362e-01 -2.5510178360139424e+00 -5.0407811539026222e+00 -4.0744985481515816e-01 -2.8156886884878585e-01 -3.9033198435373651e+00 2.3791713507455121e+00 1.3460617036739803e+01 1.7819656401144695e+00 5.6525209555668332e-01 -1.1723178553761635e+01 
      </Row>
      <Row Index="19">
        -4.3926634725512201e+01 1.8009262862806187e+04 4.9193779830350604e+02 1.6391009463070611e+02 4.7100822478709063e+02 4.7561969750026201e+03 2.8270827821193393e+01 -5.8970128391811522e+02 1.3032579494494973e+02 -1.1421459157750178e+02 -6.9319049845626549e+04 -6.2372188238045169e+01 -2.1423989544421309e+02 -4.3633268883079536e+03 -4.4188055100479178e+03 5.6967811682029355e+02 2.0930519172154327e+03 -3.9445286639609822e+02 2.8098132460061811e+02 7.8555190702033884e+04 -1.6372592746266946e+02 -7.1187192218665132e+00 5.7908712864630324e+03 -1.5875817380663350e+03 -3.1839320902232507e+03 -1.6989470492506900e+03 5.3344407158379909e+01 5.4491142449000108e+01 -2.7354211872646276e+04 3.2166276246542367e+02 -1.2387546438731695e+02 3.5369744682073633e+02 -1.4401824058648642e+03 5.4447481383608829e+02 1.2335418922764575e+03 1.0420208090111859e+02 9.2025598513805242e+00 1.0538736191979540e+04 -2.5137734291139515e+02 2.1589311277491142e+01 5.2305384391550047e+02 9.0545632238582368e+02 4.2224842424404778e+03 -3.3570446057826820e+02 -1.8653210718153979e+01 -4.7617493772244920e+01 -1.4037814470381986e+03 -4.6671931245809901e+02 -1.1016988975002056e+02 -9.0063344936153601e+02 2.8789597179854240e+02 -8.2949470962017222e+02 6.2484165907120413e+01 1.1341823601427481e+02 4.9373875755483493e+02 
      </Row>
      <Row Index="20">
        1.3014118864942184e+00 1.7164449318585184e+00 -6.2264919687651336e+01 -5.8269575474550352e+00 1.1594344673143787e+01 -1.6281783195813699e+02 -3.3483140184942863e+02 9.2714409964017847e+01 -9.1163342388654467e+00 -2.7154803539193795e+00 2.5134026907087105e+02 -4.0459210433345483e+01 4.1854088471754771e+00 -5.2723765107121388e+00 2.9038343142030590e+02 3.2364625593726555e+02 -3.7285509906567754e+01 3.3162256065208034e+01 1.3863664218131397e+00 -1.6372592746007527e+02 1.4906331834513651e+02 1.1400434521492343e+01 -2.5628028866077177e+01 1.1595884502187914e-01 -4.7719774673309551e+01 4.4092500296510160e+01 7.9829932528216423e+00 -4.7840671832989656e-01 1.4324863978309219e+02 -3.3880007047427839e+01 9.7196250487828983e+00 -3.1846113927891512e+01 -2.0364927789206030e+02 -1.0604335133777511e+02 -9.2507635416087428e+00 -9.7766727138039755e-01 -4.1085643104966729e-01 3.4554606366412095e+00 -3.2761623835399405e+00 -3.5781347701819648e+00 1.2312714203455211e+00 -4.9403406835776309e+01 -4.0481200410305433e+00 1.3167792799388828e+01 -2.1996293211854727e+00 -3.7958243657877411e-01 4.2810083285920975e+00 5.3449357313037709e+01 1.1676611690614184e+01 1.1882922251712703e+01 -3.8609132170097290e+01 2.6487305843998932e+01 2.4217161800459074e+01 -1.2404695265762808e+01 -1.0213436440454293e+00 
      </Row>
      <Row Index="21">
        1.6201395008494464e+00 -9.0371334752932498e+01 -7.7729277686966256e+00 -5.3418323273791106e+00 1.0073365002084502e+01 -9.4624290529258602e+01 3.2963856554065053e+01 2.5212680848388885e+01 -3.8835669084188464e+00 -3.7730499858375559e+00 1.9703328900126590e+02 2.0872447074823839e+00 -2.4628469899680255e+01 7.0705254761769503e+00 1.9118888328367504e+02 -5.5810074168973507e+01 8.8710438875436779e+00 1.3044821080886894e+01 4.7539833552952153e+00 -7.1187192212608750e+00 1.1400434521525941e+01 4.4124100063633762e+01 -5.7338719966797086e+01 2.3499135253222789e+00 -1.1032225611585201e+02 -2.2240741523870742e+01 -1.2847989788399605e+00 -1.1274708524921877e+00 9.3746533027346402e+01 -2.0839315996932073e+00 4.5266034320069695e+00 -1.4870704705342845e+00 1.1947297558093332e+01 -1.0044764493139903e+02 -4.2526984817953881e+00 -4.9483632467898850e+00 1.6586566060157226e-01 -5.1736949381385315e+01 -5.0034820852159934e-01 -1.3068190783243727e-01 5.0580637897468375e+00 -3.0094334042591441e+01 4.7367525875800212e+01 9.7540636007844772e-01 -7.5042986409895585e-01 -1.4283728207518553e-02 2.6502342221901798e+00 6.3869601346463138e+00 3.2765240854006414e+00 -1.0339233170181072e+00 -1.2777946709739972e+01 -1.1836493722050823e+00 5.5276403911723673e+00 -4.4253786074525658e+00 2.5091591213661637e+00 
      </Row>
      <Row Index="22">
        -2.5455104619378517e+00 8.0835035949757003e+02 -3.9368997532525100e+01 1.2368399985612086e+01 -3.9884635804095132e+02 -1.3602602159869582e+03 -3.9099886894676160e+02 -5.7483356428059778e+01 -1.1970195493139499e+00 -1.8543736302319303e+01 -4.8401307685506763e+03 2.8033586590902244e+00 -5.2677621034283213e+00 -1.1719516444526253e+03 -1.3712873644064894e+03 -4.2128231197140058e+03 -1.3353431804247521e+01 2.8406607929220627e+01 1.4789998455414196e+01 5.7908712865290654e+03 -2.5628028868057299e+01 -5.7338719967465295e+01 1.9506617565505419e+03 2.8109024984270950e+03 6.2119141360731219e+03 -1.6473258288400223e+02 -3.1677225103681394e+01 -1.3144766965799136e+01 -4.2767605395383725e+02 -1.5568853815915777e+01 5.5557548422024503e+00 5.8757135567208127e+02 1.4067283620641801e+03 8.8711806964714924e+01 -5.2180697164962588e+01 9.1846781510730580e-01 -3.0726669106422131e+00 6.7528608903541488e+02 4.7866426979239250e+01 7.0832362297573983e+00 1.7761550905293017e+01 -3.9574457007783508e+02 -8.1122308634691326e+03 -5.0079649001984339e-01 7.2618780692206037e+00 1.0452026695178146e+01 -8.8255591536514231e+01 4.6334921114388180e+01 -4.3719350981463862e+01 -3.3524333699081325e+02 6.8063517340576453e+01 1.3864539268095580e+03 -2.2499003858699872e+01 2.4624043017845825e+00 -9.3658215138734442e+02 
      </Row>
      <Row Index="23">
        -9.5335931767722286e+00 6.1656538798070687e+03 -3.3402601444888569e+02 -3.1446989277705143e+01 -9.0455980719705667e+02 -3.2317778357531174e+03 7.4624910535090419e+02 3.3003120812521956e+02 3.7458991650469216e+00 -2.8951097624896647e+01 -4.4675286782677285e+03 2.5655690900797191e+02 5.9110541020080234e+00 -1.2516724064620648e+03 -8.9692727781953290e+03 -1.9437096384831126e+04 1.2716324159591750e+02 1.9391113105139084e+02 5.0337465426448063e+00 -1.5875817377730127e+03 1.1595882857363904e-01 2.3499135222846235e+00 2.8109024982957490e+03 1.4624116859185709e+04 2.7009882385913519e+04 -4.6492480569414505e+02 -1.9471071692029727e+02 -1.8189426495402586e+01 -4.2901047924336744e+03 -2.8777604988106305e+01 1.4428500458748488e+00 1.1113497417720262e+03 1.6337956240053086e+03 -2.5174571831034555e+03 1.8923160638853795e+02 -1.2001006694224998e+01 -2.3137099623634763e+00 1.1991057361963497e+03 2.0959748555062117e+02 4.9470597238665093e+00 -2.4265195682450741e+02 1.9533389157924994e+03 -3.3707260027920267e+04 1.6350030124763126e+02 -4.7052072973753116e+00 9.0835731886282733e+00 -1.9376310737320730e+02 2.3262912006614897e+02 -1.0740168660461791e+01 -4.8730694228939967e+02 -8.4549096689559804e+01 5.8697256107641197e+03 4.8574541637574711e+01 -7.0588727118739030e+00 -4.2192162673678804e+03 
      </Row>
      <Row Index="24">
        -3.7230217828837340e+00 -2.5518535305714468e+03 -1.1398990370879183e+03 1.4042022595643357e+02 -1.7587818117547979e+03 -1.4292209979768866e+04 1.7329821432114902e+03 -9.9171605585736688e+02 6.0357101958816202e+01 -6.2454078691953328e+00 6.7314126467932947e+03 5.9869459696486138e+02 -2.5896187092293138e+02 -3.2302071779652033e+03 -1.5442989299755078e+04 -7.2320957737098390e+04 -7.3338246924802661e+01 3.0291486684861593e+02 4.1730287759928615e+00 -3.1839320885024499e+03 -4.7719774767843774e+01 -1.1032225613073388e+02 6.2119141349180718e+03 2.7009882383705481e+04 9.8248637695724901e+04 -5.5853283138594563e+00 -3.0467592741844419e+02 -3.4353681290347595e+01 6.4422054714490660e+03 1.8584095832893524e+02 -1.6181782419128106e+02 1.5338790593352810e+03 1.2956388090556116e+04 -7.0286169096690719e+03 1.0982524633296291e+03 -1.3902816277098464e+02 -1.5549477679041724e+01 -2.0101148019011384e+03 6.8429437062560453e+02 4.5564912854001442e+01 -2.1523301798800324e+02 2.0450017146609789e+03 -1.2356610382248090e+05 4.5399829426346241e+02 5.8316288023538831e+01 -1.4146565210218508e+01 4.0210360658853403e+01 6.8013085395400412e+02 -3.0621062567234128e+02 -9.8905623898930685e+02 2.3494102463832514e+03 2.7905455609585159e+04 -1.8234746397637596e+02 -1.0024579130840095e+01 -2.1528698558349275e+04 
      </Row>
      <Row Index="25">
        -6.6314628264594830e+00 4.3312049273858099e+02 2.5283259869739510e+01 -6.3889650107563085e+00 -1.0634334952523332e+01 7.3960883224404256e+02 9.4813810747195305e+01 -3.0004289925012779e+02 2.3416583555810870e+00 4.4690941971376262e+01 1.0910175403476433e+03 -7.4084293224258317e+01 2.4632114324787064e+01 4.3246306227088922e+01 -1.7554410924441356e+02 1.1523199389844207e+02 -4.2977981930455394e+02 -4.5830065016922930e+01 -3.9291245594750322e+01 -1.6989470492576634e+03 4.4092500296076054e+01 -2.2240741523819466e+01 -1.6473258289577896e+02 -4.6492480575141508e+02 -5.5853286016910886e+00 7.5765770594009962e+02 5.7912462754749754e+00 1.9079641681928251e+01 9.4633073080204667e+02 1.8338887869590714e+01 3.0716984365688624e+00 -1.7740833067150896e+02 -1.2741839682385776e+02 6.4478198298637096e+01 2.9385188146076743e+01 5.6630990038608076e-01 1.3201899733055997e+00 -1.8147748108422797e+02 5.1191189128574493e+01 5.0871458630813757e+00 -3.5768076666219364e+00 2.9468389205551318e+02 2.7106438937544408e+02 2.2532369093596646e+01 -8.0412185961734473e-01 -7.4175732227784934e+00 2.2171842161365472e+01 -2.4871526424692874e+01 -1.2993177700091731e+00 5.6269361460278468e+01 4.0872070563218010e+01 -3.8830578955201986e+01 -7.2056344447936610e+01 1.4030970749260209e+01 -1.6938921174823857e+01 
      </Row>
      <Row Index="26">
        -5.2960852674885928e-02 -9.3537826625004982e+01 1.3109103175511166e+01 -2.6413267918402994e-01 1.1047465213462630e+01 -1.2427364249774918e+01 -3.5650956199438177e+01 7.3506740387424543e+00 -9.8689159420420296e+00 1.2881417887831503e+00 5.5683502794041488e+01 -1.0827467162998317e+01 7.8587160711213393e+00 3.5195475323780272e+01 1.7592543678731886e+02 2.2975696033067706e+02 7.4656119827634484e+00 7.2815514829673020e+00 7.4703084299561340e-01 5.3344407156050238e+01 7.9829932530041106e+00 -1.2847989788085101e+00 -3.1677225099573207e+01 -1.9471071690948759e+02 -3.0467592739144231e+02 5.7912462747317193e+00 2.8914448689587516e+01 1.2119113651741600e+00 7.6657149002511687e+01 4.1564193196393404e+00 4.8123546748843848e-01 -1.8412884452589687e+01 1.3711177569744880e+01 3.4427044956925783e+01 -3.6301273295792100e+00 -9.0182015260685091e+00 4.1190549373190388e-02 -1.9350963014950825e+01 -1.5205713016335011e+01 -1.6152451034380308e+00 -4.3055556543712670e-01 -4.8890876578981221e+01 3.4417875589373352e+02 -3.7767961462436968e+00 2.1296681227493341e-01 -9.8603224775568077e-01 3.0641088273239818e+00 -1.2404685796001530e+01 7.3008683006538462e+00 1.0256679368546671e+01 1.0100953001717359e+01 -6.6933006932237930e+01 3.4235746205132909e+00 -8.6197022179082659e+00 4.9724997224439029e+01 
      </Row>
      <Row Index="27">
        7.0427143904055978e-01 1.4830088660394159e+02 5.5243834501648301e+00 -9.7238037063966143e-01 4.1061010460123226e-01 9.0423688243298500e+01 2.9530927246266277e+01 -2.7969712340417686e+01 2.3941507480017297e+00 9.5264522452832310e+00 -1.1527889063290004e+02 -1.8689278271834597e+00 4.3463262603673751e+00 1.7502655824044798e+01 -1.1142412053722691e+02 1.5044631510380668e+01 1.3080826694475942e+01 -6.4678565270872745e+00 4.3241042133938254e+00 5.4491142448254962e+01 -4.7840671846917715e-01 -1.1274708524974577e+00 -1.3144766968292533e+01 -1.8189426506697767e+01 -3.4353681348531524e+01 1.9079641682056444e+01 1.2119113653023561e+00 1.6771692961625497e+01 -1.3087189541804568e+02 6.9849152179046161e+00 2.0297370568042847e+00 -3.2197363397055270e+00 -7.1757470167880214e+01 -2.4616647022807143e+00 1.1531639867081898e+01 2.3461471709927531e+00 1.9581215682639141e+00 2.9467256547171033e+01 -3.2877325597819027e+00 -8.2236477640971373e-01 4.4183902122932739e-01 5.6388051565877305e+01 7.3721524009794621e+01 3.1616728910828980e+00 -4.5983771195654138e-01 -7.5864605402596119e+00 -4.9132292814933010e+00 -8.9140041900665814e+00 3.3489619595140274e+00 3.6570207473423988e+00 2.7211992151849085e-01 -1.0571033011223456e+01 -5.5310870007644741e+00 1.9896678419572007e+00 -1.1509094768771921e+00 
      </Row>
      <Row Index="28">
        9.2366653624844730e-01 -2.9825950827776644e+04 -8.7589292534288143e+02 -1.5068694932556764e+02 2.3516000962482462e+02 -1.3956134834726030e+04 -3.2849452368407888e+03 9.7045649798411614e+02 -3.0423175764640473e+02 1.8898878526916633e+01 4.4916306332195178e+04 5.6254190285459754e+02 1.6944471201278463e+02 -1.6718004926223148e+02 1.6195143433475074e+04 -2.4652462527881648e+03 -2.1850772572234710e+03 6.9542856001929249e+02 -1.6054994339491577e+02 -2.7354211872529715e+04 1.4324863979267502e+02 9.3746533027175701e+01 -4.2767605374731829e+02 -4.2901047913558414e+03 6.4422054775893976e+03 9.4633073080101985e+02 7.6657148988775589e+01 -1.3087189541569387e+02 4.4713646286284638e+04 -8.0037099208118434e+02 1.9525261818869606e+02 -6.8391278829220448e+02 6.1143437748163815e+03 1.8423893274616967e+03 -1.2531430044934755e+03 -1.4898743955906230e+02 -2.2112935324534575e+01 -1.0642125468374237e+04 4.3433693292545718e+02 -1.2693592129319939e+01 1.8861926392549037e+02 -6.8394593360329000e+03 -1.1339035160409789e+04 4.4458873294932410e+01 3.4044700751645934e+01 9.5478323728843293e+01 1.3150178347632614e+03 1.1858102900842728e+03 1.5424578798435851e+02 1.2606703723842733e+02 1.3738870609426212e+02 2.3489844983513062e+03 7.9350078874614987e+00 -2.3257000620937197e+02 -1.0881142819858412e+03 
      </Row>
      <Row Index="29">
        1.7222056878045109e+00 4.8883459351150714e+02 4.7561425661235262e+01 6.2159239457769075e+00 -2.3520819406226515e+01 4.0930491018420815e+02 2.0818975585748342e+02 -7.1130605971638715e+01 1.0422851724803820e+01 2.3737602578816563e+00 -5.1751319386579053e+02 -2.0884903640777509e+01 -6.4181684176199862e+00 4.5717583872840692e+01 -5.1651436981632332e+02 -3.1472538382731170e+02 4.6867983801110540e+01 -2.9224591080526807e+01 2.1811523780338149e+00 3.2166276246933967e+02 -3.3880007048042785e+01 -2.0839315997227175e+00 -1.5568853824948860e+01 -2.8777605026129219e+01 1.8584095815739516e+02 1.8338887870343740e+01 4.1564193199200474e+00 6.9849152179947396e+00 -8.0037099209923599e+02 6.5346024944710621e+01 -1.0471199082499231e+01 2.3522639124344426e+01 2.5112299670633373e+01 -4.7674419498675434e+01 3.6223165350767523e+01 -7.9497862189461443e-01 -1.0410516094448508e+00 1.7897702357077614e+02 -1.7709906684520995e+01 -2.2808191935969147e+00 -3.1794002757533502e+00 1.5845027620313644e+02 -1.7631305211490312e+02 1.1186292943830994e+01 2.6682179860209336e+00 -5.0942885772327617e+00 -2.3012581648920854e+01 -6.9327422221309916e+01 -7.3549543358277667e+00 5.1247654604974535e-01 4.2814725825327208e+01 3.6678349152557843e+01 -1.1466018523001082e+01 8.3456719310061835e+00 -5.7885618080419903e+01 
      </Row>
      <Row Index="30">
        5.9814600093805836e-01 -1.5946382584863204e+02 -4.1600285077237231e+00 -1.0187965518887538e+01 4.4238090456101347e+00 -1.1168315919266320e+02 -8.1594704914424113e+01 1.6943612927009326e+01 -6.4184565391964306e+00 4.7530365110499417e+00 1.1214022465774724e+02 -8.0760129733914710e+00 1.6701619110785124e+01 -1.0956156480268078e+01 1.9396031897075272e+02 2.1152722070532320e+02 -1.8760314376282054e+01 1.2962923346966079e+01 -2.0625555815092937e+00 -1.2387546438916218e+02 9.7196250490090392e+00 4.5266034320296882e+00 5.5557548457495614e+00 1.4428500584361075e+00 -1.6181782414370966e+02 3.0716984360986714e+00 4.8123546743948964e-01 2.0297370567440112e+00 1.9525261819761454e+02 -1.0471199082597138e+01 1.9497262129976374e+01 -2.4248253159946309e+01 8.1830752449526472e+00 4.8133219903487770e+01 -4.5448065454971918e+00 7.2601371193660214e-01 1.7440017693797200e-01 -2.9626696074628825e+01 -2.2487556820712014e+00 -4.2840755183590193e+00 5.4757721815080558e+00 -8.2088162411059784e+01 1.8565514143917582e+02 -6.5635834027823048e-01 -6.3612358944897252e-02 -9.2879024312352754e-01 7.1874520210506310e+00 9.6301465090343470e+00 1.4924494065858951e+01 3.0975366030973110e+00 -1.4073795422770891e+01 -4.0526694639638826e+01 4.0507660820994236e+00 -3.6824968792462398e+00 3.7357746712063523e+01 
      </Row>
      <Row Index="31">
        4.0508830163051357e+00 2.2180602107482446e+02 -5.3637815162308016e+00 1.6540615567335294e+01 -2.5674166849744063e+02 -2.9485221091382914e+02 4.6751170221347699e+01 -1.0037125355693297e+02 9.2789064860002100e+00 -1.9912513009334816e+01 -4.0093664794139841e+02 1.0893948335037976e+01 -4.3505349331916577e+01 -2.4785825315555712e+02 -7.6140169213933405e+02 -1.2348887708753543e+03 1.0907206952278011e+02 -2.2120577377595509e+00 1.3430161151781761e+01 3.5369744682407645e+02 -3.1846113927711940e+01 -1.4870704706133893e+00 5.8757135568242211e+02 1.1113497418347845e+03 1.5338790597292698e+03 -1.7740833067016843e+02 -1.8412884453800984e+01 -3.2197363394679996e+00 -6.8391278829948715e+02 2.3522639125642058e+01 -2.4248253160703428e+01 4.9291085372188456e+02 5.6044587497914063e+02 -3.8727678982768339e+01 -1.0336931202318219e+02 -7.6346509056876926e+00 -2.9230781548875946e+00 1.2058836924411420e+02 1.7894457033004880e+01 6.1560263906993242e+00 -3.6222588840715048e+01 -3.1298133378661760e+01 -1.9781184505832691e+03 4.6018648943973739e+00 2.6181536070977316e+00 4.0795303818748145e+00 -1.6664441211585448e+01 -1.2518280705812060e+01 -4.1294894020496947e+01 -1.5314494820459279e+02 -6.7053432569485096e+00 2.6580009819607506e+02 -3.1887149158217252e+01 4.7097573170742120e+00 -1.6810390601581000e+02 
      </Row>
      <Row Index="32">
        -2.2474003432026620e+01 -7.4022841250020429e+03 3.8660750142324105e+01 -3.0303861391748796e+00 -4.7785089113085814e+02 -4.1740302123251131e+03 -2.1658483877339967e+02 -3.3323020888672181e+02 -6.2780136186784148e+00 -4.3311617743265742e+01 7.2092633597921813e+03 -4.6678079864252140e+01 -1.8162692099956594e+01 -6.8596205002714123e+02 1.2211862189796229e+03 -9.9199347439762314e+03 -4.2128177330523613e+00 2.7179414159960288e+01 3.5462184069942850e+01 -1.4401824056705445e+03 -2.0364927789727153e+02 1.1947297556745980e+01 1.4067283620651870e+03 1.6337956242838472e+03 1.2956388093115223e+04 -1.2741839679995428e+02 1.3711177560908254e+01 -7.1757470162381651e+01 6.1143437743308023e+03 2.5112299691729277e+01 8.1830752370065056e+00 5.6044587495555834e+02 5.4477938993784855e+03 -2.4371278673008055e+02 1.0132968014942077e+02 -6.6667421510041095e+01 -2.0918479900577696e+00 -1.7690305202049028e+03 2.4894850196565699e+01 6.6479908901059046e+00 -1.3972534048308974e+01 -1.7885191657930486e+03 -1.7614969362486503e+04 -6.5778137051121632e+01 3.1690566713916205e+01 3.2506930140412699e+01 2.1300292614904421e+02 -7.2096756216851645e+00 -2.5374342902480834e+01 -2.6586459736483255e+02 5.5979533192813108e+02 3.2793119909035499e+03 -6.5764075068842985e+01 -1.8989667756381891e+01 -2.2935962863436334e+03 
      </Row>
      <Row Index="33">
        6.0230837110350421e+00 -1.0082628013679059e+03 1.3511448571922301e+02 -2.4063608122532514e+01 2.1468012746940531e+01 1.0650608014380850e+02 -9.5068980166152676e+02 1.0522703377675498e+02 -2.7788516923351608e+01 3.3939934754580463e+01 1.0380709553568158e+02 -4.5422869917802927e+01 1.2823361644099174e+02 -1.0803251328885381e+01 2.0025519799129906e+03 6.0235726956336730e+03 -2.2451174140375952e+02 -3.3928139885356359e+00 -5.6393719213210261e+01 5.4447481371417962e+02 -1.0604335132912456e+02 -1.0044764493019738e+02 8.8711807081526786e+01 -2.5174571827965265e+03 -7.0286169089255964e+03 6.4478198275915020e+01 3.4427044957279577e+01 -2.4616647065158759e+00 1.8423893279443728e+03 -4.7674419510150074e+01 4.8133219906149407e+01 -3.8727678950180916e+01 -2.4371278647116969e+02 1.9479813239451178e+03 -1.9549918117780058e+02 1.1878010824334524e+01 -1.8082979167378239e+00 -1.3210299100838597e+02 -4.1228926265881114e+01 -1.9021465298514155e+01 8.7050985082971181e+01 -1.3190920650086423e+03 8.6518683117239161e+03 -7.2923179552638473e+01 6.4565791423284864e+00 8.3555578547705771e+00 4.8564978648151424e+01 -3.3996096515534191e+01 4.8244812008757613e+01 6.2868453522354599e+00 -5.3743432645436556e+01 -1.9543319987050756e+03 1.9250067423970325e+00 -5.9644147166140726e+00 1.5821759438079721e+03 
      </Row>
      <Row Index="34">
        -2.4324053130655670e+01 1.7968805379283185e+02 -9.8538489712846058e+00 -5.6347326135390858e+00 -4.7019778636179069e+01 2.6639847817496502e+01 1.3805296884916902e+02 -5.8662580275191431e+01 7.4088488428144217e+00 1.0534450062952146e+01 -1.2758625055182129e+03 3.0293951590783536e+01 2.4176676800090249e+00 4.7988504260937134e+01 -2.8254089987469524e+02 -9.3645985134202783e+02 1.8354666164991067e+02 -1.6134723520756324e+01 2.5959945865638133e+01 1.2335418922958170e+03 -9.2507635430511073e+00 -4.2526984819833160e+00 -5.2180697184913242e+01 1.8923160633506353e+02 1.0982524631746626e+03 2.9385188149930627e+01 -3.6301273296048748e+00 1.1531639867781450e+01 -1.2531430045742381e+03 3.6223165352552314e+01 -4.5448065458967619e+00 -1.0336931202841302e+02 1.0132968010425009e+02 -1.9549918117560719e+02 4.5882898698414476e+02 6.1222197099806408e+00 6.5864629386712421e+00 1.8686298590648664e+02 1.7057086450362185e+01 3.8552743378191257e+00 -9.7345103742625660e-01 1.8844251809808594e+02 -1.3324706341269925e+03 -1.4593604090709707e+01 -1.2761360325047839e+00 -1.2651829048094939e+01 -3.2051196349485963e+01 -1.9695002305570597e-01 -3.7374500455685826e+00 2.9596897741454029e+01 4.9103350187201123e+01 2.9529202264424413e+02 2.5745181620355211e+01 6.6060169904551902e+00 -2.4558562375997391e+02 
      </Row>
      <Row Index="35">
        -5.2515176675162323e-01 1.0156341246162151e+02 -7.6618131377017562e-03 1.7213139462022795e+00 -1.7784972863235140e+00 9.8759950489563778e+01 1.4383476832249896e+01 -3.0196859694100340e+00 8.3520019560540639e+00 1.3914888228697748e+00 -1.4818894349717084e+02 3.2767642117686790e+00 -1.0788008841282455e+00 2.8904969528128390e+00 -1.1509776863161005e+02 9.1070713092488020e+01 8.3901828818862896e+00 -1.6784428193725034e+01 5.5840947895712389e-01 1.0420208089884886e+02 -9.7766727135007159e-01 -4.9483632467784560e+00 9.1846781416973045e-01 -1.2001006701168654e+01 -1.3902816281744481e+02 5.6630990020914851e-01 -9.0182015259305359e+00 2.3461471709396164e+00 -1.4898743955487316e+02 -7.9497862215130510e-01 7.2601371204572729e-01 -7.6346509055762937e+00 -6.6667421512100461e+01 1.1878010828494439e+01 6.1222197092726773e+00 1.2769627285952907e+01 -2.0141876683165472e-02 4.5381437490137770e+01 -2.8824426328771340e+00 4.8509962361421244e-02 1.6816059577299813e+00 3.5508728276466947e+01 1.9294806348538020e+02 5.9969921626986245e-01 -9.0014351336046350e-01 -1.0038466738847762e+00 -5.0798298298967772e+00 -8.5841848736894377e-01 -1.7086283576398142e+00 6.5759621664796808e-01 -1.1061117861006645e+01 -3.6876467449092956e+01 6.4120978773281756e-01 7.6707029873836250e+00 2.6171952149363950e+01 
      </Row>
      <Row Index="36">
        -4.2003656811795786e-01 1.1989431138526058e+01 1.0937466451101603e+00 -1.2180212095589540e+00 2.0190244210451826e+00 4.6763835817316632e+00 -1.9845766823966549e-01 3.4246419626764180e-01 -7.7706151531985901e-02 1.3712554053051775e+00 -3.0274528052100322e+01 -2.2212590532967766e+00 3.5487156883275428e-01 -6.4874333572184639e-03 4.2819258555460067e+00 1.1373801988628077e+01 3.4242501077249585e+00 -2.5852733727880661e-02 1.3762503939635056e+00 9.2025598511608209e+00 -4.1085643105041214e-01 1.6586566060221131e-01 -3.0726669106623703e+00 -2.3137099627280380e+00 -1.5549477682555656e+01 1.3201899732916980e+00 4.1190549380441865e-02 1.9581215682579227e+00 -2.2112935324098913e+01 -1.0410516094691573e+00 1.7440017694398025e-01 -2.9230781548523290e+00 -2.0918479901390201e+00 -1.8082979164314565e+00 6.5864629386169993e+00 -2.0141876684281357e-02 1.1461181513070664e+00 4.1650578327692589e+00 -4.6406243897158017e-01 3.4308183577380891e-01 2.0090533128690830e-01 2.1169764696996296e+00 2.1065619633002598e+01 -6.6960158587949692e-01 3.6249137336217770e-02 -9.2163523210638842e-01 -4.3202336553373394e-01 -8.5846640514145989e-01 2.1219967634198217e-01 7.8646578138547030e-01 -2.2322800485596228e-01 -3.6868737616841449e+00 5.2904432012503499e-01 -1.9293200339500050e-02 2.0205307610651149e+00 
      </Row>
      <Row Index="37">
        9.6485042439421136e+00 8.0167883469795706e+03 2.2772318322819274e+02 2.8370034174039233e+01 8.4748130262177028e+00 3.5304613308506819e+03 4.9195077294002249e+02 -1.6836431412346064e+02 5.9411003395889111e+01 -3.4488953036179737e+00 -1.4118875261638532e+04 -1.8646291845135511e+02 -9.9839727283026605e+00 -4.2473077712086888e+02 -4.0686111322726283e+03 1.2440702119561768e+03 4.1870027593345731e+02 -1.4348182914925746e+02 2.5023774262101483e+01 1.0538736191940941e+04 3.4554606353740382e+00 -5.1736949381286649e+01 6.7528608900416202e+02 1.1991057360084105e+03 -2.0101148030661611e+03 -1.8147748108536302e+02 -1.9350963012245074e+01 2.9467256546418866e+01 -1.0642125468333637e+04 1.7897702356619459e+02 -2.9626696072676111e+01 1.2058836924595170e+02 -1.7690305202811396e+03 -1.3210299091202796e+02 1.8686298589007842e+02 4.5381437490634198e+01 4.1650578328399437e+00 3.4661501769986435e+03 -1.1242784841236171e+02 -4.6491326900056444e+00 1.6611354714277375e+00 1.2968054446530448e+03 3.2233045398263248e+03 2.2538306251272822e+00 -5.7355379088050391e+00 -1.9969315145658452e+01 -3.7632992372718491e+02 -2.9104465123564376e+02 -2.9253518245818285e+01 -9.9319375050409803e+01 -7.6309418342182994e+01 -6.9588741503299843e+02 2.7169551674824071e+00 5.2220846732052649e+01 3.9964730100600156e+02 
      </Row>
      <Row Index="38">
        -3.0775323444754576e-01 -1.1325888814136488e+02 -4.5315647830580360e+01 -3.6315547795026077e+00 -4.4302104849310524e+00 -2.0177122978162220e+02 4.1290145252207594e+01 -4.8925117757486987e+01 -8.0802691536684819e+00 -6.2163128344451479e+00 1.2665801011598887e+02 3.6538222975014833e+01 -2.4436919076689883e+00 -7.5550213399905942e+01 1.0356784923182295e+02 -5.1534555486784143e+02 -7.0157949884039226e+01 1.2776901119898412e+01 -2.7453688602659554e+00 -2.5137734290602293e+02 -3.2761623838071046e+00 -5.0034820858149942e-01 4.7866426971497503e+01 2.0959748553492915e+02 6.8429437061374142e+02 5.1191189130129317e+01 -1.5205713016440541e+01 -3.2877325594895410e+00 4.3433693289570874e+02 -1.7709906683796362e+01 -2.2487556822189561e+00 1.7894457030201792e+01 2.4894850180494529e+01 -4.1228926268933265e+01 1.7057086450939337e+01 -2.8824426326044659e+00 -4.6406243896124266e-01 -1.1242784840690916e+02 7.0016840113688886e+01 4.1917418241824134e+00 2.0739089123158916e-01 3.1357055854152748e+01 -8.4678507136910946e+02 2.6066460590425216e+00 -1.9101914918737668e+00 3.5410855949949647e+00 9.5013736819445889e+00 5.1947061596324886e+01 -1.0038260928027235e+01 -1.2875608995191914e+01 4.1993450693946670e+00 1.7604424819317700e+02 -1.8460912508021181e+01 8.4184124519373427e-01 -1.3191144452729642e+02 
      </Row>
      <Row Index="39">
        -1.3665446020318068e+00 1.0574073999082543e+01 1.0083972836423527e-01 2.8693375910953982e+00 -1.7339421785682756e+00 1.2539605252066664e+01 2.2038287496706751e+01 -5.7555094488304803e+00 9.3081826738071882e-01 -2.0738357585541678e-01 -3.3054324308774312e+01 -1.3869128820738936e+00 -8.5993727878484236e+00 -2.4184624578381644e+01 -1.5757346434000681e+01 -5.3000095228906083e+01 -7.2624743125596751e+00 -1.1374409551922611e+00 4.7556699793871715e-01 2.1589311277390948e+01 -3.5781347702011743e+00 -1.3068190783883438e-01 7.0832362292122468e+00 4.9470597222541315e+00 4.5564912849602138e+01 5.0871458631875370e+00 -1.6152451034480322e+00 -8.2236477640481098e-01 -1.2693592130195611e+01 -2.2808191935993314e+00 -4.2840755183617905e+00 6.1560263905394024e+00 6.6479908889604609e+00 -1.9021465298333368e+01 3.8552743377923742e+00 4.8509962378695093e-02 3.4308183577298601e-01 -4.6491326898765237e+00 4.1917418242181341e+00 4.3167697672460887e+00 -2.6720220740811031e+00 2.0373692268678791e+01 -4.6692667609836995e+01 -6.5165700562331930e-01 1.9704269838249289e-01 8.0721015445878486e-01 -4.8338983188490203e-01 1.3800440203022148e+00 -8.2388835657953159e+00 -4.8760499010203793e+00 1.2663008174659209e+00 1.1807277961598841e+01 -2.0192421381236234e+00 9.2008767355448429e-01 -1.0799347106048174e+01 
      </Row>
      <Row Index="40">
        1.7595523331811158e+00 -7.7180443053726322e+01 -9.5376816632682733e+00 -1.4909427296995119e+00 1.8844326913237648e+01 -5.2902343449551495e+01 -7.3938840196791347e+01 2.0781549524071238e+01 -2.2177014008531586e+00 -3.0705688672924225e-02 -3.0306436833746375e+02 2.6501753706179159e+00 -7.7594891588829027e+00 -3.9937051998279344e+01 2.3606042664567178e+02 1.7506397424430997e+02 -5.6703439626578529e+00 4.4153975989151490e+00 1.6416726718547636e-01 5.2305384391560415e+02 1.2312714205846760e+00 5.0580637897685250e+00 1.7761550907319190e+01 -2.4265195681798784e+02 -2.1523301796572494e+02 -3.5768076670400291e+00 -4.3055556545259321e-01 4.4183902118794549e-01 1.8861926393101203e+02 -3.1794002759118314e+00 5.4757721815432205e+00 -3.6222588840330474e+01 -1.3972534044426098e+01 8.7050985081943395e+01 -9.7345103722638449e-01 1.6816059576729572e+00 2.0090533128468713e-01 1.6611354703842309e+00 2.0739089129628563e-01 -2.6720220740901133e+00 2.9428291196199197e+01 -1.0857909443092464e+02 2.1488913560537253e+02 6.8221436070469856e+00 -1.2935889519012433e-01 -4.2818233970473107e-01 -1.2503556342147066e+00 6.3023222379548045e+00 -3.1103469869845899e+00 -2.6940167144704361e+00 1.5587399592055110e+01 -2.8696468088472571e+01 5.1850132685623969e+00 -7.0775519790411678e-01 2.7740544082785526e+01 
      </Row>
      <Row Index="41">
        -7.1332539606757450e+00 6.2199562426252087e+03 6.4769076849147950e+01 4.3778484166162229e+01 3.6046146872666100e+01 3.3359955898803628e+03 1.9105534388100427e+03 -4.5604822353686723e+02 1.0489393778485919e+02 3.2181310398908408e+01 -5.7309321556738141e+03 2.1816995065183164e+01 -6.6916656325149148e+01 2.6954261167965069e+02 -4.6987376716057333e+03 -2.5518698373961606e+03 1.8995257029127970e+02 -2.2821415623259600e+02 1.6971663980277754e+00 9.0545632240377017e+02 -4.9403406842642653e+01 -3.0094334043078106e+01 -3.9574457020687896e+02 1.9533389152774023e+03 2.0450017122917466e+03 2.9468389206643201e+02 -4.8890876574387221e+01 5.6388051567073489e+01 -6.8394593362628511e+03 1.5845027620278825e+02 -8.2088162409227721e+01 -3.1298133399728556e+01 -1.7885191660801870e+03 -1.3190920648503470e+03 1.8844251807265258e+02 3.5508728279869274e+01 2.1169764699635856e+00 1.2968054447113641e+03 3.1357055842253232e+01 2.0373692268274720e+01 -1.0857909442927608e+02 2.9498142481210953e+03 -1.2434196020977224e+03 9.2007362628800820e+01 -2.3975626886215363e+01 -3.0656602204790804e+01 -2.1346775517613347e+02 -1.9085092872720543e+02 -7.3341785414320952e+01 5.8936559965384816e+01 -8.2026266656854062e+01 3.3224141117392617e+02 -9.0807477422058042e+01 8.0742728448882190e+01 -5.1923918967772647e+02 
      </Row>
      <Row Index="42">
        -5.5368435862183105e+00 6.3454524014154449e+03 1.4865747172943084e+03 -1.6884362954946118e+02 2.2594213754826778e+03 2.0001068036831799e+04 -1.6271792464089813e+03 1.0264832747946493e+03 -4.6238126012322027e+01 4.6076380880549550e+01 -1.1802649806361645e+04 -7.7002994708972983e+02 3.6330489929678879e+02 4.2226266359053552e+03 1.7624631034937687e+04 9.1155450672938197e+04 8.6223892679903656e+01 -4.3785987253324129e+02 -3.3789704037219053e+01 4.2224842542777769e+03 -4.0481210628058761e+00 4.7367525773413945e+01 -8.1122308852619026e+03 -3.3707260103664667e+04 -1.2356610413516848e+05 2.7106439162767492e+02 3.4417875645717140e+02 7.3721524433698505e+01 -1.1339035218164325e+04 -1.7631305154541042e+02 1.8565514153637923e+02 -1.9781184552582126e+03 -1.7614969411514641e+04 8.6518683292372152e+03 -1.3324706365012098e+03 1.9294806411757600e+02 2.1065619697728835e+01 3.2233045528206858e+03 -8.4678507310928057e+02 -4.6692667664982309e+01 2.1488913568542011e+02 -1.2434195925342574e+03 2.1093497736741428e+05 -5.2019566624092533e+02 -7.8927571107995234e+01 5.9073825538494527e+00 -1.4216603434823907e+02 -9.4921616245788755e+02 3.5849243711343331e+02 1.2924275292581319e+03 -3.0610209662548732e+03 1.2432210210759897e+05 1.7833002757957249e+02 4.3052069949723034e+01 -1.3260546393676157e+05 
      </Row>
      <Row Index="43">
        1.9938398224296066e+00 2.0829581350485068e+02 -3.3735417876916927e+01 2.2460803220254775e+00 -2.5452800865951389e+01 -6.1503883233873466e+00 4.7045869677528628e+01 3.7561459292390282e+01 -1.1458240623088898e+00 1.9997944848373663e+00 1.1488952536376928e+02 -2.5164767361628151e+00 -1.3154053119748500e+01 -1.2775935668055354e+00 -1.3295804366922084e+02 -3.1659233975815710e+02 -1.2240326174026904e+01 7.6385612953899908e+00 -3.4623031124772297e+00 -3.3570446057150821e+02 1.3167792798965934e+01 9.7540636001690473e-01 -5.0079649690951555e-01 1.6350030122865357e+02 4.5399829421462198e+02 2.2532369094765045e+01 -3.7767961462392918e+00 3.1616728913038514e+00 4.4458873268691605e+01 1.1186292944399071e+01 -6.5635834041187024e-01 4.6018648924664944e+00 -6.5778137066323410e+01 -7.2923179552010197e+01 -1.4593604090678255e+01 5.9969921651133973e-01 -6.6960158586253371e-01 2.2538306304244315e+00 2.6066460588078844e+00 -6.5165700561689599e-01 6.8221436070196280e+00 9.2007362637036408e+01 -5.2019566529324504e+02 4.6218705728861117e+01 9.8221306409954523e-01 -1.7132612856421154e+00 7.3416092794149201e-01 2.2232310653701006e+00 -1.0929173874119829e+01 -4.8240042820398212e+00 5.8630686374038703e+00 1.0952583166222465e+02 6.7054783861749456e+00 -1.1468518706388231e-01 -8.6802013665410627e+01 
      </Row>
      <Row Index="44">
        3.5613222733239525e-02 -3.3611440666316298e+01 1.0654130217778714e+00 5.7467200523639406e-02 -2.8432358923906982e+00 -2.0534167469879534e+01 -1.3045966223318388e+01 1.7798546588693966e+00 -1.0739554586606816e+00 1.6419517597475419e-01 4.1145856105387793e+01 -3.7133896570664220e+00 6.4937808335082181e-01 -4.7562950606454990e+00 1.0936235781398068e+01 -2.4872414739110148e+01 -1.8461263598887854e+00 2.7928943979015486e+00 -2.9969263205729391e-01 -1.8653210717071858e+01 -2.1996293211964399e+00 -7.5042986410433343e-01 7.2618780697169711e+00 -4.7052072940690177e+00 5.8316288045254296e+01 -8.0412185953520066e-01 2.1296681221152625e-01 -4.5983771193192524e-01 3.4044700749853519e+01 2.6682179861355593e+00 -6.3612358995394302e-02 2.6181536070686153e+00 3.1690566714974114e+01 6.4565791404227468e+00 -1.2761360321741826e+00 -9.0014351336231258e-01 3.6249137336117843e-02 -5.7355379085942459e+00 -1.9101914917450769e+00 1.9704269839168720e-01 -1.2935889521565391e-01 -2.3975626884716888e+01 -7.8927570822321741e+01 9.8221306420754662e-01 1.4378076502074277e+00 2.0772109251651588e-01 1.2736742486209964e+00 -1.8500588117590162e+00 -2.3365994799492074e-01 -1.2629353281068294e+00 6.1887097967990954e+00 1.5509423834385844e+01 4.1614135257634643e-01 -7.0947175358892600e-01 -1.0362362179773472e+01 
      </Row>
      <Row Index="45">
        -3.8789233761969655e-01 -7.6533639620380711e+01 -2.9353792057163091e+00 -2.1389204663612382e-01 1.9291289317545655e+00 -4.5659004327936984e+01 -1.6732020895809473e+01 1.3046238090764149e+01 -1.6176291600709858e+00 -4.5656365874862033e+00 6.3005177097779324e+01 1.1389719321955880e+00 -1.2716773576321085e+00 -1.3938788626731593e+01 6.4543846752638331e+01 2.1277116524276195e+01 -1.0946723400190024e+01 3.9310125398733362e+00 -2.5510178360006073e+00 -4.7617493772708286e+01 -3.7958243646463075e-01 -1.4283728198773105e-02 1.0452026696800885e+01 9.0835731949690732e+00 -1.4146565181347050e+01 -7.4175732229489633e+00 -9.8603224780869425e-01 -7.5864605402824594e+00 9.5478323732504123e+01 -5.0942885772604782e+00 -9.2879024313224079e-01 4.0795303821147293e+00 3.2506930144053683e+01 8.3555578529526713e+00 -1.2651829047809290e+01 -1.0038466739281731e+00 -9.2163523211097642e-01 -1.9969315146521787e+01 3.5410855951375861e+00 8.0721015445791167e-01 -4.2818233971463993e-01 -3.0656602205110453e+01 5.9073826550948816e+00 -1.7132612855494340e+00 2.0772109253656001e-01 3.9917793808045143e+00 3.1579301048093891e+00 5.6048588446346521e+00 -1.6986206059618856e+00 -2.8834867578563665e+00 -2.3953762942796892e+00 -4.1853534607431282e+00 1.4840854353832178e+00 -1.0192542768415418e+00 7.8342090457787119e+00 
      </Row>
      <Row Index="46">
        -2.1248454555886997e-01 -1.0475810547217372e+03 -2.3473180912029918e+01 -5.4625033529468059e+00 -1.1967643192747524e-01 -4.1437827036303139e+02 -9.4040902739334484e+01 2.9344142057149469e+01 -8.9875069090400324e+00 7.0469164550209484e-01 1.8289001857702899e+03 1.0613926472033363e+01 6.3335987419028426e+00 5.4487376551999688e+01 5.4698006374223758e+02 3.9055187195600126e+01 -5.7484752762942534e+01 2.0647610094191762e+01 -5.0407811537725493e+00 -1.4037814470368198e+03 4.2810083289999383e+00 2.6502342222115978e+00 -8.8255591528694708e+01 -1.9376310733840066e+02 4.0210360839271367e+01 2.2171842160857675e+01 3.0641088269662262e+00 -4.9132292815173173e+00 1.3150178347723590e+03 -2.3012581648636466e+01 7.1874520208563668e+00 -1.6664441210789722e+01 2.1300292616734419e+02 4.8564978635083619e+01 -3.2051196347329331e+01 -5.0798298300923648e+00 -4.3202336555146181e-01 -3.7632992373011791e+02 9.5013736827842035e+00 -4.8338983186554696e-01 -1.2503556343315858e+00 -2.1346775517299275e+02 -1.4216603312745087e+02 7.3416092863843874e-01 1.2736742487080603e+00 3.1579301047469328e+00 4.9354124812952151e+01 3.1949746432703158e+01 5.2452031891167010e+00 1.3709741718515314e+01 3.9076542708344633e+00 3.2213269782379420e+01 1.7565197490627753e+00 -7.3242787743912707e+00 -5.1013813013830909e+00 
      </Row>
      <Row Index="47">
        -2.1054793245913288e+00 -6.3575710832547429e+02 -1.1943045544422364e+02 -8.3120014284350532e+00 2.6829597888434193e+00 -7.5842637373007983e+02 -2.6250498968103852e+02 7.2954629685132204e+01 -1.9338043680622562e+01 -8.2520094764631722e+00 7.4722871241148096e+02 7.4858964831119124e+01 4.4948652477240607e+00 -6.7596125165956209e+01 6.5644452420817106e+02 -2.6307793214947714e+02 -3.8070601081546556e+01 5.6655117896228148e+01 -4.0744985457956773e-01 -4.6671931244946018e+02 5.3449357313185146e+01 6.3869601345664364e+00 4.6334921117379281e+01 2.3262912010296080e+02 6.8013085420990262e+02 -2.4871526423302555e+01 -1.2404685796645822e+01 -8.9140041896889670e+00 1.1858102900575686e+03 -6.9327422219816640e+01 9.6301465084941213e+00 -1.2518280707532554e+01 -7.2096756130700896e+00 -3.3996096539195150e+01 -1.9695001907254550e-01 -8.5841848733883808e-01 -8.5846640514975814e-01 -2.9104465123231898e+02 5.1947061597470494e+01 1.3800440203158488e+00 6.3023222375317545e+00 -1.9085092870695365e+02 -9.4921615880959359e+02 2.2232310666498307e+00 -1.8500588117801460e+00 5.6048588443375795e+00 3.1949746431554836e+01 1.2728693030017303e+02 5.0235096614103796e+00 -6.5009950841431063e+00 -2.5950597091140253e+01 2.0117370315372722e+02 1.3983251326624980e+01 -1.3507975455414211e+01 -1.0702550550885846e+02 
      </Row>
      <Row Index="48">
        -6.2544758564883551e-01 -1.0042715592113836e+02 5.6100363593562292e+00 -1.3488103583222511e+01 2.9586516323042019e+01 -8.7712545071589261e+01 -8.7687214592115140e+01 2.4618290951063955e+01 -7.0591721915309407e+00 3.0175125216846936e+00 1.5466038716736148e+02 1.8690305713943189e+00 3.6440791403703905e+01 6.8192266600882476e+01 1.6004148764544789e+02 3.1203559156928418e+02 6.8224764355154548e+00 1.0488832437920223e+01 -2.8156886885767562e-01 -1.1016988975281765e+02 1.1676611690791901e+01 3.2765240854356819e+00 -4.3719350977777140e+01 -1.0740168650247163e+01 -3.0621062565011982e+02 -1.2993177706898678e+00 7.3008683007080890e+00 3.3489619594192845e+00 1.5424578799607480e+02 -7.3549543360176699e+00 1.4924494065919916e+01 -4.1294894019386049e+01 -2.5374342894212930e+01 4.8244812008565759e+01 -3.7374500456110979e+00 -1.7086283577723975e+00 2.1219967633803982e-01 -2.9253518248035874e+01 -1.0038260928121037e+01 -8.2388835658002488e+00 -3.1103469870055402e+00 -7.3341785418598519e+01 3.5849243649797802e+02 -1.0929173874130285e+01 -2.3365994793037004e-01 -1.6986206059287809e+00 5.2452031894332620e+00 5.0235096618233399e+00 3.3347870119175383e+01 2.2648431805687181e+01 -1.9491685749726969e+01 -7.9430504530579569e+01 6.0086311678809494e+00 -5.6933400822728828e+00 6.5943115483581494e+01 
      </Row>
      <Row Index="49">
        -1.1740534837273060e+00 -1.1331038712400641e+02 1.0840865770400114e+01 -5.9924830574761359e+00 9.0180495594678831e+01 2.2187617640331223e+02 2.0052444348459517e+01 2.2650646270768448e+01 -1.2951560313804436e+00 6.2886757121518713e+00 7.5488995737468213e+02 -6.7424430882135766e-01 2.4432588009633701e+01 2.2077681324287778e+02 2.2916418940396215e+02 7.3835841698377590e+02 -8.6310056420616093e+00 -5.5293244731747109e+00 -3.9033198437367957e+00 -9.0063344936970998e+02 1.1882922251846367e+01 -1.0339233169262911e+00 -3.3524333699281283e+02 -4.8730694231657611e+02 -9.8905623919887569e+02 5.6269361458699905e+01 1.0256679369261860e+01 3.6570207470199421e+00 1.2606703726262276e+02 5.1247654482307325e-01 3.0975366036398100e+00 -1.5314494820334667e+02 -2.6586459736916015e+02 6.2868453719447643e+00 2.9596897738140328e+01 6.5759621656025047e-01 7.8646578139139756e-01 -9.9319375053443594e+01 -1.2875608996666342e+01 -4.8760499011109184e+00 -2.6940167141777103e+00 5.8936559946696917e+01 1.2924275258272714e+03 -4.8240042831994714e+00 -1.2629353280537323e+00 -2.8834867576287557e+00 1.3709741719544930e+01 -6.5009950842485864e+00 2.2648431806311038e+01 7.5347961657001306e+01 -9.1431636057554329e+00 -2.1313275753723750e+02 8.5522390543760594e+00 -1.6063525141728334e+00 1.4213847091283552e+02 
      </Row>
      <Row Index="50">
        2.1991778965447111e+00 -3.0615939827774491e+02 5.9023087692344234e+00 1.4641091087785298e+01 -2.1046357126149360e+01 -2.2959242479417480e+02 5.8953862851154554e+01 -1.2814579037459771e+02 -1.8006604693403006e-01 1.3399739982151004e-01 2.2307802626094781e+02 -7.5963666313973590e+00 -1.5237281428622978e+01 -3.7544713978555592e+01 -1.0872312341548604e+02 -1.8117696218066005e+03 1.1185158367421536e+01 -3.5788218287216296e+00 2.3791713511807302e+00 2.8789597183976366e+02 -3.8609132171897727e+01 -1.2777946710032211e+01 6.8063517324351778e+01 -8.4549096704698513e+01 2.3494102465457408e+03 4.0872070568777417e+01 1.0100953000734307e+01 2.7211992270167684e-01 1.3738870597325149e+02 4.2814725829186955e+01 -1.4073795423972854e+01 -6.7053432639612538e+00 5.5979533189111874e+02 -5.3743432672405106e+01 4.9103350192313314e+01 -1.1061117860204376e+01 -2.2322800479943972e-01 -7.6309418320024633e+01 4.1993450706885369e+00 1.2663008176074051e+00 1.5587399591551304e+01 -8.2026266604374825e+01 -3.0610209585107232e+03 5.8630686390731626e+00 6.1887097964149902e+00 -2.3953762949210216e+00 3.9076542669957206e+00 -2.5950597095431931e+01 -1.9491685750625038e+01 -9.1431636025590137e+00 1.7275866957703465e+02 6.3286763660387999e+02 -2.1388194482231143e+01 -4.8311575666868123e-01 -4.8062566619783343e+02 
      </Row>
      <Row Index="51">
        6.2141566147329286e-01 -1.4776917732767761e+03 -3.1918829815229401e+02 3.8751622460666113e+01 -3.5344098885921994e+02 -3.7808593312501907e+03 3.1108764981850982e+02 -2.4586457970365882e+02 8.1756611764431000e+00 -9.7066871486604214e+00 2.5631381850987673e+03 1.5148902029218152e+02 -8.9545399246853776e+01 -7.8812512700166553e+02 -3.0084425420425832e+03 -2.0627765210567741e+04 6.1549970991909504e+00 8.8226378055289388e+01 1.3460616843542084e+01 -8.2949466764368117e+02 2.6487302448600531e+01 -1.1836497364565730e+00 1.3864538578549400e+03 5.8697253785282664e+03 2.7905454688210506e+04 -3.8830571142025292e+01 -6.6933005382074043e+01 -1.0571031523868442e+01 2.3489843029156327e+03 3.6678351534297690e+01 -4.0526694548025262e+01 2.6580008280149195e+02 3.2793118359264918e+03 -1.9543319501504302e+03 2.9529201628873125e+02 -3.6876465395325795e+01 -3.6868735563548398e+00 -6.9588737195311114e+02 1.7604424311174080e+02 1.1807277816993519e+01 -2.8696467944573669e+01 3.3224144907816026e+02 1.2432210339063358e+05 1.0952582906949101e+02 1.5509422903502127e+01 -4.1853538778668735e+00 3.2213265443511773e+01 2.0117369135352783e+02 -7.9430502806906588e+01 -2.1313274656690191e+02 6.3286761311627924e+02 4.8047428966797877e+05 -3.9197243152768351e+01 -8.3324696337658679e+00 -4.7881552432091028e+05 
      </Row>
      <Row Index="52">
        -5.1835142335772844e-01 -6.1258090070939943e+01 -1.5390074250915006e+01 -2.7420839233783170e+00 4.3569012696494553e+00 -1.8383824770661809e+02 -1.2858399540171058e+02 1.3458715378931561e+02 -5.0134020629316254e+00 -3.2814929028962183e+00 1.6911259085678466e+01 -2.7652145656816174e-01 -2.0762548301378736e-01 1.8148303216630779e+01 1.5291840819485333e+02 2.2826987929738311e+02 2.5156945887687016e+01 2.0071314701013875e+01 1.7819656401658790e+00 6.2484165906778117e+01 2.4217161800701888e+01 5.5276403911817908e+00 -2.2499003853362524e+01 4.8574541658965664e+01 -1.8234746388735556e+02 -7.2056344448367838e+01 3.4235746203525821e+00 -5.5310870008036090e+00 7.9350078952093099e+00 -1.1466018522952282e+01 4.0507660820055946e+00 -3.1887149157198117e+01 -6.5764075057270105e+01 1.9250067363449261e+00 2.5745181621337665e+01 6.4120978759876834e-01 5.2904432011697433e-01 2.7169551656037640e+00 -1.8460912507651955e+01 -2.0192421380975589e+00 5.1850132684436998e+00 -9.0807477422054035e+01 1.7833002773606194e+02 6.7054783864562992e+00 4.1614135263874896e-01 1.4840854353653388e+00 1.7565197491497218e+00 1.3983251327309873e+01 6.0086311677005639e+00 8.5522390535833424e+00 -2.1388194480167272e+01 -3.9197242328560471e+01 3.3669664963651655e+01 -6.9723831277297421e+00 4.5545990636829494e+01 
      </Row>
      <Row Index="53">
        -2.7506643577248235e-01 1.4513903665977958e+02 1.1549379883713396e+01 3.2166386393367450e+00 -3.9820345612203227e+00 1.7011540489943289e+02 8.2111513382423666e+01 -3.2405419657055489e+01 1.1694406999795639e+01 1.1940062703568692e+00 -1.8275861018741261e+02 -5.0488004280082599e-01 -3.7629298586773756e+00 4.4006919608844797e-01 -2.0632039071813864e+02 -6.8880395572672299e+01 3.1562999157955574e+00 -2.7057445100226190e+01 5.6525209549508482e-01 1.1341823601349361e+02 -1.2404695265900465e+01 -4.4253786074539541e+00 2.4624042981730767e+00 -7.0588727287043369e+00 -1.0024579215609506e+01 1.4030970749392997e+01 -8.6197022177264309e+00 1.9896678419462290e+00 -2.3257000621172176e+02 8.3456719308111058e+00 -3.6824968791296122e+00 4.7097573166443087e+00 -1.8989667764552401e+01 -5.9644147102186622e+00 6.6060169894034910e+00 7.6707029874662247e+00 -1.9293200333083918e-02 5.2220846733024324e+01 8.4184124478796463e-01 9.2008767353535581e-01 -7.0775519780895346e-01 8.0742728446654226e+01 4.3052069371842769e+01 -1.1468518740290579e-01 -7.0947175362475656e-01 -1.0192542768021808e+00 -7.3242787743332434e+00 -1.3507975455859532e+01 -5.6933400820976976e+00 -1.6063525136872669e+00 -4.8311575843417476e-01 -8.3324716840161397e+00 -6.9723831276469044e+00 9.8794017466092487e+00 -2.8842437301244153e+00 
      </Row>
      <Row Index="54">
        -1.0000675561605021e-01 6.2248427305743098e+02 2.0446186469215900e+02 -3.2748844767920673e+01 2.3627048721816391e+02 2.3549290935532190e+03 -4.4932544259820133e+02 2.6018789170123637e+02 -1.6027204215642996e+01 2.0117687652818859e+00 -1.4332161503881216e+03 -9.5266797884367406e+01 7.2328914145313320e+01 5.4380441727396101e+02 2.5680508952513337e+03 1.6068714116409887e+04 -1.7971162084490061e+01 -3.6367207462899387e+01 -1.1723178359097801e+01 4.9373871566541493e+02 -1.0213402519002557e+00 2.5091594832483679e+00 -9.3658208246808499e+02 -4.2192160351217317e+03 -2.1528697636310942e+04 -1.6938928972929716e+01 4.9724995673401281e+01 -1.1509109633043408e+00 -1.0881140868738294e+03 -5.7885620451299474e+01 3.7357746616879012e+01 -1.6810389063920593e+02 -2.2935961314421147e+03 1.5821758951544762e+03 -2.4558561738813296e+02 2.6171950097894296e+01 2.0205305558592954e+00 3.9964725798112340e+02 -1.3191143944161013e+02 -1.0799346961035553e+01 2.7740543937026814e+01 -5.1923922743555158e+02 -1.3260546519783954e+05 -8.6802011067338753e+01 -1.0362361249804962e+01 7.8342094610561617e+00 -5.1013769726996543e+00 -1.0702549371891655e+02 6.5943113757180981e+01 1.4213845994998701e+02 -4.8062564270524308e+02 -4.7881552425344713e+05 4.5545991455321200e+01 -2.8842457756836666e+00 4.7761981865729042e+05 
      </Row>
    </InverseHessian>
  </Weights>
</MethodSetup>
