<?xml version="1.0"?>
<MethodSetup Method="MLP::MLP">
  <GeneralInfo>
    <Info name="TMVA Release" value="4.1.4 [262404]"/>
    <Info name="ROOT Release" value="5.34/05 [336389]"/>
    <Info name="Creator" value="clester"/>
    <Info name="Date" value="Tue Mar 18 10:17:55 2014"/>
    <Info name="Host" value="Darwin pb-d-128-141-154-76.cern.ch 12.2.1 Darwin Kernel Version 12.2.1: Thu Oct 18 16:32:48 PDT 2012; root:xnu-2050.20.9~2/RELEASE_X86_64 x86_64"/>
    <Info name="Dir" value="/Users/clester/marchMadnessChallenge"/>
    <Info name="Training events" value="1092"/>
    <Info name="TrainingTime" value="8.77697589e+01"/>
    <Info name="AnalysisType" value="Regression"/>
  </GeneralInfo>
  <Options>
    <Option name="NCycles" modified="Yes">6000</Option>
    <Option name="HiddenLayers" modified="Yes">N+5</Option>
    <Option name="NeuronType" modified="Yes">tanh</Option>
    <Option name="RandomSeed" modified="No">1</Option>
    <Option name="EstimatorType" modified="No">MSE</Option>
    <Option name="NeuronInputType" modified="No">sum</Option>
    <Option name="V" modified="Yes">False</Option>
    <Option name="VerbosityLevel" modified="No">Default</Option>
    <Option name="VarTransform" modified="Yes">Norm</Option>
    <Option name="H" modified="Yes">False</Option>
    <Option name="CreateMVAPdfs" modified="No">False</Option>
    <Option name="IgnoreNegWeightsInTraining" modified="No">False</Option>
    <Option name="TrainingMethod" modified="No">BP</Option>
    <Option name="LearningRate" modified="No">2.000000e-02</Option>
    <Option name="DecayRate" modified="No">1.000000e-02</Option>
    <Option name="TestRate" modified="Yes">6</Option>
    <Option name="EpochMonitoring" modified="No">False</Option>
    <Option name="Sampling" modified="No">1.000000e+00</Option>
    <Option name="SamplingEpoch" modified="No">1.000000e+00</Option>
    <Option name="SamplingImportance" modified="No">1.000000e+00</Option>
    <Option name="SamplingTraining" modified="No">True</Option>
    <Option name="SamplingTesting" modified="No">False</Option>
    <Option name="ResetStep" modified="No">50</Option>
    <Option name="Tau" modified="No">3.000000e+00</Option>
    <Option name="BPMode" modified="No">sequential</Option>
    <Option name="BatchSize" modified="No">-1</Option>
    <Option name="ConvergenceImprove" modified="No">1.000000e-30</Option>
    <Option name="ConvergenceTests" modified="No">-1</Option>
    <Option name="UseRegulator" modified="Yes">True</Option>
    <Option name="UpdateLimit" modified="No">10000</Option>
    <Option name="CalculateErrors" modified="No">False</Option>
    <Option name="WeightRange" modified="No">1.000000e+00</Option>
  </Options>
  <Variables NVar="4">
    <Variable VarIndex="0" Expression="seed_prob" Label="seed_prob" Title="seed_prob" Unit="" Internal="seed_prob" Type="F" Min="0.00000000e+00" Max="1.00000000e+00"/>
    <Variable VarIndex="1" Expression="winfrac1-winfrac2" Label="winfrac1-winfrac2" Title="winfrac1-winfrac2" Unit="" Internal="winfrac1_M_winfrac2" Type="F" Min="-5.04464269e-01" Max="6.11607134e-01"/>
    <Variable VarIndex="2" Expression="avg_scorediff1-avg_scorediff2" Label="avg_scorediff1-avg_scorediff2" Title="avg_scorediff1-avg_scorediff2" Unit="" Internal="avg_scorediff1_M_avg_scorediff2" Type="F" Min="-2.33035717e+01" Max="2.90575752e+01"/>
    <Variable VarIndex="3" Expression="avg_score_against1-avg_score_against2" Label="avg_score_against1-avg_score_against2" Title="avg_score_against1-avg_score_against2" Unit="" Internal="avg_score_against1_M_avg_score_against2" Type="F" Min="-1.96538467e+01" Max="2.12218971e+01"/>
  </Variables>
  <Spectators NSpec="1">
    <Spectator SpecIndex="0" Expression="season" Label="season" Title="season" Unit="" Internal="season" Type="F" Min="6.50000000e+01" Max="8.20000000e+01"/>
  </Spectators>
  <Classes NClass="1">
    <Class Name="Regression" Index="0"/>
  </Classes>
  <Targets NTrgt="1">
    <Target TargetIndex="0" Expression="game_outcome" Label="game_outcome" Title="game_outcome" Unit="" Internal="game_outcome" Type="F" Min="0.00000000e+00" Max="1.00000000e+00"/>
  </Targets>
  <Transformations NTransformations="1">
    <Transform Name="Normalize">
      <Selection>
        <Input NInputs="5">
          <Input Type="Variable" Label="seed_prob" Expression="seed_prob"/>
          <Input Type="Variable" Label="winfrac1-winfrac2" Expression="winfrac1-winfrac2"/>
          <Input Type="Variable" Label="avg_scorediff1-avg_scorediff2" Expression="avg_scorediff1-avg_scorediff2"/>
          <Input Type="Variable" Label="avg_score_against1-avg_score_against2" Expression="avg_score_against1-avg_score_against2"/>
          <Input Type="Target" Label="game_outcome" Expression="game_outcome"/>
        </Input>
        <Output NOutputs="5">
          <Output Type="Variable" Label="seed_prob" Expression="seed_prob"/>
          <Output Type="Variable" Label="winfrac1-winfrac2" Expression="winfrac1-winfrac2"/>
          <Output Type="Variable" Label="avg_scorediff1-avg_scorediff2" Expression="avg_scorediff1-avg_scorediff2"/>
          <Output Type="Variable" Label="avg_score_against1-avg_score_against2" Expression="avg_score_against1-avg_score_against2"/>
          <Output Type="Target" Label="game_outcome" Expression="game_outcome"/>
        </Output>
      </Selection>
      <Class ClassIndex="0">
        <Ranges>
          <Range Index="0" Min="0.0000000000000000e+00" Max="1.0000000000000000e+00"/>
          <Range Index="1" Min="-5.0446426868438721e-01" Max="6.1160713434219360e-01"/>
          <Range Index="2" Min="-2.3303571701049805e+01" Max="2.9057575225830078e+01"/>
          <Range Index="3" Min="-1.9653846740722656e+01" Max="2.1221897125244141e+01"/>
          <Range Index="4" Min="0.0000000000000000e+00" Max="1.0000000000000000e+00"/>
        </Ranges>
      </Class>
    </Transform>
  </Transformations>
  <MVAPdfs/>
  <Weights>
    <Layout NLayers="3">
      <Layer Index="0" NNeurons="5">
        <Neuron NSynapses="9">
          -7.0046481301433938e-01 1.5986622652530296e+00 7.6986599140028944e-01 8.5482050384581310e-01 -8.2968004514192895e-01 2.2321191532354406e-01 4.1598440822607143e-02 1.7115986265708518e+00 -7.0581315416270762e-01 
        </Neuron>
        <Neuron NSynapses="9">
          -6.3020528678377619e-01 -1.6908921354622384e+00 -5.8272224682790419e-01 -1.1853625092313367e+00 -1.0248849717360355e-01 -4.7101942571272076e-01 5.2403737230507419e-01 -4.2870060061327392e-01 1.1532784556018703e+00 
        </Neuron>
        <Neuron NSynapses="9">
          -3.1367436402363819e-01 1.3150443669873142e+00 -1.0312657480023257e-01 -4.4861775602458737e-01 1.1505223009899492e+00 6.5237342702131684e-01 -7.2218712815330355e-01 -3.9334075125407986e-01 1.3198295079548357e+00 
        </Neuron>
        <Neuron NSynapses="9">
          -1.2943031601571398e+00 -1.2370370892017581e+00 8.4117146128190282e-02 -9.2661753511981526e-01 1.3153803455631790e+00 -2.4494933168199678e-01 -7.7813717507387248e-02 1.2110413480463993e-01 -6.7981541352347419e-01 
        </Neuron>
        <Neuron NSynapses="9">
          -4.2522236706450633e-01 4.2695717406709571e-01 -2.0727305331083989e-01 3.3965179150927660e-01 -1.2885678843620482e-01 6.2755284279939275e-02 2.3451269738302227e+00 1.9149508566877027e-01 -1.1783880214491572e-01 
        </Neuron>
      </Layer>
      <Layer Index="1" NNeurons="10">
        <Neuron NSynapses="1">
          -5.1403959780469366e-01 
        </Neuron>
        <Neuron NSynapses="1">
          2.6903849376088057e-02 
        </Neuron>
        <Neuron NSynapses="1">
          3.5798069685637601e-01 
        </Neuron>
        <Neuron NSynapses="1">
          6.2096222692821612e-01 
        </Neuron>
        <Neuron NSynapses="1">
          1.7217834966616299e-01 
        </Neuron>
        <Neuron NSynapses="1">
          5.0490645320845372e-02 
        </Neuron>
        <Neuron NSynapses="1">
          1.5289340139712144e+00 
        </Neuron>
        <Neuron NSynapses="1">
          -2.3646473625477035e-01 
        </Neuron>
        <Neuron NSynapses="1">
          3.4412103012192624e-01 
        </Neuron>
        <Neuron NSynapses="1">
          -1.1882971915919727e+00 
        </Neuron>
      </Layer>
      <Layer Index="2" NNeurons="1">
        <Neuron NSynapses="0"/>
      </Layer>
    </Layout>
    <InverseHessian NElements="3025" NRows="55" NCols="55">
      <Row Index="0">
        5.6163843793962487e+00 -8.1438845362316101e+00 -2.8178561178840331e+00 2.1134362846315113e+00 -3.3838340931524953e+00 -2.3900315472501600e+01 -1.6267237469828107e+01 8.9136499464077374e+00 -2.4053594940730488e-01 -2.2140990135319139e-01 4.3901370139891071e+01 -5.4570132802747500e+00 -2.5317865447930523e+00 -4.9465353418631306e+00 2.5380825375887419e+01 -3.4564908602516979e+00 -8.7254321023193313e+00 1.1140214047079637e+00 -2.8573242717308132e+00 -4.2018579656069974e+01 3.3233039207512807e+00 7.9051381817157695e-01 4.0871005542976109e+00 -6.3095130637369856e+01 1.8752342722116833e+01 -2.9793142390894842e+00 5.2094494069102582e-01 8.6118054634516028e-01 2.0467122453464992e+01 4.6462303135985406e-01 1.2478418797217761e+00 3.4006261991898254e+00 -1.4972725491069198e+01 2.0151052378466858e+01 -1.1379439007195103e+01 -6.1077875195800913e-01 -2.0638336894519149e-01 -3.4017114850152903e+00 -5.9164696294926555e+00 -7.5687805252952167e-01 2.2214752210946069e+00 -5.9897781489871477e+01 -3.7368462245460023e+01 5.9757952225872057e-01 1.6784748967385860e-01 -2.3365253947697057e-01 1.1546086143081717e+00 -4.1195426057283475e+00 -1.2673381521905909e+00 -2.0738763145466299e+00 5.8530634811116293e+00 9.1981377220227021e+00 3.7348354208188872e+00 -5.7172834794041183e-01 -4.2335986562802290e+00 
      </Row>
      <Row Index="1">
        -8.1438845370120987e+00 7.7768210037288663e+03 4.7411315094357417e+02 2.8420763041053497e+01 9.2965554835778761e+01 1.0789101594888254e+04 1.1826161382791377e+03 3.8506201123299277e+01 4.0123239925875936e+01 -2.1391735486254319e+01 -7.8981575814399630e+03 -2.1217164714235068e+02 -1.5107696702191745e+02 -1.0816326462359721e+02 -7.2087402988281810e+03 3.7448483812604741e+03 6.9263197783856185e+00 -1.2422634541850596e+02 2.2682615094303578e+01 5.3241784516455828e+03 -1.3743952192840743e+02 8.9139963412468617e+01 2.1366035780726001e+01 1.4505007011946468e+03 -6.3039941267037748e+03 1.0689514720383002e+00 -7.3269811337249848e+00 9.8575684068973572e+00 -5.8144891941357428e+03 7.7111641010478031e+00 -3.9248816879512198e+01 1.2208548591640810e+02 -5.2039001936241402e+03 -1.5195816439093746e+03 7.7522361929917167e+00 6.6138690394507194e+00 5.4008075584057931e+00 1.6974738723012404e+03 2.4610039981492719e+01 2.4209017511146357e+01 -2.1273360720967105e+00 5.5699950506083514e+03 9.4526823475888323e+03 9.8833757123125654e-01 -1.4959310261870998e+01 1.0829958667171036e+00 -2.8871107054393326e+02 -4.5050433105987423e+02 -9.1738094639966960e+01 -6.8740131200312391e+01 -4.7185708836066732e+02 -1.9750881119298419e+03 -7.6369778400151880e+00 3.9964034554590455e+01 1.1688979794315881e+03 
      </Row>
      <Row Index="2">
        -2.8178561179928430e+00 4.7411315093237505e+02 4.2274512981179532e+02 -2.2197495624963444e+00 1.0802252108812468e+01 2.8236224218879988e+03 3.5874549142525399e+02 -1.2971932438319635e+02 1.1872212729348480e+01 1.6265905671321217e+01 -4.8762331820474407e+02 -1.0135272385063479e+02 2.7000947013016106e+01 1.3414649903066544e+02 -1.3733967563021442e+03 8.1219374738376712e+02 -3.5004639100107383e+01 -6.6085100519248584e+01 -1.1797714696410688e+00 4.4551722176088299e+02 -2.2855280530852008e+02 -1.3182159589490682e+01 -1.3668538120634543e+02 -2.2687287117959640e+03 -1.4699040578608788e+03 4.0764842122694667e+01 3.8487529718425776e+01 1.1768369348559458e+01 -6.4757885628317069e+02 4.1023367100396541e+01 -1.5412207036211969e+01 -3.7650923958794010e+01 1.2881604893261496e+02 -1.2766364399921352e+02 1.0224929464843205e+01 -5.2648139094258841e+00 2.9614736950047962e+00 1.6274682601067030e+02 1.8428231044546692e+01 -2.0757137106521060e+00 -1.5299551755464655e+01 3.6555408653960194e+02 1.9356427031210276e+03 -5.3662130829096455e+01 4.5886113762037972e+00 -9.0789882632824543e+00 -2.7323184444363523e+01 -2.6419684400401371e+02 1.3382152059705604e+01 2.9743304028864770e+01 1.0279083709837178e+02 -3.9746637669855443e+02 -6.7621923820616630e+01 1.0041946519981579e+01 2.0676666398611403e+02 
      </Row>
      <Row Index="3">
        2.1134362846414754e+00 2.8420763042661747e+01 -2.2197495624391568e+00 1.6516138799746166e+01 -2.0007932844244486e+01 5.6469707666095729e+01 9.2671236649012076e+00 7.4355392968728076e+00 3.9593856482741998e+00 -8.2120125414799161e-01 -2.1943842283104605e+01 -2.7160284402411312e+00 -3.0323806239515488e+01 -3.9866784398551346e+01 -1.8283822031005633e+02 -1.5985988203787207e+02 -2.3240932771823033e+00 -7.0581070551086915e+00 3.2429237842772629e-03 9.1813754526558810e+01 -5.4305127560113116e+00 -1.4861783502051462e-01 4.6385239050946552e+01 -8.5823691543664921e+01 1.6778692889516947e+02 -7.6702631061847288e+00 -1.8775019661956662e+00 -2.1283074817152134e+00 -4.0581088290953161e+01 7.5835561228546466e-01 -6.9535669577605432e+00 3.1500862592301814e+01 4.5294890405961027e+01 1.6249133871283938e+01 -2.3591592775326173e+00 2.0981597076463157e+00 -1.0394922519608900e+00 8.1443862396661828e+00 -9.8397197776720944e+00 4.1848432376977813e+00 4.4496310926387022e+00 4.4682466250464003e+01 -2.1359511224963558e+02 1.7636125811656296e+00 1.3483584152581651e-01 7.0483778982456080e-01 -2.5807202430288565e+00 -8.2295235624854595e+00 -2.4354261516399148e+01 -1.6213156875582847e+01 1.8531904523464707e+01 4.8472805929768867e+01 4.5544093076622083e+00 3.0486735644713807e+00 -3.4092773129262440e+01 
      </Row>
      <Row Index="4">
        -3.3838340931600643e+00 9.2965554834715249e+01 1.0802252108841676e+01 -2.0007932844148037e+01 1.4068942605136922e+02 2.1612833790856945e+02 7.5585627542110757e+01 -1.8474755113263743e+01 -6.7274646833130793e+00 -9.7770087213731760e-01 -2.2455385641951585e+02 2.9241568643957900e+00 3.0724752374174319e+01 6.7038000632429004e+01 3.6174794656597413e+02 2.2549348977688132e+02 -1.1427508459467504e+00 1.4116597619452111e+01 9.5460976809816867e-01 2.1922359459076489e+02 1.1471551122236285e+01 8.1150402801733428e+00 -2.2990039134589856e+02 -3.5888036424423115e+02 -3.2405539384397724e+02 1.0197254149960871e+01 2.2961326396348376e+00 2.2928814941655657e+00 1.8767337296074192e+01 -1.1124515629127384e+01 2.5734979341173490e+00 -1.7442567085906086e+02 -6.5179097724801068e+02 -1.5977607320507849e+02 -1.0427357357557483e+00 -4.1973832027237439e+00 1.5031945896784498e+00 4.2055811723278943e+01 3.0914071252361992e+01 -5.5325057328555527e-01 -9.8012598183733495e+00 2.3578243743584849e+02 4.7340298127198662e+02 -5.4248270682494111e+00 -1.3504251001400434e+00 -1.4122106027832260e-02 -4.6129458480087848e+00 2.6347088993037246e+01 2.8081277491461613e+01 5.8261328705592057e+01 -2.9903759929244803e+01 -4.4515834741982914e+01 -1.2343614146984164e+01 -5.1682152982304279e+00 5.1519126222351268e+00 
      </Row>
      <Row Index="5">
        -2.3900315475618662e+01 1.0789101594894892e+04 2.8236224219327137e+03 5.6469707660245774e+01 2.1612833791673040e+02 4.0364451472721128e+04 4.8642741296097111e+03 -1.0912247341832897e+03 2.7188575449217819e+02 1.0445607027080811e+02 -1.0746643331914482e+04 -6.6695106217271837e+02 -1.2209711977957076e+02 1.1415333313861111e+03 -1.7268792417876484e+04 1.6361667487310569e+04 1.2576208445900255e+02 -8.6005684808588558e+02 -5.6857773753232721e+01 7.6908410009032114e+03 -1.4764989971787641e+03 -5.0853479040297572e+01 -1.7301935847426157e+03 -2.5063502430845405e+04 -2.6653387298773639e+04 5.8780997086905222e+02 1.2479753461959081e+02 1.0710605136811358e+02 -1.0604855724278324e+04 2.9399392465736111e+02 -2.0663082856663033e+02 -2.7550719245924847e+02 -9.3055240291644932e+03 -3.5130657110537791e+03 2.9442343183042624e+01 1.0221807018094475e+02 1.3475276033495588e+01 3.1141353756291064e+03 -1.4370704817476508e+01 1.2549969767590815e+01 -8.3732693834478866e+01 1.0171860121037913e+04 3.6961366433143441e+04 -1.7169816508520285e+02 2.8014868173658584e+01 -7.2265240267004629e+01 -4.8077973723018181e+02 -2.4825767039394459e+03 -1.7673142089675264e+02 1.8691277302474629e+02 -6.1008198935421248e+01 -7.1087781092939631e+03 -4.3309934653115158e+02 2.4491220292319571e+02 4.1844673875831140e+03 
      </Row>
      <Row Index="6">
        -1.6267237470356761e+01 1.1826161382695718e+03 3.5874549143129889e+02 9.2671236637908301e+00 7.5585627543436374e+01 4.8642741295737424e+03 1.8807205644164255e+03 -3.4398318207701226e+02 6.1255318932177147e+01 1.7956750758480673e+01 -9.1522190001384354e+02 2.4312614143149841e+02 -1.5419702408158585e+02 2.5003914595685762e+02 -3.3101494549748195e+03 1.3065905694302992e+03 1.5526079740912328e+02 -1.6029041681486297e+02 6.2285011481650443e+00 4.6710076474625527e+02 -4.1091113581766962e+02 1.0522176378460161e+02 -4.8656081115338793e+02 -1.3214111763041760e+03 -3.9972949713305707e+03 1.7381079693201180e+01 -5.5547670065102466e+00 2.9378420914950290e+01 -1.1497844310807482e+03 -1.1977298827040581e+01 -6.7652675611980598e+01 -1.7004713510305010e+01 -1.8176563474471870e+03 -1.2216163499974534e+03 1.9749655711213705e+01 9.7747344484739838e+00 3.8713306224360799e+00 2.5280141470828826e+02 1.9698683804177733e+02 1.5846449988250505e+01 -5.3000082987191639e+01 3.4099339734954106e+03 5.5226432060334082e+03 -2.8946721845799967e+01 -1.6025823953060545e+01 -2.2053234150709386e+01 -5.1798240939908112e+01 -1.6545828343644132e+02 -9.7623849176225747e+01 1.9719032181202714e+01 -2.1879709905006507e+02 -1.2780230520532336e+03 -1.4843671088741982e+02 4.9217506353975224e+01 7.6641597021716336e+02 
      </Row>
      <Row Index="7">
        8.9136499464125336e+00 3.8506201129881447e+01 -1.2971932438203874e+02 7.4355392968611023e+00 -1.8474755113170445e+01 -1.0912247341528769e+03 -3.4398318207249878e+02 3.0810650102807438e+02 -6.2714359394398080e+00 -1.5326742783040313e+01 -9.3225031130826096e+01 -3.3607972065534589e+01 -1.5811679283909529e+01 -7.5292946226173470e+01 7.7606271210051307e+02 2.3105439455519513e+02 -2.1467823269319886e+01 4.3166627568998024e+01 -4.0106842009616273e+00 9.8926384441971450e+01 1.0108539196964486e+02 1.7644141585889002e+01 7.0593650002919802e+01 6.6782543955918084e+02 3.8241989875924687e+00 -1.2199677749011559e+02 -5.5702114961035250e+00 -2.3226908499341146e+01 -9.5044164515654941e+01 -2.0748173654121885e+01 2.8070823674287098e+01 1.5035204678034688e+00 -1.0063195894926278e+02 9.7057399622859180e+01 -7.4851066171269514e+00 2.0190968566318679e-01 -3.1443662533842049e+00 1.4669574355224885e+01 -1.5922592641298135e+02 -4.7054870002113502e-01 1.8976118906997360e+01 -6.6594342597972411e+02 -9.8721232082690037e+01 1.7940204776603142e+01 2.6168013884710239e+00 1.6405931630794782e+01 -8.2392267761105531e-01 -5.3708277141473530e+00 9.6379909872754084e+00 -1.6544766326897953e+01 -3.8899020413473394e+01 1.3750024421353878e+01 1.2013044210427782e+02 -1.2498585502100084e+01 5.7419524707667925e+01 
      </Row>
      <Row Index="8">
        -2.4053594938742073e-01 4.0123239923996152e+01 1.1872212728637040e+01 3.9593856483816889e+00 -6.7274646835126131e+00 2.7188575448341021e+02 6.1255318930792946e+01 -6.2714359393485699e+00 2.0717197879484289e+01 2.5085988297470840e-01 -1.0345310275251350e+01 1.3946326852251630e+01 -9.6518113478384073e+00 -9.9258438736465138e+00 -5.5865935272494698e+02 -1.5380670062349981e+02 9.8732257427599173e+00 -3.3253888053218503e+01 1.3842486647889691e+00 4.2728198935420345e+01 -9.0879801516385150e+00 -1.7920031976016588e+00 1.6322263090826077e+01 1.3356524700139541e+01 1.1845369153087961e+02 -2.5638005862997773e+00 -1.4290481029223074e+01 1.4499010716322003e+00 -6.7642877308803861e+01 -1.2678399863438718e+00 -3.8366304284064028e+00 1.2735658812335316e+01 6.6493364791519056e+01 -1.6807619586917337e+01 3.5327399122349892e+00 9.1225120470176808e+00 -6.0658179714265126e-02 1.3217991829090449e+01 -6.7086114399867380e+00 5.8798622861960592e-01 7.3278785698801752e-01 2.4076512084585539e+02 -1.2119201291131492e+02 -1.5011370439422420e+00 -1.2917403053238091e-01 -1.3804494016727347e+00 -2.9313020625504973e+00 -1.4510529516263704e+01 -1.0599281619679200e+01 -5.4702153424394133e+00 -7.1247842254357909e+00 2.4404938306433699e+01 -1.3946109811797904e+00 1.2321892651982161e+01 -2.5546646653383888e+01 
      </Row>
      <Row Index="9">
        -2.2140990134342875e-01 -2.1391735487801952e+01 1.6265905670884781e+01 -8.2120125408930056e-01 -9.7770087221254265e-01 1.0445607026382359e+02 1.7956750757299833e+01 -1.5326742782926061e+01 2.5085988301447681e-01 1.8540651039835438e+01 -7.8479116954066885e+00 -1.7927392607086166e+01 6.5551480678702987e+00 5.5557650949614681e+00 5.2434306134177085e+01 3.7383735402769489e+01 -1.0726396762523876e+01 -3.2999193557215527e+00 -7.1854477784304915e+00 -2.0370658873313168e+01 -8.5656143601039822e+00 -3.4165125910913172e+00 -1.9424492295847323e+01 -2.2861595442388398e+02 -1.1733614799924535e+01 2.2056033851669959e+01 7.3658930713780713e-01 8.7593833103126535e+00 1.7233371897504711e+01 -3.3435133431173565e+00 5.4395880800329000e+00 -2.2493969764138562e+01 -4.1337768286367954e+01 2.8440305748818879e+01 6.6986389531442114e+00 1.4699297995748353e+00 2.5333866439435293e+00 -9.0367337754562609e+00 -6.9792499366925540e+00 1.4990652503478645e+00 -9.4360775395721308e-01 1.0560603610302183e+01 2.8798278143829890e+01 3.9095085955505238e-01 3.3494277902101832e-01 -7.1701773600844980e+00 1.4834360240361057e+00 -1.4800201915940765e+01 4.3491259609013326e+00 5.7230689470480369e+00 9.1865359035001948e+00 -3.5176959806824950e+00 -5.4202197309026570e+00 1.0474843768025677e+00 -2.3464786213820754e+00 
      </Row>
      <Row Index="10">
        4.3901370140895402e+01 -7.8981575814406388e+03 -4.8762331822040153e+02 -2.1943842281095861e+01 -2.2455385642206417e+02 -1.0746643331922380e+04 -9.1522190002584466e+02 -9.3225031120926189e+01 -1.0345310277722891e+01 -7.8479116974904883e+00 1.4072558237715160e+04 3.8097091496845110e+02 1.1570250768009944e+02 3.4975371859221502e+02 2.4186300307132810e+03 -5.0897292528395437e+03 -1.1395464306327148e+02 1.2578873269549058e+02 -5.0445747339818382e+01 -1.2446184462947118e+04 2.0894340553353791e+02 -1.7840092845661275e+01 -2.7244669554756626e+02 3.8213707614178179e+03 7.9328309026607276e+03 2.2603538588585889e+02 -3.2905871116023263e+01 1.0678591782500604e+01 7.7322491434632529e+03 -8.6268913398980217e+01 -2.1128416956926230e+01 -6.1144890382853191e+01 5.0513528691379943e+03 1.2729322715773467e+03 -3.3489833755966947e+02 -3.1659598387484536e+01 -1.1992747951086692e+01 -2.2951510700349731e+03 5.0994087548685911e+01 -2.6194132564854236e+01 -9.8830274372321341e+01 -4.1487811337422909e+03 -1.1502653139038282e+04 1.8666335418224484e+01 1.0078434894561937e+01 -6.3315610732388450e-01 3.8626895789529749e+02 5.4560500987079968e+02 9.8138132997298925e+01 1.0970111780613007e+02 2.0381187095323713e+02 2.4429169650340987e+03 -8.2324173367565464e+01 -3.9178424498093534e+01 -1.5613818459783106e+03 
      </Row>
      <Row Index="11">
        -5.4570132802953877e+00 -2.1217164714201704e+02 -1.0135272385030048e+02 -2.7160284402377499e+00 2.9241568644173555e+00 -6.6695106217107877e+02 2.4312614143195464e+02 -3.3607972065886848e+01 1.3946326852271589e+01 -1.7927392607076126e+01 3.8097091496780047e+02 2.6042769011543510e+02 -1.3557685404069678e+01 9.0667155579675750e+01 -9.6692717951779900e+02 -2.7134353868444782e+02 1.1805239841588998e+02 -6.8875457277704122e+00 9.8718726259394725e+00 -2.4542321225642800e+02 -8.1209058826796849e+01 2.2713487744067749e+00 -4.2254427070691058e+01 1.2384591121156018e+03 5.6924495270242772e+01 -6.9910219402350108e+01 -1.9415542843552501e+01 2.2542782180165362e+00 2.0740236078478750e+02 6.2048333332803773e+00 -2.0863152589482738e+01 3.4871808210426764e+01 -2.1997222161859150e+02 -1.3743042422038531e+02 1.2116949012436663e+01 7.8460002431604412e+00 -3.6580938002536580e+00 -8.3764140341101069e+01 4.5280665742667551e+01 -8.7083715597520328e+00 -2.2600823285703093e+00 4.2641288159156881e+02 2.3941601596594467e+01 1.4909264958885515e+00 -3.8930989377245098e+00 4.8175290703172280e-01 8.0451736464783110e+00 1.0267222503354964e+02 -8.5631960982994588e+00 2.7026450109788698e+00 -7.7480991952561169e+01 -8.3540018548504236e+00 -1.0294593847136126e+01 8.3988000045341025e+00 6.0221791332979926e+00 
      </Row>
      <Row Index="12">
        -2.5317865447782109e+00 -1.5107696703029251e+02 2.7000947011456283e+01 -3.0323806239339511e+01 3.0724752374250780e+01 -1.2209711981256859e+02 -1.5419702408792119e+02 -1.5811679283620371e+01 -9.6518113475076746e+00 6.5551480679773704e+00 1.1570250769072823e+02 -1.3557685404022401e+01 1.3384610044545525e+02 1.8430632688193785e+02 2.4580415116500222e+02 4.7513701458424163e+02 -1.2873789588851828e+01 9.0005444657263070e+00 -4.6296643867784564e+00 -2.1230140709574835e+02 3.2953724357167653e+00 -6.1958199023751575e+01 -1.1058236410196476e+02 -1.5256227674271850e+02 -2.1051001931092048e+02 2.3623200599523159e+01 1.6002707693257463e+01 6.0233516353875132e+00 1.5767182983507678e+02 1.4809279189717279e+00 7.7075928572121484e+00 -1.1980741888109617e+02 5.4118417971657749e+01 1.0438283922905498e+02 -1.5032641220199991e+00 -1.0657383704742340e+00 9.4737032431037438e-01 -3.0527439411554226e+01 6.6681962364144454e-01 -1.5946740231210626e+01 -2.7230747690776411e+01 -2.6662752022780131e+02 2.7335114821843263e+02 -7.2056366922290636e+00 3.2482234880045473e+00 -2.5550955699006579e+00 8.9087906381132012e+00 -2.8922872275498435e+00 8.9573860111923722e+01 6.9111667908832004e+01 5.7862075489586786e+00 -8.4522263591762965e+01 -9.6294052009685327e+00 -7.1667158335287917e+00 6.7707047848472257e+01 
      </Row>
      <Row Index="13">
        -4.9465353420726217e+00 -1.0816326463318546e+02 1.3414649903239587e+02 -3.9866784398555559e+01 6.7038000633391064e+01 1.1415333313448039e+03 2.5003914595072291e+02 -7.5292946228285587e+01 -9.9258438722902831e+00 5.5557650956837961e+00 3.4975371860695486e+02 9.0667155579662108e+01 1.8430632688389483e+02 7.9906384523473218e+02 4.1899298260942032e+01 1.9045236560964943e+03 4.1605330788524000e+01 -1.3924977259172238e+01 -9.6804823328979239e+00 -6.0979875576529514e+02 -7.9919311325037512e+01 -6.8039474079846286e+01 -6.9963302641479322e+02 -1.4592550140631006e+03 -2.5612410904698554e+03 2.4662286776436758e+01 4.1898547093518346e+01 1.6511685709412632e+01 -6.7705864813061964e+01 1.8484528683669645e+01 -3.3597399580326055e+01 -2.8191756035779144e+02 -1.1825849197317341e+03 -2.6489074012950994e+02 4.3181908691136428e+00 -1.2572370363689767e+00 4.0318346107216163e-01 -5.7266123925013844e+01 3.8526653886848294e+01 -4.3063423285571638e+01 -6.6300186090903694e+01 2.3949541545927812e+02 3.4647299743485437e+03 -2.9182673242801059e+01 4.3539220781146293e-01 -8.1056030360117575e+00 8.6966434461878954e+00 -3.6836884210871744e+01 1.6391594360178442e+02 1.9054995494498547e+02 -8.0979715080378526e+01 -6.2219123991449896e+02 -4.0317255503242180e+01 -8.1049999890772870e+00 3.9233490063611191e+02 
      </Row>
      <Row Index="14">
        2.5380825373712220e+01 -7.2087402987084351e+03 -1.3733967562484245e+03 -1.8283822031604842e+02 3.6174794658378278e+02 -1.7268792417344874e+04 -3.3101494548825581e+03 7.7606271207886425e+02 -5.5865935272117395e+02 5.2434306138085958e+01 2.4186300305653567e+03 -9.6692717951513896e+02 2.4580415118702453e+02 4.1899298346781734e+01 4.5926978417883030e+04 1.4753640786100439e+04 -6.6554592038092073e+02 8.8851303755322260e+02 -1.0310297355953902e+02 -1.8819436995635645e+03 1.2729933711008382e+03 2.9849276466865194e+02 -1.3547325552669340e+03 -2.1274305530074940e+04 -1.6713376404824965e+04 1.0294067632862607e+02 3.0242942786643289e+02 -1.3677667807318358e+02 6.4172093398991683e+03 -1.5323720554992030e+02 4.1495252078862723e+02 -9.6581785123438021e+02 -4.1245274781563721e+03 1.0284091852126148e+03 -1.5837032340545468e+02 -2.0289054738814826e+02 8.8240857244518045e-01 -1.7946778083066938e+03 -2.3573100777874561e+02 -2.2670894828834484e+01 2.8468929082135583e+02 -1.4958074527071116e+04 1.9118810442901882e+04 8.1670749119902453e+01 -2.6614493408251061e+00 8.7414437038367396e+01 3.2356278522654304e+02 1.0725280983358571e+03 3.8858968484392039e+02 2.1946820669465592e+02 1.8588181151656750e+02 -3.2652967180898959e+03 3.3417536856393707e+02 -3.5514181029374004e+02 2.9163422145904742e+03 
      </Row>
      <Row Index="15">
        -3.4564908676386978e+00 3.7448483813060448e+03 8.1219374749423287e+02 -1.5985988205744613e+02 2.2549348981428125e+02 1.6361667487681161e+04 1.3065905695445404e+03 2.3105439449332508e+02 -1.5380670060865947e+02 3.7383735416704440e+01 -5.0897292529354454e+03 -2.7134353867722530e+02 4.7513701467291429e+02 1.9045236562859168e+03 1.4753640785649672e+04 3.7155482894315763e+04 -2.7012469179390479e+02 1.1040079637159215e+02 -1.1165442070194131e+02 1.5004795396950219e+03 -3.0176578319660717e+01 -8.0727562182968541e+01 -2.5955319526269195e+03 -2.2254981800929068e+04 -4.9099005010236564e+04 1.5331305132928537e+02 9.6517144564415503e+01 3.9568010733943083e+01 -3.1356138041783124e+03 -1.9309224976656674e+02 1.0662433614897600e+02 -5.3071336865550256e+02 -2.0040335225704803e+04 -3.4973000696460790e+03 -2.9242535931638076e+02 3.2181139906176782e+01 1.1183703679715959e+00 1.0053087457253696e+03 -1.1424856109436405e+02 -5.8579200707956453e+01 -5.4049182897097090e+00 -1.5550537114748831e+03 6.4048976288939673e+04 -1.9551385893909807e+02 -9.9939114155286148e+00 2.1827473693792854e+01 -1.0223417539454850e+02 -2.6931453215881356e+02 4.1307338800849465e+02 3.8598528525355448e+02 -1.9576345650480935e+03 -1.5805522447737652e+04 -1.0303977652666852e+01 -5.4435321593917138e+01 1.2101568754051777e+04 
      </Row>
      <Row Index="16">
        -8.7254321022979067e+00 6.9263197794152802e+00 -3.5004639099927950e+01 -2.3240932770813973e+00 -1.1427508462257165e+00 1.2576208446324463e+02 1.5526079740962348e+02 -2.1467823269290562e+01 9.8732257427298791e+00 -1.0726396762545448e+01 -1.1395464306439521e+02 1.1805239841569714e+02 -1.2873789589244060e+01 4.1605330787716980e+01 -6.6554592038094506e+02 -2.7012469178712183e+02 1.6173119731364881e+02 -8.8658902005812763e+00 2.3419873904697450e+01 3.5321663024624002e+02 -6.7283723698956294e+01 8.2671023535787924e+00 -6.6658670363134203e+00 1.5612281674841154e+02 1.0414453493736215e+02 -9.3156775828136290e+01 -2.5943874681898365e+00 1.1621966580875267e+01 -3.3505030663493835e+02 2.3620897477646920e+01 -8.5463535065304086e+00 4.0986191284582787e+01 1.5061793356575089e+02 -1.0020881666457598e+02 6.0349383399514124e+01 4.6055647960649395e+00 1.7556632435993951e+00 6.5284302230549287e+01 -1.6670693167055337e+01 -3.5921650009096249e+00 -7.2147849708370870e-01 2.4438402370098061e+02 -1.2182949300288848e+02 7.7983757774385651e+00 2.9000655768798111e-01 -9.0316054007407303e+00 -1.3492090263248443e+01 -2.0645773073697868e+01 -5.2831992971011097e+00 -5.2474565409333547e+00 1.9548021966554554e+01 4.5038119032160864e+01 8.8275891614173734e+00 5.2645094062087665e+00 -4.4570662894663343e+01 
      </Row>
      <Row Index="17">
        1.1140214047042045e+00 -1.2422634541474929e+02 -6.6085100518386298e+01 -7.0581070552305309e+00 1.4116597619666539e+01 -8.6005684806840065e+02 -1.6029041681230356e+02 4.3166627569116933e+01 -3.3253888053323408e+01 -3.2999193557432616e+00 1.2578873269027495e+02 -6.8875457276720606e+00 9.0005444659000471e+00 -1.3924977257227475e+01 8.8851303756667448e+02 1.1040079640793438e+02 -8.8658902005986135e+00 7.7924963146370814e+01 -2.5958027041045195e+00 -1.8517414557482513e+02 4.1658394080515500e+01 9.5964705274572140e+00 -1.0319157810269312e+01 5.2456694363156817e+02 8.6665594302741383e+01 -1.3177957731534669e+01 7.5001365978916326e+00 -3.8491440605806524e+00 1.7893655426771613e+02 -4.9310830694254859e+00 1.0021281638779101e+01 -1.3095584209239469e+01 -1.1881392823098651e+02 2.2651189788911328e+01 -6.5970993267331428e+00 -1.5633975509842333e+01 -3.0370954969012498e-01 -4.0947053401376870e+01 -3.1602939888004542e+00 6.9625906266558646e-01 -1.0751777728313527e+00 -4.3432911517455727e+02 -1.3671721818053771e+02 6.0520609416013773e+00 -2.9729840365485743e-01 3.8222333164537279e+00 8.3692078812102260e+00 5.3159419813465639e+01 1.4670360109333384e+01 3.3328203853092173e+00 -9.6558563709874168e+00 2.9017656758472178e+01 1.5933775405595014e+01 -2.3442922050351552e+01 3.4692244459485204e+00 
      </Row>
      <Row Index="18">
        -2.8573242717154486e+00 2.2682615093883214e+01 -1.1797714698422279e+00 3.2429238291724616e-03 9.5460976799298880e-01 -5.6857773754831882e+01 6.2285011477527883e+00 -4.0106842008335200e+00 1.3842486647662728e+00 -7.1854477784530317e+00 -5.0445747339268678e+01 9.8718726258804850e+00 -4.6296643869505623e+00 -9.6804823333765100e+00 -1.0310297355938688e+02 -1.1165442070396716e+02 2.3419873904707991e+01 -2.5958027040397553e+00 1.4378485917812611e+01 1.1089693152372439e+02 -2.6062210060705957e+00 4.2969375392719940e+00 2.1758716310641631e+01 1.8194728251871049e+02 7.6593646547136444e+01 -1.9228352073153005e+01 6.2462464940196583e-02 3.0956890107522668e+00 -5.9145450233684187e+01 1.2813453285075749e+00 -1.2918513401073142e+00 1.6336301762177925e+01 7.7484969685400046e+01 -3.8466088809109493e+01 1.0671684468837441e+01 1.1055557602841759e-01 1.2173606098312364e+00 1.7993692511892789e+01 2.2627297696714770e+00 2.3890610683580332e-01 2.4163383520139359e-01 5.5038124644440721e+01 -1.1015542262435105e+02 -9.9997103125705689e-01 -2.9088942462537076e-01 -1.8561974300557722e+00 -3.6978814741802659e+00 3.1394032403853114e+00 -1.6134844860130015e+00 -5.0020554725191984e+00 -2.4218440317418088e+00 2.4728475717329939e+01 -5.6564441174606328e-01 7.5326774938840746e-01 -2.0316706701278626e+01 
      </Row>
      <Row Index="19">
        -4.2018579656430575e+01 5.3241784516336629e+03 4.4551722176601334e+02 9.1813754526357727e+01 2.1922359459058129e+02 7.6908410008635201e+03 4.6710076474442906e+02 9.8926384436196628e+01 4.2728198936703038e+01 -2.0370658872437161e+01 -1.2446184462929443e+04 -2.4542321225748788e+02 -2.1230140709276554e+02 -6.0979875576679262e+02 -1.8819436996691484e+03 1.5004795395472211e+03 3.5321663024549775e+02 -1.8517414557707161e+02 1.1089693152405904e+02 1.5107389114555463e+04 -1.8797486318019949e+02 4.0187151779480246e+01 6.3237212958125986e+02 -6.8834351684142239e+03 -3.4025196480887471e+03 -3.7029065708931330e+02 6.4436961125022663e+01 8.6246343255879765e-02 -6.6111594917660550e+03 2.2260324771627484e+02 2.1512932837025346e+01 1.4601835176074746e+02 -1.9886512868007751e+03 -6.5514848370259085e+02 5.0594818582495111e+02 5.0280895631310159e+01 3.8218769788438767e+00 2.2588205731543471e+03 -2.1631938619056439e+02 1.0519028893932028e+01 1.6696885254950158e+02 2.2012043397706498e+03 4.8831338950649806e+03 -3.2583478065220838e+01 1.8656817134185104e+00 -2.0648830192815012e+01 -3.6910229696004114e+02 -6.2229506425217346e+02 -1.3542117464388957e+02 -1.6739442074501491e+02 2.6746241102307351e+02 -1.0567830174664628e+03 1.3885618382452316e+02 5.5150267999714913e+01 6.4349028124241181e+02 
      </Row>
      <Row Index="20">
        3.3233039208032267e+00 -1.3743952192585130e+02 -2.2855280530917673e+02 -5.4305127558940995e+00 1.1471551122356615e+01 -1.4764989971702998e+03 -4.1091113581672505e+02 1.0108539197024639e+02 -9.0879801518501253e+00 -8.5656143603212342e+00 2.0894340552991912e+02 -8.1209058826448768e+01 3.2953724347937126e+00 -7.9919311325119125e+01 1.2729933711161871e+03 -3.0176578302396592e+01 -6.7283723698658619e+01 4.1658394080890389e+01 -2.6062210060892941e+00 -1.8797486317874154e+02 3.4131592329708519e+02 1.4936958661701652e+01 3.4646367368876831e+01 1.1920629047903599e+03 4.6652257382228720e+02 6.2450402886754347e+01 -8.5157144503138227e+00 -6.3676687318319409e+00 3.3696744904263869e+02 -3.2576996337953915e+01 2.3326463208918540e+01 -1.4780631976336053e+01 -6.6900656819189396e+02 4.2690565849867710e+00 -1.3123467675855849e+01 5.1894306038431637e-01 -1.9155475746850792e+00 -3.9928725889834880e+01 -1.6198015428550718e+01 -4.0770724533635949e-01 2.7621125286786032e+00 -8.0189120546133893e+01 -5.9082851767670411e+02 2.0178428604043322e+01 -6.9015007810438025e+00 6.0950196103154042e+00 1.2982413150967311e+01 1.7638233073511998e+02 1.5047813625861142e+01 -3.6081918193382361e+00 -1.5446542884709828e+02 1.4477023262996957e+02 4.2125312429122161e+01 -1.2500010087185466e+01 -6.5202156784551548e+01 
      </Row>
      <Row Index="21">
        7.9051381815122213e-01 8.9139963415818102e+01 -1.3182159588468798e+01 -1.4861783510221716e-01 8.1150402802222672e+00 -5.0853479026142040e+01 1.0522176378730049e+02 1.7644141585673736e+01 -1.7920031976379507e+00 -3.4165125910784973e+00 -1.7840092849858962e+01 2.2713487743761576e+00 -6.1958199023588520e+01 -6.8039474078716168e+01 2.9849276467321317e+02 -8.0727562153526208e+01 8.2671023534729997e+00 9.5964705273525226e+00 4.2969375392201190e+00 4.0187151781423211e+01 1.4936958661188591e+01 6.6881991044554582e+01 -2.0552781455506619e+01 2.2233645631933996e+02 -2.0602378311078607e+02 -1.2274046970152696e+01 -5.5113923435721262e+00 -1.2075928951124766e+00 -9.0431242278898708e+01 -1.6309341280048990e+00 1.1280404747782502e+01 3.1931976142423551e+01 -1.6746884525713506e+02 -1.4591299663343048e+02 1.4933858510751321e+00 -6.5981044714685773e+00 1.3475287811335979e-01 1.2641703154018654e+01 -4.6285091531247282e+00 5.7768839915617454e+00 1.1759456463792738e+01 8.4632339040680833e+01 2.3042356923480574e+02 6.6636130943032512e-01 -2.5241239234643169e+00 4.1990742261702962e-01 -4.3773535176311649e+00 7.2717098437924630e+00 -2.3466467828469355e+01 -2.4846872154151825e+01 -4.0425727576244370e+01 -1.8890039256714953e+01 7.3047030498774248e+00 -2.8071852484693913e+00 7.4840585724795758e+00 
      </Row>
      <Row Index="22">
        4.0871005546287051e+00 2.1366035780447419e+01 -1.3668538121152798e+02 4.6385239051141873e+01 -2.2990039134726644e+02 -1.7301935847336131e+03 -4.8656081115427560e+02 7.0593650006390021e+01 1.6322263089213774e+01 -1.9424492296767312e+01 -2.7244669555217661e+02 -4.2254427070691236e+01 -1.1058236410463644e+02 -6.9963302641748010e+02 -1.3547325551645224e+03 -2.5955319524695369e+03 -6.6658670371254658e+00 -1.0319157807529791e+01 2.1758716310141260e+01 6.3237212957304291e+02 3.4646367370362867e+01 -2.0552781454166507e+01 1.0649993954954261e+03 2.7868445558611438e+03 3.7790655384788834e+03 -5.9454815354591574e+01 -3.0333453297658707e+01 -1.5136435301762958e+01 1.7281806375239103e+02 4.6222348881290145e+00 8.5702257481161723e+00 4.8673806427570162e+02 2.5627040857728980e+03 6.2904921764933886e+02 -8.3740629920745420e+00 1.1033910857495357e+01 -3.0072797408653913e+00 4.6988833626150580e+01 -4.7394993180816982e+01 2.0764292720411046e+01 6.3031482118435591e+01 -6.5129711540481776e+02 -5.1597444519872270e+03 3.2455857572254764e+01 3.8385090604926462e+00 1.0017688840435085e+01 -6.0222156494989916e+00 1.2272858199393568e+01 -1.2615979003846755e+02 -2.2134907294679488e+02 1.4648761717965766e+02 8.0052527985051643e+02 4.1383817682357432e+01 1.4035220874852389e+01 -4.6407712033853187e+02 
      </Row>
      <Row Index="23">
        -6.3095130633671943e+01 1.4505007010959089e+03 -2.2687287118663985e+03 -8.5823691536699300e+01 -3.5888036426159999e+02 -2.5063502431229452e+04 -1.3214111763973478e+03 6.6782543960240491e+02 1.3356524690186745e+01 -2.2861595443200349e+02 3.8213707615084859e+03 1.2384591121163267e+03 -1.5256227677809147e+02 -1.4592550141412805e+03 -2.1274305529583198e+04 -2.2254981800853406e+04 1.5612281675277023e+02 5.2456694365533622e+02 1.8194728251773108e+02 -6.8834351685069851e+03 1.1920629048076248e+03 2.2233645633318520e+02 2.7868445559276006e+03 6.6711401516595884e+04 3.1419812765303504e+04 -5.8661591797303481e+02 -5.4502135989716589e+02 -7.9194927250420733e+01 1.9160412951150211e+03 -7.2148748150597748e+02 3.3191283551677770e+00 1.2922524659215487e+03 3.7279783856189661e+03 -4.6323834498952351e+02 -1.1153764136995886e+02 -2.5222302173826392e+01 -5.5106594882712372e+00 -4.7588554730155784e+02 6.6912012760857033e+02 6.1697315775232958e+01 -3.2284820484653341e+02 8.0374951971550345e+03 -3.9395322835908279e+04 1.4090114409308768e+02 -1.1114522724215243e+02 8.9096187493023535e+01 5.1341725458564824e+01 2.5537895124997476e+03 -1.5795902568534473e+01 -4.7289464825822358e+02 -2.4557701221597304e+03 6.7734099195756098e+03 1.5720887161576093e+02 -5.3040311721459318e+01 -4.4154911797596014e+03 
      </Row>
      <Row Index="24">
        1.8752342732434045e+01 -6.3039941267673858e+03 -1.4699040580159160e+03 1.6778692892225811e+02 -3.2405539389456322e+02 -2.6653387299282487e+04 -3.9972949714913384e+03 3.8241990746755619e+00 1.1845369151023741e+02 -1.1733614819473587e+01 7.9328309027912328e+03 5.6924495261599077e+01 -2.1051001943410665e+02 -2.5612410907287381e+03 -1.6713376404161132e+04 -4.9099005010241235e+04 1.0414453494736489e+02 8.6665594353267807e+01 7.6593646544326475e+01 -3.4025196482911706e+03 4.6652257384788209e+02 -2.0602378306941682e+02 3.7790655386897270e+03 3.1419812765368268e+04 6.9101125980517871e+04 -1.0089080936937535e+02 -1.3913908084836294e+02 -7.1781277161266189e+01 5.7802657789993100e+03 2.1864346489131276e+02 -7.2994316990487278e+01 4.6801822104048915e+02 2.7801975714020686e+04 6.2225150361631731e+03 3.3136664325239667e+02 -5.0636996681954770e+01 -4.6060855747448217e+00 -1.7054500637786668e+03 -2.3575439787315190e+01 5.4589549964387523e+01 -1.9684119456025428e+01 -1.2726444026456854e+03 -8.9993512521843455e+04 3.0287259271965416e+02 3.5363337320005371e+01 -1.2428641518854420e+01 2.1559840277955189e+02 5.8226391588381557e+02 -3.2395912099412885e+02 -4.0445523446807078e+02 2.7851209784107587e+03 2.2019718780340831e+04 1.3812313950369065e+02 7.5690571747752529e+00 -1.6637396341794305e+04 
      </Row>
      <Row Index="25">
        -2.9793142391107033e+00 1.0689514683763264e+00 4.0764842121968783e+01 -7.6702631062357689e+00 1.0197254150126092e+01 5.8780997085145498e+02 1.7381079690865462e+01 -1.2199677749012275e+02 -2.5638005862141959e+00 2.2056033851734430e+01 2.2603538589111088e+02 -6.9910219402302332e+01 2.3623200599897594e+01 2.4662286775979553e+01 1.0294067631801201e+02 1.5331305129565669e+02 -9.3156775828109716e+01 -1.3177957731507483e+01 -1.9228352073081265e+01 -3.7029065709229360e+02 6.2450402887314560e+01 -1.2274046970319404e+01 -5.9454815353547019e+01 -5.8661591794876085e+02 -1.0089080932192945e+02 1.8253206317029213e+02 7.7723872671141905e+00 9.5396921168694746e+00 3.6963238187350407e+02 -4.3428931372427826e+00 -3.3267577240748949e+00 -5.2960701599129550e+01 -2.0254129620825506e+02 5.2166736121282504e+00 -2.6987052649279391e+01 -1.0968036391163594e+00 1.3550664215551085e+00 -6.0291662441147551e+01 6.1635379831399497e+01 1.8118495277207627e+00 -9.5715982334266503e+00 2.5278655952505289e+02 2.1334251388571772e+02 1.3162337787757643e+00 -1.2344831286449671e+00 -6.3342196932282846e+00 1.2669471445564586e+01 1.2620071414105206e+01 7.3239489704367315e+00 1.9883886125684292e+01 -1.2409347733844516e+01 -5.2646929844627053e+01 -5.4961699017830668e+01 2.1117652466934032e+00 1.5739286958077003e+01 
      </Row>
      <Row Index="26">
        5.2094494068885311e-01 -7.3269811344684967e+00 3.8487529718464344e+01 -1.8775019661903931e+00 2.2961326396229520e+00 1.2479753461668936e+02 -5.5547670070468387e+00 -5.5702114960833100e+00 -1.4290481029149607e+01 7.3658930717887472e-01 -3.2905871114852005e+01 -1.9415542843602694e+01 1.6002707693371505e+01 4.1898547093411764e+01 3.0242942786199819e+02 9.6517144555750860e+01 -2.5943874682063193e+00 7.5001365978028787e+00 6.2462464951856589e-02 6.4436961124734751e+01 -8.5157144502469055e+00 -5.5113923436457171e+00 -3.0333453297318300e+01 -5.4502135989249518e+02 -1.3913908083634516e+02 7.7723872671387824e+00 3.9688680327403901e+01 1.2583038196846417e+00 -1.2063276478113039e+01 9.4626398726830345e+00 -1.9186738536832877e+00 -1.5800256264298156e+01 8.0073357497580034e+01 1.8561616493703262e+01 1.2762985753773251e+00 -1.1554832986608261e+01 7.1043634932767635e-02 7.7841601513375771e+00 -8.4445977342268677e+00 -2.9066633795446473e+00 -4.0716511457899296e+00 -1.0226472623491658e+02 1.2739606266803020e+02 -3.1830809939492779e+00 2.8081200792500804e-01 -9.7979418561966725e-01 -7.4598867030436367e-01 -3.7553626335662116e+01 1.2743219973304249e+01 1.1366583759568686e+01 4.0944497418787137e+01 -2.6300561729677554e+01 -2.0179227027695532e+00 -1.1139443685447617e+01 1.4185718671881897e+01 
      </Row>
      <Row Index="27">
        8.6118054634487073e-01 9.8575684059319428e+00 1.1768369348403079e+01 -2.1283074816867664e+00 2.2928814941137650e+00 1.0710605136355002e+02 2.9378420914257958e+01 -2.3226908499313314e+01 1.4499010716803333e+00 8.7593833103305858e+00 1.0678591783896749e+01 2.2542782179819199e+00 6.0233516353784378e+00 1.6511685708981890e+01 -1.3677667807737771e+02 3.9568010723643468e+01 1.1621966580888873e+01 -3.8491440606085447e+00 3.0956890107755290e+00 8.6246342807868359e-02 -6.3676687317310297e+00 -1.2075928951401060e+00 -1.5136435301104711e+01 -7.9194927243815584e+01 -7.1781277146940283e+01 9.5396921168484958e+00 1.2583038196695284e+00 1.4730682158393751e+01 -5.4698590321499978e+00 8.0950637816703974e-01 9.8459895812811027e-01 -3.1787337294904106e+00 -9.0058194275158087e+01 -1.7801369136829951e+01 4.9674386162219761e+00 1.5423539984410315e+00 3.0489709184343403e+00 7.6353411902553714e-01 3.0058203195221864e+00 -4.7185870166712607e-02 -1.7016323744665911e+00 7.3073818203063865e+01 1.1064957181942007e+02 3.4991647862880160e-01 -7.2144995820712710e-02 -9.3157509196756720e+00 -4.3226119193596158e-01 -7.3377630948715646e+00 4.6235727928535955e+00 3.6639655134776543e+00 -3.9088230333965024e+00 -1.7741214994004281e+01 -8.7502706150657499e+00 1.2372471260417743e+00 4.1745763117941479e+00 
      </Row>
      <Row Index="28">
        2.0467122454038417e+01 -5.8144891941359965e+03 -6.4757885629310681e+02 -4.0581088290202686e+01 1.8767337296155311e+01 -1.0604855724275991e+04 -1.1497844310880091e+03 -9.5044164509617985e+01 -6.7642877310708855e+01 1.7233371896135623e+01 7.7322491434605909e+03 2.0740236078584985e+02 1.5767182982957524e+02 -6.7705864816578469e+01 6.4172093400270442e+03 -3.1356138041073027e+03 -3.3505030663399629e+02 1.7893655427137764e+02 -5.9145450234019336e+01 -6.6111594917774200e+03 3.3696744904562797e+02 -9.0431242276125431e+01 1.7281806374703046e+02 1.9160412950269388e+03 5.7802657789026634e+03 3.6963238187006982e+02 -1.2063276478659645e+01 -5.4698590329389845e+00 7.7215776160537207e+03 -1.1903016936353515e+02 6.8028944498792043e+00 -1.6878804710541590e+02 2.9870046094280033e+03 1.3725579604277050e+03 -3.1240170094329733e+02 -2.2214468889305863e+01 -9.1548356990717927e+00 -1.7364270282251146e+03 1.7763734648384639e+02 -1.6144357756070917e+01 1.5878983522299542e+01 -4.2624235549397035e+03 -8.3915614389034909e+03 5.7259280282991313e+01 5.5698759685887325e+00 1.4304598122554580e+01 3.0672774482873729e+02 7.1286643507439805e+02 7.8352504943949924e+01 5.6578188045605515e+01 1.2573100666974059e+02 1.5923982491653335e+03 -9.1775834520536989e+01 -5.2847028049193568e+01 -8.8364961091913278e+02 
      </Row>
      <Row Index="29">
        4.6462303138392258e-01 7.7111641021183459e+00 4.1023367100418064e+01 7.5835561231761661e-01 -1.1124515629250666e+01 2.9399392466215181e+02 -1.1977298826482400e+01 -2.0748173654076098e+01 -1.2678399864218193e+00 -3.3435133431395911e+00 -8.6268913399815119e+01 6.2048333331666754e+00 1.4809279187519451e+00 1.8484528683432814e+01 -1.5323720554648753e+02 -1.9309224975440293e+02 2.3620897477555687e+01 -4.9310830693335674e+00 1.2813453284620238e+00 2.2260324771570413e+02 -3.2576996338072334e+01 -1.6309341279306295e+00 4.6222348881690323e+00 -7.2148748151166615e+02 2.1864346487455629e+02 -4.3428931371685735e+00 9.4626398726930745e+00 8.0950637816090421e-01 -1.1903016936394670e+02 5.7138541911251991e+01 -3.6989048304728840e+00 1.6775402000725421e+01 1.9912627949043980e+02 5.9934951758174634e+01 2.6817908073359490e+01 -4.2616745132096412e-01 -2.3370594001703990e+00 2.2616419955416507e+01 9.8233194943450641e-01 -6.0031886408451829e+00 5.1396911864501877e+00 -1.8804514192236138e+02 -3.3566148440539354e+02 -3.6624456523425097e-01 3.7937412442903251e+00 -1.7523907804815622e+00 -5.6314267569972500e+00 -5.3981471653458485e+01 1.6901908983393021e-01 -7.5164878171201277e-01 8.4520648110554845e+01 7.8108076261510448e+01 -3.6499039852055164e+00 4.7019668736760289e-01 -6.3645151838447639e+01 
      </Row>
      <Row Index="30">
        1.2478418797291013e+00 -3.9248816880520280e+01 -1.5412207036421378e+01 -6.9535669577086905e+00 2.5734979341242870e+00 -2.0663082856960349e+02 -6.7652675612691652e+01 2.8070823674342972e+01 -3.8366304283575516e+00 5.4395880800319176e+00 -2.1128416955868317e+01 -2.0863152589442805e+01 7.7075928571066612e+00 -3.3597399580581268e+01 4.1495252078732125e+02 1.0662433613903903e+02 -8.5463535064708118e+00 1.0021281638741243e+01 -1.2918513400939489e+00 2.1512932837039898e+01 2.3326463209032866e+01 1.1280404747793838e+01 8.5702257483058872e+00 3.3191283564021923e+00 -7.2994316976860745e+01 -3.3267577241398669e+00 -1.9186738537151129e+00 9.8459895811612341e-01 6.8028944503957973e+00 -3.6989048304207799e+00 2.2363676062540705e+01 -2.0925928702800178e+01 -2.3068223122065007e+01 2.7905160583606261e+01 3.1105866246312246e+00 9.2707432724936467e-01 4.6973919387108853e-01 -7.5063584428081720e-01 -2.7659253101254642e+01 -8.9466202466185774e-01 8.2875536587388261e+00 -1.7735703293003539e+02 6.3428832181974037e+01 1.0346030115407809e+00 -1.9892261114490362e-01 -1.4300768690920123e+00 1.1026151469679755e+00 -1.0803525326260672e+00 1.3041618347155492e+01 -1.7583953890728772e+00 -8.7692080160810626e+00 -1.1332427624401483e+01 1.3092678291665196e+01 -2.4621090793959404e+00 1.7656331982667048e+01 
      </Row>
      <Row Index="31">
        3.4006261991391469e+00 1.2208548592434477e+02 -3.7650923956882593e+01 3.1500862591797677e+01 -1.7442567085883957e+02 -2.7550719241980750e+02 -1.7004713502846826e+01 1.5035204674891300e+00 1.2735658811799997e+01 -2.2493969764235967e+01 -6.1144890395283369e+01 3.4871808210407892e+01 -1.1980741888016598e+02 -2.8191756035310345e+02 -9.6581785118946016e+02 -5.3071336852578986e+02 4.0986191283813156e+01 -1.3095584208904871e+01 1.6336301761903034e+01 1.4601835176317726e+02 -1.4780631976977450e+01 3.1931976142450921e+01 4.8673806427013818e+02 1.2922524658666216e+03 4.6801822086290656e+02 -5.2960701598448459e+01 -1.5800256264115596e+01 -3.1787337294985321e+00 -1.6878804710981672e+02 1.6775402000263501e+01 -2.0925928702725955e+01 4.2707660909270516e+02 8.7945028831705497e+02 8.4982666683905322e+01 -1.4358625150670235e+01 -1.4068527146422234e+00 -2.8694549534432361e+00 1.7547858372369539e+01 1.2624610848992901e+01 1.1896573556295870e+01 2.9983647596395851e+01 -6.9381110290043523e+01 -6.3501188714728323e+02 9.7016144028994997e+00 -3.8651659431122631e-01 4.9612935553655504e+00 -7.0485231048292611e+00 9.2612263017886498e-02 -1.0246331959698777e+02 -1.5106994358731151e+02 -7.3031354669971265e+00 3.4090914766505918e+01 5.1316270509154522e+00 8.0516641240687665e+00 9.2709692925585312e+00 
      </Row>
      <Row Index="32">
        -1.4972725487543357e+01 -5.2039001937012654e+03 1.2881604887097942e+02 4.5294890413322946e+01 -6.5179097726373288e+02 -9.3055240294601444e+03 -1.8176563475276655e+03 -1.0063195891637406e+02 6.6493364783384095e+01 -4.1337768292833061e+01 5.0513528692269028e+03 -2.1997222162117760e+02 5.4118417938048879e+01 -1.1825849198077849e+03 -4.1245274777743080e+03 -2.0040335225652088e+04 1.5061793356556154e+02 -1.1881392821159534e+02 7.7484969683620875e+01 -1.9886512869035942e+03 -6.6900656817467882e+02 -1.6746884524619963e+02 2.5627040858363034e+03 3.7279783856099239e+03 2.7801975713987369e+04 -2.0254129622281835e+02 8.0073357493078220e+01 -9.0058194280565658e+01 2.9870046095168218e+03 1.9912627949467969e+02 -2.3068223124857468e+01 8.7945028836797428e+02 2.2040982951330752e+04 3.7985374703135894e+03 8.5429833761452755e+01 -6.5895018139372041e+01 -5.5048514912226381e+00 -1.1061139170761739e+03 -3.6563559080180585e+02 1.9768597941819346e+00 2.2013034129003330e+01 -5.4040912004672482e+03 -3.8481050739717619e+04 6.8088277164215668e+01 7.1278726245161451e+01 3.4194884528631519e+01 1.5587536873762758e+02 -6.8590523850246200e+02 -8.2533937880822918e+01 -3.5415019690715786e+02 2.2515852304904461e+03 7.0730262742781897e+03 5.4004227929833121e+01 1.1849843318205785e+01 -4.7736282268599234e+03 
      </Row>
      <Row Index="33">
        2.0151052379339490e+01 -1.5195816439039772e+03 -1.2766364401082740e+02 1.6249133873354253e+01 -1.5977607320852289e+02 -3.5130657110480033e+03 -1.2216163500044015e+03 9.7057399629793508e+01 -1.6807619588937541e+01 2.8440305747107232e+01 1.2729322715744493e+03 -1.3743042422081317e+02 1.0438283921869515e+02 -2.6489074014654034e+02 1.0284091853091077e+03 -3.4973000695541486e+03 -1.0020881666409878e+02 2.2651189793131380e+01 -3.8466088809603207e+01 -6.5514848371528205e+02 4.2690565870055650e+00 -1.4591299662964411e+02 6.2904921765916879e+02 -4.6323834505226114e+02 6.2225150360345469e+03 5.2166736087901882e+00 1.8561616492779649e+01 -1.7801369137949223e+01 1.3725579604277445e+03 5.9934951759222713e+01 2.7905160582362441e+01 8.4982666698026151e+01 3.7985374702551671e+03 1.7765178506437060e+03 -7.6137822527925891e+00 6.0183476639449509e+00 -4.0311070776743385e+00 -3.3562247531479471e+02 -1.1895929551625295e+02 -1.6460022713139224e+01 8.0793669006954062e+01 -3.0919071469629994e+03 -8.5527401009534551e+03 3.5002363934790537e+01 2.0898803932051131e+01 4.9223403360638258e+00 6.1025029030158741e+01 -4.9172185366534677e+01 1.7818504568452823e+01 -5.3749538892643471e+01 5.7926516220746839e+02 2.0579919110332871e+03 5.7421375858364740e+01 -7.6520982788345435e+00 -1.4437585679615663e+03 
      </Row>
      <Row Index="34">
        -1.1379439007136710e+01 7.7522361917035596e+00 1.0224929464057055e+01 -2.3591592773459027e+00 -1.0427357361114264e+00 2.9442343177373601e+01 1.9749655709740864e+01 -7.4851066167157256e+00 3.5327399121709391e+00 6.6986389530667907e+00 -3.3489833755764084e+02 1.2116949012284238e+01 -1.5032641227026318e+00 4.3181908672769964e+00 -1.5837032340633766e+02 -2.9242535932594205e+02 6.0349383399566705e+01 -6.5970993265142397e+00 1.0671684468836645e+01 5.0594818582361040e+02 -1.3123467675771913e+01 1.4933858512516736e+00 -8.3740629902476940e+00 -1.1153764136571954e+02 3.3136664326566273e+02 -2.6987052649512691e+01 1.2762985753204248e+00 4.9674386161505026e+00 -3.1240170094210953e+02 2.6817908073517486e+01 3.1105866245541733e+00 -1.4358625149658337e+01 8.5429833767568027e+01 -7.6137822508675299e+00 8.3517020336094333e+01 4.5775833158474768e+00 2.7898019732237542e+00 6.5568888645883462e+01 -7.3224200077609112e+00 -1.2807541288898572e-01 6.4136156158510715e-01 8.4550859423220842e+01 -4.2781835741345435e+02 -3.1661799388851364e-01 2.6156150556402302e-01 -8.1319784589417736e+00 -1.2693425757723714e+01 -1.9365108405010638e+01 4.4911809177729545e-01 3.4579260720337004e+00 3.3385457975795205e+01 9.9640021611482425e+01 6.5728638452712804e+00 2.6736727556928184e+00 -8.1235590699997289e+01 
      </Row>
      <Row Index="35">
        -6.1077875196441411e-01 6.6138690390275769e+00 -5.2648139094922364e+00 2.0981597076609813e+00 -4.1973832027023672e+00 1.0221807017892108e+02 9.7747344482305891e+00 2.0190968553617239e-01 9.1225120470448502e+00 1.4699297995818128e+00 -3.1659598386933027e+01 7.8460002431799865e+00 -1.0657383704883898e+00 -1.2572370365409000e+00 -2.0289054739042808e+02 3.2181139899483696e+01 4.6055647960882737e+00 -1.5633975509873650e+01 1.1055557604410993e-01 5.0280895631247745e+01 5.1894306042314975e-01 -6.5981044714870265e+00 1.1033910857719547e+01 -2.5222302170841658e+01 -5.0636996672831891e+01 -1.0968036390831628e+00 -1.1554832986620916e+01 1.5423539984444261e+00 -2.2214468888942065e+01 -4.2616745129924283e-01 9.2707432723337035e-01 -1.4068527146812357e+00 -6.5895018136920925e+01 6.0183476645721754e+00 4.5775833159023165e+00 1.2221473837743169e+01 9.3693171204324077e-02 9.1152571878814506e+00 -3.3562001456693924e+00 -1.5829935297431497e-01 2.0742505436166288e+00 5.1245243740318443e+01 7.7914712912111611e+01 3.9619222052095537e-01 5.2613191598659426e-01 -1.0936628580652652e+00 -1.1487211997882871e+00 2.3264734891498460e+00 -2.3345252301709061e+00 -1.1930878958950453e+00 -1.1179028288311219e+01 -1.4332764390615447e+01 1.0758650745866301e+00 8.3447513581711661e+00 1.0461907019704983e+01 
      </Row>
      <Row Index="36">
        -2.0638336894354214e-01 5.4008075582808317e+00 2.9614736949647096e+00 -1.0394922519537224e+00 1.5031945896599854e+00 1.3475276032811706e+01 3.8713306223159831e+00 -3.1443662533489372e+00 -6.0658179709956794e-02 2.5333866439439596e+00 -1.1992747950908587e+01 -3.6580938002637708e+00 9.4737032429785473e-01 4.0318346098165581e-01 8.8240857201519818e-01 1.1183703669658911e+00 1.7556632435983799e+00 -3.0370954968646480e-01 1.2173606098331227e+00 3.8218769787866762e+00 -1.9155475746624719e+00 1.3475287811368686e-01 -3.0072797407407741e+00 -5.5106594873706882e+00 -4.6060855733042345e+00 1.3550664215416681e+00 7.1043634929358834e-02 3.0489709184317073e+00 -9.1548356989626996e+00 -2.3370594001718570e+00 4.6973919387483321e-01 -2.8694549534181366e+00 -5.5048514905292976e+00 -4.0311070775401987e+00 2.7898019732290180e+00 9.3693171203584669e-02 1.4151321395497809e+00 1.1614500008025699e+00 6.6076954710351021e-02 5.8395452493740529e-01 -3.3838410174373434e-01 1.1748781608713813e+01 7.2088104554760015e+00 -1.9897024715502276e-01 -2.1466362319199173e-02 -2.1704414744036251e+00 -2.5698650719295568e-01 -1.7011589186149456e+00 6.5641757760408903e-01 8.3968524366621455e-01 -1.2373461743688452e-01 -8.7730895375663731e-01 -1.1453327612620288e+00 8.7328151219570049e-02 -8.7681821794192738e-01 
      </Row>
      <Row Index="37">
        -3.4017114852167651e+00 1.6974738723033661e+03 1.6274682601422899e+02 8.1443862392183064e+00 4.2055811723643330e+01 3.1141353756390408e+03 2.5280141471226443e+02 1.4669574353353255e+01 1.3217991829553739e+01 -9.0367337750329852e+00 -2.2951510700375820e+03 -8.3764140341246502e+01 -3.0527439409315662e+01 -5.7266123921605413e+01 -1.7946778083317340e+03 1.0053087457335178e+03 6.5284302230154481e+01 -4.0947053402441952e+01 1.7993692511928657e+01 2.2588205731586713e+03 -3.9928725890769378e+01 1.2641703153143453e+01 4.6988833624868676e+01 -4.7588554729166208e+02 -1.7054500637899203e+03 -6.0291662439984293e+01 7.7841601515749517e+00 7.6353411929676440e-01 -1.7364270282267244e+03 2.2616419955118545e+01 -7.5063584403733330e-01 1.7547858370166068e+01 -1.1061139170661372e+03 -3.3562247531829098e+02 6.5568888646047981e+01 9.1152571880254527e+00 1.1614500008313640e+00 6.7134064707117898e+02 -3.4494842705667509e+01 5.5939575545982656e-01 6.6915000158231983e+00 8.8904496564218141e+02 2.3826765597553372e+03 -2.5836459648051004e+00 -1.1713601555624829e+00 -2.2792204507402403e+00 -8.7582189464713480e+01 -1.8543492057920454e+02 -1.6299519636263987e+01 -1.7464380846164524e+01 -6.6097709120831951e+01 -4.9406495630277573e+02 1.7969762426128362e+01 1.2587980548934496e+01 3.0700570307434270e+02 
      </Row>
      <Row Index="38">
        -5.9164696295403765e+00 2.4610039982198941e+01 1.8428231045261523e+01 -9.8397197779175354e+00 3.0914071252698861e+01 -1.4370704816621775e+01 1.9698683804236751e+02 -1.5922592641320168e+02 -6.7086114400322394e+00 -6.9792499365922147e+00 5.0994087548494065e+01 4.5280665742515104e+01 6.6681962442043030e-01 3.8526653888281587e+01 -2.3573100778208845e+02 -1.1424856109538763e+02 -1.6670693167011876e+01 -3.1602939888029340e+00 2.2627297697197370e+00 -2.1631938619123594e+02 -1.6198015428795468e+01 -4.6285091532477978e+00 -4.7394993181966612e+01 6.6912012761435835e+02 -2.3575439785602370e+01 6.1635379831470317e+01 -8.4445977340467735e+00 3.0058203196275599e+00 1.7763734648288801e+02 9.8233194934807244e-01 -2.7659253101152999e+01 1.2624610847994433e+01 -3.6563559080026175e+02 -1.1895929551699966e+02 -7.3224200076395789e+00 -3.3562001457342561e+00 6.6076954742889660e-02 -3.4494842705534865e+01 1.7805370337582406e+02 5.2546611596710191e-01 -1.2085441243811921e+01 5.0063531678359840e+02 1.2496386404374584e+02 -5.9080056987858889e+00 -5.9843592380363502e+00 -1.1645781649349374e-02 4.6468194906141544e+00 1.1259918695137959e+02 -1.5194847491860411e+01 7.4849070892988863e+00 -6.3587659593089995e+01 -3.1182082487050316e+01 -7.6399541645294363e+01 2.7516582959401354e+00 -1.3531741612306368e+01 
      </Row>
      <Row Index="39">
        -7.5687805252876927e-01 2.4209017512149785e+01 -2.0757137105296599e+00 4.1848432376711049e+00 -5.5325057331191729e-01 1.2549969771280235e+01 1.5846449988984460e+01 -4.7054869999038118e-01 5.8798622855886862e-01 1.4990652503248114e+00 -2.6194132566166616e+01 -8.7083715597552285e+00 -1.5946740231212370e+01 -4.3063423285352691e+01 -2.2670894825117500e+01 -5.8579200695088275e+01 -3.5921650009758963e+00 6.9625906272761284e-01 2.3890610681008795e-01 1.0519028894150949e+01 -4.0770724541524173e-01 5.7768839915897416e+00 2.0764292720116714e+01 6.1697315771013564e+01 5.4589549946703421e+01 1.8118495277475049e+00 -2.9066633795342725e+00 -4.7185870176079447e-02 -1.6144357756616273e+01 -6.0031886408872168e+00 -8.9466202466866207e-01 1.1896573556461163e+01 1.9768597895023277e+00 -1.6460022714560665e+01 -1.2807541299656577e-01 -1.5829935298022235e-01 5.8395452493449618e-01 5.5939575573530931e-01 5.2546611606204152e-01 5.8336659026727089e+00 -6.1708790745233877e-01 5.1763968528911988e+01 -6.1414397310933438e+01 1.0104400065304162e+00 -6.7241161538324490e-02 -1.8680076459375883e-01 -7.2675765371349166e-01 2.8294056275656567e+00 -1.4073925623695065e+01 -9.8323392263663791e+00 -1.9247048260205930e+00 1.4522931121774601e+01 -3.2715447857989083e-01 5.9124772440415096e-01 -1.1873583701723195e+01 
      </Row>
      <Row Index="40">
        2.2214752210723745e+00 -2.1273360688255707e+00 -1.5299551754619021e+01 4.4496310925316234e+00 -9.8012598182225084e+00 -8.3732693820145130e+01 -5.3000082984601249e+01 1.8976118906680949e+01 7.3278785691600845e-01 -9.4360775395699648e-01 -9.8830274376628950e+01 -2.2600823285369920e+00 -2.7230747690580941e+01 -6.6300186089491945e+01 2.8468929082964769e+02 -5.4049182588186682e+00 -7.2147849721997659e-01 -1.0751777728926015e+00 2.4163383514078163e-01 1.6696885255117024e+02 2.7621125283509143e+00 1.1759456463797893e+01 6.3031482116597630e+01 -3.2284820486294825e+02 -1.9684119499135491e+01 -9.5715982331781539e+00 -4.0716511457287297e+00 -1.7016323744333448e+00 1.5878983519870189e+01 5.1396911863527635e+00 8.2875536587175560e+00 2.9983647596247806e+01 2.2013034114625270e+01 8.0793669003094763e+01 6.4136156137040246e-01 2.0742505436420196e+00 -3.3838410174571898e-01 6.6915000166282255e+00 -1.2085441243500139e+01 -6.1708790748896147e-01 2.9177178299751571e+01 -2.2091237364231159e+02 -1.7869097509232176e+01 3.2884898828464166e+00 -3.4483074427570237e-01 7.3782815116799227e-01 -1.3078463112196690e+00 -4.6898598410164407e+00 -1.8642725886746408e+01 -2.2459655755973948e+01 2.3064883829396241e+01 1.8680619109630374e+00 9.5934689916001439e+00 1.8695813760894318e+00 1.0500741908474604e+01 
      </Row>
      <Row Index="41">
        -5.9897781489784506e+01 5.5699950505451452e+03 3.6555408652620787e+02 4.4682466252436427e+01 2.3578243743086739e+02 1.0171860120726202e+04 3.4099339734518126e+03 -6.6594342597851960e+02 2.4076512084754918e+02 1.0560603610450755e+01 -4.1487811336544601e+03 4.2641288159000885e+02 -2.6662752023094765e+02 2.3949541542408468e+02 -1.4958074527325016e+04 -1.5550537121007619e+03 2.4438402370297797e+02 -4.3432911517399759e+02 5.5038124646032628e+01 2.2012043397382158e+03 -8.0189120542164289e+01 8.4632339039656472e+01 -6.5129711535312663e+02 8.0374951975993899e+03 -1.2726444017776644e+03 2.5278655952225085e+02 -1.0226472623601944e+02 7.3073818202527264e+01 -4.2624235548859651e+03 -1.8804514192030058e+02 -1.7735703293015183e+02 -6.9381110282155078e+01 -5.4040912001020524e+03 -3.0919071468917523e+03 8.4550859427915839e+01 5.1245243739433647e+01 1.1748781608807178e+01 8.8904496562588486e+02 5.0063531678071183e+02 5.1763968529869480e+01 -2.2091237364328191e+02 1.3906846613169650e+04 4.2730055774931025e+03 -2.4230735904629512e+01 -7.4568658063353240e+01 -5.2237122612536041e+01 -2.1046428560043535e+02 4.8320873700969500e+01 -2.1944780648897148e+02 4.7851151816077106e+01 -1.0341361789422540e+03 -7.1022330879086155e+02 -2.9702073169701885e+02 1.4612418754287387e+02 -1.0658819066188732e+02 
      </Row>
      <Row Index="42">
        -3.7368462194339372e+01 9.4526823503114283e+03 1.9356427029535257e+03 -2.1359511196592939e+02 4.7340298092995363e+02 3.6961366437427801e+04 5.5226432065134868e+03 -9.8721231999748852e+01 -1.2119201287889155e+02 2.8798278073896654e+01 -1.1502653140319977e+04 2.3941601431521121e+01 2.7335114707937464e+02 3.4647299721210147e+03 1.9118810433040373e+04 6.4048976277735084e+04 -1.2182949278154410e+02 -1.3671721817844082e+02 -1.1015542258991627e+02 4.8831338959047571e+03 -5.9082851802142432e+02 2.3042356958560413e+02 -5.1597444501847494e+03 -3.9395322832041420e+04 -8.9993512509071501e+04 2.1334251369675621e+02 1.2739606262778398e+02 1.1064957179641351e+02 -8.3915614414624870e+03 -3.3566148421866819e+02 6.3428831983124837e+01 -6.3501188577548601e+02 -3.8481050735776313e+04 -8.5527401003462728e+03 -4.2781835735193454e+02 7.7914712842029985e+01 7.2088104648573790e+00 2.3826765604981920e+03 1.2496386406391684e+02 -6.1414397129163262e+01 -1.7869097306509502e+01 4.2730055787671845e+03 1.7292466999979597e+05 -3.9646306365044438e+02 -5.9591919675214740e+01 6.9013228893745691e+00 -3.1944240636688454e+02 -6.8954893653102044e+02 3.9550707461890363e+02 5.5146964205328641e+02 -3.9494821927835837e+03 1.3138023487679765e+05 -2.2895231561892766e+02 1.0282684450008446e+01 -1.3864158328648587e+05 
      </Row>
      <Row Index="43">
        5.9757952228036970e-01 9.8833757388638332e-01 -5.3662130828993753e+01 1.7636125811546499e+00 -5.4248270683024131e+00 -1.7169816507491228e+02 -2.8946721844306126e+01 1.7940204776863069e+01 -1.5011370440981864e+00 3.9095085947967334e-01 1.8666335414695368e+01 1.4909264958948540e+00 -7.2056366924561814e+00 -2.9182673242387438e+01 8.1670749131211096e+01 -1.9551385890979327e+02 7.7983757773849902e+00 6.0520609417820310e+00 -9.9997103131751430e-01 -3.2583478064312430e+01 2.0178428603902052e+01 6.6636130959795992e-01 3.2455857571290608e+01 1.4090114407855208e+02 3.0287259267910997e+02 1.3162337787044294e+00 -3.1830809939324354e+00 3.4991647860283592e-01 5.7259280281010433e+01 -3.6624456528349469e-01 1.0346030115139229e+00 9.7016144033671026e+00 6.8088277150748127e+01 3.5002363931737079e+01 -3.1661799412245273e-01 3.9619222050978919e-01 -1.9897024716198786e-01 -2.5836459640074736e+00 -5.9080056986727243e+00 1.0104400065512245e+00 3.2884898830109250e+00 -2.4230735907719826e+01 -3.9646306387579602e+02 1.6918390527246487e+01 3.6381353888305945e-01 -4.8685472187074197e-01 1.7522651348061089e+00 9.6386212087805845e+00 -6.7144172573400942e+00 -7.3816071052413355e+00 1.0739877436765154e+01 7.8851565756097912e+01 1.0430853270811369e+01 -4.5789570245763278e-01 -5.0160127195770130e+01 
      </Row>
      <Row Index="44">
        1.6784748967815588e-01 -1.4959310261686369e+01 4.5886113761795322e+00 1.3483584152983719e-01 -1.3504251001501526e+00 2.8014868174566178e+01 -1.6025823952977618e+01 2.6168013885003898e+00 -1.2917403054651544e-01 3.3494277901470859e-01 1.0078434894329462e+01 -3.8930989377257177e+00 3.2482234879725134e+00 4.3539220782768595e-01 -2.6614493395261718e+00 -9.9939114127183046e+00 2.9000655766866146e-01 -2.9729840363667037e-01 -2.9088942463626033e-01 1.8656817133845323e+00 -6.9015007810324871e+00 -2.5241239234516186e+00 3.8385090604104306e+00 -1.1114522724376184e+02 3.5363337316190957e+01 -1.2344831286365583e+00 2.8081200792138716e-01 -7.2144995824508840e-02 5.5698759685251389e+00 3.7937412442810583e+00 -1.9892261114920728e-01 -3.8651659425869411e-01 7.1278726243746007e+01 2.0898803931817298e+01 2.6156150552920110e-01 5.2613191598823406e-01 -2.1466362320356147e-02 -1.1713601555139590e+00 -5.9843592380272268e+00 -6.7241161534187466e-02 -3.4483074425340376e-01 -7.4568658063758079e+01 -5.9591919690234050e+01 3.6381353888738310e-01 1.5829124737114089e+00 2.6354118015706973e-02 3.2084657363986491e-01 -1.0080585038459777e+01 1.5268911472624971e+00 6.0700215213146258e-01 1.4564347241726054e+01 1.1779211305780361e+01 1.5812672798287419e+00 2.9383368525239950e-01 -6.5721963283489933e+00 
      </Row>
      <Row Index="45">
        -2.3365253948627185e-01 1.0829958675290072e+00 -9.0789882630258560e+00 7.0483778977819966e-01 -1.4122105942090180e-02 -7.2265240263110087e+01 -2.2053234150037767e+01 1.6405931630702643e+01 -1.3804494016895852e+00 -7.1701773600803875e+00 -6.3315610851668680e-01 4.8175290706770468e-01 -2.5550955697848217e+00 -8.1056030354519102e+00 8.7414437040873992e+01 2.1827473701436531e+01 -9.0316054007540316e+00 3.8222333164289140e+00 -1.8561974300690380e+00 -2.0648830192274147e+01 6.0950196102167657e+00 4.1990742260547620e-01 1.0017688839743244e+01 8.9096187488113287e+01 -1.2428641529504901e+01 -6.3342196931771966e+00 -9.7979418559710041e-01 -9.3157509196621930e+00 1.4304598121827667e+01 -1.7523907805032053e+00 -1.4300768690868608e+00 4.9612935551973294e+00 3.4194884524534814e+01 4.9223403350964645e+00 -8.1319784589806829e+00 -1.0936628580549055e+00 -2.1704414744039653e+00 -2.2792204505372524e+00 -1.1645781575557734e-02 -1.8680076461685147e-01 7.3782815115315259e-01 -5.2237122612107136e+01 6.9013228874463479e+00 -4.8685472192704538e-01 2.6354118009011440e-02 6.7714052270005922e+00 6.6811763591849260e-01 8.0810288710390399e+00 -2.1255862526064409e+00 -2.3653646815580975e+00 -4.1293087694296062e+00 -6.3664113159013729e+00 5.3484038751086764e+00 -1.1759967364022321e+00 1.1125587197646695e+01 
      </Row>
      <Row Index="46">
        1.1546086143303143e+00 -2.8871107054368076e+02 -2.7323184444699102e+01 -2.5807202429987441e+00 -4.6129458479873406e+00 -4.8077973722901652e+02 -5.1798240940054029e+01 -8.2392267737931491e-01 -2.9313020626201194e+00 1.4834360239846376e+00 3.8626895789487662e+02 8.0451736465240202e+00 8.9087906378930910e+00 8.6966434461325406e+00 3.2356278523176923e+02 -1.0223417539079469e+02 -1.3492090263205171e+01 8.3692078813365640e+00 -3.6978814741950004e+00 -3.6910229696028500e+02 1.2982413151063437e+01 -4.3773535175184151e+00 -6.0222156498530239e+00 5.1341725453921754e+01 2.1559840277435700e+02 1.2669471445431327e+01 -7.4598867032344174e-01 -4.3226119196276613e-01 3.0672774482845580e+02 -5.6314267569852348e+00 1.1026151469456238e+00 -7.0485231046876606e+00 1.5587536873325053e+02 6.1025029030005271e+01 -1.2693425757773412e+01 -1.1487211997980182e+00 -2.5698650719674276e-01 -8.7582189464585042e+01 4.6468194906460951e+00 -7.2675765369260503e-01 -1.3078463111239103e+00 -2.1046428560225888e+02 -3.1944240624366796e+02 1.7522651348749321e+00 3.2084657364091829e-01 6.6811763594513707e-01 1.5017388249620312e+01 2.9107850179837598e+01 4.9334872322646586e+00 4.1671258323016520e+00 6.9931230936866626e+00 6.4073357209689476e+01 -2.2397532634112025e+00 -2.5816663131484194e+00 -3.4841964418906841e+01 
      </Row>
      <Row Index="47">
        -4.1195426057105919e+00 -4.5050433105621050e+02 -2.6419684400397193e+02 -8.2295235625627328e+00 2.6347088993448160e+01 -2.4825767039253715e+03 -1.6545828343463825e+02 -5.3708277137459959e+00 -1.4510529516554442e+01 -1.4800201916103774e+01 5.4560500986543093e+02 1.0267222503380620e+02 -2.8922872279138119e+00 -3.6836884209353627e+01 1.0725280983554303e+03 -2.6931453213463692e+02 -2.0645773073318253e+01 5.3159419813832017e+01 3.1394032403942305e+00 -6.2229506425010732e+02 1.7638233073480109e+02 7.2717098442507222e+00 1.2272858196218067e+01 2.5537895124758870e+03 5.8226391584861426e+02 1.2620071413553461e+01 -3.7553626335565639e+01 -7.3377630948948536e+00 7.1286643506973087e+02 -5.3981471653362178e+01 -1.0803525326659269e+00 9.2612262864349759e-02 -6.8590523852413162e+02 -4.9172185369619115e+01 -1.9365108405031833e+01 2.3264734890796603e+00 -1.7011589186167271e+00 -1.8543492057792440e+02 1.1259918695168557e+02 2.8294056275545678e+00 -4.6898598408448606e+00 4.8320873697965276e+01 -6.8954893602238644e+02 9.6386212088112728e+00 -1.0080585038477651e+01 8.0810288710916609e+00 2.9107850179689272e+01 3.2108730329825778e+02 -1.3327459698558428e+00 -1.2412362029950401e+00 -2.0036238757827292e+02 1.3992895529607060e+02 -9.7156326836267937e+00 -8.3887321334156795e+00 -6.1382823510098220e+01 
      </Row>
      <Row Index="48">
        -1.2673381521813667e+00 -9.1738094646567333e+01 1.3382152058631810e+01 -2.4354261516227954e+01 2.8081277491520396e+01 -1.7673142092226317e+02 -9.7623849181155947e+01 9.6379909874353444e+00 -1.0599281619359317e+01 4.3491259610013628e+00 9.8138133005728832e+01 -8.5631960982584872e+00 8.9573860111878957e+01 1.6391594360016421e+02 3.8858968482363525e+02 4.1307338793383246e+02 -5.2831992967452948e+00 1.4670360109098397e+01 -1.6134844858676161e+00 -1.3542117464571811e+02 1.5047813626488470e+01 -2.3466467828607961e+01 -1.2615979003627626e+02 -1.5795902540538918e+01 -3.2395912089089302e+02 7.3239489701346088e+00 1.2743219973211950e+01 4.6235727928658434e+00 7.8352504947950365e+01 1.6901909004812410e-01 1.3041618347228280e+01 -1.0246331959777422e+02 -8.2533937852400413e+01 1.7818504577009435e+01 4.4911809237362377e-01 -2.3345252301462551e+00 6.5641757761362385e-01 -1.6299519638024549e+01 -1.5194847492547893e+01 -1.4073925623690194e+01 -1.8642725886910455e+01 -2.1944780648537386e+02 3.9550707558150594e+02 -6.7144172571783116e+00 1.5268911472901774e+00 -2.1255862527103773e+00 4.9334872324215429e+00 -1.3327459697438826e+00 7.5734095655117983e+01 5.5698449380294832e+01 -1.8531096048381073e+01 -8.7560182529910136e+01 1.7473503310213516e+00 -8.3307456696964906e+00 6.8944709918724385e+01 
      </Row>
      <Row Index="49">
        -2.0738763145527344e+00 -6.8740131204473073e+01 2.9743304028334798e+01 -1.6213156875430673e+01 5.8261328705636501e+01 1.8691277300562888e+02 1.9719032177762983e+01 -1.6544766326977580e+01 -5.4702153421188484e+00 5.7230689471624601e+00 1.0970111781234687e+02 2.7026450109796514e+00 6.9111667908794999e+01 1.9054995494347492e+02 2.1946820667084910e+02 3.8598528518819694e+02 -5.2474565405932481e+00 3.3328203850059026e+00 -5.0020554723732147e+00 -1.6739442074595991e+02 -3.6081918190491828e+00 -2.4846872154295369e+01 -2.2134907294465836e+02 -4.7289464823052094e+02 -4.0445523437839148e+02 1.9883886125492012e+01 1.1366583759521262e+01 3.6639655135260227e+00 5.6578188047834374e+01 -7.5164878153930204e-01 -1.7583953890496105e+00 -1.5106994358790405e+02 -3.5415019688124812e+02 -5.3749538885811489e+01 3.4579260725802783e+00 -1.1930878958897608e+00 8.3968524368471975e-01 -1.7464380847380426e+01 7.4849070887752589e+00 -9.8323392263448159e+00 -2.2459655756187800e+01 4.7851151822131328e+01 5.5146964277817904e+02 -7.3816071051276708e+00 6.0700215214855646e-01 -2.3653646816756293e+00 4.1671258323729496e+00 -1.2412362031568485e+00 5.5698449380266169e+01 7.0806264264378910e+01 -8.1002179436923427e+00 -8.1744075241804779e+01 -9.8602454523894494e+00 -4.3785448086351586e+00 4.2746794059519601e+01 
      </Row>
      <Row Index="50">
        5.8530634814637779e+00 -4.7185708836185222e+02 1.0279083709351397e+02 1.8531904524180959e+01 -2.9903759930853653e+01 -6.1008198942039598e+01 -2.1879709905420168e+02 -3.8899020410613844e+01 -7.1247842262996528e+00 9.1865359028834064e+00 2.0381187095582027e+02 -7.7480991952985050e+01 5.7862075454850128e+00 -8.0979715087199111e+01 1.8588181155684470e+02 -1.9576345650026906e+03 1.9548021966292254e+01 -9.6558563691810377e+00 -2.4218440320130412e+00 2.6746241101459236e+02 -1.5446542884601209e+02 -4.0425727575106066e+01 1.4648761718472451e+02 -2.4557701221776006e+03 2.7851209783509626e+03 -1.2409347734864241e+01 4.0944497418426181e+01 -3.9088230338538779e+00 1.2573100667422113e+02 8.4520648110824595e+01 -8.7692080164792969e+00 -7.3031354614031443e+00 2.2515852304735599e+03 5.7926516220797657e+02 3.3385457974804922e+01 -1.1179028288558357e+01 -1.2373461749336911e-01 -6.6097709120357649e+01 -6.3587659592903151e+01 -1.9247048255066090e+00 2.3064883830859799e+01 -1.0341361789754990e+03 -3.9494821936605813e+03 1.0739877437969199e+01 1.4564347241844729e+01 -4.1293087690235097e+00 6.9931230939323257e+00 -2.0036238757673533e+02 -1.8531096051388317e+01 -8.1002179463355901e+00 4.5708336163772378e+02 7.9343075289807200e+02 3.4651524231542226e+00 -3.9696862020790036e+00 -5.6128329161011311e+02 
      </Row>
      <Row Index="51">
        9.1981379161588848e+00 -1.9750881041288376e+03 -3.9746637783042388e+02 4.8472806877340190e+01 -4.4515835957834497e+01 -7.1087780986260623e+03 -1.2780230512851849e+03 1.3750025027664378e+01 2.4404938315507025e+01 -3.5176962676923722e+00 2.4429169617407024e+03 -8.3540023763198406e+00 -8.4522267458378337e+01 -6.2219124753610231e+02 -3.2652967442348599e+03 -1.5805522480435669e+04 4.5038119724486023e+01 2.9017656975425780e+01 2.4728475806303322e+01 -1.0567830158248544e+03 1.4477023171868495e+02 -1.8890038050245494e+01 8.0052528601046652e+02 6.7734099309854209e+03 2.2019718817510642e+04 -5.2646930600749329e+01 -2.6300561900017783e+01 -1.7741215121001005e+01 1.5923982419818640e+03 7.8108076880453154e+01 -1.1332428266294301e+01 3.4090919541195035e+01 7.0730262858383358e+03 2.0579919133214280e+03 9.9640021733008325e+01 -1.4332764636026695e+01 -8.7730893213301897e-01 -4.9406495405873284e+02 -3.1182082433829692e+01 1.4522931730374694e+01 1.8680626885034144e+00 -7.1022330865744868e+02 1.3138023482418619e+05 7.8851566587109119e+01 1.1779211365646916e+01 -6.3664112656842917e+00 6.4073356867462280e+01 1.3992895394243533e+02 -8.7560185793612618e+01 -8.1744077747454867e+01 7.9343075571395457e+02 4.7915277198721369e+05 4.7981669305590913e+01 -2.0632736859261058e+00 -4.7765556465267640e+05 
      </Row>
      <Row Index="52">
        3.7348354208377348e+00 -7.6369778368857624e+00 -6.7621923820294086e+01 4.5544093076994709e+00 -1.2343614147029882e+01 -4.3309934651711762e+02 -1.4843671088543405e+02 1.2013044210439050e+02 -1.3946109812695351e+00 -5.4202197309860836e+00 -8.2324173372135618e+01 -1.0294593847014797e+01 -9.6294052013097602e+00 -4.0317255502680140e+01 3.3417536857569468e+02 -1.0303977621576394e+01 8.8275891613896675e+00 1.5933775405633668e+01 -5.6564441181736491e-01 1.3885618382683242e+02 4.2125312428873329e+01 7.3047030500459869e+00 4.1383817681064286e+01 1.5720887159496755e+02 1.3812313946002791e+02 -5.4961699017866806e+01 -2.0179227027907558e+00 -8.7502706151002840e+00 -9.1775834523209141e+01 -3.6499039852085531e+00 1.3092678291609690e+01 5.1316270513916749e+00 5.4004227913874672e+01 5.7421375855092627e+01 6.5728638450346182e+00 1.0758650746260585e+00 -1.1453327612800956e+00 1.7969762427051585e+01 -7.6399541645157484e+01 -3.2715447856012325e-01 9.5934689918201705e+00 -2.9702073169911421e+02 -2.2895231572306815e+02 1.0430853270754197e+01 1.5812672798206615e+00 5.3484038751704652e+00 -2.2397532635117976e+00 -9.7156326837550928e+00 1.7473503307655385e+00 -9.8602454525085754e+00 3.4651524218525900e+00 4.7981668818124568e+01 5.3298799962243294e+01 -4.2693876176807981e+00 -5.3812143701967763e+00 
      </Row>
      <Row Index="53">
        -5.7172834794028482e-01 3.9964034553862803e+01 1.0041946519769045e+01 3.0486735644985581e+00 -5.1682152982852809e+00 2.4491220291955193e+02 4.9217506353504348e+01 -1.2498585502158964e+01 1.2321892651990725e+01 1.0474843768001048e+00 -3.9178424497084620e+01 8.3988000045163886e+00 -7.1667158335918124e+00 -8.1049999895466396e+00 -3.5514181029622580e+02 -5.4435321600638503e+01 5.2645094062071323e+00 -2.3442922050332740e+01 7.5326774940112884e-01 5.5150267999193659e+01 -1.2500010087109910e+01 -2.8071852484837336e+00 1.4035220875486296e+01 -5.3040311716379335e+01 7.5690571841230039e+00 2.1117652467134391e+00 -1.1139443685469349e+01 1.2372471260328197e+00 -5.2847028048375932e+01 4.7019668738847109e-01 -2.4621090794152920e+00 8.0516641242082088e+00 1.1849843322047377e+01 -7.6520982780544671e+00 2.6736727557291928e+00 8.3447513581596429e+00 8.7328151220034123e-02 1.2587980548724801e+01 2.7516582960001745e+00 5.9124772442300322e-01 1.8695813760843514e+00 1.4612418754283993e+02 1.0282684421876368e+01 -4.5789570241006139e-01 2.9383368525553644e-01 -1.1759967364036932e+00 -2.5816663131211186e+00 -8.3887321332953224e+00 -8.3307456697759026e+00 -4.3785448087250227e+00 -3.9696862017232277e+00 -2.0632737298207608e+00 -4.2693876176881673e+00 9.7893614208763466e+00 -4.6705403114484527e+00 
      </Row>
      <Row Index="54">
        -4.2335988493869081e+00 1.1688979716449976e+03 2.0676666510751238e+02 -3.4092774075485067e+01 5.1519138349685818e+00 4.1844673768915236e+03 7.6641596944071352e+02 5.7419524108874612e+01 -2.5546646663686261e+01 -2.3464783360250294e+00 -1.5613818426895887e+03 6.0221796552650630e+00 6.7707051707780920e+01 3.9233490824466571e+02 2.9163422408178449e+03 1.2101568786809221e+04 -4.4570663586724550e+01 3.4692242317833006e+00 -2.0316706790472381e+01 6.4349027958139777e+02 -6.5202155871193099e+01 7.4840573691762984e+00 -4.6407712648902088e+02 -4.4154911911971867e+03 -1.6637396379045211e+04 1.5739287708187476e+01 1.4185718840220943e+01 4.1745764375664294e+00 -8.8364960373938084e+02 -6.3645152456127107e+01 1.7656332623679191e+01 9.2709645284339786e+00 -4.7736282384432852e+03 -1.4437585702482611e+03 -8.1235590824857354e+01 1.0461907262913883e+01 -8.7681823980528861e-01 3.0700570083176717e+02 -1.3531741665443406e+01 -1.1873584309360012e+01 1.0500741133932024e+01 -1.0658819086234629e+02 -1.3864158323475532e+05 -5.0160128024406731e+01 -6.5721963880205294e+00 1.1125587148591876e+01 -3.4841964076229488e+01 -6.1382822153158486e+01 6.8944713176286314e+01 4.2746796559833456e+01 -5.6128329442557879e+02 -4.7765556465557823e+05 -5.3812148545403033e+00 -4.6705403561936691e+00 4.7663097088303737e+05 
      </Row>
    </InverseHessian>
  </Weights>
</MethodSetup>
