<?xml version="1.0"?>
<MethodSetup Method="MLP::MLP">
  <GeneralInfo>
    <Info name="TMVA Release" value="4.1.4 [262404]"/>
    <Info name="ROOT Release" value="5.34/05 [336389]"/>
    <Info name="Creator" value="clester"/>
    <Info name="Date" value="Tue Mar 18 10:10:31 2014"/>
    <Info name="Host" value="Darwin pb-d-128-141-154-76.cern.ch 12.2.1 Darwin Kernel Version 12.2.1: Thu Oct 18 16:32:48 PDT 2012; root:xnu-2050.20.9~2/RELEASE_X86_64 x86_64"/>
    <Info name="Dir" value="/Users/clester/marchMadnessChallenge"/>
    <Info name="Training events" value="1093"/>
    <Info name="TrainingTime" value="8.78378680e+01"/>
    <Info name="AnalysisType" value="Regression"/>
  </GeneralInfo>
  <Options>
    <Option name="NCycles" modified="Yes">6000</Option>
    <Option name="HiddenLayers" modified="Yes">N+5</Option>
    <Option name="NeuronType" modified="Yes">tanh</Option>
    <Option name="RandomSeed" modified="No">1</Option>
    <Option name="EstimatorType" modified="No">MSE</Option>
    <Option name="NeuronInputType" modified="No">sum</Option>
    <Option name="V" modified="Yes">False</Option>
    <Option name="VerbosityLevel" modified="No">Default</Option>
    <Option name="VarTransform" modified="Yes">Norm</Option>
    <Option name="H" modified="Yes">False</Option>
    <Option name="CreateMVAPdfs" modified="No">False</Option>
    <Option name="IgnoreNegWeightsInTraining" modified="No">False</Option>
    <Option name="TrainingMethod" modified="No">BP</Option>
    <Option name="LearningRate" modified="No">2.000000e-02</Option>
    <Option name="DecayRate" modified="No">1.000000e-02</Option>
    <Option name="TestRate" modified="Yes">6</Option>
    <Option name="EpochMonitoring" modified="No">False</Option>
    <Option name="Sampling" modified="No">1.000000e+00</Option>
    <Option name="SamplingEpoch" modified="No">1.000000e+00</Option>
    <Option name="SamplingImportance" modified="No">1.000000e+00</Option>
    <Option name="SamplingTraining" modified="No">True</Option>
    <Option name="SamplingTesting" modified="No">False</Option>
    <Option name="ResetStep" modified="No">50</Option>
    <Option name="Tau" modified="No">3.000000e+00</Option>
    <Option name="BPMode" modified="No">sequential</Option>
    <Option name="BatchSize" modified="No">-1</Option>
    <Option name="ConvergenceImprove" modified="No">1.000000e-30</Option>
    <Option name="ConvergenceTests" modified="No">-1</Option>
    <Option name="UseRegulator" modified="Yes">True</Option>
    <Option name="UpdateLimit" modified="No">10000</Option>
    <Option name="CalculateErrors" modified="No">False</Option>
    <Option name="WeightRange" modified="No">1.000000e+00</Option>
  </Options>
  <Variables NVar="4">
    <Variable VarIndex="0" Expression="seed_prob" Label="seed_prob" Title="seed_prob" Unit="" Internal="seed_prob" Type="F" Min="0.00000000e+00" Max="1.00000000e+00"/>
    <Variable VarIndex="1" Expression="winfrac1-winfrac2" Label="winfrac1-winfrac2" Title="winfrac1-winfrac2" Unit="" Internal="winfrac1_M_winfrac2" Type="F" Min="-5.04464269e-01" Max="6.11607134e-01"/>
    <Variable VarIndex="2" Expression="avg_scorediff1-avg_scorediff2" Label="avg_scorediff1-avg_scorediff2" Title="avg_scorediff1-avg_scorediff2" Unit="" Internal="avg_scorediff1_M_avg_scorediff2" Type="F" Min="-2.33035717e+01" Max="2.54068966e+01"/>
    <Variable VarIndex="3" Expression="avg_score_against1-avg_score_against2" Label="avg_score_against1-avg_score_against2" Title="avg_score_against1-avg_score_against2" Unit="" Internal="avg_score_against1_M_avg_score_against2" Type="F" Min="-2.50357170e+01" Max="2.12218971e+01"/>
  </Variables>
  <Spectators NSpec="1">
    <Spectator SpecIndex="0" Expression="season" Label="season" Title="season" Unit="" Internal="season" Type="F" Min="6.50000000e+01" Max="8.20000000e+01"/>
  </Spectators>
  <Classes NClass="1">
    <Class Name="Regression" Index="0"/>
  </Classes>
  <Targets NTrgt="1">
    <Target TargetIndex="0" Expression="game_outcome" Label="game_outcome" Title="game_outcome" Unit="" Internal="game_outcome" Type="F" Min="0.00000000e+00" Max="1.00000000e+00"/>
  </Targets>
  <Transformations NTransformations="1">
    <Transform Name="Normalize">
      <Selection>
        <Input NInputs="5">
          <Input Type="Variable" Label="seed_prob" Expression="seed_prob"/>
          <Input Type="Variable" Label="winfrac1-winfrac2" Expression="winfrac1-winfrac2"/>
          <Input Type="Variable" Label="avg_scorediff1-avg_scorediff2" Expression="avg_scorediff1-avg_scorediff2"/>
          <Input Type="Variable" Label="avg_score_against1-avg_score_against2" Expression="avg_score_against1-avg_score_against2"/>
          <Input Type="Target" Label="game_outcome" Expression="game_outcome"/>
        </Input>
        <Output NOutputs="5">
          <Output Type="Variable" Label="seed_prob" Expression="seed_prob"/>
          <Output Type="Variable" Label="winfrac1-winfrac2" Expression="winfrac1-winfrac2"/>
          <Output Type="Variable" Label="avg_scorediff1-avg_scorediff2" Expression="avg_scorediff1-avg_scorediff2"/>
          <Output Type="Variable" Label="avg_score_against1-avg_score_against2" Expression="avg_score_against1-avg_score_against2"/>
          <Output Type="Target" Label="game_outcome" Expression="game_outcome"/>
        </Output>
      </Selection>
      <Class ClassIndex="0">
        <Ranges>
          <Range Index="0" Min="0.0000000000000000e+00" Max="1.0000000000000000e+00"/>
          <Range Index="1" Min="-5.0446426868438721e-01" Max="6.1160713434219360e-01"/>
          <Range Index="2" Min="-2.3303571701049805e+01" Max="2.5406896591186523e+01"/>
          <Range Index="3" Min="-2.5035717010498047e+01" Max="2.1221897125244141e+01"/>
          <Range Index="4" Min="0.0000000000000000e+00" Max="1.0000000000000000e+00"/>
        </Ranges>
      </Class>
    </Transform>
  </Transformations>
  <MVAPdfs/>
  <Weights>
    <Layout NLayers="3">
      <Layer Index="0" NNeurons="5">
        <Neuron NSynapses="9">
          -5.1969690316451911e-01 1.5596994296234763e+00 7.5823453782229866e-01 8.8717643485990760e-01 -9.4072711121949104e-01 6.8188564504551366e-02 1.0411095619083771e-01 1.3757033611139848e+00 -9.0557272564649549e-01 
        </Neuron>
        <Neuron NSynapses="9">
          -5.1215374483190135e-01 -1.7056546531672554e+00 -8.9038748096421516e-01 -1.0808190501183335e+00 1.2040515808144353e-02 -4.9014129169832404e-01 4.1429503828186132e-01 -2.4264884676534307e-01 1.1698162799170233e+00 
        </Neuron>
        <Neuron NSynapses="9">
          -6.6249075438167937e-01 1.1615818631554915e+00 1.3473557658068442e-02 -5.1374747928422171e-01 1.0817681257654816e+00 5.5431304508999746e-01 -6.7645234184971725e-01 -5.8288762742271982e-01 1.4115383041982708e+00 
        </Neuron>
        <Neuron NSynapses="9">
          -1.5878419672052557e+00 -1.4319349863756674e+00 1.4672672190292188e-01 -9.6924922458303819e-01 1.1634378224248445e+00 -2.9512572937283732e-01 -2.3372252347969605e-01 7.3375215704424054e-02 -8.3718104201831089e-01 
        </Neuron>
        <Neuron NSynapses="9">
          -2.9167752657970564e-01 4.1973718239481100e-01 -3.7660527891999601e-01 4.9689219436331655e-01 -1.8470253982927851e-01 2.6228802474008880e-02 2.3328292243969830e+00 2.8554969594456275e-01 -3.8597036127915402e-02 
        </Neuron>
      </Layer>
      <Layer Index="1" NNeurons="10">
        <Neuron NSynapses="1">
          -4.9786821134455495e-01 
        </Neuron>
        <Neuron NSynapses="1">
          -5.7698009449538477e-02 
        </Neuron>
        <Neuron NSynapses="1">
          3.9264563945933395e-01 
        </Neuron>
        <Neuron NSynapses="1">
          5.9130703358243630e-01 
        </Neuron>
        <Neuron NSynapses="1">
          5.3278493314881298e-02 
        </Neuron>
        <Neuron NSynapses="1">
          1.4887282798507371e-03 
        </Neuron>
        <Neuron NSynapses="1">
          1.5084340457591792e+00 
        </Neuron>
        <Neuron NSynapses="1">
          -1.1272704230446483e-01 
        </Neuron>
        <Neuron NSynapses="1">
          3.5289434982240236e-01 
        </Neuron>
        <Neuron NSynapses="1">
          -1.1642635119182261e+00 
        </Neuron>
      </Layer>
      <Layer Index="2" NNeurons="1">
        <Neuron NSynapses="0"/>
      </Layer>
    </Layout>
    <InverseHessian NElements="3025" NRows="55" NCols="55">
      <Row Index="0">
        5.4542104790010582e+00 -1.1824610230086612e+00 -2.1925341560936706e-01 2.0549124863625416e+00 -2.6304677563415641e+01 -2.3439986635514973e+02 -2.0209441835422336e+01 5.8600427860663231e+00 -3.0417760476823263e-01 -5.5772433228081930e-01 -1.8892606666406245e+01 -6.2084779878223770e+00 -1.3886323664506501e+00 -5.0141472991317437e+00 -1.9389469335195531e+02 -4.1876789602671476e+00 -1.8839896529857569e+01 5.3666899499072263e-01 -3.5243792569598313e+00 1.8462571907598210e+01 5.5906255105736706e+00 1.5874335599103480e+00 2.1821501345744316e+01 -1.7789224741497713e+02 3.7978117680352909e+01 -1.1028435802029442e+01 8.4815673302885131e-01 -4.3999336099664377e-01 -7.1787663736912064e+00 1.0362475084032867e+00 3.5853700936538142e+00 2.0130669290820414e+01 -4.7469191063990763e+01 2.5307769371940722e+01 -4.0546539351304858e+01 -7.2348013712006143e-01 -3.7813237783465925e-01 8.4225147216629115e-01 -4.6508690369179666e+00 -2.4063037381517756e+00 1.3810896816387345e+01 -1.6515903821511819e+02 -5.3332493740227576e+01 6.1281325957837121e+00 -6.2061528246854181e-02 1.5238890276431172e-01 5.8992426534507780e-01 -2.7020641487784296e+00 1.5584916987409096e+00 -3.1939447422358791e+00 2.7860322296071987e+00 1.6191583600824504e+01 3.5794499357569332e-01 -5.1522107561527331e-01 -1.2803265269648049e+01 
      </Row>
      <Row Index="1">
        -1.1824610231947088e+00 5.0378473156344029e+02 -2.5768576116591326e+01 1.0666813628459133e+00 -3.3143245043968818e+01 -2.9174949290466739e+03 1.7692154756057434e+02 -1.1468157746512571e+02 6.6872562975637804e+00 8.3963079472048854e+00 -7.3480885117782179e+02 3.0505863146305543e+01 8.3358229485723623e+00 3.2857249092562739e+02 -6.2038058445582340e+02 4.0855372605060474e+01 -6.9617764902619840e+01 -1.7215262478163453e+01 -6.8176612824540381e+00 6.7431716443128857e+02 -4.1912125053604425e+00 -2.6901287677932707e+01 -5.2013751118415689e+02 -1.9241662805978826e+03 -1.8139043665916086e+02 1.7632902947416011e+02 -1.6587581463014857e+01 3.4376487789389021e+00 -4.2458530400297417e+02 -2.3016559112598081e+01 -1.1906902816118372e+01 -4.3215112655232772e+00 4.3482139203514475e+02 -6.7337439501721931e+01 -2.0570849787387687e+01 1.2649540759474675e+01 -1.0678765895018971e-01 8.7347284506434164e+01 5.4163998267873005e+01 5.2658381899650744e+00 -1.3683295353234928e+02 -8.5306826684010866e+02 2.7533124278613843e+02 1.2337676755873588e+00 -5.4773623357738117e+00 -3.1683266280057527e+00 4.3709340969282380e+01 3.0302542015762842e+01 -1.0464224914991759e+01 2.2527725055829777e+01 -3.8752189050863983e+01 6.0768313664736894e+01 -2.9329052672932018e+01 1.1264540589201557e+01 -7.0747697690332984e+01 
      </Row>
      <Row Index="2">
        -2.1925341566487366e-01 -2.5768576119361114e+01 8.7937879592997106e+01 -6.2255644450417007e+00 -3.6037221786508766e+01 8.7864711892890875e+02 4.9888621380774538e+01 6.1207999318867401e+01 -6.6953926096905674e+00 1.4286244743309422e+00 -9.2278635976108685e+00 -5.2449379189581727e+01 2.2888165892104841e+01 2.2729367872168902e+02 -1.0428491242299833e+03 3.6039275938530608e+02 -2.0478387134543897e+01 -5.6459882850459375e-01 3.1550795568200385e-01 1.0676015015998139e+01 -2.8445018321327790e+01 1.1275103175664722e+01 -1.5768676386739935e+02 -5.8858692918100121e+02 -5.9997610884123787e+02 -6.0837108890092651e+01 2.2694720589455187e+01 -2.2906910016480992e+00 4.8652502235952745e+01 -1.4360812357567591e+01 2.1042468931002304e+01 -1.8691486297606929e+01 3.0659147728647758e+02 -1.7785796602950089e+02 -3.6487073941045693e+01 -6.8866553845488596e+00 5.3131092783920786e-01 4.0477905374318288e+00 -4.3832760315253857e+01 -6.4824943198446423e+00 -2.8577129233480317e+01 -1.0677280270127960e+03 8.7343235877909717e+02 -3.5309219747064780e+01 -1.1043580754375535e+00 2.2165002532354761e+00 -2.1164402291622926e+00 -5.6479768459715665e+01 3.8575859547083013e+01 9.7599193393466930e+00 -1.8770046494817628e+01 -2.3773269612956224e+02 1.0706156984999961e+01 -7.0369542332898725e+00 1.6504993273720899e+02 
      </Row>
      <Row Index="3">
        2.0549124863433716e+00 1.0666813634981622e+00 -6.2255644448977030e+00 2.5980557130432960e+01 -7.4653234956864992e+01 -3.4405650407320945e+02 3.3986147945282234e+01 3.6329761565976657e+00 -4.6250453654780221e-01 -2.9181985041671687e+00 -3.7199258704848859e+00 2.8995743894653625e+00 -4.9428814901624946e+01 -1.8011875194547190e+02 -3.1059619316438568e+02 -1.4920923903647909e+02 -3.7998221958711667e+01 3.5504558576789398e+00 -5.9261455506131200e-01 -2.5787153086748077e+01 -3.8027179222301584e+00 4.9985204265314094e+00 1.2661037300430048e+02 -2.3456553278338743e+02 8.8317164684008560e+01 -1.1326267784629525e+01 -4.0278301550065532e+00 -5.3835884697730805e+00 -3.4554900491708356e+00 2.2433998004355966e+00 -1.7245714618812098e+01 1.0150325054188269e+02 8.1094979833661000e+01 -3.2148518321284243e+01 -2.6747159472943551e+01 -1.3369058972303032e+00 -1.0397421506199369e+00 3.2818099914638097e+00 9.0454224896656115e+00 1.2188710931530935e+01 6.3146119685582587e+00 7.7301526143171009e+02 -1.4043481942475523e+02 4.0005041193070738e+00 7.2809588497858968e-01 2.8489901455750952e+00 -9.8331966115446656e-01 8.8694894588782596e+00 -4.0603779015690449e+01 -2.4574553567387625e+01 1.0633526108078055e+01 5.5028662772849181e+01 -2.2538698994862152e+00 2.7748166815298347e-01 -3.7564145521398736e+01 
      </Row>
      <Row Index="4">
        -2.6304677562441995e+01 -3.3143245025801662e+01 -3.6037221793883951e+01 -7.4653234953017801e+01 3.0143843101092039e+03 5.6495341899574248e+02 -8.8590353616576965e+02 5.6196630248068743e+01 -3.2889711495748264e+00 -4.8532031317973079e-01 2.9391285724953934e+02 1.2799638932844923e+02 2.5875124048777855e+02 -2.2527299821865387e+02 6.5659546475278967e+02 -1.9873024389355664e+03 -6.1787431502781629e+01 -5.3685035194114299e+00 -1.2311244507434451e+00 -4.9137271033970461e+02 1.7786416903327336e+01 -1.0025306368573183e+02 -2.0380128497127957e+03 -1.6054520878503663e+03 4.0663107431492244e+03 6.6853203589428176e+01 1.9513768119711848e+01 -5.5088536128378109e+00 -5.9078088133852432e+01 -4.7852013889290561e+01 -2.2445725604070788e-01 -3.0625907063556547e+03 -6.4666413409799316e+02 1.5648116147943592e+03 8.4554863028792795e+01 -8.5435461420576271e+00 6.4969051372678113e+00 -9.6905487146875572e+01 6.6394116735345122e+01 -8.7206954397744667e+00 -8.7502006658090977e+01 -3.4176982018491767e+03 -6.2272219668007183e+03 -1.3972165629649029e+02 -4.1055472912596471e+00 8.5699381040151579e+00 -2.0607365573176597e+01 1.2964153740862793e+02 1.7628797417315263e+02 3.7014625309459188e+02 1.9436084936541064e+02 1.4315445208996473e+03 -1.7693973924739339e+00 -6.6793366210254099e+00 -1.0417712854935376e+03 
      </Row>
      <Row Index="5">
        -2.3439986635741894e+02 -2.9174949290902878e+03 8.7864711894624156e+02 -3.4405650407979556e+02 5.6495341899381310e+02 8.9008944265357149e+05 3.1480003853850258e+03 -3.3480785276127199e+03 -2.9377939803138293e+02 6.0342943324845422e+01 2.2820270179286808e+03 -2.7516037853905459e+03 -4.0231695027289152e+02 -4.2286611013447446e+03 -7.2707910002334509e+04 5.1915272934703235e+03 1.1522630668887821e+03 4.4576588208293651e+02 -1.7015036285236408e+02 -2.9539307940872914e+02 -7.7989636571721348e+01 4.0370377552510763e+02 2.2732907004287881e+02 -5.7758774283656545e+04 -9.9025522097445210e+03 8.8059892431175967e+02 2.2348672110497048e+01 -2.8889515848212932e+02 3.0298975783994720e+03 -3.2262484875322698e+01 1.5844340366488308e+02 5.1800740186564019e+02 -9.9574265381799196e+03 -3.8906513216978346e+03 6.4210541958025772e+02 -1.7087687324211015e+02 1.7036407529552250e+01 -1.0053773296730595e+03 9.7478466595013316e+01 2.0542806651384359e+02 9.4198338102901471e+02 6.1646453944953100e+02 1.5353213391204226e+04 4.2003185980855301e+02 9.0287390491535916e+01 1.9898318644988780e+02 -2.3417085258478653e+02 -1.4861481838105142e+03 -2.6818253593099496e+02 -4.2395704806731874e+02 -5.1695774829666880e+02 -3.6410420158294346e+03 -5.5986067942194234e+02 -7.9642764302581782e+01 2.3380578345274380e+03 
      </Row>
      <Row Index="6">
        -2.0209441835210367e+01 1.7692154754555850e+02 4.9888621375124849e+01 3.3986147943254032e+01 -8.8590353606647159e+02 3.1480003851650217e+03 1.7117879007076813e+03 -3.1784078276221641e+02 -1.8682608480079352e+00 1.4034220599756148e+01 -2.4592628349377779e+02 1.5249507948119953e+02 -1.8082584788497797e+02 6.3260782258283893e+02 1.3898548536599733e+03 2.1527054048913112e+02 1.3972284576503736e+02 -3.3084379173415073e+00 1.8316188944581590e+01 3.4979957416685255e+02 -3.0523642383449442e+02 7.2400801363935898e+01 -2.9020279872702838e+02 -3.7773391655261992e+02 -2.8187943904922927e+03 -3.3069717918870367e+01 -2.8557934269455156e+01 1.4318920705649589e+01 -9.6221482252389976e+01 -5.2070218704100899e+00 -9.6018551323207802e+01 1.4634403913997735e+03 -2.8707031076348349e+03 -1.2756618415172209e+03 7.8222688459205983e+01 -9.1578988762715241e-01 6.9489651510772854e-02 7.4315819421618457e+01 1.7108907723584269e+02 2.9888363379035155e+01 -2.4779505713678003e+02 4.4725452723511080e+03 3.6839958827497958e+03 -2.8602801376679793e+01 1.9220675555738183e+00 -8.9528693242667892e+00 2.3138978196734804e+01 -3.6514823783024227e+01 -1.6960587847631444e+02 -1.5517236452366174e+02 -7.1122370292712759e+01 -1.4421274588402230e+03 -9.1580607930449389e+01 1.1478394615808270e+01 1.1957583582946349e+03 
      </Row>
      <Row Index="7">
        5.8600427863722961e+00 -1.1468157746611678e+02 6.1207999312232729e+01 3.6329761584607549e+00 5.6196630286951894e+01 -3.3480785277152399e+03 -3.1784078278813956e+02 8.0475072509164704e+02 2.5792868798779978e+00 -4.4726926991298129e+01 -2.6682136457237952e+01 -1.8088435728466274e+02 -5.7396784171518874e+01 8.4108721835962143e+01 -2.1076995551143091e+03 5.4571092277380876e+02 1.1064692541699357e+02 6.8890811991116152e+00 -9.9844552204185675e+00 8.3896412869427266e+01 1.1963829871262033e+02 4.5538910754014069e+01 -2.0992081658034056e+02 -1.0683692933857701e+03 -4.7854480005268533e+02 -5.5148141359015676e+02 2.6558344632250623e+01 -5.2968124271144575e+01 6.4874917563189015e+01 1.7679178557979320e+01 3.0973747259108269e+01 -2.2848746917602327e+02 -9.7062066121551402e+02 -3.2913367866616846e+02 -1.4436740563706681e+02 -1.4005103016753115e+01 -1.6715831023531758e+00 -1.7874226670741152e+01 -2.1088966118372514e+02 -1.6448992845508929e+01 2.0521417678406306e+02 -9.6444108423624130e+01 7.1491149233867679e+02 1.4878822884199715e+02 1.8193065362605216e+00 3.4102840807458200e+01 -3.1316114009794518e+00 -1.3101406543440493e+02 5.2896856709639408e+00 5.7791875740260217e+00 -2.3116373124804923e+01 -2.1454691770441431e+02 1.6383933507051881e+02 -1.3810062449196273e+01 1.6983361385785034e+02 
      </Row>
      <Row Index="8">
        -3.0417760477662648e-01 6.6872562974212855e+00 -6.6953926096502254e+00 -4.6250453658039792e-01 -3.2889711495718879e+00 -2.9377939803155647e+02 -1.8682608471343380e+00 2.5792868800622601e+00 1.0556510355634604e+01 -2.2630045365425067e-01 4.2417229611099563e+00 3.3529814895974899e+00 -2.1529401427687054e+00 -4.3028972924006133e+01 -4.1044244541589933e+02 1.0629391137619290e+01 -5.0425272950545743e+00 -1.3025431931782776e+01 -1.4819464260399684e-01 -4.0521282834147314e+00 4.9467294058311353e+00 2.2756381048976664e+00 1.5231945611718059e+01 -2.9936675778872547e+02 -2.8373800885550779e+01 -6.4989553318334679e+00 -1.1874346323036065e+01 -2.0613084893252083e+00 2.6015433853600136e+00 -5.7649745755168533e+00 2.1422852325487174e+00 -7.2534710335663961e+00 9.2465857518893927e+01 -8.4276809654820166e+00 3.2431786788534671e+00 6.4027909721356471e+00 3.0554523878885319e-02 -6.9942226813185981e-01 1.2743891883541719e-01 1.1372837189770946e+00 8.3999266074201380e+00 2.8438835228278964e+02 3.8027162203433932e+01 -6.4827528509590771e-01 -4.8279181589272646e-01 1.0528778711353088e+00 1.2915342755602133e-01 7.9448268448520745e+00 -1.8093007256581117e+00 -2.2105495455244295e+00 -1.2941739080394941e+01 -6.6160064881803553e+00 1.2325788163196103e+00 5.4605508093062944e+00 6.7583009481860561e+00 
      </Row>
      <Row Index="9">
        -5.5772433227324791e-01 8.3963079475293512e+00 1.4286244744505079e+00 -2.9181985041869734e+00 -4.8532031420091393e-01 6.0342943328211078e+01 1.4034220598782092e+01 -4.4726926991963488e+01 -2.2630045365396256e-01 1.6625881344710237e+01 6.0633450747460671e-01 -4.7276955439470658e-01 7.8041458656780733e+00 -3.2102017587647993e+01 8.6943122861962024e+01 -6.3668213131812067e+01 -2.9566019849479424e+01 -3.0272992952558297e-01 -3.6350389793346665e+00 1.2908028006313089e+01 -1.2798201746384876e+01 -4.4655654566964245e+00 1.0290988486332058e+01 2.4474468254311532e+01 1.2851485268724471e+02 7.0857271363360411e+01 -2.3934697285819522e+00 1.1616367725188102e+01 -1.3252508994199161e+01 -5.6828644937552619e+00 2.2785686019091402e+00 -5.5011725532725272e+01 1.1753978762116833e+02 7.7792867238292757e+01 3.3999122530494525e+01 1.7014182319001141e+00 1.6192779516995246e+00 2.9631727174865916e+00 1.1045027101288714e+01 3.2927649852541450e+00 -1.3965524686124306e+01 -1.3798471126117647e+01 -1.7059664646274746e+02 -2.3157830022060080e+00 3.3283684584321005e-01 -7.4986514612325585e+00 1.4792287594757110e+00 2.5378388997331482e+00 3.2387112406091294e+00 4.5477874651572749e+00 4.0264867453425941e+00 2.6592670467992527e+01 -9.5130678709762115e+00 1.2254643736342983e+00 -2.0557128195874590e+01 
      </Row>
      <Row Index="10">
        -1.8892606666250927e+01 -7.3480885117659568e+02 -9.2278635997104530e+00 -3.7199258698529158e+00 2.9391285725801060e+02 2.2820270179063077e+03 -2.4592628350483847e+02 -2.6682136461547913e+01 4.2417229609938492e+00 6.0633450777313946e-01 2.3059409127087815e+03 9.4658985070362700e+00 -3.9982536273852496e+00 -1.1207355760522378e+03 9.7615567478578396e+02 -4.0252407748178450e+02 4.1079865343839271e+02 2.0679029888000514e+01 3.8549254014997530e+01 -2.4511992252925052e+03 -2.3078651401092408e+01 -1.3165283521185430e+01 1.5797815869963765e+03 1.5513499152882737e+03 8.1424078662609452e+02 -4.7814095024664431e+02 1.2896692736330291e+01 1.0366730120344197e+01 1.0821050478174207e+03 3.3123380469622536e+00 8.0376260871091390e+00 -4.6760097326866912e+01 5.4246786042865597e+02 3.7672444586422091e+02 4.9608719860433348e+02 1.2413353134732432e+00 2.4741877602400035e+00 -2.0599494583976900e+02 -2.9660932111162488e+01 1.1507367195238906e+01 3.1743489593321908e+02 5.8694740195471650e+02 -1.1060992578417993e+03 -2.5329989518698213e+01 5.2172594680607816e+00 -8.5450438660305466e+00 -1.1357989691091893e+02 2.3759850155811328e+00 -2.1345016158115257e+01 -6.6323442024628918e+01 4.5892242415114026e+01 6.1568840712624720e+01 4.4438133345727550e+01 -8.6824274020255601e+00 3.7023382759147991e+00 
      </Row>
      <Row Index="11">
        -6.2084779879192142e+00 3.0505863147728860e+01 -5.2449379187152431e+01 2.8995743889176095e+00 1.2799638930968942e+02 -2.7516037853449525e+03 1.5249507948980880e+02 -1.8088435728716024e+02 3.3529814897051438e+00 -4.7276955462683645e-01 9.4658985047209114e+00 1.6297185073214467e+02 6.2627419416297068e+00 7.6543453439593961e+01 -2.7998251676693371e+02 -4.6723686312302556e+02 -2.4249723959232501e+01 -1.0018533161197070e+01 5.6616761829345705e+00 -1.5753869250267599e+01 -8.1288776821914780e+01 -2.1374207980385563e+01 -1.5702659481127762e+02 -7.4042532900976960e+02 3.4664651078407428e+02 1.4051746429728698e+02 -1.3629134165807299e+01 9.1384835761937211e-01 -6.4142158060305519e+01 3.3223790203527281e+00 -3.7257788005882354e+01 -5.7184578745386204e+01 -5.3247011496306595e+02 1.1449893110911765e+02 6.5615299214622013e+01 5.3412510437010816e+00 8.2971868619172717e-03 1.7617138464519872e+01 9.4063878301695866e+01 1.6816586914345422e+00 -3.0485184903345491e+01 1.2443702879094599e+03 -5.1719123493024540e+02 -5.7173210532573776e+01 -1.0527839900497273e+00 -2.3289566888998348e+00 2.7240876432072958e+00 7.5521337929593699e+01 -2.5242507764340111e+01 1.7753992878569026e+01 3.9972521775249419e+01 1.7948483170631613e+02 -4.1151943059346671e+01 7.4932683395200534e+00 -1.3396920843938739e+02 
      </Row>
      <Row Index="12">
        -1.3886323663631805e+00 8.3358229475262533e+00 2.2888165891640185e+01 -4.9428814901563634e+01 2.5875124049796364e+02 -4.0231695028905960e+02 -1.8082584789476223e+02 -5.7396784167817323e+01 -2.1529401428633008e+00 7.8041458656466167e+00 -3.9982536260966981e+00 6.2627419407817584e+00 1.7066817169756217e+02 5.2349651166023386e+02 -4.8808668759657326e+02 3.8784530698955979e+02 -1.3765503448077308e+01 -1.2100451599101348e+01 -4.0982324095492118e+00 5.7668193306662943e+01 -5.0129715277190598e+00 -5.7657809534398780e+01 -3.7488190244992109e+02 -5.3796943481022822e+02 -3.7132344181357446e+01 8.4847160879631630e+01 1.5042411544196860e+01 7.9639680933552341e+00 -8.5287381147245469e+00 -1.4858145099664569e+01 3.8726645498724544e+01 -4.3472921024564431e+02 -2.1976235345462123e+02 2.0222401697146486e+02 1.7308655725224789e+01 3.6951001934137437e+00 6.2765881173087879e-01 -6.8481689702448643e+00 -8.2794394409026548e+00 -2.6528450303887293e+01 -1.2765627850541351e+02 -1.7792664347551886e+03 1.3525584960967996e+02 -3.6263890594930267e+01 -1.7490188909319901e+00 -4.9900999451058814e+00 3.2256539930522941e+00 -1.0628267707370185e+00 1.2835148608031659e+02 9.2223968760142640e+01 -6.7764687037609406e+00 -8.7138596740865239e+01 -8.5003286017114092e+00 -9.3677516954205764e-01 5.6388763734883163e+01 
      </Row>
      <Row Index="13">
        -5.0141473000076768e+00 3.2857249091072845e+02 2.2729367873311324e+02 -1.8011875194756473e+02 -2.2527299826161067e+02 -4.2286611012349604e+03 6.3260782265935484e+02 8.4108721882486790e+01 -4.3028972923551237e+01 -3.2102017590165417e+01 -1.1207355760445632e+03 7.6543453418831632e+01 5.2349651166183526e+02 8.0830086918638899e+03 -5.0509711034392021e+03 2.7270377079413938e+03 8.2509259580694993e+02 -5.7142994587504290e+01 1.1712678858505569e+01 1.6831529161496437e+03 -1.7897711643184175e+02 -6.1613106486061952e+01 -5.6921892282725494e+03 -7.1620569974037362e+03 -4.2043325528966607e+03 -3.4008515993954404e+02 1.5138557211193165e+02 3.3602435262607742e+00 -3.9956257430065307e+01 -1.4695659331617207e+01 1.2183920006136529e+02 -7.4917730557351581e+02 -6.5925819126601145e+03 -1.1474549431521925e+03 -7.5633603298197940e+00 -2.1378377191242137e-01 5.0350385809054266e-02 1.6299866576442616e+02 -2.9118969111633623e+02 -2.6148717829576071e+02 -5.8391940784264261e+02 -6.7871911315348316e+03 6.1718504307294543e+03 -1.0124923679680924e+02 -1.0761725190107981e+01 -5.6370652745850265e+00 6.9957364821390499e+01 -2.2748900937219196e+02 5.8472022522733550e+02 4.7013610002023438e+02 -7.1127139067419819e+01 -9.2703454614935868e+02 7.7688880447300107e+01 -3.0078765422680025e+01 5.1321800804423208e+02 
      </Row>
      <Row Index="14">
        -1.9389469335202875e+02 -6.2038058448013908e+02 -1.0428491242326022e+03 -3.1059619317121144e+02 6.5659546487270563e+02 -7.2707910002614488e+04 1.3898548536788373e+03 -2.1076995550784522e+03 -4.1044244541659475e+02 8.6943122862360511e+01 9.7615567480805839e+02 -2.7998251677957342e+02 -4.8808668757231021e+02 -5.0509711034819557e+03 9.3086704825060186e+05 2.0436702618265299e+03 -1.3060596369775274e+03 7.4632289923147619e+02 -1.5129060246432164e+02 5.3733330786373699e+02 -7.2262961367341632e+00 5.3360523287492470e+02 4.0673979005807269e+02 -4.7659450566976448e+04 -4.3011124577182700e+03 2.4711353474240432e+03 4.0088432635043333e+01 -2.5730426607293771e+02 -1.7721717110220925e+02 -4.4360070838535285e+02 2.7882393196463966e+02 -1.4672664214914612e+03 -1.1302038166477112e+04 -1.9837417558532804e+03 2.9418863652003233e+02 -1.6174332499497973e+02 3.0255064858629382e+01 7.3372794040161750e+01 9.7527509254098356e+02 1.4478985309967561e+02 1.5007663902138477e+03 -2.1584220986657056e+04 6.6906084927805459e+03 2.8224239148088395e+02 4.5801164463011986e+01 1.6170883102223843e+02 2.1548343276467918e+01 1.0263053681619754e+03 -1.9387834591198643e+02 -2.7540554386523161e+02 -1.9016005337436033e+02 -1.6259541681864450e+03 -4.7849762337946743e+02 -1.7025254543879032e+02 1.3855504114866694e+03 
      </Row>
      <Row Index="15">
        -4.1876789557339968e+00 4.0855372546968283e+01 3.6039275931009360e+02 -1.4920923903167790e+02 -1.9873024381761397e+03 5.1915272917756811e+03 2.1527054014266602e+02 5.4571092286477938e+02 1.0629391131663397e+01 -6.3668213121943950e+01 -4.0252407740969056e+02 -4.6723686313015787e+02 3.8784530700682848e+02 2.7270377073861869e+03 2.0436702612079680e+03 7.4805217916243091e+03 4.3460206560675692e+02 -1.9888213514052040e+01 -1.9207874872059620e+01 8.6034605382476002e+02 1.0796517147486156e+02 -3.8193540212101652e+01 -2.4239232788829710e+01 -3.0994673413792016e+03 -9.4754684785350746e+03 -7.6652055858344067e+02 6.3892422105753020e+01 -7.9168225920373516e+01 2.8666895517043304e+02 -1.0503040377834259e+02 2.4970086990489398e+02 1.8212128964620722e+03 -1.6710261113485190e+04 -2.7017132828252320e+03 -4.4777586528892095e+02 1.0729510492249730e+01 -8.7688084623147340e+00 3.5246235500532464e+01 -5.2261192792597967e+02 -8.1006999799311117e+01 -5.0771913585767254e+02 -1.0798270005684377e+04 1.3303824987879818e+04 1.8116768829185574e+01 -2.6690283832865305e+00 5.8632755350756689e+01 2.9139780216202247e+01 -3.7710452958845417e+02 4.3321010009773494e+02 -7.1191472214891974e+01 -5.3392661569646339e+02 -6.5214428757448550e+03 1.5749257265926960e+02 -2.0276490329636143e+01 5.5428184841398488e+03 
      </Row>
      <Row Index="16">
        -1.8839896529901111e+01 -6.9617764903867510e+01 -2.0478387135389966e+01 -3.7998221958083676e+01 -6.1787431503320818e+01 1.1522630668832207e+03 1.3972284577246660e+02 1.1064692541985754e+02 -5.0425272950021167e+00 -2.9566019849521147e+01 4.1079865343992338e+02 -2.4249723960261463e+01 -1.3765503450099615e+01 8.2509259578815045e+02 -1.3060596369721025e+03 4.3460206564690748e+02 1.0968522941590252e+03 2.4640826619650284e+01 5.1309686846161640e+01 -4.8817865481551780e+02 3.6626428465559457e+01 3.4120603454527100e+01 -2.6510315894788187e+02 -5.4145797036228305e+02 -6.9311199240022665e+02 -7.5564686694089573e+02 3.7887292933404289e+01 1.6425291201657188e+01 4.9589042163801423e+02 1.9828280340837978e+01 1.9949728542118294e+01 2.5328945373498698e+02 -3.3090847789927875e+02 -2.8529302934809374e+02 3.5414685656255153e+02 -3.6012918519321389e+00 1.1310278218724186e+00 -8.3459432576168211e+01 -1.8934011993710595e+02 -3.8312725290280540e+01 1.3163919758441608e+02 -1.8598042593199102e+03 8.5593788319446821e+02 1.0033142509714159e+02 9.2893734529773120e-01 -1.0709169216826641e+01 -3.2294176769490612e+01 -9.7535366219440789e+01 2.2698511348627072e+01 -1.4649440770001974e+00 -1.4618660145406636e+01 -1.1704544897862343e+02 9.5079187836390403e+01 -1.6930082930443586e+01 8.9649634095769215e+01 
      </Row>
      <Row Index="17">
        5.3666899500318954e-01 -1.7215262477738122e+01 -5.6459882864613897e-01 3.5504558577563521e+00 -5.3685035199356044e+00 4.4576588208374415e+02 -3.3084379184787336e+00 6.8890811981261439e+00 -1.3025431931777369e+01 -3.0272992949977540e-01 2.0679029887689872e+01 -1.0018533160784813e+01 -1.2100451599304908e+01 -5.7142994586975561e+01 7.4632289923193821e+02 -1.9888213526546451e+01 2.4640826619407875e+01 3.0167798008022203e+01 -5.2766533831814399e-01 -8.6696869896281896e+00 1.7263180316581099e+00 1.0249612568685507e-01 4.6516816856875607e+01 6.9491301897620031e+02 7.6633752705177940e+01 -1.8874657349466702e+01 5.8412357992697297e+00 2.1565079904995130e+00 1.1197642602550332e+01 1.1112338581131723e+01 -5.2223768331548674e+00 5.2835614911723951e+01 -3.2040305226051117e+02 2.4925511354923326e+00 2.0642004208479054e+00 -9.0839112583641644e+00 -1.2514602076654752e-01 -2.2926761707614323e+00 -1.6244513266436964e+00 3.4266371023796345e+00 -1.4357945549600231e+00 -6.3607024347409083e+02 -9.4672249530231539e+01 1.1242575852947766e+01 1.9563191103249724e+00 -9.2179310810464721e-01 -1.1255001766421977e+00 -8.8334197066660778e+00 -1.1298566777151812e+01 -8.1578784498501609e+00 1.9652104618788041e+01 2.5419630667488200e+01 9.0609135421402698e-01 -8.0661229605246838e+00 -1.9695560234387013e+01 
      </Row>
      <Row Index="18">
        -3.5243792570097123e+00 -6.8176612825027405e+00 3.1550795632367068e-01 -5.9261455516720130e-01 -1.2311244557177652e+00 -1.7015036284137932e+02 1.8316188949131611e+01 -9.9844552201039072e+00 -1.4819464256659742e-01 -3.6350389794228350e+00 3.8549254014749806e+01 5.6616761825489164e+00 -4.0982324094786122e+00 1.1712678860957602e+01 -1.5129060245788969e+02 -1.9207874854863803e+01 5.1309686846464018e+01 -5.2766533840311070e-01 1.3320549108696341e+01 -5.4243032137775117e+01 -3.7453595685320522e+00 2.9326326897596005e+00 9.6395519892929791e+00 -1.5880617156253476e+02 -4.1739715295108454e+01 -2.0033507680803268e+01 1.5037053678042320e+00 6.3460822922017233e+00 2.9771934300812518e+01 2.6327670810663335e+00 -1.9707578396160368e+00 2.1232790697133151e+01 -1.1534741620410715e+02 -3.6204735854061724e+01 4.7464646600989504e+01 1.8583074098638264e-01 6.8966712527573282e-01 -4.3765103610802978e+00 3.1529487059723488e-01 -3.4404969160211163e-01 5.5491127117182728e+00 -3.1213315174554552e+01 4.1200282130030544e+01 -3.7747627056934636e+00 4.8736961598239148e-05 -3.3291396899062446e+00 -2.8661493041546811e+00 -6.7449077043067973e-01 -3.6973491443996229e+00 -1.6773286464355235e+00 2.1814699758150216e+00 9.5479304649908165e+00 5.7030840484832557e-01 -1.3058294797686962e-01 -1.1040953940608700e+01 
      </Row>
      <Row Index="19">
        1.8462571907383406e+01 6.7431716442778247e+02 1.0676015018397489e+01 -2.5787153087618336e+01 -4.9137271034345150e+02 -2.9539307939703576e+02 3.4979957418362062e+02 8.3896412879111310e+01 -4.0521282833120438e+00 1.2908028005907028e+01 -2.4511992252908863e+03 -1.5753869254661822e+01 5.7668193308636162e+01 1.6831529161501412e+03 5.3733330789141473e+02 8.6034605396361712e+02 -4.8817865481331137e+02 -8.6696869898960358e+00 -5.4243032138546823e+01 3.1386439812655226e+03 -1.4814155159676147e+01 -1.3844246265518905e+01 -2.0546369693554930e+03 5.8344271562914173e+01 -1.3557142018044278e+03 5.4894125974789074e+02 -1.6254936707857354e+01 -1.8008554640509544e+00 -1.1402329193499590e+03 1.1154964331973360e+00 -2.2724834780298107e+00 1.3349072537381230e+02 -1.2569868241519141e+03 -5.5228461177062616e+02 -5.4212607745877119e+02 -3.1674675549908216e+00 1.5622090960973078e+00 2.5499090465246405e+02 2.3025018865007503e+01 -7.9800235089766929e+00 -4.4333581261706723e+02 1.1158582196562695e+03 2.0419254619503215e+03 4.3156882114295200e+01 -5.3015125911055838e-02 6.3093402446372444e+00 1.4016939283515666e+02 -1.8738095716758437e+01 4.4548927494865310e+01 8.6513661100487909e+01 -4.3260556177990090e+01 -2.5069883472474569e+02 -4.4147960535177361e+01 6.3024675004863155e+00 1.1409713703642727e+02 
      </Row>
      <Row Index="20">
        5.5906255108109448e+00 -4.1912125039012267e+00 -2.8445018324752048e+01 -3.8027179213032349e+00 1.7786416921743896e+01 -7.7989636615466225e+01 -3.0523642385642160e+02 1.1963829870825539e+02 4.9467294057133877e+00 -1.2798201745929241e+01 -2.3078651400444446e+01 -8.1288776818943745e+01 -5.0129715294284534e+00 -1.7897711644474018e+02 -7.2262961651940714e+00 1.0796517136120684e+02 3.6626428463746798e+01 1.7263180320805702e+00 -3.7453595682250409e+00 -1.4814155162939642e+01 1.3982483322210021e+02 1.5445797203916641e+01 1.6539300275797768e+02 2.1128987371246399e+02 2.6389743408527670e+02 -7.8301892274374069e+01 4.6623943612986327e+00 -8.8876775494900357e+00 2.4622354380571323e+01 1.4241036984121621e+01 2.1752565654356424e+01 -2.0746810126719758e+01 1.5701640123077345e+02 5.7443010717614044e+01 -4.2141613504327637e+01 -2.9658375133045496e+00 -2.0630784103583180e+00 -2.6929189676252555e+01 -6.2913784844647061e+01 -7.6341218115126992e+00 5.2305785710678350e+01 -3.6094015782060836e+01 -4.1832828830997329e+02 4.5150573958119551e+01 -1.7139311490371858e+00 6.7664459342080736e+00 -2.4858683100945775e+00 -1.0202893217017362e+01 1.2875014339435277e+01 -3.9518081774915110e+00 -2.8739829313834441e+01 5.6534493753155218e+01 3.3616114036213190e+01 -3.6926999396316713e+00 -2.2870747944270033e+01 
      </Row>
      <Row Index="21">
        1.5874335598829354e+00 -2.6901287678388542e+01 1.1275103175582800e+01 4.9985204265455536e+00 -1.0025306368568545e+02 4.0370377552273203e+02 7.2400801367464197e+01 4.5538910754721542e+01 2.2756381049105912e+00 -4.4655654567004461e+00 -1.3165283520882788e+01 -2.1374207980740209e+01 -5.7657809534431237e+01 -6.1613106490383998e+01 5.3360523288107652e+02 -3.8193540190022020e+01 3.4120603454060884e+01 1.0249612569984379e-01 2.9326326895975114e+00 -1.3844246265877700e+01 1.5445797204491839e+01 5.1110764759309461e+01 2.7817611662582099e+01 4.8450982317211447e+02 -1.9856614150061682e+02 -6.2566653611645620e+01 1.3376514676444162e+00 -1.4043134860530415e+00 2.8294676268274998e+01 6.9662231543567543e+00 5.2640793675852198e+00 1.5839433489000788e+02 -4.6201374837895287e+01 -1.5062696346386505e+02 -2.4647121294324300e+01 -3.7202404990358957e+00 -6.1582665686927740e-01 1.6911972499166641e+00 -2.6555725205055968e+01 -2.8415333008593784e+00 8.2613591449427446e+01 -2.9635141573069325e+02 2.0945763364169079e+02 9.4993390908645239e+00 -9.2757060653516632e-03 1.6600437445648430e+00 -3.2493947765372257e+00 -2.2548709195169778e+01 -2.3690206841031198e+01 -3.0153202412155458e+01 -1.6134983468265709e+01 -4.1978312535883383e+01 1.0559461061184695e+01 -1.6998883140958228e+00 3.3294912025803775e+01 
      </Row>
      <Row Index="22">
        2.1821501346366176e+01 -5.2013751119019071e+02 -1.5768676387900922e+02 1.2661037300380053e+02 -2.0380128495960716e+03 2.2732906978495885e+02 -2.9020279876824861e+02 -2.0992081658053030e+02 1.5231945610616435e+01 1.0290988488634639e+01 1.5797815870027416e+03 -1.5702659480845887e+02 -3.7488190244230481e+02 -5.6921892283505476e+03 4.0673979000851978e+02 -2.4239232765143242e+01 -2.6510315896549037e+02 4.6516816858364109e+01 9.6395519863290247e+00 -2.0546369693711749e+03 1.6539300277183247e+02 2.7817611656928420e+01 7.5682752637387684e+03 6.6253841506870394e+03 3.2580155147942480e+02 8.2047200344077282e+01 -8.1359417288162703e+01 2.2022461551908236e+01 2.3974393989826785e+02 7.6747559996883410e+01 -3.7030512254818134e+01 3.3035173287948496e+03 7.8975527500259759e+03 1.5946538277183305e+02 -1.7158681236180232e+02 7.1913006001018402e+00 -9.5195576164670754e+00 -1.5389471775082080e+02 1.0277185302331851e+02 1.2758211321955800e+02 7.1011968445701154e+02 7.0009909761128392e+03 -1.2077375786705801e+02 2.0955333889883102e+02 1.0763031126626323e+01 -7.7747698724488412e+00 -8.5198239515758914e+01 4.4146686873135877e+01 -4.0353418447862987e+02 -6.3141643683751806e+02 -1.0438432582720827e+02 -8.7442416742076409e+02 -6.4836928705604294e+01 1.9548622118329284e+01 8.6830040052271579e+02 
      </Row>
      <Row Index="23">
        -1.7789224741320430e+02 -1.9241662805804726e+03 -5.8858692919678606e+02 -2.3456553278090607e+02 -1.6054520877522466e+03 -5.7758774283818086e+04 -3.7773391671344325e+02 -1.0683692934343308e+03 -2.9936675778996891e+02 2.4474468257421449e+01 1.5513499152776531e+03 -7.4042532898612717e+02 -5.3796943480984214e+02 -7.1620569973862112e+03 -4.7659450567183201e+04 -3.0994673422593287e+03 -5.4145797037948023e+02 6.9491301897787071e+02 -1.5880617155934124e+02 5.8344271564041264e+01 2.1128987370133382e+02 4.8450982316580121e+02 6.6253841505271685e+03 9.5710997133481374e+05 4.9288237408682344e+03 1.1356917112621372e+03 -1.2320180522429428e+02 -2.5170467408952675e+02 1.2295733967291017e+03 -2.4067844349850793e+02 2.3639366943100583e+02 1.9002715553186854e+03 -2.0994382245141896e+03 4.3100494139097736e+02 2.7108401164512918e+02 -9.5460669371244649e+01 1.6007275734246960e+01 -4.7510417924887668e+02 5.6544365223187799e+02 1.6156246767542939e+02 6.0806868165349590e+02 -1.2469139172408060e+04 -6.9706474158798974e+03 3.7275392170764826e+02 4.7181370843559364e+01 1.7688820252731969e+02 -1.1473146751352141e+02 4.7096509020200665e+02 -2.3740985055421859e+02 -6.6241770885270307e+02 -1.5756724765866322e+03 9.5030520105785467e+02 -2.3898680067642283e+02 -1.1883112112077578e+02 -4.6166679429286688e+02 
      </Row>
      <Row Index="24">
        3.7978117674365421e+01 -1.8139043656058493e+02 -5.9997610873658584e+02 8.8317164680855598e+01 4.0663107420329079e+03 -9.9025522072417662e+03 -2.8187943900642713e+03 -4.7854480021036579e+02 -2.8373800876738642e+01 1.2851485267325916e+02 8.1424078651619493e+02 3.4664651080736076e+02 -3.7132344217766736e+01 -4.2043325520588296e+03 -4.3011124569205567e+03 -9.4754684791378095e+03 -6.9311199233688478e+02 7.6633752687572269e+01 -4.1739715265837731e+01 -1.3557142016005237e+03 2.6389743390541116e+02 -1.9856614146727952e+02 3.2580155142667468e+02 4.9288237394839525e+03 1.7021304228246030e+04 1.2480577088412538e+03 -6.5387124866010751e+01 1.2811320467225778e+02 -3.6686870875931345e+02 1.2861823929265665e+02 -1.6359276652408354e+02 -4.8803499396806565e+03 2.5203047367104977e+04 6.0418288381981392e+03 5.6258380307261382e+02 -4.4203818266614689e+00 1.3372218205775901e+01 -1.5961600650154116e+02 4.8532528065319519e+02 7.0505788560928153e+01 7.0368352583270507e+02 4.1476110571206864e+03 -2.3302189103455923e+04 1.1474319921949180e+02 8.8246285140049796e+00 -9.5990631217858095e+01 -4.9979664426155786e+01 5.5992683403326373e+02 -2.0922831326326428e+02 3.9910549466005244e+02 8.4296018498748435e+02 1.0607205048929958e+04 -1.1757757574971015e+02 9.7706897355724251e+00 -8.9681716087228961e+03 
      </Row>
      <Row Index="25">
        -1.1028435801896137e+01 1.7632902947714729e+02 -6.0837108888911246e+01 -1.1326267785432492e+01 6.6853203587802511e+01 8.8059892433097411e+02 -3.3069717934132768e+01 -5.5148141359680767e+02 -6.4989553319266236e+00 7.0857271363496011e+01 -4.7814095024983453e+02 1.4051746429964805e+02 8.4847160882155791e+01 -3.4008515990733304e+02 2.4711353474078351e+03 -7.6652055868320940e+02 -7.5564686694078546e+02 -1.8874657349808786e+01 -2.0033507680065213e+01 5.4894125975210773e+02 -7.8301892278338983e+01 -6.2566653612243954e+01 8.2047200312054201e+01 1.1356917112313386e+03 1.2480577089929318e+03 1.2434285804146143e+03 -4.0449429297688624e+01 5.6166100352656287e+01 -5.9330413254790983e+02 -4.8577151123197382e+00 -3.4969452352114885e+01 -4.5007802851045079e+02 1.5161505887135479e+03 5.2381373653313949e+02 1.1672977705634270e+02 1.7610868996317322e+01 6.1167620608728424e+00 9.4398562497508081e+01 2.6022106581752286e+02 3.0618904385558729e+01 -2.4270315353004787e+02 2.2888591449976911e+03 -1.6576059265381341e+03 -1.2980180860728484e+02 -2.3820489423948521e-01 -3.5152910453255579e+01 4.0986914942554975e+01 1.5915886158154802e+02 3.8745595592734432e+00 5.7413507614684328e+01 3.8985362878467413e+01 2.6700880922449369e+02 -1.5195075223469962e+02 2.2531565586078838e+01 -1.8794327937596850e+02 
      </Row>
      <Row Index="26">
        8.4815673308424877e-01 -1.6587581463144602e+01 2.2694720588594734e+01 -4.0278301547544260e+00 1.9513768125483999e+01 2.2348672096870359e+01 -2.8557934274380671e+01 2.6558344632636363e+01 -1.1874346323069201e+01 -2.3934697285136153e+00 1.2896692736849332e+01 -1.3629134165567933e+01 1.5042411543677400e+01 1.5138557210665297e+02 4.0088432627548173e+01 6.3892422088596618e+01 3.7887292933378596e+01 5.8412357994155570e+00 1.5037053677826577e+00 -1.6254936709089634e+01 4.6623943619599117e+00 1.3376514675873068e+00 -8.1359417289931486e+01 -1.2320180521965449e+02 -6.5387124836548992e+01 -4.0449429297352452e+01 3.4152603161830008e+01 9.3250396556015858e-02 1.9427273382031217e+01 6.9384325259308355e-01 6.6542359930280224e+00 -4.6150431291167919e+01 1.1458849724836853e+02 -6.9283406172783728e+00 -4.9031420633024085e+00 -1.1303981493111280e+01 -2.0008184688437947e-01 -5.2847105036863899e+00 -3.0206328343109021e+01 -7.8632373518960330e+00 -1.7999415732445025e+00 -2.9810519294519202e+02 7.2467263419715692e+01 -4.3157816323364715e+00 -1.3987495329809254e+00 1.3339988808501649e-01 -2.1985432455580933e+00 -2.5339083331402485e+01 1.9602253739820839e+01 1.2261536606597428e+01 7.1668473086522360e+00 -3.2363652288484090e+01 9.4261939874937326e+00 -1.0320760656761983e+01 2.3722406924811160e+01 
      </Row>
      <Row Index="27">
        -4.3999336102454834e-01 3.4376487793738306e+00 -2.2906910009963051e+00 -5.3835884698641507e+00 -5.5088536182142827e+00 -2.8889515846868380e+02 1.4318920707726022e+01 -5.2968124271782585e+01 -2.0613084892929763e+00 1.1616367725117215e+01 1.0366730119719591e+01 9.1384835763039973e-01 7.9639680933929000e+00 3.3602435314928911e+00 -2.5730426606880792e+02 -7.9168225921478438e+01 1.6425291201979849e+01 2.1565079904008257e+00 6.3460822923300952e+00 -1.8008554628731872e+00 -8.8876775503573526e+00 -1.4043134859091424e+00 2.2022461551038166e+01 -2.5170467409665980e+02 1.2811320467002838e+02 5.6166100351832654e+01 9.3250396469047203e-02 2.0267625342453776e+01 -2.5581098498887513e+00 1.2143046952705845e+00 2.7059715008266472e+00 -9.1619818352359292e+00 -1.7913569185433460e+01 5.8817919286082777e+01 4.4068915746016842e+01 1.1618042630337868e+00 1.8584023511277874e+00 1.3580889210781129e+00 9.4957370461141153e+00 2.0151879606162459e-01 -5.2053897786854604e+00 -1.2729634664883520e+01 -1.8267293750606095e+02 1.7065710142050659e+00 4.5753625256226405e-01 -1.1196547977285713e+01 4.5508169940901777e-01 2.7223021118165036e-01 3.6733732708298139e+00 2.4183198475639038e+00 8.5231860934840906e+00 4.5861328892825235e+01 -1.0154132474722466e+01 2.3096584152320876e-01 -3.8918109871652057e+01 
      </Row>
      <Row Index="28">
        -7.1787663736581351e+00 -4.2458530400474888e+02 4.8652502234414122e+01 -3.4554900487104305e+00 -5.9078088123667257e+01 3.0298975783687492e+03 -9.6221482252351507e+01 6.4874917566522981e+01 2.6015433852941499e+00 -1.3252508994126629e+01 1.0821050478196662e+03 -6.4142158061069836e+01 -8.5287381157708779e+00 -3.9956257449197437e+01 -1.7721717111137696e+02 2.8666895519735704e+02 4.9589042163782869e+02 1.1197642602899805e+01 2.9771934300392104e+01 -1.1402329193536170e+03 2.4622354383338234e+01 2.8294676268295689e+01 2.3974393990908993e+02 1.2295733967520937e+03 -3.6686870879321077e+02 -5.9330413254699010e+02 1.9427273382353935e+01 -2.5581098501071722e+00 1.0446004938816641e+03 -8.3260077891497986e-01 2.9487781604652003e+01 1.0371852625793912e+02 1.1329144913502660e+02 -9.5667463230754620e+01 3.7561720058725308e+02 4.1822503593436977e-01 1.0563413188418411e+00 -1.5412077287330763e+02 -9.7875843567869310e+01 -6.9061418963066590e+00 6.8878028319280361e+01 -1.3095866438718508e+03 3.9592348138810706e+02 -2.6888897099757109e+01 1.5973971095117445e-02 -1.7572461750942932e+00 -7.0363503816185101e+01 -5.4492549109851041e+01 2.2717195822753823e+01 -1.7238955606294340e+01 -8.4827491108102038e-01 -1.7144620243449083e+02 7.0317837788254380e+01 -1.1081053892811052e+01 1.4626528085795957e+02 
      </Row>
      <Row Index="29">
        1.0362475084224947e+00 -2.3016559111955871e+01 -1.4360812357651872e+01 2.2433998004961211e+00 -4.7852013890369221e+01 -3.2262484872724599e+01 -5.2070218721146944e+00 1.7679178556528313e+01 -5.7649745755147954e+00 -5.6828644937175028e+00 3.3123380464081720e+00 3.3223790209019626e+00 -1.4858145099814466e+01 -1.4695659329724828e+01 -4.4360070838615866e+02 -1.0503040379636599e+02 1.9828280340540076e+01 1.1112338581119559e+01 2.6327670811984092e+00 1.1154964337811180e+00 1.4241036983435379e+01 6.9662231543227904e+00 7.6747559994199264e+01 -2.4067844350171799e+02 1.2861823931834385e+02 -4.8577151119154109e+00 6.9384325240293876e-01 1.2143046954241328e+00 -8.3260077938984978e-01 3.5795432471148274e+01 -8.7286080749827732e+00 1.4043211765261304e+02 2.6932602949665556e+02 -2.0510102175674731e+01 -3.8281482538389096e+00 -6.5362273402194120e+00 -1.4528007142595021e+00 3.6921530116925898e+00 5.0776348671223435e+00 -4.3555856443750338e+00 2.3035115153055017e+00 2.6947223177496187e+02 -1.9157746364365644e+02 1.5611129644254568e+01 2.4603081130744080e+00 -2.3855448656407835e-01 -7.5013753660598637e-01 -3.7248291269398379e+00 -1.4222727261560495e+01 -1.2122930779788714e+01 1.9494666122264174e+01 4.5348769982887482e+01 1.8078944659618017e+00 -2.8415662810764353e+00 -3.1688724023448341e+01 
      </Row>
      <Row Index="30">
        3.5853700936809716e+00 -1.1906902817027571e+01 2.1042468930439103e+01 -1.7245714618663925e+01 -2.2445724981730564e-01 1.5844340365201060e+02 -9.6018551325949034e+01 3.0973747261442668e+01 2.1422852325107016e+00 2.2785686019136051e+00 8.0376260882194401e+00 -3.7257788006466285e+01 3.8726645498443645e+01 1.2183920005477498e+02 2.7882393195708573e+02 2.4970086991033156e+02 1.9949728542591640e+01 -5.2223768330023859e+00 -1.9707578397843122e+00 -2.2724834797518270e+00 2.1752565655784224e+01 5.2640793675940358e+00 -3.7030512253523739e+01 2.3639366943768982e+02 -1.6359276652694166e+02 -3.4969452352615463e+01 6.6542359932886885e+00 2.7059715007147247e+00 2.9487781605028431e+01 -8.7286080748270365e+00 3.7747051912800096e+01 -1.1171734004200638e+02 -3.2619172223897499e+02 1.1164926635527017e+00 -3.2395506155090516e+01 3.4839475724321289e+00 -5.4597672630786764e-01 -6.6203743604921561e+00 -4.6376290759540446e+01 -1.4553141411172149e+01 3.6240744008133511e+01 -6.0966708352046840e+02 2.6724748465659434e+02 8.2843394371676524e+00 -1.2462157708259287e+00 -1.3035807897152323e+00 -1.3210700025490207e+00 -2.4907134171292597e+01 4.7925363295096417e+01 1.4900305083834184e+01 -2.2870454015681172e+01 -8.3234004870354525e+01 1.1579436059853304e+01 -8.0104436252989863e-01 5.8326222888013085e+01 
      </Row>
      <Row Index="31">
        2.0130669289589719e+01 -4.3215112873440376e+00 -1.8691486287576179e+01 1.0150325053629012e+02 -3.0625907063568729e+03 5.1800740186974872e+02 1.4634403915272324e+03 -2.2848746913039577e+02 -7.2534710336303760e+00 -5.5011725533865956e+01 -4.6760097318736371e+01 -5.7184578768341453e+01 -4.3472921023034201e+02 -7.4917730561624739e+02 -1.4672664213299286e+03 1.8212128974282368e+03 2.5328945373173121e+02 5.2835614910827644e+01 2.1232790690775801e+01 1.3349072537271422e+02 -2.0746810104694305e+01 1.5839433488935902e+02 3.3035173289370650e+03 1.9002715554395108e+03 -4.8803499411001321e+03 -4.5007802850886401e+02 -4.6150431283940605e+01 -9.1619818418598697e+00 1.0371852626912005e+02 1.4043211765106207e+02 -1.1171734003378199e+02 5.4523932423354199e+03 7.8306058213415599e+02 -2.1009669616631777e+03 -5.3497199879713662e+02 -3.1562634913415422e+01 -1.3404925627174020e+01 8.7211996896570852e+01 6.5685246193934987e+01 3.9864888850993950e+01 1.2880426228174730e+02 4.8329911186405770e+03 7.2527454358628729e+03 1.1940769185600692e+02 9.3282497134319016e+00 1.8781046168502158e+01 7.7202695382025510e+00 -1.2273555808237143e+02 -3.6694578626793333e+02 -6.1625180232877142e+02 -1.9848856065637790e+02 -1.7470434888309460e+03 -8.5151868923185390e+01 -3.9361139835974512e-01 1.3046591367184071e+03 
      </Row>
      <Row Index="32">
        -4.7469191058593424e+01 4.3482139215180359e+02 3.0659147723751221e+02 8.1094979856505233e+01 -6.4666413409026427e+02 -9.9574265382792801e+03 -2.8707031081833411e+03 -9.7062066147463338e+02 9.2465857518947814e+01 1.1753978762934457e+02 5.4246786036077538e+02 -5.3247011484348332e+02 -2.1976235351059907e+02 -6.5925819124617356e+03 -1.1302038166962564e+04 -1.6710261117863905e+04 -3.3090847793512239e+02 -3.2040305225797783e+02 -1.1534741617655527e+02 -1.2569868241103832e+03 1.5701640111843881e+02 -4.6201374843352824e+01 7.8975527493847185e+03 -2.0994382249973714e+03 2.5203047373526555e+04 1.5161505887741223e+03 1.1458849721058505e+02 -1.7913569152819036e+01 1.1329144905076828e+02 2.6932602950317960e+02 -3.2619172227997842e+02 7.8306058215162921e+02 9.7340036127761542e+05 7.5571519462457027e+03 6.8000640800922702e+02 -1.6467601290368475e+02 1.6167280176166656e+01 -7.6412634268217374e+01 -1.9391324152410061e+01 1.1329444819360697e+02 -8.6474244103394585e+02 -3.6374793403881013e+03 -3.8296516018067290e+04 -1.4836120518816131e+02 9.6072654680113203e+00 4.0650122391446075e+00 -3.1368113942059608e+01 -5.8146870233434856e+02 -4.0284858831926698e+02 -2.5261145792720026e+02 2.2198101123394936e+03 8.0597114058385932e+03 -1.0430304205251093e+02 3.1526970253195827e+01 -5.8703368799806512e+03 
      </Row>
      <Row Index="33">
        2.5307769369890593e+01 -6.7337439468501543e+01 -1.7785796599219330e+02 -3.2148518322741438e+01 1.5648116144097949e+03 -3.8906513208253309e+03 -1.2756618413740434e+03 -3.2913367871665832e+02 -8.4276809624943780e+00 7.7792867233256402e+01 3.7672444582664320e+02 1.1449893111562415e+02 2.0222401695969853e+02 -1.1474549428529726e+03 -1.9837417555982247e+03 -2.7017132830336268e+03 -2.8529302932318330e+02 2.4925511293913587e+00 -3.6204735843919480e+01 -5.5228461169986986e+02 5.7443010656199476e+01 -1.5062696345210861e+02 1.5946538274508202e+02 4.3100494090025313e+02 6.0418288382042811e+03 5.2381373647611326e+02 -6.9283406268177714e+00 5.8817919286660981e+01 -9.5667463217105251e+01 -2.0510102184747666e+01 1.1164926653988232e+00 -2.1009669611776335e+03 7.5571519440263510e+03 2.8890088241006274e+03 2.0827226742371568e+02 1.3202495272154920e+01 5.7222242009091575e+00 -7.3772943750254967e+01 1.8104191872713145e+02 -1.8932404622676273e+00 2.7476274851830306e+02 -7.0828223515517639e+03 -8.2945889607837598e+03 1.5219162607498191e+01 -8.8283367507917987e-01 -4.8970985211077014e+01 -2.1479838489256046e+01 1.9997646273838382e+02 8.4094207215824213e+01 2.2074799713088905e+02 3.0475601147125951e+02 3.6284390513475073e+03 -6.8058947237944324e+01 6.9267414678089914e+00 -3.0818083359156972e+03 
      </Row>
      <Row Index="34">
        -4.0546539351288686e+01 -2.0570849785358405e+01 -3.6487073940602755e+01 -2.6747159472845851e+01 8.4554863018753394e+01 6.4210541960083356e+02 7.8222688458593893e+01 -1.4436740564212823e+02 3.2431786788982748e+00 3.3999122530514455e+01 4.9608719860279461e+02 6.5615299216371113e+01 1.7308655724624604e+01 -7.5633603190098313e+00 2.9418863652004802e+02 -4.4777586533747217e+02 3.5414685656257910e+02 2.0642004207165883e+00 4.7464646601535605e+01 -5.4212607745670175e+02 -4.2141613507372085e+01 -2.4647121294133512e+01 -1.7158681236851589e+02 2.7108401163275994e+02 5.6258380313487396e+02 1.1672977705628682e+02 -4.9031420639471293e+00 4.4068915746459822e+01 3.7561720058656829e+02 -3.8281482539396166e+00 -3.2395506155464346e+01 -5.3497199878351034e+02 6.8000640795080108e+02 2.0827226744574727e+02 8.9022348752008077e+02 1.3759690204887363e+01 1.0485382017304211e+01 -5.3736601226160182e+01 7.5182926723937484e+01 1.8253139653919462e+01 -8.4999114879803685e+01 -4.9528060582284434e+02 -9.0557687420956790e+02 -3.7986588153367826e+01 -5.6197626492648567e-01 -3.7524152024448746e+01 -2.5643337456915127e+01 4.2599806406367861e+01 -2.5537808362441009e+01 5.8787573570818630e+01 3.1804096033392355e+01 1.8520359422112102e+02 1.9334541830817201e+01 3.2792510369761345e+00 -1.3069608004291041e+02 
      </Row>
      <Row Index="35">
        -7.2348013714253934e-01 1.2649540759348380e+01 -6.8866553842186615e+00 -1.3369058973257002e+00 -8.5435461438197606e+00 -1.7087687323768148e+02 -9.1578988565810704e-01 -1.4005103016444050e+01 6.4027909721456844e+00 1.7014182318635058e+00 1.2413353134563003e+00 5.3412510434520444e+00 3.6951001936004890e+00 -2.1378377051445330e-01 -1.6174332499307184e+02 1.0729510501960089e+01 -3.6012918517643513e+00 -9.0839112584069852e+00 1.8583074096724683e-01 -3.1674675547357651e+00 -2.9658375133543124e+00 -3.7202404989925917e+00 7.1913006012639400e+00 -9.5460669372285167e+01 -4.4203818421494390e+00 1.7610868995969948e+01 -1.1303981493056968e+01 1.1618042629666969e+00 4.1822503620745977e-01 -6.5362273402835322e+00 3.4839475725673497e+00 -3.1562634911313651e+01 -1.6467601291487108e+02 1.3202495266934152e+01 1.3759690204638146e+01 1.1378531176587803e+01 2.4985293659613436e-01 6.6242537088358666e-01 6.1044512303008274e+00 4.4766930648338377e-01 5.0140000758230396e+00 1.3745917546064965e+02 1.5864921676736301e+01 1.7478741236416129e-01 -3.9791583032171340e-01 -7.9894904052394722e-01 6.3427670544112713e-01 1.0198507721288870e+01 2.5079591276124269e+00 1.7680596716514756e+00 -8.8327522397287268e+00 8.0700792162909241e-01 -1.7385848381763191e+00 6.0836832457979915e+00 -8.1650448341153314e-01 
      </Row>
      <Row Index="36">
        -3.7813237783259113e-01 -1.0678765891151798e-01 5.3131092782356770e-01 -1.0397421506142575e+00 6.4969051372720337e+00 1.7036407529472854e+01 6.9489651321941182e-02 -1.6715831024549672e+00 3.0554523878848272e-02 1.6192779517028049e+00 2.4741877602235860e+00 8.2971869091039707e-03 6.2765881171665583e-01 5.0350385922405705e-02 3.0255064858497235e+01 -8.7688084638743788e+00 1.1310278218646559e+00 -1.2514602076645431e-01 6.8966712528605001e-01 1.5622090961027766e+00 -2.0630784104032074e+00 -6.1582665687099691e-01 -9.5195576167149767e+00 1.6007275734118593e+01 1.3372218208052772e+01 6.1167620608937874e+00 -2.0008184689725977e-01 1.8584023511401979e+00 1.0563413188168624e+00 -1.4528007142577124e+00 -5.4597672632029570e-01 -1.3404925627172275e+01 1.6167280176057830e+01 5.7222242017065668e+00 1.0485382017326259e+01 2.4985293660043162e-01 7.9183179198771603e-01 3.1600380591606303e-02 1.1004759517444038e+00 6.9868705798706399e-01 -1.4191648137549162e+00 4.8819982555297869e-01 -1.9757353444408729e+01 -1.7101160541882916e+00 1.9248602768892398e-02 -1.1114326343391498e+00 1.1769594767021503e-01 2.7961692987776043e-01 -1.4707066068437746e-01 1.5008253601670745e+00 8.7316141525477242e-01 2.8602753915652617e+00 5.9265804791231780e-02 1.3076718671301535e-01 -2.1302528934395908e+00 
      </Row>
      <Row Index="37">
        8.4225147206348883e-01 8.7347284505901925e+01 4.0477905387914834e+00 3.2818099911146188e+00 -9.6905487154560063e+01 -1.0053773296549654e+03 7.4315819430567586e+01 -1.7874226669070822e+01 -6.9942226806906815e-01 2.9631727173049431e+00 -2.0599494584002775e+02 1.7617138463361108e+01 -6.8481689696279835e+00 1.6299866576928858e+02 7.3372794053361986e+01 3.5246235545817953e+01 -8.3459432575512750e+01 -2.2926761709452617e+00 -4.3765103611937830e+00 2.5499090465377478e+02 -2.6929189676304883e+01 1.6911972501511841e+00 -1.5389471774501806e+02 -4.7510417925414487e+02 -1.5961600657358807e+02 9.4398562495980883e+01 -5.2847105034624979e+00 1.3580889207294262e+00 -1.5412077287221402e+02 3.6921530113954057e+00 -6.6203743599464158e+00 8.7211996905745963e+01 -7.6412634316262029e+01 -7.3772943774909450e+01 -5.3736601227314452e+01 6.6242537088121534e-01 3.1600380574914988e-02 5.6480785642720107e+01 1.6210941714425953e+01 1.6869550353489737e+00 -1.7204727650318265e+01 4.6141072336139428e+02 2.7622454729646398e+02 -9.9345501801978617e+00 1.0510537575772676e+00 -2.5891587421490558e-01 1.4232567605941622e+01 4.2459668274550069e+00 -7.4481189376934092e+00 -2.7497131402356025e+00 -3.8056767584087225e-01 -1.7454218440997174e+01 -1.2358910688032601e+01 2.5305681869671792e+00 -9.3981366907898789e-01 
      </Row>
      <Row Index="38">
        -4.6508690370880146e+00 5.4163998269457124e+01 -4.3832760311651327e+01 9.0454224887459418e+00 6.6394116710236631e+01 9.7478466656160890e+01 1.7108907724978326e+02 -2.1088966118644976e+02 1.2743891897176240e-01 1.1045027100962272e+01 -2.9660932114254138e+01 9.4063878301370323e+01 -8.2794394392061292e+00 -2.9118969108763042e+02 9.7527509256397025e+02 -5.2261192789887514e+02 -1.8934011993606248e+02 -1.6244513272474705e+00 3.1529487100533515e-01 2.3025018871176144e+01 -6.2913784848443356e+01 -2.6555725204676264e+01 1.0277185302075577e+02 5.6544365220076725e+02 4.8532528059614287e+02 2.6022106581464845e+02 -3.0206328343287943e+01 9.4957370459775632e+00 -9.7875843566662297e+01 5.0776348662941473e+00 -4.6376290758570626e+01 6.5685246224384628e+01 -1.9391324318945408e+01 1.8104191870987324e+02 7.5182926721422064e+01 6.1044512306074239e+00 1.1004759516846692e+00 1.6210941715876555e+01 1.5729919961741211e+02 2.0618061034855749e+01 -7.3013901226957273e+01 1.0454134416176880e+03 -7.1108810029768438e+02 -4.2520742091577674e+01 2.1298564263996944e-01 -7.1251904622863469e+00 5.9624813892856068e+00 7.8685771724786889e+01 -5.1594126842857563e+01 -8.3234308172769591e+00 3.3397331530140775e+01 2.0214971331380045e+02 -6.2738016833708649e+01 1.1117517620764247e+01 -1.5993239169451587e+02 
      </Row>
      <Row Index="39">
        -2.4063037381664554e+00 5.2658381903208351e+00 -6.4824943197479286e+00 1.2188710931476486e+01 -8.7206954415825635e+00 2.0542806651675528e+02 2.9888363380460873e+01 -1.6448992846748297e+01 1.1372837189897442e+00 3.2927649852812948e+00 1.1507367194858602e+01 1.6816586918047278e+00 -2.6528450303728206e+01 -2.6148717829418911e+02 1.4478985310484495e+02 -8.1006999800017553e+01 -3.8312725290838287e+01 3.4266371023208535e+00 -3.4404969156119591e-01 -7.9800235084394444e+00 -7.6341218120619772e+00 -2.8415333009293136e+00 1.2758211321970748e+02 1.6156246767451103e+02 7.0505788559924952e+01 3.0618904386353336e+01 -7.8632373520290635e+00 2.0151879611635692e-01 -6.9061418966348356e+00 -4.3555856444197474e+00 -1.4553141411233611e+01 3.9864888853698147e+01 1.1329444818018965e+02 -1.8932404621574790e+00 1.8253139653883125e+01 4.4766930654019177e-01 6.9868705798505237e-01 1.6869550355374821e+00 2.0618061035436675e+01 1.8294764812348554e+01 -2.2592080489179253e+01 2.9167186470217177e+02 -9.9682308241596360e+01 -3.3159137503006821e+00 9.2816258803360085e-01 -2.6798111855826923e-03 4.1875702357425271e-01 1.3298826887520306e+01 -3.2283844969642224e+01 -1.8019596263535597e+01 3.7740522777289209e+00 2.8122093825412875e+01 -6.6217534628753514e+00 1.5765659209110194e+00 -1.9157019876733248e+01 
      </Row>
      <Row Index="40">
        1.3810896816336736e+01 -1.3683295352908772e+02 -2.8577129232823040e+01 6.3146119690410387e+00 -8.7502006678899306e+01 9.4198338107095333e+02 -2.4779505713227763e+02 2.0521417677670615e+02 8.3999266076083927e+00 -1.3965524686193191e+01 3.1743489593070808e+02 -3.0485184901052435e+01 -1.2765627850743039e+02 -5.8391940783350685e+02 1.5007663902281201e+03 -5.0771913591384418e+02 1.3163919758369025e+02 -1.4357945551907960e+00 5.5491127125044386e+00 -4.4333581261371728e+02 5.2305785706122606e+01 8.2613591449938212e+01 7.1011968445640741e+02 6.0806868163499166e+02 7.0368352589586357e+02 -2.4270315352999160e+02 -1.7999415745152447e+00 -5.2053897782254808e+00 6.8878028318016732e+01 2.3035115150923957e+00 3.6240744007235058e+01 1.2880426231093270e+02 -8.6474244113737950e+02 2.7476274853965106e+02 -8.4999114880130037e+01 5.0140000762540922e+00 -1.4191648137937358e+00 -1.7204727648494185e+01 -7.3013901222978788e+01 -2.2592080488700731e+01 6.4189512945483284e+02 1.4959201126697690e+02 -1.0051259512194765e+03 1.0127540486971122e+02 -2.7331251586385150e+00 2.7078080195465146e+00 -2.2499725499318085e+01 -2.8659577514612124e+01 -6.5242968294456631e+01 -7.7971670186595588e+01 1.8220386834211602e+01 2.9717752009465732e+02 4.9310106987621680e+01 1.1668123882473527e+00 -2.2232939307825643e+02 
      </Row>
      <Row Index="41">
        -1.6515903821346342e+02 -8.5306826682512110e+02 -1.0677280270597080e+03 7.7301526144871241e+02 -3.4176982016661714e+03 6.1646453884424409e+02 4.4725452721986421e+03 -9.6444108490193685e+01 2.8438835228249457e+02 -1.3798471121738430e+01 5.8694740196612474e+02 1.2443702879589828e+03 -1.7792664347931641e+03 -6.7871911318032508e+03 -2.1584220986580593e+04 -1.0798270006768045e+04 -1.8598042593671566e+03 -6.3607024346912840e+02 -3.1213315171719842e+01 1.1158582196110510e+03 -3.6094015790231424e+01 -2.9635141573483088e+02 7.0009909760677110e+03 -1.2469139172209310e+04 4.1476110587311123e+03 2.2888591450737949e+03 -2.9810519295818494e+02 -1.2729634657628367e+01 -1.3095866439146193e+03 2.6947223178345575e+02 -6.0966708354699904e+02 4.8329911184575403e+03 -3.6374793392959982e+03 -7.0828223510219141e+03 -4.9528060578455006e+02 1.3745917546170949e+02 4.8819982621305336e-01 4.6141072336442693e+02 1.0454134416773572e+03 2.9167186471422730e+02 1.4959201132363137e+02 9.2579635607675090e+05 -1.3007792470229203e+03 3.2443996585174773e+01 -1.7204519405972792e+02 9.8928993234010022e+01 9.4685065676907669e+01 8.5449204889803468e+02 -2.0228315488573749e+03 -1.1056059650962627e+03 -4.0443813420942070e+02 8.5844623756397823e+01 -2.7611216243595800e+02 2.7014263167627769e+02 -6.8083186382221606e+02 
      </Row>
      <Row Index="42">
        -5.3332494026748464e+01 2.7533124350872822e+02 8.7343236273375805e+02 -1.4043481988424901e+02 -6.2272220000054222e+03 1.5353213465571404e+04 3.6839959060323890e+03 7.1491149279242381e+02 3.8027162473110366e+01 -1.7059664704161696e+02 -1.1060992598906159e+03 -5.1719123654323630e+02 1.3525584940452245e+02 6.1718504505676538e+03 6.6906085273623466e+03 1.3303825053957757e+04 8.5593788566236617e+02 -9.4672250086907297e+01 4.1200282462174073e+01 2.0419254672899842e+03 -4.1832829141314141e+02 2.0945763475820422e+02 -1.2077374664507806e+02 -6.9706474475935102e+03 -2.3302189226771239e+04 -1.6576059321621433e+03 7.2467263244168862e+01 -1.8267293808699469e+02 3.9592348393239081e+02 -1.9157746452186257e+02 2.6724748545709735e+02 7.2527454776272643e+03 -3.8296516206473112e+04 -8.2945890039256774e+03 -9.0557687712786719e+02 1.5864921917906031e+01 -1.9757353512133704e+01 2.7622454851582279e+02 -7.1108810178123917e+02 -9.9682308401651312e+01 -1.0051259550309915e+03 -1.3007792674526572e+03 8.8978663856346451e+04 -1.3235424791621699e+02 -9.4732883364486042e+00 1.3919941132581985e+02 8.6216296658299129e+01 -8.1785527033422841e+02 3.3716967623400001e+02 -6.0375510394955563e+02 -1.2614114214916995e+03 1.4771074333967923e+05 1.6538897937071215e+02 -9.5140119400476735e+00 -1.5014964650555982e+05 
      </Row>
      <Row Index="43">
        6.1281325958128257e+00 1.2337676764584558e+00 -3.5309219747808498e+01 4.0005041196605760e+00 -1.3972165629638300e+02 4.2003185980613853e+02 -2.8602801379349103e+01 1.4878822883960186e+02 -6.4827528508048715e-01 -2.3157830020948893e+00 -2.5329989518965476e+01 -5.7173210531491009e+01 -3.6263890595830858e+01 -1.0124923680041033e+02 2.8224239148104971e+02 1.8116768799215492e+01 1.0033142509616346e+02 1.1242575853012795e+01 -3.7747627055252337e+00 4.3156882114112705e+01 4.5150573957363690e+01 9.4993390908212518e+00 2.0955333889803046e+02 3.7275392170914711e+02 1.1474319926194698e+02 -1.2980180860584261e+02 -4.3157816327581848e+00 1.7065710144612538e+00 -2.6888897100792747e+01 1.5611129644384832e+01 8.2843394365959035e+00 1.1940769185713293e+02 -1.4836120518037933e+02 1.5219162621736473e+01 -3.7986588152726654e+01 1.7478741244960361e-01 -1.7101160541825422e+00 -9.9345501798791034e+00 -4.2520742089892615e+01 -3.3159137500020819e+00 1.0127540487057240e+02 3.2443996583349872e+01 -1.3235424685834266e+02 1.1977410424371851e+02 2.6549408575800673e+00 -1.1801229536228837e+00 2.3140014237129876e+00 -3.0161525464333721e+01 -2.3367904444632728e+01 -2.7938025858108546e+01 1.6328797626658371e+00 5.0041265252890184e+01 3.2961043516827310e+01 -8.5970981505250454e-01 -3.6427645476155497e+01 
      </Row>
      <Row Index="44">
        -6.2061528247452813e-02 -5.4773623357340071e+00 -1.1043580754253730e+00 7.2809588497657085e-01 -4.1055472914624769e+00 9.0287390491988162e+01 1.9220675556460058e+00 1.8193065361531850e+00 -4.8279181589183451e-01 3.3283684584517292e-01 5.2172594680164295e+00 -1.0527839900217391e+00 -1.7490188909280708e+00 -1.0761725189937307e+01 4.5801164463325676e+01 -2.6690283836956610e+00 9.2893734526336269e-01 1.9563191103210080e+00 4.8736967929841057e-05 -5.3015125849697142e-02 -1.7139311490906728e+00 -9.2757060676902370e-03 1.0763031126592068e+01 4.7181370843325908e+01 8.8246285144326535e+00 -2.3820489419643565e-01 -1.3987495329930455e+00 4.5753625256903563e-01 1.5973971067353432e-02 2.4603081130700986e+00 -1.2462157708312045e+00 9.3282497137156213e+00 9.6072654667923416e+00 -8.8283367490089404e-01 -5.6197626493570496e-01 -3.9791583031674271e-01 1.9248602768568834e-02 1.0510537575984245e+00 2.1298564268970197e-01 9.2816258803505258e-01 -2.7331251586686025e+00 -1.7204519406059612e+02 -9.4732883024689514e+00 2.6549408575593816e+00 9.3692794755427289e-01 -2.3578114996067912e-01 -1.3470176546601559e-01 -2.6661195973027585e-01 -1.8896542613021103e+00 -1.5003795127261170e+00 2.4664125599453897e+00 2.8234390651911543e+00 2.4728280171758321e-02 -3.0554096300973867e-02 -1.9152646591932680e+00 
      </Row>
      <Row Index="45">
        1.5238890277983685e-01 -3.1683266283462217e+00 2.2165002528293911e+00 2.8489901456256064e+00 8.5699381075698966e+00 1.9898318644110259e+02 -8.9528693253849383e+00 3.4102840808012843e+01 1.0528778711140383e+00 -7.4986514611901356e+00 -8.5450438655947210e+00 -2.3289566889660591e+00 -4.9900999451076729e+00 -5.6370652781473147e+00 1.6170883101992513e+02 5.8632755353543757e+01 -1.0709169217030563e+01 -9.2179310804067427e-01 -3.3291396900044106e+00 6.3093402438526027e+00 6.7664459348347918e+00 1.6600437444727163e+00 -7.7747698715895694e+00 1.7688820253217636e+02 -9.5990631219387637e+01 -3.5152910452741992e+01 1.3339988816049786e-01 -1.1196547977302657e+01 -1.7572461752019990e+00 -2.3855448646743582e-01 -1.3035807897703977e+00 1.8781046164101781e+01 4.0650122607112280e+00 -4.8970985211732568e+01 -3.7524152024185014e+01 -7.9894904057380245e-01 -1.1114326343308969e+00 -2.5891587446650277e-01 -7.1251904624562972e+00 -2.6798111538610669e-03 2.7078080198009360e+00 9.8928993239736883e+01 1.3919941085472254e+02 -1.1801229534505566e+00 -2.3578114995693422e-01 7.0017803572282737e+00 -2.2263349010778033e-02 -1.2326284965108556e+00 -1.9079684206990422e+00 -2.7344479053839259e+00 -6.7829584885957956e+00 -3.4759746115047058e+01 5.7713107545038493e+00 -2.7578092998706127e-01 2.8467082350077256e+01 
      </Row>
      <Row Index="46">
        5.8992426532459885e-01 4.3709340969147583e+01 -2.1164402288786084e+00 -9.8331966123830072e-01 -2.0607365574487190e+01 -2.3417085258140557e+02 2.3138978198364640e+01 -3.1316114005511322e+00 1.2915342756793224e-01 1.4792287594393627e+00 -1.1357989691094971e+02 2.7240876429454906e+00 3.2256539932216457e+00 6.9957364822505966e+01 2.1548343279069371e+01 2.9139780225482838e+01 -3.2294176769333383e+01 -1.1255001766817920e+00 -2.8661493041822577e+00 1.4016939283540580e+02 -2.4858683100697991e+00 -3.2493947764988391e+00 -8.5198239514833759e+01 -1.1473146751474997e+02 -4.9979664440594235e+01 4.0986914942211030e+01 -2.1985432454983140e+00 4.5508169933537035e-01 -7.0363503815932461e+01 -7.5013753667227090e-01 -1.3210700024169131e+00 7.7202695396357690e+00 -3.1368113951361437e+01 -2.1479838494165516e+01 -2.5643337457135630e+01 6.3427670543920223e-01 1.1769594766740668e-01 1.4232567605927407e+01 5.9624813889427157e+00 4.1875702352456579e-01 -2.2499725499682071e+01 9.4685065677290666e+01 8.6216296403624995e+01 2.3140014236531163e+00 -1.3470176547131779e-01 -2.2263348958287840e-02 7.5773665519607416e+00 2.1456112033631820e+00 4.1239673532103505e-01 3.3196385468211629e+00 -2.8789543227467371e+00 -5.7777257646046118e+00 -4.2979607583447184e+00 1.0799436031512186e+00 1.1233388078770028e-01 
      </Row>
      <Row Index="47">
        -2.7020641487709867e+00 3.0302542018022677e+01 -5.6479768458843864e+01 8.8694894587289923e+00 1.2964153739822336e+02 -1.4861481837850297e+03 -3.6514823784738610e+01 -1.3101406543949815e+02 7.9448268449048953e+00 2.5378388997303887e+00 2.3759850134865701e+00 7.5521337931192647e+01 -1.0628267705635608e+00 -2.2748900935633355e+02 1.0263053681629535e+03 -3.7710452963768830e+02 -9.7535366219472479e+01 -8.8334197069075344e+00 -6.7449076986895307e-01 -1.8738095713764778e+01 -1.0202893220264514e+01 -2.2548709195139509e+01 4.4146686862908609e+01 4.7096509018247161e+02 5.5992683409839356e+02 1.5915886158134799e+02 -2.5339083331999277e+01 2.7223021161370298e-01 -5.4492549110467735e+01 -3.7248291271985181e+00 -2.4907134171399310e+01 -1.2273555806937861e+02 -5.8146870240650605e+02 1.9997646276235400e+02 4.2599806406149128e+01 1.0198507721586452e+01 2.7961692985268849e-01 4.2459668287184371e+00 7.8685771727174441e+01 1.3298826887395393e+01 -2.8659577514938405e+01 8.5449204884913343e+02 -8.1785526707941131e+02 -3.0161525465219654e+01 -2.6661195973578344e-01 -1.2326284967623309e+00 2.1456112036305814e+00 7.5853040845727605e+01 -2.5926603933339141e+01 9.1959219161816996e+00 1.8520150955072040e+01 2.1778232515524695e+02 -3.1656625387049637e+01 1.0111480509543153e+01 -1.5510272563410285e+02 
      </Row>
      <Row Index="48">
        1.5584916988416921e+00 -1.0464224916407147e+01 3.8575859545974652e+01 -4.0603779015445355e+01 1.7628797418681017e+02 -2.6818253595737042e+02 -1.6960587848648845e+02 5.2896856751597170e+00 -1.8093007257607781e+00 3.2387112406306073e+00 -2.1345016156232077e+01 -2.5242507765208188e+01 1.2835148607992983e+02 5.8472022521894701e+02 -1.9387834593618754e+02 4.3321010008480221e+02 2.2698511350191836e+01 -1.1298566776848816e+01 -3.6973491445913851e+00 4.4548927491778159e+01 1.2875014341902215e+01 -2.3690206841046802e+01 -4.0353418448289722e+02 -2.3740985054669000e+02 -2.0922831323152786e+02 3.8745595575791185e+00 1.9602253740342697e+01 3.6733732707629372e+00 2.2717195823530346e+01 -1.4222727261258910e+01 4.7925363295166775e+01 -3.6694578628691045e+02 -4.0284858823634568e+02 8.4094207225430864e+01 -2.5537808361510088e+01 2.5079591273708388e+00 -1.4707066066052654e-01 -7.4481189386061741e+00 -5.1594126844568670e+01 -3.2283844969646168e+01 -6.5242968292022979e+01 -2.0228315488099406e+03 3.3716967576759055e+02 -2.3367904443458571e+01 -1.8896542612950213e+00 -1.9079684206913328e+00 4.1239673508801733e-01 -2.5926603933093133e+01 1.2135137401094994e+02 7.7547513809182320e+01 -2.0047284217406400e+01 -1.2964557931857655e+02 8.2563321406153385e+00 -3.2162625532740918e+00 9.1680175010599498e+01 
      </Row>
      <Row Index="49">
        -3.1939447420860603e+00 2.2527725057562520e+01 9.7599193382380349e+00 -2.4574553566832492e+01 3.7014625309799453e+02 -4.2395704807325092e+02 -1.5517236453910004e+02 5.7791875709931446e+00 -2.2105495455469679e+00 4.5477874652526964e+00 -6.6323442025005079e+01 1.7753992880435021e+01 9.2223968758664839e+01 4.7013610002380477e+02 -2.7540554388900637e+02 -7.1191472312528049e+01 -1.4649440759451124e+00 -8.1578784496974777e+00 -1.6773286458541179e+00 8.6513661099976161e+01 -3.9518081789892676e+00 -3.0153202412066548e+01 -6.3141643685356667e+02 -6.6241770886441373e+02 3.9910549480723557e+02 5.7413507613596380e+01 1.2261536606084821e+01 2.4183198481813974e+00 -1.7238955606997479e+01 -1.2122930779590206e+01 1.4900305083158376e+01 -6.1625180233378956e+02 -2.5261145790707087e+02 2.2074799718097688e+02 5.8787573572278916e+01 1.7680596717908657e+00 1.5008253601715422e+00 -2.7497131395685948e+00 -8.3234308149954934e+00 -1.8019596263335046e+01 -7.7971670183097558e+01 -1.1056059651013693e+03 -6.0375509990203864e+02 -2.7938025857667185e+01 -1.5003795127000394e+00 -2.7344479058008915e+00 3.3196385469020111e+00 9.1959219173363067e+00 7.7547513807502952e+01 9.8248052473166197e+01 2.2945330777083484e+01 1.3800733529620817e+02 6.3097292492928574e+00 -1.6432923208049885e+00 -1.0553468759907308e+02 
      </Row>
      <Row Index="50">
        2.7860322296712638e+00 -3.8752189046924741e+01 -1.8770046494524649e+01 1.0633526108452202e+01 1.9436084935164922e+02 -5.1695774826622801e+02 -7.1122370300240618e+01 -2.3116373133063462e+01 -1.2941739080298191e+01 4.0264867453706756e+00 4.5892242412107407e+01 3.9972521778336159e+01 -6.7764687051821682e+00 -7.1127139050336368e+01 -1.9016005337692332e+02 -5.3392661580530694e+02 -1.4618660145380261e+01 1.9652104618603971e+01 2.1814699768212904e+00 -4.3260556174376688e+01 -2.8739829318782085e+01 -1.6134983468017708e+01 -1.0438432584371731e+02 -1.5756724766153930e+03 8.4296018513652598e+02 3.8985362878024716e+01 7.1668473074486982e+00 8.5231860942992057e+00 -8.4827491259420640e-01 1.9494666122077888e+01 -2.2870454016482469e+01 -1.9848856063837820e+02 2.2198101122570806e+03 3.0475601152324998e+02 3.1804096033817132e+01 -8.8327522392710307e+00 8.7316141522595903e-01 -3.8056767381406154e-01 3.3397331534689236e+01 3.7740522779432126e+00 1.8220386835715544e+01 -4.0443813426724228e+02 -1.2614114155271513e+03 1.6328797618657518e+00 2.4664125599647164e+00 -6.7829584890948240e+00 -2.8789543223469671e+00 1.8520150955856593e+01 -2.0047284219419694e+01 2.2945330774912748e+01 8.8295551316355613e+01 3.3105896504501271e+02 -8.3633845629896300e+00 -5.7663907968498620e+00 -2.4911818235048290e+02 
      </Row>
      <Row Index="51">
        1.6191582746163476e+01 6.0768316212110221e+01 -2.3773268422973342e+02 5.5028661432443187e+01 1.4315444198660553e+03 -3.6410417895913124e+03 -1.4421273896535859e+03 -2.1454691713396460e+02 -6.6160056693479419e+00 2.6592668731464073e+01 6.1568834286183119e+01 1.7948482716223225e+02 -8.7138597503479104e+01 -9.2703448500222294e+02 -1.6259540646076202e+03 -6.5214426879016683e+03 -1.1704544156405609e+02 2.5419628982432187e+01 9.5479315598495305e+00 -2.5069881834089756e+02 5.6534483958035707e+01 -4.1978309159167111e+01 -8.7442413527891040e+02 9.5030510315299034e+02 1.0607204693105072e+04 2.6700879228487611e+02 -3.2363652933388948e+01 4.5861327226040885e+01 -1.7144619493931532e+02 4.5348767329705879e+01 -8.3234002547469572e+01 -1.7470433616759256e+03 8.0597108319997787e+03 3.6284389268318191e+03 1.8520358550734818e+02 8.0700868857093155e-01 2.8602751854723465e+00 -1.7454214585439331e+01 2.0214970930197609e+02 2.8122093368554488e+01 2.9717750880005769e+02 8.5844557203352451e+01 1.4771074391607873e+05 5.0041262001730502e+01 2.8234389652352547e+00 -3.4759744748705998e+01 -5.7777249621358351e+00 2.1778231546026655e+02 -1.2964557812199928e+02 1.3800732292799512e+02 3.3105894713755697e+02 4.7589464791899984e+05 -5.2523404276929796e+01 6.2770400036242791e+00 -4.7518324225216411e+05 
      </Row>
      <Row Index="52">
        3.5794499366839005e-01 -2.9329052673147089e+01 1.0706156983132843e+01 -2.2538698989576176e+00 -1.7693973816640209e+00 -5.5986067945003379e+02 -9.1580607938154117e+01 1.6383933507039217e+02 1.2325788162650611e+00 -9.5130678707860596e+00 4.4438133346904351e+01 -4.1151943058604104e+01 -8.5003286027760012e+00 7.7688880434621069e+01 -4.7849762339087465e+02 1.5749257263063134e+02 9.5079187835653087e+01 9.0609135449369660e-01 5.7030840478159917e-01 -4.4147960537871768e+01 3.3616114037370039e+01 1.0559461060994522e+01 -6.4836928706050458e+01 -2.3898680066319139e+02 -1.1757757570084686e+02 -1.5195075223291025e+02 9.4261939873733631e+00 -1.0154132474517709e+01 7.0317837787304597e+01 1.8078944663761831e+00 1.1579436059192689e+01 -8.5151868935864513e+01 -1.0430304197972873e+02 -6.8058947222169991e+01 1.9334541832236710e+01 -1.7385848382584754e+00 5.9265804818712797e-02 -1.2358910688472552e+01 -6.2738016832878003e+01 -6.6217534625325882e+00 4.9310106989783350e+01 -2.7611216241734473e+02 1.6538897939352887e+02 3.2961043517516799e+01 2.4728280202216624e-02 5.7713107543326352e+00 -4.2979607584600821e+00 -3.1656625385615754e+01 8.2563321394070730e+00 6.3097292501231337e+00 -8.3633845606344153e+00 -5.2523403981289981e+01 4.3370398770077855e+01 -3.8837140060760191e+00 4.4861606216023361e+01 
      </Row>
      <Row Index="53">
        -5.1522107563755393e-01 1.1264540589160767e+01 -7.0369542329405803e+00 2.7748166804686036e-01 -6.6793366230308564e+00 -7.9642764297667782e+01 1.1478394617763996e+01 -1.3810062449100116e+01 5.4605508093171737e+00 1.2254643736015325e+00 -8.6824274021522569e+00 7.4932683393388047e+00 -9.3677516931996418e-01 -3.0078765420797410e+01 -1.7025254543631581e+02 -2.0276490321125316e+01 -1.6930082930351965e+01 -8.0661229605769691e+00 -1.3058294798408099e-01 6.3024675008849727e+00 -3.6926999397845819e+00 -1.6998883140661860e+00 1.9548622119177253e+01 -1.1883112112228491e+02 9.7706897216812649e+00 2.2531565585831899e+01 -1.0320760656728902e+01 2.3096584147031241e-01 -1.1081053892606178e+01 -2.8415662811494862e+00 -8.0104436240031807e-01 -3.9361139592915606e-01 3.1526970239927323e+01 6.9267414632205160e+00 3.2792510367114005e+00 6.0836832458081815e+00 1.3076718670824475e-01 2.5305681870124439e+00 1.1117517620558401e+01 1.5765659208493483e+00 1.1668123877592489e+00 2.7014263167298066e+02 -9.5140121007641003e+00 -8.5970981518520517e-01 -3.0554096306326106e-02 -2.7578092994570413e-01 1.0799436031646317e+00 1.0111480509265315e+01 -3.2162625530237694e+00 -1.6432923209612280e+00 -5.7663907973264656e+00 6.2770394748235532e+00 -3.8837140060535180e+00 5.0226514434616183e+00 -4.7874084782858688e+00 
      </Row>
      <Row Index="54">
        -1.2803264415124431e+01 -7.0747700241394341e+01 1.6504992083879188e+02 -3.7564144180389121e+01 -1.0417711844933219e+03 2.3380576084852219e+03 1.1957582890940830e+03 1.6983361327182502e+02 6.7583001297898591e+00 -2.0557126459665596e+01 3.7023446988314390e+00 -1.3396920389030129e+02 5.6388764494506177e+01 5.1321794692578260e+02 1.3855503079295158e+03 5.5428182960906997e+03 8.9649626680533402e+01 -1.9695558551698923e+01 -1.1040955030359328e+01 1.1409712064266205e+02 -2.2870738160796463e+01 3.3294908650219440e+01 8.6830036835372448e+02 -4.6166669636964798e+02 -8.9681712526176125e+03 -1.8794326243735850e+02 2.3722407566820038e+01 -3.8918108201236464e+01 1.4626527336984873e+02 -3.1688721369719133e+01 5.8326220563685638e+01 1.3046590096075088e+03 -5.8703363065719604e+03 -3.0818082113051787e+03 -1.3069607132859528e+02 -8.1650524958968163e-01 -2.1302526873878378e+00 -9.3981752004765440e-01 -1.5993238767345684e+02 -1.9157019419129938e+01 -2.2232938178314362e+02 -6.8083179742097855e+02 -1.5014964707000711e+05 -3.6427642227034084e+01 -1.9152645590074826e+00 2.8467080982751213e+01 1.1233307917427737e-01 -1.5510271593788639e+02 9.1680173809814733e+01 -1.0553467523620930e+02 -2.4911816444434226e+02 -4.7518324221637932e+05 4.4861606506630778e+01 -4.7874090060940944e+00 4.7464676035193668e+05 
      </Row>
    </InverseHessian>
  </Weights>
</MethodSetup>
